#include <params/include/conv1.h>

__ro_hinv mat_t conv1_weight_meta = {
	.dims = {6, 1, 5, 5},
	.len_dims = 4,
	.strides = {25, 25, 5, 1},
	.data = (fixed *)conv1_weight
};

__ro_hinv mat_t conv1_bias_meta = {
	.dims = {1, 6},
	.len_dims = 2,
	.strides = {6, 1},
	.data = (fixed *)conv1_bias
};

__ro_hinv _q15 conv1_weight[] = {
	_Q15(-0.06771088),	_Q15(-0.0143292155),	_Q15(-0.03632313),	_Q15(-0.01809931),
	_Q15(-0.036879264),	_Q15(-0.029213289),	_Q15(-0.06355152),	_Q15(-0.08447568),
	_Q15(0.01554476),	_Q15(-0.059628375),	_Q15(-0.018145282),	_Q15(-0.04065289),
	_Q15(-0.015338661),	_Q15(-0.062104523),	_Q15(-0.01001331),	_Q15(0.02826516),
	_Q15(-0.042299427),	_Q15(0.03490197),	_Q15(0.0057254517),	_Q15(-0.026230771),
	_Q15(0.050643124),	_Q15(0.027473208),	_Q15(0.06563708),	_Q15(-0.025620136),
	_Q15(0.05833787),	_Q15(-0.017522374),	_Q15(0.011335594),	_Q15(0.007959877),
	_Q15(-0.058762796),	_Q15(-0.023784086),	_Q15(0.023703264),	_Q15(0.021047346),
	_Q15(-0.0039734016),	_Q15(-0.047562778),	_Q15(0.019152042),	_Q15(0.03295805),
	_Q15(0.082996145),	_Q15(0.009506),	_Q15(-0.006428832),	_Q15(-0.07876449),
	_Q15(0.0827708),	_Q15(0.047406632),	_Q15(-0.027635211),	_Q15(0.02025138),
	_Q15(-0.061818063),	_Q15(0.007271232),	_Q15(0.0839351),	_Q15(0.04259728),
	_Q15(-0.056642264),	_Q15(-0.06119643),	_Q15(0.021915678),	_Q15(0.049091376),
	_Q15(0.03181044),	_Q15(-0.021399438),	_Q15(-0.04611368),	_Q15(0.06214711),
	_Q15(0.08123797),	_Q15(0.026044453),	_Q15(0.0033192583),	_Q15(0.026861237),
	_Q15(0.05102847),	_Q15(0.0014293354),	_Q15(-0.023166856),	_Q15(0.08089472),
	_Q15(0.06886179),	_Q15(-0.04051074),	_Q15(-0.075332426),	_Q15(-0.07773581),
	_Q15(0.028116215),	_Q15(-0.016735459),	_Q15(-0.04453265),	_Q15(-0.03542324),
	_Q15(0.020932067),	_Q15(-0.06523914),	_Q15(-0.020893376),	_Q15(-0.06276139),
	_Q15(-0.008602754),	_Q15(-0.04424773),	_Q15(0.03422563),	_Q15(-0.002856458),
	_Q15(0.023749286),	_Q15(-0.05425734),	_Q15(-0.026377054),	_Q15(-0.057759266),
	_Q15(0.048369553),	_Q15(-0.05050747),	_Q15(-0.0475721),	_Q15(-0.06322989),
	_Q15(-0.0045950576),	_Q15(0.031150343),	_Q15(0.009534428),	_Q15(-0.002200408),
	_Q15(-0.045499496),	_Q15(-0.028843837),	_Q15(0.008444551),	_Q15(-0.022558874),
	_Q15(0.049187522),	_Q15(-0.03870372),	_Q15(-0.0011864216),	_Q15(-0.024706896),
	_Q15(0.049734436),	_Q15(0.048714947),	_Q15(0.07171156),	_Q15(0.08590372),
	_Q15(0.06121113),	_Q15(0.07806856),	_Q15(0.060517933),	_Q15(0.0074468045),
	_Q15(0.0153609365),	_Q15(-0.009486803),	_Q15(-0.015448151),	_Q15(-0.031009188),
	_Q15(-0.022244347),	_Q15(-0.03798158),	_Q15(-0.08308315),	_Q15(-0.039079465),
	_Q15(-0.06207536),	_Q15(-0.07355463),	_Q15(-0.07475952),	_Q15(0.009473736),
	_Q15(-0.0114794),	_Q15(0.006567742),	_Q15(0.004227845),	_Q15(-0.015641782),
	_Q15(-0.019202488),	_Q15(-0.050679155),	_Q15(0.07171988),	_Q15(0.03927571),
	_Q15(0.104307815),	_Q15(-0.022896562),	_Q15(-0.0349194),	_Q15(-0.0004479722),
	_Q15(0.06870246),	_Q15(0.09373223),	_Q15(0.05930446),	_Q15(-0.054159064),
	_Q15(-0.07339378),	_Q15(0.050423153),	_Q15(0.054123536),	_Q15(0.087601595),
	_Q15(-0.019253826),	_Q15(-0.077743106),	_Q15(-0.03926574),	_Q15(0.04755156),
	_Q15(0.06114029),	_Q15(-0.050820827),	_Q15(-0.10313746),	_Q15(-0.05966053),
	_Q15(-0.040564336),	_Q15(0.07601105)
};

__ro_hinv _q15 conv1_bias[] = {
	_Q15(-0.024345238),	_Q15(0.043960586),	_Q15(0.068455234),	_Q15(0.0064108404),
	_Q15(-0.007074341),	_Q15(0.038943537)
};

