#include <include/conv1.h>

__ro_hinv mat_t conv1_weight_meta = {
	.dims = {1, 1, 3, 3},
	.len_dims = 4,
	.strides = {1, 1, 3, 1},
	.data = (fixed *)conv1_weight
};

__ro_hinv mat_t conv1_bias_meta = {
	.dims = {1, 1},
	.len_dims = 2,
	.strides = {1, 1},
	.data = (fixed *)conv1_bias
};

__ro_hinv _q15 conv1_weight[] = {
	_Q15(-0.01913418),	_Q15(0.017219646),	_Q15(0.04873146),	_Q15(0.0019475528),
	_Q15(-0.014310441),	_Q15(-0.039094415),	_Q15(0.0059722625),	_Q15(-0.01927078),
	_Q15(0.014050664),	_Q15(0.0001687659),	_Q15(-0.025725277),	_Q15(-0.06007174),
	_Q15(-0.05508234),	_Q15(-0.0494699),	_Q15(0.008653691),	_Q15(-0.019464774),
	_Q15(-0.057674676),	_Q15(-0.06438716),	_Q15(-0.017924378),	_Q15(-0.013835175),
	_Q15(-0.06743482),	_Q15(-0.08563015),	_Q15(-0.06866658),	_Q15(-0.07299848),
	_Q15(-0.059595715),	_Q15(-0.05017301),	_Q15(-0.08536984),	_Q15(-0.04486857),
	_Q15(-0.081940554),	_Q15(-0.0055149696),	_Q15(-0.067841634),	_Q15(-0.055254705),
	_Q15(-0.05637028),	_Q15(-0.019289374),	_Q15(-0.0052201417),	_Q15(-0.03827469),
	_Q15(-0.018304083),	_Q15(0.08794923),	_Q15(0.08987444),	_Q15(0.080401435),
	_Q15(0.08255358),	_Q15(0.15141766),	_Q15(0.086909376),	_Q15(0.12760915),
	_Q15(0.1378326),	_Q15(0.08632262),	_Q15(0.105782695),	_Q15(0.003388937),
	_Q15(0.020056278),	_Q15(0.018726617),	_Q15(-0.048639074),	_Q15(0.008290108),
	_Q15(-0.057391338),	_Q15(0.01851964),	_Q15(-0.02106395),	_Q15(-0.0009033375),
	_Q15(-0.08867175),	_Q15(0.015051973),	_Q15(-0.03645503),	_Q15(-0.02369905),
	_Q15(-0.031178687),	_Q15(-0.047937814),	_Q15(-0.058329184),	_Q15(0.0049928688),
	_Q15(-0.04576351),	_Q15(-0.046205934),	_Q15(-0.022296106),	_Q15(-0.0051219077),
	_Q15(0.0016134784),	_Q15(-0.06379141),	_Q15(0.026735464),	_Q15(-0.018430684),
	_Q15(-0.042774033),	_Q15(-0.058151882),	_Q15(-0.049175575),	_Q15(-0.026595479),
	_Q15(-0.04605644),	_Q15(0.013269213),	_Q15(0.02340029),	_Q15(0.016241124),
	_Q15(-0.0732263),	_Q15(-0.08021152),	_Q15(-0.049787242),	_Q15(-0.031938948),
	_Q15(-0.024631845),	_Q15(-0.062217437),	_Q15(-0.008196302),	_Q15(-0.0075227763),
	_Q15(-0.065029494),	_Q15(-0.030339772),	_Q15(-0.057073325),	_Q15(-0.047148455),
	_Q15(0.0052099694),	_Q15(-0.019887447),	_Q15(-0.036980312),	_Q15(-0.048278622),
	_Q15(-0.035402782),	_Q15(-0.031003602),	_Q15(-0.012512151),	_Q15(-0.054858148),
	_Q15(0.033005513),	_Q15(-0.00855081),	_Q15(0.012249611),	_Q15(0.01263894),
	_Q15(0.0676357),	_Q15(0.04034794),	_Q15(0.063608855),	_Q15(0.047453396),
	_Q15(0.0831067),	_Q15(-0.00027517023),	_Q15(0.058202237),	_Q15(0.05836411),
	_Q15(0.013724673),	_Q15(0.06558004),	_Q15(0.050930757),	_Q15(-0.049141735),
	_Q15(0.012112681),	_Q15(-0.051940113),	_Q15(-0.0061164633),	_Q15(-0.05188523),
	_Q15(-0.06061352),	_Q15(-0.08118444),	_Q15(-0.058557976),	_Q15(-0.08049824),
	_Q15(-0.08569069),	_Q15(-0.028137488),	_Q15(-0.054067288),	_Q15(0.117763266),
	_Q15(0.1556472),	_Q15(0.019390317),	_Q15(-0.026760729),	_Q15(-0.07055512),
	_Q15(0.015299403),	_Q15(0.14213324),	_Q15(0.06009576),	_Q15(-0.087806866),
	_Q15(-0.081563525),	_Q15(-0.05522343),	_Q15(0.16204622),	_Q15(0.08098442),
	_Q15(-0.018570345),	_Q15(-0.054207537),	_Q15(-0.038350638),	_Q15(0.11391326),
	_Q15(0.08640945),	_Q15(-0.059911348),	_Q15(-0.04742302),	_Q15(-0.019332236),
	_Q15(0.043914046),	_Q15(0.15879469)
};

__ro_hinv _q15 conv1_bias[] = {
	_Q15(-0.02591381),	_Q15(0.03287473),	_Q15(-0.01671272),	_Q15(-0.009383293),
	_Q15(0.016975284),	_Q15(0.008730038)
};

