#include <params/include/conv2.h>

__ro_hinv mat_t conv2_weight_meta = {
	.dims = {16, 6, 5, 5},
	.len_dims = 4,
	.strides = {150, 25, 5, 1},
	.data = (fixed *)conv2_weight
};

__ro_hinv mat_t conv2_bias_meta = {
	.dims = {1, 16},
	.len_dims = 2,
	.strides = {16, 1},
	.data = (fixed *)conv2_bias
};

__ro_hinv _q15 conv2_weight[] = {
	_Q15(-0.027827945),	_Q15(0.000670698),	_Q15(0.013735441),	_Q15(-0.01686365),
	_Q15(-0.014166894),	_Q15(-0.0044843205),	_Q15(0.017710226),	_Q15(-0.009897669),
	_Q15(-0.018295981),	_Q15(-0.01886282),	_Q15(0.0038974807),	_Q15(0.02617689),
	_Q15(0.03235785),	_Q15(0.0237783),	_Q15(-0.010890081),	_Q15(-0.008247403),
	_Q15(0.02488941),	_Q15(0.024537323),	_Q15(0.0064220782),	_Q15(0.016261589),
	_Q15(-0.046345335),	_Q15(-0.032608442),	_Q15(-0.038051017),	_Q15(-0.029856907),
	_Q15(-0.016480088),	_Q15(0.04733754),	_Q15(0.012380909),	_Q15(0.017162872),
	_Q15(0.025259798),	_Q15(0.04295422),	_Q15(0.0328388),	_Q15(0.006651704),
	_Q15(0.017697636),	_Q15(0.025854439),	_Q15(0.02305344),	_Q15(0.018520936),
	_Q15(-0.005558436),	_Q15(0.033154763),	_Q15(0.04284429),	_Q15(0.008086099),
	_Q15(0.013517135),	_Q15(-0.004688033),	_Q15(0.0398153),	_Q15(0.029696563),
	_Q15(0.02277801),	_Q15(0.003423584),	_Q15(-0.0046512876),	_Q15(0.0066367304),
	_Q15(0.033850837),	_Q15(0.026423894),	_Q15(0.010390756),	_Q15(-0.049206793),
	_Q15(-0.05284022),	_Q15(-0.02467706),	_Q15(0.0018677145),	_Q15(-0.0065412396),
	_Q15(-0.05422219),	_Q15(-0.08087385),	_Q15(-0.04322283),	_Q15(-0.039218713),
	_Q15(-0.014178503),	_Q15(-0.035561126),	_Q15(-0.0453109),	_Q15(-0.056225393),
	_Q15(-0.057129335),	_Q15(-0.006615137),	_Q15(-0.013292776),	_Q15(-0.013182356),
	_Q15(-0.01665519),	_Q15(-0.039419614),	_Q15(0.00147842),	_Q15(0.014885489),
	_Q15(0.012100858),	_Q15(0.026479172),	_Q15(0.011619846),	_Q15(0.0013658297),
	_Q15(0.0009906119),	_Q15(0.00939754),	_Q15(-0.009438666),	_Q15(0.017202826),
	_Q15(0.015852716),	_Q15(0.02014904),	_Q15(0.020464098),	_Q15(0.028622735),
	_Q15(0.026453692),	_Q15(0.020650793),	_Q15(0.038744193),	_Q15(0.025911307),
	_Q15(0.029717477),	_Q15(0.023580365),	_Q15(-0.028379321),	_Q15(-0.025027882),
	_Q15(-0.008015897),	_Q15(0.003122677),	_Q15(0.0017975164),	_Q15(-0.03377211),
	_Q15(-0.039558396),	_Q15(-0.041330643),	_Q15(-0.016911682),	_Q15(-0.004712156),
	_Q15(0.00061575865),	_Q15(-0.031133888),	_Q15(-0.049015418),	_Q15(-0.025711495),
	_Q15(-0.018986499),	_Q15(-0.06168925),	_Q15(-0.11031231),	_Q15(-0.10287045),
	_Q15(-0.070060454),	_Q15(-0.026844917),	_Q15(-0.047502533),	_Q15(-0.042637326),
	_Q15(-0.055254664),	_Q15(-0.057061207),	_Q15(-0.020160548),	_Q15(-0.040404867),
	_Q15(-0.031580165),	_Q15(-0.01951345),	_Q15(-0.044972282),	_Q15(-0.028679792),
	_Q15(0.029866364),	_Q15(0.02938503),	_Q15(0.03502636),	_Q15(0.012386358),
	_Q15(0.021894593),	_Q15(0.047854725),	_Q15(0.039904505),	_Q15(0.056109197),
	_Q15(0.057616726),	_Q15(0.05808883),	_Q15(0.041222792),	_Q15(0.044240896),
	_Q15(0.03672966),	_Q15(0.01704873),	_Q15(0.04364101),	_Q15(0.00959889),
	_Q15(-0.00048975),	_Q15(-0.0075504626),	_Q15(0.009533161),	_Q15(-0.0030200453),
	_Q15(-0.00048675408),	_Q15(-0.027635468),	_Q15(-0.013723897),	_Q15(-0.025132094),
	_Q15(-0.021303078),	_Q15(-0.0011751378),	_Q15(0.005792492),	_Q15(0.017091885),
	_Q15(0.013859629),	_Q15(-0.005763733),	_Q15(-0.005951095),	_Q15(-0.009089365),
	_Q15(-0.034792244),	_Q15(-0.014630539),	_Q15(-0.0025411888),	_Q15(-0.013004951),
	_Q15(-0.025376754),	_Q15(-0.049416516),	_Q15(-0.052658413),	_Q15(-0.00025735312),
	_Q15(0.03559228),	_Q15(0.035175413),	_Q15(0.011933338),	_Q15(-0.03285707),
	_Q15(-0.004404866),	_Q15(0.0550047),	_Q15(0.037204884),	_Q15(0.049692832),
	_Q15(0.014192305),	_Q15(0.019277882),	_Q15(0.006263116),	_Q15(-0.0132314265),
	_Q15(-0.00961647),	_Q15(0.011460673),	_Q15(0.025777005),	_Q15(-0.0051883017),
	_Q15(-0.010742238),	_Q15(-0.0037736367),	_Q15(0.0020084605),	_Q15(-0.0034859919),
	_Q15(-0.065858744),	_Q15(-0.06512605),	_Q15(-0.05616211),	_Q15(-0.026301028),
	_Q15(0.014653653),	_Q15(-0.056533154),	_Q15(-0.0817182),	_Q15(-0.080911),
	_Q15(-0.065659516),	_Q15(-0.042747002),	_Q15(0.013960946),	_Q15(0.006400655),
	_Q15(0.033756603),	_Q15(-0.012224201),	_Q15(-0.014027702),	_Q15(0.03638471),
	_Q15(0.0382324),	_Q15(0.06983671),	_Q15(0.03593841),	_Q15(0.028897677),
	_Q15(-0.010786047),	_Q15(0.00832267),	_Q15(-0.007293282),	_Q15(0.011193968),
	_Q15(-0.021795873),	_Q15(0.032855183),	_Q15(0.04535898),	_Q15(0.04026903),
	_Q15(0.05468275),	_Q15(0.032125168),	_Q15(-0.073162116),	_Q15(-0.03264472),
	_Q15(0.017296879),	_Q15(0.06939828),	_Q15(0.04804987),	_Q15(-0.029030522),
	_Q15(-0.073351234),	_Q15(-0.12175659),	_Q15(-0.08399178),	_Q15(-0.03307078),
	_Q15(0.0009904301),	_Q15(-0.015984984),	_Q15(-0.014393125),	_Q15(-0.02382745),
	_Q15(-0.053967282),	_Q15(0.014142758),	_Q15(0.011497583),	_Q15(-0.0371629),
	_Q15(-0.04266704),	_Q15(-0.016801607),	_Q15(0.004157262),	_Q15(0.013725199),
	_Q15(-0.021328133),	_Q15(-0.00028087897),	_Q15(-0.018720271),	_Q15(0.017711615),
	_Q15(0.014557841),	_Q15(0.02572113),	_Q15(0.026921816),	_Q15(-0.00018366722),
	_Q15(0.009904528),	_Q15(0.023458352),	_Q15(0.019750398),	_Q15(0.03357016),
	_Q15(0.027272638),	_Q15(-0.009721237),	_Q15(-0.017979613),	_Q15(0.0029963583),
	_Q15(0.018833471),	_Q15(0.0031743674),	_Q15(-0.00036420897),	_Q15(-0.025248166),
	_Q15(-0.024133781),	_Q15(-0.023982946),	_Q15(-0.033860795),	_Q15(0.051577635),
	_Q15(0.029053308),	_Q15(0.039566994),	_Q15(0.016406571),	_Q15(-0.022668097),
	_Q15(0.020082876),	_Q15(0.060495704),	_Q15(0.059708443),	_Q15(0.044219308),
	_Q15(0.038071364),	_Q15(-0.06218819),	_Q15(-0.08246089),	_Q15(-0.06214617),
	_Q15(0.019242326),	_Q15(0.04937575),	_Q15(-0.013243532),	_Q15(-0.027397519),
	_Q15(-0.0761406),	_Q15(-0.034024384),	_Q15(-0.033366363),	_Q15(0.019128205),
	_Q15(0.033960816),	_Q15(0.060042992),	_Q15(0.029944332),	_Q15(-0.09089113),
	_Q15(0.015726851),	_Q15(0.049808413),	_Q15(0.04376693),	_Q15(0.050998252),
	_Q15(-0.0070851557),	_Q15(-0.06944834),	_Q15(-0.02552497),	_Q15(0.00951295),
	_Q15(0.05904597),	_Q15(0.031456333),	_Q15(-0.05656873),	_Q15(-0.061416317),
	_Q15(-0.047470342),	_Q15(-0.015329408),	_Q15(-0.017484745),	_Q15(-0.0076856897),
	_Q15(-0.027158411),	_Q15(-0.030174011),	_Q15(-0.021639857),	_Q15(-0.042244703),
	_Q15(-0.037363335),	_Q15(-0.039197642),	_Q15(-0.03235295),	_Q15(0.007819103),
	_Q15(-0.0059732273),	_Q15(-0.044036042),	_Q15(-0.041341357),	_Q15(-0.036235664),
	_Q15(-0.0089947935),	_Q15(0.0088136885),	_Q15(-0.047110837),	_Q15(-0.0085607525),
	_Q15(-0.012654387),	_Q15(0.040586196),	_Q15(0.03897745),	_Q15(-0.010277865),
	_Q15(-0.006967927),	_Q15(0.027037393),	_Q15(0.044051643),	_Q15(0.0020457609),
	_Q15(0.006597417),	_Q15(-0.0061555505),	_Q15(0.025251364),	_Q15(0.014682637),
	_Q15(-0.010802512),	_Q15(-0.016837232),	_Q15(0.017301055),	_Q15(0.030542538),
	_Q15(0.004498796),	_Q15(0.008813572),	_Q15(-0.011968867),	_Q15(0.008479606),
	_Q15(-0.00018404158),	_Q15(-0.0073054493),	_Q15(-0.037926767),	_Q15(-0.003919456),
	_Q15(-0.010427764),	_Q15(-0.008261509),	_Q15(-0.03553672),	_Q15(-0.026216274),
	_Q15(-0.017826295),	_Q15(-0.019546958),	_Q15(-0.010530233),	_Q15(0.01739427),
	_Q15(0.0115161855),	_Q15(0.025157724),	_Q15(-0.00725829),	_Q15(-0.0029699812),
	_Q15(0.030677238),	_Q15(0.0017248321),	_Q15(-0.023017377),	_Q15(0.022332607),
	_Q15(0.030538376),	_Q15(0.046822928),	_Q15(0.047387),	_Q15(0.015660934),
	_Q15(0.00645394),	_Q15(0.020818435),	_Q15(0.0388478),	_Q15(0.03632919),
	_Q15(0.01725842),	_Q15(0.04836253),	_Q15(0.02171183),	_Q15(0.0009938633),
	_Q15(-0.0082040895),	_Q15(0.044348437),	_Q15(0.026925609),	_Q15(0.0413654),
	_Q15(-0.005825606),	_Q15(-0.012759855),	_Q15(0.046958048),	_Q15(0.015665932),
	_Q15(0.016892362),	_Q15(0.013205081),	_Q15(0.0323848),	_Q15(0.004832863),
	_Q15(-0.03007692),	_Q15(-0.016000655),	_Q15(0.000740584),	_Q15(-0.0124915065),
	_Q15(-0.00849802),	_Q15(-0.027585644),	_Q15(-0.027106874),	_Q15(-0.005273638),
	_Q15(0.031711146),	_Q15(0.009696958),	_Q15(-0.026758073),	_Q15(-0.013986795),
	_Q15(0.0258513),	_Q15(0.00025367166),	_Q15(-0.019170461),	_Q15(-0.016837064),
	_Q15(0.023018174),	_Q15(0.02336173),	_Q15(0.0024600073),	_Q15(0.009552908),
	_Q15(-0.0063291606),	_Q15(-0.018440602),	_Q15(-0.0075210906),	_Q15(-0.017616635),
	_Q15(-0.014257405),	_Q15(0.026825588),	_Q15(0.04862447),	_Q15(0.053575866),
	_Q15(0.015627291),	_Q15(0.02306453),	_Q15(0.04009036),	_Q15(0.05110459),
	_Q15(0.057511516),	_Q15(0.044858363),	_Q15(0.003103968),	_Q15(0.020149326),
	_Q15(0.042131223),	_Q15(0.03924653),	_Q15(0.03252705),	_Q15(-0.0011213417),
	_Q15(-0.002118098),	_Q15(-0.012123306),	_Q15(0.007002434),	_Q15(-0.013995227),
	_Q15(0.013026732),	_Q15(-0.008762396),	_Q15(-0.003378663),	_Q15(0.00041047682),
	_Q15(0.039775096),	_Q15(-0.01458294),	_Q15(-0.025124623),	_Q15(-0.05977174),
	_Q15(-0.0040174867),	_Q15(0.0010937294),	_Q15(0.024308922),	_Q15(-0.03561149),
	_Q15(-0.05716967),	_Q15(-0.018035935),	_Q15(-0.025307942),	_Q15(0.029163545),
	_Q15(0.021019517),	_Q15(-0.037853584),	_Q15(-0.06209696),	_Q15(-0.023595413),
	_Q15(0.025260003),	_Q15(0.033865847),	_Q15(0.020520316),	_Q15(-0.021276468),
	_Q15(-0.011216933),	_Q15(0.0562261),	_Q15(0.04739749),	_Q15(0.013240069),
	_Q15(0.003620271),	_Q15(-0.0055793324),	_Q15(0.0017180459),	_Q15(0.013184791),
	_Q15(0.017991219),	_Q15(0.008314189),	_Q15(0.008608683),	_Q15(-0.0020561488),
	_Q15(0.001099559),	_Q15(0.003316994),	_Q15(0.033221994),	_Q15(-0.0014482308),
	_Q15(0.053080086),	_Q15(0.04513385),	_Q15(0.010265137),	_Q15(-0.0121103935),
	_Q15(-0.0065975552),	_Q15(-0.005786759),	_Q15(-0.026391309),	_Q15(-0.024012862),
	_Q15(-0.035423335),	_Q15(-0.021127969),	_Q15(-0.032503854),	_Q15(-0.04498462),
	_Q15(-0.018751862),	_Q15(0.0050964775),	_Q15(0.017568342),	_Q15(0.0073666563),
	_Q15(0.016464844),	_Q15(0.011696705),	_Q15(-0.00018135895),	_Q15(-0.0037648918),
	_Q15(-0.024959488),	_Q15(-0.04175543),	_Q15(-0.013867369),	_Q15(-0.016679756),
	_Q15(0.026299626),	_Q15(-0.009012588),	_Q15(-0.0290974),	_Q15(-0.004128169),
	_Q15(0.04044964),	_Q15(0.0055261385),	_Q15(-0.009926029),	_Q15(0.016065141),
	_Q15(0.023928525),	_Q15(0.006192585),	_Q15(-0.004282476),	_Q15(-0.01746353),
	_Q15(-0.01588063),	_Q15(-0.02548597),	_Q15(-0.032901812),	_Q15(-0.0040654056),
	_Q15(0.022354946),	_Q15(0.046416268),	_Q15(0.058206078),	_Q15(-0.001774382),
	_Q15(-0.028299743),	_Q15(0.0047649597),	_Q15(0.035231363),	_Q15(0.036062784),
	_Q15(-0.016123958),	_Q15(-0.051654413),	_Q15(-0.038737044),	_Q15(-0.064052776),
	_Q15(-0.064922735),	_Q15(-0.025287759),	_Q15(-0.006145407),	_Q15(0.006917722),
	_Q15(0.008040068),	_Q15(0.033895828),	_Q15(0.07000524),	_Q15(0.049438242),
	_Q15(-0.003810592),	_Q15(0.03796814),	_Q15(0.03450535),	_Q15(0.064716175),
	_Q15(0.032751177),	_Q15(0.013669172),	_Q15(0.023493232),	_Q15(0.026647935),
	_Q15(0.037867937),	_Q15(0.022145264),	_Q15(0.010047322),	_Q15(0.032770805),
	_Q15(0.012246045),	_Q15(-0.0033720224),	_Q15(0.020215683),	_Q15(0.033046227),
	_Q15(-0.002731775),	_Q15(0.015381306),	_Q15(-0.0133869825),	_Q15(-0.009641633),
	_Q15(0.018414592),	_Q15(-0.041334044),	_Q15(-0.050860606),	_Q15(-0.0338583),
	_Q15(-0.009039417),	_Q15(-0.015096137),	_Q15(-0.026116045),	_Q15(-0.032244932),
	_Q15(0.009136878),	_Q15(-0.002728664),	_Q15(0.009887503),	_Q15(0.025602158),
	_Q15(-0.015951395),	_Q15(-0.028414292),	_Q15(-0.021448923),	_Q15(0.06604394),
	_Q15(0.049953245),	_Q15(-0.023749294),	_Q15(-0.052967303),	_Q15(-0.0674443),
	_Q15(-0.0058898986),	_Q15(-0.039525148),	_Q15(-0.10047303),	_Q15(-0.07352656),
	_Q15(-0.004138653),	_Q15(-0.04197401),	_Q15(0.039234474),	_Q15(0.093388006),
	_Q15(0.06591057),	_Q15(0.050921395),	_Q15(0.023040399),	_Q15(0.08453067),
	_Q15(0.08575282),	_Q15(0.045540065),	_Q15(0.035311352),	_Q15(0.02914981),
	_Q15(0.04095942),	_Q15(0.075225316),	_Q15(0.06525876),	_Q15(0.047084406),
	_Q15(-0.0046378677),	_Q15(0.01162996),	_Q15(-0.0059179286),	_Q15(-0.00633756),
	_Q15(0.009988651),	_Q15(-0.078111105),	_Q15(-0.07578216),	_Q15(-0.047641102),
	_Q15(-0.040729556),	_Q15(-0.013357935),	_Q15(-0.04679873),	_Q15(-0.04313582),
	_Q15(-0.031325888),	_Q15(-0.029972889),	_Q15(-0.0037842249),	_Q15(0.01920817),
	_Q15(0.029237157),	_Q15(-0.012913498),	_Q15(-0.030368052),	_Q15(-0.022921504),
	_Q15(0.018031003),	_Q15(0.004121467),	_Q15(-0.0032884502),	_Q15(-0.008116407),
	_Q15(0.0015600118),	_Q15(0.04721663),	_Q15(0.03438344),	_Q15(0.046997238),
	_Q15(0.0024051918),	_Q15(0.003425805),	_Q15(0.030755175),	_Q15(0.003322309),
	_Q15(0.033958483),	_Q15(-0.007946697),	_Q15(0.014313621),	_Q15(0.007453843),
	_Q15(-0.0031227833),	_Q15(-0.02381345),	_Q15(-0.021581555),	_Q15(-0.019997906),
	_Q15(0.013969657),	_Q15(-0.011731519),	_Q15(-0.031164223),	_Q15(-0.006601526),
	_Q15(-0.021480918),	_Q15(-0.016798962),	_Q15(-0.00969292),	_Q15(-0.04077877),
	_Q15(-0.02610644),	_Q15(-0.027971484),	_Q15(0.022554103),	_Q15(0.024703784),
	_Q15(-0.029861096),	_Q15(-0.0268227),	_Q15(-0.02250718),	_Q15(0.002917423),
	_Q15(-0.00398531),	_Q15(0.008280632),	_Q15(-0.013714776),	_Q15(-0.009048719),
	_Q15(-0.03023319),	_Q15(-0.022636252),	_Q15(0.01459045),	_Q15(-0.010199126),
	_Q15(0.017333306),	_Q15(0.024933707),	_Q15(0.027687633),	_Q15(0.013814017),
	_Q15(-0.025841173),	_Q15(-0.0141058685),	_Q15(0.0049120765),	_Q15(0.01191854),
	_Q15(0.02654988),	_Q15(0.017204843),	_Q15(-0.013829349),	_Q15(-0.021027396),
	_Q15(-0.041744452),	_Q15(-0.060537096),	_Q15(-0.080461435),	_Q15(-0.035392616),
	_Q15(0.076652355),	_Q15(0.052639667),	_Q15(0.00024384346),	_Q15(-0.005463419),
	_Q15(0.0031161278),	_Q15(0.010117142),	_Q15(0.04340202),	_Q15(0.059788976),
	_Q15(0.03288824),	_Q15(0.05890325),	_Q15(-0.004491517),	_Q15(0.016506566),
	_Q15(0.025389804),	_Q15(0.044440135),	_Q15(-0.0069683003),	_Q15(0.027161097),
	_Q15(0.025685238),	_Q15(0.020764817),	_Q15(-0.0018449492),	_Q15(0.010866292),
	_Q15(0.014782003),	_Q15(0.022503758),	_Q15(0.022660512),	_Q15(0.026136508),
	_Q15(0.003098652),	_Q15(0.011648571),	_Q15(-0.016983982),	_Q15(-0.0022872265),
	_Q15(-0.01563823),	_Q15(-0.021035574),	_Q15(0.008527742),	_Q15(-0.03914337),
	_Q15(-0.008327924),	_Q15(-0.015136682),	_Q15(-0.032294586),	_Q15(-0.028133102),
	_Q15(-0.031639952),	_Q15(-0.041371286),	_Q15(-0.0261384),	_Q15(0.0023001116),
	_Q15(0.043335706),	_Q15(0.034927677),	_Q15(0.05383654),	_Q15(0.013855261),
	_Q15(0.02628247),	_Q15(0.024631714),	_Q15(-0.005834468),	_Q15(0.021069426),
	_Q15(-0.00033727748),	_Q15(-0.0011243443),	_Q15(0.058744434),	_Q15(0.026505332),
	_Q15(0.025899468),	_Q15(-0.0021700258),	_Q15(0.028493851),	_Q15(0.044286028),
	_Q15(0.06873526),	_Q15(0.055993024),	_Q15(0.052877277),	_Q15(0.050500695),
	_Q15(0.02873548),	_Q15(0.061173487),	_Q15(0.06850268),	_Q15(0.040966094),
	_Q15(0.0063646813),	_Q15(-0.03065935),	_Q15(-0.020594817),	_Q15(-0.02173328),
	_Q15(0.0046663466),	_Q15(-0.011330986),	_Q15(-0.07863935),	_Q15(-0.10806356),
	_Q15(-0.09680005),	_Q15(-0.047407538),	_Q15(-0.0439405),	_Q15(0.037213933),
	_Q15(-0.002357806),	_Q15(-0.025019048),	_Q15(0.023197804),	_Q15(0.021040957),
	_Q15(0.014442116),	_Q15(0.008760118),	_Q15(-0.018619811),	_Q15(0.023527911),
	_Q15(0.049963526),	_Q15(-0.025764009),	_Q15(-0.02151739),	_Q15(0.004686205),
	_Q15(-0.0077004065),	_Q15(-0.011986883),	_Q15(0.048673917),	_Q15(0.018718215),
	_Q15(0.0038822931),	_Q15(0.013812925),	_Q15(0.018233819),	_Q15(0.05564152),
	_Q15(0.05185406),	_Q15(-0.0027933028),	_Q15(-0.018309435),	_Q15(0.011186482),
	_Q15(-0.0023949668),	_Q15(0.030402286),	_Q15(0.02249265),	_Q15(0.027242443),
	_Q15(-0.0033581702),	_Q15(-0.044415075),	_Q15(-0.049203668),	_Q15(-0.0025387832),
	_Q15(0.021981243),	_Q15(0.023946194),	_Q15(-0.028728334),	_Q15(-0.03266972),
	_Q15(-0.058770522),	_Q15(-0.035490368),	_Q15(-0.004086885),	_Q15(0.017081108),
	_Q15(-0.031251926),	_Q15(0.00056988955),	_Q15(0.073064856),	_Q15(0.03661989),
	_Q15(0.023449222),	_Q15(0.03039567),	_Q15(-0.012136092),	_Q15(-0.032231446),
	_Q15(-0.011662907),	_Q15(0.019500362),	_Q15(0.04144766),	_Q15(0.030356891),
	_Q15(-0.008963876),	_Q15(-0.03855764),	_Q15(-0.08063711),	_Q15(-0.022655608),
	_Q15(0.0587678),	_Q15(0.05295407),	_Q15(0.013005462),	_Q15(-0.05783218),
	_Q15(-0.07042392),	_Q15(-0.014071999),	_Q15(0.0250294),	_Q15(0.06031152),
	_Q15(0.0041100364),	_Q15(-0.019170547),	_Q15(0.010425599),	_Q15(0.033012282),
	_Q15(-0.0034197639),	_Q15(-0.051515922),	_Q15(-0.03652911),	_Q15(0.017210914),
	_Q15(0.06129499),	_Q15(0.02151257),	_Q15(0.07546),	_Q15(-0.03197019),
	_Q15(-0.096151955),	_Q15(-0.00906158),	_Q15(0.034154378),	_Q15(0.06677886),
	_Q15(0.052924752),	_Q15(-0.021955524),	_Q15(-0.07507613),	_Q15(-0.059394695),
	_Q15(0.025454171),	_Q15(0.034300886),	_Q15(0.036307063),	_Q15(0.03109913),
	_Q15(-0.0439618),	_Q15(0.031478062),	_Q15(0.018927097),	_Q15(-0.010685822),
	_Q15(0.012312163),	_Q15(0.008215475),	_Q15(0.018465212),	_Q15(0.043917995),
	_Q15(-0.0056342515),	_Q15(0.01145248),	_Q15(-0.01027992),	_Q15(-0.025844738),
	_Q15(-0.026911218),	_Q15(0.01949554),	_Q15(0.008210619),	_Q15(0.012788135),
	_Q15(-0.0036909815),	_Q15(-0.03325377),	_Q15(-0.045493722),	_Q15(0.011880537),
	_Q15(0.016287772),	_Q15(0.016818212),	_Q15(0.0072633456),	_Q15(-0.053888805),
	_Q15(-0.062094305),	_Q15(-0.012718405),	_Q15(0.01704212),	_Q15(0.0015576609),
	_Q15(0.026139174),	_Q15(-0.0043910663),	_Q15(-0.0051496844),	_Q15(-0.042033717),
	_Q15(0.046652634),	_Q15(0.081417486),	_Q15(0.0752647),	_Q15(0.010953689),
	_Q15(-0.016856441),	_Q15(-0.080888584),	_Q15(-0.03644476),	_Q15(0.0037545613),
	_Q15(0.022157324),	_Q15(0.0001278824),	_Q15(-0.06042018),	_Q15(-0.104985595),
	_Q15(-0.082684025),	_Q15(-0.031446233),	_Q15(-0.0007724581),	_Q15(-0.023525717),
	_Q15(-0.08712116),	_Q15(-0.08271521),	_Q15(-0.06751826),	_Q15(-0.047298927),
	_Q15(-0.026492963),	_Q15(0.024452941),	_Q15(-0.0054771225),	_Q15(-0.009194477),
	_Q15(-0.03722917),	_Q15(-0.038283758),	_Q15(-0.01623087),	_Q15(-0.01445978),
	_Q15(0.008604163),	_Q15(0.034322772),	_Q15(0.01900701),	_Q15(-0.033884924),
	_Q15(-0.044597793),	_Q15(0.026267653),	_Q15(0.057262123),	_Q15(0.06604692),
	_Q15(0.04250423),	_Q15(-0.07647678),	_Q15(-0.002949624),	_Q15(0.014686189),
	_Q15(0.05744756),	_Q15(0.062162947),	_Q15(0.0073405774),	_Q15(-0.054368135),
	_Q15(0.032146752),	_Q15(-0.0012973488),	_Q15(0.035249036),	_Q15(0.010204598),
	_Q15(0.012884133),	_Q15(0.0112343645),	_Q15(-0.008244666),	_Q15(0.019476978),
	_Q15(-0.009397247),	_Q15(0.0014087011),	_Q15(-0.0018167677),	_Q15(0.0081434045),
	_Q15(-0.0021023874),	_Q15(0.0034342913),	_Q15(0.0232434),	_Q15(-0.016063854),
	_Q15(-0.044760894),	_Q15(-0.03650885),	_Q15(-0.0034560014),	_Q15(-0.0020356893),
	_Q15(0.0002084133),	_Q15(-0.022016441),	_Q15(-0.027074238),	_Q15(0.006853228),
	_Q15(0.03055826),	_Q15(0.005260959),	_Q15(0.016281363),	_Q15(0.04557289),
	_Q15(0.024689876),	_Q15(-0.0043862383),	_Q15(0.0051729763),	_Q15(0.036728498),
	_Q15(0.026277984),	_Q15(0.012120284),	_Q15(0.003682501),	_Q15(0.013867946),
	_Q15(0.021282205),	_Q15(0.06329533),	_Q15(0.048565973),	_Q15(0.01893019),
	_Q15(-0.014457623),	_Q15(0.002908605),	_Q15(0.053287707),	_Q15(0.039248843),
	_Q15(0.015675152),	_Q15(-0.034992468),	_Q15(0.005236835),	_Q15(0.029471751),
	_Q15(0.052777242),	_Q15(-0.002110928),	_Q15(-0.02310613),	_Q15(-0.07439472),
	_Q15(-0.07639005),	_Q15(-0.054987993),	_Q15(-0.024713138),	_Q15(0.00019743298),
	_Q15(-0.032673664),	_Q15(-0.09600337),	_Q15(-0.02811817),	_Q15(-0.008354521),
	_Q15(-0.008129121),	_Q15(-0.01668909),	_Q15(-0.058387097),	_Q15(-0.07568236),
	_Q15(-0.015631858),	_Q15(0.020795748),	_Q15(-0.014786984),	_Q15(-0.045522273),
	_Q15(-0.0665326),	_Q15(-0.051682726),	_Q15(0.019010708),	_Q15(-0.008797842),
	_Q15(0.0012945753),	_Q15(-0.043101247),	_Q15(-0.061621122),	_Q15(0.006789315),
	_Q15(0.0037004242),	_Q15(-0.0029953136),	_Q15(0.007938993),	_Q15(0.026967412),
	_Q15(0.024410684),	_Q15(-0.0032303997),	_Q15(0.010984598),	_Q15(0.012052959),
	_Q15(-0.0019703403),	_Q15(-0.00091106823),	_Q15(0.013450592),	_Q15(0.015190068),
	_Q15(0.019519696),	_Q15(0.017764674),	_Q15(0.015131371),	_Q15(0.005310343),
	_Q15(-0.0030126658),	_Q15(-0.011687007),	_Q15(0.011676783),	_Q15(0.004143885),
	_Q15(-0.025265303),	_Q15(-0.009677468),	_Q15(-0.024774272),	_Q15(0.019524382),
	_Q15(-0.068962716),	_Q15(-0.06152542),	_Q15(-0.03976136),	_Q15(-0.015824003),
	_Q15(0.0028437343),	_Q15(-0.069167726),	_Q15(-0.10107229),	_Q15(-0.062079255),
	_Q15(-0.02685559),	_Q15(-0.01393319),	_Q15(-0.05389409),	_Q15(-0.088608444),
	_Q15(-0.07577144),	_Q15(-0.026434788),	_Q15(0.01585408),	_Q15(-0.045277122),
	_Q15(-0.079338945),	_Q15(-0.078981444),	_Q15(-0.076546125),	_Q15(0.0069813034),
	_Q15(0.014104729),	_Q15(-0.057110783),	_Q15(-0.07913736),	_Q15(-0.050374694),
	_Q15(-0.04185526),	_Q15(0.04319071),	_Q15(0.0035391052),	_Q15(0.00419957),
	_Q15(0.0008292939),	_Q15(0.023561658),	_Q15(0.034166273),	_Q15(0.039464675),
	_Q15(0.015553478),	_Q15(-0.0062068533),	_Q15(0.029552681),	_Q15(0.02504817),
	_Q15(0.06564204),	_Q15(0.018247359),	_Q15(0.011078814),	_Q15(0.04563798),
	_Q15(0.017430011),	_Q15(0.026001798),	_Q15(0.038023394),	_Q15(-0.01314932),
	_Q15(0.008189277),	_Q15(0.02148837),	_Q15(0.012064543),	_Q15(0.01340958),
	_Q15(0.012032552),	_Q15(-0.0050778384),	_Q15(-0.0056518367),	_Q15(-0.023550004),
	_Q15(-0.02151843),	_Q15(0.0016113201),	_Q15(-0.029312842),	_Q15(0.0032122948),
	_Q15(0.009282491),	_Q15(0.035967298),	_Q15(0.0043369667),	_Q15(-0.013257229),
	_Q15(-0.0019824856),	_Q15(0.002892829),	_Q15(0.012994188),	_Q15(0.028250773),
	_Q15(0.0015513188),	_Q15(0.004512008),	_Q15(0.013489008),	_Q15(-0.02000136),
	_Q15(-0.00063379144),	_Q15(-0.0013072229),	_Q15(0.005316539),	_Q15(0.015578473),
	_Q15(0.0011192157),	_Q15(-0.015218778),	_Q15(0.005844632),	_Q15(0.016711487),
	_Q15(0.009520733),	_Q15(-0.02186722),	_Q15(-0.0083344765),	_Q15(-0.01453705),
	_Q15(-0.008337957),	_Q15(-0.01162531),	_Q15(-0.0144299045),	_Q15(-0.033017483),
	_Q15(-0.017819213),	_Q15(-0.007130292),	_Q15(-0.00042586934),	_Q15(0.039738107),
	_Q15(0.013462129),	_Q15(0.024437837),	_Q15(0.013391552),	_Q15(-0.007186214),
	_Q15(0.012450024),	_Q15(0.013566266),	_Q15(0.023608524),	_Q15(0.006503533),
	_Q15(-0.006720278),	_Q15(-0.0043874406),	_Q15(-0.011639685),	_Q15(0.0048960396),
	_Q15(0.03613808),	_Q15(0.053219367),	_Q15(0.057585984),	_Q15(0.01841176),
	_Q15(0.0047123968),	_Q15(0.016009362),	_Q15(0.016861074),	_Q15(-0.013497262),
	_Q15(-0.042464897),	_Q15(-0.016674621),	_Q15(-0.04921699),	_Q15(-0.04259965),
	_Q15(-0.053953465),	_Q15(-0.06547202),	_Q15(-0.05248618),	_Q15(-0.05202345),
	_Q15(-0.016568892),	_Q15(-0.024695154),	_Q15(-0.027721772),	_Q15(-0.030388607),
	_Q15(-0.06510038),	_Q15(-0.05486312),	_Q15(-0.059244376),	_Q15(-0.05037532),
	_Q15(-0.013776645),	_Q15(-0.018638022),	_Q15(-0.013471958),	_Q15(-0.0030046778),
	_Q15(0.021307644),	_Q15(0.003872091),	_Q15(0.009156176),	_Q15(-0.012123485),
	_Q15(0.0077696373),	_Q15(0.0071933707),	_Q15(0.017538814),	_Q15(0.007636826),
	_Q15(0.026002852),	_Q15(0.021296792),	_Q15(0.01829506),	_Q15(-0.005958208),
	_Q15(0.018300543),	_Q15(0.029012792),	_Q15(0.014770652),	_Q15(-0.00531063),
	_Q15(-0.021925861),	_Q15(0.009041884),	_Q15(0.031316172),	_Q15(0.0045904284),
	_Q15(0.009035841),	_Q15(-0.025549065),	_Q15(0.019021878),	_Q15(0.05171692),
	_Q15(0.022833517),	_Q15(0.03933644),	_Q15(-0.00068379537),	_Q15(0.049888268),
	_Q15(0.047656942),	_Q15(0.037968166),	_Q15(0.044630054),	_Q15(0.01566132),
	_Q15(-0.03968517),	_Q15(-0.02047498),	_Q15(-0.027477164),	_Q15(-0.03294729),
	_Q15(-0.0598277),	_Q15(-0.0156107135),	_Q15(0.0058058887),	_Q15(0.019720608),
	_Q15(-0.0367407),	_Q15(-0.039962567),	_Q15(-0.015499502),	_Q15(-0.0150161),
	_Q15(0.0012765608),	_Q15(-0.010439739),	_Q15(-0.040897846),	_Q15(0.02892372),
	_Q15(0.03878814),	_Q15(0.021406751),	_Q15(0.029324036),	_Q15(-0.0069368514),
	_Q15(0.0269244),	_Q15(0.013609188),	_Q15(0.010237212),	_Q15(-0.0057757385),
	_Q15(-0.019531153),	_Q15(-0.008661234),	_Q15(0.017850285),	_Q15(-0.024926674),
	_Q15(-0.008051281),	_Q15(-0.034938663),	_Q15(0.024038073),	_Q15(-0.0026570356),
	_Q15(-0.0005895204),	_Q15(0.03102119),	_Q15(0.021422822),	_Q15(-0.006465517),
	_Q15(-0.012657027),	_Q15(-0.017963834),	_Q15(-0.006613202),	_Q15(0.005124172),
	_Q15(-0.032579117),	_Q15(-0.01097778),	_Q15(-0.00033944403),	_Q15(-0.025551446),
	_Q15(0.007655383),	_Q15(-0.030270569),	_Q15(-0.018605443),	_Q15(0.025186677),
	_Q15(0.004896707),	_Q15(-0.009423634),	_Q15(-0.007205074),	_Q15(-0.0146735525),
	_Q15(0.02190247),	_Q15(0.026047412),	_Q15(0.017214008),	_Q15(0.010492379),
	_Q15(0.01982706),	_Q15(0.017479736),	_Q15(0.0126162935),	_Q15(0.011493005),
	_Q15(0.008338426),	_Q15(0.029047519),	_Q15(0.019265598),	_Q15(0.007637972),
	_Q15(-0.034555152),	_Q15(0.052050363),	_Q15(0.044057805),	_Q15(0.0121461665),
	_Q15(-0.026923915),	_Q15(0.03945779),	_Q15(0.012552683),	_Q15(0.023661153),
	_Q15(0.037271008),	_Q15(-0.011882695),	_Q15(-0.0059065386),	_Q15(0.005775018),
	_Q15(0.016308129),	_Q15(0.00097169634),	_Q15(0.029208422),	_Q15(-0.00717037),
	_Q15(-0.022290345),	_Q15(0.0013447986),	_Q15(-0.00027002898),	_Q15(0.004170903),
	_Q15(0.013109517),	_Q15(-0.024734614),	_Q15(0.013019128),	_Q15(0.0040964405),
	_Q15(-0.0038365426),	_Q15(0.011587771),	_Q15(-0.046564545),	_Q15(-0.021616567),
	_Q15(0.03885053),	_Q15(0.016735863),	_Q15(0.017556118),	_Q15(-0.026533684),
	_Q15(-0.03832734),	_Q15(-0.059950795),	_Q15(-0.017135626),	_Q15(-0.018921701),
	_Q15(-0.027678015),	_Q15(-0.0050186194),	_Q15(-0.018475551),	_Q15(-0.04238836),
	_Q15(-0.019770417),	_Q15(-0.024637775),	_Q15(-0.015241022),	_Q15(-0.021566387),
	_Q15(-0.05829578),	_Q15(-0.07420767),	_Q15(-0.01598382),	_Q15(-0.013651298),
	_Q15(-0.037320957),	_Q15(-0.00894645),	_Q15(-0.033901807),	_Q15(0.0053139115),
	_Q15(0.016075162),	_Q15(0.017822541),	_Q15(-0.014557111),	_Q15(0.014856912),
	_Q15(-0.0066990163),	_Q15(-0.0069631618),	_Q15(0.01923563),	_Q15(-0.00587703),
	_Q15(0.00069269043),	_Q15(0.0009645567),	_Q15(-0.011171183),	_Q15(0.025416557),
	_Q15(0.023142356),	_Q15(0.012923624),	_Q15(-0.0024090074),	_Q15(0.021709371),
	_Q15(0.012605186),	_Q15(0.018407734),	_Q15(-0.020851705),	_Q15(-0.022351773),
	_Q15(-0.0024797),	_Q15(0.014590003),	_Q15(-0.015531838),	_Q15(-0.019194813),
	_Q15(-0.017001215),	_Q15(0.023009546),	_Q15(0.036378477),	_Q15(-0.00053143845),
	_Q15(-0.00030027254),	_Q15(-0.056871854),	_Q15(-0.027468774),	_Q15(-0.04426688),
	_Q15(0.0032629087),	_Q15(-0.014234089),	_Q15(-0.043636706),	_Q15(-0.033728175),
	_Q15(-0.062443744),	_Q15(-0.052992754),	_Q15(-0.02023405),	_Q15(-0.02749781),
	_Q15(-0.0049411966),	_Q15(-0.032013442),	_Q15(-0.056238662),	_Q15(-0.04761529),
	_Q15(-0.01485296),	_Q15(-0.01864639),	_Q15(-0.061803397),	_Q15(-0.07330634),
	_Q15(-0.044289842),	_Q15(0.012982217),	_Q15(0.034070328),	_Q15(0.04589455),
	_Q15(0.033286646),	_Q15(0.0015351959),	_Q15(0.032043576),	_Q15(0.0037804446),
	_Q15(0.030851036),	_Q15(0.034913354),	_Q15(0.01431081),	_Q15(0.020317683),
	_Q15(0.030110313),	_Q15(0.020973084),	_Q15(0.033085763),	_Q15(0.013699322),
	_Q15(0.020399092),	_Q15(0.019088008),	_Q15(0.02337851),	_Q15(0.013646805),
	_Q15(-0.00052607665),	_Q15(-0.023071788),	_Q15(-0.025782684),	_Q15(-0.018982401),
	_Q15(0.021374313),	_Q15(0.03813439),	_Q15(0.0066564237),	_Q15(0.0020831414),
	_Q15(-0.018933807),	_Q15(-0.010099639),	_Q15(-0.0009980702),	_Q15(0.0069173616),
	_Q15(0.015422229),	_Q15(0.011519867),	_Q15(-0.0010880469),	_Q15(-0.0023127927),
	_Q15(0.013062111),	_Q15(0.024798198),	_Q15(0.015739722),	_Q15(0.029088762),
	_Q15(0.0015580278),	_Q15(-0.021842273),	_Q15(0.01068632),	_Q15(0.025552087),
	_Q15(0.016265774),	_Q15(0.030579232),	_Q15(0.0012477308),	_Q15(-0.029709483),
	_Q15(-0.013729708),	_Q15(0.009243128),	_Q15(0.0083702495),	_Q15(0.001749569),
	_Q15(0.0016315803),	_Q15(0.0285746),	_Q15(0.04789679),	_Q15(0.014221289),
	_Q15(-0.0049977875),	_Q15(-0.0060729794),	_Q15(-0.024163008),	_Q15(0.02684151),
	_Q15(0.009276125),	_Q15(-0.031063978),	_Q15(-0.035002913),	_Q15(-0.015384843),
	_Q15(-0.0187626),	_Q15(0.0037744525),	_Q15(-0.045220178),	_Q15(-0.013819647),
	_Q15(-0.020048348),	_Q15(0.0051375353),	_Q15(0.0018965108),	_Q15(-0.037795044),
	_Q15(-0.022309693),	_Q15(-0.005977063),	_Q15(0.03144521),	_Q15(0.014843034),
	_Q15(0.016089326),	_Q15(0.0010326518),	_Q15(0.013970043),	_Q15(0.01291636),
	_Q15(-0.0083246315),	_Q15(0.006262924),	_Q15(0.010767058),	_Q15(0.013575188),
	_Q15(0.011068837),	_Q15(-0.004445842),	_Q15(0.031002484),	_Q15(0.020606771),
	_Q15(0.004649027),	_Q15(0.004017685),	_Q15(0.005441341),	_Q15(-0.00079639745),
	_Q15(0.021769283),	_Q15(0.039520666),	_Q15(0.04425939),	_Q15(-0.005477094),
	_Q15(0.020255331),	_Q15(0.024765916),	_Q15(0.009250701),	_Q15(0.01867445),
	_Q15(0.0116938455),	_Q15(0.026220443),	_Q15(0.028185986),	_Q15(0.016574023),
	_Q15(-0.00082187523),	_Q15(0.015806247),	_Q15(-0.0028054023),	_Q15(0.023492087),
	_Q15(0.0058408533),	_Q15(0.02855435),	_Q15(0.01685636),	_Q15(-0.010446749),
	_Q15(-0.01804271),	_Q15(-0.0034210803),	_Q15(-0.005635103),	_Q15(0.032964528),
	_Q15(-0.02254186),	_Q15(0.0017711219),	_Q15(-0.022796145),	_Q15(0.0109143015),
	_Q15(0.0030402064),	_Q15(-0.026983459),	_Q15(-0.022895575),	_Q15(-0.017456232),
	_Q15(-0.029089967),	_Q15(-0.006437805),	_Q15(-0.003576343),	_Q15(0.012445102),
	_Q15(-0.02819881),	_Q15(-0.042909846),	_Q15(-0.051698674),	_Q15(0.007977863),
	_Q15(0.00013732087),	_Q15(-0.01628462),	_Q15(-0.022230819),	_Q15(-0.030394586),
	_Q15(-0.01603664),	_Q15(0.011165236),	_Q15(0.033528287),	_Q15(0.028628062),
	_Q15(-0.015053935),	_Q15(-0.009639948),	_Q15(0.04974686),	_Q15(0.041933928),
	_Q15(0.0584187),	_Q15(-0.0064345463),	_Q15(-0.00124021),	_Q15(0.020868087),
	_Q15(0.029624281),	_Q15(0.016491473),	_Q15(0.004255307),	_Q15(0.01685309),
	_Q15(0.0150720505),	_Q15(0.06703402),	_Q15(0.037627693),	_Q15(0.037286673),
	_Q15(-0.02933726),	_Q15(-0.031236354),	_Q15(-0.0063663363),	_Q15(0.016452735),
	_Q15(0.03171221),	_Q15(-0.009009846),	_Q15(-0.026163725),	_Q15(-0.035855062),
	_Q15(-0.03170926),	_Q15(-0.019932084),	_Q15(-0.04883636),	_Q15(-0.046713438),
	_Q15(0.006863837),	_Q15(-0.007449966),	_Q15(-0.03835428),	_Q15(-0.039406203),
	_Q15(-0.024187725),	_Q15(-0.023164326),	_Q15(0.0026661197),	_Q15(-0.0085647525),
	_Q15(0.020734735),	_Q15(-0.005917109),	_Q15(0.034813497),	_Q15(-0.00029937044),
	_Q15(-0.032183286),	_Q15(-0.0080326935),	_Q15(0.005074832),	_Q15(0.04039107),
	_Q15(-0.004953092),	_Q15(-0.0038027521),	_Q15(0.020333426),	_Q15(0.015702857),
	_Q15(-0.00011781937),	_Q15(-0.009091206),	_Q15(-0.0032934782),	_Q15(0.021630175),
	_Q15(0.026381653),	_Q15(0.025789587),	_Q15(0.015626777),	_Q15(-0.011751289),
	_Q15(0.019016575),	_Q15(0.008116264),	_Q15(0.023974322),	_Q15(0.013092),
	_Q15(0.010725092),	_Q15(0.008531326),	_Q15(-0.01246788),	_Q15(-0.020881629),
	_Q15(-0.010408745),	_Q15(0.0026895101),	_Q15(0.018666064),	_Q15(0.024206046),
	_Q15(-0.016769694),	_Q15(-0.024858942),	_Q15(0.022022182),	_Q15(0.011932504),
	_Q15(0.005863825),	_Q15(-0.038588546),	_Q15(-0.014709999),	_Q15(0.015804177),
	_Q15(0.014090518),	_Q15(-0.005680828),	_Q15(-0.034011267),	_Q15(-0.032029387),
	_Q15(-0.005673251),	_Q15(0.00027884042),	_Q15(0.02795989),	_Q15(-0.028206592),
	_Q15(-0.033284325),	_Q15(0.0026940596),	_Q15(0.0016706426),	_Q15(0.026988618),
	_Q15(-0.0113597615),	_Q15(0.002082877),	_Q15(-0.0027342974),	_Q15(0.001640899),
	_Q15(-0.0007284232),	_Q15(-0.016607817),	_Q15(-0.034362964),	_Q15(-0.009400075),
	_Q15(-0.024959806),	_Q15(-0.01789868),	_Q15(-0.030345693),	_Q15(-0.03095458),
	_Q15(-0.049608592),	_Q15(-0.05175814),	_Q15(-0.02013232),	_Q15(-0.025168046),
	_Q15(0.00894604),	_Q15(-0.014644224),	_Q15(-0.03520626),	_Q15(-0.029245434),
	_Q15(-0.013879087),	_Q15(0.007389883),	_Q15(-0.0036937734),	_Q15(-0.01119117),
	_Q15(0.018433692),	_Q15(0.03057747),	_Q15(0.008181308),	_Q15(-0.016529217),
	_Q15(-0.013006673),	_Q15(-0.017273523),	_Q15(-0.0032999392),	_Q15(0.031506866),
	_Q15(-0.005534643),	_Q15(-0.003091521),	_Q15(0.017818822),	_Q15(0.020159874),
	_Q15(0.028558241),	_Q15(0.010175379),	_Q15(0.0008432009),	_Q15(0.008453038),
	_Q15(0.024499154),	_Q15(0.011071476),	_Q15(0.0054233577),	_Q15(-0.02182768),
	_Q15(-0.0014059145),	_Q15(0.023774602),	_Q15(-0.014736776),	_Q15(0.023564281),
	_Q15(0.022785338),	_Q15(0.052840196),	_Q15(0.03033879),	_Q15(0.028159786),
	_Q15(-0.0018590839),	_Q15(0.032253157),	_Q15(0.05283756),	_Q15(0.025695145),
	_Q15(0.031707108),	_Q15(0.029153999),	_Q15(0.029965641),	_Q15(0.04781535),
	_Q15(-0.0027385724),	_Q15(-0.0001908456),	_Q15(-0.010434773),	_Q15(0.013319693),
	_Q15(0.025394628),	_Q15(0.03556626),	_Q15(0.010263581),	_Q15(0.028707704),
	_Q15(-0.014661914),	_Q15(0.027658364),	_Q15(0.03620036),	_Q15(0.05674987),
	_Q15(0.00887604),	_Q15(-0.028846774),	_Q15(-0.02908299),	_Q15(-0.022663403),
	_Q15(-0.024485871),	_Q15(0.02832244),	_Q15(-0.013518493),	_Q15(-0.046459995),
	_Q15(-0.048168566),	_Q15(-0.008961158),	_Q15(-0.0031927763),	_Q15(-0.023020871),
	_Q15(-0.04654373),	_Q15(-0.02251422),	_Q15(-0.037931062),	_Q15(-0.027755914),
	_Q15(0.0014351502),	_Q15(-0.0473585),	_Q15(-0.016741952),	_Q15(0.01423938),
	_Q15(5.637124e-05),	_Q15(-0.0097614415),	_Q15(-0.061149202),	_Q15(0.008174077),
	_Q15(0.00034861834),	_Q15(-0.009416517),	_Q15(-0.004980569),	_Q15(0.024488712),
	_Q15(0.02915221),	_Q15(-0.0064870976),	_Q15(-0.015678184),	_Q15(0.020124389),
	_Q15(0.02642092),	_Q15(0.01111335),	_Q15(-0.0017411292),	_Q15(-0.0020677855),
	_Q15(-0.004888573),	_Q15(-0.024181465),	_Q15(-0.026806662),	_Q15(0.007446369),
	_Q15(-0.0047575934),	_Q15(-0.011508139),	_Q15(0.0017049524),	_Q15(-0.023892274),
	_Q15(0.00050676725),	_Q15(0.0015057311),	_Q15(0.008614652),	_Q15(0.020136094),
	_Q15(0.019362234),	_Q15(0.016290605),	_Q15(-0.0055189934),	_Q15(-0.0008147817),
	_Q15(-0.03267973),	_Q15(-0.023287319),	_Q15(0.009964886),	_Q15(-0.0021617885),
	_Q15(-0.00377317),	_Q15(-0.014221092),	_Q15(-0.024655351),	_Q15(0.012243129),
	_Q15(0.0147884125),	_Q15(0.0013288176),	_Q15(-0.009898218),	_Q15(-0.029292773),
	_Q15(-0.007138877),	_Q15(-0.011380783),	_Q15(-0.013401386),	_Q15(-0.023886021),
	_Q15(-0.012339605),	_Q15(-0.032509446),	_Q15(-0.017001884),	_Q15(-0.008708655),
	_Q15(-0.010505658),	_Q15(0.00072826206),	_Q15(-0.029642606),	_Q15(-0.023892755),
	_Q15(-0.005984361),	_Q15(-0.015796943),	_Q15(-0.014017632),	_Q15(0.015068276),
	_Q15(0.011603308),	_Q15(0.042286806),	_Q15(0.018901719),	_Q15(-0.029794872),
	_Q15(-0.017242108),	_Q15(-0.0014594955),	_Q15(0.04702957),	_Q15(0.058990385),
	_Q15(0.035134085),	_Q15(0.046759933),	_Q15(0.023024168),	_Q15(0.00036706004),
	_Q15(0.025601283),	_Q15(0.04624163),	_Q15(0.06561877),	_Q15(0.040518366),
	_Q15(-0.010459163),	_Q15(0.0075522684),	_Q15(0.0014124167),	_Q15(0.013976842),
	_Q15(0.024412476),	_Q15(0.009578254),	_Q15(0.028742291),	_Q15(0.025708895),
	_Q15(0.02662868),	_Q15(0.0013215739),	_Q15(-0.010115974),	_Q15(-0.008934746),
	_Q15(0.0051305327),	_Q15(-0.011491519),	_Q15(-0.016523173),	_Q15(0.0052768826),
	_Q15(-0.017622162),	_Q15(-0.027468763),	_Q15(-0.024559455),	_Q15(0.00097019534),
	_Q15(-0.014343467),	_Q15(0.011348693),	_Q15(0.015295682),	_Q15(-0.016050715),
	_Q15(-0.022537448),	_Q15(-0.006704859),	_Q15(-0.0061773336),	_Q15(-0.007982894),
	_Q15(0.009241157),	_Q15(-0.0113699185),	_Q15(0.022815328),	_Q15(0.020847242),
	_Q15(0.031744692),	_Q15(0.0068885237),	_Q15(-0.0037376827),	_Q15(-0.007261264),
	_Q15(-0.02144981),	_Q15(-0.060950205),	_Q15(-0.012736113),	_Q15(-0.02381468),
	_Q15(0.024055207),	_Q15(0.059104927),	_Q15(0.06478292),	_Q15(0.05509996),
	_Q15(0.01669573),	_Q15(0.019824736),	_Q15(0.038697008),	_Q15(0.051135965),
	_Q15(0.06219864),	_Q15(0.041942395),	_Q15(-0.017795209),	_Q15(0.028548468),
	_Q15(0.043785963),	_Q15(0.049146287),	_Q15(0.050394375),	_Q15(-0.021450987),
	_Q15(-0.03491352),	_Q15(-0.035597447),	_Q15(0.0074968114),	_Q15(-0.01685123),
	_Q15(-0.0048428755),	_Q15(-0.023966078),	_Q15(-0.015409504),	_Q15(-0.023890242),
	_Q15(-0.018548375),	_Q15(-0.0026763242),	_Q15(-0.019081824),	_Q15(-0.0016848729),
	_Q15(-0.006082457),	_Q15(-0.011071559),	_Q15(-0.022616753),	_Q15(0.0045082956),
	_Q15(-0.0005829649),	_Q15(0.00012062193),	_Q15(0.009621084),	_Q15(0.02577797),
	_Q15(0.0026673004),	_Q15(-0.027533151),	_Q15(-0.006932096),	_Q15(-0.014188882),
	_Q15(0.028177751),	_Q15(-0.011279595),	_Q15(-0.003211628),	_Q15(0.017995471),
	_Q15(-0.0027192407),	_Q15(0.03267924),	_Q15(0.008509197),	_Q15(-0.003709701),
	_Q15(0.014340052),	_Q15(0.015575579),	_Q15(-0.0035453558),	_Q15(0.028883228),
	_Q15(0.01194895),	_Q15(-0.02093768),	_Q15(0.01215031),	_Q15(0.010572701),
	_Q15(0.0032716047),	_Q15(-0.012977555),	_Q15(-0.03170582),	_Q15(-0.030866105),
	_Q15(-0.014993285),	_Q15(0.005282742),	_Q15(-0.029894616),	_Q15(-0.026356054),
	_Q15(-0.017551342),	_Q15(-0.02117789),	_Q15(-0.015774518),	_Q15(0.008728848),
	_Q15(0.022684576),	_Q15(0.034838546),	_Q15(0.014540085),	_Q15(0.007927659),
	_Q15(0.006233948),	_Q15(0.031183012),	_Q15(0.020353269),	_Q15(0.012215349),
	_Q15(0.01864141),	_Q15(0.057424765),	_Q15(0.041319214),	_Q15(0.01191983),
	_Q15(-0.005112308),	_Q15(0.026155727),	_Q15(0.060856868),	_Q15(0.063494615),
	_Q15(0.03732993),	_Q15(0.020804677),	_Q15(0.03310528),	_Q15(0.03570648),
	_Q15(0.034413412),	_Q15(0.030453892),	_Q15(0.0054402347),	_Q15(-0.003751444),
	_Q15(-0.016766429),	_Q15(-0.051674128),	_Q15(-0.038307946),	_Q15(-0.03869902),
	_Q15(-0.0058427383),	_Q15(-0.013048348),	_Q15(0.0022153512),	_Q15(-0.02840412),
	_Q15(0.0046458426),	_Q15(-0.029245943),	_Q15(-0.023315955),	_Q15(0.01690766),
	_Q15(-0.020787368),	_Q15(-0.013377249),	_Q15(-0.058052797),	_Q15(-0.031588778),
	_Q15(-0.033011783),	_Q15(-0.012642116),	_Q15(-0.032983605),	_Q15(-0.013578284),
	_Q15(-0.015847232),	_Q15(-0.026095476),	_Q15(0.00074623415),	_Q15(0.03290581),
	_Q15(0.02936376),	_Q15(-0.018079039),	_Q15(-0.0004915729),	_Q15(0.026451612),
	_Q15(0.025272038),	_Q15(0.012645179),	_Q15(0.016309699),	_Q15(-0.019798333),
	_Q15(0.014234584),	_Q15(-0.0025573866),	_Q15(0.029571127),	_Q15(0.009180103),
	_Q15(-0.016264323),	_Q15(-0.018280657),	_Q15(-0.02244847),	_Q15(-0.015212008),
	_Q15(0.023146342),	_Q15(0.0029023583),	_Q15(0.01374368),	_Q15(-0.01056144),
	_Q15(0.0036245189),	_Q15(-0.01761864),	_Q15(-0.006199618),	_Q15(0.008244316),
	_Q15(-0.008690324),	_Q15(-0.0022973178),	_Q15(-0.033942055),	_Q15(-0.024627937),
	_Q15(-0.013157472),	_Q15(-0.044025958),	_Q15(-0.007253752),	_Q15(-0.022080807),
	_Q15(-0.023548655),	_Q15(-0.049385913),	_Q15(0.016669394),	_Q15(-0.03919408),
	_Q15(-0.03640409),	_Q15(-0.05189759),	_Q15(-0.058595005),	_Q15(-0.0369833),
	_Q15(-0.055787083),	_Q15(-0.081264846),	_Q15(-0.05479528),	_Q15(-0.060285173),
	_Q15(-0.035744462),	_Q15(-0.046661545),	_Q15(-0.046753164),	_Q15(-0.057392865),
	_Q15(-0.039970353),	_Q15(0.030621845),	_Q15(0.048183978),	_Q15(0.0906256),
	_Q15(-0.018644253),	_Q15(-0.02697672),	_Q15(0.0011794294),	_Q15(0.018921036),
	_Q15(0.06090835),	_Q15(0.0015336088),	_Q15(-0.06765368),	_Q15(0.012654636),
	_Q15(0.012783282),	_Q15(0.07239441),	_Q15(0.053132836),	_Q15(0.017530974),
	_Q15(-0.014503876),	_Q15(-0.007049729),	_Q15(0.014497935),	_Q15(0.010838012),
	_Q15(0.062415052),	_Q15(0.017303025),	_Q15(-0.0046651177),	_Q15(-0.0049736085),
	_Q15(-0.010081212),	_Q15(0.019676043),	_Q15(0.016515948),	_Q15(-0.003465408),
	_Q15(0.009385123),	_Q15(0.0022135575),	_Q15(-0.009455356),	_Q15(-0.0071314364),
	_Q15(-0.0062526707),	_Q15(-0.0131278),	_Q15(-0.007572223),	_Q15(-0.0059472765),
	_Q15(-0.013057697),	_Q15(-0.01747303),	_Q15(-0.017541502),	_Q15(0.0067394213),
	_Q15(-0.004103379),	_Q15(-0.016690223),	_Q15(-0.016000059),	_Q15(-0.020575233),
	_Q15(-0.019707093),	_Q15(-0.013882154),	_Q15(-0.014693913),	_Q15(0.00083680934),
	_Q15(0.010927558),	_Q15(-0.009649043),	_Q15(-0.0051261825),	_Q15(0.0151880765),
	_Q15(-0.021617675),	_Q15(-0.010311123),	_Q15(-0.0015859985),	_Q15(0.0038497152),
	_Q15(0.010905813),	_Q15(-0.013947304),	_Q15(0.0050700647),	_Q15(0.0029450261),
	_Q15(0.0031464836),	_Q15(-0.004700156),	_Q15(-0.00582867),	_Q15(-0.019608276),
	_Q15(-0.0015781134),	_Q15(-0.010114574),	_Q15(-0.011975067),	_Q15(-0.011763691),
	_Q15(-0.014983045),	_Q15(-0.007158569),	_Q15(-0.015773008),	_Q15(0.013045305),
	_Q15(-0.0017220158),	_Q15(-0.001693844),	_Q15(-0.010454674),	_Q15(0.011691098),
	_Q15(0.0023506521),	_Q15(-0.013863043),	_Q15(0.0042901733),	_Q15(-0.0019682301),
	_Q15(0.012997455),	_Q15(-0.0062665464),	_Q15(-0.0012609552),	_Q15(0.014663373),
	_Q15(-0.012234213),	_Q15(-0.012265352),	_Q15(-0.0042218976),	_Q15(-0.012883683),
	_Q15(-0.018979251),	_Q15(0.010613894),	_Q15(0.0003321391),	_Q15(-0.017364167),
	_Q15(-0.023765884),	_Q15(0.0111093195),	_Q15(0.0046306076),	_Q15(-0.0017277708),
	_Q15(0.014788388),	_Q15(-0.001204434),	_Q15(-0.009261305),	_Q15(-0.0066744536),
	_Q15(-0.019820092),	_Q15(-0.0141831795),	_Q15(-0.021809267),	_Q15(-0.010547948),
	_Q15(-0.019587625),	_Q15(0.003897792),	_Q15(-0.0114833005),	_Q15(0.004317118),
	_Q15(-0.01882862),	_Q15(-0.019053698),	_Q15(0.007072459),	_Q15(0.010633285),
	_Q15(0.0019254369),	_Q15(-0.011546933),	_Q15(-0.000285231),	_Q15(0.007720507),
	_Q15(-0.008169499),	_Q15(0.003869926),	_Q15(-0.009931341),	_Q15(-0.017166657),
	_Q15(-0.016166495),	_Q15(-0.015295627),	_Q15(0.014550289),	_Q15(-0.0006152081),
	_Q15(-0.02136562),	_Q15(0.01693589),	_Q15(0.015107686),	_Q15(-0.0073782997),
	_Q15(-0.011204701),	_Q15(-0.007562625),	_Q15(0.012588378),	_Q15(-0.017851962),
	_Q15(-0.016288683),	_Q15(-0.009507462),	_Q15(0.012972722),	_Q15(-0.019257927),
	_Q15(-0.0060453936),	_Q15(0.012013853),	_Q15(0.012802964),	_Q15(-0.002420748),
	_Q15(-0.0042433343),	_Q15(-0.022169039),	_Q15(0.0022984068),	_Q15(0.0043001925),
	_Q15(0.01457105),	_Q15(0.00010754427),	_Q15(-0.02236025),	_Q15(0.013067333),
	_Q15(0.011328714),	_Q15(-0.022482652),	_Q15(-0.016887989),	_Q15(-0.021023484),
	_Q15(-0.0097929),	_Q15(-0.0091897985),	_Q15(0.017076677),	_Q15(0.016741427),
	_Q15(-0.016750814),	_Q15(-0.0014406723),	_Q15(0.0018654577),	_Q15(0.007722652),
	_Q15(0.009091691),	_Q15(-0.014862788),	_Q15(-0.017396871),	_Q15(-0.022094475),
	_Q15(0.016163569),	_Q15(-0.009738737),	_Q15(-0.005434858),	_Q15(-0.010472074),
	_Q15(-0.0038407664),	_Q15(-0.024614379),	_Q15(-0.02390079),	_Q15(0.01282625),
	_Q15(-0.01350517),	_Q15(0.012152298),	_Q15(0.011947505),	_Q15(0.014337429),
	_Q15(0.005924409),	_Q15(-0.02938393),	_Q15(-0.009364557),	_Q15(0.0070143137),
	_Q15(0.025168596),	_Q15(-0.02131431),	_Q15(-0.01900245),	_Q15(-0.010424328),
	_Q15(0.0012349373),	_Q15(0.021900037),	_Q15(-0.010864661),	_Q15(-0.006187793),
	_Q15(0.0055161123),	_Q15(0.00084068),	_Q15(0.013061264),	_Q15(-0.0026987346),
	_Q15(0.00029565953),	_Q15(0.03439802),	_Q15(0.005283571),	_Q15(0.0022824148),
	_Q15(-0.0009932504),	_Q15(-0.00050348917),	_Q15(0.03174836),	_Q15(0.03317605),
	_Q15(0.028464941),	_Q15(-0.021120079),	_Q15(0.013002953),	_Q15(0.016944647),
	_Q15(0.008537411),	_Q15(0.0013652121),	_Q15(-0.011151409),	_Q15(-0.0040373225),
	_Q15(0.0076891105),	_Q15(0.0136704035),	_Q15(-0.007861022),	_Q15(-0.0020938686),
	_Q15(-0.03654178),	_Q15(-0.0007340147),	_Q15(0.0033599949),	_Q15(-0.00321605),
	_Q15(-0.01750307),	_Q15(-0.0007586113),	_Q15(-0.030016685),	_Q15(-0.030435499),
	_Q15(-0.00035283453),	_Q15(4.3791093e-05),	_Q15(0.002752779),	_Q15(-0.0010158705),
	_Q15(-0.0033929194),	_Q15(-0.0010748663),	_Q15(-0.019380087),	_Q15(0.022204245),
	_Q15(0.032508716),	_Q15(0.0064467695),	_Q15(-0.011417495),	_Q15(-0.0036327313),
	_Q15(0.011960959),	_Q15(0.043200035),	_Q15(0.0023369577),	_Q15(-0.02009131),
	_Q15(0.0427062),	_Q15(0.05296577),	_Q15(0.016248398),	_Q15(0.012327678),
	_Q15(8.9729816e-05),	_Q15(0.037104025),	_Q15(0.015850121),	_Q15(0.008051952),
	_Q15(0.030318037),	_Q15(0.0030732425),	_Q15(0.027474415),	_Q15(0.007925274),
	_Q15(-0.026236253),	_Q15(-0.003287149),	_Q15(0.016249195),	_Q15(-0.0032611338),
	_Q15(-0.020638175),	_Q15(-0.02092224),	_Q15(-0.00295834),	_Q15(-0.0020655512),
	_Q15(-0.015797907),	_Q15(-0.013767049),	_Q15(-0.012686246),	_Q15(0.015800428),
	_Q15(0.029296868),	_Q15(-0.008260861),	_Q15(-0.019227361),	_Q15(-0.012650465),
	_Q15(0.017761126),	_Q15(0.0144942235),	_Q15(-0.0049325246),	_Q15(-0.01279403),
	_Q15(0.017371848),	_Q15(-0.0072166007),	_Q15(0.032112673),	_Q15(-0.0009137962),
	_Q15(0.007992957),	_Q15(0.031565152),	_Q15(0.025365854),	_Q15(0.010818725),
	_Q15(-0.0064709214),	_Q15(-0.0070664654),	_Q15(0.010488044),	_Q15(0.0023350012),
	_Q15(0.027629975),	_Q15(-0.0024791216),	_Q15(0.021296894),	_Q15(0.024253048),
	_Q15(-0.0022287443),	_Q15(0.0062640193),	_Q15(0.011153835),	_Q15(0.01641468),
	_Q15(0.01458183),	_Q15(0.029178442),	_Q15(0.00026686027),	_Q15(0.035366226),
	_Q15(0.007997491),	_Q15(0.034259267),	_Q15(0.034838673),	_Q15(0.026373863),
	_Q15(0.026128527),	_Q15(0.014104866),	_Q15(0.006173854),	_Q15(0.03420983),
	_Q15(0.048715856),	_Q15(-0.023025816),	_Q15(-0.0322994),	_Q15(-0.003982974),
	_Q15(-0.01692518),	_Q15(0.025625711),	_Q15(-0.016620515),	_Q15(-0.014380028),
	_Q15(0.013052896),	_Q15(0.020091807),	_Q15(0.010401981),	_Q15(-0.022684008),
	_Q15(0.007666295),	_Q15(0.030943273),	_Q15(0.03252514),	_Q15(0.0043740054),
	_Q15(-0.016102785),	_Q15(-0.0038012508),	_Q15(0.022979757),	_Q15(-0.02430892),
	_Q15(-0.042674534),	_Q15(-0.0074093062),	_Q15(-0.04145525),	_Q15(-0.016970312),
	_Q15(-0.03997475),	_Q15(-0.027303101),	_Q15(0.02624206),	_Q15(0.012297535),
	_Q15(-0.003587722),	_Q15(-0.0024757748),	_Q15(-0.018741868),	_Q15(0.036931857),
	_Q15(0.022103714),	_Q15(-0.020087646),	_Q15(-0.033226002),	_Q15(-0.021510962),
	_Q15(0.025238404),	_Q15(0.037931755),	_Q15(0.016404549),	_Q15(-0.04137375),
	_Q15(-0.055715207),	_Q15(0.03698449),	_Q15(0.012798218),	_Q15(-0.010996342),
	_Q15(-0.02054229),	_Q15(-0.031112751),	_Q15(-0.008993134),	_Q15(-0.0016779099),
	_Q15(0.0069203908),	_Q15(-0.02330522),	_Q15(-0.03921914),	_Q15(-0.011944865),
	_Q15(0.0028692672),	_Q15(-0.013564777),	_Q15(0.006834313),	_Q15(0.022521336),
	_Q15(0.008992937),	_Q15(-0.012638791),	_Q15(-0.049180057),	_Q15(0.023598146),
	_Q15(0.035299964),	_Q15(0.023599416),	_Q15(-0.017353887),	_Q15(-0.039294258),
	_Q15(0.0030521215),	_Q15(0.03889054),	_Q15(0.0017216301),	_Q15(-0.0239858),
	_Q15(-0.04524787),	_Q15(-0.007391708),	_Q15(0.044499747),	_Q15(-0.027249565),
	_Q15(-0.0082289),	_Q15(-0.024205202),	_Q15(-0.0014405055),	_Q15(0.01474293),
	_Q15(0.000100940786),	_Q15(0.030250343),	_Q15(-0.0022222647),	_Q15(-0.03873531),
	_Q15(-0.02789298),	_Q15(0.022746209),	_Q15(0.016147282),	_Q15(0.009698141),
	_Q15(-0.019642605),	_Q15(-0.043342285),	_Q15(-0.0013072023),	_Q15(-0.0041062804),
	_Q15(0.0027071203),	_Q15(-0.035380952),	_Q15(-0.038292322),	_Q15(0.027455315),
	_Q15(0.010877631),	_Q15(0.0017107576),	_Q15(-0.011809251),	_Q15(-0.030274298),
	_Q15(0.0029442625),	_Q15(0.041942824),	_Q15(0.02721191),	_Q15(0.011000916),
	_Q15(-0.0024999059),	_Q15(0.033203516),	_Q15(0.025597077),	_Q15(0.0113965655),
	_Q15(-0.002240384),	_Q15(0.0014318447),	_Q15(0.03308426),	_Q15(0.02893834),
	_Q15(0.02548601),	_Q15(-0.014154093),	_Q15(-0.009342521),	_Q15(-0.004856726),
	_Q15(0.0012670441),	_Q15(0.031017337),	_Q15(-0.0042911125),	_Q15(-0.036907498),
	_Q15(0.010608199),	_Q15(0.017469542),	_Q15(0.0169098),	_Q15(-0.030312411),
	_Q15(-0.03427106),	_Q15(0.0031553179),	_Q15(-0.020317562),	_Q15(-0.00032658823),
	_Q15(-0.01266007),	_Q15(-0.001048864),	_Q15(-0.015883738),	_Q15(0.026809243),
	_Q15(-0.013664243),	_Q15(-0.053203966),	_Q15(-0.038400736),	_Q15(0.033561803),
	_Q15(0.026090577),	_Q15(-0.02361847),	_Q15(-0.067736074),	_Q15(-0.06564381),
	_Q15(0.07106807),	_Q15(0.051930483),	_Q15(-0.030755984),	_Q15(-0.080152355),
	_Q15(-0.07860837),	_Q15(0.05818688),	_Q15(0.028787978),	_Q15(-0.01355514),
	_Q15(-0.04520727),	_Q15(-0.042852603),	_Q15(0.053182345),	_Q15(0.032260988),
	_Q15(0.02546279),	_Q15(0.007512398),	_Q15(-0.0037224768),	_Q15(0.020090187),
	_Q15(0.024272822),	_Q15(0.05812214),	_Q15(0.07291873),	_Q15(-0.005529782),
	_Q15(-0.0058605494),	_Q15(-0.0014097989),	_Q15(0.045348346),	_Q15(0.06581853),
	_Q15(0.001510567),	_Q15(-0.03970515),	_Q15(-0.024781238),	_Q15(0.010272097),
	_Q15(0.03599068),	_Q15(0.026902564),	_Q15(-0.044720918),	_Q15(-0.03422989),
	_Q15(0.0047685346),	_Q15(0.027752656),	_Q15(0.008423375),	_Q15(-0.019273939),
	_Q15(0.009003266),	_Q15(-0.023513906),	_Q15(0.0058508487),	_Q15(-0.008476027)
};

__ro_hinv _q15 conv2_bias[] = {
	_Q15(-0.005920747),	_Q15(-0.008796203),	_Q15(-0.0013351536),	_Q15(0.014416363),
	_Q15(0.0056562815),	_Q15(-0.01676876),	_Q15(0.023752864),	_Q15(-0.03408826),
	_Q15(-0.020833004),	_Q15(-0.010922202),	_Q15(-0.018366165),	_Q15(0.008292307),
	_Q15(-0.0029392),	_Q15(-0.009180125),	_Q15(0.0014028563),	_Q15(0.003961358)
};

