#include <params/include/conv3.h>

__ro_hinv mat_t conv3_weight_meta = {
	.dims = {120, 16, 5, 5},
	.len_dims = 4,
	.strides = {400, 25, 5, 1},
	.data = (fixed *)conv3_weight
};

__ro_hinv mat_t conv3_bias_meta = {
	.dims = {1, 120},
	.len_dims = 2,
	.strides = {120, 1},
	.data = (fixed *)conv3_bias
};

__ro_hinv _q15 conv3_weight[] = {
	_Q15(-0.0077230697),	_Q15(-0.014143245),	_Q15(0.0039724554),	_Q15(-0.007936506),
	_Q15(0.0052751857),	_Q15(0.04390469),	_Q15(0.04529632),	_Q15(0.03045998),
	_Q15(0.0047759516),	_Q15(0.0028592458),	_Q15(0.0112803215),	_Q15(0.009131475),
	_Q15(-0.010921532),	_Q15(-0.008900389),	_Q15(-0.019922854),	_Q15(-0.019787064),
	_Q15(-0.042983666),	_Q15(-0.0039667846),	_Q15(-0.0071955943),	_Q15(-0.008460594),
	_Q15(0.0069141136),	_Q15(-0.0034404583),	_Q15(0.00062022684),	_Q15(0.00047740448),
	_Q15(0.0044927895),	_Q15(-0.011834636),	_Q15(-0.017294798),	_Q15(-0.020163488),
	_Q15(-0.010006731),	_Q15(-0.011663306),	_Q15(0.01595506),	_Q15(0.0014954461),
	_Q15(-0.03263112),	_Q15(-0.0316089),	_Q15(0.021449134),	_Q15(-0.0011643227),
	_Q15(-0.02209256),	_Q15(0.00192056),	_Q15(-0.0126729375),	_Q15(-0.0020267814),
	_Q15(0.0018433476),	_Q15(0.004847498),	_Q15(0.003239202),	_Q15(-0.0059645376),
	_Q15(0.013176317),	_Q15(0.00164405),	_Q15(0.03074909),	_Q15(0.006921793),
	_Q15(-0.017030347),	_Q15(0.01162367),	_Q15(0.0060925856),	_Q15(-0.0068368064),
	_Q15(6.899477e-05),	_Q15(-0.009403385),	_Q15(-0.022516558),	_Q15(-0.046351116),
	_Q15(0.0037846956),	_Q15(0.030536057),	_Q15(0.026837198),	_Q15(0.016343266),
	_Q15(-0.022524733),	_Q15(-0.028451994),	_Q15(-0.022596335),	_Q15(-0.012776128),
	_Q15(0.0027332038),	_Q15(0.030415008),	_Q15(0.022394663),	_Q15(0.016086616),
	_Q15(0.00992181),	_Q15(-0.0189305),	_Q15(-0.054356527),	_Q15(0.017573569),
	_Q15(-0.0068642185),	_Q15(-0.0020519327),	_Q15(0.016382203),	_Q15(-0.00560161),
	_Q15(-0.013618401),	_Q15(-0.025731344),	_Q15(-0.003970908),	_Q15(0.015108091),
	_Q15(-0.005638092),	_Q15(0.023585532),	_Q15(-0.028990472),	_Q15(-0.0074723763),
	_Q15(-0.014052352),	_Q15(0.02455873),	_Q15(0.025156282),	_Q15(0.03558726),
	_Q15(-0.02009474),	_Q15(-0.027862987),	_Q15(-0.025341546),	_Q15(-0.0112875225),
	_Q15(0.003891317),	_Q15(0.0061708596),	_Q15(0.011350751),	_Q15(-0.027857857),
	_Q15(-0.03254027),	_Q15(-0.00044240916),	_Q15(-0.0013124178),	_Q15(0.0047993017),
	_Q15(-0.009388162),	_Q15(-0.032808498),	_Q15(-0.023274627),	_Q15(-0.021076297),
	_Q15(0.014415688),	_Q15(-0.03558901),	_Q15(-0.017526297),	_Q15(-0.0068295845),
	_Q15(0.021291547),	_Q15(0.02124182),	_Q15(0.0019384356),	_Q15(0.015916044),
	_Q15(-0.0005404315),	_Q15(-0.0034188228),	_Q15(0.03983743),	_Q15(0.0041771377),
	_Q15(-0.009797461),	_Q15(0.0067361486),	_Q15(0.0055745956),	_Q15(0.0075236945),
	_Q15(-0.013844383),	_Q15(0.00851378),	_Q15(0.0007468144),	_Q15(0.009211334),
	_Q15(0.011027781),	_Q15(0.038003027),	_Q15(0.011384797),	_Q15(-0.0067407647),
	_Q15(-0.017824274),	_Q15(-0.03043461),	_Q15(-0.0013036546),	_Q15(-0.008959902),
	_Q15(0.022074694),	_Q15(0.0171107),	_Q15(0.012185419),	_Q15(0.015935645),
	_Q15(0.0081691),	_Q15(-0.010204741),	_Q15(0.017264597),	_Q15(0.017895028),
	_Q15(0.0070247813),	_Q15(0.015815997),	_Q15(0.012070347),	_Q15(0.0015258703),
	_Q15(-0.0063759396),	_Q15(0.0065275743),	_Q15(0.019904133),	_Q15(0.015223014),
	_Q15(0.0039307564),	_Q15(0.011269011),	_Q15(0.024376612),	_Q15(0.02047021),
	_Q15(0.0016926168),	_Q15(-0.007916905),	_Q15(-0.0067938776),	_Q15(0.020891028),
	_Q15(0.03944894),	_Q15(0.031729303),	_Q15(-0.0064010853),	_Q15(-0.005696129),
	_Q15(0.010127774),	_Q15(0.0047894907),	_Q15(-0.0063727535),	_Q15(-0.024554214),
	_Q15(0.008406937),	_Q15(0.009465135),	_Q15(0.0074159103),	_Q15(0.0058691655),
	_Q15(0.0011448058),	_Q15(-0.011469529),	_Q15(0.010425538),	_Q15(0.00661112),
	_Q15(0.01596949),	_Q15(0.02334934),	_Q15(0.020738821),	_Q15(0.010956872),
	_Q15(0.0074964836),	_Q15(0.007869973),	_Q15(0.013027006),	_Q15(0.01267492),
	_Q15(0.0031961796),	_Q15(-0.022955317),	_Q15(-0.008750835),	_Q15(0.0007703408),
	_Q15(0.013285163),	_Q15(0.0011013111),	_Q15(-0.0033726767),	_Q15(-0.010730315),
	_Q15(-0.018065013),	_Q15(0.0076381266),	_Q15(0.0021776636),	_Q15(-0.0006787727),
	_Q15(0.005390677),	_Q15(0.0135440985),	_Q15(-0.0003946587),	_Q15(-0.005170779),
	_Q15(-0.0019116884),	_Q15(0.009574943),	_Q15(0.006836767),	_Q15(-0.009043153),
	_Q15(0.017706743),	_Q15(0.024666324),	_Q15(0.004652284),	_Q15(-0.006971421),
	_Q15(-0.010685081),	_Q15(0.0031142992),	_Q15(0.017178807),	_Q15(0.04267043),
	_Q15(0.012971096),	_Q15(0.009011265),	_Q15(-0.0018940977),	_Q15(-0.010975884),
	_Q15(-0.02686791),	_Q15(0.013322348),	_Q15(0.011036847),	_Q15(-0.012510104),
	_Q15(-0.008893213),	_Q15(0.012697944),	_Q15(0.024723297),	_Q15(0.0079627),
	_Q15(0.0047236257),	_Q15(0.016836815),	_Q15(0.020831015),	_Q15(0.0024545284),
	_Q15(0.007922061),	_Q15(-0.013300017),	_Q15(-0.01680152),	_Q15(-0.025372082),
	_Q15(-0.0030274824),	_Q15(0.0040878593),	_Q15(0.029888215),	_Q15(0.015475826),
	_Q15(-0.0041624615),	_Q15(-0.0055204057),	_Q15(-0.003322486),	_Q15(0.019584676),
	_Q15(0.045463424),	_Q15(0.023978993),	_Q15(-0.009624642),	_Q15(-0.007741269),
	_Q15(-0.028320549),	_Q15(0.0030807464),	_Q15(0.033388227),	_Q15(0.015086339),
	_Q15(0.007010296),	_Q15(0.0018515721),	_Q15(-0.019047517),	_Q15(0.008236734),
	_Q15(-0.002536319),	_Q15(-0.0070730867),	_Q15(-0.005794567),	_Q15(0.010792069),
	_Q15(0.00031821922),	_Q15(0.016792746),	_Q15(-0.0017530402),	_Q15(-0.009105162),
	_Q15(-0.011283036),	_Q15(-0.014497741),	_Q15(0.0103930645),	_Q15(-0.00030167878),
	_Q15(-0.0050392817),	_Q15(-0.0018018549),	_Q15(-0.0068298946),	_Q15(0.017508885),
	_Q15(0.010564302),	_Q15(0.010554469),	_Q15(-0.008789679),	_Q15(0.008977163),
	_Q15(0.0057181376),	_Q15(0.014371496),	_Q15(0.0027336052),	_Q15(-0.016735986),
	_Q15(0.0051255575),	_Q15(0.008072916),	_Q15(-0.00047215703),	_Q15(-0.023071993),
	_Q15(-0.050734382),	_Q15(-0.048620705),	_Q15(-0.01828276),	_Q15(0.020207968),
	_Q15(-0.015671723),	_Q15(-0.017978173),	_Q15(-0.032973625),	_Q15(-0.009975134),
	_Q15(-0.0066964505),	_Q15(0.00425875),	_Q15(0.016442604),	_Q15(-0.00073428464),
	_Q15(0.0014861551),	_Q15(-0.0058137043),	_Q15(-0.0069525745),	_Q15(0.03751397),
	_Q15(0.013682711),	_Q15(-0.010671835),	_Q15(0.020504126),	_Q15(-0.03382333),
	_Q15(0.008524223),	_Q15(0.019231193),	_Q15(0.00027391087),	_Q15(-0.0062365313),
	_Q15(0.013477725),	_Q15(0.023895446),	_Q15(-0.006617693),	_Q15(-0.0047860453),
	_Q15(0.00351145),	_Q15(0.021792635),	_Q15(0.034694042),	_Q15(0.012686724),
	_Q15(-0.0036646526),	_Q15(-0.018162737),	_Q15(0.016942732),	_Q15(-0.016297031),
	_Q15(0.012212758),	_Q15(0.016290197),	_Q15(0.0109135965),	_Q15(0.002599076),
	_Q15(-0.02217833),	_Q15(0.014008333),	_Q15(0.012370295),	_Q15(0.011503397),
	_Q15(0.012733204),	_Q15(-0.015556579),	_Q15(0.008499446),	_Q15(0.03295791),
	_Q15(0.00937088),	_Q15(-0.007813454),	_Q15(0.0046390546),	_Q15(0.00028861873),
	_Q15(-0.0012939591),	_Q15(-0.01061447),	_Q15(0.005512135),	_Q15(-0.00096046645),
	_Q15(0.008793095),	_Q15(0.0061235344),	_Q15(0.010626406),	_Q15(0.013775816),
	_Q15(0.0013413845),	_Q15(0.00312337),	_Q15(-0.0033474215),	_Q15(-0.0080431225),
	_Q15(-0.007948128),	_Q15(0.011732657),	_Q15(-0.00790238),	_Q15(-0.00955646),
	_Q15(0.008081264),	_Q15(-0.008744923),	_Q15(-0.00033665914),	_Q15(0.0009973822),
	_Q15(-0.010133942),	_Q15(-0.006192814),	_Q15(-0.009597414),	_Q15(-0.017637797),
	_Q15(0.011485288),	_Q15(-0.0059131384),	_Q15(0.0037005933),	_Q15(0.016186597),
	_Q15(0.003301784),	_Q15(-1.938235e-05),	_Q15(0.00024801493),	_Q15(-0.002175195),
	_Q15(-0.016312767),	_Q15(0.0020894422),	_Q15(0.01553634),	_Q15(0.01148289),
	_Q15(-0.008718218),	_Q15(0.008500901),	_Q15(-0.003220168),	_Q15(0.02333283),
	_Q15(0.0031281488),	_Q15(0.00608696),	_Q15(-0.00090644567),	_Q15(0.019834897),
	_Q15(0.0048209773),	_Q15(-0.0023469504),	_Q15(0.0028701886),	_Q15(0.015996892),
	_Q15(0.019816604),	_Q15(-0.010237988),	_Q15(-0.0009222154),	_Q15(-0.00036722497),
	_Q15(0.0095898835),	_Q15(0.022210607),	_Q15(-0.0038886948),	_Q15(-0.03669407),
	_Q15(0.0064231986),	_Q15(0.0027355487),	_Q15(-0.0033411973),	_Q15(0.008014842),
	_Q15(0.033137858),	_Q15(0.0014117045),	_Q15(0.006751375),	_Q15(-0.018450905),
	_Q15(-0.01258948),	_Q15(0.014716733),	_Q15(0.024084149),	_Q15(-0.0010594421),
	_Q15(0.00070063747),	_Q15(0.0022638368),	_Q15(0.0011756937),	_Q15(0.018105725),
	_Q15(0.0059883506),	_Q15(0.009377099),	_Q15(0.00019960421),	_Q15(-0.0012851497),
	_Q15(-0.011415238),	_Q15(-0.004584361),	_Q15(-0.046359967),	_Q15(-0.00027164456),
	_Q15(0.01861091),	_Q15(0.004731466),	_Q15(-0.0002717157),	_Q15(-0.017354291),
	_Q15(-0.0022680312),	_Q15(-0.01036797),	_Q15(0.025502244),	_Q15(0.018994048),
	_Q15(-0.01573018),	_Q15(-0.01204063),	_Q15(-0.006937371),	_Q15(0.017107436),
	_Q15(-0.010521454),	_Q15(-0.019098334),	_Q15(0.005244974),	_Q15(0.009029063),
	_Q15(0.004117389),	_Q15(-0.0019525709),	_Q15(0.02014327),	_Q15(0.010120797),
	_Q15(0.010100109),	_Q15(0.015383717),	_Q15(-0.028272238),	_Q15(0.008974692),
	_Q15(0.006153802),	_Q15(-0.0126528),	_Q15(-0.005141783),	_Q15(0.0010813783),
	_Q15(-0.0028840608),	_Q15(0.0044618757),	_Q15(-0.013891548),	_Q15(-0.0115792435),
	_Q15(0.014474308),	_Q15(-0.0046236464),	_Q15(0.00514863),	_Q15(0.017433885),
	_Q15(-0.0139942635),	_Q15(-0.0067541986),	_Q15(-0.017334696),	_Q15(-0.021500612),
	_Q15(0.0039935415),	_Q15(-0.0046694134),	_Q15(0.0018168765),	_Q15(-0.018682174),
	_Q15(0.021987664),	_Q15(-0.0007751059),	_Q15(0.003482714),	_Q15(0.014975908),
	_Q15(-0.0049692946),	_Q15(-0.006249239),	_Q15(-0.00292793),	_Q15(-0.02469593),
	_Q15(0.019594168),	_Q15(0.004895385),	_Q15(-0.010418689),	_Q15(0.029709412),
	_Q15(-0.004956908),	_Q15(0.018530414),	_Q15(0.00090070424),	_Q15(-0.006878624),
	_Q15(0.005845196),	_Q15(0.008044743),	_Q15(0.044571444),	_Q15(0.009604585),
	_Q15(-0.003941857),	_Q15(-0.0088458),	_Q15(0.008250845),	_Q15(0.0013611128),
	_Q15(0.014786139),	_Q15(-0.0046390053),	_Q15(-0.013910816),	_Q15(-0.027771749),
	_Q15(-0.0025755728),	_Q15(-0.016476251),	_Q15(-0.009946888),	_Q15(0.030114327),
	_Q15(0.005111638),	_Q15(-0.024320781),	_Q15(-0.017883502),	_Q15(0.040053703),
	_Q15(0.013055316),	_Q15(0.017317005),	_Q15(0.004739663),	_Q15(0.010551727),
	_Q15(0.00051605515),	_Q15(-0.0027679305),	_Q15(-0.00019959282),	_Q15(0.008436965),
	_Q15(0.008054188),	_Q15(0.005148327),	_Q15(0.058910184),	_Q15(0.029307364),
	_Q15(0.004230146),	_Q15(0.029212175),	_Q15(0.0041462905),	_Q15(-0.002687703),
	_Q15(-0.014472761),	_Q15(0.031526312),	_Q15(-0.0020138412),	_Q15(0.002486204),
	_Q15(0.007308609),	_Q15(-0.008479914),	_Q15(-0.0024713152),	_Q15(0.00024330567),
	_Q15(0.015027496),	_Q15(0.008748364),	_Q15(0.0029160404),	_Q15(0.01148611),
	_Q15(0.0006420131),	_Q15(0.009585005),	_Q15(-0.019157585),	_Q15(0.023093807),
	_Q15(0.027450895),	_Q15(0.0075828736),	_Q15(0.005385462),	_Q15(0.025280721),
	_Q15(-0.044299535),	_Q15(-0.03916043),	_Q15(-0.014695244),	_Q15(0.012357821),
	_Q15(0.022975562),	_Q15(-0.014732268),	_Q15(-0.0039263912),	_Q15(0.001991391),
	_Q15(-0.031373296),	_Q15(-2.8750796e-05),	_Q15(-0.013114576),	_Q15(-0.011068615),
	_Q15(-0.006890969),	_Q15(-0.013685411),	_Q15(0.022131),	_Q15(0.017884402),
	_Q15(-0.0004850738),	_Q15(0.006725115),	_Q15(0.0019798623),	_Q15(-0.00047428065),
	_Q15(0.022682613),	_Q15(-0.022565663),	_Q15(-0.018852856),	_Q15(-0.020527387),
	_Q15(-0.012275017),	_Q15(-0.024379844),	_Q15(-0.021969229),	_Q15(-0.031152193),
	_Q15(0.007202641),	_Q15(0.027469639),	_Q15(0.016417148),	_Q15(-0.011651194),
	_Q15(-0.04667275),	_Q15(-0.01722918),	_Q15(0.031813182),	_Q15(-0.002484121),
	_Q15(-0.02708492),	_Q15(-0.037113067),	_Q15(-0.030529987),	_Q15(0.00044621946),
	_Q15(0.0127775865),	_Q15(-0.0035135176),	_Q15(-0.018621014),	_Q15(-0.012738856),
	_Q15(0.0032716843),	_Q15(0.008627105),	_Q15(2.4083638e-06),	_Q15(-0.028662696),
	_Q15(-0.024756698),	_Q15(0.012536651),	_Q15(0.01003827),	_Q15(0.0009348815),
	_Q15(-0.009862939),	_Q15(0.0009873173),	_Q15(-0.001762186),	_Q15(0.00808095),
	_Q15(-0.00061689666),	_Q15(0.010023125),	_Q15(0.013743054),	_Q15(-0.02385108),
	_Q15(-0.003970248),	_Q15(0.0066969674),	_Q15(0.017259121),	_Q15(-0.0030080674),
	_Q15(-0.028946076),	_Q15(0.0042862487),	_Q15(0.006881411),	_Q15(0.005641243),
	_Q15(-0.021605862),	_Q15(-0.009297914),	_Q15(-0.012687973),	_Q15(0.008639627),
	_Q15(-0.017962927),	_Q15(-0.0139337545),	_Q15(-0.023578085),	_Q15(-0.014777868),
	_Q15(-0.0028904448),	_Q15(-0.022509754),	_Q15(0.00925886),	_Q15(-0.002271652),
	_Q15(0.016214693),	_Q15(0.0043817037),	_Q15(-0.01107863),	_Q15(-0.01346304),
	_Q15(0.014190216),	_Q15(0.008418374),	_Q15(-0.0025892206),	_Q15(0.032784685),
	_Q15(-0.009489584),	_Q15(-0.014236593),	_Q15(0.00067982235),	_Q15(0.008487468),
	_Q15(0.008473296),	_Q15(-0.013250603),	_Q15(-0.010809712),	_Q15(-0.0036508194),
	_Q15(-0.0005171995),	_Q15(1.6968228e-05),	_Q15(-0.010334726),	_Q15(-0.015597099),
	_Q15(-0.010276895),	_Q15(-0.0051691695),	_Q15(0.006939912),	_Q15(0.017487135),
	_Q15(0.008235099),	_Q15(-0.002637161),	_Q15(0.004922671),	_Q15(0.010210266),
	_Q15(-0.010223763),	_Q15(-0.0013725489),	_Q15(0.012589114),	_Q15(-0.016991435),
	_Q15(-0.008727035),	_Q15(0.0064804745),	_Q15(0.018026391),	_Q15(0.016527878),
	_Q15(0.0027887635),	_Q15(-0.003120282),	_Q15(-0.0035254061),	_Q15(-0.011961443),
	_Q15(-0.0056951474),	_Q15(-0.0045561483),	_Q15(-0.019217063),	_Q15(0.009324526),
	_Q15(0.014343038),	_Q15(-0.005214211),	_Q15(0.009151716),	_Q15(-0.00841337),
	_Q15(-0.016099988),	_Q15(-0.0033490397),	_Q15(0.012304128),	_Q15(0.009786612),
	_Q15(0.0292774),	_Q15(0.0045879777),	_Q15(-0.00282002),	_Q15(0.017962744),
	_Q15(0.0085856),	_Q15(0.012303305),	_Q15(-0.0015901118),	_Q15(-0.026942356),
	_Q15(-0.003878646),	_Q15(0.012183815),	_Q15(0.0071751126),	_Q15(0.0016380541),
	_Q15(-0.014994427),	_Q15(-0.010180333),	_Q15(0.0016872161),	_Q15(-0.010693551),
	_Q15(-0.0021273461),	_Q15(-0.008702968),	_Q15(-0.004277656),	_Q15(0.017226312),
	_Q15(0.03227881),	_Q15(0.0152345635),	_Q15(-0.014941531),	_Q15(-0.037986085),
	_Q15(0.0076330663),	_Q15(0.021781929),	_Q15(0.01705991),	_Q15(0.003755815),
	_Q15(-0.016176933),	_Q15(0.015270294),	_Q15(-0.009841688),	_Q15(0.007966097),
	_Q15(0.011478483),	_Q15(0.009731373),	_Q15(-0.00053085387),	_Q15(0.0047076386),
	_Q15(0.0219481),	_Q15(0.0026058552),	_Q15(0.031467386),	_Q15(0.03590997),
	_Q15(0.0035675245),	_Q15(0.010874511),	_Q15(-0.00470658),	_Q15(0.012569327),
	_Q15(0.004811731),	_Q15(-0.0095323445),	_Q15(0.010033032),	_Q15(0.010389305),
	_Q15(0.008672609),	_Q15(-0.013560071),	_Q15(-0.03084906),	_Q15(-0.01097799),
	_Q15(-0.0027501504),	_Q15(0.01594947),	_Q15(-0.0031761883),	_Q15(-0.004770554),
	_Q15(0.00034161675),	_Q15(-0.025682524),	_Q15(-0.0006251563),	_Q15(-0.022125734),
	_Q15(-0.0041216426),	_Q15(-0.005663663),	_Q15(-0.0010215767),	_Q15(8.881836e-05),
	_Q15(-0.014134587),	_Q15(-0.0012966387),	_Q15(-0.030842599),	_Q15(-0.031427357),
	_Q15(-0.0019075304),	_Q15(0.0074735982),	_Q15(0.00018602796),	_Q15(0.0019454416),
	_Q15(-0.0018160138),	_Q15(-0.000628626),	_Q15(0.004461362),	_Q15(0.0047296854),
	_Q15(0.0028490452),	_Q15(0.0112370765),	_Q15(0.00845147),	_Q15(0.0054760193),
	_Q15(-0.0051638326),	_Q15(0.0026961677),	_Q15(0.0072043887),	_Q15(-0.0040281713),
	_Q15(0.012452868),	_Q15(0.00991311),	_Q15(0.00086449634),	_Q15(-0.00885233),
	_Q15(-0.011134917),	_Q15(0.007091171),	_Q15(0.0048030196),	_Q15(-0.009759943),
	_Q15(0.00650745),	_Q15(-0.0067241015),	_Q15(-0.0076845754),	_Q15(0.0047632353),
	_Q15(-0.002726775),	_Q15(0.0061823414),	_Q15(0.005250425),	_Q15(-0.011365198),
	_Q15(0.029456934),	_Q15(0.0094700735),	_Q15(-0.0011960379),	_Q15(-0.0012717035),
	_Q15(0.019563468),	_Q15(0.003115248),	_Q15(-0.015026231),	_Q15(-0.00459491),
	_Q15(0.0045133694),	_Q15(0.0075823637),	_Q15(-0.0074363723),	_Q15(-0.009933355),
	_Q15(0.004274072),	_Q15(0.0089121135),	_Q15(0.011092018),	_Q15(-0.004947366),
	_Q15(0.0073805535),	_Q15(0.01719635),	_Q15(0.011101645),	_Q15(0.007837912),
	_Q15(0.003617973),	_Q15(0.011611234),	_Q15(-0.012898084),	_Q15(-0.008026318),
	_Q15(0.0058111604),	_Q15(-0.008493641),	_Q15(-0.0093790395),	_Q15(-0.0030201864),
	_Q15(0.017805489),	_Q15(-0.014325702),	_Q15(-0.028062385),	_Q15(0.01760574),
	_Q15(-0.027565546),	_Q15(-0.01947946),	_Q15(0.00848379),	_Q15(-0.0018291421),
	_Q15(0.013864384),	_Q15(0.0051404564),	_Q15(-0.011716782),	_Q15(-0.016363174),
	_Q15(-0.0009108165),	_Q15(-0.013471721),	_Q15(0.019842066),	_Q15(-0.0070199138),
	_Q15(0.0077677774),	_Q15(0.010630733),	_Q15(0.00942951),	_Q15(0.01190527),
	_Q15(-0.015593157),	_Q15(-0.048616078),	_Q15(-0.054835808),	_Q15(-0.050034866),
	_Q15(0.0020789271),	_Q15(-0.006870671),	_Q15(-0.001452266),	_Q15(-0.013096605),
	_Q15(0.037272595),	_Q15(0.027666757),	_Q15(0.013177956),	_Q15(-0.0108211255),
	_Q15(0.008476201),	_Q15(0.00011326193),	_Q15(-0.021149058),	_Q15(-0.020114455),
	_Q15(0.01957063),	_Q15(0.0073899166),	_Q15(-0.01612161),	_Q15(-0.012708345),
	_Q15(0.013400259),	_Q15(-0.0018898516),	_Q15(-0.011550438),	_Q15(-0.020899335),
	_Q15(-0.0056825057),	_Q15(-0.0071587623),	_Q15(0.0012584563),	_Q15(0.021259474),
	_Q15(0.025054315),	_Q15(-0.0014893641),	_Q15(-0.018963668),	_Q15(0.007318253),
	_Q15(0.008282543),	_Q15(0.006256779),	_Q15(-0.0021747034),	_Q15(-0.02751608),
	_Q15(0.020048078),	_Q15(0.02840581),	_Q15(0.013030274),	_Q15(0.002049307),
	_Q15(-0.025195029),	_Q15(0.011078438),	_Q15(0.008805881),	_Q15(-0.0051649185),
	_Q15(-0.0013502729),	_Q15(-0.026413333),	_Q15(0.0115722325),	_Q15(0.022456737),
	_Q15(-0.0013501735),	_Q15(0.0021262353),	_Q15(0.004102346),	_Q15(0.018511355),
	_Q15(0.027303118),	_Q15(0.012333157),	_Q15(0.0028506694),	_Q15(0.02839342),
	_Q15(0.04377998),	_Q15(0.03441842),	_Q15(0.010031829),	_Q15(-0.004766063),
	_Q15(0.0037388348),	_Q15(-0.04647975),	_Q15(0.007930468),	_Q15(0.013416562),
	_Q15(-0.007687604),	_Q15(-0.006437783),	_Q15(-0.02552723),	_Q15(-0.013863387),
	_Q15(0.016319694),	_Q15(0.004806315),	_Q15(-0.012548314),	_Q15(0.029578092),
	_Q15(0.030977195),	_Q15(0.042141054),	_Q15(0.0067438777),	_Q15(-0.001474159),
	_Q15(0.007011625),	_Q15(-0.021796176),	_Q15(-0.0030411342),	_Q15(-0.03599064),
	_Q15(0.00089839444),	_Q15(-0.04494354),	_Q15(0.008934835),	_Q15(-0.0067015267),
	_Q15(0.009308597),	_Q15(-0.016537525),	_Q15(-0.0025403223),	_Q15(-0.024005797),
	_Q15(0.011783215),	_Q15(-0.011896737),	_Q15(-0.012338279),	_Q15(-0.020504333),
	_Q15(-0.039561905),	_Q15(-0.055267442),	_Q15(-0.056529254),	_Q15(-0.007771333),
	_Q15(0.015390121),	_Q15(0.029115982),	_Q15(0.016830785),	_Q15(0.006508455),
	_Q15(-0.00046834868),	_Q15(0.0057251723),	_Q15(0.0102023315),	_Q15(0.01913302),
	_Q15(-0.00020392315),	_Q15(-0.015732039),	_Q15(-0.0035487278),	_Q15(0.017376535),
	_Q15(-0.014655363),	_Q15(-0.012254636),	_Q15(-0.007143999),	_Q15(-0.009375781),
	_Q15(0.01573851),	_Q15(-0.00020325597),	_Q15(-0.018819202),	_Q15(-0.043270227),
	_Q15(-0.053064186),	_Q15(-0.06121265),	_Q15(-0.0782238),	_Q15(-0.06406386),
	_Q15(0.009140322),	_Q15(-0.01992284),	_Q15(0.009858069),	_Q15(-0.018833825),
	_Q15(0.009074202),	_Q15(-0.00069813745),	_Q15(0.009145301),	_Q15(0.013882888),
	_Q15(0.0022531655),	_Q15(0.0020590036),	_Q15(-0.017014613),	_Q15(0.013834864),
	_Q15(0.005785541),	_Q15(0.017905481),	_Q15(-0.009983675),	_Q15(-0.022261554),
	_Q15(0.012836224),	_Q15(-0.026299888),	_Q15(-0.0075635123),	_Q15(0.013068845),
	_Q15(-0.0016410786),	_Q15(0.0056868927),	_Q15(-0.009721202),	_Q15(-0.017841507),
	_Q15(0.02124094),	_Q15(0.03282551),	_Q15(-0.041364014),	_Q15(-0.011901213),
	_Q15(-0.017163072),	_Q15(-0.008882649),	_Q15(-0.010388615),	_Q15(-0.032295734),
	_Q15(-0.026249977),	_Q15(-0.023996815),	_Q15(0.012722145),	_Q15(-0.0036810352),
	_Q15(-0.012328679),	_Q15(-0.009227241),	_Q15(0.010808208),	_Q15(0.030905003),
	_Q15(0.02803249),	_Q15(-0.00077492173),	_Q15(0.0042315377),	_Q15(0.004361885),
	_Q15(-0.00933831),	_Q15(0.0057891966),	_Q15(0.023489712),	_Q15(0.025319641),
	_Q15(0.025056751),	_Q15(-0.004730169),	_Q15(0.011173628),	_Q15(-0.008812522),
	_Q15(-0.007253047),	_Q15(-0.009227741),	_Q15(-0.0174484),	_Q15(0.0047014295),
	_Q15(-0.024206288),	_Q15(0.0037057556),	_Q15(-0.008874878),	_Q15(0.019310627),
	_Q15(0.0033877678),	_Q15(-0.002279971),	_Q15(0.008782111),	_Q15(0.0016893161),
	_Q15(-0.01079272),	_Q15(-0.009844061),	_Q15(-0.016584164),	_Q15(-0.002515648),
	_Q15(-0.0101274075),	_Q15(-0.02149564),	_Q15(0.009004633),	_Q15(0.0020788722),
	_Q15(0.026369978),	_Q15(0.041717786),	_Q15(0.020781033),	_Q15(0.0002797995),
	_Q15(0.0070068613),	_Q15(-0.003471868),	_Q15(-0.0113283275),	_Q15(-0.007213569),
	_Q15(0.0014176648),	_Q15(-0.018791094),	_Q15(-0.034100916),	_Q15(-0.010191601),
	_Q15(0.0033128096),	_Q15(0.006010117),	_Q15(0.01356567),	_Q15(-0.010370033),
	_Q15(0.026737047),	_Q15(0.0046876245),	_Q15(-0.0027840137),	_Q15(-0.012212416),
	_Q15(-0.00470088),	_Q15(-0.034730714),	_Q15(-0.006135773),	_Q15(0.0013870462),
	_Q15(0.008854147),	_Q15(0.034507606),	_Q15(0.032634415),	_Q15(0.025807923),
	_Q15(-0.0013320111),	_Q15(0.017128149),	_Q15(0.029003246),	_Q15(0.02902642),
	_Q15(0.0002784781),	_Q15(0.0012112393),	_Q15(-0.012723815),	_Q15(-0.0167444),
	_Q15(-0.00089630974),	_Q15(-0.0148451),	_Q15(-0.021134691),	_Q15(-0.024542011),
	_Q15(-0.018313313),	_Q15(-0.011977463),	_Q15(-0.005836045),	_Q15(-0.01134722),
	_Q15(0.0013668092),	_Q15(-0.02636161),	_Q15(-0.00077062973),	_Q15(0.01898231),
	_Q15(0.0025668673),	_Q15(0.0028975722),	_Q15(-0.014803217),	_Q15(-0.040761676),
	_Q15(-0.035254274),	_Q15(-0.013857671),	_Q15(0.014212701),	_Q15(-0.023774846),
	_Q15(-0.0020422228),	_Q15(-2.682751e-06),	_Q15(0.010644765),	_Q15(0.0026104741),
	_Q15(-0.019136546),	_Q15(-0.01620259),	_Q15(0.00470884),	_Q15(-0.001841244),
	_Q15(-0.008787035),	_Q15(-0.0026385856),	_Q15(0.00047752183),	_Q15(0.00090355164),
	_Q15(0.0049842303),	_Q15(-0.012949961),	_Q15(-0.003930729),	_Q15(-0.018789746),
	_Q15(-0.0018187751),	_Q15(-0.0074186316),	_Q15(-0.00619592),	_Q15(0.008848493),
	_Q15(-0.010580614),	_Q15(-0.017969364),	_Q15(-0.010967264),	_Q15(0.04437555),
	_Q15(0.029621806),	_Q15(0.027603062),	_Q15(0.025858913),	_Q15(0.0025561727),
	_Q15(0.03101333),	_Q15(0.02963179),	_Q15(0.015366808),	_Q15(-0.018723445),
	_Q15(-0.02455143),	_Q15(-0.0011948303),	_Q15(0.018719742),	_Q15(-0.007550943),
	_Q15(-0.018554123),	_Q15(-0.03699413),	_Q15(-0.012151478),	_Q15(-0.013006549),
	_Q15(0.008756076),	_Q15(-0.006032244),	_Q15(-0.025623122),	_Q15(-0.04383517),
	_Q15(-0.084966525),	_Q15(-0.057694014),	_Q15(-0.02307325),	_Q15(0.0008477762),
	_Q15(-0.026400777),	_Q15(-0.023242183),	_Q15(-0.010132198),	_Q15(0.009931496),
	_Q15(-0.003073642),	_Q15(-0.01579145),	_Q15(-0.014708778),	_Q15(-0.012021011),
	_Q15(0.023239927),	_Q15(-0.0025090694),	_Q15(0.0054305117),	_Q15(-0.0132953925),
	_Q15(-0.019189814),	_Q15(0.027410887),	_Q15(-0.015420945),	_Q15(0.03237105),
	_Q15(0.009424031),	_Q15(-0.0019227976),	_Q15(0.002816978),	_Q15(-0.011524605),
	_Q15(-0.010934981),	_Q15(0.034825303),	_Q15(0.030827634),	_Q15(0.01983452),
	_Q15(-0.00034440035),	_Q15(-0.009350305),	_Q15(0.005759078),	_Q15(-0.012152522),
	_Q15(0.011408118),	_Q15(-0.0036046878),	_Q15(-0.008849004),	_Q15(-0.00017148443),
	_Q15(-0.00019411973),	_Q15(-0.0056185722),	_Q15(0.010468685),	_Q15(-0.013116084),
	_Q15(-0.007539436),	_Q15(0.0096838195),	_Q15(-0.00053208345),	_Q15(0.010811285),
	_Q15(0.0037175128),	_Q15(-0.009598714),	_Q15(0.002085526),	_Q15(-0.010090323),
	_Q15(0.005187393),	_Q15(0.007830053),	_Q15(-0.005345024),	_Q15(0.012106827),
	_Q15(-0.0049466044),	_Q15(0.012296305),	_Q15(0.0069056004),	_Q15(-0.0007597316),
	_Q15(-0.0030221948),	_Q15(0.015963288),	_Q15(0.0004339296),	_Q15(-0.0146214515),
	_Q15(0.015406678),	_Q15(0.01602483),	_Q15(-0.009587255),	_Q15(-0.010784635),
	_Q15(-0.025952421),	_Q15(-0.021436503),	_Q15(-0.0065329447),	_Q15(0.0072190403),
	_Q15(-0.012808361),	_Q15(-0.0017960102),	_Q15(0.008529912),	_Q15(-0.0028592222),
	_Q15(0.0032441702),	_Q15(-0.005220768),	_Q15(0.008507804),	_Q15(-0.006525165),
	_Q15(-0.005565132),	_Q15(-0.007442489),	_Q15(-0.017500822),	_Q15(0.009215825),
	_Q15(-0.007234646),	_Q15(0.02222952),	_Q15(-0.015882084),	_Q15(0.00050529913),
	_Q15(-0.011119971),	_Q15(-0.012495761),	_Q15(0.023262447),	_Q15(0.0108787315),
	_Q15(0.003296099),	_Q15(0.007612109),	_Q15(-0.0013407075),	_Q15(0.017492654),
	_Q15(-0.01037557),	_Q15(0.0109427115),	_Q15(0.01890625),	_Q15(-0.003197916),
	_Q15(0.023907734),	_Q15(0.02433214),	_Q15(-0.0041094166),	_Q15(0.019329723),
	_Q15(0.019378973),	_Q15(0.036286913),	_Q15(-0.008416974),	_Q15(-0.028084518),
	_Q15(-0.02052763),	_Q15(0.002715704),	_Q15(0.009019491),	_Q15(-0.0066642873),
	_Q15(-0.0040552043),	_Q15(0.01228202),	_Q15(0.013771244),	_Q15(0.0009563745),
	_Q15(0.009519967),	_Q15(0.01289038),	_Q15(-0.019096103),	_Q15(0.020473149),
	_Q15(0.012318456),	_Q15(0.03758946),	_Q15(0.010414355),	_Q15(-0.0018610179),
	_Q15(-0.007023104),	_Q15(-0.0032676498),	_Q15(0.022286212),	_Q15(0.010510122),
	_Q15(0.016999321),	_Q15(-0.0039130608),	_Q15(-0.024147615),	_Q15(-0.018510487),
	_Q15(0.010283096),	_Q15(-0.016637357),	_Q15(-0.021497533),	_Q15(0.0072270315),
	_Q15(0.026492996),	_Q15(0.028909482),	_Q15(0.0041413237),	_Q15(0.02951037),
	_Q15(0.006837876),	_Q15(0.033589482),	_Q15(0.026477557),	_Q15(-0.03986137),
	_Q15(-0.030423652),	_Q15(-0.020145383),	_Q15(-0.005790501),	_Q15(-0.010674682),
	_Q15(-0.016415335),	_Q15(-0.015213513),	_Q15(-0.0225899),	_Q15(-0.0067874594),
	_Q15(-0.008592996),	_Q15(-0.0042433115),	_Q15(-0.005192758),	_Q15(0.0036571014),
	_Q15(0.0039109727),	_Q15(0.013572663),	_Q15(0.003702344),	_Q15(0.005677676),
	_Q15(-0.00015596481),	_Q15(0.015030557),	_Q15(0.0071593174),	_Q15(-0.022291547),
	_Q15(0.0077340784),	_Q15(-0.02255228),	_Q15(0.008512187),	_Q15(-0.0077699823),
	_Q15(-0.002855397),	_Q15(0.017733367),	_Q15(-0.02579174),	_Q15(-0.03645894),
	_Q15(-0.019727182),	_Q15(0.012813533),	_Q15(0.012411501),	_Q15(-0.02889059),
	_Q15(-0.02455637),	_Q15(0.0015520604),	_Q15(-0.005601778),	_Q15(0.004028421),
	_Q15(-0.010771289),	_Q15(0.026619457),	_Q15(-0.0043908334),	_Q15(-0.01884076),
	_Q15(0.01726678),	_Q15(0.0025746746),	_Q15(-0.00012956554),	_Q15(-0.007375712),
	_Q15(-0.0058249524),	_Q15(0.013344766),	_Q15(-0.01924251),	_Q15(-0.04001682),
	_Q15(0.020497717),	_Q15(-0.008760903),	_Q15(-0.002480735),	_Q15(0.018015256),
	_Q15(0.004408779),	_Q15(0.013735423),	_Q15(0.0020846971),	_Q15(-0.017388659),
	_Q15(0.0379305),	_Q15(0.02202286),	_Q15(-0.030397283),	_Q15(0.010815354),
	_Q15(-0.04178139),	_Q15(-0.01505656),	_Q15(-0.027162947),	_Q15(-0.010751642),
	_Q15(0.005144976),	_Q15(0.013553769),	_Q15(0.005944921),	_Q15(-0.010281613),
	_Q15(0.014644504),	_Q15(-0.0056801485),	_Q15(-0.021256045),	_Q15(-0.0009811925),
	_Q15(-8.2068145e-05),	_Q15(0.00062612427),	_Q15(0.026307322),	_Q15(-0.00038201798),
	_Q15(-0.006589746),	_Q15(-0.0006580206),	_Q15(-0.02297345),	_Q15(-0.009667157),
	_Q15(0.003621081),	_Q15(-0.00046709523),	_Q15(-0.0057410477),	_Q15(-0.06560102),
	_Q15(-0.020676557),	_Q15(-0.029556595),	_Q15(-0.0061919447),	_Q15(0.01443924),
	_Q15(-0.016025996),	_Q15(-0.0004203015),	_Q15(0.010099326),	_Q15(0.017108843),
	_Q15(-0.011356995),	_Q15(0.0052050077),	_Q15(0.012453458),	_Q15(0.0014226262),
	_Q15(0.010544997),	_Q15(0.037246123),	_Q15(0.015639026),	_Q15(0.03704684),
	_Q15(0.021907248),	_Q15(-0.0073357313),	_Q15(-0.0069648987),	_Q15(0.019707177),
	_Q15(0.0050787674),	_Q15(-0.0047066277),	_Q15(-0.016925553),	_Q15(-0.04016223),
	_Q15(-0.022901045),	_Q15(-0.0065140296),	_Q15(-0.023802921),	_Q15(-0.04521608),
	_Q15(-0.015848098),	_Q15(-0.01755197),	_Q15(-0.00982106),	_Q15(0.009695623),
	_Q15(-0.010275345),	_Q15(-0.003326736),	_Q15(-0.0009493905),	_Q15(0.01504042),
	_Q15(0.009233489),	_Q15(0.027999144),	_Q15(0.016139112),	_Q15(0.004571605),
	_Q15(0.014962842),	_Q15(0.018278187),	_Q15(-0.0031148891),	_Q15(0.05802666),
	_Q15(0.03477421),	_Q15(0.021791065),	_Q15(0.024281928),	_Q15(-0.016046055),
	_Q15(0.022110598),	_Q15(0.022075567),	_Q15(-0.00573648),	_Q15(-0.019578407),
	_Q15(-0.029873654),	_Q15(-0.034401763),	_Q15(-0.008653349),	_Q15(0.0018086951),
	_Q15(0.00048163207),	_Q15(-0.002829911),	_Q15(0.011409796),	_Q15(0.020190826),
	_Q15(0.016798072),	_Q15(-0.014010737),	_Q15(0.014438394),	_Q15(0.01522115),
	_Q15(0.003925536),	_Q15(-0.010105912),	_Q15(-0.010398657),	_Q15(0.009459394),
	_Q15(-0.0020238676),	_Q15(-0.010879551),	_Q15(-0.015165077),	_Q15(-0.018971175),
	_Q15(-0.017864851),	_Q15(-0.042868868),	_Q15(-0.032160167),	_Q15(-0.008001284),
	_Q15(-0.0022750816),	_Q15(0.028070198),	_Q15(0.010393903),	_Q15(0.020010738),
	_Q15(-0.008892739),	_Q15(0.0020119075),	_Q15(0.0022842619),	_Q15(0.0027062085),
	_Q15(-0.007424244),	_Q15(-0.011652897),	_Q15(-0.017887268),	_Q15(0.032950703),
	_Q15(0.032521535),	_Q15(-0.011724555),	_Q15(0.0055675255),	_Q15(0.001548952),
	_Q15(0.014191342),	_Q15(0.022260047),	_Q15(-0.003819394),	_Q15(-0.0021672123),
	_Q15(-0.009238402),	_Q15(-0.028026516),	_Q15(-0.037702832),	_Q15(-0.008041869),
	_Q15(0.0019805133),	_Q15(0.0117539605),	_Q15(-0.0019394084),	_Q15(-0.02027101),
	_Q15(-0.0008109676),	_Q15(-0.0021109215),	_Q15(0.0034337393),	_Q15(0.009690455),
	_Q15(-0.0061100223),	_Q15(-0.00028969668),	_Q15(0.0012876263),	_Q15(0.02758404),
	_Q15(-0.008506124),	_Q15(0.008220268),	_Q15(0.0042674816),	_Q15(-0.01685784),
	_Q15(0.022841955),	_Q15(0.0130238645),	_Q15(-0.019383017),	_Q15(0.012218908),
	_Q15(0.008554867),	_Q15(0.000727045),	_Q15(0.009716894),	_Q15(0.0079667885),
	_Q15(-0.0014906074),	_Q15(0.022389973),	_Q15(-0.0070636584),	_Q15(-0.005889284),
	_Q15(-0.013210954),	_Q15(-0.008081995),	_Q15(0.0076056235),	_Q15(0.010346),
	_Q15(0.0058615534),	_Q15(0.025447743),	_Q15(0.012074634),	_Q15(0.00827597),
	_Q15(0.006789289),	_Q15(0.008986987),	_Q15(-0.0155478995),	_Q15(-0.011899038),
	_Q15(-0.003649327),	_Q15(0.018417656),	_Q15(0.007281553),	_Q15(-0.029115252),
	_Q15(-0.02368009),	_Q15(-0.01999904),	_Q15(-0.017933542),	_Q15(0.015045551),
	_Q15(-0.016013656),	_Q15(-0.0022461491),	_Q15(-0.008084285),	_Q15(0.011328067),
	_Q15(0.028412515),	_Q15(-0.0016851927),	_Q15(-0.003155098),	_Q15(0.0055311783),
	_Q15(-0.0030729594),	_Q15(-0.015727669),	_Q15(0.0022784695),	_Q15(0.020340065),
	_Q15(-0.029326255),	_Q15(-0.0071689915),	_Q15(-0.013614587),	_Q15(0.0025960682),
	_Q15(-0.0023752542),	_Q15(-0.004524935),	_Q15(-0.0020839479),	_Q15(-0.01156561),
	_Q15(-0.012958251),	_Q15(-0.0043512583),	_Q15(0.0153541835),	_Q15(0.014692649),
	_Q15(0.003961032),	_Q15(0.0053922106),	_Q15(-0.011006465),	_Q15(-0.006272472),
	_Q15(-0.030826138),	_Q15(0.007827449),	_Q15(-0.0034797608),	_Q15(-0.019848911),
	_Q15(-0.00021520496),	_Q15(-0.009108847),	_Q15(-0.01852073),	_Q15(-0.01187678),
	_Q15(-0.021148577),	_Q15(-0.0010146726),	_Q15(0.017748926),	_Q15(-0.00785168),
	_Q15(-0.006734143),	_Q15(0.023576697),	_Q15(0.013536016),	_Q15(-0.004104451),
	_Q15(0.043212336),	_Q15(0.044185292),	_Q15(0.043616496),	_Q15(0.025202714),
	_Q15(0.004310586),	_Q15(-0.009092779),	_Q15(-0.0069922237),	_Q15(-0.0044114986),
	_Q15(-0.0123065775),	_Q15(0.00389147),	_Q15(-0.029326884),	_Q15(-0.03172644),
	_Q15(-0.011445617),	_Q15(-0.0071156668),	_Q15(-0.010062938),	_Q15(0.004674143),
	_Q15(-0.0014588702),	_Q15(-0.0034575444),	_Q15(-0.0021509565),	_Q15(0.01032585),
	_Q15(0.0046671275),	_Q15(-0.006418711),	_Q15(-0.0059586107),	_Q15(4.2969543e-05),
	_Q15(0.0018077679),	_Q15(0.0010727127),	_Q15(0.0013918212),	_Q15(9.067077e-05),
	_Q15(-0.012693934),	_Q15(0.004042317),	_Q15(-0.002034635),	_Q15(0.011484125),
	_Q15(0.0039410507),	_Q15(-0.00828882),	_Q15(-0.00791401),	_Q15(-0.0025897427),
	_Q15(-0.007617362),	_Q15(0.0051417826),	_Q15(0.017761912),	_Q15(-0.0006705445),
	_Q15(0.011333906),	_Q15(0.008146282),	_Q15(-0.0019654108),	_Q15(-0.0214959),
	_Q15(0.018403804),	_Q15(0.01281845),	_Q15(-0.020269737),	_Q15(-0.015848275),
	_Q15(-0.054762647),	_Q15(0.0007514419),	_Q15(0.00092179375),	_Q15(-0.027134929),
	_Q15(0.0049283267),	_Q15(0.0024890904),	_Q15(0.014581573),	_Q15(-0.014216765),
	_Q15(0.007037941),	_Q15(-0.0028837733),	_Q15(0.00037186727),	_Q15(0.017481077),
	_Q15(0.009639639),	_Q15(0.0049082413),	_Q15(0.00612549),	_Q15(-0.018956697),
	_Q15(0.009492843),	_Q15(-0.0063786814),	_Q15(0.0141915735),	_Q15(0.010426446),
	_Q15(-0.012991546),	_Q15(-0.0370957),	_Q15(0.00028003842),	_Q15(-0.007763113),
	_Q15(-0.009386983),	_Q15(0.017560923),	_Q15(-0.015221943),	_Q15(0.023088187),
	_Q15(0.060164876),	_Q15(0.019768853),	_Q15(0.006427599),	_Q15(0.006231581),
	_Q15(0.019650128),	_Q15(0.05722553),	_Q15(0.021106673),	_Q15(-0.0035567982),
	_Q15(0.008721319),	_Q15(0.0030724406),	_Q15(-0.019190881),	_Q15(-0.006348383),
	_Q15(0.010227274),	_Q15(0.018995315),	_Q15(0.006286063),	_Q15(0.010740281),
	_Q15(0.01187532),	_Q15(-0.0053035202),	_Q15(-0.013119411),	_Q15(0.009644736),
	_Q15(-0.017340325),	_Q15(-0.0035483872),	_Q15(-0.015534175),	_Q15(0.025853923),
	_Q15(0.030209916),	_Q15(0.0041358084),	_Q15(0.002239103),	_Q15(-0.013842037),
	_Q15(0.0059817806),	_Q15(0.008494661),	_Q15(-0.01759585),	_Q15(0.0010780401),
	_Q15(0.020407708),	_Q15(-0.012364759),	_Q15(-0.0007205052),	_Q15(-0.0060250266),
	_Q15(0.0058298414),	_Q15(0.006085889),	_Q15(0.015287286),	_Q15(0.0040607057),
	_Q15(-0.01262915),	_Q15(-0.0012312641),	_Q15(-0.00015589864),	_Q15(0.008391493),
	_Q15(0.005756206),	_Q15(-0.016112426),	_Q15(-0.0064365664),	_Q15(0.008106818),
	_Q15(0.007256948),	_Q15(0.00042903144),	_Q15(0.006395594),	_Q15(-0.004800143),
	_Q15(0.02841987),	_Q15(0.018525187),	_Q15(-0.021290869),	_Q15(0.0021094077),
	_Q15(-0.0072403476),	_Q15(0.01325326),	_Q15(0.0031659438),	_Q15(-0.013689755),
	_Q15(-0.024315177),	_Q15(0.0002899492),	_Q15(0.021819938),	_Q15(0.020518536),
	_Q15(0.0021509472),	_Q15(0.0048142164),	_Q15(0.010112032),	_Q15(0.015108962),
	_Q15(0.008712688),	_Q15(-0.014750312),	_Q15(-0.0102891885),	_Q15(0.02435224),
	_Q15(0.0546606),	_Q15(0.011155068),	_Q15(-0.009568094),	_Q15(-0.0052193506),
	_Q15(0.032034624),	_Q15(-0.009064235),	_Q15(0.037522014),	_Q15(-0.014172451),
	_Q15(-0.010586318),	_Q15(0.03587632),	_Q15(-0.054442704),	_Q15(-0.03670436),
	_Q15(-0.014112779),	_Q15(0.015147066),	_Q15(-0.0032796967),	_Q15(0.0039666328),
	_Q15(0.020406457),	_Q15(0.01841238),	_Q15(0.007994175),	_Q15(0.021169934),
	_Q15(0.0059827957),	_Q15(0.020505333),	_Q15(0.027837291),	_Q15(0.0080714),
	_Q15(0.026298214),	_Q15(-0.00977495),	_Q15(0.0027975237),	_Q15(0.0024183039),
	_Q15(-0.0048556016),	_Q15(-0.0042470354),	_Q15(-0.0108604655),	_Q15(-0.023520637),
	_Q15(-0.007520735),	_Q15(0.018691951),	_Q15(-0.016701514),	_Q15(-0.02256765),
	_Q15(-0.017499799),	_Q15(-0.010502847),	_Q15(-0.048196394),	_Q15(-0.009712074),
	_Q15(0.003633623),	_Q15(0.011653253),	_Q15(0.004390771),	_Q15(0.007384608),
	_Q15(0.004440428),	_Q15(0.03412181),	_Q15(0.013070591),	_Q15(0.03641641),
	_Q15(0.014978348),	_Q15(-0.013412564),	_Q15(-0.02682393),	_Q15(-0.0038534072),
	_Q15(-0.025039705),	_Q15(-0.0028007913),	_Q15(-0.04081712),	_Q15(-0.011056889),
	_Q15(0.007880536),	_Q15(-0.006741041),	_Q15(-0.0073419656),	_Q15(-0.057011645),
	_Q15(-0.05246508),	_Q15(-0.029598515),	_Q15(-0.028241897),	_Q15(-0.047786698),
	_Q15(-0.0022004743),	_Q15(0.025799945),	_Q15(0.0037698725),	_Q15(-0.019629719),
	_Q15(-0.0024190862),	_Q15(0.0005309697),	_Q15(0.016766356),	_Q15(0.007853144),
	_Q15(-0.0061684516),	_Q15(0.015615954),	_Q15(0.00012952558),	_Q15(0.013765366),
	_Q15(0.023629831),	_Q15(0.0043530785),	_Q15(-0.010186931),	_Q15(-0.0031293614),
	_Q15(-0.0056658764),	_Q15(-0.002416841),	_Q15(-0.028662115),	_Q15(0.019550605),
	_Q15(0.007771977),	_Q15(0.0037142015),	_Q15(-0.012761407),	_Q15(-0.034439962),
	_Q15(-0.001702539),	_Q15(0.007803764),	_Q15(-0.009632464),	_Q15(-0.0018102769),
	_Q15(-0.01889914),	_Q15(-0.0021497973),	_Q15(-0.004481371),	_Q15(-0.0039680274),
	_Q15(0.01692318),	_Q15(-0.0095869675),	_Q15(0.015013329),	_Q15(0.018422203),
	_Q15(-0.0051279473),	_Q15(0.00022093105),	_Q15(-0.0009788064),	_Q15(0.036344394),
	_Q15(0.021622244),	_Q15(-0.015187489),	_Q15(0.018862432),	_Q15(-0.004702673),
	_Q15(0.01592484),	_Q15(-0.003640828),	_Q15(0.012678436),	_Q15(0.035534155),
	_Q15(0.002022817),	_Q15(0.0007524123),	_Q15(-0.0030656995),	_Q15(0.0012294903),
	_Q15(-0.0046562115),	_Q15(-0.010645183),	_Q15(0.010181302),	_Q15(-0.00971515),
	_Q15(-0.0070064496),	_Q15(-0.0016308227),	_Q15(0.008047966),	_Q15(0.011881698),
	_Q15(0.002272933),	_Q15(-0.012695111),	_Q15(-0.00251612),	_Q15(0.01705263),
	_Q15(0.0025651196),	_Q15(-0.023547271),	_Q15(-0.0007495559),	_Q15(-0.0039182175),
	_Q15(0.009477291),	_Q15(-0.022155887),	_Q15(0.0045860787),	_Q15(0.002893693),
	_Q15(0.019512882),	_Q15(0.019847792),	_Q15(0.009552196),	_Q15(0.030241746),
	_Q15(0.014084662),	_Q15(-0.0017236326),	_Q15(0.011139298),	_Q15(0.014650067),
	_Q15(-0.0054305117),	_Q15(-0.019680306),	_Q15(-0.004304993),	_Q15(-0.001770877),
	_Q15(-0.012907074),	_Q15(-0.007839794),	_Q15(-0.0023182202),	_Q15(-0.011416102),
	_Q15(0.017829718),	_Q15(-0.0023992462),	_Q15(-0.017321205),	_Q15(-0.007473958),
	_Q15(-0.0057636504),	_Q15(0.017040953),	_Q15(-0.012149331),	_Q15(-0.00551614),
	_Q15(0.02370412),	_Q15(0.008090285),	_Q15(0.0014156098),	_Q15(0.003987914),
	_Q15(0.0074803424),	_Q15(0.03039593),	_Q15(0.027156265),	_Q15(0.010845878),
	_Q15(-0.00680851),	_Q15(0.015441808),	_Q15(-0.014312952),	_Q15(0.024502043),
	_Q15(0.004360454),	_Q15(-0.00013988942),	_Q15(-0.01121244),	_Q15(-0.026711209),
	_Q15(0.015150836),	_Q15(-0.0037467466),	_Q15(-0.023670863),	_Q15(0.00859902),
	_Q15(-0.0093382085),	_Q15(-0.015353894),	_Q15(0.002216258),	_Q15(0.026985804),
	_Q15(0.0026552535),	_Q15(0.022763541),	_Q15(-0.014189793),	_Q15(-0.011834235),
	_Q15(-0.01674063),	_Q15(-0.0052429335),	_Q15(0.0107468935),	_Q15(0.011811693),
	_Q15(0.007726505),	_Q15(0.0012521861),	_Q15(-0.009989585),	_Q15(-0.0065452163),
	_Q15(-0.029838217),	_Q15(0.0024236639),	_Q15(-0.003104196),	_Q15(0.009487609),
	_Q15(-0.017696194),	_Q15(-0.002737937),	_Q15(0.03272803),	_Q15(-0.018698087),
	_Q15(-0.014238537),	_Q15(-0.00013524448),	_Q15(-0.011800484),	_Q15(0.0033871783),
	_Q15(-0.01667927),	_Q15(0.0029789286),	_Q15(0.005492774),	_Q15(-0.0007994045),
	_Q15(0.009372767),	_Q15(-0.00202069),	_Q15(-0.0045365267),	_Q15(0.024904078),
	_Q15(0.01249822),	_Q15(0.013033276),	_Q15(0.0056604375),	_Q15(-0.007041411),
	_Q15(0.030656483),	_Q15(0.02012506),	_Q15(0.009374309),	_Q15(-0.0013226185),
	_Q15(0.011630383),	_Q15(-0.0068501085),	_Q15(0.0065084263),	_Q15(-0.020967815),
	_Q15(-0.025105197),	_Q15(0.00656035),	_Q15(0.0017282431),	_Q15(0.0055485996),
	_Q15(-0.012262),	_Q15(-0.012896892),	_Q15(-0.009726551),	_Q15(-0.050301332),
	_Q15(-0.04237416),	_Q15(-0.020271733),	_Q15(-0.038201153),	_Q15(-0.0041088797),
	_Q15(-0.015690213),	_Q15(-0.012435523),	_Q15(-0.009583386),	_Q15(-0.004260686),
	_Q15(0.020017195),	_Q15(0.0022611648),	_Q15(0.010767272),	_Q15(0.014926885),
	_Q15(0.03446249),	_Q15(0.014224533),	_Q15(0.00593125),	_Q15(0.0033859347),
	_Q15(0.014920547),	_Q15(0.02835014),	_Q15(-0.006935207),	_Q15(0.0029059043),
	_Q15(0.0040868022),	_Q15(-0.008460241),	_Q15(0.016744843),	_Q15(-0.008922577),
	_Q15(0.0055029723),	_Q15(0.00041346412),	_Q15(0.019248437),	_Q15(0.018621625),
	_Q15(-0.000806255),	_Q15(-0.010283852),	_Q15(0.0020959321),	_Q15(-8.7039545e-05),
	_Q15(-0.0073178085),	_Q15(0.010782263),	_Q15(0.0076740333),	_Q15(0.007939578),
	_Q15(-0.0021092007),	_Q15(0.0011074061),	_Q15(-0.00011853305),	_Q15(0.013905288),
	_Q15(0.005147641),	_Q15(-0.005659711),	_Q15(-0.010841754),	_Q15(0.0066364342),
	_Q15(0.010310412),	_Q15(0.00616734),	_Q15(0.010514416),	_Q15(0.0034397577),
	_Q15(-0.0114185335),	_Q15(-0.0037300382),	_Q15(0.011964687),	_Q15(0.003575082),
	_Q15(-9.4426796e-05),	_Q15(0.008223091),	_Q15(0.0010881457),	_Q15(-0.012004963),
	_Q15(0.009791511),	_Q15(0.00042101432),	_Q15(-0.0029299664),	_Q15(-0.01458595),
	_Q15(0.015749061),	_Q15(-0.0017037365),	_Q15(-0.01199341),	_Q15(-0.011084652),
	_Q15(-0.0148589965),	_Q15(0.013215892),	_Q15(0.01130923),	_Q15(0.0019827988),
	_Q15(-0.0010234935),	_Q15(0.014108542),	_Q15(0.020310039),	_Q15(-0.0101138055),
	_Q15(-0.009643362),	_Q15(0.017999193),	_Q15(-0.005003735),	_Q15(0.0018131309),
	_Q15(-0.015644792),	_Q15(0.013545789),	_Q15(0.0029935187),	_Q15(-0.0135263745),
	_Q15(-0.017961973),	_Q15(0.012761991),	_Q15(0.009211884),	_Q15(0.00069567736),
	_Q15(-0.008362328),	_Q15(-0.008456076),	_Q15(0.032092284),	_Q15(0.050890867),
	_Q15(-0.007969812),	_Q15(0.004827779),	_Q15(0.0077549466),	_Q15(0.0025365246),
	_Q15(0.049148753),	_Q15(0.02175699),	_Q15(0.010197615),	_Q15(0.006597544),
	_Q15(0.021443954),	_Q15(0.029228),	_Q15(-0.0067552994),	_Q15(0.0068598855),
	_Q15(0.00031204178),	_Q15(0.02113519),	_Q15(0.017791927),	_Q15(-0.025147503),
	_Q15(-0.001818611),	_Q15(-0.011301687),	_Q15(0.004266846),	_Q15(-0.009518557),
	_Q15(-0.008025331),	_Q15(-0.008726516),	_Q15(-0.010808297),	_Q15(0.0022360838),
	_Q15(0.0048114513),	_Q15(-0.004805461),	_Q15(0.008711592),	_Q15(0.008455887),
	_Q15(0.0056953817),	_Q15(-0.0025209247),	_Q15(-0.0023071647),	_Q15(-0.012716334),
	_Q15(-0.011460213),	_Q15(-0.0074761007),	_Q15(-0.009083264),	_Q15(0.0006595526),
	_Q15(0.008952316),	_Q15(-0.011775145),	_Q15(0.0045873625),	_Q15(0.0011877506),
	_Q15(-0.0029107977),	_Q15(-0.010222661),	_Q15(-0.0011367815),	_Q15(-0.013069154),
	_Q15(-0.0065539195),	_Q15(0.0021060165),	_Q15(-0.003664607),	_Q15(0.00861102),
	_Q15(-0.012008721),	_Q15(0.005271625),	_Q15(0.012211302),	_Q15(-0.00548838),
	_Q15(0.0051181596),	_Q15(0.0010059258),	_Q15(-0.014177445),	_Q15(0.004646509),
	_Q15(-0.0061432743),	_Q15(0.00434526),	_Q15(0.007027282),	_Q15(0.0006514228),
	_Q15(-0.0014419466),	_Q15(0.008493068),	_Q15(-0.010797628),	_Q15(-0.010159049),
	_Q15(-0.0094525),	_Q15(-0.0011445165),	_Q15(-0.001564009),	_Q15(-0.0019631207),
	_Q15(-0.0060904557),	_Q15(-0.012266351),	_Q15(-0.0005359536),	_Q15(-0.011037889),
	_Q15(-0.0035786745),	_Q15(-0.01320079),	_Q15(0.009641407),	_Q15(0.00531016),
	_Q15(0.0011483162),	_Q15(-0.0077512194),	_Q15(-0.0067383666),	_Q15(0.004935526),
	_Q15(-0.012427528),	_Q15(-0.0061120237),	_Q15(-0.01356297),	_Q15(0.005130201),
	_Q15(-0.002057114),	_Q15(0.006783265),	_Q15(-0.006806914),	_Q15(0.0052374224),
	_Q15(0.0011064649),	_Q15(-0.0064175804),	_Q15(-0.0141709475),	_Q15(-0.009687446),
	_Q15(0.0005934385),	_Q15(-0.010967677),	_Q15(0.004901842),	_Q15(0.010438698),
	_Q15(-0.012011107),	_Q15(-0.005531365),	_Q15(-0.0065863584),	_Q15(-0.014634812),
	_Q15(-0.0068965056),	_Q15(0.002842307),	_Q15(-0.00018117724),	_Q15(0.0019107355),
	_Q15(-0.0102432),	_Q15(-0.012204008),	_Q15(-0.00049082475),	_Q15(0.01071931),
	_Q15(0.0029787896),	_Q15(-0.007361137),	_Q15(-0.0031251505),	_Q15(-0.011966758),
	_Q15(-0.013862707),	_Q15(0.00733415),	_Q15(-0.0072257402),	_Q15(0.0070429435),
	_Q15(-0.0075654443),	_Q15(-0.00740148),	_Q15(0.009653722),	_Q15(0.0014279144),
	_Q15(0.01243947),	_Q15(0.0010904315),	_Q15(0.008908243),	_Q15(-0.0067474823),
	_Q15(-0.014408577),	_Q15(-0.01482339),	_Q15(-0.008009274),	_Q15(0.0097456435),
	_Q15(-0.008479911),	_Q15(-0.008243923),	_Q15(0.008782971),	_Q15(0.009604337),
	_Q15(-0.008855335),	_Q15(-0.0054603596),	_Q15(-0.006466327),	_Q15(0.0010804645),
	_Q15(-0.003253216),	_Q15(-0.0017129569),	_Q15(-0.0033353704),	_Q15(0.008991824),
	_Q15(-0.0055739903),	_Q15(0.006297549),	_Q15(-0.0005387611),	_Q15(-0.014625678),
	_Q15(0.0051699583),	_Q15(0.007176466),	_Q15(0.010203378),	_Q15(-0.00034704278),
	_Q15(0.008184097),	_Q15(-0.0047005406),	_Q15(-0.0014581473),	_Q15(0.004565191),
	_Q15(0.008897465),	_Q15(-0.004339402),	_Q15(-0.005622726),	_Q15(-0.0116807865),
	_Q15(-0.01372082),	_Q15(-0.011521131),	_Q15(-0.0103241475),	_Q15(-0.007591183),
	_Q15(0.0073522925),	_Q15(0.007368125),	_Q15(0.0025607396),	_Q15(0.002603833),
	_Q15(0.0075927954),	_Q15(-0.00829921),	_Q15(0.00015142442),	_Q15(-0.001988572),
	_Q15(0.007058433),	_Q15(-0.00881431),	_Q15(-0.0145500805),	_Q15(-0.001075964),
	_Q15(0.005809955),	_Q15(-0.007906468),	_Q15(0.0003733427),	_Q15(-0.0031986497),
	_Q15(0.0063273343),	_Q15(-0.0031935186),	_Q15(-0.0094955005),	_Q15(-0.0014240372),
	_Q15(-0.006357092),	_Q15(-0.0021431756),	_Q15(0.009735847),	_Q15(-0.012471355),
	_Q15(0.008762589),	_Q15(0.0059360354),	_Q15(0.006705212),	_Q15(-0.0056583714),
	_Q15(-0.008577102),	_Q15(0.003922662),	_Q15(-0.010598989),	_Q15(0.007771098),
	_Q15(-0.0029929355),	_Q15(-0.014781688),	_Q15(0.004073274),	_Q15(-0.009636431),
	_Q15(-0.0039623026),	_Q15(-0.009764719),	_Q15(-0.010714189),	_Q15(-0.009692192),
	_Q15(0.00027660892),	_Q15(-0.0045231907),	_Q15(-0.0022188118),	_Q15(-0.006663685),
	_Q15(-0.008573418),	_Q15(-0.006661016),	_Q15(-0.0040521338),	_Q15(-0.013394986),
	_Q15(-0.005327032),	_Q15(0.010037886),	_Q15(-0.010535744),	_Q15(-0.01255154),
	_Q15(-0.00028862426),	_Q15(-0.009023296),	_Q15(0.0077737076),	_Q15(-0.0035148617),
	_Q15(-0.01030157),	_Q15(-0.0103052845),	_Q15(-0.0034233786),	_Q15(-0.0136649),
	_Q15(0.004631911),	_Q15(-0.01105222),	_Q15(-0.0047650593),	_Q15(-0.010748132),
	_Q15(0.0071427613),	_Q15(-0.010122539),	_Q15(-0.011352712),	_Q15(-0.0004719688),
	_Q15(-0.0038176412),	_Q15(-0.012589253),	_Q15(-0.0039948146),	_Q15(0.0037558624),
	_Q15(0.0054031834),	_Q15(0.003066052),	_Q15(-0.0072199292),	_Q15(-0.0027585851),
	_Q15(0.006047238),	_Q15(-0.0012078853),	_Q15(0.0066223834),	_Q15(-0.010806308),
	_Q15(-0.007653622),	_Q15(-0.010079389),	_Q15(0.003262001),	_Q15(0.005755897),
	_Q15(-0.0015798148),	_Q15(0.00817076),	_Q15(-0.00818132),	_Q15(0.0065755737),
	_Q15(-3.2978925e-05),	_Q15(-0.0036640414),	_Q15(0.007491152),	_Q15(0.0036451742),
	_Q15(0.006027166),	_Q15(-0.0033126683),	_Q15(0.009995566),	_Q15(-0.013747242),
	_Q15(-0.0034221953),	_Q15(-0.010213379),	_Q15(0.007169824),	_Q15(0.010801982),
	_Q15(0.0059639444),	_Q15(-0.0015660491),	_Q15(-0.0145330755),	_Q15(0.009846729),
	_Q15(-0.0061495146),	_Q15(0.0018666666),	_Q15(-0.007334513),	_Q15(-0.0034667116),
	_Q15(-0.009978279),	_Q15(-0.0015824025),	_Q15(-0.0065270383),	_Q15(0.00721046),
	_Q15(-0.012991962),	_Q15(-0.0047905743),	_Q15(0.009169451),	_Q15(0.010245805),
	_Q15(0.0029276353),	_Q15(-0.010668922),	_Q15(-0.0035050146),	_Q15(0.0045562754),
	_Q15(0.0063861036),	_Q15(0.0044888216),	_Q15(-0.004807238),	_Q15(-0.0082608685),
	_Q15(0.002973488),	_Q15(0.005557714),	_Q15(-0.00544886),	_Q15(-0.011912211),
	_Q15(-0.012080829),	_Q15(-0.011948606),	_Q15(-0.011708016),	_Q15(-0.0009466268),
	_Q15(0.009374793),	_Q15(0.0075201844),	_Q15(-0.0022389602),	_Q15(-0.0051004277),
	_Q15(-0.004668506),	_Q15(-0.013992377),	_Q15(0.008530411),	_Q15(-0.010814566),
	_Q15(0.0038758016),	_Q15(-0.0056182565),	_Q15(0.0026197901),	_Q15(-0.00022766399),
	_Q15(-0.011888801),	_Q15(0.007125299),	_Q15(0.0005639547),	_Q15(0.005214715),
	_Q15(-0.0020373545),	_Q15(-0.004099248),	_Q15(-0.00029914366),	_Q15(0.0039576204),
	_Q15(0.009115444),	_Q15(-0.011083166),	_Q15(-0.0053036474),	_Q15(0.010577217),
	_Q15(-0.012396913),	_Q15(-0.0115686385),	_Q15(0.0036856337),	_Q15(0.004182293),
	_Q15(-0.006382024),	_Q15(-0.006556085),	_Q15(-0.011986967),	_Q15(0.0014122805),
	_Q15(-0.0046004453),	_Q15(-0.011012617),	_Q15(-0.012229934),	_Q15(0.0071486467),
	_Q15(0.0006696754),	_Q15(0.01028218),	_Q15(-0.008627665),	_Q15(-0.0077818776),
	_Q15(0.007069507),	_Q15(0.0006831305),	_Q15(0.0040919725),	_Q15(0.005723763),
	_Q15(-0.0031084314),	_Q15(-0.0025887787),	_Q15(0.001469018),	_Q15(0.004306852),
	_Q15(-0.012415084),	_Q15(0.0066132853),	_Q15(-0.009161535),	_Q15(-0.008402394),
	_Q15(0.007257209),	_Q15(0.002882829),	_Q15(-0.007979186),	_Q15(-0.0049506384),
	_Q15(-0.0016324893),	_Q15(0.0040429896),	_Q15(0.0043312954),	_Q15(-0.0018811319),
	_Q15(-0.00013183523),	_Q15(-0.004036906),	_Q15(0.0024234634),	_Q15(0.0047587967),
	_Q15(-0.006210235),	_Q15(-0.004475455),	_Q15(-0.0017808918),	_Q15(0.002977145),
	_Q15(-0.00965601),	_Q15(-0.01213969),	_Q15(0.0092436755),	_Q15(0.0087138815),
	_Q15(-0.004093444),	_Q15(0.0121783195),	_Q15(0.0058708917),	_Q15(-0.0038772768),
	_Q15(-0.01041684),	_Q15(-0.011067783),	_Q15(-0.009707907),	_Q15(-0.011166967),
	_Q15(-0.005718784),	_Q15(0.005968631),	_Q15(-0.009687448),	_Q15(0.0021357492),
	_Q15(-0.0068375967),	_Q15(0.0023640273),	_Q15(-0.00064647227),	_Q15(-0.0011571938),
	_Q15(0.005164929),	_Q15(-0.008183229),	_Q15(-0.010007904),	_Q15(0.004576965),
	_Q15(-0.001068225),	_Q15(0.0077287285),	_Q15(0.0020515542),	_Q15(0.00041648067),
	_Q15(0.004017137),	_Q15(0.002561928),	_Q15(-0.0146537),	_Q15(-0.011439644),
	_Q15(-7.092967e-05),	_Q15(-0.010563008),	_Q15(-0.0006874607),	_Q15(0.0014442367),
	_Q15(0.0026391896),	_Q15(-0.0017226202),	_Q15(-0.004356535),	_Q15(-0.012141466),
	_Q15(-0.0023076648),	_Q15(-0.0061777174),	_Q15(0.004491432),	_Q15(8.586379e-05),
	_Q15(-0.008332162),	_Q15(-0.0038522854),	_Q15(-0.008915898),	_Q15(-0.0077377437),
	_Q15(0.009797215),	_Q15(0.0020936485),	_Q15(0.002773299),	_Q15(-0.0022907313),
	_Q15(-0.012018477),	_Q15(0.00022597767),	_Q15(-0.00786298),	_Q15(-0.0054774187),
	_Q15(-0.004807901),	_Q15(-0.009506134),	_Q15(-0.012576702),	_Q15(-0.005029163),
	_Q15(0.0036468185),	_Q15(-0.014200231),	_Q15(-0.007782642),	_Q15(-0.016039481),
	_Q15(-0.01347601),	_Q15(-0.0118214935),	_Q15(-0.01606807),	_Q15(-0.0079024155),
	_Q15(0.007476739),	_Q15(0.00473646),	_Q15(-0.0148671465),	_Q15(-0.02506995),
	_Q15(-0.020498848),	_Q15(-0.010841525),	_Q15(-0.0021295305),	_Q15(-0.011130117),
	_Q15(-0.01583726),	_Q15(-0.007795067),	_Q15(-0.00026184096),	_Q15(-0.0014719736),
	_Q15(-0.005030694),	_Q15(-0.011186196),	_Q15(-0.0043924004),	_Q15(-0.0046394793),
	_Q15(-0.0067203715),	_Q15(-0.01825398),	_Q15(0.00013132425),	_Q15(-0.000849121),
	_Q15(0.0020837497),	_Q15(-0.013684525),	_Q15(-0.022180405),	_Q15(-0.00291571),
	_Q15(-0.018665783),	_Q15(-0.009526532),	_Q15(0.005756743),	_Q15(0.005486077),
	_Q15(0.004708243),	_Q15(-0.012219882),	_Q15(-0.0014676106),	_Q15(-0.0029164995),
	_Q15(-0.00064949004),	_Q15(0.00813989),	_Q15(-0.0035474089),	_Q15(-0.011670944),
	_Q15(-0.0058173905),	_Q15(0.011829988),	_Q15(-0.0006266551),	_Q15(0.0014613944),
	_Q15(0.0030024252),	_Q15(-0.003122225),	_Q15(-0.0064027426),	_Q15(-0.0062378654),
	_Q15(0.010952842),	_Q15(-0.018335773),	_Q15(-0.0057913153),	_Q15(0.00768317),
	_Q15(-0.0045360057),	_Q15(-0.0017200072),	_Q15(0.0010822332),	_Q15(0.010260865),
	_Q15(0.008811828),	_Q15(0.008253117),	_Q15(-0.008980172),	_Q15(-0.01282488),
	_Q15(0.00017070491),	_Q15(0.00050183985),	_Q15(0.009627582),	_Q15(-0.008162899),
	_Q15(0.0007179975),	_Q15(-0.004256217),	_Q15(0.003574821),	_Q15(-0.009484157),
	_Q15(-0.01057939),	_Q15(-0.012191238),	_Q15(0.0043920223),	_Q15(0.0076485896),
	_Q15(-0.013059143),	_Q15(0.0027355263),	_Q15(-0.0064054984),	_Q15(-0.0017319566),
	_Q15(0.0038525907),	_Q15(0.015471648),	_Q15(0.009643398),	_Q15(0.0075058425),
	_Q15(-0.015234533),	_Q15(0.011953831),	_Q15(-0.0011592667),	_Q15(-0.0049747387),
	_Q15(-0.008296513),	_Q15(-0.002424859),	_Q15(-0.022888979),	_Q15(-0.0017836684),
	_Q15(-0.003723739),	_Q15(-0.0103827845),	_Q15(-0.018335167),	_Q15(-0.010033757),
	_Q15(-0.013891487),	_Q15(-0.0019509798),	_Q15(-0.0110051455),	_Q15(-0.0117993215),
	_Q15(-0.0053705988),	_Q15(-0.0120547),	_Q15(0.0019766402),	_Q15(-0.007324551),
	_Q15(0.0077371355),	_Q15(-0.0024182226),	_Q15(0.006418459),	_Q15(0.011162109),
	_Q15(0.00065178354),	_Q15(-0.009068174),	_Q15(-0.018679902),	_Q15(-0.0073801703),
	_Q15(0.0114295),	_Q15(0.007075303),	_Q15(-0.0044850702),	_Q15(0.015056222),
	_Q15(-0.014763146),	_Q15(-0.011936205),	_Q15(-0.007004324),	_Q15(-0.02138674),
	_Q15(-0.016135149),	_Q15(0.0007517931),	_Q15(-0.013663143),	_Q15(-0.0130329905),
	_Q15(-0.0087282425),	_Q15(-0.005086895),	_Q15(0.016160602),	_Q15(-0.010580863),
	_Q15(0.006364939),	_Q15(-0.020424187),	_Q15(0.010635068),	_Q15(0.009606446),
	_Q15(-0.010231274),	_Q15(0.0025119625),	_Q15(0.009693215),	_Q15(0.0019238458),
	_Q15(0.0025610216),	_Q15(-0.0014435813),	_Q15(-0.014992522),	_Q15(-0.013311987),
	_Q15(0.0013347177),	_Q15(-0.0063425167),	_Q15(-0.01984728),	_Q15(0.0016889662),
	_Q15(-0.009304157),	_Q15(-0.005551689),	_Q15(0.0010003868),	_Q15(0.002275382),
	_Q15(-0.011306532),	_Q15(-0.0032873775),	_Q15(-0.0076328986),	_Q15(-0.0026247886),
	_Q15(-0.0043492997),	_Q15(-0.008085841),	_Q15(-0.008578568),	_Q15(-0.015712785),
	_Q15(0.0024192834),	_Q15(-0.0003465272),	_Q15(-0.010080695),	_Q15(-0.0014881169),
	_Q15(-0.0049254587),	_Q15(-0.0021764222),	_Q15(-0.010928659),	_Q15(0.0057941056),
	_Q15(0.009157338),	_Q15(-0.0023610517),	_Q15(-0.018460665),	_Q15(0.0043427865),
	_Q15(-0.0022613527),	_Q15(-0.0009869097),	_Q15(-0.02198032),	_Q15(-0.014191881),
	_Q15(0.0007895847),	_Q15(0.0011160864),	_Q15(-0.006393997),	_Q15(-0.0054908865),
	_Q15(0.0073037003),	_Q15(-0.006098362),	_Q15(0.014562628),	_Q15(0.005807922),
	_Q15(-0.006592971),	_Q15(-0.00014681493),	_Q15(-0.015243487),	_Q15(-0.015169571),
	_Q15(-0.0021155416),	_Q15(0.00081804773),	_Q15(0.004131691),	_Q15(-0.0133409975),
	_Q15(-0.0055563953),	_Q15(-0.023887042),	_Q15(-0.006322191),	_Q15(-0.00994652),
	_Q15(0.0083629545),	_Q15(-0.004795222),	_Q15(0.0035059869),	_Q15(-0.010708023),
	_Q15(-0.0069504324),	_Q15(0.002659119),	_Q15(-0.016371232),	_Q15(-0.0019512199),
	_Q15(-0.0009177398),	_Q15(-0.019204864),	_Q15(-0.0007932082),	_Q15(0.0032265282),
	_Q15(-0.007030353),	_Q15(-0.008789591),	_Q15(-0.022290178),	_Q15(-0.0032292432),
	_Q15(-0.017189512),	_Q15(-0.011350316),	_Q15(-0.011540104),	_Q15(-0.006440942),
	_Q15(-0.009613159),	_Q15(-0.020105524),	_Q15(-0.003547539),	_Q15(0.0028898325),
	_Q15(-0.0029454217),	_Q15(-0.005423579),	_Q15(-0.016224895),	_Q15(0.005178142),
	_Q15(-0.0109198205),	_Q15(-0.0050995974),	_Q15(-0.011978156),	_Q15(-0.012570262),
	_Q15(-0.007215552),	_Q15(-0.0044289334),	_Q15(0.0004965108),	_Q15(-0.013312315),
	_Q15(-0.016502203),	_Q15(0.00077857735),	_Q15(-0.0014190741),	_Q15(-0.0013394277),
	_Q15(-0.009657412),	_Q15(0.013512456),	_Q15(-0.013066238),	_Q15(0.002402866),
	_Q15(-0.019141296),	_Q15(-0.0073680924),	_Q15(-0.0041722427),	_Q15(-0.019545486),
	_Q15(0.0015576746),	_Q15(-0.008811246),	_Q15(-0.008714403),	_Q15(-0.012516405),
	_Q15(-0.018097324),	_Q15(-0.0046039103),	_Q15(0.005258945),	_Q15(0.007678471),
	_Q15(-0.008681596),	_Q15(0.0024539097),	_Q15(-0.0015972726),	_Q15(-0.0018090906),
	_Q15(0.008205204),	_Q15(0.0040665725),	_Q15(-0.0014449254),	_Q15(-0.01414483),
	_Q15(-0.018990353),	_Q15(-0.008757401),	_Q15(0.0006468871),	_Q15(-0.016954977),
	_Q15(-0.010597618),	_Q15(0.004342264),	_Q15(-0.002693507),	_Q15(-0.0040405365),
	_Q15(0.0018764653),	_Q15(-0.022435423),	_Q15(-0.0012085342),	_Q15(0.006198927),
	_Q15(-0.008889795),	_Q15(-0.0125536565),	_Q15(0.004628148),	_Q15(0.0053752176),
	_Q15(0.0031661107),	_Q15(-0.0061782645),	_Q15(-0.010382819),	_Q15(-0.0016013226),
	_Q15(0.013825964),	_Q15(-0.008217626),	_Q15(0.0031695517),	_Q15(0.011426589),
	_Q15(-0.0028046488),	_Q15(-0.008426286),	_Q15(-0.00097159424),	_Q15(-0.006942143),
	_Q15(0.0022997942),	_Q15(0.002837026),	_Q15(0.0035741786),	_Q15(0.0075871395),
	_Q15(-0.009966209),	_Q15(0.013897768),	_Q15(0.017913042),	_Q15(-0.00018874244),
	_Q15(-0.01804684),	_Q15(-0.00530426),	_Q15(-0.016972428),	_Q15(-0.003196889),
	_Q15(-0.014527829),	_Q15(-0.009745541),	_Q15(-0.0064564343),	_Q15(-0.018840566),
	_Q15(-0.007847357),	_Q15(-0.0050745425),	_Q15(-0.0003981246),	_Q15(0.0019625681),
	_Q15(-0.001762687),	_Q15(-0.0038010562),	_Q15(-0.018302802),	_Q15(-0.005242814),
	_Q15(0.00064537616),	_Q15(-0.0005697452),	_Q15(-0.012140254),	_Q15(0.0040204013),
	_Q15(-0.0076703983),	_Q15(-0.012750657),	_Q15(-0.012711711),	_Q15(0.0029512742),
	_Q15(8.89957e-05),	_Q15(-0.008863819),	_Q15(0.0015141063),	_Q15(-0.020844458),
	_Q15(0.002476455),	_Q15(0.0037451694),	_Q15(-0.009434847),	_Q15(-0.0045175133),
	_Q15(0.011321501),	_Q15(7.02776e-06),	_Q15(0.006880999),	_Q15(-0.0030569136),
	_Q15(0.0039906474),	_Q15(-0.002418482),	_Q15(0.00057511573),	_Q15(0.0005308127),
	_Q15(0.00469923),	_Q15(0.008765458),	_Q15(0.010435805),	_Q15(-0.0070893825),
	_Q15(-0.008988005),	_Q15(0.007284331),	_Q15(-0.004516286),	_Q15(0.0077537163),
	_Q15(0.00842977),	_Q15(0.007488345),	_Q15(0.007956871),	_Q15(-0.004696797),
	_Q15(-0.0052412003),	_Q15(0.0001296103),	_Q15(-0.017602202),	_Q15(0.012202886),
	_Q15(0.004309187),	_Q15(-0.001681442),	_Q15(-0.013540067),	_Q15(0.0036154408),
	_Q15(-0.00147359),	_Q15(0.00014825516),	_Q15(0.0023535811),	_Q15(-0.0016384064),
	_Q15(0.0013218415),	_Q15(-0.014275979),	_Q15(-0.00951854),	_Q15(-0.0051618116),
	_Q15(-0.010627072),	_Q15(0.0021617212),	_Q15(-0.003410993),	_Q15(-0.01698291),
	_Q15(0.005062354),	_Q15(-0.0075308224),	_Q15(-0.0022949618),	_Q15(-0.017568845),
	_Q15(0.0023438132),	_Q15(-0.008490847),	_Q15(-0.01267461),	_Q15(-0.009968377),
	_Q15(-0.016109534),	_Q15(-0.0066663814),	_Q15(-0.018771585),	_Q15(-0.006799087),
	_Q15(-0.018149815),	_Q15(-0.0009931737),	_Q15(-0.0069325836),	_Q15(0.005600421),
	_Q15(0.001195037),	_Q15(-0.014214798),	_Q15(-0.00075191987),	_Q15(0.002121028),
	_Q15(-0.00557283),	_Q15(-0.0058801156),	_Q15(-0.015703231),	_Q15(-0.007716679),
	_Q15(-0.0036273182),	_Q15(-6.756417e-05),	_Q15(-0.004434076),	_Q15(0.0034965386),
	_Q15(-0.008154266),	_Q15(0.004367644),	_Q15(-0.0082752295),	_Q15(-0.0071158893),
	_Q15(0.0025959567),	_Q15(0.0058266455),	_Q15(-0.0009798495),	_Q15(0.003652449),
	_Q15(-0.0028992726),	_Q15(0.007930666),	_Q15(0.015192194),	_Q15(0.027314486),
	_Q15(-0.00062145706),	_Q15(0.007657484),	_Q15(0.012230425),	_Q15(0.05213383),
	_Q15(0.016993158),	_Q15(0.01284043),	_Q15(-0.013440466),	_Q15(-0.03574561),
	_Q15(-0.03557646),	_Q15(-0.016738206),	_Q15(-0.016653957),	_Q15(-0.016813967),
	_Q15(-0.0038532957),	_Q15(-0.013293474),	_Q15(0.002088243),	_Q15(-0.008318243),
	_Q15(-0.01634177),	_Q15(-0.008083383),	_Q15(-0.024525488),	_Q15(-0.041220594),
	_Q15(-0.0064719906),	_Q15(9.361863e-05),	_Q15(0.024765082),	_Q15(0.004419698),
	_Q15(-0.039861996),	_Q15(-0.0077199885),	_Q15(0.014709855),	_Q15(-0.010380666),
	_Q15(-0.014061973),	_Q15(-0.03488044),	_Q15(0.02649905),	_Q15(-0.015143172),
	_Q15(-0.010903343),	_Q15(0.005631799),	_Q15(-0.007099987),	_Q15(-0.0014904906),
	_Q15(0.017016586),	_Q15(-0.005809397),	_Q15(0.0039998777),	_Q15(-0.034305375),
	_Q15(-0.02116236),	_Q15(0.003926204),	_Q15(-0.0052030096),	_Q15(0.012951412),
	_Q15(-0.0052069956),	_Q15(-0.0056282263),	_Q15(-0.008762965),	_Q15(0.0221011),
	_Q15(-0.017555714),	_Q15(-0.0037135456),	_Q15(0.011940947),	_Q15(0.019839795),
	_Q15(-0.03075371),	_Q15(0.0013830727),	_Q15(-0.013933986),	_Q15(-0.0004075079),
	_Q15(0.024812952),	_Q15(-0.0005059614),	_Q15(-0.027593141),	_Q15(0.011498323),
	_Q15(6.516374e-05),	_Q15(0.0005656023),	_Q15(-0.03462435),	_Q15(-0.041896235),
	_Q15(0.008580295),	_Q15(-0.00039742657),	_Q15(-0.008667462),	_Q15(0.01614025),
	_Q15(-0.02093017),	_Q15(-9.664756e-05),	_Q15(0.0061902395),	_Q15(0.020296628),
	_Q15(-0.0026985246),	_Q15(-0.0028834308),	_Q15(-0.021850396),	_Q15(-0.0073474213),
	_Q15(0.009475363),	_Q15(0.03981658),	_Q15(0.01782982),	_Q15(0.050447293),
	_Q15(0.02606643),	_Q15(-0.011832511),	_Q15(0.0021747542),	_Q15(0.017464947),
	_Q15(-0.015604355),	_Q15(0.013860121),	_Q15(-0.025816841),	_Q15(0.0050229407),
	_Q15(0.0131922895),	_Q15(0.0016442545),	_Q15(-0.04855321),	_Q15(-0.0088803),
	_Q15(0.009016685),	_Q15(0.0030596515),	_Q15(0.013174623),	_Q15(-0.008066016),
	_Q15(0.02813102),	_Q15(0.004220645),	_Q15(-0.02617766),	_Q15(-0.001997578),
	_Q15(0.016685152),	_Q15(-0.005170186),	_Q15(0.019404184),	_Q15(-0.0036023685),
	_Q15(0.016555065),	_Q15(0.019610414),	_Q15(-0.0059347358),	_Q15(0.0090605775),
	_Q15(0.014197484),	_Q15(0.010415377),	_Q15(-0.011507109),	_Q15(0.00018645285),
	_Q15(-0.009699514),	_Q15(-0.003668687),	_Q15(-0.036857206),	_Q15(-0.038911376),
	_Q15(-0.02790849),	_Q15(0.02500826),	_Q15(0.021179693),	_Q15(0.009540871),
	_Q15(-0.0005397043),	_Q15(-0.0071138726),	_Q15(-0.010848387),	_Q15(0.01586944),
	_Q15(-0.024388902),	_Q15(0.01020758),	_Q15(-0.0011564605),	_Q15(-0.032732222),
	_Q15(0.026885461),	_Q15(-0.015079248),	_Q15(0.0014597191),	_Q15(0.020887207),
	_Q15(-0.016799623),	_Q15(-0.041903704),	_Q15(-0.008949788),	_Q15(-0.008986261),
	_Q15(0.0073762047),	_Q15(-0.020447694),	_Q15(-0.03867767),	_Q15(-0.035641152),
	_Q15(-0.016263977),	_Q15(-0.006482327),	_Q15(0.024885394),	_Q15(0.0052384413),
	_Q15(0.008999952),	_Q15(0.0007047964),	_Q15(0.0027755522),	_Q15(0.017183945),
	_Q15(0.018344816),	_Q15(0.009994808),	_Q15(-0.0056867846),	_Q15(-0.006304779),
	_Q15(-0.025819482),	_Q15(0.022677073),	_Q15(-0.0020859034),	_Q15(0.006264409),
	_Q15(-0.018748097),	_Q15(-0.035144478),	_Q15(-0.0015122454),	_Q15(-0.002366076),
	_Q15(-0.012108521),	_Q15(-0.010893815),	_Q15(-0.014787999),	_Q15(-0.023424387),
	_Q15(0.0027709005),	_Q15(0.016407102),	_Q15(-0.0056410097),	_Q15(0.0008894479),
	_Q15(-0.0014566167),	_Q15(0.0151627865),	_Q15(0.0025281934),	_Q15(-0.0042771827),
	_Q15(0.006019869),	_Q15(-0.011481027),	_Q15(0.0067764283),	_Q15(-0.012253861),
	_Q15(-0.009885204),	_Q15(0.011327153),	_Q15(-0.0020587891),	_Q15(-0.0016332681),
	_Q15(-0.007208382),	_Q15(0.010198715),	_Q15(3.722928e-05),	_Q15(-0.005349813),
	_Q15(0.009368732),	_Q15(0.0072504403),	_Q15(-0.0072473297),	_Q15(0.0066023623),
	_Q15(0.012868013),	_Q15(0.017115735),	_Q15(0.0059653297),	_Q15(0.010050752),
	_Q15(0.0077382918),	_Q15(4.0528103e-05),	_Q15(0.008011334),	_Q15(0.0012469039),
	_Q15(-0.0068536275),	_Q15(0.0037486856),	_Q15(0.007719185),	_Q15(0.032530136),
	_Q15(-0.00953931),	_Q15(-0.007962534),	_Q15(-0.017985642),	_Q15(0.018744446),
	_Q15(0.00844546),	_Q15(0.005385166),	_Q15(0.0014092623),	_Q15(-0.0006235083),
	_Q15(-0.017433405),	_Q15(-0.017600602),	_Q15(-0.015768869),	_Q15(0.00027548985),
	_Q15(-0.0027702258),	_Q15(-0.003917141),	_Q15(-0.01570413),	_Q15(0.018006368),
	_Q15(0.0137283765),	_Q15(0.0046933168),	_Q15(-0.0025098664),	_Q15(-0.017048817),
	_Q15(0.0056468984),	_Q15(0.021505589),	_Q15(0.00022715337),	_Q15(0.0113897715),
	_Q15(-0.016152645),	_Q15(0.0022757186),	_Q15(0.018401422),	_Q15(0.014950019),
	_Q15(0.034762345),	_Q15(0.01232321),	_Q15(0.007832619),	_Q15(0.008436545),
	_Q15(-0.004963846),	_Q15(-0.022007657),	_Q15(-0.017269492),	_Q15(0.0037374096),
	_Q15(-0.017218258),	_Q15(-0.0026590126),	_Q15(-0.019893745),	_Q15(-0.036488924),
	_Q15(-0.0035728735),	_Q15(-0.012727585),	_Q15(-0.0017048271),	_Q15(0.0011663622),
	_Q15(-0.0027328979),	_Q15(0.0035412905),	_Q15(0.013343841),	_Q15(0.008414122),
	_Q15(-0.020987902),	_Q15(0.016232044),	_Q15(0.0066771572),	_Q15(-0.0015797234),
	_Q15(0.016231423),	_Q15(-0.03852344),	_Q15(0.014849095),	_Q15(0.0029659343),
	_Q15(0.0033180516),	_Q15(0.014557178),	_Q15(-0.018080195),	_Q15(-0.018108385),
	_Q15(0.0013732917),	_Q15(0.012417),	_Q15(0.021733748),	_Q15(-0.009947691),
	_Q15(-0.024219243),	_Q15(0.018373497),	_Q15(-0.0012940585),	_Q15(0.016001765),
	_Q15(-0.021375101),	_Q15(-0.025523072),	_Q15(0.0042102877),	_Q15(0.033500895),
	_Q15(-0.007537689),	_Q15(-0.023599576),	_Q15(-0.014030515),	_Q15(0.0071158945),
	_Q15(0.0023699617),	_Q15(0.018316032),	_Q15(0.01459142),	_Q15(-0.0013642203),
	_Q15(0.018569998),	_Q15(0.017056696),	_Q15(0.008961745),	_Q15(0.004161804),
	_Q15(-0.0028412552),	_Q15(0.005525951),	_Q15(0.011736033),	_Q15(-0.025060732),
	_Q15(-0.02867035),	_Q15(-0.03975073),	_Q15(-0.037209533),	_Q15(-0.032049615),
	_Q15(0.012681147),	_Q15(0.016334109),	_Q15(-0.0016323492),	_Q15(-0.010397208),
	_Q15(0.007204779),	_Q15(0.006171307),	_Q15(0.017667461),	_Q15(-0.0032155244),
	_Q15(-0.0025864583),	_Q15(5.9944665e-05),	_Q15(-0.017113917),	_Q15(0.006335959),
	_Q15(0.015860409),	_Q15(0.0007671716),	_Q15(-0.0031587973),	_Q15(-0.018833356),
	_Q15(0.0054710233),	_Q15(-0.038567826),	_Q15(0.007421752),	_Q15(-0.01912095),
	_Q15(-0.017997807),	_Q15(0.0098923035),	_Q15(0.0054164543),	_Q15(-0.010542595),
	_Q15(0.0041305437),	_Q15(-0.011082485),	_Q15(-0.011951602),	_Q15(0.009995521),
	_Q15(0.0010579797),	_Q15(-0.0031873267),	_Q15(0.00662353),	_Q15(-0.001851296),
	_Q15(-0.0038258058),	_Q15(0.005127765),	_Q15(-0.0012252759),	_Q15(0.008656909),
	_Q15(0.0032098396),	_Q15(-0.009864314),	_Q15(-0.005113049),	_Q15(-0.004813835),
	_Q15(0.004707542),	_Q15(-0.0006453227),	_Q15(-0.009994424),	_Q15(0.0037196383),
	_Q15(0.00028827228),	_Q15(0.0035066484),	_Q15(0.012491322),	_Q15(-0.008346681),
	_Q15(0.010493406),	_Q15(0.0044999765),	_Q15(-0.016176857),	_Q15(-0.0012929165),
	_Q15(0.0059335604),	_Q15(0.004099257),	_Q15(0.0060337996),	_Q15(-0.010896018),
	_Q15(0.00726471),	_Q15(0.002323223),	_Q15(-0.005372512),	_Q15(0.02291578),
	_Q15(-0.0017950861),	_Q15(-0.008927981),	_Q15(-0.0047002574),	_Q15(-0.009821528),
	_Q15(-0.0009891902),	_Q15(-0.002073675),	_Q15(0.0029219708),	_Q15(-0.018691406),
	_Q15(0.02127528),	_Q15(0.0074690394),	_Q15(0.005598017),	_Q15(-0.001339694),
	_Q15(0.0114666335),	_Q15(-0.009270273),	_Q15(-0.011571403),	_Q15(0.016342461),
	_Q15(-0.0014788614),	_Q15(-0.009915358),	_Q15(0.003116214),	_Q15(0.009902813),
	_Q15(0.014183204),	_Q15(0.012758838),	_Q15(0.009808715),	_Q15(0.012749861),
	_Q15(0.0022266638),	_Q15(0.010552779),	_Q15(0.013356795),	_Q15(-0.007542392),
	_Q15(0.017995773),	_Q15(-0.016032193),	_Q15(-0.020182207),	_Q15(0.0058047194),
	_Q15(0.008982809),	_Q15(0.012907942),	_Q15(-0.01652279),	_Q15(-0.005652642),
	_Q15(0.010547843),	_Q15(-0.002411706),	_Q15(-0.013359429),	_Q15(0.0023132283),
	_Q15(0.010196097),	_Q15(0.017054092),	_Q15(-0.0021613273),	_Q15(-0.006833525),
	_Q15(-0.011396816),	_Q15(0.023188243),	_Q15(0.0492389),	_Q15(0.04224568),
	_Q15(0.01512964),	_Q15(-0.022721406),	_Q15(-0.0028990672),	_Q15(0.0025986682),
	_Q15(0.010752304),	_Q15(-0.006161533),	_Q15(-0.011604002),	_Q15(-0.01330435),
	_Q15(0.009522439),	_Q15(0.032772504),	_Q15(0.015530364),	_Q15(-0.002833777),
	_Q15(0.0017530716),	_Q15(-0.019862412),	_Q15(-0.011888673),	_Q15(-0.013909878),
	_Q15(-0.0043768454),	_Q15(0.029743852),	_Q15(0.04044018),	_Q15(0.018169936),
	_Q15(-0.0007133487),	_Q15(-0.01783682),	_Q15(0.030043395),	_Q15(0.02287387),
	_Q15(0.013792784),	_Q15(0.03528528),	_Q15(0.010988383),	_Q15(-0.003543401),
	_Q15(-0.010727562),	_Q15(0.004505487),	_Q15(0.018855155),	_Q15(0.016213967),
	_Q15(0.012976033),	_Q15(0.0019990206),	_Q15(0.013966632),	_Q15(-0.015057234),
	_Q15(0.00034466892),	_Q15(0.0032290264),	_Q15(0.005071807),	_Q15(-0.0101561565),
	_Q15(-0.024533326),	_Q15(-0.016740741),	_Q15(0.009151418),	_Q15(0.03130303),
	_Q15(0.010819901),	_Q15(-0.0066843983),	_Q15(-0.0013941401),	_Q15(-0.04386011),
	_Q15(-0.03006543),	_Q15(-0.002679069),	_Q15(-0.009945372),	_Q15(0.0074785524),
	_Q15(-0.029013),	_Q15(-0.02592619),	_Q15(-0.0032999895),	_Q15(-0.013063094),
	_Q15(0.0063113053),	_Q15(0.00023433755),	_Q15(0.0051506488),	_Q15(0.0134875635),
	_Q15(0.0022878433),	_Q15(-0.040670846),	_Q15(-0.017855603),	_Q15(-0.031953786),
	_Q15(0.014537501),	_Q15(0.008715109),	_Q15(-0.016558202),	_Q15(-0.020669209),
	_Q15(-0.03499038),	_Q15(-0.01979317),	_Q15(-8.557974e-05),	_Q15(0.0013728391),
	_Q15(0.012636574),	_Q15(0.039663263),	_Q15(-0.009861914),	_Q15(-0.004788171),
	_Q15(0.0056831096),	_Q15(-0.0070285248),	_Q15(0.012117911),	_Q15(-0.0066537946),
	_Q15(-0.024757467),	_Q15(-0.022489585),	_Q15(-0.008926858),	_Q15(0.022660121),
	_Q15(0.013808201),	_Q15(0.0044982918),	_Q15(0.00050984765),	_Q15(-0.0097403405),
	_Q15(0.004138462),	_Q15(-0.024332652),	_Q15(-0.0072516687),	_Q15(-0.017528301),
	_Q15(-0.018683858),	_Q15(-0.043039016),	_Q15(-0.023628665),	_Q15(-0.024229167),
	_Q15(-0.0016097523),	_Q15(1.4852216e-05),	_Q15(0.027584806),	_Q15(0.01948081),
	_Q15(0.009637318),	_Q15(0.004657728),	_Q15(-0.0059707835),	_Q15(0.0151420105),
	_Q15(-8.020752e-05),	_Q15(0.019564793),	_Q15(0.029865572),	_Q15(-0.010730574),
	_Q15(0.006129241),	_Q15(-0.0022236367),	_Q15(0.009927774),	_Q15(0.018485356),
	_Q15(-0.013522893),	_Q15(-0.016698193),	_Q15(-0.02093867),	_Q15(0.0012697866),
	_Q15(0.008072566),	_Q15(0.017863546),	_Q15(0.017888501),	_Q15(-0.004090987),
	_Q15(-0.02811662),	_Q15(-0.002488381),	_Q15(-0.0072057615),	_Q15(0.015144603),
	_Q15(0.03361305),	_Q15(-0.00965451),	_Q15(-0.017186577),	_Q15(0.005333189),
	_Q15(0.015972234),	_Q15(0.036192436),	_Q15(0.022813203),	_Q15(-0.014488352),
	_Q15(-0.025002373),	_Q15(-0.0044368524),	_Q15(0.028861938),	_Q15(0.021033982),
	_Q15(-0.0050728554),	_Q15(0.006817825),	_Q15(-0.008319323),	_Q15(-0.006164104),
	_Q15(-0.0071128914),	_Q15(-0.0071209134),	_Q15(-0.011182953),	_Q15(0.028776601),
	_Q15(0.019553917),	_Q15(-0.016964266),	_Q15(-0.002772065),	_Q15(-0.013470992),
	_Q15(0.03710558),	_Q15(0.02688308),	_Q15(0.001964012),	_Q15(-0.023284938),
	_Q15(0.004258503),	_Q15(0.01574128),	_Q15(0.039446328),	_Q15(-0.021558061),
	_Q15(-0.017914098),	_Q15(-0.015110179),	_Q15(-0.013274319),	_Q15(0.020583445),
	_Q15(0.009907346),	_Q15(0.0006457037),	_Q15(-0.002880366),	_Q15(-0.019496916),
	_Q15(-0.0049135503),	_Q15(0.010784364),	_Q15(0.00031922167),	_Q15(-0.017484147),
	_Q15(0.006698819),	_Q15(0.006329623),	_Q15(0.007495853),	_Q15(0.0015747151),
	_Q15(-0.012677131),	_Q15(0.011336185),	_Q15(-0.00010665384),	_Q15(0.015336666),
	_Q15(-0.00529183),	_Q15(0.007070827),	_Q15(0.017030561),	_Q15(0.025613138),
	_Q15(0.023313405),	_Q15(0.0016874538),	_Q15(-0.001983195),	_Q15(-0.0012412868),
	_Q15(0.008741934),	_Q15(-0.0018227667),	_Q15(0.0030347588),	_Q15(0.0072809155),
	_Q15(0.0054834965),	_Q15(-0.013867859),	_Q15(0.014235986),	_Q15(-0.0022495002),
	_Q15(-0.008196804),	_Q15(0.010587309),	_Q15(0.022195183),	_Q15(0.0053382986),
	_Q15(-0.01218121),	_Q15(0.0070810826),	_Q15(0.0018001016),	_Q15(0.021631533),
	_Q15(-0.00094519014),	_Q15(-0.010194411),	_Q15(0.0072821663),	_Q15(-0.010054485),
	_Q15(0.0039418875),	_Q15(0.013029301),	_Q15(-0.007717323),	_Q15(0.005045345),
	_Q15(-0.0052091083),	_Q15(-0.0046107518),	_Q15(0.006981203),	_Q15(0.0059460397),
	_Q15(-0.0019705766),	_Q15(-0.008597499),	_Q15(-0.007124911),	_Q15(0.009528582),
	_Q15(0.0054294993),	_Q15(0.012524522),	_Q15(-0.00232998),	_Q15(-0.037120987),
	_Q15(-0.02850437),	_Q15(-0.013965351),	_Q15(0.023795936),	_Q15(0.036331348),
	_Q15(0.018965438),	_Q15(-0.013356402),	_Q15(-0.012335993),	_Q15(0.007995927),
	_Q15(0.01343902),	_Q15(0.0034755748),	_Q15(0.008249814),	_Q15(-0.012933335),
	_Q15(-0.010929132),	_Q15(-0.0065580183),	_Q15(0.0075951773),	_Q15(0.014828646),
	_Q15(-0.004770393),	_Q15(-0.000592278),	_Q15(-0.00419141),	_Q15(-0.009254896),
	_Q15(-0.006474481),	_Q15(-0.00040651514),	_Q15(-0.004859434),	_Q15(0.0072613815),
	_Q15(0.0048782015),	_Q15(-0.0064552072),	_Q15(-0.012224042),	_Q15(-0.00049248716),
	_Q15(0.000669948),	_Q15(0.017417796),	_Q15(0.013507859),	_Q15(-0.016719393),
	_Q15(-0.010548046),	_Q15(0.012486195),	_Q15(-0.004566669),	_Q15(0.018720211),
	_Q15(0.011030215),	_Q15(-0.0010286415),	_Q15(0.0052259327),	_Q15(-0.013821043),
	_Q15(0.0070497016),	_Q15(0.007182599),	_Q15(0.0069586085),	_Q15(0.004184449),
	_Q15(-0.0064207953),	_Q15(-0.00076510827),	_Q15(0.007708718),	_Q15(0.0005000376),
	_Q15(-0.021827847),	_Q15(-0.02699176),	_Q15(-0.031037679),	_Q15(-0.006771502),
	_Q15(-0.0017280824),	_Q15(-0.018381204),	_Q15(-0.022012126),	_Q15(0.019480268),
	_Q15(0.012770967),	_Q15(0.0022559117),	_Q15(0.0071641756),	_Q15(-0.016792638),
	_Q15(0.0064187963),	_Q15(0.0029753628),	_Q15(0.0065241354),	_Q15(0.035134796),
	_Q15(-0.013635503),	_Q15(-0.0016771583),	_Q15(0.011103788),	_Q15(-0.023470944),
	_Q15(0.005140174),	_Q15(-0.0047077932),	_Q15(-0.0040598707),	_Q15(0.003561201),
	_Q15(-0.011422678),	_Q15(0.0052490784),	_Q15(-0.010407199),	_Q15(0.010372068),
	_Q15(-0.016190425),	_Q15(0.008091736),	_Q15(0.023602229),	_Q15(0.027791444),
	_Q15(-0.0038542342),	_Q15(-0.0156026315),	_Q15(0.008203315),	_Q15(0.010929821),
	_Q15(0.012995168),	_Q15(0.017018488),	_Q15(0.0130337),	_Q15(-0.0104064895),
	_Q15(-0.0019164822),	_Q15(0.035151206),	_Q15(0.016979141),	_Q15(0.006755083),
	_Q15(-0.008635689),	_Q15(-0.003406757),	_Q15(0.00074476073),	_Q15(0.0018078531),
	_Q15(0.013780727),	_Q15(0.0052117566),	_Q15(-0.0043354705),	_Q15(0.011931934),
	_Q15(0.004339994),	_Q15(-0.0038377196),	_Q15(-0.003804566),	_Q15(-0.0001494484),
	_Q15(0.0089989845),	_Q15(0.005638005),	_Q15(-0.0014112717),	_Q15(-0.0034728423),
	_Q15(0.007886246),	_Q15(0.0067058443),	_Q15(-0.003848699),	_Q15(-0.012248807),
	_Q15(-0.008861039),	_Q15(0.01113258),	_Q15(0.006396131),	_Q15(-0.00837478),
	_Q15(0.011723197),	_Q15(-0.0044579525),	_Q15(0.010076472),	_Q15(0.010882518),
	_Q15(-0.002028631),	_Q15(-0.0061146514),	_Q15(-0.00044902333),	_Q15(0.021651834),
	_Q15(0.0074263224),	_Q15(-0.008845895),	_Q15(-0.0013305403),	_Q15(0.030578997),
	_Q15(-0.0031702605),	_Q15(0.001383183),	_Q15(-0.0073069045),	_Q15(-0.0054211286),
	_Q15(-0.01020112),	_Q15(-0.008890807),	_Q15(0.006743985),	_Q15(-0.003245994),
	_Q15(-0.014785463),	_Q15(0.020730957),	_Q15(-0.0003929076),	_Q15(0.0072108386),
	_Q15(-0.007401129),	_Q15(-0.009871133),	_Q15(-0.009302235),	_Q15(-0.0074568563),
	_Q15(0.0100611),	_Q15(0.0066792537),	_Q15(-0.0046918634),	_Q15(-0.00814713),
	_Q15(0.005041904),	_Q15(0.0019477461),	_Q15(0.024668606),	_Q15(0.0026891634),
	_Q15(-0.010582556),	_Q15(0.01916122),	_Q15(0.01751307),	_Q15(0.0223399),
	_Q15(-0.008383926),	_Q15(0.012776918),	_Q15(0.004532059),	_Q15(-0.005340771),
	_Q15(-0.01461044),	_Q15(0.0030954867),	_Q15(-0.009436432),	_Q15(0.009222223),
	_Q15(0.0014254774),	_Q15(0.009000812),	_Q15(0.017630974),	_Q15(-0.011001017),
	_Q15(-0.0014675567),	_Q15(0.004167437),	_Q15(-0.005127191),	_Q15(0.014941219),
	_Q15(-0.001941875),	_Q15(0.011531459),	_Q15(-0.00062245905),	_Q15(0.007989095),
	_Q15(-0.005344593),	_Q15(-0.014273024),	_Q15(-0.04990823),	_Q15(-0.02511247),
	_Q15(-0.00089384615),	_Q15(-0.000540573),	_Q15(0.0061620716),	_Q15(-0.020593928),
	_Q15(0.0056880494),	_Q15(0.01226522),	_Q15(0.0011190348),	_Q15(0.013281647),
	_Q15(-0.01002699),	_Q15(-0.023760276),	_Q15(-0.016450379),	_Q15(0.00019071386),
	_Q15(0.017323434),	_Q15(0.0075898115),	_Q15(-0.01020103),	_Q15(0.009213058),
	_Q15(0.009662801),	_Q15(0.004208033),	_Q15(0.016320579),	_Q15(0.017143657),
	_Q15(0.018023748),	_Q15(0.0055851126),	_Q15(-0.013343508),	_Q15(0.0019921067),
	_Q15(0.008272529),	_Q15(0.00484169),	_Q15(-0.00090207387),	_Q15(-0.00073297665),
	_Q15(0.02545462),	_Q15(0.009097969),	_Q15(0.0043820385),	_Q15(-0.009570881),
	_Q15(0.0027536147),	_Q15(-0.019267328),	_Q15(-0.007672584),	_Q15(0.0043013776),
	_Q15(-0.0065353736),	_Q15(-0.006021564),	_Q15(0.0030933241),	_Q15(0.005220465),
	_Q15(0.004484377),	_Q15(-0.000691256),	_Q15(0.015376492),	_Q15(-0.0043233037),
	_Q15(0.010181379),	_Q15(0.0012323841),	_Q15(0.008874268),	_Q15(-0.0048011933),
	_Q15(-0.009602796),	_Q15(-0.0018340695),	_Q15(-0.0018970987),	_Q15(-0.022580165),
	_Q15(0.028311256),	_Q15(-0.013072143),	_Q15(0.009149494),	_Q15(0.014034681),
	_Q15(-0.021046298),	_Q15(-0.022136353),	_Q15(0.00696145),	_Q15(0.003183922),
	_Q15(0.031452775),	_Q15(-0.007968232),	_Q15(0.0066411006),	_Q15(0.001153769),
	_Q15(0.009950996),	_Q15(0.001986723),	_Q15(0.0060915956),	_Q15(0.00061235874),
	_Q15(0.008410439),	_Q15(-0.0012390626),	_Q15(0.008789381),	_Q15(-0.003480391),
	_Q15(-0.004181293),	_Q15(0.00045630347),	_Q15(-0.008758491),	_Q15(0.00066017907),
	_Q15(-0.008183503),	_Q15(-0.0028941673),	_Q15(-0.009050556),	_Q15(0.012239713),
	_Q15(-0.00014044876),	_Q15(-0.01949769),	_Q15(-0.0015567674),	_Q15(-0.022071691),
	_Q15(-0.004221515),	_Q15(0.005816958),	_Q15(0.009042421),	_Q15(-0.015355264),
	_Q15(-0.04144839),	_Q15(-0.038125444),	_Q15(0.0033595765),	_Q15(0.030682266),
	_Q15(0.006318744),	_Q15(0.019490419),	_Q15(0.008650719),	_Q15(0.00028857455),
	_Q15(-0.0026233862),	_Q15(0.022147933),	_Q15(0.022320796),	_Q15(0.016564634),
	_Q15(0.0017465752),	_Q15(-0.006764284),	_Q15(-0.0014297226),	_Q15(-0.014272329),
	_Q15(-0.0032278402),	_Q15(-0.012011131),	_Q15(0.0026919178),	_Q15(-0.008305149),
	_Q15(0.0070224376),	_Q15(-0.0025547824),	_Q15(0.030964099),	_Q15(0.017061844),
	_Q15(-0.028962612),	_Q15(-0.003356979),	_Q15(-0.0015146281),	_Q15(0.0355416),
	_Q15(0.017359609),	_Q15(0.0014189779),	_Q15(0.009637775),	_Q15(0.019725274),
	_Q15(-0.0025332656),	_Q15(-0.010721944),	_Q15(-0.0073134988),	_Q15(-0.011824812),
	_Q15(0.0061956216),	_Q15(-0.0051485137),	_Q15(-0.0046731676),	_Q15(-0.0016615466),
	_Q15(-0.022044158),	_Q15(-0.015384457),	_Q15(-0.004483777),	_Q15(-0.024543935),
	_Q15(0.0017564879),	_Q15(0.0104979845),	_Q15(0.01727476),	_Q15(-0.025197929),
	_Q15(-0.010441965),	_Q15(0.018279962),	_Q15(0.019314488),	_Q15(0.041525126),
	_Q15(0.03405659),	_Q15(0.0088033555),	_Q15(-0.0144414725),	_Q15(-0.026216922),
	_Q15(-0.0062319064),	_Q15(-0.0057698716),	_Q15(0.00056175276),	_Q15(-0.017819155),
	_Q15(-0.04995063),	_Q15(0.008576166),	_Q15(0.007763541),	_Q15(-0.0030654361),
	_Q15(0.0075675263),	_Q15(-0.02076111),	_Q15(-0.008953218),	_Q15(-0.005157347),
	_Q15(-0.016393302),	_Q15(-0.0009810631),	_Q15(-0.007968587),	_Q15(-0.014731736),
	_Q15(-0.015964165),	_Q15(-0.017488992),	_Q15(0.01978275),	_Q15(0.008808585),
	_Q15(0.013289846),	_Q15(-0.012957538),	_Q15(-0.006307684),	_Q15(-0.003911796),
	_Q15(-0.007958139),	_Q15(-0.028213913),	_Q15(-0.02217637),	_Q15(-0.010670773),
	_Q15(0.0077917837),	_Q15(0.0014739822),	_Q15(-0.006513278),	_Q15(0.0054179924),
	_Q15(0.012004512),	_Q15(0.008855082),	_Q15(0.0022515233),	_Q15(-0.0063655972),
	_Q15(0.0047519067),	_Q15(0.015811708),	_Q15(0.009372511),	_Q15(0.015812922),
	_Q15(-0.0037771508),	_Q15(0.0026422592),	_Q15(0.004512462),	_Q15(-0.00949461),
	_Q15(-0.0014546604),	_Q15(-0.0013377249),	_Q15(0.012729776),	_Q15(-0.004093485),
	_Q15(0.0010943171),	_Q15(-0.018179538),	_Q15(-0.002002149),	_Q15(0.010221526),
	_Q15(0.0052487967),	_Q15(-0.0017088803),	_Q15(-0.016063992),	_Q15(-0.017381152),
	_Q15(0.002043398),	_Q15(-0.0070946994),	_Q15(-0.0036083343),	_Q15(-0.018613718),
	_Q15(-0.011960033),	_Q15(-0.0013833356),	_Q15(0.0054926444),	_Q15(0.006125958),
	_Q15(0.012152437),	_Q15(0.0025788373),	_Q15(0.00753486),	_Q15(-0.0028207048),
	_Q15(0.004938541),	_Q15(0.009369633),	_Q15(0.014417061),	_Q15(-0.013826043),
	_Q15(-0.009264784),	_Q15(-0.0060132877),	_Q15(0.0033659986),	_Q15(0.010888399),
	_Q15(0.003953488),	_Q15(0.0058901124),	_Q15(-0.0061474405),	_Q15(-0.0077842986),
	_Q15(0.01704876),	_Q15(0.011394895),	_Q15(-0.0135041475),	_Q15(-0.022495061),
	_Q15(-0.012752487),	_Q15(-0.013896388),	_Q15(0.009512177),	_Q15(0.0027397773),
	_Q15(-0.009668681),	_Q15(-0.018513195),	_Q15(0.017652303),	_Q15(0.005305336),
	_Q15(0.00487829),	_Q15(0.008847271),	_Q15(-0.021543441),	_Q15(-0.022781653),
	_Q15(0.0015278009),	_Q15(0.011031561),	_Q15(-0.0006760947),	_Q15(-0.0011163523),
	_Q15(-0.022220738),	_Q15(0.006606584),	_Q15(0.01066548),	_Q15(-0.0059412806),
	_Q15(0.0076201055),	_Q15(-0.020058239),	_Q15(0.0031833618),	_Q15(0.010826177),
	_Q15(0.013976068),	_Q15(0.00074288255),	_Q15(-0.008490465),	_Q15(-0.008826452),
	_Q15(0.0035216126),	_Q15(0.0069407495),	_Q15(0.010162237),	_Q15(0.015864044),
	_Q15(-0.0035942814),	_Q15(0.015589078),	_Q15(0.005926497),	_Q15(0.0016232254),
	_Q15(-0.0016531334),	_Q15(-0.011161336),	_Q15(-0.007977557),	_Q15(-0.01102787),
	_Q15(0.026151033),	_Q15(0.018592434),	_Q15(0.0043158573),	_Q15(-0.0057543693),
	_Q15(0.03815736),	_Q15(0.026008558),	_Q15(0.014342159),	_Q15(-0.000443615),
	_Q15(0.006104821),	_Q15(-0.002436354),	_Q15(-0.020457424),	_Q15(0.016199002),
	_Q15(0.0011782108),	_Q15(0.012653918),	_Q15(-0.0023844445),	_Q15(-0.010101719),
	_Q15(-0.0084628),	_Q15(0.008624206),	_Q15(0.023981579),	_Q15(-0.02994701),
	_Q15(-0.01393794),	_Q15(-0.00025678246),	_Q15(0.01855461),	_Q15(0.010436082),
	_Q15(-0.009551248),	_Q15(-0.010831185),	_Q15(-0.0024345967),	_Q15(0.0119673405),
	_Q15(0.0016660537),	_Q15(-0.0065241586),	_Q15(-0.0076701413),	_Q15(-0.011127486),
	_Q15(-0.00033540837),	_Q15(-0.0035516135),	_Q15(-0.01644857),	_Q15(-0.02208537),
	_Q15(-0.003932469),	_Q15(-0.015010693),	_Q15(0.006312132),	_Q15(0.0010556813),
	_Q15(-0.0032066898),	_Q15(-0.023291374),	_Q15(-0.036666505),	_Q15(-0.014135689),
	_Q15(0.009125285),	_Q15(0.011113074),	_Q15(0.021726444),	_Q15(0.0126146795),
	_Q15(0.0057534524),	_Q15(0.008585907),	_Q15(0.002630666),	_Q15(-0.0027147634),
	_Q15(0.000749059),	_Q15(-0.011383275),	_Q15(0.009426244),	_Q15(-0.004494859),
	_Q15(0.00567864),	_Q15(-0.006866879),	_Q15(-0.008184749),	_Q15(-2.1967971e-05),
	_Q15(-0.00891948),	_Q15(0.003131916),	_Q15(-0.010381439),	_Q15(0.010552646),
	_Q15(-0.00015627545),	_Q15(0.008715319),	_Q15(0.008436239),	_Q15(-0.0037888316),
	_Q15(-0.0057324874),	_Q15(-0.0056204125),	_Q15(-0.002629809),	_Q15(0.00044613332),
	_Q15(-0.010499075),	_Q15(-0.007689959),	_Q15(0.009110476),	_Q15(-0.018454082),
	_Q15(-0.004366397),	_Q15(0.02104968),	_Q15(-0.0010158266),	_Q15(0.0070945406),
	_Q15(-0.0055019823),	_Q15(0.006991675),	_Q15(0.014828516),	_Q15(0.0097435005),
	_Q15(0.00495579),	_Q15(0.012449283),	_Q15(0.0033565573),	_Q15(0.020318901),
	_Q15(0.0087419925),	_Q15(-0.0038025507),	_Q15(0.0033626643),	_Q15(-0.0049484516),
	_Q15(0.001552497),	_Q15(-0.011893976),	_Q15(0.003423479),	_Q15(-0.00061413855),
	_Q15(-0.006286385),	_Q15(-0.009394616),	_Q15(-0.008181794),	_Q15(0.010762556),
	_Q15(0.023151593),	_Q15(0.016925184),	_Q15(-0.0067095365),	_Q15(0.009003869),
	_Q15(0.0006398996),	_Q15(0.00034147876),	_Q15(-0.0058680414),	_Q15(-0.027381174),
	_Q15(0.01224058),	_Q15(-0.017152766),	_Q15(-0.009284756),	_Q15(-0.014135884),
	_Q15(-0.04089783),	_Q15(0.008070829),	_Q15(0.0019603493),	_Q15(0.0024296714),
	_Q15(-0.026760854),	_Q15(-0.031868633),	_Q15(0.0065590222),	_Q15(0.009981751),
	_Q15(0.020743249),	_Q15(-0.01887962),	_Q15(-0.010547409),	_Q15(0.008317707),
	_Q15(-0.013267788),	_Q15(-0.025169015),	_Q15(0.0054717315),	_Q15(0.0111816665),
	_Q15(0.009589148),	_Q15(0.0016909646),	_Q15(-0.03733934),	_Q15(-0.03765887),
	_Q15(-0.012969419),	_Q15(0.010514375),	_Q15(0.02325892),	_Q15(-0.010811279),
	_Q15(-0.00096224516),	_Q15(0.0022871753),	_Q15(0.0056640157),	_Q15(0.034858543),
	_Q15(0.02439845),	_Q15(-0.034626465),	_Q15(0.0065484345),	_Q15(-0.0014298242),
	_Q15(0.0041112443),	_Q15(0.03393633),	_Q15(0.007822279),	_Q15(0.00088938454),
	_Q15(0.0009301643),	_Q15(0.004892965),	_Q15(-0.016167697),	_Q15(-0.010653531),
	_Q15(0.025539739),	_Q15(0.016793007),	_Q15(-0.037166633),	_Q15(-0.007054756),
	_Q15(0.003882447),	_Q15(-0.008839486),	_Q15(0.012291046),	_Q15(0.0021135302),
	_Q15(0.028138513),	_Q15(0.010021115),	_Q15(-0.007990083),	_Q15(0.0015880463),
	_Q15(-0.0075690895),	_Q15(0.0024574012),	_Q15(0.011682465),	_Q15(-0.0041902876),
	_Q15(-0.0069360887),	_Q15(-0.0109091345),	_Q15(-0.0031543411),	_Q15(0.016656023),
	_Q15(0.039417468),	_Q15(0.00797972),	_Q15(-0.022176012),	_Q15(-0.012429672),
	_Q15(0.0024622504),	_Q15(0.0052406895),	_Q15(0.008700003),	_Q15(-0.0031922066),
	_Q15(0.022854736),	_Q15(0.009820481),	_Q15(0.0061708684),	_Q15(-0.039769534),
	_Q15(-0.024565736),	_Q15(0.0046053506),	_Q15(0.03660653),	_Q15(0.0009847569),
	_Q15(-0.021522598),	_Q15(-0.022239475),	_Q15(-0.0035631726),	_Q15(-0.0013008162),
	_Q15(0.017035022),	_Q15(-0.004687297),	_Q15(0.03591241),	_Q15(0.018640913),
	_Q15(-0.011165065),	_Q15(-0.009260653),	_Q15(0.015837798),	_Q15(0.0019658613),
	_Q15(0.0031848813),	_Q15(0.012602842),	_Q15(-0.005083806),	_Q15(-0.010913744),
	_Q15(-0.0047371495),	_Q15(-0.014932073),	_Q15(-0.012153132),	_Q15(0.008954705),
	_Q15(-0.012119345),	_Q15(-0.02039793),	_Q15(-0.032971367),	_Q15(-0.014646551),
	_Q15(0.018517358),	_Q15(0.023965172),	_Q15(0.022873906),	_Q15(-0.020858528),
	_Q15(0.011014807),	_Q15(0.02435013),	_Q15(0.018042607),	_Q15(0.032014515),
	_Q15(0.005241563),	_Q15(-0.024923056),	_Q15(0.01930874),	_Q15(0.016824495),
	_Q15(-0.002083215),	_Q15(0.026042497),	_Q15(0.013702117),	_Q15(0.0027078125),
	_Q15(-0.022596309),	_Q15(-0.0013217076),	_Q15(-0.00996593),	_Q15(-0.014170637),
	_Q15(-0.012077292),	_Q15(0.02960153),	_Q15(-0.00459774),	_Q15(-0.01825707),
	_Q15(0.007523522),	_Q15(0.002118995),	_Q15(-0.027741106),	_Q15(-0.010240533),
	_Q15(-0.020463347),	_Q15(-0.0009964376),	_Q15(0.016021818),	_Q15(0.0018402273),
	_Q15(0.02152954),	_Q15(0.0077060005),	_Q15(0.013275105),	_Q15(0.026792662),
	_Q15(0.007944459),	_Q15(-0.036079515),	_Q15(-0.015749896),	_Q15(0.018825402),
	_Q15(0.014210569),	_Q15(0.02904248),	_Q15(0.012667961),	_Q15(0.005047252),
	_Q15(0.0053471904),	_Q15(-0.0010847138),	_Q15(-0.0022672692),	_Q15(0.011196556),
	_Q15(-0.00059656973),	_Q15(-0.015721899),	_Q15(-0.011841365),	_Q15(0.00055106566),
	_Q15(0.012364116),	_Q15(-0.0098696705),	_Q15(0.0019633295),	_Q15(-0.022297531),
	_Q15(-0.021990642),	_Q15(0.01656996),	_Q15(0.020577671),	_Q15(0.008834747),
	_Q15(0.021115327),	_Q15(0.0010847754),	_Q15(-0.018414713),	_Q15(-0.023037659),
	_Q15(-0.016904633),	_Q15(-0.0016056875),	_Q15(0.0038328164),	_Q15(0.009226298),
	_Q15(-0.017701147),	_Q15(0.0018380717),	_Q15(0.00018307476),	_Q15(0.010666481),
	_Q15(0.031283826),	_Q15(-0.0008437239),	_Q15(-0.01214576),	_Q15(0.014455057),
	_Q15(-0.0047297804),	_Q15(0.026367614),	_Q15(-0.0029446762),	_Q15(-0.030648522),
	_Q15(-0.00156101),	_Q15(0.0071283747),	_Q15(0.021916527),	_Q15(0.011726646),
	_Q15(0.006586109),	_Q15(-0.0073627713),	_Q15(0.0018349665),	_Q15(0.01615863),
	_Q15(0.00044856808),	_Q15(-0.004186646),	_Q15(-0.004069245),	_Q15(0.014402807),
	_Q15(0.017861698),	_Q15(0.01450175),	_Q15(-0.0021834834),	_Q15(0.008483978),
	_Q15(-0.002376172),	_Q15(-0.003292038),	_Q15(-0.0052033137),	_Q15(-0.01786027),
	_Q15(-0.0021486431),	_Q15(0.011029064),	_Q15(-0.0017079706),	_Q15(0.0026281353),
	_Q15(0.0023718013),	_Q15(-0.011392078),	_Q15(-0.0015795721),	_Q15(0.010373824),
	_Q15(-0.00040868006),	_Q15(0.0070596607),	_Q15(0.01264465),	_Q15(0.010283274),
	_Q15(0.0016697374),	_Q15(-0.014476905),	_Q15(-0.015132951),	_Q15(-0.002563137),
	_Q15(0.000694693),	_Q15(0.012054378),	_Q15(0.0018122792),	_Q15(-0.016758768),
	_Q15(0.011620579),	_Q15(0.007261443),	_Q15(0.014355025),	_Q15(-0.01195461),
	_Q15(0.00040880355),	_Q15(0.0038956648),	_Q15(0.012104874),	_Q15(-0.0013855147),
	_Q15(0.0025770233),	_Q15(-0.020195086),	_Q15(-0.022285642),	_Q15(-0.0021259398),
	_Q15(-0.005274994),	_Q15(-0.0026845527),	_Q15(0.025965372),	_Q15(-0.009001534),
	_Q15(0.007354902),	_Q15(-5.4123502e-05),	_Q15(-0.008446203),	_Q15(0.00869157),
	_Q15(0.02853442),	_Q15(-0.006727468),	_Q15(-0.01803607),	_Q15(-0.032638658),
	_Q15(-0.0064996667),	_Q15(0.008223188),	_Q15(-0.007286483),	_Q15(0.0075621568),
	_Q15(-0.03386039),	_Q15(-0.0015261387),	_Q15(0.010726554),	_Q15(0.002523985),
	_Q15(0.012167622),	_Q15(0.0011645589),	_Q15(-0.012884617),	_Q15(0.009321706),
	_Q15(0.01756803),	_Q15(0.009948692),	_Q15(0.02378357),	_Q15(0.0021442836),
	_Q15(0.006113884),	_Q15(-0.0020725213),	_Q15(0.013981302),	_Q15(-0.0006123316),
	_Q15(-0.019075442),	_Q15(0.011173085),	_Q15(0.009223006),	_Q15(0.005308575),
	_Q15(0.023970433),	_Q15(-0.014538978),	_Q15(-0.004017606),	_Q15(0.0040006796),
	_Q15(0.009826204),	_Q15(-0.007313513),	_Q15(-0.007998485),	_Q15(-0.00027657076),
	_Q15(0.0075385603),	_Q15(0.009176346),	_Q15(0.01987035),	_Q15(0.012644163),
	_Q15(0.009812572),	_Q15(0.0045486144),	_Q15(-0.0065682186),	_Q15(-0.006114856),
	_Q15(0.013543446),	_Q15(-0.0067826384),	_Q15(0.0044457153),	_Q15(-0.02491061),
	_Q15(0.028576404),	_Q15(0.042023763),	_Q15(0.03114007),	_Q15(-0.012312493),
	_Q15(-0.013229397),	_Q15(-0.0010716966),	_Q15(0.0043472145),	_Q15(0.0128830895),
	_Q15(0.0017137657),	_Q15(-0.0026980108),	_Q15(0.0056510437),	_Q15(0.00629834),
	_Q15(-4.298451e-05),	_Q15(-0.0026776541),	_Q15(0.0035197053),	_Q15(-0.010949778),
	_Q15(-0.0069676074),	_Q15(0.019095499),	_Q15(-0.0020727366),	_Q15(0.017336613),
	_Q15(-0.019024368),	_Q15(-0.0018229015),	_Q15(0.021045087),	_Q15(-0.0017235358),
	_Q15(-0.0074458253),	_Q15(-0.016839845),	_Q15(0.0028482804),	_Q15(-0.014266465),
	_Q15(-0.0045164223),	_Q15(0.007704659),	_Q15(-0.0048510553),	_Q15(-0.0014980927),
	_Q15(-0.016313272),	_Q15(0.0052641425),	_Q15(0.011905204),	_Q15(0.012839835),
	_Q15(-0.014447871),	_Q15(-0.0035569202),	_Q15(0.0036739807),	_Q15(0.015330621),
	_Q15(0.005097941),	_Q15(-0.016205184),	_Q15(-0.036807418),	_Q15(0.00031456148),
	_Q15(-0.0051619587),	_Q15(0.02439557),	_Q15(0.0036184166),	_Q15(0.00037392302),
	_Q15(-0.0009177325),	_Q15(-0.010916188),	_Q15(-0.0006235298),	_Q15(0.0050700987),
	_Q15(0.003733377),	_Q15(0.011389182),	_Q15(-0.011529713),	_Q15(-0.0043414338),
	_Q15(-0.009524839),	_Q15(0.009964342),	_Q15(-0.0093419105),	_Q15(-0.008852976),
	_Q15(0.0041339435),	_Q15(-0.010711923),	_Q15(-0.011501781),	_Q15(0.0069660908),
	_Q15(-0.0066383346),	_Q15(-0.0072654425),	_Q15(0.004071696),	_Q15(0.0006187884),
	_Q15(-0.0062579974),	_Q15(-0.01218311),	_Q15(-0.0033888426),	_Q15(-0.007854474),
	_Q15(0.0002046423),	_Q15(-0.01155864),	_Q15(0.0256774),	_Q15(-0.012488062),
	_Q15(0.01306146),	_Q15(0.020159328),	_Q15(0.018731227),	_Q15(-0.030971905),
	_Q15(-0.0330354),	_Q15(0.0128368465),	_Q15(0.030833803),	_Q15(0.0074144173),
	_Q15(3.240572e-05),	_Q15(-0.008123886),	_Q15(0.007297325),	_Q15(0.004318137),
	_Q15(-0.0022890193),	_Q15(0.0003128112),	_Q15(0.007316965),	_Q15(-0.0017073915),
	_Q15(0.009723039),	_Q15(0.0025274213),	_Q15(-0.0036804671),	_Q15(-0.008267803),
	_Q15(0.0036668496),	_Q15(0.004646469),	_Q15(0.012686616),	_Q15(-0.019186832),
	_Q15(-0.0023682422),	_Q15(-0.014393178),	_Q15(-0.014608375),	_Q15(0.00502853),
	_Q15(-0.01138974),	_Q15(-0.0061865845),	_Q15(-0.009917027),	_Q15(-0.034682386),
	_Q15(-0.0054823463),	_Q15(0.015410265),	_Q15(0.00027420255),	_Q15(-0.009477167),
	_Q15(-0.011873023),	_Q15(0.005937713),	_Q15(0.024020677),	_Q15(-0.0021157523),
	_Q15(0.009168554),	_Q15(-0.015036762),	_Q15(0.01285143),	_Q15(-0.0038316154),
	_Q15(0.0010216421),	_Q15(-0.014631928),	_Q15(-0.027236423),	_Q15(-0.0073715826),
	_Q15(-0.0006579876),	_Q15(-0.0065111807),	_Q15(-0.0066521545),	_Q15(0.0031881707),
	_Q15(-0.010582315),	_Q15(-0.013303533),	_Q15(-0.0009124064),	_Q15(0.009251789),
	_Q15(0.010606208),	_Q15(0.006847798),	_Q15(-0.0071974224),	_Q15(0.010896918),
	_Q15(0.0046922616),	_Q15(0.007883421),	_Q15(-0.01329821),	_Q15(-0.00972591),
	_Q15(-0.00027571162),	_Q15(-0.010034424),	_Q15(0.0048835743),	_Q15(-0.010226844),
	_Q15(-0.0065668817),	_Q15(-0.007388521),	_Q15(-0.0112261735),	_Q15(0.0056012045),
	_Q15(-0.007397621),	_Q15(0.007267264),	_Q15(-0.013289813),	_Q15(-0.008946879),
	_Q15(-0.0026831892),	_Q15(-0.008342864),	_Q15(-0.0050098905),	_Q15(0.0031555607),
	_Q15(-0.0017408049),	_Q15(-0.012889419),	_Q15(-0.007201855),	_Q15(-0.0010767503),
	_Q15(0.0054372055),	_Q15(-0.0013699677),	_Q15(-0.007957432),	_Q15(-0.012567403),
	_Q15(0.008437045),	_Q15(0.00032510265),	_Q15(-0.007340888),	_Q15(-0.0076846518),
	_Q15(-0.009268065),	_Q15(-0.003519023),	_Q15(-0.012700971),	_Q15(-0.0043448703),
	_Q15(0.010296602),	_Q15(0.00819797),	_Q15(-0.009259023),	_Q15(-0.010509757),
	_Q15(0.0015180607),	_Q15(-0.007496322),	_Q15(-0.004316507),	_Q15(0.007264738),
	_Q15(-0.008291868),	_Q15(-0.009231323),	_Q15(-0.010586081),	_Q15(-0.0004718555),
	_Q15(-0.00058275124),	_Q15(-0.0067762663),	_Q15(0.005016608),	_Q15(-0.010122685),
	_Q15(0.0033100308),	_Q15(-0.0070590214),	_Q15(-0.00049132225),	_Q15(-0.01270207),
	_Q15(0.008833995),	_Q15(0.0066844593),	_Q15(0.001087233),	_Q15(-0.0005753175),
	_Q15(0.0017568055),	_Q15(-0.00664132),	_Q15(0.010546457),	_Q15(-0.0027425904),
	_Q15(-0.005743022),	_Q15(0.002529905),	_Q15(0.00056108646),	_Q15(-0.00079127867),
	_Q15(0.008628411),	_Q15(-0.0062064794),	_Q15(-0.0018976616),	_Q15(-0.010221762),
	_Q15(0.0061522955),	_Q15(0.009619258),	_Q15(0.0016333439),	_Q15(0.00852548),
	_Q15(-0.011162754),	_Q15(-0.0066014356),	_Q15(-0.010167701),	_Q15(0.008782799),
	_Q15(-0.0013932073),	_Q15(-0.009832643),	_Q15(0.0053050714),	_Q15(-0.0072123273),
	_Q15(0.002048823),	_Q15(-0.0067520333),	_Q15(0.0057385596),	_Q15(0.009235844),
	_Q15(0.004013944),	_Q15(-0.0067961803),	_Q15(-0.007176274),	_Q15(0.0040023583),
	_Q15(0.011750499),	_Q15(-0.007904022),	_Q15(0.005424382),	_Q15(-0.002788635),
	_Q15(0.007089403),	_Q15(-0.0012693933),	_Q15(-0.0066722436),	_Q15(-0.007702947),
	_Q15(0.0039284006),	_Q15(-0.0071935323),	_Q15(0.005483844),	_Q15(-0.011610733),
	_Q15(-0.008833012),	_Q15(-0.0025795673),	_Q15(0.012827209),	_Q15(-0.0028913345),
	_Q15(0.0043757204),	_Q15(-0.00021620549),	_Q15(-0.0075726463),	_Q15(-0.006695201),
	_Q15(-0.002065736),	_Q15(-0.008024399),	_Q15(-0.010749676),	_Q15(0.0025932128),
	_Q15(-0.008920055),	_Q15(0.004503387),	_Q15(-0.013426795),	_Q15(0.008760581),
	_Q15(-0.013155713),	_Q15(-0.007795952),	_Q15(-0.0076441052),	_Q15(0.012367458),
	_Q15(0.011265966),	_Q15(7.196605e-05),	_Q15(-0.0048334426),	_Q15(0.001352022),
	_Q15(-0.007454954),	_Q15(-0.002076132),	_Q15(0.013303295),	_Q15(-0.0029801037),
	_Q15(-0.0067467224),	_Q15(0.00302435),	_Q15(0.010502113),	_Q15(-0.007766234),
	_Q15(-0.0012081463),	_Q15(-6.336889e-05),	_Q15(-0.003267896),	_Q15(-0.008563818),
	_Q15(-0.013432883),	_Q15(-0.0023226412),	_Q15(0.0054028886),	_Q15(0.003975113),
	_Q15(-0.007257427),	_Q15(0.0059768194),	_Q15(0.007883947),	_Q15(-0.0018724421),
	_Q15(-0.0025467908),	_Q15(-0.01049199),	_Q15(0.008352585),	_Q15(0.0096313935),
	_Q15(-0.0024825013),	_Q15(0.011797718),	_Q15(-0.005683593),	_Q15(-0.003687135),
	_Q15(-0.00023812118),	_Q15(0.0045332),	_Q15(0.00054000365),	_Q15(-0.0072203884),
	_Q15(-1.6261225e-05),	_Q15(-0.0105265705),	_Q15(-0.013512848),	_Q15(-0.0062145116),
	_Q15(-0.008929597),	_Q15(-0.0092044305),	_Q15(0.00372044),	_Q15(-0.010956428),
	_Q15(0.0034192358),	_Q15(-0.012383782),	_Q15(-0.010466172),	_Q15(-0.003821719),
	_Q15(-0.0041788328),	_Q15(0.0076011),	_Q15(0.006412467),	_Q15(0.004386941),
	_Q15(0.0070000202),	_Q15(-0.008244455),	_Q15(0.00025816172),	_Q15(0.00949589),
	_Q15(-0.0013785432),	_Q15(0.0029606696),	_Q15(-0.010988417),	_Q15(0.009807174),
	_Q15(-0.0011974635),	_Q15(-0.009174234),	_Q15(-0.009258876),	_Q15(-0.011840802),
	_Q15(-0.010428937),	_Q15(-0.00867673),	_Q15(0.009231581),	_Q15(-0.013553387),
	_Q15(0.0042896164),	_Q15(-0.011337611),	_Q15(-0.013534985),	_Q15(-0.009795282),
	_Q15(-0.00492574),	_Q15(-0.011792014),	_Q15(0.0077889357),	_Q15(-0.0074223327),
	_Q15(-0.010922513),	_Q15(0.006761687),	_Q15(0.001865997),	_Q15(-0.0027496687),
	_Q15(0.0006677927),	_Q15(-0.004663993),	_Q15(0.0018600961),	_Q15(-0.00013632233),
	_Q15(-0.008374462),	_Q15(-0.01135177),	_Q15(-0.011336422),	_Q15(0.0016557751),
	_Q15(0.0029530535),	_Q15(0.00932365),	_Q15(-0.0062383963),	_Q15(-0.0052702203),
	_Q15(-0.012187403),	_Q15(-0.0068450025),	_Q15(-0.0033422383),	_Q15(0.00351616),
	_Q15(0.0085669765),	_Q15(-0.001842673),	_Q15(-0.00452871),	_Q15(-0.011783199),
	_Q15(0.00054121565),	_Q15(-0.0003345674),	_Q15(-0.0076012025),	_Q15(-0.0028968232),
	_Q15(-0.00037930347),	_Q15(-0.0045643914),	_Q15(-0.007534893),	_Q15(0.00037866674),
	_Q15(0.010271227),	_Q15(0.0019544363),	_Q15(0.0041605113),	_Q15(-0.0009768077),
	_Q15(-0.005498878),	_Q15(-0.012705701),	_Q15(0.0038320983),	_Q15(-0.012294336),
	_Q15(0.0009543719),	_Q15(-0.0059051462),	_Q15(-0.01223123),	_Q15(-0.008804253),
	_Q15(-0.0012677504),	_Q15(-0.0060944124),	_Q15(-0.012735457),	_Q15(-0.0025575839),
	_Q15(-0.010544305),	_Q15(0.000335976),	_Q15(0.0074374387),	_Q15(0.0005985439),
	_Q15(-0.006754867),	_Q15(0.009675404),	_Q15(0.0065224534),	_Q15(-0.0073412573),
	_Q15(0.01090035),	_Q15(0.0040673986),	_Q15(0.009348122),	_Q15(0.009893696),
	_Q15(-0.0038621111),	_Q15(0.0043397723),	_Q15(0.007003659),	_Q15(0.003567243),
	_Q15(0.00035674043),	_Q15(-0.0078899255),	_Q15(-0.0020676758),	_Q15(-0.0074306503),
	_Q15(0.0045903237),	_Q15(-0.012080704),	_Q15(0.0083089145),	_Q15(-0.007250532),
	_Q15(0.0074561527),	_Q15(0.010778029),	_Q15(-0.011750868),	_Q15(-0.013423162),
	_Q15(0.000801814),	_Q15(-0.011705631),	_Q15(0.005624641),	_Q15(0.0076601966),
	_Q15(-0.005945583),	_Q15(-0.0023793608),	_Q15(-0.0026777273),	_Q15(0.00022678079),
	_Q15(0.008011174),	_Q15(-0.006549436),	_Q15(0.0062139602),	_Q15(-0.007258004),
	_Q15(-0.012058323),	_Q15(-0.011477954),	_Q15(-0.0056970366),	_Q15(-0.0011320645),
	_Q15(0.011215088),	_Q15(-0.00013048352),	_Q15(0.0042883363),	_Q15(0.007736468),
	_Q15(0.002183723),	_Q15(0.0039316085),	_Q15(0.0008190062),	_Q15(-0.0008102053),
	_Q15(0.008346033),	_Q15(0.0056516957),	_Q15(0.009391187),	_Q15(0.00421578),
	_Q15(0.00044126966),	_Q15(0.0008677264),	_Q15(0.00033636534),	_Q15(-0.012250502),
	_Q15(-0.004671335),	_Q15(0.0031373634),	_Q15(0.0024311922),	_Q15(-0.012572369),
	_Q15(-0.010093304),	_Q15(0.0075861523),	_Q15(0.0028488263),	_Q15(-0.0011385381),
	_Q15(-0.0012155073),	_Q15(-0.012368756),	_Q15(4.5837834e-05),	_Q15(0.009220495),
	_Q15(-0.0012729373),	_Q15(-0.0023001162),	_Q15(0.0069670333),	_Q15(0.010468588),
	_Q15(-0.0014905678),	_Q15(-0.008506747),	_Q15(-0.009557116),	_Q15(-0.011630415),
	_Q15(0.0044450546),	_Q15(-0.008561717),	_Q15(0.012051116),	_Q15(0.0016794361),
	_Q15(-0.01122007),	_Q15(0.00487394),	_Q15(-0.0023006052),	_Q15(0.010882149),
	_Q15(0.0055914475),	_Q15(0.010528342),	_Q15(0.006332536),	_Q15(0.00819954),
	_Q15(-0.010016928),	_Q15(0.008978793),	_Q15(-0.0122642545),	_Q15(0.0033653015),
	_Q15(1.806524e-06),	_Q15(-0.00285177),	_Q15(0.000924869),	_Q15(-0.009900739),
	_Q15(-0.010966357),	_Q15(0.008999487),	_Q15(0.0059804507),	_Q15(-0.008802554),
	_Q15(0.0100471135),	_Q15(0.0049848175),	_Q15(-0.008072045),	_Q15(0.0047839764),
	_Q15(-0.004438082),	_Q15(-0.010902343),	_Q15(-0.00069520244),	_Q15(0.008518689),
	_Q15(-0.011614902),	_Q15(-0.0076936567),	_Q15(0.0037258095),	_Q15(0.0011197969),
	_Q15(-0.008237512),	_Q15(-0.0013690819),	_Q15(-0.010061518),	_Q15(0.01034138),
	_Q15(-0.011698297),	_Q15(-0.005638905),	_Q15(-0.00019624198),	_Q15(0.0027983477),
	_Q15(0.0030170993),	_Q15(-0.0091487495),	_Q15(0.0034251164),	_Q15(-0.011242362),
	_Q15(0.0018284494),	_Q15(-0.0077270167),	_Q15(0.011104656),	_Q15(-0.004650483),
	_Q15(0.0039891438),	_Q15(-0.006408862),	_Q15(-0.0046572243),	_Q15(0.010790565),
	_Q15(0.008205554),	_Q15(-0.0024204275),	_Q15(-0.0013403946),	_Q15(-0.010585034),
	_Q15(0.0044570407),	_Q15(0.0012393747),	_Q15(0.0013140161),	_Q15(-0.008458009),
	_Q15(0.0025606314),	_Q15(0.022824176),	_Q15(0.016089635),	_Q15(0.011973694),
	_Q15(-0.0041817226),	_Q15(-0.0012871574),	_Q15(0.018231232),	_Q15(0.0007343819),
	_Q15(0.010679588),	_Q15(-0.010513506),	_Q15(0.00063822395),	_Q15(0.013819823),
	_Q15(-0.022173082),	_Q15(-0.02999034),	_Q15(-0.011063406),	_Q15(-0.0051558977),
	_Q15(0.004461657),	_Q15(0.0049458435),	_Q15(-0.013818394),	_Q15(0.0024859922),
	_Q15(0.0061884555),	_Q15(0.005179877),	_Q15(0.0142638),	_Q15(-0.011361763),
	_Q15(-0.025561588),	_Q15(-0.010320366),	_Q15(0.034036312),	_Q15(0.00984713),
	_Q15(-0.0016663094),	_Q15(-0.0032045308),	_Q15(-0.01933297),	_Q15(-0.0048871296),
	_Q15(0.012766451),	_Q15(-0.0043497095),	_Q15(-0.018632157),	_Q15(-0.011718673),
	_Q15(-0.023055332),	_Q15(0.013127752),	_Q15(0.024326783),	_Q15(0.006102771),
	_Q15(0.016322464),	_Q15(-0.0013445528),	_Q15(0.0036232541),	_Q15(-0.004544852),
	_Q15(-0.010757914),	_Q15(0.0014559601),	_Q15(0.021505598),	_Q15(0.0053398926),
	_Q15(-0.014635253),	_Q15(-0.023320992),	_Q15(-0.008012322),	_Q15(-0.0082774265),
	_Q15(-0.029253729),	_Q15(-0.009933043),	_Q15(-0.022279462),	_Q15(-0.002744798),
	_Q15(-0.0015243627),	_Q15(-0.019965105),	_Q15(0.00607101),	_Q15(-0.010726492),
	_Q15(0.018086238),	_Q15(-0.013887207),	_Q15(0.033027776),	_Q15(0.030455355),
	_Q15(0.027682276),	_Q15(0.018434282),	_Q15(-0.032209598),	_Q15(0.009685701),
	_Q15(0.0054240543),	_Q15(0.006047203),	_Q15(-0.0060010366),	_Q15(0.0028877177),
	_Q15(-0.013563766),	_Q15(-0.001976241),	_Q15(-0.011814005),	_Q15(0.01764352),
	_Q15(0.000496469),	_Q15(0.0011975889),	_Q15(0.022969183),	_Q15(0.0014300648),
	_Q15(-0.008953278),	_Q15(0.0125346705),	_Q15(-0.00018762726),	_Q15(0.009206283),
	_Q15(0.01355644),	_Q15(-0.0029991677),	_Q15(0.014655614),	_Q15(-0.015821358),
	_Q15(0.00500088),	_Q15(0.014239069),	_Q15(0.024133733),	_Q15(-0.010916042),
	_Q15(-0.03907577),	_Q15(-0.004076719),	_Q15(0.007582091),	_Q15(0.0047304695),
	_Q15(-0.004191036),	_Q15(-0.0068186293),	_Q15(0.0031990702),	_Q15(0.005304719),
	_Q15(0.01603903),	_Q15(0.0073357476),	_Q15(0.00545205),	_Q15(-0.005337011),
	_Q15(-0.028398437),	_Q15(-0.040780243),	_Q15(0.016974531),	_Q15(-0.0057457043),
	_Q15(0.010017344),	_Q15(-0.0028816848),	_Q15(-0.0156167885),	_Q15(0.0074070804),
	_Q15(-9.482145e-05),	_Q15(0.015743228),	_Q15(0.02772737),	_Q15(0.025650322),
	_Q15(-0.020281771),	_Q15(-0.0040396345),	_Q15(0.033808455),	_Q15(0.022605881),
	_Q15(0.067430824),	_Q15(-0.0018304582),	_Q15(0.02473529),	_Q15(0.00041370178),
	_Q15(-0.0070252395),	_Q15(0.0048454297),	_Q15(-0.018053677),	_Q15(-0.0038117436),
	_Q15(0.0033973292),	_Q15(0.002973657),	_Q15(-0.014786349),	_Q15(-0.0152421),
	_Q15(-0.012503467),	_Q15(-0.025600515),	_Q15(-0.03364593),	_Q15(-0.02059305),
	_Q15(0.022513248),	_Q15(0.006296217),	_Q15(-0.011962089),	_Q15(-0.012529765),
	_Q15(-0.006590705),	_Q15(0.013693961),	_Q15(0.020731324),	_Q15(0.019393168),
	_Q15(0.04982835),	_Q15(0.03883609),	_Q15(-0.023386352),	_Q15(0.01643944),
	_Q15(0.026510838),	_Q15(-0.0020793695),	_Q15(0.0017855706),	_Q15(-0.022317052),
	_Q15(-0.016293898),	_Q15(0.001838712),	_Q15(0.009866998),	_Q15(-0.0024281307),
	_Q15(0.016832938),	_Q15(0.003121533),	_Q15(0.005148354),	_Q15(0.0037721808),
	_Q15(-0.02815702),	_Q15(0.0137631325),	_Q15(0.015900705),	_Q15(-0.025567362),
	_Q15(-0.021190379),	_Q15(-0.03012356),	_Q15(0.03269008),	_Q15(0.011526168),
