#include <params/include/fc2.h>

__ro_hinv mat_t fc2_weight_meta = {
	.dims = {10, 84},
	.len_dims = 2,
	.strides = {84, 1},
	.data = (fixed *)fc2_weight
};

__ro_hinv mat_t fc2_bias_meta = {
	.dims = {1, 10},
	.len_dims = 2,
	.strides = {10, 1},
	.data = (fixed *)fc2_bias
};

__ro_hinv _q15 fc2_weight[] = {
	_Q15(-0.057086326),	_Q15(0.03833472),	_Q15(-0.038767017),	_Q15(-0.0018238524),
	_Q15(-0.021060545),	_Q15(-0.043165512),	_Q15(-0.021347664),	_Q15(-0.00743102),
	_Q15(0.024390027),	_Q15(-0.028600233),	_Q15(0.0021544916),	_Q15(0.03200783),
	_Q15(-0.0094316),	_Q15(-0.0043556993),	_Q15(0.023840021),	_Q15(-0.016087797),
	_Q15(0.016543485),	_Q15(-0.02140642),	_Q15(0.006660227),	_Q15(-0.05789879),
	_Q15(-0.008214194),	_Q15(-0.035921216),	_Q15(-0.017049523),	_Q15(0.010149068),
	_Q15(-0.034992512),	_Q15(0.034167804),	_Q15(0.007435965),	_Q15(-0.026912656),
	_Q15(-0.0043406473),	_Q15(0.03520336),	_Q15(-0.006261866),	_Q15(0.008829766),
	_Q15(0.007787977),	_Q15(-0.0040377434),	_Q15(0.021080974),	_Q15(-0.03973168),
	_Q15(0.016539022),	_Q15(-0.003939879),	_Q15(-0.030556139),	_Q15(0.031877477),
	_Q15(0.023723375),	_Q15(-0.021656672),	_Q15(0.016071036),	_Q15(0.003193516),
	_Q15(-0.056998033),	_Q15(-0.010262547),	_Q15(-0.03297853),	_Q15(-0.041113313),
	_Q15(0.013562632),	_Q15(0.0013445292),	_Q15(-0.008752438),	_Q15(-0.047559593),
	_Q15(-0.03824879),	_Q15(0.014036976),	_Q15(-0.00679475),	_Q15(-0.047577813),
	_Q15(-0.03889965),	_Q15(-0.024320098),	_Q15(-0.02151576),	_Q15(0.010202283),
	_Q15(-0.020432297),	_Q15(0.004053105),	_Q15(-0.033263046),	_Q15(0.04188984),
	_Q15(-0.014266276),	_Q15(-0.019147579),	_Q15(0.041061547),	_Q15(0.019225946),
	_Q15(0.032194644),	_Q15(-0.012892195),	_Q15(0.029840454),	_Q15(-0.023087552),
	_Q15(-0.007736487),	_Q15(0.041758057),	_Q15(0.036257394),	_Q15(0.0052861026),
	_Q15(0.036510855),	_Q15(0.019419758),	_Q15(-0.0013431858),	_Q15(-0.013400851),
	_Q15(-0.03722283),	_Q15(-0.041253842),	_Q15(-0.026746083),	_Q15(0.015271596),
	_Q15(-0.025748944),	_Q15(-0.02325904),	_Q15(-0.05009359),	_Q15(0.022270096),
	_Q15(0.04187334),	_Q15(0.031343937),	_Q15(0.021886347),	_Q15(0.027532313),
	_Q15(-0.01492234),	_Q15(0.000843445),	_Q15(-0.0040766955),	_Q15(0.028737478),
	_Q15(-0.021717606),	_Q15(-0.0341175),	_Q15(-0.07578945),	_Q15(-0.028045954),
	_Q15(-0.013933051),	_Q15(0.05267954),	_Q15(0.010565439),	_Q15(-0.03296759),
	_Q15(-0.0039013978),	_Q15(0.010575541),	_Q15(0.028875336),	_Q15(-0.027948307),
	_Q15(0.036315873),	_Q15(-0.022664893),	_Q15(0.0029515608),	_Q15(0.002522421),
	_Q15(-0.0040281285),	_Q15(0.034792736),	_Q15(-0.055007797),	_Q15(-0.00021174547),
	_Q15(-0.009925879),	_Q15(-0.0063491026),	_Q15(-0.01746788),	_Q15(-0.034207616),
	_Q15(0.014191527),	_Q15(0.036346875),	_Q15(-0.03109066),	_Q15(0.019287206),
	_Q15(0.0045200507),	_Q15(-0.0044548125),	_Q15(-0.044442456),	_Q15(-0.031229638),
	_Q15(0.024718195),	_Q15(0.01600222),	_Q15(0.021009188),	_Q15(0.009759118),
	_Q15(-0.0022760525),	_Q15(-0.039874308),	_Q15(0.0015957253),	_Q15(-0.018676221),
	_Q15(0.0044099065),	_Q15(0.002829415),	_Q15(-0.017446166),	_Q15(0.0016045747),
	_Q15(0.0021370458),	_Q15(-0.017109003),	_Q15(0.010982177),	_Q15(0.005124165),
	_Q15(0.027182454),	_Q15(0.022018053),	_Q15(0.04086143),	_Q15(-0.030793222),
	_Q15(-0.0068903556),	_Q15(0.027663851),	_Q15(0.019792223),	_Q15(0.0040579457),
	_Q15(-0.014185112),	_Q15(-0.013130445),	_Q15(0.021728577),	_Q15(0.013236726),
	_Q15(-0.006387785),	_Q15(-0.025540955),	_Q15(0.010945866),	_Q15(-0.029835213),
	_Q15(-0.0142149925),	_Q15(-0.06443792),	_Q15(-0.055126607),	_Q15(-0.02225121),
	_Q15(-0.013241247),	_Q15(0.015449287),	_Q15(0.0041727456),	_Q15(-0.048167598),
	_Q15(0.00488975),	_Q15(-0.0038130137),	_Q15(-0.01641964),	_Q15(-0.021318361),
	_Q15(-0.011963462),	_Q15(-0.0031162545),	_Q15(-0.0025019164),	_Q15(-0.021189684),
	_Q15(0.0033305774),	_Q15(-0.048279792),	_Q15(-0.00040780584),	_Q15(0.04850052),
	_Q15(-0.021705156),	_Q15(-0.04380304),	_Q15(0.014767718),	_Q15(0.01832998),
	_Q15(0.005236539),	_Q15(-0.005260207),	_Q15(-0.026110731),	_Q15(-0.011656829),
	_Q15(-0.0011659142),	_Q15(-0.005371993),	_Q15(0.020201433),	_Q15(-0.008227505),
	_Q15(-0.047338765),	_Q15(0.013718746),	_Q15(0.0029847661),	_Q15(0.023904044),
	_Q15(0.00020680028),	_Q15(-0.0009967048),	_Q15(7.2279545e-06),	_Q15(0.038949113),
	_Q15(-0.0064536706),	_Q15(0.026172083),	_Q15(-0.016693542),	_Q15(0.01844614),
	_Q15(0.031683102),	_Q15(0.031956516),	_Q15(0.006653792),	_Q15(0.008155228),
	_Q15(-0.00605216),	_Q15(-0.00096792134),	_Q15(-0.040529586),	_Q15(0.037059814),
	_Q15(0.009504408),	_Q15(0.015098304),	_Q15(0.0028482743),	_Q15(0.019176003),
	_Q15(-0.00034387753),	_Q15(0.04312486),	_Q15(-0.0036759444),	_Q15(-0.016550738),
	_Q15(-0.04197803),	_Q15(0.017209722),	_Q15(-0.01577424),	_Q15(-0.0063206065),
	_Q15(0.024353227),	_Q15(-0.019231599),	_Q15(-0.011838519),	_Q15(-0.04775848),
	_Q15(-0.03933804),	_Q15(0.0091021815),	_Q15(-0.021697091),	_Q15(0.021642681),
	_Q15(0.0028891556),	_Q15(0.03472766),	_Q15(-0.028818961),	_Q15(0.020622782),
	_Q15(0.03209152),	_Q15(0.018910354),	_Q15(-0.025416825),	_Q15(0.03497235),
	_Q15(-0.004159884),	_Q15(0.024024742),	_Q15(0.023411872),	_Q15(0.006294684),
	_Q15(0.012523716),	_Q15(-0.010484785),	_Q15(-0.030440157),	_Q15(-0.036167096),
	_Q15(-0.0077256956),	_Q15(-0.042603027),	_Q15(0.0062932973),	_Q15(0.032129712),
	_Q15(0.021812191),	_Q15(0.028013669),	_Q15(0.039857373),	_Q15(-0.03477622),
	_Q15(0.031837594),	_Q15(-0.0028623636),	_Q15(0.0060548624),	_Q15(0.021453291),
	_Q15(0.004286367),	_Q15(0.04442348),	_Q15(0.018868865),	_Q15(0.03124873),
	_Q15(-0.00021434907),	_Q15(-0.008059617),	_Q15(-0.011758978),	_Q15(0.036437802),
	_Q15(-0.006021922),	_Q15(0.019711481),	_Q15(0.021503773),	_Q15(-0.008009719),
	_Q15(-0.0067407824),	_Q15(0.0032136939),	_Q15(0.010499784),	_Q15(0.0060400763),
	_Q15(-0.016893184),	_Q15(-0.0102762915),	_Q15(-0.0024992048),	_Q15(-0.034132224),
	_Q15(-0.01680666),	_Q15(-0.045397017),	_Q15(-0.042270686),	_Q15(-0.019970728),
	_Q15(0.010642863),	_Q15(0.031978454),	_Q15(0.027878352),	_Q15(0.005678098),
	_Q15(-0.05066434),	_Q15(-0.034114487),	_Q15(0.0022328915),	_Q15(-0.007074198),
	_Q15(0.019502925),	_Q15(0.010580642),	_Q15(0.020169463),	_Q15(-0.05086099),
	_Q15(0.021989202),	_Q15(-0.02897874),	_Q15(-0.011442498),	_Q15(-0.040958036),
	_Q15(0.025793085),	_Q15(0.017895311),	_Q15(0.010358704),	_Q15(-0.018133763),
	_Q15(0.037470583),	_Q15(-0.017693548),	_Q15(0.020206546),	_Q15(-0.019766025),
	_Q15(0.026197905),	_Q15(-0.027925668),	_Q15(-0.010240891),	_Q15(-0.025628554),
	_Q15(0.039210163),	_Q15(0.012966299),	_Q15(0.021877145),	_Q15(0.008995911),
	_Q15(0.012117759),	_Q15(-0.0385949),	_Q15(0.0009239857),	_Q15(-0.022231864),
	_Q15(-0.033741098),	_Q15(0.0105662625),	_Q15(0.028094597),	_Q15(0.016264008),
	_Q15(0.009666244),	_Q15(-0.0050636646),	_Q15(-0.037026014),	_Q15(-0.03974311),
	_Q15(-0.001623541),	_Q15(-0.06376448),	_Q15(0.009414503),	_Q15(0.003114592),
	_Q15(0.014128127),	_Q15(-0.041034777),	_Q15(-0.015169776),	_Q15(0.040177133),
	_Q15(0.043753013),	_Q15(0.037326854),	_Q15(-0.03859873),	_Q15(-0.026302708),
	_Q15(0.0038557593),	_Q15(-0.01625887),	_Q15(-0.023475911),	_Q15(0.019245468),
	_Q15(0.021979949),	_Q15(-0.022023926),	_Q15(-0.031838354),	_Q15(-0.008266397),
	_Q15(-0.029168861),	_Q15(-0.007094591),	_Q15(0.04859022),	_Q15(0.004328413),
	_Q15(-0.022023965),	_Q15(-0.009511532),	_Q15(-0.032400727),	_Q15(0.037982713),
	_Q15(-0.0033923793),	_Q15(-0.02618433),	_Q15(0.0068223914),	_Q15(0.010402762),
	_Q15(0.018723248),	_Q15(-0.050738845),	_Q15(0.0011929524),	_Q15(-0.022260187),
	_Q15(-0.0069550877),	_Q15(0.0042421776),	_Q15(0.034394346),	_Q15(0.02410179),
	_Q15(-0.014271198),	_Q15(-0.019077744),	_Q15(0.012442289),	_Q15(-0.049710646),
	_Q15(-0.029979276),	_Q15(0.043204345),	_Q15(0.010469387),	_Q15(-0.019654196),
	_Q15(0.01030995),	_Q15(-0.01141084),	_Q15(0.03935718),	_Q15(0.015851496),
	_Q15(-0.019791324),	_Q15(0.0030604668),	_Q15(-0.043171022),	_Q15(0.03036112),
	_Q15(-0.06273948),	_Q15(-0.009226856),	_Q15(0.019934328),	_Q15(0.030133516),
	_Q15(-0.007730603),	_Q15(-0.01687263),	_Q15(-0.022533607),	_Q15(0.014463214),
	_Q15(-0.026838964),	_Q15(0.007895107),	_Q15(0.04127956),	_Q15(0.024717486),
	_Q15(-0.019769175),	_Q15(0.017433004),	_Q15(0.030364946),	_Q15(0.029877985),
	_Q15(0.004868954),	_Q15(-0.04790049),	_Q15(-0.06609485),	_Q15(0.0014247943),
	_Q15(-0.003705399),	_Q15(0.003794591),	_Q15(0.015599725),	_Q15(-0.02769929),
	_Q15(-0.0056702946),	_Q15(-0.035919186),	_Q15(0.023969492),	_Q15(-0.0007613848),
	_Q15(-0.047278702),	_Q15(0.013123551),	_Q15(-0.0032310567),	_Q15(-0.032816216),
	_Q15(-0.02992832),	_Q15(0.033564206),	_Q15(0.013670618),	_Q15(0.008902443),
	_Q15(0.014896401),	_Q15(-0.030521216),	_Q15(-0.023568176),	_Q15(-0.039717205),
	_Q15(0.026231),	_Q15(-0.022428637),	_Q15(-0.024828376),	_Q15(0.016870758),
	_Q15(0.010553518),	_Q15(0.0094708195),	_Q15(0.015233793),	_Q15(-0.008478156),
	_Q15(0.025899407),	_Q15(0.015141787),	_Q15(-0.012568946),	_Q15(0.007230384),
	_Q15(-0.025530664),	_Q15(-0.014583633),	_Q15(0.031908203),	_Q15(0.0017585328),
	_Q15(-0.028440416),	_Q15(-0.04037319),	_Q15(-0.016895276),	_Q15(-0.016813686),
	_Q15(0.032438006),	_Q15(0.0019486342),	_Q15(0.008058679),	_Q15(-0.019683195),
	_Q15(0.0002856569),	_Q15(-0.0035769024),	_Q15(0.03206532),	_Q15(-0.0455338),
	_Q15(0.024675386),	_Q15(-0.018041426),	_Q15(0.008038148),	_Q15(0.027010424),
	_Q15(-0.020612473),	_Q15(-0.033212468),	_Q15(0.03415992),	_Q15(0.03242071),
	_Q15(0.015354192),	_Q15(0.01209751),	_Q15(-0.040310927),	_Q15(-0.02792474),
	_Q15(0.03477912),	_Q15(-0.07724589),	_Q15(-0.016568042),	_Q15(0.01756061),
	_Q15(0.034736365),	_Q15(-0.028590683),	_Q15(-0.00025609025),	_Q15(0.037934188),
	_Q15(0.040724523),	_Q15(-0.0002683289),	_Q15(-0.023033625),	_Q15(-0.0015954907),
	_Q15(-0.008745561),	_Q15(-0.024437372),	_Q15(-0.05301994),	_Q15(-0.011182281),
	_Q15(-0.019276436),	_Q15(0.0013287044),	_Q15(0.00091632915),	_Q15(-0.033618987),
	_Q15(0.0005546199),	_Q15(0.024163973),	_Q15(0.011632077),	_Q15(-0.020962674),
	_Q15(0.021754961),	_Q15(-0.0061578397),	_Q15(-0.010703213),	_Q15(-0.0030920277),
	_Q15(0.004733315),	_Q15(-0.0020898867),	_Q15(-0.03268937),	_Q15(0.04285382),
	_Q15(0.042398315),	_Q15(0.0046936446),	_Q15(-0.0049128714),	_Q15(0.009846312),
	_Q15(0.048477348),	_Q15(0.012356879),	_Q15(-0.021989126),	_Q15(-0.032927264),
	_Q15(-0.021064682),	_Q15(0.03796212),	_Q15(-0.007182873),	_Q15(0.008256998),
	_Q15(-0.04766751),	_Q15(0.038158197),	_Q15(-0.0014004493),	_Q15(-0.042200107),
	_Q15(0.015304617),	_Q15(-0.0618977),	_Q15(-0.01847571),	_Q15(-0.02405219),
	_Q15(-0.037276022),	_Q15(0.015910793),	_Q15(-0.016870556),	_Q15(-0.06645811),
	_Q15(0.010457381),	_Q15(-0.036044676),	_Q15(-0.036283657),	_Q15(-0.03426361),
	_Q15(-0.021126818),	_Q15(-0.0070854547),	_Q15(-0.028000321),	_Q15(-0.07613392),
	_Q15(0.012769694),	_Q15(0.016597623),	_Q15(0.0047552497),	_Q15(0.008502922),
	_Q15(0.003721253),	_Q15(-0.028725425),	_Q15(-0.0018186163),	_Q15(-0.05339481),
	_Q15(0.021231329),	_Q15(-0.035711344),	_Q15(0.04241194),	_Q15(-0.012605779),
	_Q15(-0.049240004),	_Q15(0.018198155),	_Q15(0.0012299671),	_Q15(0.022834511),
	_Q15(0.018767735),	_Q15(0.014874381),	_Q15(0.0041197045),	_Q15(-0.005330074),
	_Q15(-0.008267797),	_Q15(-0.030149596),	_Q15(-0.012862787),	_Q15(0.030065123),
	_Q15(0.008987134),	_Q15(-0.047250863),	_Q15(-0.0022683453),	_Q15(0.03905839),
	_Q15(0.012546235),	_Q15(-0.028865676),	_Q15(-0.019154811),	_Q15(-0.035314463),
	_Q15(-0.0028446645),	_Q15(0.0016591455),	_Q15(0.015442505),	_Q15(0.040537015),
	_Q15(-0.048979044),	_Q15(0.0149653135),	_Q15(-0.004690353),	_Q15(-0.06400255),
	_Q15(0.005401019),	_Q15(0.017118849),	_Q15(0.0074718166),	_Q15(-0.0027849453),
	_Q15(0.03451899),	_Q15(0.014591788),	_Q15(-0.007118431),	_Q15(0.024182174),
	_Q15(-0.010109934),	_Q15(0.021929393),	_Q15(0.027701784),	_Q15(-0.020529056),
	_Q15(0.021337448),	_Q15(0.003041916),	_Q15(0.03423045),	_Q15(-0.03197266),
	_Q15(0.014911075),	_Q15(-0.06315308),	_Q15(0.014391227),	_Q15(-0.039728243),
	_Q15(0.0134250205),	_Q15(-0.03211867),	_Q15(0.010421497),	_Q15(0.03938328),
	_Q15(-0.013583543),	_Q15(-0.027559755),	_Q15(0.018025974),	_Q15(0.027011154),
	_Q15(-0.019750286),	_Q15(-0.00926995),	_Q15(0.010306373),	_Q15(0.0039618583),
	_Q15(0.00834867),	_Q15(-0.0044785147),	_Q15(-0.006302882),	_Q15(0.011177051),
	_Q15(0.021173587),	_Q15(0.03739454),	_Q15(-0.03660888),	_Q15(0.011910491),
	_Q15(-0.009018233),	_Q15(-0.021327393),	_Q15(-0.026534727),	_Q15(0.012775897),
	_Q15(-0.00862255),	_Q15(0.026787713),	_Q15(-0.008830032),	_Q15(-0.013077694),
	_Q15(0.019707637),	_Q15(0.026106115),	_Q15(-0.0032092303),	_Q15(0.027949376),
	_Q15(0.022270054),	_Q15(-0.024102805),	_Q15(0.030561762),	_Q15(0.018194126),
	_Q15(0.031195117),	_Q15(-0.049445603),	_Q15(-0.071326286),	_Q15(-0.022508726),
	_Q15(-0.0020596231),	_Q15(-0.003403346),	_Q15(-0.010012313),	_Q15(0.0021525675),
	_Q15(-0.03550355),	_Q15(0.0064339046),	_Q15(0.026337078),	_Q15(-0.04024128),
	_Q15(-0.029926375),	_Q15(0.03709573),	_Q15(-0.022000257),	_Q15(-0.045045767),
	_Q15(0.022412712),	_Q15(0.0062837587),	_Q15(-0.014097276),	_Q15(0.024343075),
	_Q15(0.0286107),	_Q15(-0.013500971),	_Q15(0.04179312),	_Q15(-0.023572786),
	_Q15(0.04188185),	_Q15(-0.015085682),	_Q15(0.02375358),	_Q15(0.032137685),
	_Q15(-0.023154993),	_Q15(0.042592883),	_Q15(-0.0036016596),	_Q15(-0.002695785),
	_Q15(-0.04217826),	_Q15(0.006316242),	_Q15(-0.055526398),	_Q15(0.04542927),
	_Q15(-0.016559308),	_Q15(-0.014067587),	_Q15(-0.02353012),	_Q15(-0.0016166919),
	_Q15(0.057380587),	_Q15(-0.043602645),	_Q15(0.005360726),	_Q15(0.0045796563),
	_Q15(-0.018836325),	_Q15(0.04205183),	_Q15(-0.009735039),	_Q15(-0.012338234),
	_Q15(-0.019163804),	_Q15(-0.05513169),	_Q15(0.034643505),	_Q15(0.02665032),
	_Q15(0.025486326),	_Q15(-0.008401797),	_Q15(-0.016861072),	_Q15(0.018776637),
	_Q15(0.018189657),	_Q15(-0.034262743),	_Q15(-0.02667024),	_Q15(-0.04210177),
	_Q15(-0.02600387),	_Q15(0.020473175),	_Q15(-0.026250126),	_Q15(-0.010549288),
	_Q15(0.00838046),	_Q15(-0.02887659),	_Q15(-0.008308158),	_Q15(0.029847784),
	_Q15(-0.011655056),	_Q15(0.046322666),	_Q15(0.009531843),	_Q15(0.012354352),
	_Q15(-0.011603003),	_Q15(0.031922832),	_Q15(0.0045869295),	_Q15(-0.013838609),
	_Q15(-0.006301085),	_Q15(-0.042786952),	_Q15(-0.04131934),	_Q15(0.0013899424),
	_Q15(-0.0117682945),	_Q15(-0.023789542),	_Q15(0.00086013327),	_Q15(0.026292617),
	_Q15(-0.04084825),	_Q15(-0.028852066),	_Q15(-0.0087057315),	_Q15(-0.009122392),
	_Q15(-0.029098557),	_Q15(0.026476778),	_Q15(0.030444141),	_Q15(0.00872285),
	_Q15(0.03373304),	_Q15(0.050233785),	_Q15(-0.082168825),	_Q15(-0.026621344),
	_Q15(0.008435329),	_Q15(0.019387152),	_Q15(0.00068438443),	_Q15(0.003254684),
	_Q15(-0.027505165),	_Q15(-0.014637899),	_Q15(0.015099429),	_Q15(0.028448248),
	_Q15(0.016828649),	_Q15(-0.017580511),	_Q15(-0.0030966129),	_Q15(-0.009056127),
	_Q15(-0.036550183),	_Q15(0.0096229585),	_Q15(-0.043795936),	_Q15(0.0096870335),
	_Q15(-0.010576472),	_Q15(-0.014010289),	_Q15(-0.013836815),	_Q15(-0.01307588),
	_Q15(0.025331292),	_Q15(-0.007952179),	_Q15(0.011629997),	_Q15(-0.056837607),
	_Q15(-0.02847934),	_Q15(0.022945013),	_Q15(0.04399415),	_Q15(0.017782032),
	_Q15(-0.0035195565),	_Q15(-0.056641996),	_Q15(0.030887095),	_Q15(0.027631378),
	_Q15(-0.024774149),	_Q15(-0.037316725),	_Q15(-0.0013595903),	_Q15(0.0103892265),
	_Q15(-0.01811734),	_Q15(-0.009940553),	_Q15(0.037445895),	_Q15(-0.032251388),
	_Q15(0.015536238),	_Q15(-0.0347591),	_Q15(0.013321684),	_Q15(-0.023866244),
	_Q15(-0.024284333),	_Q15(0.043669563),	_Q15(-0.029583486),	_Q15(-0.021026785),
	_Q15(-0.003182162),	_Q15(0.013134031),	_Q15(0.07531571),	_Q15(0.029395483),
	_Q15(0.018678034),	_Q15(-0.037638642),	_Q15(0.010653143),	_Q15(0.0019435755),
	_Q15(-0.006938517),	_Q15(-0.003354602),	_Q15(0.013278264),	_Q15(0.026106268),
	_Q15(0.025621071),	_Q15(0.001721396),	_Q15(-0.021886783),	_Q15(0.019030157),
	_Q15(0.01609135),	_Q15(0.013188996),	_Q15(0.030520193),	_Q15(0.011624771),
	_Q15(0.012701392),	_Q15(0.028162122),	_Q15(-0.050411865),	_Q15(-0.035443246),
	_Q15(-0.023254521),	_Q15(-0.0016320134),	_Q15(-0.04257556),	_Q15(-0.04391568),
	_Q15(0.021361567),	_Q15(0.0052839536),	_Q15(0.0019067208),	_Q15(-0.015494289),
	_Q15(-0.006550967),	_Q15(0.038283166),	_Q15(-0.032234494),	_Q15(-0.062853985),
	_Q15(-0.032661382),	_Q15(-0.09691646),	_Q15(0.0032424622),	_Q15(-0.022462236),
	_Q15(-0.010711761),	_Q15(-0.0138553055),	_Q15(-0.008268384),	_Q15(0.03712815),
	_Q15(-0.05446644),	_Q15(-0.026126562),	_Q15(-0.057806626),	_Q15(-0.0045941593),
	_Q15(-0.024251075),	_Q15(0.0071090865),	_Q15(0.037969727),	_Q15(0.03869269),
	_Q15(0.01180507),	_Q15(-0.033369377),	_Q15(0.02478432),	_Q15(0.018777234),
	_Q15(0.00793888),	_Q15(0.00019992905),	_Q15(0.025195245),	_Q15(-0.004453962),
	_Q15(-0.012959536),	_Q15(0.028538348),	_Q15(-0.02023364),	_Q15(-0.046295848),
	_Q15(-0.03611075),	_Q15(0.054184396),	_Q15(0.03492939),	_Q15(-0.0044434876),
	_Q15(0.02612613),	_Q15(0.036920518),	_Q15(0.016576294),	_Q15(0.02784068)
};

__ro_hinv _q15 fc2_bias[] = {
	_Q15(-0.017033247),	_Q15(-0.028428875),	_Q15(0.0027437788),	_Q15(-0.008129452),
	_Q15(-0.020358993),	_Q15(-0.021327036),	_Q15(0.0062295655),	_Q15(0.0148073025),
	_Q15(0.01442638),	_Q15(0.02353459)
};

