#include <params/include/fc1.h>

__ro_hinv mat_t fc1_weight_meta = {
	.dims = {84, 120},
	.len_dims = 2,
	.strides = {120, 1},
	.data = (fixed *)fc1_weight
};

__ro_hinv mat_t fc1_bias_meta = {
	.dims = {1, 84},
	.len_dims = 2,
	.strides = {84, 1},
	.data = (fixed *)fc1_bias
};

__ro_hinv _q15 fc1_weight[] = {
	_Q15(0.0137775205),	_Q15(-0.013005465),	_Q15(-0.02645561),	_Q15(0.015600949),
	_Q15(0.010606125),	_Q15(0.012826829),	_Q15(-0.009239256),	_Q15(0.03394704),
	_Q15(-0.004431779),	_Q15(-0.0018404765),	_Q15(0.0033155829),	_Q15(0.018046113),
	_Q15(0.025031993),	_Q15(0.025587512),	_Q15(0.011318429),	_Q15(0.0054134955),
	_Q15(0.019816032),	_Q15(-0.0072872695),	_Q15(-0.023473866),	_Q15(0.0049483087),
	_Q15(0.0019686976),	_Q15(-0.023988387),	_Q15(0.03406462),	_Q15(-0.012785235),
	_Q15(0.0075859455),	_Q15(-0.0124789085),	_Q15(0.034899145),	_Q15(-0.005308129),
	_Q15(0.014877299),	_Q15(-0.01592263),	_Q15(0.00093801244),	_Q15(-0.03381951),
	_Q15(0.0016200786),	_Q15(0.013658589),	_Q15(-0.0067886007),	_Q15(-0.012050673),
	_Q15(0.016300255),	_Q15(0.020127773),	_Q15(-0.025475059),	_Q15(-0.0073676417),
	_Q15(-0.01786971),	_Q15(0.032318585),	_Q15(-0.017464384),	_Q15(0.0038711028),
	_Q15(0.020788435),	_Q15(0.02197416),	_Q15(0.017088044),	_Q15(0.02065582),
	_Q15(-0.046024684),	_Q15(-0.0044034733),	_Q15(0.02129726),	_Q15(-0.024951806),
	_Q15(0.008697422),	_Q15(-0.0006583244),	_Q15(-0.008008766),	_Q15(0.017815515),
	_Q15(-0.00037574835),	_Q15(0.004255288),	_Q15(0.019017821),	_Q15(-0.003203099),
	_Q15(0.0015912473),	_Q15(-0.02550058),	_Q15(-0.010746664),	_Q15(-0.0032205347),
	_Q15(-0.005885415),	_Q15(-0.019233862),	_Q15(-0.0027405662),	_Q15(-0.036452085),
	_Q15(0.010943548),	_Q15(-0.02159872),	_Q15(-0.0111121675),	_Q15(0.0058500855),
	_Q15(-0.013381431),	_Q15(-0.02859875),	_Q15(-0.0024024644),	_Q15(-0.005728911),
	_Q15(-0.008192418),	_Q15(0.011704362),	_Q15(-0.009452374),	_Q15(-0.011369085),
	_Q15(-0.030572362),	_Q15(0.0014411599),	_Q15(-0.0065266998),	_Q15(0.022137918),
	_Q15(-0.026289996),	_Q15(0.0043180916),	_Q15(0.031017937),	_Q15(0.053585652),
	_Q15(0.016651053),	_Q15(0.028091932),	_Q15(0.041090026),	_Q15(0.025045682),
	_Q15(0.012158177),	_Q15(0.0072696684),	_Q15(0.019574262),	_Q15(-0.025003),
	_Q15(-0.021026693),	_Q15(0.0033436713),	_Q15(-0.013112939),	_Q15(0.022137694),
	_Q15(-0.0026862777),	_Q15(0.025707072),	_Q15(0.040395726),	_Q15(-0.0075042024),
	_Q15(0.0033235129),	_Q15(-0.010908168),	_Q15(0.017819596),	_Q15(-0.0102368845),
	_Q15(0.0038373463),	_Q15(0.0231477),	_Q15(-0.02508315),	_Q15(-0.022010993),
	_Q15(-0.02572424),	_Q15(-0.020917045),	_Q15(0.031293433),	_Q15(0.0026103433),
	_Q15(0.027032902),	_Q15(0.02329319),	_Q15(0.018785983),	_Q15(-0.010542155),
	_Q15(0.02559845),	_Q15(-0.02314316),	_Q15(-0.019994281),	_Q15(0.05728086),
	_Q15(0.0063215834),	_Q15(-0.021776421),	_Q15(0.0050818613),	_Q15(0.027121378),
	_Q15(0.011432544),	_Q15(-0.011979185),	_Q15(-0.017727947),	_Q15(-0.014917674),
	_Q15(-0.0028830236),	_Q15(0.010144402),	_Q15(-0.012854357),	_Q15(0.01374376),
	_Q15(0.02096213),	_Q15(-0.001556674),	_Q15(0.011520866),	_Q15(0.02056903),
	_Q15(-0.005978648),	_Q15(-0.007723681),	_Q15(0.03390313),	_Q15(-0.019500569),
	_Q15(-0.019468341),	_Q15(-0.0048226854),	_Q15(-0.004120078),	_Q15(0.018675098),
	_Q15(-0.002776348),	_Q15(0.030770952),	_Q15(-0.017635262),	_Q15(-0.005324849),
	_Q15(0.00860902),	_Q15(-0.005218489),	_Q15(0.020467516),	_Q15(-0.017860327),
	_Q15(-0.010772353),	_Q15(0.03293957),	_Q15(0.025142739),	_Q15(0.0051988945),
	_Q15(-0.006829677),	_Q15(-0.0020027957),	_Q15(-0.0023217583),	_Q15(0.02039216),
	_Q15(-0.0009989515),	_Q15(0.016083311),	_Q15(-0.009647399),	_Q15(-0.016513728),
	_Q15(-0.026066322),	_Q15(-0.03345901),	_Q15(-0.00021316487),	_Q15(0.008157169),
	_Q15(-0.013476228),	_Q15(0.025683338),	_Q15(0.0021619427),	_Q15(-0.013605406),
	_Q15(-0.026349245),	_Q15(-0.00294525),	_Q15(-0.02943756),	_Q15(-0.03396117),
	_Q15(0.011830223),	_Q15(0.0006606371),	_Q15(-0.041307822),	_Q15(0.024562063),
	_Q15(-0.021727923),	_Q15(0.007264089),	_Q15(0.013164315),	_Q15(0.03492113),
	_Q15(-0.006111283),	_Q15(0.036902227),	_Q15(-0.016687557),	_Q15(0.023791859),
	_Q15(0.020108482),	_Q15(0.009667448),	_Q15(0.002861267),	_Q15(0.05445517),
	_Q15(-0.0010421616),	_Q15(0.028888322),	_Q15(0.0021477009),	_Q15(-0.034077518),
	_Q15(0.01682697),	_Q15(-0.024630992),	_Q15(0.0149854645),	_Q15(0.020805316),
	_Q15(-0.011575842),	_Q15(0.0056929397),	_Q15(-0.003105749),	_Q15(0.026114741),
	_Q15(-0.016842216),	_Q15(0.012759383),	_Q15(0.03763439),	_Q15(-0.00995017),
	_Q15(0.0055785608),	_Q15(-0.020989822),	_Q15(0.008182175),	_Q15(-0.033790536),
	_Q15(-0.0020708775),	_Q15(-0.011361076),	_Q15(0.028148673),	_Q15(0.010410931),
	_Q15(-0.006859302),	_Q15(-0.03218463),	_Q15(-0.036529463),	_Q15(0.016844707),
	_Q15(9.832669e-05),	_Q15(-0.01160841),	_Q15(-0.0020465069),	_Q15(0.022807438),
	_Q15(-0.028568506),	_Q15(-0.0072719133),	_Q15(-0.023581881),	_Q15(-0.0063621597),
	_Q15(-0.01618193),	_Q15(0.0007576712),	_Q15(-0.036343474),	_Q15(-0.018780649),
	_Q15(-0.013357318),	_Q15(0.0034437585),	_Q15(0.005452897),	_Q15(0.018695883),
	_Q15(-0.011298654),	_Q15(0.003813823),	_Q15(0.0438234),	_Q15(-0.0067470986),
	_Q15(0.02767756),	_Q15(-0.011716508),	_Q15(0.009182719),	_Q15(-0.0018205692),
	_Q15(-0.0059987046),	_Q15(0.015094925),	_Q15(-5.7716246e-05),	_Q15(0.020586144),
	_Q15(0.0034833336),	_Q15(0.0023983591),	_Q15(0.014880954),	_Q15(-0.0063758558),
	_Q15(-0.004493774),	_Q15(-0.0043483223),	_Q15(-0.015520504),	_Q15(0.01806197),
	_Q15(0.0114159295),	_Q15(-0.014038597),	_Q15(-0.0010122784),	_Q15(-0.027141541),
	_Q15(-0.00613489),	_Q15(-0.015791826),	_Q15(-0.011893815),	_Q15(0.027273973),
	_Q15(-0.019894993),	_Q15(0.026810573),	_Q15(-0.014296974),	_Q15(0.0026713028),
	_Q15(0.010984888),	_Q15(-0.0087866625),	_Q15(0.003688227),	_Q15(0.01323699),
	_Q15(0.024145423),	_Q15(-0.033551797),	_Q15(-0.012948406),	_Q15(-0.016123382),
	_Q15(0.017034298),	_Q15(-0.022551121),	_Q15(0.015088584),	_Q15(0.026280666),
	_Q15(-0.020053495),	_Q15(0.02332093),	_Q15(-0.01964579),	_Q15(-0.004198306),
	_Q15(0.00041210657),	_Q15(0.007222361),	_Q15(-0.011776903),	_Q15(-0.042438336),
	_Q15(-0.0057725445),	_Q15(0.026926901),	_Q15(0.014469789),	_Q15(-0.0014965738),
	_Q15(-0.018286282),	_Q15(0.02613703),	_Q15(0.040082444),	_Q15(0.00112265),
	_Q15(-0.011855812),	_Q15(-0.028422283),	_Q15(-0.0010088028),	_Q15(-0.046094276),
	_Q15(0.013540179),	_Q15(0.011638046),	_Q15(-0.0036781398),	_Q15(-0.024836592),
	_Q15(0.039999656),	_Q15(0.0019997791),	_Q15(-0.0009103458),	_Q15(0.005973528),
	_Q15(0.018344836),	_Q15(-0.009361375),	_Q15(-0.037290927),	_Q15(-0.022542017),
	_Q15(0.021863015),	_Q15(0.021668907),	_Q15(-0.021147253),	_Q15(0.015538643),
	_Q15(-0.028374914),	_Q15(0.0145614715),	_Q15(-0.006286702),	_Q15(-0.037204124),
	_Q15(0.03640278),	_Q15(0.041185085),	_Q15(0.01753302),	_Q15(-0.05566368),
	_Q15(0.018064808),	_Q15(-0.008388244),	_Q15(-0.022590142),	_Q15(0.033407547),
	_Q15(-0.0005558816),	_Q15(-0.021299075),	_Q15(-0.003944551),	_Q15(0.036297105),
	_Q15(0.0038655007),	_Q15(0.019632027),	_Q15(-0.015020547),	_Q15(0.0014908152),
	_Q15(0.031270586),	_Q15(0.014337467),	_Q15(-0.040465105),	_Q15(-0.019490954),
	_Q15(0.026074527),	_Q15(0.029871134),	_Q15(0.029181799),	_Q15(0.01780685),
	_Q15(0.029767973),	_Q15(-0.043440424),	_Q15(-0.0035353207),	_Q15(-0.0038225115),
	_Q15(0.011792954),	_Q15(0.013110673),	_Q15(-0.0029440164),	_Q15(-0.018117262),
	_Q15(-0.0046277507),	_Q15(-0.0057567544),	_Q15(-0.02546279),	_Q15(0.0016875352),
	_Q15(-0.0040859664),	_Q15(-0.021770924),	_Q15(0.030811202),	_Q15(-0.018001197),
	_Q15(0.0445772),	_Q15(0.016341804),	_Q15(0.020733219),	_Q15(0.0018737405),
	_Q15(0.009933867),	_Q15(-0.020659262),	_Q15(-0.021505753),	_Q15(0.0063731517),
	_Q15(-0.0109623065),	_Q15(0.013206282),	_Q15(-0.019915642),	_Q15(-0.006302077),
	_Q15(-0.0048140767),	_Q15(-0.014612184),	_Q15(0.0142018),	_Q15(-0.012593231),
	_Q15(0.0023336012),	_Q15(-0.01699136),	_Q15(0.006020458),	_Q15(-0.018427193),
	_Q15(-0.0030853325),	_Q15(0.008815707),	_Q15(-0.027914312),	_Q15(0.006693844),
	_Q15(0.009380472),	_Q15(0.041351072),	_Q15(-0.01534116),	_Q15(0.0066032642),
	_Q15(0.009030576),	_Q15(0.0024623573),	_Q15(-0.0023296778),	_Q15(0.013053969),
	_Q15(0.023959829),	_Q15(-0.029891815),	_Q15(-0.016997723),	_Q15(0.012383173),
	_Q15(-0.0051753963),	_Q15(-0.015123261),	_Q15(-0.004909768),	_Q15(0.023940586),
	_Q15(-0.009980463),	_Q15(-0.0011427818),	_Q15(0.017343434),	_Q15(0.0102437725),
	_Q15(0.03213523),	_Q15(-0.007847512),	_Q15(-0.0048927474),	_Q15(-0.0004582033),
	_Q15(-0.01719039),	_Q15(-0.032754317),	_Q15(-0.015132277),	_Q15(0.014858091),
	_Q15(0.014239141),	_Q15(-0.013064729),	_Q15(0.019858116),	_Q15(-0.019241078),
	_Q15(0.018559279),	_Q15(-0.008470939),	_Q15(0.026133621),	_Q15(0.0063932603),
	_Q15(-0.019375762),	_Q15(0.006515273),	_Q15(0.040948376),	_Q15(0.040504903),
	_Q15(-0.0099306675),	_Q15(0.028211046),	_Q15(-0.020899111),	_Q15(-0.008348457),
	_Q15(-0.012385701),	_Q15(0.03471907),	_Q15(-0.01812727),	_Q15(-0.03898662),
	_Q15(0.017927453),	_Q15(0.010234535),	_Q15(-0.0119813),	_Q15(0.019210922),
	_Q15(0.038439535),	_Q15(-0.013836214),	_Q15(0.02197778),	_Q15(0.0048423167),
	_Q15(-0.022337036),	_Q15(-0.011037682),	_Q15(-0.020005232),	_Q15(0.027961703),
	_Q15(0.020354176),	_Q15(0.009235456),	_Q15(-0.013136488),	_Q15(-0.0029306726),
	_Q15(-0.017734786),	_Q15(0.016943507),	_Q15(0.01727584),	_Q15(-0.021504764),
	_Q15(0.0069522597),	_Q15(0.032191798),	_Q15(0.0027433722),	_Q15(0.018019192),
	_Q15(0.0012247746),	_Q15(0.0035407234),	_Q15(0.019231087),	_Q15(0.03391295),
	_Q15(0.006359919),	_Q15(-0.0013483647),	_Q15(0.012745811),	_Q15(0.012780998),
	_Q15(0.008955906),	_Q15(-0.0044425237),	_Q15(0.0229383),	_Q15(0.0076721325),
	_Q15(-0.0062814197),	_Q15(0.04201057),	_Q15(-0.018950993),	_Q15(0.011331393),
	_Q15(0.024490671),	_Q15(-0.012624885),	_Q15(0.043080043),	_Q15(0.0019069032),
	_Q15(0.009880366),	_Q15(-0.02742367),	_Q15(0.008194087),	_Q15(-0.062374108),
	_Q15(-0.034222763),	_Q15(-0.020609833),	_Q15(0.011015492),	_Q15(-0.042410553),
	_Q15(0.0266169),	_Q15(0.03531313),	_Q15(0.03211248),	_Q15(-0.010512352),
	_Q15(0.033514448),	_Q15(0.009543203),	_Q15(-0.008025259),	_Q15(-0.015683673),
	_Q15(0.019829638),	_Q15(-0.012973232),	_Q15(-0.027976157),	_Q15(0.015033191),
	_Q15(0.0141194),	_Q15(-0.015738005),	_Q15(0.007409574),	_Q15(-0.03154464),
	_Q15(-0.005952818),	_Q15(-0.009447216),	_Q15(0.034875013),	_Q15(0.010814253),
	_Q15(-0.008456663),	_Q15(-0.0040353225),	_Q15(-0.00973051),	_Q15(0.0026530346),
	_Q15(0.03962467),	_Q15(0.01877504),	_Q15(-0.0014389366),	_Q15(0.007720291),
	_Q15(0.0037733016),	_Q15(0.0069343187),	_Q15(0.0027798554),	_Q15(0.0048373393),
	_Q15(0.0010065095),	_Q15(0.002858666),	_Q15(0.004180974),	_Q15(0.014455625),
	_Q15(-0.02068836),	_Q15(0.014351611),	_Q15(0.013740263),	_Q15(-0.002148801),
	_Q15(0.017239396),	_Q15(0.03449569),	_Q15(-0.0005048276),	_Q15(-0.007814528),
	_Q15(-0.018865274),	_Q15(0.02589633),	_Q15(-0.008547383),	_Q15(0.020903505),
	_Q15(-0.010377118),	_Q15(-0.006185348),	_Q15(0.03644351),	_Q15(0.031603016),
	_Q15(0.02838932),	_Q15(0.009790238),	_Q15(-0.008450632),	_Q15(0.021385899),
	_Q15(0.01536684),	_Q15(-0.017164644),	_Q15(-0.006508969),	_Q15(0.026100416),
	_Q15(-0.0057316963),	_Q15(0.003906853),	_Q15(0.010855788),	_Q15(-0.016165378),
	_Q15(-0.016110472),	_Q15(-0.02343255),	_Q15(0.014804648),	_Q15(-0.032084268),
	_Q15(-0.026408875),	_Q15(-0.018558541),	_Q15(0.010684648),	_Q15(0.03127051),
	_Q15(-0.031117016),	_Q15(0.021869114),	_Q15(0.014855092),	_Q15(-0.044452243),
	_Q15(0.011479205),	_Q15(0.034516238),	_Q15(-0.0024453816),	_Q15(-0.027136315),
	_Q15(0.028573312),	_Q15(-0.023394084),	_Q15(-0.02886054),	_Q15(-0.013896146),
	_Q15(0.02013077),	_Q15(0.009215051),	_Q15(0.019304879),	_Q15(0.03751819),
	_Q15(-0.0150225675),	_Q15(-0.020920346),	_Q15(-0.00019750139),	_Q15(0.020902965),
	_Q15(0.022306817),	_Q15(0.0012196098),	_Q15(0.006174196),	_Q15(-0.0042867246),
	_Q15(0.03783989),	_Q15(-0.025768206),	_Q15(0.00041498954),	_Q15(-0.019057818),
	_Q15(0.000698197),	_Q15(0.036763504),	_Q15(0.005475638),	_Q15(0.026253266),
	_Q15(0.014755824),	_Q15(0.00912603),	_Q15(0.013085295),	_Q15(0.008047194),
	_Q15(0.0114305755),	_Q15(0.03525046),	_Q15(-0.0027249563),	_Q15(-0.02303296),
	_Q15(0.045342907),	_Q15(-0.0141857285),	_Q15(-0.034874972),	_Q15(0.011995491),
	_Q15(0.0004751629),	_Q15(-0.007819706),	_Q15(0.025539283),	_Q15(-0.014465177),
	_Q15(0.035813704),	_Q15(-0.0036014903),	_Q15(-0.036933195),	_Q15(-0.012482325),
	_Q15(-0.013934606),	_Q15(0.03607219),	_Q15(-0.01989907),	_Q15(-0.006157412),
	_Q15(-0.002751431),	_Q15(-0.017019816),	_Q15(0.010741153),	_Q15(-0.017681811),
	_Q15(-0.0036629047),	_Q15(-0.01634138),	_Q15(-0.004223234),	_Q15(0.028010316),
	_Q15(-0.013080798),	_Q15(-0.009245983),	_Q15(-0.0009308219),	_Q15(0.0045964643),
	_Q15(-0.0012932923),	_Q15(-0.007452569),	_Q15(-0.0067741685),	_Q15(0.008867016),
	_Q15(-0.0023782884),	_Q15(-0.004280187),	_Q15(0.0147716),	_Q15(-0.002240221),
	_Q15(0.026611798),	_Q15(0.018293533),	_Q15(0.030141808),	_Q15(-0.008332285),
	_Q15(-0.013449873),	_Q15(-0.0242107),	_Q15(-0.02222595),	_Q15(0.010274871),
	_Q15(-0.013352381),	_Q15(-0.032219857),	_Q15(0.010676368),	_Q15(0.029382119),
	_Q15(0.038902447),	_Q15(0.021203866),	_Q15(-0.019274607),	_Q15(0.01619625),
	_Q15(-0.01577),	_Q15(0.0068613696),	_Q15(-0.00423073),	_Q15(-0.007372686),
	_Q15(0.023324009),	_Q15(0.0048789512),	_Q15(0.0034070327),	_Q15(0.012512397),
	_Q15(0.004913506),	_Q15(-0.016490124),	_Q15(0.0023857746),	_Q15(0.017010951),
	_Q15(0.0122834025),	_Q15(0.007982047),	_Q15(-0.0272713),	_Q15(0.023309797),
	_Q15(0.016513979),	_Q15(0.035342444),	_Q15(-0.0046505816),	_Q15(-0.00973832),
	_Q15(-0.019548105),	_Q15(0.025295015),	_Q15(-0.023586005),	_Q15(0.019481696),
	_Q15(0.0015805817),	_Q15(0.017703783),	_Q15(-0.028821668),	_Q15(-0.015595798),
	_Q15(0.008339271),	_Q15(0.013129155),	_Q15(-0.017499182),	_Q15(-0.0149297565),
	_Q15(-0.03241195),	_Q15(0.02275686),	_Q15(-0.013511507),	_Q15(-0.0048412182),
	_Q15(-0.008034845),	_Q15(-0.019754782),	_Q15(-0.040829085),	_Q15(0.019773599),
	_Q15(2.2335416e-06),	_Q15(0.0057998137),	_Q15(-0.013844765),	_Q15(-0.009616314),
	_Q15(-0.025837675),	_Q15(0.016466929),	_Q15(-0.003900375),	_Q15(0.002657484),
	_Q15(0.014223607),	_Q15(-0.011294091),	_Q15(0.014216589),	_Q15(-0.006587927),
	_Q15(0.015996253),	_Q15(-0.013721395),	_Q15(-0.025492849),	_Q15(0.013085619),
	_Q15(0.019977001),	_Q15(0.011442811),	_Q15(-0.0058584143),	_Q15(0.015064969),
	_Q15(-0.01024658),	_Q15(-0.012170035),	_Q15(-0.021289578),	_Q15(-0.0011136925),
	_Q15(-0.0028354528),	_Q15(0.034836367),	_Q15(0.016747493),	_Q15(-0.0032974742),
	_Q15(-0.007226895),	_Q15(-0.0025910952),	_Q15(0.011211941),	_Q15(0.013514236),
	_Q15(-0.011915528),	_Q15(0.014058109),	_Q15(0.0026044974),	_Q15(0.0003985184),
	_Q15(-0.011834195),	_Q15(-0.0055001806),	_Q15(-0.0016827799),	_Q15(-0.014494198),
	_Q15(-0.012319653),	_Q15(-0.016613586),	_Q15(-0.0014728028),	_Q15(0.017402135),
	_Q15(-0.019200424),	_Q15(-0.004318088),	_Q15(-0.010377271),	_Q15(0.00025777996),
	_Q15(-0.022057751),	_Q15(0.0142099485),	_Q15(-0.009434425),	_Q15(-0.017628333),
	_Q15(0.010133119),	_Q15(-0.014034857),	_Q15(0.011410091),	_Q15(-0.018532678),
	_Q15(-0.021258976),	_Q15(-0.0012182026),	_Q15(0.01929945),	_Q15(-0.0019719682),
	_Q15(-0.008460934),	_Q15(0.015943667),	_Q15(-0.00348947),	_Q15(0.0014290333),
	_Q15(-0.014579693),	_Q15(0.0027596646),	_Q15(-0.021797042),	_Q15(0.0057295803),
	_Q15(0.012212403),	_Q15(0.015081495),	_Q15(-0.013199753),	_Q15(0.017920095),
	_Q15(-0.007057704),	_Q15(0.010175768),	_Q15(-0.009927157),	_Q15(-0.001068966),
	_Q15(0.018388877),	_Q15(-0.0019793026),	_Q15(-0.007887888),	_Q15(0.013031174),
	_Q15(-0.013912965),	_Q15(0.012023841),	_Q15(-0.005307775),	_Q15(0.0037329998),
	_Q15(-0.0012861206),	_Q15(-0.02180766),	_Q15(-0.010196814),	_Q15(-0.016177202),
	_Q15(-0.02397234),	_Q15(0.023157671),	_Q15(0.0048164),	_Q15(0.010101246),
	_Q15(0.020496745),	_Q15(-0.007171862),	_Q15(-0.01884078),	_Q15(0.010855592),
	_Q15(0.014571616),	_Q15(-0.0098313065),	_Q15(0.0026554652),	_Q15(-0.008419681),
	_Q15(-0.022304492),	_Q15(-0.024487229),	_Q15(0.013218619),	_Q15(0.009280318),
	_Q15(0.016106201),	_Q15(-0.02335901),	_Q15(0.0064362055),	_Q15(-0.014313644),
	_Q15(-0.023655158),	_Q15(-0.012235581),	_Q15(0.0068999305),	_Q15(-0.01770756),
	_Q15(0.016008949),	_Q15(0.003931612),	_Q15(-0.008160689),	_Q15(-0.020247595),
	_Q15(-0.008119275),	_Q15(0.011199037),	_Q15(-0.001029607),	_Q15(0.0011686193),
	_Q15(-0.0020849204),	_Q15(-0.022005858),	_Q15(-0.020597357),	_Q15(-0.012043458),
	_Q15(-0.0169343),	_Q15(0.01617023),	_Q15(0.0054728417),	_Q15(-0.0054089236),
	_Q15(0.0033515608),	_Q15(0.0035540382),	_Q15(-0.01850858),	_Q15(-0.0031775013),
	_Q15(0.0032005338),	_Q15(0.0033057043),	_Q15(0.0026203147),	_Q15(0.012224808),
	_Q15(6.856263e-05),	_Q15(-0.004136133),	_Q15(0.0003622081),	_Q15(-0.014328184),
	_Q15(-0.0059151375),	_Q15(-0.008191265),	_Q15(-0.01857481),	_Q15(0.00095758913),
	_Q15(0.005050061),	_Q15(-0.005616223),	_Q15(0.015790598),	_Q15(-0.009869966),
	_Q15(0.036430333),	_Q15(-0.04009201),	_Q15(-0.0023000247),	_Q15(-0.03768167),
	_Q15(0.027739417),	_Q15(-0.02306653),	_Q15(-0.002532349),	_Q15(0.014496262),
	_Q15(-0.007658473),	_Q15(-0.011063865),	_Q15(-0.036192495),	_Q15(0.0055658016),
	_Q15(0.009477962),	_Q15(0.029729586),	_Q15(-0.0058074365),	_Q15(-0.0043730005),
	_Q15(0.0020221483),	_Q15(-0.0005988235),	_Q15(-0.021792637),	_Q15(0.0043533593),
	_Q15(-0.0011947695),	_Q15(0.011791208),	_Q15(0.00416707),	_Q15(0.0058713537),
	_Q15(-0.019081257),	_Q15(0.017075747),	_Q15(0.03951404),	_Q15(-0.00040654175),
	_Q15(-0.013960705),	_Q15(0.034738984),	_Q15(-0.009244292),	_Q15(-0.010702873),
	_Q15(0.041941166),	_Q15(-0.008935537),	_Q15(0.0100196935),	_Q15(-0.013875005),
	_Q15(0.016412493),	_Q15(-0.010655586),	_Q15(-0.0051084813),	_Q15(-0.014135442),
	_Q15(-0.0096818665),	_Q15(0.015222967),	_Q15(-0.02340781),	_Q15(0.024179772),
	_Q15(0.0033615266),	_Q15(0.027814317),	_Q15(0.019458136),	_Q15(-0.019451538),
	_Q15(0.019330092),	_Q15(0.005523085),	_Q15(0.012252409),	_Q15(0.014543297),
	_Q15(-0.013261185),	_Q15(-0.030423418),	_Q15(-0.018414764),	_Q15(0.017773576),
	_Q15(-0.010280479),	_Q15(-0.0011978315),	_Q15(0.023084177),	_Q15(-0.005582109),
	_Q15(0.0001652001),	_Q15(-0.0067517976),	_Q15(0.031267475),	_Q15(0.022318184),
	_Q15(-0.0009558752),	_Q15(-0.014188896),	_Q15(0.022471495),	_Q15(0.021558844),
	_Q15(0.018373577),	_Q15(0.020550612),	_Q15(-0.0063461405),	_Q15(-0.007578154),
	_Q15(0.020162117),	_Q15(-0.010964273),	_Q15(-0.015226734),	_Q15(-0.037015587),
	_Q15(0.019072875),	_Q15(-0.0029613078),	_Q15(0.014633967),	_Q15(0.01615004),
	_Q15(-0.0070487196),	_Q15(0.016363695),	_Q15(0.011767849),	_Q15(-0.022046335),
	_Q15(-0.009167159),	_Q15(-0.007818986),	_Q15(0.0025373092),	_Q15(0.013287397),
	_Q15(-0.014766345),	_Q15(0.0012218304),	_Q15(-0.013302864),	_Q15(0.010488387),
	_Q15(0.013020834),	_Q15(0.003826663),	_Q15(0.011339818),	_Q15(0.0040068193),
	_Q15(0.0019149919),	_Q15(0.010883342),	_Q15(-0.021928744),	_Q15(-0.011096417),
	_Q15(-0.0069041816),	_Q15(0.024544217),	_Q15(0.016387738),	_Q15(0.020523673),
	_Q15(0.028117875),	_Q15(-0.01267017),	_Q15(-0.0012364831),	_Q15(-0.0044450234),
	_Q15(0.022260796),	_Q15(0.022573275),	_Q15(-0.017011484),	_Q15(0.02229325),
	_Q15(0.011644918),	_Q15(0.013894603),	_Q15(0.026873011),	_Q15(-0.026299288),
	_Q15(0.018395424),	_Q15(0.009298267),	_Q15(0.031893183),	_Q15(0.009991579),
	_Q15(0.04119972),	_Q15(0.020425381),	_Q15(-0.02928727),	_Q15(-0.0015979856),
	_Q15(-0.0055096513),	_Q15(-0.017810794),	_Q15(-0.011833605),	_Q15(0.023990715),
	_Q15(0.0038889465),	_Q15(0.0059754713),	_Q15(0.0037274747),	_Q15(0.012596798),
	_Q15(0.0068962853),	_Q15(0.017053246),	_Q15(-0.015203223),	_Q15(-0.010889516),
	_Q15(0.026463958),	_Q15(0.011441303),	_Q15(-0.019247549),	_Q15(-0.00525443),
	_Q15(-0.0042710355),	_Q15(-0.004742971),	_Q15(0.049753226),	_Q15(-0.0066929157),
	_Q15(0.01911811),	_Q15(-0.0047373855),	_Q15(-0.014407633),	_Q15(-0.0014377806),
	_Q15(-0.0019235037),	_Q15(0.021697974),	_Q15(-0.010788411),	_Q15(0.0097308),
	_Q15(-0.010831556),	_Q15(0.006505399),	_Q15(-0.019864006),	_Q15(-0.00397571),
	_Q15(-0.023212818),	_Q15(-0.011652185),	_Q15(0.007896461),	_Q15(0.012372611),
	_Q15(0.01776736),	_Q15(0.017986253),	_Q15(0.0010049012),	_Q15(0.01832507),
	_Q15(-0.01398757),	_Q15(0.005479426),	_Q15(0.030977748),	_Q15(0.00044201448),
	_Q15(0.023115402),	_Q15(0.011964527),	_Q15(-0.014315072),	_Q15(-0.03011226),
	_Q15(-0.0068598883),	_Q15(0.015767857),	_Q15(-0.003499497),	_Q15(0.0034265826),
	_Q15(0.0068282257),	_Q15(-0.01567156),	_Q15(-0.020611828),	_Q15(-0.021515736),
	_Q15(-0.025759047),	_Q15(0.0053036707),	_Q15(0.011477606),	_Q15(0.0018723274),
	_Q15(0.011494255),	_Q15(0.0067264703),	_Q15(0.03996396),	_Q15(0.035533164),
	_Q15(0.025183696),	_Q15(0.011783665),	_Q15(-0.00018975908),	_Q15(0.014629469),
	_Q15(-0.0014476882),	_Q15(-0.01443798),	_Q15(0.0048971516),	_Q15(0.019290496),
	_Q15(-0.011804017),	_Q15(-0.013190521),	_Q15(0.030856146),	_Q15(-0.020548183),
	_Q15(0.022706099),	_Q15(-0.029806683),	_Q15(0.0055753873),	_Q15(0.014119373),
	_Q15(0.0091168545),	_Q15(0.018443584),	_Q15(0.020413844),	_Q15(-0.021265877),
	_Q15(0.012959469),	_Q15(0.018984452),	_Q15(0.027845642),	_Q15(0.015688924),
	_Q15(-0.01249146),	_Q15(0.0072401776),	_Q15(0.0047125984),	_Q15(0.006657907),
	_Q15(-0.010656059),	_Q15(-0.00062317617),	_Q15(-0.038805436),	_Q15(0.014796991),
	_Q15(-0.029363204),	_Q15(-0.00816041),	_Q15(0.029334493),	_Q15(-0.03653726),
	_Q15(-0.001652802),	_Q15(-0.0053607128),	_Q15(0.0076269316),	_Q15(0.029838376),
	_Q15(-0.013200364),	_Q15(0.0028944262),	_Q15(0.012433791),	_Q15(-0.0028693601),
	_Q15(-0.009720756),	_Q15(-0.00249469),	_Q15(0.01421503),	_Q15(0.013346543),
	_Q15(0.02255965),	_Q15(0.01231261),	_Q15(-0.01756997),	_Q15(0.0045993873),
	_Q15(-0.0014733248),	_Q15(-0.027189767),	_Q15(0.021822214),	_Q15(0.0036806082),
	_Q15(0.009229541),	_Q15(0.0145984525),	_Q15(-0.015368768),	_Q15(-0.04201302),
	_Q15(-0.030955423),	_Q15(0.0220029),	_Q15(0.0457587),	_Q15(0.004635071),
	_Q15(0.032200757),	_Q15(0.021872496),	_Q15(-0.018857908),	_Q15(0.007824674),
	_Q15(0.0003117693),	_Q15(0.021168375),	_Q15(-0.0021795507),	_Q15(-0.013912571),
	_Q15(-0.006293656),	_Q15(0.011065867),	_Q15(-0.02275232),	_Q15(-0.019492997),
	_Q15(0.018936915),	_Q15(0.016632304),	_Q15(0.004214179),	_Q15(-0.016744217),
	_Q15(-0.024281077),	_Q15(0.021797974),	_Q15(0.017356498),	_Q15(-0.010701405),
	_Q15(0.024046456),	_Q15(0.010162132),	_Q15(0.0057202983),	_Q15(0.014927981),
	_Q15(0.024544137),	_Q15(0.019130971),	_Q15(0.011740506),	_Q15(0.005764568),
	_Q15(0.017714156),	_Q15(0.016680382),	_Q15(-0.027064929),	_Q15(-0.011908413),
	_Q15(-0.016420811),	_Q15(-0.0049388753),	_Q15(-0.022984076),	_Q15(-0.047045067),
	_Q15(-0.034186486),	_Q15(-0.02255634),	_Q15(0.017622622),	_Q15(0.0070411772),
	_Q15(-0.004791616),	_Q15(0.010652019),	_Q15(-0.00341984),	_Q15(-0.002656402),
	_Q15(-0.01673885),	_Q15(0.031627063),	_Q15(0.024364904),	_Q15(0.00844377),
	_Q15(0.005993106),	_Q15(0.0064069023),	_Q15(0.023347838),	_Q15(-0.022008074),
	_Q15(-0.017373692),	_Q15(-0.009529994),	_Q15(-0.01891943),	_Q15(-0.042305052),
	_Q15(0.023549808),	_Q15(0.0015883798),	_Q15(0.01787975),	_Q15(-0.003965061),
	_Q15(0.011390295),	_Q15(-0.024999319),	_Q15(0.03806532),	_Q15(0.020080524),
	_Q15(-0.015810283),	_Q15(0.024826339),	_Q15(0.00072240474),	_Q15(0.00089903455),
	_Q15(-0.053583574),	_Q15(0.041768793),	_Q15(-0.01722395),	_Q15(-0.030378202),
	_Q15(0.045216292),	_Q15(-0.012460228),	_Q15(0.01529766),	_Q15(-0.01939038),
	_Q15(0.0109384805),	_Q15(0.004251896),	_Q15(-0.02141915),	_Q15(0.018569326),
	_Q15(-0.007817285),	_Q15(-0.009839167),	_Q15(-0.00015261676),	_Q15(0.013225305),
	_Q15(0.019556548),	_Q15(0.009834909),	_Q15(0.00915955),	_Q15(-0.0057818834),
	_Q15(0.033107843),	_Q15(0.012167049),	_Q15(-0.048173137),	_Q15(0.038003232),
	_Q15(0.01901765),	_Q15(-0.0025226907),	_Q15(-0.027465824),	_Q15(-0.011759215),
	_Q15(0.034066606),	_Q15(0.008172936),	_Q15(0.015388492),	_Q15(0.039892193),
	_Q15(-0.02554544),	_Q15(-0.00924403),	_Q15(0.004831277),	_Q15(0.00857006),
	_Q15(0.0040520052),	_Q15(0.0075632734),	_Q15(-0.023001872),	_Q15(0.004538445),
	_Q15(-0.028954983),	_Q15(-0.009003636),	_Q15(-0.030757193),	_Q15(-0.03379578),
	_Q15(-0.031953547),	_Q15(0.0093487315),	_Q15(0.0010517798),	_Q15(-0.021322088),
	_Q15(-0.02739226),	_Q15(-0.013892784),	_Q15(-0.0072737318),	_Q15(-0.002109481),
	_Q15(0.0013411378),	_Q15(-0.011313515),	_Q15(0.004838798),	_Q15(-0.0114952),
	_Q15(-0.011390101),	_Q15(-0.0029967558),	_Q15(0.013006175),	_Q15(0.02145866),
	_Q15(-0.017171938),	_Q15(-0.02041396),	_Q15(0.011924596),	_Q15(0.008131656),
	_Q15(-0.00793118),	_Q15(0.011369396),	_Q15(0.011947584),	_Q15(0.014264419),
	_Q15(0.022197608),	_Q15(-0.0015254023),	_Q15(-0.01884171),	_Q15(-0.02391291),
	_Q15(0.0176787),	_Q15(0.021490723),	_Q15(-0.006678986),	_Q15(0.014709439),
	_Q15(0.0028993716),	_Q15(-0.02319755),	_Q15(-0.021049494),	_Q15(0.005655853),
	_Q15(-0.013859993),	_Q15(-0.011497748),	_Q15(-0.023024203),	_Q15(-0.0052807215),
	_Q15(-0.01559115),	_Q15(0.007802284),	_Q15(-0.007016085),	_Q15(0.0054064216),
	_Q15(0.005023512),	_Q15(-0.01769925),	_Q15(-0.0036658198),	_Q15(-0.00431205),
	_Q15(0.0017510597),	_Q15(-0.024191579),	_Q15(-0.029909894),	_Q15(-0.018295754),
	_Q15(0.001499708),	_Q15(-0.01828911),	_Q15(0.0013643929),	_Q15(0.0034413289),
	_Q15(-0.007167881),	_Q15(-0.019339588),	_Q15(0.0072445516),	_Q15(-0.020952394),
	_Q15(-0.011066539),	_Q15(0.0146492645),	_Q15(-0.0113679245),	_Q15(0.007598371),
	_Q15(0.0015536348),	_Q15(-0.015495372),	_Q15(0.015089549),	_Q15(-0.010105664),
	_Q15(-0.009492974),	_Q15(-0.03032243),	_Q15(-0.0011263128),	_Q15(-0.006628733),
	_Q15(-0.008119592),	_Q15(-0.002288806),	_Q15(-0.02608872),	_Q15(-0.009773749),
	_Q15(-0.0032685853),	_Q15(-0.017852457),	_Q15(0.009592667),	_Q15(0.01186923),
	_Q15(-0.014312984),	_Q15(-0.015394376),	_Q15(0.015216449),	_Q15(-0.02390301),
	_Q15(0.012450349),	_Q15(-0.023907732),	_Q15(-0.02072138),	_Q15(0.000800957),
	_Q15(0.002926387),	_Q15(0.0055745263),	_Q15(-0.022455178),	_Q15(-0.02011986),
	_Q15(-0.017280694),	_Q15(-0.02907986),	_Q15(-0.013089327),	_Q15(0.009251032),
	_Q15(0.011897109),	_Q15(0.0060082236),	_Q15(-0.0042049433),	_Q15(0.0069428408),
	_Q15(-0.02018345),	_Q15(-0.022420596),	_Q15(-0.013338272),	_Q15(0.010736078),
	_Q15(-0.016629029),	_Q15(-0.007889427),	_Q15(-0.0007770322),	_Q15(-0.014793881),
	_Q15(-0.0035070647),	_Q15(-0.013285237),	_Q15(-0.027079662),	_Q15(-0.011881291),
	_Q15(0.007565928),	_Q15(0.004804302),	_Q15(-0.019599147),	_Q15(-0.005488962),
	_Q15(0.0083686365),	_Q15(0.00688446),	_Q15(-0.03484495),	_Q15(-0.017606208),
	_Q15(-0.022767458),	_Q15(-0.00490159),	_Q15(-0.013950411),	_Q15(-0.0028617722),
	_Q15(0.012554258),	_Q15(0.0013451262),	_Q15(-0.017153459),	_Q15(-0.0063102557),
	_Q15(-0.025465969),	_Q15(-0.020231852),	_Q15(-0.019827083),	_Q15(-0.013081932),
	_Q15(-0.020707872),	_Q15(0.003452758),	_Q15(-0.04175957),	_Q15(-0.010174105),
	_Q15(-0.021170596),	_Q15(0.012431105),	_Q15(-0.009650794),	_Q15(0.03572779),
	_Q15(0.017505858),	_Q15(-0.024521433),	_Q15(0.021291519),	_Q15(0.016794657),
	_Q15(-0.017115768),	_Q15(0.018508926),	_Q15(0.00030598167),	_Q15(0.0030337956),
	_Q15(0.008624156),	_Q15(-0.01641324),	_Q15(-0.015721232),	_Q15(0.008661348),
	_Q15(0.017681388),	_Q15(0.047592003),	_Q15(0.022308087),	_Q15(-0.0028763667),
	_Q15(0.017081155),	_Q15(0.039096598),	_Q15(-0.028924793),	_Q15(-0.0053872853),
	_Q15(-0.0013367618),	_Q15(-0.017445587),	_Q15(-0.034898013),	_Q15(0.0024502093),
	_Q15(0.0024427625),	_Q15(-0.019817177),	_Q15(0.002624342),	_Q15(-0.0039433357),
	_Q15(-0.0045239036),	_Q15(-0.016434819),	_Q15(0.02430144),	_Q15(-0.01956138),
	_Q15(0.0016036016),	_Q15(-0.0055182423),	_Q15(0.027194554),	_Q15(0.03683569),
	_Q15(0.012416732),	_Q15(0.026362708),	_Q15(-0.0051948233),	_Q15(0.010400603),
	_Q15(0.016046887),	_Q15(0.029303875),	_Q15(-0.025849024),	_Q15(-0.0063393707),
	_Q15(-0.01546993),	_Q15(0.017604556),	_Q15(-0.0040515205),	_Q15(-0.008134483),
	_Q15(0.005940659),	_Q15(-0.0005815333),	_Q15(0.043714628),	_Q15(0.022394506),
	_Q15(-0.009487509),	_Q15(-6.19391e-05),	_Q15(-0.0065032365),	_Q15(0.012111314),
	_Q15(0.016495468),	_Q15(-0.00020073452),	_Q15(-0.012913129),	_Q15(0.011238818),
	_Q15(-0.02201997),	_Q15(-0.027116122),	_Q15(-0.027306495),	_Q15(0.055734802),
	_Q15(0.0091222),	_Q15(-0.037447568),	_Q15(0.027543822),	_Q15(0.002924038),
	_Q15(0.00968418),	_Q15(0.0068043023),	_Q15(0.0031498792),	_Q15(-0.00084187544),
	_Q15(-0.010001327),	_Q15(-0.0681257),	_Q15(0.00052317977),	_Q15(-0.0061629657),
	_Q15(0.034881774),	_Q15(0.046696857),	_Q15(0.034763847),	_Q15(0.04925643),
	_Q15(0.031734657),	_Q15(0.02883106),	_Q15(0.0148322275),	_Q15(0.016693167),
	_Q15(-0.017379766),	_Q15(-0.008952444),	_Q15(-0.0092298165),	_Q15(0.051259104),
	_Q15(0.0014304036),	_Q15(0.002227304),	_Q15(0.004175405),	_Q15(-0.023421524),
	_Q15(0.033303153),	_Q15(-0.029277282),	_Q15(0.005601581),	_Q15(-0.00023709136),
	_Q15(-0.017607471),	_Q15(0.0045513357),	_Q15(-0.018155588),	_Q15(-0.015575413),
	_Q15(-0.021906216),	_Q15(0.019913226),	_Q15(0.009323561),	_Q15(0.0034704579),
	_Q15(-0.018190546),	_Q15(-0.004232965),	_Q15(-0.019502677),	_Q15(0.015779193),
	_Q15(-0.00315958),	_Q15(-0.028338647),	_Q15(-0.0083651105),	_Q15(-0.0012551342),
	_Q15(0.0036819724),	_Q15(-0.023010641),	_Q15(-0.010683753),	_Q15(0.000110115856),
	_Q15(0.013976549),	_Q15(-0.01491985),	_Q15(0.012278231),	_Q15(0.013147105),
	_Q15(0.01141331),	_Q15(0.021441475),	_Q15(-0.011661218),	_Q15(-0.027051676),
	_Q15(0.0130550675),	_Q15(-0.0017401236),	_Q15(0.015731622),	_Q15(-0.002913308),
	_Q15(-0.011097873),	_Q15(0.019633936),	_Q15(-0.012165767),	_Q15(0.008615773),
	_Q15(-0.005966791),	_Q15(-0.016921205),	_Q15(-0.015621366),	_Q15(0.0015938412),
	_Q15(0.0056535695),	_Q15(-0.0027973773),	_Q15(0.01876473),	_Q15(-0.001030655),
	_Q15(-0.0049353596),	_Q15(-0.009552416),	_Q15(-0.0066861287),	_Q15(-0.02182931),
	_Q15(0.013555367),	_Q15(0.008289788),	_Q15(0.010996755),	_Q15(0.012866946),
	_Q15(0.0087800175),	_Q15(-0.00999936),	_Q15(-0.009123946),	_Q15(-0.016348733),
	_Q15(0.010811485),	_Q15(-0.00781667),	_Q15(-0.00031170557),	_Q15(-0.012081007),
	_Q15(0.0060520982),	_Q15(-0.025460262),	_Q15(0.0067727747),	_Q15(0.026133168),
	_Q15(0.007051276),	_Q15(0.01242125),	_Q15(0.008409595),	_Q15(-0.020240402),
	_Q15(0.0016445747),	_Q15(-0.011461221),	_Q15(-0.007733201),	_Q15(-0.014180388),
	_Q15(-0.006580407),	_Q15(-0.020390116),	_Q15(-0.013243311),	_Q15(0.007368181),
	_Q15(-0.0010433608),	_Q15(-0.0020551775),	_Q15(-0.005126171),	_Q15(0.009728883),
	_Q15(0.004410809),	_Q15(-0.020280406),	_Q15(0.021285892),	_Q15(0.0066688186),
	_Q15(-0.008474135),	_Q15(-0.025047429),	_Q15(0.0070836297),	_Q15(-0.029418714),
	_Q15(-0.011615513),	_Q15(-0.008556493),	_Q15(-0.008057023),	_Q15(0.022086833),
	_Q15(0.0077046477),	_Q15(-0.0013953652),	_Q15(0.003431551),	_Q15(-0.021095825),
	_Q15(0.01166943),	_Q15(-0.004628939),	_Q15(0.000105705694),	_Q15(0.015628714),
	_Q15(-0.007910371),	_Q15(-0.008454577),	_Q15(0.012900929),	_Q15(0.023846962),
	_Q15(-0.014037266),	_Q15(-0.03683315),	_Q15(-0.0071470086),	_Q15(0.0010974082),
	_Q15(-0.011159589),	_Q15(0.01477649),	_Q15(0.017677478),	_Q15(-0.02332045),
	_Q15(-0.022216635),	_Q15(0.021527098),	_Q15(-0.030671833),	_Q15(-0.0127327535),
	_Q15(-0.026796553),	_Q15(0.002625557),	_Q15(-0.023389533),	_Q15(0.020286877),
	_Q15(0.004585807),	_Q15(0.02745877),	_Q15(0.025057996),	_Q15(0.01769975),
	_Q15(0.046374023),	_Q15(-0.0022247494),	_Q15(-0.0016796723),	_Q15(0.012216155),
	_Q15(-0.013637274),	_Q15(0.0062470343),	_Q15(-0.008741044),	_Q15(0.020873137),
	_Q15(-0.007388168),	_Q15(-0.005742086),	_Q15(-0.014411705),	_Q15(-0.010477013),
	_Q15(0.044467647),	_Q15(-0.009483868),	_Q15(0.044903785),	_Q15(0.022169255),
	_Q15(0.016613401),	_Q15(0.0074699256),	_Q15(-0.0046528648),	_Q15(-0.012575388),
	_Q15(-0.010172778),	_Q15(-0.01544463),	_Q15(-0.027025461),	_Q15(0.0009196251),
	_Q15(0.01271547),	_Q15(0.0144447265),	_Q15(0.016287882),	_Q15(0.019412257),
	_Q15(0.027068289),	_Q15(-0.00039275177),	_Q15(0.011323367),	_Q15(0.020174382),
	_Q15(-0.016256787),	_Q15(-0.034891054),	_Q15(0.00845558),	_Q15(0.0025999004),
	_Q15(-0.010834642),	_Q15(-0.0052645346),	_Q15(0.033027336),	_Q15(-0.01785488),
	_Q15(0.0011958014),	_Q15(0.024619589),	_Q15(-0.011983982),	_Q15(-0.017720275),
	_Q15(0.02290337),	_Q15(0.031354673),	_Q15(0.0022476518),	_Q15(0.022753242),
	_Q15(0.022130145),	_Q15(-0.00063708867),	_Q15(0.010782787),	_Q15(-0.009358363),
	_Q15(-0.0020992965),	_Q15(0.023556998),	_Q15(-0.0048874877),	_Q15(-0.0147727365),
	_Q15(0.011968093),	_Q15(-0.04538346),	_Q15(0.031057209),	_Q15(-0.0077835084),
	_Q15(0.005963335),	_Q15(-0.029076003),	_Q15(0.0377232),	_Q15(0.017741198),
	_Q15(0.040323973),	_Q15(-0.0067436304),	_Q15(0.020916466),	_Q15(-0.0017751437),
	_Q15(-0.014645216),	_Q15(-0.0017212576),	_Q15(-0.0024353284),	_Q15(-0.017848881),
	_Q15(0.023596283),	_Q15(0.02877542),	_Q15(-0.0015581526),	_Q15(-0.0048756213),
	_Q15(-0.0180377),	_Q15(0.031773686),	_Q15(-0.003514108),	_Q15(-0.0158579),
	_Q15(0.04668015),	_Q15(0.014409756),	_Q15(0.026269656),	_Q15(-0.042168718),
	_Q15(0.0055080364),	_Q15(0.010112905),	_Q15(-0.0065327263),	_Q15(0.033279933),
	_Q15(0.016320864),	_Q15(0.004370874),	_Q15(0.0271457),	_Q15(0.01864908),
	_Q15(-0.009991143),	_Q15(0.053164087),	_Q15(-0.008309869),	_Q15(-0.013982053),
	_Q15(-0.035028018),	_Q15(0.002970002),	_Q15(-0.046834826),	_Q15(-0.007118318),
	_Q15(0.0071396837),	_Q15(-0.015524803),	_Q15(0.0329819),	_Q15(-0.014321202),
	_Q15(0.029963292),	_Q15(-0.0033800448),	_Q15(0.009110316),	_Q15(-0.0049888603),
	_Q15(0.004993059),	_Q15(-0.014245165),	_Q15(0.025714422),	_Q15(0.018229183),
	_Q15(0.0147043625),	_Q15(0.017158708),	_Q15(-0.04798811),	_Q15(-0.014090327),
	_Q15(0.009362743),	_Q15(0.018188622),	_Q15(-0.05386566),	_Q15(0.04574516),
	_Q15(-0.008227566),	_Q15(-0.005735038),	_Q15(-0.016781803),	_Q15(0.0150302155),
	_Q15(9.832675e-05),	_Q15(-0.030398637),	_Q15(0.015489855),	_Q15(0.013261223),
	_Q15(-0.036002737),	_Q15(0.017528167),	_Q15(-0.014055403),	_Q15(0.015611891),
	_Q15(-0.0065699024),	_Q15(0.0030871646),	_Q15(-0.008571391),	_Q15(-0.020558959),
	_Q15(-0.009936364),	_Q15(0.018688425),	_Q15(-0.01035142),	_Q15(-0.00891484),
	_Q15(0.019009601),	_Q15(0.014506945),	_Q15(-0.022049444),	_Q15(0.035090946),
	_Q15(-0.021561747),	_Q15(0.0158967),	_Q15(0.0011091884),	_Q15(-0.015229067),
	_Q15(-0.0638453),	_Q15(0.003037572),	_Q15(0.011269837),	_Q15(0.00615256),
	_Q15(-0.00087878143),	_Q15(0.035083506),	_Q15(-0.017393613),	_Q15(-0.020994734),
	_Q15(0.009664256),	_Q15(-0.033417188),	_Q15(-0.026663747),	_Q15(0.046362538),
	_Q15(0.011917867),	_Q15(-0.01314929),	_Q15(0.007476412),	_Q15(0.025291473),
	_Q15(0.02519233),	_Q15(-0.017867377),	_Q15(0.010923625),	_Q15(-0.053777494),
	_Q15(-0.0045786095),	_Q15(-0.023325374),	_Q15(0.03628367),	_Q15(-0.014392451),
	_Q15(0.005141397),	_Q15(-0.02420404),	_Q15(-0.046326),	_Q15(-0.01261413),
	_Q15(-0.014433815),	_Q15(0.030647945),	_Q15(0.021020176),	_Q15(0.012809741),
	_Q15(0.0051523335),	_Q15(0.027260905),	_Q15(0.00409289),	_Q15(0.01740953),
	_Q15(-0.00824709),	_Q15(0.004071607),	_Q15(-0.015513938),	_Q15(-0.008251551),
	_Q15(-0.003872577),	_Q15(0.045568317),	_Q15(-0.011923515),	_Q15(0.023091549),
	_Q15(0.03851697),	_Q15(-0.025460085),	_Q15(-0.027365733),	_Q15(0.011217694),
	_Q15(0.009205679),	_Q15(-0.03618727),	_Q15(-0.023789497),	_Q15(0.0019552342),
	_Q15(-0.020401744),	_Q15(0.0038086493),	_Q15(-0.020689264),	_Q15(0.014526156),
	_Q15(-0.025959186),	_Q15(-0.000940529),	_Q15(0.05615748),	_Q15(-0.033897974),
	_Q15(0.015014793),	_Q15(-0.003111916),	_Q15(-0.017242288),	_Q15(0.007605429),
	_Q15(-0.01139622),	_Q15(-0.05849052),	_Q15(-0.07950947),	_Q15(-0.00271991),
	_Q15(0.01986671),	_Q15(-0.013965489),	_Q15(0.0015485927),	_Q15(0.010746484),
	_Q15(-0.013742346),	_Q15(0.015359911),	_Q15(-0.019700123),	_Q15(0.012026559),
	_Q15(-0.036912043),	_Q15(-0.105728656),	_Q15(0.0043136496),	_Q15(-0.013424928),
	_Q15(0.00300795),	_Q15(0.029779816),	_Q15(-0.0302371),	_Q15(-0.02795493),
	_Q15(-0.0018169438),	_Q15(-0.03681669),	_Q15(-0.0020612844),	_Q15(-0.017473165),
	_Q15(-0.0075402954),	_Q15(-0.009266196),	_Q15(0.028530553),	_Q15(-0.01872138),
	_Q15(0.0151233645),	_Q15(-0.02409425),	_Q15(0.008564644),	_Q15(-0.010116771),
	_Q15(-0.019376507),	_Q15(0.030234667),	_Q15(0.041130535),	_Q15(0.018429272),
	_Q15(0.013810225),	_Q15(0.010510473),	_Q15(-0.013753069),	_Q15(0.008884178),
	_Q15(0.0023534563),	_Q15(0.016600695),	_Q15(-0.011823883),	_Q15(0.015987374),
	_Q15(0.00924249),	_Q15(-0.0013948373),	_Q15(-0.0155296),	_Q15(0.007952763),
	_Q15(0.008322218),	_Q15(-0.008897373),	_Q15(0.023750465),	_Q15(0.0007546176),
	_Q15(0.020921785),	_Q15(-0.023149557),	_Q15(-0.0141312005),	_Q15(0.0137963975),
	_Q15(0.016645156),	_Q15(-0.01574663),	_Q15(0.00905805),	_Q15(0.0050740335),
	_Q15(0.006283041),	_Q15(0.004895038),	_Q15(0.012699018),	_Q15(0.02008021),
	_Q15(-0.008407032),	_Q15(0.029578736),	_Q15(-0.0039585857),	_Q15(-0.023651302),
	_Q15(-0.021340042),	_Q15(0.024510633),	_Q15(-0.029647304),	_Q15(-0.005918471),
	_Q15(-0.033770714),	_Q15(0.0076559735),	_Q15(-0.024786064),	_Q15(-0.041373413),
	_Q15(0.014056767),	_Q15(0.01830539),	_Q15(0.012038454),	_Q15(0.010646726),
	_Q15(-0.016909592),	_Q15(0.007846288),	_Q15(0.026308129),	_Q15(0.0056747855),
	_Q15(-0.019957997),	_Q15(-0.020093264),	_Q15(-0.024596784),	_Q15(-0.007821009),
	_Q15(0.00804033),	_Q15(-0.01681557),	_Q15(-0.024457576),	_Q15(-0.04176879),
	_Q15(0.01802505),	_Q15(0.010319748),	_Q15(0.015349495),	_Q15(0.0111607835),
	_Q15(0.009973567),	_Q15(-0.03334193),	_Q15(0.030046452),	_Q15(0.018975805),
	_Q15(-0.02599076),	_Q15(0.024710197),	_Q15(0.0055051628),	_Q15(-0.0007838182),
	_Q15(-0.016757792),	_Q15(-0.0071677202),	_Q15(-0.008679317),	_Q15(-0.0062834253),
	_Q15(0.026977953),	_Q15(0.018100256),	_Q15(0.02633233),	_Q15(-0.01273581),
	_Q15(-0.007965982),	_Q15(0.0064295367),	_Q15(0.027796432),	_Q15(0.019268014),
	_Q15(0.015452937),	_Q15(-0.007190457),	_Q15(0.011680012),	_Q15(0.024613729),
	_Q15(0.0003930121),	_Q15(-0.008698076),	_Q15(0.019256527),	_Q15(-0.0022023187),
	_Q15(-0.0039128396),	_Q15(0.03479508),	_Q15(0.002989376),	_Q15(0.026799284),
	_Q15(-0.009596901),	_Q15(-0.0062850285),	_Q15(-0.0057896296),	_Q15(-0.011226827),
	_Q15(0.03095065),	_Q15(-0.0045516277),	_Q15(-0.023792367),	_Q15(0.024646452),
	_Q15(0.011529372),	_Q15(0.001084939),	_Q15(0.016703125),	_Q15(0.006132726),
	_Q15(-0.020243132),	_Q15(-0.017194299),	_Q15(-0.014516787),	_Q15(0.002557292),
	_Q15(-0.019035429),	_Q15(-0.016251698),	_Q15(0.0067211315),	_Q15(0.013251153),
	_Q15(0.0016452523),	_Q15(0.0016043968),	_Q15(0.00036270544),	_Q15(0.0061034807),
	_Q15(-0.012860138),	_Q15(0.01955625),	_Q15(0.005925661),	_Q15(-0.018889848),
	_Q15(0.012640932),	_Q15(-0.014329973),	_Q15(-0.009020376),	_Q15(-0.020475673),
	_Q15(-0.0052698585),	_Q15(0.007032579),	_Q15(0.015381439),	_Q15(-0.021473326),
	_Q15(-0.012066053),	_Q15(-0.0008448474),	_Q15(0.0004353924),	_Q15(-0.01281278),
	_Q15(-0.022682702),	_Q15(-0.02146649),	_Q15(-0.01184869),	_Q15(0.0013860875),
	_Q15(-0.004697688),	_Q15(-0.02332787),	_Q15(0.013996933),	_Q15(-0.025977781),
	_Q15(-0.009736584),	_Q15(-0.013119193),	_Q15(-0.01078206),	_Q15(0.022032686),
	_Q15(-0.009872053),	_Q15(0.0021945713),	_Q15(-0.004272051),	_Q15(0.018502243),
	_Q15(0.0122128315),	_Q15(-0.0051273955),	_Q15(-0.020043075),	_Q15(0.012267448),
	_Q15(0.007227976),	_Q15(0.009144119),	_Q15(0.005711356),	_Q15(-0.026819555),
	_Q15(0.01817293),	_Q15(-0.010628881),	_Q15(0.013840906),	_Q15(0.018023297),
	_Q15(-0.0018097777),	_Q15(0.009622309),	_Q15(-0.002358553),	_Q15(0.012715895),
	_Q15(-0.0040581683),	_Q15(-0.023944292),	_Q15(0.016999613),	_Q15(-0.017246772),
	_Q15(-0.024286864),	_Q15(0.014095771),	_Q15(-0.0025059562),	_Q15(-0.009571363),
	_Q15(0.0009084493),	_Q15(-0.0062907767),	_Q15(-0.0028191349),	_Q15(0.009448529),
	_Q15(-0.0023235255),	_Q15(0.011655218),	_Q15(-0.011646703),	_Q15(0.018969987),
	_Q15(0.021775674),	_Q15(-0.01572525),	_Q15(0.013682564),	_Q15(-0.022065733),
	_Q15(-0.013188962),	_Q15(-0.026650079),	_Q15(-0.016158827),	_Q15(-0.020827752),
	_Q15(-0.020522678),	_Q15(-0.017991828),	_Q15(0.01642127),	_Q15(0.01635888),
	_Q15(-0.008449056),	_Q15(0.010920816),	_Q15(-0.027026901),	_Q15(0.01335707),
	_Q15(-0.0060394034),	_Q15(-0.021853754),	_Q15(-0.027157143),	_Q15(0.015569501),
	_Q15(-0.021198714),	_Q15(-0.0136137735),	_Q15(-0.012445287),	_Q15(-0.022511728),
	_Q15(-0.0074122753),	_Q15(0.014263987),	_Q15(0.016088989),	_Q15(0.00841476),
	_Q15(0.0022061467),	_Q15(0.009707734),	_Q15(0.0012752581),	_Q15(-0.012606292),
	_Q15(-0.0011820076),	_Q15(-0.014446388),	_Q15(0.0036700233),	_Q15(-0.01779809),
	_Q15(0.0055839885),	_Q15(-0.019853633),	_Q15(-0.015376421),	_Q15(-0.019667469),
	_Q15(0.016267419),	_Q15(-0.024452806),	_Q15(0.016859006),	_Q15(0.009156734),
	_Q15(0.00094338943),	_Q15(-0.004352341),	_Q15(0.022047773),	_Q15(-0.0151558155),
	_Q15(0.038642768),	_Q15(-0.037327055),	_Q15(0.027243046),	_Q15(-0.041242458),
	_Q15(0.0019937188),	_Q15(0.013068856),	_Q15(0.012380814),	_Q15(-0.0059404713),
	_Q15(0.032483213),	_Q15(-0.002058789),	_Q15(-0.010185364),	_Q15(0.005632877),
	_Q15(-0.01616146),	_Q15(0.028483799),	_Q15(-0.016829152),	_Q15(0.015600649),
	_Q15(-0.025483694),	_Q15(-0.012217199),	_Q15(-0.017129524),	_Q15(0.009427445),
	_Q15(-0.00542354),	_Q15(-0.0030738001),	_Q15(-0.005450713),	_Q15(0.029627496),
	_Q15(0.0055720834),	_Q15(0.015085545),	_Q15(0.03554243),	_Q15(0.01573694),
	_Q15(-0.024509942),	_Q15(0.02480196),	_Q15(-0.008562298),	_Q15(0.021821283),
	_Q15(-0.001197456),	_Q15(-0.011472992),	_Q15(0.020887198),	_Q15(-0.01460948),
	_Q15(0.02095933),	_Q15(0.030139908),	_Q15(0.003261459),	_Q15(-0.0013298948),
	_Q15(0.0004867036),	_Q15(0.0026004352),	_Q15(-0.044857066),	_Q15(0.021870302),
	_Q15(-0.0013170695),	_Q15(0.024133181),	_Q15(-0.030722264),	_Q15(-0.020490965),
	_Q15(0.011859782),	_Q15(-0.007491222),	_Q15(0.021136362),	_Q15(-0.008984693),
	_Q15(-0.00091317296),	_Q15(-0.025588524),	_Q15(-0.002676328),	_Q15(0.0065163192),
	_Q15(0.012599281),	_Q15(0.0059347036),	_Q15(0.023637656),	_Q15(0.029922998),
	_Q15(0.021349788),	_Q15(0.009119649),	_Q15(0.016961893),	_Q15(0.020795017),
	_Q15(-0.0011378318),	_Q15(0.005699069),	_Q15(-0.0027221912),	_Q15(0.0059315437),
	_Q15(-0.03491546),	_Q15(0.046122823),	_Q15(0.020076275),	_Q15(0.011691602),
	_Q15(-0.022028428),	_Q15(0.024797523),	_Q15(0.022252375),	_Q15(-0.034654465),
	_Q15(-0.0027124817),	_Q15(-0.018171815),	_Q15(0.012084103),	_Q15(0.03052348),
	_Q15(-0.01609869),	_Q15(0.008958831),	_Q15(0.0003766738),	_Q15(-0.0029747433),
	_Q15(-0.03180011),	_Q15(-0.034669865),	_Q15(-0.0005946185),	_Q15(0.044015817),
	_Q15(0.012736028),	_Q15(-0.033840433),	_Q15(-0.004730747),	_Q15(0.020361153),
	_Q15(0.01403257),	_Q15(-0.018683642),	_Q15(-0.0003658326),	_Q15(-0.0015250912),
	_Q15(0.025214523),	_Q15(-0.031286683),	_Q15(0.0033176402),	_Q15(-0.0043828418),
	_Q15(0.0137201),	_Q15(0.03199331),	_Q15(0.02724063),	_Q15(0.03325074),
	_Q15(0.011937843),	_Q15(-0.012475557),	_Q15(-0.031664226),	_Q15(0.015681382),
	_Q15(-0.0023748926),	_Q15(0.011188714),	_Q15(0.00969156),	_Q15(0.011648489),
	_Q15(-0.0035422046),	_Q15(-0.008337999),	_Q15(0.007125657),	_Q15(-0.009145776),
	_Q15(-0.015458352),	_Q15(0.03144656),	_Q15(0.055180788),	_Q15(0.009484598),
	_Q15(0.02197714),	_Q15(0.00093416154),	_Q15(0.009346391),	_Q15(-0.028670214),
	_Q15(-0.016519604),	_Q15(0.0017536503),	_Q15(0.002819084),	_Q15(-0.018952884),
	_Q15(-0.021377252),	_Q15(0.028683504),	_Q15(0.026698546),	_Q15(-0.009694752),
	_Q15(0.013383861),	_Q15(0.0137178),	_Q15(0.013210648),	_Q15(-0.013673143),
	_Q15(-0.023424126),	_Q15(-0.0018367872),	_Q15(-0.007995856),	_Q15(0.021362219),
	_Q15(0.016410805),	_Q15(-0.007066547),	_Q15(-0.020733431),	_Q15(0.007078616),
	_Q15(0.012283906),	_Q15(0.022298936),	_Q15(0.0022643078),	_Q15(0.021424532),
	_Q15(-0.01891963),	_Q15(-0.014323271),	_Q15(-0.014787377),	_Q15(0.030352838),
	_Q15(0.051168717),	_Q15(0.0043545477),	_Q15(-0.017753255),	_Q15(-0.011455994),
	_Q15(0.016333766),	_Q15(0.031209357),	_Q15(0.031038607),	_Q15(-0.022710953),
	_Q15(-0.0066485777),	_Q15(0.009322867),	_Q15(0.012045943),	_Q15(-0.0076153297),
	_Q15(0.021211408),	_Q15(-0.029727478),	_Q15(-0.01296756),	_Q15(-0.04458353),
	_Q15(0.019517858),	_Q15(-0.019754954),	_Q15(0.017818352),	_Q15(0.035269383),
	_Q15(-0.010197094),	_Q15(0.043119162),	_Q15(-0.026055003),	_Q15(0.014048302),
	_Q15(-0.026828177),	_Q15(0.029867362),	_Q15(-0.012591037),	_Q15(0.035525665),
	_Q15(0.009929439),	_Q15(-0.0133129135),	_Q15(0.011892412),	_Q15(0.02698306),
	_Q15(0.019958882),	_Q15(0.019700427),	_Q15(0.007821781),	_Q15(-0.010292923),
	_Q15(0.008943173),	_Q15(-0.013770558),	_Q15(-0.004492036),	_Q15(0.0024103485),
	_Q15(0.0055788066),	_Q15(-0.008749665),	_Q15(0.030654095),	_Q15(-0.009106994),
	_Q15(-0.032025326),	_Q15(-0.011872252),	_Q15(0.022374686),	_Q15(0.024581289),
	_Q15(-0.010807224),	_Q15(0.035000023),	_Q15(0.016685076),	_Q15(0.008282149),
	_Q15(0.012655971),	_Q15(0.012333835),	_Q15(0.019371953),	_Q15(0.009649676),
	_Q15(0.021324351),	_Q15(0.0060307747),	_Q15(-0.025950903),	_Q15(-0.0058325846),
	_Q15(0.00799822),	_Q15(-0.009964244),	_Q15(0.017162474),	_Q15(0.024296232),
	_Q15(-0.0046781367),	_Q15(0.021392828),	_Q15(-0.002908198),	_Q15(-0.00355444),
	_Q15(0.013765402),	_Q15(0.0029585448),	_Q15(-0.029510265),	_Q15(-0.007013927),
	_Q15(0.025587402),	_Q15(-0.008016621),	_Q15(-0.00852668),	_Q15(-0.0060680765),
	_Q15(-0.005677783),	_Q15(-0.0022122748),	_Q15(0.004591172),	_Q15(0.0012907132),
	_Q15(-0.005118809),	_Q15(-0.009952819),	_Q15(0.013274022),	_Q15(-0.02657294),
	_Q15(-0.0041876235),	_Q15(0.0074979984),	_Q15(-0.009426985),	_Q15(-0.006458069),
	_Q15(0.001016486),	_Q15(0.021650352),	_Q15(0.037847593),	_Q15(-0.024303861),
	_Q15(-0.0051518134),	_Q15(0.015226953),	_Q15(0.0100692175),	_Q15(0.041942075),
	_Q15(-0.03272468),	_Q15(-0.0058520753),	_Q15(-0.02295434),	_Q15(-0.0033847068),
	_Q15(0.009346352),	_Q15(0.003935669),	_Q15(-0.0022908486),	_Q15(-0.020259451),
	_Q15(0.0068724556),	_Q15(-0.0120093515),	_Q15(-0.0051646004),	_Q15(-0.023395661),
	_Q15(-0.012091736),	_Q15(-0.0014866435),	_Q15(-0.012301013),	_Q15(0.0045842826),
	_Q15(0.009458723),	_Q15(-0.009602355),	_Q15(0.015969142),	_Q15(-0.018843245),
	_Q15(0.009408987),	_Q15(-0.0380984),	_Q15(0.012419242),	_Q15(-0.02698947),
	_Q15(-0.0126607),	_Q15(0.002957958),	_Q15(0.007630215),	_Q15(-0.01645894),
	_Q15(0.027151957),	_Q15(-0.03956514),	_Q15(0.0088498),	_Q15(0.0057160314),
	_Q15(-0.02261678),	_Q15(0.027835837),	_Q15(-0.008587977),	_Q15(0.0012953957),
	_Q15(0.021592937),	_Q15(0.022168517),	_Q15(0.016164673),	_Q15(0.026568227),
	_Q15(0.009541805),	_Q15(0.038340576),	_Q15(0.0067625702),	_Q15(-0.009431019),
	_Q15(-0.025471827),	_Q15(-0.017614372),	_Q15(-0.015610131),	_Q15(-0.01132785),
	_Q15(-0.01929455),	_Q15(-0.009316339),	_Q15(0.00558896),	_Q15(-0.0019273686),
	_Q15(-0.008318248),	_Q15(-0.027619356),	_Q15(0.010437639),	_Q15(0.0042211274),
	_Q15(0.0023123752),	_Q15(-0.026951097),	_Q15(0.0021204005),	_Q15(-0.018195692),
	_Q15(0.022823554),	_Q15(-0.035456434),	_Q15(0.013569346),	_Q15(0.014407067),
	_Q15(0.0054109963),	_Q15(0.0022695852),	_Q15(-0.035700124),	_Q15(-0.04290537),
	_Q15(0.02972545),	_Q15(0.024942461),	_Q15(0.0192848),	_Q15(0.021512028),
	_Q15(-0.020615917),	_Q15(0.01632298),	_Q15(-0.0023282012),	_Q15(-0.00395571),
	_Q15(-0.014881553),	_Q15(0.031879906),	_Q15(0.029551351),	_Q15(-0.0013526784),
	_Q15(0.025416655),	_Q15(0.04123843),	_Q15(-0.005532726),	_Q15(-0.010937964),
	_Q15(-0.012385474),	_Q15(-0.01911392),	_Q15(0.023377001),	_Q15(0.03700007),
	_Q15(0.029523412),	_Q15(0.0061417352),	_Q15(0.021101298),	_Q15(0.0076802885),
	_Q15(-0.021788413),	_Q15(0.025201343),	_Q15(0.061035864),	_Q15(-0.010774078),
	_Q15(-0.0057771145),	_Q15(0.0030447037),	_Q15(0.02444995),	_Q15(-0.0022094497),
	_Q15(0.031436246),	_Q15(0.012697626),	_Q15(0.019265879),	_Q15(-0.014715035),
	_Q15(0.0009175504),	_Q15(-0.010758405),	_Q15(-0.0014091482),	_Q15(-0.0135596255),
	_Q15(0.033001244),	_Q15(-0.018413665),	_Q15(0.0030293334),	_Q15(0.009311502),
	_Q15(0.013558032),	_Q15(-0.002822362),	_Q15(-0.011588058),	_Q15(0.0012474677),
	_Q15(-0.0026669826),	_Q15(-0.0145901935),	_Q15(-0.018308077),	_Q15(0.01041641),
	_Q15(-0.0024534333),	_Q15(-0.025644677),	_Q15(-0.010677506),	_Q15(0.021962188),
	_Q15(-0.017060192),	_Q15(-0.028977375),	_Q15(-0.0038351845),	_Q15(0.005303452),
	_Q15(0.0035824168),	_Q15(0.020411216),	_Q15(-0.0060087685),	_Q15(-0.017983314),
	_Q15(0.015712684),	_Q15(0.0016846489),	_Q15(0.0047675404),	_Q15(0.010626456),
	_Q15(0.00010788441),	_Q15(0.0025729276),	_Q15(-0.015217995),	_Q15(-0.022517083),
	_Q15(0.020914603),	_Q15(0.010103694),	_Q15(-0.022274982),	_Q15(-0.0073573254),
	_Q15(0.012574125),	_Q15(0.016285758),	_Q15(-0.01911648),	_Q15(-0.0074859113),
	_Q15(-0.014385498),	_Q15(0.002885289),	_Q15(-0.018529598),	_Q15(-0.016919225),
	_Q15(0.0008099191),	_Q15(-0.022933196),	_Q15(-0.023668224),	_Q15(-0.016063439),
	_Q15(-0.019461744),	_Q15(0.002824806),	_Q15(0.003040336),	_Q15(-0.002936555),
	_Q15(-0.0039663976),	_Q15(-0.017640645),	_Q15(-0.0042502824),	_Q15(0.0057273535),
	_Q15(0.0037911125),	_Q15(-0.025799446),	_Q15(0.013571859),	_Q15(0.0010165218),
	_Q15(0.0013772014),	_Q15(0.011850197),	_Q15(-0.02427367),	_Q15(0.0068830037),
	_Q15(0.012149893),	_Q15(0.0020116605),	_Q15(-0.015628455),	_Q15(-0.026498908),
	_Q15(0.015057746),	_Q15(0.016550418),	_Q15(0.010991684),	_Q15(-0.009066493),
	_Q15(-0.0004158598),	_Q15(0.008736152),	_Q15(-0.009331472),	_Q15(-0.0006205123),
	_Q15(-0.007807819),	_Q15(-0.0040127137),	_Q15(0.011737279),	_Q15(-0.019448979),
	_Q15(-0.015014032),	_Q15(-0.0046986155),	_Q15(-0.0153103),	_Q15(0.0036990633),
	_Q15(0.0140383635),	_Q15(-0.017109094),	_Q15(0.0036491563),	_Q15(-0.027570166),
	_Q15(0.015688898),	_Q15(-0.0040873354),	_Q15(-0.007037985),	_Q15(-0.00833043),
	_Q15(0.0038232668),	_Q15(0.010623112),	_Q15(-0.025250707),	_Q15(-0.017584365),
	_Q15(-0.016232178),	_Q15(-0.019348677),	_Q15(-0.016011987),	_Q15(-0.002338891),
	_Q15(-0.012428066),	_Q15(0.01037864),	_Q15(0.014620887),	_Q15(0.014059935),
	_Q15(0.005529754),	_Q15(-0.013514391),	_Q15(0.012713513),	_Q15(-0.021013526),
	_Q15(0.011187639),	_Q15(-0.0045365887),	_Q15(0.010551379),	_Q15(0.005721975),
	_Q15(0.015027339),	_Q15(-0.00047246937),	_Q15(-0.0189578),	_Q15(-0.0057848115),
	_Q15(0.0091307275),	_Q15(0.0030782544),	_Q15(-0.008244897),	_Q15(0.011564901),
	_Q15(-0.020496111),	_Q15(-0.0064625023),	_Q15(-0.002577628),	_Q15(-0.013716174),
	_Q15(0.019811502),	_Q15(0.020908061),	_Q15(0.036424052),	_Q15(-0.048848588),
	_Q15(0.010143885),	_Q15(-0.01980125),	_Q15(-0.0072151828),	_Q15(0.0070959223),
	_Q15(-0.004987916),	_Q15(-0.0020452698),	_Q15(0.0012173046),	_Q15(-0.01722533),
	_Q15(-0.021858322),	_Q15(0.023198735),	_Q15(-0.014742121),	_Q15(-0.015350813),
	_Q15(0.011459146),	_Q15(-0.004017456),	_Q15(-0.00257173),	_Q15(0.010008771),
	_Q15(0.0048801815),	_Q15(0.024286961),	_Q15(0.02638121),	_Q15(-0.012524509),
	_Q15(0.017472807),	_Q15(-0.015693229),	_Q15(0.004453938),	_Q15(0.039034575),
	_Q15(-0.021519355),	_Q15(-0.011153953),	_Q15(0.0067228633),	_Q15(0.014767191),
	_Q15(0.02114718),	_Q15(0.00960791),	_Q15(0.021242252),	_Q15(-1.849725e-05),
	_Q15(0.026363425),	_Q15(-0.01572637),	_Q15(0.008595037),	_Q15(0.004663857),
	_Q15(-0.025422586),	_Q15(-0.038468417),	_Q15(0.031304594),	_Q15(0.005935175),
	_Q15(-0.009244071),	_Q15(-0.017019618),	_Q15(0.017429419),	_Q15(0.009928663),
	_Q15(0.03759224),	_Q15(0.028711814),	_Q15(0.025095744),	_Q15(-0.040181383),
	_Q15(-0.012916886),	_Q15(-0.016218122),	_Q15(-0.0016625538),	_Q15(-0.018045682),
	_Q15(-0.00017238781),	_Q15(0.017722635),	_Q15(0.014024995),	_Q15(-0.0064469706),
	_Q15(-0.004676546),	_Q15(0.028749056),	_Q15(0.037263203),	_Q15(-0.004889363),
	_Q15(0.0128409425),	_Q15(-0.020627828),	_Q15(-0.016706064),	_Q15(0.03050643),
	_Q15(0.02411306),	_Q15(-0.0139001915),	_Q15(-0.011493897),	_Q15(-0.012902875),
	_Q15(0.0060499916),	_Q15(0.008523094),	_Q15(-0.04666918),	_Q15(-0.037216518),
	_Q15(0.00981672),	_Q15(-0.0016183768),	_Q15(-0.02420517),	_Q15(0.027601035),
	_Q15(0.0033275343),	_Q15(0.010637765),	_Q15(0.007599845),	_Q15(-0.03849142),
	_Q15(-1.9993746e-05),	_Q15(0.041800648),	_Q15(-0.010545457),	_Q15(-0.052845567),
	_Q15(-0.021740522),	_Q15(-0.015199476),	_Q15(-0.035683252),	_Q15(-0.019855918),
	_Q15(-0.0036283846),	_Q15(-0.0061021615),	_Q15(0.0052253),	_Q15(0.028451981),
	_Q15(-0.017829752),	_Q15(0.010236701),	_Q15(-0.00087497523),	_Q15(-0.021012263),
	_Q15(0.024282139),	_Q15(0.008910562),	_Q15(-0.0040836944),	_Q15(-0.04819974),
	_Q15(0.022017742),	_Q15(0.02595927),	_Q15(-0.0047632037),	_Q15(0.023700895),
	_Q15(0.011272471),	_Q15(0.017635124),	_Q15(0.0046528354),	_Q15(0.004132877),
	_Q15(0.02128022),	_Q15(0.03429347),	_Q15(-0.023570584),	_Q15(0.028527066),
	_Q15(-0.017426196),	_Q15(-0.011309702),	_Q15(-0.010638228),	_Q15(0.014547497),
	_Q15(0.023700995),	_Q15(0.03190889),	_Q15(-0.025388513),	_Q15(-0.028354665),
	_Q15(-0.014485607),	_Q15(0.010234346),	_Q15(0.007048198),	_Q15(-0.01065765),
	_Q15(-0.014947377),	_Q15(-0.010546973),	_Q15(0.023651341),	_Q15(-0.007825611),
	_Q15(-0.01774487),	_Q15(0.014541192),	_Q15(0.0028168652),	_Q15(-0.020946652),
	_Q15(-0.0034901558),	_Q15(0.02215805),	_Q15(-0.020491494),	_Q15(0.017047267),
	_Q15(0.021292862),	_Q15(0.016366541),	_Q15(-0.002309802),	_Q15(0.0077832732),
	_Q15(-0.005122097),	_Q15(0.011802842),	_Q15(0.019308612),	_Q15(0.031798854),
	_Q15(0.019443823),	_Q15(-0.014962127),	_Q15(-0.009465496),	_Q15(-0.012379667),
	_Q15(-0.018694825),	_Q15(0.0048837587),	_Q15(-0.008934214),	_Q15(0.016651148),
	_Q15(0.008065458),	_Q15(0.010374581),	_Q15(0.013467886),	_Q15(0.0025074247),
	_Q15(-0.0050222874),	_Q15(-0.014761028),	_Q15(0.0127350725),	_Q15(-0.011903632),
	_Q15(0.006743824),	_Q15(-0.013656812),	_Q15(-0.018204967),	_Q15(0.019014707),
	_Q15(-0.0029313278),	_Q15(0.0020921482),	_Q15(0.015547431),	_Q15(-0.043008294),
	_Q15(0.015314353),	_Q15(0.019102203),	_Q15(0.018518979),	_Q15(0.0041580973),
	_Q15(0.036190994),	_Q15(0.011459645),	_Q15(0.021589061),	_Q15(-0.006874936),
	_Q15(0.020846885),	_Q15(0.03991508),	_Q15(0.005891642),	_Q15(-0.009771469),
	_Q15(-0.022764368),	_Q15(-0.01255538),	_Q15(-0.033227384),	_Q15(-0.003927894),
	_Q15(0.009456168),	_Q15(-0.0012675275),	_Q15(-0.00784758),	_Q15(0.022693451),
	_Q15(0.016938496),	_Q15(0.01662224),	_Q15(0.014166554),	_Q15(-0.018686043),
	_Q15(0.004410347),	_Q15(0.0054372516),	_Q15(0.011000693),	_Q15(0.007609538),
	_Q15(0.015549642),	_Q15(-0.0028874415),	_Q15(-0.024915483),	_Q15(-0.009221534),
	_Q15(0.0038790733),	_Q15(0.012218528),	_Q15(-0.0086050825),	_Q15(-0.009916011),
	_Q15(0.022217754),	_Q15(0.032122783),	_Q15(0.018894212),	_Q15(-0.028566625),
	_Q15(-0.009590473),	_Q15(0.01265486),	_Q15(-0.014333903),	_Q15(0.015712097),
	_Q15(0.0061885733),	_Q15(-0.029539993),	_Q15(0.011996435),	_Q15(-0.014114077),
	_Q15(0.044681065),	_Q15(0.023636984),	_Q15(0.033094),	_Q15(-0.016602816),
	_Q15(0.015054444),	_Q15(0.012003127),	_Q15(-0.0086382525),	_Q15(-0.011370198),
	_Q15(0.014572139),	_Q15(0.016873978),	_Q15(-0.012870711),	_Q15(0.014807428),
	_Q15(0.0054821284),	_Q15(0.035406973),	_Q15(-0.015189091),	_Q15(-0.0074364436),
	_Q15(0.017185703),	_Q15(0.022964183),	_Q15(0.0034502055),	_Q15(-0.01042581),
	_Q15(-0.00039875257),	_Q15(-0.018170951),	_Q15(0.02062313),	_Q15(0.019918129),
	_Q15(0.021764137),	_Q15(-0.008065265),	_Q15(0.022257272),	_Q15(-3.4945682e-05),
	_Q15(-0.014991156),	_Q15(0.0034760486),	_Q15(0.041191377),	_Q15(0.013621725),
	_Q15(-0.010096295),	_Q15(0.021696378),	_Q15(-0.019232955),	_Q15(0.011983541),
	_Q15(0.011873963),	_Q15(0.00025572503),	_Q15(-0.01470621),	_Q15(-0.018017884),
	_Q15(-0.008364635),	_Q15(0.018872254),	_Q15(0.022536958),	_Q15(-0.008522601),
	_Q15(0.020516574),	_Q15(0.011032922),	_Q15(-0.019794608),	_Q15(0.012392176),
	_Q15(-0.017249215),	_Q15(0.038221885),	_Q15(0.0030319113),	_Q15(-0.016834032),
	_Q15(0.01265519),	_Q15(0.00024712272),	_Q15(0.024371227),	_Q15(0.0042039976),
	_Q15(0.010002776),	_Q15(-0.0064233234),	_Q15(-0.012752287),	_Q15(-0.0066700913),
	_Q15(-0.022416528),	_Q15(0.017938225),	_Q15(-0.012387706),	_Q15(0.025449637),
	_Q15(0.009186707),	_Q15(0.03586593),	_Q15(-0.012721942),	_Q15(0.0055775093),
	_Q15(-0.04692287),	_Q15(0.024037622),	_Q15(-0.009189238),	_Q15(-0.067409635),
	_Q15(0.007976221),	_Q15(-0.013561903),	_Q15(-0.013328874),	_Q15(0.009502349),
	_Q15(-0.020054603),	_Q15(0.022638343),	_Q15(0.0046294644),	_Q15(0.008151591),
	_Q15(-0.010209029),	_Q15(0.008314688),	_Q15(0.0035846247),	_Q15(0.0011606092),
	_Q15(0.020446874),	_Q15(0.025554381),	_Q15(-0.0065287193),	_Q15(-0.010791808),
	_Q15(-0.0050916527),	_Q15(-0.018092157),	_Q15(-0.01941925),	_Q15(0.022562433),
	_Q15(-0.010150486),	_Q15(0.011284127),	_Q15(-0.007627176),	_Q15(-0.0010784288),
	_Q15(0.025025217),	_Q15(0.03438728),	_Q15(0.034895897),	_Q15(0.019088184),
	_Q15(-0.0033450448),	_Q15(0.012310096),	_Q15(-0.018465493),	_Q15(0.003994865),
	_Q15(-0.013906304),	_Q15(0.025862502),	_Q15(0.034083616),	_Q15(-0.029480483),
	_Q15(0.025351364),	_Q15(0.029913729),	_Q15(-0.0017050278),	_Q15(-0.023311967),
	_Q15(0.01307953),	_Q15(0.007423368),	_Q15(0.025179658),	_Q15(0.026827129),
	_Q15(0.051655233),	_Q15(-0.011553804),	_Q15(0.021070985),	_Q15(-0.00064036215),
	_Q15(0.03278285),	_Q15(-0.0054775355),	_Q15(-0.017440036),	_Q15(0.008562656),
	_Q15(-0.0102542145),	_Q15(0.0095688095),	_Q15(0.024231648),	_Q15(-0.013992575),
	_Q15(0.008112321),	_Q15(-0.03991785),	_Q15(0.02067559),	_Q15(0.00040331605),
	_Q15(0.016623415),	_Q15(-0.0064605167),	_Q15(0.004484668),	_Q15(0.02138606),
	_Q15(-0.007076243),	_Q15(-0.026660517),	_Q15(-0.013240521),	_Q15(0.009935184),
	_Q15(-0.017054321),	_Q15(-0.005913682),	_Q15(0.0076354872),	_Q15(0.028920017),
	_Q15(0.00035539042),	_Q15(-0.0025710023),	_Q15(-0.010352603),	_Q15(-0.008454987),
	_Q15(0.034843266),	_Q15(-0.009955475),	_Q15(0.00039823126),	_Q15(-0.0030640617),
	_Q15(0.035695773),	_Q15(0.001871827),	_Q15(-0.006053502),	_Q15(-0.01643428),
	_Q15(0.020516885),	_Q15(0.01464361),	_Q15(0.03366241),	_Q15(-0.019273508),
	_Q15(0.012580493),	_Q15(-0.010929312),	_Q15(-0.027077248),	_Q15(-0.02545959),
	_Q15(0.0173675),	_Q15(-0.01617767),	_Q15(-0.009766595),	_Q15(0.00023291688),
	_Q15(0.016492026),	_Q15(-0.020309182),	_Q15(0.013033666),	_Q15(0.010614959),
	_Q15(0.008141524),	_Q15(0.016276434),	_Q15(0.006480062),	_Q15(0.0009437909),
	_Q15(0.023694579),	_Q15(-0.02540016),	_Q15(0.024568494),	_Q15(0.020885818),
	_Q15(-0.012491604),	_Q15(0.035421737),	_Q15(-0.009825701),	_Q15(-0.009383831),
	_Q15(0.0051089954),	_Q15(0.022835052),	_Q15(0.0018618777),	_Q15(-0.03067356),
	_Q15(0.004561305),	_Q15(0.03617771),	_Q15(-0.003869994),	_Q15(0.05444587),
	_Q15(0.0051936107),	_Q15(0.006495397),	_Q15(0.021454372),	_Q15(0.008832978),
	_Q15(0.03713014),	_Q15(-0.008270209),	_Q15(-0.0044826795),	_Q15(-0.005611404),
	_Q15(0.033934508),	_Q15(-0.006122293),	_Q15(0.0046195537),	_Q15(0.05463574),
	_Q15(-0.0074749812),	_Q15(-0.017578524),	_Q15(0.0045124884),	_Q15(-0.00997471),
	_Q15(0.020008266),	_Q15(0.016885694),	_Q15(0.01072033),	_Q15(0.009778917),
	_Q15(-0.0197032),	_Q15(-0.024027681),	_Q15(-0.015861426),	_Q15(0.035629254),
	_Q15(-0.017536195),	_Q15(-0.013550866),	_Q15(-0.0106411055),	_Q15(0.036911055),
	_Q15(0.0006320477),	_Q15(0.0079566585),	_Q15(-0.0035839565),	_Q15(-0.0044118604),
	_Q15(0.012317805),	_Q15(-0.009841582),	_Q15(0.02529124),	_Q15(-0.001671586),
	_Q15(0.033189554),	_Q15(0.017202329),	_Q15(-0.026801916),	_Q15(-0.0024275668),
	_Q15(0.010515089),	_Q15(0.0044269804),	_Q15(0.0087219095),	_Q15(0.01838486),
	_Q15(-0.008453936),	_Q15(0.0023408202),	_Q15(0.02125819),	_Q15(-0.010908712),
	_Q15(0.025482781),	_Q15(0.0033172264),	_Q15(-0.030359529),	_Q15(0.029502165),
	_Q15(-0.01041917),	_Q15(-0.020617694),	_Q15(-0.009311645),	_Q15(-0.020558313),
	_Q15(0.028765822),	_Q15(0.05938972),	_Q15(0.012233292),	_Q15(-0.007495046),
	_Q15(-0.019989546),	_Q15(-0.027072975),	_Q15(0.018590344),	_Q15(0.016043294),
	_Q15(-0.025985155),	_Q15(0.034662526),	_Q15(0.0026423496),	_Q15(0.0040093036),
	_Q15(-0.020207526),	_Q15(0.02476408),	_Q15(0.03190503),	_Q15(-0.005697183),
	_Q15(0.038653035),	_Q15(-0.010708509),	_Q15(0.014571197),	_Q15(-0.0032202543),
	_Q15(-0.0012077123),	_Q15(-0.008158785),	_Q15(0.012384718),	_Q15(0.017003506),
	_Q15(0.0063155824),	_Q15(-0.023650546),	_Q15(0.004938901),	_Q15(0.005025278),
	_Q15(-0.0013511239),	_Q15(-0.010752953),	_Q15(0.0233162),	_Q15(0.0058601703),
	_Q15(0.015515299),	_Q15(0.0046824366),	_Q15(-0.009938596),	_Q15(0.0025951173),
	_Q15(-0.01821031),	_Q15(-0.01911495),	_Q15(-0.028726764),	_Q15(0.021773517),
	_Q15(0.015280621),	_Q15(0.04211462),	_Q15(-0.0026205461),	_Q15(0.038729236),
	_Q15(0.00937585),	_Q15(0.01265974),	_Q15(0.00069701433),	_Q15(-0.006157736),
	_Q15(-0.024601737),	_Q15(-0.025848247),	_Q15(0.0072283586),	_Q15(0.0130515685),
	_Q15(-0.00023674064),	_Q15(0.004005503),	_Q15(0.030999789),	_Q15(0.021664908),
	_Q15(0.0025229978),	_Q15(0.0026917462),	_Q15(0.01344616),	_Q15(0.022643669),
	_Q15(0.021396197),	_Q15(-0.015681406),	_Q15(0.016747193),	_Q15(0.010780795),
	_Q15(-0.017810155),	_Q15(-0.010629119),	_Q15(-0.015040739),	_Q15(-0.016486982),
	_Q15(-0.02425276),	_Q15(0.026449768),	_Q15(-0.0016396912),	_Q15(0.026544496),
	_Q15(0.01449714),	_Q15(-0.03728017),	_Q15(-0.008716949),	_Q15(-0.009679835),
	_Q15(0.021082714),	_Q15(0.0072082523),	_Q15(0.008395616),	_Q15(0.015970763),
	_Q15(0.00017260811),	_Q15(0.005529782),	_Q15(0.011086119),	_Q15(0.017942384),
	_Q15(-0.004027223),	_Q15(0.036689464),	_Q15(0.0037981211),	_Q15(-0.03363979),
	_Q15(0.008769521),	_Q15(0.0030520142),	_Q15(0.008689184),	_Q15(0.019719657),
	_Q15(0.022163598),	_Q15(0.0011833004),	_Q15(-0.0026753019),	_Q15(0.02544179),
	_Q15(0.010951945),	_Q15(-0.015863862),	_Q15(0.007533572),	_Q15(0.019431498),
	_Q15(-0.00840103),	_Q15(-0.014509462),	_Q15(0.026447503),	_Q15(0.030050518),
	_Q15(0.013536542),	_Q15(-0.017781276),	_Q15(0.012877921),	_Q15(0.01579968),
	_Q15(0.03132244),	_Q15(0.04605795),	_Q15(-0.03109972),	_Q15(-0.005065468),
	_Q15(0.008410602),	_Q15(-0.005223898),	_Q15(-0.011560622),	_Q15(-0.0066731693),
	_Q15(-0.0015875051),	_Q15(0.026321756),	_Q15(0.017832482),	_Q15(0.030696005),
	_Q15(-0.007185866),	_Q15(-0.045357574),	_Q15(-0.016154092),	_Q15(-0.011189015),
	_Q15(0.0072633936),	_Q15(0.010479839),	_Q15(-0.0025442017),	_Q15(0.005165591),
	_Q15(0.019883556),	_Q15(-0.03927611),	_Q15(-0.0044605006),	_Q15(-0.0041701584),
	_Q15(0.019087028),	_Q15(-0.013161884),	_Q15(-0.014068584),	_Q15(0.0040247277),
	_Q15(-0.022317983),	_Q15(-0.021615585),	_Q15(-0.020190487),	_Q15(0.01278242),
	_Q15(0.014648423),	_Q15(0.008189248),	_Q15(0.012826352),	_Q15(-0.020321954),
	_Q15(0.0005211957),	_Q15(-0.025242094),	_Q15(0.0063537844),	_Q15(0.0058937874),
	_Q15(0.0117978165),	_Q15(0.0066959746),	_Q15(-0.016369075),	_Q15(0.00037039444),
	_Q15(0.004804969),	_Q15(-0.0034525134),	_Q15(-0.014533566),	_Q15(-0.008813123),
	_Q15(-0.0073695956),	_Q15(-0.021182658),	_Q15(0.0019239826),	_Q15(-0.0012378098),
	_Q15(0.013477571),	_Q15(-0.013219607),	_Q15(9.7567216e-05),	_Q15(-0.023160076),
	_Q15(-0.008382868),	_Q15(-0.0128795765),	_Q15(0.012918049),	_Q15(0.0025310256),
	_Q15(-0.019820433),	_Q15(0.009997737),	_Q15(-0.012681696),	_Q15(-0.003562536),
	_Q15(-0.017765392),	_Q15(-0.01956147),	_Q15(-0.003656571),	_Q15(-0.0042165397),
	_Q15(0.01696723),	_Q15(-0.020526081),	_Q15(0.010566613),	_Q15(0.011105726),
	_Q15(-0.010114714),	_Q15(0.014973035),	_Q15(0.0033911876),	_Q15(-0.009735904),
	_Q15(0.013243761),	_Q15(0.011049073),	_Q15(-0.020564277),	_Q15(0.022816643),
	_Q15(-0.0015944297),	_Q15(-0.013357473),	_Q15(0.003143503),	_Q15(0.0083842175),
	_Q15(-0.023968674),	_Q15(0.005643384),	_Q15(0.022461422),	_Q15(0.016720619),
	_Q15(-0.006658569),	_Q15(0.020925056),	_Q15(-2.5554016e-05),	_Q15(0.00441049),
	_Q15(0.00577243),	_Q15(0.010342589),	_Q15(0.012457572),	_Q15(-0.009484439),
	_Q15(0.00951314),	_Q15(0.012586598),	_Q15(-0.022297585),	_Q15(-0.00075496605),
	_Q15(0.014973788),	_Q15(-0.009560444),	_Q15(-0.008641379),	_Q15(-0.014659539),
	_Q15(-0.00107387),	_Q15(0.0011672653),	_Q15(-0.017091023),	_Q15(0.010642019),
	_Q15(-0.023238113),	_Q15(-0.018028533),	_Q15(0.007622402),	_Q15(-0.023228396),
	_Q15(0.000491209),	_Q15(0.019483862),	_Q15(0.004830741),	_Q15(-0.0061941883),
	_Q15(-0.014887967),	_Q15(0.010720722),	_Q15(-0.024322337),	_Q15(-0.015882047),
	_Q15(-0.019863999),	_Q15(-0.022524027),	_Q15(-0.015776053),	_Q15(0.00018464029),
	_Q15(-0.024780503),	_Q15(-0.018864803),	_Q15(0.015337271),	_Q15(-0.0043999157),
	_Q15(-0.017549044),	_Q15(0.019729724),	_Q15(0.018842937),	_Q15(0.018317288),
	_Q15(-0.02153301),	_Q15(-0.003524946),	_Q15(0.0041773412),	_Q15(-0.0026330296),
	_Q15(-0.015713695),	_Q15(-0.01045138),	_Q15(-0.014468734),	_Q15(-0.024868231),
	_Q15(-0.004332627),	_Q15(0.012680283),	_Q15(-0.01025423),	_Q15(0.0033719316),
	_Q15(-0.02160667),	_Q15(0.02113111),	_Q15(-0.0100963535),	_Q15(0.026486184),
	_Q15(-0.02893758),	_Q15(-0.0103793265),	_Q15(0.0035235346),	_Q15(-0.00611237),
	_Q15(0.023261216),	_Q15(-0.008151117),	_Q15(0.021195872),	_Q15(-0.011794019),
	_Q15(0.010814295),	_Q15(-0.007868519),	_Q15(-0.0092992745),	_Q15(-0.016715702),
	_Q15(-0.02400854),	_Q15(-0.014151622),	_Q15(0.022925718),	_Q15(0.0026549308),
	_Q15(0.011550972),	_Q15(-0.019756395),	_Q15(-0.019380352),	_Q15(-0.00058870565),
	_Q15(0.006636241),	_Q15(-0.009475728),	_Q15(-0.013105769),	_Q15(0.02528771),
	_Q15(-0.015651906),	_Q15(0.011303981),	_Q15(0.008921456),	_Q15(-0.009513468),
	_Q15(-0.023703638),	_Q15(-0.015384984),	_Q15(-0.012272825),	_Q15(-0.0026120155),
	_Q15(-0.0071717165),	_Q15(0.0018497368),	_Q15(0.009964036),	_Q15(-0.0036942717),
	_Q15(0.010340359),	_Q15(-0.021516945),	_Q15(-0.012420885),	_Q15(-0.0088134445),
	_Q15(-0.0061108517),	_Q15(0.0064361086),	_Q15(0.013816361),	_Q15(0.017341966),
	_Q15(-0.004158497),	_Q15(0.005210963),	_Q15(-0.014803856),	_Q15(0.04337213),
	_Q15(-0.021532588),	_Q15(0.0137224),	_Q15(0.03462607),	_Q15(-0.018408205),
	_Q15(0.04012131),	_Q15(-0.014710498),	_Q15(-0.014937456),	_Q15(-0.0050918385),
	_Q15(0.010363296),	_Q15(0.026721854),	_Q15(0.0132316565),	_Q15(-0.022201369),
	_Q15(-0.019661061),	_Q15(-0.0026989807),	_Q15(-0.0021150238),	_Q15(0.027840434),
	_Q15(-0.027932854),	_Q15(-0.015071548),	_Q15(0.010382484),	_Q15(0.02014047),
	_Q15(0.0061387974),	_Q15(0.023821466),	_Q15(-0.03344739),	_Q15(0.0026354848),
	_Q15(0.016643455),	_Q15(-0.012428629),	_Q15(-0.050016876),	_Q15(-0.013742687),
	_Q15(-0.00821765),	_Q15(-0.010484658),	_Q15(0.018824613),	_Q15(-0.026130026),
	_Q15(-0.036645927),	_Q15(-0.0036563196),	_Q15(-0.017365996),	_Q15(0.001519648),
	_Q15(0.007543597),	_Q15(-0.019020993),	_Q15(0.0006883467),	_Q15(0.0064871707),
	_Q15(-0.00815732),	_Q15(0.0051757004),	_Q15(0.0026479173),	_Q15(-0.0072386926),
	_Q15(0.010988614),	_Q15(0.015567545),	_Q15(0.031804375),	_Q15(0.017402852),
	_Q15(0.022734813),	_Q15(0.011678764),	_Q15(0.004569175),	_Q15(-0.016734181),
	_Q15(0.010154718),	_Q15(0.033800304),	_Q15(-0.038723007),	_Q15(0.033219498),
	_Q15(-0.0036213128),	_Q15(-0.0067954315),	_Q15(-0.0018799749),	_Q15(-0.017293679),
	_Q15(-0.00624881),	_Q15(0.004702406),	_Q15(-0.0073690773),	_Q15(0.02792077),
	_Q15(0.019788302),	_Q15(-0.011358653),	_Q15(0.017635398),	_Q15(0.018000241),
	_Q15(-0.002438996),	_Q15(-0.015032084),	_Q15(0.023275035),	_Q15(-0.008256028),
	_Q15(0.006110297),	_Q15(-0.00018480234),	_Q15(0.019335935),	_Q15(-0.021943104),
	_Q15(-0.0071140663),	_Q15(0.012887612),	_Q15(0.010654654),	_Q15(-0.007881023),
	_Q15(0.0054080454),	_Q15(-0.009404534),	_Q15(-0.019899214),	_Q15(-0.007825125),
	_Q15(-0.0042082923),	_Q15(0.010177043),	_Q15(0.015842456),	_Q15(-0.0061058146),
	_Q15(-0.017578237),	_Q15(-0.011565306),	_Q15(-0.00709084),	_Q15(-0.015177524),
	_Q15(-0.015529198),	_Q15(-0.018368887),	_Q15(-0.018385587),	_Q15(0.015498914),
	_Q15(0.020995969),	_Q15(-0.015347259),	_Q15(0.004448062),	_Q15(-0.024148488),
	_Q15(0.0011126251),	_Q15(0.0012879613),	_Q15(-0.024710758),	_Q15(-0.00015529725),
	_Q15(-0.014513478),	_Q15(-0.01388178),	_Q15(-0.013200323),	_Q15(-0.014008446),
	_Q15(0.02054698),	_Q15(0.0011941472),	_Q15(-0.0147084575),	_Q15(0.011223141),
	_Q15(-0.013749582),	_Q15(0.003389912),	_Q15(0.007997948),	_Q15(0.007331016),
	_Q15(0.013202364),	_Q15(-0.00880915),	_Q15(0.01490806),	_Q15(-0.0015873617),
	_Q15(-0.0010161027),	_Q15(-0.018165186),	_Q15(-0.022612965),	_Q15(0.020568602),
	_Q15(0.012158079),	_Q15(-0.025155542),	_Q15(-0.0075907246),	_Q15(-0.002258645),
	_Q15(-0.014130937),	_Q15(0.0006056457),	_Q15(-0.0009778762),	_Q15(-0.0058856304),
	_Q15(0.011317063),	_Q15(-0.0012382966),	_Q15(0.002741138),	_Q15(-0.0012541998),
	_Q15(-0.022125168),	_Q15(-0.0020137574),	_Q15(0.00208108),	_Q15(0.007544048),
	_Q15(0.017713089),	_Q15(0.011314873),	_Q15(-0.013342562),	_Q15(0.019564122),
	_Q15(0.014349458),	_Q15(0.011450987),	_Q15(-0.013502716),	_Q15(-0.004590787),
	_Q15(-0.026595674),	_Q15(-0.020758832),	_Q15(0.00832453),	_Q15(0.010233045),
	_Q15(0.00936146),	_Q15(-0.015294251),	_Q15(0.0005196394),	_Q15(0.007481385),
	_Q15(-0.012468948),	_Q15(0.012591718),	_Q15(-0.021946901),	_Q15(-0.0054683294),
	_Q15(-0.0064964867),	_Q15(0.0064413385),	_Q15(-0.023776913),	_Q15(-0.006872967),
	_Q15(0.018128132),	_Q15(0.01499238),	_Q15(0.00261114),	_Q15(-0.008475836),
	_Q15(-0.0073075453),	_Q15(-0.012051579),	_Q15(0.013029476),	_Q15(-0.007166722),
	_Q15(0.0059433742),	_Q15(-0.009400205),	_Q15(-0.011752011),	_Q15(-0.019992957),
	_Q15(0.013633744),	_Q15(0.0026088008),	_Q15(-0.00013932213),	_Q15(0.016876647),
	_Q15(0.012416055),	_Q15(0.0062865415),	_Q15(-0.0043446226),	_Q15(-0.01645648),
	_Q15(0.0027247844),	_Q15(-0.02191553),	_Q15(-0.014100082),	_Q15(-0.009015487),
	_Q15(-0.020948758),	_Q15(-0.025123492),	_Q15(-0.017288342),	_Q15(0.030212855),
	_Q15(0.009928458),	_Q15(-0.009691605),	_Q15(-0.007039141),	_Q15(0.01758529),
	_Q15(0.020100653),	_Q15(0.0035325205),	_Q15(-0.007020744),	_Q15(0.020187203),
	_Q15(0.0168863),	_Q15(0.0036479568),	_Q15(-0.024000725),	_Q15(-0.020138793),
	_Q15(-0.021264559),	_Q15(-0.01344566),	_Q15(0.01723751),	_Q15(0.01265512),
	_Q15(-0.01955187),	_Q15(-0.0073325927),	_Q15(-0.013811013),	_Q15(0.023125617),
	_Q15(-0.021381339),	_Q15(0.007446909),	_Q15(0.0017448002),	_Q15(-0.015906092),
	_Q15(-0.0102049615),	_Q15(0.035914455),	_Q15(-0.016523805),	_Q15(0.010975232),
	_Q15(0.020838717),	_Q15(-7.6491386e-05),	_Q15(0.0055664447),	_Q15(0.010359398),
	_Q15(0.014921465),	_Q15(-0.00026895432),	_Q15(-0.013289154),	_Q15(-0.007910775),
	_Q15(0.009765699),	_Q15(-0.00870502),	_Q15(-0.02472241),	_Q15(0.024042347),
	_Q15(-0.019197894),	_Q15(-0.01078016),	_Q15(-0.008854347),	_Q15(-0.001246236),
	_Q15(-0.037010513),	_Q15(-0.019561639),	_Q15(0.01528234),	_Q15(0.04390737),
	_Q15(-0.00713717),	_Q15(-0.0052293865),	_Q15(0.018115688),	_Q15(-0.016533062),
	_Q15(0.00710738),	_Q15(0.018199049),	_Q15(-0.046202373),	_Q15(-0.0023907742),
	_Q15(-0.0032655725),	_Q15(0.03448856),	_Q15(0.0068634422),	_Q15(0.046859678),
	_Q15(-0.021027677),	_Q15(0.017961752),	_Q15(-0.0317902),	_Q15(-0.026005138),
	_Q15(-0.018526552),	_Q15(0.03164187),	_Q15(0.012848178),	_Q15(0.010721877),
	_Q15(-0.0075336625),	_Q15(-0.00067163503),	_Q15(0.039219256),	_Q15(-0.0016285076),
	_Q15(-0.0063290903),	_Q15(-0.0030861062),	_Q15(0.027643476),	_Q15(0.020335956),
	_Q15(0.02619354),	_Q15(-0.01999998),	_Q15(-0.020686619),	_Q15(0.022572028),
	_Q15(0.018377049),	_Q15(-0.02303588),	_Q15(-0.011050385),	_Q15(0.059983213),
	_Q15(0.014698288),	_Q15(0.0058091893),	_Q15(0.031561237),	_Q15(-0.016151093),
	_Q15(-0.0066352785),	_Q15(-0.01514632),	_Q15(0.012193297),	_Q15(-0.023057578),
	_Q15(0.006316362),	_Q15(-0.03169766),	_Q15(0.02364033),	_Q15(-0.012411383),
	_Q15(0.030450555),	_Q15(0.015104763),	_Q15(0.0066225785),	_Q15(0.0055099404),
	_Q15(0.00095781224),	_Q15(0.005493285),	_Q15(-0.0068179755),	_Q15(-0.020055285),
	_Q15(0.010965432),	_Q15(0.0002204964),	_Q15(0.019787595),	_Q15(0.0020747115),
	_Q15(0.011024503),	_Q15(-0.0072246864),	_Q15(0.01768083),	_Q15(0.026547603),
	_Q15(0.012025973),	_Q15(-0.019823285),	_Q15(0.061520293),	_Q15(0.010258605),
	_Q15(-0.03191754),	_Q15(-0.012940683),	_Q15(-0.030819329),	_Q15(0.050096575),
	_Q15(0.015137946),	_Q15(0.013376382),	_Q15(-0.0040040696),	_Q15(0.013197735),
	_Q15(-0.0032141462),	_Q15(0.009549119),	_Q15(0.0069020186),	_Q15(0.00885961),
	_Q15(0.030736728),	_Q15(-0.014804696),	_Q15(0.000719441),	_Q15(-0.02210551),
	_Q15(0.04059614),	_Q15(-0.015731126),	_Q15(0.020315442),	_Q15(-0.021277996),
	_Q15(0.004793686),	_Q15(-0.020104302),	_Q15(-0.003225725),	_Q15(0.026532527),
	_Q15(0.011582639),	_Q15(-0.0014920123),	_Q15(-0.0036806383),	_Q15(-0.0074357907),
	_Q15(0.011447376),	_Q15(-0.028096927),	_Q15(0.008576251),	_Q15(-0.029777551),
	_Q15(-0.027217118),	_Q15(0.023154931),	_Q15(0.027837075),	_Q15(-0.017796682),
	_Q15(-0.0030875204),	_Q15(-0.017918978),	_Q15(0.009230475),	_Q15(0.017472489),
	_Q15(-0.012870297),	_Q15(0.046552543),	_Q15(-0.0075176423),	_Q15(-0.038390834),
	_Q15(-0.001857635),	_Q15(-0.00017524009),	_Q15(0.017680958),	_Q15(0.0010400788),
	_Q15(-0.04782792),	_Q15(-0.010711985),	_Q15(-0.027895663),	_Q15(0.04076647),
	_Q15(0.014198228),	_Q15(0.024275241),	_Q15(0.013733614),	_Q15(0.00067113765),
	_Q15(0.0009735484),	_Q15(0.0164678),	_Q15(-0.024369579),	_Q15(-0.01593876),
	_Q15(-0.0091738235),	_Q15(0.0019796523),	_Q15(-0.022574026),	_Q15(0.021371678),
	_Q15(-0.0073453104),	_Q15(-0.019749634),	_Q15(0.0043161605),	_Q15(-0.03786143),
	_Q15(-0.00181869),	_Q15(-0.028954154),	_Q15(-7.615875e-05),	_Q15(-0.013528004),
	_Q15(-0.013805353),	_Q15(-0.0034404886),	_Q15(0.005489174),	_Q15(0.042094458),
	_Q15(0.022309953),	_Q15(0.029056532),	_Q15(0.037843183),	_Q15(0.005386562),
	_Q15(-0.013369256),	_Q15(0.020155404),	_Q15(0.020208769),	_Q15(0.04033876),
	_Q15(0.029211914),	_Q15(-0.018277453),	_Q15(0.012665562),	_Q15(0.025608292),
	_Q15(0.018705323),	_Q15(0.029550914),	_Q15(0.026727384),	_Q15(-0.004298649),
	_Q15(-0.0028614842),	_Q15(0.013155019),	_Q15(0.008730068),	_Q15(0.0119812),
	_Q15(0.023722967),	_Q15(0.019284243),	_Q15(0.051947072),	_Q15(0.00043650897),
	_Q15(-0.015591608),	_Q15(0.018005263),	_Q15(-0.027470114),	_Q15(0.024753598),
	_Q15(0.010037935),	_Q15(0.023354447),	_Q15(0.024479026),	_Q15(-0.020516666),
	_Q15(0.010913556),	_Q15(-0.0031631063),	_Q15(0.012095416),	_Q15(-0.038994383),
	_Q15(-0.011820467),	_Q15(-0.060211305),	_Q15(0.0068261474),	_Q15(0.024526393),
	_Q15(0.03175215),	_Q15(0.024141675),	_Q15(0.03404704),	_Q15(0.016476821),
	_Q15(-0.00968168),	_Q15(0.010994402),	_Q15(-0.01587049),	_Q15(-0.0017438694),
	_Q15(0.00040014109),	_Q15(-0.004421763),	_Q15(0.0023956124),	_Q15(0.027737115),
	_Q15(-0.013366813),	_Q15(-0.013305316),	_Q15(0.014881767),	_Q15(-0.019242687),
	_Q15(-0.0064697014),	_Q15(0.025656272),	_Q15(-0.01688454),	_Q15(-0.0041683987),
	_Q15(-0.015463149),	_Q15(0.0130391205),	_Q15(0.0013458125),	_Q15(0.006273497),
	_Q15(0.0059791077),	_Q15(-0.018919336),	_Q15(-0.0019154231),	_Q15(-0.010277627),
	_Q15(0.011121109),	_Q15(0.0108951265),	_Q15(0.015343324),	_Q15(-0.0037835832),
	_Q15(-0.0010534379),	_Q15(0.010037812),	_Q15(-0.019758273),	_Q15(-0.018659156),
	_Q15(-0.060260385),	_Q15(0.011815093),	_Q15(0.0091710705),	_Q15(0.014226124),
	_Q15(0.023697332),	_Q15(0.022872387),	_Q15(-0.007661905),	_Q15(-0.009816304),
	_Q15(-0.015921878),	_Q15(0.026384823),	_Q15(0.002904887),	_Q15(0.037605945),
	_Q15(-0.00090120174),	_Q15(0.021680256),	_Q15(-0.00547569),	_Q15(-0.003242627),
	_Q15(-0.02739262),	_Q15(-0.009517041),	_Q15(0.00029891788),	_Q15(-0.044250075),
	_Q15(0.0027281235),	_Q15(-0.019021345),	_Q15(0.024661517),	_Q15(0.024054103),
	_Q15(0.0005090163),	_Q15(-0.0004986541),	_Q15(0.0019482556),	_Q15(0.013716116),
	_Q15(-0.011591786),	_Q15(0.020100381),	_Q15(0.00016796732),	_Q15(-0.008804947),
	_Q15(-0.005238274),	_Q15(-0.01316898),	_Q15(-0.02560289),	_Q15(0.0016570899),
	_Q15(-0.008793916),	_Q15(-0.006898578),	_Q15(0.017016929),	_Q15(-0.014593376),
	_Q15(0.0076995604),	_Q15(0.023039905),	_Q15(0.018467063),	_Q15(-0.00022251497),
	_Q15(0.0074055926),	_Q15(0.0053854887),	_Q15(0.026884552),	_Q15(0.020928284),
	_Q15(-0.00082421995),	_Q15(-0.006172114),	_Q15(-0.0091798995),	_Q15(0.04462295),
	_Q15(-0.027406387),	_Q15(0.0031121941),	_Q15(-0.00562983),	_Q15(0.044045243),
	_Q15(0.011717548),	_Q15(0.013362533),	_Q15(0.053423278),	_Q15(-0.009180022),
	_Q15(0.0017764767),	_Q15(0.015426368),	_Q15(0.005042018),	_Q15(-0.0067428867),
	_Q15(0.0427048),	_Q15(-0.033004053),	_Q15(0.0024037617),	_Q15(0.0118),
	_Q15(0.039828558),	_Q15(0.03323303),	_Q15(0.02166171),	_Q15(-0.007583611),
	_Q15(-0.003115447),	_Q15(0.019548086),	_Q15(0.01686736),	_Q15(-0.0063482304),
	_Q15(-0.008723918),	_Q15(-0.015145615),	_Q15(0.010135049),	_Q15(-0.007922271),
	_Q15(0.0099446215),	_Q15(0.02857921),	_Q15(-0.004637403),	_Q15(0.025070408),
	_Q15(0.038576003),	_Q15(-0.03697637),	_Q15(0.017098648),	_Q15(-0.0035214082),
	_Q15(-0.011286825),	_Q15(-0.0178856),	_Q15(0.020816265),	_Q15(-0.007011454),
	_Q15(-0.023120917),	_Q15(-0.0036166646),	_Q15(-0.011573561),	_Q15(0.006842437),
	_Q15(-0.0043134415),	_Q15(-0.021828845),	_Q15(0.0022463505),	_Q15(-0.020210853),
	_Q15(0.0020507507),	_Q15(0.015551107),	_Q15(-0.011092572),	_Q15(0.019322032),
	_Q15(0.012416421),	_Q15(0.005869609),	_Q15(0.008901928),	_Q15(-0.0068977824),
	_Q15(0.013171014),	_Q15(0.017725091),	_Q15(0.0032414729),	_Q15(-0.0005963836),
	_Q15(-0.012978224),	_Q15(0.018595647),	_Q15(-0.020016197),	_Q15(0.013518526),
	_Q15(0.020985015),	_Q15(-0.020211726),	_Q15(-0.00501116),	_Q15(0.0029171682),
	_Q15(0.015685618),	_Q15(-0.0025315373),	_Q15(-0.026912471),	_Q15(0.013369214),
	_Q15(-0.02913608),	_Q15(-0.0033103237),	_Q15(-0.017545972),	_Q15(-0.00785276),
	_Q15(-0.0075486926),	_Q15(-0.005641119),	_Q15(-0.017741024),	_Q15(0.011041579),
	_Q15(0.0019416343),	_Q15(-0.006091397),	_Q15(0.016021153),	_Q15(0.008641928),
	_Q15(0.013471052),	_Q15(-0.002199638),	_Q15(0.008143136),	_Q15(0.012917228),
	_Q15(0.00077107135),	_Q15(-0.0015857274),	_Q15(-0.014935535),	_Q15(0.01440632),
	_Q15(0.0080051),	_Q15(-0.012206083),	_Q15(-0.020469623),	_Q15(0.0048716515),
	_Q15(0.0046779723),	_Q15(-0.024618963),	_Q15(0.005157271),	_Q15(-0.022390345),
	_Q15(0.014230184),	_Q15(-0.002450807),	_Q15(-0.019269409),	_Q15(-0.019280877),
	_Q15(-0.015587509),	_Q15(0.002649099),	_Q15(-0.0060618557),	_Q15(-0.0042936737),
	_Q15(0.01859865),	_Q15(-0.007824753),	_Q15(-0.0223746),	_Q15(-0.020597357),
	_Q15(-0.008280734),	_Q15(0.016025417),	_Q15(-0.011466148),	_Q15(-0.01711254),
	_Q15(-0.010352084),	_Q15(-0.011206593),	_Q15(-0.0050662328),	_Q15(-0.0013622718),
	_Q15(0.016246418),	_Q15(-0.022202095),	_Q15(-0.0059905923),	_Q15(-0.018344564),
	_Q15(0.019186657),	_Q15(-0.019449588),	_Q15(-0.0046004253),	_Q15(-0.015172009),
	_Q15(0.004472997),	_Q15(0.0027704127),	_Q15(0.014164667),	_Q15(-0.0072561507),
	_Q15(-0.019715814),	_Q15(-0.025056003),	_Q15(-0.010133338),	_Q15(-0.009143396),
	_Q15(-0.014447146),	_Q15(-0.019480499),	_Q15(0.008417288),	_Q15(0.0042108465),
	_Q15(0.0059839203),	_Q15(-0.024333267),	_Q15(0.018934678),	_Q15(-0.010206518),
	_Q15(-0.02233225),	_Q15(0.010027346),	_Q15(0.012154538),	_Q15(-0.0012010408),
	_Q15(-0.01774923),	_Q15(-0.020358419),	_Q15(-0.014121397),	_Q15(-0.021488683),
	_Q15(0.0036874372),	_Q15(0.0102081755),	_Q15(0.019079672),	_Q15(-0.014000886),
	_Q15(0.012877684),	_Q15(0.018990388),	_Q15(-0.019559434),	_Q15(0.014155131),
	_Q15(-0.029517272),	_Q15(0.011388622),	_Q15(0.0043706554),	_Q15(-0.032611813),
	_Q15(-0.034178115),	_Q15(0.011041035),	_Q15(0.03654801),	_Q15(0.012329854),
	_Q15(-0.011335866),	_Q15(-0.0100019),	_Q15(0.011265598),	_Q15(0.012233789),
	_Q15(-0.0030385987),	_Q15(-0.004359527),	_Q15(-0.00896227),	_Q15(0.00744831),
	_Q15(-0.022795068),	_Q15(-0.008080224),	_Q15(-0.0087084295),	_Q15(-0.0030342892),
	_Q15(0.009288438),	_Q15(0.015115329),	_Q15(0.027712436),	_Q15(0.014660373),
	_Q15(-0.006089732),	_Q15(-0.009516493),	_Q15(-0.016694918),	_Q15(0.030236052),
	_Q15(-0.013385137),	_Q15(-0.0036260244),	_Q15(-0.000544377),	_Q15(-0.015313837),
	_Q15(0.02444595),	_Q15(0.010538406),	_Q15(-0.012427892),	_Q15(-0.012226355),
	_Q15(0.016701946),	_Q15(0.018981012),	_Q15(-0.0063663796),	_Q15(-0.012655394),
	_Q15(0.010280315),	_Q15(0.011660371),	_Q15(-0.0025049048),	_Q15(-0.010255497),
	_Q15(-0.025985658),	_Q15(-0.009095718),	_Q15(0.008662378),	_Q15(-0.031040827),
	_Q15(0.021399397),	_Q15(0.00845392),	_Q15(0.01573094),	_Q15(-0.01147379),
	_Q15(0.005263118),	_Q15(0.010545979),	_Q15(0.009999907),	_Q15(0.016557937),
	_Q15(0.0041395985),	_Q15(0.03771672),	_Q15(-0.023149233),	_Q15(-0.05240579),
	_Q15(0.014777857),	_Q15(0.018495353),	_Q15(-0.02034854),	_Q15(-0.009499541),
	_Q15(-0.010283438),	_Q15(0.005709341),	_Q15(-4.1905932e-05),	_Q15(0.016654335),
	_Q15(0.009658795),	_Q15(0.00059653644),	_Q15(-0.001604304),	_Q15(0.017716445),
	_Q15(0.0085705975),	_Q15(0.024593491),	_Q15(0.00070558564),	_Q15(-0.014360549),
	_Q15(-0.018754043),	_Q15(-0.012710159),	_Q15(0.014088845),	_Q15(-0.0054884907),
	_Q15(0.008393161),	_Q15(0.028644307),	_Q15(-0.02231329),	_Q15(0.012436488),
	_Q15(-0.018437937),	_Q15(-0.009951107),	_Q15(0.02638981),	_Q15(0.0015700251),
	_Q15(-0.023770593),	_Q15(0.015171993),	_Q15(0.023848576),	_Q15(0.019226652),
	_Q15(0.0069360333),	_Q15(-0.021579921),	_Q15(0.034595713),	_Q15(0.00062560744),
	_Q15(0.040526737),	_Q15(0.029790021),	_Q15(-0.026415167),	_Q15(0.006832567),
	_Q15(0.023485163),	_Q15(0.0049850605),	_Q15(0.008114857),	_Q15(-0.01972976),
	_Q15(-0.020250045),	_Q15(-0.018000253),	_Q15(0.012685077),	_Q15(0.026005147),
	_Q15(-0.008771713),	_Q15(0.025215577),	_Q15(-0.007670063),	_Q15(-0.005495871),
	_Q15(0.022958996),	_Q15(-0.009651078),	_Q15(-0.0009297159),	_Q15(-0.0044046775),
	_Q15(0.065187894),	_Q15(-0.037533145),	_Q15(-0.021055765),	_Q15(-0.0015682167),
	_Q15(0.03152148),	_Q15(-0.006820811),	_Q15(-0.013483615),	_Q15(0.0253668),
	_Q15(0.040184222),	_Q15(-0.029802127),	_Q15(-0.023557907),	_Q15(-0.015006918),
	_Q15(0.008691936),	_Q15(0.019605292),	_Q15(-0.0048060534),	_Q15(0.0095157),
	_Q15(0.012536742),	_Q15(0.021054013),	_Q15(-0.00468464),	_Q15(0.022869471),
	_Q15(0.002119304),	_Q15(0.010800808),	_Q15(0.01803432),	_Q15(0.019164696),
	_Q15(0.013576083),	_Q15(0.01758326),	_Q15(-0.038447756),	_Q15(-0.032570012),
	_Q15(0.016707553),	_Q15(-0.007180435),	_Q15(0.018561495),	_Q15(0.015244633),
	_Q15(0.008652604),	_Q15(0.020206656),	_Q15(-0.0048375363),	_Q15(0.009972963),
	_Q15(-0.03190919),	_Q15(0.021421488),	_Q15(-0.003934771),	_Q15(-0.016389925),
	_Q15(-0.018938342),	_Q15(-0.016273651),	_Q15(0.02560594),	_Q15(0.008980163),
	_Q15(0.013825549),	_Q15(-0.0010683249),	_Q15(0.028958853),	_Q15(0.0032008775),
	_Q15(-0.029487882),	_Q15(0.011258651),	_Q15(0.024886148),	_Q15(-0.0066357134),
	_Q15(-0.009303951),	_Q15(0.03254673),	_Q15(-0.026703943),	_Q15(0.00058858446),
	_Q15(-0.030634938),	_Q15(0.005603726),	_Q15(-0.015142486),	_Q15(-0.026822878),
	_Q15(0.021311756),	_Q15(-0.022246476),	_Q15(-0.03228151),	_Q15(-0.0010397398),
	_Q15(0.020067826),	_Q15(0.011503178),	_Q15(0.041436434),	_Q15(0.0022660044),
	_Q15(0.020704744),	_Q15(0.036467765),	_Q15(0.0058359886),	_Q15(0.000436657),
	_Q15(0.007944822),	_Q15(-0.028634833),	_Q15(0.031741474),	_Q15(0.02686561),
	_Q15(-0.030024983),	_Q15(0.028605066),	_Q15(-0.006924236),	_Q15(-0.013279588),
	_Q15(0.033264775),	_Q15(-0.024676189),	_Q15(0.010532909),	_Q15(0.005020439),
	_Q15(-0.023663368),	_Q15(0.009408259),	_Q15(0.0013987446),	_Q15(0.013437697),
	_Q15(0.025055518),	_Q15(0.00066220347),	_Q15(-0.00060509035),	_Q15(0.00822326),
	_Q15(0.011125484),	_Q15(0.02065697),	_Q15(0.017645868),	_Q15(-0.031105753),
	_Q15(-0.016054628),	_Q15(0.04759787),	_Q15(-0.02772571),	_Q15(0.012282027),
	_Q15(-0.033575974),	_Q15(-0.030954357),	_Q15(0.049493708),	_Q15(0.014773742),
	_Q15(-0.009331623),	_Q15(-0.0032600474),	_Q15(0.017687725),	_Q15(0.032400783),
	_Q15(0.025422735),	_Q15(0.0019258384),	_Q15(0.008727644),	_Q15(-0.021327445),
	_Q15(-0.024607973),	_Q15(0.014120727),	_Q15(0.0011201843),	_Q15(-0.012470139),
	_Q15(-0.0051436457),	_Q15(0.0073462245),	_Q15(0.001333145),	_Q15(-0.012618721),
	_Q15(-0.0142786475),	_Q15(0.022059873),	_Q15(-0.020868002),	_Q15(-0.03232896),
	_Q15(-0.04469217),	_Q15(0.01719851),	_Q15(0.01746804),	_Q15(-0.008140966),
	_Q15(0.0097640725),	_Q15(0.00472588),	_Q15(0.017684806),	_Q15(0.010529142),
	_Q15(0.024159001),	_Q15(-0.003489442),	_Q15(-0.014531736),	_Q15(-0.0007822036),
	_Q15(0.0045443918),	_Q15(-0.014146418),	_Q15(-0.03226275),	_Q15(0.01402602),
	_Q15(-0.01438365),	_Q15(0.021367703),	_Q15(0.02759482),	_Q15(0.024713883),
	_Q15(-0.017334832),	_Q15(0.00824328),	_Q15(-0.007387228),	_Q15(0.017883968),
	_Q15(0.0062532704),	_Q15(-0.010671655),	_Q15(0.0014359504),	_Q15(-0.009426911),
	_Q15(-0.00873227),	_Q15(0.016446661),	_Q15(-0.020743579),	_Q15(0.021194912),
	_Q15(-0.017132888),	_Q15(-0.0063799843),	_Q15(0.013534772),	_Q15(0.019962758),
	_Q15(0.0034586578),	_Q15(-0.0005407749),	_Q15(0.0047363103),	_Q15(0.0031905104),
	_Q15(0.021911327),	_Q15(0.014246258),	_Q15(0.014199544),	_Q15(0.026961818),
	_Q15(0.017200116),	_Q15(0.025885792),	_Q15(0.0038818202),	_Q15(0.023423534),
	_Q15(0.0018059203),	_Q15(0.008809344),	_Q15(0.0035380584),	_Q15(-0.018262671),
	_Q15(-0.004685822),	_Q15(-0.00964558),	_Q15(0.041321356),	_Q15(0.024791826),
	_Q15(-0.025283473),	_Q15(-0.03414389),	_Q15(0.021558532),	_Q15(-0.032026023),
	_Q15(0.0017081276),	_Q15(0.02782357),	_Q15(-0.0048164655),	_Q15(-0.014392899),
	_Q15(-0.019945623),	_Q15(0.0022973106),	_Q15(-0.007885239),	_Q15(-0.022302797),
	_Q15(-0.021324918),	_Q15(0.018728646),	_Q15(-0.014039319),	_Q15(0.006353501),
	_Q15(-0.014228403),	_Q15(0.013700598),	_Q15(0.001158142),	_Q15(0.0074279783),
	_Q15(-0.006824797),	_Q15(0.01868372),	_Q15(-0.017109318),	_Q15(-0.012372838),
	_Q15(0.02409462),	_Q15(0.019545918),	_Q15(-0.0048297094),	_Q15(-0.023219882),
	_Q15(-0.0062674084),	_Q15(-0.010079343),	_Q15(0.008842047),	_Q15(0.040053733),
	_Q15(-0.010804863),	_Q15(-0.013520297),	_Q15(-0.008382017),	_Q15(0.02890853),
	_Q15(-0.012653833),	_Q15(0.019518163),	_Q15(-0.052056376),	_Q15(0.024357427),
	_Q15(-0.041488346),	_Q15(0.01855365),	_Q15(-0.013868059),	_Q15(0.015017204),
	_Q15(0.031290554),	_Q15(0.017406208),	_Q15(0.020414328),	_Q15(0.035715606),
	_Q15(-0.017074218),	_Q15(-0.00032226957),	_Q15(-0.001971084),	_Q15(0.009311597),
	_Q15(-0.0151182255),	_Q15(-0.0072336136),	_Q15(0.001764488),	_Q15(-0.0076431083),
	_Q15(0.003282175),	_Q15(-0.00010522545),	_Q15(0.006704672),	_Q15(0.010501202),
	_Q15(-0.017807193),	_Q15(-0.029029513),	_Q15(0.019350864),	_Q15(-0.030109452),
	_Q15(-0.0014091141),	_Q15(0.017602747),	_Q15(0.026733324),	_Q15(0.042561907),
	_Q15(0.0037072494),	_Q15(-0.025690785),	_Q15(0.0061516496),	_Q15(0.012039378),
	_Q15(-0.023395222),	_Q15(0.0077579236),	_Q15(0.01214132),	_Q15(0.016885765),
	_Q15(-0.010898587),	_Q15(0.0014800982),	_Q15(-0.005037235),	_Q15(0.0107253045),
	_Q15(0.0016383603),	_Q15(-0.010250241),	_Q15(0.016175708),	_Q15(0.037588645),
	_Q15(-0.005221043),	_Q15(0.00022547769),	_Q15(0.021278502),	_Q15(-0.005233193),
	_Q15(-0.011050773),	_Q15(0.041646473),	_Q15(0.0003220588),	_Q15(0.003564884),
	_Q15(-0.031906586),	_Q15(-0.014001299),	_Q15(0.0106210075),	_Q15(0.015457869),
	_Q15(0.0017080248),	_Q15(0.012131417),	_Q15(0.0023525842),	_Q15(0.01796229),
	_Q15(-0.021561446),	_Q15(0.00935239),	_Q15(-0.02216048),	_Q15(0.026464127),
	_Q15(0.0029909108),	_Q15(-0.011564558),	_Q15(-0.010161397),	_Q15(0.037962515),
	_Q15(-0.013558168),	_Q15(-0.00070268055),	_Q15(0.011373061),	_Q15(-0.014577144),
	_Q15(-0.0050797607),	_Q15(-0.011231752),	_Q15(0.026851116),	_Q15(-0.011238464),
	_Q15(0.019053265),	_Q15(-0.02297907),	_Q15(-0.027862635),	_Q15(0.025876475),
	_Q15(-0.016984599),	_Q15(-0.005024191),	_Q15(0.024411678),	_Q15(0.026806984),
	_Q15(-0.014201627),	_Q15(-0.023707815),	_Q15(-0.008716789),	_Q15(0.014772705),
	_Q15(-0.037791606),	_Q15(0.017585892),	_Q15(0.022417184),	_Q15(0.019397207),
	_Q15(0.0069584744),	_Q15(0.022034416),	_Q15(-0.0016515849),	_Q15(-0.029093124),
	_Q15(0.02681896),	_Q15(-0.020973686),	_Q15(-0.0057250815),	_Q15(0.0067533585),
	_Q15(0.033731263),	_Q15(0.002887429),	_Q15(0.017000832),	_Q15(-0.024929935),
	_Q15(-0.014997964),	_Q15(-0.03505689),	_Q15(-0.02696759),	_Q15(0.04831647),
	_Q15(0.00092246756),	_Q15(-0.033671215),	_Q15(0.011545979),	_Q15(-0.016179241),
	_Q15(-0.0018104383),	_Q15(-0.015097218),	_Q15(0.015477921),	_Q15(0.005168637),
	_Q15(-0.0034246661),	_Q15(-0.017328756),	_Q15(0.029382123),	_Q15(-0.0028866958),
	_Q15(0.017700206),	_Q15(-0.0074419),	_Q15(0.0071588904),	_Q15(0.022953592),
	_Q15(0.023380587),	_Q15(-0.008512608),	_Q15(0.00021934188),	_Q15(-0.0012137706),
	_Q15(-0.013860592),	_Q15(-0.030670088),	_Q15(-0.01369738),	_Q15(0.01718356),
	_Q15(-0.0017689746),	_Q15(0.022361325),	_Q15(-0.01189827),	_Q15(-0.010364923),
	_Q15(0.02493629),	_Q15(-0.028297026),	_Q15(0.039540675),	_Q15(0.017533569),
	_Q15(0.0041852235),	_Q15(0.018382693),	_Q15(-0.049534325),	_Q15(0.038857665),
	_Q15(-0.023897119),	_Q15(0.0214986),	_Q15(0.018067965),	_Q15(0.016197648),
	_Q15(0.01617268),	_Q15(-0.03255146),	_Q15(-0.008392447),	_Q15(0.00084429083),
	_Q15(-0.0050296695),	_Q15(0.030199032),	_Q15(-0.019888837),	_Q15(-0.016160315),
	_Q15(-0.0010717788),	_Q15(-0.015368673),	_Q15(-0.014264747),	_Q15(0.0052206507),
	_Q15(-0.0038273744),	_Q15(-0.0068056365),	_Q15(0.029930834),	_Q15(0.02541353),
	_Q15(-0.013929474),	_Q15(0.018437456),	_Q15(-0.0010518349),	_Q15(0.014176497),
	_Q15(-0.0025809712),	_Q15(-0.022740845),	_Q15(0.015984923),	_Q15(-0.017070271),
	_Q15(-0.02906441),	_Q15(-0.009053415),	_Q15(0.00019631915),	_Q15(-0.00374474),
	_Q15(0.008360248),	_Q15(0.036767755),	_Q15(0.015602742),	_Q15(-0.0072893063),
	_Q15(-0.02226729),	_Q15(0.013152239),	_Q15(-0.008039116),	_Q15(0.019356964),
	_Q15(-0.01323664),	_Q15(-0.031359352),	_Q15(0.012499744),	_Q15(0.019405128),
	_Q15(0.0022956503),	_Q15(0.020038093),	_Q15(-0.024792358),	_Q15(-0.007656763),
	_Q15(-0.007217744),	_Q15(-0.010251629),	_Q15(0.03447288),	_Q15(-0.017574497),
	_Q15(0.040700994),	_Q15(-0.0252746),	_Q15(-0.011819316),	_Q15(-0.014476621),
	_Q15(-0.016481336),	_Q15(0.048208356),	_Q15(-0.01656158),	_Q15(0.016106319),
	_Q15(0.02023764),	_Q15(0.021670226),	_Q15(-0.03322689),	_Q15(0.025196526),
	_Q15(-0.0006104733),	_Q15(0.001158672),	_Q15(-0.022011291),	_Q15(0.014876041),
	_Q15(-0.02130958),	_Q15(0.029549152),	_Q15(-0.0011887208),	_Q15(0.03556058),
	_Q15(-0.008780693),	_Q15(-0.010646044),	_Q15(-0.014526333),	_Q15(0.013110687),
	_Q15(0.022621179),	_Q15(0.01155705),	_Q15(-0.014794693),	_Q15(-0.0008275479),
	_Q15(-0.03261718),	_Q15(0.005149859),	_Q15(0.010584286),	_Q15(0.013268789),
	_Q15(0.027098566),	_Q15(0.00047833502),	_Q15(-0.013529431),	_Q15(-0.0320351),
	_Q15(-0.00029577373),	_Q15(0.014430843),	_Q15(0.015419093),	_Q15(-0.017862232),
	_Q15(-0.033720918),	_Q15(-0.049074207),	_Q15(0.042907067),	_Q15(-0.01921878),
	_Q15(0.042055927),	_Q15(0.011440889),	_Q15(0.010565114),	_Q15(-0.01950372),
	_Q15(-0.019970622),	_Q15(0.029872514),	_Q15(-0.026856694),	_Q15(-0.0057111154),
	_Q15(-0.026315074),	_Q15(0.018961139),	_Q15(0.00037537073),	_Q15(-0.019694215),
	_Q15(0.012596094),	_Q15(0.0022164548),	_Q15(-0.0064939307),	_Q15(0.018999506),
	_Q15(0.031062398),	_Q15(-0.012165012),	_Q15(0.034864746),	_Q15(-0.015463488),
	_Q15(-0.02031635),	_Q15(0.040668704),	_Q15(-0.039554555),	_Q15(-0.028991504),
	_Q15(-0.016133675),	_Q15(-0.01226607),	_Q15(0.00016377159),	_Q15(-0.06600237),
	_Q15(0.012337281),	_Q15(0.025731392),	_Q15(0.02347918),	_Q15(-0.014958354),
	_Q15(-0.02316115),	_Q15(-0.020049471),	_Q15(-0.007954612),	_Q15(0.00946544),
	_Q15(-0.018280027),	_Q15(0.013426737),	_Q15(0.011631893),	_Q15(-0.0061986335),
	_Q15(0.010567095),	_Q15(0.0119101135),	_Q15(-0.013572855),	_Q15(0.0025874008),
	_Q15(-0.017551996),	_Q15(-0.009683598),	_Q15(-0.0095574865),	_Q15(0.014707614),
	_Q15(0.0033273622),	_Q15(0.026802206),	_Q15(-0.014732661),	_Q15(-0.017821526),
	_Q15(0.019252604),	_Q15(-0.0039043427),	_Q15(-0.013591262),	_Q15(-0.017045327),
	_Q15(0.01790823),	_Q15(-0.0040165186),	_Q15(-0.012125186),	_Q15(0.014608726),
	_Q15(0.004831951),	_Q15(-0.03319403),	_Q15(0.03386976),	_Q15(-0.0052502607),
	_Q15(-5.8978796e-05),	_Q15(0.016819771),	_Q15(0.004892462),	_Q15(-0.011939674),
	_Q15(0.026106229),	_Q15(-0.016749708),	_Q15(-0.02646684),	_Q15(0.019442197),
	_Q15(-0.020539455),	_Q15(0.019663699),	_Q15(-0.0044137947),	_Q15(-0.011337206),
	_Q15(-0.020765783),	_Q15(0.0187826),	_Q15(0.020086603),	_Q15(0.027789993),
	_Q15(0.014858672),	_Q15(-0.039056085),	_Q15(0.014397446),	_Q15(-0.048877414),
	_Q15(0.010802514),	_Q15(-0.009523804),	_Q15(0.0010270952),	_Q15(0.021075875),
	_Q15(-0.004704564),	_Q15(-0.04774524),	_Q15(0.005272083),	_Q15(0.016050272),
	_Q15(0.00652181),	_Q15(0.030060891),	_Q15(-0.03214653),	_Q15(0.0022467421),
	_Q15(0.005293185),	_Q15(-0.012459763),	_Q15(0.014561269),	_Q15(0.013462703),
	_Q15(-0.0020779576),	_Q15(0.02368669),	_Q15(0.015615117),	_Q15(0.02145173),
	_Q15(0.024294773),	_Q15(-0.009945314),	_Q15(-0.013656124),	_Q15(0.010843312),
	_Q15(0.0045830533),	_Q15(-0.010751862),	_Q15(0.011413779),	_Q15(0.037733894),
	_Q15(0.007899428),	_Q15(-0.007586811),	_Q15(0.0033778022),	_Q15(-0.007999153),
	_Q15(-0.022365643),	_Q15(-0.003279501),	_Q15(-0.05812388),	_Q15(-0.012409846),
	_Q15(-0.038210735),	_Q15(0.035915297),	_Q15(0.022033557),	_Q15(0.0028629992),
	_Q15(-0.0026781627),	_Q15(0.016423652),	_Q15(0.006969718),	_Q15(0.030153746),
	_Q15(0.0067341635),	_Q15(0.012170389),	_Q15(-0.008608403),	_Q15(-0.013146694),
	_Q15(-0.02272902),	_Q15(-0.018599218),	_Q15(0.035897188),	_Q15(0.00040526688),
	_Q15(-0.014033079),	_Q15(-0.011389556),	_Q15(-0.027694436),	_Q15(-0.013058299),
	_Q15(0.037916042),	_Q15(0.008122015),	_Q15(-0.039808385),	_Q15(-0.025138797),
	_Q15(0.00939777),	_Q15(-0.0030945088),	_Q15(0.0010257016),	_Q15(-0.024447527),
	_Q15(0.026727956),	_Q15(-0.008550957),	_Q15(-0.015188634),	_Q15(-0.008722672),
	_Q15(-0.0065220464),	_Q15(-0.0003956924),	_Q15(0.0066522956),	_Q15(-0.004975264),
	_Q15(0.0053511113),	_Q15(0.0030380192),	_Q15(0.0048200265),	_Q15(-0.0054789744),
	_Q15(0.016276717),	_Q15(-0.0054936293),	_Q15(0.025261495),	_Q15(0.010789007),
	_Q15(-0.006624026),	_Q15(-0.010009038),	_Q15(0.0033001231),	_Q15(0.015296694),
	_Q15(0.017936595),	_Q15(0.001970311),	_Q15(0.016219191),	_Q15(0.029508641),
	_Q15(0.040646352),	_Q15(0.006469963),	_Q15(0.0029899753),	_Q15(-0.0037443023),
	_Q15(-0.011137946),	_Q15(0.014558634),	_Q15(0.012148151),	_Q15(-0.010902049),
	_Q15(-0.018140772),	_Q15(-0.023102937),	_Q15(0.002370577),	_Q15(-0.007125464),
	_Q15(0.0128099285),	_Q15(-0.028129498),	_Q15(0.01948395),	_Q15(0.018394774),
	_Q15(0.024843736),	_Q15(0.015649883),	_Q15(-0.013411459),	_Q15(0.0197793),
	_Q15(-0.0008920626),	_Q15(0.004264922),	_Q15(0.014776839),	_Q15(0.004085894),
	_Q15(-0.0074920645),	_Q15(0.024223948),	_Q15(-0.021179851),	_Q15(0.023608865),
	_Q15(0.00919434),	_Q15(-0.012010403),	_Q15(-0.028205166),	_Q15(0.025393084),
	_Q15(-0.006264391),	_Q15(0.008632054),	_Q15(0.033440806),	_Q15(0.00068779686),
	_Q15(-0.004591917),	_Q15(0.025682032),	_Q15(-0.015701832),	_Q15(-0.015889991),
	_Q15(-0.0026274153),	_Q15(0.020594548),	_Q15(0.03175721),	_Q15(0.02168622),
	_Q15(-0.009018864),	_Q15(-0.011868634),	_Q15(0.009954214),	_Q15(0.0068157865),
	_Q15(0.028093502),	_Q15(0.01610944),	_Q15(0.015017425),	_Q15(0.0032492778),
	_Q15(0.028810417),	_Q15(-0.0068505704),	_Q15(0.0047377124),	_Q15(0.041830465),
	_Q15(0.0015806919),	_Q15(-0.007322434),	_Q15(0.025484642),	_Q15(0.0058197095),
	_Q15(-0.008946157),	_Q15(-0.017201219),	_Q15(0.004890659),	_Q15(-0.020418603),
	_Q15(-0.008715708),	_Q15(0.013869412),	_Q15(-0.026376603),	_Q15(0.0040390263),
	_Q15(-0.047047626),	_Q15(0.011308717),	_Q15(0.022028817),	_Q15(0.0039306395),
	_Q15(-0.0064354693),	_Q15(-0.018880894),	_Q15(-0.009301792),	_Q15(0.0262807),
	_Q15(-0.023782063),	_Q15(0.01710853),	_Q15(0.0074818544),	_Q15(-0.017044876),
	_Q15(0.0029192811),	_Q15(0.01369367),	_Q15(0.007695516),	_Q15(0.015143492),
	_Q15(0.01844268),	_Q15(0.01703539),	_Q15(0.021199355),	_Q15(-0.0077329534),
	_Q15(0.0141642755),	_Q15(0.019730087),	_Q15(-0.0091656735),	_Q15(-0.0054403013),
	_Q15(-0.00014507484),	_Q15(0.022396833),	_Q15(0.012796573),	_Q15(-0.013366574),
	_Q15(-0.010910594),	_Q15(0.0045739883),	_Q15(-0.006058784),	_Q15(-0.0042605028),
	_Q15(-0.023870083),	_Q15(-0.004548754),	_Q15(0.005155394),	_Q15(-0.0024354458),
	_Q15(-0.011847974),	_Q15(0.011224106),	_Q15(-0.017120676),	_Q15(0.011055965),
	_Q15(0.00076089904),	_Q15(-0.0140768),	_Q15(0.0014325992),	_Q15(0.00653363),
	_Q15(0.011487439),	_Q15(0.021085832),	_Q15(-0.011428581),	_Q15(-0.007904281),
	_Q15(-0.0061361175),	_Q15(-0.009031535),	_Q15(-0.013811234),	_Q15(-0.012918446),
	_Q15(-0.022312842),	_Q15(0.00020616129),	_Q15(-0.023651093),	_Q15(-0.0065089334),
	_Q15(0.005864301),	_Q15(-0.00955886),	_Q15(-0.023276474),	_Q15(0.016526476),
	_Q15(0.019670155),	_Q15(-0.0007012263),	_Q15(-0.02267275),	_Q15(0.002064866),
	_Q15(-0.019012826),	_Q15(0.00819593),	_Q15(-0.023531158),	_Q15(0.012021794),
	_Q15(-0.0050919764),	_Q15(0.0015182006),	_Q15(-0.010916608),	_Q15(0.014043579),
	_Q15(0.020871479),	_Q15(-0.0035648253),	_Q15(-0.019859262),	_Q15(0.01969682),
	_Q15(-0.0044277203),	_Q15(-0.019754302),	_Q15(0.012765394),	_Q15(-0.0010587805),
	_Q15(0.010497565),	_Q15(-0.0142287025),	_Q15(0.010890001),	_Q15(0.005058017),
	_Q15(-0.016935809),	_Q15(-0.017450575),	_Q15(-0.008596671),	_Q15(0.018902691),
	_Q15(0.006464448),	_Q15(0.019476062),	_Q15(-0.01509115),	_Q15(-0.019304452),
	_Q15(0.014833491),	_Q15(0.01297162),	_Q15(-0.014133134),	_Q15(-0.004341762),
	_Q15(-0.018035408),	_Q15(-0.019820794),	_Q15(-0.015235528),	_Q15(-0.01173748),
	_Q15(0.00030049117),	_Q15(-0.0074486965),	_Q15(0.008880068),	_Q15(0.0018998786),
	_Q15(-0.019947676),	_Q15(0.010285924),	_Q15(0.005713066),	_Q15(0.011623206),
	_Q15(0.016204715),	_Q15(-0.024917025),	_Q15(-0.0040001217),	_Q15(-0.024816513),
	_Q15(-0.0121595105),	_Q15(0.003120331),	_Q15(0.017689856),	_Q15(0.013211972),
	_Q15(0.0071226144),	_Q15(-0.012724529),	_Q15(0.019723905),	_Q15(0.0014980622),
	_Q15(-0.0202281),	_Q15(-0.013604504),	_Q15(0.004121665),	_Q15(0.010327793),
	_Q15(-0.023766244),	_Q15(0.006026995),	_Q15(0.011340835),	_Q15(-0.014603613),
	_Q15(-0.016528621),	_Q15(-0.011857661),	_Q15(-0.019099303),	_Q15(-0.021060714),
	_Q15(-0.010020315),	_Q15(0.0019116952),	_Q15(0.015828108),	_Q15(0.0017942117),
	_Q15(-0.0118980855),	_Q15(0.0063787065),	_Q15(0.0123935025),	_Q15(-0.020310858),
	_Q15(0.010818392),	_Q15(-0.0015270759),	_Q15(-0.009074186),	_Q15(0.008336511),
	_Q15(-0.0033979905),	_Q15(-0.009864163),	_Q15(0.010352187),	_Q15(0.011732295),
	_Q15(-0.0093776295),	_Q15(0.0023824046),	_Q15(0.009731175),	_Q15(-0.022809913),
	_Q15(-0.0011735577),	_Q15(-0.010890806),	_Q15(0.013608243),	_Q15(0.0011416078),
	_Q15(0.017506842),	_Q15(0.0076266937),	_Q15(-0.008524254),	_Q15(-0.0046299547),
	_Q15(-0.017986791),	_Q15(-0.0015098713),	_Q15(-0.017590549),	_Q15(-0.016594093),
	_Q15(-0.016614694),	_Q15(0.022346284),	_Q15(-0.017276637),	_Q15(-0.0054289154),
	_Q15(-0.0045713224),	_Q15(0.01491481),	_Q15(0.019050837),	_Q15(-0.015501541),
	_Q15(0.0051659904),	_Q15(-0.015353303),	_Q15(-0.007323495),	_Q15(-0.022212565),
	_Q15(-0.014755713),	_Q15(-0.021952802),	_Q15(0.007597487),	_Q15(-0.021027507),
	_Q15(0.0012325309),	_Q15(0.00043741614),	_Q15(-0.0024890495),	_Q15(0.010841333),
	_Q15(0.019275602),	_Q15(-0.00062144164),	_Q15(-0.0062207705),	_Q15(-0.0033595338),
	_Q15(0.0116084),	_Q15(-0.0041816663),	_Q15(-0.005370263),	_Q15(-0.00013296567),
	_Q15(-0.015911328),	_Q15(0.01571593),	_Q15(0.004042092),	_Q15(-0.006469231),
	_Q15(0.002619043),	_Q15(-0.015487783),	_Q15(0.0052890573),	_Q15(0.014770461),
	_Q15(-0.023286732),	_Q15(0.01116618),	_Q15(0.00021561117),	_Q15(0.00912608),
	_Q15(0.014476426),	_Q15(-0.0043562315),	_Q15(0.016725672),	_Q15(-0.008330388),
	_Q15(-0.010198863),	_Q15(0.0046952157),	_Q15(0.003675392),	_Q15(0.0072252452),
	_Q15(0.0014581177),	_Q15(-0.01520374),	_Q15(-0.012665487),	_Q15(-0.0009995587),
	_Q15(-0.015286107),	_Q15(-0.010174362),	_Q15(0.0077931397),	_Q15(-0.0077122175),
	_Q15(-0.0025405944),	_Q15(-0.0066002402),	_Q15(-0.0032855365),	_Q15(0.008800831),
	_Q15(-0.0030855278),	_Q15(-0.006048339),	_Q15(-0.021677729),	_Q15(-0.013411813),
	_Q15(0.0008835178),	_Q15(-0.006589339),	_Q15(-0.025784886),	_Q15(-0.009674482),
	_Q15(-0.01610976),	_Q15(0.010799713),	_Q15(-0.021029158),	_Q15(-0.011053639),
	_Q15(-0.012782512),	_Q15(-0.0067893392),	_Q15(-0.012238801),	_Q15(0.017683882),
	_Q15(-0.016741402),	_Q15(0.0041636736),	_Q15(0.017547518),	_Q15(0.01067163),
