#include <params/include/conv1.h>

__ro_hinv mat_t conv1_weight_meta = {
	.dims = {6, 1, 5, 5},
	.len_dims = 4,
	.strides = {25, 25, 5, 1},
	.data = (fixed *)conv1_weight
};

__ro_hinv mat_t conv1_bias_meta = {
	.dims = {1, 6},
	.len_dims = 2,
	.strides = {6, 1},
	.data = (fixed *)conv1_bias
};

__ro_hinv _q15 conv1_weight[] = {
	_Q15(-0.010909549),	_Q15(-0.011711934),	_Q15(0.02479484),	_Q15(0.049277093),
	_Q15(0.035723165),	_Q15(-0.06102969),	_Q15(-0.060426492),	_Q15(0.06456013),
	_Q15(0.052071035),	_Q15(0.0019153649),	_Q15(-0.05947595),	_Q15(0.00995298),
	_Q15(0.058472823),	_Q15(-0.0069089085),	_Q15(0.004078039),	_Q15(-0.05104182),
	_Q15(0.02342703),	_Q15(-0.001841643),	_Q15(0.024349004),	_Q15(-0.013218812),
	_Q15(-0.023381496),	_Q15(-0.023848169),	_Q15(0.0036336405),	_Q15(-0.00036543788),
	_Q15(0.019669566),	_Q15(0.015799794),	_Q15(-0.041801218),	_Q15(-0.07342079),
	_Q15(0.010290205),	_Q15(-0.057187162),	_Q15(0.052546527),	_Q15(0.06379334),
	_Q15(0.037312992),	_Q15(0.009746935),	_Q15(-0.049727213),	_Q15(0.062134393),
	_Q15(0.05501058),	_Q15(0.036385),	_Q15(0.027559817),	_Q15(0.024741897),
	_Q15(0.024501301),	_Q15(0.05110201),	_Q15(0.056465358),	_Q15(-0.012775644),
	_Q15(-0.018820517),	_Q15(-0.024081064),	_Q15(-0.03765013),	_Q15(-0.08265248),
	_Q15(-0.067811266),	_Q15(0.001808603),	_Q15(0.0059817843),	_Q15(-0.05525899),
	_Q15(-0.04538954),	_Q15(0.0014053646),	_Q15(-0.00845185),	_Q15(-0.052410048),
	_Q15(-0.07459359),	_Q15(-0.007230187),	_Q15(0.021637421),	_Q15(0.028824653),
	_Q15(-0.028693534),	_Q15(0.008357787),	_Q15(-0.03180216),	_Q15(0.017291607),
	_Q15(0.027017124),	_Q15(0.04117462),	_Q15(0.017655658),	_Q15(0.007924758),
	_Q15(-0.013846187),	_Q15(0.03431253),	_Q15(0.04681035),	_Q15(0.04958067),
	_Q15(0.068823025),	_Q15(0.002150695),	_Q15(-0.010781863),	_Q15(-0.021731276),
	_Q15(-0.01924688),	_Q15(-0.043847058),	_Q15(-0.05820858),	_Q15(-0.003585426),
	_Q15(-0.014577094),	_Q15(-0.01020515),	_Q15(-0.040871393),	_Q15(-0.03348316),
	_Q15(0.056886416),	_Q15(-0.018067759),	_Q15(0.02941835),	_Q15(0.07037569),
	_Q15(-0.0019314528),	_Q15(0.05400212),	_Q15(0.045451056),	_Q15(0.041495413),
	_Q15(0.05305495),	_Q15(0.043000832),	_Q15(0.058161337),	_Q15(-0.005580819),
	_Q15(-0.046478357),	_Q15(-0.024550777),	_Q15(-0.04852719),	_Q15(-0.051379077),
	_Q15(0.04672182),	_Q15(0.018353976),	_Q15(0.0631753),	_Q15(0.010233993),
	_Q15(0.045953475),	_Q15(-0.005966518),	_Q15(-0.02868555),	_Q15(-0.041675583),
	_Q15(0.008794284),	_Q15(0.043785397),	_Q15(-0.047615454),	_Q15(-0.026412506),
	_Q15(-0.024540748),	_Q15(-0.03323379),	_Q15(-0.0640539),	_Q15(-0.036543377),
	_Q15(-0.01267137),	_Q15(0.008806502),	_Q15(-0.05272465),	_Q15(-0.05336922),
	_Q15(0.02708085),	_Q15(-0.02232874),	_Q15(0.03353123),	_Q15(-0.024504378),
	_Q15(0.019404503),	_Q15(0.021355968),	_Q15(-0.014123482),	_Q15(0.036354136),
	_Q15(0.027377024),	_Q15(0.033002254),	_Q15(0.07030974),	_Q15(0.0017558458),
	_Q15(-0.024720024),	_Q15(0.006108424),	_Q15(-0.034767352),	_Q15(-0.01343507),
	_Q15(-0.024494775),	_Q15(-0.06663405),	_Q15(-0.034348227),	_Q15(0.0091788685),
	_Q15(0.03306964),	_Q15(-0.034944236),	_Q15(-0.031223644),	_Q15(-0.009729536),
	_Q15(-0.039386164),	_Q15(0.015829772),	_Q15(0.033077814),	_Q15(-0.007537033),
	_Q15(-0.060718603),	_Q15(-0.019617869)
};

__ro_hinv _q15 conv1_bias[] = {
	_Q15(0.019811604),	_Q15(0.059856188),	_Q15(0.036446244),	_Q15(-0.011343198),
	_Q15(-0.05272671),	_Q15(0.0034792982)
};

