#include <params/include/conv3.h>

__ro_hinv mat_t conv3_weight_meta = {
	.dims = {120, 16, 5, 5},
	.len_dims = 4,
	.strides = {400, 25, 5, 1},
	.data = (fixed *)conv3_weight
};

__ro_hinv mat_t conv3_bias_meta = {
	.dims = {1, 120},
	.len_dims = 2,
	.strides = {120, 1},
	.data = (fixed *)conv3_bias
};

__ro_hinv _q15 conv3_weight[] = {
	_Q15(0.0032616653),	_Q15(-0.021175101),	_Q15(-0.042339694),	_Q15(-0.013265902),
	_Q15(-0.008353305),	_Q15(0.009005519),	_Q15(-0.023622526),	_Q15(-0.0061929487),
	_Q15(0.030122845),	_Q15(0.008557096),	_Q15(0.0038775576),	_Q15(-0.00926597),
	_Q15(0.0028117285),	_Q15(0.026165025),	_Q15(0.015159129),	_Q15(0.010017709),
	_Q15(-0.003587696),	_Q15(0.018284807),	_Q15(0.031388342),	_Q15(0.0038504025),
	_Q15(0.02006208),	_Q15(0.023390621),	_Q15(0.036452625),	_Q15(0.028596103),
	_Q15(0.0406919),	_Q15(-0.0007509033),	_Q15(-0.002673429),	_Q15(0.006712887),
	_Q15(0.026308376),	_Q15(0.015309862),	_Q15(0.0029318875),	_Q15(-0.01673683),
	_Q15(-0.013284832),	_Q15(0.014208972),	_Q15(0.009444868),	_Q15(-0.02167285),
	_Q15(-0.019206226),	_Q15(0.003068003),	_Q15(0.0032560132),	_Q15(0.010558581),
	_Q15(-0.019346101),	_Q15(-0.020975433),	_Q15(0.0027213146),	_Q15(0.019672008),
	_Q15(0.0063457405),	_Q15(0.03589669),	_Q15(0.023638342),	_Q15(0.022902733),
	_Q15(0.011890118),	_Q15(0.0077864644),	_Q15(0.0043836525),	_Q15(0.0015229613),
	_Q15(0.004366826),	_Q15(0.003514263),	_Q15(0.013417834),	_Q15(-0.001710453),
	_Q15(0.009338118),	_Q15(0.024714625),	_Q15(0.012964765),	_Q15(-0.0016756048),
	_Q15(0.0060961666),	_Q15(0.000701854),	_Q15(0.018693812),	_Q15(-0.015513153),
	_Q15(0.0007897055),	_Q15(0.040765245),	_Q15(0.033635102),	_Q15(0.00046150413),
	_Q15(0.008902543),	_Q15(0.017044052),	_Q15(0.021330444),	_Q15(0.014046126),
	_Q15(0.016828464),	_Q15(-0.0019144772),	_Q15(-0.008889945),	_Q15(-0.0054713185),
	_Q15(0.0058807717),	_Q15(0.015738206),	_Q15(-0.0067114397),	_Q15(-0.0011690996),
	_Q15(-0.010197356),	_Q15(0.008379036),	_Q15(0.01794112),	_Q15(-0.030067436),
	_Q15(-0.035943396),	_Q15(-0.0028643662),	_Q15(0.014313772),	_Q15(0.0053886236),
	_Q15(-0.0018586903),	_Q15(0.00096486526),	_Q15(0.015020931),	_Q15(0.019740963),
	_Q15(0.044317786),	_Q15(0.0048520137),	_Q15(0.007919468),	_Q15(0.00082658295),
	_Q15(0.0013370818),	_Q15(-0.008737255),	_Q15(0.0049477005),	_Q15(-0.009593971),
	_Q15(-0.0052941255),	_Q15(-0.0008375366),	_Q15(-0.011853329),	_Q15(0.0028467122),
	_Q15(-0.0029468727),	_Q15(-0.010845947),	_Q15(-0.012875729),	_Q15(-0.008322109),
	_Q15(-0.018747644),	_Q15(-0.009738584),	_Q15(-0.009815171),	_Q15(-0.02281171),
	_Q15(0.024112383),	_Q15(0.033917617),	_Q15(0.002915556),	_Q15(0.013649038),
	_Q15(0.0053944),	_Q15(0.034281224),	_Q15(0.01454811),	_Q15(0.009698413),
	_Q15(0.00022854167),	_Q15(-0.031205744),	_Q15(-0.0010544106),	_Q15(0.01410221),
	_Q15(0.023823965),	_Q15(0.002495504),	_Q15(0.0054013147),	_Q15(-0.010997821),
	_Q15(-0.005193905),	_Q15(0.012547533),	_Q15(0.003260024),	_Q15(0.013586796),
	_Q15(0.016938997),	_Q15(-0.023507347),	_Q15(-0.018677585),	_Q15(0.006465779),
	_Q15(0.011343706),	_Q15(-0.007513007),	_Q15(-0.012086228),	_Q15(0.009014474),
	_Q15(0.0101646865),	_Q15(0.012484344),	_Q15(-0.02883837),	_Q15(-0.031447086),
	_Q15(-0.007742786),	_Q15(-0.0011965103),	_Q15(0.011959995),	_Q15(-0.02366399),
	_Q15(-0.0109489495),	_Q15(0.009895874),	_Q15(-0.0095280055),	_Q15(-0.01360911),
	_Q15(-0.013534125),	_Q15(0.0076704035),	_Q15(0.010075723),	_Q15(-0.02028185),
	_Q15(0.0017967102),	_Q15(0.0013350635),	_Q15(0.0074973474),	_Q15(0.004697341),
	_Q15(-0.0018261169),	_Q15(0.00017357935),	_Q15(-0.009467013),	_Q15(-0.011281833),
	_Q15(-0.009390238),	_Q15(0.023738654),	_Q15(0.0156009905),	_Q15(0.006583653),
	_Q15(0.008984572),	_Q15(0.006886377),	_Q15(0.02126015),	_Q15(0.044821367),
	_Q15(0.032905966),	_Q15(0.010425111),	_Q15(0.0038014397),	_Q15(0.006670888),
	_Q15(-0.007421831),	_Q15(-0.009742751),	_Q15(0.007044667),	_Q15(0.025316373),
	_Q15(0.012102009),	_Q15(0.00694626),	_Q15(-0.032986682),	_Q15(0.0018986188),
	_Q15(0.010064459),	_Q15(0.0051622875),	_Q15(-0.017669799),	_Q15(-0.04187305),
	_Q15(-0.018251885),	_Q15(0.0010412354),	_Q15(-0.01483499),	_Q15(-0.0030289476),
	_Q15(-0.017345376),	_Q15(0.0028925142),	_Q15(-0.0061621945),	_Q15(-0.016919278),
	_Q15(0.01327804),	_Q15(-0.01141035),	_Q15(0.008881242),	_Q15(0.021185441),
	_Q15(0.0073108193),	_Q15(-0.019474238),	_Q15(-0.037803788),	_Q15(-0.08395857),
	_Q15(-0.03685408),	_Q15(0.0047645327),	_Q15(0.015897226),	_Q15(-0.0075476277),
	_Q15(-0.023343245),	_Q15(0.0023004033),	_Q15(0.040605422),	_Q15(0.03604867),
	_Q15(0.036752578),	_Q15(0.01557006),	_Q15(0.021161228),	_Q15(0.028004816),
	_Q15(0.01659055),	_Q15(0.041117795),	_Q15(0.035912197),	_Q15(-0.0017614925),
	_Q15(-0.005079454),	_Q15(-0.0029560276),	_Q15(-0.0018064677),	_Q15(0.0014884952),
	_Q15(0.007559312),	_Q15(0.000897525),	_Q15(-0.020724138),	_Q15(-0.014385517),
	_Q15(0.0006066166),	_Q15(0.009800752),	_Q15(-0.010497131),	_Q15(-0.014578332),
	_Q15(-0.005474727),	_Q15(0.0014838688),	_Q15(-0.017103981),	_Q15(-0.011166467),
	_Q15(0.009595124),	_Q15(0.02668412),	_Q15(-0.0064434004),	_Q15(-0.030388605),
	_Q15(0.0012775561),	_Q15(-0.022039074),	_Q15(-0.0025865373),	_Q15(0.01639845),
	_Q15(0.032778118),	_Q15(0.021764167),	_Q15(0.0027685978),	_Q15(0.0057420223),
	_Q15(0.007608445),	_Q15(0.024528868),	_Q15(0.041093837),	_Q15(-0.0046450384),
	_Q15(-0.0019317939),	_Q15(0.029766463),	_Q15(0.013403898),	_Q15(-0.029838204),
	_Q15(-0.028247273),	_Q15(0.013769555),	_Q15(-0.0028379387),	_Q15(0.002118917),
	_Q15(-0.044775035),	_Q15(-0.0171948),	_Q15(0.0019074641),	_Q15(-0.0015637148),
	_Q15(0.0019197216),	_Q15(0.0057170335),	_Q15(0.00044409567),	_Q15(0.0263821),
	_Q15(-0.025199503),	_Q15(-0.0011018738),	_Q15(0.012491962),	_Q15(0.010857763),
	_Q15(-0.007886093),	_Q15(-0.008419283),	_Q15(0.00979407),	_Q15(0.016732797),
	_Q15(0.02278593),	_Q15(0.0058543053),	_Q15(0.03414132),	_Q15(0.012416447),
	_Q15(0.0035482603),	_Q15(-0.025871525),	_Q15(-0.0014627236),	_Q15(-0.010548145),
	_Q15(-0.022374533),	_Q15(0.0031494384),	_Q15(0.022177927),	_Q15(0.03175896),
	_Q15(-0.032582715),	_Q15(-0.014930052),	_Q15(-0.005461417),	_Q15(-0.0024908087),
	_Q15(0.005824226),	_Q15(-0.003292893),	_Q15(0.0008663929),	_Q15(0.012669782),
	_Q15(0.008905081),	_Q15(0.010694239),	_Q15(0.014530748),	_Q15(0.008397004),
	_Q15(0.00088958343),	_Q15(-0.01571206),	_Q15(-0.014742603),	_Q15(-0.0093016615),
	_Q15(0.014879757),	_Q15(0.025189351),	_Q15(0.011297024),	_Q15(-0.023729376),
	_Q15(-0.029268837),	_Q15(-0.028042447),	_Q15(0.013799173),	_Q15(-0.011279174),
	_Q15(0.012418779),	_Q15(0.016199615),	_Q15(0.038345233),	_Q15(-0.025669742),
	_Q15(-0.0010071514),	_Q15(0.005925972),	_Q15(0.026562886),	_Q15(0.020956568),
	_Q15(-0.0064233704),	_Q15(-0.007343041),	_Q15(-0.024423098),	_Q15(0.015450287),
	_Q15(0.022712385),	_Q15(-0.0003791182),	_Q15(0.0146355545),	_Q15(0.00975109),
	_Q15(0.024558404),	_Q15(0.006305035),	_Q15(0.0052260756),	_Q15(0.0015290561),
	_Q15(-0.01271117),	_Q15(-0.0027665945),	_Q15(-0.0022234833),	_Q15(0.009184623),
	_Q15(0.017188597),	_Q15(0.0051033613),	_Q15(-0.016632054),	_Q15(0.0063525573),
	_Q15(0.0007923964),	_Q15(0.0037727673),	_Q15(0.0041576736),	_Q15(0.01021989),
	_Q15(0.012381692),	_Q15(0.02529391),	_Q15(0.003911839),	_Q15(0.0077297688),
	_Q15(0.0067224097),	_Q15(0.0045109545),	_Q15(-0.014034834),	_Q15(0.009301025),
	_Q15(0.021260122),	_Q15(0.03715157),	_Q15(0.0050553093),	_Q15(-0.027781963),
	_Q15(-0.006879206),	_Q15(0.03122109),	_Q15(0.0033781016),	_Q15(-0.006110475),
	_Q15(-0.028472558),	_Q15(0.004493892),	_Q15(0.010103992),	_Q15(-0.02719563),
	_Q15(-0.026653934),	_Q15(-0.001637849),	_Q15(0.011485698),	_Q15(-0.008803962),
	_Q15(-0.041587677),	_Q15(-0.04368938),	_Q15(0.018903991),	_Q15(0.028413437),
	_Q15(-0.0033499692),	_Q15(-0.056419946),	_Q15(-0.028504869),	_Q15(0.0040780273),
	_Q15(-0.00978835),	_Q15(0.0031765425),	_Q15(-0.002174691),	_Q15(0.0018930385),
	_Q15(0.0002774228),	_Q15(-0.04011066),	_Q15(-0.022746272),	_Q15(0.009490262),
	_Q15(0.005071835),	_Q15(0.001576869),	_Q15(-0.0038398078),	_Q15(0.021785978),
	_Q15(0.003767189),	_Q15(-0.0024292206),	_Q15(-0.0027042155),	_Q15(-0.043180726),
	_Q15(0.008794727),	_Q15(0.01581966),	_Q15(0.012535026),	_Q15(-0.011856428),
	_Q15(-0.017659945),	_Q15(-0.00059681956),	_Q15(0.012646624),	_Q15(0.0054756394),
	_Q15(-0.0065040602),	_Q15(-0.027356168),	_Q15(0.010378326),	_Q15(-0.0008495885),
	_Q15(-0.0052213855),	_Q15(-0.04102867),	_Q15(0.02321253),	_Q15(0.0027219418),
	_Q15(-0.016714038),	_Q15(-0.01353034),	_Q15(-0.039700456),	_Q15(-0.013311467),
	_Q15(-0.03230298),	_Q15(-0.035739638),	_Q15(-0.039659996),	_Q15(0.021118704),
	_Q15(-0.010777687),	_Q15(0.014670285),	_Q15(-0.011655008),	_Q15(-0.008502939),
	_Q15(0.011733819),	_Q15(0.016682517),	_Q15(0.0061012274),	_Q15(0.017111981),
	_Q15(0.007734367),	_Q15(-0.0008882996),	_Q15(-0.0043402314),	_Q15(-0.0030752362),
	_Q15(0.007525204),	_Q15(0.02649132),	_Q15(-0.031741597),	_Q15(-0.017976893),
	_Q15(-0.011122912),	_Q15(-0.0067836167),	_Q15(-0.027389018),	_Q15(-0.010647546),
	_Q15(0.007229174),	_Q15(-0.01897598),	_Q15(-0.006268977),	_Q15(0.0036901273),
	_Q15(0.025814887),	_Q15(0.011007404),	_Q15(0.003968289),	_Q15(0.0027917186),
	_Q15(-0.0031223835),	_Q15(0.011354941),	_Q15(0.012801199),	_Q15(0.025652135),
	_Q15(0.016933111),	_Q15(0.01196801),	_Q15(-0.008192954),	_Q15(-0.0034394546),
	_Q15(-0.012369669),	_Q15(-0.005477279),	_Q15(-0.00474838),	_Q15(0.00866133),
	_Q15(-0.0064289877),	_Q15(-0.013475558),	_Q15(0.0067056078),	_Q15(0.006524427),
	_Q15(0.018252365),	_Q15(0.004112467),	_Q15(0.00946124),	_Q15(0.019045891),
	_Q15(0.005640478),	_Q15(-0.0036473116),	_Q15(0.022891881),	_Q15(0.00011291823),
	_Q15(0.0024685103),	_Q15(-0.0051960293),	_Q15(-0.0152472025),	_Q15(-0.028111083),
	_Q15(-0.024266524),	_Q15(-0.028446794),	_Q15(-0.015478875),	_Q15(-4.162747e-05),
	_Q15(-0.014510032),	_Q15(0.010711732),	_Q15(0.023727804),	_Q15(0.006802736),
	_Q15(-0.011464611),	_Q15(0.001767475),	_Q15(-0.011442397),	_Q15(-0.023242366),
	_Q15(0.00085435464),	_Q15(0.0016305458),	_Q15(0.0075435173),	_Q15(0.0032014765),
	_Q15(-0.012526108),	_Q15(-0.0038498726),	_Q15(-0.012195359),	_Q15(-0.0019140032),
	_Q15(0.022002595),	_Q15(0.0012755195),	_Q15(0.010145115),	_Q15(0.0015986689),
	_Q15(0.002117664),	_Q15(0.009541506),	_Q15(-0.0060868263),	_Q15(0.010137539),
	_Q15(0.02454758),	_Q15(0.013747565),	_Q15(0.0053389054),	_Q15(-0.008924833),
	_Q15(-0.007878931),	_Q15(0.011090121),	_Q15(0.035712313),	_Q15(0.02877994),
	_Q15(0.012434357),	_Q15(-0.0031632024),	_Q15(0.019730018),	_Q15(0.018729419),
	_Q15(-0.009294863),	_Q15(-0.012837381),	_Q15(0.016069027),	_Q15(-0.015099312),
	_Q15(-0.0018029616),	_Q15(-0.019348927),	_Q15(-0.02510242),	_Q15(-0.050992303),
	_Q15(-0.0020012097),	_Q15(-1.0178235e-05),	_Q15(0.02760491),	_Q15(0.010719109),
	_Q15(-0.012959235),	_Q15(-0.0045557385),	_Q15(0.01515065),	_Q15(0.021326566),
	_Q15(0.013279198),	_Q15(0.0156019665),	_Q15(-0.0012927921),	_Q15(0.006958957),
	_Q15(0.000884739),	_Q15(0.029694354),	_Q15(0.02265249),	_Q15(-0.022979023),
	_Q15(0.01051781),	_Q15(-0.038008682),	_Q15(0.0026611388),	_Q15(-0.025425823),
	_Q15(-0.006144695),	_Q15(-0.015124026),	_Q15(-0.011456799),	_Q15(-0.0036505477),
	_Q15(-0.021763409),	_Q15(-0.0024113436),	_Q15(0.0018915707),	_Q15(-0.005898215),
	_Q15(0.027178612),	_Q15(0.020170663),	_Q15(-0.009018149),	_Q15(0.007934811),
	_Q15(-0.009374076),	_Q15(-0.025372406),	_Q15(-0.023173852),	_Q15(0.013558882),
	_Q15(-0.008156631),	_Q15(-0.0022076915),	_Q15(-0.017125307),	_Q15(0.0064647784),
	_Q15(0.0023215646),	_Q15(0.027234249),	_Q15(0.008893878),	_Q15(0.017440515),
	_Q15(0.015428092),	_Q15(-0.013356),	_Q15(-0.00019277417),	_Q15(-0.0017828118),
	_Q15(-0.009638449),	_Q15(0.005641598),	_Q15(-0.009240536),	_Q15(-0.014334385),
	_Q15(-0.024277851),	_Q15(-0.011475463),	_Q15(-0.035304014),	_Q15(0.012051544),
	_Q15(-0.016847368),	_Q15(0.022485752),	_Q15(0.006335829),	_Q15(0.0008732632),
	_Q15(-0.004942434),	_Q15(-0.008508703),	_Q15(-0.011877637),	_Q15(0.004067534),
	_Q15(0.0055527845),	_Q15(0.006634951),	_Q15(0.032813374),	_Q15(0.0037761235),
	_Q15(0.006425048),	_Q15(0.012225884),	_Q15(-0.0007488617),	_Q15(0.013128546),
	_Q15(0.006502948),	_Q15(-0.01323018),	_Q15(-0.00031968736),	_Q15(0.0059226076),
	_Q15(0.0041821557),	_Q15(-0.0041455957),	_Q15(-0.022016337),	_Q15(0.003202965),
	_Q15(0.027971972),	_Q15(0.019524047),	_Q15(0.010815902),	_Q15(0.043828),
	_Q15(0.02703264),	_Q15(-0.01550601),	_Q15(0.013715795),	_Q15(0.0067423573),
	_Q15(0.0085445605),	_Q15(0.0005782504),	_Q15(-0.025945328),	_Q15(0.016246788),
	_Q15(-0.0037112492),	_Q15(-0.03294489),	_Q15(-0.01290835),	_Q15(0.010479831),
	_Q15(0.00024908475),	_Q15(0.018824492),	_Q15(-0.01405574),	_Q15(-0.032006003),
	_Q15(-0.0047111874),	_Q15(0.034135833),	_Q15(0.02282551),	_Q15(0.01634173),
	_Q15(0.0220156),	_Q15(0.0122871855),	_Q15(-0.0014190279),	_Q15(-0.00023764442),
	_Q15(0.00449413),	_Q15(0.011459986),	_Q15(-0.009155995),	_Q15(0.011086324),
	_Q15(-0.00043032656),	_Q15(-0.0014285868),	_Q15(0.008490787),	_Q15(-0.009817349),
	_Q15(-0.009861319),	_Q15(-0.008986834),	_Q15(0.0010893646),	_Q15(0.004402585),
	_Q15(0.016599989),	_Q15(-0.020981044),	_Q15(0.015825886),	_Q15(0.019150551),
	_Q15(-0.0061847195),	_Q15(0.0041340953),	_Q15(0.010102346),	_Q15(0.005084513),
	_Q15(0.012806018),	_Q15(-0.0051262476),	_Q15(0.0018770935),	_Q15(-0.025568282),
	_Q15(0.007486534),	_Q15(-0.0021404044),	_Q15(-0.011396686),	_Q15(0.003416284),
	_Q15(-0.00025132266),	_Q15(-0.0060827234),	_Q15(-0.010102925),	_Q15(-0.0014961051),
	_Q15(0.023542827),	_Q15(-0.028816584),	_Q15(-0.010885974),	_Q15(-0.002850394),
	_Q15(0.013383111),	_Q15(-0.0078852605),	_Q15(-0.01801399),	_Q15(-0.0063086734),
	_Q15(0.023488197),	_Q15(0.013296283),	_Q15(-0.031745967),	_Q15(-0.019397663),
	_Q15(-0.035267785),	_Q15(-0.011728822),	_Q15(-0.008581377),	_Q15(-0.015967663),
	_Q15(0.0019061383),	_Q15(-0.0032948323),	_Q15(0.015506985),	_Q15(-0.00041365906),
	_Q15(-0.032727513),	_Q15(-0.020405265),	_Q15(-0.0236631),	_Q15(0.014661755),
	_Q15(0.011322141),	_Q15(-5.3857217e-05),	_Q15(-0.013046448),	_Q15(-0.008977122),
	_Q15(0.0051440205),	_Q15(0.0010169821),	_Q15(-6.522434e-05),	_Q15(0.0076911347),
	_Q15(-0.00075347105),	_Q15(0.0042550024),	_Q15(-0.0064125448),	_Q15(-0.0012861856),
	_Q15(0.019321656),	_Q15(0.001550068),	_Q15(-0.0002363353),	_Q15(-0.009921214),
	_Q15(0.0002207077),	_Q15(-0.0049009677),	_Q15(0.0015077183),	_Q15(0.009410594),
	_Q15(0.010424473),	_Q15(0.0032458666),	_Q15(-0.0072809523),	_Q15(0.0046288674),
	_Q15(0.004320925),	_Q15(0.0014739647),	_Q15(-0.009471801),	_Q15(0.013829605),
	_Q15(-0.006313053),	_Q15(0.012606815),	_Q15(0.0095677),	_Q15(0.0034541667),
	_Q15(-0.015268269),	_Q15(-0.008889778),	_Q15(-0.005627775),	_Q15(-0.045287658),
	_Q15(-0.000412643),	_Q15(0.01965206),	_Q15(0.022279108),	_Q15(0.012953567),
	_Q15(0.0019669107),	_Q15(-0.048908014),	_Q15(-0.016374644),	_Q15(-0.0034455184),
	_Q15(-0.0044076205),	_Q15(-0.008206557),	_Q15(-0.03140089),	_Q15(-0.0067407377),
	_Q15(-0.0044402867),	_Q15(0.01041454),	_Q15(-0.012029282),	_Q15(0.023409648),
	_Q15(0.010235919),	_Q15(0.0045978446),	_Q15(0.026896896),	_Q15(0.025291717),
	_Q15(0.0013086668),	_Q15(0.011855078),	_Q15(0.0023192277),	_Q15(0.024285289),
	_Q15(-0.0052788774),	_Q15(-0.012978282),	_Q15(-0.0044634063),	_Q15(0.011918482),
	_Q15(-0.008490113),	_Q15(-0.03189057),	_Q15(-0.032103356),	_Q15(0.0051822825),
	_Q15(-0.0013162842),	_Q15(0.030852849),	_Q15(-0.009611982),	_Q15(-0.022037117),
	_Q15(-0.0015849856),	_Q15(-0.02328678),	_Q15(-0.01643704),	_Q15(-0.04539444),
	_Q15(0.012560529),	_Q15(-0.0058083287),	_Q15(0.0037565886),	_Q15(-0.027483484),
	_Q15(-0.03865233),	_Q15(-0.008059101),	_Q15(-0.001192909),	_Q15(0.0041763894),
	_Q15(0.0027753643),	_Q15(0.0045340336),	_Q15(-0.035134364),	_Q15(-0.045541044),
	_Q15(-0.035264537),	_Q15(-0.028595893),	_Q15(0.023228573),	_Q15(-0.006033154),
	_Q15(-0.022855526),	_Q15(-0.0026533557),	_Q15(-0.0064158547),	_Q15(-0.004609739),
	_Q15(0.019436846),	_Q15(0.019854313),	_Q15(0.019808661),	_Q15(-0.010116749),
	_Q15(-0.000875479),	_Q15(0.0071925945),	_Q15(0.01644419),	_Q15(0.026023222),
	_Q15(0.0060608485),	_Q15(0.02079445),	_Q15(0.017567037),	_Q15(0.024354778),
	_Q15(-0.018874027),	_Q15(-0.019609695),	_Q15(-0.0017062018),	_Q15(-0.00070253003),
	_Q15(-0.03325887),	_Q15(-0.025558516),	_Q15(-0.014731868),	_Q15(-0.009595784),
	_Q15(-0.004982207),	_Q15(0.007898687),	_Q15(-0.0008538401),	_Q15(0.0055223024),
	_Q15(0.005216416),	_Q15(-0.009630816),	_Q15(0.0052978974),	_Q15(0.0056655137),
	_Q15(0.0042523164),	_Q15(-0.004873747),	_Q15(0.0024079632),	_Q15(-0.008063319),
	_Q15(0.00395726),	_Q15(0.0009917106),	_Q15(0.006621733),	_Q15(-0.008594646),
	_Q15(0.0036496622),	_Q15(-0.015295009),	_Q15(-0.007616449),	_Q15(-0.007178741),
	_Q15(-0.006352111),	_Q15(-0.013344675),	_Q15(0.003317486),	_Q15(-0.007899199),
	_Q15(-0.010024294),	_Q15(-0.00030199077),	_Q15(0.0005607538),	_Q15(0.007000584),
	_Q15(0.0012404594),	_Q15(-0.0008736367),	_Q15(-0.011398343),	_Q15(0.010134044),
	_Q15(0.005339737),	_Q15(0.005976961),	_Q15(-0.0052577234),	_Q15(-0.006446467),
	_Q15(0.005239979),	_Q15(0.006009414),	_Q15(-0.0043366305),	_Q15(0.0005006203),
	_Q15(0.00649398),	_Q15(0.004427291),	_Q15(0.009329121),	_Q15(0.008545543),
	_Q15(-0.0077276677),	_Q15(0.004985805),	_Q15(-0.010096094),	_Q15(-0.00025737105),
	_Q15(-0.0057879677),	_Q15(0.0071874782),	_Q15(-0.00995433),	_Q15(-0.012479905),
	_Q15(-0.013026132),	_Q15(0.007315766),	_Q15(-0.014194496),	_Q15(-0.008278887),
	_Q15(-0.0059563764),	_Q15(0.0077656624),	_Q15(0.0063793054),	_Q15(0.00659393),
	_Q15(0.00067633524),	_Q15(0.0046668956),	_Q15(-0.004294253),	_Q15(0.008951202),
	_Q15(0.007361445),	_Q15(0.0032491756),	_Q15(0.0008620161),	_Q15(0.0060593197),
	_Q15(-0.00489655),	_Q15(0.006282772),	_Q15(0.001176825),	_Q15(-0.0034735599),
	_Q15(-0.009016518),	_Q15(-0.0025065094),	_Q15(-0.0114901895),	_Q15(-0.007614409),
	_Q15(-0.008342872),	_Q15(0.008657989),	_Q15(-0.0077866623),	_Q15(-0.011905963),
	_Q15(-0.007244158),	_Q15(-0.0036733954),	_Q15(0.0057909093),	_Q15(-0.007878418),
	_Q15(-0.013495843),	_Q15(-0.01151081),	_Q15(-0.0120880995),	_Q15(-0.002021986),
	_Q15(-0.014121869),	_Q15(-0.011584297),	_Q15(-0.0004973186),	_Q15(0.0005372749),
	_Q15(0.0045989235),	_Q15(-0.00030439618),	_Q15(0.008080998),	_Q15(-0.00564085),
	_Q15(-0.001346329),	_Q15(0.007114412),	_Q15(-0.0031513993),	_Q15(0.009847355),
	_Q15(0.0035866017),	_Q15(0.008516618),	_Q15(-0.011204049),	_Q15(-0.010471683),
	_Q15(-0.0041489177),	_Q15(-0.00021759115),	_Q15(0.004311227),	_Q15(0.0054315706),
	_Q15(-0.011371692),	_Q15(0.0012278407),	_Q15(-0.01336659),	_Q15(0.005289024),
	_Q15(-0.011339974),	_Q15(-0.0020956444),	_Q15(0.003188797),	_Q15(0.002332414),
	_Q15(0.0054567275),	_Q15(-0.0023337011),	_Q15(0.0014727997),	_Q15(0.01000664),
	_Q15(0.005956913),	_Q15(-0.008580899),	_Q15(-6.2018415e-05),	_Q15(-0.008616362),
	_Q15(-0.006461547),	_Q15(-0.0035369624),	_Q15(-0.014537699),	_Q15(0.009010039),
	_Q15(-0.013707547),	_Q15(-0.0044420534),	_Q15(0.0021933743),	_Q15(-0.0018394431),
	_Q15(0.010637472),	_Q15(0.007955304),	_Q15(-0.011769059),	_Q15(-0.00895679),
	_Q15(-0.009594727),	_Q15(-0.012154035),	_Q15(-0.006105727),	_Q15(0.0065661115),
	_Q15(-0.013867679),	_Q15(0.0008762817),	_Q15(0.0022671153),	_Q15(0.0017227398),
	_Q15(-0.0020741085),	_Q15(-0.005905286),	_Q15(0.009889119),	_Q15(-0.010548948),
	_Q15(0.0017024112),	_Q15(0.004810878),	_Q15(0.0063947905),	_Q15(-0.0059071966),
	_Q15(0.00991281),	_Q15(-0.013460416),	_Q15(0.0100885015),	_Q15(-0.0071907314),
	_Q15(0.0040948023),	_Q15(0.007289616),	_Q15(0.005271396),	_Q15(0.00169639),
	_Q15(-0.008696504),	_Q15(-0.0022128301),	_Q15(0.0023043558),	_Q15(-0.00093705655),
	_Q15(-0.008281485),	_Q15(-0.01728484),	_Q15(0.008154214),	_Q15(-0.0040615704),
	_Q15(0.010300883),	_Q15(-0.010235227),	_Q15(0.002495569),	_Q15(0.008797997),
	_Q15(0.008102524),	_Q15(-0.0080901515),	_Q15(-0.0037737994),	_Q15(-0.0041556926),
	_Q15(-0.00326294),	_Q15(-0.0063981093),	_Q15(-0.002713302),	_Q15(0.0063977386),
	_Q15(0.007474856),	_Q15(0.0048832134),	_Q15(-0.005741434),	_Q15(-0.0055826646),
	_Q15(-0.010414848),	_Q15(-0.0017337663),	_Q15(0.008016777),	_Q15(-0.0013643288),
	_Q15(0.0070063863),	_Q15(-0.0047163265),	_Q15(-0.004871827),	_Q15(0.0031195031),
	_Q15(-0.0039416226),	_Q15(-0.0057595805),	_Q15(-0.0032795137),	_Q15(-0.0026612403),
	_Q15(-0.004143331),	_Q15(-0.0038038942),	_Q15(-0.0031629128),	_Q15(0.009525174),
	_Q15(0.0071047363),	_Q15(-0.0025390298),	_Q15(-0.009966144),	_Q15(0.0017891217),
	_Q15(0.002754541),	_Q15(0.003003966),	_Q15(-0.00463811),	_Q15(0.0012219131),
	_Q15(-0.00541652),	_Q15(0.0037315157),	_Q15(-0.012504286),	_Q15(-0.0052197664),
	_Q15(-0.0026552053),	_Q15(-0.010455973),	_Q15(-0.014561714),	_Q15(-0.005126211),
	_Q15(-0.0101280315),	_Q15(-0.017206013),	_Q15(-0.016849808),	_Q15(-0.0078053107),
	_Q15(-0.014632961),	_Q15(0.0078181485),	_Q15(0.0023024296),	_Q15(0.001266977),
	_Q15(-0.0085762665),	_Q15(0.0060344697),	_Q15(-0.0072802943),	_Q15(-0.0042310897),
	_Q15(0.0008442494),	_Q15(0.009900526),	_Q15(-0.0069444613),	_Q15(-0.006555585),
	_Q15(-0.0033583646),	_Q15(-0.014057995),	_Q15(0.0041683502),	_Q15(-0.008549058),
	_Q15(-0.009352095),	_Q15(0.004782054),	_Q15(-0.009340245),	_Q15(0.0051576104),
	_Q15(-0.011755586),	_Q15(0.009056988),	_Q15(0.004708754),	_Q15(0.0022318752),
	_Q15(-0.0070452387),	_Q15(0.009814268),	_Q15(-0.010274412),	_Q15(0.003377954),
	_Q15(-0.009193001),	_Q15(-0.001335279),	_Q15(0.005197722),	_Q15(0.009030676),
	_Q15(-0.0075706635),	_Q15(-0.009445548),	_Q15(0.002102194),	_Q15(-0.012151955),
	_Q15(-0.0037253317),	_Q15(-0.010777718),	_Q15(0.0019999132),	_Q15(0.009566414),
	_Q15(0.007290777),	_Q15(-0.0131208375),	_Q15(0.0028138666),	_Q15(-0.009796944),
	_Q15(-0.013277053),	_Q15(0.005580683),	_Q15(-0.00019717506),	_Q15(-0.005913957),
	_Q15(-0.009647951),	_Q15(-0.000239591),	_Q15(-0.009006638),	_Q15(0.0014293889),
	_Q15(-0.0013821693),	_Q15(-0.009485781),	_Q15(0.001639653),	_Q15(-0.014114235),
	_Q15(-0.011609469),	_Q15(-0.003316716),	_Q15(-0.009066029),	_Q15(0.0019119947),
	_Q15(0.00876558),	_Q15(-0.00474554),	_Q15(0.005797403),	_Q15(0.008179686),
	_Q15(0.006559679),	_Q15(-0.013224716),	_Q15(-0.011107673),	_Q15(-0.0048768283),
	_Q15(-4.90953e-05),	_Q15(-0.0067788824),	_Q15(0.0030771901),	_Q15(-0.013417898),
	_Q15(-0.010138419),	_Q15(0.008760818),	_Q15(0.0065754037),	_Q15(0.009043816),
	_Q15(0.0035169616),	_Q15(-0.0017126368),	_Q15(0.0024726263),	_Q15(-0.0018982283),
	_Q15(0.0024614965),	_Q15(0.004509143),	_Q15(-0.0064894557),	_Q15(-0.005345959),
	_Q15(-0.0130394455),	_Q15(0.0073158806),	_Q15(0.008092633),	_Q15(-0.00078535534),
	_Q15(-0.012822676),	_Q15(0.009619584),	_Q15(0.0022576007),	_Q15(-0.010409199),
	_Q15(0.0064113713),	_Q15(-0.0012840456),	_Q15(0.010681938),	_Q15(-0.013556659),
	_Q15(-0.0052895425),	_Q15(-0.012446663),	_Q15(0.0050816857),	_Q15(-0.011670218),
	_Q15(-0.0094021475),	_Q15(0.0040110154),	_Q15(0.006956952),	_Q15(-0.010070674),
	_Q15(0.0009113252),	_Q15(-0.0022971),	_Q15(0.009662738),	_Q15(0.010599195),
	_Q15(-0.00444981),	_Q15(-0.0023822354),	_Q15(-0.008769951),	_Q15(0.0010040535),
	_Q15(-0.004836602),	_Q15(-0.005754849),	_Q15(0.0063648853),	_Q15(0.0018168798),
	_Q15(0.0037562721),	_Q15(-0.010530486),	_Q15(0.0057101436),	_Q15(0.006665173),
	_Q15(0.004361067),	_Q15(-0.011949019),	_Q15(0.0071550393),	_Q15(-0.006774994),
	_Q15(-0.013464895),	_Q15(-0.0029993276),	_Q15(-0.01023999),	_Q15(0.010152994),
	_Q15(0.004955441),	_Q15(-0.008257141),	_Q15(-0.006430589),	_Q15(-0.00042940315),
	_Q15(0.007152217),	_Q15(0.0025045364),	_Q15(0.01127648),	_Q15(-0.0038120754),
	_Q15(-0.008442548),	_Q15(0.0039286916),	_Q15(-0.009394797),	_Q15(0.0022052594),
	_Q15(-0.012615746),	_Q15(-0.00038030787),	_Q15(-0.0032015063),	_Q15(-0.008872589),
	_Q15(-0.015519695),	_Q15(-0.0006561115),	_Q15(-0.008897657),	_Q15(0.00026374942),
	_Q15(-0.009276634),	_Q15(0.00034248063),	_Q15(-0.0020769557),	_Q15(-0.0029985784),
	_Q15(0.010126287),	_Q15(-0.00017505175),	_Q15(0.012457172),	_Q15(-0.010726683),
	_Q15(0.0008015689),	_Q15(0.0066024093),	_Q15(0.007761743),	_Q15(-0.009860377),
	_Q15(0.0077667274),	_Q15(-0.014011521),	_Q15(-0.0060889744),	_Q15(-0.0023890869),
	_Q15(-0.0038749261),	_Q15(-0.0103466455),	_Q15(0.002995264),	_Q15(-0.0075850124),
	_Q15(-0.007987427),	_Q15(-0.00020838655),	_Q15(-0.011185936),	_Q15(-0.0030370674),
	_Q15(0.005122027),	_Q15(-0.0018843989),	_Q15(-0.0040644454),	_Q15(0.0058627585),
	_Q15(0.0054218885),	_Q15(-0.0102214385),	_Q15(0.005301598),	_Q15(0.0046818946),
	_Q15(-0.014223325),	_Q15(0.018174682),	_Q15(0.011262043),	_Q15(-0.015352001),
	_Q15(-0.003967279),	_Q15(-0.07158882),	_Q15(0.0089670615),	_Q15(-0.0036235251),
	_Q15(-0.010377797),	_Q15(0.010056261),	_Q15(-0.04806919),	_Q15(-0.05623813),
	_Q15(-0.021430384),	_Q15(-0.016686458),	_Q15(-0.04653488),	_Q15(0.04492049),
	_Q15(0.012234475),	_Q15(0.01245155),	_Q15(-0.018075736),	_Q15(-0.019240389),
	_Q15(0.043641545),	_Q15(0.040168796),	_Q15(0.008961416),	_Q15(0.0036408578),
	_Q15(-0.00044973244),	_Q15(-0.026697414),	_Q15(0.0069991606),	_Q15(-0.011159812),
	_Q15(0.01213369),	_Q15(0.004928675),	_Q15(-0.018524544),	_Q15(-0.0066848374),
	_Q15(-0.0030090946),	_Q15(0.0068449858),	_Q15(0.016612291),	_Q15(0.015284168),
	_Q15(0.0009374946),	_Q15(-0.02010924),	_Q15(0.0072512464),	_Q15(-0.015162415),
	_Q15(0.01237407),	_Q15(0.00902314),	_Q15(0.010546052),	_Q15(-0.016471807),
	_Q15(0.011149408),	_Q15(0.0061519407),	_Q15(0.0039070263),	_Q15(0.0018852967),
	_Q15(-0.0033748099),	_Q15(0.010734473),	_Q15(-0.008487614),	_Q15(-0.009909373),
	_Q15(0.006653492),	_Q15(-0.0038619877),	_Q15(0.010586396),	_Q15(-0.0056139627),
	_Q15(-0.009360986),	_Q15(-0.0102051385),	_Q15(-0.01505184),	_Q15(-0.023973778),
	_Q15(0.0027027081),	_Q15(0.006993249),	_Q15(0.004718277),	_Q15(-0.008961422),
	_Q15(0.008716741),	_Q15(0.010746912),	_Q15(0.029493652),	_Q15(0.006811526),
	_Q15(0.006523904),	_Q15(0.0032860169),	_Q15(0.037558246),	_Q15(0.01670249),
	_Q15(-0.023493506),	_Q15(-0.036081195),	_Q15(-0.023747373),	_Q15(0.0020564648),
	_Q15(-0.007362918),	_Q15(-0.006326885),	_Q15(0.009722762),	_Q15(0.0051650633),
	_Q15(-0.008921989),	_Q15(0.0011387563),	_Q15(-0.0064951438),	_Q15(-7.771204e-05),
	_Q15(-0.01976346),	_Q15(0.0008046763),	_Q15(-0.00658205),	_Q15(-0.009373505),
	_Q15(-0.0012241033),	_Q15(0.0026084415),	_Q15(-0.01822957),	_Q15(-0.0135098705),
	_Q15(-0.008094133),	_Q15(-0.011202707),	_Q15(0.004263042),	_Q15(0.0027147399),
	_Q15(-0.0052129882),	_Q15(-0.0047874525),	_Q15(0.010784667),	_Q15(0.009968567),
	_Q15(-0.015583864),	_Q15(-0.014193527),	_Q15(-0.004358806),	_Q15(0.009120521),
	_Q15(0.005589619),	_Q15(-0.007914259),	_Q15(0.013438781),	_Q15(0.010963942),
	_Q15(0.019649534),	_Q15(-0.0033828605),	_Q15(0.013147523),	_Q15(0.038188506),
	_Q15(0.004117433),	_Q15(0.014420945),	_Q15(0.028239),	_Q15(0.030996745),
	_Q15(0.008639562),	_Q15(-0.033181563),	_Q15(0.0021157179),	_Q15(-0.014654061),
	_Q15(-0.01642846),	_Q15(0.020875655),	_Q15(0.04089072),	_Q15(0.00031059646),
	_Q15(-0.04251475),	_Q15(-0.025766065),	_Q15(0.008500641),	_Q15(0.0043995488),
	_Q15(0.00018618333),	_Q15(0.013067836),	_Q15(-2.2214554e-05),	_Q15(1.0473659e-05),
	_Q15(-0.004874914),	_Q15(0.029615361),	_Q15(0.018253822),	_Q15(0.0101877665),
	_Q15(0.0153540885),	_Q15(-0.003260829),	_Q15(-0.010297948),	_Q15(0.0029155845),
	_Q15(0.012618399),	_Q15(-0.010051632),	_Q15(-0.007840675),	_Q15(0.016594676),
	_Q15(0.007726714),	_Q15(-0.009675534),	_Q15(-0.022921506),	_Q15(-0.016930783),
	_Q15(0.06588594),	_Q15(0.022307657),	_Q15(-0.0028108156),	_Q15(0.015722582),
	_Q15(0.004297339),	_Q15(-0.023577744),	_Q15(-0.012845828),	_Q15(-0.017129535),
	_Q15(-0.016629865),	_Q15(-0.009119677),	_Q15(-0.03550069),	_Q15(-0.020208668),
	_Q15(-0.017437618),	_Q15(0.019836627),	_Q15(0.00893809),	_Q15(0.010891562),
	_Q15(0.021878298),	_Q15(0.026372371),	_Q15(0.03246887),	_Q15(-0.002068532),
	_Q15(0.01932053),	_Q15(0.007956616),	_Q15(-0.00021945154),	_Q15(0.03423293),
	_Q15(0.00967385),	_Q15(-0.0022182695),	_Q15(0.0004458533),	_Q15(0.0010725957),
	_Q15(-0.033384297),	_Q15(0.016107075),	_Q15(0.012867093),	_Q15(0.0019321924),
	_Q15(0.015171192),	_Q15(-0.0064495606),	_Q15(0.008324992),	_Q15(-0.0007712161),
	_Q15(-0.0006424739),	_Q15(0.016290056),	_Q15(0.06504646),	_Q15(0.022427602),
	_Q15(-0.0056140805),	_Q15(-0.0100037325),	_Q15(-0.027967252),	_Q15(0.00724471),
	_Q15(0.038771216),	_Q15(-0.009898626),	_Q15(-0.002267828),	_Q15(-0.015812244),
	_Q15(-0.017213158),	_Q15(-0.009447935),	_Q15(-0.01042666),	_Q15(-0.00046651045),
	_Q15(-0.00034772523),	_Q15(0.035518583),	_Q15(0.0040789284),	_Q15(0.0010027986),
	_Q15(0.0019415164),	_Q15(-0.015038395),	_Q15(-0.01171464),	_Q15(0.006824101),
	_Q15(0.004971887),	_Q15(0.019336414),	_Q15(-0.020008873),	_Q15(0.0005490859),
	_Q15(0.002515079),	_Q15(-0.013360997),	_Q15(0.010502785),	_Q15(0.043373875),
	_Q15(0.03341607),	_Q15(0.01997648),	_Q15(-0.03063321),	_Q15(-0.026102824),
	_Q15(0.032187503),	_Q15(0.023377351),	_Q15(-0.002960519),	_Q15(0.020987181),
	_Q15(0.014864194),	_Q15(0.009194083),	_Q15(0.001341977),	_Q15(-0.004441303),
	_Q15(-0.017593428),	_Q15(-0.013030592),	_Q15(-0.004582179),	_Q15(-0.025543015),
	_Q15(0.0030198297),	_Q15(0.030329233),	_Q15(0.04238739),	_Q15(0.011018349),
	_Q15(-0.006999178),	_Q15(-0.011670152),	_Q15(0.007936563),	_Q15(0.031059444),
	_Q15(0.017137146),	_Q15(-0.010657355),	_Q15(-0.0012030253),	_Q15(0.022602063),
	_Q15(0.0021871433),	_Q15(-9.3169365e-05),	_Q15(-0.008061592),	_Q15(0.012264227),
	_Q15(0.03283039),	_Q15(0.0014758024),	_Q15(0.018406365),	_Q15(-0.042405766),
	_Q15(-0.003304328),	_Q15(0.025897313),	_Q15(0.011155667),	_Q15(0.031001745),
	_Q15(0.019350374),	_Q15(-0.025557254),	_Q15(-0.014188281),	_Q15(-0.016359067),
	_Q15(0.021590939),	_Q15(0.0071214014),	_Q15(0.0031607125),	_Q15(-0.006144935),
	_Q15(-0.0026584123),	_Q15(-0.042557538),	_Q15(-0.019366097),	_Q15(-0.007981561),
	_Q15(-0.0035678307),	_Q15(0.011362364),	_Q15(-0.0041222936),	_Q15(-0.020888833),
	_Q15(-0.013052697),	_Q15(0.011622605),	_Q15(-0.0071049817),	_Q15(-0.0374744),
	_Q15(-0.0018291597),	_Q15(0.0029082764),	_Q15(0.012636729),	_Q15(-0.013374748),
	_Q15(-0.0109934965),	_Q15(-0.019146249),	_Q15(-0.010362215),	_Q15(0.021777125),
	_Q15(0.014878828),	_Q15(0.0068595903),	_Q15(-0.023243533),	_Q15(0.0023017232),
	_Q15(0.021903992),	_Q15(0.024638416),	_Q15(0.0060712537),	_Q15(0.007551249),
	_Q15(-0.0096467),	_Q15(0.0127238985),	_Q15(0.0047562593),	_Q15(0.0153204445),
	_Q15(-0.010079129),	_Q15(7.389963e-05),	_Q15(0.011472827),	_Q15(-0.0021894472),
	_Q15(-0.04514827),	_Q15(-0.029192055),	_Q15(-0.009766666),	_Q15(0.0011376828),
	_Q15(0.0012277031),	_Q15(-0.020147732),	_Q15(-0.047328584),	_Q15(0.003972994),
	_Q15(0.015103366),	_Q15(0.011679656),	_Q15(0.012700064),	_Q15(0.012962474),
	_Q15(-0.0063949735),	_Q15(0.029932382),	_Q15(0.018415267),	_Q15(0.022258922),
	_Q15(0.01740703),	_Q15(-0.0052067162),	_Q15(-0.0019190059),	_Q15(-0.01622572),
	_Q15(-0.013528069),	_Q15(-0.005848924),	_Q15(0.020662408),	_Q15(0.013180563),
	_Q15(-0.02593588),	_Q15(-0.033163574),	_Q15(-0.0183558),	_Q15(0.025194716),
	_Q15(0.008987022),	_Q15(0.0023070497),	_Q15(-0.026722215),	_Q15(-0.030569723),
	_Q15(-0.016277276),	_Q15(0.014576245),	_Q15(0.016780132),	_Q15(0.027244225),
	_Q15(-0.022634584),	_Q15(0.014032301),	_Q15(0.028841253),	_Q15(0.04312601),
	_Q15(-0.023183364),	_Q15(0.0066386545),	_Q15(0.011830686),	_Q15(0.028286252),
	_Q15(0.020218177),	_Q15(0.019286321),	_Q15(-0.0013074151),	_Q15(0.023052765),
	_Q15(0.008249714),	_Q15(0.010272255),	_Q15(-0.039947312),	_Q15(-0.02477383),
	_Q15(-0.013371151),	_Q15(0.001593354),	_Q15(-0.042290602),	_Q15(0.018104406),
	_Q15(0.007214659),	_Q15(-0.03298913),	_Q15(-0.020564198),	_Q15(-0.057358887),
	_Q15(0.013880242),	_Q15(0.011726334),	_Q15(-0.014364765),	_Q15(-0.06374969),
	_Q15(-0.09655647),	_Q15(-0.030615877),	_Q15(-0.0015066599),	_Q15(0.0015987941),
	_Q15(0.009349709),	_Q15(-0.003570367),	_Q15(-0.054585725),	_Q15(-0.030688642),
	_Q15(-0.017000215),	_Q15(-0.0035739695),	_Q15(0.046950035),	_Q15(-0.011211086),
	_Q15(-0.032918625),	_Q15(-0.0016581726),	_Q15(-0.008360325),	_Q15(-0.0005185354),
	_Q15(0.008668714),	_Q15(-0.026103718),	_Q15(-0.006028881),	_Q15(0.005692001),
	_Q15(0.015001416),	_Q15(0.015282855),	_Q15(0.019481268),	_Q15(0.007328132),
	_Q15(0.0030283034),	_Q15(0.0066003166),	_Q15(0.04767601),	_Q15(0.00028245884),
	_Q15(0.010630702),	_Q15(-0.0119703105),	_Q15(0.013195971),	_Q15(-0.013765446),
	_Q15(-0.026020065),	_Q15(-0.013641214),	_Q15(0.0011209),	_Q15(0.005184979),
	_Q15(-0.02903268),	_Q15(-0.00080472376),	_Q15(0.018786907),	_Q15(0.024987552),
	_Q15(0.015859969),	_Q15(0.011796475),	_Q15(0.034340825),	_Q15(0.022311717),
	_Q15(-0.017757023),	_Q15(-0.010564027),	_Q15(0.019404959),	_Q15(0.015590742),
	_Q15(0.013259266),	_Q15(0.008423021),	_Q15(-0.00044821587),	_Q15(0.019708771),
	_Q15(0.019030508),	_Q15(0.007338926),	_Q15(-0.026846077),	_Q15(-0.02138769),
	_Q15(0.0011062471),	_Q15(-0.015770629),	_Q15(-0.0039048344),	_Q15(-0.015224493),
	_Q15(-0.016893558),	_Q15(-0.0037027542),	_Q15(0.012874689),	_Q15(0.009084918),
	_Q15(0.007877071),	_Q15(0.026951043),	_Q15(0.01666956),	_Q15(0.0063784416),
	_Q15(0.005942973),	_Q15(-0.00040550285),	_Q15(0.003605978),	_Q15(-0.023432005),
	_Q15(0.010625241),	_Q15(-0.006349928),	_Q15(-0.009211709),	_Q15(-0.015231742),
	_Q15(-0.017961815),	_Q15(0.009945687),	_Q15(-0.0114802),	_Q15(-0.01712632),
	_Q15(-0.002259078),	_Q15(0.004485133),	_Q15(-0.013187246),	_Q15(-0.020697363),
	_Q15(-0.0034022548),	_Q15(0.0040457505),	_Q15(0.002189168),	_Q15(-0.016247971),
	_Q15(-0.011188832),	_Q15(-0.020328382),	_Q15(-0.01406551),	_Q15(-0.01244732),
	_Q15(-0.0144816935),	_Q15(-0.0058334013),	_Q15(-0.007513201),	_Q15(-0.022967098),
	_Q15(-0.011702887),	_Q15(-0.0025990603),	_Q15(-0.0140616),	_Q15(-0.012232228),
	_Q15(-0.03839931),	_Q15(-0.0059391414),	_Q15(0.019602844),	_Q15(0.0057775187),
	_Q15(-0.0025712606),	_Q15(0.004924317),	_Q15(0.017006924),	_Q15(0.009330432),
	_Q15(0.011389269),	_Q15(0.02060188),	_Q15(0.026468089),	_Q15(-0.010591178),
	_Q15(-0.0014352187),	_Q15(0.007155093),	_Q15(0.03058645),	_Q15(0.010368081),
	_Q15(-0.0077591604),	_Q15(-0.012655853),	_Q15(-0.019828778),	_Q15(-0.0003526343),
	_Q15(0.004867292),	_Q15(-0.018137718),	_Q15(-0.00071023253),	_Q15(0.009254513),
	_Q15(-0.038171437),	_Q15(-0.020044396),	_Q15(-0.014985983),	_Q15(0.010350553),
	_Q15(-0.024529675),	_Q15(-0.0017236806),	_Q15(-0.00017916142),	_Q15(0.0095590735),
	_Q15(-0.013968852),	_Q15(-0.0025402755),	_Q15(0.0066960617),	_Q15(0.017677287),
	_Q15(0.0052220165),	_Q15(0.0051947855),	_Q15(0.006943666),	_Q15(0.0050521074),
	_Q15(-0.012723675),	_Q15(0.016046597),	_Q15(0.014025087),	_Q15(0.0150466245),
	_Q15(0.025028888),	_Q15(0.02298679),	_Q15(0.029797316),	_Q15(-0.0134919025),
	_Q15(-0.039685864),	_Q15(0.0033119353),	_Q15(0.008096755),	_Q15(0.026777705),
	_Q15(0.024221387),	_Q15(-0.012327756),	_Q15(0.023912894),	_Q15(-0.010457049),
	_Q15(-0.0033004319),	_Q15(0.00815777),	_Q15(0.028463688),	_Q15(0.033067197),
	_Q15(0.017850224),	_Q15(-0.015151536),	_Q15(0.0012900174),	_Q15(0.0075228494),
	_Q15(0.0059098452),	_Q15(-0.00029455617),	_Q15(0.00791782),	_Q15(-0.00037258494),
	_Q15(-0.013725826),	_Q15(0.009278702),	_Q15(0.025945863),	_Q15(0.021109853),
	_Q15(-0.0027804133),	_Q15(-0.011861592),	_Q15(0.019382348),	_Q15(0.0015116037),
	_Q15(-0.009573747),	_Q15(-0.026822723),	_Q15(-0.00687453),	_Q15(0.04456534),
	_Q15(0.023541588),	_Q15(0.00018254817),	_Q15(-0.012871688),	_Q15(0.006276931),
	_Q15(0.04846254),	_Q15(0.0053857006),	_Q15(0.010026517),	_Q15(0.010664636),
	_Q15(-0.00164503),	_Q15(-0.008980024),	_Q15(-0.009577109),	_Q15(-0.021525959),
	_Q15(-0.025920935),	_Q15(-0.0025162934),	_Q15(-0.026884178),	_Q15(-0.013947195),
	_Q15(0.00027651995),	_Q15(0.023899544),	_Q15(0.0014295805),	_Q15(0.001511828),
	_Q15(-0.017150646),	_Q15(0.029928505),	_Q15(0.017212644),	_Q15(-0.010589078),
	_Q15(0.015253922),	_Q15(0.012955837),	_Q15(-0.007294264),	_Q15(0.0055962126),
	_Q15(0.005274638),	_Q15(0.003105136),	_Q15(-0.0045745093),	_Q15(0.023440946),
	_Q15(0.0108277965),	_Q15(-0.0056293206),	_Q15(0.005787118),	_Q15(0.011640462),
	_Q15(0.010081357),	_Q15(0.007316478),	_Q15(0.03710733),	_Q15(0.008006341),
	_Q15(0.002041591),	_Q15(0.0077335956),	_Q15(0.0058148974),	_Q15(0.02366323),
	_Q15(-0.013909172),	_Q15(0.0003624061),	_Q15(0.012762102),	_Q15(0.013071395),
	_Q15(0.020027712),	_Q15(-0.010374182),	_Q15(-0.010059652),	_Q15(-0.009769504),
	_Q15(0.0046860054),	_Q15(0.01523177),	_Q15(-0.004172277),	_Q15(-0.004337745),
	_Q15(-0.018046934),	_Q15(0.015802069),	_Q15(0.027251292),	_Q15(0.02941127),
	_Q15(0.03217639),	_Q15(-0.0015341877),	_Q15(0.02523076),	_Q15(0.028336875),
	_Q15(0.0028807959),	_Q15(-0.0063610887),	_Q15(-0.0027581013),	_Q15(0.016902702),
	_Q15(-0.021221831),	_Q15(0.014939795),	_Q15(0.013383348),	_Q15(0.004346658),
	_Q15(0.028548907),	_Q15(0.011316392),	_Q15(0.0032703036),	_Q15(0.007460861),
	_Q15(0.007803701),	_Q15(0.008312609),	_Q15(0.022952123),	_Q15(-0.0074555175),
	_Q15(-0.010085863),	_Q15(0.0021120228),	_Q15(0.022333836),	_Q15(0.010926004),
	_Q15(-0.007966712),	_Q15(-0.0021119465),	_Q15(0.010204135),	_Q15(-0.018363211),
	_Q15(-0.0036356144),	_Q15(0.02079042),	_Q15(0.030003993),	_Q15(-0.01295692),
	_Q15(-0.028329689),	_Q15(-0.012866551),	_Q15(0.015427951),	_Q15(0.015493652),
	_Q15(-0.009808275),	_Q15(-0.016050722),	_Q15(-0.0016289577),	_Q15(0.009705401),
	_Q15(0.018640032),	_Q15(-0.019325601),	_Q15(-0.009955002),	_Q15(0.0047291755),
	_Q15(0.015697232),	_Q15(0.012944244),	_Q15(0.014313761),	_Q15(-0.012263671),
	_Q15(-0.004176179),	_Q15(0.017257286),	_Q15(2.6235e-05),	_Q15(-0.008425867),
	_Q15(0.02218782),	_Q15(-0.0076221586),	_Q15(-0.023496998),	_Q15(-0.021742245),
	_Q15(-0.016896803),	_Q15(-0.026592972),	_Q15(-0.004186253),	_Q15(0.0019376273),
	_Q15(-0.02235289),	_Q15(-0.0062418412),	_Q15(-0.022215893),	_Q15(-0.0055933744),
	_Q15(-0.0031023056),	_Q15(-0.006943956),	_Q15(0.033469323),	_Q15(0.0030066927),
	_Q15(-0.004808152),	_Q15(-0.0061130333),	_Q15(-0.00065642694),	_Q15(-0.013540779),
	_Q15(0.020989569),	_Q15(-0.0030379547),	_Q15(0.023022844),	_Q15(0.012736238),
	_Q15(0.012686722),	_Q15(-0.0023777385),	_Q15(0.0032900195),	_Q15(0.046255067),
	_Q15(0.043822236),	_Q15(-0.011409812),	_Q15(-0.013477463),	_Q15(-0.0043984368),
	_Q15(0.015264608),	_Q15(0.019662352),	_Q15(-0.011886747),	_Q15(-0.00709794),
	_Q15(-0.024459664),	_Q15(-0.01702509),	_Q15(-0.0019456954),	_Q15(0.0061571724),
	_Q15(-0.003974387),	_Q15(-0.0035120533),	_Q15(0.0042107305),	_Q15(-0.013492383),
	_Q15(0.0025041387),	_Q15(0.00404791),	_Q15(0.010624906),	_Q15(0.016497314),
	_Q15(-0.011815421),	_Q15(0.0020208063),	_Q15(0.020260248),	_Q15(0.03736652),
	_Q15(0.034964938),	_Q15(0.018547049),	_Q15(0.01980281),	_Q15(0.033272054),
	_Q15(-0.0068965238),	_Q15(-0.0046366346),	_Q15(0.0025881054),	_Q15(0.0033350368),
	_Q15(0.011191963),	_Q15(1.6714534e-05),	_Q15(0.00642024),	_Q15(-0.0049936105),
	_Q15(-0.012019268),	_Q15(-0.00802645),	_Q15(0.021416405),	_Q15(0.015688082),
	_Q15(0.025655719),	_Q15(0.0018421035),	_Q15(-0.00048480352),	_Q15(-6.995091e-05),
	_Q15(-0.01861148),	_Q15(0.007292703),	_Q15(0.011635904),	_Q15(0.0084843775),
	_Q15(0.014819407),	_Q15(0.0039599766),	_Q15(0.006530995),	_Q15(-0.014888625),
	_Q15(-0.011206647),	_Q15(-0.008840243),	_Q15(0.021041846),	_Q15(0.0101564815),
	_Q15(0.014791489),	_Q15(0.012624073),	_Q15(0.0062771933),	_Q15(0.012263003),
	_Q15(0.00539921),	_Q15(0.021676403),	_Q15(0.022529287),	_Q15(0.016230933),
	_Q15(0.014974468),	_Q15(0.010054835),	_Q15(-0.04710609),	_Q15(-0.007258124),
	_Q15(-0.022493282),	_Q15(-0.040656168),	_Q15(-0.05831655),	_Q15(0.008738987),
	_Q15(0.009687949),	_Q15(-0.012997859),	_Q15(-0.024683846),	_Q15(-0.075733736),
	_Q15(-0.039663088),	_Q15(-0.020305607),	_Q15(-0.019517139),	_Q15(-0.032629415),
	_Q15(-0.069533244),	_Q15(-0.03594713),	_Q15(-0.010183858),	_Q15(-0.017636025),
	_Q15(-0.016583038),	_Q15(-0.050553996),	_Q15(-0.01579503),	_Q15(-0.021302456),
	_Q15(-0.0044642496),	_Q15(-0.0354408),	_Q15(-0.040138017),	_Q15(-0.012469948),
	_Q15(-0.006657525),	_Q15(-0.003634662),	_Q15(-0.006292942),	_Q15(-0.02119046),
	_Q15(0.009709274),	_Q15(-0.0075801783),	_Q15(0.016926322),	_Q15(0.01143238),
	_Q15(-0.0034095715),	_Q15(0.041026905),	_Q15(-0.016422879),	_Q15(-0.0048487284),
	_Q15(0.015339903),	_Q15(0.002660241),	_Q15(0.041621406),	_Q15(-0.012372396),
	_Q15(0.003232526),	_Q15(0.019903962),	_Q15(0.012482464),	_Q15(0.0103166485),
	_Q15(0.024287665),	_Q15(0.014811256),	_Q15(-0.002707365),	_Q15(-0.0036461435),
	_Q15(-0.0012752081),	_Q15(-0.002593254),	_Q15(-0.012776961),	_Q15(0.00680939),
	_Q15(-0.01005919),	_Q15(-0.003787389),	_Q15(0.002859409),	_Q15(0.005826786),
	_Q15(0.0119707),	_Q15(0.00407411),	_Q15(-0.0065868637),	_Q15(-0.0008986236),
	_Q15(-0.00044980375),	_Q15(-0.0048694517),	_Q15(0.0042527155),	_Q15(0.0019259457),
	_Q15(-0.010549337),	_Q15(0.003122645),	_Q15(0.00018029),	_Q15(-0.011065824),
	_Q15(0.011901593),	_Q15(-0.010661056),	_Q15(-0.005711467),	_Q15(-0.0018360396),
	_Q15(-0.011518951),	_Q15(-0.007004479),	_Q15(-0.0032290453),	_Q15(0.0051659946),
	_Q15(-0.0120570455),	_Q15(0.0022370582),	_Q15(-0.008487858),	_Q15(-0.0018238531),
	_Q15(0.0019367714),	_Q15(-0.00931723),	_Q15(-0.010235606),	_Q15(0.007869887),
	_Q15(0.0063121873),	_Q15(-0.003231994),	_Q15(0.0040856046),	_Q15(0.0050955424),
	_Q15(-0.0089812465),	_Q15(0.002141289),	_Q15(0.0046124356),	_Q15(0.009197957),
	_Q15(-0.0032749642),	_Q15(-0.0033740762),	_Q15(-0.00035307917),	_Q15(-0.0042093545),
	_Q15(-0.004587345),	_Q15(0.009534736),	_Q15(0.0033602687),	_Q15(0.004383926),
	_Q15(-0.00481747),	_Q15(-0.009256077),	_Q15(0.000933994),	_Q15(0.0068759364),
	_Q15(-0.0033970117),	_Q15(-0.012950872),	_Q15(0.011267456),	_Q15(0.008345404),
	_Q15(0.00062450784),	_Q15(0.00010503581),	_Q15(-0.011956796),	_Q15(-0.0018328248),
	_Q15(-0.0008908735),	_Q15(0.0038799595),	_Q15(-0.0057929084),	_Q15(-0.009598688),
	_Q15(-0.0068034898),	_Q15(-0.0065591275),	_Q15(0.0014317511),	_Q15(-0.0010905007),
	_Q15(-0.010867393),	_Q15(-0.0103229545),	_Q15(-0.0059263958),	_Q15(0.0057692),
	_Q15(0.009549778),	_Q15(-0.01198159),	_Q15(-0.0027264843),	_Q15(0.0014312589),
	_Q15(-0.008258479),	_Q15(-0.009787115),	_Q15(0.0032175737),	_Q15(0.0066980515),
	_Q15(0.0037893865),	_Q15(-0.0133689605),	_Q15(-0.00089922635),	_Q15(-0.00710247),
	_Q15(-0.007959168),	_Q15(-0.009006543),	_Q15(-0.00767565),	_Q15(-0.009414901),
	_Q15(-0.0027190107),	_Q15(0.01150447),	_Q15(0.009313448),	_Q15(-0.0044730892),
	_Q15(-0.013275851),	_Q15(0.0031265847),	_Q15(-0.007225696),	_Q15(-0.012342598),
	_Q15(-0.0060290284),	_Q15(-0.010832495),	_Q15(-0.009931335),	_Q15(-0.013385831),
	_Q15(-0.0068829404),	_Q15(0.0014576082),	_Q15(0.012845509),	_Q15(-0.0024200303),
	_Q15(0.005044515),	_Q15(0.0063906102),	_Q15(0.005198448),	_Q15(0.003916179),
	_Q15(-0.0034924713),	_Q15(-0.012078703),	_Q15(-0.004225265),	_Q15(-0.009205801),
	_Q15(0.0022480115),	_Q15(0.008889163),	_Q15(-0.009395052),	_Q15(0.009918475),
	_Q15(0.001332324),	_Q15(-0.0018426031),	_Q15(1.491279e-05),	_Q15(0.00256127),
	_Q15(-0.014878653),	_Q15(-0.013616209),	_Q15(0.010459466),	_Q15(0.0045336545),
	_Q15(0.010935181),	_Q15(0.0069810776),	_Q15(-0.0076157143),	_Q15(0.0033751698),
	_Q15(0.008403147),	_Q15(-0.00010351485),	_Q15(-0.0123492805),	_Q15(0.008283946),
	_Q15(-0.0049177995),	_Q15(-0.0071435547),	_Q15(-0.007649296),	_Q15(0.006359241),
	_Q15(0.0060352217),	_Q15(0.0059118425),	_Q15(0.00028184106),	_Q15(-0.014235355),
	_Q15(-0.0022128087),	_Q15(-0.0006692313),	_Q15(-0.012442875),	_Q15(0.0006116698),
	_Q15(-0.008000059),	_Q15(0.003307347),	_Q15(-0.0033865978),	_Q15(0.00801073),
	_Q15(-0.006756167),	_Q15(0.003318791),	_Q15(0.010965871),	_Q15(-0.009169283),
	_Q15(0.003964028),	_Q15(0.009771172),	_Q15(-0.0018761993),	_Q15(0.0036373092),
	_Q15(-0.009290176),	_Q15(-0.00791172),	_Q15(0.0034487273),	_Q15(0.0075720293),
	_Q15(-0.011870484),	_Q15(-0.007520128),	_Q15(0.0053677633),	_Q15(-0.010450621),
	_Q15(-0.0005153457),	_Q15(-0.0064609437),	_Q15(0.006935936),	_Q15(-0.007351509),
	_Q15(0.006153667),	_Q15(0.00061663904),	_Q15(-0.007742221),	_Q15(-0.0049532927),
	_Q15(-0.0051333634),	_Q15(-0.004822021),	_Q15(0.0025316188),	_Q15(-0.008721068),
	_Q15(-0.009398094),	_Q15(-0.0008065702),	_Q15(-0.007863237),	_Q15(-0.013159001),
	_Q15(-0.014347986),	_Q15(5.453956e-05),	_Q15(-0.009789889),	_Q15(-0.0011451683),
	_Q15(0.00563607),	_Q15(-0.006484673),	_Q15(-0.012074339),	_Q15(-0.0024806058),
	_Q15(-0.0011474364),	_Q15(-0.003917599),	_Q15(-0.004466534),	_Q15(-0.013034389),
	_Q15(0.0052649765),	_Q15(-0.0018782783),	_Q15(-0.004371905),	_Q15(0.0074729323),
	_Q15(0.0074596927),	_Q15(-0.0076300288),	_Q15(-0.008294059),	_Q15(-0.0043149632),
	_Q15(-0.013634286),	_Q15(-0.0032185586),	_Q15(-0.0052013863),	_Q15(-0.007199086),
	_Q15(0.0077007916),	_Q15(-0.012999714),	_Q15(0.007059491),	_Q15(-0.0008221391),
	_Q15(0.0005917942),	_Q15(0.0013974765),	_Q15(0.000717286),	_Q15(-0.010861338),
	_Q15(-0.009403341),	_Q15(-0.005107478),	_Q15(0.007077272),	_Q15(0.005607374),
	_Q15(0.009506378),	_Q15(0.0022170115),	_Q15(-0.00048302143),	_Q15(0.0039657876),
	_Q15(0.0106999315),	_Q15(0.00055063417),	_Q15(-0.002993708),	_Q15(0.00029978482),
	_Q15(0.006164263),	_Q15(-0.008174919),	_Q15(0.0069626323),	_Q15(-0.00054478983),
	_Q15(-0.010647814),	_Q15(0.0058465577),	_Q15(-0.013770971),	_Q15(-0.010974162),
	_Q15(-0.01354781),	_Q15(0.0003424821),	_Q15(-0.0018825876),	_Q15(0.00020338579),
	_Q15(-0.004596144),	_Q15(0.011646356),	_Q15(-0.0058395946),	_Q15(0.0020917614),
	_Q15(-0.0062127723),	_Q15(0.0011072538),	_Q15(-0.005098388),	_Q15(-0.011429431),
	_Q15(0.0032366293),	_Q15(-0.006414627),	_Q15(0.007596484),	_Q15(0.0023741776),
	_Q15(-0.0020226277),	_Q15(-0.002353324),	_Q15(0.0047618183),	_Q15(-0.00988087),
	_Q15(-0.0013667234),	_Q15(0.0042349678),	_Q15(0.007690976),	_Q15(-0.010921145),
	_Q15(-0.010099919),	_Q15(-7.2178125e-05),	_Q15(-0.00025544295),	_Q15(-0.0049794586),
	_Q15(-0.0104558915),	_Q15(-0.0007333976),	_Q15(-0.006025276),	_Q15(-0.0054007955),
	_Q15(0.0018765832),	_Q15(-0.003489104),	_Q15(-0.0019777855),	_Q15(-0.0045720893),
	_Q15(0.008140419),	_Q15(0.003549146),	_Q15(0.011855462),	_Q15(0.0044301217),
	_Q15(-0.011450416),	_Q15(0.010057076),	_Q15(-0.012517136),	_Q15(0.00994527),
	_Q15(0.007093972),	_Q15(-0.00037262897),	_Q15(-0.0038342706),	_Q15(-0.0074501857),
	_Q15(-0.00025449766),	_Q15(0.008604326),	_Q15(-0.008692804),	_Q15(0.00025638606),
	_Q15(-0.0023459462),	_Q15(0.0010363915),	_Q15(0.0050377976),	_Q15(-0.0053802407),
	_Q15(0.0061962986),	_Q15(0.0068329005),	_Q15(-0.0077777873),	_Q15(-0.0026570563),
	_Q15(-0.00037716725),	_Q15(0.008189043),	_Q15(-0.010274606),	_Q15(0.002642012),
	_Q15(0.0018766143),	_Q15(-0.0021767812),	_Q15(0.0036945248),	_Q15(0.007286662),
	_Q15(-0.012476361),	_Q15(0.005564629),	_Q15(0.009411338),	_Q15(-0.012524358),
	_Q15(-0.01216746),	_Q15(0.0002632153),	_Q15(0.0033377851),	_Q15(0.0016820111),
	_Q15(-0.0056964704),	_Q15(0.005153859),	_Q15(0.007595883),	_Q15(-0.0036078917),
	_Q15(-0.0026603963),	_Q15(-0.0049041985),	_Q15(-0.0021321808),	_Q15(-0.0076466817),
	_Q15(0.002219859),	_Q15(0.0076061324),	_Q15(-0.0070803263),	_Q15(-0.010391421),
	_Q15(0.0095877675),	_Q15(-0.006425596),	_Q15(0.0060381345),	_Q15(-0.0043436456),
	_Q15(-0.010856552),	_Q15(-0.010645159),	_Q15(0.0012626861),	_Q15(-0.007469842),
	_Q15(-0.0063776043),	_Q15(-0.009324996),	_Q15(0.010811424),	_Q15(-0.009181024),
	_Q15(-0.0074472893),	_Q15(-0.0052191927),	_Q15(-0.004065694),	_Q15(0.012001519),
	_Q15(-0.012933397),	_Q15(-3.361071e-06),	_Q15(-0.0061751055),	_Q15(0.007753756),
	_Q15(-0.0016551486),	_Q15(-0.004428629),	_Q15(-0.013067026),	_Q15(0.0005600606),
	_Q15(-0.006832283),	_Q15(-0.009793885),	_Q15(0.0072238804),	_Q15(-0.012025726),
	_Q15(0.0048704846),	_Q15(0.010213759),	_Q15(-0.008996682),	_Q15(0.011338145),
	_Q15(0.0012840609),	_Q15(-0.007074952),	_Q15(-0.006414831),	_Q15(0.0040219654),
	_Q15(-0.01015185),	_Q15(-0.0055022184),	_Q15(0.002612384),	_Q15(0.0032438268),
	_Q15(0.001721696),	_Q15(-0.008294116),	_Q15(0.0068606986),	_Q15(-0.0032382435),
	_Q15(0.009227405),	_Q15(0.0033733929),	_Q15(0.007898383),	_Q15(0.0029317853),
	_Q15(0.009444142),	_Q15(-0.005812919),	_Q15(0.0019494916),	_Q15(0.01275574),
	_Q15(-0.006788683),	_Q15(-0.00056721974),	_Q15(-0.010177781),	_Q15(0.0022773095),
	_Q15(0.0056108823),	_Q15(0.00044467862),	_Q15(0.009901366),	_Q15(0.008862735),
	_Q15(0.010368849),	_Q15(-0.008994003),	_Q15(0.00821769),	_Q15(0.0115613835),
	_Q15(-0.0027108823),	_Q15(0.007400946),	_Q15(-0.0033474567),	_Q15(0.0007400593),
	_Q15(-0.01175312),	_Q15(0.005932896),	_Q15(0.008860713),	_Q15(0.0040197615),
	_Q15(-0.012747597),	_Q15(-0.005138946),	_Q15(-0.011823089),	_Q15(0.0062006353),
	_Q15(-0.010193951),	_Q15(-0.009308811),	_Q15(-0.016893096),	_Q15(0.017325148),
	_Q15(0.0126158185),	_Q15(0.011655447),	_Q15(-0.003436792),	_Q15(0.000827367),
	_Q15(0.013209959),	_Q15(0.013776691),	_Q15(0.017440386),	_Q15(0.021696454),
	_Q15(0.03871387),	_Q15(0.08611383),	_Q15(0.033892136),	_Q15(0.013318991),
	_Q15(0.014316459),	_Q15(0.021584218),	_Q15(0.021695811),	_Q15(0.00042113193),
	_Q15(-0.015729252),	_Q15(-0.030138712),	_Q15(-0.009824461),	_Q15(-0.007386168),
	_Q15(0.00799424),	_Q15(-0.017816262),	_Q15(-0.016918354),	_Q15(-0.01511054),
	_Q15(0.00029518962),	_Q15(-0.014409885),	_Q15(0.033833895),	_Q15(0.003167663),
	_Q15(0.015363506),	_Q15(0.0077983118),	_Q15(0.015989589),	_Q15(0.0230932),
	_Q15(0.0075006797),	_Q15(0.0022990014),	_Q15(-0.0033949767),	_Q15(0.007200947),
	_Q15(-0.005808273),	_Q15(-0.006741687),	_Q15(-0.00969311),	_Q15(-0.0012842297),
	_Q15(0.0077300197),	_Q15(0.007024287),	_Q15(-0.0070316796),	_Q15(-0.0135165155),
	_Q15(-0.007882383),	_Q15(0.005965304),	_Q15(0.029250627),	_Q15(0.023130583),
	_Q15(0.0058471584),	_Q15(-0.0024609533),	_Q15(-0.006406523),	_Q15(0.010847987),
	_Q15(0.011932181),	_Q15(0.016744997),	_Q15(-0.0037190157),	_Q15(0.013693926),
	_Q15(0.0051542697),	_Q15(-0.0032794669),	_Q15(-0.0072257463),	_Q15(-0.02085075),
	_Q15(-0.004172152),	_Q15(-0.0027863286),	_Q15(-0.0049790153),	_Q15(0.009655731),
	_Q15(-0.005338504),	_Q15(0.0043694014),	_Q15(0.012064811),	_Q15(-0.001002364),
	_Q15(0.020915935),	_Q15(0.006735743),	_Q15(0.007891475),	_Q15(0.011756371),
	_Q15(-0.013343999),	_Q15(-0.0009304986),	_Q15(-0.010643884),	_Q15(-0.0004146881),
	_Q15(-0.0006525288),	_Q15(0.01488293),	_Q15(0.0072234003),	_Q15(0.004936546),
	_Q15(0.013498942),	_Q15(0.013309554),	_Q15(0.012285873),	_Q15(-0.0007621801),
	_Q15(0.03255038),	_Q15(0.0067206267),	_Q15(0.01464076),	_Q15(-0.0043202816),
	_Q15(-0.0031391392),	_Q15(0.026535824),	_Q15(0.0064521027),	_Q15(-0.0013546823),
	_Q15(-0.009162471),	_Q15(-0.015239248),	_Q15(0.024628427),	_Q15(0.02692315),
	_Q15(0.005309039),	_Q15(0.0012518399),	_Q15(0.0075047505),	_Q15(0.010449245),
	_Q15(-0.012667648),	_Q15(-0.021204406),	_Q15(-0.015421708),	_Q15(-0.009648168),
	_Q15(-0.008269798),	_Q15(0.014554114),	_Q15(-0.009805177),	_Q15(-0.03060685),
	_Q15(-0.0018725956),	_Q15(0.011666977),	_Q15(0.008051343),	_Q15(-0.001402167),
	_Q15(-0.0032109874),	_Q15(0.015141396),	_Q15(0.032921985),	_Q15(0.015539327),
	_Q15(0.0013550927),	_Q15(-0.0012706321),	_Q15(-0.010883143),	_Q15(0.02596408),
	_Q15(0.02840107),	_Q15(-0.0058036535),	_Q15(-0.005937981),	_Q15(0.011667742),
	_Q15(-0.0031025573),	_Q15(-0.012562618),	_Q15(0.0073980726),	_Q15(-0.008549043),
	_Q15(-0.018568352),	_Q15(-0.03229091),	_Q15(-0.007830434),	_Q15(0.010009213),
	_Q15(-0.019785956),	_Q15(0.014862832),	_Q15(-0.024021843),	_Q15(0.012818296),
	_Q15(0.016784588),	_Q15(0.006501664),	_Q15(-0.014137156),	_Q15(-0.0134556135),
	_Q15(0.009269559),	_Q15(0.0043356596),	_Q15(0.011346518),	_Q15(0.019009903),
	_Q15(-0.0021210096),	_Q15(-0.016811458),	_Q15(0.010729109),	_Q15(-0.0124447355),
	_Q15(0.010497222),	_Q15(0.024344234),	_Q15(0.029161245),	_Q15(-0.014613474),
	_Q15(0.013027143),	_Q15(-0.0020337647),	_Q15(0.021174185),	_Q15(-0.004655519),
	_Q15(0.009974484),	_Q15(-0.0075831423),	_Q15(-0.002496717),	_Q15(-0.033200078),
	_Q15(-0.029199716),	_Q15(0.0031479395),	_Q15(-0.0074335425),	_Q15(0.0024397532),
	_Q15(-0.0035459942),	_Q15(0.0061016507),	_Q15(-0.0024546282),	_Q15(-0.024831787),
	_Q15(0.011855915),	_Q15(0.0071916394),	_Q15(0.0040103165),	_Q15(-0.008460656),
	_Q15(-0.0017065975),	_Q15(-0.0074875113),	_Q15(0.0041528814),	_Q15(-0.0017771125),
	_Q15(0.0063428236),	_Q15(0.014915354),	_Q15(-0.025913252),	_Q15(-0.00866839),
	_Q15(0.0007754353),	_Q15(0.0012132813),	_Q15(-0.0022221596),	_Q15(0.0062372833),
	_Q15(-0.009145004),	_Q15(0.0012035622),	_Q15(0.0019610764),	_Q15(-0.00046019893),
	_Q15(0.0043134983),	_Q15(-0.016941002),	_Q15(-0.009503141),	_Q15(0.015498347),
	_Q15(0.0014299611),	_Q15(0.0065709045),	_Q15(0.014586219),	_Q15(0.014166136),
	_Q15(-0.0115327),	_Q15(0.00036908293),	_Q15(0.015922962),	_Q15(-0.015962472),
	_Q15(0.006830672),	_Q15(0.008276586),	_Q15(-0.017723078),	_Q15(-0.027387856),
	_Q15(0.009115637),	_Q15(0.0015896496),	_Q15(-0.016185023),	_Q15(0.00034489454),
	_Q15(0.008048173),	_Q15(0.041378345),	_Q15(0.04525767),	_Q15(0.0053281104),
	_Q15(0.0067099174),	_Q15(0.0015577665),	_Q15(0.0431201),	_Q15(0.03051359),
	_Q15(-0.014113044),	_Q15(0.0037325986),	_Q15(0.006638272),	_Q15(-0.007566321),
	_Q15(-0.008880324),	_Q15(-0.022132432),	_Q15(-0.022452623),	_Q15(-0.031224422),
	_Q15(-0.01122578),	_Q15(0.00888062),	_Q15(0.014566226),	_Q15(-0.024067195),
	_Q15(0.0036684435),	_Q15(0.0046161595),	_Q15(-0.013805308),	_Q15(0.0046047387),
	_Q15(-0.003413484),	_Q15(-0.0053216764),	_Q15(-0.006900366),	_Q15(0.033147126),
	_Q15(-0.018432032),	_Q15(0.01434616),	_Q15(-0.01869644),	_Q15(0.0048471736),
	_Q15(0.02733778),	_Q15(-0.0070104864),	_Q15(-0.010255326),	_Q15(-0.024082648),
	_Q15(0.0029956533),	_Q15(0.015189585),	_Q15(0.029676506),	_Q15(0.020356765),
	_Q15(0.015963122),	_Q15(-0.019148348),	_Q15(-0.006961141),	_Q15(0.017293893),
	_Q15(0.020521136),	_Q15(-0.0076695583),	_Q15(0.01657208),	_Q15(-0.0013364279),
	_Q15(0.022870671),	_Q15(0.03438119),	_Q15(0.004087254),	_Q15(0.0025492834),
	_Q15(-0.023194965),	_Q15(0.034490492),	_Q15(0.025733141),	_Q15(-0.01384335),
	_Q15(-0.0075868466),	_Q15(0.0053874394),	_Q15(0.044507258),	_Q15(0.03962641),
	_Q15(0.004157028),	_Q15(-0.0015459926),	_Q15(-0.009820421),	_Q15(-0.017580705),
	_Q15(-0.0039583016),	_Q15(-0.007332212),	_Q15(-0.023451125),	_Q15(0.001945939),
	_Q15(0.010824004),	_Q15(0.01236482),	_Q15(-0.00017320029),	_Q15(-0.021457331),
	_Q15(-0.018669289),	_Q15(0.011885741),	_Q15(-0.0014231915),	_Q15(-0.006032179),
	_Q15(-0.0058509614),	_Q15(0.030709118),	_Q15(-0.0074442946),	_Q15(-0.0048523354),
	_Q15(0.011738301),	_Q15(0.0045826603),	_Q15(0.020764092),	_Q15(0.0117738405),
	_Q15(-0.017888507),	_Q15(-0.017842345),	_Q15(0.011721831),	_Q15(0.00841391),
	_Q15(0.0077888477),	_Q15(0.0050251996),	_Q15(0.014861216),	_Q15(0.009833075),
	_Q15(0.0067913947),	_Q15(-0.0038935205),	_Q15(-0.009134061),	_Q15(-0.0067923237),
	_Q15(-0.016843542),	_Q15(0.000729437),	_Q15(-0.009556174),	_Q15(0.0013414319),
	_Q15(0.026961291),	_Q15(-0.015365329),	_Q15(-0.00013385125),	_Q15(0.003024411),
	_Q15(-6.533447e-05),	_Q15(0.014310459),	_Q15(0.012004251),	_Q15(0.0400533),
	_Q15(0.0015535393),	_Q15(-0.016112082),	_Q15(-0.00015655585),	_Q15(0.0015071855),
	_Q15(0.012149788),	_Q15(0.024352198),	_Q15(-0.012400816),	_Q15(0.00055135495),
	_Q15(-0.007871841),	_Q15(0.010972522),	_Q15(0.020703994),	_Q15(0.0090608355),
	_Q15(0.007023908),	_Q15(-0.00954251),	_Q15(0.007256192),	_Q15(-0.046876926),
	_Q15(-5.4088672e-05),	_Q15(-0.03630432),	_Q15(-0.02660141),	_Q15(-0.00249968),
	_Q15(-0.014729194),	_Q15(-0.019194668),	_Q15(-0.0049802097),	_Q15(-0.010626636),
	_Q15(-0.0054384954),	_Q15(-0.027703442),	_Q15(-0.006558905),	_Q15(0.013701584),
	_Q15(0.0040779803),	_Q15(0.020529315),	_Q15(0.009042189),	_Q15(0.008967323),
	_Q15(-0.014787401),	_Q15(-0.027311265),	_Q15(-0.037428863),	_Q15(0.043316416),
	_Q15(0.016765127),	_Q15(-0.003403555),	_Q15(0.00795352),	_Q15(0.01923142),
	_Q15(0.010542743),	_Q15(0.012473624),	_Q15(-0.0042434186),	_Q15(0.00898267),
	_Q15(-0.0024850115),	_Q15(0.022350583),	_Q15(-0.0006294082),	_Q15(-0.008761812),
	_Q15(-0.012572587),	_Q15(-0.02434437),	_Q15(0.05671542),	_Q15(0.034857728),
	_Q15(-0.0011095476),	_Q15(-0.02761337),	_Q15(0.007877345),	_Q15(0.029920543),
	_Q15(0.03189331),	_Q15(0.024657732),	_Q15(0.016894024),	_Q15(0.01973927),
	_Q15(-0.02274829),	_Q15(0.0005737299),	_Q15(-0.010431804),	_Q15(0.008983717),
	_Q15(0.005124221),	_Q15(-0.006932181),	_Q15(-0.008035554),	_Q15(-0.026420709),
	_Q15(0.0032242278),	_Q15(0.005598997),	_Q15(-0.010178867),	_Q15(0.0043590157),
	_Q15(0.0008341101),	_Q15(0.013140914),	_Q15(0.0137428),	_Q15(0.019440584),
	_Q15(0.040827885),	_Q15(0.026846653),	_Q15(0.016664919),	_Q15(0.0075525637),
	_Q15(0.0049485248),	_Q15(0.009847741),	_Q15(0.011074483),	_Q15(0.0025960794),
	_Q15(0.008248791),	_Q15(-0.014831756),	_Q15(-0.009429549),	_Q15(0.006924144),
	_Q15(-0.03959109),	_Q15(-0.027458409),	_Q15(-0.007963504),	_Q15(-0.014181563),
	_Q15(-0.012447169),	_Q15(-0.029611085),	_Q15(-0.04077256),	_Q15(0.059763603),
	_Q15(-0.012077828),	_Q15(-0.027079187),	_Q15(-0.020943634),	_Q15(0.025086435),
	_Q15(0.038092922),	_Q15(0.026688099),	_Q15(0.006631967),	_Q15(0.0067556775),
	_Q15(-0.012770105),	_Q15(0.029982425),	_Q15(0.02464379),	_Q15(-0.007955265),
	_Q15(-0.014393006),	_Q15(0.0011789275),	_Q15(0.0067375987),	_Q15(0.017345777),
	_Q15(-0.015140226),	_Q15(-0.0043599727),	_Q15(-0.013701257),	_Q15(0.013354055),
	_Q15(0.0002580483),	_Q15(-0.0021352414),	_Q15(0.010524904),	_Q15(-0.007863834),
	_Q15(-0.00245881),	_Q15(0.026968597),	_Q15(0.024056567),	_Q15(0.0027934015),
	_Q15(0.02962811),	_Q15(0.008891705),	_Q15(-0.002447202),	_Q15(0.000532503),
	_Q15(0.012179401),	_Q15(0.013350756),	_Q15(0.003139069),	_Q15(-0.014334563),
	_Q15(-0.010770991),	_Q15(0.009580934),	_Q15(-0.012656047),	_Q15(-0.0005189641),
	_Q15(0.0015798338),	_Q15(0.0035810273),	_Q15(0.012514017),	_Q15(0.0038961552),
	_Q15(0.013027759),	_Q15(-0.014204024),	_Q15(0.012611476),	_Q15(0.027231898),
	_Q15(0.019016182),	_Q15(-0.00836456),	_Q15(0.0020290685),	_Q15(-0.0010972625),
	_Q15(-0.0023386152),	_Q15(-0.01127505),	_Q15(0.01568263),	_Q15(0.014863573),
	_Q15(-0.008540674),	_Q15(-0.014435036),	_Q15(-0.017322442),	_Q15(-0.0064789653),
	_Q15(-0.009325201),	_Q15(0.00861171),	_Q15(0.027191848),	_Q15(0.021892792),
	_Q15(-0.009321004),	_Q15(-0.012155349),	_Q15(-0.009280411),	_Q15(0.020701434),
	_Q15(0.028156757),	_Q15(0.0098148035),	_Q15(0.00029641096),	_Q15(-0.012579321),
	_Q15(0.012118853),	_Q15(-0.00836268),	_Q15(-0.00596728),	_Q15(-0.004536847),
	_Q15(-0.030186616),	_Q15(0.022065295),	_Q15(0.0006425488),	_Q15(-0.001260253),
	_Q15(-0.009315773),	_Q15(0.019739654),	_Q15(0.006665043),	_Q15(-0.00355374),
	_Q15(0.026681388),	_Q15(0.022320263),	_Q15(0.012454485),	_Q15(0.01783878),
	_Q15(-0.00018003356),	_Q15(0.018224943),	_Q15(0.024051266),	_Q15(0.0008753671),
	_Q15(0.0289743),	_Q15(0.025729416),	_Q15(0.011548056),	_Q15(0.040226936),
	_Q15(0.005606665),	_Q15(-0.013258564),	_Q15(-0.0062805098),	_Q15(0.016515749),
	_Q15(0.009314883),	_Q15(-0.016157612),	_Q15(-0.01655933),	_Q15(-0.011774222),
	_Q15(0.013906087),	_Q15(0.011357014),	_Q15(-0.0012520304),	_Q15(-0.014515966),
	_Q15(-0.0076893824),	_Q15(-0.009437835),	_Q15(0.0047959555),	_Q15(0.049742125),
	_Q15(0.036020704),	_Q15(0.004440811),	_Q15(0.0069674253),	_Q15(0.00196507),
	_Q15(0.016667137),	_Q15(0.032681536),	_Q15(0.038337927),	_Q15(0.010682491),
	_Q15(-0.006576872),	_Q15(0.042889908),	_Q15(0.033047646),	_Q15(-0.016232394),
	_Q15(0.009786956),	_Q15(-0.0092688855),	_Q15(0.01655867),	_Q15(0.033888936),
	_Q15(-0.008809432),	_Q15(-0.013107047),	_Q15(-0.0024899465),	_Q15(0.021078812),
	_Q15(0.015503233),	_Q15(0.00218389),	_Q15(-0.010976635),	_Q15(-0.0011935922),
	_Q15(-0.0002750201),	_Q15(-0.0072976183),	_Q15(-0.00083634636),	_Q15(-0.025641654),
	_Q15(0.009977071),	_Q15(-0.0051143784),	_Q15(-0.029672973),	_Q15(-0.0024856268),
	_Q15(0.018531421),	_Q15(0.003934012),	_Q15(0.009343127),	_Q15(0.0001766801),
	_Q15(0.018341418),	_Q15(-0.0027370756),	_Q15(0.0049037617),	_Q15(0.006462369),
	_Q15(0.05672929),	_Q15(0.01616643),	_Q15(-0.0114086345),	_Q15(0.0066817496),
	_Q15(-0.0033548125),	_Q15(-0.0049611237),	_Q15(-0.019042302),	_Q15(-0.0011772761),
	_Q15(0.018333828),	_Q15(0.04578257),	_Q15(-0.009044006),	_Q15(-0.0048666326),
	_Q15(-0.008886988),	_Q15(0.0131854825),	_Q15(0.06728031),	_Q15(-4.375845e-05),
	_Q15(-0.019385472),	_Q15(0.015122698),	_Q15(0.024584834),	_Q15(0.06295385),
	_Q15(-0.014712898),	_Q15(0.011593201),	_Q15(0.00835057),	_Q15(0.00442146),
	_Q15(0.028850922),	_Q15(0.028621525),	_Q15(-0.005219988),	_Q15(-0.013452447),
	_Q15(0.00932475),	_Q15(0.009079869),	_Q15(0.008086434),	_Q15(-0.01068514),
	_Q15(-0.0024938637),	_Q15(0.010496404),	_Q15(0.010909849),	_Q15(0.053844508),
	_Q15(0.030573329),	_Q15(0.0059122215),	_Q15(-0.022930002),	_Q15(-0.01396603),
	_Q15(0.017101489),	_Q15(0.011611652),	_Q15(-0.017260952),	_Q15(-0.03117466),
	_Q15(-0.0051295045),	_Q15(-0.03266852),	_Q15(-0.013218083),	_Q15(0.016034402),
	_Q15(0.04762882),	_Q15(0.00023410407),	_Q15(-0.04545766),	_Q15(-0.007750359),
	_Q15(0.0031202356),	_Q15(-0.008231211),	_Q15(-0.0025883752),	_Q15(0.015285811),
	_Q15(0.021276422),	_Q15(-0.0025088454),	_Q15(0.006853757),	_Q15(0.009636539),
	_Q15(-0.0029823666),	_Q15(-0.01779177),	_Q15(0.0052173766),	_Q15(-0.0027553583),
	_Q15(0.015276817),	_Q15(0.02737534),	_Q15(-0.0120887095),	_Q15(0.008252748),
	_Q15(0.00511616),	_Q15(-0.012189975),	_Q15(0.018984873),	_Q15(0.021806862),
	_Q15(0.0055933604),	_Q15(0.010220128),	_Q15(0.01770308),	_Q15(-0.007808354),
	_Q15(0.0077474546),	_Q15(-0.014195862),	_Q15(-0.0031579942),	_Q15(-0.0051199966),
	_Q15(0.00026877818),	_Q15(-0.007551272),	_Q15(0.027493037),	_Q15(0.024990583),
	_Q15(-0.0023478922),	_Q15(-0.0052077486),	_Q15(-0.020132288),	_Q15(0.028503384),
	_Q15(0.0522912),	_Q15(0.0059434213),	_Q15(0.008966736),	_Q15(0.0066819596),
	_Q15(0.029573375),	_Q15(0.035919376),	_Q15(0.012580492),	_Q15(0.00245775),
	_Q15(0.023774091),	_Q15(-0.019520765),	_Q15(0.0058063096),	_Q15(0.0057567256),
	_Q15(0.00021816991),	_Q15(0.016567485),	_Q15(0.0013776476),	_Q15(0.016831152),
	_Q15(0.024248429),	_Q15(-0.0058362973),	_Q15(-0.002500562),	_Q15(0.004646306),
	_Q15(0.0102489805),	_Q15(0.008848046),	_Q15(0.009496286),	_Q15(-0.011018985),
	_Q15(-0.00028418633),	_Q15(0.0036943858),	_Q15(0.013766637),	_Q15(0.03318225),
	_Q15(0.020173013),	_Q15(-0.009005628),	_Q15(-0.020298773),	_Q15(-0.021694558),
	_Q15(0.024305305),	_Q15(0.0125239985),	_Q15(0.0029506285),	_Q15(0.007999204),
	_Q15(0.019466117),	_Q15(0.007877988),	_Q15(0.022034783),	_Q15(0.008234802),
	_Q15(0.00581151),	_Q15(0.014028413),	_Q15(0.006092231),	_Q15(-0.0018561622),
	_Q15(-0.002651893),	_Q15(0.025646744),	_Q15(0.009884305),	_Q15(-0.010421435),
	_Q15(-0.0059677064),	_Q15(0.0106942495),	_Q15(0.0033104625),	_Q15(0.0046218424),
	_Q15(0.011267303),	_Q15(0.014349892),	_Q15(0.0033020142),	_Q15(-0.00039578363),
	_Q15(0.012564937),	_Q15(0.00034048202),	_Q15(-0.017794017),	_Q15(0.01478261),
	_Q15(0.025181495),	_Q15(0.01453397),	_Q15(-0.019342018),	_Q15(-0.024387246),
	_Q15(-0.0037798947),	_Q15(0.0019919486),	_Q15(0.009999752),	_Q15(-0.014910515),
	_Q15(0.006165624),	_Q15(0.00094260776),	_Q15(-0.014670732),	_Q15(0.0034272298),
	_Q15(-0.019597674),	_Q15(-0.011324978),	_Q15(-0.014112922),	_Q15(-0.023310265),
	_Q15(0.0098108575),	_Q15(-0.0028645701),	_Q15(-0.021317612),	_Q15(0.028230451),
	_Q15(0.0044023604),	_Q15(-0.0036071497),	_Q15(0.01777784),	_Q15(0.009081351),
	_Q15(-0.011464932),	_Q15(0.0050773155),	_Q15(0.0033255676),	_Q15(0.0024020053),
	_Q15(0.03529255),	_Q15(-0.0061284127),	_Q15(-0.023575686),	_Q15(-0.020510817),
	_Q15(-0.014130499),	_Q15(-0.020724472),	_Q15(0.045444038),	_Q15(0.007002422),
	_Q15(0.029355925),	_Q15(0.03789571),	_Q15(0.020383528),	_Q15(0.0038897493),
	_Q15(0.0009094849),	_Q15(-0.00023797172),	_Q15(0.027625037),	_Q15(-0.009188813),
	_Q15(-0.0035974786),	_Q15(0.01808568),	_Q15(-0.02513745),	_Q15(0.047907032),
	_Q15(0.040293913),	_Q15(-0.02063444),	_Q15(0.0025027704),	_Q15(0.01328434),
	_Q15(0.038147543),	_Q15(0.055204522),	_Q15(-0.043838557),	_Q15(-0.018626455),
	_Q15(0.016686657),	_Q15(0.044233397),	_Q15(0.026694428),	_Q15(0.01668238),
	_Q15(0.006755268),	_Q15(-0.017360248),	_Q15(-0.018966103),	_Q15(0.007595844),
	_Q15(0.026453242),	_Q15(0.04079046),	_Q15(0.014087593),	_Q15(0.0032890153),
	_Q15(-0.008382075),	_Q15(0.008462618),	_Q15(0.025146343),	_Q15(0.006634092),
	_Q15(-0.006652189),	_Q15(0.0130963335),	_Q15(0.021431834),	_Q15(0.000667277),
	_Q15(-0.00083186146),	_Q15(-0.005450071),	_Q15(0.003110237),	_Q15(0.005195052),
	_Q15(-0.009588672),	_Q15(-0.008267792),	_Q15(0.00623617),	_Q15(-0.00342076),
	_Q15(0.013057033),	_Q15(0.025251921),	_Q15(0.038036205),	_Q15(0.014161075),
	_Q15(0.015473335),	_Q15(-0.026485993),	_Q15(-0.0025783707),	_Q15(0.038878694),
	_Q15(0.025694037),	_Q15(0.011224576),	_Q15(0.015073836),	_Q15(-0.0025297177),
	_Q15(-0.006946808),	_Q15(-0.0021855764),	_Q15(0.00074293156),	_Q15(0.0039748535),
	_Q15(0.044003356),	_Q15(0.0038298874),	_Q15(-0.0069233873),	_Q15(-0.01608946),
	_Q15(0.001302445),	_Q15(0.012993544),	_Q15(0.009875845),	_Q15(-0.0009913368),
	_Q15(0.015131256),	_Q15(-0.020368004),	_Q15(0.010275425),	_Q15(-0.0016060645),
	_Q15(0.018134523),	_Q15(0.020595046),	_Q15(0.009807321),	_Q15(0.0027483413),
	_Q15(-0.010243688),	_Q15(0.005223019),	_Q15(-0.0006782137),	_Q15(0.037091788),
	_Q15(0.034705795),	_Q15(0.0005381321),	_Q15(-0.0047342945),	_Q15(-0.0014580901),
	_Q15(-0.01113811),	_Q15(-0.009064799),	_Q15(-0.005950523),	_Q15(0.018445928),
	_Q15(0.01406883),	_Q15(0.0037766574),	_Q15(-0.0026612384),	_Q15(-0.00060308643),
	_Q15(-0.00784652),	_Q15(0.020802064),	_Q15(0.023946844),	_Q15(0.0139106475),
	_Q15(-0.0039046223),	_Q15(0.011733233),	_Q15(0.013381417),	_Q15(-0.0044804555),
	_Q15(-0.0041215047),	_Q15(0.0006883132),	_Q15(-0.015734855),	_Q15(-0.0077726142),
	_Q15(-0.0037827804),	_Q15(0.01452725),	_Q15(0.01168352),	_Q15(-0.0033373982),
	_Q15(0.0009885755),	_Q15(-0.0036719549),	_Q15(0.0023350224),	_Q15(0.008293396),
	_Q15(0.0034274778),	_Q15(0.015340523),	_Q15(0.009070686),	_Q15(0.00855296),
	_Q15(-0.008701608),	_Q15(-0.008176763),	_Q15(0.0007891579),	_Q15(0.009018747),
	_Q15(0.016281355),	_Q15(0.005158419),	_Q15(-0.027733775),	_Q15(-0.005942611),
	_Q15(0.01608555),	_Q15(-0.010099189),	_Q15(-0.0022067425),	_Q15(-0.00606237),
	_Q15(-0.02387933),	_Q15(-0.0046559935),	_Q15(0.0047777505),	_Q15(-0.0034307058),
	_Q15(-0.027564282),	_Q15(-0.00054928684),	_Q15(0.0041215844),	_Q15(0.0031485783),
	_Q15(0.022222463),	_Q15(-0.005381414),	_Q15(-0.019177563),	_Q15(0.0054073837),
	_Q15(0.017400894),	_Q15(-0.0053035836),	_Q15(0.011476866),	_Q15(0.012560022),
	_Q15(0.005353214),	_Q15(-0.026458174),	_Q15(-0.023231545),	_Q15(-0.012271591),
	_Q15(0.01941184),	_Q15(-0.0281687),	_Q15(-0.014852161),	_Q15(0.02640875),
	_Q15(0.031246329),	_Q15(-0.001246422),	_Q15(-0.012603848),	_Q15(-0.037189),
	_Q15(-0.0012240475),	_Q15(0.03308518),	_Q15(0.024196666),	_Q15(0.0044235922),
	_Q15(-0.0042960597),	_Q15(-0.013288403),	_Q15(-0.021193227),	_Q15(0.0009185786),
	_Q15(-0.0031013908),	_Q15(-0.020867947),	_Q15(-0.013687555),	_Q15(-0.01295053),
	_Q15(1.6868551e-05),	_Q15(-0.007080846),	_Q15(-0.01818081),	_Q15(-0.017231794),
	_Q15(-0.020339353),	_Q15(0.005637481),	_Q15(0.006227719),	_Q15(-0.0075789094),
	_Q15(-0.010417724),	_Q15(-0.038383495),	_Q15(-0.01478803),	_Q15(-0.005166467),
	_Q15(0.007924959),	_Q15(-0.010488651),	_Q15(-0.02305877),	_Q15(0.011495729),
	_Q15(-0.017856449),	_Q15(0.00911613),	_Q15(0.00939031),	_Q15(-0.04462459),
	_Q15(-0.02315347),	_Q15(-0.00941751),	_Q15(-0.0075918436),	_Q15(-0.01948255),
	_Q15(-0.014696707),	_Q15(-0.007734651),	_Q15(0.0030577036),	_Q15(-0.008836613),
	_Q15(-0.004089851),	_Q15(0.0005480052),	_Q15(-0.012465213),	_Q15(-0.00028757172),
	_Q15(-0.013648713),	_Q15(0.0011457917),	_Q15(-0.017187182),	_Q15(-0.0006365207),
	_Q15(-0.0029244816),	_Q15(-0.0043689827),	_Q15(0.014990168),	_Q15(-0.0076241684),
	_Q15(-0.0024248871),	_Q15(0.0047361134),	_Q15(0.0023090697),	_Q15(-0.006294802),
	_Q15(-0.01359216),	_Q15(0.009529793),	_Q15(0.0065045347),	_Q15(-0.0024004262),
	_Q15(0.0052663838),	_Q15(-0.012763872),	_Q15(0.009571894),	_Q15(-0.0033357588),
	_Q15(-0.023141358),	_Q15(-0.029183934),	_Q15(-0.006804385),	_Q15(0.013462705),
	_Q15(0.019525025),	_Q15(-0.00233502),	_Q15(-0.031953998),	_Q15(-0.0016595236),
	_Q15(0.0021987502),	_Q15(-0.009810068),	_Q15(-0.023658263),	_Q15(-0.047193546),
	_Q15(0.00067557103),	_Q15(0.004486103),	_Q15(-0.022198478),	_Q15(-0.043282222),
	_Q15(-0.040508345),	_Q15(-0.011639964),	_Q15(0.01599116),	_Q15(-0.0014950384),
	_Q15(-0.007324215),	_Q15(-0.03192501),	_Q15(-0.012662911),	_Q15(0.006357398),
	_Q15(-0.012600868),	_Q15(-0.0074920002),	_Q15(0.00948274),	_Q15(0.0074583753),
	_Q15(-0.009377747),	_Q15(-0.024448702),	_Q15(0.008706334),	_Q15(0.01703751),
	_Q15(0.026708094),	_Q15(0.020479565),	_Q15(0.024626024),	_Q15(0.036137618),
	_Q15(0.016723175),	_Q15(-0.0040203296),	_Q15(-0.005017744),	_Q15(-0.002471276),
	_Q15(0.012523965),	_Q15(0.017140947),	_Q15(0.023012323),	_Q15(-0.004148214),
	_Q15(0.005902712),	_Q15(0.019253211),	_Q15(0.0040019047),	_Q15(-0.014762408),
	_Q15(0.012890824),	_Q15(-0.0026536998),	_Q15(0.005098909),	_Q15(0.016022412),
	_Q15(0.042219836),	_Q15(0.0121011175),	_Q15(-0.0029206548),	_Q15(-0.009224541),
	_Q15(-0.005341954),	_Q15(-0.00048902485),	_Q15(0.027460754),	_Q15(0.015527495),
	_Q15(0.012898108),	_Q15(0.0064367694),	_Q15(-0.011845905),	_Q15(0.0035998882),
	_Q15(-0.0039012474),	_Q15(-0.005320916),	_Q15(-0.0034597472),	_Q15(-6.963565e-05),
	_Q15(0.010774372),	_Q15(0.014366473),	_Q15(-0.011049167),	_Q15(0.0095094675),
	_Q15(0.016854798),	_Q15(0.010219189),	_Q15(-0.002482188),	_Q15(-0.009173313),
	_Q15(-0.024719624),	_Q15(0.0021880588),	_Q15(0.014142675),	_Q15(0.02036017),
	_Q15(-0.015146633),	_Q15(-0.019382952),	_Q15(-0.020180635),	_Q15(-0.013101141),
	_Q15(-0.062360242),	_Q15(-0.03663902),	_Q15(0.002340792),	_Q15(0.011314745),
	_Q15(0.003691928),	_Q15(-0.006528321),	_Q15(-0.031029735),	_Q15(-0.01988462),
	_Q15(-0.019864712),	_Q15(0.0018806321),	_Q15(-0.01663639),	_Q15(-0.0088728415),
	_Q15(-0.00814042),	_Q15(3.873547e-05),	_Q15(0.001832981),	_Q15(-0.008696101),
	_Q15(-0.022806328),	_Q15(-0.0026415705),	_Q15(0.0128013315),	_Q15(-0.008140457),
	_Q15(-0.0009037798),	_Q15(0.0034356413),	_Q15(-4.3811524e-06),	_Q15(-0.006422024),
	_Q15(0.013755172),	_Q15(0.010323479),	_Q15(0.0031457234),	_Q15(0.015396579),
	_Q15(-0.022633698),	_Q15(-0.012833556),	_Q15(-0.014871343),	_Q15(-0.015338751),
	_Q15(-0.0042334218),	_Q15(0.019463398),	_Q15(-0.016251987),	_Q15(0.009947015),
	_Q15(0.003683951),	_Q15(0.0033010333),	_Q15(0.0056992746),	_Q15(0.02651849),
	_Q15(-0.0040870532),	_Q15(-0.010839322),	_Q15(0.004387015),	_Q15(0.012502955),
	_Q15(0.0038019745),	_Q15(-0.020622151),	_Q15(-0.042326506),	_Q15(0.012545512),
	_Q15(0.030857338),	_Q15(0.014239016),	_Q15(0.02413134),	_Q15(-0.014612519),
	_Q15(-0.01842634),	_Q15(0.020146172),	_Q15(0.018608829),	_Q15(-0.024596883),
	_Q15(0.014643215),	_Q15(-0.0059302403),	_Q15(-0.0050609717),	_Q15(-0.012993862),
	_Q15(-0.006178599),	_Q15(-0.017250668),	_Q15(0.006627778),	_Q15(-0.0046492866),
	_Q15(0.00970267),	_Q15(0.0039580953),	_Q15(-0.011593252),	_Q15(0.010883786),
	_Q15(0.02793),	_Q15(0.028824007),	_Q15(0.018684927),	_Q15(0.011670816),
	_Q15(-0.0039032407),	_Q15(-0.003660773),	_Q15(0.01106734),	_Q15(-0.025716733),
	_Q15(0.031255793),	_Q15(0.02341787),	_Q15(0.0069074896),	_Q15(-0.008712271),
	_Q15(0.00049258344),	_Q15(-0.019793663),	_Q15(0.0112941535),	_Q15(0.0027170444),
	_Q15(0.017821256),	_Q15(0.02419629),	_Q15(-0.0025387562),	_Q15(-0.01339607),
	_Q15(-0.0294067),	_Q15(-0.008216085),	_Q15(0.008458433),	_Q15(-0.019839054),
	_Q15(-0.035369825),	_Q15(-0.027052205),	_Q15(-0.018297525),	_Q15(0.032208283),
	_Q15(0.026538728),	_Q15(-0.018368658),	_Q15(-0.012041882),	_Q15(-0.040305026),
	_Q15(0.0029498085),	_Q15(0.012145903),	_Q15(0.01025829),	_Q15(-0.012714008),
	_Q15(-0.05855795),	_Q15(-0.031481333),	_Q15(-0.01394006),	_Q15(0.00046599586),
	_Q15(-0.0037106134),	_Q15(0.025089646),	_Q15(0.022766737),	_Q15(-0.00730459),
	_Q15(-0.015574349),	_Q15(-0.017776202),	_Q15(0.054270495),	_Q15(-0.006132579),
	_Q15(0.006548577),	_Q15(0.009899899),	_Q15(-0.00097159954),	_Q15(-0.007913446),
	_Q15(-0.00967376),	_Q15(-0.029269757),	_Q15(0.016436523),	_Q15(0.010108636),
	_Q15(-0.004137411),	_Q15(-0.042130947),	_Q15(-0.032411933),	_Q15(0.044654742),
	_Q15(0.030724602),	_Q15(0.012853332),	_Q15(-0.0008556635),	_Q15(-0.015955089),
	_Q15(-0.04593528),	_Q15(0.0058606085),	_Q15(0.009022584),	_Q15(-0.0026565369),
	_Q15(-0.0064727883),	_Q15(-0.035983056),	_Q15(-0.018699413),	_Q15(0.0050367964),
	_Q15(0.0065971045),	_Q15(0.0049396353),	_Q15(-0.0067116986),	_Q15(-0.010733109),
	_Q15(-0.00496906),	_Q15(0.0006630621),	_Q15(-0.009206822),	_Q15(-0.014610371),
	_Q15(-0.00030837723),	_Q15(-0.007223292),	_Q15(-0.012112399),	_Q15(-0.0028514285),
	_Q15(-0.013914951),	_Q15(-0.0028811158),	_Q15(1.2176111e-05),	_Q15(0.00024117979),
	_Q15(0.0017282588),	_Q15(0.00830437),	_Q15(-0.011903015),	_Q15(0.0042627864),
	_Q15(-0.0040090545),	_Q15(0.0020810773),	_Q15(-0.011170218),	_Q15(7.110634e-05),
	_Q15(-0.0011581766),	_Q15(0.0025918372),	_Q15(-0.0038934816),	_Q15(-0.0028448785),
	_Q15(-0.012073822),	_Q15(-0.0045127305),	_Q15(-0.0073789167),	_Q15(-0.006568575),
	_Q15(-0.0030823797),	_Q15(-0.0075252904),	_Q15(-0.00077773357),	_Q15(-0.007739253),
	_Q15(0.0015194485),	_Q15(-0.007944421),	_Q15(-0.0056584976),	_Q15(-0.0059582777),
	_Q15(-0.004235314),	_Q15(-0.010634561),	_Q15(-0.010290459),	_Q15(0.008028715),
	_Q15(-0.00912602),	_Q15(-0.015772868),	_Q15(-0.005527158),	_Q15(-0.0018057734),
	_Q15(-0.004162956),	_Q15(-0.0040385644),	_Q15(-0.0026154395),	_Q15(-0.016127096),
	_Q15(-0.005213734),	_Q15(-0.009356444),	_Q15(-0.01347874),	_Q15(0.0013449531),
	_Q15(-0.0022091335),	_Q15(0.0022237299),	_Q15(-0.014527243),	_Q15(0.0026541315),
	_Q15(-0.016407376),	_Q15(-0.008091598),	_Q15(0.00013938925),	_Q15(-0.0019522354),
	_Q15(-0.013487385),	_Q15(-0.0015734509),	_Q15(0.001196804),	_Q15(0.0001263286),
	_Q15(-0.012892548),	_Q15(-0.015954863),	_Q15(-0.0073542004),	_Q15(0.008192301),
	_Q15(0.0069396724),	_Q15(-0.013911184),	_Q15(0.004421857),	_Q15(0.0010749316),
	_Q15(-0.011891107),	_Q15(-0.011054512),	_Q15(-0.005536284),	_Q15(-0.01277152),
	_Q15(-0.01592825),	_Q15(-0.007833509),	_Q15(0.005486333),	_Q15(0.0035390784),
	_Q15(-0.0011647771),	_Q15(0.0022390608),	_Q15(-0.013542255),	_Q15(0.004086901),
	_Q15(-0.01159765),	_Q15(0.0047231065),	_Q15(0.0016772873),	_Q15(-0.0027344876),
	_Q15(-0.016292414),	_Q15(-0.0034431245),	_Q15(-0.0063204244),	_Q15(-0.0030415568),
	_Q15(-0.0131981075),	_Q15(-0.0048925104),	_Q15(0.0024376104),	_Q15(-0.0015958445),
	_Q15(-0.0073367865),	_Q15(0.0040423186),	_Q15(-0.0075697037),	_Q15(-0.006745368),
	_Q15(0.007854175),	_Q15(0.0008537704),	_Q15(-0.014423796),	_Q15(0.0069628023),
	_Q15(-0.0063219853),	_Q15(-0.005013427),	_Q15(0.0050083254),	_Q15(0.008614772),
	_Q15(-0.015402887),	_Q15(-0.0066685397),	_Q15(0.004647229),	_Q15(-0.008383534),
	_Q15(0.0036474587),	_Q15(-0.01106661),	_Q15(-0.0016327435),	_Q15(-0.00426027),
	_Q15(-0.009419166),	_Q15(-0.010895702),	_Q15(-0.0041376576),	_Q15(0.0024780787),
	_Q15(0.008527545),	_Q15(-0.0027053047),	_Q15(0.0003892061),	_Q15(-0.010290373),
	_Q15(-0.0026003923),	_Q15(-0.009192718),	_Q15(-0.01004993),	_Q15(-0.0013934228),
	_Q15(-0.014574126),	_Q15(-0.014102387),	_Q15(-0.008759123),	_Q15(-0.010556092),
	_Q15(-0.01338785),	_Q15(0.0048400713),	_Q15(0.0025545098),	_Q15(-0.0044687362),
	_Q15(-0.0016678232),	_Q15(-0.014297452),	_Q15(-0.008469783),	_Q15(-0.008233171),
	_Q15(-0.006878362),	_Q15(0.005222076),	_Q15(0.00047347692),	_Q15(0.0044383416),
	_Q15(0.0015899292),	_Q15(0.0029236076),	_Q15(-0.0145108625),	_Q15(-0.01462366),
	_Q15(-0.0049052015),	_Q15(-0.014254355),	_Q15(-0.009608097),	_Q15(0.00087409565),
	_Q15(0.006867281),	_Q15(-0.0066200565),	_Q15(-0.002261242),	_Q15(0.008343766),
	_Q15(0.0018682422),	_Q15(-0.01131688),	_Q15(-0.01657006),	_Q15(-0.0023137638),
	_Q15(-0.00828085),	_Q15(-0.015459503),	_Q15(0.0006901501),	_Q15(-0.0141599),
	_Q15(-0.015360161),	_Q15(0.0010985371),	_Q15(0.0046528885),	_Q15(-0.0010845037),
	_Q15(-0.010738241),	_Q15(-0.016038133),	_Q15(0.0026271373),	_Q15(-0.008033378),
	_Q15(-0.0075590764),	_Q15(-0.0062117414),	_Q15(-0.004594333),	_Q15(-0.015478149),
	_Q15(-0.013769881),	_Q15(-0.009407476),	_Q15(-0.004204902),	_Q15(-0.0026066185),
	_Q15(-0.009348888),	_Q15(-0.011350055),	_Q15(-0.015640909),	_Q15(-0.0030133752),
	_Q15(-0.0024572199),	_Q15(0.0035228978),	_Q15(-0.011993158),	_Q15(-0.012087508),
	_Q15(0.0042828494),	_Q15(-0.0049689873),	_Q15(0.0014414869),	_Q15(0.0069950484),
	_Q15(0.0030509275),	_Q15(0.0016411144),	_Q15(-0.009693205),	_Q15(0.002385277),
	_Q15(-0.008917562),	_Q15(-0.013362786),	_Q15(-0.010108458),	_Q15(0.0004367837),
	_Q15(-0.012290687),	_Q15(0.0051238183),	_Q15(-0.007118219),	_Q15(-0.009688816),
	_Q15(-0.011277051),	_Q15(-0.01256044),	_Q15(-0.00057302695),	_Q15(-0.003223056),
	_Q15(-0.005143701),	_Q15(-0.0010251198),	_Q15(0.011097693),	_Q15(-0.0073452154),
	_Q15(-0.014329018),	_Q15(0.0073426273),	_Q15(0.0014100699),	_Q15(0.0077203596),
	_Q15(0.0060534202),	_Q15(0.004461054),	_Q15(0.007746825),	_Q15(-0.010787931),
	_Q15(-0.0031956567),	_Q15(0.0041565364),	_Q15(0.0075372728),	_Q15(-0.012411806),
	_Q15(0.0079672625),	_Q15(0.004387046),	_Q15(-0.012451983),	_Q15(-0.0006976174),
	_Q15(-0.004814914),	_Q15(0.0051677683),	_Q15(-0.007568647),	_Q15(-0.01509096),
	_Q15(0.0075629484),	_Q15(-0.010935515),	_Q15(-0.009162314),	_Q15(-0.003088363),
	_Q15(-0.007303288),	_Q15(0.0067140646),	_Q15(-0.0069649783),	_Q15(-0.007882327),
	_Q15(-0.009127727),	_Q15(-0.012288655),	_Q15(-0.007243424),	_Q15(-0.011653226),
	_Q15(-0.0048985705),	_Q15(-0.0033242097),	_Q15(-0.002812356),	_Q15(0.010064063),
	_Q15(-0.0049599465),	_Q15(-0.013574934),	_Q15(-0.00921934),	_Q15(0.0010757725),
	_Q15(-0.012290217),	_Q15(-0.013749602),	_Q15(0.007145367),	_Q15(-0.01001726),
	_Q15(-0.006708521),	_Q15(-0.004167514),	_Q15(-0.015363404),	_Q15(-0.014300749),
	_Q15(-4.104477e-05),	_Q15(0.005253935),	_Q15(-0.010656158),	_Q15(4.970111e-05),
	_Q15(-0.0002915213),	_Q15(-0.0021067772),	_Q15(-0.01115046),	_Q15(-0.008206889),
	_Q15(0.011138597),	_Q15(-0.014034269),	_Q15(-0.0016879337),	_Q15(-0.0010875694),
	_Q15(-0.0027886154),	_Q15(-0.008614427),	_Q15(-0.013855705),	_Q15(-0.005866985),
	_Q15(-0.010857212),	_Q15(0.0019011917),	_Q15(-0.0006359375),	_Q15(0.0013069974),
	_Q15(-0.0043345587),	_Q15(-0.006554119),	_Q15(0.0026228507),	_Q15(-0.0013173689),
	_Q15(0.0024283854),	_Q15(-0.0071780174),	_Q15(-0.0119531425),	_Q15(0.0040912484),
	_Q15(0.0010541191),	_Q15(0.0038968415),	_Q15(0.0084329),	_Q15(-0.015879324),
	_Q15(0.0055330126),	_Q15(-0.009320572),	_Q15(0.002437708),	_Q15(0.005316113),
	_Q15(0.006015032),	_Q15(0.005587297),	_Q15(-0.012985635),	_Q15(-0.000957991),
	_Q15(-0.013605415),	_Q15(0.0051759067),	_Q15(0.0025015739),	_Q15(-0.014221321),
	_Q15(-0.00041333717),	_Q15(0.008329345),	_Q15(0.0050078197),	_Q15(-0.010840434),
	_Q15(-0.008051028),	_Q15(-0.00058732106),	_Q15(-0.002187217),	_Q15(0.001316948),
	_Q15(0.0021569098),	_Q15(-0.0018605217),	_Q15(-0.014493087),	_Q15(-0.0028168613),
	_Q15(-0.007415353),	_Q15(-0.0031044132),	_Q15(-0.0045628943),	_Q15(-0.007969433),
	_Q15(-0.011068226),	_Q15(-0.0077696294),	_Q15(0.007994869),	_Q15(0.005196427),
	_Q15(-0.001197946),	_Q15(0.0039969445),	_Q15(-0.001663493),	_Q15(0.0042678798),
	_Q15(-0.00553091),	_Q15(-0.002052988),	_Q15(-0.008149394),	_Q15(-0.000117685),
	_Q15(0.003668583),	_Q15(-0.0142113045),	_Q15(0.006792234),	_Q15(-0.011997613),
	_Q15(0.0063620526),	_Q15(0.0004093381),	_Q15(-0.010791359),	_Q15(-0.011405314),
	_Q15(-0.015997946),	_Q15(0.009903184),	_Q15(-0.0073623434),	_Q15(-0.011447425),
	_Q15(-0.0069492958),	_Q15(0.007833675),	_Q15(0.010816579),	_Q15(-0.011656284),
	_Q15(-0.007827767),	_Q15(-0.006886861),	_Q15(-0.0015575839),	_Q15(0.003888118),
	_Q15(-0.002142364),	_Q15(-0.0027267172),	_Q15(0.011945381),	_Q15(0.00925194),
	_Q15(0.0028063627),	_Q15(0.0013696091),	_Q15(0.006743961),	_Q15(-0.00914814),
	_Q15(0.0028306413),	_Q15(0.0015235196),	_Q15(-0.010861832),	_Q15(-0.0005034509),
	_Q15(-0.0068726675),	_Q15(0.010484136),	_Q15(-0.008234781),	_Q15(-0.0012883004),
	_Q15(-0.006336725),	_Q15(0.0073421304),	_Q15(-0.0076526613),	_Q15(-0.0034434146),
	_Q15(-0.01031021),	_Q15(-0.007777334),	_Q15(-0.010968469),	_Q15(-0.016319178),
	_Q15(-0.009120984),	_Q15(0.0027062641),	_Q15(0.0033776388),	_Q15(-0.005838618),
	_Q15(-0.01270578),	_Q15(-0.005518518),	_Q15(-0.0032264115),	_Q15(0.0052230507),
	_Q15(-0.010379099),	_Q15(0.0010011046),	_Q15(-0.0008929577),	_Q15(0.0052527217),
	_Q15(0.0022076666),	_Q15(-0.005457533),	_Q15(0.0042517683),	_Q15(0.003630311),
	_Q15(-0.015863635),	_Q15(-0.00993122),	_Q15(-0.009157206),	_Q15(0.0037849501),
	_Q15(0.04443386),	_Q15(0.0010370229),	_Q15(0.005748307),	_Q15(0.011162043),
	_Q15(0.025623176),	_Q15(0.016987318),	_Q15(0.02519892),	_Q15(0.0001285997),
	_Q15(0.0040371623),	_Q15(-0.001782031),	_Q15(-0.002120954),	_Q15(0.020946369),
	_Q15(0.0021864779),	_Q15(-0.012266947),	_Q15(-0.004406015),	_Q15(-0.005422052),
	_Q15(-0.00010865761),	_Q15(-0.031640526),	_Q15(-0.004553266),	_Q15(0.00020262846),
	_Q15(0.008266779),	_Q15(-0.0037080778),	_Q15(-0.012739713),	_Q15(-0.01968183),
	_Q15(-0.0578648),	_Q15(0.016618326),	_Q15(0.0113773355),	_Q15(-0.006453209),
	_Q15(0.0015832769),	_Q15(0.0056475024),	_Q15(-0.01862415),	_Q15(0.02547978),
	_Q15(0.030005805),	_Q15(-0.0060168016),	_Q15(-0.00066949887),	_Q15(-0.002669699),
	_Q15(0.008400558),	_Q15(0.017022375),	_Q15(0.0031011018),	_Q15(-0.019129796),
	_Q15(0.017848086),	_Q15(0.011960278),	_Q15(0.021394672),	_Q15(-0.0049821176),
	_Q15(0.017087113),	_Q15(-0.020559318),	_Q15(-0.031698953),	_Q15(-0.010099032),
	_Q15(-0.020060474),	_Q15(-0.029789181),	_Q15(-0.009127599),	_Q15(-0.007867033),
	_Q15(-0.015183671),	_Q15(-0.0040034703),	_Q15(-0.009695668),	_Q15(0.0021686796),
	_Q15(-0.01508727),	_Q15(-0.011571036),	_Q15(-0.01949085),	_Q15(-0.0062877084),
	_Q15(-0.0021813859),	_Q15(-0.0041450155),	_Q15(-0.007996553),	_Q15(-0.0072454517),
	_Q15(-0.011415682),	_Q15(-0.00049735006),	_Q15(-0.025486426),	_Q15(-0.0066349264),
	_Q15(-0.02133241),	_Q15(-0.026284032),	_Q15(-0.015131987),	_Q15(-0.022408897),
	_Q15(-0.0033432583),	_Q15(0.01707598),	_Q15(-0.00030106437),	_Q15(0.012355122),
	_Q15(-0.009499636),	_Q15(-0.00077479513),	_Q15(0.014167004),	_Q15(-0.0017603654),
	_Q15(0.018632516),	_Q15(0.016705977),	_Q15(0.009040157),	_Q15(0.009965668),
	_Q15(0.03993102),	_Q15(-0.0046109995),	_Q15(-0.005325193),	_Q15(0.009085896),
	_Q15(0.0025123854),	_Q15(0.0027443129),	_Q15(0.00839086),	_Q15(-0.010022736),
	_Q15(-0.0330957),	_Q15(-0.0077946326),	_Q15(-0.008491176),	_Q15(0.0046894196),
	_Q15(-0.0033435784),	_Q15(-0.014798653),	_Q15(-0.037418704),	_Q15(-0.00849801),
	_Q15(0.0071587516),	_Q15(0.019602254),	_Q15(-0.00028581248),	_Q15(0.00942777),
	_Q15(-0.001110137),	_Q15(0.0028143972),	_Q15(0.009742982),	_Q15(0.016497495),
	_Q15(-0.002682192),	_Q15(0.00048397435),	_Q15(0.0012398728),	_Q15(0.010492858),
	_Q15(-0.0012097037),	_Q15(-0.008521919),	_Q15(0.013434629),	_Q15(-0.01484699),
	_Q15(-0.006904783),	_Q15(-0.024409406),	_Q15(-0.025457965),	_Q15(-0.00025526882),
	_Q15(0.01847113),	_Q15(0.030897235),	_Q15(-0.024065783),	_Q15(-0.03718563),
	_Q15(0.0086678695),	_Q15(0.0026936547),	_Q15(-0.0057067815),	_Q15(-0.016403548),
	_Q15(0.021121232),	_Q15(0.011312633),	_Q15(-0.0036361907),	_Q15(-0.0013911207),
	_Q15(-0.04217519),	_Q15(0.0029400147),	_Q15(0.013460514),	_Q15(0.006643368),
	_Q15(0.0007455738),	_Q15(-0.0071363975),	_Q15(0.01915459),	_Q15(-0.004680594),
	_Q15(-0.006436951),	_Q15(0.013362252),	_Q15(0.0018360424),	_Q15(0.0075049927),
	_Q15(0.0014270272),	_Q15(0.0010477536),	_Q15(0.000618138),	_Q15(0.018226318),
	_Q15(-0.010854516),	_Q15(0.0017573126),	_Q15(-0.009178366),	_Q15(0.019858032),
	_Q15(0.0035141918),	_Q15(0.0035831367),	_Q15(-0.0025444112),	_Q15(0.004261658),
	_Q15(0.013690674),	_Q15(-0.0010619825),	_Q15(-0.00019793634),	_Q15(-0.000227854),
	_Q15(0.0023747338),	_Q15(0.005660052),	_Q15(-0.008956322),	_Q15(0.0045747054),
	_Q15(-0.014772913),	_Q15(-0.0015494544),	_Q15(-0.025463812),	_Q15(0.00036633425),
	_Q15(0.0041866954),	_Q15(-0.02414549),	_Q15(0.00096657965),	_Q15(-0.06659851),
	_Q15(-0.027146265),	_Q15(-0.017063214),	_Q15(0.012895094),	_Q15(-0.0040220814),
	_Q15(-0.0038408455),	_Q15(-0.002310161),	_Q15(-0.0015796301),	_Q15(-0.009856988),
	_Q15(-0.0039578555),	_Q15(-0.013460068),	_Q15(0.01561154),	_Q15(0.011981012),
	_Q15(-0.019556113),	_Q15(-0.012638764),	_Q15(0.035832763),	_Q15(0.031555586),
	_Q15(0.004223144),	_Q15(0.010368135),	_Q15(0.022055548),	_Q15(0.017378418),
	_Q15(0.022719106),	_Q15(0.017214091),	_Q15(-0.005163748),	_Q15(0.008796512),
	_Q15(0.012635369),	_Q15(0.029473722),	_Q15(0.04107864),	_Q15(0.00990728),
	_Q15(0.0032199426),	_Q15(0.016126962),	_Q15(0.022822829),	_Q15(0.032557636),
	_Q15(0.028399263),	_Q15(0.012172866),	_Q15(0.0023502768),	_Q15(0.008079026),
	_Q15(0.0073961276),	_Q15(-0.004313069),	_Q15(0.00096374296),	_Q15(-0.023204321),
	_Q15(-0.0126425),	_Q15(-0.0121896705),	_Q15(-0.01193075),	_Q15(-0.029705852),
	_Q15(-0.018182313),	_Q15(-0.037528127),	_Q15(-0.033237066),	_Q15(-0.0010801204),
	_Q15(0.0014448022),	_Q15(-0.016419617),	_Q15(-0.022320246),	_Q15(0.0029770292),
	_Q15(-0.009742442),	_Q15(-0.0032454606),	_Q15(0.0101686055),	_Q15(0.01559783),
	_Q15(0.0010373358),	_Q15(0.005097361),	_Q15(-0.0047210287),	_Q15(0.03526766),
	_Q15(0.0060298294),	_Q15(0.005293762),	_Q15(-0.0065340665),	_Q15(-0.013256318),
	_Q15(0.012653147),	_Q15(0.008661642),	_Q15(0.0027390425),	_Q15(0.0118296025),
	_Q15(-0.0058998093),	_Q15(0.008249902),	_Q15(-0.00840362),	_Q15(-0.008292111),
	_Q15(0.01384568),	_Q15(-0.014575136),	_Q15(-0.009943443),	_Q15(-0.04001593),
	_Q15(-0.04662167),	_Q15(-0.026768515),	_Q15(-0.02637834),	_Q15(-0.012693615),
	_Q15(0.0051124305),	_Q15(-0.012717451),	_Q15(-0.028795758),	_Q15(-0.02419988),
	_Q15(0.003359663),	_Q15(0.016440503),	_Q15(-0.006521607),	_Q15(-0.023165239),
	_Q15(0.011371359),	_Q15(0.01404481),	_Q15(0.02179725),	_Q15(-0.0027190994),
	_Q15(-0.0033771032),	_Q15(0.014258824),	_Q15(0.00671223),	_Q15(0.019945722),
	_Q15(0.0004542176),	_Q15(0.019277172),	_Q15(-0.0031287817),	_Q15(0.009232788),
	_Q15(0.012644941),	_Q15(0.014724473),	_Q15(0.019356983),	_Q15(0.018097749),
	_Q15(-0.007741277),	_Q15(1.4023652e-05),	_Q15(-0.008487829),	_Q15(0.0025211626),
	_Q15(0.009843141),	_Q15(0.03701575),	_Q15(0.025886117),	_Q15(0.018335015),
	_Q15(0.010068057),	_Q15(-0.007537863),	_Q15(0.0014329944),	_Q15(0.022226362),
	_Q15(0.011695454),	_Q15(0.010827931),	_Q15(0.009869714),	_Q15(0.0071112094),
	_Q15(0.0024633417),	_Q15(0.007997462),	_Q15(0.00632215),	_Q15(-0.013296609),
	_Q15(0.00863329),	_Q15(0.019089809),	_Q15(-0.024237394),	_Q15(-0.023277111),
	_Q15(0.00049314834),	_Q15(0.02073498),	_Q15(0.029767334),	_Q15(0.010778314),
	_Q15(-0.014372091),	_Q15(0.012770745),	_Q15(0.04043516),	_Q15(0.030002052),
	_Q15(0.021249404),	_Q15(0.0031719566),	_Q15(-0.004732838),	_Q15(0.015683645),
	_Q15(0.013630019),	_Q15(0.008696823),	_Q15(0.007121276),	_Q15(0.005055178),
	_Q15(0.023041211),	_Q15(0.0043658023),	_Q15(-0.01804775),	_Q15(-0.00096723734),
	_Q15(0.0050604763),	_Q15(0.019315347),	_Q15(-0.031831328),	_Q15(-0.038640212),
	_Q15(-0.007459682),	_Q15(-0.0034505273),	_Q15(0.02583316),	_Q15(-0.017606394),
	_Q15(-0.022637889),	_Q15(0.006554797),	_Q15(0.0070885676),	_Q15(0.0024409438),
	_Q15(0.014606813),	_Q15(0.018197672),	_Q15(0.000327098),	_Q15(-0.0006189459),
	_Q15(-0.027433423),	_Q15(0.02341594),	_Q15(0.008528665),	_Q15(-0.024244728),
	_Q15(0.007425005),	_Q15(-0.007507297),	_Q15(0.0035085757),	_Q15(0.00524276),
	_Q15(-0.01000029),	_Q15(-0.04143353),	_Q15(-0.057118043),	_Q15(-0.028279804),
	_Q15(-0.009864458),	_Q15(0.000946398),	_Q15(-0.022710321),	_Q15(-0.02172694),
	_Q15(-0.050574105),	_Q15(-0.046390317),	_Q15(-0.007242242),	_Q15(-0.028667087),
	_Q15(-0.020479087),	_Q15(-0.0033550314),	_Q15(-0.021938207),	_Q15(-0.03221974),
	_Q15(0.020217555),	_Q15(0.005925025),	_Q15(-0.0011022746),	_Q15(0.011777208),
	_Q15(0.005386787),	_Q15(0.014537332),	_Q15(0.0075048525),	_Q15(0.018686427),
	_Q15(0.017744817),	_Q15(0.032907203),	_Q15(-0.012439357),	_Q15(-4.1560797e-05),
	_Q15(0.023786608),	_Q15(0.047432806),	_Q15(0.024055611),	_Q15(0.009843716),
	_Q15(-0.0024101443),	_Q15(0.009903519),	_Q15(-0.0016558074),	_Q15(-0.006364411),
	_Q15(0.008527936),	_Q15(0.023960415),	_Q15(0.0045619733),	_Q15(-0.006097893),
	_Q15(-0.0072598816),	_Q15(0.00064689084),	_Q15(0.0007824757),	_Q15(0.014954684),
	_Q15(0.015549905),	_Q15(-0.0103203),	_Q15(0.0003661887),	_Q15(0.0306704),
	_Q15(0.014354645),	_Q15(-0.003061049),	_Q15(-0.0050986107),	_Q15(-0.0007335116),
	_Q15(-0.006115235),	_Q15(0.00496368),	_Q15(0.009430936),	_Q15(0.015945144),
	_Q15(0.013758169),	_Q15(0.0235351),	_Q15(0.022553291),	_Q15(-0.015406425),
	_Q15(-0.015239655),	_Q15(-0.032225486),	_Q15(-0.006417876),	_Q15(0.001672284),
	_Q15(0.012859792),	_Q15(-0.004940217),	_Q15(-0.020215543),	_Q15(-0.024765152),
	_Q15(-0.0015181694),	_Q15(-0.00035640353),	_Q15(0.0028082002),	_Q15(-0.012359063),
	_Q15(-0.01169189),	_Q15(-0.018959383),	_Q15(-0.015451702),	_Q15(-0.03190952),
	_Q15(0.038683034),	_Q15(0.04450087),	_Q15(0.01838478),	_Q15(-0.0006701705),
	_Q15(-0.0077474737),	_Q15(-0.00980432),	_Q15(-0.013708405),	_Q15(-0.0008394663),
	_Q15(0.0038473716),	_Q15(-0.015542565),	_Q15(-0.028920444),	_Q15(0.0012774392),
	_Q15(-0.014072715),	_Q15(0.0008881981),	_Q15(0.003676877),	_Q15(0.045584653),
	_Q15(-0.006907591),	_Q15(0.0101639815),	_Q15(0.009118296),	_Q15(0.017995117),
	_Q15(0.015088428),	_Q15(-0.012127692),	_Q15(0.003584652),	_Q15(0.016790532),
	_Q15(0.013491957),	_Q15(0.017454887),	_Q15(0.006003771),	_Q15(0.009429608),
	_Q15(0.009946509),	_Q15(0.004255847),	_Q15(-0.0005651574),	_Q15(0.018834239),
	_Q15(0.00710214),	_Q15(0.0052099796),	_Q15(0.007909127),	_Q15(0.013647842),
	_Q15(-0.004517522),	_Q15(0.00068267685),	_Q15(0.00046594313),	_Q15(0.012833625),
	_Q15(0.0015813406),	_Q15(-0.00952874),	_Q15(0.0081956005),	_Q15(0.0034237227),
	_Q15(0.025668722),	_Q15(0.0021156212),	_Q15(-0.016477663),	_Q15(0.023376172),
	_Q15(0.011611298),	_Q15(0.009918676),	_Q15(0.016915696),	_Q15(-0.005446427),
	_Q15(-0.023073941),	_Q15(-0.014517006),	_Q15(-0.025448253),	_Q15(0.012142065),
	_Q15(0.00276744),	_Q15(-0.007758006),	_Q15(-0.023495281),	_Q15(-0.006629837),
	_Q15(0.0014880063),	_Q15(-0.0062387898),	_Q15(0.013295819),	_Q15(-0.0037874458),
	_Q15(-0.022263497),	_Q15(0.007082904),	_Q15(-0.019085746),	_Q15(0.006057485),
	_Q15(0.056434087),	_Q15(0.04012825),	_Q15(-0.004946008),	_Q15(-0.0009082555),
	_Q15(-0.0023447792),	_Q15(0.01089458),	_Q15(-0.001642846),	_Q15(0.0005180173),
	_Q15(0.010796013),	_Q15(0.003636475),	_Q15(-0.0098936595),	_Q15(-0.0024350323),
	_Q15(-0.005066442),	_Q15(0.00025368202),	_Q15(-0.017216599),	_Q15(-0.0141689675),
	_Q15(0.021959407),	_Q15(-0.02062174),	_Q15(-0.0061800987),	_Q15(-0.009780911),
	_Q15(-0.02094172),	_Q15(-0.030915486),	_Q15(-0.0015803642),	_Q15(-0.01836103),
	_Q15(0.029905086),	_Q15(0.008794579),	_Q15(-0.005151183),	_Q15(0.010754313),
	_Q15(-0.00048791658),	_Q15(0.000605062),	_Q15(-0.03345954),	_Q15(0.016624082),
	_Q15(0.013112117),	_Q15(0.011852534),	_Q15(0.0032744892),	_Q15(-0.023686333),
	_Q15(-0.0060409973),	_Q15(0.014344279),	_Q15(-0.01681947),	_Q15(-0.018130668),
	_Q15(-0.017616507),	_Q15(-0.0032928823),	_Q15(-0.013309381),	_Q15(0.007651943),
	_Q15(-0.01680237),	_Q15(-0.030595325),	_Q15(-0.0016226344),	_Q15(-0.0046375105),
	_Q15(0.011455147),	_Q15(0.0042317165),	_Q15(-0.035285167),	_Q15(0.0021847154),
	_Q15(-0.0047387765),	_Q15(0.022386527),	_Q15(0.017934311),	_Q15(-0.027415162),
	_Q15(-0.00038395292),	_Q15(-0.016684705),	_Q15(-0.018544007),	_Q15(0.0014394698),
	_Q15(0.016413923),	_Q15(0.010864272),	_Q15(0.007014471),	_Q15(-0.012536418),
	_Q15(-0.0012738559),	_Q15(0.0051342696),	_Q15(0.016267672),	_Q15(-0.00015334623),
	_Q15(-0.0074194004),	_Q15(0.003047085),	_Q15(0.010291628),	_Q15(-0.001073851),
	_Q15(-0.031454355),	_Q15(-0.020802196),	_Q15(0.007801514),	_Q15(-0.0003928234),
	_Q15(0.010012865),	_Q15(-0.0029229373),	_Q15(-0.014972042),	_Q15(-0.008290252),
	_Q15(0.0075620343),	_Q15(0.006632636),	_Q15(0.009814421),	_Q15(0.007403206),
	_Q15(-0.022759035),	_Q15(-0.015001162),	_Q15(0.00814123),	_Q15(0.0030792588),
	_Q15(-0.013991394),	_Q15(-0.00012287003),	_Q15(0.0043828157),	_Q15(0.018984783),
	_Q15(0.015621191),	_Q15(0.015112346),	_Q15(-0.032390293),	_Q15(-0.01332067),
	_Q15(0.0020974549),	_Q15(-0.0017057366),	_Q15(0.059929628),	_Q15(-0.00027469816),
	_Q15(-0.001259655),	_Q15(0.008178134),	_Q15(-0.01704306),	_Q15(0.012152719),
	_Q15(-0.012398962),	_Q15(0.009334666),	_Q15(0.022662416),	_Q15(-0.017628804),
	_Q15(-0.029137557),	_Q15(-0.008068795),	_Q15(0.0050443714),	_Q15(0.012139598),
	_Q15(0.0029177),	_Q15(0.0059619397),	_Q15(0.0026111286),	_Q15(0.007612199),
	_Q15(-0.00848185),	_Q15(-0.004495571),	_Q15(-0.025965102),	_Q15(-0.008481177),
	_Q15(0.014281678),	_Q15(0.014654366),	_Q15(0.0023008364),	_Q15(-0.037958786),
	_Q15(-0.0031266222),	_Q15(0.020409979),	_Q15(0.009892144),	_Q15(0.0071329125),
	_Q15(-0.026195258),	_Q15(-0.023082523),	_Q15(-0.035026874),	_Q15(-0.015385969),
	_Q15(0.033400297),	_Q15(0.020143159),	_Q15(-0.002912229),	_Q15(-0.006716529),
	_Q15(0.018188113),	_Q15(0.006243076),	_Q15(0.010306743),	_Q15(-0.012998013),
	_Q15(0.009447804),	_Q15(-0.006784044),	_Q15(-0.010542572),	_Q15(0.0027872552),
	_Q15(-0.026292717),	_Q15(-0.019052012),	_Q15(-0.015652055),	_Q15(0.01946356),
	_Q15(0.0054561375),	_Q15(-0.000919244),	_Q15(-0.0019305088),	_Q15(0.007815237),
	_Q15(-0.0019190497),	_Q15(-0.003900433),	_Q15(0.0054788264),	_Q15(-0.027865758),
	_Q15(-0.022666737),	_Q15(0.0056431983),	_Q15(0.013315175),	_Q15(0.011304295),
	_Q15(-7.76435e-05),	_Q15(-0.009598469),	_Q15(-0.026643815),	_Q15(0.009344383),
	_Q15(0.004854151),	_Q15(0.0010023677),	_Q15(-0.008746038),	_Q15(0.03909052),
	_Q15(0.002720746),	_Q15(-0.005181422),	_Q15(0.010000105),	_Q15(0.0013673138),
	_Q15(0.042810388),	_Q15(0.027138114),	_Q15(0.010392218),	_Q15(0.0115219215),
	_Q15(0.022060974),	_Q15(0.008821529),	_Q15(0.0013223942),	_Q15(-0.003997427),
	_Q15(0.01899806),	_Q15(0.010327299),	_Q15(-0.0108725075),	_Q15(0.0040651234),
	_Q15(0.008709248),	_Q15(0.014309498),	_Q15(-0.0011253066),	_Q15(0.004588797),
	_Q15(-0.013314119),	_Q15(0.0045195734),	_Q15(-0.0036771388),	_Q15(-0.033592675),
	_Q15(-0.0017912361),	_Q15(-0.0065756263),	_Q15(-0.00017886572),	_Q15(-0.028208347),
	_Q15(-0.04302777),	_Q15(0.022187175),	_Q15(0.01944078),	_Q15(0.02691273),
	_Q15(0.0063757077),	_Q15(0.005483492),	_Q15(-0.0032852702),	_Q15(0.0020771495),
	_Q15(0.024281712),	_Q15(0.0058514345),	_Q15(0.0017393219),	_Q15(0.01453282),
	_Q15(0.009834473),	_Q15(0.008669335),	_Q15(0.0045854882),	_Q15(0.0011520175),
	_Q15(-0.021971414),	_Q15(-0.02239657),	_Q15(-0.005513048),	_Q15(-0.006846851),
	_Q15(-0.00018461395),	_Q15(-0.030946448),	_Q15(-0.020521073),	_Q15(-0.008160653),
	_Q15(-0.015722223),	_Q15(-0.010508022),	_Q15(0.023581088),	_Q15(-0.03705463),
	_Q15(-0.01457685),	_Q15(0.01018871),	_Q15(0.018921474),	_Q15(-0.0023040562),
	_Q15(0.020069638),	_Q15(-0.016162174),	_Q15(-0.0032537684),	_Q15(0.003017501),
	_Q15(-0.00971283),	_Q15(0.0055730124),	_Q15(0.0072740484),	_Q15(-0.020561902),
	_Q15(-0.022361439),	_Q15(-0.002321015),	_Q15(0.0075281914),	_Q15(0.003748073),
	_Q15(0.011772859),	_Q15(-0.0149717545),	_Q15(-0.007550905),	_Q15(0.0012493653),
	_Q15(0.0010935011),	_Q15(0.010696714),	_Q15(0.003246446),	_Q15(-0.019061102),
	_Q15(0.0058808103),	_Q15(0.005950741),	_Q15(0.0017729165),	_Q15(-0.0076813768),
	_Q15(0.0031526042),	_Q15(-0.016112255),	_Q15(-0.001699549),	_Q15(0.0050393324),
	_Q15(0.0053878245),	_Q15(0.0024980376),	_Q15(-0.0216205),	_Q15(-0.023734404),
	_Q15(-0.023574658),	_Q15(0.010444884),	_Q15(-0.002972794),	_Q15(-0.025790745),
	_Q15(0.020361528),	_Q15(-0.0046540624),	_Q15(-0.008306953),	_Q15(0.004931445),
	_Q15(0.011603912),	_Q15(0.0021569105),	_Q15(0.01309483),	_Q15(0.02523784),
	_Q15(0.025768308),	_Q15(0.033917934),	_Q15(0.02801026),	_Q15(-0.002204854),
	_Q15(0.01023229),	_Q15(-0.012572951),	_Q15(0.004687581),	_Q15(0.021167716),
	_Q15(0.041679848),	_Q15(0.045532446),	_Q15(-0.023619765),	_Q15(-0.016683498),
	_Q15(0.0045831683),	_Q15(0.04436766),	_Q15(0.06297289),	_Q15(0.009265844),
	_Q15(0.010363855),	_Q15(0.0068103494),	_Q15(0.00095404993),	_Q15(0.0009354824),
	_Q15(-0.010591041),	_Q15(-0.017731521),	_Q15(-0.005795629),	_Q15(0.0069464445),
	_Q15(-0.0018782662),	_Q15(-0.021451145),	_Q15(0.0052575753),	_Q15(0.00014813691),
	_Q15(-0.01924861),	_Q15(-0.02282583),	_Q15(0.01651731),	_Q15(0.013167115),
	_Q15(-0.02042053),	_Q15(-0.0066742175),	_Q15(0.011530559),	_Q15(0.009935919),
	_Q15(-0.006858588),	_Q15(-0.02381205),	_Q15(-0.019428484),	_Q15(0.015129323),
	_Q15(0.039033383),	_Q15(0.027503295),	_Q15(0.007243368),	_Q15(0.054754164),
	_Q15(0.038598742),	_Q15(0.028074889),	_Q15(0.021443745),	_Q15(0.0099939965),
	_Q15(7.737723e-05),	_Q15(0.031206563),	_Q15(0.028973354),	_Q15(0.05164373),
	_Q15(-0.012876204),	_Q15(-0.030052993),	_Q15(0.0012656017),	_Q15(0.0028441702),
	_Q15(-0.004033654),	_Q15(-0.009107197),	_Q15(-0.023976296),	_Q15(-0.011611291),
	_Q15(-0.0028466836),	_Q15(-0.018116437),	_Q15(-0.0005476359),	_Q15(-0.0060431375),
	_Q15(0.00041504842),	_Q15(0.012218969),	_Q15(0.007881654),	_Q15(0.016067399),
	_Q15(0.010751547),	_Q15(0.030415729),	_Q15(0.026926853),	_Q15(-0.0042220843),
	_Q15(0.012134895),	_Q15(0.0024036567),	_Q15(-0.006565847),	_Q15(-0.0025777807),
	_Q15(-0.0109544825),	_Q15(-0.021841014),	_Q15(-0.007164396),	_Q15(-0.016002247),
	_Q15(0.0027581668),	_Q15(0.0064152637),	_Q15(-0.007171939),	_Q15(-0.021367421),
	_Q15(0.002303428),	_Q15(0.0020798491),	_Q15(0.0042978805),	_Q15(0.005654287),
	_Q15(-0.0037821983),	_Q15(0.011790989),	_Q15(0.011265216),	_Q15(-0.008441945),
	_Q15(0.012572691),	_Q15(0.0048212484),	_Q15(0.005173875),	_Q15(0.0045644105),
	_Q15(-0.015386466),	_Q15(-0.006659535),	_Q15(-0.0334423),	_Q15(-0.033302147),
	_Q15(0.013811939),	_Q15(-0.009552765),	_Q15(0.016081104),	_Q15(-0.0024660565),
	_Q15(-0.008781215),	_Q15(-0.007852866),	_Q15(0.0053208396),	_Q15(0.011558653),
	_Q15(0.011808801),	_Q15(0.0019847397),	_Q15(-0.0022434334),	_Q15(0.02407056),
	_Q15(-0.0074578593),	_Q15(-0.005684427),	_Q15(0.010911326),	_Q15(0.012953371),
	_Q15(-0.0016057324),	_Q15(-0.0030128853),	_Q15(0.0055468203),	_Q15(-0.0018678722),
	_Q15(0.018816674),	_Q15(-0.0064919307),	_Q15(0.0024813418),	_Q15(0.04251951),
	_Q15(0.021899702),	_Q15(-0.005168901),	_Q15(-0.00070888567),	_Q15(0.002739443),
	_Q15(-0.021470794),	_Q15(0.0018822335),	_Q15(-7.687803e-05),	_Q15(-0.002803972),
	_Q15(0.006208318),	_Q15(-0.018730061),	_Q15(-0.006853341),	_Q15(-7.0244816e-05),
	_Q15(0.0086886715),	_Q15(0.019419407),	_Q15(0.0021018572),	_Q15(0.002588891),
	_Q15(0.019862382),	_Q15(0.0071272957),	_Q15(0.0129293995),	_Q15(0.0004519071),
	_Q15(-0.0011179534),	_Q15(0.02143244),	_Q15(0.014074285),	_Q15(0.039547596),
	_Q15(0.04723649),	_Q15(0.015926838),	_Q15(0.015137408),	_Q15(-0.0058960402),
	_Q15(-0.016563512),	_Q15(0.00207953),	_Q15(0.0454978),	_Q15(0.0053201853),
	_Q15(0.031393312),	_Q15(0.009452858),	_Q15(-0.00785673),	_Q15(-0.00884542),
	_Q15(-0.0029750976),	_Q15(0.011727553),	_Q15(0.016848054),	_Q15(0.016333895),
	_Q15(-0.010043381),	_Q15(-0.0070135524),	_Q15(0.007021098),	_Q15(0.029073542),
	_Q15(0.02208585),	_Q15(-0.010919285),	_Q15(0.018838968),	_Q15(0.0011024054),
	_Q15(-0.0029688973),	_Q15(0.02025906),	_Q15(0.018500458),	_Q15(0.0038231593),
	_Q15(-0.0012161497),	_Q15(0.019161358),	_Q15(0.0054342146),	_Q15(-0.005421774),
	_Q15(-0.02783162),	_Q15(-0.01718488),	_Q15(0.030424772),	_Q15(0.035377666),
	_Q15(0.006938357),	_Q15(0.014971417),	_Q15(-0.0015793818),	_Q15(-0.01809905),
	_Q15(0.011428021),	_Q15(-0.0077134673),	_Q15(0.0096731605),	_Q15(-0.009483647),
	_Q15(0.0031881954),	_Q15(0.016759569),	_Q15(-0.014784988),	_Q15(0.0025079232),
	_Q15(0.008191532),	_Q15(-0.012084876),	_Q15(0.004233207),	_Q15(-0.017738098),
	_Q15(0.039816022),	_Q15(0.008715274),	_Q15(-0.015052262),	_Q15(-0.001769379),
	_Q15(-0.008033767),	_Q15(0.007244338),	_Q15(-0.009564288),	_Q15(-0.03068654),
	_Q15(0.028395474),	_Q15(0.024507277),	_Q15(-0.01006058),	_Q15(-0.011132003),
	_Q15(-0.0010282052),	_Q15(0.0059274468),	_Q15(-0.012234642),	_Q15(0.013533739),
	_Q15(-0.00010111131),	_Q15(0.00068576215),	_Q15(0.0055805254),	_Q15(-0.0011802786),
	_Q15(-0.00083791517),	_Q15(-0.031703167),	_Q15(0.03149461),	_Q15(0.003029949),
