#include <params/include/conv2.h>

__ro_hinv mat_t conv2_weight_meta = {
	.dims = {16, 6, 5, 5},
	.len_dims = 4,
	.strides = {150, 25, 5, 1},
	.data = (fixed *)conv2_weight
};

__ro_hinv mat_t conv2_bias_meta = {
	.dims = {1, 16},
	.len_dims = 2,
	.strides = {16, 1},
	.data = (fixed *)conv2_bias
};

__ro_hinv _q15 conv2_weight[] = {
	_Q15(-0.00851397),	_Q15(-0.026306083),	_Q15(-0.025031757),	_Q15(0.011170549),
	_Q15(0.02200292),	_Q15(-0.029741494),	_Q15(-0.029676374),	_Q15(-0.024811482),
	_Q15(0.0072042756),	_Q15(0.018068833),	_Q15(-0.00042785608),	_Q15(0.0034487206),
	_Q15(-0.033831574),	_Q15(-0.0354496),	_Q15(0.0011853963),	_Q15(0.025837185),
	_Q15(-0.027437655),	_Q15(-0.08092242),	_Q15(-0.02592464),	_Q15(-0.02310887),
	_Q15(-0.02905822),	_Q15(-0.024596341),	_Q15(-0.053931724),	_Q15(-0.044709507),
	_Q15(0.010517157),	_Q15(0.011316884),	_Q15(-0.008309252),	_Q15(0.013296047),
	_Q15(0.02927315),	_Q15(0.03221417),	_Q15(0.0036623098),	_Q15(0.03537781),
	_Q15(0.054772966),	_Q15(0.0130160125),	_Q15(-0.009362068),	_Q15(-0.020046687),
	_Q15(0.01007318),	_Q15(0.011046188),	_Q15(0.01185547),	_Q15(0.0044604805),
	_Q15(0.02194622),	_Q15(-0.003833886),	_Q15(-0.03360854),	_Q15(-0.08444349),
	_Q15(-0.07230381),	_Q15(0.026488902),	_Q15(-0.010015189),	_Q15(-0.026628463),
	_Q15(-0.027175993),	_Q15(-0.0075849155),	_Q15(0.009669644),	_Q15(0.024609765),
	_Q15(0.03688609),	_Q15(0.030393323),	_Q15(0.02007315),	_Q15(0.008159132),
	_Q15(0.03149964),	_Q15(0.013259124),	_Q15(0.020631518),	_Q15(0.019882498),
	_Q15(0.039992377),	_Q15(0.026149167),	_Q15(-0.033261813),	_Q15(-0.0864324),
	_Q15(-0.052074656),	_Q15(-0.013397875),	_Q15(-0.032401558),	_Q15(-0.010475051),
	_Q15(0.023106199),	_Q15(0.01978286),	_Q15(-0.0480869),	_Q15(-0.029012375),
	_Q15(0.02585019),	_Q15(0.040787086),	_Q15(0.028694453),	_Q15(0.01118544),
	_Q15(0.026629377),	_Q15(0.0070178234),	_Q15(0.00059077033),	_Q15(-0.0143320495),
	_Q15(0.026296163),	_Q15(0.034887485),	_Q15(0.012562329),	_Q15(-0.0050326358),
	_Q15(0.017391084),	_Q15(0.057830296),	_Q15(0.035867933),	_Q15(0.032029334),
	_Q15(0.004000105),	_Q15(0.004942729),	_Q15(0.013750437),	_Q15(-0.018925682),
	_Q15(-0.01362247),	_Q15(-0.0023870356),	_Q15(0.008290116),	_Q15(-0.0047638873),
	_Q15(0.021941623),	_Q15(0.02303258),	_Q15(0.07695799),	_Q15(0.052200563),
	_Q15(0.004101228),	_Q15(0.010877572),	_Q15(-0.003613929),	_Q15(-0.02249961),
	_Q15(0.018688276),	_Q15(-0.0096886065),	_Q15(-0.036560155),	_Q15(-0.029828498),
	_Q15(-0.014385284),	_Q15(-0.002033666),	_Q15(-0.029970406),	_Q15(-0.010942334),
	_Q15(0.013362525),	_Q15(0.0042767213),	_Q15(0.0027044863),	_Q15(0.019286914),
	_Q15(0.027994616),	_Q15(0.0468878),	_Q15(0.0425627),	_Q15(0.005135359),
	_Q15(0.041114777),	_Q15(-0.00031708318),	_Q15(0.00787097),	_Q15(-0.016087553),
	_Q15(-0.020768797),	_Q15(-0.026382808),	_Q15(-0.026719688),	_Q15(-0.026325922),
	_Q15(-0.008853854),	_Q15(-0.0047608134),	_Q15(-0.045460984),	_Q15(-0.015291853),
	_Q15(-0.029700316),	_Q15(-0.015054897),	_Q15(0.011172393),	_Q15(-0.030875193),
	_Q15(0.0043689837),	_Q15(0.020506548),	_Q15(0.0037111482),	_Q15(0.029517427),
	_Q15(-0.00078697887),	_Q15(0.006914195),	_Q15(0.044703893),	_Q15(0.0005341544),
	_Q15(0.005273095),	_Q15(0.011733424),	_Q15(0.013427201),	_Q15(-0.0043185153),
	_Q15(0.011168163),	_Q15(-0.017011097),	_Q15(0.010865237),	_Q15(0.005065062),
	_Q15(-0.00291872),	_Q15(-0.01885747),	_Q15(0.0075134463),	_Q15(-0.0057230303),
	_Q15(0.0041265814),	_Q15(0.019372612),	_Q15(-0.014149825),	_Q15(0.001017852),
	_Q15(0.006260841),	_Q15(0.013845934),	_Q15(-0.00593834),	_Q15(-0.0005412138),
	_Q15(0.0042923037),	_Q15(-0.039044973),	_Q15(-0.002319711),	_Q15(0.008002982),
	_Q15(0.039292626),	_Q15(-0.0051591205),	_Q15(-0.04636152),	_Q15(-0.016319359),
	_Q15(-0.028711356),	_Q15(0.016002031),	_Q15(0.016509034),	_Q15(-0.006150587),
	_Q15(0.019440684),	_Q15(-0.013983575),	_Q15(-0.0058757043),	_Q15(-0.012582712),
	_Q15(0.028905956),	_Q15(0.05119494),	_Q15(0.030345805),	_Q15(0.022063669),
	_Q15(-0.03257186),	_Q15(0.009064531),	_Q15(0.012852003),	_Q15(0.057375908),
	_Q15(0.04665668),	_Q15(-0.0027937116),	_Q15(-0.016322464),	_Q15(-0.0113914795),
	_Q15(0.026726812),	_Q15(0.05085732),	_Q15(0.043298144),	_Q15(-0.05102854),
	_Q15(-0.02676967),	_Q15(-0.045707066),	_Q15(-0.041890122),	_Q15(-0.0049472987),
	_Q15(0.02370303),	_Q15(0.023378396),	_Q15(0.013421528),	_Q15(-0.0038305202),
	_Q15(-0.0276118),	_Q15(0.021537324),	_Q15(0.010671491),	_Q15(0.00018842146),
	_Q15(0.022391507),	_Q15(0.018620607),	_Q15(0.029178355),	_Q15(0.003918178),
	_Q15(-0.0057834666),	_Q15(0.008682632),	_Q15(0.06536519),	_Q15(-0.009494615),
	_Q15(-0.03397342),	_Q15(-0.06696036),	_Q15(-0.060794275),	_Q15(-0.04364598),
	_Q15(-0.011249772),	_Q15(0.033363786),	_Q15(-0.0066232732),	_Q15(-0.007387943),
	_Q15(-0.025042549),	_Q15(0.022185564),	_Q15(-0.026661843),	_Q15(-0.039177928),
	_Q15(-0.0033675686),	_Q15(-0.038364343),	_Q15(0.020381562),	_Q15(-0.020228742),
	_Q15(-0.008879085),	_Q15(-0.013232338),	_Q15(0.009961051),	_Q15(-0.0036636004),
	_Q15(-0.013497117),	_Q15(-0.0020443846),	_Q15(-0.0073906044),	_Q15(0.023132289),
	_Q15(-0.018146696),	_Q15(-0.029536387),	_Q15(-0.020135133),	_Q15(0.015160325),
	_Q15(0.0068503357),	_Q15(-0.0048862863),	_Q15(-0.00043553577),	_Q15(-0.026533939),
	_Q15(0.010178693),	_Q15(-0.0032919534),	_Q15(-0.033865713),	_Q15(-0.010478105),
	_Q15(-0.004518352),	_Q15(-0.0007904675),	_Q15(-0.009689795),	_Q15(-0.030945841),
	_Q15(-0.03618073),	_Q15(-0.004704658),	_Q15(-0.014853412),	_Q15(0.01657447),
	_Q15(0.019007795),	_Q15(-0.002545537),	_Q15(-0.015860142),	_Q15(-0.030350622),
	_Q15(-0.01120679),	_Q15(0.032573003),	_Q15(0.027112737),	_Q15(0.0065886755),
	_Q15(0.021165105),	_Q15(0.014232802),	_Q15(0.009050325),	_Q15(0.01236583),
	_Q15(0.010843804),	_Q15(0.0039562625),	_Q15(0.020724766),	_Q15(-0.0046181562),
	_Q15(-0.027334748),	_Q15(-0.0022337635),	_Q15(0.0031718654),	_Q15(0.019278917),
	_Q15(-0.0229005),	_Q15(-0.035466436),	_Q15(-0.03690833),	_Q15(-0.013818818),
	_Q15(0.005259315),	_Q15(-0.015204829),	_Q15(0.00074034487),	_Q15(-0.012260392),
	_Q15(0.00027826236),	_Q15(0.005749328),	_Q15(0.023106571),	_Q15(0.015557247),
	_Q15(0.019415665),	_Q15(-0.0013632106),	_Q15(0.018589024),	_Q15(0.015286416),
	_Q15(0.029433468),	_Q15(0.0011616484),	_Q15(0.006269923),	_Q15(0.022577643),
	_Q15(0.0011134461),	_Q15(0.012347934),	_Q15(-0.0019071214),	_Q15(-0.03162262),
	_Q15(-0.038888205),	_Q15(0.014488772),	_Q15(0.011271439),	_Q15(0.027631499),
	_Q15(0.018129265),	_Q15(-0.031794354),	_Q15(-0.008754035),	_Q15(0.0023755366),
	_Q15(0.04230254),	_Q15(0.029228656),	_Q15(0.008279525),	_Q15(0.028321642),
	_Q15(0.041979108),	_Q15(0.019448297),	_Q15(0.026075551),	_Q15(-0.017263377),
	_Q15(0.012643547),	_Q15(0.03244215),	_Q15(0.026737306),	_Q15(0.014593031),
	_Q15(0.009904419),	_Q15(0.0032334318),	_Q15(-0.03110349),	_Q15(-0.014384073),
	_Q15(-0.010026466),	_Q15(-0.02468456),	_Q15(0.0019666867),	_Q15(-0.013323124),
	_Q15(-0.04178816),	_Q15(-0.036158025),	_Q15(-0.0314069),	_Q15(-0.04585527),
	_Q15(-0.038575973),	_Q15(-0.007629297),	_Q15(-0.007023311),	_Q15(-0.0033801808),
	_Q15(-0.018317482),	_Q15(0.011201686),	_Q15(0.040771928),	_Q15(0.031140849),
	_Q15(0.006071736),	_Q15(0.00704081),	_Q15(0.018967079),	_Q15(0.032685928),
	_Q15(0.02602618),	_Q15(0.016389154),	_Q15(-0.037819605),	_Q15(-0.03562306),
	_Q15(-0.0062150606),	_Q15(0.0023359263),	_Q15(0.029018458),	_Q15(-0.009360866),
	_Q15(-0.010301158),	_Q15(-0.006913915),	_Q15(0.042103074),	_Q15(0.016871756),
	_Q15(-0.005881558),	_Q15(0.01733456),	_Q15(0.033224367),	_Q15(0.040143248),
	_Q15(0.043553133),	_Q15(0.0095372),	_Q15(0.022903502),	_Q15(0.033774663),
	_Q15(0.01531594),	_Q15(0.01618719),	_Q15(0.044137396),	_Q15(0.014453343),
	_Q15(0.007977195),	_Q15(0.0016314307),	_Q15(-0.012683545),	_Q15(-0.022444349),
	_Q15(-0.028210258),	_Q15(0.009638386),	_Q15(0.030210592),	_Q15(0.02930009),
	_Q15(-0.010687914),	_Q15(-0.0054552173),	_Q15(0.013372812),	_Q15(0.021241248),
	_Q15(0.010714994),	_Q15(-0.027751422),	_Q15(-0.026868062),	_Q15(-0.017999733),
	_Q15(-0.0034404728),	_Q15(0.022799823),	_Q15(0.01114673),	_Q15(-0.0034881025),
	_Q15(-0.008862057),	_Q15(-0.024246022),	_Q15(0.03206662),	_Q15(0.04868034),
	_Q15(0.017092444),	_Q15(0.0039407965),	_Q15(-0.011455128),	_Q15(0.0011230698),
	_Q15(0.020036291),	_Q15(0.0150994295),	_Q15(0.014919852),	_Q15(0.0034755778),
	_Q15(0.018084077),	_Q15(0.030009871),	_Q15(-0.0070569837),	_Q15(0.028533895),
	_Q15(0.027482463),	_Q15(0.023225872),	_Q15(0.007108229),	_Q15(-0.012763275),
	_Q15(-6.981721e-05),	_Q15(-0.018399917),	_Q15(-0.0063595525),	_Q15(0.006397525),
	_Q15(-0.03042229),	_Q15(-0.028406596),	_Q15(-0.024582302),	_Q15(-0.025161594),
	_Q15(-0.024178358),	_Q15(-0.03770371),	_Q15(-0.0023724681),	_Q15(0.0036499347),
	_Q15(-0.011817918),	_Q15(0.02555356),	_Q15(0.020788299),	_Q15(0.020497045),
	_Q15(0.00492356),	_Q15(-0.013908125),	_Q15(0.008765751),	_Q15(0.02952862),
	_Q15(0.0136776),	_Q15(0.012808443),	_Q15(-0.014732946),	_Q15(0.01576872),
	_Q15(-0.004336708),	_Q15(0.011895255),	_Q15(0.014400201),	_Q15(-0.0043108985),
	_Q15(-0.0029558567),	_Q15(0.0075927703),	_Q15(-0.017142696),	_Q15(0.0005462678),
	_Q15(-0.0063812877),	_Q15(-0.026164932),	_Q15(-0.024834715),	_Q15(-0.026974896),
	_Q15(-0.018099623),	_Q15(0.011385156),	_Q15(-0.025847336),	_Q15(-0.03806128),
	_Q15(-0.018651936),	_Q15(0.025352752),	_Q15(0.016099721),	_Q15(-0.035633616),
	_Q15(-0.02039829),	_Q15(-0.010642735),	_Q15(-0.013321272),	_Q15(-0.018922696),
	_Q15(-0.010511671),	_Q15(-0.009921175),	_Q15(-0.0016569745),	_Q15(-0.019834392),
	_Q15(-0.0052094837),	_Q15(-0.0018168194),	_Q15(0.0011525748),	_Q15(-0.012016638),
	_Q15(-0.035371095),	_Q15(-0.013385978),	_Q15(0.029175762),	_Q15(0.050511),
	_Q15(-0.015952999),	_Q15(-0.03038274),	_Q15(-0.033118796),	_Q15(0.0023004124),
	_Q15(-0.021538444),	_Q15(-0.0010923747),	_Q15(0.040612668),	_Q15(0.039148785),
	_Q15(-0.03346538),	_Q15(-0.020008408),	_Q15(0.02917968),	_Q15(0.03391681),
	_Q15(0.026907235),	_Q15(-0.041406244),	_Q15(-0.043762397),	_Q15(-0.013047662),
	_Q15(0.015688432),	_Q15(-0.005126888),	_Q15(-0.022885337),	_Q15(-0.07178974),
	_Q15(-0.018620731),	_Q15(-0.021176264),	_Q15(0.0010380254),	_Q15(0.026041273),
	_Q15(-0.043367274),	_Q15(-0.027481051),	_Q15(-0.016201066),	_Q15(0.0029824816),
	_Q15(-0.044149898),	_Q15(0.020744383),	_Q15(0.04268697),	_Q15(0.029212661),
	_Q15(0.0066943397),	_Q15(-0.03075098),	_Q15(0.036835708),	_Q15(0.019817108),
	_Q15(-0.013279583),	_Q15(-0.004941702),	_Q15(-0.0016598288),	_Q15(0.025352525),
	_Q15(0.0084339725),	_Q15(-0.01283617),	_Q15(-0.011676012),	_Q15(0.043635465),
	_Q15(0.0221679),	_Q15(-0.014627565),	_Q15(-0.006478869),	_Q15(-0.009508259),
	_Q15(0.025632728),	_Q15(-0.004728941),	_Q15(-0.020132046),	_Q15(0.0018306272),
	_Q15(-0.009329636),	_Q15(-0.021713521),	_Q15(0.007715598),	_Q15(0.049159836),
	_Q15(0.020721497),	_Q15(0.001774463),	_Q15(0.022991387),	_Q15(0.06749629),
	_Q15(0.033747073),	_Q15(0.0149744805),	_Q15(0.006555428),	_Q15(0.051732082),
	_Q15(0.03640488),	_Q15(0.043738022),	_Q15(0.00406545),	_Q15(0.010006917),
	_Q15(0.02435307),	_Q15(0.01792056),	_Q15(0.008843564),	_Q15(-0.0074939043),
	_Q15(-0.010236682),	_Q15(-0.01595489),	_Q15(-0.012958662),	_Q15(-0.02626954),
	_Q15(-0.0036716287),	_Q15(0.021246066),	_Q15(0.009566285),	_Q15(0.024118038),
	_Q15(0.01850264),	_Q15(0.0009339003),	_Q15(0.0032846166),	_Q15(0.044332597),
	_Q15(-0.012142097),	_Q15(-0.001564745),	_Q15(-0.017256506),	_Q15(0.0068700383),
	_Q15(0.025301445),	_Q15(-0.016243106),	_Q15(0.007775712),	_Q15(0.0005822487),
	_Q15(-0.0081888735),	_Q15(0.015654158),	_Q15(-0.016893886),	_Q15(0.008187553),
	_Q15(-0.008132504),	_Q15(-0.0018978671),	_Q15(-0.007897827),	_Q15(-0.023197925),
	_Q15(-0.005527331),	_Q15(0.013101967),	_Q15(0.018780528),	_Q15(0.033481997),
	_Q15(0.010721757),	_Q15(-0.02808964),	_Q15(-0.04153838),	_Q15(-0.040210284),
	_Q15(0.020318571),	_Q15(-0.028430441),	_Q15(-0.017814357),	_Q15(-0.028503006),
	_Q15(-0.017897207),	_Q15(0.013113879),	_Q15(-0.0091890395),	_Q15(-0.026123067),
	_Q15(0.00034193753),	_Q15(0.0104892375),	_Q15(0.03586119),	_Q15(-0.012367329),
	_Q15(-0.011317206),	_Q15(0.0139328055),	_Q15(0.013089241),	_Q15(0.019148912),
	_Q15(0.017467564),	_Q15(0.001377108),	_Q15(0.008395649),	_Q15(0.008463812),
	_Q15(-0.024087233),	_Q15(0.014131338),	_Q15(0.028697869),	_Q15(0.0020959731),
	_Q15(0.020403601),	_Q15(0.00014876692),	_Q15(0.013266984),	_Q15(-0.00411869),
	_Q15(-0.032561988),	_Q15(0.00021057602),	_Q15(-0.011680245),	_Q15(-0.025058806),
	_Q15(-0.061763007),	_Q15(-0.05352175),	_Q15(-0.054516517),	_Q15(-0.021157682),
	_Q15(-0.02306022),	_Q15(-0.046434417),	_Q15(-0.067204066),	_Q15(-0.029210337),
	_Q15(0.010083955),	_Q15(0.029198613),	_Q15(0.00087530253),	_Q15(-0.031069817),
	_Q15(-0.02338747),	_Q15(-0.03212821),	_Q15(-0.006912967),	_Q15(-0.006226217),
	_Q15(0.028200218),	_Q15(0.03288535),	_Q15(-0.01216558),	_Q15(0.00037251937),
	_Q15(0.02644178),	_Q15(-0.001917596),	_Q15(-0.048377547),	_Q15(-0.05411292),
	_Q15(-0.066812895),	_Q15(-0.055592213),	_Q15(-0.027013194),	_Q15(-0.042663872),
	_Q15(0.034572594),	_Q15(-0.005605353),	_Q15(-0.026099201),	_Q15(-0.020371396),
	_Q15(0.012553183),	_Q15(0.00449542),	_Q15(0.025759067),	_Q15(0.011915505),
	_Q15(-0.009333344),	_Q15(-0.030089715),	_Q15(0.0013718819),	_Q15(0.011145554),
	_Q15(0.009073596),	_Q15(-0.049791154),	_Q15(-0.05454247),	_Q15(-0.0030327712),
	_Q15(-0.03875491),	_Q15(-0.027818518),	_Q15(-0.03494868),	_Q15(-0.034022655),
	_Q15(0.023740157),	_Q15(0.005711584),	_Q15(-0.020132793),	_Q15(-0.0046614995),
	_Q15(0.013318946),	_Q15(0.014895457),	_Q15(0.051972892),	_Q15(0.06217517),
	_Q15(0.027136952),	_Q15(0.017966792),	_Q15(0.0062855976),	_Q15(-0.0011094428),
	_Q15(0.029854806),	_Q15(0.048396066),	_Q15(0.045188848),	_Q15(0.0313743),
	_Q15(0.020802166),	_Q15(0.007904373),	_Q15(-0.017988183),	_Q15(-0.020901846),
	_Q15(0.05539211),	_Q15(0.050720043),	_Q15(-0.007920412),	_Q15(-0.02095513),
	_Q15(-0.030061333),	_Q15(0.008755968),	_Q15(0.018888265),	_Q15(0.02304067),
	_Q15(0.022641458),	_Q15(0.02831735),	_Q15(0.035179447),	_Q15(0.024812393),
	_Q15(0.04906664),	_Q15(0.036147006),	_Q15(0.024636405),	_Q15(0.0034644376),
	_Q15(0.02599514),	_Q15(0.0048626577),	_Q15(0.01741098),	_Q15(0.0042305444),
	_Q15(-0.020685934),	_Q15(-0.01824714),	_Q15(-0.0036803377),	_Q15(-0.012540646),
	_Q15(0.0062902085),	_Q15(0.026302755),	_Q15(-0.014794574),	_Q15(0.012114163),
	_Q15(-0.0010960932),	_Q15(0.0035697613),	_Q15(-0.012962034),	_Q15(0.005001392),
	_Q15(0.0192842),	_Q15(0.009414739),	_Q15(0.027263511),	_Q15(-0.023989266),
	_Q15(-0.018097669),	_Q15(0.004298196),	_Q15(0.013387873),	_Q15(0.001873808),
	_Q15(0.005278597),	_Q15(0.0017149148),	_Q15(-0.013957465),	_Q15(-0.0073187067),
	_Q15(-0.001504071),	_Q15(-0.024123162),	_Q15(-0.01873193),	_Q15(0.021797415),
	_Q15(0.009249682),	_Q15(-0.017679589),	_Q15(0.021362154),	_Q15(0.015428327),
	_Q15(0.0005811513),	_Q15(0.023320336),	_Q15(0.0050997837),	_Q15(0.028669002),
	_Q15(0.0006335534),	_Q15(0.03697548),	_Q15(0.00845921),	_Q15(0.022645876),
	_Q15(-0.012987772),	_Q15(-0.0023493066),	_Q15(-0.0037397717),	_Q15(0.017937414),
	_Q15(0.0037713996),	_Q15(-0.016568137),	_Q15(-0.004492064),	_Q15(-0.021330388),
	_Q15(-0.00819316),	_Q15(0.01254557),	_Q15(0.007455038),	_Q15(0.03796259),
	_Q15(0.03153421),	_Q15(0.043816164),	_Q15(-0.0116808),	_Q15(0.025545608),
	_Q15(0.014819997),	_Q15(0.059746306),	_Q15(0.06819022),	_Q15(0.003672073),
	_Q15(0.035256013),	_Q15(-0.042731676),	_Q15(0.007231027),	_Q15(0.02987884),
	_Q15(0.01856351),	_Q15(0.02853744),	_Q15(0.0035498776),	_Q15(-0.012498808),
	_Q15(0.0075873416),	_Q15(-0.015415365),	_Q15(0.031628147),	_Q15(0.034861133),
	_Q15(0.020924972),	_Q15(0.015284453),	_Q15(-0.004567401),	_Q15(-0.012617782),
	_Q15(-0.026347524),	_Q15(-0.0072597973),	_Q15(0.04244348),	_Q15(-0.014709563),
	_Q15(0.02812578),	_Q15(-0.012476071),	_Q15(-0.06518282),	_Q15(0.02586833),
	_Q15(0.035644528),	_Q15(-0.022171527),	_Q15(-0.001765582),	_Q15(-0.04051059),
	_Q15(-0.0005641155),	_Q15(0.021893667),	_Q15(-0.019100947),	_Q15(-0.008436163),
	_Q15(-0.07006275),	_Q15(-0.034226794),	_Q15(0.05472118),	_Q15(0.029906908),
	_Q15(0.0071666385),	_Q15(0.017377384),	_Q15(0.0152792595),	_Q15(0.046626057),
	_Q15(0.015533485),	_Q15(-0.00035367723),	_Q15(-0.06359023),	_Q15(-0.02715285),
	_Q15(-0.04130336),	_Q15(-0.010770184),	_Q15(0.0049906103),	_Q15(-0.014114426),
	_Q15(-0.02033478),	_Q15(-0.029876066),	_Q15(0.015524311),	_Q15(-0.0072918106),
	_Q15(0.003462635),	_Q15(-0.024033131),	_Q15(-0.030818507),	_Q15(0.013966848),
	_Q15(0.009851517),	_Q15(0.041632593),	_Q15(0.022750854),	_Q15(-0.0037877029),
	_Q15(0.01447934),	_Q15(0.049870674),	_Q15(0.037553605),	_Q15(0.007457775),
	_Q15(-0.020993592),	_Q15(-0.0449197),	_Q15(-0.053619027),	_Q15(-0.021177778),
	_Q15(-0.010820564),	_Q15(0.0012549511),	_Q15(-0.033316303),	_Q15(-0.010087262),
	_Q15(-0.037508626),	_Q15(-0.028138869),	_Q15(-0.02497541),	_Q15(-0.0274597),
	_Q15(-0.027061699),	_Q15(-0.036273006),	_Q15(-0.034985304),	_Q15(-0.015772486),
	_Q15(-0.024648203),	_Q15(-0.015508492),	_Q15(0.030969102),	_Q15(0.003788992),
	_Q15(-0.020716997),	_Q15(0.016562963),	_Q15(0.026202576),	_Q15(0.01013018),
	_Q15(0.00688383),	_Q15(-0.011914275),	_Q15(-0.00056821754),	_Q15(0.0069729663),
	_Q15(-0.022150606),	_Q15(-0.02646681),	_Q15(-0.019643841),	_Q15(0.012382489),
	_Q15(0.015477699),	_Q15(0.019963026),	_Q15(-0.023369817),	_Q15(-0.00104384),
	_Q15(0.017210536),	_Q15(-0.0020114174),	_Q15(0.031349037),	_Q15(-0.010748786),
	_Q15(-0.008944207),	_Q15(0.011622912),	_Q15(0.01527179),	_Q15(-0.006090462),
	_Q15(-0.015596268),	_Q15(-0.016617062),	_Q15(-0.042914744),	_Q15(-0.028620966),
	_Q15(-0.03210741),	_Q15(-0.020932565),	_Q15(-0.015977865),	_Q15(0.013312581),
	_Q15(0.016641792),	_Q15(-0.005802138),	_Q15(0.012097855),	_Q15(-0.0059007565),
	_Q15(0.025834646),	_Q15(-0.0009558508),	_Q15(0.020883415),	_Q15(0.007479696),
	_Q15(-0.01646237),	_Q15(0.017104544),	_Q15(0.0239455),	_Q15(0.020031322),
	_Q15(-0.00012476712),	_Q15(-0.015789099),	_Q15(0.0033560612),	_Q15(-0.0076424247),
	_Q15(0.0147074),	_Q15(-0.016992098),	_Q15(-0.0011105781),	_Q15(-0.018061824),
	_Q15(-0.0145439245),	_Q15(-0.012964904),	_Q15(-0.030909324),	_Q15(0.014956633),
	_Q15(3.099162e-05),	_Q15(0.008342888),	_Q15(0.026077611),	_Q15(-0.01901707),
	_Q15(-0.02291998),	_Q15(0.0069567305),	_Q15(0.002136363),	_Q15(-0.013901046),
	_Q15(-0.0048215673),	_Q15(-0.01081115),	_Q15(0.0032886923),	_Q15(0.015439844),
	_Q15(0.006827948),	_Q15(0.01264953),	_Q15(-0.020322265),	_Q15(0.01840401),
	_Q15(0.02996821),	_Q15(-0.028192095),	_Q15(-0.018413309),	_Q15(-0.02253299),
	_Q15(0.0060480386),	_Q15(0.023160733),	_Q15(0.013607939),	_Q15(-0.039694574),
	_Q15(-0.022701478),	_Q15(-0.018679893),	_Q15(-0.032837626),	_Q15(0.008031447),
	_Q15(0.014169375),	_Q15(0.019411555),	_Q15(0.008368465),	_Q15(-0.022114467),
	_Q15(-0.025530778),	_Q15(0.01004569),	_Q15(0.032139253),	_Q15(0.032520596),
	_Q15(0.019239921),	_Q15(0.0010526694),	_Q15(-0.02025402),	_Q15(0.038589615),
	_Q15(0.04887097),	_Q15(0.046056286),	_Q15(0.0211682),	_Q15(0.00847211),
	_Q15(0.01603088),	_Q15(0.031247634),	_Q15(0.03412806),	_Q15(0.046531573),
	_Q15(0.029363956),	_Q15(-0.008142865),	_Q15(-0.00546987),	_Q15(-0.011520772),
	_Q15(-0.024879517),	_Q15(0.022337737),	_Q15(0.060407013),	_Q15(0.02816516),
	_Q15(0.0039242567),	_Q15(-0.01563424),	_Q15(0.048201885),	_Q15(0.039420713),
	_Q15(-0.011200268),	_Q15(0.0034640566),	_Q15(0.036673106),	_Q15(0.018999597),
	_Q15(-0.01411487),	_Q15(-0.050335128),	_Q15(-0.014363064),	_Q15(0.018958911),
	_Q15(-0.00036211347),	_Q15(-0.02360083),	_Q15(-0.0013596214),	_Q15(-0.044636097),
	_Q15(-0.07524679),	_Q15(-0.08020897),	_Q15(-0.011858411),	_Q15(-0.030560741),
	_Q15(0.013733953),	_Q15(0.0067539634),	_Q15(-0.0066643483),	_Q15(0.017565323),
	_Q15(-0.016344437),	_Q15(0.023089165),	_Q15(0.03439114),	_Q15(0.058031294),
	_Q15(0.034120355),	_Q15(-0.003955985),	_Q15(-0.012610778),	_Q15(0.037325934),
	_Q15(0.04565607),	_Q15(0.0069528897),	_Q15(-0.021871692),	_Q15(-0.020945432),
	_Q15(0.026143622),	_Q15(0.020287879),	_Q15(0.02050316),	_Q15(0.008700442),
	_Q15(-0.030239282),	_Q15(-0.028028022),	_Q15(-0.04804784),	_Q15(-0.015902365),
	_Q15(-0.0046870788),	_Q15(0.030503076),	_Q15(-0.016632356),	_Q15(-0.015342554),
	_Q15(0.009436892),	_Q15(-0.030947406),	_Q15(0.016312309),	_Q15(0.015143331),
	_Q15(-0.029649552),	_Q15(-0.031694636),	_Q15(-0.032930262),	_Q15(0.008768975),
	_Q15(-0.010212979),	_Q15(-0.0028901882),	_Q15(0.0065504187),	_Q15(-0.017692791),
	_Q15(-0.012054566),	_Q15(-0.017543886),	_Q15(-0.013052642),	_Q15(-0.008104173),
	_Q15(-0.025794614),	_Q15(-0.036191538),	_Q15(-0.002557435),	_Q15(0.013885492),
	_Q15(0.028693788),	_Q15(0.022952847),	_Q15(0.021758232),	_Q15(0.0072193765),
	_Q15(-0.009272562),	_Q15(-0.014490065),	_Q15(0.002804792),	_Q15(-0.0050944686),
	_Q15(0.009502065),	_Q15(-0.0053887507),	_Q15(0.0018177007),	_Q15(-0.00028546367),
	_Q15(-0.01379471),	_Q15(-0.0139095485),	_Q15(-0.009961597),	_Q15(-0.0054270355),
	_Q15(-0.029443296),	_Q15(-0.028565086),	_Q15(-0.01064238),	_Q15(-0.0040928293),
	_Q15(0.0094797015),	_Q15(-0.03405441),	_Q15(-0.033311494),	_Q15(0.014310361),
	_Q15(0.008828834),	_Q15(0.013195012),	_Q15(-0.038305208),	_Q15(-0.032422945),
	_Q15(-0.007790648),	_Q15(0.0040604523),	_Q15(0.032344643),	_Q15(-0.03263367),
	_Q15(-0.04379299),	_Q15(0.010980588),	_Q15(0.03715235),	_Q15(-0.0150711),
	_Q15(-0.01349414),	_Q15(-0.047008403),	_Q15(-0.0060028513),	_Q15(0.044354383),
	_Q15(0.012015953),	_Q15(0.032389052),	_Q15(-0.0030541846),	_Q15(-0.024071964),
	_Q15(0.003854306),	_Q15(0.034288764),	_Q15(0.049283538),	_Q15(0.0020542855),
	_Q15(-0.023245446),	_Q15(0.0015227535),	_Q15(0.031631302),	_Q15(-0.03468505),
	_Q15(-0.0007334658),	_Q15(-0.038315337),	_Q15(-0.004586108),	_Q15(-0.0070518553),
	_Q15(-0.005683375),	_Q15(-0.003768823),	_Q15(-0.034189463),	_Q15(0.010372365),
	_Q15(0.03214962),	_Q15(0.0029907334),	_Q15(0.011979022),	_Q15(-0.038583044),
	_Q15(-0.044634648),	_Q15(0.010003268),	_Q15(0.022924516),	_Q15(0.029651213),
	_Q15(-0.014494861),	_Q15(-0.062249973),	_Q15(0.024111575),	_Q15(0.0063372473),
	_Q15(0.04507898),	_Q15(-0.00010768906),	_Q15(-0.050181016),	_Q15(0.0045430334),
	_Q15(0.012040628),	_Q15(-0.012990308),	_Q15(0.015592595),	_Q15(0.027441854),
	_Q15(0.0063519855),	_Q15(0.002717455),	_Q15(0.0074117277),	_Q15(0.0073830285),
	_Q15(0.0147648845),	_Q15(0.032850754),	_Q15(-0.030353464),	_Q15(-0.0067116),
	_Q15(0.033137213),	_Q15(-0.017701676),	_Q15(-0.036633994),	_Q15(-0.023658304),
	_Q15(-0.03698275),	_Q15(0.037502512),	_Q15(0.0040459638),	_Q15(-0.074309),
	_Q15(-0.018141817),	_Q15(-0.037953842),	_Q15(0.00962425),	_Q15(-0.0023842645),
	_Q15(-0.04007762),	_Q15(0.006964449),	_Q15(0.007660857),	_Q15(0.014204029),
	_Q15(0.0067675216),	_Q15(-0.029558953),	_Q15(-0.0067685735),	_Q15(0.0015679726),
	_Q15(0.028108535),	_Q15(-0.010970095),	_Q15(-0.051612318),	_Q15(-0.04098627),
	_Q15(0.0013356402),	_Q15(-0.00056454714),	_Q15(-0.02500534),	_Q15(-0.04031627),
	_Q15(-0.047088925),	_Q15(-0.0345436),	_Q15(-0.016654389),	_Q15(-0.024297861),
	_Q15(-0.058735713),	_Q15(-0.023102092),	_Q15(-0.042916764),	_Q15(0.017820377),
	_Q15(-0.023305468),	_Q15(-0.048664503),	_Q15(0.015220529),	_Q15(0.006957185),
	_Q15(0.013285371),	_Q15(-0.011016107),	_Q15(-0.0059154946),	_Q15(-0.009369232),
	_Q15(0.0065310197),	_Q15(-0.02090863),	_Q15(0.0011557727),	_Q15(0.0077823605),
	_Q15(0.004732985),	_Q15(-0.009684685),	_Q15(0.015991284),	_Q15(0.009025889),
	_Q15(-0.0062577375),	_Q15(-0.016959326),	_Q15(0.004079516),	_Q15(-0.0014688914),
	_Q15(0.026427666),	_Q15(0.0068180235),	_Q15(-0.015455463),	_Q15(-0.006264536),
	_Q15(0.009921806),	_Q15(0.016134253),	_Q15(0.025830744),	_Q15(-0.005898743),
	_Q15(0.014208777),	_Q15(0.011425569),	_Q15(0.0105725555),	_Q15(-0.01236379),
	_Q15(-0.0049985927),	_Q15(0.0245698),	_Q15(0.014650019),	_Q15(-0.0024907372),
	_Q15(0.023406576),	_Q15(-0.0087379385),	_Q15(0.030603964),	_Q15(0.01024256),
	_Q15(0.008376993),	_Q15(-0.001910631),	_Q15(-0.0009989069),	_Q15(-0.0052698674),
	_Q15(0.024745056),	_Q15(0.021800082),	_Q15(-0.012113168),	_Q15(-0.018388933),
	_Q15(-0.029651253),	_Q15(0.02079801),	_Q15(0.007961128),	_Q15(0.020466583),
	_Q15(-0.004036538),	_Q15(0.011932335),	_Q15(-0.006527137),	_Q15(0.004083933),
	_Q15(-0.022535017),	_Q15(-0.006568901),	_Q15(0.009093566),	_Q15(0.01189233),
	_Q15(0.02255337),	_Q15(-0.025994351),	_Q15(0.00811863),	_Q15(-0.0054895263),
	_Q15(0.0027660395),	_Q15(-0.016485034),	_Q15(-0.017814467),	_Q15(0.005661505),
	_Q15(-0.023970118),	_Q15(-0.03918868),	_Q15(-0.03445486),	_Q15(-0.0029490925),
	_Q15(0.025246235),	_Q15(-0.002573229),	_Q15(-0.024738276),	_Q15(-0.0057467576),
	_Q15(-0.0018896023),	_Q15(0.031405725),	_Q15(0.016967248),	_Q15(0.024695128),
	_Q15(0.03326693),	_Q15(0.024429064),	_Q15(0.00962044),	_Q15(0.022754071),
	_Q15(0.032638937),	_Q15(0.0039459397),	_Q15(-0.046130538),	_Q15(-0.0076897647),
	_Q15(-0.0228756),	_Q15(-0.039445236),	_Q15(-0.062131308),	_Q15(-0.03589642),
	_Q15(-0.022367107),	_Q15(-0.056535594),	_Q15(-0.044767607),	_Q15(-0.04923672),
	_Q15(-0.0062165437),	_Q15(-0.037585888),	_Q15(0.014450095),	_Q15(-0.011439458),
	_Q15(0.022107953),	_Q15(0.010103753),	_Q15(0.014710175),	_Q15(0.0278169),
	_Q15(0.038200185),	_Q15(0.026564756),	_Q15(-0.02210575),	_Q15(0.026265083),
	_Q15(0.01376929),	_Q15(-0.017232148),	_Q15(-0.048227996),	_Q15(-0.045269378),
	_Q15(-0.04589123),	_Q15(-0.06284773),	_Q15(-0.05442588),	_Q15(-0.007544948),
	_Q15(0.042875875),	_Q15(-0.04546085),	_Q15(-0.0015476235),	_Q15(0.006970943),
	_Q15(0.04246199),	_Q15(0.02511794),	_Q15(0.029866958),	_Q15(0.037674196),
	_Q15(0.05448945),	_Q15(0.0442082),	_Q15(0.038424466),	_Q15(-0.009151648),
	_Q15(0.034131575),	_Q15(0.03661758),	_Q15(0.04597505),	_Q15(0.025286919),
	_Q15(0.014655846),	_Q15(0.0061513586),	_Q15(-0.009311288),	_Q15(-0.0093145175),
	_Q15(-0.008057782),	_Q15(0.0025959173),	_Q15(-0.024407534),	_Q15(-0.014262678),
	_Q15(-0.020189224),	_Q15(0.0017825777),	_Q15(0.004172792),	_Q15(0.007174716),
	_Q15(0.027475536),	_Q15(0.043694966),	_Q15(0.054162625),	_Q15(0.015076551),
	_Q15(0.022987533),	_Q15(0.03833287),	_Q15(0.034184884),	_Q15(0.028618488),
	_Q15(-0.017756045),	_Q15(-0.026647273),	_Q15(-0.007857304),	_Q15(-0.010306347),
	_Q15(0.013323748),	_Q15(-0.01863458),	_Q15(-0.004680624),	_Q15(-0.008061342),
	_Q15(0.013963535),	_Q15(0.014130448),	_Q15(-0.0035429853),	_Q15(0.02010379),
	_Q15(0.034601513),	_Q15(0.038564477),	_Q15(0.0067448006),	_Q15(0.04417519),
	_Q15(0.02923296),	_Q15(0.025507918),	_Q15(0.007977896),	_Q15(-0.015556142),
	_Q15(-0.005099288),	_Q15(0.014839083),	_Q15(-0.02320244),	_Q15(-0.019895954),
	_Q15(-0.024258588),	_Q15(-0.035382178),	_Q15(-0.0106172),	_Q15(-0.026571376),
	_Q15(-0.0028005561),	_Q15(0.0073480927),	_Q15(-0.0190062),	_Q15(-0.012977798),
	_Q15(-0.004588629),	_Q15(0.0048372787),	_Q15(0.008963328),	_Q15(0.023504015),
	_Q15(0.03187184),	_Q15(0.009137013),	_Q15(0.017859336),	_Q15(-0.00029079325),
	_Q15(0.038722448),	_Q15(0.03397901),	_Q15(0.019906228),	_Q15(0.0051779007),
	_Q15(-0.020910854),	_Q15(0.0076495106),	_Q15(-0.017150184),	_Q15(-0.0025787493),
	_Q15(-0.02237724),	_Q15(-0.0101119),	_Q15(-0.00086882676),	_Q15(-0.02008696),
	_Q15(-0.007397813),	_Q15(-0.020339832),	_Q15(-0.0062631187),	_Q15(-0.0073812045),
	_Q15(-0.017127568),	_Q15(0.00524994),	_Q15(0.012257974),	_Q15(0.016484803),
	_Q15(0.007974229),	_Q15(0.005272577),	_Q15(0.003431003),	_Q15(-0.0025847466),
	_Q15(0.015855275),	_Q15(0.024525097),	_Q15(-0.010114433),	_Q15(0.009537458),
	_Q15(-0.010576955),	_Q15(0.0022643674),	_Q15(-0.007105614),	_Q15(-0.004566273),
	_Q15(0.0049678935),	_Q15(-0.013757898),	_Q15(-0.03442135),	_Q15(-0.045235902),
	_Q15(-0.031297393),	_Q15(-0.0050305966),	_Q15(-0.010869413),	_Q15(-0.033868697),
	_Q15(0.0077487165),	_Q15(0.013480313),	_Q15(-0.0010397944),	_Q15(-0.009629059),
	_Q15(-0.0047515575),	_Q15(0.019626383),	_Q15(0.03630657),	_Q15(0.046485804),
	_Q15(0.040040143),	_Q15(4.6125242e-05),	_Q15(-0.04590307),	_Q15(0.013199273),
	_Q15(0.027823528),	_Q15(0.03156618),	_Q15(0.027394945),	_Q15(-0.04406217),
	_Q15(-0.074448794),	_Q15(-0.06808452),	_Q15(-0.047077317),	_Q15(-0.054111782),
	_Q15(0.03747759),	_Q15(0.02202422),	_Q15(-0.008115566),	_Q15(-0.015392737),
	_Q15(0.02256474),	_Q15(0.06532783),	_Q15(0.054011885),	_Q15(0.013551921),
	_Q15(-0.012334337),	_Q15(0.017024674),	_Q15(0.0026006165),	_Q15(0.015905824),
	_Q15(0.017422002),	_Q15(0.026128206),	_Q15(0.02448332),	_Q15(-0.040362034),
	_Q15(-0.021166893),	_Q15(-0.07740384),	_Q15(-0.059753086),	_Q15(-0.04678685),
	_Q15(0.008419601),	_Q15(0.014352085),	_Q15(0.0030112294),	_Q15(-0.024116596),
	_Q15(-0.030551229),	_Q15(0.0061520687),	_Q15(0.015418042),	_Q15(0.00062028307),
	_Q15(-0.022110827),	_Q15(-0.017023072),	_Q15(0.0409136),	_Q15(0.016400835),
	_Q15(-0.03686318),	_Q15(-0.024291001),	_Q15(3.379586e-05),	_Q15(0.042498995),
	_Q15(0.024602996),	_Q15(0.021428593),	_Q15(0.00555828),	_Q15(0.0108051235),
	_Q15(-0.043486014),	_Q15(-0.020466456),	_Q15(0.017392758),	_Q15(0.00023289098),
	_Q15(0.007732899),	_Q15(-0.017751062),	_Q15(0.018410988),	_Q15(-0.021283278),
	_Q15(-0.03871977),	_Q15(-0.03020449),	_Q15(0.027935391),	_Q15(0.012061725),
	_Q15(0.008936684),	_Q15(0.002386231),	_Q15(0.019003237),	_Q15(-0.03503655),
	_Q15(-0.017984059),	_Q15(-0.02111093),	_Q15(-0.005605189),	_Q15(-0.023291813),
	_Q15(-0.0472768),	_Q15(-0.018527696),	_Q15(-0.022263495),	_Q15(-0.029422158),
	_Q15(-0.027143013),	_Q15(0.034184743),	_Q15(0.030256521),	_Q15(-0.008291555),
	_Q15(0.0074577555),	_Q15(0.02197883),	_Q15(-0.0013583547),	_Q15(0.016772542),
	_Q15(0.018232921),	_Q15(0.038987543),	_Q15(0.010465898),	_Q15(0.0072274148),
	_Q15(0.023274662),	_Q15(-0.0071824384),	_Q15(-0.0043515614),	_Q15(0.009739745),
	_Q15(-0.03166178),	_Q15(-0.010823365),	_Q15(-0.00042656396),	_Q15(-0.012322937),
	_Q15(-0.021848729),	_Q15(-0.011973932),	_Q15(-0.022780962),	_Q15(-0.012592601),
	_Q15(-0.028480332),	_Q15(-0.030801974),	_Q15(0.026394105),	_Q15(0.02671841),
	_Q15(0.0055928924),	_Q15(0.0032857382),	_Q15(-0.0046104896),	_Q15(0.033854794),
	_Q15(0.023529736),	_Q15(0.0028573403),	_Q15(0.0022600836),	_Q15(0.015368294),
	_Q15(-0.012840521),	_Q15(0.020144764),	_Q15(0.00027221855),	_Q15(-0.054917615),
	_Q15(-0.013793611),	_Q15(0.023671428),	_Q15(0.036350824),	_Q15(0.03621806),
	_Q15(-0.047845915),	_Q15(0.028886518),	_Q15(0.032515906),	_Q15(0.054856114),
	_Q15(0.05233735),	_Q15(-0.031830728),	_Q15(0.04125896),	_Q15(0.036050063),
	_Q15(0.051519565),	_Q15(0.044661175),	_Q15(-0.023860946),	_Q15(0.032037877),
	_Q15(0.0376794),	_Q15(0.040908843),	_Q15(0.060597736),	_Q15(-0.025611857),
	_Q15(0.014787837),	_Q15(-0.007727825),	_Q15(-0.0074623283),	_Q15(-0.007569348),
	_Q15(-0.001236594),	_Q15(-0.0317537),	_Q15(-0.008749823),	_Q15(0.0040061143),
	_Q15(0.015162051),	_Q15(-0.010404334),	_Q15(-0.017308393),	_Q15(0.0029219124),
	_Q15(0.025697554),	_Q15(-0.004279723),	_Q15(-0.0065928125),	_Q15(-0.044629052),
	_Q15(0.04103702),	_Q15(0.017447546),	_Q15(0.028031996),	_Q15(-0.0071970746),
	_Q15(-0.05406405),	_Q15(0.0031085704),	_Q15(0.0026053),	_Q15(0.012762942),
	_Q15(0.03824576),	_Q15(-0.015145211),	_Q15(-0.005751518),	_Q15(-0.021606691),
	_Q15(-0.017593164),	_Q15(-0.02567261),	_Q15(-0.018198239),	_Q15(-0.0034878787),
	_Q15(0.0011158474),	_Q15(-0.034021806),	_Q15(-0.017746689),	_Q15(-0.0107539985),
	_Q15(0.019293884),	_Q15(0.0058470713),	_Q15(-0.051829997),	_Q15(-0.023661802),
	_Q15(0.0056456192),	_Q15(-0.020560278),	_Q15(0.024581976),	_Q15(-0.022452632),
	_Q15(-0.011775979),	_Q15(0.0072841994),	_Q15(0.007561923),	_Q15(0.006139525),
	_Q15(-0.0055391914),	_Q15(0.0109824),	_Q15(0.041268848),	_Q15(-0.015594441),
	_Q15(-0.016597165),	_Q15(-0.013677241),	_Q15(-0.028530538),	_Q15(0.0016303991),
	_Q15(-0.010430701),	_Q15(-0.0048131766),	_Q15(-0.054254733),	_Q15(-0.01275031),
	_Q15(0.01770729),	_Q15(-0.0126479),	_Q15(-0.018955588),	_Q15(-0.05905802),
	_Q15(-0.011664563),	_Q15(0.040313236),	_Q15(-0.015414606),	_Q15(-0.041330818),
	_Q15(-0.07466973),	_Q15(-0.0036958507),	_Q15(0.04843208),	_Q15(0.0032199956),
	_Q15(-0.010921176),	_Q15(-0.047035404),	_Q15(-0.014269932),	_Q15(0.016690966),
	_Q15(-0.014293924),	_Q15(-0.027237346),	_Q15(0.02525438),	_Q15(0.0026671286),
	_Q15(0.013194214),	_Q15(-0.033989053),	_Q15(-0.0066386615),	_Q15(0.00676958),
	_Q15(0.008445322),	_Q15(-0.020224445),	_Q15(-0.02080771),	_Q15(-0.049353268),
	_Q15(0.0033833263),	_Q15(0.0040000523),	_Q15(-0.0042443327),	_Q15(-0.019779066),
	_Q15(-0.03469367),	_Q15(-0.01630963),	_Q15(0.014882474),	_Q15(0.015487268),
	_Q15(-0.011074329),	_Q15(-0.005094562),	_Q15(-0.012735844),	_Q15(0.011157862),
	_Q15(0.019607192),	_Q15(0.023637228),	_Q15(-0.026953842),	_Q15(0.011666735),
	_Q15(-0.005784197),	_Q15(0.016365625),	_Q15(0.018091496),	_Q15(0.006396245),
	_Q15(0.0177381),	_Q15(0.025682678),	_Q15(0.0018236117),	_Q15(-0.007369802),
	_Q15(-6.586977e-05),	_Q15(0.014735325),	_Q15(0.014464214),	_Q15(0.0053882524),
	_Q15(-0.009436596),	_Q15(-0.028108643),	_Q15(-0.0020017892),	_Q15(0.018686151),
	_Q15(0.01322361),	_Q15(-0.0032615166),	_Q15(-0.025008911),	_Q15(-0.025751635),
	_Q15(-0.0050284653),	_Q15(0.023343025),	_Q15(0.0325443),	_Q15(0.039916527),
	_Q15(0.0019651658),	_Q15(0.018750954),	_Q15(-0.02892274),	_Q15(0.023649944),
	_Q15(0.021585755),	_Q15(0.026684001),	_Q15(0.027932594),	_Q15(-0.03157834),
	_Q15(-0.022240316),	_Q15(-0.009988599),	_Q15(0.03191701),	_Q15(0.032412954),
	_Q15(-0.0020573207),	_Q15(-0.019975314),	_Q15(-0.02015018),	_Q15(-0.016539034),
	_Q15(0.011464724),	_Q15(0.03300089),	_Q15(-0.0011882918),	_Q15(-0.0094181085),
	_Q15(-0.025337065),	_Q15(-0.015929082),	_Q15(-0.013302061),	_Q15(-0.011312225),
	_Q15(-0.04626613),	_Q15(-0.027057242),	_Q15(-0.016986609),	_Q15(-0.012695063),
	_Q15(-0.01816858),	_Q15(0.007609473),	_Q15(0.0036035741),	_Q15(0.03876469),
	_Q15(0.031978432),	_Q15(-0.038376126),	_Q15(0.026846306),	_Q15(0.051207762),
	_Q15(0.06284724),	_Q15(0.06981948),	_Q15(-0.044245366),	_Q15(-0.058516327),
	_Q15(-0.03503972),	_Q15(0.0027946767),	_Q15(0.043008327),	_Q15(0.033872616),
	_Q15(-0.0023481294),	_Q15(-0.014861932),	_Q15(-0.01976456),	_Q15(-0.009884586),
	_Q15(0.020199161),	_Q15(0.018775357),	_Q15(0.005979665),	_Q15(-0.010414922),
	_Q15(-0.032049667),	_Q15(0.04180343),	_Q15(0.03793001),	_Q15(0.009967747),
	_Q15(-0.0026206335),	_Q15(0.021689668),	_Q15(-0.009587443),	_Q15(-0.04522994),
	_Q15(-0.06912285),	_Q15(-0.07468441),	_Q15(-0.024213351),	_Q15(0.0015563538),
	_Q15(-0.0151134515),	_Q15(-0.045317415),	_Q15(-0.037884437),	_Q15(-0.07346766),
	_Q15(0.0010706072),	_Q15(-0.0002279345),	_Q15(0.051229693),	_Q15(0.02178335),
	_Q15(0.016534563),	_Q15(-0.0287326),	_Q15(-0.009442948),	_Q15(-0.014660687),
	_Q15(0.016214672),	_Q15(-0.020696446),	_Q15(0.031036334),	_Q15(0.016638435),
	_Q15(-0.0033545592),	_Q15(0.012760092),	_Q15(0.02121242),	_Q15(-0.024089277),
	_Q15(-0.037039552),	_Q15(-0.034758523),	_Q15(0.0073605604),	_Q15(0.020938003),
	_Q15(-0.017626503),	_Q15(-0.023264209),	_Q15(-0.038828783),	_Q15(-0.030597681),
	_Q15(0.0061645005),	_Q15(0.030760672),	_Q15(0.020471644),	_Q15(0.009109677),
	_Q15(0.011396773),	_Q15(-0.007160088),	_Q15(0.004808907),	_Q15(-0.020466084),
	_Q15(-0.0031341182),	_Q15(0.0138961915),	_Q15(-0.0050540515),	_Q15(-0.028528417),
	_Q15(0.0053245067),	_Q15(-0.022870485),	_Q15(-0.023861866),	_Q15(0.007213431),
	_Q15(0.033858288),	_Q15(0.023807898),	_Q15(-0.018416392),	_Q15(-0.005220953),
	_Q15(0.006997718),	_Q15(0.027648225),	_Q15(0.03532578),	_Q15(0.031669263),
	_Q15(0.014204961),	_Q15(0.0028641804),	_Q15(-0.029803138),	_Q15(-0.01656916),
	_Q15(-0.0054134307),	_Q15(0.00020628654),	_Q15(0.02204581),	_Q15(0.008758117),
	_Q15(0.008147325),	_Q15(-0.014633187),	_Q15(-0.022285562),	_Q15(0.010626837),
	_Q15(0.002060082),	_Q15(-0.026733117),	_Q15(-0.030284386),	_Q15(-0.023726089),
	_Q15(-0.020316718),	_Q15(0.02518183),	_Q15(-0.001685288),	_Q15(0.004450413),
	_Q15(-0.04356804),	_Q15(-0.03547288),	_Q15(0.032456703),	_Q15(0.025331177),
	_Q15(0.03249545),	_Q15(0.024110775),	_Q15(0.0003353062),	_Q15(-0.007904311),
	_Q15(0.009260258),	_Q15(0.010806314),	_Q15(0.011356156),	_Q15(0.025835218),
	_Q15(0.00052423845),	_Q15(-0.007983505),	_Q15(0.0028781027),	_Q15(0.03502547),
	_Q15(0.054289225),	_Q15(-0.0009737514),	_Q15(-0.027637491),	_Q15(-0.020062508),
	_Q15(0.009709787),	_Q15(0.047432054),	_Q15(-0.032340094),	_Q15(-0.050556157),
	_Q15(-0.042086508),	_Q15(-0.031952735),	_Q15(0.03103888),	_Q15(-0.046692457),
	_Q15(-0.062485736),	_Q15(-0.06483977),	_Q15(-0.060616422),	_Q15(-0.038252022),
	_Q15(-0.0036978445),	_Q15(-0.011704404),	_Q15(-0.016933512),	_Q15(-0.018572763),
	_Q15(-0.015004687),	_Q15(0.03445784),	_Q15(0.009644818),	_Q15(0.012953694),
	_Q15(0.013755451),	_Q15(0.030722816),	_Q15(-0.006756127),	_Q15(0.020504288),
	_Q15(0.023888329),	_Q15(0.010165609),	_Q15(0.03889381),	_Q15(-0.0678279),
	_Q15(-0.06662696),	_Q15(-0.0641046),	_Q15(-0.05329527),	_Q15(-0.02920095),
	_Q15(0.014829329),	_Q15(-0.0011314789),	_Q15(-0.0018226064),	_Q15(-0.0073336456),
	_Q15(-0.006629288),	_Q15(0.011778294),	_Q15(0.012206346),	_Q15(0.03508479),
	_Q15(0.0020071769),	_Q15(0.006098798),	_Q15(0.012191913),	_Q15(-0.00057252654),
	_Q15(0.027332617),	_Q15(0.034079034),	_Q15(-0.0020627654),	_Q15(-0.05300149),
	_Q15(-0.054013666),	_Q15(-0.051010665),	_Q15(-0.0053026406),	_Q15(-0.039708022),
	_Q15(-0.008212401),	_Q15(-0.023322966),	_Q15(-0.005832399),	_Q15(0.012252204),
	_Q15(-0.008602346),	_Q15(-0.0007148519),	_Q15(0.041820172),	_Q15(0.05463752),
	_Q15(0.03687135),	_Q15(0.023137715),	_Q15(0.006512041),	_Q15(-0.007568172),
	_Q15(0.039455764),	_Q15(0.015857749),	_Q15(-0.015433947),	_Q15(0.004549549),
	_Q15(-0.0038801194),	_Q15(-0.00343302),	_Q15(0.0011244381),	_Q15(-0.0099711055),
	_Q15(0.038320344),	_Q15(0.04077471),	_Q15(0.029680321),	_Q15(0.03183532),
	_Q15(0.0019954096),	_Q15(-0.021152034),	_Q15(-0.030807141),	_Q15(-0.0019626291),
	_Q15(0.016229838),	_Q15(-0.014193681),	_Q15(0.053303834),	_Q15(0.047199134),
	_Q15(0.047608558),	_Q15(0.034913138),	_Q15(0.027448991),	_Q15(0.017182618),
	_Q15(0.004770631),	_Q15(-0.0032462212),	_Q15(0.0043796236),	_Q15(0.0035666644),
	_Q15(-0.0063803378),	_Q15(-0.022226973),	_Q15(-0.011987541),	_Q15(-0.0398364),
	_Q15(-0.03219089),	_Q15(-0.008093898),	_Q15(0.0120901875),	_Q15(0.026672775),
	_Q15(0.022071734),	_Q15(-0.012063994),	_Q15(0.0073755467),	_Q15(0.033711232),
	_Q15(0.041500352),	_Q15(0.011817333),	_Q15(0.04085648),	_Q15(-0.0072413543),
	_Q15(-0.016626537),	_Q15(0.017711082),	_Q15(0.024348224),	_Q15(0.003972896),
	_Q15(0.0058856723),	_Q15(-0.016114008),	_Q15(0.002211549),	_Q15(-0.0043180366),
	_Q15(-0.0014755421),	_Q15(-0.025968302),	_Q15(0.0060932534),	_Q15(0.007971541),
	_Q15(-0.015871078),	_Q15(0.0007953704),	_Q15(0.0030380387),	_Q15(-0.0055451603),
	_Q15(0.027087854),	_Q15(-0.01150922),	_Q15(-0.025869032),	_Q15(0.026985023),
	_Q15(0.0074070813),	_Q15(0.012365925),	_Q15(0.014185823),	_Q15(-0.0040520933),
	_Q15(-0.024324736),	_Q15(-0.005047863),	_Q15(0.018106017),	_Q15(0.012533503),
	_Q15(0.00444594),	_Q15(-0.020327859),	_Q15(-0.006320229),	_Q15(0.0043666856),
	_Q15(-0.018344473),	_Q15(0.0151703525),	_Q15(-0.014077781),	_Q15(-0.036454044),
	_Q15(-0.030878346),	_Q15(-0.02214085),	_Q15(0.015687648),	_Q15(-0.0139391385),
	_Q15(-0.0030123678),	_Q15(-0.028376058),	_Q15(-0.041967697),	_Q15(-0.040593505),
	_Q15(0.015853591),	_Q15(-0.014123692),	_Q15(0.03137377),	_Q15(0.012174024),
	_Q15(-0.055944517),	_Q15(-0.031562462),	_Q15(-0.0068606744),	_Q15(0.0116715655),
	_Q15(0.04854007),	_Q15(-0.007504437),	_Q15(-0.029511536),	_Q15(-0.030868018),
	_Q15(0.011132633),	_Q15(0.042385433),	_Q15(0.042384528),	_Q15(0.016202314),
	_Q15(-0.031811588),	_Q15(-0.050319925),	_Q15(-0.010283994),	_Q15(0.0040201596),
	_Q15(0.016685812),	_Q15(0.036227353),	_Q15(0.01010914),	_Q15(-0.04033273),
	_Q15(-0.029600395),	_Q15(0.008352429),	_Q15(0.02839663),	_Q15(0.041388053),
	_Q15(-0.007558676),	_Q15(-0.051278792),	_Q15(-0.039228313),	_Q15(-0.016816266),
	_Q15(0.026617508),	_Q15(0.053435978),	_Q15(0.019605452),	_Q15(-0.011116428),
	_Q15(-0.013179911),	_Q15(-0.06471071),	_Q15(-0.014441748),	_Q15(0.018340526),
	_Q15(0.0070522893),	_Q15(0.040831465),	_Q15(0.03254126),	_Q15(0.022244636),
	_Q15(0.022238696),	_Q15(-0.013246836),	_Q15(0.02032906),	_Q15(0.017518304),
	_Q15(-0.008024072),	_Q15(-0.016754197),	_Q15(0.018391818),	_Q15(-0.027735537),
	_Q15(0.034353826),	_Q15(0.04647566),	_Q15(0.039267737),	_Q15(0.013310472),
	_Q15(-0.015797433),	_Q15(-0.06450768),	_Q15(-0.04175041),	_Q15(0.017355885),
	_Q15(0.0032300919),	_Q15(0.0073926984),	_Q15(-0.008504097),	_Q15(-0.019811627),
	_Q15(-0.04899296),	_Q15(0.0037059095),	_Q15(-0.011807173),	_Q15(0.0051131505),
	_Q15(0.038059104),	_Q15(0.027175557),	_Q15(0.014851931),	_Q15(-0.014788533),
	_Q15(0.004069968),	_Q15(0.019327851),	_Q15(-0.010798378),	_Q15(-0.01240734),
	_Q15(0.012284629),	_Q15(0.0024155914),	_Q15(0.013889747),	_Q15(-0.0033559396),
	_Q15(-0.026494969),	_Q15(-0.033671044),	_Q15(-0.005990404),	_Q15(0.0037452988),
	_Q15(0.026600666),	_Q15(-0.0020698693),	_Q15(0.014805926),	_Q15(-0.032058604),
	_Q15(-0.03228327),	_Q15(0.019906636),	_Q15(0.010727823),	_Q15(-0.015942106),
	_Q15(0.024429724),	_Q15(0.016439307),	_Q15(0.015916862),	_Q15(-0.01631256),
	_Q15(-0.016958969),	_Q15(-0.0020036458),	_Q15(0.01061345),	_Q15(0.036006376),
	_Q15(-0.0030249653),	_Q15(-0.022374803),	_Q15(-0.035544634),	_Q15(-0.012628398),
	_Q15(0.012217189),	_Q15(0.02573593),	_Q15(0.008515625),	_Q15(-0.0048613423),
	_Q15(-0.028799295),	_Q15(-0.042963687),	_Q15(-0.0038661463),	_Q15(0.018255703),
	_Q15(0.035839915),	_Q15(0.04153921),	_Q15(-0.019404583),	_Q15(-0.00027808134),
	_Q15(0.017770555),	_Q15(-0.00058006356),	_Q15(0.012217848),	_Q15(0.005336548),
	_Q15(-0.03363235),	_Q15(-0.034984756),	_Q15(-0.011828987),	_Q15(-0.010518178),
	_Q15(0.010867441),	_Q15(-0.008558243),	_Q15(-0.02932804),	_Q15(-0.029809602),
	_Q15(-0.009502355),	_Q15(0.00033554208),	_Q15(0.019129524),	_Q15(0.030116336),
	_Q15(0.01428247),	_Q15(-0.008735904),	_Q15(-0.017540775),	_Q15(-0.018177114),
	_Q15(0.02947702),	_Q15(0.0006235716),	_Q15(-0.0009054215),	_Q15(-0.025564931),
	_Q15(0.009294329),	_Q15(0.022632787),	_Q15(0.017718868),	_Q15(0.0087342085),
	_Q15(-0.016969457),	_Q15(-0.006213769),	_Q15(0.005084231),	_Q15(0.043326423),
	_Q15(0.036139008),	_Q15(-0.084354915),	_Q15(-0.025844594),	_Q15(0.039718986),
	_Q15(0.04756639),	_Q15(0.06961513),	_Q15(-0.056255214),	_Q15(-0.021745142),
	_Q15(0.020160122),	_Q15(0.04430443),	_Q15(0.0749209),	_Q15(0.016633477),
	_Q15(-0.027361797),	_Q15(0.009164262),	_Q15(-0.008728071),	_Q15(0.040667146),
	_Q15(0.03656193),	_Q15(0.007529311),	_Q15(-0.011695974),	_Q15(-0.0055435104),
	_Q15(-0.023022858),	_Q15(-0.024058431),	_Q15(-0.014575908),	_Q15(-0.022275949),
	_Q15(0.019533752),	_Q15(-0.002706972),	_Q15(0.0020732572),	_Q15(-0.006238466),
	_Q15(-0.05214281),	_Q15(0.024730414),	_Q15(0.032359898),	_Q15(0.0117871),
	_Q15(0.018244727),	_Q15(-0.017624779),	_Q15(0.04346786),	_Q15(0.047613867),
	_Q15(0.022915987),	_Q15(-0.018598838),	_Q15(-0.025132395),	_Q15(0.041424982),
	_Q15(0.051649537),	_Q15(0.012173394),	_Q15(-0.0076349583),	_Q15(0.012676242),
	_Q15(-0.0032670705),	_Q15(-0.01810551),	_Q15(-0.032810587),	_Q15(0.0025752985),
	_Q15(-0.012537043),	_Q15(0.0009421232),	_Q15(-0.022505965),	_Q15(-0.03719023),
	_Q15(-0.0019960785),	_Q15(-0.011236745),	_Q15(-0.006940143),	_Q15(-0.040803347),
	_Q15(-0.012414624),	_Q15(-0.018681882),	_Q15(0.014393169),	_Q15(-0.031892784),
	_Q15(-0.029277125),	_Q15(-0.0067579956),	_Q15(0.0043968908),	_Q15(0.0031641168),
	_Q15(0.0145421475),	_Q15(-0.0075612664),	_Q15(-0.00698224),	_Q15(0.0065157735),
	_Q15(-0.00068966177),	_Q15(0.0027632373),	_Q15(-0.021900844),	_Q15(0.020016689),
	_Q15(0.01792348),	_Q15(-0.015318788),	_Q15(-0.01465335),	_Q15(-0.04948235),
	_Q15(0.0058666174),	_Q15(0.0046349624),	_Q15(0.0035472105),	_Q15(-0.040015288),
	_Q15(-0.08519227),	_Q15(0.021153666),	_Q15(0.019371917),	_Q15(0.006896324),
	_Q15(-0.013608702),	_Q15(-0.08377947),	_Q15(-0.011008184),	_Q15(0.014752691),
	_Q15(0.021088546),	_Q15(-0.007843558),	_Q15(-0.031627577),	_Q15(-0.0113929),
	_Q15(0.001052045),	_Q15(-0.016322829),	_Q15(-0.011168958),	_Q15(0.016896708),
	_Q15(0.0034305204),	_Q15(-0.0009927126),	_Q15(-0.011544415),	_Q15(-0.032691002),
	_Q15(0.0027926795),	_Q15(0.030118152),	_Q15(0.02071773),	_Q15(0.00036913677),
	_Q15(-0.040802177),	_Q15(-0.030270103),	_Q15(0.029032858),	_Q15(-0.0038452647),
	_Q15(0.01023083),	_Q15(-0.026550462),	_Q15(-0.047521487),	_Q15(0.013207112),
	_Q15(0.002656011),	_Q15(0.012172806),	_Q15(0.005949029),	_Q15(-0.008913008),
	_Q15(-0.008443124),	_Q15(0.02219328),	_Q15(-0.008979249),	_Q15(-0.025995184),
	_Q15(0.024474708),	_Q15(0.0037754073),	_Q15(0.036503337),	_Q15(-0.0072449367),
	_Q15(-0.012995039),	_Q15(0.00951108),	_Q15(0.013682673),	_Q15(0.00850838),
	_Q15(-0.00070185575),	_Q15(-0.015729763),	_Q15(0.00455692),	_Q15(0.029995654),
	_Q15(0.003314814),	_Q15(0.011814904),	_Q15(0.0061243973),	_Q15(-0.021272294),
	_Q15(-0.011408905),	_Q15(-0.012428742),	_Q15(-0.016625358),	_Q15(-0.014303869),
	_Q15(-0.007835507),	_Q15(-0.0034614932),	_Q15(-0.013781531),	_Q15(-0.032145783),
	_Q15(-0.03134199),	_Q15(-0.034551475),	_Q15(-0.057413094),	_Q15(-0.0053733517),
	_Q15(-0.019837575),	_Q15(-0.05338807),	_Q15(-0.04272856),	_Q15(-0.041582968),
	_Q15(0.036221746),	_Q15(-0.0011634114),	_Q15(-0.07119024),	_Q15(-0.017652713),
	_Q15(-0.04973755),	_Q15(0.03695917),	_Q15(0.043701764),	_Q15(-0.027232211),
	_Q15(-0.054568063),	_Q15(-0.008701728),	_Q15(0.021526),	_Q15(0.04444819),
	_Q15(-4.903113e-05),	_Q15(-0.032893036),	_Q15(-0.0070753116),	_Q15(0.00036476695),
	_Q15(-0.010732434),	_Q15(-0.02977826),	_Q15(0.008818749),	_Q15(-0.0028681979),
	_Q15(0.033575483),	_Q15(0.02257001),	_Q15(-0.019377088),	_Q15(-0.03471419),
	_Q15(-0.010375859),	_Q15(0.04042394),	_Q15(0.04726344),	_Q15(0.01862836),
	_Q15(-0.03503875),	_Q15(-0.028916787),	_Q15(0.0070076464),	_Q15(0.047852937),
	_Q15(0.02194738),	_Q15(0.022030046),	_Q15(-0.0017043033),	_Q15(-0.020420065),
	_Q15(0.011085733),	_Q15(0.0078020953),	_Q15(0.024470316),	_Q15(0.004458432),
	_Q15(-0.0026170316),	_Q15(0.0149071645),	_Q15(-0.027638407),	_Q15(-0.049831986),
	_Q15(-0.0010199875),	_Q15(-0.0049594715),	_Q15(0.010479468),	_Q15(0.026786247),
	_Q15(0.0005037232),	_Q15(-0.015149808),	_Q15(-0.014908211),	_Q15(0.017639762),
	_Q15(0.0142459115),	_Q15(0.052082628),	_Q15(0.0061201835),	_Q15(-0.015516773),
	_Q15(-0.0036539552),	_Q15(0.0011942085),	_Q15(0.044263337),	_Q15(0.027163533),
	_Q15(-0.010668906),	_Q15(-0.009617057),	_Q15(-0.0014077716),	_Q15(0.01967985),
	_Q15(0.025832893),	_Q15(0.0013374719),	_Q15(0.0074381526),	_Q15(-0.015025958),
	_Q15(-0.013327632),	_Q15(-0.03272426),	_Q15(0.0039788526),	_Q15(0.0156060895),
	_Q15(0.007916004),	_Q15(0.013276545),	_Q15(0.029839227),	_Q15(-0.005530566),
	_Q15(-0.008206966),	_Q15(0.031090641),	_Q15(0.031622894),	_Q15(0.013523611),
	_Q15(0.021771546),	_Q15(-0.012534758),	_Q15(-0.015078601),	_Q15(0.024890477),
	_Q15(-0.006171903),	_Q15(0.031613015),	_Q15(0.018799152),	_Q15(-0.018505627),
	_Q15(0.0038505304),	_Q15(-0.01945528),	_Q15(-0.00915239),	_Q15(0.0062038116),
	_Q15(-0.0014967193),	_Q15(0.012647505),	_Q15(0.006904667),	_Q15(0.0012909683),
	_Q15(0.023410877),	_Q15(0.0019369292),	_Q15(0.032548185),	_Q15(0.03217137),
	_Q15(-0.0063257674),	_Q15(-0.033334427),	_Q15(0.009529591),	_Q15(0.012137642),
	_Q15(0.005896439),	_Q15(-0.0019269455),	_Q15(-0.029351387),	_Q15(-0.02640631),
	_Q15(0.00876797),	_Q15(0.025019407),	_Q15(-0.015884725),	_Q15(-0.0021943476),
	_Q15(-0.033932842),	_Q15(-0.0051238663),	_Q15(0.008348685),	_Q15(0.008202999),
	_Q15(0.031371575),	_Q15(0.02420697),	_Q15(-0.014108246),	_Q15(0.02250716),
	_Q15(-0.018586587),	_Q15(0.016668174),	_Q15(0.00898898),	_Q15(0.008446358),
	_Q15(0.0072777523),	_Q15(-0.029992137),	_Q15(-0.006483204),	_Q15(0.005933374),
	_Q15(0.022959134),	_Q15(0.020808648),	_Q15(-0.009035938),	_Q15(-0.02209524),
	_Q15(-0.024575975),	_Q15(-0.0014790653),	_Q15(-0.0066769617),	_Q15(-0.02266053),
	_Q15(-0.0018002465),	_Q15(-0.012458844),	_Q15(-0.0050753485),	_Q15(0.013181469)
};

__ro_hinv _q15 conv2_bias[] = {
	_Q15(-0.002206115),	_Q15(-0.011337387),	_Q15(-0.0041042543),	_Q15(0.00875147),
	_Q15(-0.014677635),	_Q15(-0.012633065),	_Q15(0.00028725326),	_Q15(0.0134267425),
	_Q15(-0.00754667),	_Q15(-0.0060466984),	_Q15(-0.018070923),	_Q15(0.006629697),
	_Q15(-0.013452366),	_Q15(-0.006616344),	_Q15(-0.014862837),	_Q15(-0.016924543)
};

