#include <params/include/conv2.h>

__ro_hinv mat_t conv2_weight_meta = {
	.dims = {16, 6, 5, 5},
	.len_dims = 4,
	.strides = {150, 25, 5, 1},
	.data = (fixed *)conv2_weight
};

__ro_hinv mat_t conv2_bias_meta = {
	.dims = {1, 16},
	.len_dims = 2,
	.strides = {16, 1},
	.data = (fixed *)conv2_bias
};

__ro_hinv _q15 conv2_weight[] = {
	_Q15(-0.004256985),	_Q15(-0.013153042),	_Q15(-0.012515878),	_Q15(0.0055852747),
	_Q15(0.01100146),	_Q15(-0.014870747),	_Q15(-0.014838187),	_Q15(-0.012405741),
	_Q15(0.0036021378),	_Q15(0.009034417),	_Q15(-0.00021392804),	_Q15(0.0017243603),
	_Q15(-0.016915787),	_Q15(-0.0177248),	_Q15(0.00059269817),	_Q15(0.012918592),
	_Q15(-0.013718828),	_Q15(-0.04046121),	_Q15(-0.01296232),	_Q15(-0.011554435),
	_Q15(-0.01452911),	_Q15(-0.0122981705),	_Q15(-0.026965862),	_Q15(-0.022354754),
	_Q15(0.0052585783),	_Q15(0.005658442),	_Q15(-0.004154626),	_Q15(0.0066480236),
	_Q15(0.014636575),	_Q15(0.016107084),	_Q15(0.0018311549),	_Q15(0.017688906),
	_Q15(0.027386483),	_Q15(0.0065080062),	_Q15(-0.004681034),	_Q15(-0.010023343),
	_Q15(0.00503659),	_Q15(0.005523094),	_Q15(0.005927735),	_Q15(0.0022302403),
	_Q15(0.01097311),	_Q15(-0.001916943),	_Q15(-0.01680427),	_Q15(-0.042221744),
	_Q15(-0.036151905),	_Q15(0.013244451),	_Q15(-0.0050075944),	_Q15(-0.013314231),
	_Q15(-0.013587996),	_Q15(-0.0037924577),	_Q15(0.004834822),	_Q15(0.0123048825),
	_Q15(0.018443044),	_Q15(0.015196661),	_Q15(0.010036575),	_Q15(0.004079566),
	_Q15(0.01574982),	_Q15(0.006629562),	_Q15(0.010315759),	_Q15(0.009941249),
	_Q15(0.019996189),	_Q15(0.013074583),	_Q15(-0.016630907),	_Q15(-0.0432162),
	_Q15(-0.026037328),	_Q15(-0.0066989376),	_Q15(-0.016200779),	_Q15(-0.0052375253),
	_Q15(0.011553099),	_Q15(0.00989143),	_Q15(-0.02404345),	_Q15(-0.014506187),
	_Q15(0.012925095),	_Q15(0.020393543),	_Q15(0.014347226),	_Q15(0.00559272),
	_Q15(0.013314689),	_Q15(0.0035089117),	_Q15(0.00029538517),	_Q15(-0.0071660248),
	_Q15(0.0131480815),	_Q15(0.017443743),	_Q15(0.0062811645),	_Q15(-0.0025163179),
	_Q15(0.008695542),	_Q15(0.028915148),	_Q15(0.017933967),	_Q15(0.016014667),
	_Q15(0.0020000525),	_Q15(0.0024713646),	_Q15(0.0068752184),	_Q15(-0.009462841),
	_Q15(-0.006811235),	_Q15(-0.0011935178),	_Q15(0.004145058),	_Q15(-0.0023819436),
	_Q15(0.010970811),	_Q15(0.01151629),	_Q15(0.038478997),	_Q15(0.026100282),
	_Q15(0.002050614),	_Q15(0.005438786),	_Q15(-0.0018069645),	_Q15(-0.011249805),
	_Q15(0.009344138),	_Q15(-0.0048443032),	_Q15(-0.018280078),	_Q15(-0.014914249),
	_Q15(-0.007192642),	_Q15(-0.001016833),	_Q15(-0.014985203),	_Q15(-0.005471167),
	_Q15(0.0066812625),	_Q15(0.0021383606),	_Q15(0.0013522431),	_Q15(0.009643457),
	_Q15(0.013997308),	_Q15(0.0234439),	_Q15(0.02128135),	_Q15(0.0025676794),
	_Q15(0.020557389),	_Q15(-0.00015854159),	_Q15(0.003935485),	_Q15(-0.008043776),
	_Q15(-0.0103843985),	_Q15(-0.013191404),	_Q15(-0.013359844),	_Q15(-0.013162961),
	_Q15(-0.004426927),	_Q15(-0.0023804067),	_Q15(-0.022730492),	_Q15(-0.0076459264),
	_Q15(-0.014850158),	_Q15(-0.0075274487),	_Q15(0.0055861967),	_Q15(-0.0154375965),
	_Q15(0.0021844918),	_Q15(0.010253274),	_Q15(0.0018555741),	_Q15(0.014758714),
	_Q15(-0.00039348943),	_Q15(0.0034570976),	_Q15(0.022351947),	_Q15(0.0002670772),
	_Q15(0.0026365474),	_Q15(0.005866712),	_Q15(0.0067136004),	_Q15(-0.0021592577),
	_Q15(0.0055840816),	_Q15(-0.008505548),	_Q15(0.0054326183),	_Q15(0.002532531),
	_Q15(-0.00145936),	_Q15(-0.009428735),	_Q15(0.0037567231),	_Q15(-0.0028615152),
	_Q15(0.0020632907),	_Q15(0.009686306),	_Q15(-0.0070749125),	_Q15(0.000508926),
	_Q15(0.0031304206),	_Q15(0.006922967),	_Q15(-0.00296917),	_Q15(-0.0002706069),
	_Q15(0.0021461518),	_Q15(-0.019522486),	_Q15(-0.0011598555),	_Q15(0.004001491),
	_Q15(0.019646313),	_Q15(-0.0025795603),	_Q15(-0.02318076),	_Q15(-0.008159679),
	_Q15(-0.014355678),	_Q15(0.0080010155),	_Q15(0.008254517),	_Q15(-0.0030752935),
	_Q15(0.009720342),	_Q15(-0.0069917873),	_Q15(-0.0029378522),	_Q15(-0.006291356),
	_Q15(0.014452978),	_Q15(0.02559747),	_Q15(0.0151729025),	_Q15(0.011031834),
	_Q15(-0.01628593),	_Q15(0.0045322655),	_Q15(0.0064260014),	_Q15(0.028687954),
	_Q15(0.02332834),	_Q15(-0.0013968558),	_Q15(-0.008161232),	_Q15(-0.0056957398),
	_Q15(0.013363406),	_Q15(0.02542866),	_Q15(0.021649072),	_Q15(-0.02551427),
	_Q15(-0.013384835),	_Q15(-0.022853533),	_Q15(-0.020945061),	_Q15(-0.0024736493),
	_Q15(0.011851515),	_Q15(0.011689198),	_Q15(0.006710764),	_Q15(-0.0019152601),
	_Q15(-0.0138059),	_Q15(0.010768662),	_Q15(0.0053357454),	_Q15(9.421073e-05),
	_Q15(0.011195754),	_Q15(0.009310303),	_Q15(0.014589177),	_Q15(0.001959089),
	_Q15(-0.0028917333),	_Q15(0.004341316),	_Q15(0.032682594),	_Q15(-0.0047473074),
	_Q15(-0.01698671),	_Q15(-0.03348018),	_Q15(-0.030397138),	_Q15(-0.02182299),
	_Q15(-0.005624886),	_Q15(0.016681893),	_Q15(-0.0033116366),	_Q15(-0.0036939716),
	_Q15(-0.012521274),	_Q15(0.011092782),	_Q15(-0.0133309215),	_Q15(-0.019588964),
	_Q15(-0.0016837843),	_Q15(-0.019182172),	_Q15(0.010190781),	_Q15(-0.010114371),
	_Q15(-0.0044395425),	_Q15(-0.006616169),	_Q15(0.0049805255),	_Q15(-0.0018318002),
	_Q15(-0.0067485585),	_Q15(-0.0010221923),	_Q15(-0.0036953022),	_Q15(0.011566144),
	_Q15(-0.009073348),	_Q15(-0.0147681935),	_Q15(-0.010067566),	_Q15(0.0075801625),
	_Q15(0.0034251679),	_Q15(-0.0024431432),	_Q15(-0.00021776788),	_Q15(-0.0132669695),
	_Q15(0.0050893463),	_Q15(-0.0016459767),	_Q15(-0.016932856),	_Q15(-0.0052390527),
	_Q15(-0.002259176),	_Q15(-0.00039523374),	_Q15(-0.0048448974),	_Q15(-0.015472921),
	_Q15(-0.018090365),	_Q15(-0.002352329),	_Q15(-0.007426706),	_Q15(0.008287235),
	_Q15(0.009503897),	_Q15(-0.0012727685),	_Q15(-0.007930071),	_Q15(-0.015175311),
	_Q15(-0.005603395),	_Q15(0.016286502),	_Q15(0.013556369),	_Q15(0.0032943378),
	_Q15(0.010582552),	_Q15(0.007116401),	_Q15(0.0045251623),	_Q15(0.006182915),
	_Q15(0.005421902),	_Q15(0.0019781312),	_Q15(0.010362383),	_Q15(-0.0023090781),
	_Q15(-0.013667374),	_Q15(-0.0011168817),	_Q15(0.0015859327),	_Q15(0.009639459),
	_Q15(-0.01145025),	_Q15(-0.017733218),	_Q15(-0.018454164),	_Q15(-0.006909409),
	_Q15(0.0026296575),	_Q15(-0.0076024146),	_Q15(0.00037017243),	_Q15(-0.006130196),
	_Q15(0.00013913118),	_Q15(0.002874664),	_Q15(0.011553286),	_Q15(0.0077786236),
	_Q15(0.009707833),	_Q15(-0.0006816053),	_Q15(0.009294512),	_Q15(0.007643208),
	_Q15(0.014716734),	_Q15(0.0005808242),	_Q15(0.0031349615),	_Q15(0.011288822),
	_Q15(0.00055672304),	_Q15(0.006173967),	_Q15(-0.0009535607),	_Q15(-0.01581131),
	_Q15(-0.019444102),	_Q15(0.007244386),	_Q15(0.0056357193),	_Q15(0.013815749),
	_Q15(0.0090646325),	_Q15(-0.015897177),	_Q15(-0.0043770177),	_Q15(0.0011877683),
	_Q15(0.02115127),	_Q15(0.014614328),	_Q15(0.0041397624),	_Q15(0.014160821),
	_Q15(0.020989554),	_Q15(0.009724149),	_Q15(0.013037776),	_Q15(-0.008631689),
	_Q15(0.0063217734),	_Q15(0.016221074),	_Q15(0.013368653),	_Q15(0.0072965156),
	_Q15(0.0049522095),	_Q15(0.0016167159),	_Q15(-0.015551745),	_Q15(-0.0071920366),
	_Q15(-0.005013233),	_Q15(-0.01234228),	_Q15(0.0009833433),	_Q15(-0.006661562),
	_Q15(-0.02089408),	_Q15(-0.018079013),	_Q15(-0.01570345),	_Q15(-0.022927634),
	_Q15(-0.019287987),	_Q15(-0.0038146486),	_Q15(-0.0035116556),	_Q15(-0.0016900904),
	_Q15(-0.009158741),	_Q15(0.005600843),	_Q15(0.020385964),	_Q15(0.0155704245),
	_Q15(0.003035868),	_Q15(0.003520405),	_Q15(0.0094835395),	_Q15(0.016342964),
	_Q15(0.01301309),	_Q15(0.008194577),	_Q15(-0.018909803),	_Q15(-0.01781153),
	_Q15(-0.0031075303),	_Q15(0.0011679631),	_Q15(0.014509229),	_Q15(-0.004680433),
	_Q15(-0.005150579),	_Q15(-0.0034569574),	_Q15(0.021051537),	_Q15(0.008435878),
	_Q15(-0.002940779),	_Q15(0.00866728),	_Q15(0.016612183),	_Q15(0.020071624),
	_Q15(0.021776566),	_Q15(0.0047686),	_Q15(0.011451751),	_Q15(0.016887331),
	_Q15(0.00765797),	_Q15(0.008093595),	_Q15(0.022068698),	_Q15(0.0072266716),
	_Q15(0.0039885975),	_Q15(0.00081571535),	_Q15(-0.0063417726),	_Q15(-0.011222174),
	_Q15(-0.014105129),	_Q15(0.004819193),	_Q15(0.015105296),	_Q15(0.014650045),
	_Q15(-0.005343957),	_Q15(-0.0027276087),	_Q15(0.006686406),	_Q15(0.010620624),
	_Q15(0.005357497),	_Q15(-0.013875711),	_Q15(-0.013434031),	_Q15(-0.008999866),
	_Q15(-0.0017202364),	_Q15(0.011399912),	_Q15(0.005573365),	_Q15(-0.0017440512),
	_Q15(-0.0044310284),	_Q15(-0.012123011),	_Q15(0.01603331),	_Q15(0.02434017),
	_Q15(0.008546222),	_Q15(0.0019703982),	_Q15(-0.005727564),	_Q15(0.0005615349),
	_Q15(0.010018146),	_Q15(0.0075497148),	_Q15(0.007459926),	_Q15(0.0017377889),
	_Q15(0.009042039),	_Q15(0.015004936),	_Q15(-0.0035284918),	_Q15(0.014266947),
	_Q15(0.0137412315),	_Q15(0.011612936),	_Q15(0.0035541146),	_Q15(-0.0063816374),
	_Q15(-3.4908604e-05),	_Q15(-0.009199958),	_Q15(-0.0031797762),	_Q15(0.0031987624),
	_Q15(-0.015211145),	_Q15(-0.014203298),	_Q15(-0.012291151),	_Q15(-0.012580797),
	_Q15(-0.012089179),	_Q15(-0.018851856),	_Q15(-0.0011862341),	_Q15(0.0018249673),
	_Q15(-0.005908959),	_Q15(0.01277678),	_Q15(0.010394149),	_Q15(0.010248522),
	_Q15(0.00246178),	_Q15(-0.0069540627),	_Q15(0.0043828753),	_Q15(0.01476431),
	_Q15(0.0068388),	_Q15(0.0064042215),	_Q15(-0.007366473),	_Q15(0.00788436),
	_Q15(-0.002168354),	_Q15(0.0059476276),	_Q15(0.0072001005),	_Q15(-0.0021554492),
	_Q15(-0.0014779284),	_Q15(0.0037963851),	_Q15(-0.008571348),	_Q15(0.0002731339),
	_Q15(-0.0031906439),	_Q15(-0.013082466),	_Q15(-0.012417357),	_Q15(-0.013487448),
	_Q15(-0.009049811),	_Q15(0.005692578),	_Q15(-0.012923668),	_Q15(-0.01903064),
	_Q15(-0.009325968),	_Q15(0.012676376),	_Q15(0.008049861),	_Q15(-0.017816808),
	_Q15(-0.010199145),	_Q15(-0.0053213676),	_Q15(-0.006660636),	_Q15(-0.009461348),
	_Q15(-0.0052558356),	_Q15(-0.0049605877),	_Q15(-0.0008284873),	_Q15(-0.009917196),
	_Q15(-0.0026047418),	_Q15(-0.0009084097),	_Q15(0.0005762874),	_Q15(-0.006008319),
	_Q15(-0.017685547),	_Q15(-0.006692989),	_Q15(0.014587881),	_Q15(0.0252555),
	_Q15(-0.007976499),	_Q15(-0.01519137),	_Q15(-0.016559398),	_Q15(0.0011502062),
	_Q15(-0.010769222),	_Q15(-0.00054618734),	_Q15(0.020306334),	_Q15(0.019574393),
	_Q15(-0.01673269),	_Q15(-0.010004204),	_Q15(0.01458984),	_Q15(0.016958404),
	_Q15(0.013453618),	_Q15(-0.020703122),	_Q15(-0.021881199),	_Q15(-0.006523831),
	_Q15(0.007844216),	_Q15(-0.002563444),	_Q15(-0.011442669),	_Q15(-0.03589487),
	_Q15(-0.009310366),	_Q15(-0.010588132),	_Q15(0.0005190127),	_Q15(0.0130206365),
	_Q15(-0.021683637),	_Q15(-0.013740526),	_Q15(-0.008100533),	_Q15(0.0014912408),
	_Q15(-0.022074949),	_Q15(0.010372192),	_Q15(0.021343485),	_Q15(0.014606331),
	_Q15(0.0033471698),	_Q15(-0.01537549),	_Q15(0.018417854),	_Q15(0.009908554),
	_Q15(-0.0066397917),	_Q15(-0.002470851),	_Q15(-0.0008299144),	_Q15(0.012676262),
	_Q15(0.0042169862),	_Q15(-0.006418085),	_Q15(-0.005838006),	_Q15(0.021817733),
	_Q15(0.01108395),	_Q15(-0.0073137823),	_Q15(-0.0032394344),	_Q15(-0.0047541293),
	_Q15(0.012816364),	_Q15(-0.0023644704),	_Q15(-0.010066023),	_Q15(0.0009153136),
	_Q15(-0.004664818),	_Q15(-0.010856761),	_Q15(0.003857799),	_Q15(0.024579918),
	_Q15(0.0103607485),	_Q15(0.0008872315),	_Q15(0.011495694),	_Q15(0.033748146),
	_Q15(0.016873537),	_Q15(0.0074872402),	_Q15(0.003277714),	_Q15(0.025866041),
	_Q15(0.01820244),	_Q15(0.021869011),	_Q15(0.002032725),	_Q15(0.0050034584),
	_Q15(0.012176535),	_Q15(0.00896028),	_Q15(0.004421782),	_Q15(-0.0037469522),
	_Q15(-0.005118341),	_Q15(-0.007977445),	_Q15(-0.006479331),	_Q15(-0.01313477),
	_Q15(-0.0018358143),	_Q15(0.010623033),	_Q15(0.0047831424),	_Q15(0.012059019),
	_Q15(0.00925132),	_Q15(0.00046695015),	_Q15(0.0016423083),	_Q15(0.022166299),
	_Q15(-0.0060710483),	_Q15(-0.0007823725),	_Q15(-0.008628253),	_Q15(0.0034350192),
	_Q15(0.012650723),	_Q15(-0.008121553),	_Q15(0.003887856),	_Q15(0.00029112434),
	_Q15(-0.0040944368),	_Q15(0.007827079),	_Q15(-0.008446943),	_Q15(0.0040937765),
	_Q15(-0.004066252),	_Q15(-0.00094893354),	_Q15(-0.0039489134),	_Q15(-0.011598962),
	_Q15(-0.0027636655),	_Q15(0.0065509835),	_Q15(0.009390264),	_Q15(0.016740998),
	_Q15(0.0053608785),	_Q15(-0.01404482),	_Q15(-0.02076919),	_Q15(-0.020105142),
	_Q15(0.010159286),	_Q15(-0.014215221),	_Q15(-0.008907178),	_Q15(-0.014251503),
	_Q15(-0.008948604),	_Q15(0.0065569393),	_Q15(-0.0045945197),	_Q15(-0.013061534),
	_Q15(0.00017096876),	_Q15(0.0052446187),	_Q15(0.017930595),	_Q15(-0.0061836643),
	_Q15(-0.005658603),	_Q15(0.0069664028),	_Q15(0.0065446207),	_Q15(0.009574456),
	_Q15(0.008733782),	_Q15(0.000688554),	_Q15(0.0041978243),	_Q15(0.004231906),
	_Q15(-0.012043617),	_Q15(0.007065669),	_Q15(0.014348934),	_Q15(0.0010479866),
	_Q15(0.010201801),	_Q15(7.438346e-05),	_Q15(0.006633492),	_Q15(-0.002059345),
	_Q15(-0.016280994),	_Q15(0.00010528801),	_Q15(-0.0058401227),	_Q15(-0.012529403),
	_Q15(-0.030881504),	_Q15(-0.026760874),	_Q15(-0.027258258),	_Q15(-0.010578841),
	_Q15(-0.01153011),	_Q15(-0.023217209),	_Q15(-0.033602033),	_Q15(-0.014605168),
	_Q15(0.0050419774),	_Q15(0.0145993065),	_Q15(0.00043765127),	_Q15(-0.0155349085),
	_Q15(-0.011693735),	_Q15(-0.016064106),	_Q15(-0.0034564836),	_Q15(-0.0031131085),
	_Q15(0.014100109),	_Q15(0.016442675),	_Q15(-0.00608279),	_Q15(0.00018625968),
	_Q15(0.01322089),	_Q15(-0.000958798),	_Q15(-0.024188774),	_Q15(-0.02705646),
	_Q15(-0.033406448),	_Q15(-0.027796106),	_Q15(-0.013506597),	_Q15(-0.021331936),
	_Q15(0.017286297),	_Q15(-0.0028026765),	_Q15(-0.013049601),	_Q15(-0.010185698),
	_Q15(0.0062765917),	_Q15(0.00224771),	_Q15(0.012879534),	_Q15(0.0059577525),
	_Q15(-0.004666672),	_Q15(-0.015044858),	_Q15(0.00068594096),	_Q15(0.005572777),
	_Q15(0.004536798),	_Q15(-0.024895577),	_Q15(-0.027271235),	_Q15(-0.0015163856),
	_Q15(-0.019377455),	_Q15(-0.013909259),	_Q15(-0.01747434),	_Q15(-0.017011328),
	_Q15(0.011870079),	_Q15(0.002855792),	_Q15(-0.010066397),	_Q15(-0.0023307498),
	_Q15(0.006659473),	_Q15(0.0074477284),	_Q15(0.025986446),	_Q15(0.031087585),
	_Q15(0.013568476),	_Q15(0.008983396),	_Q15(0.0031427988),	_Q15(-0.0005547214),
	_Q15(0.014927403),	_Q15(0.024198033),	_Q15(0.022594424),	_Q15(0.01568715),
	_Q15(0.010401083),	_Q15(0.0039521866),	_Q15(-0.008994091),	_Q15(-0.010450923),
	_Q15(0.027696054),	_Q15(0.025360022),	_Q15(-0.003960206),	_Q15(-0.010477565),
	_Q15(-0.015030666),	_Q15(0.004377984),	_Q15(0.009444132),	_Q15(0.011520335),
	_Q15(0.011320729),	_Q15(0.014158675),	_Q15(0.017589724),	_Q15(0.012406196),
	_Q15(0.02453332),	_Q15(0.018073503),	_Q15(0.012318202),	_Q15(0.0017322188),
	_Q15(0.01299757),	_Q15(0.0024313289),	_Q15(0.00870549),	_Q15(0.0021152722),
	_Q15(-0.010342967),	_Q15(-0.00912357),	_Q15(-0.0018401688),	_Q15(-0.006270323),
	_Q15(0.0031451043),	_Q15(0.013151377),	_Q15(-0.007397287),	_Q15(0.0060570813),
	_Q15(-0.0005480466),	_Q15(0.0017848806),	_Q15(-0.006481017),	_Q15(0.002500696),
	_Q15(0.0096421),	_Q15(0.0047073695),	_Q15(0.0136317555),	_Q15(-0.011994633),
	_Q15(-0.009048834),	_Q15(0.002149098),	_Q15(0.0066939364),	_Q15(0.000936904),
	_Q15(0.0026392986),	_Q15(0.0008574574),	_Q15(-0.0069787325),	_Q15(-0.0036593534),
	_Q15(-0.0007520355),	_Q15(-0.012061581),	_Q15(-0.009365965),	_Q15(0.010898707),
	_Q15(0.004624841),	_Q15(-0.008839794),	_Q15(0.010681077),	_Q15(0.0077141635),
	_Q15(0.00029057564),	_Q15(0.011660168),	_Q15(0.0025498918),	_Q15(0.014334501),
	_Q15(0.0003167767),	_Q15(0.01848774),	_Q15(0.004229605),	_Q15(0.011322938),
	_Q15(-0.006493886),	_Q15(-0.0011746533),	_Q15(-0.0018698858),	_Q15(0.008968707),
	_Q15(0.0018856998),	_Q15(-0.008284069),	_Q15(-0.002246032),	_Q15(-0.010665194),
	_Q15(-0.00409658),	_Q15(0.006272785),	_Q15(0.003727519),	_Q15(0.018981295),
	_Q15(0.015767105),	_Q15(0.021908082),	_Q15(-0.0058404),	_Q15(0.012772804),
	_Q15(0.0074099987),	_Q15(0.029873153),	_Q15(0.03409511),	_Q15(0.0018360364),
	_Q15(0.017628007),	_Q15(-0.021365838),	_Q15(0.0036155134),	_Q15(0.01493942),
	_Q15(0.009281755),	_Q15(0.01426872),	_Q15(0.0017749388),	_Q15(-0.006249404),
	_Q15(0.0037936708),	_Q15(-0.0077076824),	_Q15(0.015814073),	_Q15(0.017430566),
	_Q15(0.010462486),	_Q15(0.0076422263),	_Q15(-0.0022837005),	_Q15(-0.006308891),
	_Q15(-0.013173762),	_Q15(-0.0036298987),	_Q15(0.02122174),	_Q15(-0.0073547815),
	_Q15(0.01406289),	_Q15(-0.0062380354),	_Q15(-0.03259141),	_Q15(0.012934165),
	_Q15(0.017822264),	_Q15(-0.011085764),	_Q15(-0.000882791),	_Q15(-0.020255296),
	_Q15(-0.00028205774),	_Q15(0.0109468335),	_Q15(-0.009550474),	_Q15(-0.0042180815),
	_Q15(-0.035031375),	_Q15(-0.017113397),	_Q15(0.02736059),	_Q15(0.014953454),
	_Q15(0.0035833193),	_Q15(0.008688692),	_Q15(0.0076396298),	_Q15(0.023313029),
	_Q15(0.0077667427),	_Q15(-0.00017683861),	_Q15(-0.031795114),	_Q15(-0.013576425),
	_Q15(-0.02065168),	_Q15(-0.005385092),	_Q15(0.0024953051),	_Q15(-0.007057213),
	_Q15(-0.01016739),	_Q15(-0.014938033),	_Q15(0.0077621555),	_Q15(-0.0036459053),
	_Q15(0.0017313175),	_Q15(-0.012016566),	_Q15(-0.015409254),	_Q15(0.006983424),
	_Q15(0.0049257586),	_Q15(0.020816296),	_Q15(0.011375427),	_Q15(-0.0018938514),
	_Q15(0.00723967),	_Q15(0.024935337),	_Q15(0.018776802),	_Q15(0.0037288875),
	_Q15(-0.010496796),	_Q15(-0.02245985),	_Q15(-0.026809514),	_Q15(-0.010588889),
	_Q15(-0.005410282),	_Q15(0.00062747556),	_Q15(-0.016658152),	_Q15(-0.005043631),
	_Q15(-0.018754313),	_Q15(-0.014069434),	_Q15(-0.012487705),	_Q15(-0.01372985),
	_Q15(-0.0135308495),	_Q15(-0.018136503),	_Q15(-0.017492652),	_Q15(-0.007886243),
	_Q15(-0.012324101),	_Q15(-0.007754246),	_Q15(0.015484551),	_Q15(0.001894496),
	_Q15(-0.010358498),	_Q15(0.008281481),	_Q15(0.013101288),	_Q15(0.00506509),
	_Q15(0.003441915),	_Q15(-0.0059571373),	_Q15(-0.00028410877),	_Q15(0.0034864831),
	_Q15(-0.011075303),	_Q15(-0.013233405),	_Q15(-0.009821921),	_Q15(0.0061912443),
	_Q15(0.0077388496),	_Q15(0.009981513),	_Q15(-0.0116849085),	_Q15(-0.00052192),
	_Q15(0.008605268),	_Q15(-0.0010057087),	_Q15(0.015674518),	_Q15(-0.005374393),
	_Q15(-0.0044721034),	_Q15(0.005811456),	_Q15(0.007635895),	_Q15(-0.003045231),
	_Q15(-0.007798134),	_Q15(-0.008308531),	_Q15(-0.021457372),	_Q15(-0.014310483),
	_Q15(-0.016053705),	_Q15(-0.010466282),	_Q15(-0.007988933),	_Q15(0.0066562905),
	_Q15(0.008320896),	_Q15(-0.002901069),	_Q15(0.0060489275),	_Q15(-0.0029503782),
	_Q15(0.012917323),	_Q15(-0.0004779254),	_Q15(0.010441707),	_Q15(0.003739848),
	_Q15(-0.008231185),	_Q15(0.008552272),	_Q15(0.01197275),	_Q15(0.010015661),
	_Q15(-6.238356e-05),	_Q15(-0.0078945495),	_Q15(0.0016780306),	_Q15(-0.0038212123),
	_Q15(0.0073537),	_Q15(-0.008496049),	_Q15(-0.00055528904),	_Q15(-0.009030912),
	_Q15(-0.0072719622),	_Q15(-0.006482452),	_Q15(-0.015454662),	_Q15(0.0074783163),
	_Q15(1.549581e-05),	_Q15(0.004171444),	_Q15(0.013038806),	_Q15(-0.009508535),
	_Q15(-0.01145999),	_Q15(0.0034783653),	_Q15(0.0010681815),	_Q15(-0.006950523),
	_Q15(-0.0024107837),	_Q15(-0.005405575),	_Q15(0.0016443462),	_Q15(0.007719922),
	_Q15(0.003413974),	_Q15(0.006324765),	_Q15(-0.010161133),	_Q15(0.009202005),
	_Q15(0.014984105),	_Q15(-0.014096048),	_Q15(-0.0092066545),	_Q15(-0.011266495),
	_Q15(0.0030240193),	_Q15(0.011580367),	_Q15(0.0068039694),	_Q15(-0.019847287),
	_Q15(-0.011350739),	_Q15(-0.009339946),	_Q15(-0.016418813),	_Q15(0.0040157237),
	_Q15(0.0070846877),	_Q15(0.009705777),	_Q15(0.0041842326),	_Q15(-0.011057233),
	_Q15(-0.012765389),	_Q15(0.005022845),	_Q15(0.016069626),	_Q15(0.016260298),
	_Q15(0.009619961),	_Q15(0.0005263347),	_Q15(-0.01012701),	_Q15(0.019294808),
	_Q15(0.024435485),	_Q15(0.023028143),	_Q15(0.0105841),	_Q15(0.004236055),
	_Q15(0.00801544),	_Q15(0.015623817),	_Q15(0.01706403),	_Q15(0.023265786),
	_Q15(0.014681978),	_Q15(-0.0040714326),	_Q15(-0.002734935),	_Q15(-0.005760386),
	_Q15(-0.0124397585),	_Q15(0.011168868),	_Q15(0.030203506),	_Q15(0.01408258),
	_Q15(0.0019621283),	_Q15(-0.00781712),	_Q15(0.024100943),	_Q15(0.019710356),
	_Q15(-0.005600134),	_Q15(0.0017320283),	_Q15(0.018336553),	_Q15(0.0094997985),
	_Q15(-0.007057435),	_Q15(-0.025167564),	_Q15(-0.007181532),	_Q15(0.009479456),
	_Q15(-0.00018105673),	_Q15(-0.011800415),	_Q15(-0.0006798107),	_Q15(-0.022318048),
	_Q15(-0.037623394),	_Q15(-0.040104486),	_Q15(-0.0059292056),	_Q15(-0.015280371),
	_Q15(0.0068669766),	_Q15(0.0033769817),	_Q15(-0.0033321742),	_Q15(0.0087826615),
	_Q15(-0.008172219),	_Q15(0.011544582),	_Q15(0.01719557),	_Q15(0.029015647),
	_Q15(0.017060177),	_Q15(-0.0019779925),	_Q15(-0.006305389),	_Q15(0.018662967),
	_Q15(0.022828035),	_Q15(0.0034764449),	_Q15(-0.010935846),	_Q15(-0.010472716),
	_Q15(0.013071811),	_Q15(0.010143939),	_Q15(0.01025158),	_Q15(0.004350221),
	_Q15(-0.015119641),	_Q15(-0.014014011),	_Q15(-0.02402392),	_Q15(-0.007951182),
	_Q15(-0.0023435394),	_Q15(0.015251538),	_Q15(-0.008316178),	_Q15(-0.007671277),
	_Q15(0.004718446),	_Q15(-0.015473703),	_Q15(0.008156154),	_Q15(0.0075716656),
	_Q15(-0.014824776),	_Q15(-0.015847318),	_Q15(-0.016465131),	_Q15(0.0043844874),
	_Q15(-0.0051064896),	_Q15(-0.0014450941),	_Q15(0.0032752093),	_Q15(-0.008846396),
	_Q15(-0.006027283),	_Q15(-0.008771943),	_Q15(-0.006526321),	_Q15(-0.0040520863),
	_Q15(-0.012897307),	_Q15(-0.018095769),	_Q15(-0.0012787175),	_Q15(0.006942746),
	_Q15(0.014346894),	_Q15(0.011476424),	_Q15(0.010879116),	_Q15(0.0036096883),
	_Q15(-0.004636281),	_Q15(-0.0072450326),	_Q15(0.001402396),	_Q15(-0.0025472343),
	_Q15(0.0047510327),	_Q15(-0.0026943753),	_Q15(0.00090885034),	_Q15(-0.00014273183),
	_Q15(-0.006897355),	_Q15(-0.0069547743),	_Q15(-0.0049807983),	_Q15(-0.0027135178),
	_Q15(-0.014721648),	_Q15(-0.014282543),	_Q15(-0.00532119),	_Q15(-0.0020464147),
	_Q15(0.0047398508),	_Q15(-0.017027205),	_Q15(-0.016655747),	_Q15(0.0071551804),
	_Q15(0.004414417),	_Q15(0.006597506),	_Q15(-0.019152604),	_Q15(-0.016211472),
	_Q15(-0.003895324),	_Q15(0.0020302262),	_Q15(0.016172322),	_Q15(-0.016316835),
	_Q15(-0.021896495),	_Q15(0.005490294),	_Q15(0.018576175),	_Q15(-0.00753555),
	_Q15(-0.00674707),	_Q15(-0.023504201),	_Q15(-0.0030014256),	_Q15(0.022177191),
	_Q15(0.0060079764),	_Q15(0.016194526),	_Q15(-0.0015270923),	_Q15(-0.012035982),
	_Q15(0.001927153),	_Q15(0.017144382),	_Q15(0.024641769),	_Q15(0.0010271427),
	_Q15(-0.011622723),	_Q15(0.00076137675),	_Q15(0.015815651),	_Q15(-0.017342525),
	_Q15(-0.0003667329),	_Q15(-0.019157669),	_Q15(-0.002293054),	_Q15(-0.0035259277),
	_Q15(-0.0028416875),	_Q15(-0.0018844116),	_Q15(-0.017094731),	_Q15(0.0051861824),
	_Q15(0.01607481),	_Q15(0.0014953667),	_Q15(0.005989511),	_Q15(-0.019291522),
	_Q15(-0.022317324),	_Q15(0.005001634),	_Q15(0.011462258),	_Q15(0.014825607),
	_Q15(-0.0072474303),	_Q15(-0.031124987),	_Q15(0.012055787),	_Q15(0.0031686237),
	_Q15(0.02253949),	_Q15(-5.384453e-05),	_Q15(-0.025090508),	_Q15(0.0022715167),
	_Q15(0.006020314),	_Q15(-0.006495154),	_Q15(0.0077962973),	_Q15(0.013720927),
	_Q15(0.0031759928),	_Q15(0.0013587275),	_Q15(0.0037058638),	_Q15(0.0036915143),
	_Q15(0.0073824422),	_Q15(0.016425377),	_Q15(-0.015176732),	_Q15(-0.0033558),
	_Q15(0.016568607),	_Q15(-0.008850838),	_Q15(-0.018316997),	_Q15(-0.011829152),
	_Q15(-0.018491374),	_Q15(0.018751256),	_Q15(0.0020229819),	_Q15(-0.0371545),
	_Q15(-0.009070909),	_Q15(-0.018976921),	_Q15(0.004812125),	_Q15(-0.0011921322),
	_Q15(-0.02003881),	_Q15(0.0034822244),	_Q15(0.0038304285),	_Q15(0.0071020145),
	_Q15(0.0033837608),	_Q15(-0.014779476),	_Q15(-0.0033842868),	_Q15(0.0007839863),
	_Q15(0.014054268),	_Q15(-0.0054850476),	_Q15(-0.025806159),	_Q15(-0.020493135),
	_Q15(0.0006678201),	_Q15(-0.00028227357),	_Q15(-0.01250267),	_Q15(-0.020158134),
	_Q15(-0.023544462),	_Q15(-0.0172718),	_Q15(-0.0083271945),	_Q15(-0.012148931),
	_Q15(-0.029367857),	_Q15(-0.011551046),	_Q15(-0.021458382),	_Q15(0.008910188),
	_Q15(-0.011652734),	_Q15(-0.024332251),	_Q15(0.0076102647),	_Q15(0.0034785925),
	_Q15(0.0066426853),	_Q15(-0.0055080536),	_Q15(-0.0029577473),	_Q15(-0.004684616),
	_Q15(0.0032655098),	_Q15(-0.010454315),	_Q15(0.00057788636),	_Q15(0.0038911803),
	_Q15(0.0023664925),	_Q15(-0.0048423423),	_Q15(0.007995642),	_Q15(0.0045129447),
	_Q15(-0.0031288688),	_Q15(-0.008479663),	_Q15(0.002039758),	_Q15(-0.0007344457),
	_Q15(0.013213833),	_Q15(0.0034090118),	_Q15(-0.0077277315),	_Q15(-0.003132268),
	_Q15(0.004960903),	_Q15(0.008067126),	_Q15(0.012915372),	_Q15(-0.0029493715),
	_Q15(0.0071043884),	_Q15(0.0057127844),	_Q15(0.0052862777),	_Q15(-0.006181895),
	_Q15(-0.0024992963),	_Q15(0.0122849),	_Q15(0.0073250094),	_Q15(-0.0012453686),
	_Q15(0.011703288),	_Q15(-0.0043689692),	_Q15(0.015301982),	_Q15(0.00512128),
	_Q15(0.0041884966),	_Q15(-0.0009553155),	_Q15(-0.00049945345),	_Q15(-0.0026349337),
	_Q15(0.012372528),	_Q15(0.010900041),	_Q15(-0.006056584),	_Q15(-0.009194466),
	_Q15(-0.014825626),	_Q15(0.010399005),	_Q15(0.003980564),	_Q15(0.010233291),
	_Q15(-0.002018269),	_Q15(0.0059661674),	_Q15(-0.0032635685),	_Q15(0.0020419664),
	_Q15(-0.011267508),	_Q15(-0.0032844504),	_Q15(0.004546783),	_Q15(0.005946165),
	_Q15(0.011276685),	_Q15(-0.012997176),	_Q15(0.004059315),	_Q15(-0.0027447632),
	_Q15(0.0013830197),	_Q15(-0.008242517),	_Q15(-0.008907233),	_Q15(0.0028307524),
	_Q15(-0.011985059),	_Q15(-0.01959434),	_Q15(-0.01722743),	_Q15(-0.0014745463),
	_Q15(0.012623117),	_Q15(-0.0012866145),	_Q15(-0.012369138),	_Q15(-0.0028733788),
	_Q15(-0.00094480114),	_Q15(0.015702862),	_Q15(0.008483624),	_Q15(0.012347564),
	_Q15(0.016633466),	_Q15(0.012214532),	_Q15(0.00481022),	_Q15(0.011377036),
	_Q15(0.016319469),	_Q15(0.0019729699),	_Q15(-0.023065269),	_Q15(-0.0038448824),
	_Q15(-0.0114378),	_Q15(-0.019722618),	_Q15(-0.031065654),	_Q15(-0.01794821),
	_Q15(-0.011183553),	_Q15(-0.028267797),	_Q15(-0.022383804),	_Q15(-0.02461836),
	_Q15(-0.0031082719),	_Q15(-0.018792944),	_Q15(0.0072250473),	_Q15(-0.005719729),
	_Q15(0.011053977),	_Q15(0.0050518764),	_Q15(0.0073550874),	_Q15(0.01390845),
	_Q15(0.019100092),	_Q15(0.013282378),	_Q15(-0.011052875),	_Q15(0.013132541),
	_Q15(0.006884645),	_Q15(-0.008616074),	_Q15(-0.024113998),	_Q15(-0.022634689),
	_Q15(-0.022945615),	_Q15(-0.031423867),	_Q15(-0.02721294),	_Q15(-0.003772474),
	_Q15(0.021437937),	_Q15(-0.022730425),	_Q15(-0.0007738118),	_Q15(0.0034854715),
	_Q15(0.021230996),	_Q15(0.01255897),	_Q15(0.014933479),	_Q15(0.018837098),
	_Q15(0.027244724),	_Q15(0.0221041),	_Q15(0.019212233),	_Q15(-0.004575824),
	_Q15(0.017065788),	_Q15(0.01830879),	_Q15(0.022987526),	_Q15(0.012643459),
	_Q15(0.007327923),	_Q15(0.0030756793),	_Q15(-0.004655644),	_Q15(-0.0046572587),
	_Q15(-0.004028891),	_Q15(0.0012979587),	_Q15(-0.012203767),	_Q15(-0.007131339),
	_Q15(-0.010094612),	_Q15(0.00089128886),	_Q15(0.002086396),	_Q15(0.003587358),
	_Q15(0.013737768),	_Q15(0.021847483),	_Q15(0.027081313),	_Q15(0.0075382753),
	_Q15(0.011493767),	_Q15(0.019166434),	_Q15(0.017092442),	_Q15(0.014309244),
	_Q15(-0.008878022),	_Q15(-0.013323637),	_Q15(-0.003928652),	_Q15(-0.0051531736),
	_Q15(0.006661874),	_Q15(-0.00931729),	_Q15(-0.002340312),	_Q15(-0.004030671),
	_Q15(0.0069817677),	_Q15(0.007065224),	_Q15(-0.0017714927),	_Q15(0.010051895),
	_Q15(0.017300757),	_Q15(0.019282239),	_Q15(0.0033724003),	_Q15(0.022087594),
	_Q15(0.01461648),	_Q15(0.012753959),	_Q15(0.003988948),	_Q15(-0.007778071),
	_Q15(-0.002549644),	_Q15(0.0074195415),	_Q15(-0.01160122),	_Q15(-0.009947977),
	_Q15(-0.012129294),	_Q15(-0.017691089),	_Q15(-0.0053086),	_Q15(-0.013285688),
	_Q15(-0.0014002781),	_Q15(0.0036740464),	_Q15(-0.0095031),	_Q15(-0.006488899),
	_Q15(-0.0022943146),	_Q15(0.0024186394),	_Q15(0.004481664),	_Q15(0.0117520075),
	_Q15(0.01593592),	_Q15(0.0045685065),	_Q15(0.008929668),	_Q15(-0.00014539663),
	_Q15(0.019361224),	_Q15(0.016989505),	_Q15(0.009953114),	_Q15(0.0025889503),
	_Q15(-0.010455427),	_Q15(0.0038247553),	_Q15(-0.008575092),	_Q15(-0.0012893747),
	_Q15(-0.01118862),	_Q15(-0.00505595),	_Q15(-0.00043441338),	_Q15(-0.01004348),
	_Q15(-0.0036989064),	_Q15(-0.010169916),	_Q15(-0.0031315594),	_Q15(-0.0036906023),
	_Q15(-0.008563784),	_Q15(0.00262497),	_Q15(0.006128987),	_Q15(0.008242401),
	_Q15(0.0039871144),	_Q15(0.0026362885),	_Q15(0.0017155015),	_Q15(-0.0012923733),
	_Q15(0.007927638),	_Q15(0.012262548),	_Q15(-0.0050572166),	_Q15(0.004768729),
	_Q15(-0.0052884775),	_Q15(0.0011321837),	_Q15(-0.003552807),	_Q15(-0.0022831366),
	_Q15(0.0024839467),	_Q15(-0.006878949),	_Q15(-0.017210675),	_Q15(-0.022617951),
	_Q15(-0.015648697),	_Q15(-0.0025152983),	_Q15(-0.0054347063),	_Q15(-0.016934348),
	_Q15(0.0038743583),	_Q15(0.0067401566),	_Q15(-0.0005198972),	_Q15(-0.0048145293),
	_Q15(-0.0023757787),	_Q15(0.009813191),	_Q15(0.018153286),	_Q15(0.023242902),
	_Q15(0.020020071),	_Q15(2.3062621e-05),	_Q15(-0.022951536),	_Q15(0.0065996363),
	_Q15(0.013911764),	_Q15(0.01578309),	_Q15(0.013697472),	_Q15(-0.022031086),
	_Q15(-0.037224397),	_Q15(-0.03404226),	_Q15(-0.023538658),	_Q15(-0.027055891),
	_Q15(0.018738795),	_Q15(0.01101211),	_Q15(-0.004057783),	_Q15(-0.0076963687),
	_Q15(0.01128237),	_Q15(0.032663915),	_Q15(0.027005943),	_Q15(0.0067759603),
	_Q15(-0.0061671687),	_Q15(0.008512337),	_Q15(0.0013003083),	_Q15(0.007952912),
	_Q15(0.008711001),	_Q15(0.013064103),	_Q15(0.01224166),	_Q15(-0.020181017),
	_Q15(-0.010583446),	_Q15(-0.03870192),	_Q15(-0.029876543),	_Q15(-0.023393424),
	_Q15(0.0042098006),	_Q15(0.0071760425),	_Q15(0.0015056147),	_Q15(-0.012058298),
	_Q15(-0.015275614),	_Q15(0.0030760344),	_Q15(0.007709021),	_Q15(0.00031014154),
	_Q15(-0.011055414),	_Q15(-0.008511536),	_Q15(0.0204568),	_Q15(0.008200417),
	_Q15(-0.01843159),	_Q15(-0.012145501),	_Q15(1.689793e-05),	_Q15(0.021249497),
	_Q15(0.012301498),	_Q15(0.010714296),	_Q15(0.00277914),	_Q15(0.0054025617),
	_Q15(-0.021743007),	_Q15(-0.010233228),	_Q15(0.008696379),	_Q15(0.00011644549),
	_Q15(0.0038664495),	_Q15(-0.008875531),	_Q15(0.009205494),	_Q15(-0.010641639),
	_Q15(-0.019359885),	_Q15(-0.015102245),	_Q15(0.013967696),	_Q15(0.0060308627),
	_Q15(0.004468342),	_Q15(0.0011931155),	_Q15(0.009501618),	_Q15(-0.017518274),
	_Q15(-0.008992029),	_Q15(-0.010555465),	_Q15(-0.0028025946),	_Q15(-0.011645907),
	_Q15(-0.0236384),	_Q15(-0.009263848),	_Q15(-0.011131748),	_Q15(-0.014711079),
	_Q15(-0.013571506),	_Q15(0.017092371),	_Q15(0.0151282605),	_Q15(-0.0041457773),
	_Q15(0.0037288778),	_Q15(0.010989415),	_Q15(-0.00067917735),	_Q15(0.008386271),
	_Q15(0.009116461),	_Q15(0.019493772),	_Q15(0.005232949),	_Q15(0.0036137074),
	_Q15(0.011637331),	_Q15(-0.0035912192),	_Q15(-0.0021757807),	_Q15(0.0048698727),
	_Q15(-0.01583089),	_Q15(-0.0054116827),	_Q15(-0.00021328198),	_Q15(-0.0061614686),
	_Q15(-0.010924364),	_Q15(-0.005986966),	_Q15(-0.011390481),	_Q15(-0.0062963003),
	_Q15(-0.014240166),	_Q15(-0.015400987),	_Q15(0.013197052),	_Q15(0.013359205),
	_Q15(0.0027964462),	_Q15(0.0016428691),	_Q15(-0.0023052448),	_Q15(0.016927397),
	_Q15(0.011764868),	_Q15(0.0014286701),	_Q15(0.0011300418),	_Q15(0.007684147),
	_Q15(-0.0064202603),	_Q15(0.010072382),	_Q15(0.00013610927),	_Q15(-0.027458807),
	_Q15(-0.0068968055),	_Q15(0.011835714),	_Q15(0.018175412),	_Q15(0.01810903),
	_Q15(-0.023922957),	_Q15(0.014443259),	_Q15(0.016257953),	_Q15(0.027428057),
	_Q15(0.026168674),	_Q15(-0.015915364),	_Q15(0.02062948),	_Q15(0.018025031),
	_Q15(0.025759783),	_Q15(0.022330588),	_Q15(-0.011930473),	_Q15(0.016018938),
	_Q15(0.0188397),	_Q15(0.020454422),	_Q15(0.030298868),	_Q15(-0.0128059285),
	_Q15(0.0073939185),	_Q15(-0.0038639125),	_Q15(-0.0037311641),	_Q15(-0.003784674),
	_Q15(-0.000618297),	_Q15(-0.01587685),	_Q15(-0.0043749115),	_Q15(0.0020030572),
	_Q15(0.0075810254),	_Q15(-0.005202167),	_Q15(-0.008654197),	_Q15(0.0014609562),
	_Q15(0.012848777),	_Q15(-0.0021398615),	_Q15(-0.0032964062),	_Q15(-0.022314526),
	_Q15(0.02051851),	_Q15(0.008723773),	_Q15(0.014015998),	_Q15(-0.0035985373),
	_Q15(-0.027032025),	_Q15(0.0015542852),	_Q15(0.00130265),	_Q15(0.006381471),
	_Q15(0.01912288),	_Q15(-0.0075726053),	_Q15(-0.002875759),	_Q15(-0.010803346),
	_Q15(-0.008796582),	_Q15(-0.012836305),	_Q15(-0.009099119),	_Q15(-0.0017439394),
	_Q15(0.0005579237),	_Q15(-0.017010903),	_Q15(-0.008873344),	_Q15(-0.0053769993),
	_Q15(0.009646942),	_Q15(0.0029235356),	_Q15(-0.025914999),	_Q15(-0.011830901),
	_Q15(0.0028228096),	_Q15(-0.010280139),	_Q15(0.012290988),	_Q15(-0.011226316),
	_Q15(-0.0058879894),	_Q15(0.0036420997),	_Q15(0.0037809615),	_Q15(0.0030697626),
	_Q15(-0.0027695957),	_Q15(0.0054912),	_Q15(0.020634424),	_Q15(-0.0077972207),
	_Q15(-0.008298582),	_Q15(-0.0068386206),	_Q15(-0.014265269),	_Q15(0.0008151996),
	_Q15(-0.0052153505),	_Q15(-0.0024065883),	_Q15(-0.027127367),	_Q15(-0.006375155),
	_Q15(0.008853645),	_Q15(-0.00632395),	_Q15(-0.009477794),	_Q15(-0.02952901),
	_Q15(-0.0058322814),	_Q15(0.020156618),	_Q15(-0.007707303),	_Q15(-0.020665409),
	_Q15(-0.037334867),	_Q15(-0.0018479254),	_Q15(0.02421604),	_Q15(0.0016099978),
	_Q15(-0.005460588),	_Q15(-0.023517702),	_Q15(-0.007134966),	_Q15(0.008345483),
	_Q15(-0.007146962),	_Q15(-0.013618673),	_Q15(0.01262719),	_Q15(0.0013335643),
	_Q15(0.006597107),	_Q15(-0.016994527),	_Q15(-0.0033193307),	_Q15(0.00338479),
	_Q15(0.004222661),	_Q15(-0.010112222),	_Q15(-0.010403855),	_Q15(-0.024676634),
	_Q15(0.0016916632),	_Q15(0.0020000262),	_Q15(-0.0021221663),	_Q15(-0.009889533),
	_Q15(-0.017346835),	_Q15(-0.008154815),	_Q15(0.007441237),	_Q15(0.007743634),
	_Q15(-0.0055371644),	_Q15(-0.002547281),	_Q15(-0.006367922),	_Q15(0.005578931),
	_Q15(0.009803596),	_Q15(0.011818614),	_Q15(-0.013476921),	_Q15(0.0058333674),
	_Q15(-0.0028920984),	_Q15(0.0081828125),	_Q15(0.009045748),	_Q15(0.0031981226),
	_Q15(0.00886905),	_Q15(0.012841339),	_Q15(0.00091180584),	_Q15(-0.003684901),
	_Q15(-3.2934884e-05),	_Q15(0.0073676626),	_Q15(0.007232107),	_Q15(0.0026941262),
	_Q15(-0.004718298),	_Q15(-0.014054322),	_Q15(-0.0010008946),	_Q15(0.009343076),
	_Q15(0.006611805),	_Q15(-0.0016307583),	_Q15(-0.012504456),	_Q15(-0.012875818),
	_Q15(-0.0025142326),	_Q15(0.011671512),	_Q15(0.01627215),	_Q15(0.019958263),
	_Q15(0.0009825829),	_Q15(0.009375477),	_Q15(-0.01446137),	_Q15(0.011824972),
	_Q15(0.0107928775),	_Q15(0.013342001),	_Q15(0.013966297),	_Q15(-0.01578917),
	_Q15(-0.011120158),	_Q15(-0.0049942997),	_Q15(0.015958505),	_Q15(0.016206477),
	_Q15(-0.0010286603),	_Q15(-0.009987657),	_Q15(-0.01007509),	_Q15(-0.008269517),
	_Q15(0.005732362),	_Q15(0.016500445),	_Q15(-0.0005941459),	_Q15(-0.0047090543),
	_Q15(-0.012668532),	_Q15(-0.007964541),	_Q15(-0.0066510304),	_Q15(-0.0056561125),
	_Q15(-0.023133066),	_Q15(-0.013528621),	_Q15(-0.008493304),	_Q15(-0.0063475315),
	_Q15(-0.00908429),	_Q15(0.0038047365),	_Q15(0.0018017871),	_Q15(0.019382345),
	_Q15(0.015989216),	_Q15(-0.019188063),	_Q15(0.013423153),	_Q15(0.025603881),
	_Q15(0.03142362),	_Q15(0.03490974),	_Q15(-0.022122683),	_Q15(-0.029258164),
	_Q15(-0.01751986),	_Q15(0.0013973383),	_Q15(0.021504164),	_Q15(0.016936308),
	_Q15(-0.0011740647),	_Q15(-0.007430966),	_Q15(-0.00988228),	_Q15(-0.004942293),
	_Q15(0.0100995805),	_Q15(0.0093876785),	_Q15(0.0029898325),	_Q15(-0.005207461),
	_Q15(-0.016024834),	_Q15(0.020901715),	_Q15(0.018965006),	_Q15(0.0049838736),
	_Q15(-0.0013103167),	_Q15(0.010844834),	_Q15(-0.0047937217),	_Q15(-0.02261497),
	_Q15(-0.034561425),	_Q15(-0.037342206),	_Q15(-0.012106676),	_Q15(0.0007781769),
	_Q15(-0.0075567258),	_Q15(-0.022658708),	_Q15(-0.018942218),	_Q15(-0.03673383),
	_Q15(0.0005353036),	_Q15(-0.00011396725),	_Q15(0.025614846),	_Q15(0.010891675),
	_Q15(0.008267282),	_Q15(-0.0143663),	_Q15(-0.004721474),	_Q15(-0.0073303436),
	_Q15(0.008107336),	_Q15(-0.010348223),	_Q15(0.015518167),	_Q15(0.008319218),
	_Q15(-0.0016772796),	_Q15(0.006380046),	_Q15(0.01060621),	_Q15(-0.012044638),
	_Q15(-0.018519776),	_Q15(-0.017379262),	_Q15(0.0036802802),	_Q15(0.010469002),
	_Q15(-0.008813252),	_Q15(-0.011632104),	_Q15(-0.019414391),	_Q15(-0.015298841),
	_Q15(0.0030822502),	_Q15(0.015380336),	_Q15(0.010235822),	_Q15(0.0045548384),
	_Q15(0.0056983866),	_Q15(-0.003580044),	_Q15(0.0024044535),	_Q15(-0.010233042),
	_Q15(-0.0015670591),	_Q15(0.0069480957),	_Q15(-0.0025270258),	_Q15(-0.014264208),
	_Q15(0.0026622533),	_Q15(-0.011435242),	_Q15(-0.011930933),	_Q15(0.0036067155),
	_Q15(0.016929144),	_Q15(0.011903949),	_Q15(-0.009208196),	_Q15(-0.0026104765),
	_Q15(0.003498859),	_Q15(0.013824113),	_Q15(0.01766289),	_Q15(0.015834631),
	_Q15(0.0071024806),	_Q15(0.0014320902),	_Q15(-0.014901569),	_Q15(-0.00828458),
	_Q15(-0.0027067154),	_Q15(0.00010314327),	_Q15(0.011022905),	_Q15(0.0043790587),
	_Q15(0.0040736627),	_Q15(-0.0073165935),	_Q15(-0.011142781),	_Q15(0.0053134183),
	_Q15(0.001030041),	_Q15(-0.013366559),	_Q15(-0.015142193),	_Q15(-0.011863044),
	_Q15(-0.010158359),	_Q15(0.012590915),	_Q15(-0.000842644),	_Q15(0.0022252065),
	_Q15(-0.02178402),	_Q15(-0.01773644),	_Q15(0.016228352),	_Q15(0.012665588),
	_Q15(0.016247725),	_Q15(0.012055388),	_Q15(0.0001676531),	_Q15(-0.0039521554),
	_Q15(0.004630129),	_Q15(0.005403157),	_Q15(0.005678078),	_Q15(0.012917609),
	_Q15(0.00026211923),	_Q15(-0.0039917524),	_Q15(0.0014390514),	_Q15(0.017512735),
	_Q15(0.027144613),	_Q15(-0.0004868757),	_Q15(-0.0138187455),	_Q15(-0.010031254),
	_Q15(0.0048548933),	_Q15(0.023716027),	_Q15(-0.016170047),	_Q15(-0.025278078),
	_Q15(-0.021043254),	_Q15(-0.015976368),	_Q15(0.01551944),	_Q15(-0.023346229),
	_Q15(-0.031242868),	_Q15(-0.032419886),	_Q15(-0.030308211),	_Q15(-0.019126011),
	_Q15(-0.0018489222),	_Q15(-0.005852202),	_Q15(-0.008466756),	_Q15(-0.009286381),
	_Q15(-0.0075023435),	_Q15(0.01722892),	_Q15(0.004822409),	_Q15(0.006476847),
	_Q15(0.0068777255),	_Q15(0.015361408),	_Q15(-0.0033780634),	_Q15(0.010252144),
	_Q15(0.0119441645),	_Q15(0.0050828047),	_Q15(0.019446906),	_Q15(-0.03391395),
	_Q15(-0.03331348),	_Q15(-0.0320523),	_Q15(-0.026647635),	_Q15(-0.014600475),
	_Q15(0.0074146646),	_Q15(-0.00056573946),	_Q15(-0.0009113032),	_Q15(-0.0036668228),
	_Q15(-0.003314644),	_Q15(0.005889147),	_Q15(0.006103173),	_Q15(0.017542396),
	_Q15(0.0010035884),	_Q15(0.003049399),	_Q15(0.0060959565),	_Q15(-0.00028626327),
	_Q15(0.0136663085),	_Q15(0.017039517),	_Q15(-0.0010313827),	_Q15(-0.026500745),
	_Q15(-0.027006833),	_Q15(-0.025505332),	_Q15(-0.0026513203),	_Q15(-0.019854011),
	_Q15(-0.0041062003),	_Q15(-0.011661483),	_Q15(-0.0029161994),	_Q15(0.006126102),
	_Q15(-0.004301173),	_Q15(-0.00035742595),	_Q15(0.020910086),	_Q15(0.02731876),
	_Q15(0.018435676),	_Q15(0.011568857),	_Q15(0.0032560206),	_Q15(-0.003784086),
	_Q15(0.019727882),	_Q15(0.007928874),	_Q15(-0.0077169733),	_Q15(0.0022747745),
	_Q15(-0.0019400597),	_Q15(-0.00171651),	_Q15(0.00056221907),	_Q15(-0.0049855527),
	_Q15(0.019160172),	_Q15(0.020387355),	_Q15(0.0148401605),	_Q15(0.01591766),
	_Q15(0.0009977048),	_Q15(-0.010576017),	_Q15(-0.015403571),	_Q15(-0.0009813146),
	_Q15(0.008114919),	_Q15(-0.0070968405),	_Q15(0.026651917),	_Q15(0.023599567),
	_Q15(0.023804279),	_Q15(0.017456569),	_Q15(0.013724496),	_Q15(0.008591309),
	_Q15(0.0023853155),	_Q15(-0.0016231106),	_Q15(0.0021898118),	_Q15(0.0017833322),
	_Q15(-0.0031901689),	_Q15(-0.011113486),	_Q15(-0.0059937704),	_Q15(-0.0199182),
	_Q15(-0.016095445),	_Q15(-0.004046949),	_Q15(0.0060450938),	_Q15(0.013336387),
	_Q15(0.011035867),	_Q15(-0.006031997),	_Q15(0.0036877734),	_Q15(0.016855616),
	_Q15(0.020750176),	_Q15(0.0059086666),	_Q15(0.02042824),	_Q15(-0.0036206772),
	_Q15(-0.008313268),	_Q15(0.008855541),	_Q15(0.012174112),	_Q15(0.001986448),
	_Q15(0.0029428361),	_Q15(-0.008057004),	_Q15(0.0011057745),	_Q15(-0.0021590183),
	_Q15(-0.00073777104),	_Q15(-0.012984151),	_Q15(0.0030466267),	_Q15(0.0039857705),
	_Q15(-0.007935539),	_Q15(0.0003976852),	_Q15(0.0015190194),	_Q15(-0.0027725801),
	_Q15(0.013543927),	_Q15(-0.00575461),	_Q15(-0.012934516),	_Q15(0.013492512),
	_Q15(0.0037035407),	_Q15(0.0061829626),	_Q15(0.0070929113),	_Q15(-0.0020260466),
	_Q15(-0.012162368),	_Q15(-0.0025239314),	_Q15(0.009053009),	_Q15(0.0062667513),
	_Q15(0.00222297),	_Q15(-0.010163929),	_Q15(-0.0031601144),	_Q15(0.0021833428),
	_Q15(-0.009172237),	_Q15(0.0075851763),	_Q15(-0.0070388904),	_Q15(-0.018227022),
	_Q15(-0.015439173),	_Q15(-0.011070425),	_Q15(0.007843824),	_Q15(-0.0069695693),
	_Q15(-0.0015061839),	_Q15(-0.014188029),	_Q15(-0.020983849),	_Q15(-0.020296752),
	_Q15(0.007926796),	_Q15(-0.007061846),	_Q15(0.015686885),	_Q15(0.006087012),
	_Q15(-0.027972259),	_Q15(-0.015781231),	_Q15(-0.0034303372),	_Q15(0.0058357827),
	_Q15(0.024270035),	_Q15(-0.0037522186),	_Q15(-0.014755768),	_Q15(-0.015434009),
	_Q15(0.0055663167),	_Q15(0.021192716),	_Q15(0.021192264),	_Q15(0.008101157),
	_Q15(-0.015905794),	_Q15(-0.025159962),	_Q15(-0.005141997),	_Q15(0.0020100798),
	_Q15(0.008342906),	_Q15(0.018113676),	_Q15(0.00505457),	_Q15(-0.020166365),
	_Q15(-0.014800197),	_Q15(0.0041762143),	_Q15(0.014198315),	_Q15(0.020694027),
	_Q15(-0.003779338),	_Q15(-0.025639396),	_Q15(-0.019614156),	_Q15(-0.008408133),
	_Q15(0.013308754),	_Q15(0.026717989),	_Q15(0.009802726),	_Q15(-0.005558214),
	_Q15(-0.0065899557),	_Q15(-0.032355353),	_Q15(-0.007220874),	_Q15(0.009170263),
	_Q15(0.0035261447),	_Q15(0.020415733),	_Q15(0.01627063),	_Q15(0.011122318),
	_Q15(0.011119348),	_Q15(-0.006623418),	_Q15(0.01016453),	_Q15(0.008759152),
	_Q15(-0.004012036),	_Q15(-0.0083770985),	_Q15(0.009195909),	_Q15(-0.013867768),
	_Q15(0.017176913),	_Q15(0.02323783),	_Q15(0.019633869),	_Q15(0.006655236),
	_Q15(-0.007898716),	_Q15(-0.03225384),	_Q15(-0.020875204),	_Q15(0.008677943),
	_Q15(0.0016150459),	_Q15(0.0036963492),	_Q15(-0.0042520487),	_Q15(-0.009905813),
	_Q15(-0.02449648),	_Q15(0.0018529547),	_Q15(-0.0059035863),	_Q15(0.0025565752),
	_Q15(0.019029552),	_Q15(0.013587778),	_Q15(0.0074259653),	_Q15(-0.0073942663),
	_Q15(0.002034984),	_Q15(0.0096639255),	_Q15(-0.005399189),	_Q15(-0.00620367),
	_Q15(0.0061423145),	_Q15(0.0012077957),	_Q15(0.0069448734),	_Q15(-0.0016779698),
	_Q15(-0.013247484),	_Q15(-0.016835522),	_Q15(-0.002995202),	_Q15(0.0018726494),
	_Q15(0.013300333),	_Q15(-0.0010349347),	_Q15(0.007402963),	_Q15(-0.016029302),
	_Q15(-0.016141634),	_Q15(0.009953318),	_Q15(0.0053639114),	_Q15(-0.007971053),
	_Q15(0.012214862),	_Q15(0.008219654),	_Q15(0.007958431),	_Q15(-0.00815628),
	_Q15(-0.008479484),	_Q15(-0.0010018229),	_Q15(0.005306725),	_Q15(0.018003188),
	_Q15(-0.0015124826),	_Q15(-0.011187402),	_Q15(-0.017772317),	_Q15(-0.006314199),
	_Q15(0.0061085946),	_Q15(0.012867965),	_Q15(0.0042578126),	_Q15(-0.0024306711),
	_Q15(-0.014399648),	_Q15(-0.021481844),	_Q15(-0.0019330732),	_Q15(0.009127852),
	_Q15(0.017919958),	_Q15(0.020769605),	_Q15(-0.009702291),	_Q15(-0.00013904067),
	_Q15(0.008885277),	_Q15(-0.00029003178),	_Q15(0.006108924),	_Q15(0.002668274),
	_Q15(-0.016816175),	_Q15(-0.017492378),	_Q15(-0.0059144935),	_Q15(-0.005259089),
	_Q15(0.0054337205),	_Q15(-0.0042791213),	_Q15(-0.01466402),	_Q15(-0.014904801),
	_Q15(-0.0047511775),	_Q15(0.00016777104),	_Q15(0.009564762),	_Q15(0.015058168),
	_Q15(0.007141235),	_Q15(-0.004367952),	_Q15(-0.008770388),	_Q15(-0.009088557),
	_Q15(0.01473851),	_Q15(0.0003117858),	_Q15(-0.00045271075),	_Q15(-0.012782466),
	_Q15(0.0046471646),	_Q15(0.0113163935),	_Q15(0.008859434),	_Q15(0.0043671043),
	_Q15(-0.008484729),	_Q15(-0.0031068844),	_Q15(0.0025421155),	_Q15(0.021663211),
	_Q15(0.018069504),	_Q15(-0.042177457),	_Q15(-0.012922297),	_Q15(0.019859493),
	_Q15(0.023783196),	_Q15(0.034807567),	_Q15(-0.028127607),	_Q15(-0.010872571),
	_Q15(0.010080061),	_Q15(0.022152215),	_Q15(0.03746045),	_Q15(0.0083167385),
	_Q15(-0.013680899),	_Q15(0.004582131),	_Q15(-0.0043640356),	_Q15(0.020333573),
	_Q15(0.018280964),	_Q15(0.0037646554),	_Q15(-0.005847987),	_Q15(-0.0027717552),
	_Q15(-0.011511429),	_Q15(-0.012029216),	_Q15(-0.007287954),	_Q15(-0.011137974),
	_Q15(0.009766876),	_Q15(-0.001353486),	_Q15(0.0010366286),	_Q15(-0.003119233),
	_Q15(-0.026071405),	_Q15(0.012365207),	_Q15(0.016179949),	_Q15(0.00589355),
	_Q15(0.009122363),	_Q15(-0.008812389),	_Q15(0.02173393),	_Q15(0.023806933),
	_Q15(0.011457994),	_Q15(-0.009299419),	_Q15(-0.012566198),	_Q15(0.020712491),
	_Q15(0.025824768),	_Q15(0.006086697),	_Q15(-0.0038174791),	_Q15(0.006338121),
	_Q15(-0.0016335353),	_Q15(-0.009052755),	_Q15(-0.016405294),	_Q15(0.0012876493),
	_Q15(-0.0062685213),	_Q15(0.0004710616),	_Q15(-0.011252983),	_Q15(-0.018595114),
	_Q15(-0.0009980393),	_Q15(-0.0056183725),	_Q15(-0.0034700716),	_Q15(-0.020401673),
	_Q15(-0.006207312),	_Q15(-0.009340941),	_Q15(0.0071965847),	_Q15(-0.015946392),
	_Q15(-0.014638563),	_Q15(-0.0033789978),	_Q15(0.0021984454),	_Q15(0.0015820584),
	_Q15(0.0072710738),	_Q15(-0.0037806332),	_Q15(-0.00349112),	_Q15(0.0032578867),
	_Q15(-0.00034483089),	_Q15(0.0013816187),	_Q15(-0.010950422),	_Q15(0.010008344),
	_Q15(0.00896174),	_Q15(-0.007659394),	_Q15(-0.007326675),	_Q15(-0.024741175),
	_Q15(0.0029333087),	_Q15(0.0023174812),	_Q15(0.0017736052),	_Q15(-0.020007644),
	_Q15(-0.042596135),	_Q15(0.010576833),	_Q15(0.009685959),	_Q15(0.003448162),
	_Q15(-0.006804351),	_Q15(-0.041889735),	_Q15(-0.005504092),	_Q15(0.0073763453),
	_Q15(0.010544273),	_Q15(-0.003921779),	_Q15(-0.015813788),	_Q15(-0.00569645),
	_Q15(0.0005260225),	_Q15(-0.008161414),	_Q15(-0.005584479),	_Q15(0.008448354),
	_Q15(0.0017152602),	_Q15(-0.0004963563),	_Q15(-0.0057722074),	_Q15(-0.016345501),
	_Q15(0.0013963397),	_Q15(0.015059076),	_Q15(0.010358865),	_Q15(0.00018456839),
	_Q15(-0.020401089),	_Q15(-0.015135052),	_Q15(0.014516429),	_Q15(-0.0019226323),
	_Q15(0.005115415),	_Q15(-0.013275231),	_Q15(-0.023760743),	_Q15(0.006603556),
	_Q15(0.0013280055),	_Q15(0.006086403),	_Q15(0.0029745144),	_Q15(-0.004456504),
	_Q15(-0.004221562),	_Q15(0.01109664),	_Q15(-0.0044896244),	_Q15(-0.012997592),
	_Q15(0.012237354),	_Q15(0.0018877037),	_Q15(0.018251669),	_Q15(-0.0036224683),
	_Q15(-0.0064975196),	_Q15(0.00475554),	_Q15(0.0068413364),	_Q15(0.00425419),
	_Q15(-0.00035092788),	_Q15(-0.007864881),	_Q15(0.00227846),	_Q15(0.014997827),
	_Q15(0.001657407),	_Q15(0.005907452),	_Q15(0.0030621986),	_Q15(-0.010636147),
	_Q15(-0.0057044523),	_Q15(-0.006214371),	_Q15(-0.008312679),	_Q15(-0.0071519343),
	_Q15(-0.0039177537),	_Q15(-0.0017307466),	_Q15(-0.0068907654),	_Q15(-0.016072892),
	_Q15(-0.015670994),	_Q15(-0.017275738),	_Q15(-0.028706547),	_Q15(-0.0026866759),
	_Q15(-0.0099187875),	_Q15(-0.026694035),	_Q15(-0.02136428),	_Q15(-0.020791484),
	_Q15(0.018110873),	_Q15(-0.0005817057),	_Q15(-0.03559512),	_Q15(-0.008826356),
	_Q15(-0.024868775),	_Q15(0.018479586),	_Q15(0.021850882),	_Q15(-0.013616106),
	_Q15(-0.027284032),	_Q15(-0.004350864),	_Q15(0.010763),	_Q15(0.022224095),
	_Q15(-2.4515564e-05),	_Q15(-0.016446518),	_Q15(-0.0035376558),	_Q15(0.00018238348),
	_Q15(-0.005366217),	_Q15(-0.01488913),	_Q15(0.0044093747),	_Q15(-0.0014340989),
	_Q15(0.016787741),	_Q15(0.011285005),	_Q15(-0.009688544),	_Q15(-0.017357094),
	_Q15(-0.0051879296),	_Q15(0.02021197),	_Q15(0.02363172),	_Q15(0.00931418),
	_Q15(-0.017519375),	_Q15(-0.014458394),	_Q15(0.0035038232),	_Q15(0.023926469),
	_Q15(0.01097369),	_Q15(0.011015023),	_Q15(-0.00085215166),	_Q15(-0.010210033),
	_Q15(0.0055428664),	_Q15(0.0039010476),	_Q15(0.012235158),	_Q15(0.002229216),
	_Q15(-0.0013085158),	_Q15(0.0074535822),	_Q15(-0.013819204),	_Q15(-0.024915993),
	_Q15(-0.00050999376),	_Q15(-0.0024797358),	_Q15(0.005239734),	_Q15(0.013393124),
	_Q15(0.0002518616),	_Q15(-0.007574904),	_Q15(-0.0074541057),	_Q15(0.008819881),
	_Q15(0.0071229558),	_Q15(0.026041314),	_Q15(0.0030600918),	_Q15(-0.0077583864),
	_Q15(-0.0018269776),	_Q15(0.00059710426),	_Q15(0.022131668),	_Q15(0.013581767),
	_Q15(-0.005334453),	_Q15(-0.0048085283),	_Q15(-0.0007038858),	_Q15(0.009839925),
	_Q15(0.012916447),	_Q15(0.00066873594),	_Q15(0.0037190763),	_Q15(-0.007512979),
	_Q15(-0.006663816),	_Q15(-0.01636213),	_Q15(0.0019894263),	_Q15(0.0078030447),
	_Q15(0.003958002),	_Q15(0.0066382727),	_Q15(0.0149196135),	_Q15(-0.002765283),
	_Q15(-0.004103483),	_Q15(0.015545321),	_Q15(0.015811447),	_Q15(0.0067618056),
	_Q15(0.010885773),	_Q15(-0.006267379),	_Q15(-0.0075393007),	_Q15(0.012445238),
	_Q15(-0.0030859516),	_Q15(0.015806507),	_Q15(0.009399576),	_Q15(-0.009252814),
	_Q15(0.0019252652),	_Q15(-0.00972764),	_Q15(-0.004576195),	_Q15(0.0031019058),
	_Q15(-0.00074835966),	_Q15(0.0063237525),	_Q15(0.0034523334),	_Q15(0.00064548414),
	_Q15(0.011705439),	_Q15(0.0009684646),	_Q15(0.016274093),	_Q15(0.016085684),
	_Q15(-0.0031628837),	_Q15(-0.016667213),	_Q15(0.0047647953),	_Q15(0.006068821),
	_Q15(0.0029482194),	_Q15(-0.00096347276),	_Q15(-0.014675694),	_Q15(-0.013203155),
	_Q15(0.004383985),	_Q15(0.012509704),	_Q15(-0.007942363),	_Q15(-0.0010971738),
	_Q15(-0.016966421),	_Q15(-0.0025619331),	_Q15(0.0041743424),	_Q15(0.0041014994),
	_Q15(0.015685787),	_Q15(0.012103485),	_Q15(-0.007054123),	_Q15(0.01125358),
	_Q15(-0.009293294),	_Q15(0.008334087),	_Q15(0.00449449),	_Q15(0.004223179),
	_Q15(0.0036388761),	_Q15(-0.014996069),	_Q15(-0.003241602),	_Q15(0.002966687),
	_Q15(0.011479567),	_Q15(0.010404324),	_Q15(-0.004517969),	_Q15(-0.01104762),
	_Q15(-0.012287987),	_Q15(-0.00073953264),	_Q15(-0.0033384808),	_Q15(-0.011330265),
	_Q15(-0.00090012327),	_Q15(-0.006229422),	_Q15(-0.0025376743),	_Q15(0.0065907347)
};

__ro_hinv _q15 conv2_bias[] = {
	_Q15(-0.0011030575),	_Q15(-0.0056686937),	_Q15(-0.0020521272),	_Q15(0.004375735),
	_Q15(-0.0073388177),	_Q15(-0.0063165324),	_Q15(0.00014362663),	_Q15(0.0067133713),
	_Q15(-0.003773335),	_Q15(-0.0030233492),	_Q15(-0.009035462),	_Q15(0.0033148485),
	_Q15(-0.006726183),	_Q15(-0.003308172),	_Q15(-0.0074314186),	_Q15(-0.008462272)
};

