#include <params/include/conv1.h>

__ro_hinv mat_t conv1_weight_meta = {
	.dims = {6, 1, 5, 5},
	.len_dims = 4,
	.strides = {25, 25, 5, 1},
	.data = (fixed *)conv1_weight
};

__ro_hinv mat_t conv1_bias_meta = {
	.dims = {1, 6},
	.len_dims = 2,
	.strides = {6, 1},
	.data = (fixed *)conv1_bias
};

__ro_hinv _q15 conv1_weight[] = {
	_Q15(-0.0054547745),	_Q15(-0.005855967),	_Q15(0.01239742),	_Q15(0.024638547),
	_Q15(0.017861582),	_Q15(-0.030514846),	_Q15(-0.030213246),	_Q15(0.032280065),
	_Q15(0.026035517),	_Q15(0.00095768244),	_Q15(-0.029737975),	_Q15(0.00497649),
	_Q15(0.029236412),	_Q15(-0.0034544542),	_Q15(0.0020390195),	_Q15(-0.02552091),
	_Q15(0.011713515),	_Q15(-0.0009208215),	_Q15(0.012174502),	_Q15(-0.006609406),
	_Q15(-0.011690748),	_Q15(-0.011924084),	_Q15(0.0018168202),	_Q15(-0.00018271894),
	_Q15(0.009834783),	_Q15(0.007899897),	_Q15(-0.020900609),	_Q15(-0.036710396),
	_Q15(0.0051451023),	_Q15(-0.028593581),	_Q15(0.026273264),	_Q15(0.03189667),
	_Q15(0.018656496),	_Q15(0.0048734676),	_Q15(-0.024863606),	_Q15(0.031067196),
	_Q15(0.02750529),	_Q15(0.0181925),	_Q15(0.013779908),	_Q15(0.012370949),
	_Q15(0.012250651),	_Q15(0.025551004),	_Q15(0.028232679),	_Q15(-0.006387822),
	_Q15(-0.009410258),	_Q15(-0.012040532),	_Q15(-0.018825065),	_Q15(-0.04132624),
	_Q15(-0.033905633),	_Q15(0.0009043015),	_Q15(0.0029908922),	_Q15(-0.027629495),
	_Q15(-0.02269477),	_Q15(0.0007026823),	_Q15(-0.004225925),	_Q15(-0.026205024),
	_Q15(-0.037296794),	_Q15(-0.0036150934),	_Q15(0.010818711),	_Q15(0.014412327),
	_Q15(-0.014346767),	_Q15(0.0041788933),	_Q15(-0.01590108),	_Q15(0.008645804),
	_Q15(0.013508562),	_Q15(0.02058731),	_Q15(0.008827829),	_Q15(0.003962379),
	_Q15(-0.0069230935),	_Q15(0.017156266),	_Q15(0.023405176),	_Q15(0.024790335),
	_Q15(0.034411512),	_Q15(0.0010753475),	_Q15(-0.0053909314),	_Q15(-0.010865638),
	_Q15(-0.00962344),	_Q15(-0.021923529),	_Q15(-0.02910429),	_Q15(-0.001792713),
	_Q15(-0.007288547),	_Q15(-0.005102575),	_Q15(-0.020435696),	_Q15(-0.01674158),
	_Q15(0.028443208),	_Q15(-0.009033879),	_Q15(0.014709175),	_Q15(0.035187844),
	_Q15(-0.0009657264),	_Q15(0.02700106),	_Q15(0.022725528),	_Q15(0.020747706),
	_Q15(0.026527476),	_Q15(0.021500416),	_Q15(0.029080668),	_Q15(-0.0027904096),
	_Q15(-0.023239179),	_Q15(-0.012275388),	_Q15(-0.024263594),	_Q15(-0.025689539),
	_Q15(0.02336091),	_Q15(0.009176988),	_Q15(0.03158765),	_Q15(0.0051169964),
	_Q15(0.022976737),	_Q15(-0.002983259),	_Q15(-0.014342775),	_Q15(-0.020837791),
	_Q15(0.004397142),	_Q15(0.021892698),	_Q15(-0.023807727),	_Q15(-0.013206253),
	_Q15(-0.012270374),	_Q15(-0.016616896),	_Q15(-0.03202695),	_Q15(-0.018271688),
	_Q15(-0.006335685),	_Q15(0.004403251),	_Q15(-0.026362324),	_Q15(-0.02668461),
	_Q15(0.013540425),	_Q15(-0.01116437),	_Q15(0.016765615),	_Q15(-0.012252189),
	_Q15(0.009702251),	_Q15(0.010677984),	_Q15(-0.007061741),	_Q15(0.018177068),
	_Q15(0.013688512),	_Q15(0.016501127),	_Q15(0.03515487),	_Q15(0.0008779229),
	_Q15(-0.012360012),	_Q15(0.003054212),	_Q15(-0.017383676),	_Q15(-0.006717535),
	_Q15(-0.012247387),	_Q15(-0.033317026),	_Q15(-0.017174114),	_Q15(0.0045894342),
	_Q15(0.01653482),	_Q15(-0.017472118),	_Q15(-0.015611822),	_Q15(-0.004864768),
	_Q15(-0.019693082),	_Q15(0.007914886),	_Q15(0.016538907),	_Q15(-0.0037685165),
	_Q15(-0.030359302),	_Q15(-0.009808934)
};

__ro_hinv _q15 conv1_bias[] = {
	_Q15(0.009905802),	_Q15(0.029928094),	_Q15(0.018223122),	_Q15(-0.005671599),
	_Q15(-0.026363354),	_Q15(0.0017396491)
};

