#include <params/include/fc1.h>

__ro_hinv mat_t fc1_weight_meta = {
	.dims = {84, 120},
	.len_dims = 2,
	.strides = {120, 1},
	.data = (fixed *)fc1_weight
};

__ro_hinv mat_t fc1_bias_meta = {
	.dims = {1, 84},
	.len_dims = 2,
	.strides = {84, 1},
	.data = (fixed *)fc1_bias
};

__ro_hinv _q15 fc1_weight[] = {
	_Q15(-0.002724108),	_Q15(-0.0021937005),	_Q15(-0.0012574381),	_Q15(0.039746065),
	_Q15(0.02940685),	_Q15(-0.001965177),	_Q15(0.0070850994),	_Q15(-0.0010859357),
	_Q15(-0.0021529184),	_Q15(0.010978326),	_Q15(0.026182167),	_Q15(-0.005302538),
	_Q15(0.0010738734),	_Q15(0.007740889),	_Q15(-0.0041119554),	_Q15(-0.004631986),
	_Q15(-0.014108118),	_Q15(0.004418235),	_Q15(0.00024390034),	_Q15(-0.0132133905),
	_Q15(-0.0009303124),	_Q15(0.019390047),	_Q15(0.011638374),	_Q15(-0.006020898),
	_Q15(0.009627805),	_Q15(0.0044780076),	_Q15(0.005466931),	_Q15(-0.012562573),
	_Q15(-0.005799193),	_Q15(0.007837957),	_Q15(-0.023598565),	_Q15(-0.002988971),
	_Q15(0.0007038067),	_Q15(-0.0020932278),	_Q15(0.008010177),	_Q15(0.009478232),
	_Q15(-0.022127815),	_Q15(0.014246602),	_Q15(0.011634472),	_Q15(-0.0047025825),
	_Q15(-0.0031514498),	_Q15(0.016846113),	_Q15(0.0036536257),	_Q15(0.013179812),
	_Q15(-0.005374215),	_Q15(-0.020589324),	_Q15(0.009543801),	_Q15(0.020801893),
	_Q15(-0.014364486),	_Q15(0.008131456),	_Q15(0.01393032),	_Q15(-0.004383007),
	_Q15(0.004168962),	_Q15(-0.00018880682),	_Q15(-0.018504433),	_Q15(0.0042230496),
	_Q15(-0.0074445824),	_Q15(0.013722174),	_Q15(0.023996472),	_Q15(-0.012354017),
	_Q15(-0.009734929),	_Q15(0.018377207),	_Q15(0.002940522),	_Q15(0.004965683),
	_Q15(-0.008447751),	_Q15(-0.0007009531),	_Q15(0.013004806),	_Q15(0.011278888),
	_Q15(-0.0010859128),	_Q15(0.033652656),	_Q15(0.013507768),	_Q15(-0.0034388967),
	_Q15(0.008172776),	_Q15(-0.0031267053),	_Q15(0.0057746535),	_Q15(-0.009662977),
	_Q15(0.00050684967),	_Q15(-0.010383625),	_Q15(-0.01824476),	_Q15(0.0058730156),
	_Q15(0.00066609867),	_Q15(0.0015318686),	_Q15(-0.011801793),	_Q15(-0.011154063),
	_Q15(0.016857581),	_Q15(0.029288797),	_Q15(0.008179376),	_Q15(0.0011112704),
	_Q15(-0.008647809),	_Q15(0.0050913924),	_Q15(-0.007354113),	_Q15(0.015244085),
	_Q15(0.0015356453),	_Q15(-0.0005687357),	_Q15(0.013631602),	_Q15(-0.004682161),
	_Q15(-0.009843785),	_Q15(-0.023267316),	_Q15(-0.0155350445),	_Q15(0.004405657),
	_Q15(0.011636777),	_Q15(-0.01157566),	_Q15(0.009131538),	_Q15(0.01786216),
	_Q15(0.014400428),	_Q15(-0.013687608),	_Q15(0.004552379),	_Q15(-0.011914044),
	_Q15(-0.0035620648),	_Q15(0.012660998),	_Q15(-0.023028105),	_Q15(-0.0055940812),
	_Q15(0.005439041),	_Q15(0.0023731159),	_Q15(-0.010870439),	_Q15(-0.0002801099),
	_Q15(0.014752684),	_Q15(0.006838473),	_Q15(-0.009865167),	_Q15(-0.014189713),
	_Q15(-0.0028885375),	_Q15(0.008095195),	_Q15(-0.0037266398),	_Q15(-0.018701395),
	_Q15(-0.013677325),	_Q15(-0.0062562013),	_Q15(-0.0033671476),	_Q15(-0.004357908),
	_Q15(-0.016623627),	_Q15(0.0060248766),	_Q15(-0.023143679),	_Q15(0.005921888),
	_Q15(-0.019625697),	_Q15(0.039164223),	_Q15(0.00087684055),	_Q15(-0.009191367),
	_Q15(0.016568417),	_Q15(0.0063328873),	_Q15(-0.00016513371),	_Q15(0.012799061),
	_Q15(-0.021625424),	_Q15(-0.004824029),	_Q15(-0.0033880104),	_Q15(-0.007569809),
	_Q15(0.00047935694),	_Q15(0.00924462),	_Q15(0.01084838),	_Q15(-0.006198135),
	_Q15(0.010609313),	_Q15(0.0033541778),	_Q15(0.011876224),	_Q15(0.012544327),
	_Q15(0.008047961),	_Q15(-0.01104167),	_Q15(-0.0035310073),	_Q15(0.0011932333),
	_Q15(0.029888967),	_Q15(9.342834e-05),	_Q15(0.00588296),	_Q15(0.013909123),
	_Q15(-0.007591065),	_Q15(-0.00946371),	_Q15(-0.0047296905),	_Q15(0.021199288),
	_Q15(-0.004128621),	_Q15(0.020602176),	_Q15(0.004549735),	_Q15(-0.012471409),
	_Q15(0.0061477264),	_Q15(-0.013612368),	_Q15(0.014530548),	_Q15(0.010192131),
	_Q15(-0.0076661673),	_Q15(-0.010704536),	_Q15(0.013079531),	_Q15(0.004732776),
	_Q15(0.002903201),	_Q15(0.0029866726),	_Q15(-0.007893514),	_Q15(-0.023954796),
	_Q15(-0.00939),	_Q15(0.0044371225),	_Q15(0.0035790813),	_Q15(0.0011626146),
	_Q15(0.0021777872),	_Q15(0.0050295186),	_Q15(-0.014462277),	_Q15(-0.0045896475),
	_Q15(-0.004988906),	_Q15(0.008889133),	_Q15(-0.012259218),	_Q15(-0.024454318),
	_Q15(0.01392581),	_Q15(0.0024070495),	_Q15(0.0011784509),	_Q15(0.029449351),
	_Q15(-0.0032645322),	_Q15(0.004992368),	_Q15(0.021453382),	_Q15(0.010251508),
	_Q15(0.007868686),	_Q15(0.0068370104),	_Q15(0.007294212),	_Q15(-0.0079752095),
	_Q15(-0.01683135),	_Q15(-0.012700327),	_Q15(-0.005648496),	_Q15(-0.010129223),
	_Q15(-0.03490642),	_Q15(0.015360696),	_Q15(0.01382115),	_Q15(-0.018084241),
	_Q15(0.017893286),	_Q15(-0.0030630855),	_Q15(-0.012800376),	_Q15(-0.009358224),
	_Q15(-0.0064203665),	_Q15(0.006858852),	_Q15(0.017941084),	_Q15(0.017150061),
	_Q15(0.013252221),	_Q15(-0.010133347),	_Q15(0.004416178),	_Q15(-0.005505975),
	_Q15(-0.0035267721),	_Q15(0.0126445815),	_Q15(-0.008975018),	_Q15(0.016315887),
	_Q15(-0.00890132),	_Q15(0.0010963157),	_Q15(0.034848433),	_Q15(0.02497764),
	_Q15(-0.004863606),	_Q15(-0.0069068423),	_Q15(-0.0096919965),	_Q15(-0.013009589),
	_Q15(-0.017842794),	_Q15(-0.0065551098),	_Q15(0.011984047),	_Q15(-0.0009072326),
	_Q15(0.018543122),	_Q15(-0.02008751),	_Q15(0.0051524537),	_Q15(-0.015010844),
	_Q15(0.009062541),	_Q15(-0.0031531346),	_Q15(0.015256103),	_Q15(-0.0103728175),
	_Q15(0.0008766583),	_Q15(-0.007963307),	_Q15(-0.014998619),	_Q15(-0.018208086),
	_Q15(-0.015253991),	_Q15(0.031678617),	_Q15(0.0048293527),	_Q15(-0.0034213846),
	_Q15(0.0009660173),	_Q15(-0.008697725),	_Q15(-0.004113018),	_Q15(-0.007338007),
	_Q15(0.014734795),	_Q15(0.0040212953),	_Q15(0.007601077),	_Q15(-0.00032665243),
	_Q15(-0.0028242161),	_Q15(-0.030514063),	_Q15(0.007410418),	_Q15(0.011896853),
	_Q15(-0.007919741),	_Q15(0.012425611),	_Q15(0.005212806),	_Q15(0.008475864),
	_Q15(-0.022026395),	_Q15(0.009586804),	_Q15(-0.009595658),	_Q15(0.004221035),
	_Q15(0.020611666),	_Q15(-0.009236006),	_Q15(0.013998739),	_Q15(0.0008799548),
	_Q15(-0.0056006974),	_Q15(-0.01797027),	_Q15(-0.0018679762),	_Q15(-0.00082790107),
	_Q15(-0.0055116164),	_Q15(-0.014985849),	_Q15(0.002081603),	_Q15(0.014622917),
	_Q15(-0.005173708),	_Q15(0.015281023),	_Q15(-0.033471182),	_Q15(0.003087807),
	_Q15(3.9735267e-05),	_Q15(-0.009943907),	_Q15(0.009724435),	_Q15(-0.012350977),
	_Q15(-0.012323921),	_Q15(0.0076953406),	_Q15(-0.0052616256),	_Q15(-0.028287087),
	_Q15(0.005528744),	_Q15(0.007760509),	_Q15(-0.0040098205),	_Q15(0.019248936),
	_Q15(0.0050637666),	_Q15(-0.0007064277),	_Q15(-0.002926946),	_Q15(-0.022206835),
	_Q15(-0.0044657714),	_Q15(0.00930389),	_Q15(-0.005995735),	_Q15(-0.00081197184),
	_Q15(0.0030774332),	_Q15(0.009915552),	_Q15(-0.00054730906),	_Q15(0.0056707347),
	_Q15(0.007525689),	_Q15(0.0004358748),	_Q15(-0.009069392),	_Q15(0.016448751),
	_Q15(-0.008180479),	_Q15(-0.0056124646),	_Q15(-0.020489622),	_Q15(0.0012328372),
	_Q15(0.012096752),	_Q15(0.0031241458),	_Q15(0.009467715),	_Q15(-0.0072277924),
	_Q15(-0.0145349065),	_Q15(0.016679693),	_Q15(0.001555992),	_Q15(-0.014166019),
	_Q15(-0.007455531),	_Q15(0.023655007),	_Q15(-0.0028581147),	_Q15(-0.024992969),
	_Q15(-0.0070247627),	_Q15(-0.0010082697),	_Q15(-0.012156107),	_Q15(0.012580734),
	_Q15(-0.004639077),	_Q15(-0.010874332),	_Q15(-0.016057726),	_Q15(0.013107855),
	_Q15(-0.0048713526),	_Q15(0.0018207273),	_Q15(0.014065904),	_Q15(0.023466675),
	_Q15(-0.010103333),	_Q15(0.017840892),	_Q15(-0.02170705),	_Q15(-0.007997897),
	_Q15(0.0072349044),	_Q15(-0.007893905),	_Q15(-0.007109166),	_Q15(-0.0023427787),
	_Q15(-0.010969218),	_Q15(-0.0024755434),	_Q15(0.002805261),	_Q15(0.027739339),
	_Q15(-0.005204764),	_Q15(0.01553423),	_Q15(0.011441288),	_Q15(0.0003356622),
	_Q15(0.011538906),	_Q15(-0.008873767),	_Q15(0.0067343265),	_Q15(0.004872693),
	_Q15(-0.020803373),	_Q15(0.0123953745),	_Q15(-0.01132234),	_Q15(-0.035934784),
	_Q15(0.020383649),	_Q15(-0.025928652),	_Q15(0.004406849),	_Q15(0.0055103917),
	_Q15(-0.010479682),	_Q15(-0.0072780284),	_Q15(-0.0050817863),	_Q15(-0.022946231),
	_Q15(0.0061736708),	_Q15(0.005795237),	_Q15(-0.008758988),	_Q15(-0.0034841902),
	_Q15(0.008940749),	_Q15(-0.012427078),	_Q15(0.010201899),	_Q15(-0.0017398664),
	_Q15(-0.020603318),	_Q15(0.006645395),	_Q15(0.0051964996),	_Q15(0.015664123),
	_Q15(-0.01992081),	_Q15(0.0011916802),	_Q15(0.0035086032),	_Q15(0.008110336),
	_Q15(-0.009971538),	_Q15(-0.012646649),	_Q15(-0.020557355),	_Q15(0.001424702),
	_Q15(-0.027693419),	_Q15(0.009171458),	_Q15(-0.0021395073),	_Q15(0.0017101848),
	_Q15(-0.0061765644),	_Q15(0.019705694),	_Q15(0.024535287),	_Q15(0.005707293),
	_Q15(0.0075696884),	_Q15(0.014612309),	_Q15(0.0060336837),	_Q15(-0.025249377),
	_Q15(0.0004449398),	_Q15(0.00014554616),	_Q15(-0.008022022),	_Q15(0.022524446),
	_Q15(-0.0019622052),	_Q15(0.00561897),	_Q15(0.0078014503),	_Q15(-0.0044357274),
	_Q15(0.0058034314),	_Q15(0.020349843),	_Q15(0.016117308),	_Q15(-0.0005279564),
	_Q15(-0.005608128),	_Q15(0.0027273323),	_Q15(0.012148847),	_Q15(-0.019190947),
	_Q15(-0.008393693),	_Q15(0.0019169573),	_Q15(0.012635262),	_Q15(0.0021849459),
	_Q15(0.0026274982),	_Q15(0.012045888),	_Q15(0.005039021),	_Q15(0.026200602),
	_Q15(-0.0068003554),	_Q15(0.0006302971),	_Q15(0.015204794),	_Q15(0.018566672),
	_Q15(0.003353668),	_Q15(0.011679272),	_Q15(-0.0225072),	_Q15(-0.005234771),
	_Q15(-0.015172584),	_Q15(0.024609135),	_Q15(-0.0022910554),	_Q15(0.0067721643),
	_Q15(-0.012960044),	_Q15(0.0053023887),	_Q15(-0.017365268),	_Q15(0.00241324),
	_Q15(0.00944113),	_Q15(-0.028378664),	_Q15(-0.011564876),	_Q15(-0.027322516),
	_Q15(0.00066958653),	_Q15(-0.016838145),	_Q15(-0.004108435),	_Q15(-0.022170905),
	_Q15(-0.015656611),	_Q15(-0.0045842608),	_Q15(0.01771862),	_Q15(0.0022144346),
	_Q15(0.010834129),	_Q15(0.006271381),	_Q15(8.4494925e-05),	_Q15(-0.0079502715),
	_Q15(0.009728662),	_Q15(-0.011982137),	_Q15(0.021824399),	_Q15(0.007725833),
	_Q15(0.009812186),	_Q15(-0.0016655051),	_Q15(-0.0267341),	_Q15(0.0061301044),
	_Q15(0.003485747),	_Q15(-0.006692152),	_Q15(0.0020049335),	_Q15(-0.017208379),
	_Q15(-0.020760229),	_Q15(0.0013547865),	_Q15(0.009945682),	_Q15(-0.012687942),
	_Q15(-0.003875263),	_Q15(-0.003139498),	_Q15(0.007902806),	_Q15(-0.011260982),
	_Q15(0.011405069),	_Q15(0.00016308471),	_Q15(0.00019720051),	_Q15(0.0003254929),
	_Q15(0.022388348),	_Q15(-0.031134343),	_Q15(-0.01051291),	_Q15(0.01586196),
	_Q15(0.013906297),	_Q15(-0.0060627824),	_Q15(0.006198976),	_Q15(-0.005679754),
	_Q15(0.017372875),	_Q15(0.013556783),	_Q15(-0.010397984),	_Q15(0.010151289),
	_Q15(0.008222891),	_Q15(-0.02124234),	_Q15(-0.0010966915),	_Q15(0.021887485),
	_Q15(0.0130534535),	_Q15(-0.001171425),	_Q15(-0.003968369),	_Q15(0.025251677),
	_Q15(-0.0089587215),	_Q15(0.0038925717),	_Q15(0.007101358),	_Q15(0.0051652673),
	_Q15(-0.02788176),	_Q15(-0.028466757),	_Q15(-0.011754452),	_Q15(-0.0052894894),
	_Q15(-0.0033385598),	_Q15(-0.022789255),	_Q15(-0.011800354),	_Q15(0.0038467196),
	_Q15(0.008255538),	_Q15(0.010128729),	_Q15(0.01686288),	_Q15(-0.014296206),
	_Q15(0.016232276),	_Q15(-0.012615629),	_Q15(-0.005110229),	_Q15(-0.021576751),
	_Q15(0.004171033),	_Q15(0.006809136),	_Q15(0.004656653),	_Q15(0.00954022),
	_Q15(0.0017314315),	_Q15(-0.020190531),	_Q15(0.01264464),	_Q15(0.036733814),
	_Q15(-0.001287761),	_Q15(-0.013132704),	_Q15(0.0056974655),	_Q15(-0.011323649),
	_Q15(0.008946308),	_Q15(-0.00112731),	_Q15(-0.003299836),	_Q15(-0.0116507495),
	_Q15(-0.0049722497),	_Q15(0.009909875),	_Q15(-0.019818913),	_Q15(0.006905945),
	_Q15(-0.01241632),	_Q15(0.01600144),	_Q15(-0.004456718),	_Q15(0.00264946),
	_Q15(-0.0010833237),	_Q15(-0.011914155),	_Q15(0.002587651),	_Q15(-0.0051191365),
	_Q15(-0.0020704533),	_Q15(0.016423956),	_Q15(-0.00042938316),	_Q15(0.002714094),
	_Q15(-0.017242452),	_Q15(0.006751338),	_Q15(0.006909476),	_Q15(0.007064419),
	_Q15(0.010269894),	_Q15(-0.001237771),	_Q15(-0.0029643746),	_Q15(-0.0077829175),
	_Q15(0.0006821107),	_Q15(-0.012726808),	_Q15(0.012954263),	_Q15(0.0012877821),
	_Q15(0.0113546485),	_Q15(0.00026326644),	_Q15(0.032203592),	_Q15(-0.011938774),
	_Q15(-0.03091446),	_Q15(-0.009589621),	_Q15(0.004495526),	_Q15(-0.007892986),
	_Q15(-0.00012879961),	_Q15(0.010414497),	_Q15(-0.00082053465),	_Q15(-0.00767365),
	_Q15(-0.0061884047),	_Q15(-0.019486684),	_Q15(0.028188223),	_Q15(0.007707836),
	_Q15(0.0043853517),	_Q15(0.0011203632),	_Q15(0.009381239),	_Q15(0.024833715),
	_Q15(-0.003780979),	_Q15(0.0031723573),	_Q15(0.009900678),	_Q15(-0.010284799),
	_Q15(0.013655577),	_Q15(0.021458592),	_Q15(-0.0018937119),	_Q15(0.03397112),
	_Q15(-0.0051145954),	_Q15(0.008264849),	_Q15(0.00045455238),	_Q15(0.010410944),
	_Q15(-0.0030867055),	_Q15(0.0012961421),	_Q15(-0.011121647),	_Q15(0.005057794),
	_Q15(0.024265606),	_Q15(-0.036334492),	_Q15(-0.008371336),	_Q15(0.0190293),
	_Q15(-0.012589668),	_Q15(0.0015868034),	_Q15(-0.009751795),	_Q15(-0.020111678),
	_Q15(0.018752744),	_Q15(-0.021085158),	_Q15(0.005676464),	_Q15(0.0055016186),
	_Q15(0.010607475),	_Q15(-0.00462977),	_Q15(0.0054825875),	_Q15(-0.017570067),
	_Q15(-0.01375928),	_Q15(-0.027179433),	_Q15(-0.0011951909),	_Q15(0.0055082715),
	_Q15(-0.0022145845),	_Q15(0.008731218),	_Q15(-0.00064202567),	_Q15(-0.011000032),
	_Q15(-0.012569444),	_Q15(-0.0013932249),	_Q15(-0.026222296),	_Q15(-0.010110572),
	_Q15(0.0059502),	_Q15(0.044665962),	_Q15(0.02171731),	_Q15(-0.016005594),
	_Q15(0.0042392574),	_Q15(-0.00057788077),	_Q15(0.001985938),	_Q15(-0.0070452993),
	_Q15(0.023760576),	_Q15(-0.012044902),	_Q15(0.0067243213),	_Q15(-0.00040116554),
	_Q15(0.007859003),	_Q15(-0.001809815),	_Q15(-0.012534215),	_Q15(0.022931267),
	_Q15(0.022119557),	_Q15(-0.0009925512),	_Q15(0.00951856),	_Q15(-0.0024372644),
	_Q15(0.0020914795),	_Q15(-0.0075492114),	_Q15(0.026235137),	_Q15(-0.031117983),
	_Q15(-0.00076260604),	_Q15(-0.007099606),	_Q15(0.008770522),	_Q15(0.004423924),
	_Q15(-0.0050238324),	_Q15(-0.013002942),	_Q15(0.043502584),	_Q15(0.024393484),
	_Q15(0.0018658926),	_Q15(0.010879602),	_Q15(-0.010916701),	_Q15(-0.015586621),
	_Q15(0.0092244875),	_Q15(0.008643942),	_Q15(0.018486472),	_Q15(0.0019234743),
	_Q15(0.010089971),	_Q15(-0.024587192),	_Q15(0.012766599),	_Q15(-0.004080515),
	_Q15(-0.007842633),	_Q15(-0.0074800528),	_Q15(-0.0047238204),	_Q15(0.0030603874),
	_Q15(0.0104446625),	_Q15(-0.026224338),	_Q15(-0.0012379561),	_Q15(0.007910118),
	_Q15(-0.015635025),	_Q15(-0.017145662),	_Q15(-0.0002842168),	_Q15(-0.0034294045),
	_Q15(0.023869002),	_Q15(0.0056608533),	_Q15(0.010379613),	_Q15(-0.023629745),
	_Q15(-0.010872424),	_Q15(-0.007174911),	_Q15(0.014474983),	_Q15(-0.013841272),
	_Q15(0.011678182),	_Q15(-0.0026171273),	_Q15(-0.0033811862),	_Q15(0.0016246431),
	_Q15(0.0013592895),	_Q15(-0.0072607305),	_Q15(-0.008834916),	_Q15(-0.016494919),
	_Q15(0.011005813),	_Q15(0.0015116469),	_Q15(-0.019535346),	_Q15(-0.0022367039),
	_Q15(0.0155367395),	_Q15(0.009031657),	_Q15(-0.00035390287),	_Q15(0.00076587655),
	_Q15(-0.0070773736),	_Q15(-0.0014648769),	_Q15(0.0013407758),	_Q15(0.03174544),
	_Q15(0.022404535),	_Q15(0.009107215),	_Q15(-0.022524616),	_Q15(0.03179694),
	_Q15(0.012841029),	_Q15(-0.0053977855),	_Q15(0.022210602),	_Q15(-0.0063524554),
	_Q15(0.017307533),	_Q15(-0.011877543),	_Q15(-0.0036181654),	_Q15(0.011373755),
	_Q15(-0.0057446267),	_Q15(-0.011160074),	_Q15(-0.008306222),	_Q15(0.00589682),
	_Q15(0.0016142362),	_Q15(0.012531811),	_Q15(0.0035267456),	_Q15(-0.012763302),
	_Q15(0.0020398477),	_Q15(0.011113023),	_Q15(0.02348903),	_Q15(-0.003883024),
	_Q15(-0.00043485584),	_Q15(-0.008114018),	_Q15(-0.0020956625),	_Q15(-5.3391523e-05),
	_Q15(0.012474367),	_Q15(0.005441474),	_Q15(0.01173533),	_Q15(0.008202992),
	_Q15(-0.022341803),	_Q15(0.017156096),	_Q15(-0.0042932355),	_Q15(-0.0022222672),
	_Q15(-0.017391821),	_Q15(0.021597017),	_Q15(0.012572222),	_Q15(-0.0039122584),
	_Q15(-0.00085969287),	_Q15(0.006829983),	_Q15(0.0071716183),	_Q15(0.0040517603),
	_Q15(-0.0028418282),	_Q15(-0.0071402183),	_Q15(0.05329573),	_Q15(-0.005298885),
	_Q15(0.009592585),	_Q15(0.0056501194),	_Q15(-0.008532023),	_Q15(0.028015899),
	_Q15(-0.009835423),	_Q15(0.011802582),	_Q15(0.011149759),	_Q15(0.033607885),
	_Q15(0.008259358),	_Q15(0.0051861443),	_Q15(0.0045403494),	_Q15(-0.019690225),
	_Q15(0.009073451),	_Q15(-0.008813319),	_Q15(-0.007261688),	_Q15(0.02206052),
	_Q15(0.011183456),	_Q15(-0.0023515963),	_Q15(0.040488303),	_Q15(-0.002295584),
	_Q15(0.002919085),	_Q15(-0.02729209),	_Q15(0.007541353),	_Q15(0.009745562),
	_Q15(-0.0014824572),	_Q15(-0.0031963848),	_Q15(0.022818953),	_Q15(-0.0034272843),
	_Q15(-0.003976411),	_Q15(-0.0054206233),	_Q15(-4.586055e-05),	_Q15(-0.0067075132),
	_Q15(0.010322738),	_Q15(0.014670024),	_Q15(-0.0019651987),	_Q15(0.00798367),
	_Q15(0.023187662),	_Q15(0.004238721),	_Q15(0.0020331747),	_Q15(0.016215026),
	_Q15(-0.012978957),	_Q15(-0.018837186),	_Q15(0.003556448),	_Q15(0.01704222),
	_Q15(0.010435254),	_Q15(0.0003428999),	_Q15(-0.014364211),	_Q15(-0.0030993214),
	_Q15(0.014697422),	_Q15(-0.007168539),	_Q15(0.027570508),	_Q15(0.0010061137),
	_Q15(0.024370344),	_Q15(-0.005273095),	_Q15(-0.023032624),	_Q15(-0.022838533),
	_Q15(-0.0085414555),	_Q15(0.006320599),	_Q15(-0.009711322),	_Q15(-0.0060459464),
	_Q15(0.00195891),	_Q15(-0.0063890265),	_Q15(-0.031520914),	_Q15(-0.0017696809),
	_Q15(0.0024074584),	_Q15(-0.0063029802),	_Q15(0.0005617315),	_Q15(-0.029379208),
	_Q15(0.0017953973),	_Q15(0.00489725),	_Q15(-0.0036554686),	_Q15(0.027576746),
	_Q15(0.0013743595),	_Q15(0.0026440565),	_Q15(-0.008437916),	_Q15(-0.0024850213),
	_Q15(-0.00046460945),	_Q15(0.011124409),	_Q15(-0.009332875),	_Q15(-0.002739626),
	_Q15(-0.0009433547),	_Q15(-0.02606124),	_Q15(0.0019398928),	_Q15(0.0064600925),
	_Q15(-0.003478521),	_Q15(0.012288554),	_Q15(-0.008962415),	_Q15(-0.0030369603),
	_Q15(0.0077839284),	_Q15(-0.009894156),	_Q15(-0.0030810407),	_Q15(0.013215595),
	_Q15(0.0065414025),	_Q15(0.0072334385),	_Q15(0.0055745556),	_Q15(0.006438299),
	_Q15(0.025524562),	_Q15(0.00919968),	_Q15(0.006659476),	_Q15(-0.0011162144),
	_Q15(-0.0071469066),	_Q15(0.008688475),	_Q15(0.010207559),	_Q15(0.0028771397),
	_Q15(0.00027241008),	_Q15(-0.0066195284),	_Q15(0.009542399),	_Q15(-0.0018852265),
	_Q15(0.019263718),	_Q15(0.0054801335),	_Q15(-0.0063768346),	_Q15(0.006230861),
	_Q15(-0.0017079012),	_Q15(0.0065191123),	_Q15(0.007449324),	_Q15(-0.009491091),
	_Q15(0.0059617395),	_Q15(0.0080416845),	_Q15(-0.0044524595),	_Q15(-0.021784298),
	_Q15(0.0010343501),	_Q15(0.0028105748),	_Q15(-0.01959186),	_Q15(-0.008172093),
	_Q15(0.0119887525),	_Q15(0.0021212415),	_Q15(0.0012831385),	_Q15(-0.00400536),
	_Q15(0.00063238107),	_Q15(-0.011992009),	_Q15(0.0037022352),	_Q15(0.0081793135),
	_Q15(0.0027085496),	_Q15(0.009871934),	_Q15(0.010351937),	_Q15(0.016460072),
	_Q15(0.007945674),	_Q15(-0.021734204),	_Q15(0.014578206),	_Q15(0.0129737975),
	_Q15(-0.0117865205),	_Q15(0.0034608042),	_Q15(-0.007825438),	_Q15(-0.022357423),
	_Q15(-0.0065829773),	_Q15(-7.695729e-05),	_Q15(-0.013223618),	_Q15(0.0019055274),
	_Q15(0.0074694096),	_Q15(0.011178916),	_Q15(-0.004087059),	_Q15(0.002924422),
	_Q15(0.015640244),	_Q15(-0.005539096),	_Q15(-0.010445555),	_Q15(-0.0122823445),
	_Q15(-0.023453271),	_Q15(-0.018246645),	_Q15(-0.004638853),	_Q15(0.01008694),
	_Q15(-0.008135681),	_Q15(-0.018891701),	_Q15(-9.843253e-05),	_Q15(0.02155388),
	_Q15(-0.004739177),	_Q15(0.016760154),	_Q15(0.0034095007),	_Q15(-0.014015664),
	_Q15(-0.03353059),	_Q15(0.010696598),	_Q15(-0.0015931291),	_Q15(0.008672577),
	_Q15(0.009714923),	_Q15(-0.0017905633),	_Q15(-0.011202398),	_Q15(-0.018099831),
	_Q15(0.002404428),	_Q15(0.008129708),	_Q15(-0.02019333),	_Q15(-0.023577359),
	_Q15(-0.0013988488),	_Q15(0.0047110603),	_Q15(0.019061908),	_Q15(0.004788505),
	_Q15(-0.009572964),	_Q15(0.0074111056),	_Q15(0.005292722),	_Q15(-0.0073176553),
	_Q15(-4.3781853e-05),	_Q15(-0.0012158279),	_Q15(0.0021030735),	_Q15(-0.02240393),
	_Q15(-0.008204706),	_Q15(-0.00019424252),	_Q15(0.012540924),	_Q15(-0.0025631068),
	_Q15(-0.009630209),	_Q15(-0.009559786),	_Q15(-0.010889069),	_Q15(0.021063412),
	_Q15(0.012089129),	_Q15(-0.006169838),	_Q15(0.008175481),	_Q15(-0.00046931047),
	_Q15(0.008180964),	_Q15(0.0019036969),	_Q15(-0.009893809),	_Q15(-0.011985826),
	_Q15(0.005838684),	_Q15(-0.0099547235),	_Q15(0.005133126),	_Q15(0.0076208552),
	_Q15(-0.0056948564),	_Q15(0.00609256),	_Q15(0.007851863),	_Q15(-0.0015570679),
	_Q15(0.02731878),	_Q15(-0.0055921064),	_Q15(0.014437189),	_Q15(0.022597888),
	_Q15(0.008258384),	_Q15(-0.0005745057),	_Q15(-0.009943848),	_Q15(0.0012154724),
	_Q15(0.026210317),	_Q15(0.015045301),	_Q15(0.0050229006),	_Q15(-0.011466594),
	_Q15(0.0012840506),	_Q15(-0.02021425),	_Q15(0.009805624),	_Q15(-0.011839196),
	_Q15(-0.0032361604),	_Q15(0.00904656),	_Q15(0.0061956537),	_Q15(0.00151826),
	_Q15(0.017879458),	_Q15(-0.0127424495),	_Q15(0.0051158615),	_Q15(-0.016536409),
	_Q15(-0.009778484),	_Q15(0.0057890117),	_Q15(0.02004495),	_Q15(0.026649026),
	_Q15(0.0100510325),	_Q15(0.019005192),	_Q15(-0.0051809093),	_Q15(0.007293817),
	_Q15(-0.010454086),	_Q15(-0.011778128),	_Q15(0.010226129),	_Q15(-0.010561068),
	_Q15(0.001489073),	_Q15(0.008854438),	_Q15(-0.014551267),	_Q15(-0.016416678),
	_Q15(-0.0024467753),	_Q15(-0.022100357),	_Q15(-0.027276194),	_Q15(-0.0028909652),
	_Q15(0.005029229),	_Q15(-0.0001628715),	_Q15(0.011558942),	_Q15(0.007985114),
	_Q15(-0.0018593688),	_Q15(0.008176337),	_Q15(0.011803798),	_Q15(-0.008688211),
	_Q15(-0.0025544106),	_Q15(0.0051202145),	_Q15(0.014727926),	_Q15(-0.0016246574),
	_Q15(-0.024141505),	_Q15(-0.0028532888),	_Q15(0.007053871),	_Q15(0.008434618),
	_Q15(-0.003794164),	_Q15(-0.02533879),	_Q15(0.02457013),	_Q15(0.0039317077),
	_Q15(-0.00878737),	_Q15(0.0013968109),	_Q15(0.014473985),	_Q15(0.0052758264),
	_Q15(0.0151606165),	_Q15(0.022970585),	_Q15(0.01950226),	_Q15(-0.018908206),
	_Q15(2.3165992e-05),	_Q15(0.0034815385),	_Q15(-0.007696014),	_Q15(-0.010995365),
	_Q15(0.004861301),	_Q15(0.019854596),	_Q15(0.009388318),	_Q15(0.008377326),
	_Q15(-0.007643568),	_Q15(0.008040567),	_Q15(0.019318098),	_Q15(0.031697262),
	_Q15(-0.01071318),	_Q15(0.0018824707),	_Q15(0.0036108845),	_Q15(-0.011881471),
	_Q15(-0.002409858),	_Q15(-0.0033435908),	_Q15(-0.0044134385),	_Q15(-0.010194853),
	_Q15(0.007607966),	_Q15(0.006737086),	_Q15(0.0033705842),	_Q15(0.02017024),
	_Q15(0.0048389207),	_Q15(0.007025014),	_Q15(-0.016055405),	_Q15(-7.9940466e-05),
	_Q15(-0.0020226412),	_Q15(0.003161884),	_Q15(-0.00032585033),	_Q15(-0.01516138),
	_Q15(0.016349114),	_Q15(-0.008656627),	_Q15(0.001177086),	_Q15(0.0132775605),
	_Q15(-0.021836365),	_Q15(0.003308781),	_Q15(0.0064974045),	_Q15(-0.016437786),
	_Q15(0.015472672),	_Q15(-0.0027642576),	_Q15(-0.008040316),	_Q15(-0.0073313117),
	_Q15(-0.011778659),	_Q15(-0.00038432473),	_Q15(0.005723274),	_Q15(0.009611224),
	_Q15(0.02133014),	_Q15(0.009246394),	_Q15(0.02835413),	_Q15(0.0069053047),
	_Q15(-0.015374513),	_Q15(0.0029800048),	_Q15(0.0040772655),	_Q15(-0.004600516),
	_Q15(-0.02012172),	_Q15(-0.0016377307),	_Q15(0.008928067),	_Q15(0.012792504),
	_Q15(-0.0076158545),	_Q15(0.017201051),	_Q15(-0.015167577),	_Q15(0.013348516),
	_Q15(-0.0034176444),	_Q15(0.0056835096),	_Q15(0.017578734),	_Q15(-0.008899662),
	_Q15(0.008203256),	_Q15(0.015980138),	_Q15(-0.008344329),	_Q15(-0.02631892),
	_Q15(0.0022332561),	_Q15(0.010870194),	_Q15(-0.018611697),	_Q15(0.018636147),
	_Q15(0.01773041),	_Q15(-0.010320171),	_Q15(-0.014691544),	_Q15(-0.016810374),
	_Q15(-0.0045699785),	_Q15(-0.003197856),	_Q15(0.0002698007),	_Q15(0.005072476),
	_Q15(0.0009787796),	_Q15(0.006057445),	_Q15(0.008309696),	_Q15(-0.0051463773),
	_Q15(-0.011850449),	_Q15(-0.0059431875),	_Q15(0.025385736),	_Q15(0.011897352),
	_Q15(-0.006066534),	_Q15(-0.0027055007),	_Q15(-0.0025829496),	_Q15(-0.0024633014),
	_Q15(0.0011417269),	_Q15(-0.0037287038),	_Q15(0.014223585),	_Q15(-0.00393171),
	_Q15(0.002237899),	_Q15(0.005513602),	_Q15(-0.008676636),	_Q15(-0.0033971881),
	_Q15(0.0058266716),	_Q15(-0.0030121633),	_Q15(0.0049647405),	_Q15(0.002007313),
	_Q15(-0.008191492),	_Q15(0.00022169988),	_Q15(-0.01310195),	_Q15(0.010765728),
	_Q15(-0.012953718),	_Q15(-0.016843703),	_Q15(-0.013406761),	_Q15(0.0034394853),
	_Q15(0.01754917),	_Q15(0.01545053),	_Q15(0.0077691167),	_Q15(-0.015525322),
	_Q15(-0.030742336),	_Q15(0.006706802),	_Q15(0.0028422342),	_Q15(0.016952403),
	_Q15(0.0012980311),	_Q15(0.015362627),	_Q15(-0.007919179),	_Q15(0.007355296),
	_Q15(-0.0021088591),	_Q15(-0.0040812255),	_Q15(0.030121025),	_Q15(-0.017998336),
	_Q15(0.0060316133),	_Q15(-0.006530906),	_Q15(-0.004970143),	_Q15(0.018375697),
	_Q15(-0.013706654),	_Q15(0.010364128),	_Q15(-0.009018468),	_Q15(-0.0020188498),
	_Q15(0.011339186),	_Q15(0.03350515),	_Q15(-0.011404787),	_Q15(0.03477211),
	_Q15(0.017783003),	_Q15(-0.004974421),	_Q15(-0.0026396064),	_Q15(0.013888228),
	_Q15(-0.0039635305),	_Q15(0.002562942),	_Q15(-0.021980368),	_Q15(0.00020934851),
	_Q15(0.0069139116),	_Q15(-0.01773249),	_Q15(0.003096533),	_Q15(0.0066370964),
	_Q15(-0.0015627438),	_Q15(0.00836707),	_Q15(0.0065851714),	_Q15(0.021633659),
	_Q15(-0.0018709453),	_Q15(-0.0027484493),	_Q15(0.003176545),	_Q15(-0.013301509),
	_Q15(-0.0033923704),	_Q15(0.008200578),	_Q15(-0.015706582),	_Q15(-0.005125117),
	_Q15(-0.04348998),	_Q15(0.009284462),	_Q15(-0.013832723),	_Q15(-0.014089254),
	_Q15(0.008323464),	_Q15(-0.0026221033),	_Q15(-0.008772428),	_Q15(-0.008670856),
	_Q15(0.031012125),	_Q15(-0.0065569077),	_Q15(-0.014812139),	_Q15(0.008177278),
	_Q15(0.005305187),	_Q15(0.013988426),	_Q15(-0.00045246442),	_Q15(-0.02681024),
	_Q15(0.008661576),	_Q15(0.011325442),	_Q15(0.0042718993),	_Q15(-0.014043327),
	_Q15(0.0155672),	_Q15(-0.0017452302),	_Q15(0.009820322),	_Q15(-0.020143038),
	_Q15(-0.0061387466),	_Q15(-0.004356319),	_Q15(0.0072689895),	_Q15(-0.006130102),
	_Q15(-0.015467698),	_Q15(0.038318764),	_Q15(0.0041690627),	_Q15(-0.008064178),
	_Q15(-0.009166053),	_Q15(0.017257532),	_Q15(0.001498757),	_Q15(0.011553234),
	_Q15(-0.00344045),	_Q15(-0.0044362335),	_Q15(0.0053241416),	_Q15(0.009525252),
	_Q15(-0.0035455434),	_Q15(-0.04817175),	_Q15(0.017716685),	_Q15(0.0024447856),
	_Q15(0.0067481743),	_Q15(-0.011920164),	_Q15(0.0025403798),	_Q15(-0.011584691),
	_Q15(-0.007291425),	_Q15(-0.004469929),	_Q15(-0.020849181),	_Q15(0.004896003),
	_Q15(0.009614281),	_Q15(0.007248508),	_Q15(-0.016905166),	_Q15(0.009637232),
	_Q15(-0.0037191347),	_Q15(-0.012289767),	_Q15(-0.0053228415),	_Q15(-0.0034041563),
	_Q15(-0.020623099),	_Q15(-0.019657323),	_Q15(0.006691337),	_Q15(0.0105142845),
	_Q15(0.009342938),	_Q15(-0.007852434),	_Q15(-0.0071806107),	_Q15(0.010165722),
	_Q15(-0.023087645),	_Q15(-0.01707729),	_Q15(0.004134859),	_Q15(-0.009082849),
	_Q15(0.0032804925),	_Q15(0.005086704),	_Q15(0.008343153),	_Q15(-0.00040331387),
	_Q15(0.007240256),	_Q15(0.0028828029),	_Q15(0.010770097),	_Q15(-0.03836075),
	_Q15(-0.005113426),	_Q15(0.0037834118),	_Q15(-0.01734121),	_Q15(-0.02845006),
	_Q15(-0.0043020835),	_Q15(0.006562142),	_Q15(0.007251699),	_Q15(-0.006483714),
	_Q15(-0.008338928),	_Q15(0.007861352),	_Q15(0.006284073),	_Q15(-0.01541793),
	_Q15(-0.018032521),	_Q15(0.00024186641),	_Q15(0.008646628),	_Q15(-0.029537585),
	_Q15(0.004537154),	_Q15(-0.010858169),	_Q15(-0.006434011),	_Q15(0.01290918),
	_Q15(0.025744736),	_Q15(-0.006152367),	_Q15(-0.0011189047),	_Q15(-0.003638089),
	_Q15(0.018987345),	_Q15(-0.012868602),	_Q15(-0.008700918),	_Q15(0.030118424),
	_Q15(0.021003488),	_Q15(0.005863808),	_Q15(0.0105221495),	_Q15(0.013323119),
	_Q15(-0.004850643),	_Q15(0.028164443),	_Q15(-0.0073853354),	_Q15(0.0014929594),
	_Q15(0.0067321598),	_Q15(-0.0106318295),	_Q15(0.011967039),	_Q15(0.018495496),
	_Q15(-0.027184483),	_Q15(0.0052466406),	_Q15(0.007976815),	_Q15(-0.009705717),
	_Q15(-0.008626342),	_Q15(0.0069392463),	_Q15(-0.008081017),	_Q15(0.0060844016),
	_Q15(0.0006277636),	_Q15(-0.027976528),	_Q15(0.0017587467),	_Q15(0.018482681),
	_Q15(0.0170949),	_Q15(0.0028297247),	_Q15(0.009700829),	_Q15(-0.008165617),
	_Q15(-0.010658933),	_Q15(0.002135751),	_Q15(-0.006537076),	_Q15(-0.013283319),
	_Q15(0.009982218),	_Q15(-0.0148875695),	_Q15(-0.007611334),	_Q15(0.008264978),
	_Q15(0.005932376),	_Q15(-0.0032627005),	_Q15(0.0036613543),	_Q15(-0.007262481),
	_Q15(-0.011264435),	_Q15(-0.014755521),	_Q15(-0.00024654594),	_Q15(0.0314156),
	_Q15(0.010021511),	_Q15(-0.022260968),	_Q15(0.00300551),	_Q15(-0.014472781),
	_Q15(-0.0045506074),	_Q15(-0.007441231),	_Q15(0.0102009885),	_Q15(0.019020623),
	_Q15(0.00058325566),	_Q15(-0.012995872),	_Q15(0.010511544),	_Q15(0.013718366),
	_Q15(0.0028297466),	_Q15(0.0048215664),	_Q15(-0.0066089192),	_Q15(0.0075880336),
	_Q15(0.0061451476),	_Q15(-0.0037649148),	_Q15(0.029308025),	_Q15(0.0046487483),
	_Q15(-0.008844537),	_Q15(0.018522779),	_Q15(0.010911653),	_Q15(0.008423051),
	_Q15(0.0077034505),	_Q15(-0.02551552),	_Q15(0.0036950514),	_Q15(-0.0111566605),
	_Q15(0.03026883),	_Q15(-0.007313784),	_Q15(0.0035257041),	_Q15(0.0048637195),
	_Q15(0.0077294493),	_Q15(-0.017955473),	_Q15(0.0069242087),	_Q15(0.009293722),
	_Q15(-0.003956109),	_Q15(0.016068147),	_Q15(0.012752344),	_Q15(-0.0113852965),
	_Q15(-0.018373173),	_Q15(0.003490783),	_Q15(-0.0026249243),	_Q15(-0.0074888016),
	_Q15(-0.01439689),	_Q15(0.005743685),	_Q15(0.0053474023),	_Q15(0.0069499793),
	_Q15(-0.0021963185),	_Q15(-0.023825003),	_Q15(0.041186083),	_Q15(-0.0052024117),
	_Q15(0.00041232692),	_Q15(-0.0057571935),	_Q15(0.020234566),	_Q15(0.013038334),
	_Q15(0.0044671656),	_Q15(-0.008569494),	_Q15(0.0074097314),	_Q15(-0.00890699),
	_Q15(0.008673364),	_Q15(0.0091425115),	_Q15(0.004843641),	_Q15(0.01890219),
	_Q15(-0.023341749),	_Q15(0.0017541179),	_Q15(0.012619982),	_Q15(-0.013695702),
	_Q15(0.014757875),	_Q15(0.012276363),	_Q15(-0.01198016),	_Q15(0.014408648),
	_Q15(-0.009176277),	_Q15(0.028792432),	_Q15(0.0025875154),	_Q15(0.008696698),
	_Q15(0.025910573),	_Q15(0.0019182636),	_Q15(-0.010302598),	_Q15(0.019587807),
	_Q15(-0.0097369505),	_Q15(-0.009278825),	_Q15(0.005994002),	_Q15(0.013827506),
	_Q15(0.010853533),	_Q15(0.014037698),	_Q15(-0.02664942),	_Q15(-0.0114527065),
	_Q15(-0.014774018),	_Q15(-0.0137262745),	_Q15(-0.011671218),	_Q15(-0.007910033),
	_Q15(0.008989784),	_Q15(-0.0017188081),	_Q15(0.004970396),	_Q15(-0.0014283629),
	_Q15(0.025840988),	_Q15(-0.0034128055),	_Q15(-0.008869774),	_Q15(0.022268264),
	_Q15(0.0258408),	_Q15(-0.000617206),	_Q15(0.01035311),	_Q15(-0.0096393395),
	_Q15(-0.0044714794),	_Q15(-0.0018729428),	_Q15(-0.020447306),	_Q15(-0.010000243),
	_Q15(0.009038889),	_Q15(-0.0008062041),	_Q15(-0.011852969),	_Q15(0.01843664),
	_Q15(0.0039294832),	_Q15(-0.0015779304),	_Q15(0.016414963),	_Q15(-0.0029677418),
	_Q15(0.005545791),	_Q15(-0.0039546792),	_Q15(0.01346762),	_Q15(-0.013469067),
	_Q15(0.011792251),	_Q15(-0.009125398),	_Q15(-0.011730341),	_Q15(0.005431035),
	_Q15(-0.009264605),	_Q15(0.007808045),	_Q15(-0.007641079),	_Q15(0.005850208),
	_Q15(-0.00739482),	_Q15(-0.0035302457),	_Q15(0.018067252),	_Q15(-0.007005226),
	_Q15(0.005168623),	_Q15(0.01653367),	_Q15(-0.006181649),	_Q15(-0.011915168),
	_Q15(0.008373586),	_Q15(-0.009047309),	_Q15(0.004906186),	_Q15(-0.00016457608),
	_Q15(-0.0056324294),	_Q15(0.0014533369),	_Q15(0.0055138767),	_Q15(0.009020855),
	_Q15(0.0021032144),	_Q15(-0.024972245),	_Q15(0.0060527595),	_Q15(-0.004199039),
	_Q15(-0.011169409),	_Q15(-0.011784286),	_Q15(0.012970066),	_Q15(-0.013900028),
	_Q15(0.006151677),	_Q15(0.0245558),	_Q15(2.3161443e-05),	_Q15(-0.00158796),
	_Q15(-0.017546974),	_Q15(0.0011603857),	_Q15(-0.006024826),	_Q15(0.011704998),
	_Q15(-0.002244894),	_Q15(0.009596253),	_Q15(-0.014619176),	_Q15(0.003392374),
	_Q15(-0.020015253),	_Q15(0.0013708897),	_Q15(0.013933107),	_Q15(0.010187513),
	_Q15(0.0040698587),	_Q15(-0.004920386),	_Q15(-0.0034345582),	_Q15(-0.007484313),
	_Q15(0.007564494),	_Q15(0.012686256),	_Q15(0.020502897),	_Q15(0.0071487073),
	_Q15(-0.0031769858),	_Q15(-0.0038745056),	_Q15(-0.0036775959),	_Q15(0.02597312),
	_Q15(-0.004606421),	_Q15(0.0162709),	_Q15(0.0034990467),	_Q15(-0.0032468894),
	_Q15(0.00531149),	_Q15(-0.0038253407),	_Q15(-0.020593038),	_Q15(0.01513558),
	_Q15(0.010068654),	_Q15(-0.006131087),	_Q15(0.005926428),	_Q15(0.008940551),
	_Q15(0.0043201526),	_Q15(-0.026078485),	_Q15(0.00041964513),	_Q15(0.024695657),
	_Q15(0.020537829),	_Q15(-0.0020497616),	_Q15(-0.0071941405),	_Q15(0.014703777),
	_Q15(0.0004710333),	_Q15(0.0072378158),	_Q15(-0.007913795),	_Q15(-0.0067361784),
	_Q15(-0.01030639),	_Q15(0.01406801),	_Q15(0.00925076),	_Q15(-0.0033784981),
	_Q15(0.009037798),	_Q15(-0.008512966),	_Q15(-0.0077084014),	_Q15(-0.008279709),
	_Q15(0.015947437),	_Q15(0.0107840225),	_Q15(0.0063039237),	_Q15(-0.003197917),
	_Q15(-0.036817536),	_Q15(-0.017521191),	_Q15(0.006319121),	_Q15(0.010329944),
	_Q15(0.019799273),	_Q15(0.025689714),	_Q15(-0.0086314855),	_Q15(-0.0056704786),
	_Q15(-0.0010238726),	_Q15(0.014475),	_Q15(0.003130189),	_Q15(-0.011945459),
	_Q15(0.018474318),	_Q15(0.00733638),	_Q15(0.0038944846),	_Q15(0.01133736),
	_Q15(-0.005472739),	_Q15(0.0073348703),	_Q15(-0.025216816),	_Q15(-0.00053219654),
	_Q15(0.011567739),	_Q15(-0.01841769),	_Q15(-0.00015121915),	_Q15(0.029665764),
	_Q15(-0.009125377),	_Q15(-0.022878945),	_Q15(0.013131036),	_Q15(-0.016348828),
	_Q15(0.0065586865),	_Q15(0.005125976),	_Q15(0.012776547),	_Q15(0.003430692),
	_Q15(-0.004781384),	_Q15(-0.007890331),	_Q15(0.0021573473),	_Q15(0.00837653),
	_Q15(-0.0014436115),	_Q15(-0.008191234),	_Q15(0.009369308),	_Q15(-0.008478332),
	_Q15(0.0063012475),	_Q15(0.00067138765),	_Q15(0.0028872702),	_Q15(-0.015654143),
	_Q15(-0.0028793383),	_Q15(0.00391841),	_Q15(0.0061749564),	_Q15(0.003209325),
	_Q15(0.0024649324),	_Q15(-0.009280381),	_Q15(-0.003514254),	_Q15(-0.011311019),
	_Q15(0.035601106),	_Q15(-0.004338581),	_Q15(-0.00035321095),	_Q15(-0.0029943907),
	_Q15(-0.01719543),	_Q15(-0.021831635),	_Q15(-0.008228562),	_Q15(0.023007365),
	_Q15(0.017813489),	_Q15(0.0186739),	_Q15(0.013938077),	_Q15(0.007838676),
	_Q15(-0.0026775314),	_Q15(0.0067490423),	_Q15(0.009560716),	_Q15(-0.004071183),
	_Q15(-0.004291317),	_Q15(-0.014038142),	_Q15(-0.012392945),	_Q15(-0.005655274),
	_Q15(0.000102461316),	_Q15(-0.025619237),	_Q15(0.01819064),	_Q15(-0.026394658),
	_Q15(-0.004683019),	_Q15(-0.016320812),	_Q15(0.012541846),	_Q15(0.022564331),
	_Q15(0.015982699),	_Q15(-0.012134965),	_Q15(-0.0033134108),	_Q15(-0.019392252),
	_Q15(0.008781871),	_Q15(0.01435261),	_Q15(-0.0033280049),	_Q15(0.05108073),
	_Q15(0.002942383),	_Q15(0.009530917),	_Q15(0.0017601795),	_Q15(-0.0057815057),
	_Q15(-0.0248453),	_Q15(-0.0024845682),	_Q15(0.018315494),	_Q15(0.0043055844),
	_Q15(-0.015852472),	_Q15(0.04184914),	_Q15(0.0027123103),	_Q15(-0.032564744),
	_Q15(-0.01698423),	_Q15(-0.006425345),	_Q15(-0.009958348),	_Q15(-0.013895083),
	_Q15(-0.008233811),	_Q15(-0.02093488),	_Q15(-0.0008478304),	_Q15(0.00020010905),
	_Q15(0.0042946385),	_Q15(0.017379265),	_Q15(0.011089697),	_Q15(-0.021212082),
	_Q15(0.046176363),	_Q15(-0.0026376012),	_Q15(0.03224406),	_Q15(0.009689905),
	_Q15(0.021712007),	_Q15(0.009365087),	_Q15(0.0034208721),	_Q15(0.004390629),
	_Q15(0.03355959),	_Q15(0.03555254),	_Q15(0.02865521),	_Q15(-0.016733091),
	_Q15(0.0037419286),	_Q15(0.02346274),	_Q15(-0.0011756088),	_Q15(0.0053170016),
	_Q15(0.008553728),	_Q15(0.0059516234),	_Q15(0.016563212),	_Q15(0.014359227),
	_Q15(-0.011922896),	_Q15(0.009459007),	_Q15(0.012163192),	_Q15(-0.0023817846),
	_Q15(-0.009024081),	_Q15(0.004437485),	_Q15(0.009499151),	_Q15(0.024194963),
	_Q15(0.029843912),	_Q15(0.015347036),	_Q15(-0.017127432),	_Q15(-0.040488113),
	_Q15(-0.005771556),	_Q15(0.017538212),	_Q15(-0.00016191069),	_Q15(-0.0026950894),
	_Q15(0.0006544776),	_Q15(0.0055184998),	_Q15(-0.017847493),	_Q15(-0.0051486604),
	_Q15(-0.009532369),	_Q15(0.005078117),	_Q15(0.02683821),	_Q15(-0.0067768553),
	_Q15(0.01120311),	_Q15(0.0061345333),	_Q15(-0.0010102829),	_Q15(0.027266186),
	_Q15(0.0046882536),	_Q15(0.0098068975),	_Q15(-0.012202119),	_Q15(7.682414e-05),
	_Q15(-0.0048363646),	_Q15(-0.0066054175),	_Q15(-0.00044095298),	_Q15(-0.00025441396),
	_Q15(-0.006076562),	_Q15(-0.0020661366),	_Q15(-0.008616241),	_Q15(-0.007795696),
	_Q15(-0.025579533),	_Q15(-0.005680781),	_Q15(0.009019615),	_Q15(-0.0055745565),
	_Q15(-0.005299328),	_Q15(0.0051893434),	_Q15(0.009294447),	_Q15(-0.0112968525),
	_Q15(0.011447738),	_Q15(0.006294078),	_Q15(-0.018866993),	_Q15(0.010832142),
	_Q15(0.030327016),	_Q15(-0.0076781064),	_Q15(0.0068886736),	_Q15(0.012423965),
	_Q15(0.017543836),	_Q15(0.006157264),	_Q15(-0.0036639906),	_Q15(0.021513127),
	_Q15(-0.0048079854),	_Q15(0.028668048),	_Q15(-0.011674072),	_Q15(0.019335616),
	_Q15(0.007600969),	_Q15(0.0125138555),	_Q15(-0.022941554),	_Q15(-0.0103662675),
	_Q15(0.008008059),	_Q15(0.008941506),	_Q15(-0.0038962269),	_Q15(0.007101375),
	_Q15(0.017667448),	_Q15(-0.0025675239),	_Q15(-0.00268209),	_Q15(-0.02029406),
	_Q15(0.009689646),	_Q15(0.004190874),	_Q15(0.007500048),	_Q15(-0.015012871),
	_Q15(0.004013919),	_Q15(0.008045309),	_Q15(-0.009460816),	_Q15(-0.017434184),
	_Q15(0.002655817),	_Q15(-0.03728366),	_Q15(-0.0052405335),	_Q15(0.0037570156),
	_Q15(-0.014767051),	_Q15(-0.0033090971),	_Q15(-0.0076592714),	_Q15(-0.025090443),
	_Q15(0.029348223),	_Q15(-0.016110135),	_Q15(-3.280025e-05),	_Q15(0.01954891),
	_Q15(-0.010211877),	_Q15(8.07018e-05),	_Q15(0.01454171),	_Q15(0.008563476),
	_Q15(0.020946156),	_Q15(-0.0104030995),	_Q15(0.021729456),	_Q15(0.021719279),
	_Q15(-0.021424815),	_Q15(0.0098922495),	_Q15(0.002512934),	_Q15(7.533254e-05),
	_Q15(-0.020335844),	_Q15(-0.010397825),	_Q15(-0.011728022),	_Q15(-0.0036845943),
	_Q15(-0.019816631),	_Q15(-0.006606868),	_Q15(0.0063955616),	_Q15(-0.010924202),
	_Q15(0.002888281),	_Q15(-0.00399814),	_Q15(0.015357973),	_Q15(0.009743467),
	_Q15(0.012852611),	_Q15(0.00021110506),	_Q15(0.0060305176),	_Q15(-0.023780474),
	_Q15(-0.0038152556),	_Q15(0.0055236905),	_Q15(-0.01319062),	_Q15(0.01662006),
	_Q15(0.004289688),	_Q15(0.0025891575),	_Q15(0.0040835408),	_Q15(0.008194334),
	_Q15(-0.010797808),	_Q15(-0.008696712),	_Q15(0.008699972),	_Q15(0.00018847788),
	_Q15(0.0032337904),	_Q15(0.0034991854),	_Q15(-0.017161835),	_Q15(-0.019392978),
	_Q15(0.0057114363),	_Q15(0.0005210346),	_Q15(-0.01545028),	_Q15(0.025177913),
	_Q15(0.009076819),	_Q15(0.018182242),	_Q15(-0.007724258),	_Q15(0.00023607357),
	_Q15(0.0030352771),	_Q15(0.010803285),	_Q15(0.0015184871),	_Q15(0.009636541),
	_Q15(-0.0032554183),	_Q15(0.0030477135),	_Q15(0.0025258937),	_Q15(-0.0054525677),
	_Q15(-0.02003327),	_Q15(0.005902486),	_Q15(-0.00074374926),	_Q15(0.004764655),
	_Q15(-0.008681277),	_Q15(-0.004845292),	_Q15(-0.0031409177),	_Q15(0.015694253),
	_Q15(-0.0035148768),	_Q15(-0.01616239),	_Q15(0.0238004),	_Q15(-0.002490343),
	_Q15(0.02940936),	_Q15(0.004477197),	_Q15(0.02175773),	_Q15(-0.03582097),
	_Q15(-0.018650474),	_Q15(0.00088481297),	_Q15(-0.007471066),	_Q15(-0.009201319),
	_Q15(0.0024255132),	_Q15(0.0066242395),	_Q15(0.00526972),	_Q15(0.022005552),
	_Q15(0.00599109),	_Q15(-0.006283351),	_Q15(0.0054466724),	_Q15(0.0021218734),
	_Q15(-0.004411514),	_Q15(-0.007943193),	_Q15(0.0007304271),	_Q15(0.019817404),
	_Q15(0.0012278543),	_Q15(-0.0087768845),	_Q15(-0.006306302),	_Q15(-0.008026237),
	_Q15(0.012983673),	_Q15(0.003092426),	_Q15(-0.0086901),	_Q15(-0.016846944),
	_Q15(3.6877536e-06),	_Q15(0.00834577),	_Q15(-0.0009531593),	_Q15(-0.012865088),
	_Q15(-0.0018153703),	_Q15(0.007967427),	_Q15(-0.0052784313),	_Q15(-0.0063662594),
	_Q15(-0.005111071),	_Q15(0.019582562),	_Q15(-0.0014350377),	_Q15(-0.012047452),
	_Q15(0.0072425506),	_Q15(-0.0075833425),	_Q15(0.002153567),	_Q15(-0.013101047),
	_Q15(0.012590902),	_Q15(-0.009031474),	_Q15(-0.0024616998),	_Q15(0.009802308),
	_Q15(0.009871575),	_Q15(-0.009334769),	_Q15(-0.004652217),	_Q15(0.016961694),
	_Q15(-0.015346855),	_Q15(-0.019569783),	_Q15(-0.016038772),	_Q15(0.021827094),
	_Q15(0.00030396308),	_Q15(0.007405295),	_Q15(0.005713974),	_Q15(-0.0020683347),
	_Q15(-0.02308853),	_Q15(0.010400831),	_Q15(-0.018445233),	_Q15(0.0023753934),
	_Q15(-0.0016134337),	_Q15(0.00034566157),	_Q15(0.009841297),	_Q15(-0.0128724845),
	_Q15(0.0025053564),	_Q15(0.0072511723),	_Q15(0.007913271),	_Q15(0.0030106402),
	_Q15(0.02407007),	_Q15(-0.005032921),	_Q15(-0.020207264),	_Q15(-0.0069953725),
	_Q15(-0.009126366),	_Q15(0.00020573568),	_Q15(0.0126738455),	_Q15(0.022419669),
	_Q15(-0.0108662965),	_Q15(0.019622808),	_Q15(0.025225466),	_Q15(-0.050185706),
	_Q15(-0.0059993323),	_Q15(-0.0034779215),	_Q15(0.0018680219),	_Q15(-0.015176833),
	_Q15(-0.0012856843),	_Q15(-0.0018046384),	_Q15(-0.009175437),	_Q15(-0.01911823),
	_Q15(-0.002041149),	_Q15(0.02554465),	_Q15(-0.0011195074),	_Q15(0.0021145944),
	_Q15(-0.0003827336),	_Q15(0.039323147),	_Q15(-0.0057922504),	_Q15(0.0116292555),
	_Q15(0.009220736),	_Q15(0.009445301),	_Q15(-0.004604591),	_Q15(0.021514254),
	_Q15(0.0068839244),	_Q15(-0.004465187),	_Q15(0.004642938),	_Q15(-0.004847197),
	_Q15(-0.0249855),	_Q15(0.0005173714),	_Q15(-0.011569882),	_Q15(0.006663821),
	_Q15(-0.01748075),	_Q15(0.0028143097),	_Q15(0.0063561774),	_Q15(-0.009386878),
	_Q15(0.026941853),	_Q15(-0.013145979),	_Q15(-0.0038560228),	_Q15(-0.01202944),
	_Q15(0.016214237),	_Q15(-0.019908547),	_Q15(0.023274021),	_Q15(-0.004875175),
	_Q15(-0.014306189),	_Q15(0.0072510354),	_Q15(0.0062097954),	_Q15(-0.020615024),
	_Q15(-0.012934179),	_Q15(0.010075605),	_Q15(0.016918657),	_Q15(0.027608024),
	_Q15(-0.0008377973),	_Q15(-0.015359008),	_Q15(0.028134566),	_Q15(0.025944328),
	_Q15(0.00490389),	_Q15(-0.0081069805),	_Q15(0.012865334),	_Q15(0.013012798),
	_Q15(0.016786119),	_Q15(-0.0032437902),	_Q15(0.0069956845),	_Q15(0.020117054),
	_Q15(0.01422396),	_Q15(-0.0133892335),	_Q15(-0.010564055),	_Q15(-0.010984527),
	_Q15(0.0079547465),	_Q15(-8.491432e-05),	_Q15(-0.0006291509),	_Q15(-0.010064503),
	_Q15(-0.003025128),	_Q15(0.007887784),	_Q15(-0.020849617),	_Q15(-0.0071957763),
	_Q15(-0.013265641),	_Q15(0.024476472),	_Q15(-0.00479286),	_Q15(-0.019262386),
	_Q15(0.007905566),	_Q15(-0.013435492),	_Q15(-0.010997467),	_Q15(-0.0186849),
	_Q15(0.011947543),	_Q15(0.0001376962),	_Q15(0.007054674),	_Q15(0.016744876),
	_Q15(-0.0040097777),	_Q15(-0.027388895),	_Q15(0.022744738),	_Q15(0.004932008),
	_Q15(-0.01892198),	_Q15(-0.010646984),	_Q15(0.02036041),	_Q15(-0.0021986337),
	_Q15(-0.00090752804),	_Q15(0.009602128),	_Q15(0.0027995252),	_Q15(-0.0049181413),
	_Q15(0.015216561),	_Q15(0.015710648),	_Q15(0.0010077716),	_Q15(0.0065136687),
	_Q15(-0.014963223),	_Q15(0.0027140952),	_Q15(-0.0036611254),	_Q15(0.013979097),
	_Q15(-0.004891137),	_Q15(-0.0023546994),	_Q15(-0.0073894532),	_Q15(0.013802393),
	_Q15(0.00010113409),	_Q15(0.0048935967),	_Q15(-0.010078902),	_Q15(0.0151408175),
	_Q15(-0.003988606),	_Q15(-0.0050636185),	_Q15(0.00030414676),	_Q15(0.023929497),
	_Q15(-0.010086646),	_Q15(0.017197238),	_Q15(0.0049786633),	_Q15(-0.021076087),
	_Q15(0.01070147),	_Q15(0.0097663915),	_Q15(0.012405727),	_Q15(-0.00915428),
	_Q15(-0.00207459),	_Q15(0.013454981),	_Q15(-0.00417194),	_Q15(-0.028633691),
	_Q15(0.001342495),	_Q15(0.00373443),	_Q15(-2.4891271e-05),	_Q15(-0.005694202),
	_Q15(0.007823504),	_Q15(0.020802947),	_Q15(0.011560605),	_Q15(0.032608703),
	_Q15(0.00646779),	_Q15(0.007618736),	_Q15(0.023825059),	_Q15(0.012782908),
	_Q15(0.012178246),	_Q15(-0.014661083),	_Q15(-0.007284864),	_Q15(0.003816947),
	_Q15(0.0053280434),	_Q15(0.010473882),	_Q15(0.010379388),	_Q15(-0.005987396),
	_Q15(-0.0117237745),	_Q15(0.02032335),	_Q15(-0.014121805),	_Q15(-0.012510266),
	_Q15(-0.016120162),	_Q15(0.022509167),	_Q15(0.004314422),	_Q15(-0.027004143),
	_Q15(0.01422003),	_Q15(0.009256431),	_Q15(-0.0184238),	_Q15(0.015377559),
	_Q15(0.014606081),	_Q15(0.006654379),	_Q15(-0.008516875),	_Q15(-0.0035279735),
	_Q15(0.006745913),	_Q15(0.01274796),	_Q15(0.009473413),	_Q15(0.02428125),
	_Q15(0.010400675),	_Q15(0.01537976),	_Q15(0.018657314),	_Q15(0.01628891),
	_Q15(-0.0037562456),	_Q15(0.012658638),	_Q15(-0.0047907038),	_Q15(-0.0037503259),
	_Q15(0.0011214594),	_Q15(0.0026306696),	_Q15(-0.0067376182),	_Q15(0.008277197),
	_Q15(0.017403843),	_Q15(-0.021481454),	_Q15(4.1980908e-05),	_Q15(-0.030489441),
	_Q15(-0.013247829),	_Q15(0.006245759),	_Q15(-0.008059376),	_Q15(-0.004592896),
	_Q15(-0.0021380933),	_Q15(0.008024962),	_Q15(0.00744965),	_Q15(0.012202259),
	_Q15(0.007824262),	_Q15(0.02174671),	_Q15(0.006665629),	_Q15(0.0018765226),
	_Q15(0.011307709),	_Q15(0.009795588),	_Q15(-0.0042084577),	_Q15(0.0034625249),
	_Q15(0.014124184),	_Q15(-0.018350955),	_Q15(-0.007904926),	_Q15(0.015035612),
	_Q15(0.005093063),	_Q15(-0.019036027),	_Q15(0.00441035),	_Q15(-0.017357314),
	_Q15(-0.025374634),	_Q15(-0.022350663),	_Q15(-0.021396872),	_Q15(0.006728487),
	_Q15(0.014390872),	_Q15(-0.0087168645),	_Q15(0.0043046162),	_Q15(-0.00718024),
	_Q15(0.0056796293),	_Q15(0.0129216295),	_Q15(0.0061843176),	_Q15(0.0077511747),
	_Q15(-0.008712946),	_Q15(0.011915036),	_Q15(0.02549185),	_Q15(-0.0023719308),
	_Q15(0.0053195166),	_Q15(-0.017100083),	_Q15(-0.010988065),	_Q15(0.009025513),
	_Q15(-0.00350543),	_Q15(-0.015228736),	_Q15(0.02051715),	_Q15(0.016311431),
	_Q15(-0.0051345746),	_Q15(-0.010353718),	_Q15(0.008758531),	_Q15(0.030030256),
	_Q15(-0.011688943),	_Q15(0.014345655),	_Q15(-0.0002386745),	_Q15(0.01833568),
	_Q15(-0.009065631),	_Q15(-0.007342731),	_Q15(0.008206098),	_Q15(-0.023831181),
	_Q15(-0.006515437),	_Q15(-0.005330244),	_Q15(-0.005701738),	_Q15(-0.0035241505),
	_Q15(-0.0012159147),	_Q15(0.016493823),	_Q15(-0.014389463),	_Q15(0.004527355),
	_Q15(0.006128968),	_Q15(0.0046254396),	_Q15(-0.0040896763),	_Q15(0.018933654),
	_Q15(-0.007182079),	_Q15(0.0037388827),	_Q15(0.025093675),	_Q15(-0.008009745),
	_Q15(0.009651482),	_Q15(-0.026411599),	_Q15(0.004246916),	_Q15(0.005245058),
	_Q15(-0.009938584),	_Q15(0.0069897687),	_Q15(0.006110897),	_Q15(0.00085064396),
	_Q15(0.027035935),	_Q15(-0.0002255551),	_Q15(0.0092825685),	_Q15(0.0059048384),
	_Q15(-0.01178119),	_Q15(0.018828169),	_Q15(0.016478397),	_Q15(-0.0018597598),
	_Q15(0.023284266),	_Q15(0.0145473685),	_Q15(-0.0071571227),	_Q15(0.032055326),
	_Q15(0.026856514),	_Q15(0.010776578),	_Q15(0.014145507),	_Q15(-0.01037308),
	_Q15(0.0045198346),	_Q15(0.0028195207),	_Q15(-0.00573809),	_Q15(0.026338812),
	_Q15(-0.0013949237),	_Q15(0.0020591018),	_Q15(-0.016304085),	_Q15(0.018875342),
	_Q15(0.0004122299),	_Q15(-0.008671839),	_Q15(-0.008427692),	_Q15(-0.0033718254),
	_Q15(0.010313624),	_Q15(-0.0049951533),	_Q15(0.0055775465),	_Q15(0.0034566717),
	_Q15(-0.0011563953),	_Q15(0.00073724776),	_Q15(-0.00772516),	_Q15(0.008572499),
	_Q15(0.021276042),	_Q15(-0.010014163),	_Q15(0.00087650144),	_Q15(0.021951932),
	_Q15(0.0076919342),	_Q15(-0.006215676),	_Q15(-0.0018410975),	_Q15(-0.015065008),
	_Q15(0.004057457),	_Q15(-0.02225786),	_Q15(-0.004387866),	_Q15(0.0066339048),
	_Q15(-0.0103558665),	_Q15(0.003306491),	_Q15(-0.009593095),	_Q15(0.007444691),
	_Q15(0.009756043),	_Q15(0.011408852),	_Q15(0.010778252),	_Q15(-0.009139826),
	_Q15(0.00502615),	_Q15(0.0119341565),	_Q15(0.005135499),	_Q15(0.014476475),
	_Q15(-0.0019998145),	_Q15(0.02613735),	_Q15(0.021488585),	_Q15(-0.0085778665),
	_Q15(-0.005111933),	_Q15(0.00015571287),	_Q15(0.0028798827),	_Q15(0.006975007),
	_Q15(0.032767277),	_Q15(-0.018039836),	_Q15(0.017030789),	_Q15(-0.005267383),
	_Q15(0.010291052),	_Q15(-0.0057992013),	_Q15(-0.018799983),	_Q15(0.0069127004),
	_Q15(0.0013849017),	_Q15(0.0068147206),	_Q15(0.015819881),	_Q15(0.011578136),
	_Q15(0.0042738602),	_Q15(0.020548819),	_Q15(-0.018551407),	_Q15(-0.002450184),
	_Q15(-0.0040368536),	_Q15(-0.00061216083),	_Q15(-0.023428157),	_Q15(-0.021743227),
	_Q15(0.007327962),	_Q15(-0.026785957),	_Q15(-0.014781776),	_Q15(0.04523552),
	_Q15(-0.0021737167),	_Q15(0.005068337),	_Q15(-0.020573141),	_Q15(0.02164542),
	_Q15(-0.0030350734),	_Q15(-0.0032395418),	_Q15(0.022347964),	_Q15(0.008293793),
	_Q15(-0.007760203),	_Q15(0.011287089),	_Q15(-0.0037763761),	_Q15(0.007641227),
	_Q15(-0.00043700653),	_Q15(-0.018513305),	_Q15(0.0029362913),	_Q15(-0.0141572775),
	_Q15(-0.006260175),	_Q15(-0.007869619),	_Q15(-0.006873845),	_Q15(-0.002487833),
	_Q15(0.002626015),	_Q15(0.023855938),	_Q15(-0.025130158),	_Q15(0.005934058),
	_Q15(0.027413065),	_Q15(0.0041878126),	_Q15(-0.0021711292),	_Q15(0.0060797706),
	_Q15(0.0113785),	_Q15(0.015261954),	_Q15(-0.013269306),	_Q15(0.005433317),
	_Q15(0.008210981),	_Q15(0.0104681505),	_Q15(-0.0013221485),	_Q15(0.0002630406),
	_Q15(0.0021277976),	_Q15(0.0035904478),	_Q15(0.0009845211),	_Q15(0.0045115585),
	_Q15(-0.026692735),	_Q15(0.00055158354),	_Q15(-0.009918073),	_Q15(0.011792022),
	_Q15(0.013505218),	_Q15(0.003877338),	_Q15(-0.0019563239),	_Q15(-0.026705131),
	_Q15(0.008682985),	_Q15(-0.0005858347),	_Q15(-0.027267028),	_Q15(-0.032288525),
	_Q15(0.0060216403),	_Q15(-0.0034647172),	_Q15(0.007863199),	_Q15(-0.009349916),
	_Q15(-0.009119454),	_Q15(-0.0009721125),	_Q15(0.004820721),	_Q15(0.005064386),
	_Q15(-0.024840139),	_Q15(0.017344838),	_Q15(-0.011507518),	_Q15(0.0313284),
	_Q15(0.012310664),	_Q15(0.0059725824),	_Q15(-0.00571253),	_Q15(0.030409621),
	_Q15(-0.002760786),	_Q15(-0.0050772764),	_Q15(0.026472844),	_Q15(0.010403429),
	_Q15(0.014526007),	_Q15(-0.025314784),	_Q15(0.00979693),	_Q15(-0.00012082716),
	_Q15(0.010592042),	_Q15(-0.006517696),	_Q15(-0.005608505),	_Q15(0.01717272),
	_Q15(-0.01744748),	_Q15(0.010033983),	_Q15(-0.0066187065),	_Q15(-0.0034851234),
	_Q15(-0.005680424),	_Q15(0.036011614),	_Q15(-0.010143243),	_Q15(0.0004999858),
	_Q15(0.030408254),	_Q15(0.020626135),	_Q15(0.007998543),	_Q15(-0.010215645),
	_Q15(0.011930302),	_Q15(0.007792651),	_Q15(0.003382136),	_Q15(0.0026259436),
	_Q15(-0.012573575),	_Q15(0.0052158367),	_Q15(0.011958399),	_Q15(-0.0025930647),
	_Q15(0.006930285),	_Q15(0.00718796),	_Q15(-0.01610223),	_Q15(-0.0010714481),
	_Q15(0.004673979),	_Q15(0.020833528),	_Q15(-0.0021123483),	_Q15(-0.008909971),
	_Q15(-0.0033708548),	_Q15(0.008682096),	_Q15(0.02405371),	_Q15(0.005241721),
	_Q15(-0.010768355),	_Q15(-0.0048377695),	_Q15(-0.01762961),	_Q15(-0.015775463),
	_Q15(0.0064091873),	_Q15(-0.028333662),	_Q15(0.008102864),	_Q15(0.015892237),
	_Q15(-0.006766735),	_Q15(0.0056622187),	_Q15(-0.0060733994),	_Q15(0.012741741),
	_Q15(0.006329255),	_Q15(-0.0023590697),	_Q15(-0.007706624),	_Q15(0.016009986),
	_Q15(0.005790228),	_Q15(-0.011623214),	_Q15(0.0006599391),	_Q15(0.00019747863),
	_Q15(0.0019101196),	_Q15(-0.028363429),	_Q15(0.0053733387),	_Q15(-0.015293885),
	_Q15(-0.00021694228),	_Q15(0.010737511),	_Q15(-0.0108111035),	_Q15(-0.016276011),
	_Q15(0.0043432475),	_Q15(0.012591512),	_Q15(0.005425233),	_Q15(0.0019974012),
	_Q15(0.01298357),	_Q15(0.00569076),	_Q15(0.011153629),	_Q15(-0.0071137007),
	_Q15(0.00030190177),	_Q15(-0.014639942),	_Q15(0.019069737),	_Q15(0.011547752),
	_Q15(0.0018320713),	_Q15(-0.008483243),	_Q15(0.0014925967),	_Q15(0.02329275),
	_Q15(-0.024089618),	_Q15(-0.0044207796),	_Q15(0.005217962),	_Q15(0.01752995),
	_Q15(-0.006779951),	_Q15(-0.0014829644),	_Q15(0.012923052),	_Q15(0.017290968),
	_Q15(0.009331935),	_Q15(-0.0076527684),	_Q15(-0.019349415),	_Q15(-0.03788079),
	_Q15(-0.0062956074),	_Q15(-0.0042629335),	_Q15(-0.00039641574),	_Q15(-0.006932841),
	_Q15(-0.0055474406),	_Q15(-0.011986963),	_Q15(0.003907844),	_Q15(0.0069711283),
	_Q15(-0.012859504),	_Q15(-0.0022521736),	_Q15(0.0032288053),	_Q15(-0.01928708),
	_Q15(0.0006903946),	_Q15(-0.0060989563),	_Q15(0.006124934),	_Q15(-0.009824045),
	_Q15(-0.008593973),	_Q15(0.007820411),	_Q15(-0.008112912),	_Q15(-0.002858747),
	_Q15(0.007904189),	_Q15(-0.00063201133),	_Q15(-0.0033660447),	_Q15(-9.065938e-06),
	_Q15(-0.0047181128),	_Q15(0.0024579465),	_Q15(-0.0035803868),	_Q15(-0.007371041),
	_Q15(0.005301995),	_Q15(0.001920538),	_Q15(0.0044068675),	_Q15(0.0079332525),
	_Q15(-0.0049396744),	_Q15(-0.0070301965),	_Q15(0.00044193584),	_Q15(-0.011485748),
	_Q15(-0.00026752055),	_Q15(0.005341336),	_Q15(-0.0058277943),	_Q15(-0.00930347),
	_Q15(-0.006665987),	_Q15(-0.0003180072),	_Q15(-0.01039511),	_Q15(-0.010053649),
	_Q15(0.0102534),	_Q15(-0.004355375),	_Q15(-0.010962923),	_Q15(0.009674927),
	_Q15(0.008649478),	_Q15(0.004063489),	_Q15(0.00013358425),	_Q15(-0.0007076278),
	_Q15(0.007505415),	_Q15(-0.0039452715),	_Q15(-0.005041334),	_Q15(0.0066725686),
	_Q15(-0.0042662453),	_Q15(0.0008891351),	_Q15(0.0056012888),	_Q15(-0.008693921),
	_Q15(0.009131812),	_Q15(-0.0016335296),	_Q15(0.009674987),	_Q15(-0.007401336),
	_Q15(-0.0029983893),	_Q15(0.0088749565),	_Q15(-0.0012055242),	_Q15(-0.009772111),
	_Q15(-0.004465489),	_Q15(0.009165386),	_Q15(0.0020687568),	_Q15(-0.0057099555),
	_Q15(0.009533372),	_Q15(-0.0077577755),	_Q15(-0.010273272),	_Q15(-0.008290869),
	_Q15(-0.0040769307),	_Q15(0.0006359383),	_Q15(-0.007547462),	_Q15(-0.0042749047),
	_Q15(-0.006902864),	_Q15(-0.0007109791),	_Q15(-0.01001297),	_Q15(-0.0075959186),
	_Q15(-0.0033193436),	_Q15(-0.0064300955),	_Q15(-0.0015913453),	_Q15(-0.0058761826),
	_Q15(0.0035409834),	_Q15(0.0060724895),	_Q15(-0.0063412804),	_Q15(0.0042363964),
	_Q15(0.001889158),	_Q15(-0.011061672),	_Q15(-0.0035640954),	_Q15(-0.0018045995),
	_Q15(0.0045261867),	_Q15(-0.0060658013),	_Q15(-0.0018616607),	_Q15(0.0016373955),
	_Q15(-0.0015669055),	_Q15(-0.003312299),	_Q15(0.007638483),	_Q15(-0.008719329),
	_Q15(0.0017397768),	_Q15(0.0037305104),	_Q15(-0.0032158848),	_Q15(-0.010507932),
	_Q15(-0.008612546),	_Q15(0.009516617),	_Q15(0.003474947),	_Q15(0.010745281),
	_Q15(-0.00042519066),	_Q15(0.010780999),	_Q15(0.004029272),	_Q15(0.00062416494),
	_Q15(-0.010470867),	_Q15(0.0010677588),	_Q15(-0.008241788),	_Q15(-0.0026145838),
	_Q15(-0.0059527415),	_Q15(-0.003095626),	_Q15(0.00791158),	_Q15(0.005553188),
	_Q15(0.005256744),	_Q15(0.0019626298),	_Q15(-0.0051343264),	_Q15(-0.00770817),
	_Q15(-0.010455515),	_Q15(-0.0011852803),	_Q15(0.009645121),	_Q15(-0.009084464),
	_Q15(-0.0050234543),	_Q15(0.020221774),	_Q15(0.0013688771),	_Q15(0.023139609),
	_Q15(0.013989311),	_Q15(0.0057138028),	_Q15(-0.0025753353),	_Q15(0.019078733),
	_Q15(-0.01597365),	_Q15(-0.0043145055),	_Q15(-8.264949e-05),	_Q15(0.0055406815),
	_Q15(0.009005354),	_Q15(-0.019829692),	_Q15(0.007977332),	_Q15(0.0043302374),
	_Q15(0.0054149125),	_Q15(0.013552298),	_Q15(-0.0053489734),	_Q15(0.010211949),
	_Q15(-0.021509377),	_Q15(-0.009190416),	_Q15(-0.0064495318),	_Q15(-0.0068827607),
	_Q15(-0.00043363328),	_Q15(0.030117655),	_Q15(-0.0017348923),	_Q15(0.0070903935),
	_Q15(0.037807174),	_Q15(-0.002668939),	_Q15(0.02918036),	_Q15(-0.009936003),
	_Q15(0.022037638),	_Q15(0.0056502465),	_Q15(0.006342623),	_Q15(-0.0061249076),
	_Q15(-0.013138258),	_Q15(-0.006430591),	_Q15(0.0007702215),	_Q15(0.01100379),
	_Q15(0.00365757),	_Q15(0.0148304505),	_Q15(-0.009865647),	_Q15(-0.0024577728),
	_Q15(-0.0010917897),	_Q15(0.032866385),	_Q15(0.0040181554),	_Q15(-0.015001664),
	_Q15(0.017022822),	_Q15(0.0043891603),	_Q15(0.02061923),	_Q15(-0.0049249697),
	_Q15(-0.003567741),	_Q15(-0.0016774787),	_Q15(-0.005083305),	_Q15(-0.001428495),
	_Q15(0.024529448),	_Q15(-0.008672605),	_Q15(-0.0071250987),	_Q15(-0.012930505),
	_Q15(0.0041962177),	_Q15(-0.006548198),	_Q15(-0.00057137327),	_Q15(0.008497576),
	_Q15(-0.0036824532),	_Q15(0.0025513142),	_Q15(-0.0017208509),	_Q15(0.030790681),
	_Q15(-0.003645612),	_Q15(-0.02492601),	_Q15(0.027303359),	_Q15(-0.005663511),
	_Q15(0.0015999705),	_Q15(-0.015347756),	_Q15(0.00045523696),	_Q15(0.012993332),
	_Q15(-0.00055455806),	_Q15(-0.009141748),	_Q15(0.007291718),	_Q15(-0.01944456),
	_Q15(0.008024576),	_Q15(0.0063141277),	_Q15(0.013997129),	_Q15(0.006248853),
	_Q15(0.010308203),	_Q15(0.0012797641),	_Q15(0.010258535),	_Q15(0.004930035),
	_Q15(-0.019374358),	_Q15(-0.012439796),	_Q15(0.00067065086),	_Q15(-0.009842823),
	_Q15(0.010577901),	_Q15(-0.02714567),	_Q15(-0.016843393),	_Q15(0.024455907),
	_Q15(-0.007197454),	_Q15(0.0076773525),	_Q15(0.007555548),	_Q15(-0.014816005),
	_Q15(-0.011410317),	_Q15(0.008856732),	_Q15(-0.0036881466),	_Q15(0.004884461),
	_Q15(0.013830212),	_Q15(0.007854468),	_Q15(-0.013998516),	_Q15(-0.014138084),
	_Q15(0.0022013239),	_Q15(-0.010486284),	_Q15(0.030604279),	_Q15(0.007586451),
	_Q15(-0.0013751455),	_Q15(-0.0119338585),	_Q15(0.020916257),	_Q15(0.0074302596),
	_Q15(-0.020995453),	_Q15(-0.0065674484),	_Q15(0.0029758387),	_Q15(-0.006562795),
	_Q15(-0.0052454206),	_Q15(0.007930295),	_Q15(-0.008291169),	_Q15(-0.025531037),
	_Q15(0.0106461905),	_Q15(-0.00010668982),	_Q15(0.005501017),	_Q15(-0.0059189782),
	_Q15(-0.02033899),	_Q15(0.00110655),	_Q15(-0.0018090794),	_Q15(-0.008028521),
	_Q15(-0.009169145),	_Q15(0.03366197),	_Q15(-0.0064850147),	_Q15(-0.018820884),
	_Q15(0.0029460657),	_Q15(0.0071183005),	_Q15(0.0073972736),	_Q15(-0.011233002),
	_Q15(-0.0056627677),	_Q15(-0.0068843192),	_Q15(-0.0053825197),	_Q15(-0.0027232752),
	_Q15(0.0031437373),	_Q15(-0.008618979),	_Q15(0.008546241),	_Q15(0.0063715396),
	_Q15(0.010229465),	_Q15(0.004257584),	_Q15(0.007010674),	_Q15(0.00960188),
	_Q15(0.0017547635),	_Q15(0.0060846307),	_Q15(0.0002784064),	_Q15(0.0073322635),
	_Q15(0.00052457233),	_Q15(0.025139328),	_Q15(-0.011564784),	_Q15(-0.014921017),
	_Q15(-0.025588091),	_Q15(-0.010427896),	_Q15(0.001155785),	_Q15(0.011794658),
	_Q15(0.00054122036),	_Q15(0.008196998),	_Q15(0.014581309),	_Q15(0.0031055897),
	_Q15(0.011240624),	_Q15(0.0031003663),	_Q15(0.016600935),	_Q15(0.0025255983),
	_Q15(0.009383914),	_Q15(-0.0030050762),	_Q15(0.0074066804),	_Q15(0.012168164),
	_Q15(0.01562963),	_Q15(0.017642856),	_Q15(-0.0012258118),	_Q15(-0.05136847),
	_Q15(0.005513483),	_Q15(0.008689282),	_Q15(0.0057792147),	_Q15(0.005623437),
	_Q15(0.005156901),	_Q15(0.000700932),	_Q15(-0.0074281106),	_Q15(-0.0074737654),
	_Q15(-0.0063999686),	_Q15(0.029426938),	_Q15(0.001263892),	_Q15(-0.02487624),
	_Q15(0.0071953423),	_Q15(0.022634596),	_Q15(0.0026530025),	_Q15(0.015424172),
	_Q15(-0.005630277),	_Q15(-0.009190806),	_Q15(-0.002346996),	_Q15(0.015470721),
	_Q15(0.0044115116),	_Q15(-0.009906763),	_Q15(-0.0011702416),	_Q15(0.002760166),
	_Q15(-0.023115126),	_Q15(0.0063956925),	_Q15(0.0075113513),	_Q15(0.010079372),
	_Q15(-0.024291331),	_Q15(0.0033591976),	_Q15(0.0013227907),	_Q15(0.0033261925),
	_Q15(0.015979458),	_Q15(-0.0067426804),	_Q15(0.0047248714),	_Q15(-0.027143655),
	_Q15(0.014685566),	_Q15(-0.018621832),	_Q15(0.0054418137),	_Q15(-0.0019182616),
	_Q15(0.02053163),	_Q15(0.004068383),	_Q15(0.012004727),	_Q15(-0.006000004),
	_Q15(0.008198045),	_Q15(-0.00628359),	_Q15(0.01186155),	_Q15(0.01187774),
	_Q15(0.0058866595),	_Q15(-0.0007949801),	_Q15(0.029058918),	_Q15(0.031021526),
	_Q15(0.008721297),	_Q15(-0.002211228),	_Q15(-0.014098645),	_Q15(0.00060723233),
	_Q15(-0.009041641),	_Q15(-0.007021927),	_Q15(-0.0029455798),	_Q15(-0.0052726646),
	_Q15(0.0067722066),	_Q15(0.020388711),	_Q15(0.0011418271),	_Q15(0.022736192),
	_Q15(-0.007999975),	_Q15(-0.0026071456),	_Q15(-0.009524516),	_Q15(0.013325906),
	_Q15(0.012612384),	_Q15(0.003009559),	_Q15(0.0067448015),	_Q15(-0.0011575687),
	_Q15(0.0021242946),	_Q15(0.0021811358),	_Q15(0.011919487),	_Q15(-0.0017436178),
	_Q15(0.022951612),	_Q15(-0.00606346),	_Q15(0.008363597),	_Q15(0.010872729),
	_Q15(-0.009481931),	_Q15(0.021785885),	_Q15(0.006855119),	_Q15(0.0054953326),
	_Q15(0.011130426),	_Q15(0.005339411),	_Q15(0.017460814),	_Q15(0.010185365),
	_Q15(-0.024158373),	_Q15(-0.011822285),	_Q15(0.00866855),	_Q15(-0.020949801),
	_Q15(0.0031877242),	_Q15(-0.008181198),	_Q15(0.007395559),	_Q15(0.0054104254),
	_Q15(0.021995418),	_Q15(-0.00651174),	_Q15(0.014514601),	_Q15(0.025643626),
	_Q15(0.004499713),	_Q15(0.025373852),	_Q15(-0.0047327387),	_Q15(-0.0053424696),
	_Q15(-0.0016413555),	_Q15(0.021619396),	_Q15(-0.003395361),	_Q15(-0.00037256183),
	_Q15(-0.015118581),	_Q15(0.0058544143),	_Q15(0.010901647),	_Q15(0.025501855),
	_Q15(0.0027223192),	_Q15(-0.0013447544),	_Q15(-0.020449968),	_Q15(0.017463557),
	_Q15(-0.0053762),	_Q15(-0.0035625505),	_Q15(-0.0006119573),	_Q15(0.04184451),
	_Q15(-0.010166597),	_Q15(0.0083467765),	_Q15(-0.0037990285),	_Q15(-0.009086716),
	_Q15(-0.004817704),	_Q15(0.005499521),	_Q15(0.014652489),	_Q15(0.021113057),
	_Q15(-0.007944057),	_Q15(-0.013027513),	_Q15(0.013475701),	_Q15(-0.010443191),
	_Q15(-0.006499036),	_Q15(-0.02167807),	_Q15(0.008473233),	_Q15(0.01412378),
	_Q15(0.004059663),	_Q15(-0.0063416115),	_Q15(0.03554954),	_Q15(-0.010589727),
	_Q15(0.002424801),	_Q15(-0.0012640497),	_Q15(-0.016104596),	_Q15(-0.003053768),
	_Q15(0.004939505),	_Q15(0.008076161),	_Q15(-0.009022931),	_Q15(-0.0008582249),
	_Q15(0.048764423),	_Q15(-0.001331242),	_Q15(-0.01622969),	_Q15(-0.007923007),
	_Q15(-0.021374768),	_Q15(0.0044080387),	_Q15(-0.020748267),	_Q15(0.0095849335),
	_Q15(-0.002707986),	_Q15(0.024922172),	_Q15(-0.014359763),	_Q15(0.023830611),
	_Q15(0.022931999),	_Q15(0.0040493),	_Q15(0.013987326),	_Q15(0.008146513),
	_Q15(-0.0025959404),	_Q15(-0.01355865),	_Q15(-0.01697485),	_Q15(0.0008208997),
	_Q15(0.005742835),	_Q15(4.041007e-05),	_Q15(0.0019420688),	_Q15(-0.021528287),
	_Q15(0.0051925555),	_Q15(0.00041023048),	_Q15(-0.006862578),	_Q15(-0.002984166),
	_Q15(0.006617454),	_Q15(1.0821254e-05),	_Q15(0.005862885),	_Q15(-0.000114969356),
	_Q15(-0.010231379),	_Q15(-0.0102259),	_Q15(0.00091304444),	_Q15(-0.015888099),
	_Q15(-0.006033694),	_Q15(-0.0062529375),	_Q15(-0.0011293545),	_Q15(0.0052917353),
	_Q15(-0.014745917),	_Q15(0.007903071),	_Q15(0.01680275),	_Q15(0.013900065),
	_Q15(-0.015811289),	_Q15(0.021166516),	_Q15(0.0046445974),	_Q15(-0.034260772),
	_Q15(0.0046208496),	_Q15(-2.5212672e-05),	_Q15(0.0059211333),	_Q15(0.0141377235),
	_Q15(-0.006795084),	_Q15(-0.010222785),	_Q15(-0.0027571938),	_Q15(0.0004174416),
	_Q15(0.010823905),	_Q15(0.011149924),	_Q15(0.0077911387),	_Q15(-0.007968245),
	_Q15(0.033241242),	_Q15(-0.0060161524),	_Q15(0.026166467),	_Q15(0.010731229),
	_Q15(0.01923394),	_Q15(0.0056518614),	_Q15(0.003433168),	_Q15(-0.008297005),
	_Q15(0.004226488),	_Q15(0.03847174),	_Q15(0.010457067),	_Q15(-0.015335853),
	_Q15(-0.0067029553),	_Q15(-0.017016694),	_Q15(0.013520347),	_Q15(0.003138523),
	_Q15(-0.0031514224),	_Q15(0.026162302),	_Q15(-0.010143102),	_Q15(0.007951783),
	_Q15(-0.007106367),	_Q15(-0.010135736),	_Q15(0.030522592),	_Q15(-0.0019251724),
	_Q15(-0.008283172),	_Q15(0.0058946647),	_Q15(0.031637732),	_Q15(0.021049958),
	_Q15(0.022152154),	_Q15(0.01664084),	_Q15(-0.0095009655),	_Q15(-0.022393284),
	_Q15(-0.007448099),	_Q15(-0.0052037337),	_Q15(0.0017115345),	_Q15(-0.011109998),
	_Q15(-0.0008948773),	_Q15(0.01068796),	_Q15(-0.010581591),	_Q15(0.00033332538),
	_Q15(-0.010251734),	_Q15(-0.009858419),	_Q15(-0.008111863),	_Q15(-0.015287513),
	_Q15(-0.004465122),	_Q15(0.016225107),	_Q15(-0.0008811167),	_Q15(0.01807955),
	_Q15(0.0054788003),	_Q15(-0.0063969204),	_Q15(-0.012323234),	_Q15(-0.004369903),
	_Q15(0.0040638386),	_Q15(-0.016424993),	_Q15(0.015821103),	_Q15(-0.007034283),
	_Q15(-0.013603519),	_Q15(0.00479261),	_Q15(0.005753232),	_Q15(-0.007398681),
	_Q15(-0.02479981),	_Q15(0.0057059587),	_Q15(0.026749663),	_Q15(-0.008323983),
	_Q15(0.016668096),	_Q15(-0.0038610888),	_Q15(7.6230965e-05),	_Q15(0.0032001378),
	_Q15(-0.0012613678),	_Q15(-0.0005474142),	_Q15(0.0076056966),	_Q15(0.011927898),
	_Q15(-0.0008695341),	_Q15(-0.0049442034),	_Q15(-0.014147673),	_Q15(0.012797978),
	_Q15(0.00631395),	_Q15(0.010635353),	_Q15(0.011638666),	_Q15(0.010038281),
	_Q15(-0.0053700637),	_Q15(0.012671072),	_Q15(0.015063663),	_Q15(0.030860826),
	_Q15(0.01110621),	_Q15(0.00876255),	_Q15(-0.011390515),	_Q15(-0.0005131798),
	_Q15(0.00010142338),	_Q15(-0.002078472),	_Q15(0.008561471),	_Q15(-0.0005771245),
	_Q15(-0.016923947),	_Q15(-0.018632976),	_Q15(-0.008973233),	_Q15(0.00025245218),
	_Q15(-0.003554211),	_Q15(-0.010094955),	_Q15(0.0134485485),	_Q15(0.011140539),
	_Q15(-0.020679016),	_Q15(-0.010321026),	_Q15(0.008747678),	_Q15(0.007317263),
	_Q15(-0.011205015),	_Q15(0.010148214),	_Q15(0.006096873),	_Q15(-0.021940142),
	_Q15(-0.0011876094),	_Q15(-0.0080385115),	_Q15(0.004816073),	_Q15(0.013755369),
	_Q15(-0.009892677),	_Q15(-0.0008772769),	_Q15(0.0005116451),	_Q15(-0.01582413),
	_Q15(0.010224067),	_Q15(-0.010289947),	_Q15(-0.0031141525),	_Q15(-0.014629841),
	_Q15(-0.012626592),	_Q15(0.008472589),	_Q15(-0.019145643),	_Q15(-0.009475477),
	_Q15(0.023178965),	_Q15(0.011393908),	_Q15(-0.007171473),	_Q15(-0.0023903507),
	_Q15(0.013530276),	_Q15(0.023851722),	_Q15(0.0049514766),	_Q15(-0.012906505),
	_Q15(-0.005436769),	_Q15(-0.019256108),	_Q15(0.012674365),	_Q15(0.018759541),
	_Q15(0.009182894),	_Q15(-0.02357819),	_Q15(0.00526647),	_Q15(0.01843267),
	_Q15(-0.023672359),	_Q15(3.7260193e-05),	_Q15(0.03164221),	_Q15(0.01557506),
	_Q15(-0.009243559),	_Q15(0.008214769),	_Q15(0.02057135),	_Q15(0.019184722),
	_Q15(-0.01869607),	_Q15(0.024674553),	_Q15(-0.0064017777),	_Q15(0.014242383),
	_Q15(-0.0035269686),	_Q15(0.023968834),	_Q15(0.011450125),	_Q15(-0.011736425),
	_Q15(-0.008884631),	_Q15(0.012948414),	_Q15(0.005418806),	_Q15(0.012774282),
	_Q15(-0.0020598602),	_Q15(0.010267229),	_Q15(-0.011674576),	_Q15(-0.01379182),
	_Q15(0.007610477),	_Q15(-0.014908701),	_Q15(-0.0065255202),	_Q15(0.00011190822),
	_Q15(0.011198239),	_Q15(0.009623389),	_Q15(0.0019697133),	_Q15(0.005634629),
	_Q15(-0.0090182815),	_Q15(-0.005559057),	_Q15(0.017047726),	_Q15(-0.011490437),
	_Q15(0.00025149164),	_Q15(0.010326985),	_Q15(0.008879164),	_Q15(0.0034325027),
	_Q15(0.02241178),	_Q15(0.009089792),	_Q15(0.010576442),	_Q15(0.010030501),
	_Q15(0.0066218562),	_Q15(0.013135402),	_Q15(0.002873388),	_Q15(0.0011262783),
	_Q15(-0.01511424),	_Q15(-0.011899913),	_Q15(0.00076670403),	_Q15(0.03324863),
	_Q15(0.036112107),	_Q15(-0.0010344591),	_Q15(0.00928767),	_Q15(-0.008531033),
	_Q15(0.01340496),	_Q15(-0.009439938),	_Q15(0.014370291),	_Q15(0.0038576536),
	_Q15(0.009191456),	_Q15(0.025404356),	_Q15(-0.025534557),	_Q15(0.027665107),
	_Q15(-0.005513842),	_Q15(0.016537651),	_Q15(-0.015323414),	_Q15(-0.011199128),
	_Q15(0.00237157),	_Q15(-0.008726229),	_Q15(-0.0009825928),	_Q15(-0.017075384),
	_Q15(-0.005578376),	_Q15(0.003638171),	_Q15(0.008461509),	_Q15(0.025196772),
	_Q15(0.0018912943),	_Q15(0.004555532),	_Q15(-0.013748822),	_Q15(-0.012203415),
	_Q15(-0.0006510861),	_Q15(0.008223683),	_Q15(0.012118342),	_Q15(-0.0032759006),
	_Q15(0.008719574),	_Q15(0.0016024818),	_Q15(0.0026683924),	_Q15(0.010623701),
	_Q15(0.0029462595),	_Q15(-0.011456549),	_Q15(0.004215381),	_Q15(0.003961778),
	_Q15(0.01178056),	_Q15(0.010217923),	_Q15(-0.003997287),	_Q15(0.013076213),
	_Q15(0.004381019),	_Q15(0.010403973),	_Q15(-0.0027888939),	_Q15(-0.0009928482),
	_Q15(0.022837305),	_Q15(-0.005035505),	_Q15(-0.0025270958),	_Q15(0.0037991407),
	_Q15(-0.0007470826),	_Q15(0.002872748),	_Q15(0.01729602),	_Q15(-0.009147676),
	_Q15(-0.0017185066),	_Q15(0.01795038),	_Q15(-0.00058088324),	_Q15(-0.014701892),
	_Q15(-0.0076409206),	_Q15(-0.0039256318),	_Q15(-0.01502357),	_Q15(-0.0027225404),
	_Q15(0.0030740756),	_Q15(0.0059989346),	_Q15(0.015292154),	_Q15(0.006753004),
	_Q15(0.003950223),	_Q15(0.00052887143),	_Q15(0.0045364853),	_Q15(-0.00985564),
	_Q15(0.008516354),	_Q15(0.0076197777),	_Q15(-0.0008924136),	_Q15(0.0019424864),
	_Q15(0.013437869),	_Q15(0.0029605804),	_Q15(0.01706344),	_Q15(-0.024773626),
	_Q15(-0.0042592874),	_Q15(-0.009912167),	_Q15(0.0063899844),	_Q15(0.01020102),
	_Q15(-0.0031316453),	_Q15(0.0039389147),	_Q15(0.011500366),	_Q15(0.0155464625),
	_Q15(-0.0036303173),	_Q15(0.010623155),	_Q15(0.0063197888),	_Q15(0.0044031306),
	_Q15(-0.004311568),	_Q15(0.013023346),	_Q15(0.004840398),	_Q15(0.011639495),
	_Q15(0.0076719588),	_Q15(0.006910115),	_Q15(-0.015335399),	_Q15(-0.006017042),
	_Q15(0.0019057364),	_Q15(-0.00328596),	_Q15(0.020311818),	_Q15(-0.0022487827),
	_Q15(0.003932893),	_Q15(-0.0025643508),	_Q15(0.010646522),	_Q15(0.0076182466),
	_Q15(-0.005771632),	_Q15(0.004434615),	_Q15(0.009737944),	_Q15(-0.003643457),
	_Q15(0.008124343),	_Q15(0.0088605955),	_Q15(0.01018043),	_Q15(0.002116554),
	_Q15(0.015231454),	_Q15(-0.015666753),	_Q15(0.02433797),	_Q15(-0.0047575105),
	_Q15(-0.018071437),	_Q15(0.014633404),	_Q15(0.009252275),	_Q15(0.0018582237),
	_Q15(-0.002744448),	_Q15(-0.005049702),	_Q15(0.012819833),	_Q15(-0.001058821),
	_Q15(-0.006861263),	_Q15(-0.004552584),	_Q15(0.008178509),	_Q15(0.01902726),
	_Q15(-0.00032864534),	_Q15(-0.0066542206),	_Q15(0.007399359),	_Q15(0.0067544896),
	_Q15(-0.0060107377),	_Q15(-0.0006569858),	_Q15(0.011114435),	_Q15(-0.0024890136),
	_Q15(-0.011347776),	_Q15(0.016315883),	_Q15(-0.006338293),	_Q15(-0.0011704857),
	_Q15(0.014467654),	_Q15(0.0076874546),	_Q15(0.00015377751),	_Q15(-0.0034553257),
	_Q15(0.009668162),	_Q15(0.009777668),	_Q15(-0.007443972),	_Q15(-0.004720082),
	_Q15(0.01572555),	_Q15(-0.012949916),	_Q15(0.012618868),	_Q15(0.024526663),
	_Q15(0.0037516623),	_Q15(0.00631162),	_Q15(0.008059831),	_Q15(0.0123547325),
	_Q15(0.010443672),	_Q15(0.027186755),	_Q15(0.0075760963),	_Q15(-0.011133762),
	_Q15(-0.008482653),	_Q15(-0.02026905),	_Q15(-0.015268067),	_Q15(0.011293744),
	_Q15(-0.03356068),	_Q15(0.004404534),	_Q15(-0.018416375),	_Q15(-0.0017728176),
	_Q15(-0.009867473),	_Q15(-0.008790562),	_Q15(0.013249228),	_Q15(0.0078061568),
	_Q15(-0.023702053),	_Q15(-0.013727115),	_Q15(-0.011890272),	_Q15(-0.002833867),
	_Q15(0.005442487),	_Q15(-0.0024406256),	_Q15(0.020131644),	_Q15(-0.014057557),
	_Q15(-0.008637346),	_Q15(4.219438e-05),	_Q15(0.0041248286),	_Q15(-0.0018349133),
	_Q15(-0.00753729),	_Q15(-0.00067189004),	_Q15(-0.005881578),	_Q15(-0.0077138427),
	_Q15(0.0017210911),	_Q15(-0.0061120195),	_Q15(-0.0025266558),	_Q15(-0.0067983298),
	_Q15(-0.012639645),	_Q15(-0.0054632523),	_Q15(0.0100103365),	_Q15(0.012867785),
	_Q15(-0.00033816815),	_Q15(-0.0034595847),	_Q15(0.008492595),	_Q15(-0.0017247669),
	_Q15(-0.0081075225),	_Q15(0.013222999),	_Q15(0.02356233),	_Q15(0.011996652),
	_Q15(-0.005840193),	_Q15(-0.0037036813),	_Q15(0.023978652),	_Q15(0.0023401994),
	_Q15(0.0050716987),	_Q15(0.001882608),	_Q15(-0.010958446),	_Q15(-0.009485896),
	_Q15(0.001807249),	_Q15(0.0023568484),	_Q15(-0.017216753),	_Q15(0.014648228),
	_Q15(-7.976726e-05),	_Q15(0.010534241),	_Q15(0.0041893586),	_Q15(0.010438949),
	_Q15(-0.0034263928),	_Q15(-0.002797136),	_Q15(0.0054547605),	_Q15(0.007460218),
	_Q15(0.016531274),	_Q15(-0.0031229656),	_Q15(-0.007516547),	_Q15(0.013045255),
	_Q15(0.019696793),	_Q15(-0.010981535),	_Q15(0.0073636253),	_Q15(-0.0014268804),
	_Q15(-0.009190263),	_Q15(-0.02348834),	_Q15(0.0071247807),	_Q15(-0.007636235),
	_Q15(-0.00872198),	_Q15(-0.009846122),	_Q15(0.019555759),	_Q15(-0.0042098267),
	_Q15(-0.004038252),	_Q15(-0.0037475815),	_Q15(0.014149121),	_Q15(-0.015591112),
	_Q15(-0.01126149),	_Q15(-0.020498719),	_Q15(-0.009532531),	_Q15(-0.012055562),
	_Q15(0.0048457948),	_Q15(0.0025249792),	_Q15(0.018116122),	_Q15(-0.00013237202),
	_Q15(0.018585872),	_Q15(0.004155262),	_Q15(-0.0019699319),	_Q15(-0.003699198),
	_Q15(0.022195218),	_Q15(0.011164247),	_Q15(0.0027603444),	_Q15(0.021211823),
	_Q15(-0.0024640295),	_Q15(0.0051346147),	_Q15(-0.018497787),	_Q15(-3.905777e-05),
	_Q15(0.020374972),	_Q15(-0.00024921892),	_Q15(-0.023692975),	_Q15(0.016282089),
	_Q15(0.011724442),	_Q15(-0.006281758),	_Q15(-0.0041678734),	_Q15(0.023777874),
	_Q15(0.020214746),	_Q15(0.0075749285),	_Q15(-0.009392432),	_Q15(-0.0050838403),
	_Q15(0.0029071942),	_Q15(-0.023360854),	_Q15(0.00527327),	_Q15(0.009095544),
	_Q15(0.005893488),	_Q15(-0.007990275),	_Q15(-0.010750357),	_Q15(-0.0017654615),
	_Q15(-0.033325505),	_Q15(-0.009776343),	_Q15(-0.008480492),	_Q15(-0.0044039744),
	_Q15(0.003440643),	_Q15(-0.0028956626),	_Q15(-0.007337724),	_Q15(0.01069438),
	_Q15(-0.028672192),	_Q15(-0.022890745),	_Q15(-0.0028504308),	_Q15(0.022685664),
	_Q15(0.01891244),	_Q15(0.02300709),	_Q15(0.013914494),	_Q15(-0.03337708),
	_Q15(-0.005811649),	_Q15(0.0074881236),	_Q15(-0.0047525615),	_Q15(-0.016471533),
	_Q15(0.009879826),	_Q15(0.0020550324),	_Q15(-0.020184021),	_Q15(0.009507171),
	_Q15(-0.003346811),	_Q15(0.0007501254),	_Q15(-0.006215677),	_Q15(-0.0058395257),
	_Q15(0.011768183),	_Q15(0.002691127),	_Q15(-0.00029459366),	_Q15(-0.010964253),
	_Q15(-0.0073784464),	_Q15(-0.017520461),	_Q15(0.011056926),	_Q15(-0.018045021),
	_Q15(-0.004140176),	_Q15(-0.004628729),	_Q15(-0.002630508),	_Q15(0.010579675),
	_Q15(-0.0029454825),	_Q15(-0.024568964),	_Q15(0.029737065),	_Q15(-0.0005809974),
	_Q15(-0.009149852),	_Q15(0.015616988),	_Q15(0.008931684),	_Q15(0.005898357),
	_Q15(-0.0070945253),	_Q15(0.0011331075),	_Q15(0.024077643),	_Q15(-0.009147708),
	_Q15(0.0061895596),	_Q15(-0.0084814485),	_Q15(-0.005646715),	_Q15(0.0024731508),
	_Q15(-0.008638242),	_Q15(-0.038339123),	_Q15(0.0061795055),	_Q15(0.008553224),
	_Q15(0.019969344),	_Q15(-0.022412155),	_Q15(-0.019017905),	_Q15(0.0024213952),
	_Q15(-0.021960437),	_Q15(0.001762668),	_Q15(-0.011313174),	_Q15(-0.0047231354),
	_Q15(0.017297097),	_Q15(0.006008694),	_Q15(0.002418301),	_Q15(-0.014049023),
	_Q15(-0.012806447),	_Q15(-0.0050910627),	_Q15(0.008345073),	_Q15(-0.011211708),
	_Q15(-0.007021119),	_Q15(-0.005960211),	_Q15(-0.01778297),	_Q15(0.017796792),
	_Q15(-0.0050657517),	_Q15(-0.025385475),	_Q15(0.0125713665),	_Q15(-0.019189956),
	_Q15(0.0021890232),	_Q15(-0.0027465427),	_Q15(0.022954494),	_Q15(0.01495769),
	_Q15(0.009432302),	_Q15(0.0014988785),	_Q15(-0.003916233),	_Q15(0.0019633663),
	_Q15(-0.0037507864),	_Q15(0.005373333),	_Q15(-0.00094455405),	_Q15(0.024903867),
	_Q15(0.020854127),	_Q15(-0.002321505),	_Q15(-0.005768067),	_Q15(0.0022641316),
	_Q15(-0.014287249),	_Q15(-0.0041141617),	_Q15(0.0011107752),	_Q15(0.0067651854),
	_Q15(0.015332362),	_Q15(-0.01459615),	_Q15(-0.0010448657),	_Q15(-0.0052543026),
	_Q15(-0.007495445),	_Q15(-0.0015124253),	_Q15(-0.003993677),	_Q15(0.0033658608),
	_Q15(-0.007036809),	_Q15(0.014319873),	_Q15(-0.009442351),	_Q15(-0.013409627),
	_Q15(0.010933776),	_Q15(0.017874293),	_Q15(-0.009095726),	_Q15(0.0030918776),
	_Q15(0.03591436),	_Q15(0.014024033),	_Q15(0.012012796),	_Q15(0.004683949),
	_Q15(0.005266252),	_Q15(0.007848959),	_Q15(0.012377726),	_Q15(0.006454992),
	_Q15(-0.009974259),	_Q15(0.0077928226),	_Q15(0.015647862),	_Q15(0.0060415966),
	_Q15(0.010502887),	_Q15(0.00648183),	_Q15(-0.0077948663),	_Q15(-0.004439248),
	_Q15(-0.005338532),	_Q15(0.024990616),	_Q15(0.009221287),	_Q15(-0.01688512),
	_Q15(-0.004635212),	_Q15(0.0061585642),	_Q15(-0.009978459),	_Q15(-0.020326188),
	_Q15(0.0014426218),	_Q15(0.007100502),	_Q15(0.00470082),	_Q15(-0.005898342),
	_Q15(0.014746105),	_Q15(-0.023566332),	_Q15(-0.0082921395),	_Q15(-0.006789312),
	_Q15(-0.004615441),	_Q15(-0.0036249058),	_Q15(-0.009296965),	_Q15(0.022325825),
	_Q15(0.006377152),	_Q15(-0.007921225),	_Q15(-0.0032751136),	_Q15(0.026089028),
	_Q15(0.009793664),	_Q15(-0.022863345),	_Q15(-0.0028260828),	_Q15(0.0026299863),
	_Q15(0.0016292589),	_Q15(-0.005027248),	_Q15(-0.009759993),	_Q15(-0.00096396246),
	_Q15(-0.010462718),	_Q15(0.0026966014),	_Q15(-0.028339079),	_Q15(-0.0066107726),
	_Q15(0.0006019891),	_Q15(0.016316814),	_Q15(0.0044653458),	_Q15(0.009990229),
	_Q15(0.025491627),	_Q15(0.0017496869),	_Q15(0.0046881097),	_Q15(-0.005386633),
	_Q15(-0.030833019),	_Q15(-0.0043108966),	_Q15(0.012335147),	_Q15(0.006572617),
	_Q15(0.02669456),	_Q15(-0.023423752),	_Q15(-0.020727264),	_Q15(0.020963978),
	_Q15(-0.0133836875),	_Q15(0.0026419372),	_Q15(0.011038806),	_Q15(-0.010742771),
	_Q15(-0.030780252),	_Q15(0.0029189773),	_Q15(-0.017044747),	_Q15(0.0033618927),
	_Q15(0.015220903),	_Q15(0.0044881427),	_Q15(-0.003286383),	_Q15(-0.010595732),
	_Q15(-0.009770577),	_Q15(-0.0059786527),	_Q15(0.015638987),	_Q15(-0.0043233363),
	_Q15(0.00032218348),	_Q15(0.004640313),	_Q15(0.017697122),	_Q15(0.00059260003),
	_Q15(-0.021004556),	_Q15(0.008946922),	_Q15(-0.0021103835),	_Q15(0.0018156915),
	_Q15(-0.0062861266),	_Q15(0.0019910026),	_Q15(0.0034586869),	_Q15(0.03153684),
	_Q15(0.010105241),	_Q15(0.00070438755),	_Q15(-0.003637642),	_Q15(0.019929074),
	_Q15(-0.004505544),	_Q15(0.007607554),	_Q15(0.018638091),	_Q15(-0.004766297),
	_Q15(0.007814167),	_Q15(0.019363739),	_Q15(-0.010528954),	_Q15(-0.01503679),
	_Q15(0.009132149),	_Q15(0.010975078),	_Q15(-0.0028395255),	_Q15(0.011963199),
	_Q15(-0.0077513964),	_Q15(-0.002506477),	_Q15(0.00938825),	_Q15(-0.013853841),
	_Q15(-0.009184882),	_Q15(0.01705491),	_Q15(0.006029917),	_Q15(-0.008453153),
	_Q15(-0.023113193),	_Q15(-0.011296532),	_Q15(0.00275694),	_Q15(0.00017066322),
	_Q15(0.01758331),	_Q15(0.003712463),	_Q15(-0.0058465246),	_Q15(-0.0007069799),
	_Q15(0.026101828),	_Q15(0.01943635),	_Q15(0.003221149),	_Q15(0.0062163323),
	_Q15(-0.014263642),	_Q15(0.010172787),	_Q15(0.018157523),	_Q15(-0.0019757028),
	_Q15(0.008453752),	_Q15(0.017554423),	_Q15(0.0021556779),	_Q15(-0.0030760355),
	_Q15(-0.009442713),	_Q15(-0.0057770135),	_Q15(0.032683156),	_Q15(0.025368545),
	_Q15(-0.001603949),	_Q15(-0.008200804),	_Q15(0.015895206),	_Q15(0.014028584),
	_Q15(0.011894757),	_Q15(0.020032477),	_Q15(0.0056603537),	_Q15(0.0034424714),
	_Q15(0.0001968127),	_Q15(0.021436585),	_Q15(0.014527591),	_Q15(-0.008038427),
	_Q15(-0.006403647),	_Q15(0.008024415),	_Q15(0.007913492),	_Q15(0.032561287),
	_Q15(-0.007584407),	_Q15(0.0026021758),	_Q15(0.019215038),	_Q15(-0.021063872),
	_Q15(0.0065543745),	_Q15(-0.005525362),	_Q15(0.0040525454),	_Q15(0.025771327),
	_Q15(-7.5920485e-05),	_Q15(0.010702091),	_Q15(0.013225839),	_Q15(0.011318936),
	_Q15(-0.0016717458),	_Q15(-0.01115795),	_Q15(0.00776102),	_Q15(-0.005422736),
	_Q15(-0.0058207074),	_Q15(0.0063269637),	_Q15(-0.007372807),	_Q15(-0.0046585063),
	_Q15(0.018621735),	_Q15(0.013621641),	_Q15(0.015326273),	_Q15(-0.014018698),
	_Q15(0.0008538977),	_Q15(0.010174127),	_Q15(-0.014343757),	_Q15(-0.006776234),
	_Q15(-0.00052669283),	_Q15(-0.003875948),	_Q15(-0.009853569),	_Q15(0.037223347),
	_Q15(0.032114428),	_Q15(-0.0086419955),	_Q15(0.021493444),	_Q15(-0.0069988677),
	_Q15(0.023652578),	_Q15(0.00819827),	_Q15(-0.008651398),	_Q15(-0.004137388),
	_Q15(-0.003914831),	_Q15(0.00580868),	_Q15(0.01560481),	_Q15(0.022612238),
	_Q15(0.008359746),	_Q15(-0.00114594),	_Q15(-0.01808545),	_Q15(-0.0038604727),
	_Q15(0.002016159),	_Q15(-0.0021693853),	_Q15(-0.0071497634),	_Q15(-0.022171484),
	_Q15(-0.011128207),	_Q15(-0.020576911),	_Q15(0.003243017),	_Q15(-0.032346155),
	_Q15(-0.010733642),	_Q15(0.0061541977),	_Q15(-0.008327133),	_Q15(-0.005608656),
	_Q15(0.027846748),	_Q15(0.0035706367),	_Q15(0.0028817083),	_Q15(0.012121695),
	_Q15(0.0009555691),	_Q15(0.0052901413),	_Q15(-0.007448026),	_Q15(0.0039222776),
	_Q15(0.026877508),	_Q15(-0.0034911467),	_Q15(0.006322703),	_Q15(0.013774109),
	_Q15(-0.0013251607),	_Q15(0.0046036122),	_Q15(-0.0063831215),	_Q15(0.0027087242),
	_Q15(-0.00095423486),	_Q15(-0.016726581),	_Q15(0.013174234),	_Q15(0.006178168),
	_Q15(-0.031861976),	_Q15(-0.00567231),	_Q15(0.004288628),	_Q15(0.0129339155),
	_Q15(0.00252574),	_Q15(0.008457873),	_Q15(0.0016252535),	_Q15(-0.00034578875),
	_Q15(0.004932004),	_Q15(-0.011150709),	_Q15(6.453403e-05),	_Q15(0.018058041),
	_Q15(-0.0021916127),	_Q15(0.010232528),	_Q15(0.0031375585),	_Q15(0.0054399613),
	_Q15(0.0020545635),	_Q15(0.005682134),	_Q15(-0.009158811),	_Q15(-0.0036449886),
	_Q15(-0.017648684),	_Q15(-0.014284711),	_Q15(0.005851379),	_Q15(0.026668122),
	_Q15(-0.0007384826),	_Q15(-0.0015794341),	_Q15(0.0017673989),	_Q15(0.013664541),
	_Q15(-0.0031635645),	_Q15(0.0015478682),	_Q15(0.007922032),	_Q15(0.03435267),
	_Q15(-0.0032184033),	_Q15(-0.012379744),	_Q15(0.014364488),	_Q15(-0.024962846),
	_Q15(-0.009806656),	_Q15(-0.0025501691),	_Q15(-0.009513047),	_Q15(0.009327666),
	_Q15(-0.0055372054),	_Q15(0.022157207),	_Q15(-0.006419917),	_Q15(-0.0066963257),
	_Q15(0.010428923),	_Q15(-0.0016632251),	_Q15(-0.010297254),	_Q15(0.03190057),
	_Q15(0.0006613784),	_Q15(-0.0028572327),	_Q15(0.017740967),	_Q15(0.0010934817),
	_Q15(-0.0026391067),	_Q15(-0.0028454135),	_Q15(-0.005534325),	_Q15(0.005256262),
	_Q15(-0.004745164),	_Q15(-0.003791126),	_Q15(-0.0030604026),	_Q15(0.011344606),
	_Q15(0.034794424),	_Q15(0.005858729),	_Q15(-0.010170084),	_Q15(-0.003485571),
	_Q15(-0.010805691),	_Q15(0.0050400463),	_Q15(-0.001420347),	_Q15(0.011469418),
	_Q15(0.016046226),	_Q15(0.018093083),	_Q15(0.0079601975),	_Q15(0.028084729),
	_Q15(0.011762005),	_Q15(0.011034685),	_Q15(-0.0077261985),	_Q15(-0.013374634),
	_Q15(-0.015024531),	_Q15(-0.00959772),	_Q15(0.0034415454),	_Q15(0.022157652),
	_Q15(0.0071895896),	_Q15(-0.018950826),	_Q15(0.022746032),	_Q15(0.006123115),
	_Q15(-0.009220888),	_Q15(-0.0011800366),	_Q15(0.0038571744),	_Q15(0.011367205),
	_Q15(0.004253031),	_Q15(0.006759297),	_Q15(-0.012501091),	_Q15(0.009023645),
	_Q15(0.010760652),	_Q15(0.0153595945),	_Q15(-0.0028953496),	_Q15(0.036608793),
	_Q15(0.0064443606),	_Q15(-0.0040274565),	_Q15(-0.017940607),	_Q15(0.008920315),
	_Q15(-0.011855535),	_Q15(0.0019025421),	_Q15(-0.04084497),	_Q15(-0.0126342885),
	_Q15(0.00082487776),	_Q15(0.020542959),	_Q15(0.003653489),	_Q15(0.008070194),
	_Q15(0.0078697195),	_Q15(-0.0063041174),	_Q15(0.0077601317),	_Q15(0.012248607),
	_Q15(-0.0055273594),	_Q15(-0.014763644),	_Q15(-0.003892287),	_Q15(-0.00030980073),
	_Q15(0.0057103313),	_Q15(0.01359627),	_Q15(0.022608206),	_Q15(-0.006184096),
	_Q15(-0.02216948),	_Q15(0.0061669378),	_Q15(0.03334828),	_Q15(-0.016000286),
	_Q15(0.016601603),	_Q15(0.00984263),	_Q15(0.010635243),	_Q15(0.007750867),
	_Q15(0.02396374),	_Q15(7.8046396e-05),	_Q15(-0.003844876),	_Q15(0.023904491),
	_Q15(0.0042415163),	_Q15(0.023675142),	_Q15(0.009124602),	_Q15(0.0050446317),
	_Q15(0.006166606),	_Q15(0.02875986),	_Q15(-0.01106834),	_Q15(-0.025775645),
	_Q15(-0.010188387),	_Q15(-0.0033898773),	_Q15(0.009246317),	_Q15(0.010248368),
	_Q15(0.008800644),	_Q15(-0.010046579),	_Q15(0.015815197),	_Q15(0.0031130442),
	_Q15(-0.00846422),	_Q15(0.003118737),	_Q15(-0.020385336),	_Q15(0.0147022),
	_Q15(-0.004867669),	_Q15(0.0015778419),	_Q15(-0.0066099754),	_Q15(-0.005170051),
	_Q15(0.0044675637),	_Q15(0.0063552307),	_Q15(-0.0008762975),	_Q15(0.012524532),
	_Q15(-0.007891679),	_Q15(-0.030424187),	_Q15(0.015439665),	_Q15(-0.0013161236),
	_Q15(-0.00037906336),	_Q15(-0.010378192),	_Q15(-0.0063570244),	_Q15(0.028187605),
	_Q15(0.000714289),	_Q15(0.00316406),	_Q15(0.029017437),	_Q15(-0.0034800516),
	_Q15(0.0027786558),	_Q15(0.01987492),	_Q15(-0.00083892734),	_Q15(0.0060884957),
	_Q15(0.00907208),	_Q15(-0.019760713),	_Q15(0.008433882),	_Q15(0.0033241229),
	_Q15(-0.01586054),	_Q15(0.00490661),	_Q15(-0.010016843),	_Q15(-0.010161396),
	_Q15(-0.006142213),	_Q15(-0.008798497),	_Q15(-0.020021783),	_Q15(-7.193518e-05),
	_Q15(-0.009196312),	_Q15(0.024949733),	_Q15(-0.017792301),	_Q15(0.010453958),
	_Q15(-0.0124541735),	_Q15(0.013045658),	_Q15(0.0057409336),	_Q15(0.013398225),
	_Q15(0.0051441193),	_Q15(0.019947002),	_Q15(-0.006520914),	_Q15(-0.0050169374),
	_Q15(0.008784665),	_Q15(0.009332878),	_Q15(0.020126421),	_Q15(-0.0050895778),
	_Q15(0.005995991),	_Q15(0.01358473),	_Q15(0.0005438846),	_Q15(-0.0040397784),
	_Q15(-0.018301506),	_Q15(0.0029396208),	_Q15(-0.011282406),	_Q15(0.011249918),
	_Q15(0.01735652),	_Q15(0.0078041423),	_Q15(-0.005852238),	_Q15(0.012806435),
	_Q15(0.00045085835),	_Q15(0.005816065),	_Q15(0.012057989),	_Q15(-0.016583204),
	_Q15(0.020796059),	_Q15(-0.0037830002),	_Q15(-0.0050422456),	_Q15(0.015651321),
	_Q15(-0.01557515),	_Q15(-0.00082981173),	_Q15(-0.004777555),	_Q15(0.009571265),
	_Q15(0.005334741),	_Q15(0.011866631),	_Q15(0.004568802),	_Q15(-0.0032946807),
	_Q15(0.0065401006),	_Q15(-0.014890921),	_Q15(-0.0020108302),	_Q15(0.007421561),
	_Q15(-0.0014306651),	_Q15(0.011168598),	_Q15(-0.015138342),	_Q15(0.0039031557),
	_Q15(0.015950523),	_Q15(0.004061251),	_Q15(-0.006262646),	_Q15(0.015384807),
	_Q15(-0.012648622),	_Q15(-0.011221531),	_Q15(-0.0052624233),	_Q15(-0.006093796),
	_Q15(0.012562716),	_Q15(-0.0028253193),	_Q15(-0.00045741053),	_Q15(-0.0014162714),
	_Q15(0.028187819),	_Q15(0.0046973764),	_Q15(0.002152111),	_Q15(-0.005540541),
	_Q15(-0.0040377993),	_Q15(-0.019260861),	_Q15(-0.0016260241),	_Q15(0.007128235),
	_Q15(0.0030109358),	_Q15(0.015747605),	_Q15(-0.034022987),	_Q15(0.00058151875),
	_Q15(-0.00047991698),	_Q15(-0.004262695),	_Q15(-0.004623383),	_Q15(-0.009795051),
	_Q15(0.0061673084),	_Q15(0.008912071),	_Q15(-0.0023097217),	_Q15(-0.026250444),
	_Q15(0.0012487735),	_Q15(-0.010984767),	_Q15(0.009514126),	_Q15(0.012966364),
	_Q15(-0.0030216814),	_Q15(-0.0055226837),	_Q15(0.0072432267),	_Q15(-0.00725357),
	_Q15(0.008766692),	_Q15(0.0067158444),	_Q15(-0.008264211),	_Q15(0.0016687828),
	_Q15(0.0057495697),	_Q15(0.009011676),	_Q15(0.002876647),	_Q15(-0.019098282),
	_Q15(-0.0056727766),	_Q15(-0.00059237395),	_Q15(-0.022620363),	_Q15(0.011222653),
	_Q15(0.0060441988),	_Q15(0.0016601238),	_Q15(-0.0043153274),	_Q15(-0.007209207),
	_Q15(0.011957808),	_Q15(-0.015548393),	_Q15(-0.005264024),	_Q15(0.0042190985),
	_Q15(-0.011542179),	_Q15(-0.015109388),	_Q15(0.005967209),	_Q15(0.01386946),
	_Q15(-0.0067005544),	_Q15(0.01885255),	_Q15(0.016707936),	_Q15(0.007136061),
	_Q15(-0.0027485415),	_Q15(-0.0030056648),	_Q15(0.009630596),	_Q15(0.0056618964),
	_Q15(0.001501985),	_Q15(-0.0052636303),	_Q15(-0.022062223),	_Q15(-0.0014223983),
	_Q15(-0.0076085255),	_Q15(-0.010480513),	_Q15(0.014801409),	_Q15(0.014555181),
	_Q15(0.010479393),	_Q15(-0.0032741355),	_Q15(-0.029358508),	_Q15(-0.007854073),
	_Q15(0.00017598807),	_Q15(-0.003398453),	_Q15(0.01034868),	_Q15(-0.0052086874),
	_Q15(0.012396845),	_Q15(0.00456755),	_Q15(-0.008712453),	_Q15(0.019954622),
	_Q15(0.0062434427),	_Q15(0.02478542),	_Q15(0.0063304533),	_Q15(0.04600205),
	_Q15(0.0052310447),	_Q15(0.0076358547),	_Q15(0.0027347123),	_Q15(-0.00149321),
	_Q15(-0.021477545),	_Q15(-0.0022478923),	_Q15(-0.0149147),	_Q15(-0.001478115),
	_Q15(-0.017058104),	_Q15(0.029003901),	_Q15(-0.0097706085),	_Q15(-0.011113751),
	_Q15(0.009955669),	_Q15(-0.009832034),	_Q15(-0.010205005),	_Q15(0.014189709),
	_Q15(-0.01795969),	_Q15(-0.008165979),	_Q15(0.0005872842),	_Q15(-0.003305654),
	_Q15(0.0019140774),	_Q15(0.038171187),	_Q15(0.0059659886),	_Q15(-0.014583794),
	_Q15(0.020449458),	_Q15(0.00967906),	_Q15(0.03198939),	_Q15(-0.016173482),
	_Q15(0.012669906),	_Q15(0.0038656075),	_Q15(0.0004277245),	_Q15(-0.008929029),
	_Q15(0.028165376),	_Q15(0.0014532041),	_Q15(0.0091348),	_Q15(0.017277796),
	_Q15(0.012413334),	_Q15(0.03106754),	_Q15(-0.003970884),	_Q15(-0.008119342),
	_Q15(0.0053445804),	_Q15(0.042244773),	_Q15(-0.012132763),	_Q15(-0.020574447),
	_Q15(-0.0019004052),	_Q15(0.0074050147),	_Q15(0.007742187),	_Q15(0.009445064),
	_Q15(0.0012927392),	_Q15(0.006260723),	_Q15(0.019753741),	_Q15(0.015412457),
	_Q15(0.018966997),	_Q15(0.006230979),	_Q15(-0.020847838),	_Q15(-0.012205876),
	_Q15(-0.0041412804),	_Q15(0.009546059),	_Q15(-0.017757514),	_Q15(0.0129879005),
	_Q15(0.0032635576),	_Q15(-0.006581891),	_Q15(-0.012601305),	_Q15(0.022839695),
	_Q15(0.0004989776),	_Q15(-0.02454159),	_Q15(0.02472001),	_Q15(-0.0031474738),
	_Q15(-0.003125666),	_Q15(0.011802328),	_Q15(-0.0065938076),	_Q15(0.01975551),
	_Q15(0.004545034),	_Q15(-0.006455274),	_Q15(0.009964557),	_Q15(0.0026213587),
	_Q15(-0.0056964224),	_Q15(0.012021024),	_Q15(0.006782245),	_Q15(0.0058318917),
	_Q15(0.016572684),	_Q15(-0.0040865424),	_Q15(-0.009707443),	_Q15(-0.006631651),
	_Q15(-0.02857511),	_Q15(0.005278676),	_Q15(0.016248582),	_Q15(-0.0141187925),
	_Q15(0.0065467716),	_Q15(-0.0061497632),	_Q15(-0.022473931),	_Q15(0.017149141),
	_Q15(-0.00011590629),	_Q15(0.020208577),	_Q15(0.0058384673),	_Q15(0.012047605),
	_Q15(-0.00047750244),	_Q15(0.0076344544),	_Q15(-0.008775502),	_Q15(0.025993511),
	_Q15(0.012223494),	_Q15(0.016526664),	_Q15(-0.005931428),	_Q15(-0.0078746695),
	_Q15(0.0012544397),	_Q15(0.0030350133),	_Q15(0.042948376),	_Q15(0.015320232),
	_Q15(0.0088858325),	_Q15(0.0002932907),	_Q15(0.018596224),	_Q15(-0.0018832302),
	_Q15(-0.0100802155),	_Q15(-0.008906121),	_Q15(-0.010618567),	_Q15(0.013226263),
	_Q15(-0.03031431),	_Q15(0.0027924948),	_Q15(0.0068757185),	_Q15(0.0010327066),
	_Q15(0.008666217),	_Q15(-0.008834937),	_Q15(0.009228635),	_Q15(-0.008203354),
	_Q15(-0.026456514),	_Q15(-0.00019916706),	_Q15(-0.0025800108),	_Q15(0.010187543),
	_Q15(0.0056628883),	_Q15(0.0027044695),	_Q15(-0.010276814),	_Q15(-0.013660762),
	_Q15(0.007722279),	_Q15(0.0016380276),	_Q15(-0.0013111079),	_Q15(0.010654131),
	_Q15(-0.013313675),	_Q15(0.009209836),	_Q15(-0.009283261),	_Q15(-0.025528114),
	_Q15(-0.0013119088),	_Q15(0.0023388227),	_Q15(-0.011654027),	_Q15(-0.0017689753),
	_Q15(0.004838094),	_Q15(0.025121856),	_Q15(-0.01243457),	_Q15(0.0050370935),
	_Q15(0.009442725),	_Q15(-0.001927863),	_Q15(0.0041658557),	_Q15(-0.004796509),
	_Q15(-0.0041050287),	_Q15(0.008616902),	_Q15(-0.01355894),	_Q15(-0.008679173),
	_Q15(0.0043382873),	_Q15(-0.026457867),	_Q15(-0.0053177085),	_Q15(0.011200923),
	_Q15(-0.009401738),	_Q15(0.0020260382),	_Q15(-0.006617489),	_Q15(-0.018369792),
	_Q15(0.008803966),	_Q15(-0.010622863),	_Q15(0.007609469),	_Q15(-0.0084847305),
	_Q15(0.0026289758),	_Q15(0.010670288),	_Q15(0.022520566),	_Q15(-0.001167318),
	_Q15(0.0040819463),	_Q15(0.0034090572),	_Q15(0.0029381409),	_Q15(-0.037518196),
	_Q15(0.0054146997),	_Q15(0.0066511068),	_Q15(0.009651372),	_Q15(-0.00010161543),
	_Q15(-0.00973789),	_Q15(0.00709623),	_Q15(-0.008728482),	_Q15(0.001156128),
	_Q15(0.0043595796),	_Q15(-0.02344866),	_Q15(-0.016312348),	_Q15(-0.009392321),
	_Q15(0.0010869607),	_Q15(-0.014531494),	_Q15(0.01008647),	_Q15(0.009837761),
	_Q15(0.0013034429),	_Q15(-0.003770858),	_Q15(-0.01858055),	_Q15(-0.010973738),
	_Q15(-0.0061704456),	_Q15(0.0011668222),	_Q15(0.017697714),	_Q15(0.0017813557),
	_Q15(-0.013343208),	_Q15(-0.010387061),	_Q15(-0.00028769867),	_Q15(-0.008490317),
	_Q15(-0.03002318),	_Q15(-0.011828012),	_Q15(0.013533301),	_Q15(-0.0067379302),
	_Q15(0.028936531),	_Q15(-0.012060473),	_Q15(-0.0044994927),	_Q15(-0.009704642),
	_Q15(-0.024935244),	_Q15(-0.023295248),	_Q15(0.014253022),	_Q15(-0.019206626),
	_Q15(-0.0015266462),	_Q15(0.0038434556),	_Q15(-0.0036850243),	_Q15(-0.010203195),
	_Q15(0.0008290636),	_Q15(0.009575399),	_Q15(0.0030245152),	_Q15(-0.011157835),
	_Q15(-0.0037775668),	_Q15(-0.018114844),	_Q15(0.024097254),	_Q15(0.022077551),
	_Q15(-0.01102502),	_Q15(-0.0044631134),	_Q15(0.015442193),	_Q15(0.0045614014),
	_Q15(-0.020727701),	_Q15(-0.0074214963),	_Q15(0.008748813),	_Q15(-0.0068338597),
	_Q15(0.002463482),	_Q15(0.005910913),	_Q15(0.008707376),	_Q15(0.028025199),
	_Q15(0.025277816),	_Q15(-0.0024539921),	_Q15(-0.006651389),	_Q15(0.020275319),
	_Q15(0.0049398136),	_Q15(-0.004893324),	_Q15(-0.009861567),	_Q15(-0.030057333),
	_Q15(0.016367804),	_Q15(-0.01976995),	_Q15(-0.003920116),	_Q15(0.025091216),
	_Q15(-0.020562842),	_Q15(-0.014378912),	_Q15(-0.01132881),	_Q15(-0.017361315),
	_Q15(0.015779527),	_Q15(0.0054043815),	_Q15(0.01000965),	_Q15(-0.012804039),
	_Q15(-0.0051619266),	_Q15(0.0041493685),	_Q15(0.029687416),	_Q15(0.009200657),
	_Q15(-0.005202641),	_Q15(0.0028537214),	_Q15(0.02575768),	_Q15(0.0035636162),
	_Q15(-0.016059292),	_Q15(-0.0021420666),	_Q15(0.014710661),	_Q15(0.008199897),
	_Q15(0.034756433),	_Q15(-0.0014189112),	_Q15(0.0065681553),	_Q15(-0.0062814113),
	_Q15(-0.0046011996),	_Q15(-0.0010518496),	_Q15(-0.011966562),	_Q15(-0.0023823248),
	_Q15(0.0059992704),	_Q15(-0.0028299666),	_Q15(0.019131135),	_Q15(0.017008414),
	_Q15(-0.003208401),	_Q15(-0.007863329),	_Q15(0.01849107),	_Q15(-0.018031782),
	_Q15(0.005682282),	_Q15(0.00979281),	_Q15(-0.0013035815),	_Q15(-0.0072911377),
	_Q15(-0.0080747735),	_Q15(-0.0035154),	_Q15(-0.008174123),	_Q15(0.045675937),
	_Q15(0.0020768987),	_Q15(0.013825481),	_Q15(0.006381643),	_Q15(0.0044124),
	_Q15(-0.0037160013),	_Q15(0.00082857994),	_Q15(0.0027125995),	_Q15(0.006598042),
	_Q15(-0.0026741954),	_Q15(-0.018670935),	_Q15(-0.011461867),	_Q15(0.01180183),
	_Q15(-0.009326266),	_Q15(-0.010718161),	_Q15(0.006265674),	_Q15(-0.003702369),
	_Q15(0.008582789),	_Q15(-0.00207829),	_Q15(0.020558061),	_Q15(-0.003454408),
	_Q15(-0.009154558),	_Q15(0.01791938),	_Q15(-0.0070041087),	_Q15(0.005463782),
	_Q15(0.011685914),	_Q15(0.010796318),	_Q15(-0.010606297),	_Q15(0.008490266),
	_Q15(0.0066110212),	_Q15(0.017396478),	_Q15(-0.0027464742),	_Q15(-0.0054048933),
	_Q15(-0.010280577),	_Q15(0.007192484),	_Q15(0.011963069),	_Q15(0.0048738257),
	_Q15(0.002683061),	_Q15(0.0315963),	_Q15(-0.019998727),	_Q15(0.007075442),
	_Q15(-0.0076105813),	_Q15(0.013688866),	_Q15(0.0009611174),	_Q15(0.014231354),
	_Q15(0.026003495),	_Q15(0.021001639),	_Q15(-0.005718919),	_Q15(0.0002001068),
	_Q15(0.009503733),	_Q15(0.016063698),	_Q15(-0.04055754),	_Q15(-0.012271313),
	_Q15(0.010127354),	_Q15(0.023632117),	_Q15(-0.0010388225),	_Q15(-0.0071865967),
	_Q15(-0.011182229),	_Q15(0.0021558283),	_Q15(0.008944847),	_Q15(-0.0050008865),
	_Q15(0.006123592),	_Q15(-0.019541692),	_Q15(-0.00899802),	_Q15(-0.026432034),
	_Q15(-0.0175904),	_Q15(0.0054827747),	_Q15(0.0123198265),	_Q15(-0.02229944),
	_Q15(0.020909237),	_Q15(0.0052492768),	_Q15(0.0017027875),	_Q15(0.014396151),
	_Q15(-0.01721435),	_Q15(0.020204617),	_Q15(0.012344567),	_Q15(-0.00018455146),
	_Q15(0.016811373),	_Q15(0.012864917),	_Q15(-0.0052772313),	_Q15(0.0066744895),
	_Q15(0.01419712),	_Q15(-0.006245298),	_Q15(-0.003996988),	_Q15(0.023267504),
	_Q15(0.0070639835),	_Q15(-0.030675737),	_Q15(-0.015819944),	_Q15(0.0068490664),
	_Q15(-0.03257635),	_Q15(-0.0152777685),	_Q15(-0.0077871312),	_Q15(0.010309217),
	_Q15(-0.014528845),	_Q15(-0.010505164),	_Q15(-0.014240561),	_Q15(-0.0024913573),
	_Q15(0.014376677),	_Q15(-0.0065476117),	_Q15(-0.0015695216),	_Q15(0.004885688),
	_Q15(0.02053125),	_Q15(-0.00750362),	_Q15(-0.0027283025),	_Q15(-0.00021979894),
	_Q15(0.0012884733),	_Q15(-0.030180825),	_Q15(0.0015383401),	_Q15(0.00044960596),
	_Q15(-0.015578195),	_Q15(0.00025698065),	_Q15(-0.0231385),	_Q15(0.012450156),
	_Q15(-0.0039500454),	_Q15(-0.007337981),	_Q15(-0.0028262562),	_Q15(-0.0004169121),
	_Q15(-0.0014876421),	_Q15(-0.0012373236),	_Q15(0.00903716),	_Q15(0.005503518),
	_Q15(-0.006219962),	_Q15(-0.00925467),	_Q15(0.011033859),	_Q15(0.009385185),
	_Q15(0.0054487977),	_Q15(0.007885535),	_Q15(0.0062686265),	_Q15(-0.019392325),
	_Q15(0.00025277445),	_Q15(0.0048556896),	_Q15(-0.013965497),	_Q15(0.010847583),
	_Q15(-0.009114307),	_Q15(0.009351593),	_Q15(0.011542181),	_Q15(0.0033793806),
	_Q15(0.0070002214),	_Q15(-0.0012670541),	_Q15(0.0121240225),	_Q15(0.006894959),
	_Q15(-0.007782651),	_Q15(-0.013670897),	_Q15(0.0044989716),	_Q15(-0.008531572),
	_Q15(0.00079445454),	_Q15(-0.0018066515),	_Q15(-0.0056453873),	_Q15(0.0079007335),
	_Q15(0.022586236),	_Q15(0.013201713),	_Q15(-0.00057173794),	_Q15(-0.0062402356),
	_Q15(-0.004745098),	_Q15(0.024360225),	_Q15(0.016982695),	_Q15(-0.0053537474),
	_Q15(0.0048072776),	_Q15(-0.0045262035),	_Q15(0.0036982363),	_Q15(0.004363264),
	_Q15(-0.0044988017),	_Q15(0.0025141642),	_Q15(-0.014329575),	_Q15(-0.0125616165),
	_Q15(-0.018109575),	_Q15(-0.011821265),	_Q15(0.012772572),	_Q15(0.022200191),
	_Q15(-0.002405601),	_Q15(-0.003668932),	_Q15(-0.029826196),	_Q15(-0.018051725),
	_Q15(0.009847612),	_Q15(0.0011569974),	_Q15(-0.0024062826),	_Q15(-0.008139524),
	_Q15(0.019111015),	_Q15(0.002899201),	_Q15(0.004836229),	_Q15(0.025637563),
	_Q15(-0.004077572),	_Q15(0.0087714605),	_Q15(0.0056067146),	_Q15(-0.0018458386),
	_Q15(-0.011337053),	_Q15(0.0059101214),	_Q15(-0.00026165938),	_Q15(0.0013506853),
	_Q15(-0.0018452477),	_Q15(-0.006325051),	_Q15(0.0024265242),	_Q15(0.0066522285),
	_Q15(0.006161468),	_Q15(0.0017165195),	_Q15(-0.011136151),	_Q15(-0.010601601),
	_Q15(-0.011015116),	_Q15(0.0039943736),	_Q15(0.0031544883),	_Q15(0.004339012),
	_Q15(0.0032618754),	_Q15(-0.008857912),	_Q15(-0.0037143282),	_Q15(0.006741042),
	_Q15(-0.008871403),	_Q15(0.0007768128),	_Q15(0.004823314),	_Q15(0.0074299388),
	_Q15(0.00451613),	_Q15(0.0070339004),	_Q15(-0.0065982775),	_Q15(-0.0013663087),
	_Q15(-0.012534171),	_Q15(0.004525237),	_Q15(0.0013196748),	_Q15(-0.0027639223),
	_Q15(0.003628206),	_Q15(0.0047344333),	_Q15(0.0036846155),	_Q15(-0.0049821357),
	_Q15(-0.0025006507),	_Q15(-0.0013222673),	_Q15(-0.006188296),	_Q15(-0.013562379),
	_Q15(-0.0060513564),	_Q15(0.002821327),	_Q15(-0.00790518),	_Q15(-0.0017042411),
	_Q15(0.0053634876),	_Q15(0.00081104314),	_Q15(-0.009416437),	_Q15(0.0030010312),
	_Q15(-0.0048816325),	_Q15(-0.010436796),	_Q15(0.007718393),	_Q15(0.008290092),
	_Q15(-0.0036853703),	_Q15(-0.003762841),	_Q15(-0.008613196),	_Q15(-0.0119752),
	_Q15(-0.0019288333),	_Q15(0.0072670546),	_Q15(-0.0059351083),	_Q15(0.0045465385),
	_Q15(-0.0025597475),	_Q15(0.0018995876),	_Q15(-0.0030360187),	_Q15(0.005316607),
	_Q15(0.009948216),	_Q15(-0.010227626),	_Q15(-0.0025282225),	_Q15(-0.0023041146),
	_Q15(0.0019673277),	_Q15(-0.00915077),	_Q15(0.0078091994),	_Q15(0.00693883),
	_Q15(-0.0096864905),	_Q15(-0.008661518),	_Q15(-0.006557907),	_Q15(-0.0017286845),
	_Q15(-0.0008795187),	_Q15(-0.004015908),	_Q15(-0.003706293),	_Q15(0.005302094),
	_Q15(-5.667341e-05),	_Q15(-0.009573457),	_Q15(0.007542474),	_Q15(-0.010222851),
	_Q15(-0.0031235823),	_Q15(0.0043469756),	_Q15(-0.012903731),	_Q15(-0.0032270148),
	_Q15(0.0054668966),	_Q15(-0.013329224),	_Q15(0.0018068376),	_Q15(0.0047963187),
	_Q15(-0.0072418503),	_Q15(0.0052834675),	_Q15(-0.013022397),	_Q15(0.0063921995),
	_Q15(0.011189529),	_Q15(-0.0036369483),	_Q15(-0.011598486),	_Q15(-0.0069189165),
	_Q15(-0.007956786),	_Q15(-0.007089838),	_Q15(0.008500736),	_Q15(-0.00772589),
	_Q15(0.0055562723),	_Q15(0.006761184),	_Q15(0.00953777),	_Q15(-0.0014860397),
	_Q15(-0.00582839),	_Q15(-0.010993002),	_Q15(-0.0073944107),	_Q15(0.0032054617),
	_Q15(0.00020089772),	_Q15(0.011180779),	_Q15(-0.0044978485),	_Q15(-0.00010159839),
	_Q15(-0.011309333),	_Q15(-0.0036405085),	_Q15(-0.005628254),	_Q15(0.0030685517),
	_Q15(0.0030036161),	_Q15(-0.0069385753),	_Q15(-0.009089975),	_Q15(0.005738469),
	_Q15(-0.007859292),	_Q15(0.011139071),	_Q15(-0.005736506),	_Q15(-0.009787536),
	_Q15(-0.0036242958),	_Q15(0.00018276913),	_Q15(0.0059083393),	_Q15(-0.0048165373),
	_Q15(-0.0011934339),	_Q15(-0.0053480165),	_Q15(0.0027142689),	_Q15(-0.005324467),
	_Q15(-0.0069467938),	_Q15(-0.013028185),	_Q15(-0.003249417),	_Q15(-0.0054173693),
	_Q15(-0.005010979),	_Q15(-0.009936628),	_Q15(-0.0005729343),	_Q15(0.0071614),
	_Q15(-0.010031199),	_Q15(-0.001395504),	_Q15(-0.005360311),	_Q15(-0.01270604),
	_Q15(-0.003936522),	_Q15(-0.0038448144),	_Q15(-0.0056915875),	_Q15(0.006100014),
	_Q15(0.0035861179),	_Q15(-0.012790649),	_Q15(-0.00202237),	_Q15(0.0038610417),
	_Q15(0.008343123),	_Q15(-0.0061659385),	_Q15(-0.0111393025),	_Q15(0.0054487013),
	_Q15(-0.0011982673),	_Q15(-0.009453264),	_Q15(-0.0009581631),	_Q15(0.00067451893),
	_Q15(-0.005288734),	_Q15(-0.008316527),	_Q15(0.00021165283),	_Q15(-0.005167535),
	_Q15(-0.009546448),	_Q15(-0.00086747017),	_Q15(-0.0014167243),	_Q15(-0.0028560974),
	_Q15(-0.0014724201),	_Q15(-0.0004309382),	_Q15(-0.0053687673),	_Q15(-0.0020422845),
	_Q15(-0.012054472),	_Q15(-0.005929604),	_Q15(-0.012256343),	_Q15(-0.0061295154),
	_Q15(0.00792592),	_Q15(-0.007500144),	_Q15(0.0052732625),	_Q15(-0.0029803654),
	_Q15(0.0068062767),	_Q15(0.0047614933),	_Q15(-0.0004285982),	_Q15(-0.0061226203),
	_Q15(0.008918051),	_Q15(0.007766587),	_Q15(0.005356878),	_Q15(-0.0010321205),
	_Q15(-0.00012856722),	_Q15(0.0018721037),	_Q15(0.0063783512),	_Q15(-0.014587104),
	_Q15(0.0047155954),	_Q15(-0.0095901),	_Q15(0.008991027),	_Q15(0.011165552),
	_Q15(-0.0042047678),	_Q15(0.00055295357),	_Q15(-0.0016224263),	_Q15(0.008231308),
	_Q15(-0.007216351),	_Q15(-0.014361143),	_Q15(-0.004692746),	_Q15(-0.00024411942),
	_Q15(0.0027845462),	_Q15(-0.0036019427),	_Q15(0.0028870602),	_Q15(-0.0015267828),
	_Q15(-0.0040312395),	_Q15(-0.0010234818),	_Q15(-0.005268823),	_Q15(-0.009785363),
	_Q15(0.006196956),	_Q15(-0.006709942),	_Q15(-0.013350211),	_Q15(0.0078055537),
	_Q15(-0.0114936335),	_Q15(-0.002540195),	_Q15(0.0041747848),	_Q15(-0.0045118365),
	_Q15(0.005260738),	_Q15(-0.0032952125),	_Q15(0.0060193934),	_Q15(0.008913056),
	_Q15(0.003993919),	_Q15(-0.011906495),	_Q15(-0.0068415003),	_Q15(0.0028216974),
	_Q15(0.006152322),	_Q15(-0.0021287613),	_Q15(0.0068058576),	_Q15(0.00033604575),
	_Q15(-0.00020586362),	_Q15(-0.018920451),	_Q15(-0.00027511362),	_Q15(-0.024473894),
	_Q15(-0.012344406),	_Q15(-0.008547094),	_Q15(-0.013374581),	_Q15(0.010335446),
	_Q15(0.0061434126),	_Q15(0.0027036746),	_Q15(0.019336896),	_Q15(0.007991896),
	_Q15(0.0011085682),	_Q15(0.017734494),	_Q15(0.005058471),	_Q15(0.0008217947),
	_Q15(0.018267147),	_Q15(-0.008226254),	_Q15(-0.0018888535),	_Q15(0.019867545),
	_Q15(-0.0039423183),	_Q15(0.01134173),	_Q15(-0.00887777),	_Q15(0.0021819624),
	_Q15(0.008603359),	_Q15(-0.02198105),	_Q15(0.010256635),	_Q15(-0.0018074616),
	_Q15(-0.026498113),	_Q15(-0.018306622),	_Q15(0.0063927467),	_Q15(0.0027888753),
	_Q15(0.011035632),	_Q15(-0.00052179035),	_Q15(0.005533627),	_Q15(0.008444114),
	_Q15(-0.0040193684),	_Q15(0.0025043362),	_Q15(0.015684),	_Q15(0.002975855),
	_Q15(0.004958218),	_Q15(0.01415274),	_Q15(0.009743565),	_Q15(0.021984626),
	_Q15(-0.0090534445),	_Q15(0.006497015),	_Q15(0.00070677826),	_Q15(0.0008972366),
	_Q15(-0.012827399),	_Q15(-0.0013926091),	_Q15(0.0029138231),	_Q15(0.030664355),
	_Q15(-0.00015378185),	_Q15(-0.0011237115),	_Q15(-0.019625481),	_Q15(0.011673306),
