#include <params/include/fc2.h>

__ro_hinv mat_t fc2_weight_meta = {
	.dims = {10, 84},
	.len_dims = 2,
	.strides = {84, 1},
	.data = (fixed *)fc2_weight
};

__ro_hinv mat_t fc2_bias_meta = {
	.dims = {1, 10},
	.len_dims = 2,
	.strides = {10, 1},
	.data = (fixed *)fc2_bias
};

__ro_hinv _q15 fc2_weight[] = {
	_Q15(-0.054107543),	_Q15(0.056304514),	_Q15(-0.04934555),	_Q15(0.008215519),
	_Q15(0.040194727),	_Q15(-0.10568973),	_Q15(-0.048228074),	_Q15(-0.04074729),
	_Q15(0.03057103),	_Q15(-0.06340904),	_Q15(-0.00470524),	_Q15(0.031200869),
	_Q15(0.015280895),	_Q15(-0.03955291),	_Q15(-0.07902377),	_Q15(-0.032854047),
	_Q15(0.013785829),	_Q15(-0.044126194),	_Q15(-0.06670314),	_Q15(-0.019509187),
	_Q15(0.029315045),	_Q15(0.015321193),	_Q15(0.040051557),	_Q15(0.017160138),
	_Q15(-0.079536356),	_Q15(0.021899382),	_Q15(0.04236637),	_Q15(-0.023035882),
	_Q15(0.024450282),	_Q15(-0.06336741),	_Q15(0.034340758),	_Q15(0.023984019),
	_Q15(-0.014017852),	_Q15(0.005451475),	_Q15(-0.043231215),	_Q15(0.03371638),
	_Q15(0.076290496),	_Q15(-0.033698585),	_Q15(-0.051078774),	_Q15(0.019794136),
	_Q15(-0.011004449),	_Q15(-0.050997388),	_Q15(-0.056721047),	_Q15(0.034707483),
	_Q15(-0.051561527),	_Q15(-0.017611457),	_Q15(0.023631716),	_Q15(-0.021465564),
	_Q15(0.014196618),	_Q15(-0.0046538576),	_Q15(-0.04837216),	_Q15(0.028117707),
	_Q15(-0.06161323),	_Q15(0.01751011),	_Q15(0.026512815),	_Q15(-0.04201833),
	_Q15(0.039464626),	_Q15(0.0944515),	_Q15(-0.017202683),	_Q15(-0.05157301),
	_Q15(-0.025988832),	_Q15(0.052055646),	_Q15(0.0068017845),	_Q15(-0.057080276),
	_Q15(-0.053232174),	_Q15(-0.05627551),	_Q15(-0.055514727),	_Q15(0.008165604),
	_Q15(-0.015220745),	_Q15(-0.04449356),	_Q15(0.03417157),	_Q15(0.02005639),
	_Q15(0.020673607),	_Q15(-0.0023855034),	_Q15(-0.026268201),	_Q15(0.050340377),
	_Q15(-0.029648973),	_Q15(0.05854078),	_Q15(-0.05582459),	_Q15(0.028117353),
	_Q15(-0.031439766),	_Q15(-0.014247499),	_Q15(0.0024309577),	_Q15(-0.13642447),
	_Q15(0.0014592621),	_Q15(-0.033088617),	_Q15(-0.019742029),	_Q15(-0.033062927),
	_Q15(-3.5197496e-05),	_Q15(-0.026761286),	_Q15(-0.033212684),	_Q15(0.053527612),
	_Q15(0.051683426),	_Q15(0.04478235),	_Q15(-0.053782046),	_Q15(-0.067176886),
	_Q15(-0.068428464),	_Q15(-0.008975267),	_Q15(0.05227335),	_Q15(0.040656965),
	_Q15(-0.059803277),	_Q15(-0.074709505),	_Q15(-0.04106937),	_Q15(0.051950064),
	_Q15(0.055736832),	_Q15(0.009571778),	_Q15(0.047598977),	_Q15(-0.06033982),
	_Q15(-0.07775505),	_Q15(0.03729439),	_Q15(-0.05550616),	_Q15(0.012013587),
	_Q15(-0.074531145),	_Q15(-0.06964645),	_Q15(0.043817353),	_Q15(-0.049793076),
	_Q15(-0.037238378),	_Q15(-0.0413266),	_Q15(0.008560522),	_Q15(0.027397577),
	_Q15(-0.0046154778),	_Q15(0.010974003),	_Q15(-0.06077674),	_Q15(0.009030634),
	_Q15(-0.02051411),	_Q15(-0.036234308),	_Q15(-0.0566395),	_Q15(-0.07617049),
	_Q15(-0.06390797),	_Q15(-0.0020946118),	_Q15(0.0362548),	_Q15(-0.029946534),
	_Q15(-0.068998925),	_Q15(-0.021131085),	_Q15(-0.06345892),	_Q15(-0.0482225),
	_Q15(0.028941428),	_Q15(-0.029729558),	_Q15(0.002905289),	_Q15(-0.07486211),
	_Q15(-0.029487774),	_Q15(-0.026077673),	_Q15(0.008098504),	_Q15(-0.04605497),
	_Q15(-0.034269206),	_Q15(-0.07425647),	_Q15(0.0542849),	_Q15(-0.0077020675),
	_Q15(0.033925906),	_Q15(-0.01185342),	_Q15(-0.033115905),	_Q15(-0.06108739),
	_Q15(-0.0012345584),	_Q15(0.042789876),	_Q15(-0.052129824),	_Q15(0.0055779857),
	_Q15(0.026723342),	_Q15(0.01423928),	_Q15(0.013690522),	_Q15(0.054502357),
	_Q15(-0.01771819),	_Q15(-0.06719694),	_Q15(0.011827953),	_Q15(0.05516587),
	_Q15(0.035205055),	_Q15(0.0054117795),	_Q15(-0.06989801),	_Q15(0.052363645),
	_Q15(0.023748739),	_Q15(-0.06968455),	_Q15(-0.050749484),	_Q15(-0.0041958196),
	_Q15(-0.07320544),	_Q15(0.012659388),	_Q15(0.017357172),	_Q15(0.050366554),
	_Q15(-0.071944855),	_Q15(0.0014497554),	_Q15(0.06903101),	_Q15(-0.0058789398),
	_Q15(0.0048251385),	_Q15(0.017388165),	_Q15(-0.0092565585),	_Q15(-0.08603588),
	_Q15(-0.07201178),	_Q15(-0.055104364),	_Q15(-0.062136207),	_Q15(0.056201253),
	_Q15(0.046854354),	_Q15(-0.012518242),	_Q15(0.051473334),	_Q15(-0.062291257),
	_Q15(0.014907236),	_Q15(-0.06306295),	_Q15(-0.012121898),	_Q15(-0.022342904),
	_Q15(0.021456718),	_Q15(0.043297235),	_Q15(0.024896942),	_Q15(0.010054331),
	_Q15(-0.075598106),	_Q15(0.047101557),	_Q15(-0.016208138),	_Q15(0.042388104),
	_Q15(-0.042849667),	_Q15(0.016568806),	_Q15(-0.06341647),	_Q15(0.013165172),
	_Q15(0.021180676),	_Q15(-0.049299516),	_Q15(0.007867604),	_Q15(-0.007901864),
	_Q15(0.047420975),	_Q15(0.03368308),	_Q15(-0.021059038),	_Q15(0.044562764),
	_Q15(0.043724485),	_Q15(-0.013201641),	_Q15(0.0034702378),	_Q15(-0.013048758),
	_Q15(-0.06356616),	_Q15(0.01005471),	_Q15(0.008102393),	_Q15(-0.0730758),
	_Q15(-0.031816773),	_Q15(-0.097088814),	_Q15(0.014223253),	_Q15(-0.02005909),
	_Q15(-0.08286164),	_Q15(-0.095824294),	_Q15(-0.07182971),	_Q15(-0.035849825),
	_Q15(-0.08000959),	_Q15(0.07273183),	_Q15(0.05484461),	_Q15(0.054257676),
	_Q15(0.028345782),	_Q15(-0.05772218),	_Q15(0.017986475),	_Q15(-0.020599013),
	_Q15(-0.06207919),	_Q15(-0.03368249),	_Q15(0.024267927),	_Q15(-0.029515324),
	_Q15(0.040122915),	_Q15(-0.017934432),	_Q15(-0.06488954),	_Q15(-0.074571185),
	_Q15(-0.05294954),	_Q15(0.015347144),	_Q15(0.02138356),	_Q15(-0.002370973),
	_Q15(0.002474264),	_Q15(-0.026800418),	_Q15(0.06188954),	_Q15(0.053956106),
	_Q15(0.02929819),	_Q15(-0.060784053),	_Q15(-0.09082702),	_Q15(-0.015981274),
	_Q15(-0.047793508),	_Q15(0.011384356),	_Q15(-0.01827557),	_Q15(-0.016946584),
	_Q15(-0.05262522),	_Q15(-0.08633905),	_Q15(-0.09458996),	_Q15(0.020202532),
	_Q15(0.0024431641),	_Q15(0.002084799),	_Q15(-0.09538839),	_Q15(0.04900984),
	_Q15(-0.06633295),	_Q15(-0.0071616415),	_Q15(-0.075619064),	_Q15(-0.019013338),
	_Q15(-0.08160498),	_Q15(-0.08381457),	_Q15(-0.08030717),	_Q15(-0.028804338),
	_Q15(0.023554219),	_Q15(-0.06938396),	_Q15(-0.029171212),	_Q15(-0.09085458),
	_Q15(-0.049284823),	_Q15(-0.05599783),	_Q15(0.0016275158),	_Q15(-0.07311227),
	_Q15(-0.023403142),	_Q15(0.020392833),	_Q15(-0.002548841),	_Q15(-0.013576632),
	_Q15(0.004906311),	_Q15(-0.052677926),	_Q15(0.016133828),	_Q15(0.031155702),
	_Q15(-0.05116944),	_Q15(0.02138165),	_Q15(-0.077985466),	_Q15(0.05012982),
	_Q15(-0.08225764),	_Q15(-0.01269438),	_Q15(0.038246207),	_Q15(0.046799194),
	_Q15(0.023504801),	_Q15(-0.02250254),	_Q15(0.00014475547),	_Q15(0.004683491),
	_Q15(-0.08380001),	_Q15(0.022146305),	_Q15(-0.02418428),	_Q15(-0.07847799),
	_Q15(0.03305007),	_Q15(0.0064466815),	_Q15(-0.024337972),	_Q15(-0.05018322),
	_Q15(0.037319712),	_Q15(-0.07761079),	_Q15(0.036159214),	_Q15(0.07118776),
	_Q15(-0.07734585),	_Q15(-0.02704555),	_Q15(0.06530706),	_Q15(0.021647574),
	_Q15(-0.022984652),	_Q15(0.020530336),	_Q15(-0.011218353),	_Q15(-0.07800303),
	_Q15(0.051114704),	_Q15(-0.0204893),	_Q15(0.037478235),	_Q15(0.02518132),
	_Q15(-0.061231524),	_Q15(-0.021919424),	_Q15(0.018746853),	_Q15(0.033438876),
	_Q15(-0.06762073),	_Q15(0.011775817),	_Q15(0.018798055),	_Q15(-0.058704413),
	_Q15(-0.06579689),	_Q15(-0.10452693),	_Q15(-0.06314836),	_Q15(-0.048294906),
	_Q15(0.020894539),	_Q15(-0.06973349),	_Q15(0.0075128777),	_Q15(-0.031702295),
	_Q15(0.013622429),	_Q15(-0.07217332),	_Q15(0.019465216),	_Q15(-0.051341858),
	_Q15(-0.09584338),	_Q15(0.04157466),	_Q15(0.0162496),	_Q15(0.0072972775),
	_Q15(-0.0627559),	_Q15(-0.006146252),	_Q15(-0.05780463),	_Q15(-0.052800238),
	_Q15(0.054665286),	_Q15(0.012309707),	_Q15(0.04311632),	_Q15(-0.06390087),
	_Q15(-0.06577382),	_Q15(-0.038891766),	_Q15(-0.045339145),	_Q15(0.023959726),
	_Q15(0.031530045),	_Q15(0.074577354),	_Q15(-0.000880113),	_Q15(0.060284358),
	_Q15(-0.03816653),	_Q15(0.040311154),	_Q15(0.021009097),	_Q15(-0.0030325523),
	_Q15(-0.027554099),	_Q15(0.018697748),	_Q15(0.031049583),	_Q15(-0.022433702),
	_Q15(-0.038446262),	_Q15(-0.099001035),	_Q15(0.053865932),	_Q15(-0.02059203),
	_Q15(-0.014061968),	_Q15(0.01680995),	_Q15(0.035821024),	_Q15(-0.016125022),
	_Q15(0.060899556),	_Q15(-0.0081058815),	_Q15(-0.0025039725),	_Q15(-0.04723748),
	_Q15(0.094646916),	_Q15(-0.038926065),	_Q15(-0.010763563),	_Q15(-0.036133677),
	_Q15(-0.024787957),	_Q15(-0.07504297),	_Q15(-0.05039575),	_Q15(0.012652677),
	_Q15(-0.06500305),	_Q15(-0.059658594),	_Q15(0.029473994),	_Q15(-0.044671733),
	_Q15(0.05121042),	_Q15(-0.011392396),	_Q15(-0.0076188496),	_Q15(0.02617392),
	_Q15(-0.018672334),	_Q15(-0.08073497),	_Q15(0.01767892),	_Q15(-0.015493231),
	_Q15(-0.08004333),	_Q15(-0.10294618),	_Q15(-0.05472032),	_Q15(-0.03449563),
	_Q15(-0.025424998),	_Q15(-0.0045249164),	_Q15(-0.02572355),	_Q15(0.07573443),
	_Q15(0.04368612),	_Q15(-0.057579044),	_Q15(-0.028686948),	_Q15(0.042751353),
	_Q15(-0.035913758),	_Q15(0.08064865),	_Q15(0.07104008),	_Q15(-0.04169939),
	_Q15(0.037058827),	_Q15(-0.048115958),	_Q15(0.0064400816),	_Q15(-0.07813284),
	_Q15(-0.07461329),	_Q15(-0.066848345),	_Q15(0.05498483),	_Q15(0.027333248),
	_Q15(-0.013035028),	_Q15(-0.003744375),	_Q15(0.024568975),	_Q15(-0.07526797),
	_Q15(-0.016587822),	_Q15(-0.0019350688),	_Q15(-0.061276156),	_Q15(0.03300666),
	_Q15(-0.06152807),	_Q15(-0.02030403),	_Q15(0.060596164),	_Q15(-0.020420432),
	_Q15(0.0015809472),	_Q15(-0.066562064),	_Q15(-0.05468601),	_Q15(0.06893124),
	_Q15(-0.06486048),	_Q15(-0.041037932),	_Q15(-0.040428624),	_Q15(-0.08376545),
	_Q15(-0.014346148),	_Q15(0.022392705),	_Q15(-0.070621595),	_Q15(0.012162176),
	_Q15(-0.025919726),	_Q15(-0.061873503),	_Q15(0.01932174),	_Q15(-0.014679676),
	_Q15(-0.029462628),	_Q15(-0.07675923),	_Q15(-0.060266655),	_Q15(-0.053127747),
	_Q15(0.03721381),	_Q15(-0.0069754487),	_Q15(-0.06469053),	_Q15(0.02134452),
	_Q15(0.027992485),	_Q15(0.020391086),	_Q15(0.01664731),	_Q15(0.021907492),
	_Q15(-0.08914714),	_Q15(-0.07161914),	_Q15(-0.005695574),	_Q15(0.059169352),
	_Q15(-0.004913856),	_Q15(-0.074559234),	_Q15(0.031520076),	_Q15(-0.031959426),
	_Q15(0.04242494),	_Q15(-0.048750028),	_Q15(-0.05176114),	_Q15(-0.06517498),
	_Q15(0.02049198),	_Q15(-0.06658132),	_Q15(-0.013903903),	_Q15(-0.022903001),
	_Q15(0.0053828536),	_Q15(-0.086373456),	_Q15(0.008372162),	_Q15(-0.0484098),
	_Q15(-0.07893164),	_Q15(-0.080005564),	_Q15(0.0004267296),	_Q15(0.033993427),
	_Q15(-0.06410762),	_Q15(0.0055810865),	_Q15(0.038964726),	_Q15(-0.06215711),
	_Q15(-0.06191036),	_Q15(0.04798757),	_Q15(-0.042768963),	_Q15(0.04266097),
	_Q15(0.020781117),	_Q15(0.04886758),	_Q15(0.031159732),	_Q15(-0.035103593),
	_Q15(0.0012443598),	_Q15(0.02915365),	_Q15(-0.111024596),	_Q15(0.02050845),
	_Q15(-0.07675272),	_Q15(0.06470166),	_Q15(-0.006671694),	_Q15(0.03282439),
	_Q15(0.034886956),	_Q15(0.04734504),	_Q15(0.008832409),	_Q15(-0.041654736),
	_Q15(-0.07032105),	_Q15(0.014953055),	_Q15(0.03479169),	_Q15(0.026262986),
	_Q15(0.02093545),	_Q15(-0.008248751),	_Q15(-0.07493502),	_Q15(-0.015932059),
	_Q15(-0.04739771),	_Q15(0.06905887),	_Q15(-0.052617885),	_Q15(0.024205018),
	_Q15(0.041443083),	_Q15(0.05004838),	_Q15(-0.06411862),	_Q15(0.013317601),
	_Q15(-0.030624839),	_Q15(-0.033750072),	_Q15(-0.05515705),	_Q15(0.021175476),
	_Q15(0.0031465048),	_Q15(0.034046806),	_Q15(-0.08535261),	_Q15(-0.045750085),
	_Q15(-0.045928873),	_Q15(0.06346863),	_Q15(0.014067036),	_Q15(-0.041450243),
	_Q15(0.028154047),	_Q15(-0.02911434),	_Q15(-0.0031410635),	_Q15(-0.055988427),
	_Q15(0.013177456),	_Q15(0.008540674),	_Q15(3.0435622e-06),	_Q15(-0.08309528),
	_Q15(-0.10835609),	_Q15(-0.03774455),	_Q15(-0.01173586),	_Q15(-0.06004729),
	_Q15(-0.031315766),	_Q15(0.063415356),	_Q15(-0.06934776),	_Q15(-0.035559308),
	_Q15(0.021065516),	_Q15(-0.041661937),	_Q15(-0.06280332),	_Q15(-0.0016326222),
	_Q15(0.0028553782),	_Q15(-0.08279532),	_Q15(-0.05579772),	_Q15(-0.020505508),
	_Q15(-0.08563695),	_Q15(-0.06397419),	_Q15(0.016324395),	_Q15(-0.059676483),
	_Q15(-0.034453284),	_Q15(-0.07046653),	_Q15(-0.04726515),	_Q15(-0.025172718),
	_Q15(-0.015529034),	_Q15(-0.010439973),	_Q15(-0.05004137),	_Q15(-0.08974766),
	_Q15(0.05126924),	_Q15(-0.036066744),	_Q15(-0.043957636),	_Q15(-0.043504983),
	_Q15(-0.012244447),	_Q15(-0.08097399),	_Q15(0.092436925),	_Q15(-0.052823734),
	_Q15(-0.060182467),	_Q15(-0.065305345),	_Q15(-0.10319522),	_Q15(0.032608822),
	_Q15(-0.04183297),	_Q15(0.03358038),	_Q15(-0.08924741),	_Q15(-0.057701766),
	_Q15(-0.08077145),	_Q15(-0.03959792),	_Q15(0.009702022),	_Q15(0.0011680438),
	_Q15(0.0568804),	_Q15(-0.013315257),	_Q15(-0.07303061),	_Q15(-0.06649843),
	_Q15(0.03646554),	_Q15(-0.044798266),	_Q15(0.043815013),	_Q15(-0.043025535),
	_Q15(0.039810285),	_Q15(-0.035867438),	_Q15(-0.05927672),	_Q15(0.0008466582),
	_Q15(0.04561613),	_Q15(-0.047533974),	_Q15(-0.028280161),	_Q15(-0.07665638),
	_Q15(-0.027343994),	_Q15(-0.010717189),	_Q15(-0.0032268171),	_Q15(0.017774317),
	_Q15(-0.0032872322),	_Q15(0.029304817),	_Q15(-0.07305943),	_Q15(-0.0015577531),
	_Q15(-0.017565185),	_Q15(-0.045099806),	_Q15(0.030836854),	_Q15(0.050046314),
	_Q15(-0.057289064),	_Q15(-0.012579977),	_Q15(-0.057862397),	_Q15(-0.037952825),
	_Q15(0.025999356),	_Q15(0.019858345),	_Q15(-0.0011318736),	_Q15(0.06251597),
	_Q15(-0.076796755),	_Q15(-0.010007414),	_Q15(-0.004337052),	_Q15(-0.0523705),
	_Q15(-0.014238441),	_Q15(-0.047196124),	_Q15(0.010829601),	_Q15(-0.069215566),
	_Q15(0.024006331),	_Q15(0.054395597),	_Q15(0.021637172),	_Q15(-0.052553765),
	_Q15(-0.06529116),	_Q15(0.021308178),	_Q15(-0.09280506),	_Q15(0.008928327),
	_Q15(0.001464594),	_Q15(-0.050230253),	_Q15(0.011183286),	_Q15(0.059647173),
	_Q15(0.02217812),	_Q15(0.031774405),	_Q15(0.0053368183),	_Q15(0.04979288),
	_Q15(0.02672154),	_Q15(-0.017059557),	_Q15(0.025749248),	_Q15(0.05962817),
	_Q15(-0.07917126),	_Q15(-0.07291405),	_Q15(-0.036599506),	_Q15(-0.057314422),
	_Q15(0.04396148),	_Q15(0.05139755),	_Q15(-0.066412665),	_Q15(-0.013112208),
	_Q15(0.040395044),	_Q15(-0.035348177),	_Q15(-0.058502886),	_Q15(0.054690447),
	_Q15(0.039616976),	_Q15(0.015050644),	_Q15(-0.095487244),	_Q15(0.03986153),
	_Q15(0.04214154),	_Q15(-0.04730777),	_Q15(0.043561295),	_Q15(-0.04713458),
	_Q15(-0.07872728),	_Q15(0.011871902),	_Q15(-0.050795183),	_Q15(-0.080534644),
	_Q15(-0.02740776),	_Q15(-0.034793656),	_Q15(-0.06434768),	_Q15(-0.020361932),
	_Q15(0.028101936),	_Q15(0.07166601),	_Q15(-0.058980312),	_Q15(-0.054655716),
	_Q15(0.019053724),	_Q15(-0.0623129),	_Q15(0.042237923),	_Q15(-0.063868485),
	_Q15(-0.030895295),	_Q15(-0.04057526),	_Q15(0.070262566),	_Q15(-0.004046547),
	_Q15(-0.025793698),	_Q15(-0.014544831),	_Q15(-0.029176382),	_Q15(-0.03706344),
	_Q15(0.06628385),	_Q15(-0.027200967),	_Q15(-0.062239237),	_Q15(-0.07229843),
	_Q15(0.046427924),	_Q15(0.0031352178),	_Q15(-0.08929537),	_Q15(-0.024434872),
	_Q15(-0.044223882),	_Q15(-0.021797568),	_Q15(-0.004967645),	_Q15(-0.08706445),
	_Q15(0.02190915),	_Q15(-0.0021515056),	_Q15(2.9938295e-05),	_Q15(0.0743007),
	_Q15(-0.0018824983),	_Q15(-0.07909751),	_Q15(-0.063768856),	_Q15(0.025249606),
	_Q15(-0.045745444),	_Q15(-0.06706611),	_Q15(0.027777707),	_Q15(-0.056441747),
	_Q15(0.027174253),	_Q15(0.047088057),	_Q15(-0.05955693),	_Q15(0.0102969045),
	_Q15(-0.09320518),	_Q15(0.024943551),	_Q15(-0.017658563),	_Q15(-0.067897014),
	_Q15(0.026290627),	_Q15(0.030169915),	_Q15(0.00871954),	_Q15(0.02651081),
	_Q15(0.03249997),	_Q15(-0.012376315),	_Q15(0.044048153),	_Q15(-0.016396191),
	_Q15(0.028991906),	_Q15(-0.011812866),	_Q15(0.020444877),	_Q15(-0.033248372),
	_Q15(-0.08097258),	_Q15(-0.08851865),	_Q15(-0.10036313),	_Q15(-0.03577634),
	_Q15(-0.026788173),	_Q15(-0.047136966),	_Q15(-0.06562704),	_Q15(-0.08865178),
	_Q15(0.028574241),	_Q15(-0.061263096),	_Q15(0.04476517),	_Q15(-0.05500706),
	_Q15(0.031154912),	_Q15(0.025235755),	_Q15(0.014967358),	_Q15(-0.077800274),
	_Q15(-0.039298117),	_Q15(-0.0270612),	_Q15(-0.022531956),	_Q15(0.022447405),
	_Q15(-0.029998546),	_Q15(0.03309675),	_Q15(0.012956077),	_Q15(-0.016850395),
	_Q15(-0.030002998),	_Q15(-0.033701796),	_Q15(-0.03644504),	_Q15(0.01723841),
	_Q15(-0.007776276),	_Q15(-0.0906491),	_Q15(0.03299046),	_Q15(-0.019649388),
	_Q15(0.0036879873),	_Q15(-0.11312535),	_Q15(0.023059852),	_Q15(-0.0032646267),
	_Q15(0.0030971637),	_Q15(0.022227053),	_Q15(0.04661181),	_Q15(-0.052440498),
	_Q15(-0.06739955),	_Q15(-0.031216152),	_Q15(-0.07644877),	_Q15(-0.041834585),
	_Q15(-0.067241125),	_Q15(0.006742678),	_Q15(0.049099956),	_Q15(0.052974664),
	_Q15(-0.05920935),	_Q15(0.015953626),	_Q15(-0.02130852),	_Q15(0.032036223),
	_Q15(-0.09847773),	_Q15(-0.022833252),	_Q15(-0.024164882),	_Q15(0.023266349),
	_Q15(-0.04527271),	_Q15(-0.009065515),	_Q15(0.037917268),	_Q15(0.042342704),
	_Q15(-0.03853829),	_Q15(0.05392951),	_Q15(0.002226302),	_Q15(-0.05038335),
	_Q15(-0.09484224),	_Q15(0.018774904),	_Q15(0.022439174),	_Q15(-0.0018797247),
	_Q15(0.03278544),	_Q15(0.024525171),	_Q15(0.005121429),	_Q15(0.031603936),
	_Q15(0.0653893),	_Q15(0.05865894),	_Q15(-0.0007027621),	_Q15(-0.05193919),
	_Q15(0.061259605),	_Q15(0.01215419),	_Q15(-0.09696331),	_Q15(-0.08651464)
};

__ro_hinv _q15 fc2_bias[] = {
	_Q15(-0.0072900215),	_Q15(-0.0066984445),	_Q15(0.01208875),	_Q15(0.014304315),
	_Q15(-0.003924621),	_Q15(0.010025554),	_Q15(-0.008696076),	_Q15(-0.04464533),
	_Q15(0.006257239),	_Q15(-0.026012888)
};

