#include <params/include/fc2.h>

__ro_hinv mat_t fc2_weight_meta = {
	.dims = {10, 84},
	.len_dims = 2,
	.strides = {84, 1},
	.data = (fixed *)fc2_weight
};

__ro_hinv mat_t fc2_bias_meta = {
	.dims = {1, 10},
	.len_dims = 2,
	.strides = {10, 1},
	.data = (fixed *)fc2_bias
};

__ro_hinv _q15 fc2_weight[] = {
	_Q15(-0.027053772),	_Q15(0.028152257),	_Q15(-0.024672775),	_Q15(0.0041077593),
	_Q15(0.020097364),	_Q15(-0.052844863),	_Q15(-0.024114037),	_Q15(-0.020373644),
	_Q15(0.015285515),	_Q15(-0.03170452),	_Q15(-0.00235262),	_Q15(0.0156004345),
	_Q15(0.0076404475),	_Q15(-0.019776454),	_Q15(-0.039511885),	_Q15(-0.016427023),
	_Q15(0.0068929144),	_Q15(-0.022063097),	_Q15(-0.03335157),	_Q15(-0.0097545935),
	_Q15(0.014657523),	_Q15(0.0076605966),	_Q15(0.020025779),	_Q15(0.008580069),
	_Q15(-0.039768178),	_Q15(0.010949691),	_Q15(0.021183185),	_Q15(-0.011517941),
	_Q15(0.012225141),	_Q15(-0.031683706),	_Q15(0.017170379),	_Q15(0.011992009),
	_Q15(-0.007008926),	_Q15(0.0027257374),	_Q15(-0.021615608),	_Q15(0.01685819),
	_Q15(0.038145248),	_Q15(-0.016849292),	_Q15(-0.025539387),	_Q15(0.009897068),
	_Q15(-0.0055022244),	_Q15(-0.025498694),	_Q15(-0.028360523),	_Q15(0.017353741),
	_Q15(-0.025780763),	_Q15(-0.0088057285),	_Q15(0.011815858),	_Q15(-0.010732782),
	_Q15(0.007098309),	_Q15(-0.0023269288),	_Q15(-0.02418608),	_Q15(0.0140588535),
	_Q15(-0.030806614),	_Q15(0.008755055),	_Q15(0.013256407),	_Q15(-0.021009166),
	_Q15(0.019732313),	_Q15(0.04722575),	_Q15(-0.008601341),	_Q15(-0.025786504),
	_Q15(-0.012994416),	_Q15(0.026027823),	_Q15(0.0034008923),	_Q15(-0.028540138),
	_Q15(-0.026616087),	_Q15(-0.028137755),	_Q15(-0.027757363),	_Q15(0.004082802),
	_Q15(-0.0076103723),	_Q15(-0.02224678),	_Q15(0.017085785),	_Q15(0.010028195),
	_Q15(0.010336803),	_Q15(-0.0011927517),	_Q15(-0.0131341005),	_Q15(0.025170188),
	_Q15(-0.014824486),	_Q15(0.02927039),	_Q15(-0.027912294),	_Q15(0.014058677),
	_Q15(-0.015719883),	_Q15(-0.0071237497),	_Q15(0.0012154789),	_Q15(-0.06821223),
	_Q15(0.00072963105),	_Q15(-0.016544309),	_Q15(-0.009871014),	_Q15(-0.016531464),
	_Q15(-1.7598748e-05),	_Q15(-0.013380643),	_Q15(-0.016606342),	_Q15(0.026763806),
	_Q15(0.025841713),	_Q15(0.022391176),	_Q15(-0.026891023),	_Q15(-0.033588443),
	_Q15(-0.034214232),	_Q15(-0.0044876337),	_Q15(0.026136676),	_Q15(0.020328483),
	_Q15(-0.029901639),	_Q15(-0.037354752),	_Q15(-0.020534685),	_Q15(0.025975032),
	_Q15(0.027868416),	_Q15(0.004785889),	_Q15(0.023799488),	_Q15(-0.03016991),
	_Q15(-0.038877524),	_Q15(0.018647196),	_Q15(-0.02775308),	_Q15(0.0060067936),
	_Q15(-0.037265573),	_Q15(-0.034823224),	_Q15(0.021908676),	_Q15(-0.024896538),
	_Q15(-0.018619189),	_Q15(-0.0206633),	_Q15(0.004280261),	_Q15(0.013698788),
	_Q15(-0.0023077389),	_Q15(0.0054870015),	_Q15(-0.03038837),	_Q15(0.004515317),
	_Q15(-0.010257055),	_Q15(-0.018117154),	_Q15(-0.02831975),	_Q15(-0.038085245),
	_Q15(-0.031953987),	_Q15(-0.0010473059),	_Q15(0.0181274),	_Q15(-0.014973267),
	_Q15(-0.034499463),	_Q15(-0.010565543),	_Q15(-0.03172946),	_Q15(-0.02411125),
	_Q15(0.014470714),	_Q15(-0.014864779),	_Q15(0.0014526445),	_Q15(-0.037431054),
	_Q15(-0.014743887),	_Q15(-0.013038836),	_Q15(0.004049252),	_Q15(-0.023027485),
	_Q15(-0.017134603),	_Q15(-0.037128236),	_Q15(0.02714245),	_Q15(-0.0038510337),
	_Q15(0.016962953),	_Q15(-0.00592671),	_Q15(-0.016557952),	_Q15(-0.030543694),
	_Q15(-0.0006172792),	_Q15(0.021394938),	_Q15(-0.026064912),	_Q15(0.0027889928),
	_Q15(0.013361671),	_Q15(0.00711964),	_Q15(0.006845261),	_Q15(0.027251178),
	_Q15(-0.008859095),	_Q15(-0.03359847),	_Q15(0.0059139766),	_Q15(0.027582934),
	_Q15(0.017602528),	_Q15(0.0027058898),	_Q15(-0.034949005),	_Q15(0.026181823),
	_Q15(0.011874369),	_Q15(-0.034842275),	_Q15(-0.025374742),	_Q15(-0.0020979098),
	_Q15(-0.03660272),	_Q15(0.006329694),	_Q15(0.008678586),	_Q15(0.025183277),
	_Q15(-0.035972428),	_Q15(0.0007248777),	_Q15(0.034515504),	_Q15(-0.0029394699),
	_Q15(0.0024125692),	_Q15(0.0086940825),	_Q15(-0.0046282792),	_Q15(-0.04301794),
	_Q15(-0.03600589),	_Q15(-0.027552182),	_Q15(-0.031068103),	_Q15(0.028100627),
	_Q15(0.023427177),	_Q15(-0.006259121),	_Q15(0.025736667),	_Q15(-0.031145629),
	_Q15(0.007453618),	_Q15(-0.031531475),	_Q15(-0.006060949),	_Q15(-0.011171452),
	_Q15(0.010728359),	_Q15(0.021648617),	_Q15(0.012448471),	_Q15(0.0050271656),
	_Q15(-0.037799053),	_Q15(0.023550779),	_Q15(-0.008104069),	_Q15(0.021194052),
	_Q15(-0.021424834),	_Q15(0.008284403),	_Q15(-0.031708237),	_Q15(0.006582586),
	_Q15(0.010590338),	_Q15(-0.024649758),	_Q15(0.003933802),	_Q15(-0.003950932),
	_Q15(0.023710487),	_Q15(0.01684154),	_Q15(-0.010529519),	_Q15(0.022281382),
	_Q15(0.021862242),	_Q15(-0.0066008205),	_Q15(0.0017351189),	_Q15(-0.006524379),
	_Q15(-0.03178308),	_Q15(0.005027355),	_Q15(0.0040511964),	_Q15(-0.0365379),
	_Q15(-0.015908387),	_Q15(-0.048544407),	_Q15(0.0071116267),	_Q15(-0.010029545),
	_Q15(-0.04143082),	_Q15(-0.047912147),	_Q15(-0.035914853),	_Q15(-0.017924912),
	_Q15(-0.040004794),	_Q15(0.036365915),	_Q15(0.027422305),	_Q15(0.027128838),
	_Q15(0.014172891),	_Q15(-0.02886109),	_Q15(0.008993237),	_Q15(-0.010299507),
	_Q15(-0.031039596),	_Q15(-0.016841246),	_Q15(0.012133963),	_Q15(-0.014757662),
	_Q15(0.020061458),	_Q15(-0.008967216),	_Q15(-0.03244477),	_Q15(-0.037285592),
	_Q15(-0.02647477),	_Q15(0.007673572),	_Q15(0.01069178),	_Q15(-0.0011854864),
	_Q15(0.001237132),	_Q15(-0.013400209),	_Q15(0.03094477),	_Q15(0.026978053),
	_Q15(0.014649095),	_Q15(-0.030392027),	_Q15(-0.04541351),	_Q15(-0.007990637),
	_Q15(-0.023896754),	_Q15(0.005692178),	_Q15(-0.009137785),	_Q15(-0.008473292),
	_Q15(-0.02631261),	_Q15(-0.043169525),	_Q15(-0.04729498),	_Q15(0.010101266),
	_Q15(0.0012215821),	_Q15(0.0010423996),	_Q15(-0.047694195),	_Q15(0.02450492),
	_Q15(-0.033166476),	_Q15(-0.0035808207),	_Q15(-0.037809532),	_Q15(-0.009506669),
	_Q15(-0.04080249),	_Q15(-0.041907284),	_Q15(-0.040153585),	_Q15(-0.014402169),
	_Q15(0.0117771095),	_Q15(-0.03469198),	_Q15(-0.014585606),	_Q15(-0.04542729),
	_Q15(-0.024642412),	_Q15(-0.027998915),	_Q15(0.0008137579),	_Q15(-0.036556136),
	_Q15(-0.011701571),	_Q15(0.010196417),	_Q15(-0.0012744205),	_Q15(-0.006788316),
	_Q15(0.0024531556),	_Q15(-0.026338963),	_Q15(0.008066914),	_Q15(0.015577851),
	_Q15(-0.02558472),	_Q15(0.010690825),	_Q15(-0.038992733),	_Q15(0.02506491),
	_Q15(-0.04112882),	_Q15(-0.00634719),	_Q15(0.019123103),	_Q15(0.023399597),
	_Q15(0.011752401),	_Q15(-0.01125127),	_Q15(7.2377734e-05),	_Q15(0.0023417454),
	_Q15(-0.041900005),	_Q15(0.011073153),	_Q15(-0.01209214),	_Q15(-0.039238997),
	_Q15(0.016525036),	_Q15(0.0032233407),	_Q15(-0.012168986),	_Q15(-0.02509161),
	_Q15(0.018659856),	_Q15(-0.038805395),	_Q15(0.018079607),	_Q15(0.03559388),
	_Q15(-0.038672924),	_Q15(-0.013522775),	_Q15(0.03265353),	_Q15(0.010823787),
	_Q15(-0.011492326),	_Q15(0.010265168),	_Q15(-0.0056091766),	_Q15(-0.039001513),
	_Q15(0.025557352),	_Q15(-0.01024465),	_Q15(0.018739117),	_Q15(0.01259066),
	_Q15(-0.030615762),	_Q15(-0.010959712),	_Q15(0.009373426),	_Q15(0.016719438),
	_Q15(-0.033810366),	_Q15(0.0058879084),	_Q15(0.009399028),	_Q15(-0.029352207),
	_Q15(-0.032898445),	_Q15(-0.052263465),	_Q15(-0.03157418),	_Q15(-0.024147453),
	_Q15(0.010447269),	_Q15(-0.034866747),	_Q15(0.0037564388),	_Q15(-0.015851147),
	_Q15(0.0068112146),	_Q15(-0.03608666),	_Q15(0.009732608),	_Q15(-0.025670929),
	_Q15(-0.04792169),	_Q15(0.02078733),	_Q15(0.0081248),	_Q15(0.0036486387),
	_Q15(-0.03137795),	_Q15(-0.003073126),	_Q15(-0.028902315),	_Q15(-0.026400119),
	_Q15(0.027332643),	_Q15(0.0061548534),	_Q15(0.02155816),	_Q15(-0.031950437),
	_Q15(-0.03288691),	_Q15(-0.019445883),	_Q15(-0.022669572),	_Q15(0.011979863),
	_Q15(0.015765022),	_Q15(0.037288677),	_Q15(-0.0004400565),	_Q15(0.030142179),
	_Q15(-0.019083265),	_Q15(0.020155577),	_Q15(0.010504548),	_Q15(-0.0015162762),
	_Q15(-0.013777049),	_Q15(0.009348874),	_Q15(0.015524792),	_Q15(-0.011216851),
	_Q15(-0.019223131),	_Q15(-0.049500518),	_Q15(0.026932966),	_Q15(-0.010296015),
	_Q15(-0.007030984),	_Q15(0.008404975),	_Q15(0.017910512),	_Q15(-0.008062511),
	_Q15(0.030449778),	_Q15(-0.0040529408),	_Q15(-0.0012519863),	_Q15(-0.02361874),
	_Q15(0.047323458),	_Q15(-0.019463032),	_Q15(-0.0053817816),	_Q15(-0.018066838),
	_Q15(-0.012393978),	_Q15(-0.037521485),	_Q15(-0.025197875),	_Q15(0.0063263383),
	_Q15(-0.032501526),	_Q15(-0.029829297),	_Q15(0.014736997),	_Q15(-0.022335866),
	_Q15(0.02560521),	_Q15(-0.005696198),	_Q15(-0.0038094248),	_Q15(0.01308696),
	_Q15(-0.009336167),	_Q15(-0.040367484),	_Q15(0.00883946),	_Q15(-0.0077466154),
	_Q15(-0.040021665),	_Q15(-0.05147309),	_Q15(-0.02736016),	_Q15(-0.017247815),
	_Q15(-0.012712499),	_Q15(-0.0022624582),	_Q15(-0.012861775),	_Q15(0.037867215),
	_Q15(0.02184306),	_Q15(-0.028789522),	_Q15(-0.014343474),	_Q15(0.021375677),
	_Q15(-0.017956879),	_Q15(0.040324327),	_Q15(0.03552004),	_Q15(-0.020849695),
	_Q15(0.018529413),	_Q15(-0.024057979),	_Q15(0.0032200408),	_Q15(-0.03906642),
	_Q15(-0.037306644),	_Q15(-0.033424173),	_Q15(0.027492415),	_Q15(0.013666624),
	_Q15(-0.006517514),	_Q15(-0.0018721875),	_Q15(0.0122844875),	_Q15(-0.037633985),
	_Q15(-0.008293911),	_Q15(-0.0009675344),	_Q15(-0.030638078),	_Q15(0.01650333),
	_Q15(-0.030764036),	_Q15(-0.010152015),	_Q15(0.030298082),	_Q15(-0.010210216),
	_Q15(0.0007904736),	_Q15(-0.033281032),	_Q15(-0.027343005),	_Q15(0.03446562),
	_Q15(-0.03243024),	_Q15(-0.020518966),	_Q15(-0.020214312),	_Q15(-0.041882724),
	_Q15(-0.007173074),	_Q15(0.011196353),	_Q15(-0.035310797),	_Q15(0.006081088),
	_Q15(-0.012959863),	_Q15(-0.030936752),	_Q15(0.00966087),	_Q15(-0.007339838),
	_Q15(-0.014731314),	_Q15(-0.038379613),	_Q15(-0.030133327),	_Q15(-0.026563874),
	_Q15(0.018606905),	_Q15(-0.0034877243),	_Q15(-0.032345265),	_Q15(0.01067226),
	_Q15(0.013996243),	_Q15(0.010195543),	_Q15(0.008323655),	_Q15(0.010953746),
	_Q15(-0.04457357),	_Q15(-0.03580957),	_Q15(-0.002847787),	_Q15(0.029584676),
	_Q15(-0.002456928),	_Q15(-0.037279617),	_Q15(0.015760038),	_Q15(-0.015979713),
	_Q15(0.02121247),	_Q15(-0.024375014),	_Q15(-0.02588057),	_Q15(-0.03258749),
	_Q15(0.01024599),	_Q15(-0.03329066),	_Q15(-0.0069519514),	_Q15(-0.0114515005),
	_Q15(0.0026914268),	_Q15(-0.043186728),	_Q15(0.004186081),	_Q15(-0.0242049),
	_Q15(-0.03946582),	_Q15(-0.040002782),	_Q15(0.0002133648),	_Q15(0.016996713),
	_Q15(-0.03205381),	_Q15(0.0027905433),	_Q15(0.019482363),	_Q15(-0.031078555),
	_Q15(-0.03095518),	_Q15(0.023993785),	_Q15(-0.021384481),	_Q15(0.021330485),
	_Q15(0.010390558),	_Q15(0.02443379),	_Q15(0.015579866),	_Q15(-0.017551797),
	_Q15(0.0006221799),	_Q15(0.014576825),	_Q15(-0.055512298),	_Q15(0.010254225),
	_Q15(-0.03837636),	_Q15(0.03235083),	_Q15(-0.003335847),	_Q15(0.016412195),
	_Q15(0.017443478),	_Q15(0.02367252),	_Q15(0.0044162045),	_Q15(-0.020827368),
	_Q15(-0.035160527),	_Q15(0.0074765277),	_Q15(0.017395845),	_Q15(0.013131493),
	_Q15(0.010467725),	_Q15(-0.0041243755),	_Q15(-0.03746751),	_Q15(-0.007966029),
	_Q15(-0.023698855),	_Q15(0.034529436),	_Q15(-0.026308943),	_Q15(0.012102509),
	_Q15(0.020721542),	_Q15(0.02502419),	_Q15(-0.03205931),	_Q15(0.0066588004),
	_Q15(-0.015312419),	_Q15(-0.016875036),	_Q15(-0.027578525),	_Q15(0.010587738),
	_Q15(0.0015732524),	_Q15(0.017023403),	_Q15(-0.042676304),	_Q15(-0.022875043),
	_Q15(-0.022964437),	_Q15(0.031734314),	_Q15(0.007033518),	_Q15(-0.020725122),
	_Q15(0.014077024),	_Q15(-0.01455717),	_Q15(-0.0015705317),	_Q15(-0.027994214),
	_Q15(0.006588728),	_Q15(0.004270337),	_Q15(1.5217811e-06),	_Q15(-0.04154764),
	_Q15(-0.054178044),	_Q15(-0.018872274),	_Q15(-0.00586793),	_Q15(-0.030023646),
	_Q15(-0.015657883),	_Q15(0.031707678),	_Q15(-0.03467388),	_Q15(-0.017779654),
	_Q15(0.010532758),	_Q15(-0.020830968),	_Q15(-0.03140166),	_Q15(-0.0008163111),
	_Q15(0.0014276891),	_Q15(-0.04139766),	_Q15(-0.02789886),	_Q15(-0.010252754),
	_Q15(-0.042818476),	_Q15(-0.031987093),	_Q15(0.008162198),	_Q15(-0.029838242),
	_Q15(-0.017226642),	_Q15(-0.035233267),	_Q15(-0.023632575),	_Q15(-0.012586359),
	_Q15(-0.007764517),	_Q15(-0.0052199867),	_Q15(-0.025020685),	_Q15(-0.04487383),
	_Q15(0.02563462),	_Q15(-0.018033372),	_Q15(-0.021978818),	_Q15(-0.021752492),
	_Q15(-0.0061222236),	_Q15(-0.040486995),	_Q15(0.046218462),	_Q15(-0.026411867),
	_Q15(-0.030091234),	_Q15(-0.032652672),	_Q15(-0.05159761),	_Q15(0.016304411),
	_Q15(-0.020916484),	_Q15(0.01679019),	_Q15(-0.044623706),	_Q15(-0.028850883),
	_Q15(-0.040385727),	_Q15(-0.01979896),	_Q15(0.004851011),	_Q15(0.0005840219),
	_Q15(0.0284402),	_Q15(-0.0066576283),	_Q15(-0.036515307),	_Q15(-0.033249214),
	_Q15(0.01823277),	_Q15(-0.022399133),	_Q15(0.021907507),	_Q15(-0.021512767),
	_Q15(0.019905142),	_Q15(-0.017933719),	_Q15(-0.02963836),	_Q15(0.0004233291),
	_Q15(0.022808066),	_Q15(-0.023766987),	_Q15(-0.014140081),	_Q15(-0.03832819),
	_Q15(-0.013671997),	_Q15(-0.0053585945),	_Q15(-0.0016134086),	_Q15(0.008887159),
	_Q15(-0.0016436161),	_Q15(0.014652409),	_Q15(-0.036529716),	_Q15(-0.00077887654),
	_Q15(-0.008782593),	_Q15(-0.022549903),	_Q15(0.015418427),	_Q15(0.025023157),
	_Q15(-0.028644532),	_Q15(-0.0062899883),	_Q15(-0.028931199),	_Q15(-0.018976413),
	_Q15(0.012999678),	_Q15(0.009929173),	_Q15(-0.0005659368),	_Q15(0.031257983),
	_Q15(-0.038398378),	_Q15(-0.005003707),	_Q15(-0.002168526),	_Q15(-0.02618525),
	_Q15(-0.0071192207),	_Q15(-0.023598062),	_Q15(0.0054148007),	_Q15(-0.034607783),
	_Q15(0.012003166),	_Q15(0.027197799),	_Q15(0.010818586),	_Q15(-0.026276883),
	_Q15(-0.03264558),	_Q15(0.010654089),	_Q15(-0.04640253),	_Q15(0.0044641634),
	_Q15(0.000732297),	_Q15(-0.025115127),	_Q15(0.005591643),	_Q15(0.029823586),
	_Q15(0.01108906),	_Q15(0.015887203),	_Q15(0.0026684091),	_Q15(0.02489644),
	_Q15(0.01336077),	_Q15(-0.008529779),	_Q15(0.012874624),	_Q15(0.029814085),
	_Q15(-0.03958563),	_Q15(-0.036457025),	_Q15(-0.018299753),	_Q15(-0.028657211),
	_Q15(0.02198074),	_Q15(0.025698775),	_Q15(-0.033206332),	_Q15(-0.006556104),
	_Q15(0.020197522),	_Q15(-0.017674088),	_Q15(-0.029251443),	_Q15(0.027345223),
	_Q15(0.019808488),	_Q15(0.007525322),	_Q15(-0.047743622),	_Q15(0.019930765),
	_Q15(0.02107077),	_Q15(-0.023653885),	_Q15(0.021780647),	_Q15(-0.02356729),
	_Q15(-0.03936364),	_Q15(0.005935951),	_Q15(-0.025397591),	_Q15(-0.040267322),
	_Q15(-0.01370388),	_Q15(-0.017396828),	_Q15(-0.03217384),	_Q15(-0.010180966),
	_Q15(0.014050968),	_Q15(0.035833005),	_Q15(-0.029490156),	_Q15(-0.027327858),
	_Q15(0.009526862),	_Q15(-0.03115645),	_Q15(0.021118961),	_Q15(-0.031934243),
	_Q15(-0.015447647),	_Q15(-0.02028763),	_Q15(0.035131283),	_Q15(-0.0020232736),
	_Q15(-0.012896849),	_Q15(-0.0072724153),	_Q15(-0.014588191),	_Q15(-0.01853172),
	_Q15(0.033141926),	_Q15(-0.013600484),	_Q15(-0.031119619),	_Q15(-0.036149215),
	_Q15(0.023213962),	_Q15(0.0015676089),	_Q15(-0.044647686),	_Q15(-0.012217436),
	_Q15(-0.022111941),	_Q15(-0.010898784),	_Q15(-0.0024838224),	_Q15(-0.043532226),
	_Q15(0.010954575),	_Q15(-0.0010757528),	_Q15(1.4969148e-05),	_Q15(0.03715035),
	_Q15(-0.00094124913),	_Q15(-0.039548755),	_Q15(-0.031884428),	_Q15(0.012624803),
	_Q15(-0.022872722),	_Q15(-0.033533055),	_Q15(0.013888854),	_Q15(-0.028220873),
	_Q15(0.0135871265),	_Q15(0.023544028),	_Q15(-0.029778466),	_Q15(0.0051484522),
	_Q15(-0.04660259),	_Q15(0.0124717755),	_Q15(-0.008829282),	_Q15(-0.033948507),
	_Q15(0.013145314),	_Q15(0.015084958),	_Q15(0.00435977),	_Q15(0.013255405),
	_Q15(0.016249985),	_Q15(-0.0061881575),	_Q15(0.022024076),	_Q15(-0.0081980955),
	_Q15(0.014495953),	_Q15(-0.005906433),	_Q15(0.010222439),	_Q15(-0.016624186),
	_Q15(-0.04048629),	_Q15(-0.044259325),	_Q15(-0.050181564),	_Q15(-0.01788817),
	_Q15(-0.013394087),	_Q15(-0.023568483),	_Q15(-0.03281352),	_Q15(-0.04432589),
	_Q15(0.014287121),	_Q15(-0.030631548),	_Q15(0.022382585),	_Q15(-0.02750353),
	_Q15(0.015577456),	_Q15(0.012617878),	_Q15(0.007483679),	_Q15(-0.038900137),
	_Q15(-0.019649059),	_Q15(-0.0135306),	_Q15(-0.011265978),	_Q15(0.011223703),
	_Q15(-0.014999273),	_Q15(0.016548375),	_Q15(0.0064780386),	_Q15(-0.008425198),
	_Q15(-0.015001499),	_Q15(-0.016850898),	_Q15(-0.01822252),	_Q15(0.008619205),
	_Q15(-0.003888138),	_Q15(-0.04532455),	_Q15(0.01649523),	_Q15(-0.009824694),
	_Q15(0.0018439937),	_Q15(-0.056562673),	_Q15(0.011529926),	_Q15(-0.0016323134),
	_Q15(0.0015485819),	_Q15(0.011113526),	_Q15(0.023305904),	_Q15(-0.026220249),
	_Q15(-0.033699773),	_Q15(-0.015608076),	_Q15(-0.038224384),	_Q15(-0.020917293),
	_Q15(-0.033620562),	_Q15(0.003371339),	_Q15(0.024549978),	_Q15(0.026487332),
	_Q15(-0.029604675),	_Q15(0.007976813),	_Q15(-0.01065426),	_Q15(0.016018111),
	_Q15(-0.049238864),	_Q15(-0.011416626),	_Q15(-0.012082441),	_Q15(0.0116331745),
	_Q15(-0.022636356),	_Q15(-0.0045327577),	_Q15(0.018958634),	_Q15(0.021171352),
	_Q15(-0.019269144),	_Q15(0.026964756),	_Q15(0.001113151),	_Q15(-0.025191676),
	_Q15(-0.04742112),	_Q15(0.009387452),	_Q15(0.011219587),	_Q15(-0.00093986234),
	_Q15(0.01639272),	_Q15(0.012262586),	_Q15(0.0025607145),	_Q15(0.015801968),
	_Q15(0.03269465),	_Q15(0.02932947),	_Q15(-0.00035138105),	_Q15(-0.025969595),
	_Q15(0.030629802),	_Q15(0.006077095),	_Q15(-0.048481654),	_Q15(-0.04325732)
};

__ro_hinv _q15 fc2_bias[] = {
	_Q15(-0.0036450108),	_Q15(-0.0033492222),	_Q15(0.006044375),	_Q15(0.0071521574),
	_Q15(-0.0019623104),	_Q15(0.005012777),	_Q15(-0.004348038),	_Q15(-0.022322666),
	_Q15(0.0031286194),	_Q15(-0.013006444)
};

