#include <params/include/conv2_Conv.h>

__ro_hinv mat_t conv2_weight_meta = {
	.dims = {16, 6, 5, 5},
	.len_dims = 4,
	.strides = {150, 25, 5, 1},
	.data = (fixed *)conv2_weight
};

__ro_hinv mat_t conv2_bias_meta = {
	.dims = {1, 16},
	.len_dims = 2,
	.strides = {16, 1},
	.data = (fixed *)conv2_bias
};

__ro_hinv _q15 conv2_weight[] = {
	-837,	-996,	-3669,	-4026,	-2183,	-3523,	-5066,	-4848,	-5833,
	-2336,	-2553,	-3037,	-1139,	-297,	91,	1916,	627,	1352,
	4060,	2532,	2179,	1540,	1612,	3352,	3297,	-837,	1600,
	630,	-1255,	-1904,	209,	-360,	-425,	-1670,	-1434,	-169,
	1451,	-52,	-548,	-562,	-474,	521,	1486,	625,	-150,
	-760,	1752,	2406,	719,	1190,	-2741,	-1973,	-4749,	-5444,
	-5838,	-6216,	-6604,	-5979,	-7313,	-6818,	-2332,	-3369,	-1963,
	-526,	-1200,	509,	287,	2597,	3192,	792,	1158,	1448,
	2355,	2872,	1620,	-23,	668,	660,	-201,	-756,	145,
	1284,	1661,	-49,	-1262,	502,	-373,	-82,	848,	990,
	-1689,	1238,	967,	740,	1475,	1206,	-1066,	-314,	1476,
	2120,	-1639,	-1306,	-741,	-1503,	-907,	-2073,	-2154,	-1792,
	-2157,	-1306,	-2193,	-2843,	-738,	-138,	737,	-1053,	-2022,
	732,	1980,	1061,	-842,	-2556,	-1533,	-968,	117,	2066,
	614,	2685,	3724,	1097,	273,	2079,	2977,	4103,	612,
	1504,	1313,	934,	611,	-968,	2761,	767,	1309,	2276,
	-956,	1840,	1339,	-617,	-1503,	289,	-1298,	-2924,	-1173,
	2372,	1090,	1653,	-2050,	-4863,	-3394,	-434,	1503,	1287,
	-1466,	-5859,	-5233,	-1130,	2368,	2856,	477,	-877,	-2796,
	-4414,	-3293,	-1510,	1669,	1499,	1785,	1314,	-428,	225,
	-1282,	215,	689,	110,	367,	1608,	-3491,	-1869,	-916,
	1553,	1537,	550,	-2846,	-3443,	-2151,	745,	2590,	2148,
	-2151,	-1906,	-1531,	-2967,	-1226,	2177,	-406,	1048,	-804,
	-4656,	-2795,	-1076,	699,	4121,	2411,	-1990,	-3526,	-18,
	1280,	5256,	3611,	201,	-1851,	-1860,	-1834,	1377,	2001,
	-118,	1291,	-250,	781,	508,	-223,	-2603,	-1606,	467,
	724,	1587,	1463,	-1261,	-2694,	-901,	664,	1739,	2524,
	-18,	-2573,	-994,	1777,	2054,	2443,	-1519,	205,	-2348,
	-2174,	-1776,	905,	1643,	1678,	-961,	-2024,	-1465,	-741,
	-493,	3441,	2096,	1032,	-1876,	-2863,	-1318,	1592,	2154,
	508,	2059,	434,	-2596,	2398,	961,	-2936,	-5148,	-2961,
	-1581,	5024,	3426,	-2007,	-4592,	-3637,	3100,	6186,	3745,
	2396,	-1898,	-47,	2467,	3431,	5300,	2770,	-228,	-2150,
	-1494,	2671,	1625,	-1272,	-1330,	2446,	3379,	-349,	-4141,
	-361,	2420,	2118,	-112,	-461,	1134,	-272,	-826,	-1358,
	1957,	1067,	70,	928,	-610,	437,	1041,	-123,	1753,
	1147,	-442,	1386,	-31,	-348,	-918,	1855,	-1450,	-1351,
	93,	-216,	460,	-627,	-610,	-235,	1002,	442,	-1537,
	1566,	1386,	-537,	369,	-1269,	374,	417,	-88,	-2574,
	-311,	18,	2408,	1129,	-2922,	-622,	401,	1881,	909,
	1982,	2183,	1183,	-3,	499,	2526,	781,	2649,	1755,
	493,	-816,	1286,	403,	1525,	2570,	1436,	-506,	-587,
	-716,	662,	-428,	-584,	-958,	-1202,	-695,	937,	-1308,
	-1180,	1033,	146,	-259,	-1092,	-1104,	-859,	-1195,	1122,
	226,	500,	-869,	-1068,	322,	985,	-395,	2386,	3145,
	1693,	1291,	858,	1611,	3141,	375,	3248,	2962,	2256,
	2264,	2285,	3619,	3255,	1285,	336,	-15,	2814,	1948,
	2737,	2029,	686,	-1015,	-2060,	-2238,	-640,	61,	-42,
	-2185,	-1045,	-58,	-672,	133,	-1491,	796,	-923,	1139,
	1688,	1204,	1233,	-196,	273,	875,	1136,	664,	398,
	-165,	-1055,	-94,	473,	-665,	-2783,	-5092,	-6387,	-4809,
	-6932,	1707,	2353,	1291,	481,	1168,	1723,	4296,	4011,
	3524,	2952,	3036,	2368,	815,	2797,	915,	1078,	1175,
	-176,	-197,	1115,	-1628,	344,	538,	-134,	190,	-2387,
	-2170,	-39,	1285,	-584,	-317,	-46,	418,	-1216,	-272,
	-751,	1922,	2448,	1993,	-430,	1748,	380,	-21,	-937,
	-46,	-563,	-2252,	-4803,	-4743,	-4041,	2743,	3288,	3404,
	3630,	2731,	3978,	4378,	2523,	4213,	2516,	746,	289,
	2370,	3767,	1178,	-1075,	-264,	-392,	-820,	1467,	-1683,
	293,	-858,	-798,	-619,	535,	263,	-94,	-1513,	-359,
	1295,	-218,	-205,	-1023,	-686,	-32,	-630,	634,	622,
	1611,	1458,	1566,	110,	915,	1259,	1733,	1422,	2746,
	299,	-1214,	1133,	1755,	3748,	2552,	1573,	783,	3582,
	1650,	2129,	752,	234,	717,	-440,	-1752,	-3306,	672,
	-1533,	254,	1446,	381,	-210,	-2509,	-2848,	-1625,	-829,
	-299,	-745,	-139,	-1618,	-191,	-648,	-2360,	326,	72,
	-491,	-638,	-2832,	-1824,	-1366,	-1644,	2036,	1161,	981,
	935,	-1565,	152,	3460,	3285,	4834,	1090,	-6323,	-3842,
	-1650,	2284,	3504,	1090,	-1561,	-2268,	-1255,	1319,	1298,
	60,	-483,	-223,	-296,	-56,	-1602,	-1385,	709,	1247,
	1855,	-931,	1283,	-744,	-441,	1603,	2602,	2784,	-7,
	767,	98,	1089,	1431,	281,	711,	-717,	174,	263,
	-573,	683,	1954,	664,	680,	410,	-2336,	59,	3172,
	3325,	3549,	1235,	-2539,	-2919,	-2208,	-86,	1327,	686,
	-1559,	-1849,	-2127,	-838,	160,	1770,	-230,	-822,	-1605,
	1250,	-379,	649,	1642,	-345,	331,	1143,	-24,	1463,
	706,	-1101,	792,	1344,	2042,	-1018,	-1372,	-1261,	-43,
	-1050,	-780,	-319,	-410,	-944,	-2129,	-1718,	676,	1525,
	2970,	1174,	637,	-3677,	-1973,	113,	-1127,	-80,	1029,
	-2138,	-5247,	-3505,	-1462,	-1865,	-497,	-2280,	-4951,	-4346,
	-2731,	-1837,	-1682,	-274,	-2871,	-151,	-665,	1170,	-908,
	-1259,	-2338,	-1862,	-1529,	-2048,	-1346,	-1217,	-996,	-2606,
	-2954,	-2102,	2715,	1924,	434,	-1792,	-1316,	862,	3457,
	575,	-280,	-523,	1402,	1453,	1396,	-380,	-238,	1229,
	3300,	1955,	717,	517,	750,	3231,	3076,	1420,	327,
	1999,	957,	1584,	953,	2113,	818,	-1088,	873,	1678,
	2867,	-771,	-1525,	-1101,	547,	-179,	-680,	-717,	123,
	-1131,	-629,	37,	433,	1495,	611,	-166,	383,	212,
	785,	495,	1025,	786,	-854,	1541,	1295,	-229,	1565,
	2672,	2234,	-107,	305,	2440,	1038,	3211,	1803,	460,
	1867,	3176,	3075,	3303,	1894,	2329,	2194,	1847,	2443,
	2755,	759,	1739,	595,	1030,	2660,	-824,	709,	-151,
	-1039,	-1267,	1211,	953,	200,	585,	654,	1097,	-424,
	-658,	-32,	40,	-607,	1425,	-342,	-597,	-966,	-874,
	1253,	925,	-715,	-1105,	28,	359,	1681,	1488,	1757,
	195,	1662,	2375,	1913,	1307,	411,	1359,	1359,	307,
	1984,	1656,	1179,	376,	738,	1634,	722,	81,	376,
	-472,	-152,	-2034,	423,	864,	-25,	580,	-701,	-2684,
	-2010,	313,	-1488,	-2530,	-1764,	-2780,	-808,	-2407,	9,
	-2141,	-2238,	-1499,	-3044,	1000,	-652,	-2266,	-1352,	-1543,
	714,	1118,	-296,	-410,	-298,	-2585,	-2435,	1040,	1577,
	1257,	-3361,	-3627,	-3672,	-87,	-281,	1023,	-2260,	-2671,
	-3677,	-386,	1017,	-333,	498,	68,	-1995,	241,	2388,
	219,	320,	1535,	3117,	2581,	90,	550,	275,	170,
	2452,	2864,	2041,	-1075,	-2001,	977,	-144,	1285,	-927,
	-1454,	-2043,	-1779,	-1586,	-718,	-2803,	155,	839,	1661,
	-817,	-1787,	-2023,	1134,	2943,	-275,	-150,	-1124,	-1893,
	542,	249,	2163,	-706,	-1089,	-2932,	-1782,	735,	-129,
	-578,	-797,	-2317,	1052,	3288,	2638,	1562,	455,	806,
	773,	2501,	7,	-359,	-2096,	-61,	1486,	783,	573,
	-860,	-250,	-1392,	-1174,	735,	833,	-796,	-2700,	-2897,
	-2143,	-614,	-182,	-1046,	-239,	1543,	-557,	-1994,	-2449,
	-1009,	-667,	752,	-842,	-3018,	-3916,	-3124,	-813,	-438,
	-1067,	-1630,	-2783,	-2754,	-1471,	-1745,	106,	-107,	-251,
	-285,	1770,	111,	-586,	-1162,	-2074,	981,	1092,	-1994,
	2009,	-2906,	-1668,	152,	346,	1497,	2370,	-994,	-1664,
	-1593,	1850,	663,	2313,	-1361,	-2308,	913,	-524,	1801,
	890,	1168,	183,	1271,	682,	-428,	701,	2389,	-586,
	-1492,	-1586,	33,	2640,	2366,	-457,	-117,	-1614,	-1234,
	1062,	-1251,	-1174,	-561,	65,	-1710,	-1027,	-2389,	-759,
	-1694,	-1979,	560,	-694,	-423,	397,	-389,	698,	-1405,
	-541,	1435,	1114,	1887,	1869,	-834,	3142,	2899,	2685,
	397,	651,	-1181,	-344,	-699,	798,	-149,	777,	610,
	223,	386,	-388,	2751,	320,	1469,	465,	2274,	2597,
	1953,	2470,	2192,	1506,	-104,	1679,	-1301,	-1878,	66,
	-1277,	-1730,	-1463,	-977,	-2504,	-1153,	907,	-427,	696,
	-2249,	1115,	555,	2810,	653,	399,	209,	132,	1447,
	2226,	1236,	1412,	18,	1812,	491,	1162,	-383,	-495,
	1327,	1135,	-101,	2786,	2864,	102,	974,	791,	1552,
	3517,	2895,	920,	1069,	-2324,	686,	618,	-1481,	-1328,
	-911,	-670,	542,	-198,	-1014,	832,	825,	-1425,	92,
	-2404,	-996,	-728,	1128,	2139,	-1587,	-601,	-687,	-701,
	962,	-184,	-2383,	-2679,	-2583,	-1766,	-2137,	-2556,	-2502,
	-1354,	-2601,	-914,	1238,	-1138,	-927,	-2456,	-3304,	2092,
	2257,	498,	-2953,	-1483,	3152,	2949,	-754,	-215,	287,
	2760,	4590,	1238,	1616,	180,	116,	3562,	4650,	1516,
	593,	93,	312,	-2526,	-574,	-653,	258,	83,	-1178,
	-1473,	-2353,	1830,	1924,	-423,	-2166,	-2749,	2740,	2527,
	63,	-686,	-840,	2500,	-103,	1625,	1480,	-226,	2179,
	189,	-868,	-1555,	-1998,	1591,	2391,	1593,	-289,	294,
	3154,	1590,	2227,	1914,	1171,	3147,	2858,	3514,	2527,
	495,	1589,	3501,	3539,	3104,	1162,	-392,	849,	1023,
	-1043,	-2877,	1859,	-625,	489,	-161,	-1005,	115,	642,
	394,	1024,	-710,	591,	2039,	-403,	2109,	1037,	-384,
	129,	-948,	528,	1025,	1814,	706,	1185,	-1018,	-2106,
	1554,	2551,	3363,	850,	556,	355,	2692,	1726,	1126,
	494,	-310,	-1609,	3037,	652,	571,	-980,	35,	-912,
	784,	241,	-638,	-314,	-708,	1205,	-1461,	-1092,	-3767,
	-594,	296,	48,	-2507,	-2909,	-3353,	-1391,	615,	-3451,
	-2130,	-2902,	-1624,	-1331,	-2004,	-678,	-3341,	-1676,	-2635,
	790,	601,	2040,	-154,	1366,	-989,	-2184,	-2411,	-1034,
	-1847,	-2474,	-2125,	-3276,	-3376,	-2626,	-1842,	-1081,	-2640,
	-3020,	-2814,	-1159,	-1962,	-2996,	-2858,	-2246,	-1923,	-731,
	383,	-1202,	-862,	-1019,	222,	788,	1017,	1622,	825,
	329,	-398,	1646,	1108,	1716,	749,	-127,	1711,	-81,
	291,	838,	509,	-597,	-44,	1295,	1085,	506,	217,
	618,	-723,	-1232,	-3716,	-1830,	-2789,	597,	-2218,	-1680,
	-2292,	-1053,	-280,	677,	-2015,	-2955,	-3014,	-981,	-1211,
	-2805,	-3113,	-3133,	525,	-1047,	-653,	569,	889,	134,
	138,	-885,	774,	151,	1272,	160,	901,	-426,	1583,
	986,	678,	429,	1124,	975,	-1180,	-86,	660,	-322,
	545,	1032,	398,	-1424,	-876,	-1770,	218,	396,	-871,
	-2341,	-1664,	-2245,	-1315,	-2213,	-2500,	-1714,	-856,	-2649,
	-792,	-2464,	-1545,	-456,	-1542,	-2982,	-2515,	-1203,	216,
	1378,	2104,	1083,	487,	2671,	2532,	843,	873,	2195,
	1769,	2717,	607,	2030,	1158,	2174,	1452,	1172,	830,
	279,	228,	-386,	86,	694,	2114,	-919,	-605,	-976,
	552,	-786,	1513,	-1972,	1240,	1308,	294,	830,	2243,
	2394,	-813,	-686,	1537,	2119,	2020,	-740,	-1889,	-563,
	1864,	1731,	1050,	-82,	-475,	-213,	838,	510,	-228,
	-587,	-942,	122,	451,	-216,	261,	-1718,	-950,	-7,
	830,	1140,	607,	-69,	-1324,	746,	302,	-620,	1315,
	481,	47,	2595,	-240,	-429,	-1348,	-2053,	2414,	1684,
	443,	1852,	1047,	1843,	2223,	792,	22,	439,	2872,
	995,	2289,	2073,	1728,	-1,	328,	1725,	2649,	431,
	206,	977,	-1171,	-1175,	458,	1932,	-463,	13,	-743,
	-368,	1237,	-289,	-1129,	-1140,	-331,	319,	684,	330,
	-865,	-1099,	1747,	1639,	-160,	650,	-649,	1688,	1460,
	-923,	579,	118,	763,	969,	449,	1421,	2142,	1575,
	252,	1617,	1596,	1823,	-951,	264,	-355,	2859,	1437,
	1020,	-619,	40,	-1274,	1030,	-1494,	797,	-1361,	-2169,
	-732,	-1376,	-1149,	-502,	-2543,	310,	-567,	-141,	-1834,
	0,	-200,	1315,	795,	609,	-39,	-1515,	619,	-1237,
	-715,	-189,	204,	2223,	2034,	820,	154,	-60,	2085,
	2784,	121,	1133,	2228,	8,	1162,	2779,	2747,	1548,
	-2732,	-2014,	138,	470,	2371,	1033,	-1055,	-1597,	1355,
	758,	568,	-596,	-286,	859,	2636,	-1318,	-40,	1842,
	-219,	1144,	538,	2126,	-221,	785,	2948,	-1653,	1134,
	-391,	1831,	1510,	-1396,	-724,	58,	34,	181,	-136,
	-10,	1652,	1184,	2957,	985,	1266,	1796,	2467,	3701,
	-1737,	-893,	3166,	3270,	3013,	-2455,	-1753,	-1013,	3099,
	1503,	622,	-1523,	-1059,	-37,	1028,	584,	-309,	508,
	663,	2189,	1095,	-495,	-232,	331,	46,	-891,	-27,
	1115,	90,	851,	-663,	-1253,	995,	107,	-1145,	-1409,
	-1440,	-1785,	-1742,	-988,	1806,	2552,	2605,	3301,	2617,
	374,	8,	2869,	2966,	2736,	-416,	552,	-414,	-1141,
	1347,	1377,	65,	-1727,	-1713,	-1542,	853,	-918,	-1950,
	-1861,	-2287,	-1079,	-2499,	-1336,	110,	971,	-2735,	-1487,
	-1815,	-522,	-2872,	-3010,	-4253,	-3269,	-3114,	-2848,	-651,
	-3240,	-2790,	-2227,	-3623,	220,	-1,	-2673,	-2594,	-387,
	-617,	738,	81,	-1790,	-1888,	2043,	3248,	573,	-4368,
	-3092,	871,	636,	-255,	615,	708,	2635,	2597,	2139,
	3966,	2846,	756,	2263,	2530,	1636,	90,	821,	283,
	1233,	1358,	0,	1277,	3167,	2962,	2827,	1097,	1762,
	3354,	3241,	976,	1103,	22,	-786,	-2306,	-1749,	-445,
	-543,	-1145,	-3658,	-3188,	-1243,	1400,	3786,	3636,	1805,
	-819,	2589,	3169,	-255,	-2264,	-1795,	4906,	4067,	1146,
	301,	2245,	4695,	2523,	2861,	3404,	2453,	2180,	1480,
	1964,	952,	-855,	1978,	2881,	3062,	1886,	-322,	2383,
	1847,	3158,	2669,	-827,	709,	559,	345,	-1203,	-2650,
	21,	-1568,	-1847,	-2840,	-3331,	-740,	-2549,	-2671,	-4071,
	-2733,	4213,	3170,	2997,	3073,	976,	2553,	2339,	957,
	-2313,	-1055,	1868,	584,	-342,	-2827,	-3293,	-1393,	-238,
	-107,	640,	-1159,	-2384,	-1105,	-398,	145,	-1584,	3794,
	2668,	2455,	3735,	1496,	-1714,	-2353,	-1380,	-853,	-861,
	-966,	-4278,	-4236,	-2051,	-1432,	-1623,	-1915,	-2065,	768,
	-1247,	-1490,	994,	-483,	-74,	-797,	1749,	2632,	2280,
	2153,	1943,	-850,	791,	-188,	998,	603,	-4171,	-3831,
	-1737,	-3139,	-2973,	-3021,	-2843,	-778,	-1329,	-1779,	-1902,
	-2694,	-573,	-680,	-2682,	-1036,	-1641,	-507,	416,	-8,
	281,	718,	376,	-1270,	-1164,	-213,	899,	-1079,	-870,
	1487,	-224,	-38,	-310,	751,	854,	-974,	-605,	1259,
	2246,	625,	581,	701,	2230,	-244,	816,	-3171,	-3433,
	-2063,	-2232,	-785,	-2302,	-2896,	-3366,	-2981,	-3872,	-986,
	-2768,	-974,	-1727,	-2516,	-2857,	-2550,	-3032,	-1687,	-3122,
	-519,	-680,	262,	-503,	-54,	516,	92,	-479,	523,
	1171,	-40,	936,	229,	-517,	1317,	117,	1072,	744,
	1683,	1942,	-455,	1033,	1920,	-93,	787,	-83,	-1345,
	-1186,	810,	1439,	-1487,	-2082,	-3099,	-3102,	-830,	-982,
	-943,	-1145,	-517,	-2081,	-1295,	-2070,	-1284,	-1663,	-285,
	60,	-2860,	-3057,	-2687,	-2913,	1752,	113,	1849,	2148,
	1296,	-19,	2085,	1141,	2141,	789,	345,	855,	944,
	2057,	705,	227,	1403,	2224,	2067,	2320,	-734,	1574,
	-72,	1990,	1981,	688,	-865,	478,	1863,	1479,	-3583,
	-4139,	-1142,	781,	495,	-3159,	-3928,	-3203,	-3318,	-1286,
	-1933,	-2023,	-1616,	-2505,	-1614,	-159,	-729,	298,	-2431,
	-3606,	201,	342,	-2147,	-1418,	1467,	-1286,	-771,	-706,
	-852,	820,	433,	-996,	898,	1011,	1558,	-180,	-2335,
	-1249,	231,	2418,	2105,	74,	-535,	1077,	1870,	-260,
	-2594,	-426,	-86,	465,	-1346,	-2617,	-3257,	-3160,	659,
	2233,	280,	-2270,	-1428,	-734,	1700,	2080,	-701,	-2776,
	-2179,	2567,	2699,	1963,	-327,	-969,	1033,	1010,	-257,
	-1894,	-1162,	-804,	-1490,	-1417,	-15,	479,	1467,	-1197,
	-2326,	-1187,	730,	933,	566,	-182,	-54,	475,	2139,
	2003,	-993,	390,	-996,	-2134,	-1723,	-1681,	-1167,	1068,
	1694,	-1355,	-385,	443,	-442,	397,	1380,	25,	-1072,
	-783,	-372,	-333,	-150,	1197,	374,	23,	-445,	1151,
	1879,	1458,	2426,	1476,	1107,	-1756,	-1066,	3245,	4767,
	1817,	1350,	-539,	4628,	5188,	3015,	690,	1680,	3279,
	5320,	2910,	2339,	996,	-524,	1770,	2562,	2635,	687,
	2233,	1648,	649,	-1462,	-774,	2091,	2604,	1764,	2608,
	1105,	-348,	-110,	2451,	3290,	3116,	1256,	-178,	584,
	3171,	3078,	-63,	419,	700,	2074,	2213,	-221,	-146,
	57,	-371,	69,	510,	-458,	491,	-31,	-1097,	161,
	-725,	175,	-1255,	691,	483,	433,	138,	-1648,	-540,
	-293,	1231,	489,	-417,	871,	312,	-156,	-614,	969,
	-1189,	-891,	517,	2344,	815,	1517,	-920,	1630,	485,
	2946,	2252,	1157,	2126,	935,	1973,	3189,	1734,	2748,
	1060,	1312,	2142,	79,	1192,	-732,	1256,	696,	100,
	-440,	-919,	195,	-1876,	1356,	-1128,	-1505,	-1072,	-964,
	1197,	936,	-395,	928,	530,	319,	-158,	927,	1658,
	180,	1871,	2095,	1567,	-137,	-453,	86,	-211,	1727,
	-269,	2108,	658,	-131,	693,	-218,	1385,	2369,	2506,
	1923,	208,	1905,	1497,	463,	1656,	1393,	1094,	-3077,
	-2933,	-2795,	-2348,	-1680,	-2318,	-2429,	-3206,	-1395,	-2979,
	-1042,	-693,	-263,	-2438,	-1087,	654,	-563,	-1740,	-353,
	-1066,	114,	607,	1201,	482,	-1257
};

__ro_hinv _q15 conv2_bias[] = {
	-34,	-4,	70,	13,	-3,	-7,	42,	-96,	11,
	-62,	-33,	61,	-7,	65,	105,	46
};

