#include <params/include/conv3_Conv.h>

__ro_hinv mat_t conv3_weight_meta = {
	.dims = {120, 16, 5, 5},
	.len_dims = 4,
	.strides = {400, 25, 5, 1},
	.data = (fixed *)conv3_weight
};

__ro_hinv mat_t conv3_bias_meta = {
	.dims = {1, 120},
	.len_dims = 2,
	.strides = {120, 1},
	.data = (fixed *)conv3_bias
};

__ro_hinv _q15 conv3_weight[] = {
	1590,	1719,	3212,	1817,	106,	-398,	-1486,	-799,	845,
	-1603,	-580,	-287,	-2297,	33,	-110,	-722,	1073,	-1246,
	-1429,	-46,	-1023,	781,	234,	-562,	-1473,	14,	2254,
	1651,	2312,	777,	-1776,	-937,	-1198,	-608,	881,	-1372,
	-1303,	798,	-743,	697,	233,	371,	-366,	1742,	-833,
	-1082,	-740,	1158,	276,	1334,	-15,	231,	842,	478,
	-240,	-2391,	-1752,	-457,	349,	222,	-40,	-928,	-355,
	-309,	-2116,	1210,	1018,	1161,	-265,	-1019,	-43,	-1237,
	-1600,	-1656,	-1345,	2237,	1971,	750,	-52,	256,	959,
	372,	-8,	3,	-52,	1546,	-162,	-839,	-86,	-1560,
	1431,	324,	-1123,	-134,	-844,	928,	704,	1021,	423,
	-1265,	-1214,	-654,	441,	302,	-1198,	156,	2263,	2000,
	-288,	-93,	878,	1091,	-755,	662,	603,	-7,	33,
	142,	58,	-714,	1117,	1932,	964,	-19,	-762,	1872,
	-52,	-249,	-1255,	-570,	3718,	1890,	1176,	-57,	240,
	707,	-793,	-651,	-361,	-173,	50,	66,	297,	-773,
	-1026,	1207,	250,	-534,	-840,	-1135,	-779,	-989,	-7,
	-409,	-721,	734,	690,	812,	833,	-1356,	1642,	1565,
	-855,	1515,	592,	-108,	1696,	775,	1533,	275,	-714,
	12,	1473,	-456,	-870,	888,	2893,	2249,	691,	65,
	163,	1380,	852,	-143,	1133,	-79,	-108,	-1004,	-1326,
	54,	-274,	624,	579,	-228,	-1304,	-488,	-602,	1151,
	1285,	976,	2273,	950,	1925,	1152,	-977,	-392,	1765,
	349,	730,	906,	-1714,	-398,	813,	-1268,	581,	853,
	510,	284,	-611,	-60,	-358,	-271,	1274,	484,	-426,
	113,	-517,	186,	914,	-578,	251,	997,	1317,	320,
	761,	557,	-1217,	1703,	930,	0,	-676,	391,	-972,
	362,	541,	-511,	-921,	-1154,	352,	110,	-379,	1386,
	1132,	1010,	-38,	-1854,	354,	1165,	58,	-70,	300,
	-1253,	215,	-341,	-216,	-497,	-839,	999,	-483,	-1667,
	47,	604,	-505,	-339,	-1063,	983,	-69,	-226,	-220,
	-362,	3476,	2222,	-439,	581,	-270,	3064,	1200,	-1113,
	-215,	-206,	416,	830,	34,	180,	-142,	1118,	2764,
	578,	585,	-1399,	-3081,	-1970,	41,	-93,	-1344,	233,
	1419,	743,	569,	-1261,	1058,	1777,	1686,	-352,	155,
	-189,	-589,	-240,	-965,	-498,	722,	-481,	-462,	-1528,
	-2112,	907,	94,	-613,	168,	-764,	1014,	1541,	1285,
	958,	581,	375,	1427,	4,	1076,	1451,	-963,	256,
	-1052,	-759,	-355,	324,	281,	-994,	186,	485,	-781,
	-47,	1020,	987,	662,	-3631,	-1652,	-1213,	-1500,	-29,
	-2294,	-2080,	203,	861,	-1261,	-1811,	-1316,	385,	370,
	-873,	102,	-1786,	-680,	-2009,	-1206,	1027,	679,	1312,
	337,	7,	135,	-1059,	-615,	88,	-1095,	1258,	1076,
	-419,	-778,	-1161,	1452,	1686,	730,	584,	274,	4,
	29,	330,	-1248,	-689,	-211,	453,	1631,	49,	457,
	149,	435,	1309,	2210,	-669,	411,	-2167,	1284,	2405,
	-417,	-252,	-38,	1102,	2292,	-160,	-154,	-523,	1406,
	1049,	-43,	511,	-146,	-96,	-609,	-759,	-821,	-378,
	-26,	783,	-1681,	177,	-1099,	-713,	585,	477,	522,
	668,	-525,	-1479,	-363,	260,	-237,	452,	-534,	-840,
	925,	-85,	-467,	-2160,	-1119,	-283,	-371,	-761,	-452,
	1476,	249,	-635,	-1318,	-858,	1960,	213,	-151,	-631,
	93,	586,	86,	-504,	-901,	-354,	-1059,	1220,	1047,
	-539,	-1989,	-800,	13,	452,	-547,	-2254,	-159,	-374,
	382,	-906,	-182,	-219,	-277,	182,	-1060,	-392,	778,
	121,	542,	619,	-368,	-859,	-27,	1104,	936,	10,
	-315,	151,	411,	443,	733,	-739,	857,	394,	-919,
	-558,	235,	92,	195,	-524,	543,	-629,	-622,	173,
	-103,	-482,	533,	198,	-194,	-522,	-255,	-612,	2058,
	-241,	-1600,	-1635,	-650,	1289,	530,	-316,	-1673,	-1159,
	-925,	715,	378,	369,	415,	-235,	-11,	-256,	68,
	828,	-396,	681,	1242,	834,	-152,	7,	-62,	574,
	1095,	-360,	506,	358,	-818,	550,	-568,	183,	930,
	1111,	-780,	-1135,	672,	-477,	-188,	89,	-650,	250,
	-237,	1453,	534,	-836,	-379,	-30,	402,	-2186,	-826,
	298,	-1270,	1267,	-36,	-210,	1103,	-904,	-545,	1197,
	41,	-133,	762,	43,	45,	1442,	-383,	331,	-387,
	-609,	-996,	-380,	77,	922,	-661,	-625,	-204,	-684,
	301,	160,	-1269,	434,	-1346,	-234,	1665,	-154,	648,
	726,	1060,	549,	380,	-17,	401,	975,	870,	246,
	209,	285,	870,	-214,	283,	151,	-820,	368,	1818,
	211,	633,	589,	377,	-569,	0,	551,	-60,	576,
	711,	-196,	629,	246,	-1180,	-303,	-139,	95,	-102,
	-609,	246,	35,	240,	668,	-266,	-239,	1456,	-29,
	-551,	-243,	-1102,	998,	-364,	103,	36,	287,	946,
	313,	1456,	943,	415,	109,	1386,	754,	-1772,	-779,
	150,	1479,	1720,	-1242,	-1042,	-419,	-903,	1574,	-638,
	-313,	733,	1185,	-515,	554,	-846,	-229,	741,	-271,
	-1100,	696,	632,	1365,	11,	751,	685,	563,	377,
	98,	711,	95,	-1408,	-612,	-515,	528,	-334,	-1688,
	-147,	221,	68,	-57,	-425,	404,	103,	1934,	632,
	-498,	-260,	-610,	765,	647,	-409,	-168,	1267,	1240,
	512,	-747,	-789,	230,	57,	151,	-339,	-247,	-617,
	-1228,	-665,	1258,	-251,	-128,	-227,	829,	212,	-191,
	-883,	-1192,	1595,	1228,	1151,	-178,	-1802,	2049,	3206,
	1198,	-369,	33,	488,	1096,	205,	761,	-1333,	751,
	763,	-493,	-319,	-67,	-1222,	-859,	-247,	558,	-1647,
	-782,	36,	1456,	879,	-1299,	-1169,	-630,	-133,	1048,
	196,	-821,	650,	-409,	-610,	659,	814,	-129,	360,
	-1151,	-708,	316,	-726,	-903,	-590,	-500,	-552,	-255,
	436,	-837,	152,	-845,	504,	-817,	-570,	-88,	814,
	-815,	-50,	-124,	466,	1065,	655,	529,	-609,	-1075,
	-815,	-441,	594,	-466,	463,	139,	-536,	204,	-265,
	56,	1297,	579,	-686,	-32,	-630,	-1061,	-420,	-820,
	156,	-587,	-161,	-439,	-237,	-430,	-515,	-44,	359,
	488,	-232,	-587,	529,	0,	1092,	-189,	-918,	181,
	653,	-68,	-881,	-614,	-721,	-123,	466,	239,	28,
	-399,	-129,	-618,	-357,	-570,	-863,	45,	30,	-939,
	142,	-322,	130,	525,	243,	571,	-170,	495,	-293,
	-916,	-325,	-855,	-309,	-689,	-733,	-254,	254,	463,
	-789,	-698,	-17,	-304,	-744,	71,	-942,	-695,	-335,
	387,	-1010,	687,	-137,	-1133,	219,	-306,	-756,	728,
	-131,	-145,	-201,	536,	-1027,	-207,	52,	465,	-649,
	490,	314,	-773,	88,	554,	-876,	-176,	-272,	635,
	-430,	-635,	-239,	-724,	136,	269,	-127,	336,	108,
	639,	-360,	-142,	-48,	-150,	-610,	-754,	-446,	481,
	-526,	-686,	-868,	241,	200,	-496,	90,	77,	-302,
	-11,	-138,	-707,	-102,	812,	-901,	-616,	-221,	-231,
	-377,	567,	395,	-584,	-786,	-593,	-439,	-406,	-73,
	-791,	-701,	-558,	-113,	358,	-816,	124,	74,	283,
	184,	-695,	-445,	-262,	-518,	-438,	-367,	263,	-663,
	-6,	-331,	-148,	-492,	-258,	-498,	-734,	-983,	-515,
	-865,	-479,	16,	-206,	-220,	-457,	-306,	85,	-86,
	589,	-748,	-159,	-238,	-590,	662,	-930,	-591,	-615,
	-22,	119,	560,	46,	-145,	-558,	-203,	-225,	-56,
	-139,	-490,	-868,	458,	0,	605,	-429,	630,	-298,
	-434,	-30,	709,	-600,	-25,	475,	55,	375,	-940,
	246,	-428,	201,	-956,	-736,	379,	-725,	339,	-942,
	131,	432,	-70,	34,	-378,	-17,	127,	-421,	67,
	148,	-357,	-817,	-394,	320,	203,	481,	-667,	544,
	-908,	-478,	-410,	272,	-21,	-605,	-832,	-311,	-620,
	370,	-850,	-658,	325,	-672,	-280,	-270,	-6,	-413,
	-317,	-784,	-289,	9,	-592,	229,	-682,	319,	-983,
	-39,	428,	-579,	491,	-330,	309,	305,	423,	157,
	381,	414,	-580,	296,	-504,	-478,	246,	-33,	-228,
	381,	406,	-318,	-373,	-123,	409,	487,	234,	-197,
	-464,	514,	112,	-222,	232,	108,	213,	-425,	245,
	-598,	-501,	-231,	591,	-347,	-434,	40,	-420,	-233,
	44,	554,	-720,	66,	-329,	702,	-260,	664,	-488,
	409,	-501,	467,	419,	-66,	-482,	272,	607,	-12,
	-449,	-906,	705,	318,	-532,	-777,	-362,	-455,	-92,
	398,	118,	-866,	-488,	-465,	-967,	180,	54,	-458,
	291,	341,	295,	85,	-278,	73,	-630,	-823,	-350,
	135,	93,	352,	-1564,	-1537,	410,	-39,	-733,	-474,
	1490,	2354,	1937,	-577,	1647,	89,	2412,	721,	-361,
	139,	-501,	2100,	1370,	714,	-479,	-89,	766,	613,
	799,	1835,	-664,	-2113,	-602,	857,	401,	1102,	290,
	-2424,	-1275,	-250,	-244,	-826,	2341,	-274,	-722,	642,
	54,	-1170,	1120,	-534,	-681,	-927,	1220,	1381,	1147,
	-1347,	-2094,	-2137,	660,	401,	-881,	-1200,	794,	-479,
	-985,	-641,	-1017,	14,	575,	249,	-134,	-30,	-824,
	-442,	-770,	-191,	-992,	422,	981,	296,	-2559,	-3588,
	-1740,	-304,	1397,	1007,	-887,	-1748,	18,	297,	211,
	653,	124,	-678,	-222,	1342,	768,	-979,	273,	-550,
	-1270,	62,	-563,	-780,	-420,	1765,	558,	305,	415,
	473,	-354,	-889,	100,	-910,	-199,	0,	-515,	-1983,
	129,	435,	300,	184,	1249,	-131,	-624,	688,	-401,
	516,	303,	37,	-1556,	-1604,	-100,	37,	-355,	-1282,
	-2824,	-725,	107,	-55,	-565,	-1504,	-1854,	-350,	-1052,
	-682,	234,	-65,	615,	-53,	656,	-426,	59,	985,
	-322,	1507,	217,	-272,	-444,	354,	869,	1717,	1054,
	256,	-1200,	-474,	-1257,	-1038,	158,	-361,	-951,	1264,
	-225,	-550,	232,	1196,	15,	383,	-150,	-283,	-1459,
	98,	-412,	-669,	-331,	-1643,	-724,	-864,	-440,	786,
	-1638,	290,	1464,	-180,	536,	456,	111,	947,	-45,
	-12,	761,	238,	378,	569,	-676,	-580,	-1844,	37,
	-272,	-20,	-409,	-905,	-26,	1018,	1098,	-1541,	1026,
	851,	-42,	134,	668,	-1198,	-51,	-580,	359,	-179,
	-49,	-231,	529,	953,	1086,	1087,	202,	-3,	987,
	1140,	2031,	438,	-446,	-637,	380,	-725,	348,	-170,
	715,	726,	103,	-156,	1068,	-257,	794,	1087,	37,
	509,	953,	-2157,	-1835,	-1384,	1163,	1155,	-175,	-467,
	-1449,	-818,	172,	-284,	-802,	612,	602,	-1260,	1049,
	42,	821,	988,	-384,	744,	399,	421,	941,	385,
	607,	421,	46,	96,	-1952,	-1104,	-2330,	-862,	162,
	-417,	-89,	-953,	-745,	404,	-16,	1214,	-11,	-759,
	-211,	-128,	1021,	-696,	133,	529,	-99,	-1056,	-1373,
	-12,	662,	1581,	-713,	1127,	532,	-1218,	-318,	-672,
	-892,	194,	-131,	-172,	-1199,	-663,	985,	1346,	1012,
	359,	-315,	825,	354,	543,	548,	2010,	125,	-660,
	-330,	1154,	1345,	839,	-689,	290,	468,	-425,	-48,
	712,	683,	204,	1490,	-618,	-501,	-492,	816,	50,
	-173,	-500,	1938,	817,	646,	-986,	-89,	302,	175,
	1910,	1643,	-572,	-535,	1515,	-850,	578,	1085,	167,
	345,	1799,	1854,	-186,	-453,	398,	0,	626,	820,
	-2116,	-2677,	-1909,	-1396,	1226,	-1354,	-1839,	-1652,	-1305,
	-8,	-1071,	322,	-772,	-653,	636,	-813,	-269,	-607,
	54,	-529,	618,	406,	-140,	-446,	28,	-1062,	-62,
	425,	667,	-484,	-588,	673,	2121,	-410,	-637,	1558,
	434,	2439,	-1655,	-196,	759,	667,	1480,	-1110,	-126,
	541,	149,	-1076,	2217,	153,	1692,	1384,	-1531,	-1136,
	1361,	-225,	-248,	1074,	-1539,	-579,	1954,	590,	-3011,
	620,	-833,	-968,	754,	229,	1831,	2889,	-2189,	-3988,
	-1765,	2300,	1081,	772,	-264,	378,	-368,	424,	-993,
	-1180,	-745,	1294,	-1009,	-2274,	211,	125,	1755,	1276,
	263,	-1441,	789,	-989,	-229,	76,	-718,	196,	-2273,
	21,	665,	355,	-173,	563,	2004,	-1001,	-212,	119,
	47,	-407,	1999,	290,	1196,	126,	668,	2508,	390,
	-285,	-889,	1196,	704,	-1483,	-2167,	-1006,	-600,	-650,
	655,	1125,	-513,	356,	24,	1416,	94,	1062,	153,
	-1534,	-458,	112,	-646,	-18,	-197,	-2345,	-919,	1351,
	405,	159,	-821,	-1104,	-206,	903,	-1283,	-596,	-461,
	943,	1339,	-1646,	-1418,	-256,	918,	1330,	-2129,	-769,
	821,	-638,	529,	1860,	-833,	154,	-863,	-47,	2167,
	1686,	-935,	-1406,	-1256,	254,	670,	265,	-250,	-579,
	258,	810,	-469,	-761,	-245,	-390,	515,	182,	175,
	1702,	-663,	-1665,	-646,	-901,	-292,	-1240,	-291,	-1872,
	129,	761,	-273,	-36,	-1332,	538,	425,	-208,	-1005,
	939,	1266,	876,	671,	-1924,	-880,	999,	-1501,	-835,
	1026,	-773,	856,	-683,	629,	-143,	1203,	1301,	-309,
	422,	-638,	-624,	854,	1290,	-97,	-952,	1204,	229,
	842,	758,	-944,	-471,	1015,	227,	817,	455,	-1828,
	659,	-230,	289,	1075,	747,	-939,	-1126,	-7,	377,
	879,	692,	392,	1469,	1627,	24,	-297,	54,	-324,
	1566,	-1567,	41,	-43,	-423,	-1667,	824,	-205,	0,
	-24,	1313,	3161,	1073,	-127,	614,	76,	-20,	341,
	723,	-55,	-364,	-56,	-387,	-1689,	-835,	975,	-928,
	1126,	-679,	-1040,	48,	544,	297,	1737,	383,	-515,
	-1000,	-1111,	-518,	-502,	-948,	-708,	191,	-942,	-1032,
	774,	331,	206,	525,	-2175,	11,	1819,	203,	1775,
	365,	-2156,	-1174,	-756,	-737,	866,	-66,	335,	-985,
	83,	420,	214,	478,	-316,	-388,	-912,	-1150,	-102,
	-201,	-359,	986,	1572,	740,	2527,	990,	1,	-354,
	-199,	-80,	-553,	1951,	1253,	-2915,	-2998,	350,	929,
	122,	744,	-156,	-860,	979,	863,	667,	910,	594,
	-413,	398,	408,	-1578,	-613,	-222,	-794,	2108,	1279,
	-193,	-527,	354,	3051,	1877,	913,	-19,	365,	852,
	-518,	-533,	546,	1302,	-914,	2306,	-1756,	-237,	637,
	289,	-1174,	-58,	-413,	367,	1400,	908,	1620,	-1981,
	659,	-49,	2367,	2885,	770,	-729,	637,	1163,	2225,
	-2686,	-695,	-722,	574,	-464,	-358,	347,	480,	-811,
	44,	543,	-450,	590,	353,	479,	2138,	-580,	-1826,
	-1594,	-1585,	515,	-110,	-1749,	-1379,	25,	541,	-1530,
	1766,	-1337,	90,	-1556,	1254,	799,	1001,	776,	-557,
	-969,	-4259,	-2115,	676,	445,	1561,	464,	956,	33,
	221,	35,	1385,	-115,	-1407,	-210,	1431,	-655,	-1816,
	-1631,	539,	1290,	544,	-838,	427,	-785,	-2137,	428,
	1268,	860,	164,	782,	-597,	-1986,	-822,	713,	406,
	164,	72,	-629,	1568,	169,	461,	-125,	555,	1077,
	-66,	836,	892,	2453,	-1750,	-1316,	375,	647,	1099,
	699,	1032,	803,	-863,	-744,	-18,	555,	-1601,	-1001,
	523,	-874,	-254,	-1162,	692,	446,	971,	129,	-849,
	-451,	793,	-1103,	-1004,	-1863,	-824,	-747,	904,	-163,
	-277,	-1097,	1079,	-99,	-719,	249,	776,	208,	-358,
	849,	812,	-840,	571,	-238,	-597,	-563,	742,	1189,
	-147,	-878,	-1029,	-1091,	594,	647,	-1145,	-213,	-350,
	274,	-842,	-290,	94,	528,	239,	667,	-464,	142,
	271,	-2,	903,	-246,	262,	1012,	1517,	1115,	-984,
	-2010,	-424,	319,	-69,	78,	1424,	-651,	-1082,	-431,
	-105,	337,	628,	1124,	262,	864,	1127,	-317,	-73,
	568,	-1009,	851,	-649,	505,	405,	-264,	-1578,	155,
	1508,	628,	-1558,	-2746,	-1345,	316,	105,	-768,	-351,
	74,	-502,	1078,	-1164,	-1596,	12,	1102,	1752,	1292,
	-2072,	-1224,	176,	-200,	-473,	437,	-600,	9,	1032,
	-165,	-599,	976,	47,	-172,	651,	-764,	-50,	-2,
	442,	151,	-400,	1265,	185,	972,	1791,	-541,	201,
	1526,	-775,	1293,	328,	-1369,	143,	-61,	-294,	500,
	-279,	-750,	-162,	578,	1453,	767,	731,	951,	640,
	89,	171,	-415,	158,	1259,	-1001,	-997,	627,	-257,
	-391,	-58,	237,	614,	536,	-94,	-774,	-353,	747,
	222,	-724,	332,	-479,	-503,	377,	-828,	-902,	-556,
	-85,	1459,	312,	323,	103,	1495,	275,	-692,	-95,
	-1154,	178,	370,	320,	35,	-126,	-283,	108,	-8,
	154,	-214,	14,	-1056,	-137,	841,	-236,	446,	-260,
	-2064,	612,	1553,	23,	333,	-1998,	-1513,	809,	675,
	-841,	-2849,	-25,	839,	602,	-72,	-623,	-150,	-746,
	98,	-1365,	-1060,	-274,	544,	313,	-167,	1100,	1136,
	1543,	1838,	158,	489,	-1341,	-2444,	-466,	-1325,	130,
	-1098,	-2675,	-1933,	1074,	132,	263,	430,	1000,	1181,
	764,	-19,	457,	882,	289,	-225,	-985,	-656,	297,
	515,	-570,	196,	288,	1151,	124,	887,	312,	845,
	1302,	500,	503,	1482,	1432,	-797,	1008,	294,	1327,
	-1133,	-217,	-854,	-827,	673,	-2570,	-378,	-627,	-30,
	245,	-565,	1438,	-406,	510,	1220,	-579,	1105,	354,
	456,	-391,	-183,	-635,	242,	-549,	83,	380,	347,
	-639,	-1542,	1229,	543,	646,	728,	-591,	-1283,	46,
	1141,	1634,	-34,	-876,	-123,	104,	-448,	-406,	797,
	7,	321,	-7,	-13,	-247,	-58,	683,	247,	-243,
	175,	-45,	290,	235,	-73,	236,	84,	134,	150,
	-70,	657,	487,	214,	214,	-769,	-612,	413,	475,
	-372,	-801,	-257,	-328,	-706,	-605,	550,	318,	742,
	252,	289,	471,	-321,	53,	34,	-694,	-332,	-775,
	712,	-613,	306,	-401,	243,	-1,	-312,	348,	-503,
	-415,	-636,	-257,	593,	-667,	-799,	-441,	178,	153,
	590,	668,	658,	-765,	-254,	-899,	-765,	394,	708,
	408,	612,	-674,	298,	183,	735,	136,	276,	-372,
	309,	80,	-671,	692,	-557,	-907,	533,	553,	-464,
	209,	-741,	-787,	-645,	-751,	-833,	-704,	231,	434,
	-233,	-269,	-423,	-521,	-199,	162,	-70,	288,	-307,
	155,	-632,	606,	508,	586,	-1,	-862,	482,	536,
	-407,	613,	315,	13,	-52,	-508,	-547,	-761,	212,
	-409,	570,	674,	-51,	-202,	379,	-279,	-721,	557,
	470,	-907,	288,	252,	596,	394,	-820,	-325,	-791,
	-455,	-270,	-270,	678,	682,	-397,	-523,	-894,	-624,
	-620,	441,	606,	-54,	239,	393,	500,	-82,	-804,
	-702,	501,	216,	365,	-147,	443,	99,	-158,	-385,
	-56,	-751,	-812,	-345,	-252,	-492,	-814,	-721,	-435,
	288,	171,	-872,	-37,	639,	148,	667,	343,	-519,
	155,	15,	-884,	-73,	-235,	104,	294,	-499,	448,
	-767,	-99,	-373,	-487,	-265,	-593,	-679,	-544,	-452,
	149,	-332,	-302,	-791,	-563,	467,	-195,	-760,	-282,
	-107,	-717,	-239,	-582,	-847,	-909,	482,	507,	-745,
	-260,	-578,	-652,	-680,	-41,	-257,	-567,	345,	292,
	-699,	665,	-369,	-752,	357,	-665,	321,	-46,	-563,
	262,	-22,	758,	80,	378,	550,	-226,	-773,	168,
	486,	616,	-373,	232,	-743,	502,	-729,	366,	225,
	389,	614,	454,	-275,	-19,	-568,	-695,	-412,	247,
	604,	-410,	-124,	132,	189,	-200,	30,	-740,	265,
	-633,	255,	-74,	-189,	511,	-348,	-407,	454,	386,
	-336,	538,	-508,	-881,	-607,	240,	-269,	817,	661,
	197,	-264,	547,	453,	624,	250,	76,	-755,	405,
	-324,	-265,	-167,	165,	-38,	480,	-648,	662,	-621,
	-828,	-389,	-514,	589,	133,	-879,	528,	-301,	-44,
	-772,	-164,	-123,	223,	-490,	-329,	298,	-16,	106,
	317,	239,	356,	-682,	-82,	-136,	-900,	-868,	662,
	-48,	135,	337,	-95,	517,	134,	594,	-82,	-788,
	-346,	-693,	-691,	41,	-595,	-872,	-412,	-756,	509,
	110,	-158,	8,	-792,	373,	527,	626,	56,	102,
	-329,	-582,	-576,	96,	203,	-786,	741,	-539,	476,
	222,	-90,	-612,	674,	176,	134,	529,	296,	-480,
	-542,	-156,	114,	-417,	-506,	364,	-447,	480,	-378,
	494,	-944,	34,	512,	579,	678,	512,	801,	-960,
	981,	488,	-259,	71,	-282,	-187,	-1592,	516,	-683,
	948,	-323,	-639,	6,	-23,	984,	434,	1145,	-1057,
	-1237,	-308,	1193,	255,	-115,	-1501,	704,	3834,	3034,
	518,	-123,	-537,	-831,	1491,	848,	-17,	-1871,	-4657,
	-2240,	-124,	405,	469,	1093,	465,	-829,	-467,	255,
	70,	-192,	1148,	-461,	385,	-936,	956,	451,	288,
	-1104,	-1993,	-2051,	-253,	876,	-1580,	-716,	-433,	462,
	857,	815,	1401,	780,	-1969,	224,	67,	-826,	-1360,
	-1009,	-631,	477,	-782,	-381,	-2640,	-1890,	-719,	226,
	-97,	848,	-341,	-566,	-1086,	732,	1569,	1884,	1007,
	1623,	117,	383,	-720,	542,	-449,	647,	-580,	-1281,
	-808,	1808,	341,	124,	119,	-1419,	-779,	170,	-390,
	1109,	452,	1081,	-591,	523,	-73,	263,	-389,	-687,
	-765,	-109,	440,	45,	669,	-1801,	-44,	-501,	-365,
	-257,	-727,	555,	-1251,	-251,	-7,	-373,	693,	-334,
	547,	1235,	-209,	-437,	-402,	426,	411,	-214,	586,
	461,	745,	-70,	177,	-1080,	89,	1421,	601,	165,
	-1161,	-249,	203,	-400,	-699,	758,	851,	867,	469,
	-582,	699,	953,	1518,	-285,	-879,	-166,	-719,	1971,
	918,	-891,	469,	1486,	-351,	249,	285,	-1077,	1088,
	1423,	-657,	39,	-98,	-1941,	-566,	827,	-683,	293,
	-752,	274,	-73,	163,	-812,	574,	1059,	435,	-869,
	-420,	-199,	282,	54,	34,	-493,	966,	-531,	887,
	555,	-756,	-1451,	300,	135,	790,	850,	-13,	1070,
	-411,	-178,	557,	-14,	-400,	443,	12,	-766,	231,
	-112,	102,	-464,	-54,	1697,	233,	-705,	-263,	451,
	998,	411,	363,	147,	511,	-438,	-817,	-633,	-1023,
	-256,	16,	585,	44,	-99,	-771,	570,	747,	1705,
	-433,	-280,	-1200,	-244,	1191,	-195,	-581,	-1788,	-156,
	179,	43,	593,	1455,	227,	-452,	-790,	766,	1247,
	-471,	396,	-728,	-354,	637,	-1006,	-311,	-409,	1713,
	19,	-1039,	-240,	-272,	819,	1771,	667,	1343,	1562,
	573,	-231,	41,	150,	746,	-596,	-1069,	-878,	-122,
	-814,	-1003,	-1258,	-1019,	1979,	-533,	-2761,	-825,	20,
	2,	180,	-969,	1175,	1494,	1661,	1798,	1710,	2667,
	2065,	1218,	-993,	-295,	-425,	78,	-132,	519,	1548,
	1741,	236,	-1050,	567,	1193,	630,	272,	326,	-288,
	-285,	490,	643,	384,	-810,	-369,	-1244,	-1549,	-1019,
	-96,	-1640,	-302,	-786,	847,	1217,	406,	156,	1087,
	2559,	1554,	129,	-269,	-279,	659,	375,	1288,	365,
	103,	-2893,	621,	-1453,	-2255,	-963,	-1592,	-298,	801,
	269,	222,	452,	-758,	610,	-728,	-492,	-107,	-982,
	-1089,	-741,	-940,	-324,	-1716,	535,	108,	-40,	-417,
	514,	271,	1063,	1465,	1436,	-428,	-1692,	-2307,	-1062,
	-287,	691,	459,	-3089,	-1449,	431,	1459,	897,	-95,
	-1380,	-1165,	810,	-1004,	815,	1984,	376,	-1227,	-983,
	-2372,	-1447,	25,	205,	551,	-1095,	1579,	1842,	70,
	-342,	207,	1399,	1473,	1204,	585,	675,	-398,	-840,
	-205,	1920,	511,	-2317,	-1425,	-435,	-337,	251,	340,
	-917,	-2200,	-573,	1107,	1741,	301,	-798,	1920,	407,
	-1049,	7,	692,	1380,	373,	-435,	327,	1749,	1934,
	844,	501,	1411,	179,	-111,	-81,	909,	-917,	-2077,
	-200,	1446,	2255,	895,	-2744,	-1735,	-257,	351,	-430,
	3286,	2427,	2120,	551,	791,	968,	3123,	3513,	2437,
	892,	-1100,	-2229,	-1328,	-536,	-120,	624,	3,	-1309,
	-635,	64,	670,	164,	-308,	1272,	451,	557,	715,
	993,	345,	1321,	-147,	79,	43,	-382,	-435,	702,
	765,	251,	1379,	759,	-1514,	-692,	1170,	2132,	1183,
	-1641,	-300,	469,	1942,	-158,	-467,	1212,	698,	49,
	-390,	508,	1569,	1465,	621,	473,	675,	1292,	584,
	1660,	1208,	732,	-613,	-135,	121,	457,	557,	1008,
	193,	-384,	738,	716,	-526,	1836,	-127,	698,	-877,
	-1388,	104,	-1415,	231,	-284,	949,	-1102,	1031,	-52,
	-316,	-1948,	-578,	1912,	-43,	876,	-562,	-487,	711,
	1010,	547,	-659,	181,	-587,	-310,	294,	2131,	-258,
	-57,	-759,	793,	1208,	1040,	1234,	675,	428,	-643,
	-232,	1529,	341,	-241,	-955,	-769,	328,	1229,	847,
	609,	-28,	-331,	-347,	822,	583,	537,	1035,	609,
	252,	617,	309,	96,	252,	789,	194,	-1818,	-589,
	294,	1104,	-1029,	-985,	760,	782,	-1271,	-1822,	-1356,
	647,	1136,	-1066,	-1346,	-277,	95,	599,	1360,	1154,
	1704,	815,	-366,	-1541,	971,	16,	332,	532,	-740,
	793,	-25,	700,	888,	648,	723,	-168,	-287,	40,
	351,	1989,	1933,	1537,	189,	-50,	-255,	863,	1010,
	232,	-26,	-1054,	1008,	709,	-640,	-1572,	-417,	2593,
	406,	840,	-1534,	179,	265,	573,	1190,	-326,	-150,
	335,	-877,	-469,	1742,	766,	-244,	406,	387,	241,
	763,	-578,	23,	-255,	514,	-1187,	-1569,	780,	1217,
	1646,	2003,	997,	887,	422,	-81,	793,	1529,	1843,
	56,	-2652,	-2383,	-2514,	-1518,	-554,	351,	-919,	-1443,
	-1147,	-610,	-406,	364,	-570,	386,	-495,	-1559,	-1889,
	-2275,	-1171,	928,	354,	-1129,	-1761,	-727,	275,	1303,
	1775,	1365,	607,	-286,	-613,	-427,	-326,	-360,	611,
	1289,	1158,	796,	1239,	1244,	-359,	-275,	-388,	-489,
	912,	1600,	-1080,	-1349,	-1093,	-491,	1104,	861,	1095,
	1281,	-1222,	-1105,	621,	1140,	1276,	893,	-1490,	408,
	1115,	270,	-59,	647,	1832,	121,	-152,	-547,	1816,
	1470,	2456,	1758,	18,	-1348,	-179,	1168,	1485,	-29,
	898,	-1176,	-2718,	-722,	1077,	222,	-743,	820,	-486,
	-344,	-1487,	-223,	1371,	2065,	5,	-752,	1308,	260,
	4575,	2613,	1396,	226,	-1189,	-466,	-1426,	-619,	838,
	345,	451,	312,	-143,	1188,	-1434,	-3108,	-393,	750,
	1086,	29,	-1951,	-1543,	40,	-233,	540,	-815,	-1489,
	-78,	1006,	-724,	-392,	-112,	1077,	-293,	-636,	-1134,
	-489,	212,	-753,	-1157,	181,	1885,	-278,	-1021,	-491,
	706,	2064,	-214,	1320,	1679,	627,	2766,	994,	479,
	633,	941,	11,	1930,	590,	-312,	-1040,	480,	1221,
	35,	-341,	1252,	-82,	-47,	2069,	1855,	4,	871,
	-1901,	379,	1094,	661,	924,	209,	-1197,	-193,	-644,
	50,	104,	643,	754,	684,	1009,	1186,	392,	846,
	-43,	49,	706,	607,	-714,	-843,	-787,	-531,	283,
	1,	46,	300,	768,	51,	403,	769,	235,	965,
	-830,	188,	-655,	-1036,	2920,	365,	-4,	-659,	-508,
	-55,	545,	868,	882,	-7,	-722,	920,	2165,	1111,
	1117,	-767,	303,	1185,	1154,	1029,	-172,	796,	-273,
	887,	34,	861,	2203,	1050,	-102,	1171,	443,	-111,
	-1161,	-1934,	-701,	427,	-165,	-1560,	-1048,	6,	53,
	-570,	-283,	29,	171,	551,	1066,	523,	-93,	660,
	-48,	843,	-1686,	-1763,	-358,	604,	33,	522,	760,
	-423,	-433,	525,	1417,	-165,	511,	1106,	0,	1327,
	958,	701,	972,	1061,	-1153,	-888,	27,	779,	476,
	517,	-600,	-101,	907,	863,	1664,	293,	419,	461,
	-109,	1201,	1752,	461,	1195,	-70,	-91,	444,	1029,
	611,	1032,	1678,	795,	858,	1089,	1220,	1471,	778,
	-884,	1184,	-1661,	-1193,	-418,	-1139,	-86,	-1027,	-1169,
	661,	162,	-190,	837,	-146,	82,	159,	1079,	-186,
	-1055,	-314,	117,	404,	-338,	-649,	-989,	581,	273,
	701,	1503,	790,	592,	-198,	154,	354,	310,	784,
	-202,	978,	-262,	260,	254,	198,	-693,	-49,	-509,
	-433,	2653,	1438,	957,	937,	304,	1768,	-714,	4,
	398,	480,	-891,	-1065,	358,	128,	-385,	-204,	618,
	836,	309,	1380,	-717,	52,	-532,	600,	1359,	1164,
	1704,	3298,	1764,	1746,	257,	1340,	269,	-83,	-326,
	102,	127,	-830,	-717,	-595,	-222,	-1546,	-1699,	-558,
	-1099,	513,	1532,	1902,	1663,	828,	441,	-436,	-1269,
	398,	-221,	671,	-1165,	-1871,	-413,	-280,	1209,	77,
	563,	331,	630,	-17,	-497,	717,	946,	539,	-454,
	506,	1771,	-389,	133,	245,	137,	81,	-1080,	-789,
	186,	-2351,	-431,	-2825,	-443,	-97,	-153,	997,	-1763,
	992,	1143,	285,	225,	-574,	-726,	356,	-787,	-1533,
	-2133,	32,	145,	-1774,	-419,	-359,	256,	1659,	1492,
	892,	748,	2173,	-499,	631,	2219,	1948,	1918,	-1021,
	930,	907,	500,	1154,	-297,	939,	-368,	1158,	-638,
	-81,	1628,	-769,	1455,	606,	868,	117,	-1742,	-4626,
	-1760,	768,	-77,	-1087,	-2053,	349,	-477,	-115,	-1493,
	-1244,	-286,	-231,	2086,	-858,	-1335,	1064,	-595,	-282,
	1051,	623,	853,	-1158,	-262,	841,	671,	1656,	269,
	-644,	-1112,	1032,	-298,	-148,	887,	2042,	-265,	415,
	-951,	384,	221,	-1089,	-594,	-1863,	683,	1281,	1267,
	-1865,	-1551,	341,	513,	-583,	-2267,	740,	481,	1734,
	323,	-1580,	509,	-420,	1347,	630,	-1249,	-1411,	-193,
	-858,	-1302,	-487,	-59,	-1243,	1590,	2023,	-1041,	-12,
	-459,	866,	1719,	502,	719,	304,	760,	2989,	2098,
	1323,	-662,	941,	43,	-819,	-1470,	-1256,	513,	644,
	-374,	704,	-60,	-783,	899,	1707,	721,	549,	1012,
	1350,	179,	-132,	823,	1184,	171,	460,	113,	-134,
	2271,	2488,	-129,	108,	-125,	90,	-153,	-409,	664,
	-36,	150,	239,	-1525,	755,	561,	178,	976,	-51,
	-197,	942,	1621,	655,	-53,	490,	21,	50,	929,
	335,	-953,	-861,	63,	-750,	-1582,	521,	-1425,	18,
	545,	439,	729,	39,	-348,	1016,	302,	93,	329,
	1211,	771,	989,	-392,	837,	1955,	1807,	-496,	494,
	488,	-951,	1202,	132,	722,	1873,	1088,	1249,	849,
	166,	-326,	1173,	-78,	-113,	-329,	414,	-407,	991,
	321,	-250,	687,	377,	993,	635,	-2,	-182,	556,
	1176,	-323,	-343,	759,	-94,	107,	289,	-634,	-815,
	297,	-603,	394,	589,	537,	1433,	1613,	1282,	173,
	91,	701,	206,	898,	-181,	-378,	-80,	-552,	154,
	817,	698,	-1129,	-226,	1083,	-272,	-448,	-720,	-182,
	-441,	428,	610,	-580,	-543,	-699,	-1133,	198,	734,
	-1160,	-943,	-349,	1448,	780,	-430,	1185,	-675,	503,
	1185,	-669,	-1448,	-595,	-951,	182,	607,	-240,	-432,
	790,	440,	787,	-427,	661,	220,	135,	896,	742,
	-54,	-794,	204,	-400,	-1178,	1894,	-758,	701,	-78,
	130,	2873,	631,	24,	1430,	541,	1025,	-100,	328,
	734,	-685,	-160,	1760,	933,	390,	-302,	-1764,	-523,
	-162,	-1111,	-1941,	-239,	-283,	-677,	306,	1673,	1061,
	505,	1142,	596,	1653,	108,	1032,	1080,	1923,	2527,
	14,	-483,	1523,	1269,	917,	-383,	144,	-1084,	-254,
	-82,	905,	1931,	-20,	634,	697,	750,	537,	-1107,
	-803,	-678,	-378,	-900,	116,	420,	247,	-451,	-250,
	-173,	-774,	-794,	289,	-163,	263,	-495,	51,	-1286,
	-64,	-640,	1231,	810,	-1377,	-472,	-1029,	-127,	-2068,
	-1315,	646,	-156,	-1447,	-2198,	-781,	-1390,	-163,	-645,
	-1467,	-418,	694,	-33,	346,	-874,	-260,	-501,	-527,
	-510,	-1704,	-532,	-345,	-57,	-492,	-1954,	1623,	1078,
	1561,	1478,	-65,	769,	279,	-11,	-225,	-393,	658,
	-75,	-1125,	41,	674,	650,	-968,	-2630,	-1514,	264,
	-417,	463,	-2246,	-565,	606,	-169,	-291,	-1351,	783,
	1494,	10,	-612,	916,	786,	1141,	-1620,	-559,	1170,
	1560,	597,	-1275,	1100,	1656,	1318,	961,	-444,	-419,
	2715,	-642,	28,	-389,	-1166,	1862,	-236,	-1378,	2320,
	1288,	2443,	2068,	-319,	-1923,	989,	1077,	342,	-84,
	128,	2071,	699,	-1400,	-2747,	-44,	742,	31,	-361,
	-1261,	-1510,	1245,	-788,	-578,	-638,	1397,	575,	221,
	2116,	1215,	-397,	2111,	1255,	-691,	-632,	540,	748,
	16,	451,	-99,	-2278,	-3225,	101,	696,	163,	-2515,
	-2224,	-14,	-631,	-493,	1444,	2433,	2251,	1575,	1788,
	228,	-43,	81,	-123,	24,	390,	-190,	166,	1242,
	1104,	2058,	938,	299,	1084,	-53,	911,	832,	607,
	394,	-863,	-164,	1126,	1449,	1107,	577,	2154,	1754,
	1695,	705,	-635,	1704,	2177,	1915,	-381,	-717,	-1075,
	645,	480,	-745,	-1456,	-1272,	1191,	713,	334,	39,
	-490,	200,	-574,	820,	656,	539,	57,	-526,	-263,
	615,	164,	-127,	-313,	839,	511,	277,	-42,	128,
	-898,	145,	592,	1830,	178,	600,	1053,	-562,	543,
	1617,	993,	385,	238,	1061,	979,	895,	1159,	-70,
	1300,	714,	-203,	-225,	124,	2316,	1840,	-903,	-159,
	478,	-79,	329,	-407,	39,	-142,	451,	463,	304,
	61,	860,	1605,	600,	594,	1140,	474,	590,	-7,
	-575,	-982,	-734,	1283,	1556,	-1062,	37,	181,	488,
	1783,	182,	107,	-326,	-756,	1146,	1684,	270,	248,
	-1146,	-443,	391,	998,	-816,	-1138,	-292,	566,	1049,
	1013,	720,	699,	734,	-261,	529,	1685,	-573,	1352,
	1231,	116,	631,	-1391,	-73,	104,	-697,	2218,	1823,
	-216,	144,	-248,	2087,	2125,	532,	-1193,	-1065,	-497,
	871,	-6,	-971,	-528,	-1382,	-512,	51,	-1153,	2265,
	646,	-600,	1676,	326,	963,	870,	1046,	1004,	-522,
	1188,	1137,	489,	859,	-214,	1246,	811,	-1294,	15,
	62,	774,	443,	179,	-656,	-105,	102,	1497,	1183,
	-683,	63,	-92,	1264,	1736,	674,	-1139,	294,	539,
	-397,	-795,	603,	-1069,	-1792,	-2384,	-2473,	-1655,	1141,
	-590,	93,	568,	1251,	864,	1024,	3604,	4361,	877,
	-607,	-1618,	-1181,	-358,	392,	-283,	-650,	98,	962,
	915,	1381,	1892,	-127,	598,	87,	1180,	1644,	-160,
	-785,	610,	160,	-32,	-1788,	-392,	-267,	-2018,	-1197,
	582,	1262,	685,	-595,	-1825,	-515,	-1740,	1354,	848,
	681,	360,	2042,	-866,	1630,	192,	968,	968,	-852,
	244,	-912,	-1688,	46,	-340,	1570,	886,	386,	-676,
	-666,	2159,	1991,	2024,	447,	-1307,	-528,	400,	-438,
	1121,	-1435,	-276,	-176,	-648,	483,	-26,	-55,	70,
	986,	369,	528,	128,	-58,	-1698,	-710,	1168,	239,
	-1779,	-1775,	-1912,	-983,	-272,	-325,	1566,	2398,	1251,
	351,	91,	-618,	2834,	2021,	433,	-498,	-603,	-182,
	-200,	406,	880,	1816,	2030,	-602,	1199,	838,	469,
	-2336,	-1845,	91,	-653,	331,	-3845,	-2684,	-1384,	-384,
	-35,	-1549,	-1295,	2269,	936,	919,	-680,	-340,	-207,
	756,	564,	694,	-397,	-946,	1234,	452,	-1075,	-627,
	-1713,	553,	742,	-138,	292,	-1468,	1134,	446,	-46,
	257,	1582,	1659,	68,	1117,	315,	1621,	-85,	177,
	4,	-1225,	1233,	1261,	-307,	628,	260,	-721,	924,
	1650,	866,	1473,	-3756,	-513,	-208,	427,	-357,	-24,
	-1287,	61,	283,	68,	-98,	506,	-629,	511,	737,
	537,	878,	-36,	-704,	679,	1293,	630,	-785,	107,
	-1164,	256,	650,	-702,	-128,	443,	-520,	697,	-75,
	388,	-66,	2127,	499,	241,	-1316,	-416,	2367,	382,
	-336,	32,	-1328,	1104,	-148,	-273,	-4,	543,	-1366,
	831,	611,	982,	1059,	-949,	25,	431,	675,	775,
	-431,	703,	524,	373,	425,	-622,	275,	-510,	836,
	-164,	1158,	157,	-511,	-2670,	-44,	1432,	-1131,	-1189,
	-1016,	-672,	1261,	1486,	-44,	-359,	74,	145,	526,
	-819,	-2214,	-650,	1656,	338,	41,	-977,	-795,	1295,
	-230,	681,	-181,	-248,	-186,	627,	1538,	232,	1598,
	-610,	-142,	-634,	-1044,	-430,	239,	137,	-1015,	-804,
	-653,	1170,	-471,	685,	-1764,	-600,	131,	1517,	1608,
	-466,	218,	-47,	477,	1498,	433,	-159,	-340,	215,
	-475,	587,	973,	-492,	-666,	-14,	862,	-293,	60,
	-1033,	245,	320,	279,	609,	-1513,	-768,	-495,	-510,
	990,	754,	-620,	268,	512,	844,	964,	-636,	-600,
	796,	946,	731,	562,	-843,	-1568,	609,	1526,	1177,
	485,	-297,	-303,	1239,	418,	479,	944,	-1854,	-517,
	291,	96,	57,	-381,	-1015,	-189,	-573,	-442,	743,
	461,	712,	149,	965,	-22,	877,	-418,	-210,	198,
	287,	-1214,	-732,	223,	1138,	-1029,	704,	-259,	-91,
	274,	-2089,	-510,	319,	523,	584,	-17,	816,	1449,
	1089,	1358,	159,	-344,	568,	326,	-1006,	-306,	-920,
	1020,	-976,	-1937,	883,	-103,	-959,	-473,	-1052,	346,
	-1253,	701,	344,	305,	-961,	299,	124,	745,	-157,
	-202,	-584,	-478,	-546,	370,	78,	-1915,	-881,	-563,
	-373,	406,	734,	-155,	-93,	85,	-10,	384,	-387,
	51,	1129,	-572,	169,	24,	938,	1057,	44,	-632,
	-772,	-486,	-190,	-322,	-1287,	-201,	650,	-1711,	1309,
	21,	1187,	-634,	-407,	1532,	1006,	1043,	986,	-696,
	208,	1073,	274,	-1909,	-1739,	1894,	-293,	-319,	-964,
	-1959,	397,	503,	-128,	1313,	294,	-240,	-960,	1412,
	909,	1849,	-410,	-374,	1465,	845,	127,	385,	-1047,
	413,	-2,	-444,	-565,	-1287,	-195,	-186,	-397,	-551,
	-896,	-1158,	-1193,	-681,	-405,	-1267,	29,	-690,	298,
	-422,	-391,	411,	308,	-233,	410,	-196,	-628,	-728,
	-815,	-1083,	-225,	-274,	327,	-458,	-564,	-1464,	164,
	841,	-608,	52,	-926,	-1219,	357,	197,	-1200,	-388,
	-91,	-588,	626,	579,	56,	-717,	-713,	297,	-256,
	97,	-793,	-968,	-506,	572,	447,	-531,	-71,	-458,
	369,	506,	-750,	-279,	-432,	-602,	-352,	-57,	-872,
	-217,	-118,	151,	737,	-119,	-580,	-1402,	-519,	-300,
	-479,	-178,	61,	-1030,	-180,	-979,	-123,	-59,	260,
	-1008,	56,	30,	-583,	14,	626,	-626,	391,	107,
	147,	-134,	-966,	-196,	-948,	-995,	-856,	103,	-111,
	-483,	582,	-480,	-807,	-261,	-80,	407,	-980,	-487,
	-509,	280,	-1365,	-241,	-1251,	-687,	-345,	244,	-1037,
	-1069,	-1210,	11,	320,	-250,	-919,	-793,	-328,	287,
	313,	-205,	-430,	-1340,	101,	497,	-346,	-1252,	-1114,
	-188,	-208,	-558,	449,	112,	-613,	-1295,	-602,	-374,
	-387,	-1671,	-893,	-529,	-951,	-569,	-1121,	-544,	-709,
	-61,	150,	-646,	1032,	135,	531,	-467,	-154,	-217,
	-698,	-578,	-93,	-1071,	-1329,	-831,	-1334,	-285,	392,
	323,	630,	-574,	-122,	-461,	-10,	-717,	67,	-929,
	-1250,	-510,	-1128,	-1393,	-337,	-858,	-1130,	-777,	-1003,
	-1284,	-577,	118,	-829,	10,	-206,	-900,	251,	275,
	24,	-549,	-338,	-747,	-903,	-924,	-122,	11,	-669,
	-542,	208,	-5,	-1147,	-497,	156,	-344,	-1395,	-71,
	-79,	-884,	-324,	111,	-442,	-381,	-1352,	-838,	-502,
	-1391,	-862,	-684,	-345,	-621,	-1502,	250,	-498,	-1311,
	-1552,	-1068,	-1084,	-1418,	-554,	-795,	-132,	-892,	-542,
	-796,	-1195,	-291,	197,	-688,	453,	-572,	-562,	-1103,
	129,	-272,	-871,	1,	-108,	-452,	-860,	-765,	208,
	-666,	50,	-663,	-1080,	-318,	-199,	-650,	-976,	-1170,
	-252,	-548,	-1169,	-1389,	12,	-100,	-520,	-1121,	-1148,
	-1324,	-233,	-892,	-1277,	-602,	-174,	-677,	-240,	-69,
	-1307,	234,	-397,	-1104,	-857,	-670,	-1185,	-1439,	-504,
	145,	40,	-329,	-59,	-325,	-1107,	-881,	691,	-849,
	107,	231,	63,	-847,	-1096,	-176,	433,	-788,	-954,
	-185,	-496,	-316,	-305,	66,	-3,	-1100,	-1005,	-1654,
	-648,	-1106,	-170,	-889,	401,	-1242,	-918,	-234,	423,
	-160,	-959,	-616,	-1352,	-1566,	-809,	-618,	-529,	-1220,
	-117,	-89,	81,	-418,	-370,	-733,	-882,	-820,	-38,
	-80,	-298,	13,	288,	-1256,	-771,	-1041,	470,	552,
	227,	-202,	-585,	-863,	623,	-781,	-1009,	-608,	-24,
	-630,	-914,	-190,	-657,	-772,	-1225,	445,	-187,	-286,
	-444,	15,	-433,	-1038,	-1086,	255,	-597,	-186,	-361,
	-289,	-129,	-1160,	189,	-1179,	-741,	-579,	-509,	-1237,
	554,	-838,	-552,	-1188,	-839,	-497,	-572,	-609,	-753,
	-132,	-374,	104,	120,	138,	158,	-353,	133,	-432,
	-423,	-299,	-878,	-398,	243,	598,	-77,	-177,	-101,
	-481,	14,	-473,	-1236,	-1192,	-338,	-445,	-1288,	349,
	-762,	-678,	-315,	65,	-763,	-99,	240,	-1194,	-1000,
	-880,	-1102,	-606,	812,	-945,	-769,	-1116,	130,	-463,
	223,	-126,	-1080,	653,	-641,	-317,	-8,	-44,	-971,
	123,	-888,	-405,	-439,	106,	-1265,	-344,	-1227,	62,
	-844,	-933,	11,	-594,	-434,	-937,	485,	-786,	619,
	-341,	-672,	-1132,	-222,	-1164,	-609,	-227,	-208,	177,
	0,	-421,	171,	62,	202,	-102,	-970,	2,	-87,
	-1160,	-659,	-417,	-863,	-521,	-638,	-869,	-689,	153,
	-410,	-1007,	-1160,	-788,	-660,	-480,	-685,	-131,	-334,
	-765,	-951,	72,	-64,	-123,	-1088,	-813,	-477,	226,
	-1204,	31,	147,	-709,	-244,	-98,	-661,	-1281,	-1347,
	-1298,	-311,	16,	-69,	-168,	-484,	-761,	109,	-531,
	-1122,	-531,	-354,	-179,	-679,	-277,	-409,	-720,	-862,
	69,	-83,	-562,	-100,	-152,	-477,	-114,	-525,	-558,
	-456,	-1194,	-835,	-217,	595,	-1038,	-1332,	-573,	-425,
	-769,	-230,	-1068,	-1113,	-696,	-760,	236,	-1055,	-126,
	-65,	-619,	-935,	726,	-848,	161,	178,	-353,	-23,
	-1179,	-118,	-632,	-754,	11,	-486,	203,	-1089,	-702,
	-900,	-757,	-646,	-402,	-450,	-776,	-620,	515,	315,
	-271,	-1300,	101,	106,	-911,	-539,	-1016,	-937,	8,
	-560,	-1254,	-144,	-1052,	-514,	-442,	-506,	-1336,	-515,
	-462,	-448,	-699,	-665,	-1135,	-1310,	-829,	-1317,	-53,
	281,	-223,	254,	47,	-503,	546,	-809,	299,	-631,
	-1233,	-1291,	-130,	-205,	-436,	72,	46,	-1287,	-875,
	-986,	345,	-680,	-425,	-116,	750,	180,	-53,	109,
	-797,	-578,	41,	-686,	-38,	-489,	-332,	97,	-105,
	-1071,	-813,	-623,	-302,	567,	-69,	40,	-1289,	-151,
	-148,	-492,	-800,	177,	-417,	-431,	505,	-696,	-1232,
	76,	-642,	375,	-97,	-1125,	-993,	-95,	-632,	206,
	-1223,	-940,	-204,	-1086,	-516,	284,	-335,	210,	217,
	-924,	-51,	135,	228,	-1042,	-608,	-1006,	-440,	-519,
	-112,	-55,	-107,	-301,	-822,	-1006,	-840,	235,	-903,
	-471,	-199,	-263,	-1350,	-667,	-53,	215,	-1268,	60,
	94,	-573,	-133,	196,	205,	-1175,	340,	-625,	225,
	-836,	188,	-408,	-398,	-729,	-162,	-330,	-688,	108,
	-1137,	-1074,	-1162,	-1209,	-191,	-503,	-773,	-1102,	-527,
	-1004,	-584,	628,	237,	-1201,	93,	183,	-756,	-1178,
	-740,	-776,	-193,	78,	136,	516,	-425,	-1247,	-941,
	-451,	613,	-376,	-707,	-1136,	-794,	-787,	-332,	-546,
	-534,	-737,	-341,	-1087,	-265,	-177,	-657,	0,	16,
	-699,	-27,	-124,	137,	705,	1,	68,	672,	-312,
	553,	580,	-790,	328,	-48,	230,	-619,	-46,	-118,
	382,	-535,	-472,	-657,	336,	276,	-206,	-315,	-242,
	39,	-934,	-493,	294,	-637,	79,	-200,	-576,	274,
	258,	168,	363,	-419,	-856,	341,	612,	235,	-244,
	-527,	293,	-115,	547,	-526,	46,	-350,	12,	-568,
	-32,	79,	21,	-157,	64,	583,	-952,	662,	-578,
	-547,	-764,	-791,	-17,	231,	-622,	6,	-499,	804,
	-705,	168,	-611,	27,	-421,	-578,	-889,	120,	132,
	392,	95,	-375,	221,	112,	622,	-148,	11,	93,
	210,	476,	7,	647,	348,	368,	16,	598,	-66,
	-585,	-329,	534,	554,	-299,	-875,	-191,	13,	-346,
	-719,	164,	-779,	-662,	301,	-805,	-651,	595,	-384,
	-731,	-388,	-655,	206,	-31,	48,	135,	-842,	349,
	-149,	436,	132,	273,	-430,	-184,	-240,	-165,	210,
	-503,	544,	-185,	-724,	-147,	313,	-832,	-631,	-541,
	169,	64,	684,	587,	277,	-428,	461,	-685,	216,
	67,	346,	345,	481,	-722,	-594,	-188,	212,	-897,
	328,	-103,	-848,	139,	267,	455,	-983,	-162,	-222,
	-299,	-900,	14,	-833,	-509,	-218,	544,	307,	-317,
	641,	-509,	-496,	443,	-16,	262,	-186,	-890,	467,
	-763,	-83,	4,	-746,	-709,	-311,	-808,	1,	314,
	149,	568,	-857,	464,	63,	-202,	144,	-922,	-517,
	-466,	335,	605,	-232,	193,	-164,	403,	-507,	335,
	390,	-575,	28,	645,	-296,	-159,	-469,	318,	-733,
	152,	323,	-375,	-675,	229,	-444,	264,	628,	-856,
	293,	-628,	-555,	467,	454,	-522,	-926,	-304,	731,
	349,	-787,	584,	453,	-897,	-610,	187,	-550,	-472,
	-576,	-507,	251,	-185,	-269,	-690,	-898,	-549,	-644,
	-200,	28,	-908,	-149,	-255,	-359,	455,	-199,	-425,
	-195,	41,	556,	-258,	-159,	-334,	-742,	-358,	482,
	-73,	-277,	-50,	630,	-312,	48,	11,	-792,	-101,
	369,	-538,	591,	-553,	-507,	-235,	12,	-659,	333,
	-954,	580,	-339,	-330,	309,	-27,	158,	143,	361,
	109,	-723,	-107,	-517,	-190,	673,	189,	-772,	-688,
	38,	-603,	-960,	464,	-229,	-557,	-269,	-181,	-677,
	-349,	-479,	100,	482,	180,	478,	-910,	54,	481,
	-669,	-81,	-395,	59,	208,	231,	-669,	624,	559,
	-90,	-536,	-745,	654,	-635,	-477,	348,	-352,	-79,
	-130,	54,	123,	-396,	469,	-343,	-1,	-12,	-181,
	-281,	62,	105,	629,	95,	175,	-766,	-836,	-621,
	-315,	-839,	636,	-162,	635,	-787,	-106,	452,	362,
	21,	-223,	-579,	-186,	806,	-940,	670,	-889,	-725,
	-252,	297,	10,	-220,	-645,	555,	502,	-656,	191,
	106,	-1636,	-803,	224,	138,	-201,	-1155,	2131,	2301,
	921,	-509,	1265,	2671,	4279,	-849,	422,	-313,	830,
	3138,	279,	-520,	467,	720,	2269,	735,	1172,	-378,
	-923,	1124,	-3018,	-1846,	-602,	-42,	-133,	1254,	331,
	650,	-336,	-590,	-512,	1018,	356,	-956,	292,	1433,
	842,	518,	-248,	-1761,	845,	2562,	-941,	-788,	-381,
	-414,	-698,	-1016,	-1290,	-381,	-51,	-922,	-1193,	-709,
	-400,	-1058,	-487,	-255,	-1754,	-1720,	554,	458,	1274,
	-171,	-345,	144,	1801,	-2663,	-389,	-847,	-696,	-1896,
	-1757,	-2378,	-951,	1149,	-315,	-738,	-2431,	-1537,	-514,
	1009,	665,	164,	-1165,	177,	-113,	2371,	2123,	336,
	-634,	677,	-317,	428,	392,	1296,	-118,	-13,	-856,
	-720,	-406,	-353,	-1297,	-1393,	-1096,	513,	-1079,	-462,
	896,	1001,	-93,	438,	17,	-42,	79,	157,	225,
	-460,	-1017,	-1241,	708,	1117,	-3596,	-2086,	-516,	-615,
	184,	-2695,	-2152,	-501,	-276,	584,	487,	-310,	-948,
	-67,	-384,	205,	1052,	-199,	-899,	1216,	-226,	1197,
	526,	727,	-318,	-905,	-1202,	-1559,	-712,	456,	-244,
	-258,	-644,	-592,	468,	330,	1748,	326,	602,	-22,
	-801,	1301,	1319,	263,	31,	-71,	464,	-986,	93,
	536,	-493,	-221,	1087,	921,	-393,	-693,	-497,	1725,
	2399,	-590,	-60,	785,	-584,	1527,	-230,	-783,	-915,
	-292,	547,	-433,	-1118,	-953,	-223,	-192,	125,	52,
	-824,	-566,	-578,	-333,	164,	-1699,	1040,	1033,	865,
	-440,	781,	348,	1599,	-14,	974,	-10,	240,	165,
	737,	129,	-164,	506,	-644,	820,	1748,	1082,	-140,
	203,	-543,	1682,	1933,	1157,	739,	856,	567,	842,
	2165,	200,	1228,	-328,	190,	1528,	-151,	502,	-791,
	-1983,	-439,	-699,	-703,	-1084,	-1064,	-704,	64,	-597,
	-707,	-830,	-1043,	1570,	339,	-71,	-530,	-1599,	693,
	1975,	1126,	1531,	68,	-871,	1367,	213,	-214,	478,
	300,	620,	-396,	-1553,	-1424,	-1155,	92,	-1486,	-123,
	293,	-691,	633,	1095,	187,	-433,	-793,	255,	782,
	1361,	744,	-682,	269,	-96,	-322,	482,	-574,	-997,
	-2020,	-1547,	-1564,	-911,	-641,	-1384,	-3769,	-3490,	-933,
	-681,	1641,	169,	62,	1854,	432,	3805,	3945,	2471,
	1353,	1913,	-252,	598,	71,	90,	646,	966,	2220,
	1826,	241,	-796,	1193,	2803,	2995,	947,	366,	406,
	257,	1766,	1729,	583,	-144,	-978,	371,	552,	-305,
	490,	-1594,	462,	13,	-195,	1186,	795,	755,	505,
	220,	1549,	1172,	2045,	1444,	187,	1069,	1017,	903,
	1819,	759,	-645,	-953,	-1414,	-228,	1391,	-1479,	-997,
	-1236,	120,	-394,	-1656,	-703,	403,	403,	-183,	-3370,
	-849,	-828,	151,	764,	-1135,	-1004,	-630,	-1159,	-259,
	2867,	1009,	-862,	-488,	23,	409,	845,	-265,	516,
	22,	675,	-230,	1600,	-535,	493,	243,	180,	-419,
	-860,	23,	-128,	1070,	-1398,	-383,	-414,	1056,	1070,
	-1218,	730,	755,	-804,	-54,	1063,	-1007,	-1474,	173,
	740,	871,	1302,	-17,	282,	2410,	958,	-1118,	1731,
	371,	-1093,	337,	585,	467,	1036,	945,	-283,	-626,
	1216,	491,	314,	1490,	661,	-931,	2284,	1519,	372,
	1188,	1040,	1785,	642,	1175,	265,	270,	38,	-583,
	573,	54,	1316,	1176,	-549,	760,	391,	3,	238,
	94,	1206,	-402,	-460,	1122,	1090,	1512,	2688,	1356,
	1589,	460,	46,	546,	1976,	-289,	-1087,	65,	-281,
	-1272,	713,	-223,	-1145,	48,	1275,	1022,	-587,	400,
	494,	1103,	297,	1772,	-352,	-1718,	-392,	183,	-522,
	1735,	1509,	316,	713,	597,	79,	1307,	814,	546,
	-723,	-231,	-115,	-289,	768,	1642,	1410,	1338,	146,
	1335,	1101,	1674,	942,	1432,	1174,	-290,	1362,	2898,
	1388,	793,	733,	361,	-129,	1263,	143,	-188,	-64,
	291,	819,	219,	-692,	456,	1509,	412,	520,	-453,
	-973,	-1555,	155,	-539,	-810,	1075,	-810,	-604,	897,
	998,	-687,	916,	282,	574,	725,	1085,	863,	195,
	-427,	191,	-219,	-70,	-379,	595,	326,	871,	429,
	110,	811,	988,	-256,	1564,	1887,	-362,	1536,	1373,
	104,	143,	-726,	280,	0,	-860,	-1081,	532,	1587,
	-145,	-502,	521,	896,	1244,	1048,	1381,	430,	-92,
	1601,	-359,	1591,	1206,	-640,	1207,	-606,	-609,	1624,
	829,	-66,	148,	382,	23,	-345,	182,	341,	-546,
	826,	-231,	-593,	-1687,	-627,	197,	-304,	-63,	285,
	-1273,	621,	1587,	-244,	701,	88,	1279,	-292,	-458,
	-179,	791,	-304,	623,	531,	1415,	-898,	-1550,	1837,
	828,	1551,	2679,	38,	745,	1238,	938,	292,	1881,
	204,	-354,	540,	-389,	-244,	954,	-408,	-470,	-349,
	1,	267,	63,	-715,	1219,	1197,	-489,	1608,	407,
	489,	-320,	79,	-434,	467,	1493,	-530,	2228,	-88,
	262,	672,	-421,	-393,	-674,	1481,	1551,	-5,	301,
	672,	1630,	2282,	871,	1026,	688,	545,	1329,	1472,
	-786,	-143,	-831,	-1382,	-637,	503,	1647,	-841,	411,
	1235,	386,	1414,	1543,	2259,	2040,	-424,	-754,	-515,
	-370,	805,	-662,	175,	-155,	-994,	-570,	610,	1357,
	1785,	158,	-378,	494,	439,	809,	1368,	707,	-419,
	-201,	360,	-237,	-457,	-1003,	-1318,	455,	274,	-958,
	1089,	723,	-837,	-409,	-76,	-263,	-314,	2104,	-1055,
	-485,	1234,	-595,	107,	-95,	-104,	-279,	880,	679,
	-546,	-208,	1769,	594,	632,	336,	-1433,	2503,	2110,
	2956,	2569,	1092,	909,	-158,	1986,	2466,	1396,	-380,
	-653,	-509,	712,	1458,	968,	552,	-1111,	185,	-283,
	272,	-137,	38,	248,	791,	-484,	228,	722,	-94,
	185,	-693,	795,	367,	-346,	-818,	603,	-648,	313,
	289,	754,	117,	118,	-594,	16,	489,	-397,	-635,
	812,	-563,	351,	-190,	253,	-875,	-537,	282,	-652,
	-82,	-349,	27,	-224,	417,	-257,	118,	-132,	-586,
	-458,	-779,	282,	86,	-24,	-293,	-223,	282,	822,
	430,	-176,	32,	-80,	592,	-63,	544,	320,	-870,
	-712,	-597,	543,	-114,	200,	-463,	-126,	721,	-170,
	-119,	-460,	60,	-89,	612,	170,	-864,	68,	-514,
	208,	-192,	-601,	-339,	608,	532,	194,	-439,	-594,
	-740,	381,	-408,	574,	110,	-111,	-802,	-12,	605,
	-539,	-260,	-20,	260,	-310,	20,	-416,	-530,	49,
	-353,	-663,	-672,	345,	-798,	-634,	-428,	-792,	-624,
	377,	-296,	-650,	-218,	2,	-633,	-277,	-339,	464,
	364,	-694,	64,	-482,	-117,	243,	-352,	-159,	-27,
	597,	-270,	-322,	377,	-379,	-419,	-88,	-149,	309,
	211,	287,	509,	-169,	-325,	-641,	-737,	-141,	-344,
	134,	-578,	-525,	-348,	404,	-595,	329,	-901,	113,
	120,	-65,	-523,	-207,	-368,	202,	330,	149,	-612,
	171,	-117,	270,	-866,	-61,	-218,	41,	-550,	274,
	132,	342,	48,	-772,	-751,	-704,	-393,	592,	-925,
	-386,	-254,	-461,	-288,	-19,	-232,	-701,	-37,	-754,
	-84,	599,	381,	341,	-181,	573,	-736,	-168,	176,
	-277,	-860,	509,	188,	534,	573,	-393,	-357,	-654,
	226,	464,	2,	419,	91,	-694,	-400,	309,	-30,
	503,	-783,	-844,	-201,	-730,	545,	-241,	-464,	256,
	190,	-208,	-486,	661,	-830,	298,	-918,	601,	-822,
	-835,	419,	458,	-307,	-744,	-751,	405,	-407,	-515,
	556,	277,	-307,	557,	-310,	-135,	-99,	-234,	-158,
	519,	-679,	431,	-397,	463,	227,	594,	-334,	24,
	504,	-687,	142,	-129,	-312,	-623,	126,	-757,	524,
	165,	-476,	-179,	-185,	21,	-186,	476,	-689,	-784,
	-413,	533,	162,	362,	-744,	584,	66,	-555,	77,
	509,	-659,	629,	457,	-920,	335,	-325,	563,	156,
	-740,	-926,	-101,	-330,	-117,	263,	-747,	317,	422,
	-35,	679,	-249,	274,	661,	323,	151,	102,	-308,
	471,	-950,	473,	458,	504,	-328,	545,	177,	16,
	132,	-826,	-847,	89,	176,	-495,	458,	-156,	328,
	27,	-649,	-731,	67,	-814,	607,	24,	-184,	644,
	424,	197,	-824,	-937,	171,	-928,	-898,	96,	-657,
	-222,	24,	352,	-23,	-881,	-350,	-917,	46,	20,
	-325,	-53,	248,	-531,	450,	-533,	-247,	-522,	-78,
	-657,	386,	454,	-303,	-895,	-430,	569,	-411,	228,
	16,	625,	813,	-599,	89,	-51,	690,	-536,	671,
	-733,	-143,	-121,	-392,	-281,	1495,	282,	-1285,	-420,
	-800,	-190,	2689,	-114,	-163,	-588,	1212,	3598,	4460,
	234,	453,	-42,	2166,	3296,	-416,	1522,	-44,	572,
	1193,	100,	-65,	1480,	3278,	2144,	-138,	-589,	1121,
	-367,	-1128,	-2297,	599,	1293,	-612,	-1499,	736,	1105,
	-2280,	93,	8,	1015,	-503,	-496,	-1119,	-53,	201,
	313,	-715,	-398,	806,	-281,	-1950,	-1807,	-905,	51,
	230,	480,	-1075,	844,	1701,	3274,	399,	-400,	14,
	686,	1785,	1299,	912,	-1155,	-44,	-1172,	1631,	619,
	-1060,	-1847,	-931,	1038,	-953,	-182,	-517,	-471,	561,
	1459,	1250,	464,	1314,	46,	-560,	-429,	795,	178,
	772,	1030,	-751,	-1450,	-1175,	150,	653,	755,	134,
	1169,	264,	653,	-82,	23,	757,	452,	-39,	-1006,
	-700,	-543,	-455,	-1093,	-631,	-69,	899,	296,	130,
	125,	306,	197,	1723,	-546,	-2116,	-1390,	-975,	661,
	-334,	-519,	-2088,	-546,	-552,	-548,	482,	-599,	-227,
	481,	-528,	-211,	163,	1584,	612,	712,	1364,	-305,
	-797,	-135,	742,	235,	455,	389,	1034,	2427,	2661,
	480,	478,	153,	1118,	-177,	-764,	-1244,	-1016,	921,
	-1597,	-620,	227,	-182,	498,	-1213,	-161,	826,	253,
	1311,	-92,	-1016,	142,	430,	126,	-3,	-1151,	-886,
	-753,	-1171,	-1539,	373,	-546,	79,	-365,	1756,	1623,
	1562,	-548,	-888,	774,	1023,	480,	1112,	1428,	-189,
	-1053,	-130,	716,	-230,	545,	-55,	-1199,	701,	793,
	336,	1918,	-280,	982,	997,	343,	1656,	1063,	170,
	728,	-337,	-677,	-157,	-150,	1654,	2305,	1000,	-365,
	307,	800,	1769,	404,	-905,	-423,	-1742,	-599,	-412,
	-1459,	119,	-1407,	-257,	731,	194,	-370,	-235,	1262,
	1203,	832,	1300,	-304,	143,	-838,	-1089,	-521,	-1204,
	-183,	-162,	-676,	-631,	348,	372,	1416,	2439,	322,
	397,	157,	835,	1670,	-20,	931,	-681,	46,	3,
	1299,	290,	-1083,	-535,	214,	1678,	824,	-378,	-102,
	1175,	111,	76,	-438,	-1304,	151,	-559,	-108,	483,
	-37,	293,	-147,	433,	708,	174,	343,	-430,	-821,
	-118,	-162,	304,	1087,	883,	1499,	856,	1370,	413,
	1611,	1733,	2141,	-326,	1368,	-631,	-1132,	-147,	-1955,
	1943,	806,	-98,	-1595,	-366,	336,	1699,	1852,	1483,
	-326,	673,	459,	410,	258,	-179,	818,	-503,	-255,
	-744,	-227,	225,	-63,	1378,	-400,	713,	-2,	315,
	2066,	1106,	1124,	348,	661,	1789,	1747,	45,	-186,
	-878,	376,	915,	1304,	-552,	-291,	4,	-2079,	573,
	-563,	645,	204,	132,	1539,	49,	183,	654,	1155,
	1507,	885,	-730,	-1545,	-1060,	-1003,	-949,	-1057,	-2080,
	-1157,	-207,	489,	-23,	262,	224,	1701,	-1254,	691,
	389,	952,	1112,	1343,	470,	370,	-585,	-554,	548,
	-340,	-759,	318,	-385,	-244,	-429,	131,	-585,	220,
	-363,	651,	-685,	-425,	-309,	282,	-718,	-321,	440,
	-585,	-786,	756,	538,	273,	-76,	482,	702,	-733,
	-464,	211,	-791,	706,	-1,	776,	-661,	-617,	160,
	-174,	-548,	795,	305,	352,	91,	299,	-723,	-400,
	126,	-16,	662,	-100,	-679,	813,	-401,	493,	652,
	66,	-495,	-758,	238,	553,	218,	-280,	-19,	474,
	121,	-307,	621,	142,	-235,	-471,	-744,	-806,	-486,
	389,	661,	-153,	-522,	444,	442,	-648,	-87,	618,
	-398,	404,	251,	-341,	89,	721,	-129,	-616,	-392,
	-838,	222,	-723,	123,	-491,	365,	-199,	505,	412,
	491,	-602,	323,	-223,	123,	-376,	461,	490,	675,
	-687,	226,	-613,	-613,	300,	-262,	-782,	97,	-594,
	-309,	99,	520,	646,	-134,	188,	-847,	415,	263,
	539,	-182,	567,	387,	-196,	-243,	-172,	-314,	-498,
	-92,	151,	626,	-258,	428,	-543,	-200,	-499,	528,
	61,	-30,	-269,	-573,	-138,	81,	-194,	-251,	-831,
	406,	-637,	-612,	-776,	-538,	-881,	-452,	39,	-760,
	-583,	228,	370,	-332,	-853,	-531,	698,	-198,	-364,
	367,	-639,	-432,	-40,	-137,	-757,	492,	-706,	-463,
	164,	-187,	-292,	436,	589,	147,	302,	-430,	-907,
	19,	-362,	247,	-414,	-426,	-343,	192,	-432,	6,
	616,	-90,	-632,	108,	-64,	388,	-725,	-502,	-644,
	-665,	-411,	-512,	560,	584,	595,	-58,	-216,	565,
	-701,	644,	698,	659,	599,	461,	-181,	-400,	224,
	-269,	-563,	-829,	631,	242,	-760,	277,	257,	497,
	164,	-816,	-824,	693,	582,	160,	-338,	-760,	-135,
	-367,	-227,	-30,	-764,	462,	-474,	-58,	468,	-407,
	-859,	792,	-471,	-211,	19,	-193,	-469,	-62,	-2,
	-785,	593,	12,	684,	-722,	-429,	-298,	449,	-799,
	-577,	-742,	-168,	-615,	510,	-459,	-734,	-245,	-97,
	185,	691,	-337,	-768,	-101,	-63,	-441,	629,	-358,
	-474,	129,	645,	528,	-297,	292,	654,	130,	-186,
	-94,	-501,	388,	73,	193,	-190,	433,	-576,	-211,
	-240,	-43,	-185,	-316,	-147,	-150,	-284,	464,	438,
	-233,	461,	-568,	-396,	457,	89,	182,	-397,	-185,
	592,	784,	0,	-531,	-788,	-346,	-574,	708,	-26,
	-303,	616,	-413,	238,	-163,	326,	-592,	398,	-554,
	65,	-86,	-511,	-534,	-378,	638,	-695,	-706,	-706,
	61,	627,	226,	-221,	117,	652,	-263,	-671,	-577,
	-607,	379,	380,	-226,	374,	-755,	-644,	109,	-657,
	470,	-138,	-876,	-341,	249,	156,	-882,	303,	-270,
	802,	70,	-22,	-494,	115,	-480,	-347,	-195,	341,
	-158,	-312,	-381,	472,	-449,	462,	-568,	-166,	0,
	-833,	322,	434,	295,	-349,	2071,	1660,	-704,	75,
	-386,	-379,	1564,	-190,	-1102,	19,	302,	-98,	177,
	-400,	1175,	1939,	1821,	-476,	-375,	-186,	194,	-3123,
	-1292,	1773,	1126,	-382,	-566,	-63,	-449,	1182,	-289,
	59,	60,	-1289,	-1457,	120,	-640,	741,	360,	1215,
	805,	-1708,	-327,	1811,	1394,	1533,	-118,	98,	347,
	372,	-468,	-1410,	-192,	193,	-952,	-600,	-115,	1340,
	-470,	-233,	-136,	-1607,	-2763,	606,	518,	-927,	-564,
	-68,	-595,	-317,	-41,	-171,	1,	-84,	-680,	313,
	244,	-378,	2159,	2350,	187,	-314,	-569,	-835,	-462,
	672,	-329,	-51,	-1157,	-564,	1057,	61,	273,	-1152,
	-189,	428,	-460,	-1178,	185,	431,	802,	734,	-315,
	-519,	259,	547,	524,	-402,	646,	-289,	-190,	834,
	383,	506,	1704,	296,	408,	216,	-275,	1732,	2216,
	876,	-255,	856,	605,	489,	-163,	-778,	2336,	762,
	-567,	-213,	6,	2413,	694,	-202,	-651,	-518,	-330,
	201,	757,	595,	1529,	-984,	-904,	-726,	337,	1342,
	877,	542,	412,	230,	268,	-69,	-794,	-92,	963,
	-535,	990,	167,	-1386,	-1059,	-475,	-269,	218,	-411,
	-404,	-814,	530,	1546,	2958,	451,	881,	269,	670,
	690,	1241,	-896,	1004,	1263,	-34,	-632,	1242,	-812,
	156,	859,	301,	717,	476,	84,	-89,	819,	-12,
	548,	527,	-738,	-670,	-441,	340,	807,	-145,	326,
	408,	19,	904,	-525,	-198,	-506,	-1368,	121,	-353,
	-1884,	-383,	-888,	-8,	247,	-286,	1287,	-895,	-523,
	-9,	825,	1038,	571,	-64,	500,	-557,	581,	120,
	-36,	-147,	-943,	449,	691,	-1080,	687,	952,	-281,
	-732,	633,	-452,	-5,	959,	-138,	414,	13,	-489,
	-810,	673,	298,	216,	-834,	164,	-109,	891,	345,
	-502,	1793,	257,	-559,	990,	-438,	152,	936,	198,
	-271,	-771,	-91,	-337,	829,	516,	-124,	842,	221,
	-33,	1159,	272,	391,	1678,	-1148,	-40,	16,	-390,
	3699,	661,	-426,	-333,	-222,	718,	1453,	1115,	-426,
	251,	1084,	701,	1565,	637,	312,	487,	-621,	1,
	731,	696,	792,	1497,	1610,	-739,	-786,	1727,	1192,
	-1324,	-2175,	-989,	-119,	-549,	154,	1078,	1082,	-2841,
	-1319,	-591,	1044,	2334,	51,	-70,	-315,	165,	-555,
	-548,	-447,	1112,	-324,	-656,	-624,	544,	1046,	547,
	57,	455,	1591,	430,	-1047,	-218,	817,	1009,	-999,
	-858,	-158,	233,	1752,	561,	35,	172,	-1423,	-119,
	-282,	-1935,	-53,	-913,	-124,	-550,	1118,	405,	450,
	332,	539,	-922,	-1602,	1755,	401,	848,	-1531,	-1285,
	-369,	-639,	375,	-21,	405,	1229,	-800,	194,	-246,
	-313,	2566,	513,	-572,	-445,	-358,	-344,	1610,	281,
	-183,	880,	-2290,	-1442,	1019,	629,	612,	903,	804,
	-1351,	-929,	968,	1159,	-2291,	-3149,	-1877,	700,	228,
	-1192,	-2642,	-433,	629,	204,	240,	-964,	415,	1325,
	1054,	433,	200,	-901,	-183,	-572,	192,	3252,	2586,
	91,	-1300,	34,	651,	1791,	1258,	892,	-153,	1501,
	-1088,	-945,	445,	324,	607,	-168,	-2010,	2048,	2412,
	1119,	-439,	-43,	-595,	1953,	1810,	1378,	-546,	-453,
	2384,	871,	-821,	-1823,	27,	1185,	-101,	-331,	-2035,
	-1438,	848,	544,	506,	569,	662,	416,	913,	2122,
	1111,	-416,	2661,	2197,	577,	-1712,	-1771,	84,	-449,
	1795,	-302,	-2468,	-613,	1487,	-168,	-35,	-1468,	-1716,
	1241,	1134,	818,	8,	44,	2061,	935,	1551,	-796,
	-1551,	-351,	35,	935,	545,	64,	373,	211,	1491,
	1450,	834,	60,	1259,	-189,	-69,	885,	661,	-478,
	-401,	157,	-64,	-12,	517,	25,	513,	789,	2100,
	202,	-490,	1924,	2787,	2158,	581,	-932,	-602,	1167,
	-110,	658,	-178,	-688,	1240,	1242,	-242,	-232,	-957,
	459,	6,	974,	106,	-235,	-314,	-873,	126,	498,
	550,	-1786,	-1096,	-504,	119,	204,	-431,	858,	-913,
	-542,	1180,	322,	1395,	-143,	943,	679,	-283,	674,
	-615,	-197,	1168,	-744,	1415,	734,	349,	372,	1221,
	1453,	944,	-784,	714,	329,	275,	-1135,	289,	-220,
	-1018,	-444,	-105,	73,	395,	1452,	295,	-87,	52,
	1182,	1511,	1374,	-39,	630,	-277,	1163,	287,	-779,
	298,	-266,	956,	758,	-265,	-394,	149,	-998,	1936,
	244,	72,	625,	734,	179,	1429,	227,	167,	-1346,
	-900,	641,	319,	92,	-417,	-742,	735,	1289,	606,
	-224,	-529,	-3,	-226,	1165,	518,	-613,	444,	1032,
	-109,	-150,	-1267,	-1308,	-416,	323,	1527,	1912,	1498,
	-155,	-505,	1656,	1292,	1478,	104,	-594,	-882,	776,
	463,	-372,	549,	1183,	-264,	438,	-612,	231,	44,
	0,	906,	944,	-908,	-1151,	1200,	-443,	732,	1094,
	1940,	1196,	1129,	-719,	557,	349,	-117,	-171,	-257,
	-1305,	176,	728,	350,	560,	-92,	-756,	-91,	-325,
	218,	325,	1033,	1615,	943,	-779,	-437,	-845,	372,
	-643,	1403,	-416,	-555,	1390,	-844,	-1387,	326,	312,
	1591,	1221,	525,	117,	-1003,	2023,	2893,	-612,	-472,
	-1608,	-721,	-407,	560,	576,	736,	-47,	943,	1295,
	783,	-1068,	-1009,	232,	-159,	-496,	706,	-725,	-1542,
	-198,	543,	-274,	-1628,	-939,	50,	-1357,	-1217,	157,
	889,	202,	-529,	634,	-1003,	-1207,	1984,	1184,	-807,
	-666,	328,	-1293,	1453,	178,	-527,	-1451,	-507,	1179,
	-5,	-213,	-575,	-1863,	2112,	2647,	1099,	1038,	-857,
	1880,	1013,	1056,	-20,	-1778,	302,	351,	-118,	660,
	-1553,	-120,	713,	901,	82,	-539,	-500,	352,	1008,
	1770,	1003,	50,	660,	625,	-1003,	70,	-1159,	-2001,
	-1243,	-10,	313,	192,	-854,	1549,	3123,	1042,	382,
	-519,	1799,	2287,	-613,	-610,	-901,	267,	-2009,	-331,
	38,	-569,	1601,	1763,	-1377,	-1209,	-449,	-658,	-239,
	-1616,	444,	-1707,	-1389,	-2212,	-2293,	868,	769,	188,
	-410,	-183,	241,	303,	615,	445,	-73,	869,	-255,
	-808,	841,	-1028,	190,	-1142,	232,	-785,	-427,	345,
	644,	-927,	-433,	570,	124,	-267,	-596,	518,	652,
	1089,	-952,	-655,	1120,	-11,	1377,	781,	89,	-1617,
	-1619,	2408,	2209,	1129,	-253,	502,	-625,	-1682,	454,
	601,	1536,	-662,	-272,	-373,	-776,	867,	-379,	-34,
	-250,	727,	207,	240,	480,	762,	957,	1108,	1387,
	1348,	596,	-1311,	11,	905,	1693,	-446,	-594,	-380,
	74,	433,	732,	1356,	-688,	-226,	-296,	206,	114,
	-48,	2217,	618,	64,	52,	-884,	2428,	1124,	235,
	-649,	-1199,	-848,	642,	33,	-274,	1176,	-1831,	-891,
	1009,	280,	1951,	-476,	-543,	-995,	259,	721,	-516,
	1402,	38,	1071,	-108,	842,	-870,	518,	-513,	307,
	535,	-198,	-150,	-1365,	-544,	264,	-85,	1250,	-1188,
	-490,	367,	880,	853,	386,	-156,	1014,	1710,	2346,
	-826,	-849,	-210,	565,	1149,	-39,	-1355,	736,	-1342,
	380,	419,	-475,	259,	-274,	-190,	-611,	805,	173,
	-684,	-276,	213,	42,	965,	741,	1467,	-44,	-536,
	-516,	1164,	1877,	305,	-1231,	-1394,	-450,	611,	1273,
	-512,	341,	-1591,	-623,	1186,	-147,	251,	441,	-460,
	-474,	329,	-1095,	-999,	657,	996,	499,	23,	-1108,
	927,	-421,	-962,	1176,	1115,	-229,	449,	-306,	20,
	991,	473,	-539,	-506,	298,	1346,	424,	-914,	660,
	1095,	60,	864,	1470,	-1590,	225,	433,	258,	316,
	58,	-912,	600,	-830,	1085,	1568,	-77,	214,	-178,
	87,	422,	672,	-119,	-666,	-145,	-173,	1523,	477,
	-81,	-749,	961,	1864,	1324,	-1516,	-1548,	-309,	1296,
	2560,	164,	-1964,	31,	595,	672,	738,	96,	1090,
	309,	562,	-1237,	-361,	342,	223,	-138,	1537,	1214,
	225,	1534,	676,	1991,	-508,	-575,	33,	-1594,	-1775,
	29,	-961,	-379,	-1177,	526,	1988,	775,	-361,	-1560,
	782,	933,	-1042,	97,	-527,	-440,	-348,	-662,	-268,
	-684,	-182,	970,	-836,	-144,	1034,	1404,	-905,	-960,
	-2,	1115,	776,	-315,	-360,	-11,	381,	396,	-243,
	-431,	-95,	-723,	-1271,	288,	-48,	-2534,	-1411,	-3043,
	-43,	169,	379,	775,	-738,	415,	-974,	708,	1172,
	-398,	1054,	-907,	1198,	642,	-145,	1078,	-856,	-58,
	-120,	6,	-1142,	-1356,	1306,	333,	-542,	-817,	-511,
	-120,	759,	954,	540,	392,	-1198,	-929,	109,	829,
	575,	-1361,	-600,	482,	1104,	201,	-851,	-1026,	-722,
	404,	-443,	1203,	180,	-1401,	2359,	27,	1087,	-334,
	470,	-3850,	-2376,	-36,	-1738,	-2386,	-3851,	-450,	263,
	-26,	-1091,	-1796,	-198,	222,	-937,	-2162,	-473,	1699,
	215,	-239,	1054,	-874,	1632,	-117,	1084,	-274,	-1201,
	1769,	170,	-444,	227,	-1295,	133,	1089,	781,	1555,
	-757,	-541,	-363,	-258,	589,	-161,	639,	1522,	803,
	1700,	983,	65,	-1830,	433,	-382,	626,	-1697,	34,
	501,	734,	829,	-2221,	-69,	158,	443,	158,	-1032,
	-1943,	-278,	-382,	-244,	159,	906,	-94,	488,	1158,
	1531,	1527,	2929,	130,	971,	-679,	138,	-792,	801,
	1496,	352,	-465,	-1299,	-1132,	378,	-883,	136,	-1007,
	797,	-706,	-325,	-12,	-494,	622,	1244,	417,	663,
	73,	440,	552,	1888,	1151,	415,	-333,	985,	354,
	187,	-480,	1113,	1204,	353,	-909,	-558,	1118,	1074,
	304,	-651,	-189,	657,	999,	1771,	2356,	607,	1260,
	675,	1144,	752,	912,	923,	309,	-250,	-247,	298,
	187,	648,	-727,	881,	-565,	-511,	-759,	545,	-872,
	130,	130,	-567,	-338,	1018,	129,	100,	894,	-296,
	-2,	-359,	-445,	-586,	883,	703,	194,	2099,	812,
	593,	-766,	-1519,	-100,	654,	-51,	1357,	462,	-358,
	757,	793,	1178,	1239,	363,	35,	506,	1193,	-112,
	-687,	998,	-636,	478,	664,	343,	-351,	539,	-642,
	-539,	57,	590,	438,	330,	-591,	-177,	93,	693,
	1231,	1240,	161,	-933,	-219,	524,	1116,	-444,	90,
	352,	456,	551,	73,	-327,	-88,	726,	-1295,	-949,
	-375,	-776,	72,	-429,	-1028,	274,	84,	-1343,	-555,
	-1392,	-1196,	688,	-889,	429,	198,	702,	-85,	1140,
	170,	952,	106,	-536,	-377,	738,	-368,	-878,	532,
	303,	1208,	389,	763,	713,	411,	1298,	672,	173,
	-1547,	-707,	489,	735,	720,	-982,	-1195,	87,	-109,
	-569,	-838,	-492,	-54,	-67,	-624,	100,	-1776,	-1051,
	807,	433,	13,	-276,	-536,	230,	1267,	861,	967,
	620,	72,	1031,	764,	190,	-2369,	-188,	843,	-471,
	-473,	-447,	391,	-965,	-388,	-406,	-1138,	-391,	-259,
	-57,	816,	956,	2608,	-1196,	566,	-742,	453,	-436,
	-1320,	1750,	-1394,	-1081,	491,	60,	837,	-336,	-770,
	-1223,	-250,	33,	-349,	373,	-645,	59,	540,	103,
	-1246,	-1268,	437,	1478,	768,	-605,	3,	458,	381,
	154,	860,	-97,	-675,	-555,	-90,	-546,	-1123,	-875,
	502,	1951,	2063,	416,	931,	-717,	-1103,	218,	515,
	150,	-1752,	135,	-1008,	-484,	-982,	-1615,	819,	151,
	947,	-701,	-1279,	136,	1097,	245,	1107,	-182,	-784,
	1185,	136,	2173,	2160,	1695,	-645,	511,	-243,	-1119,
	1060,	-97,	1574,	328,	106,	-867,	-327,	1037,	372,
	-878,	-8,	61,	-184,	80,	-83,	-577,	-630,	801,
	-772,	731,	-60,	32,	-466,	-523,	-79,	-665,	729,
	-151,	739,	-598,	-342,	787,	-245,	510,	-679,	-459,
	789,	-540,	511,	-93,	174,	-716,	106,	324,	815,
	-276,	-598,	-229,	607,	396,	-255,	-4,	-569,	-423,
	-313,	-374,	195,	-687,	21,	637,	-799,	-644,	480,
	-742,	-306,	-791,	-636,	-778,	-349,	660,	-427,	-624,
	584,	171,	-669,	-71,	-303,	131,	-328,	112,	-504,
	-734,	656,	-638,	342,	138,	749,	175,	97,	-302,
	-457,	-683,	-184,	336,	-638,	815,	248,	-626,	-428,
	469,	-314,	-563,	-16,	508,	-217,	-572,	-390,	-179,
	-664,	-434,	-626,	-681,	808,	24,	348,	-24,	30,
	750,	-769,	367,	-553,	486,	-161,	-577,	-386,	282,
	-276,	275,	-696,	441,	-814,	493,	575,	413,	-467,
	604,	7,	275,	534,	55,	241,	401,	263,	569,
	-243,	-760,	597,	534,	737,	-381,	-645,	131,	-190,
	-259,	261,	-312,	495,	-163,	-493,	464,	-619,	68,
	-154,	-12,	18,	-507,	-788,	115,	608,	-685,	391,
	-524,	185,	-437,	-759,	-256,	-498,	660,	-96,	-35,
	316,	-202,	-467,	-678,	512,	-725,	147,	751,	-422,
	455,	-646,	232,	-320,	-643,	640,	-216,	577,	-229,
	93,	-255,	-305,	-439,	97,	-560,	-740,	-541,	605,
	331,	-386,	-546,	-127,	607,	-70,	-156,	260,	-110,
	-320,	-440,	558,	-122,	-237,	92,	422,	95,	552,
	483,	-803,	243,	422,	-688,	-98,	-400,	-788,	771,
	243,	650,	-526,	361,	-385,	-396,	465,	-249,	-491,
	-86,	-701,	-504,	-415,	105,	-275,	717,	-286,	-548,
	-467,	601,	-415,	553,	-162,	25,	-2,	-741,	-745,
	774,	503,	-89,	-316,	-654,	554,	-345,	765,	56,
	396,	-793,	-589,	155,	-304,	282,	-103,	687,	353,
	-23,	104,	-446,	-665,	-78,	535,	302,	112,	321,
	18,	-450,	-78,	-736,	216,	-265,	-407,	616,	748,
	200,	-34,	-509,	-556,	-808,	-18,	-530,	-540,	-704,
	-1,	189,	-606,	614,	372,	-812,	-716,	-47,	-753,
	-316,	-211,	-586,	552,	-495,	-699,	536,	-403,	-567,
	364,	-632,	-460,	303,	-533,	241,	465,	-484,	-543,
	401,	-231,	182,	17,	-12,	727,	-500,	-11,	-160,
	-558,	488,	404,	347,	447,	-463,	614,	370,	-259,
	69,	579,	569,	-493,	-2,	-53,	561,	-21,	-204,
	162,	434,	240,	-204,	-185,	0,	-99,	196,	-343,
	96,	-603,	128,	-100,	-381,	557,	-760,	443,	-377,
	11,	-680,	-629,	-28,	-247,	-175,	-429,	-795,	502,
	579,	-400,	-612,	-442,	306,	629,	-182,	688,	349,
	220,	-467,	-312,	698,	201,	-548,	-448,	613,	-286,
	148,	-233,	154,	522,	-236,	-779,	407,	575,	858,
	-328,	295,	802,	3165,	-64,	-472,	-867,	2204,	916,
	-1831,	374,	-1102,	198,	522,	-1964,	-1625,	-558,	-137,
	-545,	-1109,	439,	764,	-602,	-2394,	-2979,	-1233,	694,
	119,	352,	-584,	-1004,	98,	-188,	1062,	756,	1241,
	861,	318,	-448,	1720,	2144,	-1160,	-1744,	-2066,	1796,
	1322,	1138,	-8,	-912,	-309,	372,	-171,	-1607,	512,
	245,	-66,	-60,	193,	723,	577,	-568,	510,	-194,
	-164,	-148,	-934,	-2343,	-1279,	612,	-1266,	-1326,	-783,
	-1283,	-951,	1062,	2188,	922,	457,	-301,	382,	111,
	1601,	935,	-137,	-24,	-875,	2662,	1815,	688,	475,
	-179,	-283,	-1019,	-1697,	-1592,	-519,	740,	396,	779,
	-202,	-41,	-307,	187,	1156,	710,	-5,	580,	622,
	948,	922,	825,	-402,	486,	-1219,	-709,	852,	47,
	-745,	-1022,	-186,	1156,	271,	-128,	328,	322,	357,
	-1602,	-2121,	-689,	151,	1384,	-530,	-83,	234,	873,
	1316,	1996,	-660,	-737,	-11,	-1152,	629,	-417,	369,
	-1252,	-1428,	-599,	115,	946,	176,	-70,	1114,	699,
	-21,	-1243,	-906,	919,	616,	14,	1269,	158,	425,
	-618,	-725,	241,	454,	-616,	-604,	-2058,	93,	491,
	49,	-168,	374,	1097,	676,	-17,	-427,	-1064,	1906,
	1804,	-84,	129,	-82,	838,	221,	-735,	1000,	-576,
	-180,	652,	290,	-808,	51,	1217,	-691,	-172,	-690,
	520,	1512,	774,	121,	-741,	-124,	1066,	1069,	-435,
	962,	-1083,	29,	957,	-465,	558,	-766,	-45,	51,
	656,	623,	-156,	-1167,	66,	608,	280,	767,	-1050,
	-1059,	-10,	801,	-425,	197,	-317,	-1145,	125,	1605,
	772,	810,	-24,	-261,	1122,	-648,	660,	325,	-58,
	1968,	1336,	582,	-602,	-1006,	320,	-470,	405,	-694,
	-1141,	362,	63,	1505,	76,	-171,	195,	-445,	427,
	-35,	471,	838,	-426,	-603,	-1403,	-605,	78,	-930,
	270,	867,	-587,	-553,	369,	136,	-779,	-820,	-493,
	894,	-102,	-582,	-698,	83,	1111,	-53,	228,	-1289,
	86,	-649,	-834,	1553,	-691,	408,	-18,	-187,	-882,
	-234,	-479,	164,	30,	-577,	520,	225,	-811,	-814,
	1133,	1694,	-1153,	308,	514,	108,	270,	142,	-802,
	747,	-92,	1175,	-1551,	-2958,	1156,	896,	1099,	631,
	-992,	202,	-581,	-74,	534,	-766,	-20,	-384,	1355,
	1998,	457,	135,	50,	-493,	1080,	861,	741,	510,
	277,	2071,	1392,	-322,	862,	835,	-816,	-1218,	-160,
	499,	618,	1124,	-131,	-1411,	-1030,	1209,	1638,	596,
	-268,	-964,	31,	826,	207,	475,	-798,	-182,	1354,
	1205,	1290,	-472,	-901,	571,	697,	1572,	-1337,	-512,
	-448,	493,	1422,	331,	-592,	-169,	246,	796,	1423,
	733,	-1064,	-639,	-382,	299,	-602,	-426,	-1608,	-415,
	281,	851,	2282,	992,	-953,	-708,	1022,	3762,	3702,
	898,	-1669,	-2158,	628,	1299,	225,	-800,	-287,	1417,
	-1917,	-2418,	401,	587,	1629,	-296,	-522,	470,	-1903,
	-2859,	-901,	-401,	1862,	513,	1070,	-1213,	-539,	-857,
	-691,	1140,	1963,	785,	765,	-813,	497,	933,	2463,
	-276,	-386,	-1450,	909,	313,	1802,	-1217,	-2873,	-2025,
	-348,	3085,	-22,	-1016,	652,	1788,	1407,	-922,	-419,
	-601,	2072,	-151,	-398,	-942,	1076,	-562,	-1265,	-364,
	-234,	114,	89,	587,	-1882,	-1438,	-1324,	184,	4287,
	2491,	-417,	-1251,	-198,	53,	533,	-532,	-875,	431,
	118,	-1279,	-1687,	-1371,	802,	684,	-870,	-977,	-64,
	481,	673,	1466,	40,	-16,	-1118,	-1204,	96,	1709,
	1378,	-630,	-523,	-606,	-1278,	542,	594,	-79,	1225,
	-930,	-664,	-315,	315,	842,	1001,	15,	-618,	126,
	589,	-1321,	-131,	-615,	2155,	-940,	-1666,	326,	1543,
	1704,	178,	-613,	-1166,	1625,	-249,	151,	-1051,	576,
	1437,	-1112,	-498,	-234,	-706,	228,	-255,	163,	232,
	-1124,	-603,	-1255,	703,	2000,	548,	-597,	-1043,	-1941,
	186,	1037,	-151,	-526,	157,	928,	660,	-396,	927,
	836,	1723,	-670,	715,	-1962,	-33,	1420,	740,	187,
	-799,	-650,	-719,	-271,	79,	173,	578,	987,	-1281,
	281,	1107,	-546,	-456,	258,	430,	-338,	-266,	-92,
	117,	155,	-90,	-285,	1149,	270,	106,	185,	-581,
	-570,	1386,	3,	1080,	179,	961,	557,	338,	247,
	289,	419,	-561,	-105,	-967,	-813,	-383,	427,	-435,
	503,	114,	1585,	988,	-199,	-230,	-370,	381,	-873,
	242,	-677,	736,	1973,	959,	-727,	522,	213,	23,
	654,	15,	-719,	757,	-50,	-3,	-392,	551,	-1675,
	-2223,	125,	-206,	2182,	94,	-1638,	-89,	693,	1109,
	264,	-497,	400,	816,	-1053,	-1191,	-503,	-646,	-759,
	-1710,	-774,	-724,	-709,	893,	1699,	1718,	333,	-2,
	470,	-934,	-1007,	-1541,	-224,	-604,	2216,	771,	-382,
	-711,	-662,	1598,	31,	-335,	284,	-461,	210,	-304,
	1228,	-101,	-654,	910,	-1619,	-1489,	-331,	989,	1641,
	1906,	1163,	-78,	-497,	675,	-1831,	342,	489,	702,
	-803,	-959,	-496,	-215,	874,	-580,	390,	817,	391,
	730,	178,	1713,	1341,	770,	-391,	-885,	-560,	1293,
	747,	-779,	-330,	1788,	2798,	1498,	-1153,	703,	871,
	1145,	719,	-389,	-110,	-675,	-252,	-545,	-416,	1992,
	-393,	-708,	-491,	62,	-1038,	-487,	485,	1466,	-1711,
	-536,	-191,	-519,	2748,	-1000,	-511,	150,	-429,	1825,
	298,	-1301,	-566,	-796,	-655,	-196,	-539,	-1560,	-1376,
	-1272,	913,	2461,	-668,	-1192,	-563,	1672,	1542,	274,
	-128,	-104,	991,	-388,	-479,	-130,	-523,	629,	-664,
	-217,	-1039,	-274,	672,	34,	47,	2889,	2587,	-1187,
	-315,	2036,	3704,	2811,	1157,	-112,	-923,	1325,	-966,
	-1135,	249,	1190,	-535,	-1979,	-1770,	-884,	146,	628,
	2161,	564,	1112,	-591,	-1389,	-1691,	636,	-268,	-1225,
	12,	846,	496,	-657,	-805,	-445,	3282,	3125,	760,
	1352,	124,	2687,	1658,	-1200,	47,	-1061,	-341,	1493,
	998,	135,	-563,	-687,	-972,	1001,	-1623,	-889,	1209,
	1304,	1436,	601,	-374,	-240,	987,	1369,	-185,	-632,
	1190,	196,	-527,	-365,	273,	-1151,	-332,	-1406,	-955,
	-393,	497,	1081,	-516,	946,	-347,	-935,	-380,	2218,
	154,	-2407,	-171,	-425,	3470,	1070,	-188,	-814,	427,
	2178,	1254,	577,	194,	911,	929,	1327,	769,	4,
	156,	-959,	304,	550,	-14,	-537,	-724,	473,	102,
	1070,	1062,	574,	750,	-809,	-81,	863,	430,	960,
	-450,	0,	-766,	-1580,	-1178,	-304,	-640,	-169,	-857,
	-465,	390,	338,	2333,	2059,	-660,	-890,	-886,	-159,
	2237,	-337,	-1868,	-251,	-765,	1312,	1431,	29,	125,
	552,	-360,	374,	650,	-653,	706,	-725,	523,	-500,
	-170,	99,	-1509,	1197,	245,	2414,	1917,	-892,	884,
	1190,	664,	1006,	-1192,	-800,	227,	288,	72,	-435,
	92,	764,	1078,	405,	-1291,	-704,	761,	394,	1362,
	-1007,	432,	-145,	268,	-188,	1149,	-136,	-321,	579,
	-24,	281,	-663,	452,	1721,	197,	-268,	-1257,	457,
	290,	-330,	198,	-1313,	320,	667,	1027,	427,	-1380,
	-378,	109,	236,	1125,	1278,	167,	208,	-533,	36,
	636,	249,	1399,	-442,	656,	101,	-7,	495,	462,
	-626,	1915,	1208,	-178,	955,	-589,	2414,	1236,	1525,
	785,	227,	-229,	623,	-789,	231,	74,	-206,	-796,
	-626,	-653,	-605,	-726,	-665,	310,	459,	-53,	-758,
	-1226,	397,	1030,	609,	459,	-747,	1010,	502,	1537,
	-81,	496,	-1112,	979,	-441,	1829,	-251,	-182,	-96,
	768,	674,	125,	-56,	-928,	-1809,	861,	306,	-901,
	-287,	274,	1866,	1018,	637,	962,	1466,	1065,	-90,
	-384,	-452,	861,	551,	762,	-458,	-1063,	207,	-1698,
	-1480,	-771,	-1081,	587,	-701,	-211,	1032,	833,	174,
	314,	1051,	2279,	2324,	-256,	1841,	732,	150,	146,
	632,	1860,	83,	-707,	-1383,	1036,	1742,	2079,	752,
	-728,	536,	1557,	721,	-316,	364,	601,	1138,	1654,
	1449,	87,	-256,	-2056,	-186,	162,	-351,	733,	427,
	-764,	148,	77,	802,	342,	63,	597,	521,	1955,
	1003,	-97,	1705,	-323,	268,	1256,	564,	1890,	1144,
	-814,	-1043,	-376,	806,	1503,	-2260,	468,	-1203,	-658,
	765,	65,	-491,	-681,	637,	592,	-1513,	234,	-893,
	56,	1402,	505,	-332,	117,	-996,	-433,	1356,	1002,
	-945,	-861,	-1174,	1494,	2125,	533,	48,	-622,	115,
	-1905,	-1249,	-384,	1163,	1678,	64,	-2978,	-280,	370,
	-194,	91,	-3638,	-4318,	-250,	-52,	-615,	-2259,	-1409,
	810,	827,	724,	235,	2280,	1133,	-1022,	-1281,	-1433,
	1234,	1828,	-160,	-592,	39,	-21,	1221,	1108,	31,
	1410,	806,	481,	180,	72,	87,	556,	-1999,	473,
	595,	235,	-2076,	-474,	-1596,	-413,	729,	-424,	221,
	2012,	2264,	735,	-804,	195,	2341,	388,	625,	16,
	-1117,	682,	-86,	588,	885,	-1008,	-205,	71,	-276,
	395,	525,	-2426,	-40,	993,	291,	1636,	-1276,	-552,
	-437,	346,	1226,	616,	549,	-1150,	-998,	-319,	-46,
	-231,	187,	-376,	-261,	-617,	-116,	740,	1713,	978,
	-3,	262,	220,	-148,	895,	-750,	-953,	-346,	-256,
	417,	494,	-1175,	895,	813,	744,	1406,	-129,	-569,
	-832,	630,	675,	-169,	-82,	-291,	-1461,	-1394,	417,
	1587,	1321,	-131,	-1646,	1606,	1661,	1196,	708,	271,
	700,	-356,	580,	-649,	2098,	345,	0,	-321,	-1417,
	746,	1158,	116,	597,	1155,	552,	-333,	-58,	-62,
	995,	194,	-1796,	-772,	-477,	1305,	-624,	352,	1295,
	899,	1080,	-71,	23,	-224,	-218,	388,	-84,	-808,
	-829,	-921,	-931,	-676,	-1419,	-400,	652,	407,	-673,
	784,	-116,	877,	812,	1268,	1374,	373,	-1126,	-335,
	1143,	-7,	352,	-142,	-667,	469,	507,	-723,	-535,
	1141,	133,	-561,	-700,	1268,	312,	660,	-652,	-1529,
	724,	389,	983,	1084,	-387,	-1383,	507,	780,	402,
	1722,	-1858,	-532,	1188,	990,	933,	733,	24,	-152,
	-1550,	-966,	-675,	332,	-983,	-1108,	-924,	468,	1556,
	54,	365,	-365,	721,	336,	487,	22,	-1647,	-527,
	-480,	-223,	-95,	-2095,	-2374,	-250,	-234,	516,	-48,
	1161,	824,	270,	26,	-398,	-422,	-33,	760,	668,
	526,	-1113,	-813,	-5,	-533,	152,	214,	-553,	823,
	118,	517,	392,	-28,	-467,	-834,	1430,	27,	269,
	-2123,	-628,	2071,	2067,	451,	-572,	-979,	36,	1620,
	501,	-963,	-845,	-1209,	-797,	733,	-702,	-1341,	359,
	1014,	-185,	341,	1302,	9,	-741,	633,	-625,	-1180,
	-313,	871,	1160,	-601,	-902,	1153,	-349,	1927,	629,
	975,	-112,	-824,	325,	-544,	-1029,	752,	873,	-1712,
	-81,	-244,	-56,	641,	78,	-904,	-659,	86,	124,
	839,	-425,	-98,	-1367,	143,	1390,	35,	-1474,	-2526,
	-542,	744,	-270,	265,	-3060,	-1651,	258,	-431,	-863,
	-302,	504,	448,	1040,	67,	1336,	-889,	461,	1314,
	-1254,	406,	681,	-32,	345,	-363,	-981,	-508,	111,
	689,	-430,	-593,	-781,	-365,	288,	-49,	1057,	102,
	348,	1280,	1336,	1549,	724,	-1069,	-722,	-251,	-1065,
	-648,	-1750,	255,	643,	497,	-897,	-1670,	-258,	422,
	523,	1176,	1137,	254,	-395,	-1830,	-1406,	802,	632,
	-1386,	-2018,	477,	-336,	127,	-1590,	-1240,	243,	1082,
	271,	-523,	-1440,	-152,	759,	564,	1387,	1910,	2401,
	12,	786,	395,	-144,	747,	457,	816,	569,	59,
	-2731,	-1611,	-203,	542,	58,	-35,	-1831,	-375,	1170,
	839,	-423,	-1836,	1094,	1418,	-712,	-2379,	331,	957,
	991,	-82,	-689,	-406,	1323,	1423,	-1352,	-1400,	-559,
	1924,	-193,	-1541,	1957,	3401,	-83,	1154,	302,	665,
	351,	-242,	746,	585,	497,	385,	-267,	575,	-511,
	-728,	289,	-483,	728,	-902,	-912,	526,	483,	1786,
	-863,	-931,	732,	-623,	1704,	343,	-503,	-664,	686,
	263,	467,	1351,	1851,	730,	162,	-416,	801,	797,
	29,	-723,	-1226,	127,	-19,	-636,	126,	-546,	-1124,
	188,	521,	-1056,	-1413,	-1708,	134,	513,	-475,	-1098,
	-705,	-791,	-347,	-1454,	-278,	-247,	-130,	1521,	33,
	-1312,	-1526,	-739,	825,	1305,	-1426,	-882,	-1363,	2123,
	410,	-839,	62,	-109,	488,	963,	1539,	1149,	124,
	959,	992,	-18,	-30,	359,	178,	658,	1069,	1394,
	1148,	-744,	-313,	1141,	-450,	817,	848,	-631,	-1882,
	-32,	597,	484,	-1119,	-2446,	-2779,	-603,	-111,	-2004,
	-738,	-1814,	783,	518,	-540,	-1677,	-2592,	-143,	1658,
	684,	-1787,	-2480,	-726,	1844,	83,	200,	-374,	-1432,
	1333,	1485,	1222,	787,	1287,	902,	207,	-2178,	-1607,
	279,	1441,	-163,	-660,	-1734,	-1219,	804,	276,	-301,
	-1187,	-1664,	222,	-4,	346,	-1968,	-839,	1919,	1139,
	1444,	-9,	-440,	-244,	971,	1487,	1170,	1113,	-1014,
	-571,	164,	645,	242,	106,	-908,	-1472,	-1106,	-485,
	663,	-1349,	-954,	-82,	259,	1101,	-616,	-3081,	-875,
	236,	749,	52,	-701,	-981,	-1378,	1936,	240,	-316,
	-39,	-1667,	1243,	98,	-1051,	746,	108,	831,	782,
	-462,	13,	654,	444,	182,	323,	27,	-214,	-196,
	225,	745,	-541,	423,	-1608,	834,	-572,	-319,	453,
	-237,	-934,	-747,	-250,	625,	-1434,	-1538,	-1713,	-148,
	770,	-1095,	-1859,	-852,	-40,	65,	1227,	-349,	-653,
	838,	1010,	1879,	-880,	1115,	1581,	487,	-654,	1828,
	2434,	2048,	251,	-102,	1363,	1152,	-1598,	-1865,	-1732,
	-1770,	412,	-1297,	-3948,	356,	-123,	1929,	1099,	1272,
	-714,	-1624,	-1522,	-141,	725,	243,	-2252,	-2710,	-257,
	319,	-84,	-1377,	-2274,	488,	1382,	668,	-869,	-3265,
	-369,	1165,	-65,	1381,	704,	1765,	1293,	1068,	567,
	480,	182,	-981,	24,	-976,	-833,	588,	860,	734,
	-671,	-911,	915,	1686,	1442,	444,	304,	446,	509,
	266,	-451,	-971,	-2097,	-1673,	1247,	-955,	-1543,	-1137,
	-568,	1571,	545,	-939,	-1017,	-506,	304,	1435,	-592,
	361,	1096,	560,	1810,	1219,	778,	-773,	-306,	385,
	83,	-837,	1155,	-805,	-338,	483,	-247,	-886,	1493,
	-1529,	-117,	1451,	289,	-422,	-821,	-257,	1960,	1817,
	140,	200,	2039,	2801,	551,	566,	120,	697,	2081,
	698,	74,	-563,	-467,	101,	553,	1645,	265,	606,
	137,	-421,	571,	-399,	-43,	-223,	-1583,	-236,	11,
	4,	-78,	-202,	-142,	-69,	-883,	907,	1485,	-827,
	607,	-353,	-493,	239,	836,	793,	-116,	1607,	2658,
	1179,	-234,	199,	56,	1695,	403,	996,	-121,	940,
	-206,	1315,	1403,	121,	-1076,	-804,	-1487,	-681,	-439,
	-1109,	-706,	-419,	-405,	-4,	-1493,	167,	-58,	726,
	-174,	-538,	-102,	901,	794,	789,	-631,	142,	-179,
	310,	1320,	856,	378,	171,	457,	-526,	-637,	-80,
	484,	688,	-1346,	-514,	-50,	151,	646,	63,	-1335,
	-821,	599,	308,	-579,	-366,	-636,	216,	-372,	-1129,
	-125,	-114,	-571,	662,	-926,	-1609,	-1709,	-1082,	606,
	-1398,	-711,	-38,	1464,	767,	-1416,	-848,	-296,	2126,
	1100,	-96,	38,	-487,	561,	459,	787,	882,	253,
	198,	1319,	1440,	105,	179,	198,	508,	-1217,	-189,
	556,	-290,	-294,	1431,	-913,	-298,	-313,	-426,	-1545,
	-1726,	-797,	1161,	-57,	658,	-1798,	-367,	-622,	-873,
	-304,	-1567,	-786,	167,	-350,	80,	-877,	-2048,	1664,
	498,	76,	-428,	-365,	281,	541,	500,	1334,	765,
	568,	200,	358,	-1360,	306,	-243,	565,	1378,	194,
	-545,	-185,	-1439,	490,	56,	-309,	1030,	390,	493,
	-330,	-1942,	1463,	1537,	1866,	-116,	287,	-200,	81,
	1005,	591,	1072,	30,	-464,	1196,	1269,	603,	-183,
	-428,	-1008,	964,	571,	944,	-221,	-1382,	71,	15,
	-161,	-530,	-612,	-102,	747,	-247,	-440,	-919,	863,
	282,	313,	649,	-349,	239,	-1545,	-339,	-96,	-1258,
	-205,	406,	785,	422,	-1075,	-517,	460,	1280,	1101,
	685,	348,	-355,	695,	259,	43,	-38,	445,	965,
	1018,	-650,	174,	81,	-651,	1393,	-118,	-1838,	376,
	-1224,	19,	-123,	-1385,	598,	1490,	1369,	57,	-513,
	1130,	457,	257,	-343,	-230,	141,	851,	-603,	787,
	1655,	-302,	-988,	-1427,	1410,	3147,	-1270,	37,	-1140,
	860,	172,	-2139,	2030,	-64,	1503,	-169,	-2976,	919,
	750,	1232,	1609,	-257,	-309,	-36,	296,	1332,	819,
	801,	-882,	-1197,	-943,	-366,	30,	-1264,	-1019,	310,
	-96,	-174,	213,	-55,	-474,	1099,	-673,	619,	1042,
	1028,	821,	-290,	-235,	-1775,	1099,	848,	1569,	-660,
	-344,	1809,	3047,	1433,	228,	-245,	952,	3122,	143,
	-1222,	-1104,	1175,	766,	-303,	-1265,	-667,	-489,	-770,
	891,	-109,	-1009,	-2098,	-1637,	1098,	1531,	-608,	-1332,
	-610,	-593,	-157,	733,	455,	881,	527,	1592,	328,
	-97,	-720,	1347,	-55,	-2099,	-68,	674,	1187,	-1728,
	-2859,	-1489,	183,	-1013,	-224,	-2008,	599,	1424,	687,
	101,	-655,	1815,	224,	-51,	163,	245,	-1063,	427,
	-1459,	1082,	2651,	1661,	-285,	33,	649,	-491,	-1036,
	-394,	557,	222,	1016,	-2550,	-1499,	148,	-419,	1003,
	-1029,	-2535,	1996,	1601,	1690,	-1372,	-400,	-280,	1016,
	174,	199,	-307,	545,	1556,	344,	-1490,	-889,	1412,
	563,	201,	-143,	-1422,	-583,	1133,	9,	345,	-645,
	635,	1120,	-481,	1028,	-68,	1600,	797,	1261,	-1057,
	-1228,	839,	521,	70,	184,	-342,	-1931,	-2246,	884,
	-701,	84,	-3397,	-1154,	576,	641,	-614,	-1395,	-547,
	145,	872,	-7,	-378,	-431,	180,	834,	540,	269,
	428,	788,	-90,	-332,	1043,	882,	-97,	590,	-1412,
	-308,	488,	833,	-1017,	195,	1033,	253,	596,	783,
	154,	1659,	1613,	410,	-689,	-968,	2592,	1393,	1297,
	-615,	-2423,	251,	675,	983,	974,	-1288,	-1767,	-78,
	1317,	278,	1018,	-1258,	-583,	341,	856,	1240,	-189,
	-702,	-51,	20,	-327,	-265,	-702,	-567,	1222,	1222,
	-106,	-207,	90,	-2158,	-313,	1219,	920,	-455,	-94,
	-236,	1202,	786,	399,	-305,	263,	1645,	1255,	1264,
	-1003,	-438,	138,	647,	-1192,	-1647,	-980,	642,	-698,
	294,	-404,	-358,	772,	-676,	724,	329,	591,	-317,
	1007,	-203,	-579,	262,	1343,	1810,	833,	-633,	-617,
	669,	1357,	339,	-1478,	-818,	-492,	831,	-266,	-1061,
	-890,	-839,	-1121,	964,	338,	133,	367,	-492,	245,
	245,	953,	-317,	-763,	672,	-562,	704,	-1089,	-1744,
	-261,	587,	-535,	1562,	-1242,	-1102,	-465,	-863,	644,
	1072,	-1129,	-660,	457,	790,	-795,	-1308,	-625,	-225,
	287,	1525,	688,	72,	-1752,	-777,	1463,	79,	-492,
	-226,	-18,	-1052,	1009,	-534,	-1007,	-314,	278,	559,
	1105,	-1255,	-335,	54,	411,	76,	-339,	599,	-443,
	1094,	704,	870,	2229,	569,	659,	-394,	310,	1403,
	-1245,	-522,	597,	-369,	-714,	692,	-328,	-142,	787,
	-68,	966,	-161,	182,	-60,	295,	1414,	148,	1092,
	418,	399,	1175,	1499,	470,	337,	-279,	-1486,	-1125,
	-1794,	-1393,	-875,	-1486,	-396,	680,	-842,	-1332,	-1573,
	1834,	1139,	-873,	-941,	-1760,	-468,	690,	571,	876,
	-84,	-914,	-281,	599,	413,	-637,	-593,	-664,	382,
	49,	1150,	-767,	-1233,	606,	315,	473,	-1893,	-1146,
	678,	-602,	-499,	658,	180,	421,	-1164,	-707,	-1618,
	-1973,	1077,	4,	-802,	-847,	-105,	-1111,	683,	908,
	-122,	-1254,	-492,	2331,	-493,	-527,	-1364,	-2388,	593,
	466,	9,	-658,	-2486,	3017,	408,	877,	-1329,	-1305,
	65,	484,	530,	-150,	72,	-1046,	-391,	-75,	411,
	-359,	-1539,	-449,	1544,	1515,	975,	-870,	757,	90,
	-114,	211,	202,	34,	2256,	2654,	303,	707,	-420,
	-1303,	-4291,	-1499,	-446,	36,	-720,	-2648,	-315,	-98,
	-485,	-627,	-687,	380,	-1630,	19,	-1105,	417,	981,
	-1282,	-1138,	-81,	-104,	922,	526,	595,	1081,	2105,
	2495,	-831,	-53,	369,	1903,	2808,	-1836,	-2752,	704,
	2544,	1170,	-1583,	-168,	64,	202,	-361,	-1856,	63,
	304,	-512,	-1380,	393,	-172,	-409,	262,	-2195,	-738,
	-670,	1383,	-54,	-337,	-1340,	-528,	-1404,	-875,	-1063,
	-818,	279,	392,	-96,	410,	-1511,	-2028,	171,	1543,
	-200,	1315,	-1465,	-414,	1907,	-568,	2099,	441,	165,
	-259,	1319,	1825,	-833,	-55,	564,	-1363,	-241,	-909,
	271,	-930,	-698,	835,	274,	283,	-451,	402,	-401,
	-204,	1188,	1175,	530,	-1028,	-1568,	364,	1081,	-162,
	811,	521,	537,	446,	-762,	402,	873,	1031,	540,
	-489,	-1036,	47,	1647,	2219,	68,	71,	1,	1015,
	679,	-791,	2507,	-306,	179,	-585,	-1350,	1395,	188,
	-59,	-232,	-1479,	-243,	-418,	-1076,	-1149,	-62,	594,
	-473,	1023,	154,	433,	664,	502,	1084,	1725,	1209,
	-464,	992,	2911,	1647,	690,	-818,	-436,	-563,	717,
	-419,	295,	850,	593,	809,	-37,	-983,	492,	1203,
	1246,	1096,	306,	-555,	511,	1085,	-13,	38,	-233,
	334,	1137,	-1230,	-574,	-875,	1374,	71,	143,	-451,
	809,	595,	946,	325,	-1343,	185,	1392,	1891,	338,
	812,	-1203,	-751,	79,	880,	533,	743,	784,	794,
	-1734,	-421,	557,	752,	200,	-645,	-98,	-1070,	-499,
	74,	-142,	205,	955,	-727,	122,	530,	443,	1068,
	891,	1056,	-54,	-1082,	18,	638,	-395,	-622,	353,
	254,	-309,	-456,	-109,	-423,	-15,	1410,	1704,	715,
	-2297,	-227,	494,	1144,	-156,	18,	-120,	-229,	1395,
	-716,	821,	-454,	156,	682,	-108,	219,	-616,	215,
	417,	197,	96,	-189,	-141,	-786,	-386,	1623,	1731,
	267,	482,	-54,	270,	-25,	1099,	1295,	-79,	1019,
	-1790,	-655,	121,	-60,	2172,	2319,	468,	-711,	-436,
	-1092,	-691,	-423,	-1791,	-1714,	190,	-352,	-857,	86,
	1217,	817,	-400,	336,	2743,	3012,	-414,	742,	-5,
	1260,	326,	3519,	2175,	118,	-439,	-1876,	721,	-605,
	-678,	-340,	465,	1212,	2204,	508,	1025,	616,	288,
	414,	395,	-57,	56,	-211,	-736,	48,	842,	794,
	242,	-780,	657,	-88,	452,	-1602,	-1003,	-337,	-28,
	1191,	-651,	792,	-613,	585,	-43,	128,	1687,	927,
	633,	-1251,	-2457,	-4,	-649,	433,	701,	-1238,	-1099,
	-1400,	1739,	1093,	-189,	709,	1791,	1314,	764,	-138,
	-242,	136,	481,	-577,	-994,	32,	626,	494,	-1822,
	375,	-315,	-451,	-797,	-193,	2346,	947,	-236,	-1544,
	-1093,	922,	621,	-1881,	117,	155,	869,	896,	-754,
	-1541,	-167,	-531,	560,	-1735,	-1328,	-565,	1067,	494,
	-583,	-110,	884,	314,	853,	-3303,	-944,	773,	-734,
	2265,	2093,	696,	1062,	-484,	847,	476,	-491,	904,
	-398,	827,	1274,	-1920,	-458,	-965,	-793,	-1678,	341,
	-1220,	1469,	1545,	2144,	940,	-413,	-1515,	459,	1338,
	-316,	-1160,	-2502,	342,	116,	-92,	-843,	-3676,	-309,
	813,	-1192,	-2483,	-1661,	1106,	964,	37,	-1038,	330,
	792,	1186,	-207,	298,	507,	214,	1173,	-981,	-345,
	292,	-1682,	923,	1469,	-689,	-2036,	-2004,	1779,	1669,
	-621,	-2456,	-2565,	1258,	2172,	-220,	376,	-1007,	1711,
	399,	226,	-770,	-675,	259,	606,	-1031,	8,	548,
	713,	-659,	790,	870,	-609,	895,	1035,	-369,	-168,
	334,	2077,	563,	622,	489,	929,	2115,	1094,	647,
	693,	376,	1348,	-140,	-192,	1932,	1178,	547,	145,
	-2103,	-326,	-915,	1518,	1282,	39,	-1379,	337,	1345,
	2013,	-131,	-987,	-189,	142,	195,	-60,	-8,	-550,
	611,	246,	348,	436,	366,	366,	844,	576,	474,
	-718,	-605,	-751,	738,	1288,	1046,	-518,	209,	217,
	-87,	722,	3120,	1537,	526,	914,	1288,	-1246,	-477,
	983,	42,	743,	271,	333,	759,	642,	-181,	297,
	423,	285,	-814,	-1103,	1118,	1485,	460,	-880,	768,
	-593,	-1178,	0,	1438,	-284,	-694,	-718,	-220,	327,
	1006,	322,	462,	97,	-722,	-124,	-566,	-817,	1278,
	-1041,	-552,	-114,	1231,	1221,	-873,	-894,	-41,	874,
	237,	-160,	111,	-1011,	-1050,	817,	332,	-655,	-772,
	26,	-86,	1176,	-35,	-1629,	-315,	387,	-148,	52,
	108,	-303,	-789,	100,	-322,	-201,	-166,	150,	-316,
	1756,	583,	340,	-542,	-1200,	421,	956,	-321,	-823,
	-1658,	-371,	1455,	102,	-944,	-1730,	57,	227,	1317,
	-955,	1090,	166,	348,	988,	543,	-1374,	-1841,	-1078,
	-47,	-804,	1574,	-1711,	54,	54,	-971,	1060,	-1472,
	693,	1407,	-628,	178,	271,	1002,	1852,	638,	-1551,
	994,	1066,	297,	-464,	-1380,	-135,	164,	-1277,	-416,
	-747,	539,	-110,	-1390,	222,	-830,	-1002,	55,	-1772,
	-788,	1467,	925,	-1104,	1193,	3311,	-107,	-722,	229,
	3356,	2813,	-12,	-696,	-579,	-526,	1194,	1836,	-238,
	27,	11,	259,	459,	-1290,	-543,	-677,	211,	204,
	1262,	-709,	-1001,	-239,	-1488,	-776,	-120,	-384,	-1087,
	-1073,	1098,	855,	-657,	529,	-478,	-2,	98,	461,
	1156,	-1220,	39,	-876,	-1246,	-1510,	-1454,	1373,	344,
	-2658,	-2138,	-81,	88,	-371,	-1739,	-1411,	526,	-40,
	-213,	-136,	-759,	-755,	-895,	247,	159,	-1103,	-1793,
	378,	326,	1249,	-867,	-439,	2,	1282,	1875,	989,
	342,	-842,	891,	1254,	798,	1601,	1626,	2409,	1041,
	675,	-890,	-924,	986,	2135,	-658,	-132,	-2361,	70,
	2460,	235,	-313,	1479,	1212,	1255,	918,	108,	459,
	2007,	-557,	-83,	540,	1181,	881,	687,	-207,	225,
	468,	-358,	-1646,	-1000,	412,	-127,	-307,	-1045,	-1351,
	-52,	1607,	910,	-305,	-406,	-724,	962,	485,	900,
	-12,	930,	59,	-996,	-592,	165,	-793,	-463,	-1938,
	-681,	187,	-504,	-1219,	-1617,	262,	-524,	-560,	-89,
	-923,	-102,	488,	-728,	209,	-770,	990,	-728,	2574,
	1050,	-312,	-850,	-1213,	2191,	1270,	-665,	-1139,	-646,
	-832,	830,	-307,	94,	-795,	-1169,	673,	-258,	724,
	1045,	-330,	578,	1167,	604,	-489,	-117,	424,	-271,
	273,	-267,	257,	-26,	31,	-360,	611,	73,	281,
	224,	-1065,	-350,	346,	-251,	600,	628,	16,	-3,
	1061,	572,	-883,	-395,	1183,	-1517,	-1699,	-1126,	-842,
	2530,	38,	-1939,	-1589,	-938,	2000,	245,	-496,	-724,
	-1453,	128,	379,	-796,	-256,	-148,	-241,	-212,	410,
	387,	-255,	-10,	-498,	504,	-317,	-42,	877,	161,
	662,	775,	-27,	-423,	834,	-635,	870,	-221,	279,
	-239,	416,	-264,	-6,	241,	335,	-1237,	-318,	-891,
	1187,	573,	1408,	-340,	-755,	555,	1503,	194,	-903,
	291,	240,	-1299,	15,	-302,	-1118,	92,	20,	-611,
	-1151,	-111,	438,	55,	-357,	481,	-218,	542,	892,
	-83,	-1180,	-1051,	334,	1381,	232,	-1572,	159,	-213,
	-745,	206,	-1310,	-574,	1199,	-635,	149,	-209,	569,
	412,	62,	178,	716,	-695,	-766,	1245,	2067,	1427,
	976,	856,	-292,	2021,	1497,	648,	384,	-799,	305,
	1279,	-327,	927,	433,	-118,	277,	-443,	-426,	825,
	-483,	-253,	617,	1633,	1078,	156,	192,	-734,	-615,
	-254,	-1069,	-1007,	-918,	299,	458,	-1332,	578,	-430,
	480,	496,	-669,	-919,	431,	-75,	681,	677,	910,
	48,	-585,	191,	-1075,	-979,	-574,	834,	769,	-1752,
	-117,	-405,	2476,	-88,	-284,	-1258,	-67,	125,	728,
	-1083,	-330,	610,	778,	-417,	-1005,	-720,	1285,	-542,
	-1460,	-556,	-1106,	-1244,	453,	1440,	931,	-604,	-387,
	699,	990,	909,	-231,	-475,	-811,	-1349,	-440,	-548,
	-747,	-88,	-1638,	809,	417,	-4,	-232,	972,	1186,
	1321,	914,	206,	-270,	339,	685,	341,	671,	285,
	669,	419,	865,	-384,	-272,	-81,	-257,	-289,	-52,
	-600,	-1487,	-129,	-190,	46,	2384,	1854,	1058,	1227,
	-717,	-269,	-128,	-208,	489,	-595,	254,	-404,	949,
	965,	-972,	1265,	1973,	1220,	-237,	416,	-798,	180,
	-143,	-697,	541,	-712,	-1368,	-1378,	285,	1409,	-2270,
	-2042,	-2786,	-1453,	566,	954,	-1014,	-2178,	-1445,	-16,
	-51,	51,	294,	106,	-1197,	-53,	1221,	849,	-272,
	587,	843,	2495,	723,	-329,	-1094,	-1073,	537,	1879,
	-504,	541,	-2232,	2191,	2397,	327,	1922,	937,	2268,
	1238,	10,	609,	-349,	1624,	-243,	-1371,	1602,	-241,
	1598,	872,	-449,	-1098,	-1542,	-1111,	-446,	-1294,	-346,
	-3600,	-2343,	-373,	-298,	729,	-934,	-1189,	1933,	363,
	-535,	276,	692,	556,	2021,	1460,	-102,	-663,	662,
	-42,	-2019,	-1243,	-1164,	-215,	992,	-1412,	391,	-785,
	428,	1454,	-13,	312,	-1262,	-617,	1457,	1417,	679,
	-67,	609,	-199,	1373,	368,	931,	-890,	-1022,	1607,
	2002,	1178,	-1325,	655,	-3167,	-2140,	-42,	-303,	193,
	2332,	171,	-301,	-532,	1088,	1119,	1730,	789,	-116,
	-587,	-445,	233,	97,	-27,	1151,	122,	881,	-1180,
	-559,	-1042,	-673,	1766,	153,	-49,	261,	-1386,	186,
	1022,	1085,	-424,	549,	-1379,	-340,	1129,	-450,	2160,
	1503,	-779,	-1202,	-303,	782,	815,	-293,	-247,	-608,
	-1572,	-586,	386,	-640,	1421,	-1684,	-1796,	-431,	-490,
	878,	46,	-415,	-251,	-183,	140,	-56,	763,	675,
	1012,	260,	731,	-2429,	-938,	-196,	-130,	631,	1286,
	-967,	-726,	-130,	-18,	1081,	905,	985,	-503,	-661,
	-1152,	371,	1089,	-860,	922,	-364,	-578,	-2341,	-759,
	-151,	-819,	1926,	-5,	-1092,	309,	-862,	1746,	1014,
	214,	50,	-1899,	-1477,	1576,	-389,	924,	-421,	-517,
	482,	1127,	-110,	76,	1437,	-756,	-712,	691,	154,
	1495,	-70,	-604,	-1320,	-1780,	1550,	1786,	-934,	722,
	-1002,	43,	1674,	1085,	111,	-113,	803,	850,	461,
	-805,	-555,	87,	973,	-465,	210,	250,	982,	912,
	-1038,	2248,	1538,	2287,	1276,	-432,	-378,	757,	1053,
	207,	473,	-462,	119,	-166,	-810,	-624,	-91,	-408,
	-317,	1250,	-637,	-739,	-232,	590,	1512,	769,	-2326,
	-1175,	-1933,	1109,	419,	1033,	-441,	-1539,	88,	1296,
	1223,	602,	-27,	-476,	1081,	786,	979,	595,	362,
	-778,	1689,	1700,	-609,	-1481,	101,	1513,	1170,	76,
	-925,	-560,	-1088,	624,	-79,	-877,	66,	554,	-304,
	-331,	-53,	-672,	40,	438,	1337,	-32,	98,	973,
	-731,	-507,	-254,	112,	-711,	-2107,	-472,	1186,	-1702,
	1506,	1391,	1132,	1715,	549,	2119,	472,	998,	1957,
	-701,	-755,	-348,	717,	1170,	-854,	248,	1992,	1193,
	116,	-656,	1181,	2694,	3437,	747,	-334,	-1296,	480,
	559,	487,	-987,	-907,	347,	143,	444,	-771,	-30,
	-963,	-1090,	-302,	-937,	-1915,	-1975,	-3609,	428,	-1000,
	1506,	380,	175,	2661,	320,	461,	801,	450,	867,
	1482,	-512,	-380,	-828,	-2,	333,	414,	1385,	-244,
	-600,	-692,	480,	254,	-151,	587,	461,	-2580,	809,
	906,	967,	53,	-693,	-1589,	-799,	-345,	1177,	610,
	-71,	141,	636,	-527,	-497,	604,	580,	-397,	489,
	-57,	-399,	-561,	778,	-115,	-344,	-670,	-811,	750,
	251,	531,	506,	523,	-375,	116,	-345,	-181,	-799,
	442,	-368,	82,	577,	306,	-415,	-357,	-608,	-294,
	-675,	-682,	-39,	356,	495,	-109,	-618,	-660,	-302,
	173,	-64,	-776,	225,	-692,	544,	-772,	617,	-457,
	-96,	-500,	741,	-662,	387,	-56,	-21,	60,	-307,
	-460,	733,	289,	314,	-76,	-76,	-96,	-456,	-336,
	185,	661,	237,	294,	506,	-632,	-402,	-571,	432,
	-412,	-501,	55,	78,	276,	152,	-312,	803,	-783,
	-251,	-237,	619,	704,	163,	-725,	-241,	265,	544,
	-463,	-309,	696,	-355,	803,	-797,	226,	-6,	-40,
	-338,	-765,	-480,	-356,	675,	-440,	618,	36,	-694,
	336,	-678,	77,	-37,	-674,	-113,	97,	267,	-803,
	346,	-564,	-666,	55,	665,	-691,	596,	348,	-713,
	-205,	-201,	31,	-772,	-545,	-395,	-405,	-513,	-773,
	274,	-114,	629,	-247,	93,	66,	268,	-339,	219,
	788,	-325,	-800,	-238,	-73,	-459,	116,	-477,	-798,
	-413,	414,	-365,	-683,	-688,	35,	295,	-374,	-70,
	-440,	-558,	-598,	428,	-381,	-216,	585,	78,	-46,
	483,	-341,	786,	-667,	-536,	-508,	-441,	-200,	400,
	302,	-469,	-208,	156,	595,	249,	-748,	-611,	-361,
	689,	-474,	-12,	-371,	-818,	71,	-761,	-346,	634,
	-122,	56,	-198,	804,	-514,	129,	-423,	539,	-49,
	554,	-176,	198,	464,	-134,	627,	124,	-235,	693,
	374,	-68,	259,	-37,	220,	-475,	-219,	118,	-624,
	-3,	120,	-274,	-295,	-769,	-334,	-670,	-227,	-158,
	-717,	-250,	444,	-342,	-589,	797,	274,	-602,	141,
	772,	-440,	279,	-290,	-564,	29,	282,	-49,	-791,
	775,	602,	715,	229,	-92,	551,	791,	-611,	-559,
	-337,	-772,	-626,	713,	-631,	67,	694,	-705,	29,
	-482,	671,	-734,	-508,	-714,	-787,	225,	-182,	-540,
	308,	208,	-252,	569,	-345,	-724,	-21,	91,	69,
	-325,	256,	-474,	90,	-620,	497,	-776,	-12,	-575,
	-471,	-406,	-117,	538,	-638,	525,	-520,	-130,	-748,
	-14,	-760,	-546,	553,	-511,	-438,	300,	-141,	6,
	-533,	494,	307,	299,	-521,	-581,	180,	-116,	649,
	679,	209,	139,	-96,	554,	-672,	-531,	-87,	-41,
	715,	334,	315,	618,	45,	166,	-464,	725,	-609,
	-74,	-405,	693,	214,	682,	-77,	190,	529,	-662,
	159,	-125,	-317,	285,	20,	-813,	-317,	-222,	-486,
	-81,	541,	784,	-355,	-663,	-713,	-69,	256,	-593,
	-216,	242,	-53,	65,	136,	60,	381,	-469,	501,
	518,	378,	213,	137,	-729,	464,	263,	-33,	-352,
	-271,	-60,	704,	418,	765,	-631,	551,	685,	217,
	-282,	-844,	-1446,	-400,	454,	-1622,	-2158,	-1798,	-11,
	-1576,	-913,	-654,	888,	657,	605,	419,	-2415,	-253,
	829,	863,	975,	-1846,	-666,	-941,	123,	2022,	661,
	1392,	-338,	-370,	1764,	-367,	-743,	-388,	-494,	1486,
	2165,	-1705,	-860,	-929,	-1427,	-215,	2091,	464,	826,
	530,	398,	-1524,	1,	150,	478,	970,	325,	-1668,
	-824,	907,	265,	-1223,	-1938,	-1269,	8,	435,	-731,
	-574,	-1999,	-35,	486,	-326,	-433,	516,	913,	881,
	224,	968,	1249,	207,	1082,	-272,	-531,	1021,	-16,
	179,	1958,	76,	-491,	-2174,	1281,	1651,	203,	-1439,
	-2421,	1100,	893,	-671,	237,	83,	-378,	-90,	1125,
	208,	-239,	413,	437,	-473,	886,	422,	1091,	-675,
	-277,	-157,	-203,	243,	-52,	-678,	-178,	936,	1356,
	-260,	571,	-251,	-978,	241,	1621,	-529,	1341,	852,
	914,	169,	-611,	641,	882,	1249,	-64,	-858,	527,
	115,	417,	2011,	254,	-867,	-238,	1181,	284,	70,
	-942,	-884,	-134,	862,	-43,	395,	-686,	-530,	145,
	-981,	337,	-250,	105,	-790,	-711,	-387,	-180,	517,
	47,	305,	1057,	174,	-1137,	431,	683,	31,	-178,
	-83,	705,	427,	78,	633,	-774,	-366,	618,	1162,
	1289,	-821,	1252,	231,	-88,	1312,	-957,	290,	1198,
	-1598,	-49,	830,	1069,	-307,	-473,	-93,	257,	-1141,
	-1118,	354,	1316,	325,	484,	-71,	98,	674,	-249,
	947,	676,	918,	-12,	-653,	1001,	1605,	-503,	313,
	134,	116,	973,	644,	-114,	-364,	1402,	1044,	-945,
	-536,	-1217,	-953,	-2,	-164,	-1008,	-6,	-730,	-311,
	1630,	-443,	-877,	-1295,	538,	471,	-243,	-223,	-604,
	14,	-1099,	-1166,	-873,	-379,	-474,	65,	1563,	1912,
	736,	216,	-974,	-59,	1367,	107,	-67,	-423,	-19,
	674,	522,	202,	-1201,	-323,	1422,	870,	-163,	879,
	-1054,	482,	-304,	1177,	-1147,	-1009,	-370,	508,	-122,
	1072,	-709,	376,	934,	-874,	1095,	-1386,	-318,	1703,
	415,	1047,	-1243,	-130,	1176,	288,	-1612,	337,	684,
	-27,	-302,	-1615,	-182,	-280,	-227,	-730,	-1203,	-275,
	127,	-560,	472,	-1010,	134,	392,	-657,	-309,	2824,
	1459,	-1285,	-344,	1955,	1208,	767,	134,	1449,	832,
	-145,	-1366,	-1153,	-678,	913,	1319,	82,	1052,	-895,
	444,	1189,	197,	-301,	-96,	-741,	231,	785,	-440,
	-842,	74,	-372,	-1513,	-413,	-17,	64,	-510,	632,
	864,	46,	547,	-1129,	172,	49,	-1523,	-31,	-1062,
	542,	142,	-1832,	-2323,	-1997,	172,	-425,	-2778,	452,
	-1113,	213,	874,	-655,	-1017,	1350,	508,	-301,	377,
	-1682,	201,	684,	261,	712,	-1103,	-1647,	180,	1292,
	1608,	27,	-1474,	-654,	-82,	1487,	191,	774,	645,
	-61,	1276,	347,	-206,	487,	582,	577,	-792,	-370,
	548,	772,	-790,	73,	-679,	258,	-803,	-499,	247,
	-35,	261,	423,	325,	-172,	-582,	-500,	720,	324,
	-728,	-795,	243,	503,	297,	484,	-282,	-647,	645,
	521,	788,	191,	129,	76,	347,	116,	57,	86,
	-779,	736,	-752,	672,	-681,	-758,	55,	619,	-283,
	-574,	-303,	-735,	805,	-545,	121,	-108,	-623,	-733,
	-225,	-726,	-64,	489,	406,	-30,	52,	687,	-191,
	-592,	685,	-410,	-616,	255,	-614,	-743,	597,	-546,
	223,	-225,	657,	582,	116,	45,	515,	275,	338,
	25,	-465,	-485,	51,	249,	238,	558,	427,	46,
	-668,	17,	-860,	561,	-119,	220,	-77,	-896,	-745,
	-275,	223,	653,	-449,	9,	-218,	-490,	-256,	189,
	-606,	9,	121,	-687,	-677,	-219,	255,	495,	-323,
	-392,	-525,	-233,	-525,	62,	506,	-783,	-421,	-18,
	485,	-395,	-278,	456,	9,	-456,	-588,	-124,	-577,
	-436,	-472,	-905,	-676,	9,	-246,	368,	-43,	-116,
	48,	402,	11,	315,	178,	-752,	-592,	691,	485,
	-226,	314,	584,	-379,	-551,	-500,	-879,	-217,	-663,
	661,	396,	-637,	-576,	400,	-762,	-296,	560,	-190,
	-874,	250,	675,	152,	-337,	-256,	75,	-534,	-397,
	619,	-4,	-733,	713,	361,	-432,	-506,	556,	-365,
	-152,	-508,	488,	-339,	-39,	-822,	306,	364,	-513,
	448,	-690,	-28,	-812,	-694,	126,	687,	0,	54,
	-90,	-177,	-285,	-354,	-18,	-838,	-195,	272,	89,
	346,	-698,	-552,	231,	417,	420,	244,	-486,	-358,
	512,	17,	7,	644,	390,	86,	-892,	59,	-300,
	-797,	-360,	-701,	472,	-544,	-801,	328,	-430,	-460,
	500,	-899,	-441,	-581,	714,	-89,	-308,	-435,	161,
	-540,	-439,	522,	369,	425,	403,	-202,	373,	-741,
	-259,	653,	423,	-480,	51,	594,	-302,	-250,	-293,
	-12,	-10,	-502,	-602,	515,	-631,	373,	220,	-192,
	465,	-36,	-133,	273,	-250,	-869,	219,	-727,	-882,
	274,	487,	232,	639,	-210,	-404,	91,	-533,	-835,
	-312,	-380,	614,	-567,	-55,	436,	6,	343,	-514,
	-778,	-244,	-267,	12,	-710,	-549,	-119,	580,	-736,
	-60,	-223,	-493,	-743,	-491,	-303,	687,	-146,	29,
	-668,	555,	-605,	488,	560,	-460,	-94,	712,	-10,
	-830,	-534,	-136,	-882,	-71,	698,	-324,	-890,	-879,
	-388,	-139,	-521,	-658,	371,	-119,	-622,	-512,	-245,
	153,	-650,	-577,	-582,	521,	-682,	-287,	-149,	683,
	-60,	730,	-719,	350,	-356,	-332,	-784,	154,	711,
	268,	626,	-16,	-554,	-72,	165,	-827,	-83,	-88,
	447,	521,	26,	620,	252,	-163,	556,	-85,	562,
	249,	154,	691,	724,	-314,	258,	-724,	-3,	-34,
	1525,	712,	-1477,	1330,	-1628,	-1173,	724,	-64,	-399,
	325,	1511,	-2661,	-701,	-728,	-470,	-501,	-3077,	-1540,
	-938,	-1489,	-618,	-671,	159,	840,	-889,	-2319,	-1772,
	-738,	650,	588,	-202,	889,	-387,	-1308,	676,	908,
	1105,	-254,	39,	637,	-472,	361,	2069,	-1527,	-1755,
	-921,	1181,	240,	433,	839,	-20,	469,	-672,	2271,
	1763,	710,	-294,	-89,	-1377,	-131,	1486,	-1144,	-943,
	-104,	217,	476,	321,	-2132,	-1536,	-299,	929,	213,
	828,	-705,	1665,	1625,	710,	1437,	483,	877,	228,
	-154,	-342,	58,	1419,	1322,	230,	-956,	1745,	138,
	796,	1067,	1453,	-611,	-2000,	-1646,	-166,	-872,	131,
	-587,	-345,	-199,	-471,	-1436,	-45,	397,	1220,	-757,
	-448,	-468,	594,	793,	970,	-877,	-239,	-570,	-159,
	552,	-296,	-413,	-345,	718,	1165,	-1061,	1292,	744,
	730,	62,	-1588,	704,	878,	1656,	344,	889,	567,
	886,	479,	1168,	666,	226,	308,	-320,	-495,	356,
	894,	-626,	-99,	633,	321,	-81,	-369,	-580,	-42,
	-878,	-1515,	-289,	-671,	-1273,	-204,	-884,	1260,	1020,
	1053,	135,	-214,	33,	-316,	-371,	-557,	-273,	-792,
	400,	904,	-1541,	-2609,	575,	1502,	490,	1135,	-1086,
	-96,	1490,	1960,	1339,	911,	-1424,	-79,	-110,	1045,
	923,	-1235,	-606,	-1083,	-667,	74,	342,	381,	-728,
	-984,	-1439,	1983,	2429,	-405,	779,	-2010,	-674,	719,
	551,	-34,	-1277,	-1772,	-734,	832,	242,	-73,	-2025,
	-206,	524,	-18,	279,	-69,	-582,	-343,	-142,	-2140,
	-2100,	-1082,	-1119,	-975,	-853,	-472,	618,	544,	-1020,
	1302,	484,	214,	-354,	-431,	-1137,	316,	-1657,	388,
	553,	658,	857,	191,	-1188,	-210,	120,	199,	169,
	713,	280,	1299,	-123,	282,	88,	-393,	215,	-966,
	-786,	-342,	-23,	-50,	740,	-524,	-443,	-870,	-796,
	-51,	8,	-718,	-1812,	898,	563,	252,	602,	-3506,
	676,	1008,	679,	460,	-309,	-821,	182,	184,	-108,
	602,	-1677,	-706,	850,	-717,	596,	-525,	-712,	338,
	489,	954,	79,	23,	-340,	-607,	-1301,	-1498,	-669,
	-1174,	-722,	-104,	1048,	767,	1898,	1201,	505,	927,
	237,	988,	1625,	-1058,	-477,	-1465,	-1084,	1367,	102,
	-754,	-1309,	-769,	-680,	-600,	-148,	482,	-1060,	121,
	-762,	459,	1076,	466,	128,	-483,	-1136,	97,	-154,
	-1097,	-313,	1307,	1916,	177,	-517,	815,	-866,	-1625,
	-1767,	-1309,	452,	2510,	-513,	753,	-690,	-1213,	1107,
	682,	94,	-903,	-2213,	306,	-402,	-1330,	-1999,	-1769,
	554,	1318,	1196,	-43,	609,	1577,	274,	1343,	1889,
	-1295,	158,	778,	536,	562,	-37,	-144,	37,	-147,
	189,	1053,	89,	-1,	-215,	-148,	211,	-616,	-1545,
	228,	773,	-53,	-89,	-1891,	-601,	396,	-697,	-849,
	1719,	853,	51,	1283,	-438,	802,	-1788,	167,	-535,
	277,	-1838,	-343,	1041,	-486,	1678,	2658,	2970,	1900,
	-422,	-647,	2226,	-597,	-732,	139,	1222,	-1727,	-1993,
	-1731,	54,	1045,	1415,	-103,	-515,	-424,	636,	2668,
	2859,	-476,	331,	489,	-219,	50,	1277,	1401,	235,
	-430,	-393,	-1437,	675,	-727,	-783,	319,	-701,	1434,
	86,	265,	1965,	669,	1140,	406,	200,	281,	-602,
	215,	-419,	-88,	631,	1335,	1099,	312,	-1235,	-2521,
	-702,	-531,	747,	-1358,	-469,	977,	543,	-569,	-1318,
	-1474,	-268,	139,	807,	-1657,	-1472,	-492,	1261,	1182,
	461,	1731,	1369,	-266,	694,	873,	1286,	756,	-294,
	-322,	-743,	-784,	-1149,	140,	-865,	445,	217,	-315,
	260,	508,	-592,	121,	184,	536,	682,	-101,	-1769,
	-357,	1288,	-1202,	-709,	-621,	130,	915,	48,	-1131,
	-481,	-411,	304,	-813,	-1085,	-513,	-1033,	1071,	-537,
	-1306,	-962,	-1212,	1725,	790,	753,	591,	-441,	686,
	257,	802,	965,	759,	-386,	-372,	1095,	384,	-18,
	-1252,	381,	-885,	509,	846,	1104,	1465,	465,	993,
	539,	-183,	-727,	-1894,	-1679,	246,	197,	214,	-1374,
	-2498,	389,	177,	462,	21,	-111,	353,	452,	858,
	-170,	-117,	-403,	380,	-865,	-415,	-820,	-1010,	495,
	-211,	-208,	48,	566,	485,	-301,	-2125,	-2383,	-738,
	754,	-160,	675,	-1197,	83,	105,	-108,	251,	-1259,
	-457,	986,	796,	854,	-1146,	-1938,	-129,	941,	586,
	149,	-811,	-633,	322,	1273,	1674,	-106,	65,	1672,
	-176,	-1016,	107,	609,	617,	871,	1012,	526,	27,
	62,	-463,	570,	-45,	882,	-1311,	-2116,	-755,	372,
	1206,	-604,	-1075,	-382,	-833,	350,	235,	-111,	530,
	-2102,	1038,	496,	-870,	1090,	-793,	556,	-589,	-69,
	-694,	-541,	985,	962,	62,	534,	1014,	346,	693,
	634,	742,	893,	-1243,	220,	-1431,	168,	319,	-396,
	-1209,	-1304,	581,	1501,	-54,	-853,	-1314,	-1474,	-231,
	844,	188,	-1996,	-632,	433,	1704,	159,	345,	-88,
	-306,	632,	-816,	2002,	-131,	-1603,	-1007,	-1065,	-831,
	-1096,	-944,	1094,	588,	892,	-696,	-256,	1209,	2473,
	2552,	487,	-760,	-377,	1156,	1156,	529,	1536,	-361,
	1354,	193,	11,	36,	348,	1681,	-412,	-158,	43,
	-1115,	-28,	-45,	-15,	84,	-459,	-300,	-2553,	-409,
	-5,	-389,	59,	692,	913,	-2,	1231,	137,	-608,
	137,	-1792,	1286,	-115,	1373,	1835,	119,	-344,	-681,
	1073,	3748,	1851,	-862,	-1821,	-1256,	2059,	1720,	1982,
	9,	-1264,	-1269,	-1666,	1464,	-422,	-732,	-1349,	-147,
	-179,	-333,	-991,	-1775,	-1448,	57,	-311,	-2146,	-496,
	47,	1468,	895,	675,	232,	115,	-494,	-1063,	-977,
	1025,	606,	2343,	-15,	-2296,	-755,	933,	-64,	-521,
	-2824,	-4899,	-1675,	-395,	1291,	-1308,	-516,	775,	-268,
	-838,	-2444,	-1037,	978,	-1229,	-1446,	-2223,	-865,	2350,
	835,	-282,	610,	2807,	2533,	-1163,	1860,	1365,	174,
	1717,	149,	-814,	-261,	-727,	89,	-596,	192,	1585,
	1074,	-28,	-957,	1043,	1292,	-180,	-289,	963,	1398,
	471,	-1054,	-1019,	-809,	-287,	1106,	-1087,	-4000,	404,
	115,	161,	-424,	-1755,	-1197,	807,	-251,	167,	856,
	-3238,	294,	369,	850,	974,	-1506,	-374,	668,	1311,
	-2,	-1174,	26,	-65,	-99,	-776,	181,	-37,	1706,
	1648,	1202,	-768,	-1102,	167,	-307,	-136,	-72,	-375,
	-609,	-862,	-131,	-1685,	-471,	-33,	1779,	950,	542,
	-1412,	702,	1121,	1003,	-306,	-537,	1162,	290,	-917,
	851,	655,	1081,	1497,	444,	-2313,	836,	864,	851,
	1134,	-2868,	307,	464,	189,	-474,	230,	797,	-419,
	-57,	87,	877,	1423,	665,	105,	-609,	258,	323,
	65,	-380,	273,	-319,	-1181,	-997,	12,	-1392,	-446,
	-736,	-719,	210,	876,	448,	-1057,	813,	1991,	646,
	-274,	-383,	-236,	666,	-286,	-251,	818,	1115,	2152,
	129,	-1094,	-846,	-271,	3911,	1512,	314,	-11,	89,
	590,	1531,	867,	1252,	-525,	-884,	452,	171,	-475,
	75,	358,	-190,	-889,	762,	-172,	-828,	-994,	-1404,
	-964,	1252,	1697,	902,	273,	112,	-1204,	1083,	1274,
	589,	780,	-911,	-851,	848,	-948,	620,	909,	217,
	793,	59,	-526,	-1193,	-210,	285,	342,	-894,	-1586,
	219,	1089,	-803,	397,	-183,	784,	1454,	-1391,	554,
	211,	59,	983,	316,	28,	-154,	-54,	-399,	598,
	1260,	352,	-565,	12,	-446,	713,	898,	-317,	872,
	-472,	858,	778,	136,	387,	-1341,	567,	455,	-1064,
	-2274,	381,	59,	1289,	-184,	-25,	255,	-558,	478,
	-171,	961,	-627,	408,	811,	765,	-947,	-2995,	-748,
	1330,	1108,	-607,	-717,	-905,	-141,	1693,	198,	182,
	434,	518,	-97,	-159,	1361,	1157,	637,	749,	183,
	329,	-11,	-637,	-778,	-962,	-1251,	-376,	-1667,	121,
	1367,	-429,	-963,	1149,	-230,	1025,	550,	1042,	823,
	1277,	1357,	-117,	-995,	-1261,	547,	2578,	-765,	-1425,
	-900,	-1017,	503,	-395,	270,	-205,	492,	203,	-446,
	-634,	-1138,	699,	911,	717,	-840,	-851,	-775,	-891,
	-403,	-318,	661,	-472,	-1246,	97,	-1076,	-843,	-996,
	808,	2817,	1060,	1906,	-1104,	2023,	249,	640,	396,
	-1393,	-524,	-833,	-275,	1,	-1426,	-1739,	797,	218,
	-326,	-52,	-1671,	-525,	784,	652,	616,	977,	-215,
	1281,	1490,	1138,	-133,	-1450,	-1302,	-301,	-449,	-1263,
	753,	621,	638,	114,	-1127,	-14,	-87,	-213,	149,
	502,	987,	851,	113,	-1315,	-102,	348,	-600,	-1662,
	-1870,	1189,	-830,	2152,	-1360,	-144,	1097,	-503,	471,
	-2115,	360,	704,	321,	124,	-679,	-1516,	127,	-580,
	354,	-395,	732,	837,	735,	1204,	-72,	60,	546,
	-621,	387,	2826,	-893,	1063,	-357,	-918,	747,	1498,
	556,	1741,	398,	-391,	-268,	716,	-733,	231,	676,
	2267,	143,	1528,	647,	856,	10,	-31,	-671,	-926,
	1236,	14,	-291,	-797,	-764,	-357,	-379,	-310,	925,
	433,	109,	506,	751,	-765,	-250,	1376,	2483,	846,
	-58,	-1305,	928,	1950,	1587,	-73,	428,	-874,	-554,
	501,	-1102,	-901,	97,	1315,	-1231,	1087,	369,	460,
	1079,	1731,	241,	-27,	-936,	-205,	250,	-251,	1190,
	789,	-89,	412,	852,	-441,	1417,	1259,	573,	1156,
	1281,	790,	-791,	1686,	-265,	-50,	696,	53,	-332,
	-848,	931,	1251,	1333,	529,	-66,	11,	2140,	2220,
	306,	225,	-207,	314,	729,	-253,	-879,	719,	-480,
	-929,	-984,	-1627,	-639,	-105,	-70,	-761,	-349,	-132,
	-326,	970,	-216,	1107,	164,	367,	-1558,	418,	599,
