#include <params/include/fc1_Gemm.h>

__ro_hinv mat_t fc1_weight_meta = {
	.dims = {84, 120},
	.len_dims = 2,
	.strides = {120, 1},
	.data = (fixed *)fc1_weight
};

__ro_hinv mat_t fc1_bias_meta = {
	.dims = {1, 84},
	.len_dims = 2,
	.strides = {84, 1},
	.data = (fixed *)fc1_bias
};

__ro_hinv _q15 fc1_weight[] = {
	-1729,	-1610,	210,	-954,	1721,	189,	-822,	-1399,	-891,
	-939,	858,	1223,	-1220,	236,	592,	-378,	2839,	2599,
	-1241,	703,	956,	-1264,	-815,	345,	1004,	971,	1975,
	1111,	2013,	-349,	-1397,	606,	-1007,	226,	1081,	-2044,
	777,	202,	1828,	-401,	-591,	467,	-740,	402,	-1161,
	-263,	1421,	517,	-1275,	856,	1768,	-1414,	92,	161,
	178,	1100,	2570,	851,	40,	1864,	-675,	1025,	-678,
	74,	938,	924,	-374,	-1246,	186,	1076,	613,	2266,
	2546,	479,	-641,	1696,	38,	1274,	2491,	-1159,	617,
	1624,	1921,	2561,	-936,	-175,	65,	1425,	1442,	426,
	-499,	532,	-1422,	-956,	1313,	700,	-344,	1051,	-943,
	-641,	-373,	-1356,	1484,	1285,	953,	-469,	1869,	-1027,
	-1044,	86,	1087,	-1223,	153,	1469,	511,	-1172,	-1601,
	-666,	-1972,	1412,	-686,	40,	-590,	3130,	-181,	2024,
	798,	-2417,	243,	1456,	-2239,	-548,	-587,	396,	-110,
	1407,	1716,	-5,	-1353,	1250,	199,	-411,	-817,	-1617,
	480,	-37,	2119,	3205,	777,	-806,	1007,	1731,	-3875,
	-2770,	-2524,	-437,	-1167,	509,	-947,	-722,	-715,	1617,
	-2081,	-56,	912,	-1300,	117,	863,	12,	146,	1097,
	1317,	-1570,	-592,	1345,	571,	-109,	222,	-1910,	1089,
	-1149,	1179,	1995,	-1895,	856,	-2091,	8,	-913,	1834,
	-326,	-1998,	-262,	-602,	406,	1627,	-152,	-77,	391,
	-1595,	-565,	-323,	462,	843,	55,	-968,	1050,	-838,
	-1405,	-359,	-156,	8,	-1583,	786,	-857,	386,	-122,
	1163,	-1007,	-891,	1001,	810,	1514,	-2656,	971,	-4,
	-144,	-1562,	-646,	-628,	358,	-454,	1361,	1035,	-57,
	729,	-863,	-1461,	-2910,	-1996,	-855,	2477,	-633,	-833,
	-981,	-340,	2372,	737,	-2260,	45,	1547,	-261,	-941,
	-954,	-1547,	655,	-760,	-194,	50,	-7,	1944,	154,
	133,	616,	-1895,	-159,	-576,	815,	-1671,	59,	306,
	2802,	-201,	-240,	1195,	117,	1955,	-1863,	-559,	64,
	-1109,	1473,	2459,	-344,	906,	866,	-228,	895,	-119,
	-383,	349,	-1306,	-127,	192,	1802,	1327,	717,	-111,
	-1223,	-2046,	2428,	-208,	1118,	-2014,	706,	445,	-1320,
	2898,	-403,	203,	-613,	1734,	541,	2638,	1893,	-465,
	961,	253,	-1734,	-2241,	-426,	2247,	2654,	411,	390,
	-1901,	1434,	-528,	539,	-96,	1379,	-1431,	-1130,	2212,
	8,	-844,	-2032,	-852,	2361,	1711,	1022,	-1353,	-1940,
	2275,	1291,	-730,	1702,	-2518,	-1616,	-776,	-165,	1513,
	1677,	-692,	1875,	-1967,	1092,	-2782,	-362,	-1921,	491,
	895,	-170,	-1341,	2162,	1956,	-563,	-1084,	-80,	337,
	1607,	843,	1882,	2011,	-1691,	163,	-704,	708,	-465,
	0,	1012,	-704,	-415,	709,	1631,	-390,	810,	-1616,
	1260,	229,	-1945,	-1834,	372,	-100,	-602,	887,	2058,
	506,	652,	-478,	1242,	-1648,	64,	1244,	-439,	419,
	-1814,	-1185,	326,	-370,	-854,	-201,	-626,	-130,	1705,
	-348,	-287,	-1266,	-427,	744,	-1705,	0,	1547,	-2577,
	-825,	-293,	1046,	-1540,	1217,	-559,	929,	-833,	-640,
	-2243,	-289,	-1026,	-1347,	1233,	32,	-964,	1081,	1213,
	-1922,	726,	-1750,	1007,	1295,	803,	-885,	521,	1077,
	591,	900,	337,	-1184,	-604,	-293,	-673,	-2245,	1998,
	749,	-971,	951,	-249,	1458,	-898,	1419,	128,	1076,
	-2384,	-268,	501,	2225,	1504,	-950,	2793,	-609,	740,
	838,	354,	987,	372,	-1271,	610,	-1472,	-1522,	-1080,
	-480,	-511,	-1885,	-597,	953,	2331,	2149,	-833,	-1114,
	946,	892,	496,	-985,	376,	566,	-1187,	2173,	452,
	684,	-1439,	-805,	-316,	-707,	-188,	457,	-204,	3561,
	-655,	904,	493,	-1271,	-1155,	2126,	1253,	-1861,	574,
	-668,	1634,	1412,	75,	-1735,	-1297,	912,	67,	1290,
	354,	-1616,	2248,	-527,	910,	-61,	-689,	712,	845,
	-2048,	-819,	-2988,	2452,	253,	-528,	-1218,	-1391,	2176,
	669,	1456,	701,	-789,	551,	-419,	998,	436,	-521,
	-950,	880,	1234,	-463,	250,	568,	15,	-1396,	-892,
	-1332,	-904,	-137,	1077,	1362,	-560,	1779,	527,	-551,
	-1322,	2638,	1634,	992,	-1408,	-1842,	1519,	-492,	-134,
	1934,	-1239,	2713,	-2388,	-54,	910,	2293,	-782,	-18,
	1681,	65,	-1163,	1530,	1120,	1722,	251,	457,	641,
	2044,	2144,	-1627,	725,	1292,	1089,	1248,	-606,	-579,
	1168,	-1220,	-807,	-54,	2539,	-1733,	-237,	1971,	-15,
	1978,	68,	2004,	-366,	12,	-763,	866,	918,	-690,
	-2390,	984,	1542,	-441,	573,	1307,	1741,	-1251,	-623,
	-588,	-1817,	-308,	343,	-470,	119,	-1412,	-1915,	1617,
	-349,	1240,	-738,	-655,	-206,	1256,	-1283,	572,	965,
	-952,	1558,	935,	-467,	44,	-955,	-1586,	-911,	-578,
	-992,	48,	47,	863,	37,	1647,	-3048,	-416,	-53,
	-1112,	1084,	1984,	-230,	-27,	234,	-471,	973,	-503,
	-1213,	92,	-68,	574,	-1358,	1332,	487,	935,	400,
	857,	913,	1441,	300,	-2538,	-1094,	2010,	543,	2471,
	-857,	1638,	-446,	840,	1591,	2710,	-2192,	-190,	-326,
	637,	1604,	-569,	2110,	-1191,	1771,	322,	516,	415,
	2480,	693,	-414,	1846,	-415,	-965,	1054,	250,	-2,
	-1194,	1044,	1605,	-1504,	-1288,	659,	98,	2363,	-38,
	-1154,	459,	1292,	716,	-1072,	1928,	-1574,	649,	1266,
	2621,	-385,	-1537,	-1285,	-1477,	1081,	1389,	-568,	1277,
	3359,	955,	870,	-392,	2471,	1223,	1166,	1350,	-535,
	-216,	985,	-851,	992,	-462,	-2141,	1272,	732,	-411,
	0,	-114,	87,	362,	472,	686,	-2586,	-965,	748,
	-1938,	-573,	740,	-384,	48,	-2093,	-205,	-279,	1596,
	259,	1309,	68,	392,	405,	104,	1373,	451,	1767,
	649,	1314,	-18,	490,	485,	1192,	-245,	-2502,	704,
	828,	142,	-1620,	726,	909,	993,	1418,	-2174,	-721,
	532,	247,	2321,	1255,	-35,	1384,	-262,	681,	302,
	-342,	-1120,	-443,	1677,	-206,	-263,	1808,	682,	2590,
	1960,	182,	1859,	-1487,	-2396,	397,	-1170,	472,	1786,
	481,	534,	-260,	1674,	1665,	117,	-658,	527,	-767,
	-545,	-210,	120,	-472,	287,	375,	-1114,	1087,	-614,
	274,	-1438,	1860,	-2737,	-335,	1249,	-1326,	-1716,	-916,
	998,	1648,	-1031,	-438,	225,	1377,	1074,	2577,	468,
	1883,	2197,	795,	-1207,	1737,	348,	1534,	-513,	-563,
	-1227,	-1844,	-1346,	-736,	-1056,	3037,	2496,	114,	655,
	-1980,	1391,	1123,	2023,	346,	1322,	1872,	-1043,	2089,
	497,	103,	2233,	220,	953,	-1261,	-81,	705,	2233,
	786,	128,	-2149,	-276,	2697,	3789,	-514,	-894,	-328,
	-628,	733,	-325,	-1351,	245,	-1747,	-1077,	-1085,	-273,
	428,	2158,	577,	1525,	1009,	208,	751,	1299,	-739,
	786,	2579,	-1117,	-1993,	-231,	334,	767,	1785,	-603,
	-1519,	-516,	-105,	-2019,	974,	-50,	-682,	-44,	1160,
	-736,	176,	422,	1006,	-730,	788,	-889,	-111,	-617,
	385,	-190,	256,	-51,	1128,	379,	1452,	231,	-54,
	-1762,	-886,	-413,	156,	-1430,	-293,	1076,	698,	-1064,
	741,	621,	-206,	650,	-1359,	-938,	-506,	-1463,	650,
	1115,	204,	65,	117,	-15,	1306,	-1412,	-70,	-204,
	434,	258,	-1503,	-294,	1059,	-585,	-164,	-668,	-1124,
	-65,	-1468,	179,	-1158,	1409,	-1110,	1155,	-571,	-1593,
	-1529,	-883,	-997,	-1053,	-1559,	765,	-1624,	-130,	5,
	246,	-794,	-1127,	1132,	290,	650,	152,	726,	1235,
	870,	675,	-478,	1350,	-1179,	-1136,	1276,	-576,	-481,
	1059,	627,	463,	-1200,	-939,	-1335,	-390,	-925,	-31,
	1169,	-929,	431,	-750,	286,	-1539,	811,	-1148,	57,
	813,	-1185,	616,	1001,	-1495,	-839,	373,	190,	-10,
	-2529,	371,	-854,	-551,	-2319,	-172,	-406,	-1172,	1765,
	-1174,	-1116,	-1140,	684,	-808,	-871,	113,	-3118,	1146,
	-73,	893,	907,	-120,	971,	-532,	2195,	895,	873,
	1277,	1947,	2170,	2186,	-1293,	173,	-1610,	-1207,	680,
	-1121,	1085,	19,	392,	855,	-1853,	86,	1978,	1788,
	-738,	-2208,	1359,	72,	-75,	-322,	-952,	-2212,	-1272,
	-1390,	-405,	154,	1253,	-1084,	904,	-2356,	633,	1177,
	234,	992,	-491,	-1460,	1265,	-1052,	887,	-1057,	-3450,
	1710,	1080,	1387,	543,	11,	1094,	-810,	922,	1011,
	513,	-1273,	-1098,	1560,	1303,	-1083,	490,	-383,	-696,
	-277,	-771,	-1143,	225,	-586,	257,	-467,	708,	660,
	-1002,	306,	415,	-47,	-1524,	1080,	371,	-1762,	1762,
	2097,	-358,	-1106,	1141,	1562,	2706,	-1388,	2362,	-785,
	-2396,	-2370,	-1901,	788,	1142,	-906,	1035,	312,	-457,
	1293,	88,	434,	-1429,	-916,	-512,	731,	-393,	-559,
	1370,	-239,	62,	-243,	-1352,	-1398,	1056,	-781,	789,
	-669,	-820,	778,	580,	-395,	-1040,	712,	1128,	-1477,
	-213,	-327,	524,	105,	-369,	659,	-578,	1216,	68,
	-1476,	-8,	-424,	657,	471,	583,	282,	214,	764,
	560,	-1544,	700,	1477,	-755,	550,	1296,	38,	566,
	-1335,	-1206,	-673,	342,	397,	1217,	510,	1200,	1027,
	-1154,	-829,	-628,	336,	-1077,	-1293,	-1384,	-303,	-770,
	-1130,	-694,	139,	267,	-409,	275,	-716,	-696,	-553,
	-343,	-937,	843,	-92,	-507,	577,	-1117,	628,	-1480,
	-1162,	941,	-21,	-1390,	-818,	1294,	-563,	-1069,	675,
	772,	39,	-445,	-165,	359,	1017,	-433,	-776,	-239,
	-302,	-1225,	-720,	674,	-1117,	-631,	432,	-1327,	-303,
	-524,	-1356,	196,	-1208,	2232,	631,	1528,	-329,	1580,
	223,	-705,	33,	1013,	117,	-1202,	67,	-1571,	1293,
	1095,	638,	-757,	1375,	326,	198,	-1079,	-1909,	-934,
	880,	-1913,	1988,	-2680,	2240,	899,	-3729,	1019,	-860,
	-90,	-888,	-1149,	323,	1306,	1661,	-2421,	-2477,	1780,
	-1147,	391,	-2149,	-654,	-495,	831,	-1088,	795,	-734,
	2691,	-1148,	-2449,	-960,	1062,	0,	-1190,	29,	2012,
	-1781,	930,	65,	-1390,	-2419,	1260,	-1534,	633,	1387,
	-859,	624,	1641,	-790,	-1601,	927,	-1749,	-240,	1787,
	-260,	-255,	820,	191,	-108,	1232,	-733,	1764,	1042,
	542,	28,	-184,	-87,	351,	-963,	765,	462,	67,
	-1611,	-1146,	1261,	1948,	-1475,	1104,	-1210,	203,	-662,
	2103,	1623,	107,	250,	628,	929,	-184,	2144,	1588,
	361,	429,	943,	-239,	-963,	-749,	1016,	-473,	968,
	1260,	-988,	2247,	780,	-1133,	-1045,	-17,	735,	1225,
	383,	1147,	-1038,	442,	1887,	-25,	465,	-942,	162,
	-3568,	-384,	1529,	1891,	2367,	674,	354,	-919,	60,
	-1613,	-807,	-673,	746,	-2594,	2057,	453,	8,	-372,
	4,	-656,	-1558,	-686,	1390,	2436,	265,	1413,	1147,
	495,	-974,	318,	-1899,	266,	-1243,	3087,	972,	-301,
	519,	828,	-894,	-831,	826,	1885,	1464,	166,	-951,
	511,	-275,	-1146,	590,	-1209,	-1890,	1941,	-122,	-516,
	-2278,	763,	1276,	1375,	-1449,	695,	-1274,	1349,	-1087,
	-169,	1864,	316,	-29,	1119,	727,	-217,	582,	921,
	-1495,	-1218,	-576,	-1246,	1555,	570,	-2321,	-1219,	-1157,
	-1217,	-779,	370,	-2048,	1393,	769,	30,	650,	-2493,
	896,	-1991,	889,	2516,	2386,	-1072,	724,	-1116,	-283,
	-152,	-1585,	123,	1812,	1117,	1556,	439,	149,	421,
	-532,	383,	-1362,	125,	594,	-889,	1315,	1739,	1465,
	-702,	855,	-1533,	2228,	80,	-1769,	577,	913,	1868,
	480,	958,	2752,	973,	-1001,	57,	227,	-1881,	422,
	210,	-604,	721,	-37,	-2001,	-2069,	-322,	-170,	-375,
	1689,	2321,	223,	-1353,	1255,	-2636,	-1891,	831,	-2552,
	57,	572,	-1237,	700,	556,	-1599,	-193,	1276,	1027,
	-845,	489,	-120,	-1170,	-664,	-213,	1207,	-796,	-2602,
	519,	579,	2405,	-2345,	-1746,	-3445,	553,	-256,	1091,
	-1210,	-1785,	737,	-1413,	139,	132,	462,	-130,	979,
	-997,	-42,	-358,	355,	1173,	1117,	1781,	-1253,	-2,
	-992,	-1030,	-1082,	50,	-963,	1419,	1293,	671,	1615,
	2656,	1588,	965,	-746,	512,	2722,	-723,	-478,	132,
	-736,	-739,	1223,	-199,	1184,	-492,	-781,	-1218,	1055,
	1123,	505,	-1211,	-869,	-772,	-286,	557,	757,	-178,
	-741,	-160,	707,	-325,	1183,	-869,	-533,	-1702,	28,
	-527,	1124,	-1633,	-669,	-1215,	-762,	129,	-10,	-1142,
	-1086,	-441,	-1570,	-404,	-1668,	-1119,	552,	-1537,	-516,
	-937,	-677,	-1085,	-899,	1032,	92,	-1155,	939,	788,
	-348,	-446,	484,	1140,	330,	-344,	399,	-1472,	-1698,
	-1135,	-1425,	-612,	-434,	-942,	-1307,	223,	-1625,	-287,
	-995,	1441,	-628,	634,	1376,	-568,	-114,	-1070,	-138,
	525,	546,	1435,	-1025,	-1313,	-1134,	-313,	530,	1217,
	-221,	-769,	-483,	-693,	-1594,	1172,	-1366,	-897,	-394,
	378,	-143,	702,	-734,	1188,	75,	342,	576,	-127,
	-827,	1131,	712,	-1422,	-189,	-1378,	1270,	462,	1163,
	-581,	-1204,	1493,	-37,	2016,	-693,	216,	1797,	899,
	-173,	-1395,	895,	1491,	-1393,	-1271,	905,	65,	-459,
	714,	2472,	69,	-1755,	-1786,	-1615,	595,	-649,	1918,
	256,	-954,	-2626,	732,	794,	-419,	1353,	-487,	792,
	1821,	-313,	265,	803,	-88,	1274,	777,	-844,	-1423,
	352,	749,	2528,	-721,	-452,	-234,	-1952,	-2626,	-1324,
	224,	413,	-904,	-220,	1559,	-313,	1094,	527,	-620,
	-1713,	-697,	1376,	-1676,	-1091,	1621,	843,	-223,	-1001,
	-509,	-948,	1892,	668,	-988,	-91,	-969,	172,	-1339,
	-379,	-77,	-401,	-996,	997,	-168,	488,	1415,	-1302,
	-1150,	-212,	2240,	-1551,	981,	2549,	-435,	-2526,	-2238,
	215,	-1114,	1317,	-2172,	2456,	329,	528,	2422,	708,
	-389,	-1033,	753,	-421,	-299,	-1626,	358,	-2873,	6,
	-1514,	119,	329,	-855,	-1441,	1275,	-744,	-136,	506,
	-954,	-1410,	1076,	1158,	-723,	315,	-100,	-795,	1201,
	542,	-1047,	-1678,	1447,	1162,	808,	1211,	-34,	-1105,
	-551,	235,	601,	319,	-895,	-718,	-447,	624,	-1290,
	396,	-821,	-594,	-887,	1456,	-32,	-612,	1237,	968,
	157,	177,	799,	-1558,	-233,	321,	1104,	749,	-1272,
	1263,	-1461,	-287,	-960,	-633,	947,	-1524,	-694,	-580,
	-486,	-1036,	88,	-897,	-279,	185,	191,	-1378,	-1593,
	-1376,	-1518,	592,	-809,	1189,	352,	-1503,	-964,	178,
	1102,	-450,	-693,	-359,	-817,	-544,	577,	-518,	-1449,
	611,	890,	-54,	1117,	320,	-1549,	-265,	310,	-441,
	-985,	-1185,	984,	-972,	28,	-90,	-107,	-1553,	1277,
	93,	-1172,	1193,	-1459,	-859,	-863,	210,	-629,	-793,
	-341,	-661,	-534,	-1488,	808,	111,	2193,	-1632,	-805,
	1183,	-1688,	105,	-290,	1848,	525,	230,	2744,	2449,
	965,	-1236,	-625,	-607,	832,	1336,	-1078,	-691,	-1084,
	719,	-55,	775,	-532,	782,	-2015,	-3396,	99,	2249,
	2276,	185,	1038,	-387,	2794,	2813,	116,	-1198,	1172,
	-737,	-2546,	2884,	1653,	-1130,	977,	-100,	-761,	-193,
	209,	910,	516,	-2243,	-778,	1257,	191,	1165,	619,
	-873,	-10,	-976,	1010,	-244,	498,	2632,	1493,	2084,
	1376,	-953,	1331,	-207,	2225,	-3015,	1635,	-1161,	1608,
	14,	-649,	835,	87,	-959,	-12,	447,	-1250,	515,
	-104,	-347,	1040,	-1021,	2298,	1265,	-1005,	1574,	2531,
	3396,	-1172,	479,	1115,	157,	1528,	-1091,	1093,	-1588,
	-998,	345,	1370,	1183,	-766,	3954,	-2138,	760,	1220,
	-152,	-1370,	1774,	1841,	-256,	-2282,	-155,	37,	-2182,
	-74,	-1865,	-333,	-15,	-821,	2812,	404,	-481,	-2729,
	-636,	-285,	894,	58,	-257,	-1471,	1202,	2173,	802,
	328,	2203,	-886,	75,	-1790,	-3320,	-1422,	-550,	1086,
	-718,	719,	-1987,	-1531,	1388,	-2858,	205,	1908,	-349,
	-2596,	618,	-804,	364,	-1171,	-455,	-524,	1583,	1428,
	-3317,	716,	-1367,	-813,	1280,	-2104,	939,	497,	1694,
	672,	793,	1952,	670,	-2109,	341,	-2942,	1174,	-856,
	515,	-28,	254,	-278,	1314,	1284,	-1314,	-836,	1096,
	459,	589,	913,	1351,	590,	1407,	-1324,	681,	936,
	2683,	-1391,	4285,	-1104,	-293,	968,	-92,	1625,	283,
	1209,	-131,	217,	-1301,	-1289,	759,	-1069,	-861,	280,
	392,	1360,	206,	-2678,	1937,	-587,	-131,	-2490,	871,
	-1913,	910,	1071,	995,	-627,	-377,	1192,	-1078,	287,
	-2295,	1573,	-897,	400,	1661,	-1253,	1557,	1120,	1032,
	-847,	-858,	-1524,	1482,	790,	-1316,	-660,	657,	-469,
	1554,	1478,	113,	-1592,	684,	498,	818,	-1126,	1304,
	1599,	895,	1127,	2888,	822,	-2266,	-1147,	-2313,	-2294,
	-2011,	484,	1134,	2860,	88,	-778,	-854,	1111,	1351,
	-2355,	-1131,	-2145,	1410,	-316,	2198,	63,	428,	-317,
	1917,	-1575,	-799,	-299,	-732,	594,	-803,	380,	334,
	-2606,	1129,	21,	-1399,	-533,	290,	-1283,	-974,	961,
	-423,	-323,	115,	2279,	-66,	1170,	1633,	-594,	901,
	589,	-561,	674,	1273,	1578,	-2748,	-598,	359,	1137,
	730,	714,	-8,	-954,	1548,	224,	-563,	1343,	1670,
	64,	-2159,	137,	220,	629,	2240,	205,	1142,	657,
	2306,	-671,	812,	-1754,	686,	-304,	-53,	273,	494,
	1438,	65,	2237,	-1959,	1188,	-1631,	-270,	-356,	843,
	115,	503,	-1325,	-899,	1036,	-15,	-617,	-904,	406,
	-787,	-819,	-1381,	780,	45,	-973,	-745,	-398,	-438,
	1115,	-1564,	-414,	138,	-523,	1105,	-551,	318,	857,
	-1539,	-1281,	-1164,	-1053,	-755,	-9,	-811,	1020,	-720,
	1022,	762,	36,	-1098,	-1112,	1237,	-756,	354,	435,
	-96,	193,	1088,	904,	605,	-110,	-1050,	-398,	601,
	-846,	262,	-1106,	-291,	1204,	153,	333,	748,	241,
	-1152,	1247,	-1137,	423,	805,	-1056,	-312,	-43,	93,
	1192,	735,	-75,	663,	344,	-98,	-1045,	1113,	-570,
	-421,	996,	90,	437,	-1437,	1092,	1382,	-716,	-725,
	-914,	-148,	-1334,	939,	1184,	-715,	-627,	-1346,	-914,
	469,	53,	-1304,	-1157,	1065,	-1245,	-870,	-1397,	216,
	-1438,	1132,	-1431,	-1218,	716,	-1451,	-1659,	-1459,	825,
	1861,	-1456,	-877,	1165,	-1098,	-2054,	590,	-231,	1640,
	790,	1815,	2292,	1428,	809,	-450,	898,	-406,	-2152,
	-773,	-130,	748,	1116,	2023,	27,	1613,	561,	-1454,
	-3234,	-629,	1953,	827,	-71,	3023,	-101,	1616,	870,
	-952,	532,	1461,	1206,	-532,	560,	1583,	-1313,	442,
	179,	-546,	-1251,	939,	426,	2148,	-1931,	292,	2758,
	-873,	1315,	204,	-1721,	105,	-1947,	2666,	-984,	1120,
	2177,	-1307,	645,	822,	-1114,	662,	119,	630,	-1255,
	-2019,	-2078,	-830,	55,	340,	-1364,	715,	1106,	-1891,
	-1533,	707,	1270,	-1481,	899,	-288,	906,	-526,	-811,
	535,	1094,	1130,	2518,	64,	-719,	624,	150,	-276,
	1915,	-75,	-972,	-114,	1391,	572,	-1668,	-499,	846,
	-747,	711,	-796,	-238,	612,	1000,	572,	1638,	330,
	488,	1303,	44,	-865,	-1542,	1195,	749,	874,	-1235,
	87,	2585,	1353,	1803,	351,	-853,	-793,	-100,	875,
	-843,	874,	-222,	899,	1063,	-1445,	-1188,	-1044,	600,
	1560,	-263,	734,	-2774,	-1538,	-1784,	-1884,	-1113,	-409,
	-632,	1948,	-1396,	85,	1352,	-939,	1183,	1807,	151,
	1871,	1264,	-158,	-1224,	1049,	2312,	130,	694,	-883,
	-1939,	418,	614,	-426,	311,	-291,	769,	460,	-720,
	3029,	850,	1012,	-1829,	369,	-613,	-730,	696,	-1200,
	-965,	-929,	-185,	-2297,	-645,	1269,	1203,	82,	1042,
	-681,	569,	-2457,	-152,	134,	896,	1380,	730,	-70,
	-848,	2047,	1236,	526,	728,	1307,	1755,	-925,	457,
	1457,	-456,	-1363,	918,	1058,	2124,	83,	1382,	-906,
	-437,	1825,	1007,	953,	1421,	1048,	-336,	1654,	-667,
	-1413,	-473,	1549,	1146,	1986,	-1742,	748,	-396,	1131,
	-1236,	247,	-1587,	57,	-1341,	-1489,	-1577,	244,	410,
	-500,	-1038,	822,	-410,	-1471,	-999,	183,	1079,	763,
	592,	808,	700,	511,	-660,	-226,	-769,	981,	-318,
	-846,	-263,	1121,	-1432,	-903,	-1091,	-1014,	715,	-1566,
	-351,	511,	-724,	316,	-1510,	-1132,	746,	-1175,	-1604,
	-116,	-729,	1247,	298,	1253,	1103,	1230,	-1435,	-1376,
	-1294,	-297,	-1314,	-1093,	-866,	-1500,	-303,	1000,	948,
	-1148,	543,	519,	464,	797,	448,	768,	504,	140,
	-112,	199,	-169,	23,	1156,	-697,	11,	-1089,	-137,
	-46,	628,	1334,	1011,	-801,	701,	1271,	-318,	292,
	1301,	-816,	-653,	1036,	890,	1225,	-260,	1408,	-528,
	-598,	-337,	1079,	-112,	412,	651,	-404,	-1259,	1057,
	-582,	-391,	754,	-1057,	87,	-1183,	-35,	-1006,	-953,
	-334,	-2231,	-623,	483,	1077,	397,	216,	-195,	-542,
	271,	856,	780,	-673,	-1027,	-1195,	-521,	1641,	-277,
	-808,	1701,	-1027,	-314,	-924,	-2948,	591,	89,	-292,
	790,	-991,	138,	-2967,	-3378,	-1175,	-1661,	894,	-1064,
	-1630,	-649,	2027,	-1216,	635,	-3351,	768,	920,	-1765,
	339,	-1442,	1450,	721,	31,	-1085,	-1685,	-1215,	-139,
	780,	323,	14,	3750,	-1737,	-1082,	-4742,	733,	1892,
	-555,	1000,	523,	-1605,	-330,	339,	-936,	-3415,	3912,
	-1410,	1451,	1414,	1756,	-417,	2670,	-3013,	-1486,	-495,
	683,	781,	2868,	-658,	-234,	1154,	-1080,	1100,	-960,
	-586,	1907,	-3538,	-1227,	-40,	1014,	-670,	-2181,	-802,
	434,	265,	-1254,	-2742,	2019,	-139,	2850,	-1737,	622,
	-403,	-871,	-1291,	900,	2182,	392,	-610,	-903,	1636,
	-1542,	962,	1394,	216,	-1234,	990,	-1899,	-1845,	535,
	31,	-1507,	-878,	736,	-435,	1184,	1594,	-302,	941,
	-1189,	-434,	1953,	-659,	933,	-752,	1471,	-657,	1050,
	-437,	-1117,	1305,	2462,	-2506,	-1168,	-2131,	-1337,	929,
	-272,	1623,	1576,	-203,	1287,	1708,	1300,	1328,	-3028,
	647,	2213,	680,	-973,	499,	1359,	777,	-271,	982,
	1133,	-830,	-1815,	-630,	-658,	-879,	2398,	816,	-1723,
	-3037,	869,	305,	-1734,	64,	2799,	679,	1314,	-1991,
	-337,	72,	4812,	-475,	1071,	1128,	793,	988,	2330,
	-1777,	482,	1227,	-1914,	-860,	1831,	545,	-1439,	1041,
	-450,	-1308,	-759,	-1027,	767,	-1758,	-1394,	-1038,	1648,
	3,	-1621,	364,	-530,	938,	-614,	2006,	-268,	497,
	2069,	931,	-845,	-1218,	-551,	-987,	1505,	-229,	-1664,
	816,	2318,	1999,	-1584,	2507,	1456,	-927,	-2265,	-155,
	1677,	2225,	-493,	-476,	2782,	-454,	-695,	1156,	-930,
	340,	-47,	1064,	-1417,	2189,	366,	-3,	432,	-840,
	282,	-817,	-1040,	1334,	1245,	629,	1221,	2274,	-1608,
	-3250,	-1142,	-2240,	2208,	18,	-778,	480,	689,	978,
	714,	2390,	740,	973,	-357,	664,	1696,	-772,	343,
	255,	-548,	-1738,	-510,	-1860,	712,	-937,	343,	-143,
	507,	1111,	3234,	-2862,	456,	1198,	-916,	615,	472,
	-1043,	-181,	-442,	986,	529,	1059,	-279,	549,	232,
	-1328,	-1449,	693,	-741,	1010,	1329,	3195,	2040,	888,
	124,	-663,	-844,	-1154,	-1503,	178,	1401,	-1404,	970,
	193,	673,	-1191,	257,	-1273,	-1225,	1278,	-245,	678,
	2037,	206,	-654,	555,	522,	1160,	241,	-381,	294,
	-99,	-763,	1308,	336,	-277,	4332,	-95,	2668,	-2520,
	1414,	829,	-695,	238,	-1373,	87,	1244,	2691,	769,
	-445,	-565,	756,	-1850,	312,	-1144,	-875,	1904,	-784,
	312,	-2163,	1486,	699,	-45,	828,	1210,	447,	606,
	84,	2161,	1800,	-2756,	93,	-817,	3376,	-59,	810,
	-280,	-731,	-1601,	-591,	938,	-1216,	1860,	1091,	2670,
	1520,	204,	-1619,	209,	1104,	167,	2827,	2243,	1680,
	-138,	-1387,	592,	1860,	2327,	1592,	-701,	-826,	4102,
	1707,	113,	1599,	636,	1530,	-1342,	1004,	-2045,	1681,
	367,	750,	-2338,	-1628,	1144,	104,	-13,	-361,	1504,
	301,	-770,	627,	-109,	-18,	1150,	-845,	-562,	-871,
	789,	1442,	-558,	1707,	144,	-851,	-1230,	-1549,	-204,
	1645,	660,	-553,	1103,	-2226,	-1497,	372,	1407,	1312,
	4147,	229,	1111,	243,	26,	2061,	-1289,	1598,	3249,
	990,	1205,	-1151,	-3977,	160,	1221,	427,	-1834,	-650,
	873,	-726,	1746,	1946,	-455,	403,	1520,	437,	483,
	369,	1036,	-297,	1348,	785,	1283,	288,	-258,	1315,
	-578,	-90,	122,	-2282,	-787,	246,	468,	-81,	-1003,
	-2467,	1261,	1158,	-917,	-290,	494,	858,	158,	-1381,
	1431,	-781,	-1514,	466,	428,	221,	-1041,	-960,	1248,
	-2248,	-676,	167,	-880,	-1291,	1965,	729,	-1200,	-1107,
	1632,	681,	251,	-551,	-1228,	1432,	-2676,	630,	-1023,
	322,	-1651,	809,	-302,	499,	-386,	1864,	-606,	2517,
	1445,	2,	-702,	-2710,	196,	1399,	1602,	830,	-742,
	-881,	2224,	953,	1065,	169,	-1179,	-1047,	783,	2095,
	-675,	-849,	-2216,	582,	-762,	2039,	-527,	-415,	-454,
	498,	2101,	-1098,	199,	634,	-574,	-847,	1766,	-737,
	-985,	-917,	-552,	-3099,	-404,	227,	1795,	-1298,	-277,
	-682,	894,	728,	214,	-107,	-1672,	1389,	1206,	-269,
	1694,	-861,	-1306,	1274,	-757,	492,	-839,	-436,	478,
	-372,	235,	-679,	675,	828,	-1367,	-381,	910,	963,
	934,	-341,	2021,	917,	1104,	-159,	575,	-394,	1537,
	-1204,	-1716,	-1816,	876,	-21,	-634,	-330,	-879,	-434,
	-216,	581,	-1757,	692,	-449,	-434,	-816,	391,	644,
	385,	-457,	217,	-3625,	1435,	-2391,	-258,	455,	74,
	54,	-1121,	2079,	562,	1204,	1420,	23,	1641,	-1713,
	-853,	-383,	1534,	-1835,	-679,	-444,	-700,	489,	965,
	484,	-781,	1282,	-431,	812,	-55,	782,	-290,	-1357,
	1274,	-77,	86,	730,	-332,	2817,	-729,	1278,	-138,
	639,	37,	-1090,	1489,	-875,	1575,	-2285,	-159,	-847,
	1485,	306,	835,	1224,	253,	883,	-750,	-829,	791,
	723,	-1289,	-571,	-677,	-750,	-1475,	1330,	1413,	1367,
	581,	1036,	752,	321,	-468,	1298,	-469,	1467,	-742,
	922,	-579,	534,	607,	1141,	912,	696,	689,	-379,
	-1875,	-1198,	428,	318,	131,	1091,	1210,	2466,	-66,
	-661,	1274,	737,	1438,	-245,	-123,	-1119,	-88,	-1003,
	1349,	-2998,	-103,	791,	-238,	67,	-703,	0,	1655,
	-315,	-518,	627,	1214,	2272,	-1696,	-1133,	-798,	-2248,
	-1043,	-1365,	1606,	-2205,	-560,	-904,	1088,	1763,	-620,
	-2764,	-2401,	-2240,	1070,	1119,	-641,	1687,	428,	-1812,
	-508,	404,	-1073,	93,	623,	947,	-539,	1170,	-627,
	599,	1990,	1901,	1910,	-856,	-1276,	1398,	1045,	1677,
	1266,	1171,	1106,	-194,	1133,	-503,	-1403,	575,	-325,
	-2067,	656,	-1394,	669,	-413,	-428,	1659,	871,	2774,
	2180,	847,	1445,	-2103,	1750,	-748,	96,	-947,	215,
	-97,	-249,	691,	-1617,	1150,	1509,	239,	-612,	1433,
	81,	-1412,	-128,	249,	-1347,	765,	2283,	1953,	-700,
	1884,	1127,	-756,	925,	-422,	2717,	-566,	1269,	1326,
	-2300,	-1309,	-247,	-1771,	1194,	-1842,	-446,	1617,	-812,
	804,	1063,	-853,	2546,	-808,	-1520,	230,	-184,	1345,
	1032,	2321,	-545,	-24,	-614,	-1774,	1987,	1359,	-566,
	-1339,	-227,	3061,	-914,	-1131,	1947,	-2440,	-984,	-2834,
	-255,	-2320,	-1134,	914,	-77,	-354,	443,	-965,	736,
	702,	645,	747,	644,	1214,	-329,	2883,	-5,	-31,
	48,	-1009,	173,	1063,	525,	-1254,	-498,	96,	-224,
	-795,	-174,	-727,	-1867,	-1396,	1004,	-44,	-948,	1196,
	-908,	-829,	-312,	3409,	65,	-1179,	-1644,	533,	2191,
	-638,	1646,	1108,	707,	426,	-523,	294,	-487,	280,
	-509,	914,	-1390,	-303,	-149,	-802,	-1857,	-1765,	-1504,
	967,	894,	690,	696,	288,	-1145,	836,	-345,	1088,
	-575,	815,	-1546,	82,	-529,	-1470,	-518,	-229,	-1256,
	943,	-1673,	-347,	504,	-163,	-1498,	-1683,	-729,	-190,
	-1126,	-676,	-260,	-60,	-1417,	-899,	-46,	-837,	44,
	367,	683,	381,	-374,	-396,	-1320,	-1322,	1003,	-1715,
	-445,	768,	707,	-828,	392,	682,	-366,	428,	-1084,
	-829,	818,	-75,	936,	637,	-74,	-610,	-983,	277,
	-1966,	917,	-683,	-179,	-914,	-1859,	-37,	-1892,	332,
	-109,	1285,	803,	184,	-1616,	-472,	-607,	-256,	-633,
	337,	-400,	-1068,	129,	323,	-271,	-234,	-1435,	589,
	-203,	1385,	-597,	746,	-1386,	415,	440,	49,	-570,
	-1074,	564,	923,	939,	457,	328,	-1051,	-1140,	-1001,
	753,	-1314,	381,	-812,	-1351,	2401,	1034,	-1814,	-290,
	1427,	585,	957,	623,	314,	764,	-332,	82,	767,
	258,	-704,	52,	-1352,	-1361,	-548,	1832,	374,	149,
	1603,	1488,	146,	447,	-1697,	-1954,	514,	1212,	-339,
	-997,	-747,	980,	-229,	-113,	2609,	654,	774,	993,
	1652,	-1389,	-145,	123,	-999,	-660,	855,	-3022,	-116,
	394,	-1323,	2653,	-1087,	-193,	390,	-2139,	98,	434,
	2212,	-430,	-712,	1848,	860,	1841,	-375,	1820,	-2734,
	2181,	2689,	967,	-328,	-1032,	1363,	1051,	-329,	986,
	3498,	1071,	-1178,	611,	1435,	886,	1295,	1255,	-597,
	-1162,	-1495,	693,	205,	585,	-131,	977,	2110,	2339,
	-710,	-1491,	18,	506,	-497,	-1328,	1351,	-1059,	191,
	-1743,	-270,	1231,	-619,	-247,	2177,	-117,	173,	-2848,
	-2189,	-1037,	-1155,	-826,	2879,	674,	2032,	141,	-218,
	141,	2002,	-1740,	546,	-1052,	-1098,	779,	780,	848,
	-593,	1234,	-888,	-1335,	2104,	-1293,	248,	-1813,	-555,
	-1885,	-1099,	524,	2914,	2108,	-996,	1923,	1466,	-2492,
	-2424,	-1840,	1409,	2569,	726,	244,	-67,	314,	2335,
	45,	-311,	-1279,	851,	1905,	241,	451,	1351,	-802,
	2109,	-525,	1670,	-896,	756,	1107,	-180,	-2035,	-1500,
	1719,	696,	2413,	-1753,	424,	525,	-28,	-1263,	1066,
	-588,	686,	1762,	-651,	-620,	2111,	403,	-480,	847,
	-430,	-1436,	805,	849,	-1476,	297,	1315,	-1242,	-898,
	329,	-1227,	247,	1517,	-946,	1620,	-103,	-861,	-196,
	-593,	-918,	-2431,	974,	-1215,	2279,	-232,	1932,	-1083,
	1335,	-1508,	1680,	455,	-1300,	-376,	1347,	-1239,	943,
	724,	-794,	-65,	841,	2081,	-1911,	2432,	-1248,	-1004,
	-436,	-876,	989,	352,	-1811,	-118,	-1093,	-643,	212,
	-1328,	-807,	-414,	33,	-2775,	1729,	-284,	-967,	-1082,
	-1426,	1195,	199,	-348,	-1427,	285,	-2220,	2365,	2418,
	1557,	1584,	1562,	-500,	1369,	1814,	-3937,	-338,	977,
	-1528,	-1389,	-626,	2376,	820,	2286,	-1610,	-622,	-2071,
	327,	-1248,	465,	1114,	389,	983,	874,	-807,	1357,
	860,	1039,	-131,	983,	1094,	718,	928,	-747,	491,
	2577,	-830,	1086,	-1424,	610,	-1317,	1307,	2610,	-257,
	1189,	864,	-2194,	-1337,	-625,	-115,	2288,	-2156,	1864,
	-25,	838,	934,	-1560,	1497,	730,	-35,	731,	-697,
	-198,	415,	-1561,	-306,	696,	2692,	-649,	1257,	-2810,
	1476,	-1605,	862,	688,	-1048,	-96,	1595,	739,	294,
	2819,	-1836,	-32,	-722,	630,	-372,	720,	2270,	-655,
	-113,	1596,	954,	516,	-1793,	-1079,	480,	-641,	706,
	1873,	753,	1729,	2153,	-817,	98,	88,	-171,	911,
	816,	1029,	1102,	-643,	1540,	539,	710,	326,	-2236,
	-1219,	-2802,	1033,	2818,	3221,	3237,	-1375,	-652,	1930,
	-283,	-607,	589,	511,	-3480,	281,	-1309,	-635,	-1125,
	148,	-1162,	920,	-1248,	-469,	974,	1238,	-526,	1216,
	-988,	541,	-473,	-421,	1616,	-2390,	2827,	-104,	-1862,
	1078,	290,	842,	-340,	602,	1943,	-532,	-727,	-1293,
	-2762,	-1386,	1292,	-1140,	-1257,	362,	1151,	-1448,	-37,
	-338,	-1540,	-1500,	2320,	1411,	626,	-1309,	1494,	-474,
	-559,	2118,	1454,	2523,	1231,	1799,	715,	805,	735,
	1309,	-1153,	-1205,	-280,	-987,	685,	-673,	-60,	-86,
	-323,	-1044,	-573,	-439,	1538,	675,	-628,	982,	-470,
	1740,	-376,	651,	-789,	2621,	1262,	597,	3887,	-101,
	214,	62,	-130,	-1553,	-8,	-224,	334,	1514,	610,
	1226,	2010,	-1311,	34,	1470,	545,	-72,	874,	1176,
	1132,	705,	797,	163,	2093,	1063,	1838,	1872,	-1761,
	2648,	-2986,	217,	2664,	-385,	-2188,	-897,	506,	1290,
	-516,	-1762,	699,	2574,	3419,	-1525,	-266,	-768,	1792,
	428,	1637,	744,	-791,	-979,	114,	-2193,	-452,	686,
	4615,	541,	2131,	-118,	874,	-326,	1019,	260,	-425,
	1413,	1506,	-2669,	1126,	-531,	-197,	-1652,	-425,	-991,
	1941,	-1150,	866,	2982,	460,	-475,	1325,	-809,	-383,
	803,	1993,	1344,	-18,	844,	898,	-713,	-849,	684,
	1036,	1421,	-1214,	2014,	393,	853,	1756,	-184,	-1254,
	-1238,	1265,	-1652,	748,	-1045,	125,	-2080,	1847,	2307,
	-312,	-310,	-2000,	2713,	-2157,	-2298,	-810,	-1409,	-1253,
	-507,	1283,	-584,	1400,	0,	-935,	-490,	-946,	1060,
	10,	-147,	-40,	-1421,	-1420,	463,	353,	996,	-133,
	-287,	-728,	-983,	939,	1350,	199,	-680,	-318,	-1299,
	460,	637,	1357,	854,	555,	142,	204,	-1208,	-779,
	554,	952,	-596,	177,	555,	-250,	335,	-1465,	-1273,
	-60,	1109,	-34,	-956,	-1262,	296,	831,	569,	1025,
	1308,	858,	-782,	-601,	-1217,	-170,	-789,	1273,	-1150,
	-1137,	-465,	-553,	-98,	-355,	-641,	717,	-1268,	-1487,
	-1141,	808,	-1037,	1196,	211,	-1492,	1303,	-884,	-115,
	-1087,	17,	1303,	-1395,	825,	-71,	-1379,	-381,	-77,
	-1477,	1345,	-56,	-418,	1249,	434,	319,	502,	-680,
	-1313,	-683,	-613,	-1191,	-170,	549,	116,	-530,	-375,
	874,	-650,	-460,	867,	950,	-1257,	-1263,	-35,	1279,
	-983,	1121,	-1384,	508,	-1731,	-1416,	582,	-1194,	423,
	-1953,	-1227,	36,	1390,	1027,	-709,	67,	887,	-1722,
	-971,	-88,	1450,	-1593,	583,	459,	-1330,	-418,	455,
	-1629,	686,	123,	-1484,	475,	-1440,	-2378,	-1064,	-1777,
	-820,	-1290,	-203,	-595,	-37,	321,	-814,	512,	420,
	429,	-1675,	103,	1429,	548,	140,	-385,	-1371,	-106,
	541,	-517,	-1194,	-1027,	181,	-153,	-727,	-1249,	412,
	-570,	952,	360,	-878,	-979,	109,	1425,	1248,	1058,
	257,	17,	105,	1098,	-217,	-1600,	-815,	1185,	-1755,
	272,	1128,	95,	228,	1166,	-1309,	-1483,	-463,	-547,
	1226,	558,	-1465,	-579,	-466,	826,	920,	-830,	41,
	-793,	-1152,	143,	829,	-1404,	-641,	661,	-382,	-449,
	-1907,	1209,	637,	-1356,	-1365,	-661,	614,	-1161,	814,
	-314,	-812,	745,	-458,	956,	900,	-1825,	-1696,	557,
	-300,	2315,	90,	149,	-2220,	649,	1772,	-1847,	-288,
	-659,	2684,	1359,	811,	-811,	883,	417,	1294,	208,
	1384,	459,	-415,	-678,	876,	304,	1057,	-290,	2157,
	-935,	634,	-846,	239,	427,	1192,	-135,	1855,	-679,
	8,	1688,	90,	788,	-461,	-974,	589,	-1446,	1636,
	1352,	2667,	-361,	-664,	446,	510,	2153,	1760,	-1685,
	-609,	-1361,	2141,	713,	-1047,	-876,	-2392,	-872,	-917,
	-963,	-1063,	2618,	804,	-2055,	-1728,	1139,	-292,	-157,
	2722,	425,	243,	-356,	2757,	304,	2293,	-1269,	-846,
	-1128,	-162,	789,	1390,	2332,	-1442,	-269,	-1331,	-317,
	847,	1723,	-1209,	-1266,	-155,	137,	-920,	126,	952,
	-1873,	2607,	-1120,	380,	-1515,	975,	-668,	-446,	184,
	-1122,	-150,	-973,	15,	934,	3332,	3426,	2692,	530,
	604,	-1901,	-2159,	-698,	1440,	-1746,	1081,	1246,	1622,
	308,	-411,	-1041,	-437,	90,	-211,	-123,	416,	-1182,
	2095,	1351,	-457,	-1584,	-1314,	-1320,	1795,	-366,	-1994,
	-2130,	-1090,	1545,	-983,	2357,	1146,	274,	30,	367,
	-57,	-2375,	545,	-1827,	-936,	-16,	-1659,	-1387,	-1763,
	659,	-352,	-2280,	3206,	2716,	1261,	-1355,	-911,	-2666,
	172,	183,	-2001,	20,	799,	591,	1328,	1042,	555,
	1374,	1167,	-1482,	-648,	187,	3439,	-1182,	568,	-473,
	0,	911,	-657,	-1900,	-336,	1660,	-2380,	-851,	-834,
	386,	-734,	38,	703,	-1988,	-112,	-1357,	-12,	-817,
	1409,	331,	-1359,	-298,	-2290,	919,	1452,	-480,	1764,
	1843,	-168,	-1206,	689,	540,	-222,	2539,	-1061,	761,
	1582,	604,	1532,	2593,	1522,	3874,	-221,	3951,	1029,
	698,	-88,	322,	-1157,	770,	-326,	298,	-1383,	20,
	-2180,	503,	1172,	-1276,	529,	1166,	-1557,	-712,	1415,
	-1153,	-1716,	-612,	2227,	649,	-174,	1657,	-46,	-1453,
	3588,	1185,	639,	-846,	-2549,	-114,	1054,	1033,	-1211,
	504,	-1432,	-182,	731,	920,	115,	2413,	2113,	1575,
	2934,	-1382,	-676,	1019,	156,	132,	1786,	-1920,	-1545,
	-1287,	-1442,	397,	-677,	1693,	1566,	-2594,	-290,	1064,
	521,	-204,	2185,	770,	213,	-493,	1168,	-1646,	-2343,
	3108,	595,	-1736,	-696,	1269,	620,	502,	884,	1266,
	992,	-138,	1352,	682,	590,	-343,	-693,	516,	-1002,
	1279,	-1551,	-1484,	-799,	-766,	632,	-1087,	613,	1674,
	1351,	362,	-373,	2383,	-2862,	183,	1512,	-502,	2255,
	1141,	1134,	595,	1159,	85,	100,	716,	574,	2531,
	-856,	-2175,	-430,	2146,	1453,	-1557,	2807,	-49,	-1464,
	1441,	2921,	-1841,	597,	-368,	189,	-363,	-687,	934,
	-1338,	1591,	-347,	-457,	836,	1184,	928,	-1385,	438,
	665,	69,	1131,	3181,	-508,	-1041,	233,	-180,	1539,
	-256,	2212,	2682,	1409,	-1477,	896,	1389,	-2334,	-653,
	-1127,	-629,	-1194,	-185,	-107,	1327,	299,	456,	-1653,
	2368,	1043,	-992,	771,	406,	-1096,	-1117,	1321,	911,
	714,	-622,	-449,	-727,	663,	1418,	838,	-366,	-622,
	-780,	499,	-257,	-212,	600,	1983,	375,	1030,	-67,
	-544,	1486,	-443,	1938,	-940,	-1972,	-853,	-330,	-326,
	239,	-1389,	1278,	-1374,	-623,	180,	-374,	-486,	731,
	752,	562,	801,	1602,	-769,	1190,	2094,	1533,	1260,
	97,	-862,	1460,	-200,	-175,	1449,	2146,	-1338,	-739,
	2108,	-349,	664,	939,	2124,	-410,	-1620,	1366,	1403,
	-314,	-1726,	600,	713,	-772,	1881,	2248,	-765,	-450,
	217,	292,	1330,	842,	114,	332,	952,	229,	-105,
	-61,	1002,	1388,	376,	-1155,	1103,	-1935,	-2228,	1399,
	1559,	-870,	-222,	253,	1441,	1205,	-958,	-218,	1228,
	-1112,	1397,	-1364,	-605,	524,	-1262,	-499,	1305,	2347,
	-59,	333,	327,	-831,	212,	-358,	984,	273,	29,
	1917,	-436,	-1527,	-1037,	-582,	-1940,	-447,	799,	-96,
	-755,	-1350,	-245,	1196,	-1067,	351,	-970,	757,	2293,
	1456,	295,	2070,	-1583,	1312,	-490,	-2372,	-651,	-1298,
	1968,	46,	-496,	1414,	848,	864,	1330,	1326,	1077,
	-1675,	799,	2214,	-614,	-1162,	240,	-1286,	1422,	-528,
	-1201,	1071,	287,	3114,	-265,	-256,	-1969,	462,	914,
	1706,	2725,	-835,	1146,	1284,	17,	-2549,	1506,	1908,
	931,	1073,	-786,	2542,	-1379,	-104,	-89,	112,	-2991,
	-393,	-5235,	1692,	889,	406,	1016,	47,	1231,	-963,
	54,	-670,	671,	-845,	-644,	95,	-2837,	864,	74,
	1279,	1285,	-2253,	93,	1093,	-234,	-1894,	-2182,	1019,
	539,	97,	-2379,	1071,	1047,	3204,	-1981,	-291,	-236,
	-800,	1960,	-849,	-575,	618,	873,	3383,	795,	794,
	15,	261,	-917,	-2325,	1190,	-1432,	-1550,	196,	333,
	-3195,	1292,	482,	-1665,	38,	498,	400,	-1742,	2779,
	2247,	-2122,	1271,	942,	-272,	1349,	-862,	822,	679,
	2096,	1110,	-476,	594,	-252,	479,	999,	-1884,	-269,
	-495,	-283,	-1746,	-548,	-1203,	-131,	431,	1820,	333,
	1666,	-871,	20,	118,	-64,	-630,	-2948,	53,	-758,
	2837,	-1444,	1191,	-816,	-1829,	2030,	1920,	-2043,	1212,
	1602,	-196,	1233,	930,	528,	1169,	2311,	3315,	-980,
	-324,	3899,	539,	-582,	382,	860,	-1513,	-730,	-3,
	1477,	141,	-1191,	-921,	1908,	-1257,	-221,	-540,	-150,
	536,	711,	1642,	290,	2892,	-1740,	-2684,	-347,	-2506,
	2819,	-1184,	-213,	2487,	288,	1055,	-840,	3184,	38,
	1241,	-198,	1092,	-660,	2851,	1531,	601,	805,	-776,
	1837,	883,	1466,	1517,	-1050,	608,	572,	589,	2418,
	-507,	-66,	2312,	-690,	672,	-533,	560,	236,	-2142,
	682,	-1724,	-712,	-406,	1301,	1077,	-845,	-191,	142,
	538,	530,	1935,	2693,	-348,	390,	-1175,	1327,	-1486,
	655,	867,	-843,	-1306,	88,	-181,	1430,	1263,	1500,
	996,	-1077,	-1603,	2995,	-548,	432,	-675,	1996,	609,
	-707,	-167,	-606,	2974,	-789,	-1514,	-393,	1861,	1066,
	-1359,	1392,	1396,	800,	1085,	-1431,	-1800,	-898,	343,
	-150,	-1173,	1313,	-1229,	3186,	1371,	-774,	812,	968,
	-1302,	-1093,	-928,	-1179,	1865,	-810,	-1103,	232,	1039,
	1579,	58,	-127,	-1179,	946,	1578,	1183,	1309,	-1321,
	-3183,	-754,	-916,	1753,	-857,	-2247,	-1247,	178,	-1106,
	-145,	862,	-3061,	2433,	1657,	456,	373,	-640,	990,
	-369,	-166,	1198,	-39,	2050,	-882,	-296,	1299,	1666,
	1136,	1682,	-292,	-2066,	796,	3208,	591,	-549,	772,
	126,	1285,	-564,	-482,	-1740,	705,	664,	717,	-1752,
	922,	773,	1835,	15,	970,	-174,	817,	-418,	2985,
	-1464,	263,	-268,	-438,	-897,	495,	-647,	1354,	-2380,
	1864,	-1273,	121,	-306,	-1478,	-2394,	1800,	721,	-26,
	-1210,	-926,	1175,	-1067,	1595,	0,	3674,	-79,	441,
	-1145,	1380,	1173,	345,	1006,	2256,	2132,	2083,	-410,
	935,	801,	-664,	298,	-986,	230,	913,	1255,	-305,
	-1183,	-683,	260,	-826,	-386,	774,	791,	859,	-1451,
	41,	928,	1153,	1418,	1038,	-299,	386,	276,	352,
	-815,	-417,	-886,	621,	-850,	-950,	168,	-902,	-878,
	-1207,	598,	-652,	1301,	-544,	761,	-1475,	-929,	-738,
	-1156,	1062,	1248,	786,	-840,	-1151,	-387,	-1331,	459,
	1104,	1197,	-565,	723,	714,	-993,	-1287,	-307,	851,
	639,	-461,	-1160,	919,	1430,	-868,	164,	828,	680,
	-81,	-972,	-1481,	742,	784,	284,	64,	480,	-113,
	1463,	248,	705,	-49,	362,	802,	629,	-867,	-1303,
	-170,	-1441,	1305,	-311,	-768,	-645,	890,	737,	-488,
	-1354,	1051,	-815,	-1174,	-1066,	506,	1276,	1187,	447,
	186,	222,	45,	430,	-269,	-1286,	-309,	930,	-317,
	-552,	1151,	-726,	1624,	1735,	1175,	1500,	-190,	1165,
	541,	731,	-1131,	2246,	-8,	-649,	593,	1686,	0,
	-148,	32,	-1714,	455,	1080,	-1110,	802,	-1854,	-1829,
	415,	1247,	1376,	2598,	-148,	-873,	2504,	2596,	751,
	-435,	-80,	1212,	-1179,	224,	713,	-1379,	-1198,	1104,
	977,	-647,	570,	-1495,	1005,	-218,	199,	349,	-1109,
	696,	-559,	14,	-530,	506,	-1605,	-582,	-2080,	452,
	2574,	-265,	-288,	-112,	1341,	-2644,	1407,	229,	2149,
	-1165,	-696,	-322,	681,	109,	1279,	764,	-1302,	-1851,
	-2017,	362,	1643,	3121,	-72,	-2027,	-464,	976,	439,
	-216,	-94,	-460,	-967,	276,	276,	124,	-28,	-681,
	-1526,	1060,	-1467,	-56,	-1566,	772,	140,	100,	-1550,
	-810,	-2518,	108,	758,	-1069,	1552,	1453,	1527,	177,
	664,	1078,	-2774,	579,	672,	1402,	-1168,	-1028,	1318,
	-1128,	1036,	469,	1167,	-1110,	-959,	-543,	-1865,	618,
	-1304,	22,	1414,	-773,	-779,	1033,	1164,	-2134,	1109,
	-407,	13,	-29,	-1580,	-677,	-516,	-815,	213,	-568,
	-1311,	-1283,	858,	-86,	-512,	-72,	1203,	1307,	-641,
	-210,	607,	69,	644,	-621,	311,	-278,	-411,	-638,
	920,	-253,	-396,	-914,	619,	-636,	-181,	264,	-1536,
	869,	-464,	1560,	460,	548,	-201,	-1393,	525,	978,
	-112,	-62,	-1810,	-888,	-703,	-494,	1598,	558,	-1827,
	-1194,	-248,	-1578,	-163,	601,	611,	1225,	-1503,	-937,
	-750,	-605,	180,	-905,	277,	448,	1482,	-111,	-952,
	771,	1395,	-1275,	-768,	-1020,	583,	-279,	1308,	-1742,
	-623,	512,	-876,	-64,	511,	-1786,	1192,	-1152,	-1354,
	113,	-1798,	-670,	466,	-1337,	-949,	534,	-396,	-1412,
	-104,	-878,	-266,	644,	-289,	-1743,	-984,	295,	763,
	703,	810,	-1423,	514,	1485,	825,	-396,	-998,	-915,
	-303,	-607,	448,	-202,	898,	685,	1387,	620,	-139,
	163,	1371,	-257,	1437,	977,	761,	1988,	616,	1258,
	-971,	1352,	771,	1461,	189,	444,	2266,	-726,	-77,
	-35,	-1953,	-4,	-1376,	-294,	-1095,	-1543,	108,	1653,
	673,	-881,	44,	1527,	346,	1141,	68,	-181,	1372,
	1509,	-387,	687,	-1803,	-1178,	-780,	-766,	-1219,	-1920,
	-541,	1030,	336,	738,	-180,	844,	-1352,	-1445,	588,
	362,	-1492,	-1527,	190,	1448,	-1402,	441,	64,	-103,
	-142,	48,	-337,	2493,	109,	-801,	211,	-1394,	-677,
	651,	393,	-885,	-1659,	-1661,	-453,	1303,	145,	2337,
	3003,	1272,	-1402,	-723,	527,	225,	-1998,	-676,	2025,
	1808,	1162,	-2381,	2131,	1330,	-263,	2256,	3211,	-347,
	1136,	-1896,	713,	1934,	1809,	-1033,	-1082,	-742,	885,
	-736,	-1883,	-2581,	825,	1486,	383,	-1110,	-280,	-928,
	126,	593,	727,	-1338,	103,	-158,	1306,	2054,	-190,
	1525,	977,	606,	239,	-206,	385,	62,	615,	-271,
	-31,	-27,	1419,	1496,	644,	143,	-918,	-888,	87,
	-537,	-2147,	135,	-446,	-399,	-1756,	-2348,	1413,	-1019,
	3954,	-739,	-552,	1089,	-1390,	-1874,	302,	128,	2609,
	-876,	1695,	505,	-2558,	-1487,	1422,	-1656,	1235,	-703,
	131,	1249,	-524,	276,	-260,	-1585,	568,	1355,	119,
	-1526,	1629,	-1072,	-154,	-1436,	2816,	1151,	-875,	-676,
	822,	-1015,	1427,	429,	389,	-204,	1266,	1093,	1286,
	-801,	1444,	-1588,	992,	1533,	359,	-1300,	-797,	-167,
	-1842,	1281,	163,	979,	24,	-351,	-206,	845,	347,
	-1870,	630,	1388,	-1219,	-427,	-1914,	-398,	-583,	1184,
	-731,	-928,	1332,	877,	172,	1594,	-480,	283,	634,
	749,	-742,	-618,	-1694,	-397,	1302,	-702,	1236,	2869,
	2484,	255,	1050,	-1345,	-1144,	1154,	-2446,	-760,	654,
	1099,	-1027,	2876,	180,	307,	3309,	-252,	4,	-2471,
	1025,	909,	663,	701,	-671,	2309,	1292,	-719,	970,
	1353,	-1569,	1333,	2123,	-1296,	-336,	927,	1063,	-1735,
	849,	453,	1524,	-1346,	-283,	1205,	2561,	847,	156,
	1341,	-725,	900,	-321,	-975,	1929,	1720,	1131,	2614,
	689,	632,	-1493,	1512,	-1261,	12,	1296,	96,	-496,
	717,	860,	-2738,	-223,	3313,	259,	27,	-836,	-2384,
	-839,	498,	-131,	877,	-2362,	507,	1604,	-1009,	49,
	940,	-133,	289,	-1191,	-516,	-2654,	1183,	403,	722,
	-868,	181,	1075,	-346,	349,	775,	-349,	3598,	-933,
	14,	223,	1625,	-2375,	1542,	-569,	-556,	2603,	-1898,
	-1274,	385,	-1030,	-1183,	1070,	127,	885,	-374,	-896,
	-2827,	1403,	1840,	-809,	2125,	-1583,	2534,	130,	-927,
	1730,	402,	836,	283,	518,	168,	1801,	693,	-757,
	1986,	992,	-1209,	-1238,	1197,	1402,	867,	1408,	2384,
	4,	593,	-373,	-1786,	-403,	1242,	829,	780,	1476,
	-405,	649,	1214,	113,	239,	-1955,	505,	2078,	-472,
	201,	376,	-2876,	-2558,	-23,	-1541,	415,	-510,	-1572,
	1571,	2117,	2369,	-418,	11,	39,	1028,	-662,	1295,
	-825,	-1485,	-882,	2288,	1001,	-1310,	-242,	2129,	-1377,
	1034,	62,	361,	1005,	795,	846,	-1071,	-1344,	618,
	671,	-1019,	-899,	-938,	-1202,	-43,	147,	400,	-134,
	1979,	122,	-3603,	349,	527,	-66,	2004,	100,	1048,
	1376,	-861,	115,	1082,	-816,	1538,	1727,	-686,	306,
	200,	1556,	2183,	176,	-553,	4,	-373,	-63,	2143,
	-341,	1025,	-811,	1116,	-748,	-688,	-857,	-214,	1638,
	182,	-607,	-515,	953,	1,	1193,	149,	-1404,	284,
	-1097,	-152,	-1389,	-911,	-290,	512,	420,	1084,	604,
	421,	549,	1163,	-756,	-122,	267,	-1430,	995,	521,
	-753,	-693,	96,	-1912,	1222,	1076,	-1896,	-832,	1282,
	1321,	922,	2133,	1051,	-1909,	-1435,	1341,	-635,	36,
	2242,	1477,	688,	-1059,	2457,	-1968,	575,	1471,	622,
	-443,	911,	-850,	-629,	775,	-586,	-271,	1382,	-476,
	-434,	521,	-291,	-1103,	-492,	-14,	818,	691,	1436,
	-1524,	662,	10,	-1490,	-1699,	1184,	-1487,	-776,	976,
	2567,	-81,	390,	95,	-455,	3446,	-2815,	767,	-407,
	-2722,	-1605,	2376,	590,	-2195,	1796,	2164,	-2326,	611,
	1767,	-210,	-394,	-732,	955,	1035,	-207,	383,	455,
	-923,	1843,	-537,	402,	-1138,	327,	-2823,	-1922,	815,
	797,	-829,	707,	-3359,	-1539,	-1632,	-837,	-561,	560,
	-1456,	2037,	-2464,	2109,	1714,	-2093,	1389,	79,	2378,
	-736,	931,	2097,	-428,	1396,	-2550,	-639,	-398,	1494,
	2920,	988,	-1576,	282,	55,	-211,	-1563,	297,	1511,
	-60,	-961,	422,	704,	-1524,	1979,	389,	-606,	1034,
	-382,	428,	841,	577,	-1226,	797,	-2603,	1882,	120,
	2212,	-148,	650,	125,	97,	299,	606,	1307,	-503,
	-1749,	-199,	396,	498,	1490,	-467,	-218,	853,	872,
	-1957,	-448,	-632,	2500,	2518,	-2662,	-523,	-96,	844,
	-665,	1764,	-835,	-2909,	-1201,	-2229,	-2065,	-2304,	1916,
	94,	-667,	1321,	272,	-1886,	642,	-239,	-1903,	1866,
	2356,	-773,	446,	2636,	1114,	1462,	-407,	-1385,	2146,
	1240,	1917,	1282,	1818,	2027,	1041,	1303,	818,	-974,
	-1089,	-1963,	-982,	26,	-578,	1073,	-2611,	523,	1189,
	554,	-911,	1849,	198,	-1025,	-693,	-1270,	1192,	-1428,
	596,	-828,	51,	-432,	-1415,	710,	-1745,	1492,	-1124,
	-807,	272,	-1023,	1357,	-553,	-1043,	94,	164,	-1915,
	331,	892,	2074,	741,	-845,	1301,	707,	-1596,	426,
	778,	571,	2632,	2616,	1238,	-274,	734,	36,	-439,
	-1296,	-902,	260,	869,	-1020,	-688,	670,	1840,	-1589,
	-766,	-600,	765,	860,	16,	642,	-1099,	-967,	-914,
	-1593,	-1281,	-579,	57,	553,	30,	302,	1727,	-1424,
	-618,	-1022,	988,	55,	2008,	106,	-1752,	-1175,	-1323,
	-2790,	752,	43,	-2400,	2167,	740,	1225,	929,	198,
	643,	2680,	-19,	-745,	-2780,	-402,	-373,	1298,	85,
	-380,	-301,	-161,	1491,	-108,	-330,	-68,	-1567,	365,
	226,	749,	515,	1059,	2362,	-2190,	944,	101,	-1674,
	-2151,	-863,	-370,	1645,	-209,	255,	-652,	-1163,	-409,
	-2303,	-218,	-2130,	-224,	3019,	2568,	-58,	-653,	-1295,
	2348,	1303,	-1534,	868,	-811,	463,	672,	-932,	1374,
	4,	963,	1468,	367,	-981,	-100,	182,	-1044,	-1176,
	1055,	-1977,	-2379,	4521,	1111,	2425,	1686,	237,	803,
	1016,	-205,	1241,	1729,	-1843,	-5097,	1674,	-639,	1243,
	-976,	527,	1109,	1493,	-1690,	1188,	-4473,	-386,	1626,
	-3,	-1096,	-3160,	-153,	1315,	1886,	96,	1582,	-899,
	1836,	-117,	-662,	4323,	-1337,	198,	741,	-636,	827,
	-59,	-1694,	-2245,	1750,	83,	-3481,	-3140,	681,	-305,
	3010,	2117,	950,	-787,	-102,	-789,	13,	-2392,	-377,
	207,	-1209,	-229,	427,	24,	-468,	677,	-794,	1387,
	-1404,	-2124,	1819,	-1841,	-1216,	-1470,	1822,	1225,	1653,
	2918,	2518,	-828,	-637,	-2129,	2217,	-1127,	1209,	-2293,
	1282,	2576,	2646,	469,	-1871,	1007,	-623,	-1653,	-1059,
	-873,	230,	-336,	3031,	738,	678,	724,	-273,	-193,
	-29,	-984,	739,	-36,	346,	1418,	-2685,	-113,	-582,
	925,	-545,	1133,	-571,	-2266,	3566,	282,	508,	478,
	-574,	810,	1243,	-1665,	1402,	1762,	-835,	-82,	-1458,
	-1221,	1263,	123,	-760,	399,	-418,	-750,	28,	1401,
	869,	-390,	-2139,	-1041,	-546,	-2920,	-342,	-1294,	1602,
	-1818,	1447,	295,	-1048,	460,	896,	-5,	-1406,	-914,
	639,	-1454,	1764,	1323,	393,	-3767,	201,	240,	1110,
	321,	-89,	-196,	180,	-141,	1951,	-67,	-2075,	386,
	1265,	-1048,	-181,	852,	-947,	-404,	-531,	186,	-78,
	-614,	23,	-858,	2097,	1837,	-659,	-36,	392,	-1134,
	1528,	1553,	1154,	2362,	-490,	1818,	-2504,	497,	1244,
	-1437,	-882,	-65,	348,	-1404,	240,	-539,	-498,	-44,
	-745,	-203,	-780,	447,	438,	-1612,	42,	-184,	1486,
	-330,	-356,	1784,	-90,	-2121,	-1123,	173,	-395,	-1705,
	-526,	-1037,	-70,	953,	741,	569,	-617,	-1468,	155,
	1975,	2068,	2113,	2426,	1347,	-1141,	-2262,	-1245,	595,
	1257,	-2259,	253,	-234,	-728,	282,	637,	246,	-970,
	1519,	-284,	2239,	73,	1099,	-297,	-1112,	991,	340,
	56,	309,	910,	-2011,	216,	-1201,	2877,	-1692,	301,
	-2314,	-163,	-907,	2728,	-475,	752,	1403,	-277,	-2678,
	-3087,	-1205,	1786,	-845,	-95,	270,	-425,	2146,	78,
	615,	-1791,	1627,	479,	-1407,	-239,	1120,	-728,	641,
	-387,	-1412,	162,	758,	1208,	-142,	-1728,	-640,	1462,
	-89,	199,	67,	-1988,	-1756,	1179,	1370,	1164,	1340,
	-983,	-203,	810,	945,	466,	-446,	-462,	383,	1263,
	-593,	1116,	-707,	-990,	2049,	-845,	-1213,	1008,	2096,
	-106,	1046,	-2,	176,	-1057,	-164,	-1782,	-35,	-795,
	2579,	-336,	-1691,	-1061,	708,	-1608,	1678,	-1130,	605,
	89,	1145,	1038,	1303,	-1590,	768,	1335,	1533,	90,
	621,	1808,	648,	-1625,	1845,	-895,	2071,	-1068,	-816,
	24,	1898,	95,	64,	706,	-461,	-486,	1386,	1707,
	-603,	-828,	940,	-800,	-865,	-1048,	374,	-1070,	-992,
	-1354,	1099,	-3688,	286,	-279,	55,	-1325,	-109,	-1673,
	-1209,	1194,	-504,	177,	572,	1820,	-89,	72,	1475,
	799,	-1121,	-1400,	-438,	-805,	-888,	535,	671,	-420,
	-1074,	50,	210,	-1306,	544,	891,	1289,	186,	831,
	-552,	-1526,	-1660,	-1478,	642,	1254,	-693,	-1495,	844,
	642,	991,	1154,	-690,	947,	-320,	832,	1063,	-1139,
	1490,	-904,	1246,	370,	-671,	571,	209,	934,	641,
	-968,	963,	472,	-1220,	250,	-1770,	-1146,	355,	-119,
	645,	482,	117,	224,	979,	-892,	-61,	-910,	-651,
	893,	-1075,	773,	-1197,	-963,	-1001,	-815,	-56,	-114,
	-746,	1119,	41,	-57,	396,	-672,	302,	-979,	821,
	-1517,	49,	1051,	-1011,	-440,	-994,	-1369,	120,	-233,
	578,	1162,	1294,	720,	-1259,	188,	-164,	442,	-997,
	-946,	868,	-1233,	-148,	-377,	237,	237,	-1268,	-945,
	-963,	-319,	388,	-129,	691,	495,	-693,	1158,	-752,
	51,	-2321,	-1332,	-2736,	1171,	878,	-1249,	-1248,	987,
	522,	-1182,	1553,	1739,	-589,	-809,	339,	1730,	2341,
	-522,	-1527,	228,	1027,	2023,	-447,	1292,	-445,	1465,
	1802,	-1081,	254,	-153,	-942,	985,	1511,	-456,	-1997,
	-917,	1150,	809,	647,	-942,	14,	1070,	1497,	-78,
	919,	-421,	232,	450,	1044,	1400,	502,	-2248,	-1493,
	-125,	-271,	1549,	-96,	1731,	513,	-3438,	1085,	-3383,
	-64,	297,	2140,	1582,	-889,	-612,	-1444,	-1382,	-132,
	500,	-514,	-1429,	1469,	1176,	1039,	1059,	-760,	1101,
	100,	1607,	693,	1446,	1048,	-975,	25,	992,	-349,
	-785,	1632,	-1516,	-793,	-356,	1276,	397,	1732,	372,
	-1672,	448,	-613,	2086,	-1477,	-947,	644,	1519,	-2009,
	-316,	949,	963,	49,	1429,	1304,	-100,	1380,	410,
	-3053,	-893,	374,	-1558,	-791,	12,	740,	-471,	1299,
	-1222,	-1445,	-760,	-985,	358,	1190,	-416,	29,	-1132,
	936,	-1062,	1062,	1073,	-1545,	247,	465,	-443,	-1439,
	-822,	-1397,	-1119,	-637,	-1425,	1151,	80,	-1434,	166,
	655,	1313,	-519,	-1099,	234,	1222,	1053,	490,	-1347,
	1095,	-945,	-406,	-997,	-1287,	-185,	-699,	447,	-1362,
	362,	-722,	989,	466,	-1089,	-254,	840,	-1600,	425,
	-158,	-555,	436,	-1450,	441,	1231,	-967,	1058,	153,
	283,	-968,	-1225,	-638,	-9,	-1220,	-458,	1024,	882,
	-808,	1102,	790,	787,	554,	-1604,	-1279,	-497,	-1245,
	577,	-225,	962,	-791,	-1216,	-267,	-1066,	-30,	-406,
	507,	481,	679,	1300,	608,	226,	-1046,	-1079,	-1006,
	-52,	-208,	908,	-473,	359,	21,	-1531,	-824,	742,
	-550,	-945,	547,	-815,	-954,	-724,	484,	2605,	991,
	209,	679,	2680,	539,	-2136,	1246,	2715,	-1691,	-83,
	1545,	-991,	1560,	1354,	-211,	826,	1125,	414,	445,
	309,	-767,	1755,	528,	-799,	-705,	1198,	-1387,	-1966,
	527,	2087,	-452,	-1919,	-1196,	2675,	-118,	1422,	414,
	-1568,	-1464,	317,	-750,	525,	-248,	-1857,	1321,	517,
	-62,	846,	896,	1035,	1009,	-33,	157,	-1193,	390,
	994,	583,	-1145,	1082,	83,	-2023,	-721,	-265,	-453,
	2466,	-1042,	1979,	22,	879,	1202,	2129,	-270,	2696,
	1997,	-816,	-418,	-1492,	611,	-422,	-969,	-1398,	606,
	1446,	227,	-163,	1091,	1512,	-851,	-294,	711,	468,
	-2649,	550,	616,	73,	1323,	-206,	460,	392,	906,
	-133,	1799,	1074,	1544,	-274,	-1745,	-1737,	426,	-1117,
	2204,	1123,	-984,	381,	-1697,	-3914,	-2605,	-1381,	104,
	-356,	-380,	130,	-1195,	1255,	1006,	-859,	-990,	-758,
	-381,	-1011,	785,	-327,	-1093,	-25,	-650,	538,	713,
	-1388,	-1058,	776,	-1415,	-737,	-1694,	180,	-173,	949,
	-527,	1000,	-1378,	1154,	-573,	-262,	-1438,	1208,	-1285,
	500,	-120,	392,	-525,	-551,	-1598,	594,	-808,	-271,
	-436,	945,	-1167,	1251,	-301,	-202,	1085,	672,	-772,
	-584,	1230,	-1594,	333,	-930,	-1678,	-1276,	-340,	-774,
	-766,	-339,	-136,	-116,	250,	-1573,	-1062,	931,	735,
	-1327,	498,	-958,	-568,	655,	1213,	-1070,	1177,	-1134,
	-165,	1140,	-596,	988,	399,	853,	448,	-1484,	-372,
	179,	-1513,	230,	-629,	-542,	1144,	-281,	-1008,	-781,
	1074,	953,	783,	1163,	587,	1354,	-1204,	127,	-624,
	-1042,	905,	1161,	661,	-1170,	-732,	-1544,	-362,	-448,
	-570,	-1629,	-1175,	-524,	164,	-815,	1084,	-1126,	356,
	886,	873,	-569,	-1368,	697,	-651,	-1238,	257,	456,
	-59,	948,	47,	-1156,	892,	-1038,	799,	-316,	-1768,
	1018,	644,	171,	887,	1178,	-1513,	-1496,	1254,	315,
	-987,	-1727,	311,	-1104,	-826,	-1525,	-1136,	-1127,	-964,
	22,	-757,	-1648,	344,	1130,	-1307,	259,	-433,	249,
	1407,	-1898,	-1433,	-24,	1000,	613,	181,	-1444,	715,
	698,	-1405,	490,	-544,	-565,	227,	-318,	726,	-1100,
	-999,	-50,	202,	-60,	871,	-791,	-770,	453,	-1139,
	774,	-488,	-1908,	-1401,	-1515,	58,	909,	46,	1012,
	-460,	-157,	-776,	1265,	763,	-109,	1080,	270,	-1332,
	-1127,	815,	-2356,	-669,	-1334,	1291,	-1747,	1223,	890,
	-1287,	790,	832,	46,	-1371,	-422,	461,	-979,	-1531,
	405,	624,	-419,	-346,	-1093,	1546,	1003,	-1581,	846,
	1053,	-1427,	-1055,	37,	779,	-334,	-1317,	-1002,	-403,
	-409,	1262,	-878,	-927,	480,	1003,	-871,	881,	-1149,
	-1370,	-123,	-1162,	-127,	1154,	650,	380,	166,	-170,
	-52,	-20,	680,	261,	288,	-1557,	-672,	1093,	117,
	1141,	-680,	1110,	-970,	708,	-1520,	-1487,	-1219,	-1600,
	1194,	-1347,	174,	576,	262,	-383,	1129,	-697,	-705,
	999,	1128,	-627,	598,	-339,	783,	1142,	-385,	-951,
	-650,	-240,	834,	-1214,	-850,	-1468,	-1321,	-398,	-953,
	53,	-1354,	-1702,	-1175,	-1486,	865,	1021,	566,	-452,
	983,	-660,	1204,	-1190,	-1557,	-1487,	220,	-430,	-1362,
	754,	1427,	-516,	-660,	566,	269,	-151,	-139,	-1342,
	-1580,	-1423,	685,	401,	-291,	-765,	-1048,	-583,	-1173,
	279,	-1181,	-1797,	-287,	555,	-264,	528,	-134,	974,
	421,	-1339,	-1097,	210,	-2495,	-171,	-921,	294,	8,
	-374,	1261,	1821,	1930,	445,	323,	501,	-1436,	837,
	30,	278,	-342,	1315,	-297,	498,	1772,	831,	867,
	-61,	-2520,	506,	-1808,	-2244,	2158,	-431,	78,	164,
	-2048,	-35,	1069,	187,	-302,	-3234,	775,	1142,	-1344,
	-392,	-3129,	825,	771,	-201,	-1158,	909,	-952,	783,
	-1455,	-182,	-2152,	-310,	1716,	-2431,	-3227,	1330,	-1929,
	-499,	-132,	1927,	-2124,	-1249,	-555,	-304,	-725,	2141,
	-757,	-225,	-281,	284,	-1625,	-321,	88,	377,	-520,
	-255,	-781,	-824,	737,	65,	448,	-138,	443,	959,
	159,	2118,	9,	1595,	-888,	1572,	-1336,	-2080,	1456,
	-2091,	-676,	-242,	1546,	235,	1062,	200,	-52,	2102,
	-1675,	266,	-377,	1065,	-738,	-588,	1325,	2075,	3146,
	-409,	743,	589,	31,	918,	1436,	-598,	-1310,	-1690,
	-905,	1190,	-269,	-1044,	894,	-1567,	-886,	-963,	-726,
	1020,	-1721,	-1430,	1142,	-50,	-970,	-433,	-1199,	-1247,
	-154,	-13,	-283,	-1290,	-921,	462,	989,	-1183,	-1468,
	177,	7,	-679,	1000,	-788,	-536,	315,	-889,	434,
	-1258,	787,	1162,	-902,	70,	-50,	1181,	1150,	520,
	-1170,	-1605,	-852,	-281,	-221,	-887,	-1224,	-1681,	-1173,
	-961,	541,	-381,	-1216,	-398,	-1389,	-555,	380,	817,
	1284,	-178,	-1382,	189,	-1291,	-219,	1053,	414,	1005,
	615,	676,	-911,	206,	887,	974,	-1403,	-5,	297,
	-732,	1110,	-109,	1380,	-897,	-1193,	-938,	-1388,	-1739,
	-550,	-1311,	531,	-1497,	-29,	-1257,	-693,	-448,	-1235,
	1039,	551,	-993,	866,	898,	862,	-903,	-210,	322,
	-1195,	-34,	-443,	-1402,	943,	-1118,	-1462,	-439,	1848,
	-1439,	3640,	1108,	-1466,	89,	795,	69,	-757,	1338,
	-417,	-1198,	-1095,	676,	2856,	494,	984,	-871,	542,
	-2303,	-1296,	1380,	-810,	1007,	1657,	-2885,	1010,	-493,
	-1106,	-1276,	-47,	2258,	-1748,	-184,	1324,	1123,	235,
	-1340,	-129,	874,	-126,	71,	-1064,	2559,	3544,	1630,
	629,	-577,	1936,	532,	-24,	281,	-1590,	5,	2380,
	-475,	1197,	2202,	28,	-798,	-310,	-830,	1019,	878,
	587,	-711,	576,	-522,	310,	-649,	-45,	321,	641,
	825,	-678,	1095,	830,	-246,	-2557,	279,	1418,	-219,
	5,	-447,	1289,	-238,	2647,	902,	1133,	1346,	287,
	-635,	-1267,	296,	-51,	553,	-1108,	1241,	832,	-81,
	440,	1269,	161,	-597,	1300,	-791,	-754,	-1216,	1306,
	-1088,	2127,	217,	-1665,	-585,	-1099,	-814,	-1343,	-689,
	2936,	-1391,	-1367,	1810,	1483,	-1301,	670,	776,	44,
	916,	470,	839,	1187,	-681,	-757,	575,	-944,	-124,
	1007,	1489,	403,	-289,	788,	946,	609,	1312,	410,
	2654,	-1373,	-1751,	-697,	1821,	1716,	174,	2176,	2606,
	2545,	677,	1752,	-182,	-2934,	-957,	-764,	1268,	834,
	-2480,	1316,	1775,	1404,	-1295,	-1865,	1039,	816,	1018,
	-974,	1108,	-1084,	-89,	1240,	-887,	1228,	-751,	-2681,
	-321,	-1113,	-23,	2566,	-451,	2196,	1065,	1975,	2678,
	-873,	1245,	487,	1393,	-13,	-1188,	-411,	-1637,	-369,
	-1421,	-632,	33,	-1593,	832,	133,	-283,	-275,	-1169,
	-492,	1437,	1665,	-1220,	-1070,	675,	1033,	-1633,	-358,
	2019,	1125,	-333,	576,	2774,	1223,	1776,	-333,	-555,
	-2266,	1008,	93,	1123,	-846,	-1137,	2028,	-1344,	-940,
	-1710,	862,	2067,	2610,	-1921,	-460,	410,	324,	1246,
	-524,	-1059,	-803,	1263,	1932,	-1073,	585,	-466,	146,
	119,	-1141,	223,	566,	608,	1438,	1076,	-982,	1316,
	-144,	-993,	750,	2638,	429,	627,	130,	965,	427,
	2343,	-811,	1437,	-191,	388,	1140,	-874,	-1188,	2452,
	-1956,	1083,	-328,	1833,	-1440,	-680,	-360,	1156,	1460,
	-1078,	-2063,	-319,	647,	627,	966,	-1737,	178,	1375,
	-2548,	1300,	-2354,	2069,	12,	-874,	-633,	53,	-869,
	95,	1378,	-4182,	1533,	845,	1148,	-985,	779,	388,
	1369,	554,	-662,	677,	1008,	-1169,	-1746,	-264,	167,
	1116,	288,	669,	753,	-698,	885,	-780,	1209,	-238,
	-227,	1361,	2961,	16,	25,	-806,	1038,	315,	-313,
	581,	-885,	-295,	-1720,	-169,	1167,	-17,	-302,	1500,
	2380,	-542,	1103,	765,	-2005,	-215,	676,	666,	-886,
	-1454,	-2171,	1892,	-1444,	-1093,	822,	-1012,	1769,	569,
	-1604,	892,	1074,	865,	-139,	-566,	541,	-624,	-1363,
	1863,	1901,	317,	1135,	181,	1050,	913,	1384,	538,
	1636,	-201,	1328,	924,	-1582,	1934,	1711,	-532,	1336,
	-920,	1197,	2495,	-6,	1044,	2935,	2077,	1019,	-76,
	981,	-493,	-100,	1722,	921,	700,	267,	-375,	-1079,
	-1015,	907,	3168,	16,	1033,	1150,	3644,	-378,	1484,
	1592,	-33,	-1419,	-432,	347,	-181,	2531,	1437,	-1575,
	381,	-1306,	-1197,	1524,	1336,	2373,	1889,	167,	-659,
	440,	-1404,	1206,	1360,	-251,	1276,	-1317,	-997,	641,
	-499,	-1042,	-113,	-1016,	2443,	940,	-601,	-1246,	-112,
	3356,	-2128,	533,	-806,	-342,	-377,	3479,	1087,	-321,
	-661,	-298,	1519,	-655,	246,	-2137,	1832,	-2348,	174,
	3290,	935,	-998,	-711,	2104,	-1235,	525,	1703,	575,
	-846,	2423,	-473,	-409,	-703,	575,	-388,	311,	-796,
	-408,	745,	-992,	-773,	-1586,	1569,	416,	-1463,	1912,
	245,	547,	-949,	-1921,	-1376,	-1900,	3563,	948,	-417,
	2362,	-353,	1629,	562,	912,	-2178,	246,	-785,	1548,
	-1634,	2030,	757,	854,	1155,	-346,	95,	-1852,	-1067,
	-38,	-389,	1308,	-184,	493,	1280,	-1706,	-268,	-1923,
	676,	608,	2107,	612,	1033,	124,	-628,	-1042,	-2475,
	154,	2463,	-425,	626,	1556,	1825,	-1367,	-82,	-514,
	2790,	-866,	-661,	583,	986,	1322,	-622,	1756,	1232,
	480,	1437,	1832,	-913,	-1173,	-99,	458,	-1364,	369,
	2186,	338,	2390,	2434,	1031,	1266,	1656,	569,	-13,
	1286,	-955,	-493,	1960,	1671,	1106,	-55,	-849,	1075,
	-232,	2253,	-2583,	1879,	1744,	-1367,	2237,	-940,	-1307,
	109,	-896,	-1910,	1896,	-1192,	955,	761,	575,	-115,
	-1333,	-1983,	-613,	-958,	1913,	-1062,	-413,	-1108,	979,
	-834,	-134,	-1624,	3460,	827,	-1318,	1224,	1134,	1570,
	-2423,	-981,	1975,	1440,	-1161,	1480,	180,	-1222,	515,
	-1807,	-503,	675,	-847,	-294,	132,	-450,	-96,	303,
	1706,	1496,	-685,	-581,	488,	-2425,	-1527,	813,	83,
	1170,	-1309,	-1915,	393,	-600,	-303,	987,	-1215,	-187,
	-1480,	-93,	401,	2628,	-1,	2649,	-470,	-1279,	-834,
	1070,	-1066,	971,	1934,	-1253,	-3853,	977,	360,	-89,
	-1137,	-529,	-1076,	-187,	1264,	1326,	-1219,	56,	-523,
	177,	427,	1350,	1072,	486,	-103,	897,	-1165,	-787,
	1022,	-2438,	1503,	-1604,	-315,	443,	2154,	-518,	1221,
	971,	1649,	-929,	1408,	1286,	438,	1091,	-1469,	-816,
	-2675,	-333,	-250,	650,	1234,	2142,	-786,	2151,	-720,
	-1376,	2115,	396,	-653,	-1073,	705,	-938,	-1652,	72,
	-507,	-799,	-2677,	1601,	667,	2580,	421,	1748,	2105,
	58,	-2430,	-1978,	952,	1572,	-2073,	-2873,	1249,	537,
	986,	1848,	-569,	1539,	974,	1936,	478,	-1573,	-15,
	1356,	1093,	507,	125,	-886,	974,	232,	-784,	548,
	2649,	-1109,	2448,	-2139,	-759,	1371,	2521,	210,	466,
	780,	354,	-1315,	212,	-2391,	-2284,	2824,	1485,	-1465,
	-35,	1483,	1464,	-761,	-145,	-1130,	2561,	427,	2833,
	251,	993,	-262,	-346,	1523,	866,	272,	-870,	175,
	1800,	857,	-1536,	-797,	726,	-741,	-254,	592,	526,
	-719,	300,	850,	923,	1125,	1476,	-324,	-656,	958,
	301,	-763,	1604,	-2653,	1072,	658,	-1047,	-943,	-59,
	1966,	-1856,	210,	-373,	-2107,	1135,	-1176,	-3032,	115,
	315,	1505,	499,	473,	-476,	1171,	433,	-962,	1556,
	1117,	-611,	823,	1027,	1464,	-576,	2107,	-1358,	-908,
	-172,	2004,	1307,	2231,	-53,	1353,	1861,	2647,	10,
	-3201,	1469,	-41,	-81,	1199,	-1523,	1778,	350,	2791,
	-1153,	-1712,	-1699,	594,	507,	-67,	948,	-95,	-79,
	1120,	-1367,	-125,	1101,	-997,	-1042,	-2430,	-1159,	-2339,
	2017,	263,	1060,	2454,	366,	999,	823,	-1292,	-3003,
	2654,	601,	635,	-67,	746,	-626,	-2369,	-160,	337,
	48,	-1450,	461,	-33,	-1460,	1173,	-1274,	376,	393,
	-1314,	-647,	-603,	1058,	-1072,	-2203,	1539,	252,	1687,
	-505,	-1014,	-1419,	1182,	-1715,	1290,	2592,	-1489,	1446,
	2120,	-1308,	376,	2470,	-1489,	899,	-608,	2568,	-285,
	-75,	-417,	114,	-1725,	-1456,	-1014,	-1698,	1004,	-688,
	1115,	1310,	21,	-687,	1740,	803,	81,	576,	-436,
	-590,	74,	-644,	-1319,	-1475,	-141,	856,	1290,	34,
	1690,	-913,	1072,	-891,	-1621,	-1202,	-1788,	-2129,	-256,
	-438,	1056,	382,	-2314,	1276,	434,	-875,	3082,	-4260,
	2489,	397,	-847,	1291,	-46,	1688,	-805,	292,	-191,
	-811,	489,	-2188,	1326,	419,	-813,	987,	1237,	-2569,
	-752,	-157,	1307,	-1475,	512,	2066,	466,	-458,	-2453,
	734,	-2945,	3655,	-1832,	-298,	-1370,	-1579,	1475,	1408,
	-183,	-199,	577,	-1668,	-150,	-379,	1280,	1045,	-1275,
	-373,	945,	998,	849,	168,	-1347,	529,	411,	1102,
	-1366,	-863,	-634,	-1146,	-164,	-422,	-297,	1454,	3,
	1160,	3437,	900,	2410,	-784,	-353,	1768,	1452,	147,
	109,	46,	854,	208,	2605,	587,	329,	150,	-1339,
	1021,	1112,	-302,	609,	-1994,	379,	-1986,	-310,	661,
	-1689,	535,	-987,	1046,	-1552,	-1239,	-467,	551,	773,
	445,	-689,	591,	-429,	116,	713,	1356,	-1994,	827,
	-1995,	-239,	-1640,	-1923,	97,	647,	509,	1040,	320,
	-1082,	478,	-1555,	-858,	-1456,	290,	-1164,	544,	-1956,
	-85,	468,	240,	695,	-278,	-1891,	784,	946,	919,
	-840,	-499,	-1857,	401,	-333,	980,	-975,	-996,	-161,
	-422,	1037,	-1261,	-1116,	-328,	-1012,	-67,	-1043,	454,
	-226,	911,	-1189,	842,	1220,	796,	609,	-1807,	-1469,
	-1687,	-601,	175,	-374,	255,	652,	473,	-1200,	-1256,
	171,	-1116,	-1197,	1494,	-1032,	561,	478,	505,	-1863,
	502,	-479,	-384,	1207,	799,	-1710,	-1227,	-811,	787,
	-130,	-550,	-304,	244,	-531,	-877,	-968,	58,	-1483,
	-1558,	-952,	842,	-686,	788,	-738,	632,	1937,	-434,
	62,	-468,	839,	782,	-292,	-27,	703,	1428,	137,
	-931,	-1519,	92,	-428,	496,	976,	-1878,	932,	584,
	-2427,	-1748,	-515,	740,	1874,	1242,	-895,	79,	296,
	-710,	-970,	589,	-454,	-1216,	878,	301,	321,	-1875,
	-864,	-376,	-2245,	-730,	-571,	-354,	-213,	-604,	-1115,
	895,	350,	-1204,	-1288,	-12,	-606,	2735,	-571,	1403,
	-783,	761,	114,	-920,	1438,	-921,	-209,	270,	-638,
	-1205,	-1898,	558,	777,	-463,	-1452,	735,	20,	149,
	-551,	-682,	558,	-1013,	-1156,	1194,	1120,	-325,	-307,
	263,	865,	-1486,	-126,	1134,	-135,	-1372,	459,	-2223,
	-1176,	-502,	-37,	312,	-1254,	-429,	-1063,	-426,	-501,
	-329,	-1043,	-30,	551,	-1002,	-1401,	779,	960,	-1594,
	797,	1143,	515,	-1510,	650,	-1482,	747,	1497,	-560,
	-1161,	144,	-546,	1596,	-252,	-24,	2011,	-369,	-415,
	429,	-131,	-489,	1079,	720,	1159,	1179,	1138,	2022,
	653,	-55,	24,	-1618,	318,	511,	515,	1744,	784,
	-29,	582,	2385,	2840,	-487,	-1786,	-916,	-1492,	2512,
	-1108,	-814,	-1497,	1054,	-534,	1553,	-664,	688,	709,
	-218,	740,	1734,	-1174,	543,	-535,	431,	-294,	-107,
	3110,	-247,	-654,	-1033,	-434,	-1510,	359,	1111,	-591,
	474,	1685,	-1926,	-1702,	-1286,	277,	-212,	-719,	1399,
	173,	-1142,	-1198,	-43,	610,	-830,	753,	1230,	1068,
	-1203,	1540,	1045,	-437,	694,	2009,	615,	-430,	2031,
	-1037,	-1625,	-935,	235,	127,	918,	-2001,	1702,	302,
	-1017,	-1059,	830,	426,	-1385,	594,	-1200,	-19,	-961,
	603,	-1545,	-1224,	323,	-1106,	-709,	1459,	40,	-75,
	2099,	1342,	522,	966,	462,	-494,	2109,	1764,	-47,
	-105,	-191,	352,	-355,	-471,	-2148,	702,	506,	-1370,
	1945,	-949,	-1556,	2157,	-1329,	875,	-1298,	-168,	-1031,
	1624,	1653,	-1414,	640,	-805,	-529,	-2359,	306,	-383,
	829,	731,	-1212,	1945,	-1416,	-941,	-2054,	-716,	1959,
	-443,	1221,	-624,	297,	700,	-61,	1075,	-773,	752,
	-295,	816,	-1097,	2495,	-1224,	956,	451,	1366,	874,
	-1866,	417,	1044,	-108,	-726,	-3209,	-1288,	56,	492,
	-1321,	-524,	945,	-886,	-181,	-1220,	864,	271,	-1241,
	493,	-243,	1144,	-825,	1483,	-1321,	-1162,	-882,	1373,
	2210,	-1094,	1445,	-1125,	-1416,	1218,	757,	723,	1428,
	-220,	-144,	-1393,	1568,	-1039,	1872,	2130,	794,	253,
	689,	1458,	157,	-1280,	1123,	2231,	-229,	321,	-2447
};

__ro_hinv _q15 fc1_bias[] = {
	35,	-39,	6,	41,	7,	84,	75,	31,	-45,
	105,	-59,	-88,	-35,	31,	-63,	-23,	-47,	85,
	-43,	-49,	-67,	8,	-65,	-66,	-18,	49,	-75,
	62,	-58,	23,	23,	86,	-52,	114,	29,	83,
	29,	72,	3,	-82,	118,	33,	27,	-70,	60,
	-67,	84,	-65,	-91,	29,	-52,	30,	-59,	36,
	40,	-70,	85,	67,	-82,	-44,	120,	94,	-18,
	0,	-60,	111,	-96,	-45,	-47,	55,	-105,	14,
	-88,	-5,	-30,	80,	103,	72,	105,	-67,	-62,
	-80,	98,	56
};

