#include <params/include/fc1_Gemm.h>

__ro_hinv mat_t fc1_weight_meta = {
	.dims = {120, 84},
	.len_dims = 2,
	.strides = {84, 1},
	.data = (fixed *)fc1_weight
};

__ro_hinv mat_t fc1_bias_meta = {
	.dims = {1, 84},
	.len_dims = 2,
	.strides = {84, 1},
	.data = (fixed *)fc1_bias
};

__ro_hinv _q15 fc1_weight[] = {
	-1729,	-686,	2477,	895,	372,	251,	2480,	-1487,	-682,
	-2529,	788,	432,	361,	2516,	-723,	-581,	-855,	2193,
	-74,	400,	-270,	1861,	-865,	748,	-334,	216,	-927,
	1414,	-3977,	1795,	723,	-2103,	294,	753,	-826,	2432,
	-113,	-789,	-810,	-983,	-458,	3426,	698,	2146,	-1620,
	931,	930,	-1800,	935,	1624,	-1168,	-104,	2131,	-206,
	-868,	349,	-2815,	94,	-2400,	-3140,	321,	-845,	-89,
	51,	-1558,	484,	-356,	-524,	1003,	421,	31,	-1462,
	2936,	2610,	676,	3290,	1879,	1091,	1966,	-1725,	329,
	-1558,	-1510,	1459,	-1610,	40,	-633,	-170,	-1271,	457,
	693,	-2396,	-44,	371,	1142,	-1327,	429,	2386,	-478,
	-1204,	-1441,	-1632,	-1865,	1661,	-356,	-1456,	-1542,	-396,
	-2231,	-1234,	-2265,	829,	160,	-1298,	-1289,	1750,	-487,
	-1314,	2879,	-1248,	1596,	2621,	-1409,	1121,	956,	2692,
	-88,	1453,	1366,	1073,	528,	-898,	801,	1735,	-1028,
	-878,	1330,	845,	181,	527,	767,	-667,	2167,	681,
	-89,	-95,	72,	-2321,	-791,	2605,	-380,	164,	-1581,
	-1339,	918,	-439,	-1391,	-1921,	666,	935,	1744,	-1469,
	-1856,	-1456,	150,	-952,	650,	40,	210,	-590,	-833,
	-1341,	610,	641,	-414,	397,	1160,	-854,	-906,	-303,
	943,	-1072,	132,	1493,	1275,	-805,	-333,	-1253,	843,
	-877,	1195,	1131,	-623,	990,	-155,	-695,	1221,	-277,
	-571,	-748,	280,	381,	674,	-1004,	954,	1262,	-1253,
	-1384,	900,	530,	322,	-1557,	1403,	-786,	1169,	343,
	-664,	1175,	1318,	-266,	-263,	347,	1075,	-66,	-407,
	1321,	740,	-305,	-196,	270,	1475,	-1332,	12,	991,
	130,	-815,	846,	-1097,	1436,	1848,	-1367,	-460,	-886,
	-998,	-1367,	-816,	210,	-1014,	-1339,	842,	-1482,	-75,
	-954,	3130,	-981,	2162,	-1472,	2044,	1846,	-1170,	-736,
	-551,	1035,	-524,	-239,	724,	-736,	-37,	-744,	1183,
	-15,	1557,	115,	1165,	749,	-1236,	483,	-1899,	1677,
	238,	427,	-682,	-677,	96,	-509,	-812,	2032,	-436,
	516,	597,	-507,	508,	-1825,	604,	-1157,	2807,	-314,
	2542,	2311,	-150,	298,	1500,	-1128,	644,	2256,	-1870,
	-346,	2004,	-2722,	272,	1225,	3010,	180,	-425,	799,
	-2736,	740,	209,	-1195,	1084,	1053,	210,	-598,	-1439,
	1810,	410,	-1454,	-711,	2237,	-2675,	-373,	-1698,	1021,
	-686,	747,	2099,	1721,	-181,	-340,	1956,	-1522,	2144,
	-415,	472,	176,	-2319,	312,	-1356,	-963,	-1116,	-739,
	2016,	-136,	-1688,	-821,	1120,	503,	-1098,	874,	247,
	1077,	-1845,	2225,	-1373,	-1834,	894,	-750,	-947,	914,
	-1351,	141,	-876,	-1793,	3887,	1283,	-1731,	-1696,	-1901,
	770,	-49,	-1726,	-1379,	3315,	-1173,	-986,	-190,	1036,
	-289,	3211,	630,	349,	100,	-1605,	-1886,	929,	2117,
	-141,	2146,	-1121,	1171,	-471,	679,	1255,	-1126,	-1427,
	-2495,	-1310,	3640,	1483,	324,	-2171,	2104,	-940,	-333,
	-2107,	1004,	1112,	788,	1497,	1342,	189,	2024,	2372,
	-563,	-1080,	-1627,	-965,	1786,	422,	-172,	-457,	196,
	-749,	-283,	1223,	-693,	506,	105,	2812,	1032,	-1325,
	-2054,	-1235,	-1587,	397,	535,	-493,	87,	-650,	728,
	-1475,	215,	-1390,	2401,	-218,	989,	-1079,	-101,	-584,
	-1416,	557,	-2159,	-326,	-1464,	600,	-104,	-980,	1313,
	230,	1165,	469,	-1743,	-347,	1388,	775,	1048,	2376,
	642,	198,	950,	1951,	78,	-1400,	878,	1299,	2680,
	1006,	356,	-1055,	-171,	-1690,	1108,	-1301,	1246,	1892,
	-1235,	-1307,	-250,	1135,	-688,	-302,	-738,	-560,	522,
	-822,	798,	737,	-1084,	-480,	725,	1054,	481,	1006,
	-406,	1293,	-1208,	1016,	-152,	-199,	216,	-954,	-290,
	404,	-847,	-899,	590,	87,	57,	216,	31,	-476,
	1244,	873,	214,	1330,	-97,	-303,	1034,	141,	352,
	480,	214,	1400,	582,	-300,	-698,	298,	1441,	713,
	-89,	-324,	-1229,	913,	541,	1167,	-984,	1136,	-1219,
	-349,	1376,	590,	-239,	643,	-787,	-67,	615,	-438,
	-1249,	-1222,	539,	-859,	886,	37,	-921,	-905,	-1466,
	670,	-524,	-1444,	525,	109,	650,	-1176,	1115,	609,
	632,	-1161,	966,	-1399,	-2417,	-2260,	-80,	-511,	1292,
	250,	534,	-730,	-1172,	88,	2232,	-473,	-1585,	1184,
	1797,	-1410,	1848,	-481,	-858,	1036,	-231,	2585,	-1341,
	-195,	-1507,	2782,	2691,	-726,	-107,	1413,	-249,	-149,
	-1814,	2002,	-1811,	-641,	62,	0,	-1194,	2315,	1440,
	-1383,	2921,	-772,	112,	3899,	3186,	1255,	731,	-1110,
	295,	-1896,	-427,	3598,	-861,	-2195,	-1903,	2680,	-102,
	-2075,	-1791,	-805,	-1248,	-1445,	-2136,	-990,	873,	779,
	294,	1190,	89,	776,	-1059,	-1093,	1703,	-896,	1234,
	-3032,	1310,	-1994,	1937,	144,	462,	-891,	243,	45,
	337,	-1885,	1089,	-2,	-260,	788,	1765,	434,	631,
	968,	123,	-492,	899,	1076,	525,	-2729,	-1524,	-15,
	1640,	1353,	-1489,	-542,	-878,	-454,	769,	1746,	-1672,
	1367,	691,	-802,	-290,	-1740,	-118,	706,	-130,	-935,
	423,	90,	-1746,	20,	-1841,	1881,	-2991,	539,	1371,
	-305,	-1131,	-959,	763,	713,	-1914,	-933,	115,	1796,
	1866,	-19,	-789,	386,	1627,	-888,	987,	-760,	1246,
	-758,	-569,	-334,	8,	-269,	795,	44,	-803,	822,
	575,	-1910,	2142,	115,	21,	379,	-434,	-546,	-494,
	-939,	1456,	1547,	1607,	-597,	1248,	-1194,	1674,	-889,
	-1174,	-1429,	1528,	1260,	1812,	-781,	-173,	1158,	230,
	-636,	1482,	-617,	790,	1803,	-1577,	271,	736,	-695,
	-445,	1946,	1389,	581,	-1617,	-1857,	1427,	546,	-1093,
	1873,	-1553,	-490,	-1953,	149,	1081,	-2180,	597,	2248,
	-393,	-582,	-774,	-1183,	2246,	-543,	703,	1934,	-398,
	14,	1082,	2164,	2356,	-745,	13,	1265,	479,	535,
	522,	-985,	2715,	-381,	-1368,	-1317,	-374,	-1044,	69,
	916,	1263,	-1012,	-846,	1896,	-786,	315,	-687,	-1986,
	62,	1596,	2109,	858,	-2239,	-261,	843,	953,	-606,
	1044,	1665,	-111,	-1116,	-916,	-329,	-988,	1117,	-1218,
	-1395,	-723,	2744,	-285,	790,	-904,	1815,	351,	244,
	856,	-435,	1156,	-565,	-455,	1206,	1036,	1150,	-1765,
	585,	-1052,	-643,	753,	-8,	-946,	-1227,	-2220,	1246,
	503,	-368,	-765,	-5235,	382,	812,	-683,	-8,	-1865,
	810,	1809,	-583,	223,	-816,	-2326,	-773,	-2780,	-2392,
	-1048,	-1407,	671,	-1182,	358,	-1691,	-1011,	697,	-1002,
	1261,	894,	-757,	470,	1932,	1769,	2423,	-1192,	2151,
	1505,	1740,	-310,	-468,	-252,	1764,	1223,	-548,	-941,
	1882,	2331,	-579,	1605,	117,	-617,	-1140,	-512,	1580,
	2247,	1556,	1055,	895,	315,	2449,	894,	-1316,	406,
	2292,	-853,	410,	780,	1184,	-930,	756,	403,	-269,
	752,	1509,	-1504,	957,	-1098,	212,	1729,	-224,	1060,
	36,	649,	1622,	1172,	189,	-450,	1692,	860,	968,
	260,	-649,	618,	-1423,	-1033,	1184,	1625,	1538,	611,
	446,	-402,	-377,	-181,	-239,	-420,	1553,	1190,	-83,
	785,	-651,	-403,	1821,	-1567,	1338,	839,	-1073,	569,
	-473,	955,	-720,	499,	803,	661,	839,	-24,	-47,
	-1220,	-587,	-954,	2011,	2149,	1168,	-1504,	-658,	385,
	684,	731,	223,	780,	439,	1123,	1491,	-100,	965,
	58,	-660,	-787,	1428,	-793,	-500,	-673,	1594,	340,
	-1850,	1520,	1694,	321,	239,	967,	623,	779,	-1328,
	2153,	334,	10,	1390,	1772,	308,	-1276,	-363,	217,
	889,	-1513,	-1302,	-826,	593,	-1304,	514,	-1082,	-731,
	-2375,	1727,	1767,	2636,	-373,	207,	852,	1120,	-1074,
	1739,	-416,	1545,	-327,	-1238,	-409,	1930,	-886,	-417,
	1187,	585,	-1604,	-409,	761,	-1376,	473,	81,	-1689,
	782,	2011,	-105,	236,	396,	-1547,	-1691,	-833,	-1220,
	-1288,	527,	-190,	-808,	-393,	-705,	-1133,	149,	505,
	-1393,	-795,	-1236,	-257,	657,	-819,	809,	-100,	-1038,
	-1027,	-302,	-47,	312,	437,	-861,	-468,	-612,	894,
	314,	780,	-807,	-817,	1514,	-147,	1027,	-1847,	-411,
	529,	-687,	292,	406,	-730,	-1093,	-386,	1686,	22,
	1485,	-742,	-928,	1542,	-686,	-210,	1114,	1298,	-1209,
	-947,	-728,	50,	-589,	29,	-991,	-1093,	257,	1262,
	445,	-963,	-1198,	-681,	-466,	892,	-703,	575,	2115,
	-476,	576,	535,	-292,	-369,	-191,	592,	-110,	655,
	163,	-1114,	-807,	659,	-767,	256,	-871,	-559,	33,
	-1045,	421,	-1211,	-1271,	1201,	-625,	-1471,	-469,	-1381,
	-450,	875,	822,	-1195,	941,	1064,	-1144,	483,	-1306,
	1298,	1433,	690,	764,	848,	-414,	98,	610,	-40,
	-709,	-288,	-1041,	1166,	934,	1330,	1016,	-3,	-928,
	774,	0,	1414,	825,	885,	1332,	-569,	306,	-394,
	1462,	85,	-229,	-404,	641,	210,	-809,	-1132,	1560,
	-25,	456,	-878,	323,	-726,	-1095,	-757,	146,	1074,
	575,	-115,	396,	1171,	-436,	-987,	-27,	-415,	352,
	-378,	1407,	-760,	-704,	946,	-54,	98,	-545,	-51,
	113,	1370,	1013,	-17,	-532,	-869,	905,	542,	-607,
	1202,	1554,	780,	898,	-843,	-410,	-521,	-1189,	-1417,
	-875,	369,	1274,	-469,	81,	696,	-332,	-593,	33,
	88,	1226,	-1421,	67,	-659,	-437,	-1557,	-1338,	842,
	47,	1477,	-1179,	791,	-148,	-773,	-396,	-736,	877,
	-556,	200,	-732,	-407,	-380,	427,	-531,	-387,	-1306,
	339,	936,	1354,	-650,	-59,	-927,	501,	1020,	676,
	575,	119,	865,	-388,	-1333,	-653,	433,	-590,	1046,
	703,	429,	-355,	2839,	1716,	-194,	708,	892,	2539,
	2363,	-210,	1128,	-3118,	-239,	117,	735,	383,	-772,
	65,	-1047,	832,	2173,	1478,	45,	-406,	874,	-1471,
	1641,	-434,	2189,	1904,	1036,	-757,	1467,	-1412,	288,
	82,	1234,	-2775,	-171,	2010,	-1420,	887,	2684,	90,
	-712,	1591,	114,	1231,	141,	1865,	859,	32,	-779,
	-998,	-1883,	172,	2603,	1556,	955,	-1385,	-301,	24,
	186,	-1412,	544,	1730,	-1062,	-211,	538,	948,	480,
	-1436,	-1721,	2856,	-944,	-1141,	-139,	311,	-1983,	-1073,
	-962,	74,	-1552,	1428,	-131,	-471,	2599,	-5,	50,
	-465,	496,	-1733,	-38,	120,	379,	1146,	62,	-1202,
	1225,	-1362,	-286,	-459,	-1678,	1336,	802,	113,	-973,
	-2152,	-222,	-999,	-277,	1953,	366,	-784,	-297,	492,
	-742,	-128,	-1145,	767,	-888,	1729,	911,	-1311,	463,
	-1722,	1359,	-211,	1415,	-347,	332,	-963,	-1191,	-810,
	-1451,	-1714,	1033,	-915,	-2581,	1594,	-1898,	2183,	1035,
	2146,	-161,	-468,	-78,	162,	891,	2341,	1062,	826,
	713,	47,	1003,	837,	-1430,	494,	-124,	223,	-566,
	-796,	-613,	705,	1556,	-644,	-1239,	137,	-489,	-2148,
	-1241,	-1353,	-7,	0,	-985,	-237,	-1154,	-472,	1452,
	-73,	-243,	67,	383,	125,	557,	714,	1447,	-1078,
	328,	-1592,	-745,	-773,	899,	183,	-808,	-659,	-3,
	312,	1348,	-839,	922,	249,	836,	258,	-1335,	-284,
	816,	34,	353,	-971,	811,	-123,	-1153,	-457,	952,
	54,	-921,	-1103,	41,	455,	1164,	-303,	825,	-480,
	-1274,	176,	-207,	1240,	1491,	677,	-614,	758,	1289,
	-522,	1073,	1125,	-1388,	-1156,	-871,	30,	1142,	984,
	1007,	566,	541,	-408,	-958,	-938,	1117,	-1319,	-467,
	-931,	1079,	702,	703,	1250,	1944,	1012,	376,	1971,
	459,	287,	231,	893,	-1352,	-1571,	1147,	594,	757,
	2472,	1162,	-691,	2203,	684,	-398,	-130,	1063,	1079,
	1701,	933,	432,	-2163,	785,	-436,	-579,	-1347,	-345,
	-704,	2104,	-967,	1029,	1470,	996,	-88,	-811,	416,
	-1716,	836,	229,	-670,	1908,	232,	928,	1080,	-2134,
	-607,	1486,	283,	385,	-553,	383,	1917,	-108,	-794,
	23,	1208,	186,	-1527,	-1545,	414,	-1058,	892,	881,
	278,	-50,	-871,	1489,	608,	-624,	745,	1913,	-1652,
	-611,	-1475,	551,	-1519,	720,	506,	956,	199,	154,
	-704,	566,	-15,	1292,	375,	-54,	907,	-1398,	1293,
	-1038,	-889,	-178,	69,	808,	-1084,	-886,	498,	-438,
	748,	-1445,	763,	-1027,	-752,	-840,	1486,	1283,	478,
	534,	765,	1088,	52,	-1293,	-1082,	1102,	545,	-133,
	1450,	883,	-1182,	-612,	1184,	-105,	671,	-1257,	1039,
	1153,	-1110,	1109,	448,	383,	634,	-1030,	4,	455,
	1282,	-330,	1387,	-858,	-142,	831,	228,	247,	445,
	776,	-1038,	-1149,	-342,	-970,	542,	403,	1438,	-1363,
	-992,	-1062,	72,	823,	-141,	773,	92,	1159,	-1370,
	-1264,	-411,	133,	-415,	-1187,	1978,	716,	-1114,	-1762,
	-120,	1056,	1095,	442,	1315,	-741,	-1755,	1211,	719,
	75,	818,	1115,	1116,	-1188,	592,	-314,	1471,	282,
	699,	288,	-372,	607,	2283,	-575,	-1352,	248,	-1426,
	-643,	-72,	-287,	-1593,	417,	2095,	2227,	928,	-61,
	-845,	-221,	1579,	1418,	802,	-407,	-202,	-1110,	749,
	-1183,	-373,	-923,	1818,	-68,	-1404,	2097,	-1728,	-552,
	1027,	465,	309,	-1415,	799,	-1370,	1315,	-433,	-2303,
	-289,	1076,	1863,	-773,	-413,	-507,	1027,	856,	445,
	-428,	1179,	1945,	-815,	-817,	616,	709,	2173,	68,
	-1072,	1087,	-886,	971,	-781,	638,	1887,	1739,	-160,
	-1786,	-34,	-55,	-1790,	-1126,	-1564,	2023,	-1044,	808,
	-924,	-657,	-817,	-45,	-258,	235,	1141,	1953,	815,
	-1361,	-1813,	1195,	1540,	874,	-728,	583,	1294,	1351,
	649,	-1385,	1002,	-644,	-540,	58,	1038,	-1854,	13,
	898,	-280,	-742,	1070,	-63,	1843,	2027,	-1567,	-2124,
	1837,	-640,	-1526,	2023,	-443,	-767,	-737,	-316,	-123,
	-297,	-1199,	-1296,	788,	-982,	1901,	-1586,	-1108,	-799,
	1464,	1290,	-689,	496,	1138,	-949,	345,	-1617,	-1895,
	1631,	452,	2004,	1928,	-614,	-413,	-532,	789,	-757,
	-25,	1465,	707,	-1615,	-1105,	775,	-3320,	1304,	-414,
	27,	600,	700,	-2948,	1050,	-1040,	828,	1315,	-679,
	912,	-700,	-1546,	-548,	-555,	199,	539,	1176,	-983,
	459,	208,	-457,	-174,	438,	1388,	95,	-150,	-127,
	-299,	-1829,	-29,	685,	-928,	-618,	127,	2143,	-537,
	1041,	365,	1819,	-659,	1462,	-1660,	-447,	-1439,	1755,
	-1694,	-1768,	-1162,	498,	-1247,	1380,	946,	1316,	317,
	1569,	979,	-2677,	-576,	34,	591,	976,	2022,	-1556,
	1004,	480,	-159,	-390,	684,	-366,	-1574,	274,	156,
	2195,	-669,	1375,	465,	-702,	-325,	595,	-551,	-532,
	-1422,	1599,	138,	1613,	1560,	511,	591,	-437,	1334,
	1210,	-578,	675,	696,	1884,	82,	1832,	-1885,	-348,
	710,	1132,	939,	-1330,	1384,	-1584,	1657,	665,	376,
	-2837,	536,	-1179,	386,	415,	-1580,	1387,	126,	-1694,
	885,	-341,	402,	1303,	226,	-1841,	-36,	-89,	-1478,
	1292,	-822,	528,	180,	1018,	-127,	1772,	-154,	-810,
	609,	-144,	1135,	416,	-834,	1601,	2107,	1690,	-429,
	-1878,	653,	2157,	971,	-37,	-576,	810,	-1439,	12,
	649,	-1438,	-1430,	895,	-820,	326,	-942,	855,	1183,
	-649,	235,	782,	-550,	895,	-523,	561,	-263,	-660,
	89,	-1117,	1245,	447,	-90,	828,	689,	1127,	-529,
	374,	-1099,	-1427,	326,	705,	1350,	-418,	459,	-1314,
	-46,	69,	-1155,	864,	711,	946,	276,	1247,	-677,
	620,	593,	-397,	-374,	1025,	-1138,	818,	749,	-1216,
	392,	199,	642,	-445,	-1397,	-799,	-173,	644,	1154,
	831,	-13,	1007,	1312,	-993,	181,	-1463,	-134,	667,
	-1358,	-913,	116,	932,	-55,	-1329,	1975,	2119,	815,
	-1616,	-805,	-763,	1266,	1860,	-293,	873,	778,	198,
	162,	-1533,	-869,	1918,	601,	-2015,	1086,	1127,	1105,
	-1454,	734,	-226,	-292,	1305,	629,	606,	122,	-1367,
	-379,	-756,	-1470,	149,	524,	285,	-2236,	797,	199,
	455,	-415,	-1320,	-1453,	1131,	1103,	74,	1642,	1578,
	352,	1376,	-516,	-139,	727,	1302,	-896,	-811,	327,
	-974,	515,	-1470,	-1134,	67,	1254,	1465,	-1119,	-705,
	949,	171,	650,	867,	-283,	1657,	410,	750,	1050,
	1912,	-1624,	2580,	-908,	1072,	713,	584,	24,	875,
	1111,	3205,	-1671,	1260,	-316,	866,	2621,	-2737,	1076,
	1277,	580,	-1079,	-3568,	2228,	-533,	256,	319,	-3396,
	-718,	2888,	-551,	-3234,	-2774,	-769,	790,	2462,	1221,
	84,	-2282,	-381,	-1875,	925,	-518,	1603,	2914,	-2220,
	-1219,	163,	-680,	-1629,	-678,	1795,	3588,	3181,	-1935,
	1279,	290,	1183,	-815,	2598,	-815,	163,	-1338,	-702,
	-2827,	1116,	-2823,	-1089,	1059,	1822,	1528,	-1988,	-693,
	1802,	-637,	1198,	-527,	887,	380,	-61,	-1290,	-2885,
	2654,	2638,	913,	245,	3460,	421,	-172,	-891,	1356,
	-2427,	-1618,	-1298,	2013,	777,	59,	229,	-707,	918,
	-385,	-335,	698,	1947,	-395,	-1909,	-384,	80,	-1702,
	-954,	-895,	99,	719,	822,	318,	-629,	-1538,	981,
	-991,	-2506,	2274,	2161,	-787,	910,	-1198,	-422,	-229,
	1488,	2108,	2365,	-2802,	2093,	-318,	686,	876,	-366,
	1185,	-508,	-2228,	1285,	2892,	1309,	-417,	-148,	213,
	1371,	103,	1236,	1403,	-748,	-1922,	-1963,	2362,	1225,
	1553,	-1756,	-1495,	-1081,	-1425,	-1387,	1000,	1178,	166,
	-2520,	-921,	1010,	-1373,	429,	1384,	547,	827,	1748,
	2004,	-1621,	-1994,	-1748,	318,	-168,	-349,	-806,	306,
	-1945,	-188,	-690,	-1537,	1249,	-1064,	2170,	-1040,	-934,
	1529,	-1769,	28,	-2626,	-718,	2249,	-1987,	-2266,	857,
	1953,	-1784,	-318,	138,	-1168,	-1608,	1800,	246,	963,
	428,	2717,	-1256,	146,	-996,	2418,	1033,	1063,	-1299,
	123,	304,	-1994,	639,	-1041,	1399,	-2253,	-1740,	-1321,
	-886,	-873,	-568,	-257,	-158,	2869,	1840,	-688,	815,
	-982,	-2190,	1653,	1154,	1179,	844,	254,	1151,	-1966,
	-1378,	-1513,	-170,	506,	462,	-493,	-1751,	627,	538,
	-949,	-1318,	2105,	1307,	-1202,	827,	-515,	511,	-1031,
	-1397,	1007,	2802,	-1834,	457,	-2390,	-1285,	-1326,	741,
	2186,	712,	880,	1891,	577,	-527,	732,	-447,	2276,
	-1531,	-1147,	-1539,	827,	-1884,	-846,	-2967,	-2131,	-3250,
	-2756,	468,	934,	318,	-566,	943,	447,	1923,	1557,
	2818,	1838,	460,	-1484,	1057,	-2130,	-846,	233,	1559,
	93,	-2684,	-3183,	621,	2504,	-1311,	1437,	1306,	2484,
	-809,	-857,	797,	26,	944,	2918,	2362,	1370,	642,
	-153,	80,	527,	1154,	-1496,	-52,	-1808,	989,	-1106,
	-697,	130,	1636,	-1921,	1224,	58,	2231,	-1788,	-1995,
	740,	515,	1624,	606,	1731,	-201,	372,	-204,	984,
	-1477,	-1716,	621,	-1293,	1128,	-1913,	2367,	913,	1124,
	794,	624,	185,	1388,	-2313,	-1281,	-71,	-1113,	-263,
	-3378,	-1337,	-1142,	93,	-81,	-341,	131,	1269,	-1673,
	-1697,	1466,	1584,	3221,	1872,	637,	475,	-290,	-1090,
	-2549,	-180,	-870,	1093,	-347,	-754,	-850,	2596,	-1283,
	977,	2054,	255,	2125,	-214,	-829,	-578,	101,	2518,
	-490,	1164,	991,	-942,	-1434,	2087,	-573,	1254,	-20,
	-2244,	-1183,	-1276,	1821,	965,	-201,	-1376,	1134,	-2430,
	-53,	-2129,	-239,	1874,	1744,	1653,	-1007,	-3875,	-240,
	-100,	3561,	1542,	1081,	-916,	-206,	173,	-1477,	1988,
	674,	1868,	-1633,	-419,	-1290,	1038,	-2858,	-2294,	-1164,
	3023,	-409,	1121,	-1175,	929,	-2240,	-817,	-1003,	2021,
	1091,	1326,	-347,	-1954,	-2492,	1562,	3237,	-1761,	1357,
	-1440,	2157,	1545,	-114,	1539,	-222,	-234,	-2506,	-916,
	-950,	751,	858,	761,	-190,	1050,	-1583,	1638,	707,
	1073,	-1674,	-828,	1818,	1340,	1154,	985,	166,	-452,
	-262,	315,	680,	2158,	-1468,	-47,	1716,	427,	1328,
	-1900,	1570,	-1978,	1353,	-256,	-1640,	1242,	784,	-1414,
	226,	-2770,	1195,	-602,	-655,	-441,	1389,	998,	650,
	-1610,	-213,	-2680,	354,	480,	-669,	1353,	396,	-387,
	205,	-2011,	-1053,	-101,	-632,	-1432,	-1661,	-272,	2208,
	3376,	-2467,	917,	1210,	-2300,	504,	514,	-2424,	-500,
	-1375,	2648,	854,	-2378,	-935,	-983,	1054,	-256,	253,
	-1894,	2819,	1753,	168,	-435,	-86,	1988,	1525,	-1345,
	2534,	182,	-3359,	-2611,	-2151,	-637,	-2504,	-983,	-690,
	1511,	655,	-1919,	-1438,	-987,	261,	-431,	177,	2258,
	174,	2343,	924,	3563,	-2423,	952,	1861,	-438,	-1923,
	-895,	-29,	640,	1081,	-2524,	117,	887,	904,	573,
	-568,	1648,	-1359,	-1207,	-327,	2240,	-919,	958,	-1215,
	-487,	-821,	2794,	1908,	484,	-755,	1616,	1948,	-903,
	894,	1623,	18,	-59,	1261,	1104,	2466,	-1309,	-163,
	1212,	-1840,	1369,	-652,	-2986,	555,	-1064,	634,	2357,
	1033,	2212,	1441,	-2182,	-1184,	-857,	-902,	-80,	-512,
	616,	977,	-1144,	130,	-607,	-1539,	523,	-863,	-2129,
	497,	-203,	947,	-456,	1313,	-1196,	1208,	-1727,	288,
	78,	7,	-1748,	2176,	-811,	-1582,	948,	-981,	1572,
	2647,	1056,	97,	79,	582,	-805,	-2044,	-437,	1955,
	2058,	493,	1307,	1277,	-1031,	-938,	680,	524,	899,
	60,	2752,	-762,	792,	-594,	2813,	-349,	1134,	-9,
	870,	-1396,	-1091,	-1064,	1576,	-778,	810,	1158,	-159,
	-66,	-247,	-1498,	-339,	1409,	1814,	1930,	217,	142,
	-1777,	-846,	1146,	-1211,	2682,	1205,	1019,	-213,	-2247,
	-878,	1212,	-72,	1258,	606,	1154,	-927,	-515,	-1632,
	1189,	-370,	2217,	1244,	810,	-320,	-1997,	-519,	2675,
	-1285,	311,	-1557,	164,	-679,	-184,	2606,	1437,	1934,
	-417,	1975,	-2073,	10,	382,	647,	296,	2385,	-529,
	777,	-1167,	-1863,	506,	-1271,	1741,	3359,	-438,	-506,
	-1121,	105,	-3729,	-1613,	973,	129,	1821,	-887,	116,
	-2596,	2860,	-811,	-952,	85,	-1014,	-1630,	-203,	480,
	-280,	-917,	575,	-661,	-1771,	-1683,	-997,	2569,	-3937,
	-283,	2664,	204,	-820,	239,	274,	504,	1409,	-958,
	539,	2487,	-1247,	-1207,	-1179,	1203,	-971,	239,	-2446,
	1730,	953,	-837,	554,	1645,	-1127,	-1437,	945,	832,
	-917,	-1099,	-118,	500,	-1104,	-672,	-2048,	1000,	1324,
	2545,	-191,	1711,	2362,	1440,	-2873,	-3201,	-2314,	509,
	-710,	2840,	-2359,	202,	509,	-559,	652,	-1155,	-1251,
	955,	225,	-1463,	1085,	-369,	1019,	-807,	-1001,	-10,
	-313,	1456,	-1198,	618,	88,	1020,	532,	1352,	715,
	-649,	1287,	689,	-731,	-290,	-394,	1274,	1194,	-729,
	-747,	726,	-338,	-607,	-385,	-1208,	-1290,	427,	30,
	-1432,	-1477,	-218,	97,	288,	178,	598,	224,	1307,
	1352,	-206,	-760,	402,	1,	-561,	-911,	-209,	1209,
	-882,	466,	1063,	1150,	234,	1422,	-120,	-826,	1093,
	-35,	-788,	1123,	677,	388,	-532,	-353,	-1161,	1249,
	1469,	1276,	1040,	-970,	-487,	306,	1828,	-947,	64,
	-478,	2126,	-623,	870,	1377,	650,	19,	659,	-860,
	-673,	57,	-1142,	265,	-32,	1172,	-804,	-778,	-720,
	1461,	-939,	-1566,	2027,	1708,	978,	-1601,	494,	1537,
	737,	-1842,	-190,	980,	244,	977,	589,	-2188,	-779,
	-203,	1192,	367,	-182,	896,	1228,	-2379,	1055,	-1106,
	-652,	713,	-641,	771,	385,	654,	836,	1193,	560,
	1849,	255,	-2293,	-65,	-446,	-1139,	809,	1222,	414,
	392,	-1525,	117,	1069,	-536,	235,	1752,	1140,	1336,
	1629,	1480,	537,	-41,	434,	320,	589,	-1786,	-383,
	-401,	-722,	-1109,	1242,	1253,	-588,	-392,	1074,	1115,
	392,	-578,	-90,	746,	227,	-1086,	803,	-612,	-737,
	364,	-854,	1022,	1206,	1183,	-351,	-1216,	1300,	714,
	-591,	858,	-1204,	1438,	-446,	-1126,	-229,	-67,	-1528,
	511,	-897,	554,	-595,	-135,	-57,	731,	1389,	-1112,
	1071,	-840,	-145,	1301,	-1379,	-210,	1461,	62,	1099,
	283,	149,	-1456,	198,	-652,	1282,	348,	-462,	1490,
	647,	1053,	-1568,	-525,	-1136,	1141,	187,	315,	-1340,
	-182,	-874,	-920,	562,	180,	986,	-81,	-875,	-1082,
	-454,	-916,	829,	-591,	-715,	1473,	-1648,	-1861,	-1817,
	2471,	2577,	204,	855,	1216,	-888,	-2594,	-1881,	-441,
	-88,	1237,	-2546,	-1171,	1111,	762,	-532,	1807,	511,
	635,	1328,	2390,	938,	158,	-1716,	-245,	1617,	-676,
	-113,	314,	-1389,	-3480,	506,	952,	-37,	1855,	-2375,
	920,	-2334,	1397,	1047,	3184,	862,	-544,	-1198,	607,
	189,	615,	-1027,	518,	-1404,	2037,	-1025,	-1163,	2576,
	-1404,	383,	-904,	-942,	490,	-1464,	-551,	-1127,	-680,
	-302,	-889,	-129,	-2934,	-1188,	1197,	912,	-1222,	1848,
	1199,	3082,	478,	-1216,	-1492,	731,	467,	1617,	2459,
	64,	574,	-308,	1223,	468,	65,	-1853,	68,	-1149,
	2057,	422,	-1570,	1274,	968,	2884,	-455,	1351,	36,
	560,	151,	-724,	-3351,	-3028,	740,	-1216,	-1381,	-1816,
	-123,	-812,	-260,	2609,	2335,	-626,	281,	1290,	-596,
	321,	-679,	545,	115,	-653,	-1364,	3204,	38,	-3061,
	761,	1104,	69,	444,	-271,	2876,	168,	284,	-2464,
	-693,	-409,	2646,	240,	1263,	1246,	14,	-1347,	317,
	-1598,	-964,	1110,	-3234,	434,	874,	-957,	2452,	2495,
	-2178,	515,	-569,	-1523,	-4260,	-1555,	878,	2512,	-1212,
	-740,	-2081,	-344,	1244,	-668,	343,	1166,	1883,	117,
	86,	-1476,	323,	453,	210,	-404,	777,	157,	1653,
	-524,	-2355,	-1098,	1583,	1871,	316,	768,	647,	973,
	1860,	1431,	876,	-1119,	804,	-60,	654,	45,	2376,
	-1309,	-516,	177,	-814,	8,	-1827,	2413,	-1127,	-605,
	-1981,	1241,	2433,	-1475,	977,	644,	2266,	-31,	180,
	1801,	-1097,	2109,	-1270,	-2303,	469,	-539,	-593,	370,
	1070,	1095,	-750,	594,	22,	-970,	775,	-1258,	-126,
	-764,	-1956,	-6,	246,	-1807,	1539,	1778,	2489,	-858,
	301,	-1108,	1945,	402,	-56,	906,	-439,	1634,	-470,
	1350,	2197,	-15,	1978,	-8,	1306,	8,	-604,	-1668,
	-844,	177,	-1130,	1583,	-1131,	-1112,	-1313,	1264,	-1510,
	920,	2213,	-357,	1091,	-781,	-21,	-88,	1063,	-1417,
	774,	-311,	820,	-635,	-1762,	555,	512,	1688,	-936,
	2113,	-629,	524,	-291,	-198,	1657,	-929,	-647,	-621,
	-726,	-27,	307,	693,	-152,	1714,	1192,	-218,	-1871,
	-498,	1116,	-671,	1497,	-945,	525,	-808,	-757,	708,
	1142,	787,	71,	1268,	1083,	1044,	-785,	-503,	974,
	350,	397,	-1456,	321,	-814,	-1416,	-1161,	912,	866,
	419,	1412,	119,	-535,	795,	1306,	1788,	-424,	1661,
	-372,	721,	-1119,	-1423,	799,	977,	1428,	-2145,	1237,
	442,	-158,	-1132,	-1765,	680,	664,	2670,	-1514,	-634,
	-1003,	-853,	-899,	993,	-1279,	2286,	-1125,	699,	-250,
	420,	90,	-16,	1575,	-1194,	-1262,	-236,	1092,	456,
	-738,	570,	311,	-77,	1419,	3309,	-757,	-1389,	-2093,
	-1428,	-2130,	1007,	-44,	-707,	571,	-78,	-406,	-248,
	-271,	-1648,	-1520,	-1344,	1162,	-1064,	834,	-328,	2935,
	1548,	675,	1936,	2791,	-847,	290,	-1875,	-1497,	-941,
	-263,	-1300,	-228,	-1814,	75,	-1412,	-216,	-1207,	-1412,
	-738,	657,	-2421,	4,	-37,	552,	352,	-1558,	-100,
	-3317,	1410,	-756,	179,	-1224,	746,	339,	-973,	1696,
	1520,	466,	-330,	1349,	2546,	-46,	1652,	851,	-1610,
	148,	2574,	335,	429,	788,	-1659,	2934,	-185,	-499,
	-800,	-660,	373,	-1156,	-1495,	-278,	-35,	1496,	-252,
	1986,	-911,	1389,	596,	-224,	-623,	-745,	-990,	209,
	919,	-997,	-1857,	-436,	344,	-1487,	-392,	-902,	2559,
	-2480,	1833,	2077,	-1634,	-847,	478,	-1153,	1291,	-1164,
	-864,	1054,	-2054,	1421,	117,	895,	-1185,	-1735,	-1915,
	985,	1737,	-70,	-2208,	471,	-2477,	-656,	-2001,	-1537,
	749,	-233,	-761,	716,	-316,	354,	-546,	1049,	-1175,
	-1442,	499,	-772,	204,	428,	-879,	-2998,	-808,	-837,
	-1389,	1905,	-622,	-1162,	3419,	-1465,	-1675,	-461,	-1387,
	-1382,	-107,	1305,	1960,	2851,	-640,	1062,	1005,	-411,
	-1953,	644,	4,	992,	-290,	79,	-828,	3019,	-1653,
	-203,	2049,	934,	-421,	-1287,	1321,	945,	1130,	-1219,
	-3129,	70,	3544,	1316,	-1440,	1019,	2030,	-294,	-1573,
	-1712,	-46,	544,	-376,	-534,	-716,	517,	863,	-119,
	326,	-1297,	1617,	-851,	348,	-204,	1359,	583,	1780,
	-1558,	-2069,	-516,	2528,	321,	-193,	-1367,	2198,	435,
	-1251,	2312,	-1604,	1450,	1359,	343,	-1619,	221,	-434,
	-103,	-1520,	44,	-145,	241,	-2071,	920,	-1525,	-1273,
	103,	-974,	-1763,	-676,	1327,	2347,	-849,	1531,	990,
	1248,	-218,	-638,	-4,	143,	-2471,	-1209,	512,	2378,
	51,	2568,	-1059,	-780,	-845,	641,	232,	-185,	517,
	-1167,	-1307,	-1600,	825,	-50,	1630,	1775,	-680,	-76,
	757,	132,	-15,	-1699,	1688,	-1956,	-2245,	1553,	1959,
	-1275,	12,	-383,	-370,	912,	-349,	992,	1534,	434,
	72,	282,	-1147,	-686,	-322,	-937,	-721,	1104,	209,
	-813,	63,	-96,	939,	130,	-116,	721,	777,	255,
	209,	-1041,	-216,	791,	230,	367,	123,	451,	327,
	-1248,	-266,	-60,	1429,	589,	659,	1019,	299,	-59,
	-575,	601,	-369,	786,	199,	920,	-1376,	-918,	1025,
	-1238,	420,	-736,	-432,	-58,	-873,	447,	-1213,	-968,
	450,	-699,	-62,	1251,	259,	1194,	771,	1181,	629,
	1404,	-360,	981,	854,	-450,	1356,	594,	-805,	-85,
	-730,	-664,	-443,	856,	146,	349,	-854,	67,	1240,
	-462,	-513,	258,	-75,	214,	391,	1390,	-170,	-677,
	-452,	749,	910,	1280,	428,	193,	426,	694,	-729,
	31,	-271,	-548,	1104,	-960,	581,	-238,	-184,	683,
	-999,	1351,	-1248,	-469,	-768,	1109,	548,	-1446,	-352,
	156,	456,	333,	618,	805,	-166,	-840,	349,	-253,
	-294,	-888,	909,	1197,	1084,	931,	-1415,	-653,	230,
	438,	1008,	963,	1044,	447,	846,	-301,	-433,	-1347,
	-201,	1150,	-577,	-1295,	1156,	-493,	1155,	-96,	1093,
	507,	292,	468,	-571,	688,	1221,	1768,	1097,	-1306,
	-201,	1290,	-738,	-2141,	-563,	-1503,	-322,	764,	-2149,
	2436,	-375,	-1085,	-234,	-1272,	516,	-2104,	-317,	1088,
	2148,	-883,	1247,	-1085,	982,	-1738,	167,	1248,	-1757,
	67,	1345,	381,	-660,	-802,	465,	974,	1792,	-34,
	140,	1636,	-2280,	132,	-1653,	327,	873,	-776,	1198,
	-1151,	-1109,	-396,	-1095,	87,	663,	1402,	604,	2097,
	710,	-1295,	-336,	-1612,	2096,	472,	1400,	-1362,	896,
	-202,	249,	174,	-1158,	520,	1936,	-1865,	1460,	-100,
	-346,	303,	507,	-67,	-191,	240,	-354,	709,	-624,
	-1414,	1317,	-127,	-626,	354,	-655,	1272,	-1227,	-294,
	-952,	560,	-654,	265,	1689,	-899,	-1952,	1263,	-2243,
	939,	1917,	904,	-1931,	-1939,	298,	-1685,	1133,	-510,
	2827,	-2248,	692,	-703,	1032,	-374,	855,	2109,	1114,
	1238,	428,	-956,	-385,	1352,	3206,	1786,	2368,	-831,
	3383,	1837,	-39,	-387,	696,	-914,	-1543,	-537,	701,
	867,	421,	-428,	-1745,	2348,	3031,	42,	-106,	-1220,
	502,	362,	1035,	1085,	1407,	576,	909,	-1170,	532,
	1039,	-1078,	1722,	95,	1706,	125,	948,	-811,	695,
	-213,	-218,	297,	92,	-1570,	192,	-130,	-1616,	-206,
	732,	-1844,	1059,	-2212,	-1544,	-495,	1413,	2321,	1032,
	-2626,	-1461,	-778,	497,	-1575,	605,	292,	418,	1253,
	-1215,	-830,	-1860,	2243,	-676,	-449,	0,	2321,	-396,
	-3022,	-525,	389,	-526,	1637,	-1262,	-1371,	2667,	2716,
	-1920,	1043,	212,	795,	883,	2050,	-1331,	-559,	619,
	108,	-2147,	-671,	1408,	549,	1396,	1492,	1303,	738,
	-184,	1046,	250,	-2248,	-722,	1009,	672,	-1898,	262,
	-952,	-1605,	-24,	816,	-2063,	921,	-1852,	1496,	-886,
	-95,	489,	-278,	-604,	740,	700,	161,	-592,	1802,
	1705,	2248,	1256,	-411,	-1346,	-585,	-1272,	700,	831,
	1147,	223,	92,	-1324,	-287,	1257,	1694,	-799,	-110,
	2758,	614,	1103,	-139,	-1815,	712,	1680,	167,	-434,
	1655,	-545,	-1320,	-116,	1670,	983,	1216,	744,	296,
	-106,	-361,	1261,	-1545,	-992,	-358,	794,	1466,	-882,
	459,	14,	-636,	1653,	135,	2309,	2384,	1163,	-2550,
	-1124,	-1534,	678,	1486,	-2,	-1770,	-1493,	989,	-33,
	-772,	-1433,	-383,	783,	-852,	281,	1018,	-319,	700,
	-1067,	-685,	974,	-79,	-2188,	-1891,	-1115,	1734,	-61,
	178,	1345,	1327,	-348,	-527,	-1283,	0,	-736,	-164,
	-1390,	1477,	-1088,	495,	-1353,	-1155,	224,	-960,	191,
	672,	-299,	-1050,	-873,	-426,	1230,	780,	-630,	-937,
	-138,	-880,	-816,	-315,	-24,	-1322,	394,	-896,	874,
	-988,	-791,	831,	541,	-664,	-1355,	-1287,	771,	984,
	15,	1517,	-296,	1104,	-530,	-181,	673,	-446,	1292,
	4,	-756,	-639,	-807,	868,	724,	-330,	176,	-1146,
	-125,	466,	157,	-584,	-24,	1129,	-1455,	-281,	-1590,
	-974,	647,	267,	-38,	-581,	232,	1120,	1326,	784,
	895,	-1174,	1075,	1100,	571,	717,	-287,	910,	572,
	-114,	-1056,	-668,	-405,	-755,	795,	-974,	1255,	939,
	413,	-633,	1165,	793,	-732,	-398,	1315,	311,	-1435,
	323,	-658,	343,	-1387,	-1291,	391,	-518,	-614,	1003,
	-1323,	756,	-807,	541,	-979,	569,	-517,	446,	-911,
	-1442,	406,	273,	261,	-1050,	1299,	1197,	506,	264,
	-881,	-399,	-719,	593,	-122,	-398,	272,	-811,	-273,
	-356,	-1057,	355,	-271,	-1089,	-1193,	1230,	1000,	-697,
	-182,	-221,	5,	1108,	627,	-375,	-389,	488,	-784,
	-1367,	419,	946,	350,	543,	-773,	2570,	-109,	-111,
	-1266,	-61,	965,	87,	3037,	-1124,	154,	550,	-734,
	318,	-2636,	788,	-904,	947,	619,	1952,	594,	601,
	204,	-291,	-1376,	14,	-879,	-143,	592,	1965,	644,
	627,	-1774,	-1715,	2653,	1107,	1357,	-473,	114,	1025,
	-1194,	510,	-2666,	397,	-1096,	29,	-917,	608,	1666,
	-565,	-1605,	-1536,	44,	-1756,	970,	-373,	267,	1494,
	-1023,	463,	-193,	1784,	-164,	-119,	1549,	-254,	390,
	-1594,	613,	-705,	-2152,	-887,	2380,	-1084,	966,	-1079,
	1308,	-2425,	548,	-125,	-813,	919,	-1204,	-535,	752,
	851,	222,	-1223,	-427,	-689,	-952,	362,	2496,	-65,
	1253,	1296,	2691,	-1899,	-1891,	-348,	-220,	-1524,	-873,
	670,	-803,	-846,	-1721,	769,	-1294,	3750,	2398,	507,
	1860,	729,	385,	1214,	1987,	-445,	-1087,	-180,	860,
	-421,	-2193,	1308,	-1027,	2153,	172,	-677,	-1117,	1917,
	-2325,	572,	1136,	723,	-582,	869,	1527,	-2348,	1353,
	-1786,	-1430,	2920,	1357,	672,	-29,	-90,	-1782,	645,
	-96,	840,	994,	333,	181,	999,	-310,	-1224,	-475,
	-89,	-1737,	-1015,	-184,	-1527,	2649,	1101,	987,	-840,
	-1288,	431,	-295,	40,	-1910,	-2046,	744,	712,	1558,
	472,	114,	-1468,	-1084,	38,	-1148,	266,	831,	-446,
	1559,	-694,	-10,	-2109,	380,	262,	105,	460,	-297,
	-1737,	816,	1111,	2327,	-1200,	-457,	2272,	1359,	768,
	-193,	-2035,	1039,	1616,	-452,	858,	181,	1760,	183,
	1693,	1321,	-436,	1190,	589,	1682,	714,	-2080,	-464,
	346,	1413,	-1569,	-403,	995,	988,	-553,	-932,	-984,
	-2121,	-35,	482,	1731,	-1600,	583,	-930,	-1444,	1128,
	1716,	-1681,	1197,	1240,	178,	907,	493,	813,	-1109,
	-997,	1237,	-499,	-12,	-294,	816,	1864,	1089,	2428,
	-1705,	845,	935,	686,	655,	179,	904,	566,	-2449,
	-1243,	-2552,	484,	-313,	-580,	-976,	341,	334,	-1106,
	-1947,	-720,	-1314,	-1082,	-1723,	3234,	1592,	-1107,	217,
	-1696,	-566,	707,	390,	-1500,	-131,	-2390,	686,	-782,
	-153,	-1685,	-2001,	1566,	911,	-1527,	-1432,	2418,	-292,
	-993,	452,	1560,	1141,	-1019,	1333,	1242,	521,	-1576,
	-1043,	1374,	739,	-1123,	-795,	117,	513,	425,	-1145,
	-1678,	715,	-627,	-2431,	-1173,	2202,	-887,	1375,	3168,
	1280,	83,	2448,	-1042,	-2569,	-1857,	-606,	-107,	-1097,
	-675,	-1149,	-208,	0,	-2048,	-467,	-2586,	-1980,	-1158,
	-2356,	-1335,	-960,	3087,	57,	1140,	1094,	-486,	1010,
	-2942,	-2606,	-291,	2666,	3029,	-1093,	-4742,	-3037,	-2862,
	-701,	1632,	-3625,	-1133,	-1339,	-828,	-2139,	1719,	983,
	2827,	4615,	-601,	-727,	-609,	20,	-2594,	714,	-1037,
	-1550,	-507,	-2066,	-1287,	2574,	460,	68,	3954,	2123,
	829,	-753,	282,	94,	4,	-36,	173,	2579,	224,
	-3438,	-158,	1082,	-1276,	698,	598,	-3227,	-961,	28,
	1228,	-2548,	16,	-1706,	1170,	-2139,	-2430,	-752,	401,
	2735,	3110,	2495,	1025,	1179,	1118,	1547,	-819,	44,
	-965,	1391,	1409,	633,	-1206,	1062,	972,	572,	330,
	527,	-1036,	-244,	1174,	1129,	1204,	-984,	850,	-866,
	733,	869,	456,	-826,	681,	1435,	-798,	-227,	392,
	98,	696,	1094,	-104,	541,	-1217,	-1249,	-1361,	799,
	-290,	-622,	-582,	196,	-66,	796,	-307,	-265,	548,
	-181,	-739,	-1296,	780,	-693,	55,	164,	963,	346,
	-395,	-336,	979,	1085,	-555,	83,	-340,	-1405,	-339,
	1330,	541,	-798,	-751,	1300,	1033,	-268,	-1309,	-759,
	-1159,	-157,	-333,	-571,	-247,	-1224,	-678,	1995,	-2014,
	-2577,	-2988,	-955,	748,	1123,	-1110,	1177,	-673,	0,
	-301,	-1237,	-344,	-620,	88,	498,	-856,	21,	153,
	1120,	1012,	-1500,	1892,	305,	1198,	4102,	251,	-2391,
	-2248,	3061,	682,	434,	2413,	718,	-1862,	2131,	-170,
	412,	2141,	591,	1064,	-449,	-1940,	333,	2312,	3208,
	851,	-288,	-201,	1372,	-552,	-336,	1476,	96,	-211,
	-1915,	1468,	1418,	-1705,	-1691,	-892,	-3383,	436,	-2023,
	-774,	490,	783,	-1929,	-381,	-310,	-2681,	-2354,	1150,
	-1923,	-1915,	1371,	-2339,	1307,	980,	1403,	-654,	956,
	74,	-1895,	706,	-825,	2452,	-1586,	-1938,	2023,	1155,
	234,	342,	-1190,	519,	700,	399,	-1713,	-897,	2632,
	515,	-1399,	333,	2177,	-1829,	-303,	-555,	-1734,	-916,
	1707,	-551,	-258,	-1043,	-914,	-366,	2212,	-1753,	928,
	1078,	-118,	-789,	-570,	713,	1328,	521,	-727,	-447,
	-3195,	-690,	591,	639,	-112,	-1393,	1509,	1089,	927,
	-405,	-1912,	-1563,	331,	367,	-2685,	-526,	-1061,	-61,
	-64,	-1450,	-721,	-766,	-544,	1142,	-499,	-1216,	-830,
	-321,	2069,	3644,	676,	393,	2521,	2017,	-1475,	-975,
	-783,	-1033,	451,	938,	856,	445,	-293,	253,	-911,
	-573,	346,	-571,	992,	397,	29,	828,	556,	-1472,
	-697,	-279,	1493,	-28,	-533,	748,	-1307,	369,	1000,
	1000,	64,	615,	113,	-1228,	455,	-1365,	-1131,	428,
	-430,	424,	-747,	290,	874,	1273,	952,	-1047,	1042,
	-204,	663,	799,	1292,	672,	-549,	-461,	1341,	525,
	-387,	-1390,	1063,	649,	1222,	297,	892,	-981,	-113,
	-1037,	708,	-910,	297,	441,	-265,	-339,	-565,	-385,
	-132,	-398,	1019,	-1113,	12,	-378,	608,	-600,	210,
	263,	512,	-996,	761,	-434,	1366,	924,	-2091,	-1320,
	1046,	-528,	-578,	740,	1322,	-1593,	-491,	1217,	2012,
	-894,	-1599,	-1698,	1376,	185,	2084,	254,	290,	241,
	645,	-613,	948,	523,	2799,	472,	1599,	1432,	74,
	1606,	1947,	-1084,	-712,	525,	491,	842,	-326,	-1150,
	360,	-876,	555,	2185,	1418,	-96,	482,	-533,	772,
	-1160,	-2644,	978,	687,	-1874,	-1735,	1214,	1076,	1511,
	2074,	-100,	-582,	-70,	-1608,	-651,	2140,	1231,	-453,
	-136,	227,	-951,	1927,	-1389,	878,	-23,	-874,	1484,
	2107,	-303,	466,	1060,	2066,	-161,	114,	-1510,	874,
	-374,	8,	2898,	-1540,	-1218,	-992,	-384,	1872,	-1529,
	-1460,	510,	-1781,	-831,	-193,	-1135,	-1676,	191,	1376,
	-278,	-1283,	-1152,	822,	-730,	-1148,	-1605,	679,	-1043,
	636,	-2676,	54,	-2205,	-2440,	-829,	1848,	-28,	2577,
	-340,	1019,	-1137,	-878,	-2392,	1374,	770,	838,	-755,
	-1665,	560,	126,	919,	1407,	-112,	-1803,	302,	849,
	113,	-1896,	-60,	741,	182,	925,	953,	1678,	893,
	1582,	-967,	2466,	-116,	-318,	-650,	-2124,	-555,	587,
	2566,	-633,	1592,	612,	987,	780,	2454,	466,	-422,
	-920,	359,	-1866,	-1246,	-913,	-403,	1217,	-1391,	48,
	48,	-1043,	-883,	1265,	1200,	930,	826,	1276,	-1425,
	-1091,	-1378,	-953,	1314,	-974,	1247,	-1114,	696,	543,
	-330,	1314,	-181,	1530,	630,	-1121,	-560,	-984,	818,
	860,	-1263,	-830,	602,	260,	-465,	-979,	-872,	1167,
	213,	-366,	-1350,	38,	236,	1285,	1430,	229,	-62,
	-1178,	128,	453,	239,	-832,	-961,	-845,	-1044,	-545,
	741,	-1130,	-1075,	-889,	1058,	-1042,	250,	726,	-240,
	-1249,	380,	-711,	-451,	53,	-33,	1033,	-1215,	354,
	366,	-458,	1037,	1438,	1111,	417,	186,	1834,	203,
	-559,	2176,	47,	-2093,	2089,	-997,	-1052,	1027,	65,
	1885,	1027,	-612,	1621,	-1593,	1331,	1284,	961,	-1137,
	662,	-1200,	519,	339,	-1991,	-442,	-1342,	-1023,	2079,
	-904,	-2834,	-75,	1841,	1066,	1086,	1943,	-425,	-553,
	109,	-917,	-1482,	-493,	-622,	-245,	498,	-2142,	-564,
	-868,	2149,	-1810,	-780,	2609,	1524,	-1955,	1282,	422,
	1301,	-1176,	1133,	569,	605,	773,	-612,	153,	1979,
	-1573,	-1100,	834,	-555,	817,	576,	2196,	-869,	-1419,
	124,	-187,	-1315,	999,	-2453,	-1261,	-921,	-591,	1044,
	1076,	-326,	-613,	929,	669,	863,	-205,	497,	-1053,
	887,	-1154,	-1390,	1464,	-845,	-434,	843,	-1376,	-207,
	-1314,	-423,	423,	119,	-965,	464,	-936,	-337,	986,
	1004,	322,	562,	1088,	-255,	936,	-375,	-588,	-1424,
	-532,	1413,	-98,	1425,	-963,	-648,	1168,	-780,	1196,
	400,	682,	-482,	164,	-1165,	-888,	-766,	-876,	-1346,
	505,	1321,	704,	707,	1055,	-571,	-617,	89,	-1197,
	-1444,	283,	22,	-1062,	-999,	-1214,	-304,	1284,	-522,
	1065,	95,	-432,	-628,	-1480,	212,	823,	734,	-1116,
	-209,	474,	-108,	613,	-1998,	1734,	-833,	1456,	37,
	-279,	103,	-1559,	-1057,	-829,	-2419,	166,	489,	-942,
	-223,	-1518,	2225,	-836,	-323,	805,	630,	-929,	797,
	-3415,	72,	529,	-2045,	-1651,	1204,	1763,	-2320,	637,
	1820,	686,	610,	-727,	1506,	-355,	1248,	-1063,	187,
	-1646,	499,	-1067,	-1742,	-1724,	-1740,	828,	-696,	-703,
	-1219,	1695,	-283,	2078,	922,	-1524,	-1596,	-1977,	-2266,
	-1468,	1145,	-963,	-1382,	-968,	879,	931,	-50,	-850,
	-725,	-178,	310,	1975,	1378,	347,	-1042,	-93,	-2391,
	-1292,	-2945,	-328,	270,	1685,	-726,	2266,	-262,	541,
	-640,	701,	1647,	1596,	2233,	765,	-3450,	-628,	1260,
	-951,	-120,	-1307,	-1001,	592,	-3015,	1096,	115,	-1056,
	-1255,	-185,	448,	3912,	4812,	1059,	1681,	809,	1420,
	-620,	-1134,	-74,	-2734,	1762,	-1317,	-1293,	-2669,	-641,
	1058,	2618,	3439,	-2343,	-257,	351,	2779,	-712,	705,
	680,	-322,	-494,	-1920,	505,	1205,	-472,	2133,	1979,
	426,	-2379,	3566,	155,	1038,	-1001,	-132,	-1225,	1202,
	735,	202,	-1468,	2141,	-1382,	-649,	2678,	-4182,	-181,
	-2475,	401,	-2284,	-3003,	3655,	-1012,	-638,	-1926,	-3209,
	2546,	-602,	2638,	-2243,	-789,	-3048,	259,	220,	-1624,
	1710,	336,	-1534,	511,	-1170,	223,	-509,	-809,	1635,
	459,	2279,	-312,	-2019,	-2297,	768,	-1410,	-475,	-279,
	367,	-302,	23,	-2764,	914,	-610,	2181,	-651,	1307,
	-2762,	1126,	717,	257,	804,	-1182,	3108,	-212,	-970,
	2247,	-406,	664,	-81,	681,	1598,	-541,	-2558,	2561,
	201,	1051,	389,	778,	4521,	282,	1975,	1303,	-815,
	500,	-638,	2129,	-1327,	-60,	-1321,	-757,	189,	-45,
	-873,	1533,	2531,	154,	2628,	2824,	2654,	-1832,	-67,
	-1205,	-1702,	-1288,	479,	406,	1893,	-289,	551,	-416,
	1309,	953,	-130,	1080,	-1077,	633,	-275,	-664,	-1625,
	-948,	1189,	-1161,	589,	-66,	-43,	-2078,	-645,	504,
	1451,	1071,	549,	750,	499,	1641,	-2401,	-77,	-983,
	2689,	-620,	2610,	-1386,	-531,	-1268,	17,	-2055,	568,
	595,	600,	757,	-2122,	1301,	717,	-972,	109,	558,
	1030,	-1487,	847,	376,	-1909,	-606,	571,	1111,	508,
	2068,	-1590,	-56,	-514,	-9,	-270,	498,	871,	-398,
	-225,	-1291,	321,	1245,	845,	1437,	2463,	-1,	1485,
	601,	-298,	-1043,	-1898,	-1286,	56,	-641,	1627,	-465,
	-1026,	-419,	-53,	68,	-1261,	5,	1387,	-1293,	1387,
	-1146,	-213,	-287,	1892,	352,	1608,	913,	1170,	93,
	-830,	1269,	140,	1414,	1128,	232,	-2338,	-386,	-1713,
	-2240,	-354,	277,	967,	2111,	-257,	1292,	-197,	-1487,
	105,	-1728,	-473,	-1736,	1983,	2293,	1271,	1077,	-1752,
	-1481,	1279,	-1827,	336,	1422,	156,	-2876,	-1435,	1034,
	2632,	2425,	478,	2113,	768,	-114,	-1429,	-1220,	2696,
	-958,	-791,	-953,	-281,	-219,	641,	487,	1148,	-1575,
	-425,	2649,	-1465,	635,	-1370,	454,	558,	277,	492,
	1696,	-152,	961,	-1347,	998,	-1112,	392,	-81,	246,
	543,	-1384,	-859,	590,	1207,	-995,	668,	-1503,	14,
	1351,	1633,	1192,	55,	1203,	-112,	1756,	793,	-1328,
	-1628,	1864,	-853,	1070,	443,	-1966,	-328,	403,	1189,
	-1140,	-1652,	-1141,	1098,	1139,	0,	-696,	375,	1456,
	942,	-845,	922,	742,	764,	-1194,	738,	-1656,	1341,
	-2558,	1341,	-382,	2616,	1686,	-574,	2426,	1335,	-746,
	1469,	-458,	1997,	-568,	-770,	53,	284,	1053,	825,
	1393,	-985,	381,	626,	-470,	-35,	-67,	-1579,	-226,
	777,	-212,	-1321,	38,	-77,	253,	1233,	436,	1084,
	405,	705,	-794,	11,	-303,	624,	-1209,	-796,	1441,
	-988,	-964,	-649,	590,	-594,	735,	340,	82,	199,
	-417,	988,	-1449,	1144,	-606,	-383,	1119,	-965,	917,
	-1032,	-480,	864,	-1257,	-425,	808,	-217,	-292,	911,
	1269,	1030,	295,	-272,	-191,	773,	784,	-1302,	-248,
	-180,	1235,	-725,	-23,	-635,	428,	1238,	237,	810,
	1347,	1533,	1119,	1176,	1024,	-816,	655,	453,	-1354,
	-1625,	414,	-678,	-13,	779,	-1306,	1556,	-1279,	1483,
	746,	1475,	911,	-463,	-719,	-524,	1274,	391,	-1734,
	32,	-521,	1984,	104,	2233,	-1127,	1094,	-770,	1641,
	-1890,	-2602,	-628,	-91,	178,	835,	1407,	901,	-75,
	-1364,	1042,	-169,	2670,	2330,	693,	104,	2517,	1534,
	-641,	736,	-683,	1363,	847,	-2194,	362,	-991,	-1037,
	-1600,	-157,	-657,	620,	-67,	2070,	1349,	142,	1835,
	284,	-1851,	-1578,	844,	-703,	900,	-1541,	36,	841,
	-274,	803,	1243,	-1141,	90,	41,	1039,	882,	-418,
	1213,	-1139,	-1702,	-321,	1005,	1095,	-1188,	388,	-1197,
	1825,	-834,	1464,	-626,	1408,	-1189,	-1452,	1399,	945,
	2491,	-1595,	-2241,	-964,	-950,	-230,	1373,	786,	1132,
	-810,	-1130,	-790,	1941,	519,	634,	-969,	1102,	87,
	-1324,	589,	663,	715,	-681,	23,	-3013,	-1777,	-741,
	-13,	1445,	-1835,	1687,	702,	-179,	1051,	-430,	-1337,
	1151,	1941,	1196,	-815,	2722,	-1900,	502,	-544,	-1583,
	-862,	538,	15,	64,	-2017,	-163,	-1352,	131,	-321,
	415,	2242,	577,	734,	1016,	-1665,	-2262,	621,	-57,
	1059,	-808,	-1492,	-1070,	774,	-1175,	88,	615,	830,
	-411,	1369,	1524,	-1367,	1070,	-761,	-2369,	-183,	842,
	735,	173,	-886,	-1159,	-565,	-426,	1081,	880,	-27,
	451,	128,	290,	922,	-694,	-1601,	-122,	579,	1376,
	172,	-450,	-959,	681,	-561,	344,	1106,	569,	1156,
	-1486,	482,	1010,	-361,	2,	-679,	428,	645,	-914,
	-329,	-1436,	-625,	-1448,	-1150,	211,	1185,	425,	-336,
	884,	1486,	1312,	822,	530,	970,	480,	362,	601,
	-1445,	1249,	-975,	-510,	1477,	-1226,	36,	-205,	1402,
	-1245,	1808,	396,	-760,	1102,	611,	1177,	-488,	-1486,
	377,	676,	-246,	-1637,	554,	1336,	-82,	-1066,	-145,
	-160,	-199,	1220,	20,	-1142,	-181,	617,	-323,	2247,
	1213,	1234,	234,	1767,	-2149,	650,	1011,	139,	927,
	-516,	2405,	-568,	-1339,	-693,	-12,	936,	674,	-98,
	-1891,	-2457,	-697,	-495,	1227,	1329,	1504,	-702,	-444,
	-1812,	747,	-1859,	986,	805,	-115,	-37,	866,	-1492,
	-1755,	243,	1660,	1266,	-443,	-490,	679,	1935,	-174,
	-113,	1643,	611,	588,	-524,	1929,	-1572,	688,	797,
	-439,	1241,	1762,	595,	648,	-672,	1101,	790,	-422,
	-1134,	-1908,	865,	-520,	-911,	-2557,	-369,	-662,	2373,
	-514,	971,	-1130,	337,	577,	796,	149,	-1198,	-1220,
	1624,	462,	2654,	-1922,	-463,	-471,	649,	-276,	152,
	513,	267,	-1749,	-2278,	-2345,	-114,	-379,	-359,	447,
	2683,	1273,	-1045,	-1533,	-152,	11,	683,	-1914,	3195,
	301,	-2710,	-700,	-508,	644,	-37,	3498,	849,	2288,
	-338,	2982,	1303,	272,	-356,	-2380,	992,	1938,	-2372,
	2096,	2693,	817,	1463,	3121,	1225,	362,	276,	1720,
	1571,	-1059,	-2603,	-1296,	1729,	-835,	1257,	-1625,	302,
	100,	787,	-969,	-165,	-1401,	1021,	-255,	206,	279,
	-1421,	677,	1889,	2790,	1934,	2561,	48,	-1668,	609,
	-551,	-43,	864,	1921,	843,	411,	726,	250,	973,
	1314,	2697,	726,	-1273,	-409,	-240,	763,	-1746,	-1070,
	-77,	-817,	-1250,	-1391,	1578,	1113,	707,	134,	-1089,
	781,	-860,	2040,	-770,	196,	489,	404,	1214,	-1892,
	1071,	-1476,	-2156,	-1540,	460,	-884,	1128,	2757,	-851,
	-138,	-940,	-651,	1110,	-348,	-418,	248,	-72,	-1503,
	-1492,	-260,	1131,	2117,	2457,	1882,	-902,	-1843,	-82,
	-2259,	1845,	-979,	1607,	554,	-1398,	1140,	-1515,	566,
	-781,	887,	1418,	-632,	1008,	167,	-866,	-1253,	427,
	-1450,	-150,	-1807,	-682,	610,	271,	2561,	55,	390,
	-1750,	568,	-503,	-18,	3789,	1235,	-1098,	275,	1787,
	1276,	-3445,	-138,	-401,	-544,	515,	4285,	-2748,	-570,
	1270,	896,	-137,	2868,	1831,	888,	627,	1399,	965,
	-1073,	-329,	332,	-1178,	297,	1864,	-1500,	-475,	-115,
	95,	304,	-834,	1352,	-1972,	-1298,	-476,	390,	2985,
	705,	-2027,	-937,	-1527,	-1585,	2614,	2369,	-1968,	120,
	260,	-5097,	-1458,	253,	-895,	821,	693,	-1604,	606,
	-596,	58,	-452,	-824,	974,	-219,	33,	-1169,	-659,
	-661,	-3853,	2833,	461,	-379,	-1469,	558,	-830,	-1241,
	-936,	-968,	-1901,	1007,	15,	-1213,	490,	-514,	870,
	1560,	-716,	-260,	1375,	553,	525,	-996,	577,	-104,
	-1104,	-598,	-421,	-1481,	1380,	-46,	-658,	545,	124,
	-109,	1602,	484,	93,	2883,	-109,	611,	1315,	-25,
	2320,	1325,	-1087,	228,	2293,	386,	682,	-853,	1968,
	594,	-1175,	-1464,	-49,	-464,	-750,	190,	568,	689,
	-418,	575,	2212,	869,	1674,	-1221,	-234,	2071,	-1517,
	1446,	-1279,	1446,	988,	909,	983,	737,	-1403,	5,
	-1593,	-1746,	440,	583,	977,	251,	-33,	1280,	-1687,
	-1013,	753,	493,	-175,	1050,	1434,	1295,	-1396,	92,
	485,	-894,	675,	1303,	-696,	-255,	-1449,	-256,	546,
	997,	-518,	-347,	-293,	359,	996,	899,	730,	628,
	-234,	-1439,	-663,	-18,	830,	-781,	623,	-5,	1285,
	1435,	-1242,	838,	1411,	-809,	17,	1166,	-1269,	-734,
	590,	-330,	46,	-252,	1327,	263,	362,	976,	-605,
	1448,	1355,	632,	11,	1471,	-148,	-1020,	-639,	1263,
	-728,	-1068,	49,	1048,	-497,	227,	399,	46,	-660,
	65,	-5,	-447,	832,	-264,	-1404,	986,	360,	993,
	-1460,	1045,	-601,	-1156,	1230,	-243,	65,	-838,	-528,
	803,	-892,	-68,	1192,	-328,	-478,	-1083,	-553,	820,
	695,	1091,	1435,	-168,	-1449,	1040,	968,	1137,	90,
	-288,	-70,	1334,	1154,	1041,	-844,	1150,	-742,	1282,
	947,	-31,	803,	886,	-898,	934,	626,	-383,	1303,
	-1309,	-846,	38,	-343,	-326,	-496,	479,	-1486,	-268,
	802,	439,	180,	-1402,	119,	-1493,	39,	622,	650,
	-688,	1243,	123,	282,	-816,	1051,	-975,	-1245,	-163,
	853,	1012,	1204,	448,	297,	1289,	133,	167,	1206,
	1322,	-89,	-262,	1173,	-1275,	175,	1194,	1068,	1144,
	1425,	-1405,	539,	-885,	-1332,	574,	-245,	-628,	1350,
	490,	-343,	191,	-1274,	-1210,	-1025,	488,	611,	-1021,
	-92,	730,	437,	906,	-848,	1011,	-1080,	-450,	-1154,
	-845,	-881,	-431,	-539,	48,	184,	1295,	329,	-1560,
	-1309,	803,	-1395,	-1483,	-1128,	703,	-693,	239,	1414,
	999,	655,	-438,	629,	-216,	-905,	441,	-1526,	1512,
	1028,	-443,	125,	670,	-976,	-760,	637,	24,	-1011,
	25,	577,	1091,	448,	-460,	-1190,	-138,	-732,	-238,
	-283,	1116,	1360,	-622,	-1137,	-346,	-1274,	-373,	-374,
	1120,	-1203,	-825,	1442,	-359,	-96,	521,	-904,	-1358,
	-2502,	733,	-1179,	-383,	-937,	-108,	1349,	-1785,	-1313,
	1415,	890,	2298,	1625,	714,	-1437,	-526,	2047,	-801,
	1100,	-1308,	-1503,	-562,	2224,	812,	1170,	-1009,	-1616,
	1255,	-1227,	1497,	1494,	1993,	825,	-463,	-162,	-1988,
	516,	-1389,	848,	-1884,	867,	-897,	-867,	-94,	277,
	64,	1629,	-1261,	-662,	911,	97,	1840,	527,	399,
	246,	1898,	-440,	992,	-225,	1512,	-1484,	-157,	-1557,
	443,	1110,	2647,	-275,	288,	-251,	1756,	-529,	1523,
	376,	945,	255,	-325,	1540,	1483,	426,	-156,	1379,
	1077,	-137,	1332,	704,	-325,	-1136,	-696,	843,	1232,
	-1087,	737,	-1134,	-1302,	-54,	1265,	283,	-8,	1092,
	-811,	1236,	701,	-960,	-759,	178,	-871,	953,	-55,
	-627,	173,	-472,	-597,	247,	730,	-474,	1344,	-71,
	-547,	789,	-112,	-1002,	1278,	864,	-269,	-843,	495,
	-1303,	-460,	448,	-103,	-1072,	12,	1295,	-850,	299,
	-1589,	1109,	-418,	-970,	95,	-994,	-349,	962,	-851,
	-372,	-776,	-1487,	959,	-109,	902,	-1169,	669,	1276,
	1232,	-1076,	866,	393,	998,	652,	-307,	1045,	-1321,
	-499,	8,	-1431,	591,	1077,	487,	828,	-1351,	1276,
	-277,	-92,	-733,	-169,	-1413,	-313,	-1150,	1117,	-1005,
	1209,	-954,	1382,	535,	526,	1271,	-586,	-1027,	1401,
	789,	1065,	782,	599,	1063,	-607,	-1162,	1517,	-35,
	-559,	-18,	-1379,	1226,	1390,	-1357,	1279,	-1374,	1330,
	-495,	-1306,	-647,	-170,	-967,	1482,	-142,	-154,	1296,
	-825,	-629,	606,	-766,	1493,	-750,	1519,	64,	-1369,
	-785,	-791,	-294,	179,	1265,	220,	159,	1380,	1133,
	-492,	753,	-1317,	480,	-187,	272,	-1314,	849,	473,
	263,	-437,	-1162,	532,	-1583,	-1130,	900,	1362,	935,
	142,	245,	-576,	-771,	-507,	1764,	1864,	139,	530,
	-212,	320,	1574,	-131,	1548,	-716,	1094,	728,	-318,
	1907,	767,	-1404,	1442,	169,	-290,	1990,	525,	-256,
	-1495,	-946,	731,	2118,	844,	-381,	558,	2332,	-12,
	-1551,	-623,	1326,	-283,	88,	1354,	-1441,	276,	-111,
	48,	-1436,	96,	-1485,	775,	1307,	-600,	-1690,	28,
	-284,	706,	120,	1632,	-1216,	711,	-1513,	763,	-430,
	2118,	-897,	1346,	1437,	-698,	-997,	1437,	1264,	-870,
	-647,	168,	-1200,	865,	694,	-882,	-1422,	786,	2212,
	337,	-560,	400,	-1620,	-1747,	-481,	-1143,	577,	1042,
	316,	132,	1217,	2240,	-1549,	2531,	217,	224,	-725,
	1130,	1307,	292,	-3538,	-1758,	970,	-558,	-1179,	-1357,
	1901,	-1254,	-633,	693,	1620,	-697,	1454,	898,	-77,
	-1465,	-1442,	-817,	-1484,	180,	1077,	-1746,	-181,	-2380,
	1305,	276,	-952,	-337,	2816,	-496,	-882,	-586,	-503,
	765,	1188,	1401,	2239,	-461,	-233,	-1516,	-267,	468,
	230,	-109,	-1362,	9,	-1193,	287,	1665,	885,	641,
	1832,	1326,	175,	-603,	-1347,	-1256,	-1486,	2009,	1373,
	-956,	-857,	8,	-1184,	1779,	857,	726,	-1077,	1059,
	225,	-1117,	542,	-29,	462,	-221,	-1551,	-265,	3396,
	-1301,	-563,	-914,	2518,	1755,	1301,	-1227,	-1394,	193,
	1707,	-1047,	1274,	1910,	-498,	337,	205,	-103,	-198,
	2523,	-713,	-1477,	-579,	-269,	1409,	-799,	-374,	-1675,
	-548,	1430,	1864,	-311,	124,	771,	2493,	1151,	717,
	2288,	-271,	-1749,	860,	-4473,	869,	73,	-486,	578,
	-793,	-1066,	-2649,	-629,	1080,	754,	1595,	-938,	-635,
	-1220,	-780,	-499,	-913,	-1219,	1800,	1058,	529,	171,
	-126,	615,	2210,	1313,	386,	-844,	-604,	527,	913,
	909,	-1085,	627,	-586,	628,	28,	1119,	-130,	-769,
	981,	310,	-1172,	-1289,	1343,	-148,	64,	-925,	-816,
	-40,	-1038,	673,	144,	783,	-77,	-856,	96,	-400,
	585,	-861,	415,	1231,	-849,	1345,	-466,	-1331,	331,
	-766,	-486,	799,	-1203,	1263,	-1273,	-768,	-28,	1395,
	109,	-875,	860,	1001,	1382,	-199,	16,	-386,	-390,
	1099,	1386,	1162,	-356,	-30,	550,	-542,	270,	1427,
	-888,	-1388,	-1267,	-1070,	1209,	-1042,	-1173,	56,	857,
	-1072,	411,	-1116,	1134,	-430,	-1094,	700,	-122,	-2032,
	-293,	-551,	1441,	993,	-273,	463,	257,	-1480,	-184,
	727,	979,	-483,	2549,	-441,	479,	759,	1670,	-1334,
	-719,	457,	-653,	1014,	1648,	-1191,	-851,	2095,	86,
	-1276,	-224,	-1068,	-131,	-196,	-1561,	1799,	684,	-56,
	826,	-317,	-1359,	632,	731,	2214,	-131,	1500,	121,
	-645,	-681,	-1275,	-801,	-676,	-2738,	-1310,	-476,	396,
	642,	1626,	-2139,	-297,	1707,	1294,	1276,	-406,	616,
	1144,	-1332,	-516,	1572,	-1739,	296,	675,	-238,	-113,
	-99,	-523,	-1536,	-2203,	1102,	-1197,	-135,	2031,	1445,
	-344,	1163,	-852,	-673,	-1322,	300,	1418,	428,	-1200,
	-467,	-1162,	-87,	-217,	-997,	-693,	-435,	-985,	1115,
	-1069,	64,	939,	624,	1457,	1036,	-670,	3,	257,
	-1230,	-675,	730,	1398,	-795,	129,	977,	-593,	-306,
	715,	1036,	-418,	920,	847,	-298,	-1087,	752,	-614,
	431,	996,	-306,	890,	-1526,	-768,	211,	822,	-223,
	-242,	-434,	498,	-1099,	-3,	-1041,	-1112,	-603,	720,
	397,	507,	73,	-281,	-1127,	-660,	-1336,	-550,	-51,
	1033,	-227,	-1016,	458,	177,	-797,	1539,	-1366,	1494,
	-1372,	-1037,	-1125,	1051,	-1007,	2361,	-2245,	2638,	-2538,
	-2174,	2158,	-939,	708,	941,	351,	582,	-42,	-1594,
	-2526,	-1185,	157,	-861,	-2159,	1184,	150,	-456,	890,
	-2181,	-1621,	-1273,	-1549,	-849,	-332,	1045,	-174,	323,
	2110,	-918,	696,	805,	1421,	1249,	-830,	1723,	-2290,
	613,	562,	-1162,	1820,	-1077,	-1478,	737,	1060,	-1020,
	-1394,	-1015,	3313,	2129,	521,	1490,	-967,	-1096,	-546,
	991,	-828,	-1259,	1732,	481,	1323,	-1008,	815,	566,
	-2080,	-1311,	553,	-1633,	1361,	2443,	-1364,	427,	726,
	252,	-863,	-1032,	459,	-1625,	-1416,	-943,	-891,	1711,
	1998,	1634,	-1094,	-721,	577,	-1335,	660,	-21,	-963,
	921,	-358,	1172,	-2238,	984,	1528,	280,	137,	-715,
	-276,	-1363,	1225,	-802,	364,	-1225,	-204,	-2216,	2817,
	1677,	-727,	-271,	2339,	-2431,	2692,	735,	-1214,	434,
	41,	-1209,	919,	1674,	801,	240,	333,	-1603,	-2394,
	-488,	-1467,	583,	-677,	1427,	259,	-1377,	-291,	-467,
	-914,	-3160,	-2920,	340,	940,	188,	372,	679,	-206,
	-781,	-2356,	269,	1456,	531,	-1108,	-358,	2961,	940,
	369,	1350,	-741,	1687,	-634,	561,	-2223,	-935,	1218,
	-641,	1001,	1022,	749,	992,	2010,	532,	1525,	-390,
	-1002,	-1390,	765,	-1495,	355,	-1366,	215,	-972,	-1091,
	392,	220,	-627,	1915,	918,	-260,	434,	-530,	1278,
	1645,	582,	-729,	1266,	-1867,	-234,	-710,	974,	-649,
	1309,	2014,	319,	-793,	-1266,	1452,	1351,	1602,	-1286,
	1666,	2995,	1800,	-1354,	-56,	-279,	651,	429,	27,
	1034,	-1103,	-218,	-1593,	-153,	-342,	56,	-800,	-164,
	-1672,	1300,	460,	1074,	-669,	-151,	-2091,	-1497,	1241,
	2019,	16,	-601,	2186,	1072,	-254,	-505,	-1146,	478,
	-1176,	235,	757,	-373,	810,	-1353,	-971,	-1408,	543,
	247,	1009,	-925,	306,	-818,	462,	-1218,	1173,	-897,
	-1114,	28,	1093,	1360,	629,	-1346,	-75,	1058,	1408,
	265,	938,	-245,	660,	-762,	1278,	1171,	-1396,	-1435,
	-1491,	-1215,	1257,	-1153,	393,	502,	-1152,	-155,	-480,
	362,	-769,	1422,	-871,	-548,	721,	1051,	-1566,	1308,
	393,	389,	-836,	62,	-492,	853,	-1281,	1315,	-1294,
	309,	-865,	442,	448,	608,	392,	953,	-1334,	-139,
	-676,	-29,	832,	1125,	25,	-1246,	338,	486,	592,
	-1014,	-164,	505,	-502,	127,	723,	-1356,	1514,	-1940,
	951,	-1842,	2471,	2321,	208,	-31,	415,	1294,	67,
	-576,	1117,	-394,	1317,	-90,	-1588,	206,	2240,	-914,
	-972,	2124,	-528,	-1254,	-614,	678,	-553,	2039,	-138,
	1106,	1004,	589,	18,	2279,	-2810,	-1205,	853,	-680,
	143,	137,	1764,	-373,	1190,	-528,	20,	432,	-26,
	-815,	772,	-1742,	-885,	-204,	-2384,	361,	-14,	872,
	-579,	1886,	1602,	910,	-1048,	-997,	-613,	226,	906,
	783,	1291,	-1342,	-242,	-1257,	-81,	-333,	-806,	-112,
	2390,	-103,	526,	-1419,	-422,	-1863,	-37,	918,	1428,
	1484,	-2656,	2275,	-249,	1519,	-857,	1255,	751,	1169,
	-47,	-563,	-1611,	-1246,	1781,	378,	-2172,	-107,	-998,
	-2678,	205,	469,	-114,	83,	-598,	-2742,	2006,	2037,
	1103,	-527,	639,	-194,	-44,	-203,	506,	-232,	1476,
	-280,	1756,	-1313,	829,	-920,	1843,	2383,	2094,	-1201,
	118,	-675,	-1210,	-1174,	140,	-623,	-1659,	1266,	-839,
	1005,	818,	-1957,	57,	96,	-1818,	-2011,	374,	-946,
	2086,	-1046,	-133,	1163,	-1747,	-1580,	1546,	-693,	440,
	576,	1038,	3356,	2434,	897,	-719,	1182,	-297,	502,
	312,	-2001,	-220,	1285,	971,	1291,	1458,	-492,	1638,
	-35,	1299,	-929,	-1524,	-1069,	-1146,	1555,	-1253,	-143,
	2456,	-1553,	345,	1937,	1142,	53,	1391,	1382,	-337,
	2019,	-268,	206,	-2226,	-415,	37,	1133,	-948,	1385,
	-497,	1932,	-1605,	-987,	-184,	-683,	-1404,	126,	-168,
	-2862,	1533,	1071,	-64,	1996,	-926,	-1066,	100,	512,
	-1661,	1093,	498,	795,	691,	-448,	553,	1582,	1447,
	216,	-1070,	868,	-1477,	-1079,	1799,	587,	1223,	-1423,
	235,	-448,	1269,	2774,	315,	-2128,	1031,	-1165,	300,
	-1715,	1454,	-479,	-1254,	1702,	-144,	953,	-4,	-730,
	-898,	-134,	-446,	1384,	-739,	431,	1080,	675,	1261,
	570,	-2,	702,	329,	1277,	1370,	-587,	657,	-1304,
	572,	-906,	1079,	-139,	497,	-654,	-1497,	-454,	-1090,
	-503,	1196,	-597,	-1328,	-1083,	862,	685,	-1254,	-613,
	-641,	952,	-1206,	183,	1260,	287,	-630,	609,	1175,
	506,	-1550,	-876,	-453,	1286,	-131,	846,	1436,	-632,
	30,	-899,	295,	-1201,	-992,	-1233,	-947,	-1006,	1074,
	1354,	890,	685,	1062,	-1235,	161,	1223,	-313,	533,
	1266,	-787,	850,	1290,	3,	-384,	-429,	302,	-1393,
	-469,	-144,	1702,	1419,	1934,	840,	-262,	786,	-750,
	371,	772,	1948,	-2321,	-992,	-734,	528,	93,	1183,
	-131,	2306,	-1157,	-1668,	-437,	-112,	2850,	2069,	555,
	372,	498,	1489,	-1403,	-908,	746,	1351,	1335,	688,
	-673,	-1238,	-1191,	661,	-1873,	689,	1512,	97,	3114,
	-2948,	-707,	-1067,	1276,	-810,	-64,	1303,	-801,	877,
	-1071,	-1524,	2500,	302,	1836,	-1048,	2877,	-1354,	-148,
	644,	-52,	1544,	-1204,	-1287,	401,	200,	1039,	-597,
	1776,	581,	-806,	1656,	1022,	923,	2592,	1160,	1207,
	-1063,	-1017,	1568,	1869,	-1562,	-2518,	128,	-1239,	1591,
	681,	2579,	286,	-1762,	39,	-1475,	-1219,	-1030,	1188,
	2422,	-1172,	-766,	-2490,	-671,	1065,	-499,	1825,	412,
	-1737,	931,	522,	1407,	2101,	-875,	575,	-829,	-1386,
	-1059,	-1508,	-1048,	-60,	1265,	-170,	-382,	2607,	540,
	-502,	-862,	-265,	53,	-167,	1595,	1187,	-2518,	511,
	145,	1444,	-2362,	-1344,	662,	2518,	1727,	-117,	460,
	-1692,	1099,	-377,	1519,	-208,	-274,	127,	790,	-291,
	-52,	551,	1300,	-333,	-885,	-342,	569,	-2438,	1125,
	-1489,	3437,	799,	-426,	-1059,	-1039,	-1027,	-646,	-1616,
	1076,	2713,	2710,	302,	-1117,	-1539,	1762,	-445,	1104,
	-1157,	-1082,	75,	708,	1193,	3954,	871,	812,	-1245,
	846,	1007,	651,	622,	-845,	1160,	1312,	-1098,	1575,
	-325,	-312,	415,	191,	1680,	-96,	-86,	-1652,	549,
	-449,	-1120,	-222,	2255,	1460,	-256,	-758,	-606,	0,
	447,	108,	-1786,	2337,	-1588,	507,	618,	10,	-2662,
	-1424,	-662,	896,	301,	-3688,	237,	-2009,	908,	-1745,
	-624,	832,	-765,	2102,	-993,	-791,	-555,	-295,	-377,
	-13,	1503,	1476,	1446,	900,	-1710,	-501,	830,	1872,
	-1044,	-628,	-776,	-2384,	-2388,	-2192,	-342,	-1993,	811,
	2097,	-165,	-1210,	-1217,	50,	342,	-389,	-1459,	-2138,
	-1913,	-1754,	-870,	-747,	953,	-404,	-403,	-1218,	241,
	4147,	199,	-2285,	-2067,	3409,	440,	-1743,	455,	1595,
	-323,	748,	116,	-1907,	380,	2539,	1141,	-200,	-1969,
	2837,	2974,	3674,	186,	758,	1192,	3003,	992,	1604,
	671,	-1490,	-523,	-618,	4323,	-5,	-2314,	286,	237,
	-316,	-473,	-1737,	-1042,	46,	-1048,	-1675,	866,	-754,
	-2266,	-1720,	3479,	1286,	-1604,	-324,	2120,	2410,	-1227,
	-329,	426,	2130,	86,	358,	-165,	-268,	-54,	-190,
	-1120,	-231,	-1148,	-358,	359,	203,	-779,	-963,	576,
	-1033,	-859,	760,	910,	686,	-1397,	711,	1421,	-1259,
	-871,	-551,	-381,	229,	634,	-159,	656,	65,	49,
	-270,	-1300,	739,	-1044,	-1045,	-530,	1209,	-1515,	-1061,
	1134,	-175,	462,	-1444,	-789,	-79,	222,	-1069,	-1152,
	1272,	1533,	-1009,	-1019,	-1699,	-96,	-1022,	-1337,	-1406,
	-163,	-279,	-1268,	949,	359,	426,	905,	-1371,	-583,
	266,	898,	-1216,	1008,	-169,	1087,	-955,	-315,	-656,
	-1308,	-784,	-811,	-1043,	-1385,	794,	1087,	-454,	1513,
	501,	910,	-326,	-443,	334,	57,	-1106,	1017,	-662,
	370,	1419,	-127,	753,	-863,	1220,	1071,	-304,	216,
	-796,	1048,	1057,	-1291,	-987,	294,	1111,	-574,	-847,
	-1394,	-1179,	-570,	1231,	-376,	294,	-573,	125,	-375,
	637,	975,	761,	595,	1449,	914,	1191,	-1514,	441,
	45,	1552,	-1354,	-1402,	359,	49,	-899,	1184,	844,
	988,	198,	-914,	-907,	55,	-945,	963,	21,	-1117,
	1161,	-422,	-1173,	-377,	862,	1306,	93,	1167,	-321,
	-493,	443,	958,	376,	-353,	787,	-30,	594,	253,
	-1223,	1361,	1677,	2225,	2293,	637,	1677,	767,	813,
	1141,	-433,	2103,	-2048,	1293,	-827,	-421,	210,	-152,
	995,	-53,	-1438,	-238,	-336,	-582,	900,	1505,	-99,
	243,	-847,	1485,	669,	-1644,	-1074,	-619,	1347,	2819,
	-439,	-2080,	874,	-1356,	-668,	1582,	1159,	2146,	1706,
	-816,	-393,	-1145,	430,	1453,	113,	-723,	-1300,	940,
	-938,	-1487,	-665,	55,	741,	639,	2728,	-1325,	-963,
	49,	-1531,	2204,	661,	461,	279,	1065,	-903,	-1088,
	1123,	-17,	-661,	1960,	2154,	301,	2470,	1768,	-130,
	551,	-1200,	689,	153,	1035,	-692,	1504,	-782,	1604,
	-206,	1785,	-1185,	1562,	-776,	1623,	1393,	671,	1131,
	-299,	-629,	-1370,	-627,	273,	1132,	612,	1654,	-391,
	2182,	-229,	-763,	26,	1766,	306,	-413,	533,	564,
	-247,	-1239,	-1836,	1538,	1847,	-650,	-1365,	-446,	604,
	85,	-1338,	2725,	-1829,	1861,	1380,	-269,	1527,	-1798,
	527,	-797,	-133,	-1202,	-776,	1764,	2008,	-636,	-1454,
	-475,	-109,	-319,	1429,	-824,	1123,	-1170,	-979,	-1181,
	-738,	-210,	2127,	-846,	-302,	-298,	1671,	-518,	-763,
	-1489,	1452,	-550,	-1002,	-19,	1458,	1469,	-57,	1875,
	-950,	-18,	-569,	-263,	-603,	616,	2706,	-239,	107,
	769,	1615,	712,	-1626,	-793,	1774,	-377,	494,	-1431,
	1000,	-667,	754,	392,	-1664,	1308,	2061,	-737,	835,
	-428,	2191,	923,	2177,	943,	-32,	675,	2307,	-460,
	-661,	184,	1532,	100,	-739,	-835,	2030,	1066,	1173,
	-1286,	177,	-670,	225,	-167,	289,	-43,	976,	-835,
	106,	827,	1764,	752,	-1673,	388,	1304,	742,	-984,
	-732,	-1531,	-1797,	-588,	322,	217,	-1137,	1500,	1519,
	1106,	1221,	1604,	899,	147,	-304,	-1401,	-961,	157,
	511,	729,	-1967,	2793,	1681,	2110,	1808,	-1519,	1001,
	-1388,	-302,	250,	30,	2656,	-1422,	358,	-341,	1841,
	1192,	1438,	-1218,	572,	-1413,	-1057,	-610,	816,	336,
	-1289,	-985,	1224,	1659,	-638,	939,	-117,	724,	-722,
	-628,	-312,	867,	614,	-1122,	2593,	716,	2108,	1146,
	1920,	-1359,	345,	-309,	664,	466,	-1998,	-1842,	-1191,
	147,	2567,	-2909,	-1752,	-59,	1323,	1403,	-1209,	-129,
	-100,	-550,	381,	-1544,	405,	-287,	1325,	-1195,	-1665,
	2028,	2380,	-655,	-55,	971,	-2653,	-608,	109,	244,
	779,	603,	-1280,	-1172,	-863,	1092,	-609,	65,	-1191,
	682,	-516,	-1495,	2362,	-1225,	628,	650,	1588,	-189,
	-2873,	-661,	-256,	-1078,	65,	716,	1638,	-473,	87,
	-903,	2318,	-277,	1598,	-917,	253,	871,	1646,	457,
	173,	-794,	630,	982,	-310,	950,	-1161,	-150,	1522,
	574,	-349,	1284,	-2043,	1392,	1006,	930,	1078,	-1337,
	-676,	1281,	-516,	400,	-81,	-1201,	-1175,	-1694,	393,
	-277,	1194,	691,	1380,	-945,	-1697,	-362,	624,	555,
	2075,	-34,	-585,	-1344,	-542,	246,	-849,	1649,	1072,
	2568,	46,	-531,	960,	-1545,	1123,	-1601,	-1461,	-2782,
	740,	-1163,	1771,	2590,	-105,	-839,	-785,	-720,	929,
	-2493,	965,	-1378,	6,	-534,	-2282,	287,	2237,	-1451,
	330,	1549,	-1183,	1636,	1999,	4332,	3249,	-552,	883,
	2774,	1108,	328,	-2848,	-65,	-372,	-470,	-2000,	-1257,
	814,	-973,	3874,	2531,	664,	17,	1212,	1396,	2256,
	-317,	-2774,	-949,	2025,	163,	-2654,	-134,	390,	-2229,
	-1323,	-2245,	-3767,	-2678,	-504,	495,	410,	547,	-3914,
	-448,	-419,	-264,	3146,	-443,	-1099,	-940,	1103,	-2137,
	1075,	-929,	658,	-285,	854,	-877,	-1594,	-1224,	2231,
	-666,	-2910,	-362,	838,	1530,	322,	1960,	-2019,	373,
	-2396,	674,	-184,	896,	-746,	1270,	-1514,	-1488,	-155,
	-2295,	-1959,	-1659,	488,	1146,	-35,	-1542,	-1584,	-95,
	990,	-3099,	-750,	2180,	707,	-1051,	-2189,	841,	720,
	1740,	2713,	-1263,	-314,	15,	-221,	-856,	939,	-2549,
	1602,	800,	2132,	-552,	579,	534,	1808,	979,	1183,
	1979,	95,	-2065,	-2790,	1750,	201,	-3087,	177,	-693,
	-3053,	-815,	-2605,	-570,	-346,	528,	-409,	-1402,	-814,
	-1710,	765,	1832,	-232,	1408,	-1047,	-75,	208,	-968,
	797,	323,	-229,	-1972,	-1996,	-1921,	354,	1120,	516,
	182,	974,	190,	-2370,	-1117,	2144,	-1991,	512,	462,
	119,	808,	37,	1573,	1188,	-1459,	1303,	1986,	-1006,
	962,	2507,	2668,	1205,	-404,	-829,	847,	426,	-1140,
	-1037,	2081,	2270,	-376,	-2157,	-35,	-812,	934,	3951,
	-2175,	2124,	1506,	-196,	1085,	2083,	1151,	672,	-396,
	1162,	24,	403,	122,	-455,	-2304,	752,	83,	240,
	-1205,	572,	1158,	-893,	-954,	-1381,	-1629,	-1093,	-134,
	743,	943,	-1343,	862,	-2005,	-2348,	2253,	1286,	-943,
	-417,	2605,	58,	1143,	-1106,	321,	1412,	-855,	491,
	987,	1722,	415,	1859,	-50,	-10,	-1901,	-631,	1588,
	889,	2722,	1163,	329,	111,	-2182,	-897,	-1631,	825,
	44,	-1742,	-953,	1394,	1456,	-2520,	-1151,	227,	791,
	1445,	-523,	-1001,	-1155,	-1911,	-655,	651,	-2298,	1279,
	745,	3332,	1029,	-430,	-410,	1908,	1233,	-1431,	-410,
	-726,	1402,	-1412,	-2381,	-351,	722,	-3603,	3446,	1916,
	43,	-3481,	1110,	1786,	1820,	-752,	374,	-724,	104,
	-1175,	1546,	974,	589,	-1118,	-689,	2067,	-215,	174,
	-2583,	438,	-59,	114,	587,	-1483,	515,	-709,	-2447
};

__ro_hinv _q15 fc1_bias[] = {
	35,	-39,	6,	41,	7,	84,	75,	31,	-45,
	105,	-59,	-88,	-35,	31,	-63,	-23,	-47,	85,
	-43,	-49,	-67,	8,	-65,	-66,	-18,	49,	-75,
	62,	-58,	23,	23,	86,	-52,	114,	29,	83,
	29,	72,	3,	-82,	118,	33,	27,	-70,	60,
	-67,	84,	-65,	-91,	29,	-52,	30,	-59,	36,
	40,	-70,	85,	67,	-82,	-44,	120,	94,	-18,
	0,	-60,	111,	-96,	-45,	-47,	55,	-105,	14,
	-88,	-5,	-30,	80,	103,	72,	105,	-67,	-62,
	-80,	98,	56
};

