#include <params/include/fc2_Gemm.h>

__ro_hinv mat_t fc2_weight_meta = {
	.dims = {10, 84},
	.len_dims = 2,
	.strides = {84, 1},
	.data = (fixed *)fc2_weight
};

__ro_hinv mat_t fc2_bias_meta = {
	.dims = {1, 10},
	.len_dims = 2,
	.strides = {10, 1},
	.data = (fixed *)fc2_bias
};

__ro_hinv _q15 fc2_weight[] = {
	-544,	403,	-2563,	-125,	69,	569,	1479,	-2984,	1669,
	-2396,	-1457,	-3193,	2908,	958,	-1108,	-3155,	-622,	2670,
	1156,	-2480,	-1194,	2401,	0,	-1441,	-2038,	-3195,	477,
	2058,	-1378,	-3354,	1816,	3158,	180,	-1837,	1455,	-1122,
	1608,	2866,	-1166,	-513,	3508,	1478,	-308,	-1864,	-3205,
	-1666,	1101,	-95,	955,	-658,	-100,	878,	-637,	2137,
	1960,	1073,	-2439,	-2647,	-4063,	948,	-2034,	-673,	-308,
	-1501,	-73,	-2210,	-1124,	1024,	1177,	-1483,	-239,	-1988,
	-2538,	-3246,	334,	-3165,	460,	-2650,	-2162,	-2522,	-410,
	1324,	724,	-985,	2581,	2987,	2271,	-619,	799,	1737,
	2130,	2132,	-1245,	-2196,	460,	-519,	-4865,	-2829,	485,
	-1517,	-263,	-1566,	2984,	925,	-893,	-2853,	-543,	-689,
	2779,	798,	3400,	-597,	-2462,	1926,	-882,	-2805,	59,
	1160,	3022,	793,	-3137,	-1292,	-688,	-1388,	-1495,	2874,
	-1026,	2173,	-1305,	4175,	2528,	1512,	-1274,	-193,	-492,
	-935,	-2388,	2484,	-238,	-1454,	-2079,	-1214,	-1352,	1998,
	1494,	-2726,	-1614,	-1122,	-3,	454,	900,	694,	-1060,
	-2914,	-597,	-1379,	1238,	-1054,	-667,	-16,	-1388,	1493,
	200,	-732,	623,	-918,	-3228,	-1699,	1958,	-3191,	2293,
	-736,	1381,	-1352,	-93,	1966,	249,	-1437,	827,	-5288,
	-549,	-3419,	692,	2189,	1208,	1494,	-443,	-884,	-520,
	1882,	-798,	930,	-4924,	-3485,	1932,	628,	-2733,	1715,
	2219,	-1287,	-163,	1734,	-3617,	616,	246,	2366,	1677,
	349,	-1047,	-3202,	2027,	-161,	-3244,	831,	581,	93,
	350,	-2790,	1204,	554,	1891,	-477,	2713,	-1636,	-2829,
	-2537,	3823,	-3347,	-1885,	-2153,	1201,	1815,	-583,	-3813,
	1285,	-443,	511,	-2346,	-938,	1215,	-1390,	2462,	541,
	1260,	-2386,	2374,	1509,	126,	-1068,	19,	-1567,	-410,
	-2228,	-3048,	-2705,	191,	419,	-518,	-987,	485,	187,
	2169,	1095,	2510,	-2028,	-1305,	-1875,	-2849,	1504,	1206,
	-1942,	-2409,	-789,	1761,	7,	1030,	1562,	1383,	-1210,
	1835,	728,	112,	1452,	2578,	-955,	-711,	-1676,	1311,
	1215,	-2843,	1361,	317,	511,	816,	1357,	-2694,	1088,
	-1389,	-262,	2611,	-189,	-2631,	-1411,	1545,	-2398,	-851,
	-1258,	-2316,	1830,	1648,	-1356,	-1544,	-346,	-3315,	607,
	-1087,	-867,	-1780,	638,	280,	1435,	2918,	-674,	-2272,
	-1810,	-3107,	-1225,	130,	-3316,	2295,	1820,	3726,	1063,
	542,	-2135,	869,	-831,	3195,	-1338,	523,	-2709,	1629,
	-3339,	275,	738,	319,	283,	559,	-1436,	-3804,	-1338,
	1912,	1072,	1569,	979,	2368,	434,	-239,	2122,	-633,
	1870,	-2015,	658,	-2730,	908,	-1776,	-2134,	-1323,	1566,
	1616,	2653,	-2528,	422,	2141,	-1139,	-965,	-1696,	-4279,
	-2618,	169,	221,	-1108,	2945,	-715,	-1459,	901,	-1412,
	1100,	1597,	-640,	1828,	-1518,	2150,	1303,	2873,	-1797,
	1935,	-1192,	-85,	-2372,	-1159,	1344,	1658,	-1991,	661,
	-3097,	170,	-4,	56,	-1598,	-1748,	1834,	-814,	-112,
	-3471,	-1075,	-883,	591,	2038,	2367,	-1420,	-1780,	-2283,
	2888,	1847,	2655,	2463,	-1690,	1584,	74,	-1480,	-178,
	-1609,	2237,	-1376,	-2962,	-1777,	284,	-5208,	2847,	363,
	1376,	-3000,	-618,	-3242,	1332,	977,	-640,	-1378,	2141,
	1885,	-217,	-1242,	686,	-413,	-1971,	160,	-2123,	-1402,
	1221,	-698,	3387,	1696,	2301,	452,	-515,	-1876,	-1617,
	218,	-1254,	-591,	100,	-1080,	-2465,	-3428,	1911,	-2459,
	484,	-3936,	583,	621,	-1831,	1433,	1254,	-1864,	-558,
	23,	831,	-1917,	2516,	1751,	-3086,	2213,	2155,	-260,
	1399,	1791,	-3988,	108,	-209,	15,	-872,	-546,	-1052,
	-3831,	-355,	2919,	231,	-8,	-1057,	-1582,	-3448,	887,
	-564,	-1708,	18,	-64,	2035,	413,	-1867,	1138,	22,
	-1918,	-2683,	-697,	894,	-1719,	193,	-1719,	-1765,	-4419,
	186,	-4638,	-263,	-764,	-1329,	894,	-616,	960,	2880,
	898,	958,	-1722,	-591,	-2251,	3035,	-2649,	1919,	-400,
	-1661,	749,	-3041,	-1011,	3609,	-1497,	238,	2265,	2223,
	-2437,	-3199,	-2751,	162,	1952,	1581,	1743,	755,	-768,
	-3336,	763,	990,	1643,	-1878,	12,	-1342,	523,	-3547,
	2424,	-822,	919,	-388,	2526,	-1809,	2023,	-696,	-623,
	530,	-335,	47,	1888,	-1006,	-1478,	-2950,	-3465,	-2506,
	2503,	-1348,	-1278,	2020,	308,	-2430,	-3022,	-1856,	629,
	-2254,	1007,	-3508,	-4689,	1439,	-1075,	-3288,	-1367,	1089,
	-255,	1581,	1314,	2239,	-337,	-1645,	-3109,	2707,	1328,
	-1291,	966,	-1920,	-1496,	1278,	-1171,	28,	2443,	-639,
	1330,	2061,	364,	5642,	3248,	2420,	107,	-3546,	1843,
	-593,	-3584,	-1453,	-635,	-385,	2292,	902,	3016,	-3700,
	-1584,	456,	-623,	1599,	1441,	-205,	-911,	-948,	-897,
	-2834,	-749,	-363,	-1657,	-861,	2136,	1249,	348,	2078,
	-915,	2348,	-1702,	-788,	-2360,	-1345,	1526,	-1434,	2240,
	-1327,	2266,	-3402,	-1938,	1276,	1601,	1627,	1201,	-494,
	1505,	-641,	-507,	-2507,	-1815,	2070,	752,	-1368,	298,
	-29,	-4780,	-99,	-1326,	187,	-4315,	-2616,	176,	1765,
	-658,	683,	-1240,	3015,	-1375,	1309,	947,	-2303,	1400,
	1371,	1098,	-2389,	354,	-4229,	908,	-2355,	-4459,	-1848,
	1649,	-1576,	-5,	-1243,	-1902,	2322,	-3008,	-20,	2798,
	2767,	2574,	345,	3095,	897,	1484,	2292,	1490,	1557,
	-1052,	-1232,	801,	-1172,	-1802,	-1436,	-398,	505,	1989,
	-2116,	-230,	-531,	1134,	-2603,	1366,	-1131,	-1757,	-3354,
	2129,	-1405,	-1664,	1081,	-179,	1375,	-93,	2021,	1002,
	-4480,	-1262,	693,	1822,	-838,	-857,	246,	-394,	-545,
	2901,	-919,	-1517,	1860,	1081,	-668,	1545,	2003,	-1667,
	-2271,	992,	94,	2067,	-2050,	634,	-2762,	-1542,	-1697,
	1415,	-1246,	1207,	-715,	2204,	1395,	-4009,	-590,	1272,
	-4674,	-269,	579,	1523,	-3552,	473,	-2773,	470,	-920,
	-141,	801,	2538,	2336,	-5515,	-2256,	-134,	2060,	1289,
	1590,	882,	1287,	709,	687,	-813,	846,	-1781,	1098,
	2235,	-1977,	-1745,	-163,	-2769,	-4612,	-4089,	1888,	-1104,
	912,	-2,	-2209
};

__ro_hinv _q15 fc2_bias[] = {
	-63,	-9,	86,	-16,	78,	-51,	29,	75,	-45,
	53
};

