#include <include/data.h>

__ro_hinv mat_t input_meta = {
	.dims = {1, 6, 14, 14},
	.len_dims = 4,
	.strides = {1176, 196, 14, 1},
	.data = (fixed *)input
};

__ro_hinv mat_t weight_meta = {
	.dims = {16, 6, 5, 5},
	.len_dims = 4,
	.strides = {150, 25, 5, 1},
	.data = (fixed *)weight
};

__ro_hinv mat_t output_meta = {
	.dims = {1, 16, 10, 10},
	.len_dims = 4,
	.strides = {1600, 100, 10, 1},
	.data = (fixed *)output
};

__ro_hinv _q15 input[] = {
	598,	404,	291,	39,	-443,	91,	749,	933,	54,
	-12,	-241,	74,	623,	333,	838,	-607,	914,	-551,
	71,	358,	697,	-409,	-454,	62,	-68,	-116,	-989,
	-735,	678,	-945,	216,	-123,	-132,	-594,	-52,	628,
	705,	-421,	-176,	454,	970,	-199,	-8,	-585,	359,
	58,	-230,	233,	-637,	162,	-599,	62,	-255,	96,
	-724,	111,	-109,	725,	-995,	289,	-497,	97,	885,
	571,	-39,	-344,	-457,	475,	-614,	-728,	-570,	24,
	433,	56,	326,	-803,	312,	-506,	855,	61,	-175,
	474,	-308,	574,	-666,	347,	592,	538,	718,	434,
	-290,	-108,	-853,	783,	-439,	737,	388,	-444,	-218,
	-509,	833,	49,	-895,	-175,	-65,	-193,	-733,	-920,
	-195,	-760,	192,	494,	-820,	-417,	-83,	-548,	-133,
	463,	340,	-309,	-534,	450,	123,	404,	-544,	-511,
	-581,	555,	-637,	-58,	-44,	-505,	321,	-739,	-463,
	-685,	415,	-38,	-311,	-747,	197,	420,	387,	998,
	671,	150,	883,	26,	805,	974,	879,	30,	-675,
	725,	709,	86,	-540,	551,	773,	9,	806,	53,
	824,	-338,	74,	-207,	420,	242,	601,	740,	-934,
	-218,	-91,	-292,	-725,	-784,	6,	-844,	147,	538,
	-45,	743,	737,	429,	-689,	833,	604,	519,	-385,
	851,	-330,	-184,	-390,	394,	276,	-80,	-856,	-211,
	566,	-383,	-352,	-527,	-333,	-443,	383,	952,	455,
	-598,	491,	-171,	-846,	188,	258,	251,	290,	748,
	609,	381,	783,	686,	-416,	-398,	51,	-550,	-766,
	918,	-909,	317,	962,	731,	-867,	-634,	-72,	819,
	-294,	258,	-67,	-920,	434,	905,	-707,	-424,	424,
	832,	486,	-963,	809,	-350,	-801,	-175,	-876,	-245,
	-949,	-988,	765,	-679,	-568,	-59,	598,	-33,	-352,
	-642,	-364,	-220,	382,	-167,	986,	-189,	420,	-190,
	868,	-157,	993,	416,	632,	439,	261,	69,	-707,
	614,	-787,	785,	-554,	600,	641,	-995,	-313,	-904,
	-725,	890,	-292,	466,	359,	-89,	250,	657,	-580,
	989,	553,	444,	933,	-927,	316,	-781,	-726,	357,
	-122,	-857,	-935,	849,	-341,	-213,	13,	-791,	-554,
	501,	434,	25,	211,	-590,	951,	-73,	542,	361,
	221,	-348,	-566,	-781,	39,	681,	-443,	-41,	808,
	-876,	-14,	781,	89,	-809,	-547,	744,	361,	636,
	-870,	702,	76,	-240,	985,	862,	154,	696,	469,
	672,	-614,	-645,	13,	264,	-37,	568,	306,	-981,
	-112,	281,	473,	57,	-382,	-182,	683,	-527,	-501,
	327,	152,	-361,	186,	-263,	369,	729,	425,	-33,
	666,	-462,	435,	789,	-615,	476,	-246,	-580,	316,
	596,	203,	801,	-999,	211,	-111,	-719,	53,	587,
	-676,	440,	440,	-14,	-12,	-846,	474,	213,	768,
	133,	-815,	-575,	-574,	-800,	-243,	-320,	-462,	785,
	-139,	2,	382,	-309,	-236,	-489,	-238,	74,	-705,
	58,	-384,	-348,	595,	208,	164,	461,	-441,	-721,
	897,	-768,	292,	346,	663,	381,	-853,	-699,	496,
	-624,	-680,	563,	-143,	765,	-924,	500,	471,	694,
	838,	685,	-724,	-778,	813,	-195,	-980,	-94,	353,
	724,	-872,	-982,	-262,	-506,	-564,	667,	648,	563,
	777,	666,	280,	-42,	635,	888,	406,	467,	413,
	512,	-599,	895,	183,	-503,	-17,	-129,	982,	-581,
	87,	864,	-79,	-677,	493,	443,	-983,	664,	253,
	839,	778,	342,	-281,	-713,	31,	-969,	687,	147,
	-471,	-78,	-611,	-809,	-689,	605,	145,	837,	-82,
	-536,	-53,	-600,	-325,	-885,	-855,	-283,	790,	868,
	311,	814,	930,	-919,	-665,	704,	-756,	745,	536,
	555,	-558,	-896,	-430,	601,	-844,	947,	-540,	945,
	405,	302,	146,	779,	-823,	10,	-305,	716,	-107,
	-285,	643,	836,	87,	369,	619,	-460,	-308,	-576,
	633,	-900,	302,	350,	-573,	-524,	792,	539,	477,
	-614,	161,	-859,	844,	545,	-333,	677,	539,	880,
	592,	703,	54,	213,	-447,	55,	-220,	776,	-585,
	223,	-919,	507,	315,	-945,	365,	497,	-535,	672,
	-690,	-513,	-861,	392,	670,	-112,	-92,	-880,	397,
	-228,	-250,	232,	700,	39,	201,	875,	201,	-106,
	-696,	970,	-766,	-767,	75,	-617,	-73,	-732,	914,
	-244,	979,	-204,	585,	-468,	-612,	-930,	52,	-784,
	-156,	397,	-532,	673,	-865,	-943,	284,	129,	-492,
	101,	-807,	-401,	-174,	-182,	19,	627,	766,	-480,
	-649,	77,	508,	-765,	-978,	-872,	808,	54,	-371,
	727,	-458,	-227,	-784,	775,	478,	-105,	114,	538,
	-517,	283,	341,	-405,	596,	978,	187,	-872,	131,
	-802,	324,	-371,	-700,	-206,	-56,	987,	266,	-505,
	-976,	-296,	-743,	367,	-100,	-52,	-310,	974,	723,
	-895,	-214,	-4,	-816,	-773,	-91,	-3,	-984,	-790,
	862,	-955,	956,	390,	-12,	-40,	521,	-145,	-883,
	-573,	691,	60,	76,	891,	411,	-175,	-23,	543,
	-602,	130,	-48,	-187,	484,	-13,	197,	462,	433,
	828,	-463,	900,	-411,	-385,	134,	258,	251,	681,
	-453,	920,	-212,	726,	683,	-25,	-110,	754,	462,
	976,	759,	643,	936,	210,	433,	-232,	-615,	362,
	196,	-357,	784,	200,	-110,	2,	428,	-798,	-929,
	262,	429,	-51,	-838,	901,	-627,	849,	858,	-971,
	-423,	-495,	255,	417,	322,	-578,	339,	-672,	432,
	364,	550,	-103,	-474,	-490,	-272,	431,	828,	613,
	-922,	-274,	351,	-883,	837,	-722,	341,	-533,	81,
	-521,	-121,	-22,	993,	346,	740,	-949,	613,	343,
	694,	993,	-133,	-391,	-444,	947,	-721,	617,	88,
	180,	736,	-482,	398,	310,	43,	-589,	-865,	181,
	-363,	-744,	-864,	-21,	-645,	-723,	-445,	597,	781,
	273,	-90,	-947,	0,	695,	755,	439,	-346,	-945,
	-698,	965,	-145,	490,	683,	194,	-369,	984,	141,
	-648,	139,	-749,	824,	-584,	841,	-716,	422,	108,
	-890,	-810,	722,	596,	-838,	157,	-508,	970,	-131,
	242,	-621,	275,	450,	-226,	507,	861,	-577,	-403,
	373,	78,	-908,	-639,	-899,	36,	671,	426,	903,
	109,	711,	-908,	699,	394,	-5,	-690,	-801,	-625,
	41,	577,	487,	204,	-298,	508,	-728,	-342,	-464,
	733,	-736,	-760,	530,	-241,	-283,	928,	153,	-384,
	537,	494,	-972,	-597,	-281,	632,	603,	282,	-949,
	930,	-628,	321,	-349,	-388,	-362,	66,	-402,	-241,
	-712,	-812,	941,	512,	-911,	-464,	54,	930,	-645,
	439,	181,	-822,	-759,	18,	-528,	-511,	-323,	969,
	-901,	-854,	303,	-87,	-157,	135,	250,	-284,	516,
	-419,	-529,	-38,	195,	-513,	-625,	737,	-114,	630,
	-411,	-632,	-560,	940,	700,	-693,	-597,	-412,	-174,
	-212,	626,	-794,	-972,	765,	-231,	171,	501,	-207,
	60,	-184,	-592,	-40,	-605,	-837,	391,	-457,	-862,
	594,	-606,	233,	48,	772,	-581,	104,	600,	-240,
	-979,	-208,	-228,	-52,	624,	804,	418,	-289,	-915,
	632,	-881,	392,	-698,	-166,	490,	-522,	782,	964,
	-395,	-638,	261,	688,	203,	-234,	857,	-926,	830,
	671,	867,	268,	-573,	327,	414,	139,	-924,	-828,
	502,	693,	353,	4,	-880,	-228,	-821,	-868,	326,
	-969,	-959,	41,	-524,	-16,	514,	-582,	-634,	690,
	147,	594,	-763,	-258,	745,	492,	-665,	952,	-985,
	91,	-673,	880,	690,	-247,	279,	-232,	789,	499,
	-323,	676,	747,	-732,	-422,	-814,	-180,	638,	865,
	-245,	711,	400,	-520,	-833,	-60,	-533,	71,	166,
	11,	-597,	-789,	814,	192,	677,	748,	-282,	-592,
	110,	80,	-368,	-553,	495,	505,	380,	150,	82,
	776,	-767,	-451,	283,	-606,	674,	-29,	40,	320,
	-781,	133,	-964,	-219,	-425,	-472,	-405,	156,	487,
	401,	-912,	615,	-938,	-426,	-145,	-912,	575,	881,
	412,	880,	185,	144,	-225,	-159,	646,	544,	312,
	-190,	-672,	242,	500,	-645,	-890,	-559,	845,	254,
	11,	934,	317,	795,	821,	-632,	913,	867,	851,
	876,	933,	-953,	216,	-180,	-467
};

__ro_hinv _q15 weight[] = {
	-692,	516,	948,	-627,	596,	768,	480,	685,	-357,
	-516,	-913,	10,	638,	-282,	-78,	416,	-148,	357,
	-105,	-952,	844,	395,	-930,	162,	945,	-678,	-818,
	285,	-956,	-506,	-893,	-76,	273,	232,	-276,	754,
	-757,	187,	431,	248,	723,	797,	145,	886,	94,
	-573,	327,	381,	-406,	-652,	-927,	-357,	305,	950,
	-847,	516,	2,	-800,	-320,	650,	411,	902,	278,
	160,	-791,	-889,	268,	-848,	603,	-720,	-712,	904,
	-643,	-121,	-535,	-182,	-208,	-895,	608,	135,	843,
	304,	-566,	-244,	-440,	160,	284,	-652,	67,	-991,
	489,	121,	483,	-177,	629,	703,	-179,	-477,	-62,
	-681,	-483,	-347,	511,	-709,	100,	-817,	-604,	-763,
	363,	275,	-668,	-476,	-747,	377,	657,	-21,	872,
	68,	-104,	-835,	-128,	155,	-8,	-386,	588,	-927,
	-873,	17,	706,	580,	-252,	-493,	-840,	-892,	-911,
	943,	762,	-643,	-804,	880,	2,	-828,	650,	817,
	245,	-3,	-602,	-381,	-732,	-514,	-602,	-752,	-196,
	-73,	956,	144,	361,	538,	-302,	-443,	799,	-644,
	-581,	-108,	340,	-301,	-414,	-35,	-383,	657,	382,
	939,	198,	315,	-506,	-454,	-121,	542,	-846,	875,
	143,	-973,	782,	-439,	415,	928,	-843,	234,	-91,
	657,	-387,	308,	-365,	165,	674,	209,	228,	-256,
	434,	444,	-825,	-693,	-106,	-505,	-281,	-150,	-543,
	-824,	961,	-423,	-760,	888,	-961,	-614,	539,	80,
	-190,	-188,	3,	-1,	-461,	912,	894,	-936,	-28,
	440,	676,	755,	91,	-672,	574,	-992,	998,	735,
	-702,	873,	-159,	-483,	457,	-802,	869,	-817,	-413,
	-281,	-222,	409,	980,	-729,	-53,	720,	257,	992,
	-957,	-733,	-840,	24,	67,	417,	-776,	884,	579,
	909,	-529,	-399,	-419,	973,	-660,	-986,	-898,	829,
	351,	113,	42,	341,	-6,	369,	182,	-104,	-538,
	313,	-149,	-354,	914,	-291,	916,	477,	-964,	440,
	737,	295,	595,	-550,	592,	765,	-884,	115,	858,
	21,	184,	750,	902,	348,	929,	956,	-42,	-172,
	-297,	-148,	-796,	369,	-951,	-124,	48,	-642,	-703,
	5,	-220,	784,	-293,	727,	-846,	-636,	751,	-732,
	-800,	-676,	864,	-657,	119,	-319,	426,	288,	-241,
	-122,	-322,	337,	736,	991,	-531,	-116,	-912,	-218,
	668,	-605,	473,	805,	-940,	116,	-410,	240,	77,
	507,	-556,	228,	364,	-611,	-353,	718,	755,	-32,
	-992,	530,	-890,	-16,	-117,	-436,	-597,	77,	-404,
	-43,	9,	665,	703,	-712,	-872,	28,	-30,	-355,
	746,	949,	-481,	-471,	-785,	847,	-862,	-696,	-610,
	-572,	-558,	-986,	-229,	342,	219,	-378,	701,	434,
	-892,	-69,	731,	207,	-951,	-864,	322,	-932,	-947,
	-750,	-467,	-481,	342,	-375,	-718,	50,	534,	575,
	414,	327,	-1,	933,	-168,	772,	-994,	201,	127,
	589,	-359,	214,	-205,	-849,	492,	-455,	-190,	161,
	228,	448,	-112,	-991,	399,	-53,	-297,	-403,	308,
	744,	936,	889,	-630,	-595,	911,	483,	-200,	-151,
	155,	11,	245,	-503,	-753,	446,	22,	32,	614,
	845,	558,	504,	-239,	-209,	-370,	-686,	275,	850,
	151,	626,	-166,	-526,	-571,	73,	882,	-763,	-270,
	-545,	-908,	-599,	343,	830,	868,	810,	-244,	-46,
	264,	-954,	619,	844,	-637,	-178,	74,	-441,	69,
	311,	580,	-227,	-918,	776,	-136,	-300,	848,	-200,
	120,	-351,	-269,	-950,	33,	550,	736,	563,	821,
	-567,	-674,	868,	-302,	708,	-694,	180,	-374,	-171,
	339,	830,	205,	-164,	194,	-362,	567,	44,	-317,
	374,	189,	-618,	-224,	-442,	928,	123,	813,	-541,
	-421,	568,	-982,	622,	48,	-350,	-435,	-494,	44,
	460,	875,	-981,	381,	360,	-822,	610,	551,	-346,
	179,	40,	395,	-684,	-877,	-984,	-121,	699,	376,
	560,	-801,	-307,	-937,	197,	-777,	992,	991,	-288,
	-21,	-106,	381,	-753,	-583,	898,	49,	-486,	275,
	851,	484,	-174,	-834,	485,	819,	-35,	653,	265,
	-553,	720,	13,	-158,	840,	-420,	-880,	-772,	38,
	190,	-115,	-727,	434,	888,	-174,	-81,	-558,	-235,
	-355,	372,	643,	-852,	909,	-566,	-877,	718,	-102,
	-130,	-299,	588,	987,	-780,	756,	-135,	-233,	-651,
	6,	-372,	-486,	-744,	936,	-647,	461,	-238,	1,
	-330,	-626,	53,	-252,	-99,	171,	985,	555,	-590,
	-609,	-884,	-818,	710,	-666,	858,	165,	-735,	-31,
	819,	480,	-182,	-567,	665,	-781,	-836,	-747,	544,
	585,	-899,	-62,	391,	-21,	-34,	-484,	-442,	80,
	10,	-716,	-910,	925,	281,	-458,	945,	424,	24,
	714,	-766,	-496,	-944,	815,	209,	255,	-682,	-999,
	-484,	374,	-446,	849,	661,	-667,	313,	579,	-294,
	-59,	800,	-792,	-535,	-398,	-830,	-405,	-724,	-829,
	-290,	577,	263,	93,	808,	-744,	610,	-416,	439,
	-230,	-705,	558,	115,	-973,	689,	-510,	-407,	275,
	-646,	-321,	9,	-303,	-610,	-236,	421,	419,	254,
	-985,	870,	-595,	729,	435,	-782,	268,	-653,	891,
	68,	-678,	511,	347,	-646,	-896,	384,	-94,	-620,
	-553,	516,	569,	-112,	-473,	-160,	-394,	-529,	692,
	-530,	-153,	-623,	243,	306,	384,	607,	160,	412,
	-366,	-811,	111,	-221,	698,	-655,	-644,	-907,	-909,
	-357,	147,	768,	-283,	692,	-344,	231,	172,	152,
	499,	-475,	733,	-862,	904,	984,	647,	-407,	414,
	829,	-747,	-532,	-923,	148,	944,	320,	135,	-953,
	677,	648,	-865,	-674,	-668,	148,	619,	979,	226,
	-695,	934,	-919,	411,	-564,	-901,	717,	154,	-769,
	369,	-200,	-212,	376,	910,	445,	758,	-837,	-360,
	592,	34,	-890,	-389,	204,	-133,	335,	842,	548,
	-93,	-329,	-595,	629,	279,	170,	-129,	-57,	945,
	76,	-679,	-218,	-579,	-836,	-670,	159,	-117,	267,
	-245,	-443,	109,	439,	-685,	359,	25,	248,	-860,
	19,	125,	330,	-510,	-202,	-816,	-40,	-655,	402,
	-348,	376,	-973,	958,	105,	-472,	-241,	702,	375,
	-48,	-816,	718,	-352,	641,	-569,	-79,	-706,	879,
	532,	232,	87,	204,	578,	280,	-466,	-714,	-671,
	702,	-726,	-378,	477,	163,	480,	-29,	90,	398,
	17,	662,	540,	-224,	-533,	-317,	133,	-487,	-47,
	593,	320,	-631,	-327,	-285,	-513,	-158,	609,	-630,
	-984,	-133,	519,	-284,	587,	625,	291,	-602,	378,
	69,	801,	465,	-696,	419,	-680,	-238,	-46,	-150,
	322,	-759,	176,	664,	-954,	705,	200,	-347,	-317,
	-23,	-717,	12,	985,	-37,	219,	52,	578,	-322,
	35,	399,	161,	272,	-462,	518,	110,	408,	748,
	77,	693,	662,	-615,	823,	-206,	-229,	908,	791,
	-191,	453,	481,	-250,	-919,	755,	-887,	146,	535,
	-986,	-202,	657,	-554,	-385,	-644,	269,	877,	693,
	-572,	-194,	979,	743,	-86,	-300,	-784,	-295,	338,
	687,	599,	-549,	722,	565,	-405,	-376,	-657,	-729,
	849,	523,	538,	175,	361,	-391,	-206,	-233,	600,
	-24,	342,	77,	-431,	345,	-692,	442,	312,	-692,
	-629,	-360,	873,	186,	-757,	556,	269,	238,	-661,
	-923,	-103,	485,	993,	-702,	-15,	780,	132,	-529,
	-17,	-131,	-923,	-708,	174,	-59,	-393,	364,	-730,
	-784,	-483,	581,	-896,	-23,	-930,	-932,	675,	-765,
	-39,	-193,	-419,	980,	-158,	79,	-952,	-358,	-491,
	237,	454,	410,	-464,	3,	-947,	-261,	-527,	-849,
	-271,	22,	825,	-460,	599,	186,	233,	850,	761,
	-59,	530,	334,	803,	398,	340,	-560,	-288,	-982,
	753,	-472,	-279,	-389,	-283,	-524,	-936,	-982,	-573,
	497,	-202,	-94,	176,	658,	-526,	-977,	-909,	-528,
	590,	-999,	-602,	-948,	-804,	494,	-238,	392,	-424,
	284,	-179,	-583,	15,	-879,	-353,	-947,	-880,	-84,
	-678,	-957,	-344,	259,	-96,	455,	-594,	-499,	-824,
	-273,	-494,	-978,	-776,	-426,	750,	-1,	650,	-887,
	-584,	-178,	-525,	-354,	151,	261,	720,	902,	92,
	-549,	91,	-154,	489,	-673,	-807,	-726,	-687,	213,
	673,	669,	486,	618,	-515,	694,	-421,	-896,	-447,
	809,	-196,	-907,	-945,	225,	-542,	-159,	-878,	-228,
	928,	2,	399,	-698,	-118,	157,	770,	-42,	36,
	-575,	-37,	-110,	-183,	651,	421,	-991,	-54,	178,
	-483,	39,	-671,	-190,	-258,	739,	540,	-700,	-802,
	-897,	213,	106,	833,	256,	711,	765,	-917,	-994,
	-710,	-476,	-202,	-487,	104,	-842,	-458,	745,	-135,
	-471,	499,	-492,	723,	-543,	-980,	-615,	-453,	-846,
	150,	87,	969,	-407,	499,	-723,	589,	731,	-793,
	847,	-510,	572,	400,	171,	-705,	286,	-787,	-251,
	-942,	-586,	-496,	-780,	118,	-2,	-599,	-330,	-888,
	-347,	976,	-136,	956,	92,	593,	-594,	745,	656,
	-116,	914,	790,	-510,	-588,	-802,	-831,	921,	-260,
	78,	-863,	-334,	87,	232,	-63,	-463,	615,	930,
	508,	-99,	222,	-45,	-809,	-311,	191,	-384,	178,
	-389,	-951,	-27,	-534,	530,	-966,	-959,	-772,	-297,
	-512,	208,	-399,	-536,	735,	673,	-332,	57,	-50,
	-700,	219,	-927,	198,	532,	-132,	366,	607,	130,
	-57,	942,	-948,	172,	990,	-690,	718,	-839,	541,
	-83,	115,	119,	152,	868,	204,	2,	-532,	-836,
	-59,	-297,	-748,	-700,	-35,	-43,	173,	-103,	-50,
	558,	127,	999,	224,	-797,	-978,	515,	807,	-444,
	-300,	995,	566,	852,	733,	-339,	832,	-467,	-613,
	-124,	-588,	586,	637,	755,	-668,	-811,	323,	-955,
	-673,	-296,	382,	-433,	642,	489,	-821,	881,	632,
	748,	-36,	25,	-930,	937,	159,	122,	71,	616,
	612,	-84,	630,	751,	254,	773,	-772,	326,	-468,
	-406,	421,	696,	440,	-944,	688,	-486,	99,	-253,
	439,	26,	-272,	-535,	-94,	374,	390,	609,	-993,
	248,	-737,	98,	586,	-567,	16,	-606,	-1,	-833,
	-919,	-932,	122,	-953,	-824,	153,	-767,	135,	-644,
	-906,	819,	917,	776,	-790,	-508,	152,	-761,	539,
	662,	207,	-399,	606,	996,	-159,	421,	-955,	-340,
	-375,	129,	930,	-103,	-662,	-935,	-895,	-225,	-278,
	-595,	-137,	-553,	637,	292,	-429,	956,	795,	435,
	706,	-422,	-472,	78,	90,	166,	-2,	-777,	-149,
	200,	150,	-228,	381,	212,	339,	-150,	-769,	364,
	334,	-539,	-460,	-618,	-803,	-134,	516,	9,	-360,
	-42,	-507,	690,	583,	350,	533,	601,	588,	-87,
	720,	-864,	-416,	584,	-758,	609,	-192,	-229,	-741,
	817,	-905,	-259,	982,	239,	214,	-323,	-352,	889,
	533,	-220,	355,	-11,	-810,	-539,	-59,	-173,	319,
	-292,	-758,	-977,	257,	182,	274,	-58,	-305,	-768,
	330,	-652,	609,	129,	-187,	-447,	843,	-864,	-853,
	296,	-100,	-238,	837,	81,	601,	-196,	-435,	507,
	-798,	-755,	-745,	-403,	580,	-153,	-322,	-760,	-589,
	939,	606,	665,	-889,	306,	-357,	-649,	-316,	-827,
	591,	419,	-86,	265,	866,	881,	-260,	121,	-275,
	-647,	-411,	675,	121,	926,	842,	-800,	69,	678,
	-623,	-870,	671,	139,	84,	285,	-1,	804,	-596,
	200,	-622,	-676,	824,	-163,	464,	-252,	-533,	-547,
	844,	-991,	506,	175,	-437,	-233,	634,	415,	166,
	-33,	-12,	786,	-905,	880,	-806,	475,	713,	617,
	31,	563,	109,	-126,	-785,	-484,	872,	993,	673,
	783,	-863,	43,	-463,	-587,	307,	374,	-229,	540,
	-146,	-371,	337,	-538,	747,	-681,	785,	-955,	556,
	-320,	-342,	-31,	838,	-28,	579,	-214,	-761,	557,
	-6,	-9,	-95,	930,	0,	774,	71,	930,	-788,
	759,	261,	530,	-169,	337,	331,	453,	-759,	-89,
	-511,	785,	87,	-414,	-663,	-964,	-153,	-810,	570,
	-730,	-69,	-798,	300,	400,	889,	506,	830,	-485,
	-341,	-163,	667,	-304,	-33,	-539,	-495,	-21,	-142,
	814,	645,	-536,	-619,	81,	-631,	-971,	-112,	-710,
	-658,	615,	-895,	-55,	205,	-188,	233,	-84,	411,
	180,	71,	-766,	-319,	-234,	-294,	249,	936,	-691,
	847,	-61,	-827,	-819,	411,	-953,	876,	-518,	-680,
	445,	714,	-770,	511,	-537,	-279,	-980,	-240,	-241,
	785,	859,	-205,	473,	571,	970,	-293,	-182,	-354,
	-291,	-225,	523,	-382,	-97,	-152,	-420,	-796,	-269,
	-736,	906,	-234,	-332,	-873,	183,	-959,	-8,	333,
	468,	373,	-3,	-500,	934,	-305,	283,	748,	195,
	-337,	-671,	-933,	-581,	315,	-201,	738,	978,	-221,
	318,	-707,	-192,	-732,	470,	-34,	-792,	-800,	172,
	-882,	497,	919,	681,	652,	255,	554,	-908,	-812,
	-61,	-75,	-796,	69,	970,	684,	-166,	680,	758,
	283,	-485,	680,	-848,	9,	373,	949,	212,	607,
	-396,	-701,	-7,	187,	-606,	-983,	832,	-161,	126,
	802,	-11,	9,	-326,	712,	346,	-969,	407,	577,
	-943,	112,	-837,	213,	395,	682,	761,	287,	-501,
	-553,	466,	-576,	319,	-897,	122,	46,	-306,	-982,
	131,	-547,	726,	-527,	442,	-763,	-472,	646,	39,
	674,	-10,	-639,	-221,	-42,	697,	553,	519,	992,
	503,	765,	-476,	-809,	988,	-14,	675,	-839,	757,
	-502,	-206,	-734,	325,	290,	932,	156,	87,	-172,
	-346,	351,	-206,	-62,	376,	149,	-341,	818,	-313,
	-562,	897,	793,	937,	333,	831,	-622,	-15,	720,
	-43,	-516,	-345,	212,	-253,	-377,	761,	662,	899,
	373,	-907,	385,	252,	-34,	338,	-562,	847,	566,
	-724,	-116,	488,	-773,	-928,	304,	-317,	802,	278,
	-181,	209,	-458,	-262,	156,	100,	642,	-879,	-728,
	-193,	-587,	-20,	415,	-597,	315,	341,	351,	-92,
	803,	23,	227,	-790,	496,	334,	-67,	547,	-967,
	-764,	-900,	582,	987,	180,	-740,	321,	-242,	917,
	-815,	924,	-49,	480,	-112,	895,	979,	861,	-335,
	855,	-307,	481,	985,	-442,	533,	-94,	918,	-68,
	-10,	809,	228,	-647,	191,	870,	-204,	-800,	983,
	826,	591,	81,	796,	-684,	-602,	-852,	106,	176,
	318,	442,	233,	781,	-257,	-976,	551,	388,	255,
	-622,	85,	-711,	442,	871,	-499,	-925,	-848,	673,
	-348,	-888,	-61,	928,	-488,	-434,	-948,	483,	973,
	245,	-230,	912,	377,	321,	-57,	65,	327,	-661,
	-636,	-905,	537,	-441,	-982,	-106,	-567,	-206,	-593,
	-649,	350,	-591,	-535,	29,	-131,	377,	-428,	459,
	568,	-218,	-158,	-902,	-972,	-154,	621,	71,	39,
	59,	-25,	-667,	-869,	-793,	-401,	796,	-500,	-733,
	-902,	-104,	-311,	474,	77,	658,	-418,	-791,	-641,
	-626,	279,	505,	-394,	-782,	157,	298,	154,	998,
	401,	-900,	267,	628,	316,	-405,	982,	111,	-202,
	666,	553,	656,	978,	-740,	676,	-821,	763,	-462,
	-13,	938,	-521,	-472,	387,	-946,	780,	-529,	-721,
	209,	-750,	62,	94,	842,	650,	-759,	991,	282,
	420,	85,	-146,	-411,	-556,	-18,	529,	-458,	488,
	-542,	-28,	-215,	-571,	-620,	-643,	-238,	332,	866,
	591,	501,	-705,	-873,	322,	-213,	100,	733,	-813,
	373,	70,	102,	665,	-649,	-137,	-178,	-461,	-593,
	-304,	-252,	253,	613,	585,	435,	212,	-166,	652,
	609,	-839,	-488,	432,	-792,	-421,	-243,	213,	363,
	462,	832,	219,	-222,	276,	-729,	-205,	39,	479,
	58,	259,	-773,	442,	-872,	-21,	-811,	291,	606,
	-586,	-934,	-295,	140,	118,	-580,	-75,	21,	888,
	148,	-286,	-616,	464,	-560,	-626,	-195,	849,	-650,
	114,	-88,	-45,	171,	-492,	107,	510,	641,	-218,
	-758,	581,	-490,	534,	-476,	-733,	743,	256,	-586,
	-995,	761,	419,	437,	-1,	498,	810,	-9,	181,
	859,	-355,	-355,	-541,	956,	-634,	-576,	466,	487,
	-244,	-712,	394,	-240,	-253,	305,	40,	939,	-508,
	-90,	168,	-811,	-428,	-415,	-500,	-173,	-557,	793,
	-628,	630,	954,	-629,	-430,	777,	-176,	-820,	-877,
	-191,	622,	367,	111,	364,	866,	780,	223,	782,
	611,	-485,	-110,	-145,	-205,	-700,	328,	534,	-860,
	653,	-62,	-117,	-549,	-449,	-162,	-654,	-876,	-653,
	407,	533,	-756,	-257,	-500,	915,	-430,	245,	722,
	-800,	639,	892,	767,	-355,	-285,	-589,	380,	-114,
	-732,	-413,	-459,	-769,	673,	-68,	-462,	442,	-678,
	-405,	-240,	-194,	10,	957,	-71
};

__ro_hinv _q15 output[] = {
	0,	0,	0,	0,	0,	0,	0,	0,	0,
	0,	0,	0,	0,	0,	0,	0,	0,	0,
	0,	0,	0,	0,	0,	0,	0,	0,	0,
	0,	0,	0,	0,	0,	0,	0,	0,	0,
	0,	0,	0,	0,	0,	0,	0,	0,	0,
	0,	0,	0,	0,	0,	0,	0,	0,	0,
	0,	0,	0,	0,	0,	0,	0,	0,	0,
	0,	0,	0,	0,	0,	0,	0,	0,	0,
	0,	0,	0,	0,	0,	0,	0,	0,	0,
	0,	0,	0,	0,	0,	0,	0,	0,	0,
	0,	0,	0,	0,	0,	0,	0,	0,	0,
	0,	0,	0,	0,	0,	0,	0,	0,	0,
	0,	0,	0,	0,	0,	0,	0,	0,	0,
	0,	0,	0,	0,	0,	0,	0,	0,	0,
	0,	0,	0,	0,	0,	0,	0,	0,	0,
	0,	0,	0,	0,	0,	0,	0,	0,	0,
	0,	0,	0,	0,	0,	0,	0,	0,	0,
	0,	0,	0,	0,	0,	0,	0,	0,	0,
	0,	0,	0,	0,	0,	0,	0,	0,	0,
	0,	0,	0,	0,	0,	0,	0,	0,	0,
	0,	0,	0,	0,	0,	0,	0,	0,	0,
	0,	0,	0,	0,	0,	0,	0,	0,	0,
	0,	0,	0,	0,	0,	0,	0,	0,	0,
	0,	0,	0,	0,	0,	0,	0,	0,	0,
	0,	0,	0,	0,	0,	0,	0,	0,	0,
	0,	0,	0,	0,	0,	0,	0,	0,	0,
	0,	0,	0,	0,	0,	0,	0,	0,	0,
	0,	0,	0,	0,	0,	0,	0,	0,	0,
	0,	0,	0,	0,	0,	0,	0,	0,	0,
	0,	0,	0,	0,	0,	0,	0,	0,	0,
	0,	0,	0,	0,	0,	0,	0,	0,	0,
	0,	0,	0,	0,	0,	0,	0,	0,	0,
	0,	0,	0,	0,	0,	0,	0,	0,	0,
	0,	0,	0,	0,	0,	0,	0,	0,	0,
	0,	0,	0,	0,	0,	0,	0,	0,	0,
	0,	0,	0,	0,	0,	0,	0,	0,	0,
	0,	0,	0,	0,	0,	0,	0,	0,	0,
	0,	0,	0,	0,	0,	0,	0,	0,	0,
	0,	0,	0,	0,	0,	0,	0,	0,	0,
	0,	0,	0,	0,	0,	0,	0,	0,	0,
	0,	0,	0,	0,	0,	0,	0,	0,	0,
	0,	0,	0,	0,	0,	0,	0,	0,	0,
	0,	0,	0,	0,	0,	0,	0,	0,	0,
	0,	0,	0,	0,	0,	0,	0,	0,	0,
	0,	0,	0,	0,	0,	0,	0,	0,	0,
	0,	0,	0,	0,	0,	0,	0,	0,	0,
	0,	0,	0,	0,	0,	0,	0,	0,	0,
	0,	0,	0,	0,	0,	0,	0,	0,	0,
	0,	0,	0,	0,	0,	0,	0,	0,	0,
	0,	0,	0,	0,	0,	0,	0,	0,	0,
	0,	0,	0,	0,	0,	0,	0,	0,	0,
	0,	0,	0,	0,	0,	0,	0,	0,	0,
	0,	0,	0,	0,	0,	0,	0,	0,	0,
	0,	0,	0,	0,	0,	0,	0,	0,	0,
	0,	0,	0,	0,	0,	0,	0,	0,	0,
	0,	0,	0,	0,	0,	0,	0,	0,	0,
	0,	0,	0,	0,	0,	0,	0,	0,	0,
	0,	0,	0,	0,	0,	0,	0,	0,	0,
	0,	0,	0,	0,	0,	0,	0,	0,	0,
	0,	0,	0,	0,	0,	0,	0,	0,	0,
	0,	0,	0,	0,	0,	0,	0,	0,	0,
	0,	0,	0,	0,	0,	0,	0,	0,	0,
	0,	0,	0,	0,	0,	0,	0,	0,	0,
	0,	0,	0,	0,	0,	0,	0,	0,	0,
	0,	0,	0,	0,	0,	0,	0,	0,	0,
	0,	0,	0,	0,	0,	0,	0,	0,	0,
	0,	0,	0,	0,	0,	0,	0,	0,	0,
	0,	0,	0,	0,	0,	0,	0,	0,	0,
	0,	0,	0,	0,	0,	0,	0,	0,	0,
	0,	0,	0,	0,	0,	0,	0,	0,	0,
	0,	0,	0,	0,	0,	0,	0,	0,	0,
	0,	0,	0,	0,	0,	0,	0,	0,	0,
	0,	0,	0,	0,	0,	0,	0,	0,	0,
	0,	0,	0,	0,	0,	0,	0,	0,	0,
	0,	0,	0,	0,	0,	0,	0,	0,	0,
	0,	0,	0,	0,	0,	0,	0,	0,	0,
	0,	0,	0,	0,	0,	0,	0,	0,	0,
	0,	0,	0,	0,	0,	0,	0,	0,	0,
	0,	0,	0,	0,	0,	0,	0,	0,	0,
	0,	0,	0,	0,	0,	0,	0,	0,	0,
	0,	0,	0,	0,	0,	0,	0,	0,	0,
	0,	0,	0,	0,	0,	0,	0,	0,	0,
	0,	0,	0,	0,	0,	0,	0,	0,	0,
	0,	0,	0,	0,	0,	0,	0,	0,	0,
	0,	0,	0,	0,	0,	0,	0,	0,	0,
	0,	0,	0,	0,	0,	0,	0,	0,	0,
	0,	0,	0,	0,	0,	0,	0,	0,	0,
	0,	0,	0,	0,	0,	0,	0,	0,	0,
	0,	0,	0,	0,	0,	0,	0,	0,	0,
	0,	0,	0,	0,	0,	0,	0,	0,	0,
	0,	0,	0,	0,	0,	0,	0,	0,	0,
	0,	0,	0,	0,	0,	0,	0,	0,	0,
	0,	0,	0,	0,	0,	0,	0,	0,	0,
	0,	0,	0,	0,	0,	0,	0,	0,	0,
	0,	0,	0,	0,	0,	0,	0,	0,	0,
	0,	0,	0,	0,	0,	0,	0,	0,	0,
	0,	0,	0,	0,	0,	0,	0,	0,	0,
	0,	0,	0,	0,	0,	0,	0,	0,	0,
	0,	0,	0,	0,	0,	0,	0,	0,	0,
	0,	0,	0,	0,	0,	0,	0,	0,	0,
	0,	0,	0,	0,	0,	0,	0,	0,	0,
	0,	0,	0,	0,	0,	0,	0,	0,	0,
	0,	0,	0,	0,	0,	0,	0,	0,	0,
	0,	0,	0,	0,	0,	0,	0,	0,	0,
	0,	0,	0,	0,	0,	0,	0,	0,	0,
	0,	0,	0,	0,	0,	0,	0,	0,	0,
	0,	0,	0,	0,	0,	0,	0,	0,	0,
	0,	0,	0,	0,	0,	0,	0,	0,	0,
	0,	0,	0,	0,	0,	0,	0,	0,	0,
	0,	0,	0,	0,	0,	0,	0,	0,	0,
	0,	0,	0,	0,	0,	0,	0,	0,	0,
	0,	0,	0,	0,	0,	0,	0,	0,	0,
	0,	0,	0,	0,	0,	0,	0,	0,	0,
	0,	0,	0,	0,	0,	0,	0,	0,	0,
	0,	0,	0,	0,	0,	0,	0,	0,	0,
	0,	0,	0,	0,	0,	0,	0,	0,	0,
	0,	0,	0,	0,	0,	0,	0,	0,	0,
	0,	0,	0,	0,	0,	0,	0,	0,	0,
	0,	0,	0,	0,	0,	0,	0,	0,	0,
	0,	0,	0,	0,	0,	0,	0,	0,	0,
	0,	0,	0,	0,	0,	0,	0,	0,	0,
	0,	0,	0,	0,	0,	0,	0,	0,	0,
	0,	0,	0,	0,	0,	0,	0,	0,	0,
	0,	0,	0,	0,	0,	0,	0,	0,	0,
	0,	0,	0,	0,	0,	0,	0,	0,	0,
	0,	0,	0,	0,	0,	0,	0,	0,	0,
	0,	0,	0,	0,	0,	0,	0,	0,	0,
	0,	0,	0,	0,	0,	0,	0,	0,	0,
	0,	0,	0,	0,	0,	0,	0,	0,	0,
	0,	0,	0,	0,	0,	0,	0,	0,	0,
	0,	0,	0,	0,	0,	0,	0,	0,	0,
	0,	0,	0,	0,	0,	0,	0,	0,	0,
	0,	0,	0,	0,	0,	0,	0,	0,	0,
	0,	0,	0,	0,	0,	0,	0,	0,	0,
	0,	0,	0,	0,	0,	0,	0,	0,	0,
	0,	0,	0,	0,	0,	0,	0,	0,	0,
	0,	0,	0,	0,	0,	0,	0,	0,	0,
	0,	0,	0,	0,	0,	0,	0,	0,	0,
	0,	0,	0,	0,	0,	0,	0,	0,	0,
	0,	0,	0,	0,	0,	0,	0,	0,	0,
	0,	0,	0,	0,	0,	0,	0,	0,	0,
	0,	0,	0,	0,	0,	0,	0,	0,	0,
	0,	0,	0,	0,	0,	0,	0,	0,	0,
	0,	0,	0,	0,	0,	0,	0,	0,	0,
	0,	0,	0,	0,	0,	0,	0,	0,	0,
	0,	0,	0,	0,	0,	0,	0,	0,	0,
	0,	0,	0,	0,	0,	0,	0,	0,	0,
	0,	0,	0,	0,	0,	0,	0,	0,	0,
	0,	0,	0,	0,	0,	0,	0,	0,	0,
	0,	0,	0,	0,	0,	0,	0,	0,	0,
	0,	0,	0,	0,	0,	0,	0,	0,	0,
	0,	0,	0,	0,	0,	0,	0,	0,	0,
	0,	0,	0,	0,	0,	0,	0,	0,	0,
	0,	0,	0,	0,	0,	0,	0,	0,	0,
	0,	0,	0,	0,	0,	0,	0,	0,	0,
	0,	0,	0,	0,	0,	0,	0,	0,	0,
	0,	0,	0,	0,	0,	0,	0,	0,	0,
	0,	0,	0,	0,	0,	0,	0,	0,	0,
	0,	0,	0,	0,	0,	0,	0,	0,	0,
	0,	0,	0,	0,	0,	0,	0,	0,	0,
	0,	0,	0,	0,	0,	0,	0,	0,	0,
	0,	0,	0,	0,	0,	0,	0,	0,	0,
	0,	0,	0,	0,	0,	0,	0,	0,	0,
	0,	0,	0,	0,	0,	0,	0,	0,	0,
	0,	0,	0,	0,	0,	0,	0,	0,	0,
	0,	0,	0,	0,	0,	0,	0,	0,	0,
	0,	0,	0,	0,	0,	0,	0,	0,	0,
	0,	0,	0,	0,	0,	0,	0,	0,	0,
	0,	0,	0,	0,	0,	0,	0,	0,	0,
	0,	0,	0,	0,	0,	0,	0,	0,	0,
	0,	0,	0,	0,	0,	0,	0,	0,	0,
	0,	0,	0,	0,	0,	0,	0,	0,	0,
	0,	0,	0,	0,	0,	0,	0,	0,	0,
	0,	0,	0,	0,	0,	0,	0,	0,	0,
	0,	0,	0,	0,	0,	0,	0,	0,	0,
	0,	0,	0,	0,	0,	0,	0,	0,	0,
	0,	0,	0,	0,	0,	0,	0,	0,	0,
	0,	0,	0,	0,	0,	0,	0
};

