#include <include/bias.h>

__ro_hinv mat_t bias_meta = {
	.dims = {1, 160},
	.len_dims = 2,
	.strides = {160, 1},
	.data = (fixed *)bias
};

__ro_hinv _q15 bias[] = {
	-773,	-55,	946,	-369,	587,	154,	-169,	-331,	727,
	496,	713,	-196,	796,	-319,	-525,	-50,	-117,	779,
	-498,	625,	516,	973,	947,	-97,	975,	734,	-131,
	-426,	-298,	416,	-65,	-47,	-267,	699,	-602,	143,
	-614,	137,	957,	-406,	-69,	633,	864,	-552,	433,
	-759,	-598,	964,	911,	528,	634,	-960,	559,	-881,
	658,	-889,	602,	202,	939,	-608,	-248,	-216,	-477,
	-774,	306,	527,	-250,	-745,	582,	138,	352,	975,
	-559,	674,	941,	686,	691,	-925,	-868,	504,	478,
	-906,	-189,	967,	768,	539,	-491,	127,	902,	719,
	-833,	836,	-126,	-511,	-889,	169,	-333,	-132,	666,
	568,	50,	290,	-71,	150,	109,	218,	-341,	732,
	-866,	901,	724,	-212,	-122,	546,	114,	847,	335,
	-608,	48,	870,	-304,	-539,	-901,	459,	-612,	-68,
	-637,	-4,	-856,	4,	-756,	307,	-716,	489,	460,
	826,	-102,	-336,	175,	901,	179,	190,	888,	318,
	-924,	-509,	410,	135,	-142,	-422,	-350,	-619,	315,
	871,	363,	-34,	124,	821,	999,	-512
};

