#include <include/weight.h>

__ro_hinv mat_t weight_meta = {
	.dims = {8, 3, 3, 3},
	.len_dims = 4,
	.strides = {27, 9, 3, 1},
	.data = (fixed *)weight
};

__ro_hinv _q15 weight[] = {
	-466,	916,	-250,	963,	600,	945,	847,	10,	530,
	-731,	119,	636,	-830,	-985,	832,	-151,	573,	755,
	435,	917,	-428,	-618,	78,	688,	-6,	-533,	-374,
	170,	427,	158,	-297,	226,	-702,	420,	-933,	248,
	-34,	-113,	-99,	575,	620,	-349,	-636,	-208,	-219,
	33,	-851,	-610,	363,	-366,	100,	-816,	-317,	736,
	596,	-706,	665,	-310,	-611,	489,	-328,	279,	225,
	-277,	-716,	964,	-378,	267,	681,	-177,	-164,	144,
	-740,	-362,	247,	869,	-465,	465,	444,	-473,	623,
	50,	-341,	441,	-335,	-661,	-274,	-375,	-445,	610,
	7,	-121,	-518,	500,	293,	-375,	-606,	-311,	629,
	-502,	699,	-247,	-78,	239,	-83,	-151,	-450,	68,
	853,	-185,	540,	986,	988,	-361,	529,	92,	661,
	-112,	-753,	-941,	-69,	303,	-351,	-128,	90,	-672,
	-495,	325,	831,	-604,	927,	999,	-164,	341,	851,
	-797,	-781,	-182,	774,	250,	96,	744,	413,	120,
	448,	-243,	-210,	-901,	393,	-596,	-445,	-147,	544,
	-80,	-186,	-474,	-759,	943,	-352,	-975,	-968,	699,
	-594,	224,	158,	-164,	-82,	422,	-397,	485,	-208,
	-122,	-300,	234,	-525,	-191,	-112,	362,	-458,	179,
	971,	-138,	-468,	-932,	-413,	785,	-690,	868,	949,
	398,	894,	65,	-362,	866,	291,	704,	284,	-937,
	-995,	236,	283,	674,	919,	-21,	797,	-670,	-563,
	464,	-103,	-330,	-60,	763,	-646,	-727,	-271,	-826
};

