#include <include/weight.h>

__ro_hinv mat_t weight_meta = {
	.dims = {120, 16, 5, 5},
	.len_dims = 4,
	.strides = {400, 25, 5, 1},
	.data = (fixed *)weight
};

__ro_hinv _q15 weight[] = {
	-416,	543,	-125,	493,	-879,	104,	-374,	991,	-136,
	-471,	-227,	125,	760,	927,	205,	-328,	876,	285,
	-658,	162,	479,	424,	-58,	-669,	930,	485,	726,
	724,	-216,	-606,	-365,	-528,	226,	214,	-288,	-581,
	749,	62,	4,	569,	-429,	733,	189,	915,	471,
	-485,	110,	302,	-800,	267,	617,	-498,	269,	640,
	902,	536,	-217,	896,	-356,	266,	773,	-252,	-446,
	-153,	53,	256,	-973,	-173,	-198,	486,	-683,	379,
	-463,	-863,	-268,	688,	169,	190,	127,	-529,	128,
	-464,	-159,	107,	957,	805,	-59,	-892,	356,	-7,
	-781,	-280,	-346,	844,	-926,	-66,	-623,	64,	156,
	814,	-847,	-178,	776,	-301,	-535,	70,	-101,	109,
	-989,	-328,	813,	-359,	943,	198,	-467,	91,	534,
	3,	134,	-579,	816,	-158,	298,	-455,	-548,	654,
	-36,	-361,	461,	-244,	340,	972,	-19,	335,	270,
	-74,	271,	-470,	438,	810,	-64,	155,	646,	818,
	-76,	700,	-407,	-883,	-568,	502,	511,	-403,	76,
	-954,	-863,	-213,	-915,	-583,	-667,	622,	345,	777,
	-416,	918,	-894,	1,	-720,	250,	947,	-936,	-932,
	-920,	-60,	-744,	752,	2,	436,	367,	-39,	191,
	110,	-937,	-235,	717,	-829,	-917,	604,	575,	35,
	-176,	-330,	173,	92,	806,	-598,	-394,	-458,	479,
	-436,	-417,	718,	989,	-738,	-220,	-573,	-730,	537,
	-445,	-634,	33,	957,	-582,	-886,	-929,	529,	522,
	220,	-481,	-267,	-701,	423,	-258,	25,	-808,	-914,
	-343,	-283,	722,	-591,	-363,	174,	430,	-296,	-287,
	621,	-603,	-814,	-759,	206,	-242,	465,	57,	-111,
	-428,	233,	922,	596,	-821,	448,	451,	-490,	163,
	579,	171,	-669,	-187,	-49,	-986,	-721,	-98,	-512,
	313,	-487,	772,	-925,	412,	88,	-202,	-117,	931,
	-251,	652,	-47,	-864,	978,	818,	-190,	123,	838,
	-650,	293,	-354,	460,	91,	741,	-255,	-185,	400,
	698,	279,	565,	760,	932,	-745,	-766,	875,	516,
	-583,	-225,	567,	-729,	995,	153,	296,	572,	186,
	864,	-890,	561,	-935,	-546,	290,	-463,	550,	467,
	903,	-191,	848,	-565,	861,	168,	607,	-238,	-157,
	641,	-412,	-20,	279,	579,	-414,	-285,	345,	-837,
	525,	-312,	1,	-720,	752,	589,	427,	-650,	-684,
	-349,	274,	474,	156,	887,	878,	-237,	-706,	-943,
	14,	-776,	973,	680,	-41,	-532,	418,	-535,	-217,
	-927,	524,	-112,	324,	-237,	26,	-570,	-692,	862,
	578,	-790,	781,	810,	-649,	517,	76,	-225,	-9,
	-321,	989,	-27,	496,	308,	685,	-916,	89,	769,
	-62,	314,	607,	-838,	391,	215,	241,	316,	-593,
	761,	-762,	190,	860,	-670,	313,	997,	-462,	-552,
	461,	668,	-517,	650,	954,	292,	-863,	655,	458,
	501,	871,	-689,	897,	-859,	570,	-971,	-690,	-195,
	-589,	921,	-30,	118,	807,	126,	-109,	-161,	181,
	-123,	552,	131,	595,	770,	-258,	640,	-283,	-309,
	925,	-769,	-392,	457,	233,	602,	-713,	477,	85,
	-242,	637,	936,	-572,	-574,	-518,	315,	-818,	512,
	368,	-24,	10,	-355,	-603,	-293,	707,	-115,	746,
	-770,	574,	969,	-656,	802,	-812,	-997,	194,	-565,
	-786,	-665,	593,	983,	-577,	-159,	655,	-756,	88,
	-586,	-7,	810,	-975,	-261,	-865,	183,	-532,	-987,
	-815,	208,	-365,	-988,	584,	-980,	-923,	-904,	-291,
	-560,	990,	307,	402,	661,	-433,	21,	-593,	-316,
	857,	396,	-532,	-205,	298,	549,	-353,	-65,	-212,
	-99,	-845,	890,	-71,	908,	-706,	295,	994,	-524,
	887,	-590,	-308,	-190,	-13,	-171,	-259,	-151,	-182,
	97,	23,	83,	206,	-436,	399,	549,	-997,	-67,
	955,	-829,	-318,	-413,	694,	-599,	-534,	-4,	71,
	565,	-662,	211,	408,	162,	948,	340,	833,	668,
	-985,	92,	-286,	708,	-916,	858,	56,	-813,	-125,
	-881,	944,	222,	-905,	997,	-82,	500,	-950,	-930,
	-459,	-293,	174,	-38,	835,	-105,	152,	0,	-779,
	-576,	-534,	-637,	567,	732,	316,	547,	-513,	787,
	690,	-84,	200,	-248,	-68,	-712,	49,	799,	-289,
	276,	-990,	-123,	402,	-303,	-726,	902,	588,	207,
	245,	-145,	902,	-571,	-568,	273,	624,	-659,	-587,
	-380,	511,	-537,	-151,	-667,	-53,	-817,	161,	-620,
	-637,	742,	-242,	-551,	202,	-248,	425,	-155,	191,
	-495,	-864,	-888,	-864,	-477,	223,	348,	520,	-79,
	-555,	662,	-204,	-741,	369,	191,	-970,	-191,	591,
	-621,	-262,	648,	114,	-198,	-832,	-778,	-639,	-721,
	174,	811,	-943,	119,	-446,	803,	690,	-830,	129,
	-180,	141,	416,	915,	409,	-254,	-611,	-728,	413,
	396,	877,	-439,	-37,	822,	869,	348,	533,	761,
	-850,	-601,	-849,	-210,	-223,	228,	813,	-309,	529,
	-799,	-726,	863,	180,	471,	-627,	654,	-251,	716,
	-951,	606,	974,	242,	-173,	923,	585,	-728,	-784,
	-160,	-607,	422,	540,	-201,	871,	962,	136,	-340,
	-187,	940,	-690,	935,	85,	257,	713,	326,	274,
	444,	26,	846,	-439,	810,	-571,	295,	171,	-258,
	-948,	-869,	73,	577,	543,	765,	708,	413,	444,
	741,	-112,	-82,	-915,	59,	421,	165,	349,	-548,
	956,	-403,	-727,	-39,	335,	403,	-819,	480,	368,
	-479,	943,	613,	694,	-992,	202,	-445,	-63,	-827,
	810,	-978,	659,	909,	409,	856,	82,	400,	270,
	-948,	-61,	80,	-171,	-599,	601,	-755,	-996,	984,
	-595,	-409,	862,	472,	-174,	-348,	-664,	1,	29,
	958,	-120,	-54,	72,	928,	-813,	111,	516,	585,
	-581,	-206,	946,	-590,	-409,	-606,	-656,	402,	523,
	-830,	710,	-252,	-682,	132,	-531,	854,	547,	-136,
	-192,	-499,	-988,	596,	-594,	-394,	-484,	222,	-122,
	-69,	-249,	581,	-254,	-928,	-777,	-258,	-659,	-915,
	-508,	-275,	469,	864,	-473,	-554,	283,	-861,	-568,
	500,	-842,	-396,	454,	-169,	-324,	-344,	-736,	-12,
	933,	356,	154,	852,	231,	519,	693,	327,	868,
	827,	-86,	-284,	703,	-292,	273,	469,	-736,	-657,
	891,	65,	-816,	-112,	907,	-854,	771,	-960,	751,
	656,	225,	92,	186,	908,	-197,	-116,	-844,	351,
	129,	700,	-586,	294,	829,	-374,	-641,	-30,	653,
	-153,	283,	-379,	838,	288,	328,	-390,	125,	-998,
	54,	-2,	-908,	-746,	-67,	231,	55,	-816,	892,
	-654,	-90,	865,	482,	476,	-983,	-327,	-976,	619,
	591,	-930,	-705,	116,	-872,	-183,	632,	370,	-718,
	-386,	-868,	77,	624,	941,	998,	514,	-561,	711,
	-124,	238,	-217,	-919,	-503,	640,	632,	951,	488,
	-590,	-521,	-800,	161,	289,	-487,	-31,	775,	-143,
	-982,	409,	-273,	471,	224,	-998,	17,	66,	-942,
	915,	-420,	609,	-387,	934,	828,	547,	-880,	367,
	478,	814,	-769,	498,	-276,	830,	-130,	497,	315,
	868,	794,	-822,	51,	-388,	520,	431,	872,	-651,
	689,	42,	-201,	-897,	-878,	989,	17,	-752,	-349,
	833,	-799,	880,	-749,	512,	921,	25,	-936,	-386,
	638,	909,	-683,	-709,	-901,	-753,	-617,	-475,	-662,
	389,	543,	-201,	357,	-367,	-205,	175,	-144,	884,
	-267,	-70,	-882,	584,	-822,	882,	-148,	16,	853,
	582,	497,	272,	-707,	-858,	138,	-429,	-648,	-10,
	-230,	-760,	-4,	-782,	869,	-200,	-965,	644,	-13,
	-106,	337,	483,	-428,	-997,	-617,	475,	570,	736,
	-267,	244,	626,	337,	706,	-265,	-992,	871,	604,
	391,	-185,	67,	-436,	628,	938,	-487,	35,	605,
	-164,	991,	-149,	-754,	326,	-251,	-819,	-745,	941,
	-415,	953,	-685,	430,	460,	430,	-707,	-776,	282,
	848,	-427,	-93,	-240,	-885,	-697,	-807,	421,	610,
	521,	712,	494,	-29,	-43,	509,	-378,	148,	519,
	-460,	-892,	-270,	-627,	-490,	-739,	-361,	-459,	345,
	-575,	-212,	851,	-703,	157,	-345,	694,	-544,	944,
	-911,	958,	-495,	223,	-491,	305,	973,	646,	-573,
	892,	176,	422,	607,	952,	-916,	390,	198,	428,
	613,	-846,	753,	874,	-823,	-321,	-483,	129,	190,
	960,	-427,	538,	439,	-492,	47,	714,	-845,	-209,
	-877,	-459,	281,	-967,	103,	-477,	-810,	-724,	310,
	242,	510,	706,	183,	-737,	-33,	35,	60,	748,
	-85,	765,	637,	-303,	-708,	-67,	-657,	-551,	-863,
	35,	-896,	-991,	-254,	-379,	-661,	537,	421,	297,
	-167,	-236,	-757,	-587,	954,	-568,	-263,	-129,	-55,
	-896,	167,	972,	517,	267,	-168,	-445,	-840,	-239,
	-9,	854,	76,	-664,	-622,	-904,	617,	-813,	807,
	201,	-639,	-35,	461,	806,	-668,	-933,	-692,	-325,
	-776,	-304,	-337,	-936,	-341,	51,	-580,	-90,	-296,
	530,	944,	143,	-429,	686,	803,	-241,	617,	938,
	-78,	856,	675,	434,	313,	261,	495,	-362,	-811,
	-168,	-803,	498,	-598,	-869,	-209,	659,	-979,	398,
	-546,	893,	-97,	809,	-874,	843,	-798,	183,	-705,
	-380,	-834,	633,	-515,	620,	-478,	235,	-574,	-247,
	-911,	-85,	773,	-720,	516,	-457,	-636,	246,	196,
	278,	-579,	691,	-241,	-757,	-884,	602,	-707,	-878,
	185,	799,	-442,	-106,	-513,	-116,	336,	-215,	72,
	314,	-143,	-761,	-611,	468,	978,	-961,	-284,	303,
	646,	-506,	-447,	-387,	-420,	476,	-156,	709,	-184,
	984,	-113,	-525,	-320,	-730,	-882,	-955,	-619,	-955,
	565,	708,	609,	-705,	-338,	873,	-412,	-352,	-350,
	930,	520,	561,	-786,	-185,	74,	-334,	-632,	556,
	-579,	701,	-288,	-534,	-669,	-179,	-29,	899,	-88,
	636,	-939,	40,	153,	-393,	356,	-625,	107,	30,
	-319,	-437,	-436,	476,	480,	-200,	686,	-159,	-246,
	587,	554,	406,	-670,	325,	858,	-735,	255,	-832,
	-830,	-819,	441,	159,	604,	639,	582,	129,	78,
	-21,	439,	442,	573,	-575,	-782,	-942,	675,	-713,
	22,	642,	992,	499,	509,	-78,	-93,	90,	618,
	-387,	-821,	847,	-458,	570,	431,	-148,	965,	-454,
	-313,	985,	551,	760,	-417,	-442,	-994,	665,	358,
	-914,	201,	776,	155,	315,	-716,	-121,	-758,	-81,
	-446,	-618,	-435,	-147,	430,	-800,	290,	241,	902,
	-867,	-772,	-735,	156,	-888,	460,	462,	-448,	-692,
	438,	-680,	929,	-797,	-199,	858,	-319,	-17,	279,
	489,	986,	466,	22,	108,	242,	-922,	760,	638,
	329,	891,	464,	209,	-285,	152,	327,	84,	-149,
	59,	421,	348,	388,	748,	-395,	928,	-141,	127,
	-233,	484,	902,	-931,	-234,	-650,	865,	-809,	-473,
	-170,	275,	607,	456,	294,	-838,	-752,	-352,	610,
	236,	71,	-2,	-669,	906,	-137,	667,	996,	-940,
	700,	922,	663,	617,	-519,	905,	744,	-666,	-597,
	-175,	285,	319,	-955,	-167,	-910,	-86,	823,	-738,
	-984,	975,	0,	-626,	814,	886,	-794,	485,	744,
	-281,	-986,	551,	-780,	-58,	670,	-910,	711,	478,
	449,	-833,	922,	-703,	722,	-715,	-602,	-371,	-516,
	-635,	867,	-578,	109,	-837,	-990,	-87,	-255,	700,
	488,	-935,	-813,	454,	146,	26,	979,	-651,	485,
	957,	-224,	510,	151,	-707,	-2,	-693,	-896,	106,
	203,	560,	-412,	986,	-694,	-478,	807,	919,	-351,
	-354,	122,	-594,	126,	857,	-448,	-759,	581,	287,
	874,	182,	467,	-94,	-72,	695,	700,	325,	866,
	583,	535,	881,	-502,	47,	-464,	126,	263,	433,
	231,	338,	602,	-849,	-565,	911,	-390,	189,	693,
	-982,	-607,	389,	-577,	-804,	888,	394,	-963,	449,
	580,	733,	531,	319,	89,	-304,	297,	-771,	961,
	576,	744,	-894,	-670,	732,	-644,	-386,	-722,	-475,
	-956,	94,	-308,	580,	385,	553,	525,	274,	988,
	517,	-231,	602,	-2,	182,	728,	-112,	584,	151,
	-703,	-349,	-388,	930,	144,	-341,	-956,	-118,	-746,
	749,	-293,	-766,	-638,	135,	-251,	406,	-148,	134,
	571,	788,	822,	761,	-653,	849,	503,	-500,	48,
	-53,	609,	-241,	-378,	455,	-454,	555,	-922,	-324,
	-564,	982,	-904,	-692,	662,	-925,	-395,	-127,	-2,
	-777,	720,	-815,	-509,	-249,	906,	-226,	-196,	189,
	962,	-691,	-25,	627,	-627,	811,	-747,	-699,	256,
	172,	44,	-395,	260,	53,	811,	591,	4,	-161,
	921,	-238,	306,	712,	-236,	200,	962,	46,	-33,
	435,	899,	-460,	-747,	747,	982,	616,	0,	-72,
	-263,	-271,	-505,	49,	511,	521,	-858,	-147,	-112,
	-483,	78,	-655,	-648,	507,	-482,	824,	-79,	893,
	648,	-292,	-337,	415,	-160,	769,	226,	623,	797,
	235,	-271,	-208,	514,	835,	-553,	337,	405,	-987,
	748,	682,	547,	-133,	687,	936,	-423,	-219,	154,
	961,	-841,	569,	383,	656,	-978,	-94,	570,	43,
	827,	259,	-742,	-253,	658,	-532,	776,	654,	-695,
	-537,	-742,	788,	-377,	832,	356,	-7,	59,	-803,
	-747,	-992,	465,	-434,	546,	-797,	-842,	938,	-128,
	-885,	496,	158,	-765,	-634,	992,	817,	-597,	161,
	444,	-895,	933,	42,	-991,	-652,	139,	-989,	139,
	857,	-189,	161,	350,	182,	-352,	-625,	503,	128,
	-269,	934,	-416,	-453,	304,	778,	-827,	568,	311,
	-203,	296,	-585,	-430,	820,	221,	-660,	-461,	-871,
	839,	306,	-564,	-584,	-521,	658,	932,	-242,	-590,
	-680,	-576,	-912,	-755,	-760,	-767,	402,	430,	-581,
	450,	-778,	684,	-779,	-935,	-407,	690,	729,	-195,
	-96,	-623,	-720,	218,	175,	-850,	-681,	-142,	978,
	-565,	-622,	655,	903,	970,	79,	146,	707,	-861,
	554,	406,	345,	734,	-242,	-202,	669,	-940,	458,
	966,	81,	911,	-989,	431,	586,	256,	676,	927,
	-290,	-271,	958,	-416,	93,	911,	-820,	-811,	3,
	-653,	-153,	393,	-753,	-993,	-806,	-885,	809,	799,
	622,	-396,	-912,	331,	846,	-613,	668,	-836,	-352,
	-422,	-439,	-72,	648,	-601,	-133,	-476,	-941,	746,
	-67,	-171,	-562,	116,	93,	-189,	-317,	-63,	896,
	-597,	175,	647,	-955,	-245,	729,	66,	-278,	122,
	-669,	32,	235,	-693,	-167,	7,	-963,	429,	-21,
	-627,	530,	186,	988,	770,	308,	199,	497,	-797,
	-571,	-398,	338,	-262,	-206,	466,	-769,	423,	698,
	240,	-946,	889,	-495,	330,	-297,	-590,	277,	433,
	-630,	326,	100,	-862,	-456,	-206,	709,	191,	-383,
	46,	-30,	658,	-514,	-904,	-671,	174,	-193,	-901,
	806,	-250,	-354,	69,	-765,	164,	184,	319,	981,
	-731,	176,	262,	294,	-897,	-598,	-878,	740,	-38,
	750,	738,	-842,	-995,	-801,	216,	60,	-677,	-602,
	-960,	-192,	-962,	276,	250,	-272,	-289,	-761,	-939,
	272,	122,	-508,	186,	-590,	748,	-277,	-764,	795,
	376,	-756,	808,	797,	-640,	-370,	-285,	-188,	-756,
	-960,	-191,	305,	267,	-439,	293,	-497,	-326,	-449,
	-696,	457,	313,	-623,	472,	515,	-603,	-817,	-961,
	-978,	-554,	-611,	880,	-711,	-29,	949,	4,	376,
	842,	-127,	443,	287,	-963,	-736,	-450,	-74,	-25,
	-417,	-361,	822,	814,	278,	-336,	912,	688,	-548,
	777,	290,	135,	634,	821,	100,	-422,	270,	-141,
	183,	-209,	-698,	981,	512,	-186,	-126,	287,	-184,
	-798,	-266,	-472,	515,	-837,	-965,	-589,	-394,	-989,
	960,	-929,	-171,	-186,	-45,	-295,	-744,	948,	-378,
	125,	942,	-421,	-605,	511,	448,	-785,	163,	613,
	13,	768,	-762,	110,	30,	-920,	461,	711,	-371,
	715,	-779,	178,	900,	-675,	-370,	940,	753,	-260,
	-786,	563,	910,	246,	218,	-703,	-448,	-983,	335,
	-944,	671,	523,	376,	151,	-538,	892,	-505,	-58,
	208,	-378,	89,	204,	-880,	-108,	-755,	537,	331,
	420,	-127,	-447,	464,	-79,	-933,	-301,	-24,	25,
	-22,	-909,	233,	-876,	-401,	-810,	-556,	453,	-93,
	-337,	631,	-136,	678,	-954,	582,	-706,	255,	599,
	269,	218,	-354,	138,	-477,	-543,	-379,	118,	-810,
	595,	194,	-487,	668,	118,	-302,	-534,	766,	-805,
	-936,	428,	255,	-946,	358,	262,	-243,	-165,	112,
	-677,	-23,	365,	-42,	-589,	-767,	-675,	153,	782,
	437,	-555,	149,	-625,	-356,	48,	877,	716,	935,
	18,	-153,	680,	-560,	-283,	-677,	-372,	-71,	-425,
	-255,	-639,	819,	-811,	633,	597,	-114,	793,	-235,
	-428,	978,	-316,	-686,	8,	29,	188,	-161,	446,
	-430,	819,	38,	-200,	-163,	779,	7,	361,	-71,
	-484,	649,	542,	-322,	333,	-442,	213,	-721,	-872,
	577,	-725,	-338,	-829,	-518,	343,	815,	843,	-93,
	897,	147,	882,	-113,	-48,	933,	14,	184,	-447,
	777,	-854,	-505,	180,	990,	-311,	393,	-528,	-113,
	-95,	-432,	-990,	-193,	546,	-531,	-246,	179,	-809,
	-103,	-612,	-934,	-68,	-415,	841,	-763,	-679,	-853,
	-557,	264,	293,	-733,	-249,	-624,	-222,	-633,	-760,
	-329,	605,	502,	976,	-625,	-776,	-492,	91,	-661,
	-768,	-671,	-594,	-913,	95,	-468,	422,	-287,	-795,
	-76,	655,	418,	39,	13,	302,	158,	-102,	-569,
	-811,	-686,	503,	102,	-187,	-26,	-150,	321,	444,
	21,	267,	-5,	-422,	-523,	-664,	-632,	816,	425,
	-719,	298,	987,	-129,	171,	525,	-389,	677,	-10,
	180,	735,	-782,	199,	704,	13,	-112,	-340,	-806,
	-430,	240,	873,	424,	-581,	648,	266,	655,	-818,
	-34,	565,	-256,	-121,	849,	479,	-425,	-592,	189,
	-58,	-753,	-794,	-713,	551,	-375,	569,	564,	927,
	573,	124,	-355,	-347,	-908,	951,	-705,	-810,	-991,
	29,	533,	536,	-758,	672,	195,	-986,	25,	-816,
	-90,	-825,	846,	13,	165,	-386,	277,	755,	308,
	-205,	99,	633,	949,	764,	621,	-31,	53,	317,
	-883,	928,	145,	987,	-796,	-581,	601,	538,	915,
	311,	754,	-93,	590,	87,	540,	894,	-545,	-630,
	-976,	-803,	323,	799,	-952,	-907,	-527,	-97,	907,
	526,	-708,	703,	-927,	989,	455,	220,	-509,	454,
	288,	-687,	744,	-812,	-842,	-400,	-836,	187,	-897,
	573,	869,	267,	-749,	-394,	-685,	578,	872,	-813,
	-376,	-106,	-741,	-102,	854,	-239,	-848,	977,	-467,
	-93,	958,	-743,	770,	-322,	-641,	677,	799,	-243,
	-588,	528,	560,	-479,	-681,	-99,	-39,	765,	-61,
	-654,	147,	172,	-558,	434,	926,	13,	456,	804,
	239,	-295,	-689,	600,	-149,	-328,	603,	-674,	-631,
	637,	423,	401,	688,	-76,	-552,	-61,	-504,	682,
	917,	385,	-439,	619,	640,	-545,	-515,	733,	-370,
	-819,	-240,	706,	861,	107,	356,	-543,	-323,	-586,
	-392,	-767,	-156,	409,	368,	-450,	-216,	-759,	655,
	-562,	-201,	-855,	-533,	755,	-494,	-234,	-751,	-107,
	-262,	274,	945,	-514,	43,	-997,	-985,	349,	-219,
	-865,	-973,	-811,	50,	584,	-726,	229,	-542,	570,
	875,	576,	270,	-170,	2,	-506,	416,	-236,	-950,
	-912,	309,	262,	229,	-246,	997,	-233,	-749,	541,
	-80,	713,	-741,	-749,	-951,	-38,	-775,	474,	620,
	-162,	460,	-861,	-981,	-238,	542,	282,	-540,	-379,
	304,	130,	-683,	-652,	-479,	453,	717,	-481,	166,
	121,	235,	-381,	588,	-861,	320,	975,	-620,	-567,
	298,	117,	-50,	945,	-354,	-18,	-321,	-266,	933,
	-298,	879,	601,	-555,	-261,	17,	-728,	-472,	-691,
	711,	-340,	-123,	886,	-91,	144,	-34,	757,	-307,
	-663,	-834,	-822,	220,	-224,	753,	-985,	409,	769,
	-437,	800,	340,	938,	-900,	679,	601,	999,	-10,
	-537,	-794,	-651,	0,	-590,	451,	173,	-368,	-149,
	627,	50,	351,	980,	-921,	-988,	578,	-235,	-47,
	-306,	562,	-428,	36,	88,	-206,	977,	-412,	685,
	-414,	633,	-462,	720,	652,	-602,	-55,	790,	329,
	-587,	807,	979,	-182,	-669,	-233,	496,	645,	-870,
	402,	885,	-115,	-677,	-150,	299,	-533,	-582,	796,
	-29,	-891,	581,	951,	-614,	-976,	578,	103,	955,
	990,	-657,	966,	298,	339,	-807,	-795,	-870,	586,
	844,	422,	324,	-165,	82,	-989,	736,	-443,	-274,
	944,	974,	843,	253,	950,	65,	-861,	139,	-779,
	647,	-206,	870,	-702,	753,	413,	-285,	-505,	76,
	-445,	197,	377,	-609,	506,	906,	-764,	-422,	-97,
	345,	221,	-100,	-2,	-140,	378,	-115,	709,	-272,
	-187,	432,	409,	560,	-302,	644,	98,	-946,	-285,
	-948,	476,	75,	-751,	-372,	320,	263,	215,	-658,
	5,	-605,	-318,	-247,	-219,	-121,	-366,	-323,	769,
	550,	-389,	-251,	-682,	-176,	23,	-409,	499,	-259,
	-832,	647,	-871,	-145,	-351,	-868,	-674,	777,	962,
	-856,	-433,	-324,	-80,	202,	-570,	492,	-120,	821,
	105,	-663,	166,	441,	485,	-575,	-504,	654,	246,
	-538,	575,	-819,	-207,	174,	542,	436,	631,	96,
	530,	340,	-106,	249,	-331,	-802,	-70,	258,	-539,
	-738,	-885,	586,	968,	-167,	970,	334,	777,	-451,
	469,	734,	-366,	-575,	-409,	-291,	870,	-116,	377,
	-840,	34,	653,	-245,	-728,	-140,	538,	-223,	-528,
	103,	235,	-323,	-191,	-439,	-473,	-508,	461,	7,
	718,	-719,	-679,	-950,	787,	937,	584,	-13,	-986,
	713,	788,	978,	-188,	669,	-522,	-636,	-644,	667,
	-668,	702,	-125,	-983,	-778,	-823,	647,	559,	610,
	307,	163,	-244,	-436,	-288,	474,	523,	320,	599,
	66,	589,	-97,	580,	796,	442,	585,	847,	-99,
	111,	571,	90,	989,	244,	660,	-158,	-600,	-194,
	-175,	-649,	889,	499,	-845,	751,	-609,	-312,	858,
	662,	986,	355,	617,	-582,	-273,	810,	433,	-556,
	100,	-52,	-739,	-85,	127,	850,	-865,	-833,	359,
	-851,	76,	844,	148,	189,	914,	761,	-447,	-615,
	-63,	-819,	663,	-765,	-41,	256,	-25,	-726,	-869,
	710,	706,	715,	830,	591,	954,	-498,	-350,	-352,
	531,	805,	9,	448,	575,	-567,	-925,	399,	409,
	-577,	810,	-625,	819,	128,	776,	-359,	511,	-38,
	682,	-260,	412,	-836,	-380,	-7,	-699,	203,	99,
	-489,	368,	592,	-382,	-910,	-478,	226,	-828,	237,
	837,	-658,	254,	-210,	797,	-481,	464,	-113,	-608,
	-694,	-803,	915,	436,	235,	-657,	-196,	252,	-699,
	597,	816,	400,	-465,	884,	-593,	-676,	54,	-21,
	-328,	260,	-112,	-604,	-199,	282,	97,	985,	-443,
	-457,	-685,	-255,	543,	-195,	482,	738,	-365,	-965,
	-360,	-953,	503,	-245,	128,	-371,	649,	154,	-357,
	-659,	-860,	733,	-49,	-388,	-827,	751,	762,	-767,
	-81,	362,	-884,	-408,	-234,	-424,	464,	-685,	-643,
	-699,	162,	-172,	-628,	731,	-349,	341,	-74,	781,
	704,	-288,	398,	467,	-317,	16,	251,	54,	-322,
	459,	596,	-37,	476,	677,	-386,	733,	409,	-501,
	-601,	776,	-167,	-428,	-417,	619,	-908,	577,	705,
	-803,	769,	390,	802,	-898,	599,	-281,	-84,	-640,
	510,	621,	-301,	560,	518,	-163,	411,	-777,	-948,
	327,	371,	942,	68,	-887,	909,	490,	-876,	-151,
	897,	71,	-444,	422,	-500,	-256,	-642,	-831,	219,
	-205,	180,	-894,	-644,	947,	-313,	199,	-210,	-277,
	170,	-61,	254,	-729,	-794,	-917,	-261,	-696,	-171,
	265,	595,	-781,	441,	-516,	378,	68,	-420,	666,
	-414,	-597,	-934,	617,	-668,	-750,	638,	759,	611,
	-752,	-100,	494,	645,	911,	-525,	728,	-111,	966,
	56,	-431,	-131,	588,	506,	-75,	87,	12,	45,
	-223,	-451,	632,	986,	528,	996,	896,	900,	148,
	-454,	-534,	-136,	125,	-435,	729,	689,	-39,	-21,
	-178,	-279,	-977,	557,	148,	-348,	627,	-56,	-278,
	-143,	937,	-990,	535,	512,	-184,	913,	-440,	-599,
	520,	769,	289,	743,	190,	315,	-595,	-149,	944,
	856,	513,	797,	-857,	-772,	363,	439,	984,	976,
	946,	-187,	613,	532,	-842,	-641,	670,	397,	867,
	-669,	-567,	320,	251,	769,	350,	-631,	656,	-25,
	-964,	-916,	-792,	-599,	984,	-726,	594,	373,	-841,
	445,	913,	242,	1,	705,	-823,	973,	-44,	-378,
	-758,	565,	-546,	-111,	-836,	915,	118,	-294,	-835,
	613,	-716,	391,	741,	773,	-907,	418,	461,	-931,
	387,	159,	594,	316,	845,	-530,	-992,	-67,	-373,
	-336,	525,	-939,	328,	-893,	-472,	-299,	-27,	-537,
	992,	-905,	626,	-925,	245,	748,	-397,	241,	222,
	221,	385,	101,	-94,	-588,	665,	-38,	245,	81,
	-529,	92,	-216,	-403,	833,	-122,	862,	159,	213,
	812,	-112,	-91,	217,	-46,	180,	-435,	-828,	-610,
	837,	390,	209,	470,	591,	768,	-307,	-58,	298,
	-643,	476,	817,	-993,	925,	915,	-176,	793,	-405,
	-400,	280,	-697,	849,	-105,	301,	-549,	-700,	-634,
	-157,	697,	628,	-865,	-982,	316,	-104,	964,	330,
	-204,	988,	-830,	-286,	941,	-381,	-610,	-660,	-145,
	972,	-873,	-909,	-299,	262,	123,	-981,	-725,	-573,
	441,	25,	-100,	308,	230,	518,	937,	196,	682,
	-365,	99,	106,	291,	940,	524,	655,	561,	20,
	-306,	-253,	770,	-705,	-637,	195,	366,	981,	-669,
	245,	236,	706,	-616,	783,	319,	-637,	-800,	702,
	-238,	242,	730,	113,	683,	-623,	-571,	929,	701,
	654,	852,	-35,	-986,	-230,	-93,	519,	-426,	988,
	464,	-7,	436,	-535,	830,	418,	942,	-589,	-616,
	-302,	989,	429,	-233,	-705,	267,	672,	999,	868,
	363,	-713,	-483,	-308,	-573,	-962,	680,	-467,	628,
	312,	778,	201,	789,	349,	438,	729,	120,	70,
	761,	-457,	406,	967,	129,	-299,	183,	223,	-514,
	-206,	-120,	-412,	-612,	89,	-329,	504,	-990,	839,
	183,	923,	-612,	882,	292,	202,	776,	188,	240,
	-107,	999,	-468,	-225,	-700,	-172,	-125,	-277,	618,
	783,	353,	25,	756,	-619,	-699,	303,	-471,	-658,
	385,	686,	-362,	-289,	297,	-284,	709,	794,	-644,
	-983,	466,	463,	-431,	-848,	623,	-909,	-896,	654,
	-115,	-315,	354,	964,	-371,	401,	551,	400,	-350,
	-337,	353,	423,	-240,	92,	847,	-839,	239,	276,
	8,	-844,	-644,	265,	286,	406,	429,	852,	-399,
	-260,	-532,	518,	578,	208,	975,	-252,	811,	138,
	-356,	651,	610,	-753,	-112,	806,	-330,	328,	322,
	-296,	506,	890,	-46,	-663,	5,	-494,	-247,	927,
	32,	-703,	965,	-289,	66,	810,	163,	273,	820,
	-93,	56,	858,	-535,	-613,	485,	-459,	94,	-214,
	-234,	-10,	214,	-807,	583,	-255,	-955,	951,	350,
	-497,	373,	276,	-39,	255,	-814,	994,	-434,	-469,
	-607,	-3,	655,	-486,	-484,	0,	359,	-819,	-534,
	198,	307,	-743,	876,	-535,	-115,	302,	-739,	381,
	-498,	332,	-279,	512,	-302,	25,	-36,	507,	802,
	438,	-620,	-444,	942,	707,	479,	-347,	782,	472,
	-867,	-410,	343,	12,	-302,	-367,	-535,	-891,	34,
	-276,	775,	-438,	-275,	21,	-522,	-83,	930,	-470,
	721,	-175,	-242,	0,	374,	-932,	-623,	-440,	-783,
	-330,	-237,	202,	395,	424,	485,	396,	179,	401,
	-205,	816,	-668,	72,	-719,	790,	-61,	304,	-859,
	-132,	760,	106,	-530,	-834,	-384,	365,	-855,	934,
	807,	-260,	872,	-762,	902,	-479,	289,	727,	437,
	515,	-701,	-274,	-480,	756,	-22,	-781,	-946,	143,
	-268,	105,	215,	725,	-151,	166,	754,	70,	-773,
	472,	-634,	-70,	718,	179,	-98,	15,	-355,	-539,
	413,	-208,	306,	3,	990,	362,	-159,	143,	745,
	-105,	-39,	-397,	468,	379,	-93,	-754,	-402,	-341,
	-634,	-560,	805,	615,	230,	-624,	117,	-477,	411,
	-888,	818,	745,	-900,	362,	390,	890,	212,	-915,
	257,	492,	737,	487,	999,	-925,	-688,	-555,	166,
	154,	-477,	841,	907,	-256,	-997,	-441,	-515,	-372,
	570,	-247,	-755,	-355,	232,	-291,	693,	648,	829,
	115,	133,	-315,	39,	676,	-473,	-641,	-297,	-147,
	97,	-761,	924,	-84,	841,	858,	-877,	-379,	831,
	-430,	-184,	474,	-897,	745,	-752,	-224,	-3,	821,
	-743,	437,	933,	409,	-805,	-575,	-899,	-351,	-659,
	925,	657,	521,	993,	-805,	-608,	176,	626,	-65,
	825,	-40,	-201,	407,	-753,	-634,	-960,	379,	-377,
	116,	713,	-851,	-140,	629,	-185,	-990,	397,	86,
	-44,	-601,	831,	-770,	375,	607,	-366,	816,	181,
	-81,	916,	-791,	-889,	62,	-949,	-35,	-707,	870,
	399,	750,	279,	-938,	-328,	-87,	-809,	-815,	82,
	-448,	155,	-387,	328,	554,	620,	-113,	617,	995,
	422,	-782,	263,	419,	-179,	688,	544,	968,	843,
	437,	-521,	-715,	602,	-388,	-362,	-923,	-373,	417,
	-85,	173,	231,	815,	-105,	-873,	998,	-60,	221,
	585,	204,	-53,	660,	-150,	882,	-680,	-715,	262,
	-895,	98,	876,	787,	-530,	708,	500,	-306,	-669,
	-187,	927,	-420,	-555,	88,	-826,	-119,	476,	521,
	-74,	-217,	-808,	-922,	819,	-109,	515,	-729,	32,
	387,	-773,	742,	214,	-408,	-193,	-15,	296,	132,
	768,	62,	-172,	824,	640,	945,	-383,	-706,	-162,
	712,	219,	17,	-221,	-177,	-754,	519,	-301,	-855,
	703,	-343,	859,	-475,	-565,	681,	-668,	494,	-636,
	-663,	837,	-72,	599,	-366,	-629,	859,	-426,	735,
	266,	-859,	377,	388,	120,	-962,	-257,	778,	53,
	579,	-568,	456,	-242,	594,	822,	-131,	-495,	-247,
	-137,	675,	502,	620,	618,	620,	-686,	-898,	352,
	437,	-796,	72,	-948,	-812,	-875,	-172,	-946,	828,
	-202,	-447,	564,	-127,	-890,	556,	62,	-852,	-27,
	-101,	-995,	-202,	-9,	663,	302,	-662,	-215,	479,
	-25,	-342,	-539,	-890,	-968,	-576,	-135,	-872,	862,
	372,	-343,	910,	-159,	-922,	-993,	-186,	992,	-484,
	146,	-201,	869,	291,	-153,	-437,	87,	-211,	-746,
	-667,	320,	-368,	891,	-601,	-665,	876,	199,	142,
	-348,	-66,	-388,	-69,	-480,	3,	-52,	784,	-349,
	263,	-756,	645,	601,	-196,	-726,	33,	-886,	-154,
	320,	-810,	780,	-855,	-117,	-305,	43,	-227,	-544,
	-650,	347,	236,	-425,	-489,	341,	919,	841,	-277,
	-177,	836,	-755,	-840,	-389,	551,	-930,	479,	-40,
	749,	192,	-764,	-28,	-485,	-334,	-645,	-606,	906,
	487,	-69,	324,	-66,	820,	-914,	881,	-534,	314,
	110,	757,	-308,	831,	-418,	-272,	-82,	81,	-467,
	164,	-574,	-930,	-798,	110,	614,	-135,	-479,	-162,
	-8,	-442,	402,	5,	890,	95,	-340,	449,	254,
	-271,	134,	-49,	-450,	-840,	693,	432,	239,	-368,
	26,	194,	949,	840,	-999,	-809,	51,	-910,	-768,
	-96,	609,	985,	940,	349,	53,	-880,	255,	710,
	633,	603,	-845,	680,	-462,	-726,	123,	-478,	40,
	273,	-243,	744,	349,	43,	458,	-395,	893,	785,
	-622,	713,	-540,	491,	-2,	-604,	-546,	-9,	560,
	-247,	-720,	-313,	290,	-522,	-705,	-478,	625,	-149,
	961,	940,	-626,	561,	189,	829,	652,	-289,	-74,
	633,	-835,	-592,	-756,	491,	423,	70,	428,	-919,
	-903,	263,	505,	-614,	563,	-553,	-304,	-749,	-496,
	-553,	818,	-144,	478,	192,	-454,	-717,	795,	899,
	-2,	860,	266,	535,	-876,	-502,	-854,	751,	854,
	783,	-863,	70,	115,	-750,	-798,	-836,	-914,	240,
	-113,	-738,	115,	206,	788,	463,	770,	-192,	-886,
	17,	387,	728,	-311,	609,	-383,	605,	-164,	201,
	-26,	236,	-396,	-860,	-640,	-904,	556,	459,	-922,
	232,	-779,	-292,	601,	-471,	100,	775,	-789,	559,
	664,	509,	139,	-227,	816,	-9,	946,	935,	95,
	-567,	-473,	-637,	694,	-737,	-75,	-378,	293,	-956,
	-855,	-832,	18,	125,	442,	-19,	-233,	-755,	750,
	435,	381,	-524,	258,	542,	-55,	-723,	-512,	438,
	513,	257,	165,	-405,	-703,	-606,	152,	522,	-540,
	-413,	-744,	-153,	-997,	-37,	243,	947,	946,	477,
	749,	-250,	-387,	10,	-772,	319,	-727,	-535,	476,
	-931,	-197,	-76,	15,	-754,	305,	-56,	511,	-472,
	-490,	-5,	950,	-573,	486,	12,	-741,	19,	9,
	-931,	-128,	-750,	124,	36,	-170,	81,	706,	-306,
	826,	786,	-576,	-448,	159,	-751,	-133,	242,	-36,
	145,	-474,	-981,	-269,	-12,	663,	-925,	-987,	-792,
	-669,	-686,	337,	-811,	289,	-616,	998,	249,	-928,
	-337,	-910,	-614,	521,	-557,	-874,	363,	917,	817,
	607,	-452,	-267,	32,	-617,	-47,	638,	-408,	734,
	408,	-683,	502,	-47,	-190,	624,	443,	925,	-550,
	-116,	-167,	-547,	-252,	-963,	-960,	746,	-741,	170,
	62,	-445,	874,	-629,	848,	561,	-130,	528,	-312,
	880,	-53,	-897,	-834,	-910,	-874,	48,	-322,	253,
	731,	51,	804,	928,	-150,	764,	-192,	-406,	756,
	930,	-849,	-838,	867,	-646,	-551,	-692,	576,	-930,
	-509,	-541,	958,	-532,	-961,	-319,	-376,	-389,	254,
	917,	-478,	-71,	558,	-874,	732,	509,	523,	880,
	-135,	600,	-49,	415,	-798,	-823,	321,	343,	-56,
	-838,	-334,	-414,	-175,	-752,	-358,	861,	307,	-857,
	-221,	378,	-612,	463,	274,	484,	43,	783,	-975,
	780,	493,	207,	-744,	-918,	-637,	651,	252,	397,
	166,	421,	207,	710,	735,	273,	-276,	154,	-981,
	-928,	513,	-939,	758,	215,	-305,	205,	215,	-988,
	570,	-425,	897,	-768,	757,	-536,	442,	368,	-342,
	643,	526,	-424,	-204,	-735,	-702,	-576,	578,	500,
	-331,	527,	677,	802,	73,	276,	810,	-454,	33,
	204,	416,	198,	666,	-310,	-383,	968,	-539,	-715,
	162,	-760,	-5,	-667,	-450,	-853,	-671,	1,	-44,
	-77,	714,	598,	-748,	764,	147,	774,	622,	-171,
	998,	623,	-596,	473,	-271,	391,	84,	-800,	176,
	-355,	285,	-637,	-944,	521,	-264,	881,	716,	652,
	113,	-280,	15,	-123,	-734,	336,	353,	-153,	-242,
	-984,	-133,	-448,	-326,	-64,	-380,	-374,	651,	-111,
	404,	176,	-335,	-782,	183,	-126,	610,	229,	-85,
	837,	767,	610,	715,	-526,	558,	443,	580,	-265,
	618,	-351,	-530,	580,	-755,	720,	-586,	-107,	459,
	253,	-477,	788,	800,	-805,	-422,	475,	798,	-326,
	-681,	866,	611,	58,	-500,	-519,	683,	-61,	579,
	-661,	520,	-559,	691,	633,	-365,	-892,	-380,	-989,
	230,	-257,	710,	-926,	-11,	-98,	513,	593,	555,
	61,	337,	-80,	-54,	-202,	-452,	670,	-550,	457,
	-420,	216,	868,	-792,	958,	-310,	461,	562,	-629,
	-192,	753,	-206,	217,	761,	-434,	-456,	123,	734,
	-242,	714,	708,	828,	317,	-754,	-848,	623,	-267,
	-715,	-352,	-149,	830,	573,	-55,	-768,	-103,	495,
	-852,	-299,	983,	974,	-401,	864,	-218,	840,	-629,
	378,	-250,	-746,	929,	-854,	485,	879,	921,	-338,
	898,	-435,	829,	-90,	-166,	-241,	-123,	707,	977,
	985,	-917,	85,	-572,	-616,	591,	-680,	-522,	-533,
	-543,	-79,	-789,	-179,	430,	-762,	-18,	-20,	-98,
	420,	982,	-388,	890,	974,	278,	-518,	102,	-302,
	-493,	-722,	618,	-294,	880,	754,	619,	-556,	955,
	-596,	779,	-766,	-540,	-802,	397,	-572,	309,	948,
	-554,	631,	999,	-736,	-162,	-512,	831,	954,	951,
	-589,	-216,	982,	323,	-472,	-976,	-776,	-828,	943,
	-129,	635,	-191,	-147,	65,	-612,	-225,	-78,	-39,
	-205,	-528,	494,	701,	459,	-681,	-271,	-606,	-982,
	-830,	-999,	583,	927,	-291,	374,	-627,	-842,	541,
	-309,	-132,	607,	380,	952,	125,	-138,	-389,	-311,
	-803,	771,	-556,	-239,	451,	418,	870,	468,	212,
	-808,	-103,	-211,	826,	505,	90,	-940,	-574,	-323,
	-559,	356,	-491,	755,	161,	-95,	-596,	-804,	-731,
	-327,	734,	487,	-322,	-452,	897,	919,	-151,	954,
	-865,	264,	-62,	-661,	863,	-565,	388,	229,	29,
	835,	367,	731,	173,	911,	705,	-980,	451,	-107,
	334,	-423,	-5,	-669,	887,	-147,	186,	421,	-69,
	940,	530,	286,	869,	682,	704,	512,	859,	251,
	-417,	-647,	-318,	-672,	427,	-383,	115,	297,	773,
	243,	788,	96,	-405,	610,	392,	200,	-139,	978,
	-551,	994,	399,	366,	153,	-348,	-199,	116,	-372,
	117,	-292,	-375,	251,	244,	463,	-756,	-447,	-702,
	516,	220,	-870,	-113,	-161,	-48,	-972,	-586,	862,
	-832,	88,	-174,	-779,	769,	-935,	-766,	943,	918,
	75,	-267,	-493,	-883,	735,	-835,	188,	887,	408,
	-128,	-843,	417,	776,	-957,	299,	-161,	77,	412,
	-311,	-655,	976,	-768,	-829,	93,	-372,	949,	695,
	-318,	895,	-452,	-177,	-481,	-197,	-313,	948,	-641,
	-369,	-128,	148,	-852,	-652,	989,	-91,	-239,	-817,
	147,	974,	-451,	-992,	-812,	845,	49,	-80,	-324,
	-985,	40,	456,	445,	-274,	-612,	-11,	376,	53,
	684,	121,	-489,	-616,	-583,	708,	-582,	-277,	388,
	892,	779,	501,	-826,	-218,	-535,	-914,	192,	-137,
	-507,	-368,	145,	656,	-597,	-943,	237,	848,	770,
	-478,	-779,	-632,	526,	-480,	784,	-980,	-628,	-947,
	370,	726,	-576,	-693,	139,	-310,	784,	387,	-558,
	702,	336,	-34,	465,	585,	201,	-410,	110,	-863,
	-921,	-637,	-155,	524,	-483,	38,	-189,	-839,	-971,
	967,	-528,	-843,	30,	885,	-117,	-442,	111,	-935,
	-931,	925,	-841,	-464,	241,	-951,	-305,	-284,	-74,
	457,	-513,	974,	651,	-187,	-777,	-512,	-252,	-703,
	679,	-87,	532,	743,	623,	-54,	143,	-304,	67,
	531,	375,	730,	794,	-366,	646,	617,	-65,	-898,
	-319,	679,	237,	-33,	685,	871,	-678,	818,	-484,
	-666,	841,	955,	272,	-360,	-640,	-528,	408,	375,
	225,	721,	39,	-814,	404,	-430,	-832,	-79,	618,
	980,	654,	-477,	2,	-929,	196,	892,	-332,	-738,
	-998,	-38,	790,	279,	583,	378,	518,	-48,	-93,
	722,	-152,	32,	-822,	-525,	-318,	23,	454,	446,
	-346,	815,	-354,	177,	-775,	-861,	838,	-625,	902,
	560,	121,	-382,	-293,	-762,	104,	420,	-499,	940,
	398,	-393,	263,	-689,	412,	738,	774,	116,	-626,
	389,	-319,	134,	-960,	157,	-529,	-296,	869,	-547,
	-428,	125,	-904,	958,	201,	-406,	825,	-376,	-340,
	-144,	-696,	-99,	846,	-634,	765,	963,	422,	392,
	-552,	-441,	-274,	570,	-604,	225,	633,	-586,	521,
	-25,	-329,	522,	258,	474,	713,	9,	-978,	395,
	-712,	-337,	-77,	234,	-303,	445,	-921,	-529,	-944,
	940,	-433,	55,	-719,	337,	-601,	-330,	-439,	-323,
	85,	643,	294,	561,	671,	16,	-95,	537,	-209,
	-558,	-174,	-515,	61,	764,	163,	-348,	568,	769,
	-668,	-723,	-937,	-881,	237,	227,	-764,	-689,	193,
	-389,	-854,	-281,	-405,	929,	483,	-79,	-366,	-786,
	-414,	564,	847,	45,	614,	-634,	788,	115,	-892,
	628,	156,	-411,	847,	602,	-438,	-277,	-925,	-385,
	989,	900,	-772,	115,	503,	-818,	-124,	612,	841,
	-143,	2,	-128,	-830,	144,	-156,	-107,	-260,	343,
	-221,	-771,	-879,	447,	-531,	304,	271,	170,	-266,
	-461,	473,	-559,	-218,	891,	515,	-151,	676,	165,
	535,	-946,	-752,	-707,	-830,	-685,	-188,	-170,	255,
	783,	-582,	-288,	864,	970,	-806,	-858,	449,	-731,
	264,	-623,	378,	992,	795,	-753,	-646,	-159,	255,
	278,	707,	-509,	-829,	883,	708,	105,	-783,	-552,
	-545,	363,	339,	-60,	-694,	28,	-69,	269,	-722,
	-546,	-609,	910,	-104,	837,	-281,	-312,	767,	621,
	-858,	169,	896,	-953,	595,	-69,	-920,	646,	-580,
	-960,	-140,	-303,	623,	-676,	25,	420,	-215,	-388,
	986,	-297,	60,	-832,	-806,	-332,	-966,	864,	912,
	-33,	864,	-699,	310,	252,	-409,	-959,	98,	-334,
	62,	726,	-914,	318,	730,	-313,	70,	144,	660,
	-699,	-439,	961,	710,	251,	946,	-999,	969,	-863,
	174,	-633,	-189,	170,	951,	555,	-105,	-424,	583,
	-604,	-185,	-77,	-876,	341,	-255,	-240,	278,	84,
	739,	71,	153,	-473,	283,	665,	-324,	-492,	768,
	-46,	456,	-868,	400,	-89,	49,	345,	473,	756,
	185,	313,	760,	-91,	-12,	-361,	210,	-879,	-853,
	803,	925,	-527,	-731,	841,	-860,	-455,	640,	384,
	656,	-376,	286,	327,	-785,	-280,	200,	-985,	144,
	532,	56,	408,	604,	-10,	-433,	101,	-197,	-421,
	310,	-476,	707,	-865,	621,	-900,	-915,	27,	-41,
	-115,	-160,	747,	957,	-364,	-690,	934,	-399,	170,
	-983,	-468,	-259,	394,	518,	-721,	220,	180,	-105,
	-753,	-509,	562,	-586,	-595,	207,	-943,	-120,	-942,
	351,	-189,	-186,	688,	29,	-921,	-277,	-640,	125,
	-648,	92,	317,	-721,	-430,	-716,	355,	-194,	120,
	-856,	-254,	-31,	-505,	498,	-377,	-864,	-697,	415,
	-773,	-631,	716,	-888,	-570,	-164,	-629,	960,	677,
	-471,	-969,	-777,	611,	296,	-309,	523,	-240,	627,
	-180,	-220,	-81,	607,	-855,	540,	-508,	-495,	0,
	685,	-173,	-797,	915,	-296,	217,	933,	-648,	-955,
	-495,	-527,	-936,	-779,	-376,	-102,	877,	134,	29,
	995,	879,	-953,	410,	535,	292,	-889,	996,	263,
	-807,	-842,	7,	632,	-244,	40,	691,	-675,	608,
	-245,	448,	105,	719,	762,	113,	-628,	-704,	236,
	-287,	-429,	-559,	-333,	-476,	-53,	-468,	800,	-712,
	629,	28,	132,	721,	-737,	965,	369,	475,	-456,
	-837,	918,	69,	172,	784,	-158,	35,	440,	-560,
	454,	-931,	285,	-165,	839,	-420,	-759,	-481,	299,
	-196,	-589,	-125,	158,	305,	41,	535,	-767,	596,
	-683,	-66,	-104,	-182,	17,	462,	94,	411,	-891,
	-682,	-872,	262,	868,	-698,	464,	-790,	811,	752,
	-53,	784,	-869,	-500,	-346,	910,	-109,	30,	-581,
	-253,	160,	994,	509,	-561,	132,	170,	-239,	-298,
	623,	839,	-125,	445,	593,	765,	682,	455,	555,
	96,	-75,	404,	-872,	-374,	-586,	730,	234,	727,
	138,	152,	602,	-425,	108,	202,	368,	341,	392,
	110,	727,	530,	185,	369,	-762,	537,	-348,	414,
	753,	735,	-442,	58,	28,	-654,	869,	790,	714,
	-88,	630,	-972,	-828,	-626,	156,	-647,	86,	-859,
	-446,	-37,	672,	-805,	-704,	-482,	-366,	-701,	-68,
	-188,	367,	-545,	-990,	469,	-345,	532,	71,	427,
	178,	850,	-427,	-312,	98,	762,	-783,	-945,	-722,
	572,	627,	424,	168,	-277,	363,	-332,	-25,	-252,
	-91,	41,	-530,	30,	-980,	-241,	555,	-806,	-17,
	-878,	-335,	333,	914,	117,	-883,	-712,	-802,	519,
	346,	-377,	-470,	-789,	19,	-721,	-363,	-984,	237,
	-341,	164,	682,	107,	-297,	-458,	287,	521,	799,
	-167,	753,	460,	-784,	-94,	529,	-485,	160,	834,
	-684,	-3,	-675,	725,	123,	751,	-511,	-688,	836,
	10,	613,	863,	-855,	456,	-101,	671,	-764,	-857,
	594,	-837,	650,	959,	-663,	-252,	465,	410,	-691,
	977,	-919,	-133,	-689,	-57,	360,	-697,	584,	-61,
	48,	105,	-128,	-641,	-31,	-674,	703,	273,	-230,
	-985,	128,	-52,	537,	-479,	99,	-685,	491,	542,
	570,	-651,	-221,	174,	77,	458,	453,	922,	-698,
	-392,	328,	728,	543,	154,	-593,	277,	-534,	975,
	-149,	-797,	21,	-392,	464,	-319,	-480,	-240,	-581,
	659,	8,	885,	434,	-695,	821,	-696,	141,	-552,
	-918,	-394,	-41,	-475,	27,	-551,	-250,	-819,	756,
	-685,	743,	969,	997,	228,	-596,	737,	732,	591,
	-317,	-503,	725,	322,	-942,	-912,	366,	578,	809,
	685,	-918,	-200,	391,	233,	-882,	48,	-528,	170,
	985,	-896,	976,	537,	-568,	915,	-490,	154,	545,
	502,	-776,	-838,	-554,	-453,	-98,	-713,	-229,	532,
	388,	659,	613,	443,	653,	139,	221,	573,	-928,
	309,	985,	-373,	726,	490,	-924,	-90,	818,	-886,
	48,	351,	-95,	-216,	162,	-880,	-966,	-320,	642,
	893,	-195,	131,	624,	588,	205,	-88,	491,	-569,
	716,	609,	646,	-117,	0,	724,	927,	-134,	118,
	-533,	730,	-480,	-727,	72,	1,	-933,	-61,	-131,
	589,	-735,	-652,	-509,	316,	-381,	379,	-51,	-181,
	-727,	-324,	275,	497,	-885,	142,	680,	-889,	970,
	-465,	955,	-267,	252,	68,	617,	644,	697,	-779,
	235,	272,	878,	-894,	280,	-950,	755,	298,	142,
	27,	333,	648,	996,	-976,	-84,	128,	-983,	-148,
	-638,	953,	385,	592,	-462,	-994,	-79,	-197,	850,
	857,	339,	874,	759,	-535,	-660,	370,	-165,	-698,
	-869,	-471,	237,	671,	-322,	51,	408,	-767,	712,
	75,	-103,	-445,	628,	385,	535,	-1,	-434,	453,
	323,	976,	-361,	-465,	957,	-512,	183,	-79,	-286,
	-942,	116,	-373,	-851,	682,	-810,	679,	925,	-68,
	631,	-850,	-723,	649,	-246,	-270,	679,	853,	-601,
	162,	-259,	-207,	-321,	769,	-363,	-181,	-228,	-759,
	-968,	-748,	64,	-481,	169,	831,	-200,	613,	-801,
	-72,	-443,	82,	739,	-47,	-465,	-740,	-763,	886,
	-726,	-775,	853,	335,	368,	179,	-728,	620,	233,
	-159,	-542,	385,	747,	773,	547,	172,	-107,	-743,
	-357,	-263,	-916,	-958,	-514,	287,	436,	-674,	-9,
	58,	64,	804,	-217,	745,	84,	-238,	414,	859,
	435,	511,	-849,	-129,	-95,	-12,	-199,	-787,	509,
	-327,	-47,	834,	-712,	-433,	634,	-619,	-634,	717,
	-812,	935,	-220,	-131,	620,	152,	459,	-141,	-810,
	739,	-687,	388,	-899,	977,	-56,	663,	-424,	523,
	567,	482,	-237,	754,	313,	-319,	75,	952,	391,
	-499,	-91,	-453,	352,	-416,	316,	-766,	-876,	-730,
	169,	120,	379,	-512,	362,	211,	-542,	-714,	870,
	910,	-281,	-416,	-142,	8,	634,	-535,	-85,	178,
	-513,	-883,	-732,	-504,	-371,	-5,	562,	-84,	-433,
	-300,	-263,	-875,	182,	577,	-219,	-181,	236,	294,
	106,	-741,	-921,	770,	625,	-229,	-719,	968,	164,
	805,	34,	-650,	-375,	-370,	-823,	-936,	649,	-576,
	-498,	-42,	16,	796,	-925,	316,	-869,	-801,	-836,
	-860,	-827,	577,	109,	939,	-987,	-627,	992,	-113,
	865,	-51,	-424,	862,	64,	363,	-770,	-84,	-584,
	541,	-161,	795,	-351,	-458,	867,	578,	617,	-270,
	-296,	449,	763,	-924,	158,	410,	912,	41,	-876,
	749,	-161,	-391,	-218,	923,	-167,	-299,	-722,	799,
	183,	906,	-281,	168,	-914,	-87,	-600,	-244,	-413,
	-663,	-819,	158,	935,	-899,	809,	-230,	-985,	-358,
	-783,	716,	405,	-204,	-82,	-400,	-922,	120,	792,
	-424,	971,	-351,	859,	509,	164,	-299,	716,	-451,
	-448,	-726,	355,	128,	-524,	706,	-1,	-591,	-208,
	-29,	-37,	-751,	341,	881,	532,	-363,	129,	192,
	-83,	-624,	344,	576,	-924,	-107,	-289,	-629,	-710,
	647,	59,	-21,	969,	-419,	-205,	788,	-394,	-223,
	953,	656,	6,	827,	-908,	821,	-486,	-817,	985,
	-895,	618,	618,	640,	-267,	-949,	-390,	-870,	-241,
	-724,	761,	-561,	-528,	-31,	71,	-74,	-269,	801,
	482,	141,	494,	-205,	-660,	-800,	635,	-233,	385,
	-81,	95,	-341,	144,	-328,	-894,	817,	-429,	707,
	-934,	710,	-751,	-844,	-363,	-129,	-681,	488,	180,
	395,	-347,	265,	771,	-242,	-136,	-989,	-512,	-895,
	325,	-640,	-871,	111,	-263,	291,	623,	-886,	987,
	-904,	376,	-440,	-754,	672,	-951,	-313,	469,	682,
	884,	-690,	454,	197,	-171,	119,	662,	-766,	-334,
	184,	194,	295,	-254,	-875,	649,	755,	-726,	510,
	-307,	712,	453,	-852,	500,	684,	964,	-818,	-285,
	-378,	-699,	-741,	-197,	558,	999,	-350,	936,	831,
	-658,	-698,	-814,	-700,	325,	-822,	847,	308,	-798,
	-468,	-738,	-159,	964,	544,	126,	-717,	294,	-144,
	326,	132,	-89,	-638,	-744,	138,	474,	-3,	362,
	-453,	-939,	534,	575,	422,	835,	266,	127,	803,
	-674,	707,	-317,	838,	307,	-369,	-786,	-312,	373,
	-812,	-197,	745,	813,	-6,	804,	-888,	456,	262,
	410,	-858,	505,	914,	381,	9,	-741,	-323,	-627,
	182,	503,	-897,	746,	397,	-402,	605,	-835,	-641,
	-893,	955,	-510,	-591,	-214,	862,	-346,	180,	857,
	417,	320,	616,	-452,	-77,	-608,	-761,	995,	-388,
	-281,	-570,	-788,	-932,	-622,	176,	-28,	-102,	-430,
	823,	-340,	487,	431,	-748,	855,	-857,	936,	-1,
	916,	784,	-434,	619,	-350,	449,	910,	712,	402,
	-793,	-936,	-769,	-919,	-969,	-931,	-405,	860,	-760,
	-542,	641,	913,	513,	-751,	-897,	-249,	-255,	-270,
	757,	558,	-487,	507,	338,	858,	-42,	-744,	970,
	396,	-280,	-145,	-743,	-202,	-986,	231,	-778,	-455,
	658,	32,	-282,	-100,	874,	-516,	-125,	-576,	602,
	64,	914,	495,	-996,	315,	635,	-130,	174,	-695,
	609,	-36,	-352,	-494,	-505,	987,	166,	-107,	-631,
	669,	-122,	302,	919,	-522,	537,	-126,	-258,	-658,
	-635,	-952,	867,	-442,	-130,	-959,	-463,	949,	315,
	-39,	-25,	167,	714,	-701,	423,	633,	951,	-549,
	-152,	-252,	-137,	388,	-323,	299,	-90,	644,	-883,
	366,	-647,	-970,	-948,	-196,	73,	179,	-472,	69,
	-648,	678,	550,	71,	791,	-27,	518,	938,	-926,
	117,	-3,	286,	766,	769,	831,	553,	737,	653,
	-526,	-895,	-4,	236,	676,	-124,	-955,	31,	524,
	-264,	360,	478,	-428,	929,	-357,	852,	-318,	575,
	-245,	-381,	954,	-300,	-993,	-307,	-947,	-939,	851,
	-529,	789,	-996,	-403,	-390,	196,	-360,	-188,	-74,
	-634,	-697,	487,	-183,	4,	259,	466,	485,	-535,
	-314,	-425,	993,	-507,	-876,	348,	402,	-405,	-922,
	39,	-397,	-648,	-639,	670,	-14,	40,	-742,	289,
	-726,	-502,	116,	-521,	345,	115,	-175,	-846,	507,
	-575,	16,	-466,	-465,	-253,	572,	-49,	-293,	789,
	224,	587,	837,	45,	-403,	946,	-101,	901,	254,
	520,	-553,	-558,	954,	-21,	857,	495,	-292,	-372,
	587,	435,	-18,	-432,	-601,	-101,	-273,	668,	608,
	977,	923,	-769,	-194,	-796,	-434,	931,	-32,	919,
	357,	640,	-345,	-692,	-18,	720,	-199,	-189,	-48,
	-838,	284,	886,	513,	21,	-977,	215,	424,	140,
	106,	836,	-661,	227,	146,	265,	-86,	-2,	546,
	-644,	689,	901,	420,	978,	-42,	119,	-49,	-410,
	-746,	-230,	518,	661,	-651,	-226,	145,	-23,	855,
	96,	-289,	-420,	-759,	-278,	354,	972,	212,	476,
	-964,	912,	275,	274,	-540,	-705,	827,	-974,	958,
	930,	-874,	604,	244,	-976,	-467,	410,	130,	-763,
	990,	954,	-659,	-583,	61,	-328,	409,	-48,	684,
	-860,	566,	-590,	-866,	-16,	-302,	-584,	363,	-98,
	544,	-343,	-29,	96,	-808,	-788,	-76,	-430,	617,
	606,	-140,	-122,	490,	876,	280,	-911,	441,	-201,
	-646,	-388,	-709,	-576,	363,	582,	-463,	64,	600,
	-767,	-780,	592,	-505,	273,	-381,	-98,	-958,	43,
	735,	-813,	-73,	-682,	-36,	595,	703,	-925,	509,
	343,	-236,	-784,	-507,	757,	-618,	-965,	-642,	377,
	-57,	534,	-291,	773,	-946,	611,	267,	-978,	-647,
	-491,	-745,	-199,	687,	234,	566,	651,	-48,	881,
	567,	51,	-825,	746,	-272,	35,	555,	989,	287,
	-595,	-387,	-922,	79,	988,	164,	-574,	-527,	982,
	703,	-383,	-358,	-316,	458,	-617,	-878,	-374,	874,
	-548,	119,	-632,	-842,	631,	650,	-438,	-337,	-315,
	790,	399,	-595,	-592,	634,	132,	-356,	683,	-738,
	127,	218,	-170,	885,	749,	-672,	298,	-815,	-240,
	834,	-497,	-352,	-772,	835,	435,	265,	-43,	155,
	436,	-636,	179,	572,	-724,	-992,	562,	-999,	-173,
	-176,	847,	469,	-196,	923,	186,	-571,	-80,	-745,
	-50,	851,	-832,	-583,	-532,	-429,	-37,	-625,	446,
	443,	323,	88,	-853,	-730,	210,	851,	-924,	900,
	-837,	-678,	47,	-818,	722,	-37,	206,	901,	-774,
	844,	-123,	293,	7,	759,	303,	-718,	-412,	-199,
	326,	-66,	-316,	-317,	629,	-765,	-952,	585,	-808,
	-663,	-952,	-151,	-560,	815,	-841,	964,	-263,	106,
	-340,	618,	-138,	452,	-899,	-97,	-498,	960,	-689,
	-104,	-203,	-790,	249,	102,	131,	71,	457,	-881,
	671,	574,	908,	-169,	-142,	-353,	902,	312,	374,
	879,	617,	-957,	-40,	394,	-805,	376,	-813,	-644,
	-166,	-83,	201,	-917,	149,	488,	191,	503,	-122,
	-842,	331,	-512,	-767,	469,	784,	-727,	-875,	-587,
	792,	907,	55,	27,	468,	-500,	-369,	440,	-144,
	-230,	-533,	-818,	380,	30,	80,	946,	134,	-209,
	-438,	-133,	382,	718,	-812,	-745,	83,	666,	-298,
	-902,	-391,	786,	-1000,	523,	-71,	117,	-525,	-463,
	117,	-503,	250,	880,	133,	-630,	-350,	-935,	251,
	-43,	-886,	-856,	452,	-9,	-643,	-786,	494,	253,
	-854,	766,	715,	929,	-36,	-7,	465,	493,	-110,
	971,	378,	-104,	-206,	524,	-706,	-266,	222,	-936,
	799,	80,	-578,	428,	-67,	-519,	540,	-640,	-840,
	84,	78,	590,	391,	-613,	-813,	426,	-80,	-358,
	-647,	-339,	-943,	-317,	-996,	35,	210,	940,	-125,
	915,	-276,	-181,	-346,	450,	-955,	592,	-518,	963,
	-196,	-386,	304,	411,	-620,	243,	-622,	422,	698,
	27,	788,	788,	482,	56,	308,	58,	-971,	688,
	424,	45,	13,	987,	-344,	662,	-347,	-420,	-818,
	-221,	907,	818,	268,	-271,	-639,	-496,	102,	245,
	393,	650,	-133,	-630,	41,	-148,	-700,	-935,	85,
	760,	-468,	654,	-301,	-957,	-94,	553,	143,	-457,
	-64,	-841,	437,	-398,	-764,	859,	-45,	-888,	178,
	117,	-784,	116,	184,	154,	742,	-414,	215,	706,
	-652,	-2,	782,	174,	573,	459,	-64,	-984,	-60,
	938,	504,	-518,	-796,	-645,	158,	856,	-911,	323,
	-770,	-62,	195,	508,	106,	-54,	711,	-912,	-944,
	44,	-581,	-266,	-795,	407,	-811,	-840,	151,	219,
	-553,	796,	-654,	424,	315,	-31,	872,	-379,	-889,
	-343,	588,	894,	-598,	-563,	791,	678,	738,	-280,
	929,	-203,	-672,	-863,	-905,	-834,	341,	924,	125,
	589,	-944,	121,	-139,	167,	-583,	430,	-431,	376,
	-805,	608,	-893,	-492,	-859,	973,	-232,	-858,	965,
	703,	93,	837,	-551,	739,	796,	297,	921,	-817,
	-871,	-399,	308,	365,	970,	-287,	-990,	683,	187,
	122,	-76,	-23,	206,	382,	-969,	791,	813,	117,
	316,	149,	993,	-807,	-551,	-21,	132,	-452,	-639,
	-898,	-723,	-63,	2,	467,	-657,	731,	-229,	-398,
	-712,	542,	982,	-783,	342,	-441,	58,	-388,	332,
	459,	-882,	-87,	-400,	-17,	-862,	936,	226,	959,
	-635,	20,	-783,	224,	-474,	-981,	129,	-738,	90,
	283,	-260,	-90,	-80,	-946,	79,	-902,	272,	175,
	320,	924,	249,	-514,	-673,	783,	469,	243,	-247,
	992,	684,	-412,	-494,	-96,	-92,	71,	771,	-668,
	155,	296,	-738,	-500,	985,	-627,	813,	-973,	-815,
	-342,	64,	-339,	381,	-559,	911,	856,	-822,	-182,
	-628,	674,	208,	835,	771,	-541,	-716,	-405,	478,
	-134,	770,	658,	368,	-19,	207,	816,	-114,	-880,
	478,	770,	-516,	-427,	-415,	335,	152,	-501,	-861,
	-232,	-191,	585,	-723,	52,	348,	-574,	-925,	-43,
	464,	281,	-173,	896,	87,	240,	-273,	623,	485,
	-682,	29,	325,	-937,	-57,	-475,	-832,	-530,	-562,
	-552,	103,	36,	14,	-555,	603,	-64,	149,	-637,
	-559,	-162,	291,	-410,	-735,	-414,	633,	310,	-25,
	-307,	887,	-396,	922,	997,	552,	290,	-508,	-575,
	-943,	989,	-958,	-610,	583,	474,	-97,	877,	465,
	-317,	437,	-716,	131,	-609,	169,	-307,	161,	-540,
	334,	-650,	532,	622,	-481,	-372,	-188,	-855,	-178,
	-602,	719,	861,	-982,	-412,	-288,	13,	351,	228,
	-722,	805,	-346,	385,	-322,	-472,	-877,	-477,	100,
	807,	129,	292,	157,	-804,	227,	983,	-515,	262,
	-878,	713,	-778,	-741,	-402,	-270,	882,	-420,	-860,
	897,	-909,	454,	-428,	258,	-556,	204,	418,	-783,
	142,	-260,	-783,	507,	-514,	2,	796,	409,	-930,
	967,	-77,	532,	-92,	500,	204,	746,	-311,	-735,
	-647,	-882,	-585,	-223,	3,	972,	912,	439,	-24,
	380,	585,	-630,	-21,	-359,	-829,	-984,	603,	516,
	-327,	-891,	131,	642,	-22,	947,	924,	257,	-861,
	23,	-337,	850,	667,	-975,	145,	-13,	116,	584,
	-387,	-889,	-779,	-824,	517,	-879,	406,	922,	267,
	514,	-686,	-607,	-265,	965,	-951,	76,	-684,	-702,
	876,	101,	-706,	-47,	-671,	-91,	103,	645,	-144,
	-517,	-404,	417,	-416,	-829,	-340,	-999,	232,	-752,
	338,	-402,	-885,	702,	727,	-113,	-275,	-408,	-45,
	184,	-140,	-910,	-249,	968,	-311,	584,	-27,	617,
	689,	367,	-16,	653,	-861,	418,	-717,	832,	453,
	-831,	-632,	-928,	-879,	-896,	-995,	-14,	164,	-483,
	-257,	-288,	143,	16,	-844,	814,	-411,	702,	370,
	759,	567,	916,	-167,	128,	23,	761,	300,	730,
	-590,	-289,	-946,	-250,	-841,	-50,	-265,	-115,	618,
	699,	346,	754,	77,	-822,	729,	-409,	259,	-293,
	336,	806,	332,	33,	988,	524,	969,	-567,	-390,
	-754,	-615,	-336,	52,	-435,	-709,	305,	758,	-102,
	-781,	-29,	562,	-574,	709,	449,	290,	-755,	-80,
	585,	26,	70,	889,	-397,	-96,	-580,	-970,	-784,
	-149,	-872,	196,	174,	-797,	-812,	931,	-542,	924,
	501,	-146,	-671,	529,	577,	741,	-781,	-360,	958,
	-357,	-284,	-58,	-81,	120,	700,	492,	2,	-228,
	203,	195,	-494,	-664,	853,	-670,	448,	182,	-378,
	-804,	356,	989,	-854,	-271,	-67,	624,	751,	-311,
	-401,	-619,	-196,	440,	216,	244,	962,	-98,	-5,
	-416,	-788,	945,	25,	-168,	509,	733,	-377,	200,
	18,	418,	834,	357,	188,	579,	935,	-210,	257,
	75,	-518,	-412,	282,	-153,	713,	-966,	730,	-107,
	-798,	879,	667,	374,	54,	102,	-645,	329,	-80,
	853,	350,	177,	890,	-406,	-103,	-812,	574,	677,
	-792,	-308,	888,	504,	641,	486,	-251,	445,	145,
	-85,	892,	-526,	452,	875,	-880,	-78,	958,	-993,
	27,	-107,	75,	712,	-51,	213,	-543,	538,	-572,
	-697,	798,	801,	665,	-339,	-826,	741,	-653,	-998,
	-692,	306,	352,	-831,	-984,	721,	338,	825,	265,
	-587,	-925,	834,	372,	-398,	883,	778,	-709,	-268,
	244,	-516,	410,	148,	-672,	909,	510,	292,	-108,
	359,	-482,	430,	890,	-700,	-378,	-855,	991,	-234,
	-664,	-519,	-56,	491,	-657,	-157,	-255,	-448,	530,
	-712,	5,	-246,	-309,	702,	26,	-669,	-2,	676,
	-557,	150,	192,	-645,	-804,	552,	608,	714,	-629,
	206,	436,	-271,	597,	382,	-290,	-446,	-301,	-600,
	-682,	729,	359,	-815,	943,	544,	183,	793,	114,
	235,	95,	-354,	80,	594,	-530,	-184,	-929,	396,
	739,	476,	642,	970,	84,	-364,	-559,	212,	-286,
	-87,	58,	-438,	682,	-875,	-145,	-423,	-133,	-563,
	0,	588,	-274,	-820,	788,	35,	286,	-457,	-800,
	846,	-541,	-415,	-117,	-601,	560,	239,	-713,	381,
	-865,	-800,	798,	496,	-956,	681,	847,	797,	-736,
	828,	597,	-203,	-963,	-543,	277,	843,	86,	131,
	528,	-649,	-150,	336,	904,	134,	508,	518,	555,
	-692,	767,	-426,	966,	217,	34,	46,	-639,	-725,
	-394,	-899,	-390,	633,	46,	38,	355,	-425,	-12,
	-54,	641,	-323,	-273,	-121,	357,	388,	-647,	1,
	-734,	629,	691,	-933,	566,	861,	-245,	16,	941,
	-602,	-236,	590,	-874,	-366,	-584,	28,	-640,	-779,
	-619,	-24,	591,	488,	469,	-903,	-165,	-900,	-616,
	365,	381,	718,	-471,	-887,	12,	-341,	-910,	741,
	168,	-416,	50,	-127,	819,	-444,	-208,	-620,	914,
	-32,	-257,	-784,	-411,	-196,	-766,	362,	642,	51,
	-769,	224,	478,	964,	-553,	820,	232,	131,	741,
	295,	132,	-753,	-279,	-489,	-845,	-680,	143,	-372,
	359,	818,	77,	362,	-728,	366,	-690,	-490,	79,
	-63,	216,	905,	951,	433,	-372,	674,	-194,	579,
	-168,	-465,	-109,	989,	-742,	-53,	-727,	-537,	163,
	-955,	324,	-614,	-184,	289,	196,	33,	-215,	-687,
	-689,	232,	787,	618,	446,	989,	-962,	616,	-51,
	486,	567,	376,	367,	-990,	38,	359,	-783,	-327,
	643,	-874,	927,	810,	-235,	768,	585,	-199,	93,
	912,	293,	-962,	-822,	-377,	677,	739,	-168,	-193,
	-980,	-161,	-635,	136,	929,	-377,	-138,	-976,	248,
	136,	159,	158,	919,	-142,	-788,	-405,	-542,	688,
	643,	-980,	150,	62,	-194,	-623,	656,	69,	968,
	635,	655,	-961,	510,	869,	30,	202,	824,	927,
	-846,	245,	470,	-536,	-959,	-397,	-762,	604,	473,
	-422,	839,	554,	374,	-541,	373,	-778,	561,	802,
	741,	279,	37,	-963,	-160,	481,	94,	849,	-763,
	-681,	-862,	326,	-360,	-497,	-261,	705,	-548,	946,
	30,	-440,	-360,	-326,	4,	-951,	594,	432,	804,
	-687,	69,	494,	-210,	805,	1,	-739,	-29,	-917,
	107,	182,	-331,	-66,	256,	-940,	559,	-387,	-777,
	777,	-681,	-317,	981,	301,	-497,	-651,	351,	274,
	535,	25,	87,	-676,	-758,	-222,	-424,	928,	220,
	-288,	-775,	102,	370,	-56,	457,	-747,	138,	-743,
	-912,	391,	-277,	119,	872,	438,	-224,	-967,	627,
	-447,	-542,	-612,	-119,	-838,	-617,	-831,	-613,	445,
	425,	708,	-620,	-948,	-598,	-918,	232,	268,	911,
	-42,	-912,	-205,	88,	504,	-665,	-568,	-456,	257,
	-184,	178,	981,	-977,	-917,	904,	-696,	353,	473,
	906,	-600,	-63,	-807,	988,	746,	-136,	-945,	-529,
	-867,	801,	408,	-298,	-276,	537,	-727,	276,	-222,
	90,	262,	-62,	-414,	-657,	-798,	892,	-422,	-563,
	-497,	-284,	110,	284,	738,	-182,	883,	-435,	-91,
	752,	616,	786,	791,	-9,	-530,	-116,	698,	-409,
	-552,	540,	552,	-164,	982,	-901,	121,	-451,	83,
	232,	-841,	-443,	546,	-429,	-75,	17,	-672,	-165,
	353,	-3,	-786,	283,	-363,	699,	-611,	-975,	-468,
	-30,	637,	-633,	-681,	-301,	-147,	-827,	119,	334,
	793,	879,	850,	372,	-753,	-732,	-147,	492,	-915,
	-154,	-472,	-235,	108,	-355,	-918,	-44,	169,	718,
	412,	417,	908,	-154,	73,	-538,	712,	-77,	866,
	-154,	-106,	196,	210,	302,	-95,	-462,	866,	203,
	-773,	311,	324,	-271,	920,	-26,	237,	431,	-654,
	514,	142,	-629,	691,	-826,	-12,	568,	-396,	-506,
	910,	-27,	409,	-310,	-980,	-664,	212,	253,	-751,
	54,	472,	-773,	-57,	-682,	-980,	756,	195,	-62,
	-401,	596,	-631,	-541,	103,	884,	-688,	-604,	-561,
	-321,	-499,	-72,	45,	500,	117,	644,	775,	-996,
	-174,	-937,	-8,	921,	-102,	-409,	520,	752,	243,
	929,	-466,	-311,	123,	-379,	-826,	-226,	-794,	830,
	-797,	753,	-955,	339,	471,	346,	849,	776,	-997,
	60,	-838,	642,	875,	174,	-281,	-636,	-929,	292,
	-569,	-361,	262,	-238,	304,	-548,	134,	-519,	-11,
	-540,	900,	-105,	576,	927,	-154,	394,	-391,	-80,
	-463,	161,	544,	-742,	-1,	-620,	830,	-427,	650,
	-321,	519,	628,	289,	-945,	376,	309,	-611,	-297,
	-316,	87,	-912,	726,	-852,	552,	-832,	773,	-879,
	-361,	851,	-667,	-344,	785,	-65,	67,	565,	163,
	-535,	409,	-526,	-875,	-948,	802,	424,	-956,	286,
	118,	-627,	-905,	-603,	-674,	486,	2,	900,	87,
	457,	47,	-102,	437,	-970,	546,	411,	922,	-7,
	776,	-817,	134,	729,	-599,	-772,	-774,	447,	826,
	87,	-679,	120,	307,	-358,	837,	674,	-533,	868,
	-486,	-970,	128,	-664,	435,	-807,	-858,	-744,	953,
	454,	-729,	-729,	-552,	88,	948,	-163,	-121,	-766,
	213,	880,	-894,	-19,	-145,	781,	127,	410,	889,
	-77,	184,	-585,	434,	438,	626,	-886,	564,	-300,
	-355,	745,	785,	-942,	-432,	-818,	575,	-56,	-543,
	-73,	278,	774,	880,	-655,	588,	-614,	-655,	-413,
	232,	-234,	359,	-506,	839,	917,	-747,	-525,	-402,
	105,	-614,	549,	-52,	513,	-907,	755,	366,	-299,
	391,	-242,	-101,	367,	-283,	271,	-428,	-778,	-939,
	-712,	-546,	-597,	-407,	-189,	-850,	396,	-235,	418,
	-881,	-560,	-245,	53,	-111,	-255,	-363,	415,	355,
	-361,	-160,	103,	-774,	-25,	-128,	170,	167,	-222,
	638,	-899,	61,	504,	801,	-117,	753,	395,	436,
	-160,	148,	901,	-140,	-113,	-499,	-448,	442,	872,
	280,	285,	271,	-863,	-63,	-122,	83,	-438,	339,
	-596,	797,	-204,	367,	-987,	64,	881,	-387,	306,
	-558,	937,	666,	-108,	-636,	-376,	816,	-383,	430,
	-4,	-744,	-537,	-379,	-917,	-516,	-464,	-599,	-443,
	-993,	-683,	474,	-977,	-576,	-100,	395,	-524,	-463,
	14,	447,	469,	958,	913,	363,	789,	-181,	-547,
	432,	156,	-904,	-857,	-441,	-222,	-66,	828,	295,
	584,	753,	147,	-355,	-249,	495,	953,	318,	906,
	-836,	-921,	701,	-51,	941,	-935,	932,	-554,	-451,
	-432,	351,	800,	-193,	-157,	616,	-917,	-163,	786,
	-29,	451,	-205,	759,	-908,	57,	-736,	-243,	-350,
	134,	-720,	-361,	879,	-444,	-1,	410,	305,	-860,
	-474,	691,	642,	-714,	-207,	454,	730,	835,	-894,
	-810,	146,	687,	-164,	-614,	-961,	-818,	55,	977,
	-734,	418,	587,	865,	-722,	-690,	855,	923,	-122,
	-654,	-864,	-714,	484,	-269,	-341,	859,	-82,	-926,
	-758,	-370,	-58,	185,	-756,	-546,	-561,	-752,	518,
	830,	-426,	-490,	171,	927,	-491,	292,	380,	723,
	-158,	536,	418,	-42,	-627,	-131,	-132,	-442,	880,
	746,	-662,	-961,	-521,	18,	946,	-952,	725,	670,
	-914,	-527,	890,	-630,	724,	-968,	239,	613,	576,
	-727,	209,	375,	862,	552,	837,	-581,	-781,	887,
	361,	-490,	567,	-775,	-373,	253,	923,	-737,	-135,
	-446,	473,	-332,	440,	-403,	-830,	-967,	-818,	-523,
	-134,	9,	604,	-231,	163,	-805,	736,	25,	217,
	-801,	418,	569,	-295,	-577,	44,	-54,	541,	353,
	869,	3,	-383,	-600,	941,	293,	175,	839,	448,
	438,	170,	780,	-427,	13,	-276,	-301,	-635,	928,
	792,	485,	266,	-571,	836,	995,	-668,	-958,	151,
	628,	-625,	97,	-943,	705,	515,	890,	-915,	-736,
	125,	-653,	464,	906,	-823,	-875,	-315,	-614,	846,
	693,	-906,	-580,	733,	-892,	-614,	-200,	666,	720,
	134,	-374,	329,	-941,	462,	-29,	-487,	-43,	-65,
	-128,	-564,	21,	-494,	917,	-80,	724,	430,	398,
	565,	-300,	-107,	402,	-153,	772,	-720,	-927,	-155,
	-968,	-618,	-915,	675,	-77,	949,	927,	499,	53,
	945,	239,	855,	-262,	796,	-538,	-337,	522,	-13,
	917,	-238,	-60,	616,	327,	466,	-424,	-179,	907,
	-210,	-711,	406,	-54,	645,	29,	-522,	85,	255,
	549,	-537,	6,	-566,	-567,	982,	881,	590,	-825,
	-507,	-800,	492,	-711,	411,	-298,	6,	612,	-367,
	952,	-728,	329,	-558,	-191,	-580,	-265,	236,	427,
	77,	-75,	-507,	181,	96,	-519,	291,	-994,	-839,
	966,	744,	-393,	356,	-925,	196,	910,	-406,	599,
	574,	288,	560,	-610,	598,	-726,	933,	487,	310,
	-99,	614,	-780,	-483,	491,	158,	578,	759,	-722,
	-544,	177,	482,	893,	-313,	23,	-408,	-491,	-969,
	362,	-437,	-301,	306,	249,	-799,	669,	-377,	160,
	823,	-30,	-38,	-586,	323,	416,	833,	893,	-96,
	-722,	-255,	-566,	-849,	56,	-760,	225,	2,	730,
	-499,	-719,	-754,	631,	17,	282,	-58,	-32,	48,
	-380,	-579,	574,	-591,	860,	410,	-271,	-615,	-335,
	-13,	610,	805,	-611,	123,	-115,	-787,	5,	-903,
	-761,	162,	-321,	-417,	79,	230,	-162,	962,	727,
	379,	-560,	-635,	-562,	-153,	-800,	373,	957,	-783,
	-914,	840,	-270,	-657,	930,	905,	78,	-776,	-989,
	17,	-905,	-784,	-630,	-232,	-835,	-901,	546,	882,
	753,	490,	867,	-69,	-893,	-630,	-63,	-676,	494,
	733,	-908,	932,	-829,	255,	518,	109,	860,	-665,
	-871,	580,	595,	-664,	395,	-696,	955,	25,	-604,
	-439,	-801,	-719,	-981,	-113,	889,	323,	763,	-21,
	768,	-837,	548,	-546,	-432,	711,	-643,	-3,	-780,
	862,	-158,	-332,	760,	500,	-105,	-621,	-648,	224,
	585,	-198,	-352,	-498,	453,	-160,	211,	919,	356,
	-118,	-229,	906,	-936,	806,	717,	-951,	494,	912,
	-708,	-347,	-524,	-228,	791,	-708,	968,	460,	652,
	-787,	-195,	-88,	-490,	-681,	-408,	-361,	-510,	20,
	719,	-266,	197,	-210,	-774,	636,	-616,	425,	566,
	97,	203,	454,	965,	629,	-446,	-171,	-411,	986,
	-922,	168,	-658,	-235,	639,	-734,	-890,	-666,	-218,
	-125,	624,	800,	841,	293,	844,	135,	695,	172,
	-89,	301,	148,	-104,	-134,	-237,	917,	-290,	956,
	-859,	-694,	850,	-228,	428,	381,	520,	624,	353,
	462,	-18,	481,	-440,	769,	-693,	-966,	-697,	381,
	-225,	655,	721,	237,	204,	-307,	-215,	400,	-695,
	141,	-969,	871,	-281,	750,	324,	370,	-383,	704,
	47,	698,	22,	-461,	302,	-412,	720,	-332,	497,
	-834,	870,	259,	-236,	39,	-186,	279,	-997,	-332,
	-279,	-322,	631,	662,	-443,	644,	225,	-233,	482,
	-308,	-674,	-885,	-354,	84,	77,	-542,	-49,	-447,
	287,	-737,	780,	989,	4,	818,	817,	618,	-631,
	84,	-11,	518,	-244,	-269,	-124,	777,	138,	248,
	831,	409,	-297,	-785,	-4,	-734,	-86,	-932,	-283,
	-628,	395,	495,	156,	181,	-583,	560,	-614,	-179,
	-886,	989,	745,	-516,	505,	331,	-909,	-293,	-917,
	506,	753,	-283,	-147,	-981,	-903,	-272,	-959,	272,
	239,	592,	162,	155,	-389,	586,	-331,	-60,	427,
	179,	-7,	-859,	-133,	-932,	271,	3,	917,	-897,
	324,	-577,	-781,	-330,	-550,	81,	-429,	-607,	-675,
	589,	31,	-871,	778,	-940,	-789,	69,	254,	78,
	-25,	-732,	743,	752,	-991,	-629,	-699,	75,	-26,
	-377,	433,	-376,	-536,	-201,	-663,	810,	532,	-819,
	155,	-355,	-576,	736,	316,	-636,	803,	-47,	-787,
	768,	-492,	487,	-678,	-733,	-849,	-933,	-530,	49,
	-646,	588,	711,	550,	161,	-882,	-15,	230,	-306,
	-431,	-207,	562,	259,	218,	-603,	631,	4,	-769,
	806,	-568,	-866,	346,	-791,	-549,	-839,	-717,	208,
	-173,	870,	-355,	-399,	-447,	975,	-489,	-100,	603,
	255,	-61,	-95,	-825,	856,	-729,	286,	-426,	640,
	-516,	-216,	-712,	-180,	-292,	-472,	-37,	-555,	973,
	-525,	-997,	233,	-569,	637,	-70,	327,	-306,	-573,
	104,	464,	161,	896,	-912,	-960,	-378,	-516,	-613,
	43,	308,	356,	598,	-870,	-229,	552,	261,	-899,
	-162,	-239,	-60,	940,	-799,	80,	-179,	189,	-44,
	-102,	81,	-511,	689,	275,	-305,	-96,	741,	624,
	-272,	449,	-48,	-762,	-770,	987,	-310,	764,	953,
	-213,	-845,	-270,	523,	970,	-283,	205,	-447,	-980,
	475,	222,	-570,	889,	-874,	583,	-271,	328,	-397,
	443,	700,	-242,	959,	833,	-338,	-54,	-573,	316,
	523,	-302,	-158,	-612,	-637,	30,	-620,	-22,	-234,
	863,	-488,	-766,	991,	-604,	519,	-777,	-341,	396,
	188,	40,	414,	89,	-813,	590,	0,	46,	-116,
	59,	332,	-9,	-739,	698,	-779,	-912,	565,	332,
	807,	540,	41,	698,	-889,	-417,	709,	-74,	-744,
	332,	71,	-544,	-13,	622,	703,	-556,	646,	786,
	971,	615,	40,	-631,	731,	-858,	-258,	500,	73,
	130,	-261,	-73,	253,	73,	462,	-741,	798,	628,
	534,	706,	-314,	-898,	770,	732,	527,	-245,	993,
	-943,	-707,	70,	-757,	151,	189,	529,	-51,	150,
	-718,	379,	-68,	-389,	111,	-181,	-31,	575,	958,
	986,	956,	-839,	116,	-591,	-238,	-713,	691,	-384,
	485,	-666,	458,	450,	-280,	-468,	147,	-600,	-278,
	926,	-913,	-342,	338,	991,	-389,	680,	189,	558,
	-824,	797,	349,	594,	554,	826,	393,	-64,	-432,
	-453,	-797,	-95,	-481,	-558,	-873,	-175,	-656,	-784,
	-399,	-10,	-500,	502,	-930,	611,	-338,	-128,	-651,
	971,	-825,	828,	-987,	-454,	454,	303,	878,	-843,
	312,	-945,	-117,	690,	-647,	-814,	-488,	-170,	-831,
	-7,	-224,	938,	-856,	-73,	-624,	-561,	325,	858,
	722,	-77,	996,	-510,	-992,	-788,	88,	-606,	672,
	125,	729,	-123,	-575,	398,	-654,	467,	-831,	-355,
	795,	92,	543,	-168,	614,	-163,	638,	-875,	791,
	309,	597,	290,	761,	-466,	-344,	426,	-620,	802,
	-55,	-145,	-283,	22,	692,	-730,	885,	-394,	-730,
	809,	-782,	480,	3,	-792,	429,	-556,	-525,	315,
	163,	226,	-113,	-336,	383,	-371,	328,	505,	40,
	15,	-928,	-642,	422,	-609,	745,	403,	-802,	664,
	-8,	456,	-228,	125,	-292,	60,	747,	-953,	-210,
	-937,	-270,	-4,	-738,	-147,	807,	-677,	-951,	36,
	245,	743,	591,	0,	994,	954,	917,	942,	819,
	665,	226,	-836,	-884,	833,	-423,	-675,	-748,	-889,
	-336,	-675,	-387,	223,	626,	89,	-34,	-986,	805,
	891,	831,	-534,	598,	1,	9,	-236,	13,	-905,
	475,	-244,	-206,	434,	804,	432,	603,	-30,	-229,
	877,	-369,	289,	-23,	-290,	760,	-986,	498,	399,
	-439,	276,	956,	-908,	-892,	-961,	-721,	-134,	549,
	390,	-267,	884,	-415,	-144,	857,	46,	-312,	496,
	259,	-800,	706,	357,	479,	-462,	-948,	327,	-702,
	-20,	-324,	-797,	106,	-162,	398,	524,	-876,	-675,
	178,	-435,	-422,	-144,	877,	185,	-390,	-589,	-102,
	-453,	487,	171,	-525,	393,	613,	300,	544,	369,
	-668,	-18,	54,	-410,	-366,	-917,	858,	938,	932,
	-322,	-35,	-451,	634,	-361,	-639,	925,	990,	748,
	-982,	-838,	279,	-235,	-71,	770,	-33,	-620,	960,
	732,	374,	289,	-739,	-236,	-374,	-273,	-401,	-115,
	-868,	784,	607,	-768,	-471,	356,	-129,	-501,	-55,
	781,	223,	261,	-119,	-248,	497,	380,	571,	-204,
	795,	981,	59,	-164,	-940,	65,	153,	-699,	360,
	292,	-892,	-767,	175,	-802,	106,	397,	-689,	-473,
	659,	642,	180,	-129,	-354,	98,	869,	593,	-920,
	-413,	-111,	-378,	544,	960,	-658,	-174,	49,	272,
	-957,	-519,	-134,	263,	0,	-112,	527,	-367,	-428,
	-996,	650,	-999,	-733,	-53,	-782,	-599,	679,	-702,
	103,	-353,	-977,	363,	149,	48,	-689,	176,	-706,
	106,	593,	901,	567,	960,	544,	-509,	72,	275,
	-505,	680,	-591,	-552,	-632,	680,	-812,	-654,	-136,
	573,	-989,	-347,	-876,	-15,	15,	-392,	-446,	645,
	440,	264,	-542,	-491,	825,	-122,	-931,	-229,	-668,
	130,	-853,	707,	252,	-156,	596,	935,	512,	759,
	553,	930,	830,	-833,	223,	937,	486,	-417,	-882,
	-118,	-189,	-464,	110,	-624,	759,	617,	290,	37,
	85,	-114,	-167,	136,	-542,	-709,	661,	173,	-646,
	276,	386,	748,	-6,	-822,	896,	-781,	-957,	950,
	59,	226,	-862,	215,	-14,	64,	175,	-816,	-989,
	-300,	-94,	-642,	-485,	659,	60,	-464,	896,	-728,
	308,	-464,	552,	31,	-365,	-629,	-126,	-636,	-890,
	-571,	463,	632,	614,	695,	554,	337,	798,	36,
	-337,	824,	847,	131,	657,	804,	111,	674,	181,
	204,	351,	-869,	73,	-50,	555,	357,	-602,	-748,
	324,	-842,	631,	428,	-446,	717,	-566,	-855,	-46,
	-962,	-402,	413,	-534,	288,	-317,	483,	517,	-871,
	-273,	809,	259,	-373,	-636,	431,	865,	-425,	-294,
	422,	609,	22,	879,	-156,	-965,	520,	-780,	-300,
	814,	-909,	-209,	-616,	-615,	555,	942,	595,	825,
	-769,	-133,	983,	785,	118,	578,	-45,	995,	639,
	-38,	785,	440,	-560,	619,	-76,	-235,	962,	713,
	-321,	175,	-631,	-716,	-749,	889,	341,	53,	-694,
	133,	729,	-233,	717,	173,	557,	-179,	808,	342,
	-228,	-443,	-84,	-869,	-473,	620,	-167,	340,	-398,
	520,	-837,	-637,	274,	-521,	439,	-889,	-879,	-287,
	247,	-431,	869,	-488,	122,	-231,	395,	759,	647,
	-979,	-279,	538,	-270,	-676,	-202,	-171,	-874,	596,
	733,	935,	-386,	-985,	-478,	942,	878,	-756,	-293,
	440,	407,	-95,	985,	61,	614,	-106,	-81,	622,
	-634,	999,	-139,	-347,	850,	-498,	-639,	-482,	-389,
	-195,	-106,	711,	-991,	-743,	885,	885,	-410,	-616,
	191,	-24,	70,	-736,	248,	-283,	-990,	-820,	-179,
	460,	740,	-831,	-88,	859,	-558,	354,	824,	-25,
	312,	-515,	102,	646,	-145,	678,	-683,	107,	-475,
	748,	-381,	-178,	438,	762,	281,	383,	-500,	327,
	-873,	-417,	374,	-244,	-183,	-683,	748,	247,	-44,
	-959,	375,	264,	514,	592,	971,	306,	640,	-63,
	188,	-30,	931,	506,	497,	770,	838,	78,	-2,
	774,	302,	901,	-907,	-416,	-595,	526,	644,	-745,
	418,	-688,	914,	893,	-834,	-969,	601,	777,	225,
	-406,	967,	-746,	618,	501,	98,	-911,	214,	533,
	-97,	-234,	-2,	359,	-198,	332,	257,	-802,	345,
	45,	558,	-114,	982,	-311,	-138,	-186,	-331,	214,
	-161,	849,	282,	-179,	788,	-532,	-699,	-743,	-830,
	171,	-732,	-199,	166,	-695,	-746,	79,	602,	535,
	923,	-330,	-292,	-966,	-905,	705,	142,	499,	-417,
	-160,	835,	-696,	876,	72,	543,	907,	-408,	155,
	-533,	386,	-703,	-738,	320,	-293,	-790,	738,	-401,
	-23,	389,	-146,	664,	-851,	-5,	544,	211,	-723,
	-642,	560,	798,	-318,	672,	76,	614,	472,	-669,
	21,	489,	-584,	-164,	-237,	297,	560,	439,	-74,
	707,	-763,	-268,	337,	225,	383,	-502,	201,	73,
	463,	-925,	-922,	-537,	-381,	808,	-113,	783,	979,
	-488,	-333,	-930,	77,	628,	-591,	6,	-633,	-123,
	679,	502,	757,	-976,	288,	107,	286,	878,	-478,
	533,	-798,	28,	645,	665,	979,	622,	-500,	-912,
	-690,	-521,	345,	875,	-801,	-664,	389,	-185,	738,
	-620,	-200,	783,	478,	691,	-712,	-225,	898,	-708,
	691,	954,	779,	-435,	-804,	867,	-602,	-861,	-444,
	-511,	-417,	592,	931,	-881,	632,	-668,	533,	-419,
	188,	-495,	568,	709,	-489,	362,	577,	-707,	-268,
	-759,	167,	-588,	-940,	-665,	162,	-120,	-798,	12,
	-465,	-357,	-416,	806,	-80,	-144,	797,	64,	97,
	356,	502,	695,	511,	-358,	196,	-703,	319,	625,
	-547,	522,	-219,	-928,	241,	-169,	-370,	634,	154,
	-206,	131,	535,	-538,	-182,	-183,	-695,	-530,	-654,
	-179,	358,	-56,	-393,	246,	717,	-918,	320,	-305,
	567,	-613,	354,	-847,	-261,	885,	-328,	-442,	-663,
	-58,	220,	433,	598,	157,	-183,	404,	473,	-394,
	488,	136,	163,	27,	-634,	926,	613,	-480,	338,
	-691,	-660,	999,	-261,	-201,	-263,	722,	-185,	457,
	233,	-726,	-177,	-347,	260,	869,	-680,	783,	370,
	-802,	458,	-982,	-646,	-292,	-466,	-151,	-486,	223,
	-789,	60,	-840,	760,	954,	-441,	-739,	-376,	535,
	318,	-501,	-71,	578,	946,	-765,	-584,	860,	626,
	-724,	-607,	294,	-505,	660,	-749,	82,	699,	956,
	-478,	-535,	-817,	586,	-701,	-596,	485,	-841,	-253,
	-150,	960,	438,	-543,	605,	845,	-338,	-106,	-417,
	-73,	170,	556,	-615,	-351,	-74,	424,	-240,	-79,
	-369,	740,	-917,	537,	703,	-742,	459,	-641,	-267,
	-245,	309,	667,	-676,	-52,	952,	-630,	360,	646,
	386,	924,	16,	163,	-523,	884,	-479,	249,	-410,
	439,	-885,	285,	-570,	-691,	94,	-954,	763,	292,
	189,	43,	-558,	56,	-767,	918,	812,	-975,	-218,
	403,	-360,	990,	-18,	781,	-737,	528,	-831,	84,
	160,	-13,	-44,	-653,	367,	-509,	-654,	-192,	-898,
	615,	726,	-749,	841,	-949,	-563,	-161,	429,	-497,
	508,	89,	-748,	334,	140,	-338,	-328,	-449,	632,
	769,	78,	-773,	147,	-170,	711,	-595,	48,	-443,
	-169,	-549,	-432,	-813,	-347,	271,	-802,	901,	910,
	-459,	-66,	-528,	132,	281,	901,	-945,	430,	23,
	765,	-367,	993,	423,	451,	542,	-876,	554,	-936,
	-824,	930,	4,	127,	269,	901,	689,	704,	-984,
	-834,	331,	-413,	-456,	-955,	-658,	797,	464,	-755,
	-585,	729,	-923,	714,	724,	839,	-684,	15,	-475,
	-781,	-284,	470,	-181,	757,	124,	-673,	-228,	-266,
	-792,	-827,	571,	988,	-195,	-31,	780,	-509,	6,
	423,	-154,	4,	-801,	463,	534,	-768,	-491,	-973,
	433,	43,	-691,	-520,	-809,	33,	526,	-275,	-197,
	590,	-593,	-517,	-282,	-319,	-357,	951,	23,	-283,
	60,	911,	-486,	388,	-981,	742,	325,	-591,	-427,
	-994,	-915,	765,	-835,	684,	358,	-620,	-706,	688,
	-765,	610,	271,	-33,	115,	799,	132,	-845,	874,
	-491,	-995,	430,	25,	186,	-176,	470,	152,	356,
	-243,	-801,	-172,	-243,	303,	537,	-665,	-566,	-545,
	-880,	-972,	676,	-983,	-714,	-789,	-821,	105,	344,
	-787,	761,	960,	149,	568,	470,	-824,	-462,	482,
	-326,	714,	798,	-445,	394,	-453,	99,	-163,	423,
	453,	279,	-256,	589,	978,	-458,	437,	832,	-898,
	970,	-947,	258,	-519,	-740,	337,	627,	-195,	-202,
	-964,	-751,	-249,	-468,	135,	866,	-649,	-60,	213,
	519,	633,	-306,	-681,	823,	324,	530,	-658,	-505,
	664,	400,	993,	-14,	-472,	-615,	-827,	-569,	905,
	40,	-325,	-500,	-497,	552,	816,	-262,	118,	-460,
	893,	-696,	616,	765,	-618,	974,	-859,	-775,	-949,
	729,	-514,	-990,	88,	463,	613,	-971,	971,	-270,
	-829,	194,	922,	779,	313,	-560,	-956,	-363,	-153,
	16,	-420,	316,	-506,	-194,	379,	147,	-100,	29,
	106,	-691,	-819,	-90,	681,	-505,	-607,	-835,	-231,
	911,	367,	-199,	224,	-612,	954,	-480,	-629,	-806,
	-9,	-682,	-483,	-391,	22,	-2,	-600,	169,	-67,
	-563,	-826,	-215,	-623,	582,	-615,	-542,	-526,	-518,
	-936,	-111,	-66,	-512,	733,	-799,	72,	877,	572,
	-418,	306,	153,	-467,	42,	330,	-203,	-856,	-306,
	793,	348,	606,	-965,	495,	-153,	311,	-66,	80,
	-295,	364,	499,	95,	491,	-324,	-832,	615,	-197,
	195,	-14,	-47,	302,	557,	-982,	-792,	-122,	-920,
	341,	-445,	-847,	498,	-873,	-621,	-941,	-699,	105,
	681,	831,	154,	950,	-847,	260,	682,	-258,	-164,
	697,	937,	-620,	-751,	-886,	-914,	188,	381,	-215,
	92,	-412,	72,	78,	-240,	40,	-486,	-448,	3,
	-249,	437,	-212,	-877,	-742,	287,	-640,	-652,	-958,
	446,	638,	-139,	-762,	-554,	-480,	-623,	-777,	-271,
	-531,	-630,	689,	527,	166,	565,	909,	-572,	-169,
	812,	600,	-867,	-434,	451,	798,	832,	-838,	-748,
	-350,	-147,	100,	-214,	738,	-353,	-633,	728,	640,
	-846,	-847,	716,	360,	764,	-585,	687,	673,	826,
	879,	-380,	920,	-315,	711,	674,	885,	926,	-819,
	-999,	209,	-43,	-378,	-46,	-724,	557,	976,	90,
	-108,	-429,	519,	-188,	467,	-744,	-218,	-425,	420,
	470,	258,	584,	-123,	593,	-746,	425,	-977,	99,
	125,	-547,	241,	346,	179,	-428,	-929,	-140,	27,
	320,	411,	320,	468,	-398,	672,	175,	115,	-273,
	-445,	703,	844,	627,	-686,	826,	-562,	558,	523,
	-917,	282,	-834,	-368,	142,	-386,	-808,	-445,	-62,
	42,	-834,	496,	747,	-889,	74,	316,	13,	-346,
	-832,	-168,	-812,	-887,	-646,	241,	-4,	-276,	-182,
	827,	-48,	-146,	-699,	188,	-685,	555,	576,	-545,
	53,	-659,	-309,	350,	-621,	111,	-164,	994,	159,
	-911,	984,	-721,	76,	644,	-251,	218,	132,	-67,
	634,	-778,	631,	-279,	-112,	985,	283,	667,	429,
	939,	934,	516,	411,	525,	-5,	-744,	702,	-178,
	657,	486,	910,	328,	773,	651,	410,	38,	935,
	881,	-735,	-357,	479,	-938,	-804,	932,	-924,	413,
	60,	990,	699,	-383,	961,	-272,	-583,	-830,	587,
	-172,	645,	-662,	-868,	821,	821,	-549,	469,	977,
	643,	33,	814,	117,	-508,	-316,	366,	-754,	162,
	-505,	318,	965,	811,	194,	-461,	262,	215,	-344,
	295,	-890,	429,	-771,	-118,	-268,	942,	-717,	-526,
	609,	10,	-890,	554,	-595,	313,	39,	226,	623,
	232,	668,	67,	91,	-315,	-371,	474,	-475,	-49,
	-349,	764,	480,	0,	-743,	-825,	-112,	693,	101,
	-343,	162,	-16,	876,	-953,	-692,	478,	655,	-8,
	-774,	-575,	86,	-887,	591,	493,	-886,	-322,	359,
	-757,	375,	-239,	851,	-284,	487,	-270,	-198,	-210,
	-925,	441,	608,	651,	569,	-298,	-189,	-890,	-437,
	207,	-772,	-635,	-797,	-891,	438,	556,	130,	-169,
	-144,	-342,	-88,	848,	-319,	736,	973,	-681,	817,
	-532,	-358,	807,	-280,	629,	-959,	309,	-629,	610,
	986,	495,	-454,	-207,	-178,	597,	-217,	496,	174,
	-333,	137,	639,	-218,	-140,	-275,	-201,	-17,	-251,
	478,	-547,	-37,	-198,	-696,	610,	731,	-858,	-87,
	-530,	-249,	-756,	229,	793,	533,	-93,	-708,	184,
	-718,	-225,	322,	635,	350,	-866,	-850,	861,	-648,
	400,	706,	454,	-510,	-641,	-792,	262,	-379,	879,
	-36,	-340,	550,	-973,	236,	-943,	-800,	-994,	-359,
	-208,	38,	52,	-485,	170,	510,	54,	295,	605,
	-39,	-296,	-366,	-135,	-573,	32,	-214,	660,	744,
	31,	-778,	549,	386,	-518,	-905,	204,	-560,	-438,
	952,	-895,	-12,	321,	-880,	-658,	843,	716,	-948,
	-266,	-694,	-883,	385,	592,	4,	-937,	-749,	553,
	-91,	667,	-422,	278,	488,	-493,	12,	46,	-540,
	213,	373,	-298,	-821,	578,	2,	97,	768,	-622,
	-440,	-113,	-656,	663,	217,	-742,	-286,	895,	110,
	99,	-43,	-929,	-251,	-338,	-448,	-251,	-413,	18,
	-319,	-365,	387,	132,	563,	-464,	335,	-352,	-812,
	-235,	-184,	-692,	-622,	644,	47,	-761,	374,	-542,
	-289,	-107,	-59,	-224,	-834,	991,	386,	387,	-976,
	559,	-329,	-671,	755,	251,	4,	-94,	311,	-61,
	182,	267,	-647,	-795,	651,	888,	-333,	389,	-62,
	-321,	481,	-484,	39,	-445,	-101,	-624,	-647,	499,
	-468,	652,	-243,	137,	77,	-969,	337,	753,	-821,
	222,	139,	946,	892,	692,	817,	-495,	433,	900,
	-30,	-41,	-539,	225,	-922,	601,	-763,	-11,	-169,
	-248,	396,	-166,	-602,	610,	907,	-129,	-138,	-805,
	243,	-131,	-834,	-786,	877,	958,	-702,	842,	-176,
	-845,	90,	-269,	-194,	-680,	593,	-506,	313,	927,
	772,	233,	44,	-116,	973,	93,	-288,	-804,	194,
	-483,	598,	507,	202,	41,	214,	-46,	-931,	572,
	-876,	326,	-670,	827,	-576,	824,	783,	-966,	80,
	140,	895,	-868,	-188,	874,	191,	244,	675,	755,
	694,	73,	-339,	-394,	374,	-671,	803,	-310,	-986,
	-762,	-28,	-113,	-564,	-12,	372,	744,	614,	584,
	-296,	513,	-984,	-197,	-629,	-983,	-423,	149,	-390,
	659,	121,	-562,	-818,	695,	-769,	-897,	723,	-831,
	283,	-383,	576,	-399,	718,	-181,	-877,	-402,	972,
	685,	669,	-464,	603,	-342,	788,	76,	566,	-446,
	281,	192,	40,	-979,	906,	862,	712,	-963,	330,
	430,	102,	-157,	847,	447,	346,	-96,	216,	-222,
	632,	756,	-494,	186,	-506,	-98,	-517,	10,	-892,
	1,	-821,	157,	922,	652,	305,	-578,	818,	644,
	838,	-769,	589,	310,	323,	961,	41,	-238,	-92,
	-135,	-964,	-120,	-501,	471,	-252,	396,	573,	-780,
	221,	95,	-924,	866,	260,	-114,	509,	737,	914,
	-101,	-62,	530,	424,	-8,	625,	-138,	-779,	-743,
	664,	969,	925,	174,	148,	-519,	686,	426,	672,
	-633,	626,	56,	-127,	-974,	363,	-452,	-290,	963,
	-641,	597,	-79,	120,	-334,	-217,	-215,	-708,	-655,
	-450,	986,	-427,	195,	281,	-752,	-230,	692,	101,
	-864,	574,	-584,	486,	-972,	-885,	-741,	642,	-827,
	-124,	-25,	756,	852,	-38,	471,	906,	628,	-282,
	360,	-126,	-468,	-564,	-525,	986,	-898,	850,	-207,
	-233,	-406,	702,	565,	148,	-210,	-451,	651,	-839,
	-370,	-75,	-302,	-340,	-917,	-876,	-192,	-21,	-251,
	91,	555,	636,	-155,	-68,	-423,	448,	299,	-262,
	-830,	62,	832,	-690,	-996,	-190,	671,	-456,	598,
	420,	484,	-335,	745,	478,	579,	-330,	-246,	-422,
	783,	569,	-316,	-463,	-789,	35,	752,	64,	-744,
	216,	-713,	-484,	-236,	-226,	427,	-294,	551,	518,
	-988,	-842,	-357,	555,	236,	-997,	991,	-225,	-847,
	-355,	-759,	-803,	-443,	-457,	-883,	781,	-90,	-346,
	-117,	797,	18,	777,	399,	413,	648,	-420,	462,
	-767,	827,	649,	691,	160,	-722,	-65,	-809,	168,
	-442,	122,	-666,	-111,	-464,	641,	-983,	-138,	-881,
	-757,	971,	-797,	-791,	-703,	291,	-641,	-987,	882,
	213,	873,	-481,	-992,	-5,	-954,	600,	-161,	414,
	-875,	14,	831,	592,	133,	194,	483,	278,	-639,
	559,	701,	392,	-540,	-257,	-726,	-431,	-494,	387,
	-586,	-489,	229,	111,	213,	467,	-867,	-64,	148,
	963,	326,	528,	-577,	880,	489,	34,	-982,	-630,
	241,	319,	-225,	577,	-991,	784,	-23,	519,	24,
	-383,	-937,	-377,	-290,	711,	434,	-842,	-296,	-314,
	335,	-361,	20,	970,	-629,	455,	682,	129,	186,
	-484,	561,	320,	64,	-999,	958,	-381,	-759,	-423,
	374,	-169,	-643,	780,	-808,	-531,	-259,	734,	-217,
	-936,	983,	355,	-915,	860,	368,	579,	979,	-864,
	785,	735,	-395,	565,	590,	-747,	-108,	-685,	-124,
	991,	753,	-989,	735,	-847,	349,	78,	-482,	-656,
	513,	742,	-962,	-168,	-201,	-322,	501,	985,	-706,
	-824,	-861,	-178,	114,	457,	-837,	91,	-558,	-1,
	-319,	648,	-932,	261,	-212,	-955,	-507,	-990,	406,
	744,	833,	-956,	-248,	-894,	719,	707,	-467,	491,
	-693,	-894,	350,	567,	-708,	887,	754,	450,	752,
	-651,	-987,	473,	863,	-88,	-345,	423,	-340,	-746,
	-233,	-973,	-243,	-296,	-420,	967,	-836,	548,	-114,
	500,	716,	-291,	442,	997,	534,	447,	341,	450,
	477,	352,	331,	31,	862,	304,	-211,	-889,	948,
	-381,	-144,	-511,	-714,	114,	97,	-183,	132,	68,
	-264,	619,	463,	792,	-556,	1,	-16,	-568,	361,
	52,	-103,	467,	-837,	775,	-854,	217,	12,	-222,
	-574,	-313,	-33,	17,	150,	394,	-554,	736,	-147,
	772,	-183,	982,	-583,	0,	-139,	-630,	138,	-349,
	108,	-341,	-461,	-870,	542,	-108,	-550,	-947,	169,
	-326,	-512,	228,	335,	-620,	-639,	-808,	420,	-432,
	798,	-31,	606,	-732,	-95,	-882,	411,	734,	-479,
	573,	-165,	-234,	445,	60,	-501,	537,	454,	-831,
	894,	-804,	-996,	-5,	-238,	46,	572,	-670,	585,
	955,	865,	-463,	-458,	321,	794,	-897,	788,	-820,
	443,	731,	525,	-185,	657,	203,	313,	583,	756,
	-862,	955,	-535,	-943,	-844,	-834,	139,	-352,	727,
	-380,	-144,	-173,	-152,	981,	864,	-636,	-623,	21,
	-84,	-531,	-116,	964,	904,	-757,	569,	248,	-1,
	-183,	72,	-394,	-541,	-634,	597,	-799,	-677,	-353,
	859,	-474,	922,	-836,	-668,	544,	-692,	898,	-858,
	-165,	378,	379,	147,	-818,	343,	58,	-279,	-119,
	-930,	-576,	-771,	904,	-405,	953,	168,	-6,	-257,
	-686,	-934,	347,	-172,	-503,	-417,	-875,	578,	617,
	965,	799,	598,	633,	-260,	27,	-920,	-723,	267,
	862,	212,	85,	319,	-902,	109,	-739,	410,	923,
	775,	320,	-755,	427,	-255,	-190,	743,	-900,	-590,
	31,	-594,	-486,	817,	-626,	872,	-490,	-650,	-458,
	-863,	253,	59,	430,	855,	-277,	-242,	215,	626,
	428,	395,	-334,	-12,	-761,	-957,	-473,	-683,	847,
	704,	680,	184,	15,	6,	-844,	-771,	-977,	891,
	-285,	651,	-798,	479,	0,	670,	-80,	-928,	-781,
	600,	357,	745,	173,	-908,	-634,	678,	-343,	758,
	-398,	-267,	-520,	-739,	-195,	-677,	-454,	-490,	-523,
	230,	-448,	26,	-3,	441,	631,	-922,	846,	-785,
	-761,	-58,	364,	-281,	516,	548,	-667,	830,	-159,
	-465,	-102,	-661,	575,	-412,	751,	866,	-892,	-17,
	784,	-569,	475,	-752,	-561,	187,	406,	879,	-996,
	425,	103,	667,	962,	950,	937,	-357,	-211,	-851,
	316,	-727,	-688,	520,	363,	615,	-818,	-182,	392,
	599,	-906,	-957,	-544,	-332,	56,	326,	-253,	-404,
	92,	995,	-692,	-877,	696,	-262,	-193,	910,	845,
	820,	-706,	812,	485,	-577,	-462,	824,	159,	40,
	-233,	-460,	-444,	-852,	-832,	659,	-479,	-972,	842,
	232,	-966,	383,	613,	161,	565,	395,	37,	810,
	817,	-481,	102,	75,	414,	23,	871,	209,	271,
	124,	-804,	828,	-261,	-175,	-269,	68,	-665,	885,
	-564,	822,	-650,	-743,	-951,	-366,	970,	-758,	-67,
	-475,	-46,	549,	-807,	-438,	-464,	-50,	248,	52,
	261,	915,	-11,	773,	-320,	906,	-393,	-51,	-115,
	-746,	298,	-280,	850,	572,	-221,	62,	-654,	-983,
	-545,	935,	674,	881,	-228,	-816,	859,	-690,	-453,
	-374,	516,	582,	314,	-579,	38,	378,	-412,	-299,
	-721,	-739,	-344,	-38,	-228,	-887,	-713,	-2,	874,
	35,	614,	281,	-9,	815,	986,	373,	278,	523,
	909,	52,	758,	-722,	931,	582,	-371,	822,	251,
	-340,	-228,	-418,	321,	-780,	490,	-67,	421,	887,
	-89,	-820,	-115,	17,	653,	-913,	-763,	-972,	-947,
	625,	-726,	816,	-665,	-789,	465,	273,	-387,	-993,
	549,	-138,	-634,	824,	313,	-232,	-383,	-43,	467,
	-551,	-683,	84,	164,	-726,	-490,	-171,	708,	-785,
	448,	-984,	-300,	-229,	691,	678,	50,	449,	-842,
	-70,	-558,	-76,	802,	939,	90,	-580,	-97,	972,
	880,	248,	914,	497,	-794,	-833,	-177,	-499,	-867,
	857,	-476,	-582,	228,	334,	637,	-966,	-955,	529,
	578,	-898,	-329,	-79,	-407,	-410,	526,	896,	292,
	346,	-75,	-264,	-179,	-235,	-921,	-773,	-128,	149,
	-630,	319,	-558,	-896,	-635,	-348,	-869,	-194,	-396,
	81,	680,	968,	429,	-759,	490,	151,	410,	-500,
	-813,	378,	-22,	-140,	-428,	923,	25,	440,	285,
	-938,	389,	-545,	-825,	-92,	197,	0,	-633,	-609,
	-14,	639,	460,	-296,	874,	-634,	-867,	-716,	171,
	-738,	-691,	886,	792,	210,	-346,	-661,	-171,	-815,
	220,	-123,	802,	90,	453,	-585,	715,	-747,	77,
	370,	-406,	-805,	-995,	583,	465,	-859,	910,	284,
	-483,	2,	-184,	-353,	-527,	848,	-678,	956,	857,
	90,	-343,	364,	995,	534,	144,	-731,	-24,	969,
	-838,	-585,	-802,	835,	-950,	913,	104,	24,	-693,
	875,	290,	641,	549,	862,	549,	165,	399,	-36,
	-915,	463,	950,	96,	-164,	-919,	-769,	724,	-577,
	-555,	-309,	-663,	-835,	-314,	482,	-79,	954,	885,
	535,	799,	-888,	188,	594,	420,	-402,	7,	-5,
	-915,	949,	114,	165,	-793,	-147,	-789,	662,	733,
	138,	883,	-32,	749,	885,	508,	-638,	-761,	739,
	-363,	643,	768,	237,	799,	-415,	-782,	-833,	282,
	-307,	-802,	342,	-826,	901,	-353,	-658,	-433,	801,
	294,	206,	-457,	657,	-409,	-15,	537,	-106,	994,
	-929,	831,	146,	-134,	-106,	-850,	595,	573,	300,
	560,	310,	-831,	-985,	701,	354,	172,	-406,	-23,
	164,	-509,	32,	31,	-289,	-315,	49,	-608,	98,
	687,	560,	58,	-70,	900,	-685,	-617,	-610,	305,
	391,	-823,	-709,	-434,	640,	19,	-164,	336,	721,
	-538,	-179,	-466,	625,	379,	262,	-974,	30,	-720,
	-129,	930,	148,	155,	349,	568,	-17,	-948,	-969,
	-122,	134,	-215,	-112,	269,	-588,	496,	-253,	-473,
	-706,	372,	913,	687,	363,	-728,	723,	-577,	365,
	448,	495,	-8,	764,	662,	-747,	-437,	43,	341,
	648,	-239,	749,	475,	857,	-977,	700,	-92,	947,
	413,	-811,	89,	359,	-64,	509,	-117,	217,	-76,
	-728,	-368,	-674,	-172,	823,	-554,	535,	740,	-467,
	204,	-540,	725,	488,	216,	553,	-484,	614,	-357,
	-39,	-757,	683,	5,	678,	-543,	-375,	-80,	-79,
	-360,	-674,	-879,	-947,	-730,	-4,	173,	185,	-61,
	654,	-336,	-283,	807,	-928,	-121,	541,	-906,	-417,
	298,	-123,	-711,	406,	-977,	411,	482,	-346,	477,
	589,	-846,	-987,	229,	-317,	-506,	352,	-456,	-789,
	-181,	-426,	789,	-337,	-674,	669,	552,	-958,	-885,
	-991,	-704,	508,	-463,	-273,	-577,	633,	-91,	82,
	-826,	625,	-200,	-747,	325,	503,	-641,	386,	-697,
	325,	450,	514,	8,	772,	-882,	207,	243,	920,
	-269,	-19,	-79,	887,	552,	-322,	-842,	572,	157,
	-982,	-588,	365,	-203,	930,	-479,	-992,	723,	-973,
	592,	295,	671,	-913,	323,	591,	-393,	954,	-370,
	-224,	208,	297,	988,	-100,	140,	-315,	-903,	-806,
	-618,	-386,	260,	-570,	-11,	-800,	66,	-653,	401,
	590,	151,	95,	317,	-968,	68,	-487,	-484,	462,
	-202,	563,	-662,	-269,	-368,	419,	-945,	-638,	-909,
	-606,	598,	-937,	503,	61,	-731,	-577,	-350,	-305,
	32,	593,	-692,	703,	-388,	790,	328,	934,	842,
	-364,	92,	898,	-315,	416,	-572,	503,	901,	-228,
	-476,	428,	-952,	253,	519,	740,	-617,	791,	933,
	864,	-912,	874,	-309,	-523,	-509,	789,	641,	-124,
	-453,	482,	-225,	-417,	805,	625,	-434,	581,	421,
	867,	147,	922,	-917,	-672,	22,	-614,	608,	131,
	65,	695,	-893,	158,	-660,	81,	565,	708,	725,
	327,	412,	408,	600,	-343,	-514,	-509,	506,	397,
	-530,	440,	-525,	-872,	814,	132,	-619,	-377,	527,
	221,	205,	-456,	339,	-790,	428,	-711,	909,	399,
	-806,	320,	-61,	0,	170,	105,	278,	-62,	325,
	498,	-595,	347,	821,	689,	-272,	69,	-771,	-33,
	-695,	456,	-956,	280,	-718,	-474,	336,	-265,	-676,
	883,	-43,	-830,	325,	76,	-107,	-672,	218,	-670,
	-856,	847,	434,	-389,	421,	423,	-660,	755,	237,
	445,	-256,	604,	-257,	397,	841,	928,	831,	712,
	734,	-210,	511,	-298,	-625,	-510,	-560,	655,	749,
	347,	4,	529,	310,	26,	160,	-803,	-101,	897,
	-960,	-191,	243,	880,	-797,	-426,	-745,	-233,	211,
	-995,	763,	351,	54,	-293,	313,	259,	333,	939,
	-201,	-854,	586,	-810,	447,	-309,	745,	186,	589,
	-1,	-821,	-979,	740,	251,	-825,	456,	-536,	-813,
	746,	-955,	830,	-974,	-76,	303,	-467,	-155,	-231,
	-865,	573,	-61,	-318,	912,	788,	-473,	223,	829,
	-274,	515,	214,	-4,	273,	888,	696,	663,	866,
	-573,	-471,	836,	-457,	656,	872,	-839,	925,	-230,
	-921,	-358,	-201,	447,	9,	-523,	895,	-669,	-844,
	557,	-751,	218,	-520,	-997,	-430,	91,	-753,	932,
	673,	-442,	-947,	-899,	713,	414,	730,	104,	284,
	-4,	-21,	449,	264,	707,	522,	-808,	-542,	0,
	68,	977,	791,	260,	-436,	-980,	952,	-355,	-544,
	-240,	843,	-661,	-500,	-148,	-224,	835,	-263,	918,
	60,	66,	5,	-614,	-867,	-442,	-374,	-919,	313,
	636,	215,	-56,	-423,	321,	555,	206,	-175,	-40,
	801,	342,	-45,	465,	-466,	742,	451,	982,	-536,
	166,	-483,	203,	-663,	423,	-673,	529,	-495,	-148,
	129,	-534,	784,	681,	-723,	210,	-107,	-843,	-583,
	453,	-959,	-221,	-697,	-8,	-345,	-81,	332,	265,
	605,	282,	680,	-835,	-622,	844,	-624,	932,	12,
	-528,	-299,	959,	-787,	-220,	604,	325,	-497,	-760,
	216,	-240,	-24,	105,	-499,	186,	-820,	415,	942,
	132,	566,	78,	399,	-274,	792,	-637,	124,	-514,
	804,	256,	-557,	-180,	4,	81,	-31,	-273,	540,
	-560,	-480,	431,	256,	-998,	-515,	707,	-691,	63,
	-848,	131,	808,	303,	396,	403,	429,	155,	-158,
	225,	224,	746,	-735,	711,	138,	730,	-621,	-137,
	-797,	101,	887,	249,	616,	-91,	7,	-153,	-153,
	724,	372,	-90,	-958,	33,	-840,	599,	626,	177,
	-291,	771,	-959,	227,	-913,	-335,	-889,	595,	-136,
	-147,	-901,	-759,	210,	-643,	-812,	-775,	-173,	140,
	844,	-770,	-612,	-992,	-143,	223,	-452,	-525,	-643,
	891,	-941,	535,	699,	340,	775,	753,	669,	-499,
	807,	-388,	-841,	-944,	844,	115,	703,	42,	-518,
	759,	-339,	-902,	-559,	-69,	-525,	-823,	-726,	-529,
	382,	158,	-287,	-85,	822,	228,	900,	186,	-264,
	-802,	589,	-474,	-934,	583,	461,	-49,	352,	551,
	-771,	95,	438,	-500,	51,	-271,	117,	-699,	329,
	-645,	699,	-273,	616,	967,	806,	-77,	915,	-850,
	68,	-451,	-69,	-198,	-636,	618,	-975,	-125,	-747,
	-400,	-924,	31,	-682,	-732,	274,	212,	-66,	410,
	-834,	-950,	-843,	624,	-517,	608,	-391,	-357,	976,
	-432,	-603,	-317,	-820,	315,	446,	568,	-865,	734,
	289,	-604,	552,	180,	454,	84,	-387,	-650,	493,
	-644,	-33,	-168,	-694,	-260,	769,	-306,	-103,	-226,
	-497,	994,	-492,	-69,	595,	-168,	-931,	-607,	833,
	-50,	-499,	-288,	-9,	-555,	-984,	903,	-379,	543,
	-95,	28,	-773,	41,	-95,	419,	-150,	-69,	120,
	-961,	-478,	222,	494,	217,	-628,	155,	-676,	253,
	247,	884,	-62,	964,	866,	61,	-37,	64,	-987,
	67,	-819,	418,	-902,	841,	-144,	572,	200,	705,
	-12,	561,	-153,	-785,	-270,	-106,	159,	171,	-751,
	983,	160,	341,	-457,	-388,	-157,	-441,	-353,	-565,
	-760,	-242,	706,	-671,	456,	-443,	503,	241,	-372,
	140,	128,	-161,	-581,	767,	982,	-794,	-328,	462,
	269,	-876,	904,	976,	-671,	-223,	269,	800,	361,
	-625,	-335,	-882,	386,	-293,	-714,	-223,	-646,	-125,
	-143,	866,	-256,	-298,	795,	205,	-528,	539,	920,
	486,	-548,	-400,	388,	-53,	-510,	76,	728,	-532,
	-465,	-639,	739,	-647,	-511,	-365,	594,	415,	871,
	502,	-343,	-740,	300,	-748,	916,	498,	-831,	-741,
	338,	878,	-332,	17,	-859,	-651,	850,	894,	-173,
	903,	915,	-703,	775,	951,	-242,	-633,	674,	-455,
	887,	814,	-534,	-500,	-633,	718,	742,	566,	706,
	639,	-888,	-884,	213,	350,	241,	672,	434,	17,
	378,	256,	-642,	53,	860,	191,	30,	924,	618,
	952,	933,	585,	9,	155,	238,	-245,	-547,	-970,
	-288,	-997,	150,	520,	-260,	387,	340,	964,	-494,
	-183,	-91,	-217,	-750,	-489,	-960,	-642,	559,	-304,
	512,	5,	-929,	883,	717,	253,	87,	949,	-601,
	667,	-389,	151,	-111,	-235,	633,	793,	-158,	120,
	-81,	-918,	-108,	-902,	-600,	876,	-309,	-759,	-748,
	-203,	-367,	-879,	-501,	227,	413,	732,	-320,	983,
	799,	-642,	-681,	478,	-801,	-378,	969,	-491,	514,
	739,	-104,	419,	-790,	-434,	604,	-930,	275,	440,
	-400,	30,	-207,	701,	-624,	99,	-577,	786,	943,
	-671,	76,	307,	-793,	74,	8,	116,	-940,	-589,
	494,	846,	-682,	727,	631,	720,	924,	384,	35,
	-414,	50,	-929,	-199,	875,	732,	-693,	-110,	-628,
	444,	860,	607,	616,	-149,	-753,	-639,	745,	-222,
	17,	-434,	851,	-442,	-187,	765,	-319,	-784,	442,
	-87,	94,	-951,	-141,	517,	292,	382,	512,	639,
	328,	-979,	114,	-31,	-471,	899,	585,	227,	584,
	0,	454,	319,	108,	-633,	-45,	-910,	973,	-614,
	-761,	572,	-946,	765,	-985,	-265,	-166,	-496,	-549,
	919,	-4,	399,	659,	-388,	953,	60,	207,	-344,
	-785,	965,	-826,	-872,	-803,	800,	-433,	936,	470,
	545,	-467,	575,	-857,	-824,	-467,	894,	-961,	-622,
	378,	-780,	-185,	626,	134,	29,	-111,	-464,	833,
	526,	-799,	890,	-268,	-28,	-128,	623,	-461,	490,
	-978,	-754,	-721,	321,	-457,	322,	823,	-192,	-361,
	721,	-925,	502,	358,	-422,	-536,	971,	963,	-523,
	585,	-140,	767,	513,	-200,	298,	-863,	-999,	-741,
	-655,	299,	420,	160,	-959,	-488,	-446,	-262,	437,
	465,	-638,	-584,	924,	-448,	783,	273,	759,	-281,
	-866,	-620,	863,	-692,	167,	-15,	198,	-840,	904,
	578,	-324,	-723,	-869,	10,	730,	931,	-87,	375,
	-114,	233,	596,	647,	634,	-355,	385,	635,	-486,
	391,	608,	971,	101,	-158,	-551,	-182,	249,	-233,
	-799,	-277,	950,	-628,	-798,	-400,	111,	-259,	986,
	837,	484,	-785,	-663,	948,	-571,	692,	-407,	432,
	50,	-678,	-391,	-119,	807,	-785,	708,	-397,	14,
	-525,	-581,	500,	131,	972,	-203,	657,	-669,	772,
	996,	881,	-984,	191,	-233,	-607,	-212,	323,	995,
	150,	-489,	472,	694,	-318,	-666,	-219,	-892,	831,
	-311,	355,	-674,	708,	-374,	701,	-59,	968,	-244,
	809,	-992,	589,	592,	306,	135,	-101,	-528,	-819,
	868,	-318,	-366,	-957,	-879,	325,	564,	-333,	381,
	950,	174,	-200,	361,	768,	-108,	686,	284,	-424,
	136,	619,	-549,	720,	329,	-188,	428,	619,	539,
	314,	-577,	-410,	253,	373,	774,	997,	415,	-830,
	-603,	45,	-418,	268,	249,	550,	-267,	-658,	-135,
	58,	-79,	951,	-612,	651,	217,	490,	778,	-680,
	139,	-499,	924,	-443,	-807,	-917,	-617,	918,	-380,
	-905,	-75,	964,	150,	-610,	-720,	-282,	-128,	325,
	910,	-290,	266,	242,	514,	292,	-990,	745,	87,
	-395,	529,	-180,	-804,	499,	-189,	-190,	-137,	-367,
	789,	43,	-582,	-723,	-14,	-15,	750,	7,	-775,
	-263,	0,	-311,	223,	293,	-176,	365,	-97,	-876,
	380,	-880,	886,	888,	-254,	126,	-569,	393,	423,
	714,	166,	240,	-999,	-142,	-320,	957,	-446,	-473,
	-88,	603,	479,	-308,	602,	-766,	-688,	-534,	-154,
	703,	271,	740,	318,	791,	790,	133,	947,	610,
	-258,	-720,	70,	-284,	-902,	-60,	-766,	875,	-895,
	652,	149,	-4,	862,	-145,	-871,	-818,	349,	816,
	-862,	-373,	999,	380,	533,	264,	-248,	-285,	738,
	-803,	117,	720,	412,	997,	-780,	-648,	755,	441,
	89,	-706,	-551,	340,	957,	887,	919,	779,	256,
	975,	840,	-878,	-296,	259,	689,	14,	-848,	980,
	-74,	-951,	-51,	-540,	817,	-2,	-511,	24,	410,
	498,	-279,	89,	144,	-769,	255,	632,	981,	-606,
	428,	683,	373,	-729,	748,	460,	-356,	788,	-635,
	545,	581,	-15,	-566,	414,	234,	751,	214,	-414,
	530,	-565,	-191,	-798,	519,	-887,	-586,	163,	-163,
	149,	-36,	275,	-200,	0,	-785,	-95,	495,	3,
	30,	-342,	912,	-374,	-908,	-497,	-633,	376,	-45,
	-264,	8,	-283,	931,	-5,	-662,	-173,	-528,	596,
	958,	441,	989,	-800,	828,	988,	-129,	95,	857,
	-446,	824,	-82,	606,	63,	-155,	969,	880,	58,
	-810,	93,	690,	-450,	-499,	786,	800,	425,	59,
	-950,	13,	947,	-790,	804,	-549,	721,	462,	359,
	-490,	797,	-502,	642,	-637,	397,	62,	106,	-516,
	-707,	-849,	-326,	230,	-295,	-926,	-582,	-93,	462,
	-207,	-285,	-656,	785,	-211,	552,	245,	91,	-944,
	-649,	901,	635,	352,	197,	888,	-334,	84,	-302,
	-241,	14,	-912,	-519,	-444,	279,	466,	412,	452,
	-13,	-179,	146,	733,	728,	-583,	-791,	861,	-924,
	-307,	846,	987,	-969,	-566,	-140,	858,	-492,	-92,
	681,	216,	363,	-54,	322,	-774,	206,	-812,	-428,
	-425,	-529,	-446,	966,	147,	-542,	694,	-43,	-815,
	-119,	-891,	-378,	806,	31,	-858,	545,	965,	943,
	416,	599,	-448,	-57,	295,	-798,	-477,	968,	-32,
	-874,	466,	227,	9,	269,	940,	267,	-135,	-149,
	-87,	101,	112,	-78,	700,	5,	942,	-120,	-274,
	-208,	-76,	-347,	762,	-741,	465,	-452,	-710,	-752,
	-690,	536,	598,	-532,	965,	-10,	586,	14,	-883,
	-237,	809,	185,	-9,	-447,	-950,	662,	826,	574,
	-357,	635,	-31,	-600,	879,	478,	-451,	-177,	-767,
	-47,	471,	-129,	-665,	-376,	325,	810,	737,	-903,
	884,	288,	671,	434,	213,	96,	187,	860,	783,
	792,	910,	-510,	-238,	-552,	-439,	-259,	230,	-445,
	-658,	855,	759,	-190,	501,	322,	-687,	883,	247,
	-446,	-134,	-130,	-245,	826,	40,	-430,	-446,	-64,
	-92,	-59,	-138,	-816,	614,	-440,	-779,	916,	-743,
	-843,	-513,	-225,	415,	-41,	656,	864,	977,	937,
	24,	470,	311,	-833,	-246,	-822,	594,	554,	-390,
	-326,	-984,	410,	-539,	-940,	-212,	-551,	725,	733,
	-880,	585,	-329,	-236,	-266,	178,	477,	635,	914,
	-620,	340,	-214,	-267,	-79,	-592,	-784,	-421,	710,
	211,	-50,	-954,	59,	801,	880,	-879,	-838,	-483,
	581,	367,	634,	46,	-674,	30,	-433,	-755,	95,
	-817,	549,	988,	-657,	608,	0,	-561,	-438,	221,
	-619,	41,	199,	-991,	-493,	474,	559,	-596,	-586,
	-966,	756,	13,	836,	-743,	-571,	952,	84,	-529,
	136,	80,	-455,	-685,	-779,	942,	15,	64,	957,
	672,	352,	85,	248,	-156,	-933,	-28,	-852,	-554,
	420,	683,	-365,	-643,	828,	11,	488,	-666,	-306,
	-509,	322,	-330,	563,	-257,	-319,	-273,	-16,	50,
	942,	-772,	86,	444,	677,	325,	545,	828,	-680,
	-286,	-68,	126,	-197,	309,	-535,	-835,	-423,	298,
	441,	538,	-174,	986,	-786,	-396,	-948,	-9,	-377,
	-515,	680,	38,	-155,	-265,	230,	-931,	-682,	-313,
	-414,	539,	272,	659,	613,	416,	119,	418,	-770,
	-873,	882,	-214,	-983,	888,	563,	-226,	-505,	-608,
	860,	847,	147,	-292,	-755,	247,	357,	723,	350,
	771,	-400,	-377,	572,	85,	660,	-144,	-45,	-674,
	-503,	-314,	866,	-531,	-333,	586,	160,	-98,	988,
	490,	-867,	-595,	973,	238,	-219,	-539,	736,	-886,
	-218,	-111,	-209,	-363,	-338,	149,	-834,	662,	946,
	820,	378,	-958,	410,	308,	616,	569,	-809,	-292,
	-823,	-117,	634,	568,	-948,	-710,	581,	-229,	324,
	689,	405,	-423,	-721,	-715,	-919,	86,	846,	-992,
	-151,	-67,	480,	-13,	830,	-368,	272,	-10,	-846,
	-261,	939,	-336,	283,	610,	158,	398,	908,	-158,
	652,	-72,	555,	834,	282,	749,	-934,	729,	893,
	997,	-770,	253,	-449,	984,	609,	-809,	-373,	-770,
	856,	-539,	356,	170,	-301,	439,	-385,	-396,	833,
	-196,	142,	907,	-820,	-857,	-317,	482,	315,	-396,
	805,	882,	115,	599,	-984,	-489,	-665,	-830,	340,
	199,	-465,	-938,	-774,	851,	752,	529,	77,	-386,
	-754,	-903,	-241,	-568,	282,	-226,	-22,	-365,	-662,
	887,	-882,	-68,	-114,	533,	-178,	996,	114,	909,
	-62,	195,	-285,	687,	-155,	15,	-680,	226,	512,
	-109,	463,	-981,	437,	-400,	18,	-956,	410,	-646,
	128,	-663,	-977,	-754,	681,	-233,	744,	176,	883,
	300,	49,	89,	-653,	-225,	-478,	381,	38,	255,
	518,	-40,	270,	-527,	742,	384,	-823,	-296,	34,
	-201,	300,	931,	-250,	-444,	-400,	65,	-679,	699,
	-106,	-602,	771,	-511,	810,	-555,	-797,	710,	146,
	309,	246,	-439,	-379,	315,	206,	706,	-553,	-55,
	577,	771,	-615,	-531,	-731,	-800,	102,	-958,	-735,
	701,	-80,	783,	-468,	506,	562,	957,	643,	-140,
	-418,	311,	339,	673,	-214,	352,	185,	-27,	-268,
	871,	153,	-697,	914,	-576,	923,	-89,	399,	593,
	-378,	-959,	970,	65,	232,	722,	652,	-261,	-799,
	-366,	851,	-44,	-310,	-231,	-173,	708,	-324,	568,
	445,	36,	-329,	-129,	981,	725,	914,	-628,	-927,
	-476,	-146,	914,	67,	877,	912,	779,	-155,	792,
	565,	196,	-454,	-890,	963,	-569,	-375,	-443,	902,
	591,	854,	-484,	902,	-205,	-571,	-401,	-423,	881,
	533,	98,	863,	598,	-680,	387,	-247,	-499,	-703,
	-8,	-115,	-349,	-355,	197,	354,	-482,	-193,	117,
	27,	-309,	833,	-273,	894,	-792,	-482,	-941,	-383,
	-672,	-446,	-729,	665,	-880,	652,	812,	-575,	285,
	431,	-980,	-198,	-235,	-844,	504,	471,	431,	974,
	-92,	-465,	496,	653,	450,	722,	-612,	-892,	-19,
	816,	467,	817,	499,	240,	496,	793,	-374,	-710,
	-406,	191,	149,	-893,	-591,	-558,	814,	829,	-110,
	-922,	-826,	536,	113,	-427,	717,	354,	-498,	-997,
	-275,	372,	224,	850,	179,	-341,	572,	-318,	985,
	6,	-246,	-870,	-282,	867,	278,	477,	-262,	592,
	-24,	321,	-544,	467,	-861,	-794,	94,	-773,	-737,
	-680,	983,	686,	244,	789,	-25,	936,	-479,	410,
	60,	-537,	130,	817,	-935,	-707,	737,	901,	459,
	297,	29,	-955,	847,	929,	-33,	360,	-66,	137,
	-283,	-884,	-295,	-662,	604,	-932,	278,	602,	410,
	-616,	-884,	427,	239,	732,	154,	311,	675,	-518,
	528,	0,	167,	637,	-76,	169,	369,	217,	-4,
	-781,	743,	-148,	-730,	165,	-917,	-531,	752,	297,
	-703,	126,	-864,	-336,	194,	-250,	-307,	745,	-522,
	-566,	-330,	-98,	-8,	520,	380,	167,	910,	-242,
	-25,	-139,	489,	-651,	-603,	-843,	637,	-675,	869,
	873,	598,	51,	7,	-388,	-582,	-897,	-955,	-728,
	-623,	-379,	-679,	-513,	783,	-625,	26,	-856,	-478,
	-347,	65,	-563,	-883,	913,	128,	258,	-763,	829,
	612,	-357,	-81,	986,	666,	570,	322,	645,	370,
	334,	933,	392,	-777,	370,	182,	977,	402,	-880,
	-742,	67,	-774,	856,	471,	980,	-617,	-258,	-627,
	355,	-528,	231,	922,	-331,	771,	470,	-564,	-490,
	-855,	990,	-137,	183,	159,	697,	323,	-870,	789,
	577,	790,	-493,	-587,	404,	289,	144,	471,	-964,
	669,	881,	-501,	-608,	104,	25,	764,	357,	-447,
	-511,	-527,	-121,	-49,	859,	479,	-700,	-446,	145,
	-915,	404,	-85,	-539,	116,	-484,	341,	980,	-430,
	-312,	-834,	-483,	2,	441,	-956,	834,	-168,	-4,
	23,	-981,	142,	-237,	-925,	-639,	-711,	472,	-892,
	629,	637,	-688,	-70,	564,	-980,	-659,	805,	-399,
	-67,	-325,	-475,	942,	132,	0,	575,	-630,	70,
	712,	108,	-842,	159,	150,	341,	-646,	-8,	905,
	-462,	-247,	852,	-390,	882,	930,	232,	-109,	-430,
	366,	497,	992,	-551,	-106,	-771,	-471,	94,	516,
	801,	-820,	801,	660,	-667,	-439,	797,	134,	311,
	500,	433,	837,	-16,	200,	688,	993,	-769,	-507,
	643,	206,	-581,	-856,	765,	-877,	250,	-509,	187,
	-51,	315,	393,	-102,	-666,	167,	-687,	-15,	642,
	-334,	-141,	83,	860,	55,	183,	902,	-301,	-477,
	-674,	-229,	-33,	341,	605,	-153,	-978,	725,	207,
	-255,	-336,	958,	579,	29,	213,	883,	961,	-120,
	-440,	39,	-393,	893,	34,	330,	-918,	-257,	868,
	-593,	-776,	-41,	-722,	319,	-277,	418,	-837,	4,
	404,	133,	843,	406,	-303,	986,	488,	-346,	647,
	434,	321,	-470,	70,	-616,	75,	-805,	-125,	-273,
	735,	-679,	32,	384,	-252,	-843,	-206,	761,	-894,
	81,	-595,	331,	979,	174,	484,	339,	-231,	700,
	682,	366,	788,	-4,	346,	568,	428,	122,	956,
	-446,	310,	-431,	-293,	882,	962,	-25,	641,	-957,
	864,	755,	169,	179,	114,	688,	-684,	404,	691,
	-426,	668,	-192,	-472,	-795,	498,	373,	-600,	956,
	77,	370,	477,	63,	-766,	364,	523,	356,	-351,
	-345,	541,	967,	-249,	636,	589,	-818,	157,	759,
	-578,	412,	-414,	39,	-297,	-54,	-68,	-364,	-671,
	-334,	-57,	-606,	-240,	22,	-398,	291,	-753,	-186,
	753,	-31,	906,	-454,	-964,	-207,	-818,	754,	799,
	-258,	589,	-881,	-608,	961,	-374,	210,	-961,	150,
	-882,	-186,	258,	-566,	736,	750,	905,	975,	227,
	-147,	-267,	620,	705,	-728,	-723,	896,	-618,	920,
	977,	261,	-371,	790,	665,	937,	-89,	731,	-752,
	-359,	775,	324,	70,	-953,	95,	-32,	-697,	-434,
	-862,	652,	372,	-339,	-112,	-78,	132,	-318,	-92,
	-548,	82,	-851,	338,	845,	-155,	991,	-936,	-603,
	-577,	443,	-232,	60,	17,	378,	-493,	-926,	507,
	935,	-201,	-395,	-844,	454,	-68,	3,	-384,	349,
	436,	487,	232,	533,	-131,	876,	-635,	-522,	696,
	-155,	670,	-945,	-38,	-428,	-456,	-359,	-927,	-888,
	-157,	108,	-436,	-464,	-583,	-734,	349,	-732,	491,
	-910,	-315,	227,	715,	-513,	477,	101,	224,	962,
	-839,	-893,	-351,	128,	6,	355,	-529,	-274,	-856,
	-857,	745,	690,	-662,	597,	-875,	811,	473,	-703,
	728,	-752,	-973,	460,	109,	121,	-120,	-278,	-507,
	1,	304,	-652,	299,	-335,	738,	819,	474,	-91,
	124,	277,	525,	-49,	-388,	-379,	676,	792,	187,
	-994,	910,	-378,	-26,	254,	200,	-14,	-321,	-753,
	-435,	61,	12,	-303,	565,	601,	789,	-195,	836,
	644,	-815,	628,	-416,	792,	-322,	209,	533,	-242,
	-751,	291,	290,	951,	992,	979,	-301,	756,	-999,
	280,	15,	-713,	-638,	521,	-776,	-941,	874,	244,
	277,	-228,	-71,	98,	-437,	135,	700,	-369,	-206,
	-480,	371,	810,	-777,	-950,	462,	308,	-523,	287,
	-96,	-313,	150,	911,	452,	692,	-785,	671,	-772,
	491,	-64,	378,	130,	-810,	919,	112,	538,	77,
	665,	-872,	264,	-159,	-674,	61,	96,	-19,	255,
	306,	-554,	659,	25,	641,	-513,	-23,	939,	431,
	-948,	-633,	-555,	-860,	-505,	-941,	44,	-58,	857,
	-284,	585,	511,	-830,	-163,	472,	229,	391,	548,
	973,	-153,	-409,	-932,	-898,	78,	-939,	971,	15,
	-19,	638,	-268,	290,	-927,	-898,	-95,	86,	766,
	-627,	-661,	-488,	-132,	445,	-937,	763,	22,	-606,
	-805,	298,	-830,	-783,	507,	-976,	102,	154,	-807,
	541,	-387,	-194,	-400,	-406,	-340,	-121,	-518,	-908,
	-216,	-409,	-927,	-825,	-893,	428,	812,	-16,	403,
	176,	56,	-865,	405,	-663,	822,	-386,	674,	613,
	147,	-981,	428,	84,	-367,	992,	-513,	-174,	773,
	-707,	426,	489,	-950,	422,	713,	838,	94,	666,
	-141,	-217,	911,	-709,	335,	-722,	-994,	-347,	-860,
	860,	-816,	326,	73,	285,	-318,	408,	699,	609,
	81,	-371,	-85,	597,	118,	-735,	-654,	155,	787,
	-581,	-208,	415,	900,	312,	179,	291,	-59,	621,
	627,	622,	-55,	-135,	536,	-934,	-31,	-980,	-639,
	-243,	-654,	-523,	-786,	-621,	570,	260,	-441,	284,
	-998,	481,	528,	-737,	336,	270,	-935,	36,	-889,
	-233,	-627,	414,	642,	630,	-520,	390,	499,	-700,
	-414,	-319,	289,	8,	4,	704,	717,	-200,	858,
	137,	-605,	232,	20,	-634,	-166,	193,	302,	349,
	134,	-330,	688,	324,	-588,	-662,	740,	669,	609,
	556,	-476,	-919,	-871,	-957,	-283,	-23,	-394,	-319,
	-679,	-979,	-843,	-353,	933,	544,	-536,	-593,	880,
	-879,	-241,	-880,	859,	-883,	-526,	899,	983,	367,
	995,	753,	-634,	426,	259,	472,	937,	-469,	-428,
	-212,	-87,	-562,	-746,	-277,	-459,	-783,	871,	509,
	-994,	146,	300,	275,	850,	243,	-129,	385,	245,
	-341,	-201,	-581,	-903,	-321,	782,	-737,	627,	-758,
	-588,	-770,	88,	-194,	86,	503,	-625,	-280,	-240,
	-576,	-131,	-440,	-340,	-770,	541,	377,	862,	46,
	-131,	-849,	-607,	969,	-625,	272,	380,	935,	758,
	417,	272,	590,	478,	649,	-390,	336,	501,	-626,
	543,	-601,	-984,	-622,	517,	384,	827,	98,	872,
	805,	278,	422,	-641,	-708,	763,	-853,	-551,	-180,
	525,	769,	-325,	641,	508,	807,	-458,	617,	5,
	-384,	285,	636,	-71,	41,	-105,	-78,	157,	-971,
	249,	383,	-627,	273,	538,	-806,	-205,	615,	798,
	-591,	402,	-816,	529,	-346,	-377,	-572,	471,	597,
	-518,	4,	855,	429,	-768,	-183,	-8,	-574,	-510,
	-184,	-757,	322,	997,	-9,	527,	728,	872,	-288,
	361,	606,	550,	-930,	-559,	-377,	977,	518,	127,
	272,	17,	657,	-682,	830,	-547,	105,	92,	-283,
	-928,	-161,	-1,	767,	-434,	-68,	178,	-716,	-691,
	-281,	413,	694,	578,	788,	-528,	-807,	-749,	900,
	180,	-34,	337,	-540,	719,	881,	-710,	-53,	465,
	-104,	-936,	-304,	323,	587,	-679,	372,	-756,	-953,
	592,	946,	842,	-491,	-911,	464,	-431,	-141,	278,
	-799,	173,	860,	-32,	19,	-942,	754,	661,	841,
	-779,	479,	657,	588,	161,	-652,	-503,	-942,	962,
	674,	-966,	-319,	379,	-587,	-705,	-197,	-776,	-14,
	-843,	-103,	-717,	525,	884,	-286,	-547,	322,	-16,
	290,	-855,	-476,	944,	-469,	853,	330,	-479,	521,
	783,	-68,	-293,	-341,	783,	922,	187,	-784,	650,
	-103,	804,	-232,	181,	-370,	287,	-948,	961,	-685,
	-70,	540,	234,	-985,	-313,	-496,	984,	735,	838,
	643,	-168,	192,	877,	819,	-354,	466,	654,	-858,
	-12,	-614,	-127,	-804,	178,	-24,	134,	-649,	639,
	35,	387,	60,	990,	-668,	354,	356,	680,	75,
	-862,	-487,	645,	-899,	312,	-420,	-618,	-932,	558,
	-924,	-993,	866,	-363,	167,	-179,	857,	865,	7,
	-652,	713,	848,	603,	-411,	538,	773,	126,	-860,
	613,	393,	135,	801,	-569,	-483,	-135,	927,	-686,
	-281,	979,	405,	-246,	20,	-499,	945,	380,	-804,
	309,	294,	858,	-937,	-540,	16,	785,	-371,	970,
	-206,	92,	-578,	664,	-990,	771,	204,	222,	-661,
	-28,	658,	95,	392,	378,	-538,	-25,	-457,	-811,
	153,	81,	65,	-272,	559,	-40,	-448,	-998,	-376,
	159,	-851,	-296,	214,	317,	-40,	243,	604,	-16,
	-764,	811,	435,	-229,	-381,	-346,	61,	443,	921,
	652,	-607,	881,	500,	-933,	289,	910,	-294,	664,
	915,	-963,	-331,	731,	623,	143,	-293,	161,	-503,
	909,	-639,	318,	271,	-619,	136,	829,	-586,	-769,
	-953,	54,	-501,	-313,	-102,	-655,	924,	-478,	-116,
	712,	-474,	252,	-891,	-348,	305,	185,	35,	84,
	184,	226,	801,	-309,	745,	178,	645,	-889,	66,
	454,	230,	157,	-851,	137,	428,	281,	-909,	-607,
	-332,	136,	133,	940,	610,	-932,	118,	857,	-928,
	-555,	257,	305,	346,	902,	121,	-688,	-72,	-926,
	714,	925,	-407,	-517,	-102,	740,	412,	41,	518,
	120,	465,	249,	-464,	540,	690,	-921,	-449,	684,
	772,	481,	693,	762,	217,	703,	336,	-866,	-711,
	-737,	-470,	293,	-26,	-667,	-175,	306,	692,	-427,
	829,	790,	123,	-145,	-284,	-613,	800,	365,	295,
	583,	106,	52,	-127,	804,	-863,	948,	-544,	-238,
	-523,	-401,	-365,	287,	71,	510,	-249,	650,	-564,
	928,	-106,	-165,	179,	626,	-704,	603,	82,	138,
	-422,	658,	-79,	-665,	-766,	-533,	998,	-956,	237,
	234,	966,	799,	-196,	-554,	-997,	-700,	309,	385,
	-755,	824,	-804,	386,	131,	-564,	765,	-870,	-903,
	-162,	36,	17,	-220,	-480,	110,	647,	620,	26,
	512,	256,	805,	27,	-825,	769,	-86,	163,	847,
	384,	-491,	633,	-199,	-593,	332,	-555,	-154,	352,
