#include <include/weight.h>

__ro_hinv mat_t weight_meta = {
	.dims = {16, 6, 5, 5},
	.len_dims = 4,
	.strides = {150, 25, 5, 1},
	.data = (fixed *)weight
};

__ro_hinv _q15 weight[] = {
	525,	-435,	-921,	-220,	-975,	-36,	931,	-739,	235,
	-699,	97,	-677,	-847,	-94,	289,	718,	-636,	-350,
	533,	-805,	992,	951,	-30,	181,	-757,	-881,	584,
	694,	911,	960,	-581,	576,	269,	-132,	464,	-115,
	-67,	416,	632,	-725,	-181,	-513,	-490,	-512,	570,
	-841,	-313,	-576,	-449,	-574,	564,	-5,	-725,	129,
	519,	319,	640,	-234,	-244,	-593,	-91,	434,	-821,
	372,	668,	235,	29,	635,	440,	637,	525,	-760,
	770,	391,	-388,	-111,	-692,	-768,	-915,	156,	-579,
	794,	526,	586,	-614,	-564,	698,	-997,	-320,	-997,
	-808,	-141,	542,	208,	677,	630,	933,	710,	56,
	-388,	769,	-866,	-455,	-823,	103,	-363,	-664,	-303,
	278,	-167,	182,	513,	367,	-634,	-295,	590,	648,
	130,	-379,	-838,	-553,	324,	-713,	-12,	49,	9,
	2,	-307,	831,	999,	780,	-713,	-514,	985,	-339,
	568,	858,	-488,	-459,	-386,	-193,	231,	-795,	-438,
	754,	423,	690,	-353,	428,	-58,	-315,	-828,	-827,
	670,	448,	-989,	202,	-485,	-366,	-155,	-663,	747,
	-583,	-389,	957,	634,	-833,	419,	-665,	744,	-98,
	-756,	-879,	43,	-62,	274,	61,	91,	729,	175,
	-674,	597,	32,	-326,	823,	-859,	-967,	-942,	650,
	244,	643,	-915,	-516,	-385,	-326,	-748,	-162,	-151,
	727,	-703,	-914,	-824,	279,	-719,	161,	326,	-362,
	-45,	-689,	-148,	505,	873,	32,	504,	371,	-428,
	995,	936,	-883,	295,	-647,	794,	960,	141,	520,
	980,	362,	466,	-341,	-367,	-42,	472,	-62,	675,
	-119,	846,	975,	-316,	-328,	-189,	-547,	-66,	-544,
	-522,	0,	284,	63,	-185,	-993,	-930,	-607,	-191,
	812,	-987,	-219,	-145,	-591,	599,	123,	-192,	723,
	509,	1,	-197,	255,	205,	603,	-502,	463,	-341,
	-384,	-960,	708,	-589,	-635,	70,	-487,	-234,	612,
	-493,	-83,	-459,	-911,	443,	-987,	-317,	155,	949,
	-773,	-323,	-669,	-262,	-436,	-420,	-361,	-654,	-906,
	-350,	115,	-328,	123,	250,	-100,	473,	-570,	-617,
	747,	-77,	228,	431,	-63,	800,	573,	-836,	-442,
	-666,	-134,	-217,	-973,	705,	13,	-575,	-970,	-187,
	528,	393,	329,	-236,	-771,	618,	-560,	-516,	804,
	-639,	591,	885,	660,	902,	-427,	-276,	-651,	-63,
	348,	830,	-396,	-65,	-667,	159,	585,	-579,	583,
	202,	-48,	-683,	37,	-519,	981,	638,	-490,	-264,
	-571,	-614,	-997,	75,	-676,	-815,	981,	-477,	421,
	292,	501,	404,	876,	-284,	970,	-87,	-835,	27,
	344,	-496,	380,	458,	699,	173,	124,	-401,	128,
	438,	-430,	926,	481,	388,	-806,	-692,	447,	826,
	-333,	-20,	927,	-404,	-786,	346,	200,	-77,	365,
	-886,	-641,	416,	-276,	36,	134,	-69,	-568,	125,
	771,	334,	705,	466,	-303,	288,	167,	548,	441,
	-579,	-131,	-851,	-94,	600,	716,	629,	378,	123,
	712,	860,	-795,	-109,	-578,	671,	412,	-923,	-630,
	-280,	-207,	-549,	688,	-900,	962,	-168,	-883,	-3,
	995,	-514,	-490,	-93,	570,	-646,	-785,	-269,	103,
	-593,	-836,	877,	-358,	-96,	822,	-807,	-847,	378,
	-35,	-726,	113,	-666,	478,	-73,	975,	-196,	-695,
	-668,	967,	-199,	-133,	-201,	-142,	-343,	-75,	-246,
	637,	687,	450,	55,	-644,	-478,	820,	-993,	711,
	-199,	687,	-187,	-442,	-688,	143,	-564,	-928,	-921,
	301,	-415,	34,	-481,	-438,	-280,	414,	-122,	-224,
	236,	78,	735,	794,	800,	-837,	-146,	99,	-586,
	660,	-814,	874,	269,	709,	645,	439,	-571,	774,
	-881,	-824,	-575,	358,	822,	-69,	-52,	-486,	-966,
	-895,	444,	-400,	630,	106,	-170,	931,	967,	156,
	451,	-50,	547,	268,	-45,	840,	-466,	63,	-153,
	175,	122,	389,	-204,	694,	-147,	-16,	-993,	-920,
	845,	-345,	-523,	-72,	173,	-977,	-129,	747,	-344,
	-410,	-373,	-558,	815,	-428,	986,	-732,	-4,	-772,
	885,	-351,	845,	549,	508,	306,	-800,	900,	697,
	577,	-412,	-754,	-11,	-348,	981,	-220,	827,	888,
	245,	-930,	882,	685,	514,	81,	-327,	-505,	-552,
	616,	579,	72,	228,	-88,	241,	80,	-871,	-638,
	953,	-214,	-287,	552,	-186,	529,	-369,	-841,	-505,
	123,	-248,	-744,	190,	31,	-223,	474,	608,	-968,
	-996,	843,	-57,	-447,	622,	-321,	-830,	-159,	840,
	-386,	-293,	-511,	-449,	644,	-547,	168,	-505,	-560,
	82,	371,	698,	-88,	-527,	31,	39,	260,	-489,
	-889,	539,	93,	896,	-19,	603,	144,	890,	288,
	-569,	-514,	703,	207,	-125,	648,	793,	-47,	118,
	181,	-730,	155,	450,	-344,	884,	-40,	608,	592,
	761,	-545,	-513,	-201,	189,	518,	-878,	943,	-348,
	64,	-112,	384,	259,	1,	-335,	-76,	859,	458,
	68,	-466,	681,	682,	-65,	522,	153,	-867,	-347,
	193,	-939,	-735,	216,	210,	-649,	753,	-956,	-172,
	362,	-358,	-601,	194,	571,	832,	681,	-630,	-672,
	-192,	337,	-317,	627,	379,	78,	-496,	-845,	398,
	704,	-287,	94,	122,	-829,	417,	266,	-900,	837,
	-226,	860,	-686,	-134,	667,	-301,	-989,	230,	409,
	-511,	-180,	816,	295,	-575,	-644,	-516,	61,	364,
	-570,	916,	132,	196,	-438,	693,	688,	-362,	123,
	260,	-915,	-384,	-863,	938,	445,	436,	570,	-421,
	717,	-124,	-790,	-421,	-519,	42,	770,	-581,	237,
	-658,	-471,	705,	548,	902,	965,	199,	908,	-312,
	-758,	-83,	253,	-933,	613,	108,	976,	16,	-953,
	356,	310,	-275,	-893,	-703,	405,	-360,	-354,	-261,
	-377,	642,	-92,	749,	-690,	635,	-465,	477,	-109,
	-225,	198,	-780,	-895,	-223,	-924,	-304,	388,	89,
	650,	493,	-50,	-596,	-287,	362,	279,	-48,	0,
	-782,	-585,	732,	-732,	153,	-10,	-91,	769,	-568,
	-660,	-431,	-681,	35,	-701,	633,	-858,	528,	-332,
	-388,	-754,	-363,	788,	231,	967,	-804,	197,	-777,
	531,	661,	-989,	82,	732,	987,	-362,	249,	-351,
	-999,	914,	-459,	119,	-740,	578,	-937,	-105,	258,
	-959,	470,	-477,	233,	-62,	283,	-986,	897,	394,
	427,	228,	-604,	-462,	775,	604,	-530,	-689,	-783,
	829,	122,	-957,	23,	-900,	-71,	322,	-874,	558,
	-292,	-848,	935,	503,	-870,	-294,	205,	-117,	-565,
	286,	-205,	862,	-893,	-144,	-459,	542,	-577,	359,
	-984,	435,	676,	937,	312,	529,	-101,	261,	765,
	-279,	135,	-703,	-591,	-522,	-684,	-543,	627,	-152,
	-241,	544,	-368,	324,	804,	131,	732,	208,	-241,
	-808,	71,	-571,	-154,	362,	42,	-39,	482,	-778,
	683,	-512,	-626,	834,	-382,	20,	987,	-944,	-720,
	-60,	312,	-191,	157,	-628,	582,	233,	-706,	-597,
	-459,	141,	-202,	901,	102,	733,	-291,	601,	-19,
	-223,	-955,	492,	528,	622,	839,	471,	-443,	-687,
	914,	-823,	-237,	-805,	801,	-442,	207,	877,	653,
	-232,	-192,	-667,	529,	244,	659,	958,	-568,	827,
	723,	289,	331,	658,	-91,	-868,	56,	264,	-65,
	82,	-288,	286,	453,	964,	155,	-830,	-598,	834,
	273,	-615,	-87,	-207,	-211,	200,	-987,	438,	814,
	382,	-920,	96,	-288,	787,	21,	-790,	-479,	-808,
	-613,	-688,	50,	763,	334,	541,	409,	-744,	-275,
	-283,	611,	-259,	997,	509,	841,	-696,	-199,	-500,
	-19,	186,	-910,	-947,	-38,	-282,	-28,	-351,	-378,
	-49,	-813,	149,	-642,	-327,	356,	326,	287,	-690,
	-783,	-684,	524,	-576,	740,	-787,	727,	927,	-566,
	-616,	-21,	793,	-292,	235,	-908,	-517,	734,	439,
	-40,	629,	-16,	548,	280,	744,	-505,	-253,	497,
	-999,	-969,	-288,	-613,	868,	77,	-926,	-35,	-446,
	566,	-132,	-207,	547,	33,	-678,	-219,	566,	-463,
	-920,	318,	-336,	-784,	303,	208,	235,	33,	-189,
	-964,	-617,	-79,	962,	-318,	503,	-969,	856,	-906,
	-388,	-25,	-298,	-596,	-285,	323,	-829,	-653,	328,
	80,	827,	-388,	-967,	-113,	-273,	-312,	939,	50,
	-901,	91,	-780,	-891,	605,	948,	459,	789,	-308,
	-270,	860,	509,	-278,	651,	637,	-36,	-614,	872,
	885,	662,	929,	-743,	50,	49,	-636,	400,	726,
	357,	-498,	875,	289,	-331,	390,	981,	-677,	456,
	333,	929,	96,	-807,	-361,	823,	315,	169,	-751,
	992,	243,	525,	-460,	-680,	711,	218,	-212,	61,
	-604,	89,	226,	620,	631,	700,	-463,	-188,	-529,
	21,	-958,	-792,	-246,	-11,	-539,	-526,	739,	335,
	440,	155,	955,	-209,	724,	-844,	78,	575,	-251,
	-732,	-289,	-698,	194,	626,	232,	-879,	-937,	-924,
	-191,	-70,	-913,	472,	-274,	-910,	967,	-192,	534,
	-635,	103,	-793,	167,	-964,	-106,	231,	-105,	-81,
	901,	-745,	-189,	415,	-492,	-608,	789,	544,	-763,
	112,	86,	148,	310,	718,	537,	385,	-694,	-309,
	-854,	246,	759,	-128,	-35,	154,	709,	927,	-432,
	-765,	-194,	-468,	27,	908,	2,	806,	-31,	665,
	-182,	842,	647,	719,	321,	-60,	438,	330,	-614,
	964,	-573,	-613,	322,	-197,	977,	857,	37,	302,
	102,	-629,	-179,	-60,	587,	-812,	-797,	-19,	625,
	-909,	836,	-502,	552,	-907,	311,	536,	860,	-943,
	-762,	-457,	791,	-476,	-880,	507,	-920,	-865,	-941,
	488,	-915,	444,	-936,	-240,	283,	879,	750,	-415,
	-644,	18,	332,	29,	-94,	-315,	440,	281,	-671,
	-277,	-105,	-385,	-376,	48,	512,	-283,	715,	399,
	-756,	-814,	-89,	-149,	-343,	246,	-933,	-479,	-909,
	259,	760,	-50,	609,	-429,	-619,	760,	300,	818,
	658,	825,	-162,	-491,	452,	686,	-32,	894,	14,
	916,	-628,	865,	238,	626,	-863,	-924,	462,	-541,
	972,	420,	364,	751,	-755,	236,	-561,	519,	-767,
	-91,	777,	-900,	-721,	377,	-94,	61,	-668,	-574,
	678,	607,	-117,	328,	41,	526,	-816,	695,	-476,
	-580,	101,	221,	-982,	433,	-3,	-347,	116,	110,
	484,	-891,	745,	-605,	295,	-656,	544,	-337,	-923,
	631,	-363,	399,	-957,	654,	265,	-921,	-16,	-881,
	-388,	753,	-694,	-327,	-663,	-654,	25,	-124,	-301,
	-361,	933,	624,	996,	419,	142,	6,	291,	867,
	602,	561,	-916,	780,	-640,	-262,	-908,	197,	314,
	949,	704,	-393,	974,	-130,	284,	452,	-118,	-487,
	-615,	-908,	601,	178,	875,	-671,	205,	762,	373,
	127,	-37,	-952,	-685,	-919,	-501,	970,	-813,	776,
	-33,	-696,	230,	-771,	-705,	-461,	-276,	-305,	582,
	794,	-958,	971,	801,	900,	-382,	-248,	-613,	-116,
	-368,	-108,	-795,	-590,	-597,	662,	-54,	514,	-65,
	-644,	-724,	-385,	-940,	-512,	408,	-935,	206,	483,
	708,	-445,	-94,	-991,	607,	-426,	-848,	-180,	319,
	282,	505,	612,	981,	-548,	-441,	285,	823,	454,
	714,	587,	838,	922,	6,	-220,	-369,	129,	-89,
	-27,	-407,	-48,	818,	759,	309,	30,	80,	-202,
	-1,	395,	175,	-704,	-159,	-434,	-876,	554,	-735,
	44,	-32,	-144,	-931,	-411,	-531,	-188,	981,	396,
	472,	-740,	-112,	498,	762,	821,	-913,	-203,	929,
	784,	-847,	-937,	798,	-19,	-625,	501,	-36,	-230,
	-514,	-590,	-830,	-681,	-902,	-43,	350,	-705,	-531,
	-57,	13,	190,	81,	722,	-261,	778,	-54,	-515,
	-239,	55,	570,	-717,	-268,	11,	676,	628,	459,
	574,	-364,	-765,	-78,	335,	945,	238,	958,	-951,
	135,	-173,	-312,	-432,	138,	798,	211,	-367,	229,
	-68,	882,	-321,	681,	746,	-967,	-555,	-302,	733,
	-113,	-96,	-843,	203,	-797,	-62,	785,	-922,	-737,
	-647,	-859,	230,	561,	-761,	-879,	936,	314,	560,
	175,	175,	419,	-568,	273,	991,	-908,	-164,	-828,
	-385,	-197,	174,	917,	396,	426,	-555,	-801,	-113,
	-151,	998,	-114,	627,	594,	535,	994,	671,	-717,
	-869,	866,	-562,	-248,	-483,	-588,	185,	-224,	137,
	710,	315,	187,	544,	662,	286,	-808,	-777,	-435,
	27,	458,	863,	739,	-205,	229,	-656,	237,	-719,
	474,	-26,	-642,	-987,	-801,	-247,	834,	107,	-299,
	665,	815,	-822,	-687,	-43,	834,	141,	169,	-248,
	831,	-747,	565,	46,	-374,	201,	-37,	-789,	939,
	-745,	748,	80,	342,	722,	-300,	471,	-505,	-595,
	-843,	-149,	234,	-472,	33,	340,	-450,	-814,	834,
	-482,	272,	595,	-524,	521,	-455,	-833,	935,	-95,
	430,	936,	783,	839,	763,	415,	348,	-583,	406,
	-276,	854,	21,	-864,	984,	133,	-653,	-723,	-622,
	-534,	369,	986,	132,	-731,	-29,	220,	-321,	-271,
	-386,	-414,	886,	-882,	718,	-59,	680,	629,	38,
	-494,	-952,	303,	325,	938,	98,	976,	735,	-961,
	439,	534,	616,	-611,	-628,	-981,	-67,	-330,	490,
	960,	-439,	995,	-344,	-229,	-403,	-571,	544,	-447,
	312,	-427,	-896,	779,	-746,	-708,	132,	-26,	707,
	723,	-262,	-842,	-798,	527,	434,	273,	851,	-227,
	495,	453,	-852,	-557,	-647,	-371,	-518,	773,	835,
	258,	-97,	-890,	955,	120,	320,	73,	-610,	383,
	-927,	-784,	-398,	-937,	444,	475,	622,	265,	-439,
	-513,	981,	166,	-909,	-964,	-694,	-336,	261,	467,
	763,	15,	-40,	-81,	677,	-786,	-719,	-223,	-898,
	-792,	-243,	-953,	-448,	-93,	-199,	610,	-918,	-257,
	-334,	-739,	-446,	-370,	-577,	-127,	-672,	-744,	-210,
	-204,	-235,	-837,	-96,	-929,	237,	544,	331,	-958,
	462,	-302,	609,	-381,	-88,	-662,	184,	-361,	202,
	382,	443,	-886,	853,	171,	-62,	-348,	667,	715,
	738,	-309,	293,	862,	-776,	166,	216,	-52,	285,
	171,	-43,	956,	652,	550,	-201,	174,	-983,	-670,
	-468,	511,	373,	52,	-220,	-552,	592,	212,	312,
	-246,	-758,	764,	-384,	-411,	-499,	744,	-274,	-683,
	-129,	-175,	-100,	659,	-353,	392,	228,	-805,	391,
	-428,	402,	373,	-340,	229,	-422,	-759,	-794,	634,
	-107,	799,	330,	-468,	559,	118,	943,	-444,	-839,
	-569,	-186,	-575,	-536,	570,	380,	-78,	669,	733,
	-997,	121,	-475,	-884,	678,	334,	665,	427,	-335,
	-156,	-869,	962,	933,	903,	-602,	-333,	-627,	-190,
	721,	224,	-174,	231,	-192,	320,	980,	957,	-809,
	-37,	927,	-836,	355,	-873,	-342,	-477,	-840,	277,
	497,	-77,	601,	349,	-186,	-970,	-262,	-420,	-365,
	-245,	105,	623,	359,	-34,	-523,	77,	-958,	931,
	-135,	876,	100,	7,	664,	947,	369,	-146,	215,
	-153,	680,	-234,	973,	-727,	-94,	-189,	-233,	-298,
	-775,	-151,	53,	-644,	-497,	-710,	30,	-236,	-2,
	-845,	-730,	546,	-42,	-911,	-585,	97,	758,	-678,
	-766,	-945,	-33,	-702,	435,	785,	536,	9,	518,
	-316,	720,	-130,	545,	115,	-864,	-508,	67,	-228,
	-151,	568,	-605,	-292,	-993,	272,	384,	-294,	610,
	400,	921,	377,	380,	-819,	-337,	579,	561,	-77,
	133,	-478,	337,	-583,	959,	890,	395,	960,	-867,
	-704,	836,	278,	-971,	598,	-309,	-947,	-324,	805,
	-67,	-340,	403,	-66,	-848,	779,	502,	113,	-633,
	-781,	627,	-559,	-3,	-303,	302,	-311,	-481,	-280,
	304,	-940,	-407,	578,	-392,	16,	-528,	126,	805,
	455,	-506,	-8,	701,	464,	866,	-752,	260,	850,
	442,	-952,	395,	-379,	-171,	566,	-180,	-92,	-665,
	20,	-761,	662,	-837,	-334,	340,	342,	-499,	-951,
	80,	-666,	-448,	904,	-387,	714,	-439,	-844,	-826,
	797,	674,	-374,	-954,	359,	431,	-84,	992,	517,
	190,	448,	-466,	-223,	-671,	-952,	165,	423,	396,
	-105,	559,	625,	-860,	-210,	-935,	-915,	288,	-534,
	59,	-582,	-557,	-204,	754,	-674,	-607,	-260,	-182,
	-230,	-71,	-342,	-381,	-506,	234,	789,	-159,	-777,
	162,	635,	65,	703,	-739,	669,	327,	-451,	-26,
	-207,	728,	461,	449,	744,	806,	-126,	695,	-570,
	283,	816,	626,	-754,	939,	44,	-739,	677,	-368,
	766,	-253,	690,	-943,	-704,	675,	912,	340,	-81,
	-673,	190,	-528,	-431,	-961,	-112,	-810,	-162,	-913,
	636,	-275,	903,	-557,	514,	-677,	45,	535,	155,
	867,	-991,	-923,	785,	482,	-838,	-770,	-174,	-310,
	92,	-670,	509,	-245,	863,	-12
};

