#include <include/weight.h>

__ro_hinv mat_t weight_meta = {
	.dims = {160, 24, 1, 1},
	.len_dims = 4,
	.strides = {24, 1, 1, 1},
	.data = (fixed *)weight
};

__ro_hinv _q15 weight[] = {
	808,	-721,	-156,	956,	-125,	-734,	-311,	191,	955,
	-516,	-674,	505,	-788,	446,	-32,	28,	77,	145,
	-132,	410,	-715,	-533,	159,	-352,	621,	-616,	-372,
	-525,	-591,	305,	436,	-981,	416,	42,	-184,	-245,
	-976,	-866,	316,	-56,	841,	-215,	119,	292,	-583,
	501,	-609,	699,	-919,	-454,	654,	-884,	-304,	-509,
	900,	613,	438,	880,	327,	421,	-41,	403,	477,
	-626,	548,	-833,	-213,	701,	-648,	-503,	209,	2,
	557,	473,	-976,	298,	-360,	462,	941,	66,	922,
	509,	110,	783,	162,	689,	-482,	-295,	183,	-995,
	-613,	477,	-951,	611,	-707,	-161,	908,	578,	645,
	956,	-313,	855,	408,	501,	778,	162,	-764,	-935,
	641,	-285,	987,	456,	-822,	575,	626,	-748,	-98,
	-716,	-957,	-391,	-295,	127,	-3,	-754,	917,	-934,
	-463,	616,	-666,	-828,	-125,	-118,	917,	-310,	-376,
	-734,	-895,	985,	-279,	-257,	408,	123,	-507,	-985,
	-518,	-152,	638,	331,	-952,	65,	-614,	139,	504,
	417,	843,	323,	-581,	558,	-419,	-353,	-43,	-455,
	801,	-555,	452,	396,	-96,	-576,	615,	465,	-696,
	796,	-133,	632,	5,	-817,	-451,	-345,	44,	-796,
	544,	-909,	616,	816,	361,	-738,	978,	100,	-549,
	-17,	798,	-571,	581,	658,	-345,	246,	882,	-665,
	777,	-932,	-40,	201,	688,	-973,	-296,	963,	-913,
	-954,	-432,	-615,	-585,	-98,	-948,	376,	532,	-154,
	362,	-309,	-97,	257,	291,	574,	401,	-512,	107,
	-797,	-874,	517,	-723,	601,	-783,	164,	-229,	470,
	-498,	233,	852,	699,	-51,	414,	-7,	-856,	-856,
	392,	-462,	-35,	-411,	490,	-954,	-141,	503,	891,
	-368,	-573,	-451,	-763,	117,	387,	41,	-209,	-618,
	786,	913,	296,	-517,	-320,	195,	859,	809,	-946,
	-798,	895,	-149,	723,	-606,	216,	-451,	-158,	-536,
	7,	-184,	-21,	296,	895,	203,	855,	942,	-817,
	-542,	942,	-599,	460,	888,	334,	-648,	894,	968,
	785,	54,	-789,	199,	-9,	556,	-743,	-100,	882,
	-758,	-260,	375,	-344,	-829,	550,	-922,	-2,	-189,
	784,	350,	-439,	-349,	409,	424,	-872,	-205,	37,
	-212,	-388,	-320,	-477,	-843,	-260,	-541,	-723,	-685,
	363,	-191,	850,	414,	767,	256,	-410,	-747,	-540,
	538,	-212,	321,	401,	342,	906,	508,	-663,	477,
	-369,	-981,	967,	2,	-59,	-915,	-936,	78,	-652,
	-157,	-143,	-560,	-167,	670,	312,	-708,	-874,	819,
	-195,	200,	-204,	-468,	-214,	349,	-151,	-927,	-240,
	-452,	-959,	-995,	634,	629,	-127,	357,	231,	-755,
	443,	231,	673,	980,	-77,	728,	-597,	125,	543,
	-671,	928,	760,	-337,	-149,	-910,	-839,	-115,	-5,
	-48,	-182,	-128,	418,	-432,	110,	814,	558,	-347,
	-702,	320,	988,	-616,	597,	-743,	470,	361,	908,
	473,	-523,	-271,	339,	764,	-608,	-686,	-206,	926,
	658,	48,	481,	-520,	-591,	972,	359,	336,	479,
	-513,	783,	-758,	287,	39,	-450,	431,	-970,	-272,
	-805,	-794,	520,	-163,	783,	-384,	871,	-272,	-736,
	216,	587,	992,	191,	500,	-173,	576,	348,	-950,
	-397,	-817,	934,	123,	302,	863,	26,	878,	94,
	555,	-383,	398,	-134,	-744,	-653,	-623,	479,	-674,
	-615,	-511,	-526,	-384,	-741,	-113,	366,	-624,	-869,
	-847,	496,	-94,	698,	-245,	-133,	-839,	596,	849,
	879,	-600,	-56,	544,	-574,	-992,	-104,	-370,	268,
	214,	-839,	236,	928,	640,	219,	-605,	333,	-511,
	375,	600,	830,	717,	-561,	355,	676,	-335,	780,
	-388,	-405,	264,	982,	747,	-861,	470,	856,	-773,
	983,	-91,	-113,	-958,	852,	643,	-218,	-290,	-682,
	453,	-935,	927,	846,	685,	289,	383,	83,	-31,
	-192,	-103,	-609,	-995,	-529,	66,	-884,	-597,	723,
	-421,	-629,	-62,	708,	868,	-394,	-83,	890,	22,
	-821,	574,	-660,	-695,	403,	561,	764,	-91,	837,
	209,	348,	-722,	322,	-600,	-52,	-181,	692,	-56,
	595,	77,	836,	-909,	-610,	940,	-960,	112,	-696,
	-990,	-320,	-504,	704,	-63,	-497,	495,	-199,	-171,
	838,	305,	854,	25,	-517,	883,	31,	239,	-27,
	787,	-990,	-332,	-247,	-404,	-938,	202,	-713,	-579,
	326,	230,	-406,	627,	777,	-161,	-452,	772,	-725,
	-105,	956,	-320,	253,	-693,	284,	91,	839,	857,
	846,	893,	451,	391,	-266,	-371,	-952,	-408,	644,
	-729,	368,	-156,	70,	88,	180,	29,	282,	661,
	-138,	-653,	-963,	-744,	766,	471,	-618,	284,	-672,
	-856,	34,	679,	-440,	-150,	9,	-916,	-656,	463,
	928,	180,	138,	676,	845,	-389,	893,	313,	-343,
	399,	896,	-83,	705,	707,	-160,	700,	-538,	81,
	399,	151,	-364,	373,	459,	530,	296,	-978,	-656,
	520,	-190,	-40,	499,	-184,	523,	-377,	-55,	185,
	-81,	-176,	849,	-965,	-222,	602,	991,	-723,	948,
	601,	832,	96,	766,	603,	-481,	-908,	994,	-206,
	196,	-425,	-144,	-207,	-623,	861,	-254,	-311,	-450,
	-348,	105,	-374,	-466,	-425,	-116,	752,	510,	-606,
	687,	995,	-806,	539,	585,	-149,	-619,	302,	-738,
	-713,	114,	-564,	-668,	475,	-808,	-297,	19,	73,
	-877,	-470,	638,	390,	-396,	318,	279,	624,	-751,
	619,	70,	869,	-134,	-328,	-591,	416,	-314,	259,
	595,	-870,	126,	-670,	-226,	-910,	-483,	-995,	222,
	-588,	-111,	100,	300,	139,	670,	143,	-367,	934,
	664,	-735,	872,	-74,	235,	286,	-823,	-353,	-25,
	857,	-64,	-183,	849,	883,	-158,	532,	-89,	-842,
	-740,	837,	-63,	100,	561,	-662,	224,	828,	158,
	-447,	-780,	-46,	-784,	269,	-12,	512,	880,	744,
	525,	-576,	481,	183,	-933,	-182,	81,	890,	-734,
	384,	53,	-966,	287,	-424,	-461,	-332,	50,	-342,
	418,	-812,	-34,	210,	-313,	857,	-413,	483,	-741,
	-317,	716,	-737,	-700,	-651,	-286,	2,	-440,	279,
	961,	279,	491,	-559,	726,	523,	-773,	-221,	-768,
	896,	-463,	29,	-382,	235,	43,	-912,	97,	114,
	174,	-966,	-754,	282,	947,	-79,	28,	54,	726,
	434,	-561,	874,	-692,	570,	991,	925,	-656,	-941,
	30,	825,	637,	-679,	-394,	210,	673,	696,	-173,
	105,	931,	-139,	-176,	-994,	55,	-418,	858,	-456,
	505,	-786,	381,	-64,	-283,	-543,	486,	195,	-90,
	309,	179,	376,	-604,	-417,	-654,	115,	-363,	-72,
	-883,	242,	-711,	155,	915,	819,	-823,	264,	-115,
	822,	563,	-162,	464,	-13,	47,	39,	-615,	-605,
	647,	984,	389,	-148,	934,	594,	564,	976,	332,
	237,	185,	-185,	429,	-754,	-198,	25,	-272,	244,
	964,	655,	222,	-707,	-139,	534,	182,	772,	815,
	-987,	-400,	-132,	-70,	-43,	595,	52,	-158,	-967,
	698,	34,	-125,	608,	935,	944,	-985,	-611,	788,
	-725,	-907,	-989,	-772,	612,	-444,	603,	218,	-746,
	895,	921,	552,	-870,	-281,	910,	433,	989,	-660,
	-728,	66,	627,	-500,	516,	495,	260,	-123,	504,
	47,	-194,	-14,	72,	-269,	-699,	808,	-734,	952,
	-656,	-437,	-171,	-760,	-176,	8,	590,	208,	-241,
	-210,	-175,	887,	-705,	-687,	-711,	-121,	-306,	288,
	273,	155,	617,	-189,	359,	-297,	-793,	524,	-462,
	-190,	989,	-810,	-860,	-150,	-274,	911,	822,	-871,
	839,	475,	104,	-750,	-260,	-604,	535,	593,	-178,
	626,	27,	-723,	-339,	609,	-745,	-768,	-100,	29,
	-879,	372,	-926,	-44,	-830,	-243,	-617,	855,	777,
	200,	513,	-338,	271,	-471,	365,	704,	-750,	-27,
	776,	-700,	210,	-708,	-497,	-737,	336,	-901,	388,
	107,	601,	-29,	470,	-146,	914,	431,	-545,	-975,
	-496,	343,	-174,	-585,	251,	-59,	941,	230,	42,
	958,	291,	89,	733,	-517,	-15,	-698,	-868,	506,
	-113,	-237,	164,	3,	-435,	-477,	807,	717,	-625,
	-326,	91,	425,	962,	266,	796,	-966,	892,	736,
	374,	46,	85,	-321,	430,	850,	146,	-71,	-18,
	498,	-447,	554,	446,	220,	506,	234,	220,	318,
	-393,	568,	-422,	-890,	-173,	806,	355,	940,	-40,
	-317,	-869,	-357,	-443,	-478,	-131,	-225,	287,	-786,
	322,	491,	-827,	-817,	-13,	-346,	-336,	543,	515,
	53,	366,	360,	647,	701,	-684,	501,	-520,	544,
	143,	-206,	-332,	-320,	-114,	983,	-961,	-47,	532,
	7,	-58,	607,	338,	639,	-5,	636,	-786,	-80,
	-697,	421,	-692,	-297,	-74,	495,	488,	-713,	586,
	708,	511,	451,	30,	-613,	939,	994,	574,	-961,
	467,	600,	-123,	362,	651,	-958,	895,	-79,	-150,
	656,	250,	335,	-845,	942,	-553,	250,	647,	-446,
	690,	-590,	-155,	-980,	-492,	-469,	-665,	952,	547,
	-32,	1,	-515,	812,	163,	100,	-193,	-218,	-459,
	-831,	686,	-468,	-424,	483,	-365,	312,	521,	370,
	371,	205,	-355,	-261,	305,	891,	162,	727,	27,
	-436,	624,	-150,	297,	486,	-802,	253,	-824,	896,
	902,	-285,	-154,	-755,	-270,	654,	793,	700,	572,
	289,	-926,	-235,	765,	-155,	-157,	30,	-636,	817,
	832,	-209,	-826,	-60,	-479,	801,	-928,	-803,	-111,
	-343,	-9,	234,	397,	304,	-282,	348,	-188,	-799,
	-185,	306,	-537,	716,	99,	-778,	-605,	750,	-356,
	946,	-66,	-322,	555,	-504,	349,	-719,	-410,	432,
	-410,	821,	-627,	-628,	-839,	168,	-949,	-67,	-750,
	794,	54,	246,	-476,	-977,	-999,	-174,	473,	-714,
	778,	880,	-675,	-583,	901,	-711,	72,	-943,	126,
	-497,	515,	-887,	144,	-667,	321,	-703,	-34,	-693,
	-524,	-495,	-639,	201,	-77,	-431,	-30,	118,	791,
	489,	-399,	-98,	-545,	654,	-659,	-228,	-120,	-231,
	-916,	-538,	296,	-51,	-412,	431,	-936,	317,	-776,
	463,	169,	-110,	-964,	803,	444,	-747,	508,	49,
	540,	-73,	68,	-852,	731,	-561,	229,	-300,	-9,
	479,	97,	-586,	-302,	-238,	-407,	-746,	395,	-395,
	55,	263,	-52,	493,	-251,	-307,	777,	410,	20,
	-922,	-226,	-200,	-474,	334,	494,	-996,	935,	491,
	880,	-903,	860,	-921,	-913,	-43,	-842,	-407,	99,
	980,	-21,	750,	171,	-907,	-122,	24,	862,	-31,
	-720,	-319,	161,	-846,	653,	-932,	-559,	-743,	650,
	160,	-328,	-924,	-829,	539,	938,	957,	-530,	75,
	731,	910,	-698,	-380,	964,	-935,	-198,	812,	-269,
	-29,	582,	-74,	371,	-929,	-365,	-478,	536,	-924,
	-28,	226,	-133,	719,	-441,	369,	617,	335,	-704,
	-792,	-87,	524,	462,	844,	-129,	923,	-579,	-681,
	-421,	96,	-434,	-183,	331,	-324,	-194,	-711,	-940,
	18,	-679,	-28,	129,	525,	658,	-101,	-724,	149,
	-694,	136,	671,	-622,	-378,	681,	327,	886,	-655,
	-501,	137,	678,	996,	-461,	660,	537,	499,	771,
	192,	-509,	-288,	-831,	533,	-503,	-439,	-399,	-650,
	-181,	-906,	666,	-571,	500,	371,	-967,	-231,	705,
	-369,	317,	101,	367,	-968,	-677,	769,	-875,	-355,
	888,	359,	349,	604,	869,	253,	832,	37,	-261,
	898,	-471,	-379,	188,	-317,	-315,	-945,	312,	-155,
	-215,	0,	782,	424,	138,	551,	331,	-533,	440,
	-142,	292,	-30,	-432,	137,	24,	-798,	300,	852,
	67,	644,	-472,	-812,	904,	947,	-992,	-608,	825,
	994,	592,	-74,	-542,	-396,	252,	421,	-98,	-474,
	506,	-307,	107,	163,	-97,	572,	208,	-754,	-746,
	127,	-170,	208,	653,	-418,	354,	589,	-291,	-436,
	520,	-625,	611,	-150,	-181,	-514,	470,	714,	-329,
	-497,	862,	-238,	61,	-657,	-411,	-283,	-26,	-673,
	-710,	130,	21,	149,	-409,	959,	386,	650,	-369,
	83,	-311,	929,	194,	728,	-360,	-938,	423,	151,
	-397,	824,	139,	869,	625,	-128,	331,	776,	-538,
	-5,	-442,	591,	-639,	-646,	-324,	-794,	-580,	825,
	-743,	814,	853,	-583,	857,	-411,	267,	183,	-576,
	-893,	-850,	-713,	-771,	697,	-745,	-221,	728,	519,
	-441,	-703,	-914,	525,	104,	856,	422,	-31,	351,
	460,	818,	912,	120,	-561,	-892,	45,	745,	-735,
	848,	-593,	-343,	-957,	387,	-202,	-720,	-390,	-270,
	609,	96,	647,	-435,	779,	-72,	-726,	-77,	-322,
	547,	-965,	-932,	-215,	282,	-142,	-810,	-567,	79,
	153,	-469,	824,	986,	-96,	603,	-64,	-770,	-400,
	163,	-546,	-686,	-223,	304,	248,	610,	440,	137,
	392,	-704,	641,	70,	277,	-476,	298,	491,	-75,
	742,	-412,	-74,	-502,	-259,	-451,	-545,	861,	-154,
	701,	-119,	-558,	247,	-398,	501,	-237,	257,	843,
	-574,	9,	-645,	845,	796,	77,	-679,	-944,	-22,
	-433,	-682,	816,	-742,	593,	-258,	-716,	786,	884,
	-853,	453,	-170,	-162,	349,	-790,	465,	892,	-401,
	360,	-387,	754,	92,	883,	640,	-107,	474,	-416,
	297,	-189,	-878,	870,	-337,	355,	-591,	-381,	232,
	890,	54,	-639,	868,	-401,	109,	-19,	-462,	-109,
	-139,	-634,	-347,	785,	-179,	617,	-426,	547,	68,
	676,	79,	259,	141,	711,	92,	-636,	-30,	-131,
	-294,	700,	246,	799,	263,	-595,	-140,	-131,	-211,
	-720,	-776,	558,	-5,	850,	460,	746,	-772,	23,
	-572,	-93,	577,	-130,	126,	-401,	358,	-11,	-483,
	365,	603,	-58,	506,	-711,	-291,	480,	366,	-861,
	198,	96,	352,	103,	91,	986,	879,	350,	-727,
	-428,	-260,	-736,	-404,	865,	-48,	-129,	-750,	-115,
	-127,	162,	-831,	548,	-80,	263,	362,	-192,	-194,
	783,	-806,	-263,	524,	-868,	-348,	725,	380,	229,
	126,	-831,	898,	-758,	-299,	841,	5,	450,	-878,
	-291,	738,	-226,	-619,	236,	-696,	-554,	119,	-732,
	212,	-37,	26,	-598,	409,	-503,	-446,	-540,	-689,
	38,	344,	-909,	109,	-317,	-31,	-663,	679,	578,
	976,	671,	-83,	-729,	979,	-404,	-498,	709,	-25,
	945,	264,	640,	-568,	-873,	750,	955,	629,	781,
	560,	98,	62,	180,	429,	139,	372,	-628,	-10,
	-612,	-795,	-504,	413,	-838,	716,	931,	817,	840,
	95,	343,	780,	-100,	-271,	-80,	-504,	-793,	677,
	-654,	-636,	-567,	-447,	-839,	-987,	738,	-790,	-386,
	-806,	49,	-817,	335,	-223,	-577,	478,	661,	788,
	542,	-315,	481,	-396,	63,	-429,	303,	-726,	-723,
	-520,	-155,	-896,	300,	158,	-88,	-350,	971,	-777,
	-284,	191,	-105,	890,	236,	-900,	861,	-718,	-129,
	-623,	684,	-685,	-841,	142,	703,	-952,	606,	-907,
	343,	-817,	478,	98,	713,	-136,	156,	-730,	923,
	-87,	-946,	457,	-763,	275,	184,	939,	-523,	-920,
	256,	-113,	-694,	42,	-145,	147,	474,	-705,	-927,
	36,	-37,	9,	574,	-83,	-706,	-831,	-937,	506,
	145,	-676,	-234,	-851,	538,	-855,	-502,	-578,	-491,
	205,	959,	-132,	-920,	-717,	457,	-860,	484,	210,
	-447,	289,	-905,	424,	-419,	-885,	678,	285,	-871,
	-985,	-469,	-158,	-357,	14,	386,	-93,	-865,	-188,
	-88,	-959,	620,	377,	-873,	-673,	-159,	664,	-893,
	-345,	-387,	861,	842,	-565,	-97,	-427,	-357,	947,
	-624,	574,	53,	-141,	561,	-958,	424,	-81,	141,
	-651,	-176,	526,	721,	-216,	-361,	174,	174,	-497,
	757,	-344,	431,	-990,	-424,	199,	-189,	-73,	-12,
	-280,	395,	-834,	-887,	-593,	119,	723,	227,	-805,
	-708,	-545,	-638,	-618,	-254,	-120,	-383,	653,	-345,
	563,	-980,	921,	109,	121,	-554,	-526,	-289,	-954,
	-165,	-617,	16,	533,	553,	-934,	804,	-198,	687,
	543,	120,	-688,	337,	-215,	-932,	368,	928,	105,
	-663,	419,	571,	959,	-559,	-597,	-358,	-925,	-242,
	258,	-914,	982,	664,	-970,	-313,	467,	-519,	456,
	-810,	692,	510,	961,	717,	-210,	788,	-268,	-291,
	-194,	-571,	-268,	-788,	191,	-598,	579,	903,	692,
	-821,	-885,	-443,	-66,	452,	-779,	-808,	223,	75,
	-112,	-670,	-887,	500,	361,	635,	-253,	409,	162,
	-761,	259,	-661,	-105,	-741,	-276,	447,	-1,	-681,
	381,	894,	-126,	36,	-153,	-922,	-853,	-222,	-4,
	861,	128,	-432,	645,	-632,	-585,	-514,	-402,	-769,
	-951,	-252,	-95,	-904,	232,	333,	853,	-431,	70,
	-823,	-3,	-651,	384,	-874,	-344,	-271,	-110,	212,
	608,	880,	-546,	301,	-269,	-612,	744,	305,	148,
	0,	-943,	744,	-804,	497,	-105,	-236,	-588,	529,
	-628,	-631,	-121,	330,	-713,	-270,	543,	-295,	-386,
	-447,	-349,	-894,	151,	-375,	-185,	132,	512,	-40,
	17,	-935,	-383,	-752,	-268,	345,	-597,	204,	-402,
	-16,	-436,	180,	199,	299,	-680,	-259,	-378,	894,
	528,	-975,	-105,	-164,	-136,	-719,	641,	-787,	-749,
	865,	43,	-433,	543,	-865,	-559,	690,	-235,	-697,
	438,	-197,	-747,	-912,	-354,	-594,	188,	668,	788,
	892,	462,	-341,	534,	895,	-397,	819,	-976,	-638,
	-26,	-55,	-281,	-839,	-851,	531,	-765,	-616,	-183,
	-33,	-100,	189,	906,	-460,	405,	104,	-140,	-704,
	-919,	-349,	-380,	-585,	326,	967,	655,	-371,	-574,
	252,	-960,	805,	417,	-432,	29,	279,	-69,	-99,
	-676,	-363,	-14,	320,	405,	745,	349,	734,	119,
	228,	743,	-326,	-293,	-784,	-619,	-707,	-552,	-848,
	44,	-794,	264,	-344,	-523,	-690,	-841,	793,	320,
	-242,	649,	509,	-788,	480,	364,	859,	-231,	251,
	44,	-819,	741,	630,	327,	-567,	-913,	104,	-527,
	520,	232,	755,	-659,	840,	868,	963,	-170,	-828,
	-73,	-484,	-692,	488,	37,	324,	-973,	-889,	-126,
	-692,	449,	336,	604,	-73,	910,	-52,	-196,	-959,
	524,	39,	-229,	283,	-252,	-447,	-933,	601,	760,
	620,	129,	-44,	-690,	27,	-940,	441,	390,	859,
	-746,	875,	204,	119,	905,	-180,	-142,	-31,	20,
	-466,	483,	-497,	781,	-365,	540,	799,	148,	660,
	84,	-286,	-219,	297,	949,	-66,	793,	-212,	418,
	-366,	-973,	844,	-52,	997,	-985,	-309,	-10,	-270,
	191,	-745,	-64,	976,	-391,	-375,	-141,	-498,	-415,
	-567,	-587,	225,	913,	-859,	658,	433,	276,	357,
	-769,	343,	598,	382,	287,	36,	952,	612,	833,
	868,	925,	-107,	295,	834,	839,	-217,	-642,	317,
	-715,	792,	-157,	-255,	-408,	-85,	-71,	-368,	386,
	-533,	-170,	-351,	134,	648,	417,	908,	-716,	380,
	-932,	938,	-613,	-813,	-85,	138,	-420,	-480,	-146,
	130,	871,	859,	160,	-982,	131,	569,	376,	-315,
	-668,	-663,	-535,	395,	711,	62,	550,	-82,	430,
	-890,	-266,	368,	595,	105,	-305,	-427,	-694,	-744,
	699,	-394,	769,	742,	226,	262,	-372,	-386,	-354,
	-552,	755,	239,	-489,	-32,	521,	-881,	-925,	-688,
	-833,	504,	-656,	-45,	633,	238,	667,	26,	-214,
	-154,	981,	-241,	42,	-585,	241,	-159,	-881,	491,
	934,	678,	423,	-157,	-440,	-676,	-218,	-772,	-494,
	400,	-709,	890,	-831,	-448,	-864,	698,	913,	509,
	-245,	440,	654,	289,	682,	77,	743,	502,	-257,
	-877,	990,	329,	-969,	693,	-430,	76,	107,	595,
	-638,	-133,	329,	-467,	901,	-409,	-46,	-887,	-375,
	826,	-473,	414,	-463,	-729,	254,	10,	662,	714,
	149,	804,	208,	-462,	227,	-981,	597,	173,	-134,
	141,	-828,	223,	608,	176,	-114,	461,	595,	-207,
	254,	-486,	235,	-690,	763,	-559,	800,	857,	156,
	-963,	545,	-737,	919,	861,	-93,	-238,	-582,	588,
	686,	26,	445,	810,	913,	-973,	-635,	-807,	-37,
	832,	-72,	-911,	279,	344,	-150,	114,	-579,	980,
	-450,	435,	-325,	-920,	-677,	937,	194,	-614,	-899,
	-324,	-632,	-251,	23,	-439,	-959,	-307,	-725,	-708,
	-165,	-192,	703,	-817,	-277,	865,	-52,	183,	554,
	908,	-516,	-266,	-280,	95,	-679,	762,	-631,	-721,
	14,	84,	723,	746,	835,	44,	691,	227,	-603,
	782,	-855,	58,	-577,	-698,	844,	118,	806,	-14,
	-454,	81,	-138,	-232,	330,	-379,	161,	494,	-451,
	-850,	-261,	345,	173,	664,	-599,	-664,	-19,	794,
	-978,	-689,	-408,	-28,	-990,	-309,	635,	-165,	-436,
	243,	-839,	817,	113,	-380,	-292,	705,	-592,	-592,
	-879,	-350,	-470,	918,	-458,	929,	945,	-663,	599,
	-123,	54,	-430,	-39,	-452,	76,	-682,	735,	468,
	822,	646,	163,	87,	246,	616,	412,	-542,	899,
	640,	-419,	-253,	432,	-120,	-242,	-939,	-383,	-341,
	-571,	-777,	474,	593,	-230,	371,	-202,	386,	-677,
	140,	-713,	-689,	-998,	641,	-72,	-6,	110,	294,
	-153,	-882,	-466,	705,	240,	-864,	-698,	936,	999,
	163,	-142,	-142,	62,	389,	229,	-448,	-241,	-16,
	874,	-75,	-377,	-639,	-817,	874,	-457,	-559,	-210,
	740,	-180,	264,	-648,	-485,	-214,	803,	46,	905,
	762,	947,	82,	959,	-749,	-437,	-550,	-459,	424,
	478,	-137,	866,	-796,	-36,	-993,	522,	608,	219,
	-694,	-549,	215,	-232,	63,	436,	180,	-41,	350,
	-561,	423,	284,	760,	36,	-284,	-908,	116,	-825,
	-521,	-353,	-869,	826,	200,	639,	-146,	375,	-297,
	-186,	-641,	800,	-467,	701,	307,	-883,	172,	705,
	613,	428,	379,	-425,	-893,	-602,	-28,	-607,	-445,
	-753,	544,	227,	-115,	783,	-606,	-724,	935,	-997,
	98,	241,	-848,	-185,	319,	-680,	-322,	987,	-543,
	-413,	222,	133,	-905,	-522,	431,	239,	892,	404,
	233,	631,	568,	705,	526,	81,	-992,	-285,	823,
	-946,	-528,	801,	226,	607,	-432,	-104,	-703,	-742,
	545,	-547,	-177,	598,	482,	-200,	355,	245,	565,
	226,	-601,	361,	-295,	-739,	210,	114,	-372,	838,
	633,	212,	773,	-833,	523,	714,	421,	117,	845,
	-176,	-823,	958,	-945,	-389,	-852,	179,	921,	876,
	493,	-2,	642,	538,	-980,	-64,	978,	-519,	726,
	-44,	152,	-836,	-619,	54,	409,	-379,	0,	502,
	268,	-96,	-38,	-96,	668,	-305,	593,	-881,	726,
	591,	954,	-100,	784,	179,	835,	-803,	-475,	358,
	334,	694,	330,	537,	108,	-217,	253,	-50,	-936,
	192,	-479,	-141,	-588,	295,	-12,	-378,	-68,	-275,
	-824,	32,	461,	-279,	379,	-895,	191,	-731,	-860,
	-110,	316,	630,	79,	-563,	-323,	-388,	-975,	-17,
	34,	-955,	340,	-913,	-344,	883,	-72,	134,	-348,
	488,	795,	292,	567,	-154,	-685,	-707,	214,	-270,
	-941,	-268,	-932,	35,	-760,	527,	-999,	-351,	-920,
	418,	875,	151,	296,	275,	967,	-809,	684,	-632,
	238,	921,	-539,	-844,	-529,	-496,	-157,	-828,	-101,
	457,	957,	-887,	-118,	-872,	33,	-972,	370,	941,
	159,	256,	-158,	-314,	-686,	-941,	174,	376,	-769,
	-515,	70,	963,	-543,	981,	-763,	-837,	647,	-602,
	583,	75,	-602,	588,	594,	-472,	952,	83,	606,
	-758,	-290,	-710,	-916,	-191,	-776,	334,	438,	-351,
	72,	-132,	-139,	818,	-898,	-379,	342,	-177,	-981,
	869,	-183,	717,	-419,	-51,	850,	156,	-393,	265,
	-168,	-809,	-261,	-476,	158,	693,	-972,	-61,	-734,
	639,	-817,	916,	430,	0,	140,	-443,	-136,	339,
	903,	-804,	-809,	425,	273,	-508,	164,	470,	540,
	-427,	-239,	529,	276,	354,	-995,	-734,	165,	-150,
	-666,	-849,	514,	-786,	-973,	131,	751,	-954,	-235,
	372,	-814,	-582,	486,	-548,	-705,	-576,	817,	-918,
	641,	-384,	195,	644,	-406,	-995,	189,	-702,	927,
	-408,	-801,	81,	-744,	-164,	696,	198,	120,	-997,
	-775,	-729,	-707,	921,	-156,	489,	-738,	724,	-414,
	247,	837,	446,	664,	44,	456,	401,	-510,	-318,
	177,	-419,	212,	-655,	-9,	-270,	-933,	-695,	155,
	784,	125,	-621,	490,	361,	201,	228,	-518,	-742,
	-530,	-457,	701,	208,	-816,	-627,	915,	462,	122,
	-769,	-802,	369,	-315,	236,	502,	50,	245,	168,
	-310,	706,	247,	-91,	581,	-482,	-197,	282,	-321,
	-793,	467,	-10,	-576,	-391,	12,	875,	-255,	356,
	-672,	63,	-865,	-280,	808,	-263,	-588,	-817,	-420,
	338,	168,	79,	249,	-672,	-269,	210,	-839,	375,
	-989,	-285,	-935,	811,	-10,	210,	957,	-838,	610,
	817,	232,	655,	-186,	-16,	-878,	129,	-237,	-26,
	689,	154,	-12,	-382,	-796,	47,	532,	-442,	-573,
	173,	-275,	656,	981,	686,	664,	923,	710,	-318,
	-7,	527,	623,	-454,	-504,	634,	-835,	-208,	974,
	-867,	613,	-57,	767,	115,	906,	811,	-342,	-683,
	-661,	-24,	711,	205,	-170,	328,	187,	-946,	-681,
	-363,	-322,	-81,	670,	598,	-85,	932,	721,	239,
	-196,	-898,	-462,	-68,	222,	171,	756,	739,	524,
	792,	860,	362,	129,	-693,	-693,	-316,	800,	-650,
	834,	-335,	584,	-569,	-288,	-980,	376,	939,	-605,
	-804,	-404,	-766,	-744,	-240,	496,	406,	-7,	264,
	-366,	-209,	-496,	-629,	-135,	-391,	-951,	443,	350,
	-19,	88,	409,	-415,	521,	-845,	523,	601,	-801,
	971,	207,	-417,	10,	608,	-530,	831,	-735,	-6,
	-108,	-792,	-718,	-93,	441,	438,	-948,	896,	-590,
	-880,	-752,	-186,	-538,	-276,	-198,	418,	-50,	-872,
	-118,	225,	842,	210,	709,	-323,	-233,	921,	-132,
	891,	-731,	-40,	576,	-499,	-83,	-32,	-720,	-143,
	-252,	-905,	-773,	630,	-261,	-202,	-66,	-234,	83,
	585,	839,	466,	527,	-819,	753,	195,	491,	-862,
	309,	-591,	372,	-126,	462,	904,	712,	-150,	614,
	-151,	958,	-345,	-324,	-181,	394,	-547,	-317,	-931,
	-786,	-445,	695,	-245,	121,	694,	-319,	-758,	775,
	-686,	875,	-754,	-804,	965,	162,	951,	569,	-791,
	-314,	-932,	636,	880,	592,	-824,	166,	673,	396,
	-957,	336,	-969,	110,	859,	680,	195,	778,	-136,
	318,	131,	-509,	287,	-232,	499,	-180,	-863,	-139,
	761,	287,	538,	602,	515,	-716,	-11,	-397,	-276,
	71,	508,	88,	-556,	513,	953,	947,	776,	-655,
	-611,	-643,	-759,	-522,	-370,	12,	775,	373,	-271,
	492,	-416,	371,	-409,	652,	-797
};

