#include <include/weight.h>

__ro_hinv mat_t weight_meta = {
	.dims = {64, 1, 10, 4},
	.len_dims = 4,
	.strides = {40, 40, 4, 1},
	.data = (fixed *)weight
};

__ro_hinv _q15 weight[] = {
	331,	-46,	969,	-786,	-285,	67,	579,	628,	-57,
	112,	-19,	287,	-973,	-215,	-410,	-46,	-326,	492,
	-40,	-242,	583,	-906,	-549,	846,	-601,	38,	913,
	616,	-600,	456,	-508,	-478,	-853,	-587,	473,	-558,
	-873,	220,	838,	-157,	-817,	845,	-695,	-977,	-479,
	-735,	-422,	920,	950,	-733,	403,	681,	642,	-861,
	953,	787,	-17,	241,	-705,	-968,	-992,	-266,	-50,
	900,	757,	483,	721,	293,	416,	-50,	-171,	773,
	-79,	276,	-482,	311,	351,	213,	-389,	-715,	-199,
	949,	303,	-804,	69,	-201,	898,	-902,	-301,	124,
	317,	973,	-444,	-651,	-908,	-63,	150,	386,	775,
	861,	-668,	-577,	262,	-894,	215,	-568,	-667,	-411,
	-66,	-851,	464,	-290,	212,	771,	285,	847,	-473,
	293,	-102,	-274,	-965,	-502,	989,	-137,	402,	251,
	84,	947,	-639,	-665,	-946,	-836,	-478,	320,	-805,
	859,	364,	-907,	268,	620,	-994,	233,	-495,	99,
	-283,	61,	-797,	-626,	-305,	412,	-630,	-838,	501,
	310,	-274,	905,	-3,	793,	-40,	-535,	216,	747,
	607,	427,	482,	109,	522,	-427,	486,	104,	565,
	-438,	-609,	179,	139,	-443,	-24,	-894,	-924,	297,
	-68,	228,	-734,	-521,	-66,	815,	-188,	-894,	-647,
	-708,	798,	-336,	-921,	405,	981,	150,	211,	-97,
	-470,	200,	881,	-71,	671,	824,	-955,	533,	845,
	247,	-815,	506,	-664,	-295,	909,	-324,	-29,	151,
	464,	433,	-560,	976,	464,	-900,	947,	-612,	444,
	-149,	405,	-251,	-968,	-942,	-720,	176,	-628,	321,
	791,	9,	500,	-300,	369,	-487,	-288,	-125,	-436,
	-867,	-407,	306,	-235,	-576,	-961,	429,	495,	431,
	153,	188,	440,	-818,	571,	136,	-545,	-866,	29,
	513,	673,	-949,	-461,	-529,	379,	-534,	-620,	-947,
	-965,	-612,	883,	595,	734,	349,	314,	367,	-801,
	335,	-552,	-190,	-451,	89,	-199,	383,	133,	200,
	78,	554,	-324,	751,	931,	-703,	434,	16,	968,
	830,	781,	349,	779,	-434,	3,	875,	-255,	-569,
	-479,	643,	-418,	-524,	745,	-16,	-151,	-233,	-773,
	212,	-348,	117,	-60,	-474,	453,	-197,	991,	43,
	124,	-511,	709,	-676,	-527,	-533,	185,	741,	821,
	456,	-576,	-528,	236,	434,	-110,	656,	609,	-642,
	586,	486,	474,	86,	-152,	738,	-197,	-816,	197,
	161,	-285,	335,	-887,	-878,	-860,	-903,	-138,	262,
	-660,	-758,	-125,	-89,	662,	102,	856,	-962,	477,
	-712,	-667,	-568,	-404,	-755,	66,	-568,	-482,	-500,
	925,	128,	645,	194,	813,	-701,	420,	345,	-730,
	907,	403,	-766,	915,	341,	569,	-47,	907,	-659,
	-775,	622,	-261,	724,	-578,	643,	692,	92,	748,
	-361,	-285,	503,	364,	-651,	-717,	369,	-969,	-391,
	212,	-74,	946,	302,	-389,	317,	-911,	-635,	-614,
	-88,	572,	328,	865,	573,	-786,	-373,	-518,	-983,
	-197,	193,	248,	909,	-670,	-915,	149,	911,	978,
	784,	56,	-645,	-375,	-241,	-711,	-633,	475,	-166,
	333,	-449,	-825,	869,	-819,	-444,	-804,	96,	-433,
	100,	-835,	-873,	147,	-140,	269,	-198,	239,	-311,
	230,	-537,	-254,	-686,	328,	515,	-175,	-728,	927,
	-234,	-970,	401,	137,	158,	719,	-796,	-806,	264,
	-903,	-997,	-191,	506,	-358,	416,	-439,	-940,	421,
	-38,	-320,	682,	496,	-524,	-762,	-519,	935,	-118,
	93,	322,	186,	-883,	744,	-806,	665,	324,	267,
	989,	892,	-716,	698,	563,	-466,	-319,	-118,	442,
	-8,	139,	739,	-4,	999,	-55,	-391,	482,	-354,
	-546,	838,	304,	115,	550,	-989,	-238,	740,	107,
	355,	247,	-416,	-893,	-759,	-894,	-935,	-895,	-397,
	-9,	336,	-726,	121,	-929,	946,	798,	324,	-705,
	-540,	806,	240,	-317,	218,	186,	-856,	602,	-740,
	-149,	-855,	-114,	-570,	-233,	-634,	-355,	-668,	56,
	-174,	121,	994,	-608,	591,	744,	-793,	-33,	-758,
	92,	-533,	-489,	-162,	-209,	-533,	-631,	-599,	445,
	-739,	592,	14,	-30,	178,	393,	818,	624,	-277,
	-640,	-167,	325,	208,	656,	-483,	306,	-759,	-560,
	-885,	893,	-927,	-709,	-138,	165,	-468,	45,	-553,
	-314,	-264,	-113,	-971,	283,	-860,	302,	526,	-114,
	-702,	-900,	-834,	167,	-873,	-764,	232,	-997,	486,
	-687,	406,	229,	104,	983,	208,	-86,	-23,	-4,
	669,	-801,	-173,	-336,	966,	703,	563,	-950,	-398,
	820,	935,	12,	-61,	-131,	648,	315,	167,	324,
	-469,	545,	425,	441,	5,	-18,	-76,	218,	-710,
	-577,	-34,	-955,	539,	-959,	-994,	-954,	346,	567,
	706,	369,	-822,	-497,	-553,	-381,	204,	473,	-885,
	848,	-544,	699,	175,	881,	66,	-352,	-572,	-703,
	-375,	-520,	-59,	-210,	-665,	-749,	590,	335,	728,
	-672,	-263,	-208,	166,	-767,	-474,	244,	859,	-897,
	-303,	633,	-999,	467,	528,	375,	194,	-351,	933,
	-389,	-124,	-315,	-206,	-855,	274,	774,	403,	-942,
	71,	59,	625,	-404,	218,	-552,	-982,	365,	-823,
	836,	839,	633,	-361,	-296,	-222,	-576,	-931,	388,
	-858,	805,	-597,	473,	-195,	286,	-84,	-747,	893,
	463,	733,	-375,	-174,	-104,	753,	246,	660,	638,
	654,	-431,	-319,	-336,	-703,	-210,	-938,	702,	-184,
	-940,	706,	919,	685,	17,	-893,	-204,	-32,	557,
	860,	705,	161,	-779,	-448,	20,	-137,	657,	414,
	50,	-300,	603,	-554,	-400,	-491,	346,	-197,	104,
	25,	114,	-732,	730,	67,	494,	46,	-367,	942,
	818,	-926,	213,	353,	-532,	-642,	-681,	481,	-253,
	-3,	398,	386,	-358,	383,	417,	-637,	566,	-965,
	-492,	974,	310,	571,	-132,	-485,	-136,	935,	453,
	40,	-915,	489,	-508,	-378,	710,	898,	-716,	196,
	707,	-808,	-780,	740,	864,	413,	667,	-178,	94,
	729,	-516,	-555,	-530,	-583,	-175,	-198,	-187,	786,
	-239,	-911,	-769,	-761,	-422,	129,	-62,	216,	-437,
	-778,	682,	251,	382,	-990,	-41,	-839,	-522,	-533,
	689,	-35,	682,	-60,	-549,	-670,	-396,	-20,	-33,
	-768,	-112,	817,	-230,	630,	-449,	-253,	-377,	108,
	988,	-588,	-289,	-929,	358,	-532,	964,	-351,	612,
	945,	-383,	669,	237,	26,	-394,	377,	-154,	-132,
	908,	-929,	572,	48,	-135,	640,	-85,	-73,	-546,
	-774,	-43,	808,	-729,	187,	607,	884,	379,	707,
	-253,	-660,	839,	-384,	-340,	681,	313,	-310,	99,
	-149,	963,	430,	-217,	-548,	-319,	-790,	-1,	954,
	-292,	595,	267,	-606,	751,	-534,	-658,	-420,	-252,
	141,	-160,	-975,	719,	43,	-343,	-108,	91,	-255,
	553,	-634,	-391,	57,	350,	-183,	438,	-804,	-399,
	-614,	26,	-585,	-377,	937,	-720,	31,	-649,	252,
	730,	-27,	394,	-554,	-551,	-249,	-468,	-825,	327,
	-90,	693,	-226,	550,	-881,	-123,	-61,	-954,	893,
	-970,	-75,	-242,	922,	593,	-800,	-454,	-258,	68,
	-511,	-868,	-898,	179,	-322,	-306,	-965,	-257,	-40,
	-339,	936,	905,	144,	454,	-835,	-920,	503,	116,
	332,	-599,	-505,	-878,	-997,	883,	929,	-174,	-781,
	-689,	-942,	-315,	-457,	-867,	-381,	674,	-554,	654,
	-433,	21,	-885,	701,	-297,	425,	-895,	-862,	-529,
	-555,	-870,	853,	-537,	34,	-234,	-817,	311,	-390,
	-637,	225,	441,	-929,	-483,	139,	970,	478,	372,
	836,	-186,	-79,	745,	250,	184,	745,	74,	739,
	-828,	-486,	219,	849,	-949,	384,	209,	537,	-460,
	-565,	-438,	5,	646,	753,	677,	-428,	-722,	634,
	-623,	929,	-225,	75,	-339,	-197,	863,	-521,	480,
	220,	-577,	765,	436,	-566,	-231,	35,	-829,	529,
	-892,	320,	363,	802,	-547,	278,	-10,	-174,	739,
	-952,	-243,	797,	-174,	-849,	332,	-875,	-544,	-974,
	84,	459,	831,	558,	-404,	-304,	666,	133,	-201,
	521,	850,	632,	-856,	870,	834,	840,	587,	731,
	626,	328,	-52,	-810,	582,	-944,	793,	130,	-749,
	-721,	-713,	813,	-937,	-210,	498,	-949,	407,	-633,
	-34,	-928,	-94,	-60,	207,	472,	-188,	492,	-319,
	229,	-718,	-8,	897,	-953,	-522,	-922,	-147,	-518,
	295,	995,	-661,	-410,	-54,	859,	722,	668,	872,
	606,	61,	-317,	356,	731,	53,	-222,	-526,	-944,
	-808,	-424,	-278,	-293,	572,	329,	-104,	-120,	-750,
	39,	202,	105,	909,	-273,	855,	246,	650,	3,
	-465,	-172,	158,	-54,	-906,	-853,	-958,	700,	-620,
	-781,	-768,	570,	547,	-53,	-701,	-654,	7,	293,
	-941,	-78,	244,	-899,	819,	332,	-113,	262,	-788,
	-433,	-640,	495,	-571,	784,	-246,	725,	-513,	492,
	-61,	-566,	-606,	-628,	51,	-369,	260,	-213,	-709,
	150,	768,	-6,	316,	756,	-777,	909,	968,	-901,
	215,	-525,	716,	557,	367,	-981,	-991,	402,	-359,
	-576,	-131,	345,	-442,	185,	-801,	-963,	-163,	934,
	739,	143,	276,	927,	827,	-752,	270,	841,	-837,
	598,	-973,	160,	-427,	631,	-452,	-260,	432,	-996,
	840,	-800,	941,	445,	-516,	846,	-870,	246,	721,
	-247,	-681,	-920,	56,	23,	36,	546,	356,	886,
	-953,	220,	607,	302,	947,	266,	698,	693,	515,
	182,	253,	-782,	-309,	181,	-502,	-800,	466,	-562,
	-482,	-447,	-413,	-538,	690,	370,	-304,	376,	-918,
	599,	-616,	133,	-30,	909,	680,	765,	979,	768,
	-409,	575,	11,	-568,	126,	-344,	124,	952,	848,
	-187,	-176,	-187,	-431,	-880,	368,	-225,	791,	222,
	-253,	-280,	793,	-895,	-977,	433,	406,	-764,	-784,
	-909,	-580,	293,	153,	802,	576,	900,	-260,	-705,
	568,	-485,	932,	328,	-289,	565,	-798,	816,	225,
	627,	-210,	-640,	-401,	457,	-690,	81,	-396,	-43,
	-775,	-695,	493,	963,	201,	962,	-890,	576,	60,
	791,	-311,	-264,	-912,	-429,	219,	-794,	899,	-367,
	-230,	768,	-964,	52,	-166,	-90,	-103,	-685,	439,
	-357,	-19,	697,	-696,	568,	-109,	-500,	581,	-94,
	761,	330,	661,	102,	378,	157,	-344,	391,	461,
	-664,	-713,	119,	-811,	429,	-473,	369,	93,	887,
	-434,	677,	604,	406,	195,	-76,	824,	134,	-715,
	-146,	684,	-30,	-658,	-514,	999,	385,	-163,	-369,
	-282,	-461,	666,	565,	632,	-554,	-658,	49,	579,
	388,	82,	920,	-426,	-333,	670,	-582,	-24,	521,
	623,	-889,	168,	697,	-157,	564,	691,	-648,	-530,
	300,	744,	-120,	-12,	551,	-532,	-897,	239,	680,
	-773,	-594,	-925,	-487,	-190,	-812,	887,	270,	-137,
	484,	-799,	901,	866,	-719,	124,	71,	251,	-234,
	441,	-949,	-110,	98,	328,	383,	-329,	-589,	48,
	-967,	520,	-983,	-743,	566,	-740,	121,	321,	-281,
	-772,	683,	-538,	-861,	680,	553,	518,	233,	747,
	267,	-845,	-229,	-70,	372,	-419,	359,	207,	-648,
	73,	288,	-149,	676,	746,	-257,	615,	897,	381,
	982,	202,	775,	685,	738,	-500,	-170,	209,	191,
	219,	670,	420,	-257,	-609,	708,	-314,	-101,	709,
	668,	-795,	-37,	-444,	596,	-916,	100,	542,	981,
	461,	-721,	503,	-818,	389,	509,	-41,	113,	-578,
	545,	-514,	664,	900,	108,	-681,	616,	473,	110,
	633,	769,	-205,	613,	-239,	-932,	0,	6,	508,
	-758,	485,	740,	-237,	-820,	648,	204,	381,	373,
	-938,	267,	361,	-812,	102,	-746,	-59,	178,	-981,
	509,	101,	-796,	-454,	313,	-541,	-145,	617,	-963,
	-426,	-478,	-910,	-550,	560,	730,	553,	995,	134,
	-412,	-336,	58,	902,	-347,	527,	267,	820,	-279,
	-930,	-250,	745,	996,	550,	-329,	-83,	-982,	-330,
	-671,	435,	-150,	-8,	-186,	508,	466,	-224,	-669,
	541,	272,	801,	963,	-383,	-580,	476,	213,	774,
	-788,	-149,	-631,	-348,	654,	389,	398,	427,	470,
	124,	344,	-56,	-701,	-18,	748,	-293,	-867,	392,
	-44,	-888,	185,	96,	127,	-91,	-725,	-246,	149,
	-85,	-662,	986,	673,	-992,	696,	-216,	306,	289,
	528,	-826,	891,	489,	816,	-224,	139,	-405,	-934,
	86,	-785,	140,	-742,	138,	-838,	612,	576,	205,
	103,	-926,	-312,	978,	-481,	-108,	477,	224,	-716,
	729,	-584,	-519,	-891,	314,	-433,	507,	-545,	-962,
	185,	624,	-922,	977,	-558,	-254,	-361,	-605,	947,
	377,	-262,	136,	-957,	332,	-482,	279,	363,	707,
	980,	-531,	-245,	-840,	-861,	-354,	66,	-43,	-146,
	-82,	-974,	858,	990,	-880,	-163,	659,	-913,	-931,
	-312,	7,	-820,	429,	-202,	-272,	602,	854,	-323,
	754,	501,	602,	147,	-614,	-814,	271,	908,	-445,
	336,	79,	857,	-474,	413,	194,	931,	631,	303,
	-326,	-72,	588,	371,	-88,	118,	970,	-159,	-461,
	753,	71,	-430,	-517,	833,	188,	993,	247,	-55,
	207,	328,	718,	190,	-610,	-895,	838,	222,	-994,
	-734,	814,	-734,	311,	646,	20,	-74,	-414,	-376,
	-486,	761,	521,	440,	-766,	-387,	-913,	553,	434,
	197,	-521,	451,	-565,	11,	-549,	-47,	-302,	-513,
	132,	-630,	20,	-963,	347,	517,	750,	814,	583,
	421,	-762,	-893,	-87,	-906,	760,	778,	84,	-184,
	690,	-803,	657,	-506,	-257,	-490,	-706,	975,	419,
	-751,	-843,	305,	-977,	713,	-132,	738,	-910,	-228,
	14,	-530,	-72,	-883,	301,	-442,	74,	284,	-613,
	837,	-335,	-485,	-122,	255,	67,	942,	654,	-100,
	149,	389,	643,	637,	799,	182,	82,	-964,	745,
	-960,	-85,	6,	-17,	769,	153,	117,	-438,	628,
	288,	640,	-226,	-589,	266,	-883,	595,	965,	-945,
	290,	576,	-438,	331,	666,	-925,	-877,	-338,	-121,
	-143,	-490,	-366,	556,	422,	504,	625,	-499,	-324,
	-448,	-867,	781,	-520,	-153,	-696,	63,	-576,	243,
	-414,	100,	771,	363,	285,	905,	-736,	413,	-24,
	883,	-529,	64,	901,	-50,	-685,	264,	136,	-868,
	-541,	982,	-112,	257,	-617,	520,	-403,	444,	-285,
	197,	734,	14,	-587,	-468,	-180,	698,	521,	-293,
	-543,	-738,	28,	-704,	-212,	-297,	245,	-417,	536,
	-275,	-781,	-553,	-729,	-224,	-51,	810,	-954,	57,
	404,	-508,	-302,	-572,	-163,	86,	-496,	-87,	-629,
	590,	919,	-451,	-321,	-817,	-307,	924,	-507,	-969,
	229,	112,	855,	977,	475,	-807,	694,	-698,	-430,
	-842,	-263,	-732,	644,	652,	-454,	-246,	997,	-133,
	-967,	-130,	482,	922,	664,	99,	-514,	-695,	-167,
	-29,	-14,	780,	-671,	-40,	65,	-607,	619,	-91,
	-470,	-43,	-330,	-590,	181,	-217,	359,	340,	-784,
	557,	-107,	-462,	849,	-550,	-889,	-803,	818,	860,
	-688,	-107,	-649,	-461,	834,	-294,	32,	-21,	715,
	-975,	32,	-637,	16,	959,	-255,	-792,	-276,	231,
	-679,	387,	-646,	-937,	898,	-806,	-603,	728,	30,
	563,	-454,	251,	796,	463,	-163,	-933,	678,	418,
	-124,	-984,	-518,	805,	132,	-592,	330,	866,	524,
	832,	596,	-667,	908,	43,	662,	118,	-153,	-818,
	792,	983,	254,	638,	555,	-402,	832,	-653,	-425,
	-520,	-959,	-766,	-981,	694,	949,	-873,	-998,	482,
	-491,	-459,	-886,	452,	-436,	-98,	-685,	555,	-221,
	-781,	-502,	-495,	636,	530,	-188,	-636,	4,	-119,
	-386,	302,	438,	-118,	-57,	919,	-694,	-809,	-937,
	-118,	-220,	-138,	854,	-405,	-657,	-656,	847,	-894,
	-2,	234,	-274,	324,	962,	871,	-145,	409,	770,
	-870,	-152,	-359,	302,	941,	272,	957,	-156,	-69,
	296,	950,	889,	-222,	-335,	-337,	72,	-172,	761,
	73,	313,	-538,	-296,	-429,	534,	256,	-774,	17,
	210,	-207,	-224,	-104,	149,	-326,	-335,	561,	567,
	-56,	-430,	-737,	-888,	-39,	-942,	-605,	606,	648,
	-609,	-706,	305,	-8,	-397,	161,	-239,	942,	993,
	933,	501,	-30,	402,	156,	811,	160,	-461,	-885,
	-766,	-792,	932,	-202,	277,	191,	95,	379,	-164,
	286,	963,	-885,	-692,	-201,	-276,	-275,	-861,	-660,
	-620,	-601,	-389,	499,	-511,	-919,	-404,	-870,	-706,
	156,	-840,	-354,	336,	356,	-373,	-827,	633,	582,
	720,	595,	414,	285,	-693,	935,	563,	-669,	229,
	-696,	106,	-104,	198,	854,	-923,	-207,	-213,	-772,
	909,	821,	-154,	-704,	-829,	326,	575,	-436,	-713,
	-442,	-191,	44,	-350,	937,	669,	-56,	705,	632,
	273,	683,	-900,	-881,	370,	903,	-392,	390,	197,
	-18,	-806,	12,	750,	-493,	472,	-696,	763,	281,
	-866,	295,	-321,	924,	669,	299,	-729,	-140,	713,
	431,	-75,	-814,	-543,	474,	-683,	-739,	-26,	752,
	-134,	252,	463,	907,	-217,	-561,	744,	538,	-342,
	-982,	487,	-501,	-15,	-237,	132,	736,	-493,	888,
	778,	-125,	-176,	501,	830,	-656,	-424,	-360,	-464,
	-204,	585,	-258,	-723,	-282,	-396,	973,	-171,	-649,
	0,	-473,	498,	-15,	-116,	-538,	375,	-91,	941,
	456,	524,	235,	-824,	-941,	836,	-168,	253,	-691,
	-213,	423,	-107,	200,	406,	491,	-193,	735,	417,
	-422,	133,	-255,	-836,	-202,	325,	988,	-346,	356,
	-471,	622,	-22,	-80,	-520,	-642,	714,	403,	-557,
	393,	374,	-451,	889,	105,	824,	888,	28,	98,
	-927,	-755,	482,	576,	-310,	-327,	-328,	523,	624,
	47,	-433,	615,	-176,	-304,	-650,	-612,	-236,	674,
	240,	827,	-456,	-586
};

