#include <include/weight.h>

__ro_hinv mat_t weight_meta = {
	.dims = {64, 64, 1, 1},
	.len_dims = 4,
	.strides = {64, 1, 1, 1},
	.data = (fixed *)weight
};

__ro_hinv _q15 weight[] = {
	478,	657,	424,	704,	737,	569,	107,	-295,	-65,
	-896,	-59,	-920,	-981,	-790,	975,	90,	-753,	-551,
	769,	-843,	-351,	-22,	267,	-197,	730,	837,	-474,
	-573,	-808,	-375,	557,	-609,	-44,	466,	-437,	-304,
	-56,	118,	-154,	254,	-504,	-732,	-48,	492,	-739,
	187,	411,	352,	784,	370,	-309,	-293,	223,	69,
	390,	-873,	-862,	717,	73,	652,	-17,	-244,	920,
	671,	27,	-684,	-885,	-898,	91,	792,	971,	496,
	43,	-865,	-663,	688,	112,	-941,	-750,	723,	-329,
	-253,	-531,	-626,	-324,	642,	-708,	627,	-516,	-191,
	553,	-707,	-845,	-780,	-440,	388,	-279,	-198,	722,
	-987,	-584,	856,	632,	-247,	132,	-670,	438,	-87,
	-579,	-475,	520,	529,	993,	-969,	500,	-924,	-186,
	-952,	75,	-419,	403,	-894,	148,	777,	916,	-868,
	-595,	748,	982,	79,	25,	-239,	-171,	-853,	818,
	-794,	-390,	82,	-883,	-154,	-586,	-768,	68,	963,
	918,	-325,	-489,	-72,	-479,	443,	502,	-724,	784,
	-459,	-149,	-305,	847,	-68,	537,	-997,	413,	-581,
	-370,	-769,	-926,	473,	-94,	183,	860,	756,	6,
	-80,	610,	-479,	102,	-374,	569,	636,	-674,	-102,
	-140,	-699,	374,	139,	30,	228,	241,	119,	661,
	802,	667,	632,	-966,	567,	-476,	-473,	890,	365,
	181,	841,	-410,	-483,	-902,	755,	-769,	-620,	-347,
	363,	771,	-119,	-644,	-43,	-324,	380,	607,	527,
	-215,	926,	-6,	-553,	-272,	269,	-683,	-295,	580,
	743,	-563,	-549,	934,	356,	-166,	777,	-907,	-66,
	-416,	-342,	831,	671,	434,	775,	530,	810,	849,
	-865,	925,	-604,	99,	811,	109,	-137,	131,	-415,
	-962,	-766,	-673,	-619,	-594,	-415,	137,	319,	685,
	213,	901,	-148,	-73,	-499,	610,	-523,	-804,	446,
	-357,	258,	-954,	936,	593,	-220,	92,	192,	-780,
	557,	740,	299,	908,	-938,	-178,	-477,	618,	879,
	-738,	-412,	-225,	270,	472,	514,	961,	570,	-35,
	-604,	-749,	331,	832,	443,	627,	-964,	345,	230,
	511,	-17,	-875,	-825,	295,	698,	-129,	46,	82,
	-352,	-64,	-620,	-344,	-71,	307,	-174,	-592,	-372,
	-388,	-222,	582,	-713,	-366,	-367,	59,	-393,	781,
	-866,	724,	285,	-232,	-63,	515,	719,	-678,	-820,
	293,	195,	-178,	-573,	-619,	-894,	46,	383,	633,
	522,	875,	8,	580,	-513,	404,	-461,	-855,	-426,
	-489,	-470,	735,	939,	475,	-747,	-487,	228,	-105,
	-242,	904,	-358,	883,	-351,	349,	-231,	475,	-774,
	939,	-128,	853,	-969,	894,	137,	621,	-66,	-964,
	53,	422,	413,	-184,	-544,	866,	839,	746,	404,
	-600,	-856,	-960,	-158,	341,	100,	-862,	-990,	957,
	188,	735,	78,	-670,	873,	-87,	194,	-872,	-464,
	-422,	989,	185,	-53,	893,	562,	-73,	908,	-60,
	155,	-655,	844,	-727,	394,	-300,	-828,	80,	286,
	-322,	402,	761,	507,	-323,	-921,	298,	455,	415,
	-53,	402,	607,	-120,	-99,	476,	-110,	600,	-65,
	-836,	110,	100,	-870,	-206,	-714,	-86,	163,	-399,
	174,	-935,	143,	-494,	547,	941,	-957,	-84,	811,
	-776,	-611,	-6,	602,	-644,	-994,	-409,	-785,	408,
	-335,	-543,	926,	-941,	117,	599,	50,	538,	-370,
	-534,	286,	907,	-212,	256,	-676,	690,	-584,	926,
	-131,	-4,	-585,	-646,	-969,	-95,	902,	-372,	278,
	970,	-331,	307,	-68,	457,	666,	713,	-555,	-448,
	680,	-621,	232,	491,	-41,	-194,	-549,	677,	567,
	114,	101,	312,	301,	372,	787,	-603,	-14,	704,
	-910,	-121,	-731,	-858,	-265,	232,	-393,	-507,	997,
	-727,	720,	-308,	-641,	306,	-399,	-931,	-536,	318,
	-811,	-409,	702,	-580,	-142,	485,	68,	136,	-89,
	-676,	-595,	-393,	-329,	974,	-389,	687,	361,	500,
	127,	-207,	881,	858,	405,	603,	-281,	577,	-320,
	-774,	-86,	525,	-72,	775,	185,	181,	159,	-360,
	-563,	654,	-444,	520,	329,	963,	102,	-954,	-239,
	-386,	145,	-176,	-996,	-52,	620,	929,	-182,	248,
	-498,	858,	-538,	634,	153,	363,	-935,	735,	932,
	590,	627,	475,	792,	847,	254,	-160,	-782,	-538,
	-89,	729,	370,	-263,	607,	80,	248,	346,	-334,
	-362,	-683,	594,	-814,	10,	-285,	-655,	777,	750,
	-911,	401,	70,	-86,	-776,	890,	903,	-551,	474,
	-663,	-526,	-690,	896,	437,	-480,	65,	556,	151,
	302,	-298,	-677,	-300,	-824,	-63,	363,	-971,	-804,
	-443,	-205,	298,	-483,	57,	932,	887,	-269,	-883,
	851,	-468,	-415,	-896,	-641,	-58,	144,	956,	703,
	-559,	-301,	-339,	-137,	-847,	-223,	-218,	-51,	226,
	757,	27,	835,	621,	416,	926,	-431,	195,	-348,
	416,	126,	-66,	-749,	969,	838,	556,	-531,	-92,
	-7,	34,	136,	-918,	-726,	407,	-752,	-158,	732,
	272,	-310,	-646,	-376,	-78,	448,	863,	507,	184,
	-304,	828,	578,	140,	-397,	-190,	-450,	637,	-785,
	-448,	-553,	79,	-131,	480,	-551,	-381,	-731,	962,
	644,	149,	-129,	-584,	-328,	968,	301,	-813,	911,
	-860,	444,	664,	-778,	819,	-448,	59,	950,	-244,
	704,	-806,	-349,	62,	22,	-462,	280,	-492,	422,
	-476,	514,	-838,	-864,	-52,	17,	-369,	-281,	661,
	676,	-789,	796,	-512,	144,	515,	134,	373,	10,
	447,	-957,	-577,	-822,	431,	-602,	-321,	-66,	-238,
	-727,	-581,	458,	-763,	-136,	861,	654,	-274,	-449,
	-800,	486,	733,	-824,	-828,	685,	-844,	20,	-913,
	657,	-733,	192,	992,	-785,	-656,	605,	877,	665,
	825,	949,	413,	-667,	290,	309,	-738,	-153,	-856,
	193,	-41,	-682,	-966,	-542,	652,	-45,	-595,	768,
	396,	-27,	369,	583,	329,	933,	699,	-854,	-752,
	-961,	627,	993,	488,	-606,	54,	-561,	387,	622,
	211,	-976,	879,	-782,	-552,	-563,	417,	-87,	621,
	587,	493,	725,	-156,	253,	-523,	-6,	-614,	-443,
	432,	-443,	-879,	802,	211,	714,	-488,	855,	637,
	-496,	-712,	936,	-895,	661,	-994,	-578,	338,	389,
	713,	-480,	32,	347,	-356,	869,	-184,	-360,	25,
	580,	22,	-202,	-390,	-915,	-983,	-157,	604,	307,
	-109,	-378,	413,	-168,	852,	-511,	-256,	335,	-259,
	-601,	-582,	-103,	538,	520,	72,	-211,	982,	-230,
	646,	596,	292,	-299,	901,	449,	-909,	-461,	-164,
	186,	-912,	393,	360,	251,	743,	664,	860,	778,
	-233,	55,	102,	-943,	-852,	-467,	122,	-401,	-513,
	-330,	-409,	-327,	-449,	782,	39,	-621,	-582,	297,
	86,	775,	-670,	253,	659,	767,	-861,	-257,	-160,
	-429,	-147,	670,	689,	936,	200,	-543,	333,	-956,
	860,	-800,	-195,	-562,	610,	-571,	257,	552,	974,
	303,	820,	476,	893,	568,	-943,	-129,	-84,	-481,
	290,	985,	-140,	814,	292,	753,	-13,	-240,	-215,
	-610,	288,	681,	-484,	269,	530,	-802,	-817,	-169,
	580,	375,	537,	-206,	928,	-258,	-568,	931,	630,
	321,	487,	572,	-128,	-734,	-429,	486,	-332,	434,
	869,	878,	530,	917,	395,	142,	-906,	-792,	76,
	-821,	509,	721,	-224,	873,	29,	488,	-922,	680,
	-480,	-775,	-552,	256,	816,	-744,	543,	384,	-108,
	14,	817,	687,	233,	-83,	453,	-698,	-655,	-244,
	-879,	-170,	-79,	-527,	77,	19,	947,	519,	-140,
	257,	-255,	445,	819,	-462,	463,	-282,	389,	807,
	393,	446,	-784,	-904,	163,	519,	-167,	355,	594,
	734,	-833,	-388,	-622,	-557,	-53,	-684,	-638,	-134,
	-147,	-810,	-496,	-434,	-78,	-650,	900,	-520,	608,
	585,	-296,	-115,	738,	440,	143,	86,	-945,	-726,
	-827,	-255,	-655,	-672,	-67,	-522,	426,	-715,	818,
	-475,	373,	-431,	-657,	389,	181,	445,	245,	433,
	905,	-284,	25,	327,	-383,	416,	966,	89,	41,
	-243,	-262,	669,	936,	381,	331,	586,	-842,	-895,
	978,	-304,	-889,	588,	-729,	119,	-284,	181,	-113,
	327,	787,	305,	-37,	862,	-537,	-699,	784,	32,
	247,	192,	-667,	-284,	-591,	-717,	-418,	955,	839,
	754,	759,	534,	729,	641,	-772,	-627,	-331,	399,
	556,	-283,	-301,	-342,	193,	-466,	357,	927,	127,
	-895,	-624,	-474,	856,	311,	674,	-170,	832,	-984,
	403,	860,	-512,	-49,	-396,	-472,	-487,	216,	-510,
	-986,	745,	189,	37,	567,	-971,	158,	-445,	195,
	584,	-188,	644,	-839,	-419,	989,	123,	312,	-231,
	18,	70,	908,	157,	756,	560,	252,	522,	-234,
	264,	297,	840,	-258,	252,	-24,	921,	-622,	832,
	-299,	224,	-279,	-671,	-953,	-732,	233,	-281,	390,
	-671,	-619,	-65,	141,	532,	793,	996,	871,	777,
	-165,	911,	-407,	-467,	-803,	-153,	370,	-837,	-947,
	-93,	665,	-327,	481,	-897,	-990,	-228,	926,	469,
	-5,	-463,	-566,	612,	-448,	-636,	977,	506,	853,
	-451,	766,	92,	-278,	-988,	924,	-994,	-367,	-417,
	217,	50,	386,	174,	120,	418,	120,	139,	-831,
	544,	961,	790,	-119,	961,	603,	-400,	-554,	574,
	-838,	241,	-327,	139,	-994,	-146,	95,	953,	88,
	782,	-844,	250,	703,	-269,	-419,	-175,	405,	102,
	-458,	-615,	-647,	-150,	231,	-716,	484,	584,	-228,
	74,	-833,	-873,	-793,	204,	687,	357,	-882,	-501,
	-426,	607,	166,	-477,	689,	-169,	731,	-954,	157,
	241,	-513,	-423,	613,	617,	-476,	260,	-742,	-819,
	426,	113,	-571,	-440,	-918,	-805,	-964,	-530,	-331,
	-334,	501,	397,	-476,	492,	596,	992,	-508,	996,
	-244,	-453,	-51,	-272,	682,	-532,	-194,	239,	498,
	-486,	951,	-360,	274,	482,	918,	-872,	103,	888,
	-782,	-435,	-102,	745,	-414,	765,	-404,	707,	-68,
	610,	783,	-958,	-650,	421,	-347,	356,	-174,	126,
	449,	-315,	819,	-747,	-275,	-486,	805,	-826,	16,
	612,	860,	115,	-413,	182,	719,	851,	-682,	-27,
	615,	-408,	-209,	-878,	-340,	503,	117,	142,	-636,
	-659,	-870,	12,	-67,	488,	894,	-675,	240,	523,
	93,	-569,	62,	790,	-188,	-734,	-878,	971,	317,
	-107,	346,	484,	636,	-863,	-975,	-345,	-333,	-330,
	409,	-923,	231,	231,	658,	976,	-460,	-981,	384,
	762,	962,	-131,	-400,	-938,	753,	138,	65,	938,
	-219,	-899,	-735,	426,	-467,	-27,	-219,	39,	69,
	-687,	-167,	228,	-59,	-195,	-715,	928,	729,	-169,
	-842,	395,	921,	-235,	-86,	250,	10,	-686,	672,
	577,	589,	0,	-782,	-58,	-503,	-755,	264,	-848,
	598,	17,	633,	1,	377,	119,	649,	763,	409,
	600,	-556,	-55,	860,	-684,	404,	-537,	93,	-159,
	-822,	40,	-582,	-131,	558,	6,	16,	502,	-281,
	727,	688,	-444,	-513,	-718,	197,	272,	235,	754,
	-686,	646,	883,	567,	980,	-533,	488,	903,	-140,
	-773,	-45,	-334,	848,	119,	-250,	-886,	871,	-452,
	4,	-928,	-332,	151,	-171,	-61,	-899,	-512,	747,
	224,	519,	674,	674,	-329,	-670,	800,	891,	-302,
	-328,	-365,	-749,	306,	-20,	37,	1,	-136,	-474,
	-860,	873,	-487,	197,	613,	-826,	152,	645,	649,
	-750,	-521,	-153,	53,	-322,	-95,	630,	666,	703,
	160,	106,	-455,	379,	-714,	121,	-520,	276,	224,
	631,	664,	808,	-849,	79,	-177,	41,	-483,	-730,
	-97,	428,	-940,	556,	625,	-911,	397,	-883,	837,
	956,	-405,	-297,	-253,	201,	479,	6,	946,	638,
	-113,	-591,	78,	556,	-77,	-383,	-546,	-764,	669,
	311,	551,	268,	893,	-319,	869,	-832,	-621,	273,
	-729,	-542,	-412,	154,	385,	234,	-368,	995,	-77,
	49,	-882,	-946,	-526,	-685,	796,	611,	615,	-698,
	-234,	-406,	584,	-874,	-383,	209,	-787,	848,	-479,
	-573,	784,	-575,	-698,	-107,	305,	-687,	-215,	-939,
	537,	193,	-933,	-727,	106,	-882,	539,	0,	285,
	-764,	344,	-141,	300,	69,	287,	874,	171,	-239,
	68,	827,	-135,	-404,	86,	-518,	-619,	463,	-635,
	656,	141,	387,	-10,	649,	-781,	660,	-183,	-690,
	-857,	-912,	57,	335,	-254,	-439,	530,	-27,	247,
	-170,	149,	970,	23,	-980,	-862,	165,	-966,	910,
	-327,	-821,	890,	-250,	-616,	-86,	546,	-919,	-47,
	250,	-297,	8,	-851,	-516,	-284,	-48,	-195,	-898,
	145,	424,	903,	383,	-176,	-615,	-448,	-578,	-929,
	206,	-13,	550,	715,	685,	385,	708,	-78,	133,
	-713,	381,	-662,	-722,	-476,	-391,	-438,	-621,	618,
	368,	268,	-702,	-329,	254,	-936,	-496,	-507,	-155,
	-406,	-370,	-512,	621,	870,	-144,	25,	-508,	-230,
	-892,	-917,	-128,	690,	971,	814,	697,	675,	-91,
	-778,	856,	773,	-839,	312,	-524,	352,	204,	770,
	388,	-476,	702,	885,	-458,	-1,	1,	-639,	947,
	823,	-968,	549,	-2,	-572,	-303,	-31,	87,	-840,
	299,	388,	-488,	-233,	-845,	-467,	-437,	550,	276,
	994,	-759,	944,	-31,	-194,	-853,	641,	-600,	864,
	879,	678,	-562,	348,	903,	594,	903,	-734,	145,
	74,	-576,	573,	517,	-820,	-113,	541,	999,	525,
	479,	-536,	876,	-498,	-398,	-458,	685,	631,	999,
	-430,	-343,	-777,	263,	-845,	-156,	-975,	-859,	-708,
	-375,	-882,	805,	685,	685,	-47,	340,	-603,	944,
	266,	762,	779,	943,	743,	500,	-675,	-190,	590,
	-420,	388,	629,	931,	-285,	898,	-296,	-187,	408,
	721,	-127,	123,	-402,	-723,	193,	-723,	785,	-203,
	-230,	245,	44,	959,	-340,	-414,	18,	-179,	651,
	-444,	153,	-457,	-935,	657,	-572,	37,	444,	510,
	-38,	-557,	444,	870,	608,	783,	-847,	283,	651,
	-386,	-66,	388,	-39,	157,	432,	-311,	275,	-545,
	470,	-312,	997,	-515,	135,	945,	104,	-982,	-467,
	-66,	883,	-918,	-795,	-63,	706,	-123,	-868,	-802,
	-554,	-988,	-715,	854,	-917,	730,	-312,	694,	-344,
	5,	-642,	392,	-515,	-625,	-128,	-544,	-366,	545,
	-320,	-244,	-203,	-370,	120,	-537,	940,	-163,	807,
	-75,	-628,	-503,	-883,	-128,	211,	82,	717,	-597,
	671,	-68,	-314,	-338,	483,	-998,	723,	233,	-966,
	-124,	-916,	-651,	226,	-164,	-544,	552,	496,	897,
	-826,	-919,	898,	344,	-210,	-166,	-83,	-47,	-533,
	475,	378,	-472,	-556,	523,	601,	629,	554,	-52,
	780,	853,	-143,	24,	875,	-928,	-90,	258,	-923,
	-720,	-725,	-457,	323,	154,	-22,	438,	-426,	365,
	-343,	140,	-79,	659,	899,	-218,	273,	-941,	682,
	701,	120,	590,	101,	-266,	386,	30,	133,	833,
	-223,	557,	419,	500,	6,	-824,	652,	-70,	-96,
	-499,	-313,	-325,	-115,	-657,	-607,	88,	686,	729,
	-866,	525,	-861,	-179,	482,	702,	-139,	-132,	849,
	288,	-443,	569,	974,	80,	225,	201,	643,	-607,
	678,	-491,	49,	-753,	719,	358,	608,	-150,	-364,
	-839,	774,	577,	935,	-924,	-285,	-139,	292,	-496,
	-518,	-870,	52,	473,	911,	341,	571,	374,	206,
	-439,	-25,	-588,	815,	279,	-410,	-607,	385,	-412,
	574,	-803,	521,	634,	-500,	-330,	-264,	198,	187,
	509,	841,	244,	-290,	647,	-162,	-716,	-617,	378,
	-968,	-645,	754,	-208,	-119,	39,	-168,	-435,	-560,
	237,	474,	-327,	899,	108,	-609,	871,	-881,	-356,
	227,	364,	527,	-661,	7,	-25,	802,	-985,	200,
	-118,	562,	220,	-644,	-191,	371,	-881,	969,	525,
	664,	-224,	172,	917,	528,	-791,	-828,	233,	-171,
	-205,	933,	-221,	199,	860,	-378,	-707,	-276,	526,
	729,	381,	64,	-818,	371,	507,	371,	204,	-490,
	473,	765,	-63,	-974,	-827,	975,	391,	-906,	726,
	-455,	288,	-262,	-409,	-787,	-227,	-684,	930,	959,
	-12,	279,	183,	508,	60,	167,	-842,	-939,	646,
	-629,	820,	462,	956,	-984,	281,	-164,	-545,	-329,
	-123,	-451,	-764,	-895,	607,	-409,	-279,	822,	-223,
	490,	-173,	297,	595,	182,	-321,	131,	944,	48,
	944,	386,	-337,	313,	193,	851,	357,	-559,	-998,
	-580,	-509,	644,	-40,	-494,	670,	-784,	815,	474,
	-230,	450,	-499,	-726,	51,	716,	567,	-418,	-329,
	-650,	336,	-783,	-36,	-759,	218,	-627,	-66,	-161,
	414,	62,	959,	-467,	-647,	-991,	-957,	-307,	341,
	936,	912,	801,	806,	-463,	-590,	-479,	-608,	359,
	-887,	-278,	-557,	-553,	544,	995,	241,	727,	324,
	908,	625,	-973,	-177,	636,	-177,	-24,	169,	-437,
	-743,	-982,	-761,	-170,	-164,	-995,	761,	-560,	146,
	-205,	379,	768,	954,	-654,	-568,	-586,	-291,	902,
	-53,	750,	-410,	-252,	-931,	-152,	307,	-165,	301,
	-268,	752,	963,	-530,	-239,	224,	-767,	-171,	210,
	-421,	200,	603,	-589,	-866,	-802,	-676,	577,	-426,
	-927,	-482,	-319,	-846,	-156,	-415,	-207,	404,	-141,
	814,	300,	356,	-102,	-268,	-254,	-337,	575,	132,
	-66,	696,	986,	426,	601,	647,	-724,	-905,	-428,
	-484,	414,	-390,	-525,	452,	-7,	759,	-42,	461,
	450,	-321,	-357,	962,	-927,	188,	12,	-540,	-172,
	255,	632,	231,	-789,	185,	-684,	-969,	123,	-744,
	872,	-52,	610,	-510,	-324,	-217,	291,	966,	695,
	-745,	717,	565,	207,	-765,	567,	-877,	395,	-237,
	114,	876,	-978,	967,	-985,	-653,	-990,	436,	141,
	151,	309,	-432,	-368,	117,	-256,	22,	-934,	316,
	787,	-702,	-943,	476,	980,	-661,	400,	-365,	-253,
	-532,	-322,	-143,	986,	731,	-600,	793,	-579,	784,
	721,	894,	-227,	-804,	793,	669,	-724,	737,	622,
	-594,	-293,	-949,	-984,	33,	927,	402,	-420,	2,
	-307,	-321,	597,	171,	-174,	-429,	345,	-659,	-899,
	538,	-2,	-826,	-173,	376,	-629,	-391,	550,	389,
	-56,	613,	718,	-261,	-735,	-845,	462,	-185,	578,
	-60,	-207,	-193,	581,	334,	-594,	842,	-49,	393,
	-65,	830,	-704,	-478,	478,	-693,	100,	85,	844,
	-899,	703,	924,	699,	508,	-359,	-541,	-586,	-492,
	299,	373,	398,	84,	361,	619,	315,	327,	163,
	368,	-415,	288,	290,	875,	-781,	882,	177,	-555,
	149,	30,	399,	-713,	-995,	-809,	470,	-157,	424,
	879,	-996,	561,	417,	-475,	779,	-596,	719,	830,
	445,	400,	245,	-8,	-723,	310,	-335,	268,	-477,
	-168,	-331,	-747,	-384,	-746,	-191,	428,	620,	933,
	238,	841,	519,	301,	-145,	714,	13,	-364,	184,
	-635,	850,	-282,	151,	636,	13,	-632,	604,	-512,
	-918,	-475,	-942,	-19,	331,	582,	-462,	418,	533,
	133,	731,	-161,	673,	-645,	864,	188,	77,	-324,
	-380,	358,	7,	312,	-717,	533,	635,	-337,	692,
	163,	-506,	793,	125,	153,	13,	-628,	-629,	31,
	-680,	950,	-853,	-453,	862,	70,	-760,	592,	-819,
	224,	280,	651,	133,	747,	381,	391,	-26,	716,
	319,	-494,	426,	-524,	-490,	180,	-654,	-733,	-657,
	278,	-90,	875,	318,	-767,	-756,	-587,	-191,	-811,
	341,	56,	90,	-329,	-738,	892,	543,	-108,	-798,
	758,	569,	-643,	-522,	-74,	548,	-116,	244,	189,
	-341,	500,	721,	-742,	358,	143,	868,	144,	-618,
	-665,	841,	-54,	922,	716,	276,	423,	542,	632,
	-677,	-580,	-43,	-236,	-917,	634,	111,	185,	562,
	623,	591,	261,	940,	938,	933,	-631,	155,	-600,
	-482,	-934,	576,	-116,	-184,	453,	-161,	-105,	-146,
	771,	-905,	-999,	600,	-992,	820,	-730,	-150,	556,
	-792,	413,	736,	121,	-521,	-622,	261,	-689,	351,
	-897,	-391,	252,	31,	-561,	100,	-999,	84,	218,
	126,	927,	838,	-794,	-320,	339,	789,	399,	-93,
	789,	229,	636,	872,	569,	-626,	-428,	142,	600,
	-891,	-692,	460,	-852,	-540,	-338,	-211,	181,	505,
	-929,	-33,	429,	503,	-802,	-573,	347,	-905,	-85,
	-170,	948,	400,	-190,	-944,	-63,	551,	466,	-811,
	172,	-70,	-185,	-879,	-785,	311,	872,	229,	39,
	-907,	590,	67,	78,	-294,	-378,	163,	393,	-974,
	481,	-75,	-562,	-392,	-903,	-475,	-495,	-149,	643,
	-912,	-438,	-1,	874,	-909,	-903,	-478,	-161,	242,
	-172,	75,	115,	-31,	512,	683,	-838,	518,	-749,
	151,	-682,	603,	-86,	905,	-488,	899,	-651,	771,
	848,	-67,	-328,	-83,	-149,	-6,	-7,	713,	927,
	153,	-163,	726,	895,	342,	-771,	-948,	-967,	-399,
	485,	578,	219,	619,	-176,	-333,	-839,	-190,	700,
	-858,	907,	-45,	-248,	-855,	602,	766,	111,	500,
	29,	-935,	83,	3,	503,	-928,	71,	-823,	52,
	-435,	-75,	760,	880,	-165,	-927,	137,	794,	-207,
	444,	832,	-707,	226,	676,	261,	821,	983,	-260,
	857,	-36,	877,	-495,	907,	-306,	-420,	-110,	81,
	-438,	740,	-233,	759,	-435,	593,	-774,	196,	-142,
	-32,	-528,	767,	291,	-572,	614,	-522,	-605,	-425,
	-885,	543,	427,	615,	-368,	-830,	-213,	797,	-312,
	-845,	267,	-697,	732,	-620,	-834,	613,	-86,	656,
	103,	-473,	867,	696,	295,	307,	217,	-761,	-321,
	430,	-950,	348,	-573,	-596,	-932,	173,	-148,	-212,
	694,	-529,	-111,	-267,	670,	-667,	-103,	908,	-597,
	-111,	170,	-846,	963,	-380,	755,	320,	703,	440,
	-712,	169,	-123,	911,	817,	-540,	223,	-108,	-318,
	475,	522,	-353,	-538,	-298,	-123,	763,	875,	287,
	-664,	256,	-57,	838,	589,	-544,	-132,	-403,	-453,
	-436,	387,	70,	636,	992,	-880,	474,	926,	-961,
	597,	698,	-911,	70,	235,	200,	138,	986,	-340,
	-504,	985,	611,	658,	912,	-857,	-218,	420,	218,
	146,	888,	398,	395,	-69,	-463,	491,	-305,	422,
	-232,	-113,	-655,	533,	148,	-661,	775,	-653,	-602,
	-194,	704,	-556,	827,	342,	-775,	-74,	-403,	673,
	374,	-334,	351,	-405,	345,	965,	568,	-33,	-587,
	727,	-171,	971,	735,	-984,	-287,	369,	-381,	253,
	-921,	64,	785,	863,	32,	698,	-578,	212,	474,
	-444,	279,	-82,	989,	773,	151,	-603,	-598,	18,
	512,	945,	-87,	-511,	724,	818,	550,	-458,	952,
	-736,	511,	-500,	-100,	-389,	-63,	-464,	-584,	995,
	-437,	-149,	-886,	-533,	-457,	946,	-261,	915,	-859,
	742,	-445,	331,	-831,	70,	301,	673,	234,	507,
	-516,	-342,	-476,	-509,	252,	189,	-712,	-310,	164,
	858,	-563,	996,	-394,	833,	-393,	-547,	878,	114,
	495,	976,	634,	-196,	-49,	-768,	-282,	427,	669,
	-321,	495,	-970,	-408,	773,	500,	874,	-500,	78,
	-828,	636,	-993,	621,	129,	-415,	-599,	-778,	34,
	-106,	-518,	94,	-823,	-93,	-449,	-649,	782,	-210,
	511,	473,	-515,	45,	-98,	752,	-708,	-351,	-550,
	118,	191,	486,	617,	915,	-208,	-289,	852,	433,
	612,	-364,	317,	353,	531,	760,	532,	307,	-958,
	96,	447,	509,	-490,	-739,	506,	-211,	-849,	-727,
	-71,	-781,	465,	326,	376,	187,	98,	608,	-627,
	-380,	-950,	82,	719,	869,	-532,	193,	-414,	-908,
	272,	-683,	112,	87,	-682,	224,	63,	782,	-574,
	-456,	112,	30,	-94,	-229,	-799,	849,	-967,	-646,
	829,	722,	969,	363,	840,	-834,	-895,	344,	304,
	986,	467,	-974,	187,	-676,	-16,	-456,	-778,	619,
	271,	-315,	-458,	729,	-337,	309,	964,	-706,	-484,
	-247,	-558,	269,	-432,	868,	-253,	-16,	271,	-53,
	-186,	544,	846,	225,	157,	851,	-479,	647,	198,
	57,	484,	304,	-554,	-712,	979,	383,	-691,	-955,
	47,	-670,	-17,	-466,	968,	-882,	219,	634,	72,
	-868,	-348,	-1,	-500,	-424,	16,	-885,	248,	-390,
	-293,	-755,	-697,	98,	-906,	-458,	331,	438,	7,
	670,	808,	930,	895,	-777,	-299,	733,	155,	538,
	657,	-578,	-752,	-387,	968,	809,	948,	-226,	-129,
	-826,	174,	112,	-54,	395,	-823,	-587,	-337,	-71,
	890,	575,	508,	-735,	913,	640,	281,	442,	834,
	824,	917,	829,	225,	-584,	604,	531,	-859,	-336,
	450,	860,	-783,	985,	-612,	511,	984,	947,	525,
	298,	429,	758,	-651,	-482,	325,	-840,	-573,	180,
	698,	-591,	824,	685,	683,	-130,	-744,	499,	-584,
	542,	658,	-160,	291,	-729,	708,	757,	841,	-832,
	-370,	-620,	352,	438,	-905,	-276,	-544,	-646,	-288,
	123,	621,	-428,	374,	-319,	-236,	73,	-937,	-711,
	950,	61,	-1000,	679,	-341,	-235,	-716,	104,	-42,
	-788,	257,	-862,	89,	629,	-959,	330,	-111,	-214,
	-3,	-396,	-6,	-462,	129,	-181,	-808,	796,	255,
	743,	266,	-522,	351,	383,	853,	-230,	-944,	-355,
	0,	811,	838,	737,	-401,	939,	945,	877,	-636,
	476,	570,	2,	865,	-705,	-975,	-735,	319,	-277,
	11,	-95,	-492,	-735,	374,	172,	-460,	604,	423,
	-578,	-176,	-21,	107,	861,	-795,	803,	-914,	-151,
	-51,	-98,	-676,	195,	-123,	908,	512,	-93,	-253,
	-505,	704,	765,	-683,	240,	-218,	275,	230,	-608,
	37,	552,	717,	-521,	-592,	109,	134,	485,	438,
	749,	-27,	81,	15,	953,	-216,	-608,	633,	-892,
	378,	-146,	-985,	-291,	347,	195,	-813,	-212,	530,
	-75,	-251,	-973,	-334,	833,	333,	-121,	-251,	-941,
	-246,	-367,	648,	312,	-461,	-352,	774,	-315,	-797,
	-276,	830,	359,	-259,	-788,	-297,	614,	826,	-925,
	760,	-502,	-122,	-392,	-844,	-669,	-783,	-201,	-350,
	15,	549,	-103,	352,	425,	749,	603,	788,	601,
	-273,	-307,	-877,	-795,	895,	166,	-739,	40,	-743,
	-720,	-632,	156,	161,	362,	596,	867,	-35,	9,
	289,	179,	-638,	926,	-140,	-147,	973,	782,	-871,
	318,	-946,	-273,	123,	484,	-945,	786,	-964,	-342,
	923,	-243,	966,	213,	660,	-125,	779,	-707,	242,
	111,	929,	-387,	500,	-346,	396,	94,	87,	482,
	-896,	221,	-758,	-795,	-371,	793,	-335,	-6,	882,
	997,	-115,	-293,	512,	-997,	-398,	-395,	-444,	-57,
	597,	-62,	676,	-806,	669,	856,	978,	23,	935,
	-560,	468,	562,	471,	749,	-737,	-987,	-734,	-127,
	-53,	332,	269,	-717,	808,	-730,	-578,	725,	719,
	664,	-648,	763,	-312,	-572,	493,	-929,	-622,	970,
	-550,	108,	-449,	-851,	-688,	934,	640,	553,	-337,
	257,	444,	772,	-348,	-733,	456,	-333,	489,	611,
	-514,	193,	-968,	411,	876,	-194,	262,	519,	780,
	787,	575,	32,	-198,	813,	-426,	136,	-657,	221,
	163,	28,	-297,	-953,	-237,	731,	45,	-215,	-528,
	-138,	-582,	-578,	-103,	805,	-771,	726,	277,	-163,
	491,	194,	42,	-447,	748,	-891,	-269,	694,	245,
	500,	686,	236,	-431,	-969,	-121,	-183,	-143,	-115,
	118,	-833,	-687,	-14,	765,	421,	251,	369,	195,
	438,	698,	-811,	855,	-360,	-187,	-759,	299,	-910,
	895,	-494,	210,	416,	205,	-753,	-157,	476,	414,
	-743,	-469,	20,	156,	339,	-407,	-510,	-958,	-412,
	79,	-544,	513,	963,	794,	517,	-983,	-262,	-297,
	-253,	-751,	-35,	847,	762,	-768,	985,	845,	345,
	-742,	-126,	-975,	7,	766,	-403,	641,	-427,	460,
	281,	-615,	296,	828,	643,	-752,	259,	-911,	65,
	968,	-279,	766,	316,	820,	-654,	-801,	106,	638,
	575,	-592,	359,	-484,	-840,	-694,	633,	-112,	0,
	361,	389,	-152,	348,	490,	-782,	915,	-496,	-13,
	-724,	454,	209,	-513,	297,	968,	923,	-661,	-591,
	83,	-715,	-6,	-530,	-811,	945,	-239,	-962,	-816,
	-222,	170,	-365,	283,	64,	867,	-587,	526,	-982,
	-929,	-449,	-814,	-123,	987,	985,	99,	423,	704,
	-966,	757,	-328,	-570,	254,	-220,	923,	845,	864,
	-938,	-768,	285,	866,	-117,	-912,	316,	-484,	-755,
	-3,	270,	734,	-882,	-404,	297,	-203,	285,	349,
	836
};

