#include <include/weight.h>

__ro_hinv mat_t weight_meta = {
	.dims = {16, 6, 5, 5},
	.len_dims = 4,
	.strides = {150, 25, 5, 1},
	.data = (fixed *)weight
};

__ro_hinv _q15 weight[] = {
	-608,	-471,	306,	107,	-432,	529,	-752,	-596,	-154,
	197,	-338,	-610,	-943,	472,	496,	-19,	394,	65,
	725,	-64,	960,	-176,	259,	541,	149,	-217,	61,
	759,	-958,	281,	415,	690,	-589,	57,	481,	-369,
	-812,	-512,	-951,	-259,	-900,	-591,	194,	-722,	-147,
	-430,	-415,	772,	-806,	-723,	-278,	255,	149,	28,
	-833,	222,	-59,	-368,	-724,	-467,	-133,	652,	792,
	4,	-227,	696,	669,	-519,	53,	-851,	-89,	439,
	-888,	-761,	488,	699,	-89,	-942,	208,	-509,	410,
	-147,	684,	808,	-127,	-726,	82,	418,	-784,	218,
	-430,	10,	894,	67,	238,	715,	493,	832,	-986,
	-379,	-678,	-722,	316,	769,	-972,	815,	-641,	-395,
	-681,	354,	-842,	142,	439,	-397,	-787,	-478,	611,
	772,	-568,	543,	-573,	-822,	-188,	-252,	-466,	48,
	260,	638,	-539,	241,	-173,	-628,	656,	228,	-492,
	-284,	384,	-838,	621,	529,	253,	-486,	93,	-754,
	-215,	760,	192,	601,	-765,	72,	-443,	819,	172,
	-35,	-493,	-849,	-449,	212,	155,	-973,	724,	570,
	-73,	86,	335,	-487,	-45,	-7,	754,	-206,	360,
	177,	-586,	452,	89,	583,	966,	-603,	550,	829,
	944,	-96,	-799,	963,	47,	-827,	-892,	929,	679,
	246,	567,	570,	837,	-392,	-868,	-210,	830,	47,
	-936,	9,	-637,	-998,	749,	-239,	265,	-952,	-398,
	594,	9,	107,	57,	74,	-774,	-662,	-288,	-719,
	-929,	-725,	-574,	640,	717,	-56,	-11,	-617,	384,
	-339,	-639,	513,	153,	-769,	-31,	53,	-929,	106,
	-494,	597,	-718,	23,	-623,	839,	203,	-764,	628,
	-562,	-560,	668,	-699,	-16,	408,	-14,	557,	-303,
	-931,	-923,	-272,	-34,	312,	954,	48,	-551,	-80,
	343,	-770,	-330,	-43,	-899,	756,	843,	-747,	-754,
	-709,	602,	-347,	-7,	-351,	997,	-273,	-439,	-576,
	401,	-896,	-877,	367,	548,	-250,	-959,	982,	-888,
	93,	406,	774,	764,	-15,	285,	-632,	-313,	-708,
	-420,	888,	99,	782,	-524,	-818,	21,	-746,	587,
	-156,	-470,	-799,	770,	-561,	-447,	210,	686,	947,
	-937,	478,	586,	-699,	632,	564,	541,	993,	-615,
	960,	-37,	290,	990,	-312,	723,	639,	-765,	636,
	-948,	-56,	386,	403,	-852,	260,	-169,	-761,	915,
	-493,	351,	-88,	884,	-581,	867,	-81,	82,	-991,
	100,	-181,	891,	682,	924,	568,	-697,	773,	527,
	-820,	-701,	-283,	-631,	952,	479,	-856,	532,	-12,
	-932,	-671,	-678,	731,	63,	-115,	816,	-955,	-974,
	828,	-708,	741,	-858,	-180,	-891,	440,	-809,	-69,
	-673,	-872,	683,	-774,	-574,	-956,	-552,	-246,	216,
	989,	713,	-678,	202,	786,	-801,	-804,	-72,	471,
	-989,	-257,	674,	-2,	-709,	37,	168,	330,	473,
	575,	-807,	287,	-859,	773,	-895,	338,	854,	41,
	-621,	571,	-453,	-317,	940,	-383,	886,	238,	538,
	360,	-870,	-134,	706,	631,	-377,	188,	509,	808,
	95,	15,	-426,	-787,	-293,	-996,	245,	-904,	466,
	-666,	-614,	-674,	398,	52,	625,	-769,	421,	-616,
	-854,	887,	568,	224,	689,	513,	55,	-141,	435,
	127,	433,	650,	868,	497,	-470,	-490,	-708,	351,
	85,	-415,	16,	-776,	-432,	-33,	-308,	678,	227,
	-929,	993,	-457,	-531,	268,	506,	-438,	931,	583,
	-911,	871,	180,	-670,	471,	654,	-407,	62,	-472,
	630,	770,	807,	-859,	108,	303,	679,	-295,	-852,
	-567,	-853,	545,	112,	449,	616,	-185,	-555,	33,
	-72,	-748,	-789,	142,	36,	-493,	-637,	112,	577,
	641,	51,	426,	-207,	-887,	-509,	366,	-260,	-503,
	-257,	727,	790,	450,	298,	617,	71,	487,	-312,
	-693,	-623,	62,	-550,	-487,	185,	-320,	871,	746,
	-670,	911,	989,	-306,	-372,	-556,	58,	941,	-469,
	-615,	602,	632,	-973,	418,	-192,	634,	-101,	-848,
	-721,	-709,	-458,	-142,	759,	-773,	667,	-480,	-462,
	-610,	503,	-138,	-402,	-262,	188,	-972,	462,	-468,
	889,	-421,	55,	-940,	27,	237,	-270,	-571,	587,
	373,	-368,	-952,	573,	429,	-130,	324,	-443,	-36,
	344,	-278,	-970,	236,	-934,	761,	-135,	-707,	184,
	915,	163,	-921,	445,	616,	586,	-860,	-549,	-290,
	970,	509,	617,	860,	-229,	-372,	308,	-662,	186,
	587,	-162,	-530,	691,	710,	-720,	347,	-353,	774,
	574,	617,	-427,	475,	160,	774,	-869,	-309,	-684,
	-35,	-370,	-735,	-994,	833,	-580,	-423,	-494,	-628,
	-103,	-796,	-834,	-176,	527,	-810,	26,	-636,	618,
	-930,	-225,	-874,	450,	-989,	-18,	-162,	-452,	-850,
	971,	66,	87,	-883,	-880,	435,	-226,	990,	484,
	-469,	-908,	369,	314,	-12,	-204,	20,	-341,	252,
	886,	-706,	-989,	567,	133,	495,	531,	-90,	841,
	-457,	-5,	-356,	911,	461,	-372,	-832,	64,	216,
	-4,	934,	339,	73,	-134,	-459,	-949,	108,	-572,
	645,	39,	550,	-649,	11,	814,	50,	53,	923,
	108,	413,	533,	-575,	219,	-733,	-859,	537,	-196,
	-748,	-266,	-522,	971,	140,	-982,	-81,	46,	-58,
	785,	-177,	678,	404,	-332,	906,	-74,	-790,	737,
	-570,	532,	-177,	373,	212,	317,	829,	382,	-573,
	707,	730,	436,	-507,	-290,	530,	633,	-312,	465,
	899,	800,	-548,	657,	-545,	998,	-102,	-727,	380,
	174,	-221,	930,	744,	-171,	895,	77,	-235,	405,
	-382,	215,	741,	735,	-353,	-756,	-453,	-844,	612,
	-181,	-206,	-940,	-844,	-450,	137,	-801,	-53,	665,
	-663,	-949,	599,	-907,	995,	-299,	838,	876,	-809,
	-903,	527,	582,	367,	-449,	-582,	-931,	511,	-250,
	404,	-470,	-324,	819,	-145,	-225,	-102,	-101,	-982,
	-750,	411,	388,	-524,	-819,	984,	-513,	-720,	-374,
	254,	-391,	3,	-149,	750,	-255,	611,	-747,	-291,
	-147,	985,	-370,	-723,	-935,	-809,	234,	-268,	205,
	84,	-91,	-736,	42,	-955,	98,	-553,	-871,	982,
	-812,	788,	124,	-245,	-929,	422,	332,	-154,	151,
	-193,	611,	-763,	-677,	-963,	928,	57,	803,	-375,
	517,	-148,	-731,	632,	-902,	527,	676,	298,	788,
	-752,	388,	838,	-657,	673,	684,	-59,	427,	-631,
	-981,	-705,	-81,	711,	-402,	128,	-310,	686,	-970,
	399,	-141,	872,	-538,	723,	853,	-674,	-547,	99,
	389,	736,	-418,	-426,	597,	464,	-369,	205,	-264,
	483,	-811,	917,	912,	-247,	-776,	531,	-114,	-486,
	-32,	-466,	498,	-495,	-456,	-293,	68,	-146,	-221,
	420,	-748,	-149,	-349,	-235,	627,	-160,	633,	-669,
	552,	463,	593,	-464,	919,	-923,	-312,	-249,	-661,
	-844,	260,	-573,	527,	-907,	946,	948,	-398,	423,
	-11,	-672,	748,	689,	622,	-889,	395,	-563,	-562,
	-984,	909,	774,	-206,	-575,	910,	-121,	464,	681,
	928,	126,	781,	207,	-955,	361,	308,	888,	69,
	433,	483,	-190,	555,	-797,	-506,	357,	639,	-568,
	-784,	969,	870,	-452,	-267,	509,	629,	335,	-886,
	-344,	-568,	797,	-141,	400,	100,	-243,	67,	2,
	931,	-522,	151,	892,	761,	760,	49,	91,	149,
	-611,	698,	-859,	-844,	914,	-604,	-166,	863,	796,
	-317,	-823,	721,	-975,	683,	-293,	-37,	5,	114,
	741,	-382,	-705,	-290,	785,	650,	-291,	-372,	-224,
	390,	350,	-242,	72,	-284,	-268,	27,	94,	689,
	-155,	-265,	449,	-735,	261,	-437,	-61,	-815,	77,
	545,	619,	314,	-49,	507,	-249,	88,	-198,	-679,
	-159,	334,	-340,	500,	259,	414,	-402,	187,	696,
	636,	-357,	-908,	736,	-622,	38,	-43,	-345,	-957,
	51,	-220,	-590,	619,	-672,	-238,	825,	-822,	929,
	-154,	-406,	-854,	380,	43,	279,	-304,	-102,	269,
	-135,	-733,	443,	67,	-432,	-825,	-695,	-778,	630,
	149,	-176,	-63,	44,	-56,	996,	-70,	622,	-989,
	335,	-688,	53,	-145,	895,	387,	-52,	412,	795,
	574,	-749,	391,	-882,	-264,	371,	-306,	768,	-76,
	885,	-361,	-275,	911,	575,	959,	417,	-681,	-377,
	-352,	279,	-814,	-983,	-762,	-218,	637,	-551,	-673,
	718,	-710,	901,	-506,	-953,	-957,	-366,	104,	-390,
	-743,	-194,	-863,	9,	-286,	768,	375,	739,	813,
	876,	404,	-461,	797,	-930,	498,	545,	-133,	-776,
	868,	-25,	-108,	327,	-378,	67,	-740,	-703,	-794,
	712,	-259,	450,	229,	536,	-221,	41,	818,	-739,
	268,	399,	-123,	744,	85,	657,	-394,	346,	907,
	461,	836,	-806,	436,	-76,	877,	-650,	895,	-177,
	-145,	-427,	688,	663,	-808,	805,	476,	-621,	762,
	732,	-326,	563,	84,	305,	448,	-333,	218,	16,
	963,	124,	-477,	844,	154,	-866,	-325,	258,	237,
	971,	-848,	-624,	-163,	97,	499,	-991,	433,	-414,
	-361,	-145,	-959,	-89,	-844,	502,	-850,	-968,	607,
	-384,	-438,	846,	72,	-776,	498,	868,	915,	-684,
	704,	206,	-356,	629,	49,	802,	-106,	949,	751,
	86,	-636,	166,	19,	447,	-601,	390,	432,	713,
	625,	463,	-900,	675,	125,	-544,	-713,	-486,	-441,
	668,	-66,	436,	-564,	-316,	-816,	879,	-926,	189,
	799,	-811,	160,	-54,	-466,	-298,	-890,	-160,	-481,
	-617,	-170,	894,	952,	-832,	-38,	-101,	596,	671,
	91,	-293,	-42,	338,	627,	740,	-699,	404,	168,
	493,	915,	585,	207,	567,	-213,	-977,	-81,	975,
	-567,	-667,	654,	-127,	-686,	-466,	133,	-22,	-823,
	-814,	-358,	-671,	-759,	114,	-478,	907,	684,	900,
	-639,	-65,	941,	860,	-695,	-418,	-177,	-879,	-846,
	333,	566,	654,	-644,	46,	-658,	-759,	678,	552,
	-35,	901,	-446,	-544,	-739,	459,	-77,	767,	-349,
	-958,	-11,	-98,	-705,	-820,	327,	968,	149,	887,
	-784,	495,	495,	-739,	-220,	-438,	11,	-621,	-136,
	970,	-715,	748,	819,	764,	-129,	-331,	-743,	-521,
	541,	-61,	-265,	786,	-231,	-387,	-210,	229,	-44,
	-607,	52,	-737,	-818,	-11,	-960,	618,	45,	-787,
	805,	911,	-231,	999,	606,	210,	-397,	-276,	635,
	324,	544,	-432,	845,	-113,	159,	-618,	-462,	414,
	101,	-682,	-705,	401,	-530,	-141,	-951,	871,	516,
	305,	-809,	-874,	836,	688,	429,	-721,	-970,	392,
	3,	-883,	-987,	-816,	588,	936,	607,	-806,	283,
	431,	-32,	649,	832,	29,	-580,	-293,	916,	-785,
	672,	-640,	416,	440,	690,	-701,	-594,	107,	267,
	-291,	203,	-226,	-805,	-153,	-426,	345,	184,	-236,
	-775,	-706,	-560,	375,	549,	175,	803,	-824,	755,
	-253,	653,	681,	-818,	451,	897,	71,	793,	785,
	-26,	-812,	-649,	249,	546,	936,	-917,	56,	748,
	-137,	826,	-18,	295,	29,	-916,	233,	140,	-317,
	-707,	469,	-788,	-535,	-381,	-189,	961,	921,	534,
	621,	-58,	-47,	-319,	473,	489,	396,	357,	-529,
	70,	739,	35,	709,	-509,	-685,	304,	-972,	-521,
	24,	726,	-651,	943,	-743,	46,	418,	724,	560,
	777,	17,	-941,	-110,	778,	-753,	-766,	571,	699,
	-326,	805,	532,	-504,	762,	-788,	0,	512,	-666,
	16,	549,	-321,	-614,	978,	-727,	-356,	-835,	324,
	304,	-332,	-353,	873,	829,	-591,	1,	-701,	472,
	-249,	-973,	-676,	-410,	616,	-711,	83,	-683,	474,
	-650,	-917,	119,	219,	427,	-559,	-229,	-184,	-564,
	-316,	260,	512,	72,	524,	-815,	-399,	-872,	87,
	148,	935,	514,	-342,	-691,	669,	-270,	-753,	39,
	-928,	-442,	634,	561,	-161,	-926,	434,	-985,	-786,
	-950,	-392,	-904,	198,	-498,	-210,	345,	730,	428,
	834,	-804,	-980,	367,	360,	-983,	188,	769,	-743,
	464,	75,	-853,	-229,	64,	-571,	-112,	-171,	-156,
	-905,	-93,	-131,	-248,	-268,	822,	-97,	-873,	329,
	-790,	391,	45,	-116,	819,	842,	-581,	-567,	82,
	-613,	-457,	35,	126,	386,	178,	-715,	-127,	-663,
	200,	128,	336,	969,	99,	890,	-342,	606,	-857,
	602,	-231,	117,	-340,	540,	240,	552,	-655,	-934,
	895,	-686,	-792,	276,	-658,	-207,	328,	146,	-450,
	-653,	695,	-113,	-154,	-913,	354,	62,	-405,	947,
	42,	-219,	373,	-214,	-757,	952,	902,	927,	-96,
	536,	-179,	-999,	906,	346,	-386,	996,	-698,	689,
	-234,	997,	0,	334,	-185,	810,	-995,	872,	-982,
	104,	-97,	-9,	386,	-384,	-666,	256,	-44,	-13,
	257,	479,	-787,	26,	-409,	-965,	-259,	561,	979,
	-480,	-259,	428,	941,	-386,	-792,	-8,	-308,	-41,
	282,	115,	182,	189,	-710,	78,	626,	699,	-7,
	-277,	-343,	-764,	-964,	-355,	731,	245,	997,	641,
	418,	732,	778,	-137,	448,	-751,	-569,	-13,	663,
	-226,	362,	-322,	-989,	498,	-451,	246,	753,	914,
	-377,	697,	923,	-89,	-435,	992,	733,	97,	782,
	187,	-118,	915,	-529,	-218,	787,	758,	386,	-440,
	-975,	-870,	-608,	786,	-39,	291,	403,	54,	-452,
	528,	21,	-969,	-638,	689,	-179,	-273,	462,	-934,
	562,	253,	-356,	514,	168,	593,	506,	937,	380,
	-844,	-554,	475,	-244,	-767,	196,	286,	-390,	520,
	863,	-293,	-154,	868,	-217,	871,	-375,	906,	857,
	651,	-224,	24,	873,	986,	476,	-815,	392,	-622,
	-129,	78,	774,	703,	986,	-990,	142,	-407,	485,
	-536,	248,	51,	-592,	36,	630,	-777,	395,	-406,
	35,	-489,	-695,	678,	136,	-319,	-790,	-565,	-850,
	-551,	666,	534,	-753,	-663,	-765,	-351,	-506,	-750,
	-634,	-750,	-190,	-365,	134,	321,	802,	-829,	776,
	-965,	188,	-707,	-530,	130,	439,	-495,	805,	946,
	-34,	-518,	453,	-989,	842,	-267,	36,	-489,	187,
	490,	-813,	-913,	524,	728,	-136,	-314,	-577,	-86,
	888,	942,	724,	-595,	-207,	250,	602,	-497,	563,
	795,	-535,	-10,	377,	983,	98,	183,	-744,	-478,
	-520,	-2,	-474,	-321,	-583,	4,	689,	-930,	318,
	474,	158,	-297,	686,	-775,	473,	-306,	144,	370,
	949,	108,	717,	-415,	-645,	-483,	-939,	654,	-138,
	376,	-214,	-523,	346,	42,	-157,	298,	49,	104,
	-385,	-782,	864,	-393,	250,	576,	-57,	-81,	-301,
	777,	565,	78,	-155,	-560,	-161,	-835,	-393,	-28,
	-72,	895,	-682,	-849,	428,	76,	-512,	292,	-285,
	-276,	417,	507,	-931,	-934,	-259,	-852,	460,	953,
	-266,	-23,	-613,	423,	-800,	-573,	302,	595,	-436,
	-54,	596,	287,	-757,	971,	-538,	671,	-50,	640,
	218,	-450,	-682,	-165,	-883,	371,	586,	-785,	301,
	897,	-427,	-161,	-202,	205,	-903,	-220,	334,	743,
	358,	-783,	-307,	818,	-268,	-793,	-291,	-398,	-541,
	829,	-697,	806,	-709,	222,	273,	-349,	376,	-82,
	-473,	995,	464,	555,	-113,	612,	22,	455,	-30,
	860,	-175,	-993,	612,	943,	-199,	0,	137,	-513,
	190,	810,	836,	-422,	-39,	939,	-768,	-473,	-954,
	-339,	533,	-560,	-696,	-381,	-755,	559,	975,	566,
	328,	709,	-973,	519,	-577,	-676,	400,	202,	135,
	99,	-947,	-543,	-177,	-821,	-496,	-606,	-357,	-239,
	921,	435,	-692,	344,	604,	672,	48,	832,	-439,
	-923,	977,	855,	-698,	983,	826,	968,	-870,	-754,
	12,	470,	639,	-368,	-631,	-709,	-88,	8,	-313,
	-708,	-291,	-367,	696,	-304,	308,	859,	-502,	110,
	-598,	-273,	290,	-184,	-397,	-669,	434,	794,	509,
	-372,	449,	-650,	362,	544,	-706,	43,	725,	861,
	465,	233,	-122,	-434,	17,	-917,	-490,	-249,	969,
	-501,	100,	491,	385,	-313,	-248,	484,	-30,	965,
	527,	210,	924,	-422,	-321,	-763,	-781,	-656,	95,
	-460,	-207,	997,	-100,	-893,	-311,	201,	804,	745,
	-61,	79,	-293,	-60,	-807,	860,	-948,	-291,	-807,
	-768,	968,	270,	-541,	-973,	767,	328,	-398,	-148,
	20,	-223,	922,	-501,	-710,	640,	331,	423,	-242,
	450,	-877,	723,	-927,	-181,	672,	-92,	99,	891,
	-764,	-240,	267,	137,	-135,	820,	-460,	-91,	-366,
	945,	101,	-354,	-433,	-539,	762,	563,	-839,	133,
	147,	521,	892,	316,	406,	-654,	-628,	98,	-862,
	930,	761,	-650,	-534,	874,	-498,	461,	955,	-963,
	-58,	-836,	169,	-21,	297,	-392,	755,	-941,	-166,
	150,	204,	314,	-474,	518,	389
};

